{"weight_ih": {"shape": [28, 1], "values": [0.10961329936981201, -0.24743515253067017, 0.04857942461967468, 0.07161852717399597, -0.18264687061309814, 0.10476493835449219, -0.24616895616054535, -0.22154948115348816, -0.29112476110458374, -0.25514712929725647, -0.34571900963783264, 0.29300233721733093, -0.12535101175308228, 0.3167789876461029, -0.2795231342315674, 0.205257385969162, -0.25513964891433716, -0.24683953821659088, 0.08710634708404541, 0.12085092067718506, 0.0472884476184845, -0.13762162625789642, 0.059217631816864014, -0.12169656157493591, 0.17682018876075745, 0.1815849244594574, 0.2601539194583893, -0.2078433632850647]}, "weight_hh": {"shape": [28, 7], "values": [-0.27731573581695557, 0.3409474790096283, -0.12622562050819397, 0.3636382520198822, -0.352787584066391, -0.15187925100326538, -0.37360453605651855, 0.16248175501823425, 0.17457208037376404, -0.26579010486602783, 0.17902347445487976, 0.3317045271396637, -0.15745531022548676, 0.19709613919258118, -0.07955309748649597, 0.1316533386707306, 0.011856764554977417, 0.22486612200737, 0.19796881079673767, -0.016382813453674316, 0.03443092107772827, 0.2455255687236786, -0.35113489627838135, -0.28489038348197937, -0.05135321617126465, 0.23383161425590515, 0.13334783911705017, -0.1825219839811325, 0.1658811867237091, -0.3576825261116028, -0.07289022207260132, 0.10821324586868286, 0.13408491015434265, -0.06818023324012756, 0.33927997946739197, -0.3551344573497772, -0.19721561670303345, -0.1152709424495697, 0.20035943388938904, -0.07252702116966248, -0.13207657635211945, -0.03381112217903137, 0.033713072538375854, 0.2803092896938324, -0.083889901638031, -0.032336294651031494, 0.15450415015220642, 0.0720612108707428, -0.23390686511993408, 0.24571570754051208, 0.17810842394828796, -0.08113107085227966, -0.16293363273143768, -0.3031947910785675, 0.14315202832221985, 0.28518053889274597, 0.24011197686195374, 0.008972883224487305, 0.22330668568611145, 0.2957604229450226, -0.1932285726070404, 0.029705017805099487, 0.0896291732788086, -0.17974494397640228, 0.237606018781662, 0.06843563914299011, -0.018439114093780518, -0.23185700178146362, 0.24346765875816345, -0.09808585047721863, -0.09247294068336487, 0.14341911673545837, 0.33178427815437317, -0.337302565574646, 0.000499725341796875, -0.03162524104118347, 0.30121108889579773, 0.02992299199104309, 0.301506906747818, 0.15912148356437683, -0.3742867410182953, 0.12160179018974304, 0.10679033398628235, 0.19404646754264832, -0.27017444372177124, 0.00814831256866455, -0.1527307778596878, 0.08049023151397705, -0.2650871276855469, 0.3259967267513275, 0.030405908823013306, 0.08735090494155884, 0.07960900664329529, -0.14200079441070557, -0.1861438751220703, -0.14220274984836578, -0.31447821855545044, -0.14584505558013916, -0.10315078496932983, -0.007912307977676392, -0.3238042891025543, -0.341011643409729, -0.020359814167022705, -0.22664955258369446, 0.31707116961479187, -0.031764596700668335, -0.2083284854888916, 0.18052145838737488, -0.18017920851707458, -0.33780351281166077, -0.34778666496276855, 0.12808743119239807, -0.316390722990036, -0.19893844425678253, -0.24787305295467377, -0.3547053933143616, 0.3351130187511444, 0.1445116102695465, -0.2611193358898163, -0.2616046071052551, 0.3213678300380707, -0.1013147234916687, -0.0756324827671051, -0.26442041993141174, -0.13790476322174072, -0.09186512231826782, 0.3387415111064911, -0.33347079157829285, -0.10215538740158081, -0.08597567677497864, -0.3754963278770447, 0.172090083360672, 0.019784152507781982, -0.24311329424381256, -0.36587998270988464, 0.2368643581867218, -0.22033411264419556, 0.13025525212287903, -0.3008286654949188, 0.19402948021888733, -0.07778608798980713, -0.2830832898616791, -0.0026537179946899414, -0.11099666357040405, 0.029582887887954712, 0.20848187804222107, -0.20517247915267944, 0.2595798671245575, 0.18027755618095398, -0.12400549650192261, -0.006064713001251221, -0.026832133531570435, 0.10885453224182129, 0.20360848307609558, 0.001251310110092163, -0.09595289826393127, 0.3661929666996002, -0.34688690304756165, -0.2837793231010437, 0.13313600420951843, -0.10288634896278381, 0.23307815194129944, -0.006933629512786865, -0.3658836781978607, -0.09326326847076416, 0.06577306985855103, 0.28248319029808044, 0.08591407537460327, -0.23489001393318176, -0.30269742012023926, -0.18815669417381287, 0.2514776289463043, -0.2931079864501953, 0.19793203473091125, 0.1769329011440277, 0.268819659948349, 0.18949595093727112, 0.28358277678489685, -0.07852864265441895, 0.08243885636329651, 0.12459936738014221, -0.1455460488796234, 0.024363279342651367, 0.2978193461894989, 0.11575013399124146, -0.058907508850097656, -0.32946014404296875, 0.0808437168598175, -0.08294185996055603, -0.10351771116256714, -0.3159726858139038, 0.12369927763938904, -0.09950363636016846, 0.03588211536407471, 0.0322803258895874, 0.04644671082496643]}, "bias_ih": {"shape": [28], "values": [0.05223456025123596, 0.22579732537269592, -0.3101620674133301, 0.21881428360939026, 0.16789725422859192, 0.007807910442352295, -0.2600023150444031, -0.01817995309829712, 0.2986461818218231, -0.12236443161964417, 0.04946574568748474, -0.27416130900382996, 0.2913047969341278, 0.3449581563472748, -0.24221576750278473, 0.12222221493721008, 0.305928498506546, 0.1279946267604828, -0.2565075755119324, -0.1969607174396515, 0.3589605391025543, -0.2321937084197998, 0.11825019121170044, 0.09184780716896057, 0.2298920452594757, 0.09974437952041626, 0.3275465667247772, 0.03972885012626648]}, "bias_hh": {"shape": [28], "values": [0.3310448229312897, -0.1630719155073166, 0.21287819743156433, 0.041080594062805176, 0.3344164192676544, -0.01658579707145691, 0.08809727430343628, -0.013980865478515625, -0.307844877243042, -0.2545844316482544, 0.13005992770195007, -0.05424073338508606, 0.25828543305397034, -0.2957112193107605, 0.05669403076171875, 0.16280660033226013, -0.09719035029411316, -0.22364147007465363, 0.1681157648563385, -0.1490318328142166, 0.19280877709388733, -0.25150734186172485, -0.1406768411397934, -0.2979964017868042, 0.06524813175201416, -0.11666560173034668, 0.2719777524471283, -0.04228457808494568]}}