{"weight": {"shape": [11, 7, 3], "values": [0.05280812084674835, -0.10257435590028763, 0.19112814962863922, -0.13028749823570251, -0.12542402744293213, -0.17091746628284454, -0.12299175560474396, -0.1324981451034546, 0.1264081448316574, -0.1117117628455162, -0.07397380471229553, -0.09811445325613022, 0.03920002281665802, 0.023776844143867493, 0.12757010757923126, 0.21409161388874054, 0.1765754073858261, -0.1495566964149475, -0.18844804167747498, -0.20244038105010986, -0.17474661767482758, -0.12868693470954895, 0.1380045861005783, 0.020637989044189453, 0.0631646066904068, -0.07324470579624176, -0.13318106532096863, 0.03970159590244293, 0.11477126181125641, -0.19024814665317535, 0.20453481376171112, -0.20773237943649292, 0.0704910010099411, -0.21449653804302216, -0.169242262840271, -0.14279398322105408, 0.05780063569545746, 0.0914616733789444, 0.21231968700885773, -0.14815253019332886, -0.06626163423061371, -0.09505411237478256, -0.009663581848144531, -0.16478754580020905, 0.11548297107219696, 0.024156183004379272, 0.041278496384620667, 0.2087521106004715, -0.11139851063489914, 0.17068378627300262, -0.18092916905879974, -0.0675605982542038, -0.0927385687828064, -0.20584312081336975, -0.1758134961128235, 0.035099491477012634, -0.1771664023399353, 0.10079614818096161, -0.08759218454360962, -0.01496395468711853, 0.07093833386898041, 0.17353515326976776, -0.007688835263252258, -0.128867506980896, -0.04810713231563568, -0.024832844734191895, 0.09505720436573029, -0.21310408413410187, 0.01447458565235138, -0.10522368550300598, -0.07452714443206787, -0.018515855073928833, -0.07868775725364685, -0.11641231924295425, -0.15919771790504456, -0.18028578162193298, -0.04641513526439667, -0.07163804769515991, -0.05395691096782684, -0.051339343190193176, -0.08307911455631256, 0.023132026195526123, 0.040676578879356384, -0.15104341506958008, 0.20583520829677582, 0.21551336348056793, 0.04189138114452362, -0.015763461589813232, 0.0451456755399704, 0.18114565312862396, 0.017771705985069275, -0.030340969562530518, -0.04679591953754425, -0.11366785317659378, -0.1952880471944809, -0.028208911418914795, -0.07841832935810089, -0.013888686895370483, -0.15632940828800201, -0.012454688549041748, 0.13249216973781586, -0.1939893513917923, 0.11986909806728363, 0.21756379306316376, 0.003936484456062317, 0.1688966602087021, -0.18298247456550598, 0.12024186551570892, 0.16250060498714447, -0.20408381521701813, 0.006843551993370056, -0.10575404763221741, 0.10736747086048126, -0.05772019922733307, 0.18542207777500153, 0.16574712097644806, 0.09235863387584686, -0.17280837893486023, 0.09201182425022125, 0.1698799878358841, 0.11959673464298248, 0.12445031106472015, 0.02345484495162964, -0.11459607630968094, -0.21693581342697144, 0.019799083471298218, -0.12184952199459076, -0.20290467143058777, 0.19318942725658417, 0.07034848630428314, 0.05613245069980621, 0.09151847660541534, -0.19724500179290771, 0.10160408914089203, -0.18247833847999573, 0.11473484337329865, 0.14755375683307648, 0.019009754061698914, -0.1654130220413208, -0.08392596244812012, 0.12126953899860382, -0.13407419621944427, 0.11906595528125763, -0.009438559412956238, 0.0745142251253128, -0.15937335789203644, -0.09010042250156403, -0.1991443783044815, -0.1912284940481186, -0.11524204164743423, -0.054545655846595764, 0.09198237955570221, -0.10599330067634583, -0.015049174427986145, 0.05469335615634918, 0.1537659615278244, 0.08915220201015472, 0.14864058792591095, 0.03827457129955292, 0.08226411044597626, 0.16392798721790314, 0.06963081657886505, 0.0341486781835556, -0.026147261261940002, -0.17440123856067657, 0.20575346052646637, 0.0902053564786911, -0.202763170003891, 0.06217087805271149, 0.19905684888362885, -0.12560778856277466, 0.09239022433757782, 0.12994490563869476, 0.21155042946338654, -0.050783976912498474, 0.0916001945734024, 0.1914011389017105, 0.18929021060466766, 0.1237419992685318, -0.08548805117607117, -0.1642238348722458, 0.11654679477214813, -0.1582227498292923, 0.14572970569133759, 0.013545095920562744, 0.0030027180910110474, -0.05759187042713165, -0.16997189819812775, 0.14027823507785797, -0.20807194709777832, -0.13863037526607513, -0.08082889020442963, 0.008756458759307861, 0.18050281703472137, -0.0010546445846557617, 0.15965862572193146, 0.15359263122081757, 0.17512203752994537, 0.02689749002456665, -0.05504165589809418, -0.12702706456184387, -0.15746399760246277, -0.1254071444272995, -0.12379369884729385, -0.02836298942565918, 0.09466095268726349, 0.12995536625385284, 0.1772657185792923, -0.17823410034179688, 0.20308898389339447, 0.08978427946567535, 0.15312053263187408, 0.03135557472705841, -0.017975300550460815, 0.003437027335166931, -0.21565477550029755, -0.015395626425743103, 0.17716272175312042, 0.1603994518518448, 0.1692601889371872, -0.07313469052314758, 0.18735666573047638, -0.17876046895980835, 0.17839638888835907, 0.0310794860124588, -0.010006546974182129, -0.068086639046669, -0.01936347782611847, -0.20746053755283356, -0.028441742062568665, 0.14766927063465118]}, "bias": {"shape": [11], "values": [0.20201922953128815, 0.10129852592945099, 0.13291631639003754, -0.16181117296218872, -0.18484744429588318, -0.15015748143196106, 0.09147302806377411, -0.07216683030128479, 0.12213380634784698, -0.11724288016557693, 0.19696219265460968]}}