{"weight": {"shape": [11, 7, 3], "values": [0.21295954287052155, 0.16514597833156586, 0.03055693209171295, 0.09803183376789093, 0.031004205346107483, 0.1053519994020462, 0.20022432506084442, 0.13151691854000092, -0.1847856044769287, 0.05273215472698212, -0.015518978238105774, 0.19466976821422577, 0.008030861616134644, 0.11785681545734406, 0.024958670139312744, 0.007270649075508118, 0.21374769508838654, -0.13771019876003265, 0.07242725789546967, 0.01542845368385315, -0.07716459035873413, -0.14190420508384705, 0.06210140883922577, -0.10291864722967148, 0.202993705868721, -0.20483678579330444, -0.032541707158088684, -0.12818008661270142, -0.1894681304693222, 0.013262689113616943, -0.15057846903800964, 0.13282062113285065, -0.15451759099960327, -0.025612547993659973, -0.021694406867027283, -0.11755597591400146, 0.11047427356243134, -0.19168217480182648, -0.21525606513023376, 0.005764409899711609, 0.15077634155750275, -0.16149820387363434, 0.185958132147789, 0.02429826557636261, 0.16969214379787445, -0.05919019877910614, -0.16439466178417206, -0.142333984375, -0.078163743019104, -0.1942119002342224, -0.13024696707725525, -0.11106342822313309, 0.059829846024513245, -0.0922313779592514, -0.021788284182548523, -0.10160592198371887, 0.1643410176038742, -0.19852471351623535, 0.08977450430393219, 0.11039115488529205, 0.11370925605297089, -0.1640632152557373, -0.17088128626346588, 0.09555359184741974, -0.19846639037132263, -0.1660827398300171, -0.2144795060157776, 0.03336070477962494, 0.12221468985080719, 0.1330268532037735, -0.015791401267051697, -0.12333422154188156, -0.09496142715215683, -0.0038870275020599365, 0.15281496942043304, 0.21071968972682953, -0.14122223854064941, 0.0643526166677475, -0.122833251953125, -0.11990776658058167, -0.10550697147846222, -0.11524464190006256, -0.10090134292840958, 0.05383090674877167, -0.014003589749336243, -0.02126944065093994, 0.04450826346874237, 0.18305526673793793, 0.11154164373874664, 0.044098809361457825, 0.20451916754245758, 0.11682920157909393, 0.08010740578174591, -0.02162487804889679, -0.009273350238800049, -0.0811680257320404, 0.1411227434873581, 0.046829625964164734, 0.02022053301334381, -0.18714183568954468, -0.1942935287952423, 0.1272963434457779, -0.0761798620223999, -0.006495341658592224, -0.15526142716407776, 0.051507845520973206, -0.0496864914894104, 0.19038142263889313, -0.2098507434129715, 0.013789936900138855, 0.025801435112953186, 0.1926698237657547, -0.11828290671110153, 0.08287949860095978, -0.19901739060878754, 0.06714071333408356, 0.07747556269168854, 0.07125167548656464, 0.07404260337352753, -0.20476357638835907, 0.16797836124897003, 0.05790583789348602, 0.01171061396598816, 0.14918284118175507, -0.14727579057216644, 0.03352631628513336, -0.15240994095802307, 0.1501208394765854, -0.19308896362781525, 0.19350971281528473, 0.06853874027729034, 0.006578922271728516, 0.05308200418949127, -0.1747535914182663, 0.18249280750751495, 0.17026503384113312, 0.14840777218341827, -0.14235877990722656, -0.08467462658882141, -0.1571977138519287, 0.18865029513835907, 0.035274818539619446, 0.0428781658411026, 0.10042648017406464, -0.17439405620098114, -0.063997283577919, 0.19754169881343842, -0.16219916939735413, -0.11394412070512772, 0.04902775585651398, -0.1433236300945282, 0.21088625490665436, -0.10677589476108551, -0.008826211094856262, 0.0889359563589096, -0.17951972782611847, 0.19956903159618378, 0.1686294823884964, -0.028652340173721313, 0.04927365481853485, -0.021134600043296814, 0.044233545660972595, -0.047469064593315125, 0.16427625715732574, -0.1192932203412056, -0.019586503505706787, -0.05453069508075714, 0.189878448843956, 0.14004625380039215, 0.215595081448555, -0.17441803216934204, 0.19502492249011993, -0.21429772675037384, -0.19918355345726013, 0.0759812742471695, 0.05750091373920441, 0.03372867405414581, -0.02111305296421051, -0.17317800223827362, -0.08159613609313965, -0.1595517098903656, -0.04536809027194977, -0.0747252106666565, 0.17680607736110687, -0.08158114552497864, -0.09813617914915085, -0.18157771229743958, 0.011383265256881714, 0.09473659098148346, 0.10955475270748138, -0.06150135397911072, -0.0936758816242218, 0.02349059283733368, 0.2083045095205307, 0.012720882892608643, -0.08983004093170166, 0.16184504330158234, -0.012582570314407349, -0.0515751838684082, -0.004911184310913086, 0.0697631984949112, 0.030314922332763672, 0.07685945928096771, -0.21190106868743896, 0.12397946417331696, 0.07101507484912872, 0.12055183947086334, 0.06352610886096954, 0.020435944199562073, -0.11115962266921997, -0.0008535832166671753, -0.04504561424255371, -0.16010944545269012, 0.15701492130756378, -0.2122732698917389, 0.1524287611246109, -0.0964956283569336, -0.1831131875514984, -0.19801947474479675, -0.015074148774147034, 0.12673158943653107, -0.18003499507904053, -0.05508480966091156, -0.08125056326389313, 0.08212529122829437, -0.11552057415246964, -0.16109830141067505, 0.11815644800662994, -0.1347527652978897, 0.12424410879611969, 0.04967288672924042]}, "bias": {"shape": [11], "values": [-0.06164538860321045, -0.1042063757777214, 0.21581657230854034, -0.10843449085950851, 0.039372220635414124, -0.15630052983760834, -0.1529243290424347, -0.19322580099105835, 0.07013870775699615, 0.06854747235774994, -0.07297194004058838]}}