{"weight": {"shape": [11, 7, 3], "values": [0.002937301993370056, -0.06024521589279175, -0.07449766993522644, -0.043373286724090576, -0.03321200609207153, -0.07040786743164062, -0.14507174491882324, 0.1250842660665512, -0.14145466685295105, 0.08355928957462311, -0.0238812118768692, 0.10439537465572357, -0.14491435885429382, -0.07288773357868195, -0.0012241005897521973, 0.19107414782047272, 0.07412178814411163, 0.2043827623128891, -0.09644204378128052, 0.09900955855846405, -0.13638319075107574, 0.036003515124320984, -0.05949018895626068, -0.10644835233688354, -0.08163408935070038, -0.01082158088684082, -0.0852523148059845, 0.11695544421672821, 0.15923435986042023, -0.1738719344139099, -0.09447991102933884, -0.06504607200622559, -0.009544730186462402, 0.09453378617763519, 0.0962141901254654, -0.21355393528938293, 0.01336081326007843, -0.025956764817237854, 0.0390038937330246, -0.11589893698692322, -0.02754722535610199, -0.150568425655365, 0.1467471569776535, 0.20476247370243073, 0.21382077038288116, -0.11581788212060928, -0.03883442282676697, 0.18842609226703644, 0.05442081391811371, -0.07298487424850464, 0.016676589846611023, 0.1547914296388626, -0.035713136196136475, -0.12282492965459824, 0.20152534544467926, 0.13098983466625214, 0.04847900569438934, 0.015505924820899963, 0.049762025475502014, 0.10063518583774567, -0.0724962055683136, -0.12012588977813721, -0.111875519156456, 0.17879976332187653, -0.01061461865901947, 0.086176797747612, 0.15280403196811676, 0.20593614876270294, 0.06728915870189667, -0.21462401747703552, -0.20109714567661285, 0.16363997757434845, 0.09422047436237335, 0.019799500703811646, 0.1350652426481247, 0.0011151283979415894, -0.1271725594997406, -0.12477678060531616, 0.020931556820869446, 0.18243210017681122, -0.12503203749656677, -0.042723000049591064, 0.018874824047088623, 0.21561311185359955, -0.21053066849708557, 0.0296439528465271, 0.20713315904140472, 0.13623647391796112, 0.1283041387796402, -0.06655098497867584, -0.11570534855127335, 0.042057111859321594, -0.1736142486333847, -0.0012262314558029175, -0.08930394053459167, 0.008520722389221191, -0.07323600351810455, 0.06707422435283661, 0.07246904075145721, 0.09794716536998749, -0.12632259726524353, 0.16444633901119232, -0.19976140558719635, -0.11048503965139389, -0.17847736179828644, -0.12640392780303955, 0.06307922303676605, -0.16674603521823883, 0.15964160859584808, 0.20078499615192413, 0.07621361315250397, -0.11651892215013504, -0.2092401385307312, -0.10025496035814285, 0.19101209938526154, -0.20928555727005005, 0.13472150266170502, -0.16343684494495392, 0.17446087300777435, 0.0751812607049942, -0.011261358857154846, -0.17229023575782776, -0.1985190212726593, 0.2018732875585556, -0.11285560578107834, -0.0031106024980545044, 0.1093350201845169, -0.13151110708713531, -0.056321218609809875, 0.13552777469158173, 0.11351771652698517, 0.11197467148303986, -0.05549216270446777, 0.023294717073440552, -0.12476141005754471, 0.02733267843723297, -0.14739635586738586, -0.2076120227575302, -0.025425061583518982, 0.016324341297149658, 0.1835932582616806, -0.21678972244262695, 0.18324236571788788, 0.18422584235668182, -0.05678488314151764, 0.057007238268852234, 0.023236200213432312, 0.19606049358844757, -0.09024606645107269, -0.1180025041103363, -0.1713259518146515, 0.11212117969989777, -0.14888250827789307, -0.14671774208545685, -0.05318392813205719, -0.08378155529499054, 0.12110279500484467, -0.0946602150797844, 0.023267269134521484, -0.19908952713012695, 0.04946734011173248, -0.09698335826396942, -0.04581017792224884, 0.01977941393852234, -0.1446036398410797, 0.17200689017772675, -0.07807238399982452, 0.20720915496349335, 0.08733661472797394, 0.009140118956565857, -0.06245139241218567, -0.11510802060365677, -0.1832391321659088, -0.05338597297668457, -0.09374211728572845, -0.056245625019073486, -0.1066489964723587, -0.13464780151844025, -0.04810692369937897, 0.11563979089260101, 0.0878903716802597, -0.09641522169113159, 0.18430732190608978, 0.19858728349208832, -0.09828551858663559, 0.005669578909873962, -0.1747811883687973, 0.09780927002429962, -0.12599095702171326, -0.21182481944561005, 0.14595560729503632, -0.003299117088317871, -0.025263026356697083, 0.07035218179225922, 0.015363886952400208, -0.006186574697494507, 0.04680214822292328, 0.08411435782909393, -0.09802733361721039, -0.0006516128778457642, -0.08674778044223785, -0.10671278089284897, 0.11263518035411835, -0.12852849066257477, -0.21188025176525116, 0.016412556171417236, -0.05905961990356445, 0.13337893784046173, 0.08719639480113983, -0.08631202578544617, 0.20829589664936066, 0.15893258154392242, -0.04272903501987457, 0.16480706632137299, -0.10629653930664062, 0.04946129024028778, -0.1528289020061493, 0.09226055443286896, 0.17161379754543304, 0.14322514832019806, 0.12469811737537384, 0.1370610147714615, -0.02131509780883789, 0.20691154897212982, 0.024868786334991455, 0.17661438882350922, 0.2040701061487198, 0.1738128811120987, 0.019308462738990784, -0.18564829230308533, -0.03816044330596924]}, "bias": {"shape": [11], "values": [0.04684250056743622, -0.14145514369010925, -0.20334532856941223, 0.07035122811794281, -0.1657368540763855, -0.03793732821941376, 0.15195174515247345, -0.19225658476352692, 0.043553248047828674, 0.004388853907585144, -0.01010027527809143]}}