{"weight": {"shape": [11, 7, 3], "values": [-0.07819727063179016, 0.16644896566867828, -0.19736292958259583, 0.049689099192619324, -0.18209069967269897, 0.02706719934940338, -0.2116212397813797, -0.012306436896324158, -0.16747605800628662, 0.0373808890581131, -0.07433243095874786, -0.04783274233341217, -0.19953125715255737, -0.21414703130722046, -0.1621740460395813, 0.20045702159404755, -0.07868143916130066, -0.10752006620168686, -0.19602881371974945, 0.10540352761745453, -0.015074744820594788, 0.12062333524227142, -0.06749603152275085, 0.09341759979724884, -0.12661367654800415, 0.04580013453960419, -0.014083966612815857, -0.20945893228054047, 0.17242206633090973, -0.02548442780971527, 0.16888506710529327, -0.18843801319599152, -0.21511904895305634, -0.14677006006240845, -0.06621091067790985, 0.07859118282794952, -0.08227632939815521, 0.03672651946544647, 0.18124882876873016, -0.05919145047664642, -0.1496995985507965, 0.03426532447338104, 0.06960295140743256, -0.16226841509342194, -0.12732082605361938, 0.12833978235721588, 0.13578246533870697, 0.024541407823562622, -0.017119944095611572, -0.06732192635536194, 0.07841049134731293, -0.20602183043956757, -0.14171218872070312, -0.0018250346183776855, 0.18075425922870636, -0.18034659326076508, -0.20152616500854492, 0.15191330015659332, -0.18939092755317688, -0.0875263512134552, -0.08722032606601715, 0.06878902018070221, 0.13447420299053192, -0.0043010413646698, 0.04272787272930145, 0.12190262973308563, -0.07764799892902374, 0.2092140167951584, 0.2154226452112198, 0.054416850209236145, 0.04289664328098297, -0.13582743704319, 0.09010298550128937, -0.04350742697715759, -0.15335774421691895, -0.0758611261844635, -0.02949179708957672, 0.07601548731327057, -0.0930071771144867, -0.02650323510169983, 0.005329042673110962, 0.03588758409023285, -0.06933100521564484, 0.062148675322532654, 0.1743297129869461, -0.1467602252960205, -0.20473022758960724, -0.2077948898077011, -0.20251743495464325, 0.08785916864871979, -0.006625771522521973, 0.1667853146791458, 0.11368818581104279, 0.14934755861759186, -0.18938949704170227, -0.1570233702659607, 0.0874553769826889, -0.15287964046001434, -0.091122105717659, 0.0886169821023941, -0.1404072344303131, -0.12784430384635925, -0.10364846140146255, -0.1400010585784912, 0.07911686599254608, -0.052132606506347656, -0.10289312899112701, -0.09768715500831604, -0.16415584087371826, -0.10056254267692566, 0.10122369229793549, 0.21454308927059174, 0.15363521873950958, 0.0972151905298233, -0.003391057252883911, 0.08614088594913483, -0.12252946943044662, -0.17178653180599213, 0.059040382504463196, -0.01951904594898224, 0.14485089480876923, 0.11280663311481476, -0.09850325435400009, -0.2141391485929489, 0.1955699771642685, -0.16580262780189514, -0.0709785521030426, -0.016851603984832764, 0.03697441518306732, 0.16919897496700287, -0.13384270668029785, -0.08045411109924316, -0.14483404159545898, -0.14131425321102142, 0.02832050621509552, 0.03102831542491913, -0.13777810335159302, 0.1596498042345047, -0.19621652364730835, 0.18002761900424957, -0.013405904173851013, 0.2075272649526596, -0.029745817184448242, -0.13866403698921204, -0.17665627598762512, 0.1681794971227646, 0.09194211661815643, -0.020668089389801025, 0.007277593016624451, 0.2049979418516159, 0.13569627702236176, 0.14181013405323029, -0.11953556537628174, -0.043528661131858826, 0.18439917266368866, 0.06344498693943024, 0.17477412521839142, -0.024988248944282532, 0.20951978862285614, -0.07893922924995422, -0.13162437081336975, -0.0821395069360733, 0.023819372057914734, -0.2036329209804535, -0.16842806339263916, -0.07078206539154053, -0.18532821536064148, 0.21766211092472076, 0.08103741705417633, -0.15701043605804443, -0.08542920649051666, -0.07046733796596527, 0.11137150228023529, 0.11922745406627655, 0.15119953453540802, 0.1974419206380844, 0.07412390410900116, -0.21151527762413025, -0.04877224564552307, 0.10752029716968536, 0.19449107348918915, -0.1563822627067566, -0.016659557819366455, -0.12568208575248718, 0.1474870890378952, -0.06131681799888611, -0.07621550559997559, 0.11502330005168915, -0.07834984362125397, 0.0654420405626297, 0.06400872766971588, 0.19941599667072296, -0.0820934921503067, 0.04324589669704437, 0.047439590096473694, -0.07530513405799866, 0.13541893661022186, -0.195028156042099, -0.12768539786338806, -0.15213719010353088, -0.13516941666603088, -0.036244362592697144, -0.031050875782966614, -0.09608633071184158, 0.023849740624427795, 0.03918798267841339, -0.030324801802635193, -0.1524842381477356, -0.12499469518661499, -0.01876676082611084, -0.024500876665115356, -0.038226231932640076, -0.11673491448163986, -0.12759780883789062, 0.17939244210720062, 0.19400013983249664, 0.19140897691249847, -0.12024586647748947, -0.12646743655204773, 0.17539982497692108, 0.025606021285057068, 0.1431334763765335, 0.20420603454113007, -0.11168166995048523, -0.16410934925079346, 0.029711663722991943, 0.07745282351970673, 0.03465913236141205, -0.168477863073349, -0.07363508641719818, 0.18203260004520416]}, "bias": {"shape": [11], "values": [0.19363225996494293, 0.21188987791538239, -0.17286357283592224, 0.050206854939460754, 0.07921214401721954, -0.10102953761816025, 0.12660686671733856, 0.20435334742069244, -0.019994258880615234, 0.11071647703647614, 0.10914789140224457]}}