{"weight": {"shape": [11, 7, 3], "values": [0.08607997000217438, -0.13048839569091797, 0.00810195505619049, -0.00896233320236206, -0.10555782914161682, 0.02536851167678833, 0.196918323636055, -0.20516575872898102, 0.10170911252498627, -0.10173635184764862, 0.15479741990566254, 0.000605359673500061, 0.20338021218776703, -0.10525445640087128, -0.14654022455215454, -0.026556342840194702, 0.16028468310832977, 0.03201775252819061, 0.024716302752494812, -0.025205358862876892, -0.03392086923122406, 0.2008335143327713, -0.06542912125587463, -0.19276918470859528, 0.0499584823846817, 0.0704902857542038, -0.1608750820159912, -0.12682701647281647, 0.015501663088798523, 0.20358715951442719, -0.12708890438079834, 0.066431924700737, 0.10659502446651459, 0.07615436613559723, 0.12591104209423065, -0.03540697693824768, 0.13318701088428497, 0.08911238610744476, -0.1553337126970291, -0.1152854636311531, -0.20953679084777832, -0.15206027030944824, -0.21299953758716583, -0.1678672730922699, 0.09643618762493134, -0.04219619929790497, 0.1278846710920334, 0.10817165672779083, -0.2172178030014038, -0.07999680936336517, -0.03366789221763611, 0.05691920220851898, 0.13153915107250214, 0.08745516836643219, 0.09865070879459381, 0.18495307862758636, -0.06093865633010864, 0.051859453320503235, -0.18113845586776733, -0.04840737581253052, -0.03598952293395996, 0.004390135407447815, 0.20553182065486908, 0.12579114735126495, 0.11654634773731232, 0.008184939622879028, 0.04836814105510712, 0.20090757310390472, -0.1617785543203354, -0.09026786684989929, 0.13568080961704254, -0.08321888744831085, 0.055249616503715515, -0.09357541799545288, -0.05661898851394653, -0.1930551677942276, -0.14544963836669922, -0.12929248809814453, -0.21477387845516205, 0.07820875942707062, 0.17597953975200653, -0.01662987470626831, -0.010023251175880432, -0.21207594871520996, 0.035679563879966736, -0.052280619740486145, 0.16307054460048676, -0.14834856986999512, 0.14322225749492645, 0.12051893770694733, 0.019335851073265076, 0.0621161013841629, 0.20319940149784088, 0.1783919781446457, -0.046028509736061096, 0.19897715747356415, 0.09157545864582062, -0.2129547894001007, 0.053459420800209045, -0.18539026379585266, 0.12306074798107147, -0.07480016350746155, 0.11345840990543365, 0.004954472184181213, -0.20529644191265106, -0.1874769926071167, 0.004782781004905701, -0.1773616075515747, 0.013715356588363647, -0.09135830402374268, 0.18640990555286407, 0.18340469896793365, 0.14905200898647308, -0.1885097622871399, 0.06368549168109894, 0.21674393117427826, 0.16951636970043182, 0.17754675447940826, 0.21203984320163727, 0.040237024426460266, 0.17746438086032867, 0.21070925891399384, -0.0831945389509201, 0.20722045004367828, 0.16234727203845978, 0.0002634674310684204, 0.004702344536781311, 0.12821020185947418, 0.07375894486904144, 0.04856164753437042, 0.14172421395778656, 0.11770947277545929, -0.03843751549720764, -0.1432652771472931, -0.04233768582344055, 0.09217117726802826, -0.07898370921611786, -0.1235804408788681, -0.0183628648519516, -0.1220482662320137, -0.10948941856622696, -0.08621846139431, 0.09775488078594208, 0.17325668036937714, 0.05639825761318207, -0.20806491374969482, 0.1330193728208542, -0.001948028802871704, -0.20615780353546143, 0.11054690182209015, 0.08155395090579987, 0.045479848980903625, -0.10843605548143387, -0.09296193718910217, 0.03209565579891205, -0.04503065347671509, 0.16256947815418243, -0.04506699740886688, 0.04412205517292023, 0.14950130879878998, -0.1068575456738472, -0.18214863538742065, 0.13001729547977448, -0.18056905269622803, 0.20863203704357147, 0.187540665268898, -0.07795339822769165, 0.05991692841053009, -0.12347477674484253, -0.004003077745437622, 0.029206514358520508, 0.16916592419147491, 0.08514274656772614, -0.2170286774635315, 0.13707266747951508, -0.06583648920059204, 0.19016949832439423, 0.06861110031604767, 0.09561862051486969, 0.04977665841579437, 0.15285764634609222, 0.12235642969608307, -0.0231076180934906, -0.10895775258541107, -0.09790447354316711, 0.027821630239486694, 0.10419614613056183, -0.08933795988559723, -0.03298896551132202, -0.14622104167938232, 0.0750308483839035, -0.14944210648536682, 0.17159990966320038, 0.01911996304988861, -0.11567001789808273, -0.01489606499671936, 0.14414046704769135, 0.013746291399002075, -0.06978148221969604, 0.023974865674972534, 0.1685984581708908, -0.13456541299819946, -0.08079279959201813, -0.03101561963558197, 0.08360789716243744, -0.16244536638259888, -0.1325414776802063, 0.2156706601381302, 0.10923431813716888, 0.02249249815940857, 0.20011530816555023, 0.0691637247800827, -0.051399677991867065, -0.1923716962337494, 0.11970092356204987, 0.1445324569940567, -0.10352262854576111, 0.15302430093288422, -0.1123540922999382, 0.16751913726329803, 0.07617558538913727, 0.16470693051815033, 0.21533657610416412, 0.030423730611801147, 0.19208355247974396, -0.11604846268892288, -0.19995009899139404, 0.05618046224117279, 0.12164200842380524, 0.12450547516345978, 0.19047631323337555]}, "bias": {"shape": [11], "values": [-0.14597761631011963, 0.02185121178627014, 0.12612660229206085, 0.13664568960666656, -0.20891831815242767, 0.10651670396327972, -0.12229404598474503, 0.15506429970264435, 0.09267745912075043, 0.03441663086414337, -0.11118454486131668]}}