{
    "weight": {
        "shape": [
            11,
            7,
            3
        ],
        "values": [
            -0.21461457014083862,
            -0.11896604299545288,
            -0.17386795580387115,
            -0.024426326155662537,
            0.005873456597328186,
            0.16285140812397003,
            0.09037892520427704,
            -0.00466233491897583,
            0.1750594824552536,
            0.21696113049983978,
            0.10095514357089996,
            -0.039608925580978394,
            0.18665330111980438,
            0.034222349524497986,
            -0.186350017786026,
            0.12817294895648956,
            -0.20063675940036774,
            -0.033407390117645264,
            -0.06959235668182373,
            -0.12869703769683838,
            0.07678918540477753,
            -0.06247663497924805,
            0.09841732680797577,
            0.07787562906742096,
            -0.13955438137054443,
            -0.1307673156261444,
            0.006211191415786743,
            0.1450805515050888,
            -0.17337404191493988,
            0.1699516624212265,
            0.030447959899902344,
            0.02469538152217865,
            0.04865182936191559,
            0.1804204136133194,
            0.10802523791790009,
            -0.1628689467906952,
            -0.08567275106906891,
            -0.04386506974697113,
            0.18950726091861725,
            0.18138103187084198,
            -0.11679814755916595,
            -0.036798715591430664,
            0.10027433931827545,
            -0.17545855045318604,
            0.13194848597049713,
            0.07463978230953217,
            -0.0394413024187088,
            -0.1669302135705948,
            0.15587197244167328,
            0.022483378648757935,
            0.07528693974018097,
            0.2003651112318039,
            0.08082117140293121,
            -0.15060833096504211,
            0.020206943154335022,
            0.2070397287607193,
            0.11977405846118927,
            -0.02057795226573944,
            -0.1595754325389862,
            -0.20917414128780365,
            0.0790078192949295,
            0.06644828617572784,
            -0.15116000175476074,
            0.036773696541786194,
            0.1911226063966751,
            -0.18714085221290588,
            0.016658902168273926,
            0.07416518032550812,
            -0.04531580209732056,
            -0.21520903706550598,
            0.17282576858997345,
            -0.06715087592601776,
            -0.034749194979667664,
            0.04355771839618683,
            -0.15983442962169647,
            -0.20021991431713104,
            -0.11282441765069962,
            0.08663995563983917,
            0.014760300517082214,
            0.033537134528160095,
            -0.06975768506526947,
            -0.08737248182296753,
            -0.046637699007987976,
            -0.21465082466602325,
            -0.10363932698965073,
            -0.18266674876213074,
            -0.006082266569137573,
            -0.019409507513046265,
            0.1090514212846756,
            0.09209181368350983,
            -0.12080104649066925,
            -0.15962611138820648,
            0.09919022023677826,
            -0.0059470534324646,
            0.1455124169588089,
            0.14214809238910675,
            0.12326912581920624,
            0.012315720319747925,
            0.016048148274421692,
            -0.18010792136192322,
            -0.1000538244843483,
            0.04037328064441681,
            -0.020296156406402588,
            0.029251068830490112,
            -0.07972981035709381,
            -0.2151021957397461,
            0.062321677803993225,
            -0.1769050508737564,
            0.14216025173664093,
            -0.11984923481941223,
            0.1009562760591507,
            -0.07968920469284058,
            -0.04238533973693848,
            -0.08502180874347687,
            0.06310169398784637,
            -0.14941814541816711,
            0.06125624477863312,
            0.020000144839286804,
            0.19833995401859283,
            0.0287381112575531,
            -0.08926177024841309,
            0.07129685580730438,
            0.20675714313983917,
            0.15227429568767548,
            -0.1046503484249115,
            -0.08466418087482452,
            0.02493320405483246,
            0.0495859831571579,
            -0.12384624779224396,
            -0.2062615156173706,
            0.17773564159870148,
            -0.032661303877830505,
            0.04078550636768341,
            0.03750406205654144,
            -0.0015685409307479858,
            -0.12982498109340668,
            -0.1669071912765503,
            0.048641398549079895,
            -0.022281691431999207,
            -0.034643903374671936,
            0.10571001470088959,
            -0.10225033015012741,
            0.02548055350780487,
            -0.15825968980789185,
            -0.06497994065284729,
            -0.031024128198623657,
            -0.062281131744384766,
            -0.1129249632358551,
            0.07468284666538239,
            0.06515230238437653,
            -0.07791617512702942,
            0.019356846809387207,
            0.2168811708688736,
            -0.012123897671699524,
            -0.12043558061122894,
            0.12583588063716888,
            -0.15864631533622742,
            -0.19945178925991058,
            0.09295110404491425,
            0.14068324863910675,
            -0.09350411593914032,
            0.08743967115879059,
            0.04934196174144745,
            0.04273010790348053,
            0.15018917620182037,
            -0.0652879923582077,
            0.1995609551668167,
            0.1718214601278305,
            -0.2123308926820755,
            0.02873001992702484,
            -0.04560425877571106,
            0.13562841713428497,
            0.19213731586933136,
            -0.2090507298707962,
            0.18930692970752716,
            -0.01914595067501068,
            -0.12255311757326126,
            -0.009523078799247742,
            0.2071201652288437,
            0.04475755989551544,
            -0.1643509566783905,
            0.20486323535442352,
            -0.19029398262500763,
            -0.06803831458091736,
            0.019429966807365417,
            0.034653112292289734,
            -0.1293407678604126,
            0.011115297675132751,
            -0.2080625295639038,
            -0.09351938962936401,
            0.10529150068759918,
            0.10242961347103119,
            -0.1226763129234314,
            -0.14407628774642944,
            -0.20150290429592133,
            0.18232329189777374,
            -0.08045801520347595,
            0.055474624037742615,
            0.04815267026424408,
            0.1076282411813736,
            -0.038618773221969604,
            0.12404312193393707,
            -0.07163214683532715,
            0.09032995998859406,
            0.14882563054561615,
            -0.08695878088474274,
            0.20858310163021088,
            -0.1959303319454193,
            -0.0880412608385086,
            0.06933315098285675,
            -0.07760506868362427,
            -0.20369000732898712,
            0.1229284256696701,
            0.08759354054927826,
            0.1676797717809677,
            -0.009012490510940552,
            -0.01087142527103424,
            -0.03119303286075592,
            0.16598807275295258,
            0.20374523103237152,
            -0.028831005096435547,
            -0.0847519189119339,
            -0.034548044204711914,
            0.09287287294864655,
            0.16979406774044037,
            -0.13613374531269073,
            0.19644950330257416,
            -0.05580538511276245,
            -0.18655619025230408,
            0.03641234338283539,
            -0.14693081378936768
        ]
    },
    "bias": {
        "shape": [
            11
        ],
        "values": [
            -0.10998661816120148,
            -0.09290127456188202,
            -0.0921708345413208,
            -0.20775313675403595,
            -0.11760350316762924,
            -0.13679084181785583,
            0.025243356823921204,
            0.16792453825473785,
            0.002085089683532715,
            0.00932241976261139,
            -0.16269342601299286
        ]
    }
}