{"weight": {"shape": [11, 7, 3], "values": [-0.20202872157096863, -0.11614713817834854, 0.10823126137256622, -0.12401331216096878, 0.047436878085136414, 0.08653287589550018, -0.007766410708427429, 0.05264453589916229, -0.05894465744495392, 0.19444595277309418, -0.17211781442165375, 0.084556445479393, 0.005269676446914673, 0.05726237595081329, -0.03569422662258148, 0.1982249766588211, -0.09557703882455826, -0.0066611915826797485, -0.18852297961711884, -0.0498233288526535, -0.0754794031381607, -0.05206423997879028, -0.20204320549964905, -0.12247109413146973, -0.07158268988132477, 0.1913699060678482, 0.02717214822769165, 0.10729987919330597, 0.16459406912326813, 0.03263811767101288, -0.13224679231643677, -0.1196577250957489, -0.15895894169807434, -0.036107420921325684, -0.18152779340744019, 0.09549455344676971, -0.1268012672662735, 0.20035628974437714, -0.20981261134147644, -0.16490866243839264, -0.04467156529426575, -0.12083980441093445, 0.11213390529155731, 0.012445300817489624, -0.04610666632652283, -0.007813364267349243, 0.005640581250190735, 0.15886493027210236, 0.2123982161283493, -0.05870744585990906, 0.055424198508262634, 0.061400070786476135, -0.07326225936412811, 0.07290492951869965, 0.10546509921550751, -0.19893817603588104, 0.04415513575077057, -0.16273623704910278, -0.03513045608997345, 0.10484670102596283, -0.1173228994011879, 0.037619367241859436, -0.009171664714813232, -0.13589434325695038, -0.15599419176578522, -0.08417007327079773, -0.015519633889198303, -0.05431811511516571, -0.048739418387413025, -0.1426883190870285, 0.10289131104946136, -0.15653938055038452, 0.014912739396095276, 0.03483434021472931, 0.03717149794101715, 0.024842724204063416, 0.05146114528179169, 0.04149256646633148, 0.18158183991909027, 0.19930066168308258, 0.07093824446201324, -0.09480419754981995, 0.080940380692482, -0.18340657651424408, 0.21197469532489777, 0.014552026987075806, 0.15317372977733612, 0.1706281155347824, 0.08211468160152435, -0.06492917239665985, -0.05815303325653076, -0.06992073357105255, 0.17641408741474152, 0.03085312247276306, 0.04721324145793915, 0.016853511333465576, 0.11584813892841339, 0.18796397745609283, 0.03374774754047394, 0.04776941239833832, -0.12029646337032318, -0.0767219066619873, -0.004796773195266724, -0.06983834505081177, 0.20786477625370026, -0.12834149599075317, -0.18895085155963898, -0.06252686679363251, 0.21742485463619232, 0.21203388273715973, 0.11755518615245819, -0.15642285346984863, 0.060335591435432434, -0.17677858471870422, -0.1641550064086914, 0.04755650460720062, -0.07913459837436676, -0.19695192575454712, -0.13963112235069275, 0.12460203468799591, 0.04212324321269989, -0.010019168257713318, -0.011402174830436707, -0.046120911836624146, 0.16208477318286896, 0.15458627045154572, 0.09980346262454987, 0.13963903486728668, 0.19714204967021942, -0.045952633023262024, 0.03998161852359772, -0.2065817266702652, -0.08460523188114166, -0.10755723714828491, 0.1570196896791458, 0.13429172337055206, -0.007341668009757996, -0.18229714035987854, -0.11885954439640045, -0.13628292083740234, -0.016036972403526306, 0.139238640666008, 0.07027788460254669, 0.18042607605457306, 0.04054780304431915, -0.02849222719669342, 0.026331141591072083, 0.0351824015378952, 0.09718595445156097, 0.12965954840183258, 0.1392374187707901, 0.10106481611728668, -0.1625407338142395, 0.12791363894939423, 0.15342341363430023, -0.1852262020111084, -0.19896408915519714, -0.1504707783460617, 0.2047147899866104, 0.02960076928138733, -0.013403058052062988, 0.14439718425273895, 0.09109808504581451, -0.11154688894748688, 0.0014773309230804443, 0.09447003901004791, 0.10030953586101532, 0.19545818865299225, -0.18415552377700806, -0.17333704233169556, 0.16347332298755646, -0.19100283086299896, -0.11182864010334015, -0.09077931940555573, 0.12123648822307587, 0.17452092468738556, -0.1703738570213318, 0.041940733790397644, 0.07520700991153717, 0.09816066920757294, -0.08685162663459778, -0.05281083285808563, 0.0908590704202652, -0.05612264573574066, 0.2068023830652237, 0.02045246958732605, 0.13658376038074493, -0.17929065227508545, 0.04537217319011688, 0.10120950639247894, -0.007285714149475098, -0.1988958716392517, -0.017523467540740967, 0.035333022475242615, 0.02242128551006317, -0.04627661406993866, -0.05891577899456024, 0.020922452211380005, -0.0830010175704956, -0.14661821722984314, 0.16291363537311554, 0.20227374136447906, 0.12327353656291962, -0.21190620958805084, 0.11471717059612274, -0.21382242441177368, 0.12967254221439362, -0.046928614377975464, 0.06941761076450348, -0.16869142651557922, 0.17556189000606537, 0.16400234401226044, -0.1681346893310547, 0.09322164952754974, 0.016499653458595276, 0.16774766147136688, 0.015872851014137268, -0.10601304471492767, 0.11981453001499176, -0.052425727248191833, 0.08461852371692657, -0.04446801543235779, -0.012562572956085205, -0.04842753708362579, 0.026632145047187805, -0.026564642786979675, 0.01288248598575592, 0.13525159657001495, 0.0033581703901290894, 0.1961100846529007, -0.018436208367347717]}, "bias": {"shape": [11], "values": [0.1358630210161209, -0.053737103939056396, 0.20965467393398285, 0.11882458627223969, 0.18397153913974762, -0.19204676151275635, 0.19290246069431305, -0.025850728154182434, 0.11777143180370331, -0.06750437617301941, 0.02032807469367981]}}