{"weight": {"shape": [11, 7, 3], "values": [0.0901816338300705, 0.16977931559085846, 0.20915065705776215, -0.007389947772026062, 0.21388305723667145, -0.1468653380870819, 0.20842520892620087, 0.1526966243982315, 0.15358586609363556, -0.06084395945072174, 0.0244598388671875, 0.04983489215373993, 0.16256995499134064, 0.20904488861560822, 0.20941464602947235, 0.11630071699619293, 0.008392944931983948, -0.15777748823165894, -0.05023728311061859, -0.006789863109588623, 0.0025328993797302246, -0.0029057711362838745, -0.16054631769657135, -0.08621063828468323, -0.07117794454097748, -0.009562969207763672, 0.060134246945381165, -0.2169797718524933, -0.08170664310455322, -0.037021130323410034, 0.2042364627122879, -0.21340592205524445, 0.12799938023090363, 0.08315162360668182, 0.030809134244918823, 0.07503892481327057, 0.06804077327251434, 0.19004203379154205, 0.1739838570356369, 0.05679751932621002, 0.07545019686222076, -0.12444604188203812, 0.02900373935699463, 0.0874146968126297, 0.016804054379463196, 0.05303822457790375, -0.1425098180770874, 0.07430638372898102, -0.16624058783054352, 0.17017020285129547, -0.03403171896934509, 0.12317396700382233, -0.16785486042499542, -0.06838691234588623, -0.08290648460388184, -0.13300064206123352, 0.06135277450084686, 0.03329630196094513, 0.08132751286029816, -0.11683311313390732, 0.08946697413921356, 0.005779474973678589, -0.20747284591197968, -0.2171820104122162, 0.12459532916545868, -0.2073584347963333, -0.05670088529586792, -0.20911844074726105, -0.2074672281742096, 0.07042728364467621, 0.1441662758588791, -0.18604008853435516, 0.07030268013477325, 0.05203483998775482, -0.020408213138580322, 0.0796097069978714, -0.013814181089401245, -0.013607427477836609, -0.15767647325992584, -0.20650115609169006, -0.16049043834209442, -0.018044859170913696, 0.047606125473976135, 0.20253191888332367, 0.09150709211826324, -0.02958047389984131, 0.010621398687362671, -0.10967724025249481, -0.18540474772453308, -0.0505857914686203, -0.1288108229637146, -0.02484956383705139, 0.1739416867494583, -0.21060514450073242, -0.024025127291679382, -0.14459766447544098, 0.15751303732395172, 0.07539166510105133, -0.17875102162361145, 0.10199876129627228, 0.13994230329990387, 0.14278970658779144, 0.18234752118587494, 0.19943006336688995, 0.20978330075740814, -0.20247815549373627, -0.08565914630889893, 0.1610081046819687, 0.11336736381053925, -0.14760121703147888, -0.08066916465759277, 0.1575455218553543, -0.147215336561203, -0.211105078458786, 0.15145660936832428, -0.10175596922636032, 0.1804957240819931, -0.006020769476890564, 0.18452765047550201, -0.002684548497200012, 0.08504919707775116, -0.11287826299667358, 0.09031228721141815, 0.0984409898519516, 0.1316036432981491, 0.1700156182050705, 0.17265816032886505, 0.10884596407413483, -0.20990613102912903, -0.1924675703048706, -0.11666683107614517, 0.21770833432674408, 0.04106692969799042, -0.1891784369945526, 0.14826752245426178, 0.03141412138938904, -0.13240888714790344, -0.12505541741847992, -0.018274009227752686, -0.18955551087856293, 0.2066233605146408, 0.19169087707996368, -0.07136969268321991, 0.1322837620973587, 0.16271094977855682, -0.12871691584587097, 0.13463090360164642, 0.18335814774036407, 0.15754146873950958, -0.08231428265571594, -0.09128294885158539, 0.20364625751972198, 0.03471456468105316, 0.18087245523929596, -0.14714962244033813, 0.2102249711751938, -0.1849827915430069, 0.11783669888973236, -0.029287412762641907, -0.16303488612174988, -0.18854857981204987, -0.10789195448160172, 0.0020599067211151123, -0.1290639042854309, 0.05718408524990082, 0.21601207554340363, -0.07832933962345123, -0.008836641907691956, -0.16345609724521637, 0.07752712070941925, 0.06795237958431244, 0.198039248585701, -0.15137360990047455, -0.07144859433174133, -0.1052790954709053, 0.18628333508968353, 0.04739721119403839, -0.1969241201877594, -0.19217084348201752, -0.15236303210258484, 0.12414006888866425, -0.07199813425540924, -0.022937849164009094, -0.06912817060947418, 0.1779460459947586, 0.07236601412296295, -0.03853945434093475, 0.15992213785648346, -0.056264325976371765, -0.10589733719825745, -0.009721383452415466, -0.1608455777168274, 0.10941793024539948, 0.1894550770521164, -0.1684800237417221, 0.13403557240962982, 0.2025953084230423, 0.12338133156299591, 0.11252494156360626, 2.2426247596740723e-05, -0.06569063663482666, -0.007297024130821228, -0.1724281907081604, -0.08724787831306458, 0.1475716084241867, -0.16588576138019562, -0.04231959581375122, 0.14524100720882416, -0.13214349746704102, -0.1232578456401825, -0.0385785847902298, -0.20822295546531677, -0.04276709258556366, -0.06805376708507538, 0.03946553170681, 0.1235339492559433, -0.16037389636039734, 0.09537722170352936, 0.0396125465631485, -0.08150345087051392, -0.2138773500919342, -0.12689514458179474, -0.027748286724090576, -0.024267226457595825, -0.005475059151649475, 0.028766721487045288, 0.13881568610668182, -0.1389491707086563, -0.04799020290374756, 0.07414115965366364, -0.06112922728061676]}, "bias": {"shape": [11], "values": [-0.0536423921585083, -0.15850037336349487, 0.021324962377548218, -0.09394858777523041, -0.1881578266620636, 0.1801431030035019, 0.04855595529079437, -0.14141786098480225, 0.17426912486553192, -0.16397568583488464, 0.09011431038379669]}}