{"weight": {"shape": [11, 7, 3], "values": [-0.007819011807441711, 0.16575802862644196, -0.029742002487182617, -0.14809221029281616, 0.08165137469768524, 0.11456717550754547, -0.00476410984992981, 0.20153744518756866, 0.1168351024389267, -0.04532121121883392, 0.07907544076442719, -0.0027640461921691895, 0.03481273353099823, -0.09274603426456451, 0.20936401188373566, 0.13422061502933502, 0.080787792801857, -0.09676806628704071, -0.1302911937236786, -0.10100334137678146, 0.06412427127361298, -0.005214482545852661, 0.2108682543039322, -0.010510772466659546, -0.03830762207508087, 0.0892869383096695, -0.12639257311820984, -0.08456964790821075, 0.16160820424556732, -0.1043233796954155, -0.015154749155044556, -0.14332491159439087, 0.1563102751970291, -0.17643100023269653, 0.18431206047534943, 0.16567347943782806, 0.06997795403003693, -0.07476647198200226, -0.04925289750099182, -0.12569454312324524, -0.030801013112068176, 0.1434096246957779, 0.04562632739543915, -0.20605884492397308, -0.18331614136695862, -0.08364225924015045, -0.005248352885246277, 0.1681363433599472, -0.009973898530006409, 0.04361061751842499, 0.020697280764579773, 0.19841893017292023, -0.12561707198619843, 0.20777903497219086, -0.16073234379291534, -0.137210875749588, 0.012802615761756897, 0.12076778709888458, -0.058984845876693726, 0.14245672523975372, 0.0019508153200149536, 0.2006976157426834, -0.1657271385192871, -0.12059218436479568, 0.1365623027086258, 0.04997928440570831, -0.05293889343738556, 0.07960079610347748, -0.17191022634506226, -0.14788250625133514, 0.21041803061962128, -0.1372692883014679, -0.13701942563056946, -0.10537521541118622, 0.0032500028610229492, 0.11032845079898834, -0.02053895592689514, -0.1174139678478241, 0.08520470559597015, 0.06667490303516388, 0.07557575404644012, 0.14903630316257477, 0.05675654113292694, 0.06905372440814972, 0.009946271777153015, -0.017296835780143738, -0.028560101985931396, -0.08956748247146606, -0.045766040682792664, 0.027760908007621765, -0.03322596848011017, -0.15868909657001495, 0.21125291287899017, -0.17748290300369263, -0.044153690338134766, -0.07282949984073639, 0.023172467947006226, -0.21471425890922546, -0.07353393733501434, 0.038041695952415466, -0.03774045407772064, -0.09448597580194473, -0.141326904296875, -0.14155995845794678, 0.016136333346366882, 0.18376882374286652, 0.08028481900691986, 0.1722869724035263, 0.0875692218542099, 0.046113744378089905, 0.05137856304645538, -0.006221771240234375, 0.20582608878612518, 0.07172329723834991, 0.20596010982990265, -0.009495660662651062, -0.18038195371627808, 0.20488665997982025, 0.0199882835149765, -0.02110178768634796, -0.1355469524860382, 0.08272631466388702, -0.049501821398735046, 0.1517857164144516, 0.04268328845500946, -0.029491618275642395, 0.13825581967830658, 0.0824163407087326, 0.0754656046628952, 0.17299555242061615, 0.1447422355413437, 0.05583788454532623, 0.08419685065746307, -0.21004322171211243, 0.08252419531345367, -0.18994344770908356, 0.040292248129844666, -0.13403531908988953, -0.14067195355892181, -0.009894877672195435, -0.15810424089431763, -0.19818753004074097, -0.07425844669342041, 0.008637994527816772, 0.0365777462720871, -0.06700348854064941, -0.10596384853124619, 0.07688196003437042, -0.051940709352493286, 0.12993158400058746, -0.047489672899246216, -0.12051476538181305, 0.06849940121173859, -0.09835205972194672, 0.19618593156337738, 0.03389497101306915, -0.03713823854923248, -0.0353517085313797, 0.1519656926393509, 0.08181937038898468, -0.03911183774471283, -0.13584166765213013, 0.030402973294258118, -0.07324716448783875, 0.09332816302776337, 0.10509411990642548, 0.13337378203868866, 0.08601726591587067, -0.0998091921210289, 0.18510587513446808, 0.1781342476606369, 0.1771387904882431, 0.04756997525691986, -0.20664148032665253, 0.002294585108757019, -0.10355280339717865, 0.16489075124263763, -0.010659769177436829, -0.07466363906860352, -0.0739733874797821, -0.013004869222640991, -0.12856194376945496, -0.1639285683631897, 0.20505590736865997, -0.07667063176631927, -0.11002308875322342, 0.04557563364505768, -0.07093645632266998, -0.07728762924671173, -0.17515838146209717, 0.1808532029390335, -0.0712360292673111, 0.19518287479877472, -0.07269507646560669, -0.004542887210845947, 0.13127218186855316, -0.18107323348522186, -0.19488030672073364, -0.1667502522468567, -0.09472095221281052, -0.11696338653564453, -0.02652999758720398, 0.08296279609203339, -0.10102599859237671, 0.14792300760746002, 0.12602980434894562, 0.1275627166032791, 0.09608657658100128, 0.01960471272468567, -0.20361965894699097, -0.14990147948265076, 0.1736149936914444, 0.14572550356388092, -0.17763638496398926, -0.2077285647392273, -0.11574827134609222, -0.2147752046585083, 0.12469570338726044, 0.08441807329654694, 0.20205505192279816, -0.21516987681388855, -0.010502398014068604, -0.20204044878482819, 0.21351422369480133, 0.14134229719638824, 0.17951838672161102, 0.06416334211826324, 0.09651263058185577, 0.03720258176326752, 0.05731324851512909, 0.12806819379329681]}, "bias": {"shape": [11], "values": [0.07873471081256866, 0.13092945516109467, -0.043423041701316833, 0.04931764304637909, 0.059788718819618225, -0.08762101829051971, 0.1302133947610855, 0.12485013902187347, 0.15389801561832428, 0.12060309946537018, 0.1645149141550064]}}