{"weight": {"shape": [11, 7, 3], "values": [-0.05178272724151611, 0.18052102625370026, 0.11240266263484955, -0.054292231798172, 0.187469020485878, -0.07123273611068726, -0.010104566812515259, -0.12664596736431122, 0.21166746318340302, -0.17134246230125427, -0.194242462515831, -0.2081005573272705, 0.12637703120708466, 0.17865769565105438, -0.11005142331123352, -0.04582495987415314, 0.015349015593528748, -0.21656151115894318, -0.04098521173000336, -0.19928400218486786, 0.009278818964958191, -0.06484054028987885, 0.07735376060009003, 0.16295109689235687, -0.14092078804969788, 0.20859165489673615, -0.015569612383842468, 0.011847630143165588, -0.14984403550624847, -0.11227729916572571, 0.21684257686138153, 0.21292583644390106, -0.19019867479801178, -0.10043317824602127, -0.18330183625221252, -0.11972067505121231, -0.11632853001356125, -0.07259820401668549, -0.029551446437835693, 0.17531205713748932, 0.1493048220872879, 0.19946633279323578, -0.12805309891700745, -0.15213458240032196, 0.20369850099086761, 0.0859554260969162, -0.17045794427394867, -0.17517024278640747, -0.0764787346124649, 0.04529820382595062, 0.15549568831920624, -0.024117395281791687, 0.2045612782239914, 0.1537170559167862, -0.06899571418762207, 0.2156890481710434, -0.17796263098716736, -0.05406218767166138, 0.09532652795314789, -0.06739260256290436, 0.15673916041851044, -0.181568443775177, -0.011945858597755432, 0.07328556478023529, -0.07121306657791138, 0.1677020937204361, 0.2122850865125656, -0.13475003838539124, 0.15495838224887848, -0.015136301517486572, -0.020991459488868713, -0.13456031680107117, -0.13614009320735931, 0.005220234394073486, -0.02194179594516754, -0.06663303077220917, 0.2047467976808548, 0.08871538937091827, -0.0217587947845459, -0.1581277847290039, 0.028825953602790833, -0.062489867210388184, 0.05731286108493805, -0.06806981563568115, 0.19562651216983795, -0.10004357248544693, 0.0985880047082901, 0.1697455793619156, 0.09779570996761322, -0.1758401244878769, 0.030234068632125854, -0.011101588606834412, -0.046073079109191895, 0.2017117589712143, -0.051947131752967834, -0.12902703881263733, 0.04336906969547272, 0.05933590233325958, 0.2011723667383194, -0.21312923729419708, -0.06474405527114868, 0.07577081024646759, 0.15472446382045746, -0.1655304729938507, 0.02598048746585846, -0.006676807999610901, -0.17368192970752716, -0.06525899469852448, -0.14928333461284637, 0.0895274430513382, -0.19988064467906952, 0.14751459658145905, -0.1955646574497223, -0.03925555944442749, 0.13505487143993378, -0.0650201290845871, 0.007895931601524353, -0.10916303098201752, -0.10018958896398544, 0.16516511142253876, 0.05130450427532196, 0.12305141985416412, -0.21581733226776123, 0.15862514078617096, 0.07203628122806549, 0.07431553304195404, 0.05196632444858551, 0.03693552315235138, 0.1423661857843399, -0.06935824453830719, 0.09763206541538239, -0.19782789051532745, 0.20252962410449982, 0.07265256345272064, 0.005575522780418396, 0.10552473366260529, 0.12586362659931183, 0.062341347336769104, -0.08936823904514313, -0.21140989661216736, -0.16692140698432922, 0.08947433531284332, -0.07676495611667633, 0.13187076151371002, -0.04331786930561066, -0.010294884443283081, 0.19269175827503204, -0.026720434427261353, -0.19656354188919067, -0.020341992378234863, 0.20093174278736115, 0.017675384879112244, 0.19009436666965485, 0.19149188697338104, -0.09941193461418152, -0.180937722325325, 0.16331727802753448, -0.05622527003288269, 0.0373317152261734, 0.105759397149086, -0.12473620474338531, -0.17129628360271454, 0.059719160199165344, 0.12637494504451752, -0.15398463606834412, -0.047111719846725464, -0.18076424300670624, -0.12532439827919006, 0.08433355391025543, -0.08252443373203278, 0.01613408327102661, -0.04247991740703583, 0.1772681027650833, 0.17360423505306244, -0.1598995178937912, 0.12002085149288177, -0.17656181752681732, -0.1050974428653717, -0.20490844547748566, 0.15268681943416595, -0.0888981968164444, -0.07868453860282898, -0.05554075539112091, -0.024516627192497253, 0.011291906237602234, 0.20657284557819366, -0.05350381135940552, -0.21753039956092834, 0.05689169466495514, 0.073987677693367, 0.004797354340553284, 0.18132223188877106, 0.06268902122974396, 0.03525729477405548, -0.1189546287059784, -0.06845806539058685, -0.04921853542327881, 0.09495870769023895, -0.18131142854690552, 0.09221221506595612, 0.05982406437397003, 0.17762281000614166, 0.02412480115890503, 0.1467554122209549, 0.18951742351055145, -0.11208253353834152, 0.11667381227016449, 0.20588015019893646, 0.06385456025600433, -0.06397485733032227, -0.005533009767532349, -0.11289715021848679, -0.0661764144897461, -0.2036353498697281, 0.07649196684360504, -0.012974753975868225, 0.15840356051921844, -0.0821993350982666, -0.08055983483791351, 0.0014284402132034302, -0.17968907952308655, -0.1765800267457962, 0.16200695931911469, -0.1148689016699791, -0.04380659759044647, 0.13116271793842316, 0.07352356612682343, -0.05099242925643921, 0.15282268822193146, 0.14703519642353058, -0.011543452739715576]}, "bias": {"shape": [11], "values": [-0.03899228572845459, 0.1558009535074234, -0.18901552259922028, -0.11374001950025558, 0.04338936507701874, 0.004891723394393921, -0.051932066679000854, -0.1427968144416809, 0.21784819662570953, 0.06318531930446625, 0.09229819476604462]}}