{"config": {"model_type": "ConvWaveshaper", "norm_mean": 0.0, "norm_std": 1.0}, "parameters": {"kernel_size": 4, "depth_size": 8, "num_channels": 12}, "state_dict": {"stack.0": {"conv": {"weight": {"shape": [12, 1, 4], "values": [0.4132879376411438, 0.3419930338859558, 0.1578482985496521, -0.14115488529205322, -0.3389541506767273, -0.35555732250213623, 0.3133391737937927, 0.09557723999023438, 0.3080618977546692, 0.12258642911911011, 0.2853323221206665, 0.2578895688056946, -0.40888506174087524, 0.0482364296913147, 0.39787089824676514, 0.113078773021698, -0.4557332992553711, -0.022453725337982178, 0.23239630460739136, -0.10614514350891113, 0.1787956953048706, -0.257519006729126, -0.4173771142959595, 0.20783507823944092, 0.06662040948867798, 0.3183988928794861, -0.091885507106781, -0.08116030693054199, -0.22341477870941162, 0.25860345363616943, -0.4979082942008972, 0.3624911308288574, -0.07564711570739746, 0.420674204826355, -0.09335577487945557, -0.3378528356552124, -0.46991634368896484, 0.2953876852989197, -0.45936089754104614, 0.39298897981643677, -0.0008282661437988281, -0.18355953693389893, 0.4801480770111084, 0.05779939889907837, 0.24166882038116455, -0.43112367391586304, 0.2186552882194519, 0.4106443524360657]}, "bias": {"shape": [12], "values": [-0.2331584095954895, 0.48096364736557007, 0.22452068328857422, -0.021729111671447754, -0.16855233907699585, -0.37870872020721436, 0.06346815824508667, -0.10466444492340088, 0.362809419631958, -0.3807275891304016, 0.4445316791534424, -0.35284996032714844]}}, "floor": {"shape": [1], "values": [0.0]}, "ceiling": {"shape": [1], "values": [0.0]}, "coef_softsign": {"shape": [1], "values": [0.6571307182312012]}, "coef_tanh": {"shape": [1], "values": [-0.31698542833328247]}}, "stack.1": {"conv": {"weight": {"shape": [12, 12, 4], "values": [0.04303726553916931, 0.12176761031150818, 0.04691798985004425, -0.019613824784755707, -0.0033580809831619263, -0.13143931329250336, -0.13231578469276428, -0.05928712338209152, -0.08229120820760727, 0.10777530074119568, 0.005182996392250061, -0.051270291209220886, -0.09726698696613312, 0.06998470425605774, -0.1410425752401352, 0.09870709478855133, -0.10622936487197876, -0.05879791080951691, -0.09385856986045837, 0.03357893228530884, 0.09950332343578339, 0.1324063241481781, -0.13250388205051422, 0.11060220003128052, 0.09030762314796448, 0.04712292551994324, 0.0015306323766708374, -0.08607301115989685, -0.10211041569709778, -0.07852590084075928, 0.004874527454376221, -0.007868438959121704, 0.05061641335487366, 0.08074244856834412, -0.08639886975288391, 0.004098251461982727, 0.12391841411590576, 0.13172760605812073, -0.13678555190563202, 0.08501027524471283, -0.02089855819940567, -0.0006641596555709839, 0.11557513475418091, -0.028528138995170593, 0.09548057615756989, 0.03989201784133911, 0.028932124376296997, -0.13079996407032013, -0.07599043846130371, -0.10089711844921112, 0.06353087723255157, -0.09169137477874756, -0.12051054835319519, 0.028434932231903076, 0.06066480278968811, 0.02168172597885132, 0.05705706775188446, -0.05709873139858246, 0.1289314329624176, 0.03183123469352722, -0.0463094562292099, 0.1403881013393402, -0.02987094223499298, -0.10297001898288727, -0.002990052103996277, 0.032255351543426514, -0.0362592414021492, -0.004500597715377808, -0.022510208189487457, -0.08244678378105164, -0.026599101722240448, -0.024973027408123016, -0.04686509817838669, 0.017387300729751587, -0.09122759848833084, 0.09559759497642517, -0.07246439158916473, 0.14158734679222107, -0.11249468475580215, 0.01723550260066986, 0.01785360276699066, -0.11804404854774475, 0.13672390580177307, 0.11140987277030945, -0.1258397251367569, 0.055327922105789185, 0.1249481737613678, 0.010099649429321289, 0.07262317836284637, -0.04531342536211014, -0.09593941271305084, -0.0248640775680542, 0.13962742686271667, 0.14082109928131104, -0.07081596553325653, -0.06508030742406845, -0.07301502674818039, -0.14327260851860046, -0.11468839645385742, -0.02338264137506485, 0.1412876546382904, -0.052268244326114655, -0.11034863442182541, -0.11228369921445847, 0.0408390611410141, -0.08295565098524094, -0.0931481122970581, 0.07312297821044922, 0.011115789413452148, 0.12931331992149353, -0.047826215624809265, 0.09819447994232178, -0.07477682083845139, -0.04517548531293869, 0.10550858080387115, 0.03618018329143524, -0.11574465781450272, -0.05425623804330826, -0.062244266271591187, 0.07359935343265533, 0.05483525991439819, -0.13726620376110077, 0.07712757587432861, -0.059629134833812714, 0.10193070769309998, 0.1318633258342743, -0.025551795959472656, 0.04320850968360901, 0.024399474263191223, -0.0478290319442749, 0.07827584445476532, -0.08878061175346375, -0.0980779230594635, 0.019747555255889893, 0.11315247416496277, 0.12469351291656494, 0.058645665645599365, -0.06224040687084198, 0.09944412112236023, -0.09524461627006531, 0.07560938596725464, -0.03732667118310928, 0.010816439986228943, 0.014535456895828247, -0.05580553412437439, -0.13962434232234955, 0.08471512794494629, 0.06994161009788513, -0.05313527584075928, 0.06707610189914703, 0.027141451835632324, 0.10861185193061829, 0.041773200035095215, -0.10045357048511505, -0.11630140244960785, -0.11279923468828201, -0.12597204744815826, -0.008447647094726562, -0.013158455491065979, -0.14025022089481354, -0.11290603876113892, -0.02055804431438446, -0.034934595227241516, -0.07929900288581848, 0.026657700538635254, 0.05385252833366394, -0.08986495435237885, 0.04798918962478638, -0.0075235068798065186, -0.10347224771976471, 0.10878178477287292, -0.07551948726177216, 0.002085655927658081, -0.14339740574359894, -0.07367777824401855, -0.08827832341194153, -0.13373269140720367, 0.1417454481124878, 0.07718700170516968, -0.13005000352859497, -0.0502641499042511, 0.08874276280403137, 0.08504980802536011, -0.1045929342508316, -0.1165991947054863, -0.01897890865802765, 0.0006290078163146973, 0.09486530721187592, 0.006008565425872803, -0.05474312603473663, 0.003179997205734253, 0.09497711062431335, 0.006741419434547424, 0.005033180117607117, -0.07437147200107574, -0.12341596931219101, -0.08859066665172577, 0.11790618300437927, 0.05328461527824402, 0.03571859002113342, 0.015151992440223694, 0.05898052453994751, 0.13415849208831787, 0.07628607749938965, 0.07063901424407959, -0.030698001384735107, -0.13366496562957764, 0.042204439640045166, -0.13891208171844482, 0.016509145498275757, -0.048003338277339935, 0.06412962079048157, -0.08577830344438553, 0.031851112842559814, -0.0030265003442764282, 0.06016664206981659, 0.058444127440452576, -0.12381695955991745, 0.03583399951457977, -0.062175922095775604, 0.009954288601875305, -0.026912912726402283, -0.114876389503479, -0.027755163609981537, -0.08032183349132538, 0.1319657266139984, 0.13587284088134766, -0.09869979321956635, -0.11330924928188324, 0.07837554812431335, -0.10873333364725113, -0.0034173130989074707, 0.10954508185386658, -0.012049943208694458, -0.08402922749519348, -0.0634729340672493, -0.05863672494888306, -0.03614865988492966, -0.12686067819595337, 0.056406259536743164, -0.0634157806634903, 0.025101006031036377, 0.12546849250793457, -0.09998252987861633, -0.06385185569524765, -0.06641140580177307, -0.08538023382425308, 0.04956808686256409, 0.10438387095928192, 0.08839908242225647, 0.09456035494804382, 0.013945773243904114, -0.13870926201343536, 0.06787613034248352, -0.10495920479297638, -0.009289443492889404, -0.009683966636657715, 0.0627407431602478, -0.04655863344669342, -0.05672715604305267, 0.09735842049121857, 0.07612274587154388, 0.07299050688743591, 0.004309698939323425, 0.1359507143497467, -0.06958307325839996, -0.06439831107854843, 0.047856152057647705, -0.0028937160968780518, -0.045894019305706024, 0.05109383165836334, -0.08902695775032043, -0.11367488652467728, -0.07253935933113098, -0.11514955759048462, -0.019097834825515747, -0.13709373772144318, -0.02854897826910019, 0.009708374738693237, 0.07567733526229858, -0.036748744547367096, 0.032806724309921265, -0.08255809545516968, 0.02872028946876526, -0.12906651198863983, -0.06829538196325302, 0.042142316699028015, -0.10053153336048126, -0.03364075720310211, 0.10304169356822968, 0.13235187530517578, 0.09648105502128601, -0.12349195033311844, -0.07150378823280334, -0.13453395664691925, -0.019581511616706848, 0.14150863885879517, 0.09000861644744873, 0.034360334277153015, -0.01370459794998169, -0.13887622952461243, -0.14166685938835144, 0.057913824915885925, 0.03255334496498108, 0.12794315814971924, -0.09427870810031891, -0.003537893295288086, 0.03815184533596039, 0.10324074327945709, -0.07592283189296722, -0.0377364307641983, -0.012668371200561523, -0.00042954087257385254, 0.12605497241020203, 0.05312007665634155, 0.04309387505054474, 0.12265443801879883, 0.06893487274646759, 0.13406902551651, -0.02988799661397934, -0.043240249156951904, 0.038023993372917175, 0.0760500580072403, -0.13628460466861725, -0.0963243693113327, -0.022531308233737946, 0.12437227368354797, 0.09149536490440369, 0.0014854222536087036, 0.03532068431377411, 0.017409682273864746, 0.039236292243003845, -0.018221035599708557, -0.12603990733623505, -0.027180485427379608, -0.09102612733840942, -0.03730234503746033, -0.11404410004615784, -0.12317733466625214, 0.11086216568946838, -0.03863167762756348, 0.12494117021560669, 0.06412927806377411, -0.007494732737541199, 0.02683870494365692, -0.11506342142820358, 0.06974758207798004, 0.06370683014392853, -0.12163889408111572, -0.13965317606925964, 0.012760251760482788, -0.05672702193260193, -0.10115961730480194, 0.04504673182964325, -0.003653988242149353, 0.1431269645690918, -0.11000397801399231, 0.08986766636371613, 0.004707887768745422, -0.09610199928283691, -0.1206754595041275, -0.05413246899843216, -0.07765623927116394, 0.06565006077289581, 0.14060720801353455, 0.09511204063892365, -0.1092824637889862, -0.0037988126277923584, 0.0037101805210113525, 0.07854227721691132, 0.023672714829444885, -0.13838589191436768, -0.046683087944984436, 0.03136172890663147, 0.07170519232749939, 0.06429930031299591, -0.0021235793828964233, -0.0728069469332695, -0.10765483975410461, 0.01518145203590393, 0.1259821355342865, 0.0719400942325592, -0.11725541204214096, 0.0026725679636001587, 0.06979119777679443, 0.08616809546947479, 0.10872462391853333, -0.06782613694667816, 0.11763668060302734, -0.12897369265556335, -0.022715896368026733, -0.07003521174192429, 0.07288829982280731, -0.06641701608896255, -0.05336224287748337, 0.013297513127326965, -0.10631071031093597, 0.04844498634338379, 0.07679001986980438, 0.021572276949882507, -0.02324260026216507, 0.12415391206741333, -0.11264350265264511, -0.08298242092132568, 0.05701667070388794, -0.07372386008501053, -0.08454239368438721, 0.06907707452774048, -0.13360702991485596, -0.12433342635631561, 0.08146783709526062, 0.04377344250679016, 0.07311169803142548, -0.11440514028072357, -0.06669364124536514, -0.09071625769138336, -0.08107160031795502, -0.13328412175178528, -0.1139678955078125, 0.036554738879203796, 0.06352473795413971, -0.08475498855113983, -0.13256095349788666, -0.04728814959526062, 0.1348845362663269, 0.1319248080253601, -0.0117826908826828, -0.02702072262763977, 0.06981131434440613, 0.03539334237575531, 0.06200574338436127, -0.04598912596702576, 0.01034390926361084, 0.0722629725933075, 0.060209065675735474, 0.0617825984954834, 0.1392594873905182, 0.08388727903366089, -0.006271392107009888, 0.052556708455085754, -0.11687515676021576, 0.041985318064689636, 0.0006416440010070801, -0.12694241106510162, 0.1289147138595581, 0.0019270628690719604, 0.022945284843444824, -0.019298896193504333, -0.11014921218156815, -0.09782306104898453, 0.11984068155288696, 0.07390113174915314, 0.11834126710891724, -0.1009913757443428, 0.13675594329833984, 0.06614866852760315, 0.07976746559143066, -0.12494535744190216, -0.019683048129081726, 0.07523588836193085, -0.045029230415821075, 0.0036185085773468018, -0.03149794787168503, 0.08653241395950317, 0.12377741932868958, 0.123148113489151, 0.14277926087379456, 0.01866982877254486, 0.030495598912239075, 0.028667524456977844, 0.039457932114601135, -0.13595330715179443, -0.11506444215774536, 0.05562877655029297, 0.04157157242298126, -0.14376862347126007, -0.026884756982326508, -0.1069658100605011, 0.10321472585201263, -0.03326220065355301, -0.02617509663105011, -0.04963885247707367, 0.08830662071704865, -0.013170778751373291, 0.10046893358230591, -0.04517161101102829, -0.09097525477409363, 0.008360892534255981, -0.06887715309858322, -0.09208829700946808, -0.11581121385097504, 0.027707204222679138, -0.021756500005722046, 0.06989674270153046, 0.037426382303237915, -0.0435873344540596, 0.06333187222480774, 0.08037976920604706, 0.1359093189239502, 0.1329192817211151, 0.11141917109489441, 0.08492667973041534, -0.024200528860092163, -0.04385795444250107, 0.020752444863319397, 0.012777283787727356, -0.11711342632770538, -0.12418802082538605, -0.08032046258449554, 0.029606014490127563, 0.03509098291397095, -0.11913113296031952, 0.011046633124351501, -0.08265538513660431, 0.10895171761512756, -0.10965967178344727, -0.07291557639837265, -0.1247842013835907, -0.02592472732067108, -0.0551733523607254, -0.13973788917064667, 0.028498739004135132, 0.12591132521629333, 0.02389945089817047, 0.07299603521823883, 0.05813485383987427, -0.12185288965702057, -0.027183324098587036, -0.02280149608850479, 0.1155979335308075, 0.016082987189292908, 0.11610352993011475, -0.14332732558250427, 0.13407769799232483, -0.024216942489147186, 0.10632842779159546, 0.07716761529445648, 0.0894007682800293, -0.049563780426979065, -0.10806560516357422, -0.06024391949176788, 0.046647027134895325, -0.12222196161746979, -0.10702425986528397, 0.08820776641368866, 0.04222743213176727, -0.13770754635334015, 0.13357913494110107, 0.04184997081756592, 0.09420929849147797, 0.0659383237361908, -0.05937337875366211, -0.04789891093969345, 0.05708418786525726, 0.04889649152755737, 0.1329999566078186, 0.05417156219482422, 0.11959254741668701, 0.051310792565345764, -0.06266789883375168, 0.005923464894294739, -0.12261135876178741, -0.1278681457042694, 0.07051333785057068, 0.12972226738929749, 0.028087303042411804, 0.08711639046669006, 0.07864870131015778, -0.10635827481746674, 0.09250201284885406, 0.03896632790565491, 0.08606630563735962, 0.04971960186958313, -0.1215318888425827, 0.1274292767047882, 0.1439799964427948]}, "bias": {"shape": [12], "values": [-0.02960672229528427, 0.11232054233551025, 0.08914871513843536, -0.040817759931087494, 0.08267268538475037, -0.08800888806581497, -0.05207490175962448, 0.13506999611854553, 0.08404073119163513, 0.08382415771484375, 0.07402786612510681, 0.09441329538822174]}}, "floor": {"shape": [1], "values": [0.0]}, "ceiling": {"shape": [1], "values": [0.0]}, "coef_softsign": {"shape": [1], "values": [0.7034664750099182]}, "coef_tanh": {"shape": [1], "values": [0.3758906126022339]}}, "stack.2": {"conv": {"weight": {"shape": [12, 12, 4], "values": [0.016640976071357727, 0.017598941922187805, 0.1124124825000763, 0.03963586688041687, -0.10005335509777069, -0.1178169995546341, -0.06570702791213989, -0.13519208133220673, -0.05957052856683731, -0.14120768010616302, -0.0896858274936676, -0.14015106856822968, -0.11612548679113388, -0.09003035724163055, 0.059994086623191833, 0.04242795705795288, -0.02216276526451111, -0.08316370844841003, 0.0420854389667511, -0.11426303535699844, 0.1301928162574768, -0.010042309761047363, 0.06035393476486206, -0.04015180468559265, -0.07405456900596619, -0.1274452656507492, -0.04159130901098251, 0.10006074607372284, 0.060096293687820435, 0.10556063055992126, -0.023067764937877655, 0.0719725638628006, 0.14230263233184814, 0.03241680562496185, -0.01896609365940094, 0.10245175659656525, 0.005207464098930359, 0.017044275999069214, 0.10380619764328003, -0.08824344724416733, -0.03189893811941147, 0.11391323804855347, -0.05343838036060333, 0.047907352447509766, -0.006437778472900391, 0.01240701973438263, 0.08319063484668732, -0.020919017493724823, 0.11595508456230164, 0.01914602518081665, -0.12312985956668854, 0.05587145686149597, -0.03957776725292206, -0.13662351667881012, -0.01745888590812683, 0.09575682878494263, 0.05416497588157654, 0.08748628199100494, 0.05760803818702698, -0.055900685489177704, -0.08211721479892731, -0.04236380755901337, -0.03542173653841019, -0.10463254153728485, -0.04021872580051422, -0.12004274129867554, 0.1439143419265747, -0.08603333681821823, -0.05414295196533203, 0.023268014192581177, 0.13890907168388367, -0.04034055769443512, 0.007810845971107483, -0.009764939546585083, 0.10807731747627258, 0.03471460938453674, -0.01772904396057129, -0.11510728299617767, -0.14129552245140076, 0.013703659176826477, 0.078616201877594, 0.09522762894630432, 0.13737308979034424, 0.14171862602233887, 0.018443703651428223, -0.13167285919189453, -0.01937149465084076, 0.1341988444328308, 0.09769333899021149, 0.13190117478370667, -0.0037815868854522705, -0.049417734146118164, -0.14180108904838562, 0.07690161466598511, 0.06120426952838898, -0.09060035645961761, -0.08779163658618927, 0.13780012726783752, -0.04749825596809387, -0.09881143271923065, -0.07619979232549667, 0.10464806854724884, 0.03620649874210358, -0.06123318523168564, -0.00832425057888031, -0.00022523105144500732, -0.12656331062316895, 0.07896842062473297, 0.10921594500541687, 0.1315036118030548, -0.12673421204090118, 0.05054764449596405, -0.05930424481630325, 0.05964924395084381, -0.09547969698905945, -0.06283936649560928, 0.1243278980255127, 0.08188876509666443, 0.06526054441928864, -0.12730592489242554, -0.1405806690454483, 0.0066709965467453, -0.11558450013399124, -0.01117098331451416, 0.09463535249233246, 0.11801972985267639, 0.038493841886520386, 0.09005437791347504, -0.11894875764846802, 0.016016051173210144, -0.07338644564151764, -0.07854294031858444, 0.06912438571453094, 0.04118531942367554, 0.10988560318946838, -0.12430665642023087, -0.07089848816394806, 0.043556347489356995, -0.08437053114175797, -0.050527170300483704, -0.04978484660387039, 0.014983177185058594, 0.10694527626037598, 0.009871065616607666, 0.0701834112405777, 0.09179198741912842, -0.1298012137413025, -0.09233543276786804, -0.06702462583780289, 0.06473858654499054, -0.1278991550207138, -0.07690960168838501, -0.08452067524194717, 0.08206044137477875, -0.0013143569231033325, 0.1072191596031189, -0.08683861792087555, 0.06501619517803192, -0.09793519973754883, -0.07970046252012253, 0.05684949457645416, 0.012912407517433167, -0.08166494965553284, 0.049685701727867126, -0.10761970281600952, 0.134937584400177, -0.06531363725662231, -0.06545736640691757, 0.03297567367553711, 0.12936222553253174, -0.012568190693855286, 0.02961176633834839, -0.12289896607398987, -0.09888545423746109, 0.1284593939781189, 0.10974901914596558, 0.11165213584899902, -0.11323517560958862, -0.09638074040412903, 0.09922590851783752, -0.14172925055027008, -0.0004802495241165161, 0.12099292874336243, 0.007937058806419373, 0.10958313941955566, 0.11993235349655151, 0.04321447014808655, -0.10861232131719589, 0.13567927479743958, -0.14190614223480225, -0.03922715038061142, 0.1412859559059143, 0.03098072111606598, 0.03763177990913391, 0.09387096762657166, -0.055479660630226135, -0.12115694582462311, -0.003808319568634033, 0.1424752175807953, 0.020550698041915894, 0.08706565201282501, 0.0915442556142807, 0.07004085183143616, 0.03183290362358093, -0.04951075464487076, 0.10167734324932098, 0.06057816743850708, -0.11904332786798477, 0.12081804871559143, -0.08178003877401352, -0.1069718673825264, 0.08620193600654602, 0.06520631909370422, 0.05292108654975891, 0.060157597064971924, -0.0071351975202560425, -0.0469975546002388, -0.138664111495018, 0.05189216136932373, 0.08030639588832855, -0.12821315228939056, -0.022975556552410126, -0.020418331027030945, 0.12894979119300842, -0.13845384120941162, -0.02598527818918228, 0.03204549849033356, -0.1250993013381958, 0.07802394032478333, 0.03340262174606323, 0.06908378005027771, 0.10183325409889221, -0.031895481050014496, -0.11847300827503204, 0.08571751415729523, 0.135461688041687, 0.11253219842910767, 0.011480778455734253, 0.08161211013793945, -0.040596336126327515, 0.11672791838645935, 0.11053359508514404, 0.05203719437122345, -0.08703260123729706, 0.10509087145328522, 0.025502175092697144, 0.1403624415397644, -0.03921039402484894, 0.12027701735496521, 0.03990839421749115, -0.07334631681442261, -0.013689607381820679, -0.05142609775066376, -0.08925434947013855, 0.06749214231967926, -0.004205003380775452, -0.0485835000872612, -0.03233904391527176, 0.0416448712348938, 0.12452399730682373, 0.12931817770004272, -0.021566666662693024, -0.14178012311458588, 0.017701461911201477, -0.008421748876571655, 0.025637373328208923, 0.02221660315990448, 0.04487928748130798, -0.12665461003780365, 0.017228931188583374, -0.09049378335475922, 0.06563849747180939, -0.060764409601688385, -0.06291475892066956, -0.005110755562782288, -0.1068902388215065, -0.0032494664192199707, -0.09951746463775635, -0.10309967398643494, 0.13636019825935364, -0.10861358046531677, -0.12840865552425385, 0.09223651885986328, -0.05383342504501343, -0.043935298919677734, 0.09555920958518982, 0.13786572217941284, 0.11005920171737671, 0.0544499009847641, 0.0663544237613678, 0.10945689678192139, 0.08064556121826172, -0.04171475023031235, 0.014898359775543213, -0.12991708517074585, -0.1304323375225067, 0.04807005822658539, 0.08489856123924255, -0.0854589194059372, 0.022711098194122314, 0.08246980607509613, 0.04733896255493164, -0.08617827296257019, 0.0659252405166626, 0.07178716361522675, -0.07210215926170349, -0.058260709047317505, 0.12381047010421753, 0.02003277838230133, 0.03728710114955902, -0.05023820698261261, 0.08826906979084015, -0.1059013158082962, -0.07967539131641388, -0.022056445479393005, 0.13587406277656555, 0.06024026870727539, 0.10608282685279846, -0.08361393213272095, 0.07319019734859467, -0.13705703616142273, -1.3262033462524414e-05, -0.05101986974477768, 0.016202792525291443, -0.04563050717115402, -0.04575544595718384, -0.09547656029462814, 0.04669809341430664, -0.07398286461830139, 0.05376504361629486, -0.017536237835884094, -0.1119321882724762, -0.0008303225040435791, 0.05326859652996063, 0.015843138098716736, -0.06588020920753479, -0.1269799917936325, 0.12311744689941406, 0.13002216815948486, -0.00046162307262420654, 0.02341976761817932, 0.023990854620933533, 0.08996057510375977, 0.059029027819633484, -0.015326902270317078, 0.022150754928588867, 0.11101862788200378, 0.07163432240486145, -0.12916500866413116, -0.13749796152114868, -0.1246323361992836, 0.0009590834379196167, -0.07107251137495041, -0.028249382972717285, -0.11378073692321777, 0.052987903356552124, -0.1368403285741806, -0.024253495037555695, 0.047963082790374756, -0.13706105947494507, 0.08684207499027252, 0.13692066073417664, 0.040884196758270264, -0.040781132876873016, 0.08455808460712433, 0.04088607430458069, 0.048308417201042175, -0.03480210155248642, -0.143560528755188, -0.13968218863010406, -0.0034305155277252197, -0.07153324782848358, -0.004373669624328613, 0.05444501340389252, 0.13690444827079773, -0.03162210434675217, -0.09555859863758087, 0.06504392623901367, 0.044106557965278625, -0.13031351566314697, 0.02972334623336792, -0.04349077492952347, 0.03982380032539368, 0.1360173523426056, -0.05463028699159622, -0.0732034221291542, -0.007886439561843872, 0.02605573832988739, -0.016331836581230164, -0.050688065588474274, -0.11655138432979584, 0.07879871129989624, -0.06485435366630554, 0.0036814063787460327, 0.09296484291553497, 0.03420819342136383, -0.07884303480386734, -0.13199734687805176, 0.08850410580635071, -0.04717358946800232, -0.11764729022979736, -0.05326896905899048, 0.023019537329673767, -0.052580803632736206, 0.014326915144920349, 0.05857729911804199, 0.03794322907924652, 0.05964195728302002, -0.06499828398227692, 0.06511849164962769, -0.022819630801677704, 0.12165215611457825, 0.12411123514175415, 0.11199626326560974, -0.02199918031692505, 0.10540859401226044, 0.046476349234580994, 0.08088795840740204, 0.062386006116867065, -0.029784083366394043, -0.06929504126310349, -0.01537148654460907, 0.04617595672607422, 0.0774993747472763, 0.1353062093257904, 0.051439642906188965, -0.10361591726541519, -0.036708101630210876, -0.038945138454437256, 0.08102618157863617, -0.06433919072151184, 0.10789737105369568, -0.12215126305818558, 0.024069905281066895, 0.05742087960243225, 0.08549612760543823, 0.025161802768707275, 0.11513650417327881, -0.04896845668554306, -0.06943652778863907, 0.007938310503959656, -0.050421521067619324, 0.00541137158870697, -0.10421475023031235, -0.04718630760908127, -0.08026421070098877, 0.11143633723258972, 0.01222279667854309, 0.040629684925079346, 0.04916320741176605, -0.11100345849990845, 0.1422264575958252, 0.05010750889778137, -0.017097100615501404, 0.07179875671863556, 0.044890135526657104, 0.015213727951049805, 0.11536070704460144, -0.042784713208675385, 0.09101016819477081, 0.13616248965263367, 0.022686555981636047, -0.04776637256145477, 0.047071099281311035, -0.11937637627124786, -0.09806228429079056, 0.00041256844997406006, -0.009706735610961914, -0.07638216018676758, 0.046233534812927246, -0.04108079522848129, 0.062388986349105835, -0.10205288976430893, 0.10996398329734802, -0.05068935453891754, 0.13563445210456848, 0.07355622947216034, 0.05719320476055145, 0.0862702876329422, 0.11436808109283447, -0.06751168519258499, -0.06604136526584625, 0.045953258872032166, -0.14354807138442993, 0.076531782746315, 0.07284639775753021, 0.05693298578262329, -0.07521157711744308, -0.06347250938415527, -0.006961897015571594, -0.13355572521686554, 0.051394060254096985, 0.10848379135131836, -0.023089051246643066, -0.1442442536354065, 0.13518306612968445, -0.01909804344177246, -0.004550278186798096, -0.0676008015871048, 0.0612616091966629, -0.11042766273021698, -0.057285211980342865, 0.022181376814842224, -0.02496609091758728, -0.029057785868644714, 0.14354249835014343, -0.08210011571645737, -0.03651842474937439, -0.06687508523464203, -0.05054781585931778, -0.008663445711135864, -0.09877985715866089, -0.07616415619850159, 0.01243947446346283, 0.1107686460018158, -0.1360994428396225, -0.1390674114227295, 0.12798944115638733, -0.06828449666500092, 0.003112897276878357, -0.07359539717435837, 0.006450638175010681, -0.03861977159976959, -0.004115968942642212, 0.03323237597942352, -0.09384243190288544, 0.12612223625183105, -0.02974669635295868, -0.08001168817281723, -0.09374997019767761, -0.017487958073616028, -0.10893204808235168, 0.003636375069618225, 0.12738576531410217, 0.0024064630270004272, -0.12144967168569565, 0.11295583844184875, 0.012270748615264893, -0.10827727615833282, -0.014976859092712402, -0.03672708570957184, -0.019578881561756134, -0.12175579369068146, 0.03841733932495117, -0.033194251358509064, -0.12077528983354568, -0.14341020584106445, -0.09284266084432602, 0.07205341756343842, -0.05817250907421112, -0.030399441719055176, -0.06004740297794342, -0.057292595505714417, -0.13006021082401276, -0.02692684531211853, 0.0646049827337265, -0.003617003560066223, -0.06094322353601456, 0.050601303577423096, -0.02746373414993286, -0.12269023805856705, -0.07027217745780945, -0.056475430727005005, 0.04640033841133118, -0.015531107783317566, -0.10351711511611938, 0.056744009256362915, 0.039679959416389465, -0.08700308948755264, 0.07245250046253204, 0.052758216857910156, 0.023788347840309143, 0.11723199486732483, 0.026387780904769897, -0.05660368502140045, -0.1356555074453354]}, "bias": {"shape": [12], "values": [0.10375097393989563, 0.12145236134529114, 0.08837832510471344, -0.11200173944234848, -0.030443556606769562, 0.0751720517873764, 0.034752458333969116, -0.13319653272628784, 0.12231743335723877, 0.02248223125934601, -0.06323602050542831, 0.12067553400993347]}}, "floor": {"shape": [1], "values": [0.0]}, "ceiling": {"shape": [1], "values": [0.0]}, "coef_softsign": {"shape": [1], "values": [1.4251484870910645]}, "coef_tanh": {"shape": [1], "values": [-0.4144541025161743]}}, "stack.3": {"conv": {"weight": {"shape": [12, 12, 4], "values": [0.07831858098506927, -0.019970327615737915, 0.10605272650718689, -0.04170389473438263, -0.08694186806678772, -0.019445151090621948, 0.04530932009220123, -0.02794370800256729, -0.08460983633995056, 0.05264724791049957, -0.00045649707317352295, -0.026003487408161163, 0.031324997544288635, 0.08591136336326599, 0.07547591626644135, 0.004032164812088013, 0.0295305997133255, 0.10881376266479492, 0.09050077199935913, 0.03718827664852142, -0.1378849893808365, -0.00515863299369812, 0.04700051248073578, -0.0966196358203888, 0.0005166083574295044, -0.10228550434112549, 0.13538721203804016, 0.07275223731994629, 0.11852049827575684, 0.08360061049461365, -0.13100175559520721, -0.11000299453735352, 0.11773902177810669, -0.03820229321718216, 0.05291949212551117, 0.057194873690605164, -0.1353912055492401, 0.030635178089141846, -0.08973785489797592, -0.037697337567806244, -0.06732138246297836, 0.04001438617706299, 0.11918690800666809, 0.014986366033554077, 0.0331454873085022, 0.13656628131866455, -0.023190774023532867, -0.10650629550218582, 0.12360280752182007, 0.032264649868011475, -0.019799329340457916, 0.12813976407051086, -0.04893490672111511, -0.03242123872041702, 0.07554450631141663, 0.11360269784927368, -0.034828804433345795, 0.14303463697433472, 0.12609347701072693, -0.0498187318444252, 0.13255560398101807, -0.014875292778015137, -0.07077678292989731, -0.13030096888542175, 0.02662608027458191, -0.10515663027763367, -0.025057047605514526, 0.0687398761510849, 0.07598601281642914, -0.05113973468542099, 0.08905535936355591, 0.09957726299762726, 0.13557592034339905, -0.04347030073404312, 0.027149751782417297, 0.1300235390663147, 0.01568591594696045, 0.02962249517440796, 0.09882177412509918, -0.012907147407531738, -0.05677986145019531, -0.07004181295633316, -0.01425836980342865, 0.12418454885482788, 0.04032270610332489, 0.0699576586484909, -0.0073521435260772705, -0.07232648134231567, 0.048543304204940796, -0.1328776478767395, 0.09445706009864807, -0.10651852935552597, 0.05994696915149689, 0.13797760009765625, 0.08737069368362427, -0.0919571965932846, 0.08937907218933105, -0.06780555099248886, 0.015628576278686523, 0.10835006833076477, -0.12615223228931427, -0.030708275735378265, 0.0704679787158966, -0.14204995334148407, 0.00636686384677887, -0.0751229077577591, -0.06296630948781967, -0.08547534048557281, -0.0886019766330719, -0.01704294979572296, -0.024129487574100494, 0.1053154468536377, 0.023287564516067505, 0.031041115522384644, 0.09859874844551086, -0.06504279375076294, 0.1399151086807251, 0.09061706066131592, 0.05745561420917511, -0.0776997059583664, -0.059654928743839264, -0.13732556998729706, 0.019175127148628235, 0.02905479073524475, 0.09983040392398834, -0.045911215245723724, -0.11505790054798126, 0.024121955037117004, -0.05165968835353851, -0.11991710215806961, 0.07597856223583221, 0.08691471815109253, -0.13978268206119537, 0.054274678230285645, -0.11177919059991837, -0.1069248765707016, -0.050936728715896606, -0.0006712377071380615, -0.11672797054052353, -0.03819349408149719, 0.019569411873817444, -0.07883220911026001, -0.13657936453819275, -0.13120734691619873, 0.13398459553718567, -0.08775921165943146, 0.01884378492832184, -0.04511842876672745, -0.07058382034301758, -0.0906381905078888, -0.05674736201763153, 0.11927327513694763, -0.12729893624782562, 0.09457333385944366, -0.12891115248203278, 0.09700198471546173, 0.02383062243461609, -0.13016045093536377, -0.09731155633926392, -0.06472586840391159, 0.06239141523838043, -0.09274353086948395, 0.1305486559867859, 0.1323474943637848, 0.14265969395637512, 0.11823460459709167, 0.028791576623916626, 0.11974209547042847, 0.12736615538597107, 0.11225152015686035, 0.07946570217609406, -0.0343053862452507, -0.07651347666978836, 0.07622621953487396, 0.05593636631965637, -0.13572964072227478, -0.10197539627552032, 0.03306320309638977, 0.06480981409549713, -0.03684031963348389, -0.09647248685359955, -0.09136475622653961, -0.04596041887998581, -0.1366521567106247, -0.13944432139396667, 0.02437432110309601, 0.0423436313867569, -0.11198337376117706, -0.0422578826546669, 0.029643356800079346, 0.046791091561317444, -0.041625261306762695, 0.05866101384162903, -0.053436458110809326, 0.14172515273094177, 0.00979277491569519, -0.13257333636283875, 0.0588969886302948, -0.01954761892557144, 0.12611213326454163, 0.012083306908607483, 0.10993555188179016, 0.0016516000032424927, 0.013851568102836609, -0.11460545659065247, 0.10285942256450653, -0.024699464440345764, -0.0955987423658371, -0.009251773357391357, 0.1028793454170227, -0.12534579634666443, 0.02014516294002533, 0.015099987387657166, -0.019757017493247986, -0.11515186727046967, -0.04846163094043732, 0.038762062788009644, -0.07900847494602203, -0.12866534292697906, -0.08973392844200134, 0.015724822878837585, -0.10000231862068176, -0.07488775253295898, -0.04070182889699936, -0.10797267407178879, -0.0872630774974823, 0.040423840284347534, 0.0674174576997757, -0.1035403162240982, -0.055399686098098755, -0.08308985829353333, -0.10375518351793289, -0.002711743116378784, -0.07396044582128525, -0.05812257528305054, -0.06615462154150009, -0.05290665477514267, 0.019874274730682373, 0.04582500457763672, -0.05528505891561508, -0.02683577686548233, 0.05406069755554199, -0.05364350229501724, 0.06600452959537506, 0.003916993737220764, 0.09625060856342316, 0.09018433094024658, 0.030825525522232056, 0.029306560754776, 0.01584412157535553, -0.0775638073682785, 0.05643653869628906, 0.003446802496910095, 0.02343064546585083, 0.04114094376564026, -0.07583733648061752, 0.06231969594955444, 0.06522729992866516, -0.09679120779037476, 0.07586927711963654, -0.03714878112077713, -0.04000570625066757, 0.10349899530410767, -0.013466596603393555, 0.0492110401391983, 0.0388275682926178, -0.0406271368265152, -0.11450908333063126, -0.10102058947086334, -0.126055508852005, -0.1389097273349762, 0.06261250376701355, 0.07576239109039307, 0.11944887042045593, 0.06365127861499786, 0.0954771637916565, 0.05830852687358856, -0.10143399238586426, 0.13062509894371033, -0.0583115890622139, 0.12316051125526428, 0.018416911363601685, 0.08672523498535156, 0.058017075061798096, 0.09152372181415558, -0.13904055953025818, 0.07448215782642365, 0.08043062686920166, 0.11645269393920898, -0.11312049627304077, 0.14086776971817017, 0.050255030393600464, -0.018099233508110046, -0.01434674859046936, 0.008838489651679993, 0.058805614709854126, 0.014934554696083069, 0.027213484048843384, -0.026188023388385773, -0.01377837359905243, 0.004172235727310181, 0.10262316465377808, 0.12271320819854736, 0.06947384774684906, 0.14407342672348022, 0.015461310744285583, -0.13054974377155304, 0.05303673446178436, 0.011944174766540527, -0.10387246310710907, 0.11765378713607788, -0.09446045756340027, -0.0046580880880355835, -0.12953336536884308, 0.13950186967849731, 0.10252118110656738, -0.06140175461769104, -0.028398610651493073, -0.09304631501436234, -0.11431927978992462, 0.07681083679199219, 0.0960226058959961, -0.009999528527259827, 0.14282956719398499, 0.004609331488609314, 0.13038289546966553, -0.1356329619884491, -0.011126339435577393, -0.07212674617767334, 0.03364817798137665, -0.10488517582416534, 0.12263408303260803, 0.034967392683029175, 0.13335713744163513, 0.08836525678634644, -0.11837904155254364, -0.05974211543798447, -0.10178503394126892, -0.09604191035032272, -0.056989140808582306, 0.061931878328323364, -0.0400560200214386, 0.11307823657989502, -0.05824899673461914, -0.038136132061481476, 0.13951781392097473, 0.14139017462730408, -0.010457903146743774, -0.019007384777069092, 0.11551705002784729, 0.0566277801990509, 0.00045652687549591064, 0.03002043068408966, 0.046652719378471375, -0.04454318434000015, -0.132760688662529, -0.024005770683288574, -0.06733917444944382, 0.059824392199516296, 0.0745251476764679, 0.043917715549468994, 0.025554105639457703, -0.07534946501255035, -0.04399837553501129, -0.09019320458173752, -0.00800180435180664, 0.01582781970500946, -0.13203002512454987, -0.11811883002519608, 0.04978105425834656, -0.1181500256061554, 0.14115038514137268, 0.08651283383369446, -0.0478038415312767, 0.051022499799728394, 0.031027451157569885, -0.05647604912519455, -0.048754528164863586, 0.07119594514369965, -0.10251900553703308, 0.1361272633075714, 0.03311401605606079, -0.0827314555644989, 0.005578875541687012, -0.033769480884075165, -0.006378337740898132, -0.13876467943191528, 0.03671877086162567, -0.042813219130039215, 0.03398880362510681, 0.12388503551483154, -0.10508546233177185, -0.01231914758682251, 0.015995889902114868, -0.01454874873161316, -0.06784666329622269, 0.07214219868183136, -0.05372932553291321, -0.036069490015506744, -0.1423313468694687, -0.07033605873584747, 0.09400565922260284, 0.010726243257522583, -0.125295490026474, 0.011040717363357544, 0.10909146070480347, 0.05126123130321503, 0.03551843762397766, -0.03120199590921402, 0.04620391130447388, -0.06634517759084702, -0.10984085500240326, -0.0011949539184570312, -0.07328879833221436, 0.12329810857772827, -0.027277395129203796, 0.10411670804023743, -0.04625652730464935, -0.05862875282764435, 0.10610562562942505, -0.058144621551036835, 0.020524650812149048, 0.017239317297935486, 0.04105035960674286, -0.04664738476276398, 0.030840054154396057, 0.002953574061393738, -0.1405787318944931, -0.11391717195510864, -0.13770654797554016, -0.010107263922691345, 0.030627921223640442, -0.07498076558113098, -0.10763236880302429, 0.13802698254585266, 0.04055149853229523, 0.08301684260368347, -0.03556085377931595, -0.13305744528770447, -0.003054380416870117, -0.14230234920978546, 0.11689752340316772, 0.050237223505973816, -0.038706421852111816, 0.07553328573703766, 0.08677075803279877, 0.1004808098077774, -0.09095034003257751, -0.006329208612442017, 0.12910377979278564, -0.007617875933647156, 0.04426725208759308, 0.014809563755989075, -0.09164151549339294, -0.11712019145488739, 0.06898921728134155, -0.05360392481088638, 0.062263667583465576, -0.12403923273086548, -0.04323809593915939, 0.04653814435005188, -0.0374847874045372, -0.04050210863351822, -0.12559443712234497, -0.12507399916648865, 0.05344477295875549, 0.04755978286266327, -0.07395976036787033, 0.0674276202917099, -0.013448283076286316, -0.13277606666088104, 0.02290201187133789, 0.05586981773376465, -0.06259910762310028, 0.05962866544723511, 0.09699928760528564, -0.07241523265838623, 0.032792091369628906, -0.10879787802696228, 0.07059408724308014, 0.1233539879322052, 0.016847163438796997, 0.10224215686321259, 0.13240396976470947, -0.06975987553596497, 0.09243631362915039, -0.09687851369380951, -0.10458910465240479, -0.07755253463983536, 0.09576420485973358, 0.14189183712005615, -0.06870914995670319, -0.012540116906166077, -0.09437872469425201, -0.10349185764789581, -0.057477906346321106, -0.12017568200826645, 0.03260780870914459, -0.07283501327037811, 0.13916915655136108, 0.11362093687057495, 0.012937039136886597, -0.04320286214351654, 0.058512791991233826, -0.04302234947681427, 0.10795393586158752, 0.07570001482963562, 0.0684593915939331, 0.03418697416782379, 0.0676274448633194, 0.05819214880466461, 0.13092106580734253, -0.12181387841701508, 0.05053190886974335, 0.0876191258430481, -0.07312469929456711, -0.08184261620044708, -0.059034913778305054, 0.058203861117362976, 0.0631876140832901, 0.033802106976509094, 0.06020572781562805, 0.09707245230674744, 0.0259963721036911, 0.02321745455265045, 0.05207549035549164, 0.13804900646209717, -0.0036953985691070557, 0.11734330654144287, 0.037079229950904846, -0.01991722732782364, 0.0799105316400528, 0.04220329225063324, -0.07137562334537506, 0.13866087794303894, -0.12727315723896027, 0.014111340045928955, 0.03969566524028778, 0.037856608629226685, 0.00620618462562561, 0.11875441670417786, 0.09537871181964874, 0.12761032581329346, 0.06533907353878021, 0.07488387823104858, -0.07941897958517075, -0.02288723737001419, -0.13795119524002075, -0.07587696611881256, 0.012837186455726624, 0.0859203040599823, -0.06319333612918854, -0.06376403570175171, 0.12208220362663269, 6.400048732757568e-05, -0.14045192301273346, -0.11681272834539413, 0.08023568987846375, -0.09571392089128494, 0.021471261978149414, 0.05832923948764801, 0.028139740228652954, -0.04911342263221741, -0.0006455183029174805, 0.0123940110206604, -0.13571545481681824, 0.05802576243877411, 0.0810541957616806, 0.02896203100681305, -0.04095710068941116, -0.14271080493927002, -0.09308335930109024, 0.0781828761100769, 0.010197371244430542, 0.08122104406356812, -0.009448602795600891]}, "bias": {"shape": [12], "values": [0.07583914697170258, -0.08077551424503326, -0.045187219977378845, -0.03522792458534241, -0.09127930551767349, 0.002150610089302063, -0.13028734922409058, 0.11631271243095398, 0.09063407778739929, 0.06462980806827545, 0.014850705862045288, -0.09494300186634064]}}, "floor": {"shape": [1], "values": [0.0]}, "ceiling": {"shape": [1], "values": [0.0]}, "coef_softsign": {"shape": [1], "values": [-1.0722064971923828]}, "coef_tanh": {"shape": [1], "values": [-0.7200878858566284]}}, "stack.4": {"conv": {"weight": {"shape": [12, 12, 4], "values": [-0.09873897582292557, -0.07352359592914581, -0.05057792365550995, -0.0330391526222229, -0.0541437566280365, 0.009423121809959412, -0.02467348426580429, -0.02061181515455246, 0.025161445140838623, -0.13721223175525665, 0.02708926796913147, 0.07370308041572571, -0.13617923855781555, 0.11854839324951172, 0.0015364289283752441, -0.06624487042427063, -0.015497788786888123, -0.02308104932308197, -0.02833002805709839, 0.023803696036338806, 0.025418534874916077, -0.024799704551696777, 0.00978320837020874, -0.07476656883955002, 0.013911023736000061, 0.0021800845861434937, 0.07740828394889832, -0.08940266072750092, -0.07856910675764084, 0.044609665870666504, 0.12085580825805664, -0.12591670453548431, -0.08065736293792725, 0.05638015270233154, -0.08603788167238235, -0.08546881377696991, 0.13602140545845032, 0.13881444931030273, -0.09627361595630646, 0.11692997813224792, 0.09929192066192627, 0.09835787117481232, 0.00548475980758667, 0.005678519606590271, -0.03923381119966507, 0.03741958737373352, 0.12195029854774475, -0.11403997242450714, -0.024258241057395935, -0.011608436703681946, 0.0638454407453537, 0.014126434922218323, 0.08634516596794128, -0.09042157232761383, -0.06790401041507721, 0.010856196284294128, -0.09504309296607971, -0.13266289234161377, -0.04226244240999222, -0.0007517635822296143, -0.02455952763557434, -0.08219802379608154, 0.1411154866218567, 0.09130190312862396, 0.1041882187128067, -0.09859402477741241, -0.08424261957406998, -0.12160114198923111, -0.06608830392360687, 0.1097879409790039, 0.024764731526374817, -0.01626606285572052, 0.13490769267082214, 0.14167046546936035, 0.13317042589187622, 0.03545878827571869, 0.12076172232627869, 0.06756937503814697, -0.01844705641269684, -0.1308014988899231, -0.0036151260137557983, -0.050759315490722656, -0.06441410630941391, 0.0354924350976944, -0.09840890765190125, -0.032313838601112366, 0.0700933188199997, -0.10008236765861511, 0.004242166876792908, 0.07614313066005707, -0.09188051521778107, 0.0586104691028595, 0.07909438014030457, -0.09910270571708679, 0.09004311263561249, -0.13373756408691406, -0.0457545667886734, -0.019895531237125397, -0.010707467794418335, -0.1256941556930542, 0.11299175024032593, 0.09283451735973358, -0.0066444724798202515, 0.11922392249107361, 0.10653239488601685, 0.053488731384277344, 0.14111965894699097, 0.09161172807216644, -0.005011111497879028, 0.0584549754858017, 0.03580930829048157, -0.010733410716056824, -0.06163337081670761, 0.011524111032485962, -0.10068954527378082, 0.09608905017375946, 0.08524049818515778, -0.11762729287147522, -0.03619232773780823, 0.0570511668920517, 0.13187313079833984, 0.004204884171485901, -0.05129353702068329, -0.00856076180934906, -0.1409066766500473, -0.025693267583847046, 0.06546834111213684, 0.014789983630180359, 0.10509836673736572, -0.09712116420269012, 0.12215054035186768, 0.08482266962528229, -0.12940247356891632, 0.05561548471450806, 0.054924264550209045, -0.12308180332183838, 0.11832785606384277, 0.06008350849151611, 0.08666868507862091, 0.07876226305961609, 0.04349076747894287, 0.09900921583175659, 0.05761606991291046, 0.07075324654579163, 0.11275285482406616, 0.07763366401195526, 0.10151109099388123, 0.026027336716651917, -0.009206220507621765, -0.10279735922813416, 0.009058848023414612, 0.08683890104293823, 0.053537771105766296, -0.05738417059183121, -0.03921407461166382, 0.13134601712226868, 0.01445317268371582, -0.06777434051036835, 0.0523652583360672, 0.10927444696426392, -0.08852192759513855, -0.09300028532743454, -0.06405043601989746, 0.13939881324768066, 0.032138973474502563, -0.023323312401771545, -0.14098569750785828, -0.08758743107318878, 0.05123665928840637, -0.039702773094177246, -0.13325470685958862, 0.06332440674304962, -0.07457027584314346, 0.1021207720041275, 0.012027785181999207, 0.12054488062858582, 0.12419310212135315, -0.03427281975746155, 0.05263969302177429, -0.11636655032634735, -0.12211494147777557, -0.060624510049819946, 0.07598663866519928, -0.07733295112848282, -0.11943735182285309, 0.026158124208450317, 0.06037747859954834, 0.06782987713813782, 0.0026114583015441895, 0.13012301921844482, 0.07570037245750427, -0.0853811651468277, -0.13617826998233795, -0.06997359544038773, 0.06024588644504547, -0.1427142173051834, 0.0067848265171051025, 0.1316293179988861, -0.02241101861000061, -0.02913530170917511, -0.04916743189096451, -0.0967741310596466, -0.0015872418880462646, 0.04557347297668457, 0.094968780875206, -0.03867224603891373, 0.07536457479000092, -0.035292625427246094, 0.1311776041984558, 0.08335334062576294, -0.026303358376026154, 0.11360600590705872, -0.05020124465227127, -0.061774842441082, -0.014975503087043762, -0.08420607447624207, 0.05425387620925903, -0.13717541098594666, 0.029698416590690613, -0.10425393283367157, -0.08369407802820206, 0.04431408643722534, 0.1344565749168396, 0.11895987391471863, 0.07439324259757996, 0.05090302228927612, -0.05563737452030182, 0.12565505504608154, 0.053300291299819946, 0.024242043495178223, 0.03843012452125549, -0.012563735246658325, 0.11113053560256958, -0.07231435179710388, 0.12415701150894165, 0.011705443263053894, 0.13090142607688904, -0.04557950794696808, -0.0010043680667877197, 0.07674828171730042, 0.12708818912506104, -0.01974855363368988, 0.008829101920127869, 0.13533669710159302, -0.0055928826332092285, 0.12195780873298645, 0.04499514400959015, 0.14267373085021973, -0.0316697359085083, -0.10667534917593002, -0.09044178575277328, 0.10419629514217377, 0.08367106318473816, -0.023996345698833466, -0.04802289605140686, 0.14294591546058655, -0.04219681769609451, 0.041974976658821106, -0.05191764980554581, -0.06835846602916718, 0.04853750765323639, 0.013122409582138062, 0.07360844314098358, 0.13716435432434082, 0.03308141231536865, 0.09810158610343933, 0.0351337194442749, -0.03939768671989441, 0.011630192399024963, 0.05804121494293213, 0.14010176062583923, 0.0884186178445816, -0.012411817908287048, -0.051605887711048126, -0.04445941001176834, 0.05855491757392883, -0.02733207494020462, 0.11424481868743896, -0.10754139721393585, -0.08076505362987518, -0.10570793598890305, 0.03655819594860077, -0.10429617017507553, 0.12351465225219727, 0.07177449762821198, 0.0654643326997757, 0.1250825822353363, -0.06517946720123291, 0.11097654700279236, -0.051559753715991974, -0.11847943812608719, -0.09515565633773804, 0.09330505132675171, -0.14013049006462097, 0.008580371737480164, -0.119244784116745, -0.1366465836763382, -0.0016675740480422974, -0.03344882279634476, -0.11024582386016846, 0.13742953538894653, -0.10051088780164719, 0.0874573141336441, 0.03145141899585724, -0.05361555516719818, -0.06281492859125137, 0.08981296420097351, 0.0911654382944107, -0.06675475835800171, 0.13707563281059265, 0.08953242003917694, -0.10650447010993958, -0.04293175786733627, 0.022082477807998657, -0.10325387865304947, 0.04189109802246094, 0.031020313501358032, -0.06054150313138962, -0.13356010615825653, -0.047464221715927124, -0.0593053475022316, 0.06564487516880035, 0.06667985022068024, -0.11769221723079681, -0.056438639760017395, -0.0009509176015853882, -0.0520305261015892, 0.04528968036174774, 0.1300661265850067, 0.0009368062019348145, -0.06038026511669159, -0.07000727951526642, 0.0943513810634613, -0.013979241251945496, -0.06007847934961319, 0.08258914947509766, -0.11743342876434326, -0.031457409262657166, -0.06664307415485382, 0.056925490498542786, 0.14337366819381714, -0.1158958375453949, -0.13255122303962708, -0.07557129114866257, -0.14152982831001282, -0.1103123128414154, 0.0025315284729003906, -0.04849696904420853, 0.0999733954668045, -0.09277045726776123, 0.07884502410888672, 0.039510682225227356, 0.003729209303855896, 0.010168060660362244, -0.004583433270454407, -0.13087056577205658, 0.06081011891365051, 0.03237511217594147, 0.09395113587379456, -0.021729573607444763, -0.09935919940471649, -0.1066451370716095, -0.06104489415884018, -0.12823158502578735, 0.07192263007164001, 0.060946956276893616, -0.06848587840795517, 0.12805253267288208, -0.1319824457168579, 0.02182595431804657, 0.03192932903766632, -0.11884629726409912, -0.11038869619369507, -0.043993785977363586, -0.09266802668571472, 0.060230329632759094, -0.08061205595731735, 0.12750154733657837, -0.00335104763507843, -0.00762610137462616, 0.03411908447742462, 6.590783596038818e-05, 0.042074054479599, 0.09045466780662537, -0.08431929349899292, 0.12529844045639038, -0.10427246242761612, 0.0746116191148758, -0.04434508830308914, 0.052733659744262695, 0.12339761853218079, 0.1394418179988861, -0.14286071062088013, 0.1296086609363556, -0.11554716527462006, 0.058092162013053894, 0.09175758063793182, -0.1227707639336586, 0.13176631927490234, -0.1280033141374588, -0.12184454500675201, -0.039579108357429504, -0.04422777146100998, -0.11109182983636856, 0.097379669547081, -0.09372970461845398, -0.08277135342359543, 0.05859929323196411, 0.11774054169654846, 0.08274561166763306, -0.040082670748233795, -0.10707838833332062, -0.1140289232134819, 0.08003637194633484, 0.08807104825973511, -0.05475801229476929, 0.032758474349975586, -0.02079540491104126, -0.037167035043239594, 0.04105761647224426, 0.10163986682891846, -0.12762762606143951, -0.11181637644767761, -0.0984690934419632, 0.11996579170227051, 0.11352598667144775, -0.07183045148849487, 0.027329474687576294, -0.07341430336236954, -0.09122448414564133, 0.029779434204101562, 0.025781258940696716, 0.08960855007171631, 0.09179502725601196, -0.0757756158709526, 0.12940052151679993, -0.09701748192310333, -0.0736209973692894, -0.03476280719041824, 0.01512308418750763, -0.07487491518259048, -0.047669894993305206, 0.06070871651172638, -0.06131358444690704, -0.11167452484369278, -0.11230756342411041, -0.07811260223388672, -0.11688468605279922, -0.08058406412601471, 0.12210395932197571, 0.07617521286010742, -0.1439429074525833, 0.02353586256504059, 0.046167463064193726, -0.0738929957151413, -0.0971769243478775, 0.07437478005886078, -0.0074511319398880005, 0.13172584772109985, -0.09012524038553238, -0.12459228187799454, 0.023775756359100342, 0.043632909655570984, -0.07605845481157303, -0.011175096035003662, 0.014498978853225708, 0.09929890930652618, 0.008812710642814636, -0.09446854144334793, -0.07572939991950989, -0.025594539940357208, 0.020128265023231506, 0.029506638646125793, 0.11409887671470642, -0.11074352264404297, -0.020982421934604645, -0.1130678653717041, 0.08260230720043182, 0.08180788159370422, -0.01000051200389862, -0.10098391026258469, -0.1163262352347374, -0.00782524049282074, -0.0936369001865387, -0.05697575956583023, 0.12709948420524597, -0.12785975635051727, -0.12133568525314331, -0.11681044101715088, 0.06257587671279907, -0.13135753571987152, -0.05036070942878723, 0.0047165751457214355, 0.06574718654155731, -0.07000074535608292, -0.11937491595745087, -0.022653818130493164, 0.03347472846508026, -0.11458350718021393, -0.03747088462114334, -0.019986018538475037, 0.1403399109840393, -0.10749159753322601, -0.09478224813938141, 0.1362287700176239, 0.009340152144432068, -0.0726514384150505, 0.14400887489318848, 0.07644949853420258, 0.03339846432209015, 0.010736092925071716, -0.07840274274349213, -0.03958418220281601, 0.07948015630245209, 0.09196415543556213, -0.02112066000699997, -0.07806408405303955, -0.04242485761642456, 0.005711764097213745, -0.0610608235001564, -0.092139333486557, -0.03405933827161789, 0.07720470428466797, 0.10551387071609497, 0.08862434327602386, 0.0707608014345169, 0.08360916376113892, 0.10995778441429138, -0.1278793066740036, 0.005389988422393799, 0.09026181697845459, -0.08903905004262924, 0.03650408983230591, -0.11454324424266815, 0.04890969395637512, 0.004078209400177002, -0.06373953074216843, -0.12812387943267822, 0.1208350658416748, 0.048277199268341064, -0.021150559186935425, -0.11668318510055542, 0.09170013666152954, 0.07456089556217194, 0.10749024152755737, 0.14217567443847656, 0.03208494186401367, 0.0748365968465805, 0.017639443278312683, 0.061120063066482544, 0.06659947335720062, -0.08962585777044296, 0.11422356963157654, 0.13625991344451904, -0.06605947017669678, -0.10873398929834366, -0.04043067246675491, 0.033993229269981384, 0.13313761353492737, 0.1414097547531128, 0.12656164169311523, 0.08135460317134857, -0.015214517712593079, -0.08401966094970703, 0.11917504668235779, -0.12758827209472656, -0.050195395946502686, -0.07813937962055206, -0.010417655110359192, -0.11706139147281647, -0.12634159624576569, -0.04920174181461334, 0.014767199754714966, 0.0323014110326767, 0.023083359003067017, -0.14293915033340454]}, "bias": {"shape": [12], "values": [0.10780507326126099, -0.12369607388973236, 0.12008371949195862, -0.06094653904438019, 0.12207570672035217, 0.007214799523353577, 0.10602539777755737, 0.13310357928276062, -0.041444867849349976, -0.13666127622127533, 0.06884430348873138, -0.04821106791496277]}}, "floor": {"shape": [1], "values": [0.0]}, "ceiling": {"shape": [1], "values": [0.0]}, "coef_softsign": {"shape": [1], "values": [0.24736137688159943]}, "coef_tanh": {"shape": [1], "values": [0.3382693827152252]}}, "stack.5": {"conv": {"weight": {"shape": [12, 12, 4], "values": [-0.11572249233722687, 0.00941997766494751, 0.031091734766960144, 0.13092699646949768, 0.060902148485183716, 0.1422525942325592, 0.009596243500709534, -0.03507136553525925, -0.0837298333644867, -0.07973139733076096, -0.10032705962657928, -0.08659297227859497, -0.09941232949495316, 0.057644933462142944, -0.13308553397655487, 0.05911804735660553, -0.11173701286315918, -0.006620913743972778, 0.08086521923542023, 0.06554488837718964, -0.12019761651754379, -0.12459002435207367, 0.008073151111602783, 0.082799032330513, 0.13821622729301453, 0.11607086658477783, 0.06960758566856384, -0.00046588480472564697, 0.11962726712226868, 0.011259287595748901, -0.13215360045433044, 0.0773622989654541, -0.02522735297679901, 0.09691986441612244, -0.06500943005084991, -0.09211011230945587, 0.10356278717517853, -0.016016513109207153, -0.12884536385536194, 0.03728042542934418, -0.0420503094792366, -0.0620584711432457, 0.052738890051841736, -0.0017001628875732422, -0.14230312407016754, -0.05392477661371231, 0.10755345225334167, -0.10777473449707031, -0.1301220953464508, 0.09929455816745758, -0.02019762247800827, 0.016398683190345764, -0.023148484528064728, 0.1380944848060608, -0.0825219601392746, -0.0430978462100029, 0.04846876859664917, -0.027395136654376984, -0.06727498024702072, -0.044900134205818176, 0.03248657286167145, 0.05055154860019684, -0.06816630065441132, -0.0350002720952034, 0.12175121903419495, -0.10412152111530304, 0.04449036717414856, 0.011229529976844788, 0.03772455453872681, 0.11666148900985718, 0.12685653567314148, 0.0925692617893219, 0.10164356231689453, 0.09412027895450592, -0.03867066651582718, -0.12187930196523666, -0.026961877942085266, 0.0019087344408035278, 0.09650395810604095, -0.06122129410505295, -0.13013288378715515, -0.12391185760498047, 0.024973824620246887, -0.026582032442092896, -0.08374415338039398, -0.05270836502313614, 0.016187414526939392, 0.029131382703781128, 0.13187339901924133, 0.08397865295410156, 0.0861598551273346, 0.09605130553245544, 0.11231160163879395, 0.0974450409412384, 0.03278934955596924, 0.0457613468170166, -0.09320294857025146, -0.07446642220020294, -0.013992026448249817, -0.030144765973091125, 0.039729297161102295, -0.089604452252388, 0.05877889692783356, 0.007407858967781067, -0.08055945485830307, -0.11293283104896545, 0.041604697704315186, 0.11067205667495728, -0.023301929235458374, -0.0760774314403534, -0.10459795594215393, -0.015205398201942444, 0.0015390366315841675, 0.06390431523323059, -0.007550135254859924, -0.027400143444538116, 0.04227361083030701, 0.025910615921020508, 0.11715906858444214, 0.0751633495092392, 0.06540040671825409, 5.359947681427002e-05, 0.02607250213623047, 0.05837266147136688, -0.08556783199310303, -0.12107068300247192, -0.0021135807037353516, -0.10339410603046417, 0.12485319375991821, 0.10197696089744568, 0.02987419068813324, -0.08892340958118439, -0.12657399475574493, 0.08271455764770508, 0.1404714584350586, 0.09677976369857788, -0.03346816450357437, 0.08820943534374237, -0.05899014323949814, 0.05724698305130005, 0.10413119196891785, 0.05363966524600983, 0.13856694102287292, 0.005115211009979248, -0.07207003235816956, 0.07840107381343842, -0.09992831945419312, 0.045445069670677185, 0.008031874895095825, 0.0772005170583725, -0.021922990679740906, 0.07893356680870056, -0.0175706148147583, -0.010232463479042053, 0.12049645185470581, -0.12085698544979095, 0.1380957067012787, 0.08304086327552795, -0.015423223376274109, -0.03892455995082855, 0.049622759222984314, -0.12513600289821625, 0.016150355339050293, 0.14338380098342896, 0.12152054905891418, 0.12139692902565002, -0.0063783228397369385, -0.09211032092571259, 0.1406557261943817, -0.13818128407001495, 0.12052175402641296, -0.13465747237205505, -0.04795730859041214, 0.12006315588951111, -0.07448714971542358, -0.09617957472801208, 0.08459040522575378, -0.006332769989967346, -0.11846306174993515, -0.01780000329017639, -0.03381597250699997, 0.1392725706100464, -0.12386846542358398, -0.06725465506315231, -0.02908344566822052, 0.1147172749042511, -0.05341248959302902, 0.09751494228839874, -0.028959348797798157, 0.011788472533226013, -0.1353086680173874, -0.033170729875564575, 0.03709821403026581, -0.12040163576602936, -0.05152925103902817, 0.1332419216632843, 0.05384179949760437, 0.10955816507339478, -0.0013885647058486938, 0.06609493494033813, 0.02662259340286255, 0.004090502858161926, -0.01727791130542755, -0.02942982316017151, -0.08650536090135574, -0.026934266090393066, 0.0910010039806366, -0.10950830578804016, 0.02858079969882965, 0.05335775017738342, -0.10552886873483658, -0.10425542294979095, 0.030307188630104065, -0.02370942384004593, 0.020818501710891724, -0.12729519605636597, -0.010349154472351074, -0.12219574302434921, 0.09105855226516724, 0.057229265570640564, 0.13742870092391968, 0.12958383560180664, 0.0451311320066452, -0.08872735500335693, 0.03520023822784424, -0.009821876883506775, 0.08843618631362915, 0.07690846920013428, 0.016019925475120544, 0.14356958866119385, 0.062397971749305725, 0.024213775992393494, 0.1068069338798523, -0.0006029605865478516, -0.0972437933087349, 0.05492642521858215, -0.08387939631938934, 0.13374140858650208, -0.14143550395965576, 0.09811240434646606, 0.01586325466632843, 0.017368793487548828, 0.12139526009559631, 0.05579115450382233, -0.030272968113422394, 0.0013226568698883057, -0.14009211957454681, -0.07301130890846252, 0.10472230613231659, 0.03397722542285919, -0.05871747434139252, 0.09525951743125916, -0.11489545553922653, 0.1314784288406372, 0.10394412279129028, 0.023621603846549988, 0.06506477296352386, -0.0008530914783477783, 0.014974012970924377, 0.12405794858932495, -0.013477548956871033, -0.10540175437927246, -0.12146429717540741, 0.13200923800468445, -0.09034198522567749, 0.11858633160591125, -0.11239129304885864, 0.08282512426376343, -0.08297818899154663, 0.13003259897232056, 0.11874783039093018, -0.07047323137521744, -0.020219355821609497, -0.052632078528404236, -0.08056271076202393, 0.07640649378299713, -0.10037556290626526, 0.08300657570362091, 0.13528066873550415, 0.023829147219657898, -0.024456217885017395, 0.01747259497642517, -0.09666252136230469, -0.11300113797187805, -0.11960455030202866, 0.005714818835258484, -0.013595327734947205, -0.12201626598834991, -0.0009381622076034546, 0.05132037401199341, -0.030074238777160645, -0.09632380306720734, 0.01158931851387024, 0.06684786081314087, -0.038849592208862305, -0.08283871412277222, -0.03697425127029419, -0.06555028259754181, -0.04172676056623459, -0.10470423847436905, -0.016814127564430237, -0.10615447163581848, 0.021861478686332703, -0.11182382702827454, -0.01572452485561371, 0.0630183219909668, 0.08569550514221191, 0.12030002474784851, -0.08592910319566727, -0.03765113651752472, 0.10944133996963501, 0.03425835072994232, 0.05976802110671997, 0.06891372799873352, 0.09207084774971008, -0.05107319355010986, 0.027796193957328796, -0.058762431144714355, 0.0805119127035141, -0.09269492328166962, 0.004886850714683533, -0.034322112798690796, 0.08488829433917999, -0.029649101197719574, -0.017862215638160706, -0.013204798102378845, 0.024968832731246948, 0.06350710988044739, -0.013658374547958374, 0.12217020988464355, -0.0724644586443901, -0.12542322278022766, 0.14213347434997559, 0.09275400638580322, -0.019859634339809418, 0.08222505450248718, 0.0012391209602355957, 0.0559116005897522, 0.12107300758361816, -0.10856126993894577, 0.0790751576423645, -0.02085043489933014, -0.07852421700954437, -0.03393378108739853, -0.012626245617866516, -0.04219648987054825, 0.11488029360771179, 0.0907568633556366, 0.03214745223522186, 0.1431618332862854, 0.1394791305065155, 0.07381235063076019, 0.05206742882728577, -0.10528331995010376, 0.1422201693058014, 0.00752846896648407, 0.12857988476753235, -0.05630699545145035, -0.09138108044862747, 0.10868862271308899, -0.12582868337631226, -0.07769910246133804, -0.12841960787773132, -0.113902747631073, -0.09313379228115082, 0.009840413928031921, 0.07464525103569031, 0.06508530676364899, 0.08039915561676025, 0.07019934058189392, 0.0035962164402008057, -0.04690186679363251, 0.04951433837413788, 0.032218411564826965, 0.11015775799751282, 0.03522208333015442, 0.08507688343524933, 0.12550568580627441, -0.10326704382896423, 0.12583112716674805, -0.0792144313454628, 0.11295333504676819, -0.05051715672016144, 0.0955187976360321, -0.08932836353778839, 0.06972450017929077, 0.07779362797737122, -0.059030815958976746, -0.08842726051807404, 0.01666329801082611, -0.13422758877277374, 0.11871668696403503, -0.062340013682842255, -0.012312963604927063, 0.05451585352420807, -0.08187027275562286, 0.038969412446022034, -0.08000630140304565, 0.06216098368167877, 0.08242996037006378, 0.05315391719341278, -0.09921872615814209, 0.0064414143562316895, 0.0685504674911499, 0.07997766137123108, 0.14029216766357422, 0.018285617232322693, 0.12233182787895203, -0.1134759932756424, -0.034911274909973145, -0.04937095195055008, 0.129571795463562, 0.0935439020395279, 0.0927489697933197, -0.07153360545635223, 0.08860664069652557, -0.08411002159118652, -0.019172534346580505, 0.008406519889831543, 0.10605412721633911, 0.08869868516921997, -0.003958761692047119, 0.13506865501403809, -0.11653272807598114, 0.08664968609809875, -0.08055359125137329, 0.028645813465118408, -0.0007532835006713867, 0.08652153611183167, -0.08747062087059021, -0.04174596071243286, 0.02454070746898651, 0.10389243066310883, -0.06739344447851181, -0.08771782368421555, 0.0659141093492508, 0.05273376405239105, -0.1281898319721222, 0.1336708962917328, 0.08898016810417175, -0.01361633837223053, -0.020858779549598694, -0.07539533823728561, 0.0401812344789505, -0.04865552484989166, -0.0272272527217865, -0.11738337576389313, -0.026507578790187836, -0.13441652059555054, -0.1056409478187561, -0.13645339012145996, -0.09850403666496277, 0.059214890003204346, 0.08214667439460754, 0.12557438015937805, 0.02783171832561493, 0.04781736433506012, -0.051599420607089996, 0.11175557971000671, 0.020518526434898376, 0.030148133635520935, -0.07843168079853058, 0.03091636300086975, 0.0167655348777771, 0.0767551064491272, 0.03865745663642883, -0.12317810952663422, -0.02255312353372574, 0.07300972938537598, 0.12558001279830933, -0.07165499776601791, 0.05884188413619995, 0.14113226532936096, 0.07361771166324615, 0.06051909923553467, 0.12707287073135376, -0.13529057800769806, 0.0303470641374588, -0.06598389893770218, 0.14141863584518433, -0.0678420141339302, 0.11789557337760925, -0.10728670656681061, 0.07983945310115814, -0.017255261540412903, -0.02784394472837448, -0.11179197579622269, 0.010686367750167847, 0.05964475870132446, 0.10217250883579254, -0.08633797615766525, 0.03038106858730316, -0.022782377898693085, 0.08639027178287506, -0.1366369128227234, 0.11667752265930176, 0.052588507533073425, 0.08504433929920197, 0.013772070407867432, -0.016891270875930786, 0.034368887543678284, -0.02302774041891098, -0.00958774983882904, 0.1299169957637787, -0.12903288006782532, -0.011588647961616516, 0.11718767881393433, 0.025009289383888245, -0.00562913715839386, -0.14293606579303741, -0.03413718193769455, -0.021610558032989502, 0.03802293539047241, -0.08931013941764832, 0.1435782015323639, -0.07735266536474228, 0.130915105342865, -0.12825047969818115, -0.055695272982120514, 0.1014491468667984, -0.015409991145133972, -0.13008569180965424, -0.10343877971172333, 0.11917132139205933, -0.11121616512537003, -0.11976565420627594, -0.06917819380760193, 0.07398101687431335, 0.05704168975353241, 0.0024473220109939575, -0.050056397914886475, 0.04092434048652649, -0.0841645896434784, 0.08041128516197205, 0.11082926392555237, 0.009109750390052795, 0.04039852321147919, 0.041560664772987366, 0.07372592389583588, 0.02197040617465973, -0.05930782109498978, 0.10673204064369202, -0.04005584865808487, -0.07363514602184296, 0.09346774220466614, -0.06415907293558121, -0.08368530869483948, 0.11707785725593567, 0.018515750765800476, 0.012410938739776611, -0.08320163190364838, 0.02165190875530243, -0.009095326066017151, 0.012884095311164856, -0.10663489997386932, 0.11905220150947571, -0.0972791463136673, 0.07019180059432983, 0.13371828198432922, -0.08280231058597565, 0.14063289761543274, 0.09369833767414093, 0.01828262209892273, 0.13889595866203308, -0.1328388899564743, 0.08969356119632721, -0.011522471904754639, 0.04323621094226837, -0.006006509065628052, -0.01353183388710022, 0.1077488362789154, -0.07583112269639969, 0.06798973679542542, 0.08599269390106201, -0.09801854193210602, 0.027947768568992615]}, "bias": {"shape": [12], "values": [-0.10245178639888763, 0.08680327236652374, 0.028898760676383972, 0.015265896916389465, -0.14032334089279175, 0.02638976275920868, -0.02796740084886551, -0.007812425494194031, 0.12992149591445923, -0.14136409759521484, -0.08202709257602692, -0.1317029446363449]}}, "floor": {"shape": [1], "values": [0.0]}, "ceiling": {"shape": [1], "values": [0.0]}, "coef_softsign": {"shape": [1], "values": [-0.4063223600387573]}, "coef_tanh": {"shape": [1], "values": [0.07493314892053604]}}, "stack.6": {"conv": {"weight": {"shape": [12, 12, 4], "values": [-0.11037620157003403, -0.09302975982427597, 0.08621774613857269, 0.08874031901359558, 0.07137246429920197, 0.06105262041091919, 0.01162700355052948, 0.13338825106620789, 0.13920393586158752, 0.0043561458587646484, -0.06863325089216232, -0.060759007930755615, -0.014234349131584167, 0.04554848372936249, 0.07563172280788422, 0.1347806453704834, 0.05144555866718292, 0.06167107820510864, -0.03750837594270706, -0.1052546352148056, 0.017923742532730103, 0.03824722766876221, -0.09271032363176346, -0.0025453567504882812, 0.1330985426902771, -0.13975204527378082, 0.03121308982372284, -0.10486435890197754, -0.13676267862319946, 0.075977623462677, -0.0275416299700737, -0.10518205910921097, -0.0072652846574783325, 0.04450710117816925, 0.06428955495357513, 0.006677180528640747, -0.11726795881986618, -0.06987836956977844, -0.06822521984577179, -0.10849829018115997, -0.07602741569280624, -0.022613108158111572, 0.04942096769809723, 0.009034574031829834, 0.12969189882278442, -0.073740154504776, -0.032890595495700836, -0.04831428825855255, 0.11886656284332275, 0.11159670352935791, 0.091676726937294, 0.004526004195213318, 0.022578835487365723, 0.07088424265384674, 0.13846033811569214, 0.1346573531627655, 0.011751025915145874, 0.14088094234466553, 0.11435702443122864, -0.11896467953920364, -0.003828585147857666, 0.019948557019233704, 0.0450795441865921, -0.1048804521560669, 0.02911362051963806, 0.019101008772850037, 0.03980530798435211, -0.054586149752140045, 0.1012335866689682, 0.061366528272628784, 0.013515397906303406, -0.0394260436296463, 0.03669394552707672, 0.05929766595363617, -0.011554047465324402, 0.06785964965820312, -0.014241412281990051, -0.13877715170383453, -0.014626771211624146, -0.029459021985530853, 0.042608410120010376, -0.12078487128019333, 0.044433653354644775, -0.06874264776706696, 0.007503628730773926, 0.12427675724029541, -0.03983587771654129, -0.05884077399969101, -0.08450422435998917, -0.1340005099773407, 0.06440123915672302, 0.1267874538898468, -0.10119877755641937, 0.09772148728370667, -0.05967678129673004, -0.104834645986557, -0.04742272198200226, -0.07588569074869156, -0.009876549243927002, -0.03542470186948776, 0.044975146651268005, 0.03729449212551117, 0.1079632043838501, -0.13535399734973907, 0.03436689078807831, -0.05386368930339813, -0.10196919739246368, -0.049849510192871094, -0.10990229994058609, -0.10955958068370819, -0.00991801917552948, -0.10133734345436096, -0.126032292842865, 0.052196845412254333, -0.02126546949148178, 0.008073493838310242, 0.11847999691963196, -0.08878596127033234, 0.1405828595161438, -0.10394082963466644, -0.09581993520259857, 0.0026827603578567505, -0.044882580637931824, 0.03719983994960785, -0.1348399668931961, 0.11414611339569092, 0.029529869556427002, -0.10242268443107605, 0.09756822884082794, 0.02407430112361908, 0.054954275488853455, 0.007392272353172302, 0.029166311025619507, 0.05000634491443634, -0.07179512828588486, -0.1132640540599823, -0.12684503197669983, 0.027362987399101257, 0.04180973768234253, 0.03133131563663483, -0.11908247321844101, -0.09025335311889648, -0.12274900078773499, 0.14339500665664673, -0.05486971139907837, 0.06741197407245636, 0.027007102966308594, 0.1165907084941864, 0.140915185213089, -0.10266849398612976, 0.04166802763938904, -0.0008259117603302002, -0.1423981636762619, 0.054086193442344666, -0.08603115379810333, 0.027949392795562744, 0.06974770128726959, 0.0675533264875412, -0.14290785789489746, 0.11601263284683228, 0.11872443556785583, 0.12397632002830505, 0.050480350852012634, -0.07852963358163834, 0.09989732503890991, -0.13947677612304688, 0.10717630386352539, 0.1282004714012146, 0.011606067419052124, 0.012531235814094543, -0.08640336245298386, 0.1357881724834442, -0.13081440329551697, 0.07168197631835938, 0.06299625337123871, 0.019046485424041748, -0.09953511506319046, -0.049498967826366425, 0.061982616782188416, -0.08086390793323517, -0.008349582552909851, 0.07433745265007019, 0.020464017987251282, -0.04701894521713257, 0.09062427282333374, -0.01220075786113739, 0.02330385148525238, 0.08710233867168427, -0.059722840785980225, 0.0193021297454834, 0.09639641642570496, -0.05251447111368179, -0.12023726105690002, 0.05829817056655884, -0.056856416165828705, 0.10722684860229492, 0.13657432794570923, -0.0471368208527565, 0.08178132772445679, 0.10295474529266357, 0.047385528683662415, 0.02851603925228119, -0.10143041610717773, 0.00521792471408844, -0.04321003705263138, 0.05571252107620239, -0.03761143982410431, 0.011318758130073547, 0.027257248759269714, 0.11244145035743713, -0.08176529407501221, -0.10887836664915085, 0.13752803206443787, 0.11876803636550903, -0.0556049570441246, 0.019528314471244812, 0.09743815660476685, -0.08011503517627716, -0.103679358959198, 0.10716885328292847, -0.04512075334787369, 0.14202377200126648, -0.1055452823638916, 0.0009471774101257324, 0.046643659472465515, 0.06700044870376587, 0.04139229655265808, -0.089658223092556, -0.011788100004196167, -0.022880367934703827, -0.05268198996782303, -0.08303399384021759, 0.11362668871879578, 0.11804133653640747, 0.042680755257606506, -0.08558395504951477, -0.12447234988212585, -0.02677100896835327, 0.1050405353307724, 0.010350748896598816, 0.04816293716430664, 0.05199424922466278, -0.0015720129013061523, -0.09890289604663849, 0.10187463462352753, -0.07743202149868011, -0.05190140753984451, -0.07429702579975128, 0.1213664710521698, 0.021361082792282104, -0.09913463890552521, 0.030617251992225647, 0.061702221632003784, 0.11310866475105286, -0.07607150077819824, 0.07339738309383392, 0.10734206438064575, -0.034145817160606384, -0.0025086551904678345, 0.0025852471590042114, -0.06182525306940079, -0.00283639132976532, 0.10577216744422913, 0.05566401779651642, 0.02453075349330902, 0.10158568620681763, 0.12812277674674988, 0.10247738659381866, -0.1251184046268463, -0.04278508573770523, 0.03597797453403473, -0.04364518076181412, 0.11284485459327698, -0.06375698000192642, -0.07494615018367767, -0.029975146055221558, -0.01049204170703888, -0.057886987924575806, 0.010190889239311218, 0.028180629014968872, 0.06257025897502899, -0.04873579740524292, 0.11459493637084961, -0.06396608799695969, 0.04567854106426239, 0.010235324501991272, -0.05678853392601013, -0.06928803771734238, 0.09228107333183289, 0.10207322239875793, -0.1232052594423294, 0.019595861434936523, -0.052678123116493225, 0.061615630984306335, -0.02849043905735016, 0.07645934820175171, 0.09451684355735779, 0.11677345633506775, -0.030111469328403473, 0.07801049947738647, -0.0588187500834465, 0.12314662337303162, 0.08317907154560089, -0.09993918985128403, -0.0397314578294754, 0.1311531662940979, -0.05070432275533676, -0.011321112513542175, -0.01003439724445343, 0.09704509377479553, 0.13115179538726807, -0.13628369569778442, 0.0726156085729599, 0.029837816953659058, 0.10444861650466919, 0.0029308944940567017, 0.04795724153518677, 0.12366417050361633, 0.09913142025470734, 0.11956512928009033, 0.1314559280872345, 0.06529757380485535, -0.1003783643245697, -0.028774619102478027, -0.04354838281869888, 0.016295284032821655, 0.119301438331604, 0.0035170912742614746, 0.09551844000816345, 0.05043913424015045, -0.08739832043647766, 0.024195000529289246, -0.05155099928379059, 0.077689528465271, -0.0937785655260086, -0.04175028204917908, -0.07671379297971725, 0.06469520926475525, 0.08934260904788971, 0.11769002676010132, 0.12361884117126465, -0.03721338510513306, -0.0033265650272369385, -0.07256235927343369, 0.1055477112531662, -0.12413290143013, 0.0581766813993454, 0.13042044639587402, -0.12913082540035248, -0.027756810188293457, -0.09557193517684937, -0.11215299367904663, -0.06705430895090103, 0.04691527783870697, 0.08253303170204163, -0.030917920172214508, 0.0007414966821670532, 0.021416619420051575, -0.09047676622867584, 0.0953851044178009, -0.012524023652076721, -0.08869258314371109, 0.08098505437374115, -0.019059881567955017, -0.05806385725736618, 0.04222176969051361, -0.07007540017366409, -0.07259711623191833, -0.03953178972005844, 0.13333487510681152, -0.03033694624900818, 0.03879934549331665, 0.02287714183330536, -0.1214868575334549, 0.1119319498538971, -0.05317278206348419, 0.1029660552740097, -0.12386035919189453, -0.06178493797779083, -0.12952330708503723, -0.10251791030168533, -0.07880762219429016, -0.02485497295856476, 0.13707059621810913, 0.13177397847175598, 0.011660948395729065, -0.06593158841133118, 0.004265651106834412, -0.019786611199378967, -0.07083960622549057, 0.11209014058113098, 0.002300471067428589, 0.08096981048583984, 0.01168854534626007, 0.09058080613613129, 0.14001673460006714, 0.0299159437417984, -0.094083271920681, -0.11730216443538666, 0.08233742415904999, -0.07288429141044617, 0.11426490545272827, -0.02447894960641861, -0.13766059279441833, -0.010721832513809204, -0.0746089369058609, 0.015992984175682068, -0.04815705865621567, -0.08311847597360611, 0.0313728004693985, -0.000753059983253479, -0.13058538734912872, -0.09899462759494781, 0.04641631245613098, 0.008866459131240845, 0.14419811964035034, 0.13034364581108093, 0.04815994203090668, 0.007999032735824585, -0.0030994713306427, 0.06746780872344971, 0.12599727511405945, 0.04847179353237152, -0.09499004483222961, -0.09520132839679718, -0.016881108283996582, 0.09243324398994446, 0.07505567371845245, -0.07542751729488373, -0.11036744713783264, 0.14150777459144592, 0.024134650826454163, 0.09844724833965302, 0.09051789343357086, 0.0854535847902298, -0.016232267022132874, 0.11891916394233704, -0.11952009797096252, -0.03206420689821243, -0.1036401093006134, -0.10104575008153915, -0.036862581968307495, 0.10198351740837097, -0.04155480116605759, -0.11063343286514282, -0.004045397043228149, 0.041893571615219116, 0.00960896909236908, 0.07959376275539398, 0.009411737322807312, -0.10095682740211487, -0.113504558801651, -0.03476046025753021, -0.11645493656396866, 0.12263241410255432, -0.03664490580558777, -0.08543124794960022, 0.10790640115737915, 0.10341036319732666, 0.09773126244544983, -0.00282132625579834, 0.13995715975761414, 0.1421392858028412, -0.0329224094748497, -0.02840251475572586, -0.06922250241041183, 0.09854038059711456, -0.14040988683700562, 0.06175607442855835, -0.044324249029159546, 0.011246249079704285, -0.09933342039585114, 0.06054484844207764, -0.046488694846630096, 0.09847268462181091, -0.13810884952545166, 0.08550563454627991, 0.10705170035362244, -0.0016662031412124634, -0.13036061823368073, 0.09123104810714722, 0.0011289119720458984, -0.07524634897708893, -0.05818483233451843, 0.012448802590370178, -0.009304046630859375, -0.04648531973361969, 0.12850767374038696, 0.011859193444252014, -0.14202623069286346, -0.10579346865415573, 0.0011473745107650757, 0.06235799193382263, 0.11699613928794861, 0.02688579261302948, -0.009351447224617004, -0.09967322647571564, -0.07904410362243652, 0.0933939516544342, 0.11105698347091675, 0.11111336946487427, 0.003190964460372925, 0.0684429407119751, 0.06454713642597198, -0.10353575646877289, -0.035466648638248444, -0.13574178516864777, 0.14069095253944397, 0.0025015026330947876, 0.1302754282951355, -0.14016148447990417, -0.031224742531776428, 0.024276629090309143, -0.053999073803424835, 0.014188557863235474, -0.11073432862758636, 0.040833115577697754, 0.10531817376613617, -0.043930135667324066, -0.14432455599308014, 0.020564734935760498, -0.07622866332530975, 0.03284616768360138, 0.08230273425579071, 0.12721094489097595, -0.09026287496089935, -0.01403588056564331, 0.005946025252342224, -0.044840335845947266, -0.03714954853057861, 0.051217079162597656, -0.07300984859466553, -0.06279400736093521, 0.011173859238624573, -0.08737416565418243, -0.12568558752536774, 0.017610862851142883, -0.050401441752910614, -0.014255762100219727, 0.0951596200466156, 0.03784622251987457, 0.09417493641376495, 0.04010634124279022, 0.137437641620636, -0.1314639002084732, 0.08117766678333282, -0.0037093013525009155, 0.07918037474155426, 0.12882089614868164, 0.0394420325756073, 0.07544276118278503, -0.077406145632267, 0.05357061326503754, 0.06553596258163452, -0.12565457820892334, 0.007202282547950745, -0.06715735793113708, -0.060984328389167786, 0.01107373833656311, 0.019309550523757935, -0.12852944433689117, 0.0756051242351532, -0.10223203897476196, -0.10464239865541458, 0.022522971034049988, -0.04622078686952591, -0.007019937038421631, -0.10320498049259186, 0.09214568138122559, -0.022388681769371033, 0.13027307391166687, 0.05033646523952484, 0.09216149151325226, -0.14104163646697998, -0.05011990666389465, 0.13338279724121094]}, "bias": {"shape": [12], "values": [-0.0433541014790535, -0.05271600931882858, 0.12239426374435425, 0.10597062110900879, 0.12872332334518433, -0.0254141166806221, 0.032346099615097046, -0.06021599471569061, -0.017494812607765198, -0.035197265446186066, -0.08554980158805847, 0.018922507762908936]}}, "floor": {"shape": [1], "values": [0.0]}, "ceiling": {"shape": [1], "values": [0.0]}, "coef_softsign": {"shape": [1], "values": [0.34776926040649414]}, "coef_tanh": {"shape": [1], "values": [-0.3241712152957916]}}, "stack.7": {"conv": {"weight": {"shape": [1, 12, 4], "values": [-0.09770746529102325, 0.026988163590431213, -0.08010510355234146, -0.07864634692668915, -0.009540334343910217, -0.0028862804174423218, -0.05030367523431778, 0.037858977913856506, 0.02741284668445587, -0.04315803945064545, -0.12189456075429916, -0.07632315903902054, 0.14029228687286377, 0.06576663255691528, -0.10278800129890442, 0.07082223892211914, 0.13845977187156677, 0.033422380685806274, -0.1238103061914444, 0.0038908571004867554, 0.11872124671936035, -0.13635218143463135, -0.08005857467651367, 0.11728182435035706, 0.1408797800540924, -0.10722649097442627, -0.10422593355178833, 0.06061764061450958, 0.022028177976608276, -0.04602338373661041, 0.013975188136100769, -0.0749230608344078, 0.005025357007980347, -0.09503638744354248, -0.05139266699552536, 0.009442299604415894, -0.04744691401720047, -0.08668877929449081, -0.06125648319721222, 0.13791623711585999, 0.033306851983070374, -0.011918306350708008, -0.11039437353610992, -0.13383042812347412, 0.1312120258808136, 0.12686532735824585, -0.14318720996379852, -0.0781865268945694]}, "bias": {"shape": [1], "values": [0.036115244030952454]}}, "floor": {"shape": [1], "values": [0.0]}, "ceiling": {"shape": [1], "values": [0.0]}, "coef_softsign": {"shape": [1], "values": [0.22186021506786346]}, "coef_tanh": {"shape": [1], "values": [0.20256365835666656]}}}}