{"config": {"model_type": "ConvWaveshaper", "norm_mean": 0.10000000149011612, "norm_std": 0.8999999761581421}, "parameters": {"kernel_size": 4, "depth_size": 6, "num_channels": 12}, "state_dict": {"stack.0": {"conv": {"weight": {"shape": [12, 1, 4], "values": [-0.1484881043434143, -0.43329161405563354, 0.16801732778549194, 0.05470561981201172, -0.37018483877182007, -0.08656620979309082, -0.36344069242477417, -0.3663076162338257, -0.38169634342193604, 0.3584132194519043, 0.4896872043609619, 0.4926440119743347, 0.012250423431396484, 0.2409849762916565, -0.05154150724411011, -0.15937262773513794, -0.32728368043899536, 0.3776046633720398, 0.4293639063835144, -0.006085753440856934, -0.4869093894958496, 0.35655975341796875, 0.060865044593811035, -0.23886704444885254, -0.06674420833587646, 0.21572017669677734, 0.060400426387786865, -0.03513443470001221, 0.1323397159576416, -0.1642918586730957, 0.2970845103263855, 0.01399773359298706, 0.0719681978225708, -0.01811814308166504, -0.19658976793289185, 0.48092329502105713, 0.1510225534439087, 0.44313114881515503, -0.018214702606201172, -0.004838764667510986, 0.004542410373687744, -0.4550628662109375, 0.3190997242927551, -0.16318106651306152, -0.3246380090713501, 0.49248188734054565, -0.16171163320541382, -0.33055323362350464]}, "bias": {"shape": [12], "values": [-0.3161991834640503, -0.12993943691253662, 0.25281691551208496, 0.20337164402008057, 0.10135746002197266, -0.09487849473953247, -0.07332426309585571, 0.2958366870880127, -0.341155469417572, 0.3469228744506836, 0.3485950231552124, -0.48439639806747437]}}, "floor": {"shape": [1], "values": [0.0]}, "ceiling": {"shape": [1], "values": [0.0]}, "coef_softsign": {"shape": [1], "values": [1.5102812051773071]}, "coef_tanh": {"shape": [1], "values": [1.6600605249404907]}}, "stack.1": {"conv": {"weight": {"shape": [12, 12, 4], "values": [0.0008386671543121338, 0.053906187415122986, 0.05834770202636719, -0.03848741948604584, 0.06182621419429779, 0.0726984292268753, -0.08695928752422333, 0.028093382716178894, -0.08237140625715256, -0.020614705979824066, -0.00543898344039917, -0.08358234167098999, 0.0596499890089035, 0.0029653608798980713, 0.11171063780784607, -0.13790273666381836, 0.0560169517993927, -0.14274722337722778, -0.09997372329235077, 0.07997594773769379, -0.12504948675632477, 0.08449253439903259, -0.11831770092248917, -0.05744284391403198, 0.003187030553817749, -0.030010506510734558, 0.13667619228363037, -0.07278960198163986, 0.048050448298454285, 0.02248978614807129, -0.09525653719902039, 0.04224793612957001, -0.03627913445234299, 0.14236104488372803, 0.036769405007362366, -0.10376033186912537, 0.1406204104423523, 0.09353850781917572, -0.14261285960674286, 0.0364193320274353, 0.12406328320503235, 0.02479374408721924, 0.09043991565704346, 0.02255372703075409, 0.03216215968132019, -0.04637821018695831, -0.10216653347015381, 0.08246161043643951, -0.043678924441337585, -0.11041884124279022, 0.09167097508907318, -0.10991665720939636, 0.05861060321331024, -0.08801105618476868, 0.007571429014205933, -0.02892502397298813, -0.07465475797653198, 0.030659407377243042, 0.06911355257034302, -0.02297910302877426, 0.11746382713317871, -0.12165596336126328, -0.1258072555065155, 0.049353256821632385, -0.014730244874954224, 0.005319803953170776, 0.006078168749809265, -0.0030751824378967285, -0.07337271422147751, 0.05077037215232849, -0.01356467604637146, -0.005935683846473694, 0.04528878629207611, -0.06541212648153305, 0.09908519685268402, 0.11881613731384277, -0.0682341679930687, 0.08915431797504425, 0.06699711084365845, -0.12695351243019104, 0.0620330274105072, 0.1107167899608612, 0.06556582450866699, 0.11743712425231934, -0.06602256000041962, -0.0444360077381134, 0.010645255446434021, 0.09397052228450775, 0.06948129832744598, -0.1397947072982788, -0.12720619142055511, 0.027068182826042175, -0.12921209633350372, 0.08408619463443756, 0.0015736967325210571, 0.05133892595767975, -0.12439757585525513, -0.1386604607105255, 0.0389624685049057, -0.06575701385736465, -0.04039653390645981, -0.09825852513313293, 0.07427707314491272, 0.020527973771095276, -0.00834222137928009, 0.13134479522705078, 0.10753053426742554, 0.11005374789237976, -0.06977529078722, 0.0008684992790222168, 0.030717074871063232, -0.04776771366596222, 0.025093689560890198, 0.024116501212120056, -0.03707829862833023, -0.10958663374185562, 0.05716867744922638, 0.09315191209316254, 0.024330556392669678, -0.09405572712421417, -0.10246221721172333, 0.05399225652217865, 0.12073630094528198, -0.06219954788684845, -0.13499945402145386, -0.01871316134929657, -0.026159800589084625, -0.09736834466457367, -0.04318591207265854, -0.06198405474424362, 0.08464539051055908, -0.11608050763607025, 0.07383865118026733, -0.0013277679681777954, 0.025500133633613586, 0.02345500886440277, -0.0748821571469307, 0.10422010719776154, -0.07892543822526932, 0.06639885902404785, 0.060636430978775024, 0.13699117302894592, 0.0323924720287323, 0.1062924861907959, -0.018199875950813293, -0.13842906057834625, -0.1200929507613182, 0.05351322889328003, -0.03577156364917755, -0.036757782101631165, 0.13017943501472473, -0.06862425059080124, 0.11778995394706726, -0.0064258575439453125, -0.03481435030698776, -0.13638965785503387, 0.03095923364162445, 0.005803123116493225, -0.14322856068611145, -0.11538093537092209, -0.11942348629236221, -0.07903218269348145, 0.043691977858543396, 0.07909391820430756, 0.02846236526966095, 0.05809716880321503, 0.10105714201927185, 0.10576954483985901, -0.04280576854944229, -0.019295260310173035, 0.14176499843597412, -0.0034690052270889282, -0.14029283821582794, 0.059985578060150146, 0.02776658535003662, 0.0885375440120697, -0.04873603582382202, 0.05790415406227112, -0.042377620935440063, 0.12428799271583557, -0.09800846129655838, -0.0776308923959732, 0.05428822338581085, -0.023337289690971375, 0.05268894135951996, 0.1242891252040863, -0.09940296411514282, -0.0038479119539260864, 0.13492321968078613, 0.042073532938957214, -0.08770833909511566, 0.07402276992797852, 0.11897212266921997, 0.008980289101600647, -0.05734214931726456, -0.13623188436031342, 0.05246196687221527, -0.011569008231163025, -0.031321629881858826, 0.10584774613380432, 0.027540862560272217, -0.025089100003242493, -0.07305596023797989, 0.10371336340904236, 0.03609664738178253, -0.05210644006729126, 0.0828193873167038, 0.013869494199752808, -0.11444360017776489, 0.012395292520523071, 0.01798790693283081, 0.09121808409690857, -0.1294814646244049, -0.11021864414215088, -0.06122957170009613, 0.06245353817939758, -0.10443931072950363, -0.03778553754091263, 0.09230948984622955, 0.12575238943099976, 0.02988111972808838, 0.07603538036346436, 0.01833242177963257, -0.10057473927736282, 0.11406058073043823, -0.0651143416762352, 0.07879745960235596, 0.07886055111885071, 0.14235398173332214, -0.09259761869907379, 0.06808063387870789, 0.03872913122177124, 0.001969754695892334, 0.10524444282054901, -0.035925716161727905, -0.13800717890262604, 0.02371014654636383, 0.03673802316188812, 0.0964086651802063, -0.10553169250488281, 0.13290593028068542, 0.11417460441589355, -0.11098410189151764, -0.08437258005142212, 0.02116475999355316, -0.05543796718120575, -0.0595046803355217, -0.1146521270275116, -0.10956968367099762, 0.01852332055568695, 0.10064586997032166, 0.012963265180587769, -0.028603538870811462, -0.12122776359319687, 0.12786594033241272, 0.027649477124214172, 0.05689921975135803, 0.0371105819940567, 0.12534067034721375, 0.06506334245204926, -0.044751688838005066, -0.13595430552959442, 0.056069836020469666, 0.10583692789077759, 0.03817911446094513, 0.0665883719921112, 0.07984478771686554, -0.10908935219049454, 0.1077738106250763, -0.06418167054653168, -0.033398061990737915, 0.11056748032569885, -0.0696343183517456, -0.025522910058498383, -0.11242012679576874, -0.01847994327545166, -0.05278144031763077, 0.06652355194091797, -0.05106424540281296, -0.04272250831127167, 0.03394728899002075, -0.11391090601682663, -0.10004041343927383, -0.11587995290756226, 0.05046124756336212, 0.0792447179555893, 0.09132139384746552, -0.11701659113168716, 0.10233627259731293, 0.04494287073612213, -0.10804414749145508, 0.004530489444732666, 0.036753132939338684, -0.1332840621471405, -0.08825256675481796, 0.026818931102752686, -0.12972353398799896, 0.1006554514169693, 0.015216648578643799, 0.01230667531490326, -0.13973280787467957, 0.12251019477844238, -0.1089206263422966, -0.03805932402610779, -0.10625138878822327, -0.0016020238399505615, 0.05744437873363495, -0.1223376989364624, -0.13566647469997406, 0.05644455552101135, 0.044247180223464966, -0.11994566023349762, -0.06133323907852173, -0.13898608088493347, -0.04195757955312729, 0.06403371691703796, -0.1332758218050003, -0.07553654909133911, -0.006385356187820435, 0.12241551280021667, 0.029363438487052917, -0.09221577644348145, -0.0054755061864852905, 0.1409231424331665, 0.024738579988479614, 0.002112343907356262, 0.028290927410125732, 0.1402873694896698, 0.09653732180595398, -0.04708554595708847, 0.0536634624004364, -0.07473213970661163, -0.10017594695091248, -0.10302826762199402, 0.1319335699081421, -0.046968474984169006, 0.10051329433917999, 0.09407570958137512, 0.046094298362731934, -0.05666112154722214, 0.10589519143104553, -0.1151088997721672, -0.10367918014526367, -0.018624529242515564, 0.1086866557598114, -0.07844220846891403, -0.09542153775691986, 0.09768454730510712, 0.003126993775367737, -0.047466717660427094, -0.06377477198839188, 0.12512263655662537, -0.12236779183149338, 0.1021122932434082, 0.056273460388183594, 0.043047621846199036, 0.024971187114715576, 0.14260733127593994, -0.0700955018401146, 0.018536895513534546, -0.11501473188400269, -0.026395171880722046, -0.11209045350551605, -0.06506727635860443, -0.1166912317276001, 0.002232953906059265, 0.0005766749382019043, -0.12196588516235352, -0.08829539269208908, -0.05233967304229736, 0.07141004502773285, -0.1136886328458786, -0.060051172971725464, -0.04123954474925995, -0.14033815264701843, -0.06488651037216187, 0.036794841289520264, -0.06042306870222092, 0.049388110637664795, 0.059173256158828735, -0.1278739720582962, 0.07786810398101807, -0.012490004301071167, -0.04540695995092392, 0.11401671171188354, -0.02075280249118805, 0.08582259714603424, 0.05270440876483917, -0.12525078654289246, -0.0657147765159607, 0.1131981909275055, -0.013517215847969055, -0.07536369562149048, -0.017684146761894226, -0.052309900522232056, 0.027273163199424744, 0.00018662214279174805, 0.00861617922782898, 0.06791223585605621, -0.09395992010831833, -0.041103869676589966, -0.0015855729579925537, -0.006303176283836365, 0.060439154505729675, -0.12320820242166519, -0.1352001130580902, -0.07616080343723297, 0.10087652504444122, 0.12799391150474548, -0.05609779804944992, -0.12179861962795258, 0.027812033891677856, -0.09521715342998505, 0.038435161113739014, -0.08050243556499481, -0.0767744854092598, 0.07719424366950989, -0.12728171050548553, -0.048225536942481995, -0.018217265605926514, 0.05027937889099121, 0.06624025106430054, 0.08973892033100128, 0.08191432058811188, -0.04017742723226547, -0.04570665955543518, 0.08294881880283356, -0.08928138762712479, -0.12471219152212143, -0.023677214980125427, 0.025773122906684875, -0.06299394369125366, 0.005117595195770264, -0.02495069056749344, -0.013113126158714294, 0.060663968324661255, 0.07353226840496063, 0.13957804441452026, -0.0342412069439888, -0.008818954229354858, -0.13679999113082886, 0.11584809422492981, 0.004232734441757202, -0.08820965141057968, -0.08718705922365189, -0.008263811469078064, -0.007707580924034119, 0.06959465146064758, -0.01299925148487091, 0.058976635336875916, 0.02192157506942749, 0.034773483872413635, -0.1365809440612793, -0.055727846920490265, 0.11526951193809509, -0.02484744042158127, -0.1175559014081955, 0.13620242476463318, 0.10000072419643402, 0.06061464548110962, 0.06145869195461273, -0.03510328382253647, 0.052463680505752563, 0.016446232795715332, 0.08538226783275604, -0.09531880915164948, 0.0719531923532486, -0.05013558268547058, 0.07764959335327148, 0.0019317418336868286, 0.03190073370933533, -0.11302617192268372, -0.01608380675315857, 0.08821693062782288, 0.010823771357536316, -0.052470676600933075, -0.09921485185623169, 0.04705987870693207, -0.06783855706453323, -0.11371240019798279, -0.08874392509460449, -0.05385340005159378, 0.06719332933425903, 0.10678166151046753, -0.01509086787700653, -0.05772660672664642, 0.04565227031707764, 0.12892824411392212, -0.048954643309116364, 0.010505244135856628, -0.10561279952526093, -0.08018980920314789, 0.017815247178077698, -0.056095272302627563, 0.09728723764419556, -0.0003040730953216553, -0.010422959923744202, -0.056082554161548615, -0.04944419860839844, -0.07514140754938126, -0.02571088820695877, -0.0566510409116745, -0.09282777458429337, -0.010291829705238342, 0.026179641485214233, 0.11890679597854614, 0.11841675639152527, -0.03084252029657364, -0.09998591989278793, 0.13774189352989197, 0.01838289201259613, -0.010431692004203796, -0.03401780128479004, -0.12703154981136322, 0.02934195101261139, -5.169212818145752e-05, 0.0211154967546463, -0.060685932636260986, 0.1357625126838684, 0.05499438941478729, -0.14274825155735016, -0.006444826722145081, -0.09211064875125885, 0.015671193599700928, 0.0005865991115570068, -0.008020445704460144, 0.06136758625507355, -0.011734336614608765, -0.06648408621549606, -0.13366271555423737, 0.13524842262268066, -0.10045517235994339, 0.0616847425699234, -0.008049950003623962, -0.13405841588974, 0.06923460960388184, -0.11704948544502258, 0.031089961528778076, -0.048028990626335144, -0.09238089621067047, -0.05194440484046936, -0.008910462260246277, 0.025709673762321472, 0.12164989113807678, 0.042583316564559937, -0.03149550408124924, -0.032243311405181885, 0.09158316254615784, 0.09990686178207397, 0.0417870432138443, -0.11378718912601471, 0.00211276113986969, 0.07056449353694916, 0.0022736191749572754, -0.09112422168254852, 0.03505447506904602, 0.0514841228723526, 0.014397770166397095, 0.024073734879493713, 0.009428650140762329, 0.0049587637186050415, 0.06724943220615387, -0.05477244406938553, -0.00849825143814087, -0.10509674996137619, -0.10732657462358475, -0.1336764395236969, -0.057139717042446136, -0.1273708939552307, 0.00340290367603302, 0.06383474171161652, 0.05165722966194153, 0.031793639063835144, 0.06107263267040253, -0.08323616534471512, -0.11206135898828506]}, "bias": {"shape": [12], "values": [0.1261322796344757, -0.07471909373998642, -0.028447598218917847, 0.05502949655056, 0.1020406186580658, 0.12575697898864746, 0.031533390283584595, 0.05781346559524536, -0.11148941516876221, -0.0801432877779007, 0.14399531483650208, 0.13048747181892395]}}, "floor": {"shape": [1], "values": [0.0]}, "ceiling": {"shape": [1], "values": [0.0]}, "coef_softsign": {"shape": [1], "values": [1.4428050518035889]}, "coef_tanh": {"shape": [1], "values": [1.8737757205963135]}}, "stack.2": {"conv": {"weight": {"shape": [12, 12, 4], "values": [-0.020243152976036072, 0.00013005733489990234, -0.03477004915475845, 0.07122300565242767, -0.007319390773773193, 0.10583963990211487, -0.10700072348117828, -0.08601640164852142, 0.028446152806282043, 0.12294420599937439, -0.06869684159755707, 0.06551037728786469, -0.08749524503946304, -0.07393596321344376, 0.11567050218582153, 0.008150890469551086, 0.07549455761909485, -0.11684538424015045, -0.03723711520433426, 0.08280445635318756, 0.05180388689041138, 0.1129106879234314, 0.029681622982025146, 0.11167600750923157, -0.012190654873847961, 0.016873270273208618, -0.004052445292472839, 0.12198489904403687, 0.018274113535881042, 0.08009138703346252, -0.09636981040239334, 0.04637172818183899, -0.030193939805030823, -0.10970371961593628, -0.009011134505271912, 0.10957834124565125, 0.110516756772995, 0.03541672229766846, 0.10686230659484863, 0.020003855228424072, 0.052579715847969055, 0.08738744258880615, 0.005608037114143372, -0.10280604660511017, -0.11782638728618622, 0.08412423729896545, 0.08620373904705048, -0.05436098575592041, -0.012160241603851318, -0.12094998359680176, 0.11609262228012085, -0.004743888974189758, 0.032108157873153687, 0.000969424843788147, 0.12521880865097046, 0.12618958950042725, 0.07675834000110626, -0.06963901221752167, 0.10934317111968994, -0.11628516018390656, -0.08042581379413605, -0.013114333152770996, 0.10456326603889465, 0.04692763090133667, -0.012633934617042542, -0.06271625310182571, 0.027313321828842163, -0.045748643577098846, 0.05548188090324402, 0.10563243925571442, 0.008510097861289978, -0.05274319648742676, 0.0897415429353714, 0.07154291868209839, 0.04827846586704254, 0.04741162061691284, 0.09784604609012604, -0.06283550709486008, -0.04718123376369476, -0.06792114675045013, -0.11405552923679352, -0.08826182037591934, -0.08145277947187424, 0.1437406837940216, -0.06465967744588852, 0.07751528918743134, 0.06368626654148102, 0.1247120201587677, -0.10458778589963913, -0.03940504789352417, 0.05493055284023285, 0.02746693789958954, -0.049113303422927856, -0.02460514008998871, 0.058529213070869446, 0.004438385367393494, -0.1207544207572937, -0.11290581524372101, -0.024707429111003876, -0.04357440024614334, 0.013794183731079102, -0.11896127462387085, -0.04396598041057587, 0.10844472050666809, 0.09604582190513611, -0.03518237918615341, 0.12097293138504028, -0.056206271052360535, -0.010084345936775208, 0.055062130093574524, -0.022744186222553253, 0.05535349249839783, -0.024587467312812805, -0.020241431891918182, -0.12530243396759033, 0.08915208280086517, 0.0292273610830307, -0.10297910869121552, 0.05672237277030945, -0.05745916813611984, -0.1396843045949936, 0.09231540560722351, 0.09696370363235474, -0.062263913452625275, 0.0024757683277130127, 0.12411230802536011, 0.11952051520347595, 0.03862100839614868, 0.006875947117805481, 0.011202618479728699, 0.049130454659461975, 0.09880247712135315, -0.10955794900655746, 0.12725457549095154, -0.020720332860946655, -0.05985001474618912, -0.008709639310836792, 0.014104530215263367, -0.025686852633953094, 0.03841979801654816, -0.03055109828710556, -0.12326572090387344, 0.08544881641864777, -0.08874186128377914, 0.12454167008399963, 0.09669841825962067, 0.10329566895961761, -0.13962335884571075, 0.14078843593597412, 0.008668005466461182, -0.039364010095596313, -0.005089804530143738, -0.029833413660526276, -0.12076018005609512, -0.053502440452575684, 0.08652563393115997, -0.08428701013326645, -0.07103613764047623, 0.09464579820632935, 0.05571918189525604, 0.02145664393901825, -0.031071260571479797, 0.1352003514766693, 0.0026225745677948, 0.09090213477611542, -0.10774849355220795, -0.14103442430496216, -0.034806109964847565, 0.045896247029304504, 0.07470989227294922, -0.14338837563991547, 0.0019762665033340454, 0.1402706801891327, -0.06720248609781265, 0.0046762824058532715, -0.09846825152635574, -0.10872490704059601, 0.03957386314868927, 0.07629570364952087, 0.0060204267501831055, 0.021481364965438843, 0.10083980858325958, -0.003342866897583008, -0.14057649672031403, 0.022228971123695374, -0.1363431066274643, 0.05332435667514801, -0.08614891767501831, 0.0413307249546051, -0.11543343216180801, 0.1081852912902832, 0.012012943625450134, -0.06636060029268265, 0.054314836859703064, 0.04227924346923828, 0.12252935767173767, -0.14059242606163025, 0.08826279640197754, 0.13981592655181885, 0.02699267864227295, -0.14329922199249268, -0.03840845823287964, 0.030646950006484985, -0.016316786408424377, -0.053425803780555725, 0.0969301164150238, -0.004433855414390564, -0.13679692149162292, 0.14147517085075378, -0.12440411746501923, 0.12791675329208374, -0.014158815145492554, 0.12041881680488586, 0.10401055216789246, 0.14164122939109802, -0.0988566130399704, 0.09768462181091309, 0.053331002593040466, 0.07050622999668121, -0.10176098346710205, 0.10438311100006104, 0.07238064706325531, 0.1101481020450592, -0.09062866121530533, 0.04305058717727661, 0.11002719402313232, -0.0091513991355896, -0.042251020669937134, 0.01985926926136017, 0.008237436413764954, 0.11890122294425964, -0.08235219120979309, -0.08491656184196472, 0.057479724287986755, -0.044329673051834106, 0.1299133002758026, -0.10861802101135254, -0.0024486780166625977, 0.1330251395702362, -0.022627539932727814, 0.047866091132164, -0.0004123896360397339, -0.1176714152097702, 0.12056773900985718, -0.1063106581568718, -0.08872699737548828, 0.13347595930099487, 0.14067721366882324, -0.10006017982959747, -0.06059510260820389, 0.014637976884841919, 0.024850964546203613, 0.0067353397607803345, 0.07795751094818115, -0.13725891709327698, 0.06450735032558441, 0.059600695967674255, 0.13895896077156067, 0.13345667719841003, -0.09739156067371368, -0.06830482929944992, -0.011086329817771912, -0.018042415380477905, -0.06780724227428436, -0.02395094931125641, -0.10635389387607574, -0.0992555096745491, -0.1163293644785881, -0.08529508113861084, 0.08400847017765045, 0.12552708387374878, -0.06296706944704056, -0.10012828558683395, -0.11802534759044647, -0.06852395832538605, -0.07929172366857529, -0.033310480415821075, 0.04958479106426239, -0.006457895040512085, -0.09087423235177994, 0.033725008368492126, 0.05626922845840454, -0.102145254611969, 0.09428589046001434, 0.0320814847946167, -0.0649409368634224, 0.02619551122188568, -0.054367080330848694, 0.015345916152000427, -0.1414857804775238, -0.02775106579065323, -0.016144022345542908, -0.08121045678853989, 0.022030800580978394, 0.07668568193912506, -0.0690661072731018, 0.02909626066684723, -0.12044475227594376, 0.10871905088424683, 0.09474365413188934, 0.08014076948165894, 0.03274966776371002, 0.06802503764629364, 0.049976006150245667, 0.05367979407310486, 0.052644193172454834, 0.09840711951255798, -0.07790002226829529, -0.05049280822277069, 0.024271443486213684, -0.06581899523735046, -0.017765745520591736, -0.11358141899108887, 0.019597038626670837, -0.030595317482948303, -0.035226620733737946, -0.05068458616733551, 0.026002630591392517, 0.13817769289016724, 0.002650901675224304, -0.08284874260425568, -0.12100642174482346, -0.11136238276958466, -0.13608185946941376, 0.016004011034965515, -0.12588059902191162, -0.017266348004341125, 0.02490052580833435, -0.07940854132175446, 0.0901135504245758, 0.03155195713043213, 0.0031314194202423096, 0.10636752843856812, -0.13983400166034698, 0.02423514425754547, -0.06406490504741669, 0.05838792026042938, -0.039573393762111664, 0.03267887234687805, -0.10614702850580215, 0.02330993115901947, 0.10793587565422058, 0.0776401162147522, -0.042717449367046356, 0.05961015820503235, 0.02175213396549225, -0.08473525941371918, 0.013410627841949463, 0.018165215849876404, -0.13764971494674683, 0.02895180881023407, 0.05187031626701355, -0.10619687288999557, 0.11696374416351318, 0.016938358545303345, 0.08734768629074097, 0.1350274384021759, -0.07380011677742004, 0.07103228569030762, -0.12954595685005188, 0.006028562784194946, -0.04441504925489426, -0.056279875338077545, 0.09268838167190552, -0.13790597021579742, 0.04647696018218994, 0.07517695426940918, 0.0117911696434021, -0.08846159279346466, 0.0872206836938858, 0.07187807559967041, -0.10970433056354523, 0.09084935486316681, 0.0005931556224822998, -0.032283999025821686, 0.06650412082672119, 0.11255583167076111, 0.00862923264503479, 0.04015631973743439, 0.11759456992149353, -0.008218884468078613, -0.08025839924812317, 0.047575414180755615, 0.09160895645618439, 0.07568232715129852, 0.04377356171607971, 0.130741685628891, 0.01446850597858429, 0.02478066086769104, -0.13521896302700043, 0.05681288242340088, 0.03906938433647156, 0.001219049096107483, 0.10365171730518341, -0.010664433240890503, -0.026062436401844025, -0.06501899659633636, -0.11123652011156082, -0.1380559802055359, 0.04769088327884674, -0.02096356451511383, 0.04809960722923279, -0.08913663029670715, -0.1021178811788559, 0.1371801197528839, 0.0006928294897079468, -0.06398955732584, -0.10449373722076416, -0.09382230043411255, 0.07542307674884796, -0.09349319338798523, 0.0040274858474731445, 0.07692378759384155, -0.033915407955646515, 0.133367657661438, -0.005948424339294434, -0.0053907036781311035, -0.042051561176776886, 0.08161008358001709, -0.07160331308841705, -0.0110645592212677, 0.02165140211582184, -0.10499261319637299, 0.04565083980560303, -0.07081180065870285, 0.017221182584762573, -0.14241822063922882, -0.07242849469184875, 0.07242363691329956, 0.12816250324249268, 0.14056482911109924, -0.06027176231145859, -0.04537946730852127, 0.0039498209953308105, 0.03988666832447052, 0.09975042939186096, -0.14383092522621155, -0.11456376314163208, -0.05683831125497818, -0.05785057693719864, -0.10809193551540375, 0.009394645690917969, 0.07974125444889069, 0.08943323791027069, -0.12915284931659698, -0.015784084796905518, -0.087581567466259, 0.09476296603679657, 0.005729764699935913, 0.13470163941383362, -0.004680752754211426, 0.022461339831352234, -0.1292402744293213, -0.019570276141166687, -0.12651562690734863, -0.026086725294589996, 0.06615811586380005, 0.05656060576438904, -0.03622658550739288, -0.05330532789230347, 0.13430717587471008, -0.04135933518409729, 0.08397343754768372, -0.0019859373569488525, -0.07864812016487122, -0.06813368201255798, 0.13768085837364197, 0.003736525774002075, 0.055294692516326904, -0.05735773593187332, 0.048171788454055786, 0.008895769715309143, 0.089700847864151, 0.1095074713230133, 0.1279071569442749, -0.08930671215057373, -0.08125512301921844, 0.059494346380233765, 0.055670365691185, 0.14389893412590027, -0.060688942670822144, 0.006932199001312256, -0.1371757984161377, 0.09361658990383148, -0.02200547605752945, -0.13888905942440033, -0.020510487258434296, 0.08161364495754242, -0.10754800587892532, 0.1070534884929657, 0.02516961097717285, -0.06754150241613388, 0.06234407424926758, 0.12479200959205627, -0.02170703560113907, 0.0647299587726593, -0.014446437358856201, -0.12311957031488419, 0.11717250943183899, 0.06954401731491089, 0.1367914080619812, -0.10967153310775757, 0.002929702401161194, -0.11910322308540344, 0.1213725209236145, 0.10670626163482666, 0.09231014549732208, 0.11033204197883606, 0.06840500235557556, -0.09545303881168365, 0.019144773483276367, 0.10473230481147766, -0.07198410481214523, 0.06873840093612671, 0.016429945826530457, 0.024133548140525818, 0.02738073468208313, 0.014262482523918152, 0.10359187424182892, -0.020108304917812347, 0.0035411864519119263, -0.06820093840360641, -0.006414473056793213, 0.12672975659370422, -0.015637129545211792, 0.12403759360313416, 0.017359063029289246, -0.12180861830711365, -0.12661561369895935, -0.0012412667274475098, -0.033156298100948334, -0.11324283480644226, -0.046108365058898926, -0.08431419730186462, -0.14198024570941925, -0.08046339452266693, 0.1416860818862915, 0.017912328243255615, -0.10245378315448761, -0.09915633499622345, -0.09404447674751282, 0.020004630088806152, 0.01646485924720764, 0.009349465370178223, 0.027395039796829224, 0.0425102561712265, 0.0862472802400589, -0.0852978378534317, 0.1442217230796814, -0.0068553537130355835, -0.1375269740819931, -0.1270110160112381, -0.06303256005048752, 0.08311185240745544, 0.11201035976409912, -0.04401656240224838, -0.12895074486732483, -0.022377759218215942, -0.10536575317382812, -0.13357792794704437, 0.12514406442642212, 0.09107038378715515, 0.09544897079467773, -0.049232371151447296, -0.10099652409553528, 0.05915951728820801, -0.09715119004249573, 0.1336153745651245, 0.03373520076274872, -0.0001703500747680664, -0.07300611585378647, -0.08239266276359558, -0.11833695322275162, 0.014961332082748413, 0.09108275175094604, 0.10220031440258026]}, "bias": {"shape": [12], "values": [-0.10354872047901154, -0.12956668436527252, -0.02345988154411316, 0.04666142165660858, -0.04192902147769928, -0.13193978369235992, -0.08661878108978271, -0.137008935213089, 0.06271712481975555, -0.03836721181869507, -0.029973290860652924, 0.01845221221446991]}}, "floor": {"shape": [1], "values": [0.0]}, "ceiling": {"shape": [1], "values": [0.0]}, "coef_softsign": {"shape": [1], "values": [0.4519202709197998]}, "coef_tanh": {"shape": [1], "values": [-0.5685597062110901]}}, "stack.3": {"conv": {"weight": {"shape": [12, 12, 4], "values": [0.05595214664936066, 0.007492825388908386, -0.0728558674454689, -0.12365178018808365, 0.1328924298286438, 0.04576849937438965, 0.06261630356311798, 0.01794680953025818, -0.12102195620536804, 0.009003981947898865, 0.1320592164993286, -0.11686857789754868, -0.12671804428100586, 0.08141452074050903, 0.015271514654159546, 0.10253678262233734, -0.04078744351863861, 0.09136979281902313, -0.049583934247493744, 0.057302117347717285, -0.04722481220960617, 0.142669677734375, 0.020123079419136047, -0.06179994344711304, -0.07606573402881622, -0.13959288597106934, 0.12275147438049316, 0.059563249349594116, -0.07294293493032455, 0.05420003831386566, -0.032731518149375916, 0.009319514036178589, -0.1371537744998932, -0.0034969747066497803, -0.08476375043392181, -0.14252404868602753, -0.032828859984874725, -0.04567892849445343, -0.11181418597698212, -0.05682635307312012, 0.04617224633693695, -0.09015524387359619, -0.008124679327011108, 0.048721566796302795, -0.045068562030792236, -0.045275576412677765, 0.14253270626068115, -0.04756047576665878, -0.016176730394363403, 0.10933434963226318, -0.014183297753334045, 0.12128552794456482, -0.0739293023943901, -0.048368796706199646, 0.01641981303691864, 0.12612202763557434, -0.0740814059972763, 0.10136580467224121, 0.06435735523700714, -0.03451806306838989, 0.06086662411689758, -0.027178265154361725, -0.06501433253288269, 0.10842308402061462, 0.05870598554611206, 0.12894383072853088, -0.10827666521072388, 0.12521246075630188, 0.03148186206817627, -0.03150666505098343, 0.020837798714637756, -0.03985205292701721, 0.10158215463161469, -0.10176268219947815, 0.07993242144584656, -0.07322368770837784, 0.08669085800647736, 0.019193589687347412, -0.10981705784797668, -0.05170692503452301, -0.1170397475361824, 0.13770610094070435, -0.024635642766952515, 0.05942164361476898, -0.10576823353767395, -0.004442617297172546, -0.12529253959655762, -0.04453100264072418, -0.02036314457654953, -0.06693235039710999, -0.12279562652111053, -0.13199742138385773, -0.1356782168149948, 0.015475556254386902, 0.0288771390914917, 0.13878178596496582, 0.10767403244972229, -0.10005898028612137, -0.0022555291652679443, -0.14116820693016052, -0.056866854429244995, -0.03472374379634857, -0.12291574478149414, -0.07931127399206161, 0.013834729790687561, -0.009812876582145691, 0.06819604337215424, -0.021493777632713318, 0.0859721302986145, -0.12734265625476837, -0.10448680073022842, 0.04493497312068939, 0.03516197204589844, -0.11752758175134659, -0.07877503335475922, 0.038389697670936584, 0.13520655035972595, -0.09680341184139252, 0.002545088529586792, 0.09049144387245178, -0.09594042599201202, -0.11488017439842224, -0.1074514091014862, -0.026915885508060455, -0.03255653381347656, 0.11194479465484619, 0.12343931198120117, -0.10540971159934998, -0.06919039040803909, 0.11792823672294617, 0.11895933747291565, -0.07353559136390686, 0.08442656695842743, -0.006716489791870117, 0.13017171621322632, 0.03380061686038971, 0.11291831731796265, -0.027362719178199768, -0.04756023734807968, 0.06581403315067291, -0.11614532768726349, -0.0514015257358551, 0.006635069847106934, -0.13983303308486938, 0.12836068868637085, 0.07400757074356079, -0.14092248678207397, -0.13493379950523376, -0.04317591339349747, -0.10794029384851456, 0.10984402894973755, -0.014387428760528564, -0.03996539115905762, 0.08036990463733673, -0.005035728216171265, -0.07351008802652359, -0.02925407886505127, 0.05758044123649597, 0.13310420513153076, 0.005532577633857727, -0.08233897387981415, 0.10219946503639221, 0.11881378293037415, -0.03142751753330231, -0.03159015625715256, -0.09876571595668793, -0.0772220715880394, 0.028335556387901306, -0.04266645014286041, 0.14200422167778015, -0.06565684080123901, 0.09664671123027802, 0.016812145709991455, 0.003660142421722412, -0.01208449900150299, -0.012196570634841919, -0.05740299075841904, 0.020076006650924683, 0.06617364287376404, 0.03587524592876434, 0.025699660181999207, -0.04099438339471817, -0.101479172706604, 0.04689404368400574, -0.14382511377334595, 0.07809178531169891, -0.0204327329993248, 0.12838372588157654, -0.10748784989118576, -0.03999185562133789, 0.09063117206096649, 0.08442063629627228, -0.04335404932498932, 0.03191252052783966, 0.04193544387817383, -0.1425708830356598, 0.016824275255203247, 0.0850401520729065, -0.07589931786060333, -0.13381466269493103, 0.11452317237854004, 0.046550244092941284, 0.023375555872917175, -0.10253001749515533, 0.007767796516418457, 0.12546059489250183, -0.03674754500389099, -0.0019035190343856812, 0.09826633334159851, -0.10257983207702637, 0.07332246005535126, 0.06361448764801025, 0.10399505496025085, 0.09889407455921173, 0.10977301001548767, 0.11410003900527954, 0.14166033267974854, -0.10048189759254456, -0.029455460608005524, -0.08984771370887756, -0.060653239488601685, -0.08202872425317764, 0.003579959273338318, 0.13063785433769226, -0.035363927483558655, 0.12674453854560852, 0.059710755944252014, 0.04199802875518799, 0.03826312720775604, 0.04214946925640106, 0.13390249013900757, 0.05822038650512695, 0.005340263247489929, -0.04594682902097702, -0.1229206845164299, -0.13278107345104218, -0.13654711842536926, 0.029030069708824158, -0.03855355829000473, 0.11545994877815247, 0.13694530725479126, -0.02017984539270401, 0.0348263680934906, -0.081775963306427, 0.06776389479637146, -0.13617970049381256, -0.06520687788724899, 0.01296783983707428, -0.07337833940982819, -0.1189899891614914, 0.09205126762390137, -0.0992865115404129, -0.013319402933120728, -0.05833002179861069, 0.12649306654930115, 0.13179564476013184, 0.02013625204563141, -0.13362380862236023, -0.04511570930480957, -0.05543755739927292, -0.02440323680639267, 0.12576749920845032, -0.0833718553185463, 0.09553153812885284, 0.1171129047870636, -0.054093822836875916, 0.08436872065067291, 0.0962919145822525, 0.12868988513946533, -0.10299143195152283, 0.09497573971748352, 0.08472061157226562, -0.11398155987262726, -0.13033023476600647, -0.09858425706624985, 0.013420641422271729, -0.07470390200614929, 0.05474264919757843, 0.027999937534332275, 0.05643850564956665, 0.13666534423828125, -0.06624288856983185, 0.01815125346183777, -0.06521288305521011, 0.04692061245441437, -0.08270996063947678, -0.06273483484983444, 0.13383209705352783, -0.0762004405260086, 0.04744216799736023, -0.031046003103256226, -0.14267489314079285, -0.06399690359830856, -0.12372852116823196, -0.059034399688243866, 0.007514595985412598, -0.11102689802646637, 0.12014412879943848, -0.09853839874267578, -0.13300573825836182, 0.08641146123409271, -0.045603834092617035, -0.05075041949748993, -0.13861387968063354, -0.13645298779010773, -0.05587556213140488, 0.031007125973701477, -0.01836717128753662, 0.10800114274024963, 0.03345273435115814, -0.01841898262500763, 0.006180956959724426, -0.04002773016691208, 0.0016582757234573364, 0.10855525732040405, -0.1376587152481079, -0.06616073101758957, 0.016567885875701904, 0.045492321252822876, -0.061753228306770325, -0.13279500603675842, 0.005520999431610107, -0.1172947958111763, -0.0009066611528396606, 0.036533087491989136, -0.07877092063426971, -0.09900195896625519, -0.008871346712112427, -0.08480879664421082, -0.11194443702697754, 0.029788866639137268, 0.10073359310626984, 0.10300683975219727, -0.0516534298658371, -0.039942264556884766, -0.03347920626401901, -0.0149344801902771, -0.08406838774681091, -0.04735676944255829, 0.059584394097328186, -0.09818433225154877, -0.12882165610790253, 0.1324044167995453, 0.016225740313529968, 0.11188182234764099, -0.03914570063352585, -0.0037601441144943237, 0.12147727608680725, -0.026554107666015625, 0.041319310665130615, -0.07787933945655823, 0.04269613325595856, -0.07295127958059311, -0.06633160263299942, 0.03802084922790527, 0.07877710461616516, 0.02496372163295746, -0.08800558745861053, -0.04870595782995224, -0.12569408118724823, -0.11017128825187683, 0.1020195484161377, 0.07581573724746704, -0.1281760334968567, -0.09433388710021973, -0.009364724159240723, -0.08860345184803009, -0.0081452876329422, -0.043417975306510925, 0.09899629652500153, -0.13255150616168976, 0.07433067262172699, -0.10384279489517212, -0.10804913938045502, 0.11174404621124268, 0.13992518186569214, -0.07462058961391449, 0.06605315208435059, 0.0566602498292923, -0.07064073532819748, 0.09543833136558533, -0.04897552728652954, 0.09760330617427826, 0.12848812341690063, 0.13890469074249268, 0.05480092763900757, 0.11358007788658142, 0.0542936772108078, 0.07844167947769165, 0.09882542490959167, 0.10742002725601196, 0.07079203426837921, -0.13712246716022491, 0.04726921021938324, -0.11552030593156815, -0.12377670407295227, -0.11623226851224899, -0.10406951606273651, -0.08981017768383026, 0.08553051948547363, -0.012970924377441406, -0.046977005898952484, -0.006577536463737488, -0.10481256991624832, -0.05813383311033249, 0.09425701200962067, 0.05038358271121979, -0.06083347648382187, 0.13523617386817932, -0.04676712304353714, -0.0705808773636818, -0.13932228088378906, 0.013211876153945923, 0.032468006014823914, 0.025115936994552612, -0.051294729113578796, 0.08210203051567078, 0.14274254441261292, 0.09117002785205841, 0.083448126912117, 0.01151186227798462, -0.07586376368999481, -0.08025834709405899, -0.06091317534446716, -0.0348690003156662, -0.12219657003879547, 0.11809056997299194, 0.005887657403945923, -0.08565954864025116, -0.13503339886665344, 0.08546346426010132, 0.11037907004356384, -0.008455157279968262, 0.05482454597949982, -0.10894688218832016, 0.12946179509162903, 0.018796145915985107, -0.07083700597286224, 0.10560466349124908, 0.03233204782009125, -0.07666651159524918, -0.0841868668794632, 0.047357067465782166, -0.03964855521917343, -0.11997722089290619, 0.11962729692459106, 0.05229461193084717, 0.10126683115959167, -0.01638925075531006, -0.09694216400384903, 0.08111025393009186, 0.013234034180641174, -0.14105528593063354, -0.07911840081214905, 0.10555322468280792, -0.1047353595495224, 0.05131669342517853, 0.09367936849594116, -0.12303303927183151, 0.12578526139259338, -0.06251299381256104, -0.07395551353693008, 0.008713454008102417, 0.05925360321998596, 0.14110636711120605, -0.10944843292236328, 0.06765012443065643, -0.006216138601303101, -0.1312396079301834, -0.0017133653163909912, -0.07071990519762039, 0.1054638922214508, 0.1084531843662262, 0.0038244426250457764, 0.11579638719558716, 0.08108067512512207, -0.09186215698719025, -0.038895383477211, -0.05706693232059479, 0.1223568320274353, 0.1323942244052887, -0.11700420081615448, -0.11515966057777405, -0.06673922389745712, 0.05361302196979523, -0.0302899032831192, 0.04295271635055542, -0.00237080454826355, -0.08731696754693985, 0.12705743312835693, -0.1417820155620575, 0.07689964771270752, 0.11761796474456787, 0.0625787079334259, -0.07899057865142822, -0.0111541748046875, 0.0010595321655273438, 0.05707496404647827, -0.040576495230197906, -0.03510543704032898, -0.029010266065597534, -0.021047115325927734, -0.010421603918075562, -0.11692601442337036, 0.06784932315349579, 0.04843626916408539, -0.06459778547286987, -0.033765606582164764, -0.02475624531507492, 0.11759194731712341, -0.10962866991758347, 0.11559247970581055, -0.055707305669784546, -0.12756583094596863, -0.016735419631004333, 0.06445115804672241, -0.0973372757434845, -0.12604543566703796, -0.07409708201885223, 0.036544203758239746, -0.12492620944976807, 0.0733184814453125, 0.05492042005062103, -0.014128908514976501, 0.1276368796825409, 0.045273423194885254, 0.12060216069221497, 0.06096269190311432, 0.040691688656806946, -0.04335298389196396, 0.08361603319644928, -0.07736978679895401, 0.05665959417819977, -0.0442449152469635, 0.10203401744365692, 0.062491849064826965, 0.0651368647813797, -0.052973002195358276, 0.053651243448257446, -0.03210529685020447, -0.11674560606479645, 0.000958561897277832, -0.054426684975624084, 0.11493375897407532, 0.03599965572357178, 0.12255963683128357, -0.11420346796512604, 0.02312694489955902, -0.05697441101074219, 0.13753095269203186, 0.09934093058109283, -0.07816878706216812, -0.027563467621803284, -0.01668708026409149, 0.10844987630844116, -0.017238005995750427, -0.03506626933813095, 0.10824903845787048, 0.09935826063156128, 0.0659414529800415, -0.10502678900957108, -0.07744826376438141, -0.033206693828105927, 0.0203067809343338, 0.02894890308380127, 0.03925107419490814, -0.1437123566865921, 0.09955185651779175, 0.01663544774055481, -0.052423447370529175, 0.06495434045791626, -0.09646902233362198, -0.13506677746772766, -0.0402129590511322, 0.09143494069576263, 0.09775762259960175]}, "bias": {"shape": [12], "values": [-0.11082048714160919, 0.11223867535591125, 0.10194885730743408, 0.017205744981765747, -0.09953415393829346, -0.045707330107688904, -0.1438143253326416, 0.03211238980293274, 0.056359678506851196, 0.0711645781993866, -0.10670392960309982, -0.1021999716758728]}}, "floor": {"shape": [1], "values": [0.0]}, "ceiling": {"shape": [1], "values": [0.0]}, "coef_softsign": {"shape": [1], "values": [0.8131959438323975]}, "coef_tanh": {"shape": [1], "values": [-0.7600278854370117]}}, "stack.4": {"conv": {"weight": {"shape": [12, 12, 4], "values": [0.1117914617061615, -0.14359703660011292, 0.03125467896461487, -0.08671102672815323, 0.05116027593612671, 0.08907380700111389, -0.13323283195495605, -0.055205270648002625, -0.0005197674036026001, -0.07218187302350998, -0.054290927946567535, 0.07258173823356628, -0.015537664294242859, -0.11816148459911346, -0.004175826907157898, 0.1415337324142456, -0.044362567365169525, 0.08602897822856903, 0.1267920732498169, 0.07952925562858582, -0.07832785695791245, -0.1217377781867981, 0.006250619888305664, -0.08201547712087631, -0.0465279221534729, 0.10078507661819458, -0.04592656344175339, 0.09474220871925354, 0.022320270538330078, 0.08388565480709076, 0.009394288063049316, -0.10916220396757126, 0.1308191418647766, 0.07489176094532013, -0.06486472487449646, -0.030099734663963318, 0.10670438408851624, -0.12905070185661316, -0.14147421717643738, 0.0847703218460083, -0.09340596199035645, -0.03747770935297012, 0.13139081001281738, -0.024701669812202454, -0.02590162307024002, -0.1021849662065506, -0.04870618134737015, 0.07844950258731842, 0.1011827141046524, -0.0034216642379760742, -0.03528641164302826, 0.10329698026180267, -0.14117640256881714, 0.0105629563331604, -0.1407272070646286, -0.03421612083911896, -0.009468629956245422, 0.024604693055152893, 0.05482201278209686, 0.036530688405036926, -0.05206804722547531, 0.04348991811275482, 0.11902463436126709, -0.062065489590168, -0.11618001759052277, 0.05827812850475311, -0.07394537329673767, -0.0033412575721740723, 0.06588728725910187, -0.031205661594867706, 0.09099599719047546, 0.08091011643409729, -0.10972681641578674, 0.10693591833114624, -0.02652263641357422, 0.05487969517707825, 0.09424524009227753, 0.088388592004776, 0.10483910143375397, -0.11695680022239685, 0.07264392077922821, -0.05609883368015289, -0.10297659784555435, 0.1186322271823883, 0.1028415709733963, -0.07681552320718765, -0.03226493299007416, 0.0033941268920898438, -0.09644193947315216, 0.13791203498840332, -0.1010478287935257, 0.13210654258728027, -0.07251380383968353, 0.12204861640930176, -0.026715107262134552, 0.04687638580799103, -0.03247208148241043, -0.08005864918231964, 0.09210577607154846, -0.10486392676830292, 0.04224202036857605, 0.004209920763969421, -0.03881120681762695, 0.09331811964511871, -0.08850109577178955, 0.12548869848251343, 0.12260973453521729, 0.010975450277328491, -0.022826828062534332, -0.02937079221010208, -0.10162641108036041, -0.091446653008461, -0.018367528915405273, -0.0016923993825912476, -0.04032786190509796, 0.12726351618766785, 0.10584843158721924, 0.08958539366722107, -0.11346133798360825, -0.08171405643224716, 0.04649414122104645, 0.0814908891916275, 0.05330882966518402, -0.10296080261468887, 0.08136588335037231, -0.09901955723762512, 0.07919682562351227, 0.004038766026496887, -0.018593817949295044, 0.07925455272197723, -0.004835575819015503, 0.0733729749917984, -0.0009406059980392456, -0.03165058046579361, -0.08087135851383209, -0.10295992344617844, 0.028582215309143066, 0.12600603699684143, 0.09070754051208496, -0.014890164136886597, 0.06551115214824677, -0.08525464683771133, 0.10352988541126251, -0.09714238345623016, -0.11680641025304794, 0.01667018234729767, 0.03283300995826721, 0.005143314599990845, -0.04390014708042145, -0.06293432414531708, -0.017412930727005005, -0.05289936065673828, 0.07307346165180206, -0.13443396985530853, -0.12922516465187073, 0.04369044303894043, 0.050065428018569946, -0.1270710974931717, -0.06963153183460236, -0.10423572361469269, 0.049377769231796265, -0.025630205869674683, 0.09314335882663727, 0.121344655752182, 0.0809461921453476, -0.06054829806089401, 0.034864768385887146, 0.1348578929901123, -0.11012686043977737, 0.054988011717796326, -0.05999733507633209, -0.06388912349939346, -0.09727230668067932, 0.08628790080547333, 0.045402705669403076, -0.06087110936641693, -0.09686797112226486, -0.014850914478302002, 0.025354817509651184, -0.1273336112499237, -0.03074841946363449, 0.03813832998275757, 0.05829921364784241, -0.10228632390499115, -0.09038350731134415, -0.058707647025585175, -0.07936730980873108, -0.06105639040470123, -0.024714671075344086, 0.06919722259044647, -0.031602390110492706, 0.12707200646400452, 0.02962811291217804, 0.1413416564464569, -0.07268758863210678, -0.1403738409280777, 0.11128982901573181, -0.13940821588039398, 0.06622084975242615, -0.033490702509880066, -0.05655407905578613, 0.04881814122200012, 0.024936601519584656, 0.07041604816913605, 0.0021157264709472656, -0.13357311487197876, 0.023063212633132935, -0.10117978602647781, 0.05188237130641937, 0.0004956424236297607, -0.0036677420139312744, -0.003551587462425232, -0.1050984188914299, 0.0484541654586792, -0.040811359882354736, 0.11830645799636841, -0.07430785894393921, 0.001028016209602356, 0.018567368388175964, 0.07609391212463379, 0.03396978974342346, 0.10032185912132263, -0.07595989853143692, 0.10495033860206604, 0.09099765121936798, -0.00852133333683014, -0.12009775638580322, -0.004906564950942993, 0.11163213849067688, -0.0044237226247787476, 0.004709005355834961, 0.0033320486545562744, -0.10767920315265656, -0.038300007581710815, 0.045275285840034485, 0.05341494083404541, 0.023672237992286682, 0.07365046441555023, 0.09745815396308899, 0.03446491062641144, -0.004935771226882935, -0.12012141197919846, 0.05976283550262451, 0.012102290987968445, -0.10642151534557343, 0.07566939294338226, -0.08386428654193878, -0.08602279424667358, -0.053101032972335815, -0.09873336553573608, -0.09049496799707413, 0.06871329247951508, -0.0005100369453430176, -0.12204845249652863, 0.039913639426231384, -0.10118959844112396, -0.12071064114570618, 0.09522102773189545, 0.13476771116256714, 0.04392637312412262, 0.08963678777217865, 0.07552237808704376, -0.011654451489448547, 0.004464477300643921, -0.06533142924308777, -0.01869828999042511, -0.09013315290212631, -0.09788630902767181, -0.003464996814727783, -0.10672939568758011, 0.07594643533229828, -0.009664490818977356, 0.07590432465076447, 0.04987138509750366, -0.11580266058444977, 0.12844803929328918, -0.07427527010440826, 0.12766385078430176, 0.09750163555145264, -0.13259278237819672, -0.052432239055633545, -0.11613364517688751, 0.12067067623138428, -0.11025826632976532, 0.07903259992599487, -0.10811272263526917, -0.04149996489286423, -0.050681062042713165, 0.0036717206239700317, 0.06757837533950806, 0.02915176749229431, 0.10261228680610657, 0.03855471312999725, 0.005649581551551819, 0.048840925097465515, -0.006089851260185242, 0.08040547370910645, -0.06910599768161774, -0.11342468857765198, -0.056467361748218536, 0.028285861015319824, 0.08993731439113617, 0.10565082728862762, 0.13896194100379944, -0.011866778135299683, 0.13692423701286316, -0.0738401934504509, 0.033929795026779175, -0.07875779271125793, 0.0711744874715805, 0.04731746017932892, 0.05544804036617279, 0.04142461717128754, -0.05407751351594925, -0.03921457380056381, -0.07135755568742752, -0.05178166925907135, -0.10582010447978973, 0.08893297612667084, -0.06173037737607956, 0.009981811046600342, 0.09542430937290192, 0.09494584798812866, -0.03830663114786148, -0.13124185800552368, -0.10332874208688736, 0.11113294959068298, -0.04703265428543091, -0.05212827026844025, -0.05665469914674759, 0.07292219996452332, -0.07316245138645172, 0.13881373405456543, -0.032144367694854736, -0.10273183882236481, -0.06368256360292435, -0.10492468625307083, -0.07524901628494263, -0.005317240953445435, 0.10754382610321045, 0.07820221781730652, 0.10212145745754242, 0.06730577349662781, 0.05368012189865112, 0.038239672780036926, 0.09044285118579865, 0.027848482131958008, -0.11941364407539368, -0.004097387194633484, 0.13840800523757935, -0.1376383751630783, 0.09223520755767822, 0.07956200838088989, 0.04080389440059662, 0.0011347830295562744, 0.03541173040866852, 0.04460500180721283, 0.12024161219596863, 0.12336328625679016, 0.10901698470115662, -0.07033692300319672, 0.06213019788265228, -0.07304596155881882, -0.02837245911359787, -0.10273249447345734, 0.026719138026237488, 0.11246320605278015, 0.08923806250095367, -0.04507904499769211, -0.01773810386657715, 0.128279447555542, 0.08645200729370117, 0.1308087706565857, 0.028863489627838135, 0.12288829684257507, 0.08266466856002808, -0.04712475836277008, 0.005083724856376648, 0.04100462794303894, 0.06835852563381195, -0.09546227753162384, 0.041881054639816284, -0.053149230778217316, 0.066785529255867, 0.039091527462005615, -0.03611481189727783, -0.07443329691886902, 0.12368068099021912, -0.05598033219575882, -0.05728013813495636, 0.03541877865791321, 0.09244556725025177, 0.037931084632873535, -0.1363104283809662, -0.07712943106889725, -0.02433682233095169, 0.06878109276294708, -0.11393888294696808, -0.09168557822704315, 0.0610649436712265, -0.07703865319490433, 0.05134342610836029, -0.12676790356636047, -0.06807046383619308, -0.14316850900650024, -0.14209504425525665, 0.0765165388584137, -0.0326196625828743, -0.13853828608989716, 0.06952652335166931, 0.07287684082984924, 0.0014191865921020508, -0.003683313727378845, 0.06539255380630493, -0.07122910767793655, 0.08149878680706024, 0.04673519730567932, 0.024198070168495178, -0.027787409722805023, -0.02783902734518051, -0.032853707671165466, -0.03099101036787033, -0.020183496177196503, 0.021635696291923523, -0.05393212288618088, -0.014377802610397339, 0.09178398549556732, 0.13331124186515808, -0.00314117968082428, 0.09015576541423798, -0.11576355248689651, -0.07241123914718628, -0.05999167263507843, -0.14071421325206757, -0.11321872472763062, -0.13108983635902405, -0.10082800686359406, 0.11138564348220825, 0.006402179598808289, 0.03706887364387512, 0.06566227972507477, -0.12359198927879333, 0.002711936831474304, 0.03127068281173706, -0.014947488903999329, 0.08781808614730835, -0.10427366197109222, 0.010396063327789307, 0.12407535314559937, 0.044702813029289246, -0.03672307729721069, -0.12930090725421906, -0.0648394525051117, -0.10142694413661957, -0.08647941052913666, -0.03890709578990936, -0.0902593806385994, -0.0028111636638641357, 0.05640266835689545, -0.12181620299816132, 0.13479122519493103, 0.005275413393974304, -0.056175731122493744, -0.11557473242282867, 0.01729060709476471, -0.014803886413574219, -0.10704566538333893, 0.08045685291290283, -0.13758602738380432, 0.1427592933177948, -0.08986786007881165, -0.05285327881574631, 0.09060131013393402, -0.10954387485980988, 0.04679405689239502, -0.07896851748228073, -0.12524381279945374, 0.02545855939388275, 0.02824784815311432, 0.047533854842185974, -0.03182847797870636, -0.017549291253089905, 0.10007449984550476, 0.08646562695503235, 0.11416512727737427, -0.017107859253883362, 0.04803824424743652, 0.0377451628446579, -0.1400838941335678, 0.08776558935642242, 0.04091714322566986, -0.05050371587276459, -0.058656319975852966, -0.029094144701957703, 0.09126976132392883, 0.0596139132976532, -0.09478670358657837, 0.09288829565048218, 0.13243412971496582, 0.13189458847045898, -0.1292857676744461, 0.11595487594604492, -0.06838060915470123, 0.07219162583351135, -0.125829815864563, -0.11289975047111511, -0.02629607915878296, 0.05380283296108246, 0.024625495076179504, 0.0027655065059661865, -0.07356790453195572, 0.032333627343177795, -0.034924402832984924, 0.03527158498764038, -0.09857311844825745, -0.12244229018688202, 0.015475437045097351, 0.09738008677959442, 0.08162064850330353, 0.09293606877326965, -0.09901289641857147, 0.11769241094589233, -0.12882840633392334, -0.10403881967067719, 0.06427519023418427, -0.14048005640506744, -0.11198540776968002, -0.09767462313175201, -0.0610508993268013, 0.04837709665298462, 0.018575549125671387, -0.0842580497264862, -0.07493520528078079, -0.10130877792835236, 0.1412983536720276, -0.053126946091651917, 0.11758348345756531, 0.10661008954048157, -0.061238497495651245, -0.05644552409648895, 0.01215749979019165, 0.09597848355770111, -0.0739605650305748, -0.11064563691616058, -0.10482530295848846, -0.07356974482536316, 0.021687716245651245, 0.015944570302963257, -0.1295541524887085, 0.09717100858688354, -0.0019307434558868408, 0.009601593017578125, -0.08935241401195526, 0.06367051601409912, -0.037043340504169464, -0.039216503500938416, -0.022735491394996643, -0.08311253786087036, -0.042812786996364594, 0.10622391104698181, -0.08080831170082092, 0.13804683089256287, -0.09391919523477554, -0.03411974757909775, -0.10300599038600922, -0.11791104078292847, 0.0351426899433136, -0.11685428023338318, 0.14030390977859497, -0.003461197018623352, 0.0017047673463821411, -0.015351101756095886, 0.09838403761386871, -0.13316290080547333, 0.04727734625339508, 0.05082796514034271]}, "bias": {"shape": [12], "values": [-0.13095058500766754, 0.1253323256969452, -0.02333866059780121, 0.10843849182128906, 0.06392055749893188, 0.09636139869689941, 0.10406340658664703, 0.09239907562732697, 0.1310446560382843, -0.07580416649580002, 0.0018983334302902222, -0.09047241508960724]}}, "floor": {"shape": [1], "values": [0.0]}, "ceiling": {"shape": [1], "values": [0.0]}, "coef_softsign": {"shape": [1], "values": [0.40661096572875977]}, "coef_tanh": {"shape": [1], "values": [0.42096564173698425]}}, "stack.5": {"conv": {"weight": {"shape": [1, 12, 4], "values": [0.00017087161540985107, 0.02971269190311432, 0.04771323502063751, -0.007979080080986023, 0.06480877101421356, 0.12604346871376038, 0.13097026944160461, 0.050441816449165344, 0.0870119035243988, -0.08073146641254425, 0.0841267853975296, 0.10470359027385712, -0.058475054800510406, -0.09807971119880676, -0.05855315178632736, 0.12088724970817566, 0.00177803635597229, 0.0492587685585022, -0.04187007248401642, -0.1330263465642929, -0.10605992376804352, 0.10813689231872559, 0.03289474546909332, 0.10719999670982361, 0.057423487305641174, -0.006056055426597595, -0.04430495947599411, 0.07157348096370697, 0.04199400544166565, -0.00458526611328125, 0.11455655097961426, -0.08093570917844772, 0.13530272245407104, 0.1440773904323578, -0.06648240238428116, -0.08145596086978912, -0.002082258462905884, -0.01287183165550232, -0.09086912125349045, -0.006927326321601868, -0.1122969463467598, -0.11908715218305588, 0.03277285397052765, 0.13351452350616455, 0.04463915526866913, 0.041543468832969666, 0.11704105138778687, -0.0808081403374672]}, "bias": {"shape": [1], "values": [0.14310035109519958]}}, "floor": {"shape": [1], "values": [0.0]}, "ceiling": {"shape": [1], "values": [0.0]}, "coef_softsign": {"shape": [1], "values": [0.356253445148468]}, "coef_tanh": {"shape": [1], "values": [0.0953068733215332]}}}}