{"config": {"model_type": "ConvWaveshaper", "norm_mean": 0.0, "norm_std": 1.0}, "parameters": {"kernel_size": 4, "depth_size": 8, "num_channels": 12}, "state_dict": {"stack.0": {"conv": {"weight": {"shape": [12, 1, 4], "values": [-0.002023935317993164, -0.46388691663742065, -0.37993425130844116, 0.011721551418304443, 0.23518246412277222, -0.017246544361114502, -0.2193613052368164, -0.025625765323638916, -0.010969340801239014, 0.0878061056137085, -0.018948674201965332, -0.4877614378929138, -0.21346896886825562, -0.3442986011505127, -0.3219122886657715, 0.2132541537284851, 0.12527024745941162, -0.43680882453918457, 0.07551902532577515, -0.16653352975845337, 0.4772576689720154, -0.2838291525840759, 0.12431544065475464, -0.16432934999465942, -0.33678364753723145, 0.4336625933647156, 0.45652806758880615, -0.05950075387954712, 0.0940396785736084, -0.3857440948486328, 0.4374869465827942, 0.14811038970947266, 0.4839358329772949, -0.42617905139923096, -0.23491698503494263, 0.49525654315948486, 0.20639240741729736, -0.45663774013519287, -0.31925392150878906, 0.10025089979171753, 0.032025277614593506, -0.49473297595977783, 0.4083109498023987, 0.2884722352027893, 0.16707998514175415, -0.4147258996963501, 0.2675457000732422, 0.08945107460021973]}, "bias": {"shape": [12], "values": [0.3350781798362732, 0.30738019943237305, 0.01313328742980957, 0.1327083706855774, 0.3849831819534302, 0.43408632278442383, -0.2748279571533203, -0.2326335906982422, -0.14214098453521729, 0.03751718997955322, 0.2359723448753357, -0.38701993227005005]}}, "floor": {"shape": [1], "values": [0.0]}, "ceiling": {"shape": [1], "values": [0.0]}, "coef_softsign": {"shape": [1], "values": [0.9187551736831665]}, "coef_tanh": {"shape": [1], "values": [-0.16324637830257416]}}, "stack.1": {"conv": {"weight": {"shape": [12, 12, 4], "values": [0.1331482231616974, -0.07196538895368576, -0.02843014895915985, 0.10491585731506348, -0.06599589437246323, 0.0681769996881485, 0.058921948075294495, -0.050224676728248596, -0.1277690827846527, 0.005569681525230408, -0.05790314823389053, -0.00045502185821533203, -0.139076367020607, -0.14044609665870667, 0.034471943974494934, -0.05639118701219559, -0.05302472412586212, 0.1312853991985321, 0.14203143119812012, -0.13980884850025177, 0.12248790264129639, 0.08565111458301544, -0.06650325655937195, 0.10090707242488861, 0.10231278836727142, -0.12566763162612915, 0.056293994188308716, -0.07152633368968964, 0.07501842081546783, -0.0040317922830581665, 0.13745763897895813, 0.1302582323551178, 0.02127629518508911, -0.087896928191185, -0.024124182760715485, -0.0025526881217956543, 0.10919615626335144, -0.07488513737916946, -0.011572718620300293, -0.021833673119544983, 0.12682074308395386, -0.019709892570972443, 0.0017429739236831665, 0.05580264329910278, 0.13335663080215454, -0.03556462377309799, 0.12260651588439941, -0.12367280572652817, 0.09711913764476776, 0.11504629254341125, 0.0792754590511322, 0.11302828788757324, -0.06571701169013977, 0.10580918192863464, -0.011937841773033142, -0.01958366483449936, 0.018812358379364014, -0.10794562846422195, -0.1046212837100029, 0.10368300974369049, 0.007473394274711609, 0.055174440145492554, 0.04033198952674866, 0.14358898997306824, 0.006773173809051514, -0.07315882295370102, 0.009770452976226807, -0.11001470685005188, -0.09798693656921387, 0.0958535224199295, -0.0320650190114975, 0.12644052505493164, -0.11985357850790024, 0.04205426573753357, -0.03380045294761658, 0.0729086697101593, 0.07654352486133575, -0.02484239637851715, -0.14341607689857483, -0.04764673113822937, 0.06400497257709503, 0.10025191307067871, -0.09297012537717819, -0.0005531609058380127, -0.04282394051551819, 0.10374781489372253, 0.07499690353870392, -0.01356227695941925, -0.042776986956596375, -0.006564870476722717, -0.08386428654193878, 0.12397056818008423, -0.12972061336040497, -0.14178039133548737, 0.023127302527427673, -0.1374584138393402, -0.050659433007240295, 0.0781424343585968, 0.08517289161682129, 0.0008186250925064087, -0.05530957877635956, 0.1369687020778656, 0.1376553177833557, -0.12659679353237152, -0.024886690080165863, 0.09905536472797394, 0.03603418171405792, 0.07644569873809814, -0.09742724895477295, 0.019597753882408142, 0.004243046045303345, 0.004371747374534607, -0.1389298439025879, -0.13160380721092224, 0.003556162118911743, 0.13183683156967163, 0.10899928212165833, -0.13845805823802948, -0.0002888888120651245, 0.011997774243354797, -0.06703528016805649, -0.12867878377437592, 0.13737908005714417, 0.0640607476234436, 0.09777747094631195, -0.06000199913978577, -0.06925040483474731, 0.10379064083099365, -0.1380215436220169, 0.07322977483272552, 0.03777247667312622, -0.13382092118263245, 0.005537122488021851, 0.002355530858039856, 0.0538499653339386, -0.1004093587398529, 0.025482162833213806, -0.08737117052078247, -0.07643527537584305, -0.07384125888347626, -0.05657582730054855, -0.0784701332449913, 0.050784096121788025, -0.07062939554452896, -0.020323000848293304, 0.05102083086967468, 0.009382769465446472, 0.12827476859092712, 0.027622699737548828, -0.014301776885986328, 0.1034526526927948, -0.13827650249004364, 0.03973102569580078, 0.06623950600624084, -0.005795970559120178, 0.09070311486721039, 0.1089562475681305, 0.10241961479187012, -0.020523548126220703, 0.12190404534339905, 0.08912956714630127, -0.06312772631645203, 0.07778610289096832, 0.0647466629743576, -0.07245103269815445, -0.04263079911470413, 0.09546951949596405, 0.07054437696933746, -0.14342357218265533, 0.13848033547401428, -0.07758531719446182, -0.0208231583237648, -0.08848904818296432, 0.06586562097072601, 0.06657597422599792, -0.0010482370853424072, -0.13649269938468933, -0.05115165561437607, -0.031210772693157196, 0.06456729769706726, 0.008893996477127075, -0.05730938911437988, 0.1307065188884735, 0.01579919457435608, -0.13523678481578827, -0.006817325949668884, 0.1008336991071701, 0.0635138601064682, 0.03457602858543396, -0.11057151108980179, -0.09334900975227356, 0.057337552309036255, 0.10794085264205933, -0.0801597312092781, -0.025957368314266205, -0.07314033806324005, -0.11861948668956757, 0.05839884281158447, 0.057609930634498596, -0.06093329191207886, 0.06935879588127136, 0.04600273072719574, -0.10654361546039581, 0.08498820662498474, 0.04222686588764191, 0.07237067818641663, 0.09414839744567871, 0.02342894673347473, 0.07135099172592163, 0.015180230140686035, 0.024617135524749756, 0.042909324169158936, -0.047986216843128204, -0.06989549100399017, -0.050114795565605164, -0.011026054620742798, -0.049276918172836304, 0.03413359820842743, 0.06708230078220367, 0.11308246850967407, -0.11617700755596161, 0.053203895688056946, -0.046746306121349335, 0.022846803069114685, -0.0799725279211998, 0.0994577705860138, 0.01808956265449524, -0.09722982347011566, -0.0059207528829574585, 0.0788297951221466, 0.05986271798610687, 0.12566408514976501, -0.08439499884843826, 0.1254093050956726, 0.13461729884147644, -0.015316769480705261, -0.004639357328414917, 0.09762546420097351, 0.14213263988494873, 0.10057319700717926, 0.12049359083175659, 0.03248637914657593, -0.0001719146966934204, -0.014510929584503174, 0.016153812408447266, 0.011521905660629272, -0.13822199404239655, -0.060737721621990204, -0.04847843945026398, 0.03406199812889099, 0.025898456573486328, -0.046668343245983124, 0.11936205625534058, -0.11450989544391632, -0.07653440535068512, -0.09371252357959747, 0.09469395875930786, -0.0758141428232193, 0.08959159255027771, -0.12260276079177856, -0.12856660783290863, -0.08337240666151047, 0.13824865221977234, 0.0946587473154068, -0.07756447792053223, -0.142014279961586, 0.04596582055091858, 0.14201456308364868, -0.01417812705039978, -0.13728149235248566, -0.12337599694728851, -0.0024857521057128906, -0.06321115791797638, 0.009638294577598572, -0.033741071820259094, 0.047920018434524536, 0.024980828166007996, -0.11889103055000305, 0.028566405177116394, 0.07286323606967926, -0.13433128595352173, -0.09356129914522171, -0.008051782846450806, 0.11472460627555847, -0.13494166731834412, -0.07962117344141006, 0.003542378544807434, 0.008494719862937927, -0.07133282721042633, -0.11250105500221252, -0.05647527426481247, 0.12796229124069214, 0.0689038336277008, 0.1296854019165039, 0.132065087556839, -0.10990679264068604, -0.008225813508033752, 0.02100163698196411, -0.025990217924118042, 0.0011794567108154297, -0.1217169389128685, -0.04878620803356171, 0.07974323630332947, -0.026982299983501434, -0.0131903737783432, -0.1282232254743576, -0.12005845457315445, -0.018824085593223572, 0.1398223638534546, -0.08599056303501129, -0.0366816446185112, 0.12242648005485535, 0.10160762071609497, -0.04438707232475281, -0.09615213423967361, 0.06734266877174377, 0.10554160177707672, -0.11986594647169113, -0.13341130316257477, -0.0028824657201766968, -0.09534470736980438, 0.01150888204574585, -0.12628689408302307, -0.03441286087036133, 0.032578736543655396, 0.028873935341835022, -0.13625191152095795, -0.05830145627260208, -0.1183098554611206, 0.005213946104049683, 0.0910542756319046, -0.05460339039564133, -0.044483527541160583, 0.13359513878822327, 0.022115185856819153, 0.04204963147640228, 0.0932047963142395, 0.07798832654953003, -0.04591836780309677, 0.054443180561065674, 0.054244473576545715, 0.14126446843147278, -0.0430130735039711, 0.017390921711921692, 0.04212605953216553, 0.012025833129882812, -0.028076574206352234, -0.11682265996932983, -0.034318722784519196, -0.10694079101085663, -0.0983378067612648, -0.06712780892848969, -0.13255318999290466, -0.06497716903686523, -0.0667455717921257, 0.14089477062225342, -0.12931787967681885, -0.01667165756225586, -0.06472661346197128, -0.11577126383781433, -0.11792995035648346, -0.03241836279630661, 0.13967019319534302, 0.06197664141654968, -0.04722963273525238, 0.14147672057151794, 0.03238365054130554, 0.039590686559677124, 0.008512884378433228, -0.06262578070163727, -0.12960746884346008, -0.12425389885902405, 0.04798354208469391, 0.1427919864654541, -0.01990332454442978, 0.08068540692329407, 0.08909894526004791, 0.007846638560295105, -0.021717548370361328, -0.06126004457473755, -0.015663981437683105, -0.13474437594413757, -0.009349584579467773, -0.11608665436506271, -0.10263262689113617, -0.11424589902162552, -0.03921978920698166, 0.04655170440673828, -0.13722935318946838, 0.02318030595779419, -0.1236138567328453, 0.08448120951652527, -0.12023652344942093, 0.1425771713256836, -0.03682763874530792, -0.0023981034755706787, 0.028680801391601562, -0.030582614243030548, 0.1056259274482727, 0.0010574162006378174, -0.13188613951206207, -0.020601212978363037, -0.09519045054912567, -0.041983067989349365, -0.07550141960382462, 0.012619823217391968, 0.12377837300300598, 0.13706892728805542, -0.08700297027826309, 0.06420046091079712, 0.013029754161834717, -0.1428810954093933, -0.10613299906253815, -0.029101215302944183, 0.11391550302505493, -0.03178185224533081, 0.106665700674057, -0.10432416200637817, -0.08275185525417328, 0.08872577548027039, -0.0547255203127861, 0.08689716458320618, -0.020156070590019226, 0.0035628676414489746, 0.058708518743515015, -0.013858586549758911, 0.070731520652771, 0.033617377281188965, -0.11480548232793808, 0.12769940495491028, 0.10765057802200317, -0.055821068584918976, -0.030552715063095093, 0.05597884953022003, -0.053546011447906494, -0.08971493691205978, 0.1288396120071411, 0.09272351861000061, 0.014375865459442139, -0.10582587122917175, 0.04169143736362457, 0.01972922682762146, 0.12282228469848633, 0.13456600904464722, -0.07629767805337906, 0.02938017249107361, -0.012536585330963135, -0.005675196647644043, -0.051607780158519745, -0.09342172741889954, 0.1376832127571106, -0.01893100142478943, 0.018589824438095093, -0.044769152998924255, -0.07088596373796463, 0.10522134602069855, 0.03442150354385376, 0.055570974946022034, 0.061434581875801086, -0.14126291871070862, 0.039368778467178345, -0.10151241719722748, 0.014459788799285889, 0.05723769962787628, 0.12331324815750122, 0.04256819188594818, -0.009658366441726685, -0.02082240581512451, 0.127130925655365, -0.03163542598485947, 0.0019276291131973267, -0.036336980760097504, -0.04601780325174332, 0.1267341673374176, -0.07115701586008072, -0.13294395804405212, -0.015931352972984314, 0.08542361855506897, 0.04803335666656494, -0.09275788068771362, -0.12797755002975464, 0.05981901288032532, 0.13461175560951233, 0.07240873575210571, -0.10744357854127884, -0.016781091690063477, -0.04482956975698471, 0.059619754552841187, 0.033131495118141174, -0.11819052696228027, -0.14141011238098145, 0.13060212135314941, 0.1372690498828888, 0.0628773421049118, 0.08713191747665405, 0.07800190150737762, -0.09242227673530579, -0.057095251977443695, -0.1197449341416359, -0.11422774195671082, -0.042772650718688965, 0.08437728881835938, -0.05238175392150879, 0.026661545038223267, -0.0192347913980484, 0.034577876329422, 0.12493500113487244, -0.07107199728488922, -0.12106089293956757, -0.11392532289028168, 0.026648372411727905, 0.04688669741153717, -0.0016904175281524658, -0.04717271775007248, -0.0463109016418457, -0.07175197452306747, 0.13641059398651123, 0.14107516407966614, 0.1085391640663147, -0.05418476462364197, -0.1299859881401062, -0.0332036167383194, -0.11562961339950562, -0.0463976189494133, -0.08485016226768494, -0.025167085230350494, 0.13889628648757935, 0.0737544596195221, -0.128729447722435, 0.0006951242685317993, -0.1000068262219429, -0.10024066269397736, -0.019792944192886353, 0.06955201923847198, 0.13838350772857666, 0.0812797099351883, 0.08630529046058655, 0.12764373421669006, -0.10083447396755219, -0.04248806834220886, -0.06965479254722595, 0.030615612864494324, 0.04053737223148346, 0.11547750234603882, 0.13960933685302734, 0.1337774693965912, 0.054845601320266724, -0.14015555381774902, -0.09690496325492859, 0.1424817442893982, 0.12740778923034668, -0.05056295543909073, -0.097837433218956, 0.13653114438056946, 0.10911205410957336, -0.07216176390647888, -0.13902755081653595, 0.10472746193408966, -0.07243777066469193, 0.0242326557636261, 0.06367780268192291, -0.042608462274074554, -0.12876680493354797, -0.1169012039899826, -0.013695403933525085, 0.07364456355571747, -0.11573025584220886, -0.05265779793262482, 0.1353984773159027, -0.06575945764780045, -0.12534375488758087, -0.013834312558174133, -0.1107984259724617, -0.09431029856204987, -0.09193401038646698, -0.050703153014183044]}, "bias": {"shape": [12], "values": [0.06841687858104706, -0.09993603825569153, 0.05086076259613037, -0.03221932053565979, 0.12939631938934326, 0.05652853846549988, 0.016519606113433838, -0.0637206882238388, 0.05713854730129242, 0.09987886250019073, 0.10034002363681793, -0.11809563636779785]}}, "floor": {"shape": [1], "values": [0.0]}, "ceiling": {"shape": [1], "values": [0.0]}, "coef_softsign": {"shape": [1], "values": [-0.3903541564941406]}, "coef_tanh": {"shape": [1], "values": [0.49523481726646423]}}, "stack.2": {"conv": {"weight": {"shape": [12, 12, 4], "values": [0.06141330301761627, -0.019112274050712585, -0.03776437044143677, 0.0055320411920547485, 0.0874798595905304, -0.06583578884601593, 0.09506484866142273, 0.13270774483680725, -0.12056435644626617, -0.044704049825668335, -0.016823068261146545, 0.09906443953514099, 0.13931342959403992, 0.0552239865064621, -0.13631580770015717, -0.07064689695835114, -0.10157793760299683, 0.01430441439151764, 0.14365556836128235, -0.13308030366897583, -0.09381526708602905, 0.05980752408504486, 0.020960047841072083, 0.006554439663887024, 0.14013725519180298, -0.02911771833896637, 0.08977086842060089, 0.0562397837638855, 0.03334301710128784, -0.11260385811328888, 0.01403072476387024, -0.08228389918804169, 0.13313597440719604, -0.028490662574768066, 0.091120645403862, -0.0886523425579071, -0.08814112097024918, -0.02617529034614563, -0.13531188666820526, -0.10695713758468628, 0.020951464772224426, 0.13519662618637085, -0.030103042721748352, -0.06918502599000931, -0.07932357490062714, -0.14244449138641357, -0.10328564047813416, 0.09062710404396057, -0.027821287512779236, 0.12427666783332825, 0.08335866034030914, 0.12227892875671387, 0.09748473763465881, 0.026023730635643005, -0.13438785076141357, -0.046872787177562714, 0.04042866826057434, -0.10058504343032837, -0.00545153021812439, -0.10814526677131653, 0.07054124772548676, 0.014538198709487915, 0.10041624307632446, -0.1272662729024887, 0.08412270247936249, 0.1407085359096527, 0.09436206519603729, 0.045338913798332214, -0.09286154806613922, 0.1298823356628418, -0.10216772556304932, -0.12841090559959412, -0.10167340189218521, 0.02031134068965912, -0.05905225872993469, -0.1156478077173233, 0.039338842034339905, 0.02193017303943634, 0.0664602518081665, -0.00433698296546936, 0.07065670192241669, 0.1103968620300293, -0.09604474902153015, -0.005046635866165161, 0.04395298659801483, 0.11808997392654419, -0.13858580589294434, -0.051232270896434784, -0.0770183801651001, -0.07405883073806763, 0.0479407012462616, -0.07467587292194366, -0.09263969212770462, 0.05572521686553955, 0.14270132780075073, -0.12232202291488647, -0.010731786489486694, 0.1198151707649231, 0.007321938872337341, 0.04841674864292145, 0.1202261745929718, -0.10843883454799652, -0.10571031272411346, -0.032786719501018524, 0.020469993352890015, -0.0011279881000518799, 0.03656111657619476, 0.1411426067352295, -0.06695003807544708, -0.08642230927944183, 0.00568757951259613, -0.019537806510925293, -0.14001142978668213, -0.05929729342460632, -0.1359480917453766, 0.02283857762813568, 0.11789041757583618, -0.08269846439361572, -0.0026699304580688477, -0.017250925302505493, 0.11527076363563538, -0.018379107117652893, -0.1169533059000969, -0.0693848580121994, 0.07905043661594391, 0.12002184987068176, 0.04366876184940338, 0.12336158752441406, -0.016851842403411865, 0.09231364727020264, 0.023129776120185852, -0.08310536295175552, -0.06919725984334946, 0.07673612236976624, -0.13000908493995667, -0.13058899343013763, 0.11263251304626465, 0.050419196486473083, 0.0279855877161026, -0.12914085388183594, 0.0382101833820343, 0.040047675371170044, 0.03195001184940338, 0.10835549235343933, -0.03662844002246857, -0.03972528129816055, -0.13147060573101044, -0.06377995014190674, -0.07071971148252487, -0.07003935426473618, -0.11028976738452911, 0.09269078075885773, -0.08809015154838562, 0.041151732206344604, 0.12326636910438538, -0.0405101478099823, -0.10512392222881317, 0.12203946709632874, -0.08286000043153763, -0.05815853923559189, -0.003034263849258423, -0.1301368772983551, -0.03995966166257858, 0.02549394965171814, -0.12204425781965256, 0.14298704266548157, 0.08126980066299438, -0.09306341409683228, 0.023944392800331116, 0.07171136140823364, -0.023726560175418854, 0.08641639351844788, -0.0308099165558815, -0.13168826699256897, 0.04618959128856659, -0.0997113436460495, 0.05038069188594818, -0.07810995727777481, -0.037605591118335724, -0.02872389554977417, 0.027554363012313843, 0.0897325724363327, -0.09560524672269821, 0.03472922742366791, 0.05466453731060028, 0.13978490233421326, -0.04272904992103577, -0.027029775083065033, 0.07475726306438446, -0.12270553410053253, -0.049943648278713226, -0.06338444352149963, -0.0826423391699791, -0.07442187517881393, -0.1413237750530243, -0.006584376096725464, -0.12204646319150925, 0.12236306071281433, -0.12622222304344177, -0.07741343975067139, -0.1018269881606102, -0.09227167069911957, -0.10652884840965271, 0.03108692169189453, 0.14030173420906067, -0.1021796315908432, -0.017802581191062927, 0.03542858362197876, 0.06348250806331635, 0.0348038524389267, 0.11178979277610779, -0.0649392306804657, 0.023217275738716125, -0.1024719849228859, 0.13706979155540466, 0.08811897039413452, -0.12551383674144745, -0.001514345407485962, 0.11102554202079773, -0.12543652951717377, -0.029183998703956604, 0.03877076506614685, 0.036516204476356506, -0.11060556024312973, -0.025419652462005615, -0.011017918586730957, 0.10210780799388885, 0.10575613379478455, -0.061671167612075806, 0.03292769193649292, -0.011698007583618164, -0.01085612177848816, 0.05420595407485962, -0.06527924537658691, -0.09090236574411392, 0.10531188547611237, -0.048851899802684784, -0.07171984761953354, 0.12769043445587158, -0.06654014438390732, 0.029889866709709167, -0.12108384817838669, -0.0542767271399498, -0.01753699779510498, -0.025567248463630676, -0.023704037070274353, 0.005842030048370361, 0.057779908180236816, -0.07975023984909058, -0.11034450680017471, 0.09786611795425415, 0.12297585606575012, 0.05476959049701691, 0.02195364236831665, -0.08934962749481201, -0.10531330853700638, 0.008913740515708923, -0.046060629189014435, 0.010091185569763184, 0.10834118723869324, 0.039312273263931274, 0.043128013610839844, 0.13339504599571228, 0.000757172703742981, 0.14096149802207947, 0.1357608437538147, -0.14203819632530212, 0.07187291979789734, -0.04939936101436615, 0.058106839656829834, -0.09503783285617828, 0.042474254965782166, -0.05277765542268753, 0.14103537797927856, 0.06560313701629639, 0.06334328651428223, 0.05835805833339691, 0.13156265020370483, -0.04561128467321396, 0.04295948147773743, 0.12425369024276733, 0.06789609789848328, -0.07399401813745499, 0.12325358390808105, 0.12004509568214417, -0.016939908266067505, 0.09875315427780151, 0.06396612524986267, 0.004881009459495544, 0.029979512095451355, 0.10037918388843536, -0.13320940732955933, 0.10854572057723999, 0.10529488325119019, 0.03155331313610077, -0.05658857524394989, -0.03826906532049179, 0.012035459280014038, -0.0875755101442337, 0.04735349118709564, 0.0536809116601944, -0.044205695390701294, -0.06722944974899292, 0.10573476552963257, 0.12609386444091797, -0.13638360798358917, 0.022687971591949463, -0.1182897761464119, 0.10261532664299011, -0.027228765189647675, -0.12629817426204681, 0.12941664457321167, 0.11443141102790833, 0.05306410789489746, 0.11548948287963867, -0.08914254605770111, 0.04326459765434265, -0.014068007469177246, 0.0920206606388092, -0.08320999145507812, 0.013499021530151367, 0.07386574149131775, 0.017421752214431763, -0.028835207223892212, -0.13997481763362885, 0.11198186874389648, 0.03208562731742859, -0.08035857230424881, -0.012228012084960938, -0.024050630629062653, -0.11608479171991348, 0.019665881991386414, -0.002887412905693054, 0.09668491780757904, 0.10529354214668274, -0.11708249151706696, -0.034744203090667725, 0.06577250361442566, -0.009172871708869934, -0.09345655143260956, -0.112404003739357, 0.09073832631111145, -0.14116382598876953, 0.03389205038547516, 0.1424907147884369, 0.005572006106376648, -0.06172623485326767, 0.13777616620063782, 0.07703438401222229, 0.09294813871383667, 0.001443609595298767, 0.07546764612197876, 0.08947369456291199, 0.046309277415275574, 0.06070438027381897, -0.1014690101146698, 0.03301359713077545, 0.12039190530776978, -0.01670578122138977, -0.09801056236028671, 0.002304762601852417, -0.08774036169052124, 0.09924216568470001, 0.11206907033920288, -0.016848310828208923, 0.05158446729183197, 0.12593606114387512, -0.074668750166893, -0.02028922736644745, 0.05415886640548706, -0.12249069660902023, 0.13894236087799072, 0.00634688138961792, -0.10340482741594315, 0.13334283232688904, 0.09689925611019135, -1.6480684280395508e-05, -0.0035539716482162476, -0.040175482630729675, 0.05049680173397064, 0.03910316526889801, 0.03649976849555969, 0.017959609627723694, 0.09584952890872955, -0.11894215643405914, 0.1406126320362091, -0.03673837333917618, 0.08976724743843079, -0.1149321049451828, 0.12693125009536743, 0.10895386338233948, 0.024593323469161987, -0.1376626044511795, -0.08803734928369522, 0.11911416053771973, 0.026888489723205566, -0.01009853184223175, -0.013429969549179077, 0.11838263273239136, 0.009915202856063843, 0.07939855754375458, 0.04737105965614319, -0.034556567668914795, -0.01610828936100006, 0.10175146162509918, -0.020213469862937927, -0.1345733106136322, -0.05901120603084564, -0.05914489924907684, 0.12233629822731018, 0.002117544412612915, 0.0018571466207504272, -0.10556624084711075, 0.10841831564903259, 0.11825022101402283, 0.0031886696815490723, 0.01208449900150299, 0.019950762391090393, -0.08689290285110474, -0.04986535757780075, -0.010656774044036865, -0.12191931903362274, 0.1126227080821991, -0.12630325555801392, 0.096062570810318, 0.13953423500061035, -0.09536690264940262, -0.02594737708568573, -0.13303951919078827, -0.04888211935758591, -0.11829055100679398, 0.035099759697914124, 0.02975781261920929, -0.03648941218852997, -0.042560428380966187, 0.06068514287471771, 0.13343611359596252, -0.019200921058654785, -0.05905134230852127, -0.019393377006053925, -0.1235063374042511, -0.12329882383346558, -0.11721043288707733, 0.01722407341003418, 0.13757994771003723, 0.11790427565574646, 0.09203258156776428, 0.006762698292732239, 0.081368088722229, 0.04645058512687683, -0.057495854794979095, 0.13352757692337036, 0.08179724216461182, -0.06319072097539902, 0.07461138069629669, 0.055072784423828125, 0.1001836359500885, 0.1030864417552948, 0.03033648431301117, 0.11075204610824585, -0.07064472883939743, -0.056055471301078796, 0.00016993284225463867, 0.046564191579818726, -0.058691129088401794, -0.09638703614473343, -0.0031231343746185303, -0.09347434341907501, -0.014687016606330872, 0.1395963430404663, 0.04529055953025818, 0.07872596383094788, 0.12217047810554504, 0.11256620287895203, -0.03625478595495224, 0.07801343500614166, 0.0032314062118530273, 0.036663711071014404, -0.11877547204494476, 0.031377553939819336, -0.12321221083402634, 0.1425081491470337, 0.12020185589790344, -0.0783054530620575, 0.07250922918319702, -0.060891687870025635, -0.06460699439048767, -0.12210060656070709, 0.1418021321296692, 0.1006845235824585, 0.05996909737586975, 0.11539971828460693, -0.10637964308261871, -0.05268681049346924, 0.12247887253761292, 0.04942573606967926, 0.12041181325912476, 0.0756218284368515, 0.09946274757385254, -0.07256726175546646, -0.04068874567747116, 0.03583943843841553, -0.048186033964157104, 0.10005930066108704, 0.12282705307006836, -0.13775824010372162, 0.1310281753540039, 0.041605740785598755, 0.03347626328468323, -0.012197554111480713, 0.11952325701713562, 0.13872310519218445, -0.12316160649061203, -0.0285494402050972, -0.13621152937412262, 0.03701972961425781, -0.10411810129880905, 0.04374334216117859, -0.05174699425697327, 0.09871512651443481, -0.002828538417816162, 0.12098008394241333, -0.13707785308361053, -0.0566374808549881, 0.12908661365509033, 0.13186591863632202, 0.10022240877151489, 0.1380406618118286, 0.10838979482650757, -0.10608024895191193, 0.12195253372192383, 0.06618456542491913, 0.1338375210762024, 0.11347693204879761, 0.01792718470096588, 0.008624225854873657, 0.11338648200035095, -0.048779621720314026, 0.0017143040895462036, -0.008902385830879211, -0.12264152616262436, 0.11461934447288513, 0.004631251096725464, -0.06428050249814987, -0.049969419836997986, -0.06484249234199524, 0.04476448893547058, -0.13315719366073608, -0.019158929586410522, -0.08395540714263916, 0.14417552947998047, -0.06866101920604706, -0.004567757248878479, 0.09477314352989197, -0.13879059255123138, -0.03199954330921173, 0.017112091183662415, -0.0774906799197197, -0.05737286061048508, -0.09520114958286285, -0.06153377890586853, 0.08816877007484436, 0.12324655055999756, -0.026810377836227417, -0.05251018702983856, 0.02669784426689148, -0.14255623519420624, -0.0968431755900383, -0.10539684444665909, 0.02470557391643524, 0.05295322835445404, 0.11509400606155396, 0.14370623230934143, 0.11909124255180359, -0.1429862678050995, 0.08575446903705597]}, "bias": {"shape": [12], "values": [0.03963156044483185, -0.026356197893619537, -0.10481014102697372, -0.061772897839546204, -0.09308657795190811, -0.13621646165847778, -0.03423405438661575, 0.061777159571647644, 0.0053696781396865845, 0.01787346601486206, -0.08860400319099426, -0.045769140124320984]}}, "floor": {"shape": [1], "values": [0.0]}, "ceiling": {"shape": [1], "values": [0.0]}, "coef_softsign": {"shape": [1], "values": [1.3147544860839844]}, "coef_tanh": {"shape": [1], "values": [-1.1002962589263916]}}, "stack.3": {"conv": {"weight": {"shape": [12, 12, 4], "values": [0.06037148833274841, -0.12624241411685944, 0.050257712602615356, -0.1246306523680687, -0.03950772434473038, -0.1199612021446228, -0.11408625543117523, -0.04940444976091385, -0.14059868454933167, 0.06928534805774689, 0.025585874915122986, -0.044603943824768066, -0.09272687882184982, 0.02499258518218994, 0.10428929328918457, -0.00179329514503479, -0.009721428155899048, -0.13345447182655334, 0.018473759293556213, 0.12630268931388855, 0.038848236203193665, 0.0530267208814621, -0.07473055273294449, 0.08352327346801758, 0.005370333790779114, 0.12406608462333679, -0.07795112580060959, -0.13408589363098145, 0.06535935401916504, -0.11504939943552017, -0.07174686342477798, 0.021143198013305664, -0.09238450229167938, 0.09779812395572662, 0.0017998665571212769, -0.060302406549453735, 0.04039125144481659, -0.11685515940189362, -0.04331342875957489, 0.033677905797958374, -0.05115583539009094, -0.11928460001945496, 0.03765051066875458, -0.010150536894798279, 0.12724947929382324, 0.015420779585838318, 0.06423872709274292, -0.06997703015804291, -0.04466235637664795, 0.11896339058876038, -0.04733586311340332, -0.07701463252305984, 0.09357514977455139, -0.025165461003780365, 0.11893808841705322, 0.05049404501914978, 0.015040174126625061, -0.07548410445451736, 0.05572746694087982, -0.07024732977151871, 0.11853411793708801, -0.09707862883806229, 0.04522964358329773, 0.00915515422821045, 0.07592672109603882, -0.0399918407201767, -0.09980260580778122, 0.05841138958930969, 0.06511589884757996, -0.05894927680492401, -0.039883144199848175, -0.11103532463312149, 0.08747026324272156, 0.11802387237548828, -0.12227695435285568, -0.0833413153886795, 0.11568683385848999, 0.10735657811164856, 0.11917856335639954, 0.05170091986656189, -0.06186366081237793, -0.04033849388360977, -0.10964057594537735, 0.01566411554813385, -0.13413842022418976, 0.05314609408378601, -0.009483501315116882, -0.08667759597301483, -0.062242768704891205, 0.051094576716423035, 0.08743226528167725, 0.0013481229543685913, 0.050902336835861206, -0.08578623831272125, -0.10747590661048889, 0.01629781723022461, -0.062220498919487, -0.00645233690738678, -0.0205596461892128, 0.09619434177875519, 0.1341274082660675, 0.05150982737541199, -0.06995902210474014, -0.12902459502220154, 0.11646676063537598, 0.04958981275558472, -0.05112107843160629, -0.0066564083099365234, 0.02165338397026062, 0.12455227971076965, -0.035108670592308044, -0.10209934413433075, 0.047176435589790344, -0.04521326720714569, 0.12858536839485168, -0.13547754287719727, -0.1291685551404953, 0.09004202485084534, -0.10363423824310303, -0.027285069227218628, -0.059026673436164856, -0.024918727576732635, -0.06844686716794968, 0.06694191694259644, 0.004097789525985718, 0.07794690132141113, -0.10077003389596939, 0.09892353415489197, 0.09198455512523651, -0.0900149792432785, -0.10319510102272034, -0.10526024550199509, 0.12141549587249756, 0.04896637797355652, -0.022315792739391327, 0.10389010608196259, 0.07749716937541962, -0.023482665419578552, 0.08145307004451752, -0.1372765451669693, -0.027382902801036835, -0.00460641086101532, -0.11666029691696167, 0.1371527910232544, 0.023212328553199768, -0.13963697850704193, 0.0326208621263504, 0.10488413274288177, 0.11775469779968262, -0.004064098000526428, 0.07451197504997253, 0.09168162941932678, -0.12531070411205292, 0.1149064302444458, 0.07927878201007843, -0.13145962357521057, 0.04540617763996124, 0.13483542203903198, 0.029574230313301086, 0.1182091236114502, 0.08028410375118256, -0.09728910028934479, -0.010455235838890076, -0.10316626727581024, -0.04351501911878586, 0.09165427088737488, -0.09438340365886688, 0.11938953399658203, 0.04785929620265961, 0.10513776540756226, -0.10989163815975189, -0.0516633540391922, -0.045871004462242126, 0.08782251179218292, 0.09907817840576172, -0.030813835561275482, -0.05444836616516113, 0.0002054274082183838, -0.1402423083782196, 0.13877081871032715, -0.13967183232307434, 0.1022162139415741, -0.05901094526052475, 0.0512203574180603, 0.1265263557434082, 0.10979154706001282, 0.011679977178573608, 0.06921055912971497, -0.038586780428886414, 0.046051591634750366, -0.03505254536867142, 0.03373771905899048, -0.11121557652950287, -0.1198800578713417, 0.0997728705406189, 0.008646011352539062, -0.08436223864555359, 0.13030371069908142, -0.01179783046245575, 0.0053751468658447266, -0.08671404421329498, -0.016179710626602173, 0.09871333837509155, 0.09878088533878326, 0.09495428204536438, 0.1417379081249237, -0.10348804295063019, -0.06014109402894974, -0.037182725965976715, 0.04477676749229431, -0.052588507533073425, 0.01038186252117157, 0.12856623530387878, -0.0013791918754577637, 0.13020268082618713, -0.03173544257879257, 0.016189992427825928, -0.04707617312669754, 0.09527622163295746, 0.08928090333938599, -0.03734389692544937, 0.006555020809173584, -0.02386508882045746, -0.056074999272823334, 0.13694024085998535, -0.06363608688116074, -0.11278924345970154, -0.07072153687477112, -0.04884409159421921, 0.07391077280044556, -0.13243508338928223, 0.07313032448291779, -0.04703131318092346, 0.10506157577037811, -0.06293215602636337, -0.07346031069755554, 0.13229119777679443, 0.14134269952774048, -0.09488566219806671, 0.09586657583713531, -0.04736282676458359, 0.06427222490310669, 0.05146867036819458, 0.03947906196117401, -0.0161503404378891, -0.10893136262893677, -0.06212913244962692, 0.047921329736709595, 0.08133251965045929, 0.13996845483779907, 0.07144249975681305, -0.10244550555944443, -0.06053800880908966, 0.10493478178977966, 0.13081613183021545, -0.03853917121887207, 0.06445041298866272, -0.06403696537017822, -0.13743822276592255, -0.03195900470018387, -0.09121710062026978, -0.0057834237813949585, -0.0643714889883995, 0.1313154101371765, 0.07863058149814606, 0.08608891069889069, -0.01076740026473999, 0.043409302830696106, 0.11676034331321716, 0.037866294384002686, -0.006433829665184021, -0.1410606950521469, -0.0052372366189956665, 0.06709298491477966, 0.08453094959259033, 0.0801289975643158, 0.04255175590515137, -0.006460964679718018, -0.00931347906589508, 0.03366021811962128, -0.09471993148326874, 0.06769518554210663, 0.05725327134132385, -0.10860998183488846, -0.02769795060157776, -0.08259131014347076, 0.04804454743862152, -0.08422321081161499, 0.03897160291671753, -0.05080477148294449, -0.02828124910593033, 0.07724368572235107, 0.04064835608005524, -0.11883571743965149, -0.039356909692287445, 0.05290369689464569, -0.10004258155822754, -0.10793246328830719, -0.09231562912464142, 0.09786930680274963, -0.1343015879392624, -0.02951432764530182, -0.11757662147283554, 0.07626819610595703, 0.07105302810668945, 0.03417007625102997, 0.042285725474357605, -0.09127218276262283, -0.03976280242204666, 0.06684419512748718, -0.12585650384426117, -0.12294498085975647, 0.04736512899398804, -0.10998864471912384, -0.009507343173027039, 0.02521529793739319, 0.13230103254318237, -0.06363839656114578, -0.0353165939450264, 0.046652019023895264, 0.005354017019271851, 0.0027874261140823364, 0.04886583983898163, -0.0397367924451828, -0.10537534952163696, 0.05887150764465332, -0.04983029514551163, 0.12678125500679016, -0.11762676388025284, 0.1440982222557068, 0.005951404571533203, 0.0592566579580307, -0.10344395786523819, -0.060121841728687286, -0.10393431782722473, 0.04602940380573273, -0.019006580114364624, -0.015482351183891296, 0.039171233773231506, -0.07665698230266571, -0.11371956765651703, 0.04400235414505005, 0.04263472557067871, -0.08123656362295151, 0.018353328108787537, 0.12701314687728882, -0.08793102949857712, 0.1339636743068695, 0.08149556815624237, -0.04102769494056702, -0.03471944481134415, 0.02467411756515503, -0.09452857077121735, 0.026613429188728333, 0.13587650656700134, -0.11948142200708389, 0.12651991844177246, -0.11790288984775543, -0.11305604130029678, -0.03454548865556717, 0.016245543956756592, -0.06492534279823303, -0.0985659509897232, -0.09895014762878418, 0.06497547030448914, -0.01813417673110962, 0.0414445698261261, 0.13670223951339722, 0.0758088082075119, 0.11546099185943604, -0.040833503007888794, -0.0740736797451973, 0.09133033454418182, 0.11954671144485474, -0.09185059368610382, 0.12184512615203857, 0.09073840081691742, -0.07469505816698074, 0.0757865309715271, 0.030029326677322388, 0.08026309311389923, -0.08569230884313583, 0.04707755148410797, -0.039663732051849365, -0.12493589520454407, 0.12606260180473328, 0.05887039005756378, -0.051509857177734375, -0.05907934159040451, -0.11968635022640228, -0.06511038541793823, 0.04413701593875885, 0.04649686813354492, -0.012048676609992981, -0.13464973866939545, -0.04786081612110138, 0.09218043088912964, 0.13058319687843323, -0.03113480657339096, 0.07742857933044434, 0.004854187369346619, 0.11826404929161072, -0.09470745176076889, 0.019915059208869934, 0.011244788765907288, 0.11947068572044373, 0.024694785475730896, 0.025598421692848206, -0.02004629373550415, -0.007515475153923035, 0.04327784478664398, 0.04099567234516144, -0.11987742781639099, -0.08749610185623169, 0.09683088958263397, 0.0315726101398468, 0.11773347854614258, -0.08062950521707535, 0.10411606729030609, -0.12033654004335403, -0.0024632811546325684, -0.06077418476343155, 0.04310847818851471, 0.13612118363380432, -0.07291839271783829, -0.13904215395450592, -0.01813855767250061, 0.07377894222736359, -0.01363818347454071, -0.13225412368774414, 0.13886728882789612, -0.09516223520040512, -0.08092024177312851, 0.07966122031211853, -0.08425995707511902, 0.04273596405982971, 0.023967206478118896, 0.1352430284023285, 0.10179215669631958, 0.11750030517578125, 0.06620438396930695, -0.06272855401039124, 0.08829604089260101, -0.02436092495918274, 0.062336742877960205, 0.14203095436096191, -0.008165508508682251, 0.04135484993457794, 0.012995213270187378, 0.07503014802932739, 0.06109730899333954, -0.12568897008895874, 0.009007871150970459, -0.00749070942401886, -0.056013524532318115, -0.012391149997711182, -0.0648064836859703, 0.08384239673614502, -0.027545005083084106, 0.06084473431110382, 0.0460684597492218, -0.04433278739452362, 0.10238130390644073, -0.021241895854473114, 0.007466912269592285, 0.07012768089771271, 0.09326507151126862, 0.0952962338924408, 0.08115033805370331, 0.04155157506465912, 0.12397560477256775, -0.014769211411476135, 0.0548398494720459, -0.06234490126371384, 0.023426532745361328, -0.0170937180519104, -0.127273827791214, -0.016146719455718994, -0.07236684858798981, 0.12020882964134216, 0.0708485096693039, -0.07297736406326294, 0.025080010294914246, -0.05068114399909973, -0.07977981865406036, 0.056912198662757874, 0.09213565289974213, 0.11669221520423889, 0.13774999976158142, -0.10203556716442108, -0.029362134635448456, 0.0562044233083725, 0.003462269902229309, -0.08647885918617249, -0.10899299383163452, 0.11385631561279297, -0.04744880646467209, -0.047699280083179474, 0.0805596262216568, -0.04516027122735977, 0.1371326744556427, 0.13587895035743713, 0.07405349612236023, 0.03960408270359039, 0.05384597182273865, -0.12971608340740204, -0.09711013734340668, -0.0799470841884613, -0.02128790318965912, -0.14307981729507446, 0.04424645006656647, 0.06156986951828003, -0.05680613964796066, 0.061266809701919556, 0.11281225085258484, -0.13370248675346375, -0.007104605436325073, 0.08869913220405579, -0.1054014265537262, -0.10285152494907379, 0.009159952402114868, 0.07995297014713287, 0.027928397059440613, -0.03511861711740494, -0.09117451310157776, 0.00031019747257232666, -0.01527036726474762, 0.1123800277709961, 0.041265442967414856, -0.02210181951522827, -0.07526499778032303, 0.14119574427604675, -0.07718313485383987, 0.013710632920265198, 0.006198182702064514, 0.08549223840236664, 0.010939016938209534, -0.04251950979232788, -0.10081351548433304, 0.014303967356681824, -0.03973732143640518, -0.09539823234081268, -0.043900735676288605, 0.11585196852684021, 0.09952865540981293, 0.14380085468292236, -0.044098637998104095, -0.05106295645236969, 0.01652003824710846, -0.07575248926877975, 0.04163140058517456, -0.12687797844409943, -0.05280350148677826, 0.1324898600578308, -0.0738254114985466, 0.11130928993225098, -0.12162918597459793, 0.030819132924079895, 0.0018111616373062134, 0.10949534177780151, -0.13925588130950928, 0.04872088134288788, 0.05124539136886597, 0.12155178189277649, 0.140306293964386, 0.05874091386795044, 0.02574889361858368, 0.053056761622428894, -0.04464869201183319, -0.048542752861976624, 0.01721721887588501, -0.023759134113788605, -0.10229521989822388, -0.07962845265865326, -0.0995769277215004, -0.10816459357738495]}, "bias": {"shape": [12], "values": [-0.05191335082054138, 0.1108826994895935, 0.07672925293445587, -0.13113918900489807, -0.07929939776659012, 0.009184986352920532, 0.008482277393341064, -0.06413353979587555, -0.0070389509201049805, 0.1189970076084137, 0.02086244523525238, -0.09296821057796478]}}, "floor": {"shape": [1], "values": [0.0]}, "ceiling": {"shape": [1], "values": [0.0]}, "coef_softsign": {"shape": [1], "values": [1.251322865486145]}, "coef_tanh": {"shape": [1], "values": [1.2082773447036743]}}, "stack.4": {"conv": {"weight": {"shape": [12, 12, 4], "values": [0.03424312174320221, -0.1442335844039917, -0.03251805901527405, 0.004267141222953796, 0.07075798511505127, -0.12647995352745056, -0.07693073153495789, 0.12270015478134155, -0.034702375531196594, -0.02318911999464035, -0.14057330787181854, -0.0017092525959014893, -0.06043752282857895, 0.04821491241455078, 0.010964229702949524, -0.0467769131064415, -0.09848009049892426, -0.01677323877811432, -0.12072952091693878, 0.1208246648311615, -0.08192864060401917, -0.07091552019119263, 0.0662713348865509, 0.12844285368919373, -0.06491576135158539, -0.11013630777597427, -0.05768030881881714, 0.05646020174026489, 0.1332438588142395, 0.0046470314264297485, 0.1142973005771637, 0.03278857469558716, -0.11227694153785706, 0.13142594695091248, 0.05207155644893646, 0.03978745639324188, 0.07600091397762299, 0.11492446064949036, 0.03774617612361908, -0.11240649968385696, 0.08183683454990387, -0.143219992518425, -0.03900948911905289, 0.018184781074523926, -0.027122773230075836, 0.10305926203727722, -0.04322099685668945, 0.09173160791397095, -0.09224651008844376, -0.006199732422828674, -0.1317843794822693, -0.09517209231853485, -0.05556822568178177, 0.1422281265258789, 0.032317280769348145, -0.08811269700527191, 0.03377909958362579, 0.06433975696563721, -0.01662224531173706, 0.1369801163673401, -0.018676593899726868, -0.01597173511981964, -0.07990960776805878, 0.09899963438510895, -0.1154804676771164, 0.039976030588150024, 0.0037485063076019287, 0.013996466994285583, -0.06417490541934967, -0.10606782138347626, 0.0015807151794433594, -0.01132066547870636, -0.03308364748954773, -0.11286088824272156, -0.09793312847614288, -0.07392062991857529, 0.12510192394256592, -0.0028200745582580566, 0.08517752587795258, 0.04458925127983093, 0.08271265029907227, -0.0785239040851593, -0.029733002185821533, -0.0934959352016449, -0.04939916729927063, 0.06413117051124573, 0.03806257247924805, 0.009642034769058228, 0.02642001211643219, 0.049975037574768066, -0.10273536294698715, -0.12122702598571777, 0.12976300716400146, 0.07867969572544098, -0.0006587952375411987, 0.09743013978004456, 0.07719022035598755, 0.04581409692764282, -0.08169712126255035, 0.024818256497383118, 0.03377486765384674, -0.12578709423542023, 0.1249394416809082, 0.046205729246139526, 0.0994085818529129, -0.0950842872262001, -0.13169096410274506, -0.12036209553480148, 0.08695361018180847, -0.020622946321964264, 0.08973442018032074, 0.09038347005844116, -0.1365581601858139, -0.11146526038646698, -0.12980780005455017, 0.004969507455825806, 0.010071158409118652, -0.0019673407077789307, 0.08612188696861267, -0.005931824445724487, -0.03978560119867325, -0.13922351598739624, 0.07385547459125519, 0.09877018630504608, -0.11924263089895248, 0.08416715264320374, -0.11906003952026367, -0.14252451062202454, -0.07954469323158264, 0.007303550839424133, -0.10112094134092331, -0.060287900269031525, -0.12893395125865936, -0.08843618631362915, -0.06033676117658615, 0.0009450763463973999, 0.11594080924987793, 0.0041678547859191895, -0.12179838120937347, -0.10958362370729446, 0.13688239455223083, -0.002779945731163025, -0.09248751401901245, 0.046123847365379333, 0.03649522364139557, -0.1030626967549324, -0.058162443339824677, -0.09629400074481964, -0.09162461757659912, -0.11105034500360489, -0.03381526470184326, 0.013158395886421204, -0.048733800649642944, 0.12005224823951721, -0.07868330925703049, -0.09226605296134949, 0.005207374691963196, -0.13496622443199158, 0.052515432238578796, 0.12453097105026245, -0.04994681477546692, 0.09768719971179962, -0.09671579301357269, 0.06251265108585358, -0.07699651271104813, 0.04801519215106964, -0.10589420795440674, -0.12883971631526947, 0.051798462867736816, 0.056953370571136475, 0.1370478868484497, 0.047864943742752075, -0.07451552897691727, 0.014048859477043152, -0.09439139068126678, -0.03532261401414871, -0.08378812670707703, -0.13809388875961304, 0.022753402590751648, 0.0045858025550842285, 0.0804680734872818, 0.12525010108947754, 0.07229743897914886, -0.04558895528316498, 0.09456728398799896, -0.08342738449573517, 0.10680186748504639, -0.11424127221107483, -0.024922266602516174, 0.08015875518321991, -0.09535933285951614, -0.09174145013093948, -0.08307294547557831, -0.06297567486763, -0.05984829366207123, 0.0376916378736496, 0.11863288283348083, 0.014154419302940369, -0.07932164520025253, -0.11764156073331833, 0.10111986100673676, -0.0661793127655983, -0.022789902985095978, 0.0523897260427475, -0.08309261500835419, -0.0004587918519973755, 0.034842416644096375, -0.13607999682426453, 0.0052587538957595825, 0.06347496807575226, -0.10272624343633652, 0.063240647315979, 0.12200042605400085, -0.047481194138526917, 0.007339343428611755, -0.010056450963020325, -0.00539928674697876, -0.09999333322048187, 0.01715642213821411, 0.07373373210430145, -0.09677605330944061, 0.021794110536575317, -0.11981642991304398, 0.11210131645202637, 0.08586762845516205, -0.11815324425697327, -0.12622174620628357, -0.10438251495361328, -0.013269856572151184, 0.03117181360721588, -0.06789013743400574, 0.08826838433742523, -0.10012973099946976, 0.11743775010108948, -0.010751187801361084, -0.019485414028167725, -0.06664520502090454, 0.04283398389816284, -0.1044352799654007, -0.04340534657239914, 0.06717973947525024, -0.057307168841362, -0.02864328771829605, 0.025704607367515564, 0.06274987757205963, -0.02561652660369873, -0.0028491318225860596, -0.018463850021362305, 0.08781604468822479, 0.023352250456809998, 0.006856366991996765, -0.09049159288406372, -0.0605146586894989, -0.10414004325866699, 0.019438475370407104, -0.11499027907848358, 0.14294901490211487, 0.030737578868865967, -0.021023236215114594, 0.0503133088350296, 0.06532526016235352, 0.10772651433944702, -0.1344798058271408, -0.12957201898097992, 0.015000596642494202, -0.09011410176753998, 0.05382151901721954, -0.12791693210601807, 0.04225854575634003, 0.009044915437698364, 0.13460314273834229, 0.08076508343219757, 0.13442182540893555, 0.006631255149841309, -0.002895161509513855, -0.039937280118465424, -0.10339374840259552, -0.07039166986942291, 0.09373299777507782, -0.11891051381826401, -0.009402647614479065, -0.04401957988739014, 0.09330461919307709, 0.08538387715816498, 0.13732385635375977, -0.0993935614824295, 0.03557659685611725, -0.014840811491012573, 0.07724440097808838, 0.004327893257141113, 0.02147798240184784, 0.014152690768241882, 0.0004431307315826416, 0.08525894582271576, -0.12095832824707031, -0.0025915801525115967, -0.011294186115264893, -0.1039845272898674, 0.006742358207702637, -0.09894147515296936, -0.007388129830360413, 0.0316472202539444, 0.043280139565467834, -0.04422000050544739, 0.09128323197364807, 0.11107546091079712, 0.14427971839904785, 0.13691475987434387, -0.14333246648311615, -0.0853695347905159, 0.0661088228225708, -0.11389388889074326, -0.12775257229804993, -0.05927048623561859, 0.039983466267585754, 0.09604226052761078, 0.07170364260673523, -0.12077592313289642, -0.1361185759305954, 0.09627853333950043, -0.040262579917907715, 0.039134129881858826, -0.036713212728500366, -0.07399392873048782, 0.013876855373382568, -0.07214775681495667, 0.06163667142391205, -0.025905221700668335, 0.12273380160331726, 0.12884902954101562, -0.10357154160737991, 0.12054052948951721, 0.08316157758235931, 0.005089163780212402, -0.12314780801534653, -0.10855720937252045, -0.06500446051359177, 0.02335566282272339, 0.050827085971832275, -0.09944383800029755, 0.11710014939308167, -0.047693945467472076, -0.02197054773569107, -0.05704008787870407, 0.1260732114315033, -0.05172870308160782, 0.0788566917181015, 0.0027717798948287964, -0.10513775050640106, -0.08324974030256271, 0.1112389862537384, -0.04652625322341919, -0.14184866845607758, 0.05432415008544922, 0.05929875373840332, 0.02617231011390686, 0.08777570724487305, -0.1080879420042038, 0.07579697668552399, -0.03732502460479736, -0.05776292830705643, -0.11456739902496338, 0.129261314868927, 0.027490884065628052, 0.0862760990858078, 0.12812232971191406, -0.08705583214759827, 0.01277761161327362, -0.07157716155052185, -0.012603700160980225, -0.11256834864616394, -0.007720142602920532, 0.1098661720752716, 0.05604827404022217, 0.09545327723026276, -0.0725417286157608, 0.010334581136703491, -0.13066019117832184, 0.06983423233032227, -0.1439417451620102, -0.09993419796228409, -0.11586334556341171, -0.13110260665416718, -0.07711818069219589, 0.0001771003007888794, -0.12481287121772766, 0.1271214485168457, 0.08913683891296387, -0.11005774140357971, -0.13395506143569946, -0.0192166268825531, 0.07413165271282196, 0.12077480554580688, -0.10797866433858871, 0.1313248872756958, -0.02535586804151535, -0.08838868141174316, 0.10366992652416229, 0.12578973174095154, 0.018751531839370728, -0.1403188705444336, 0.022342339158058167, -0.028618991374969482, -0.10812278091907501, 0.07842764258384705, -0.044618308544158936, 0.027406111359596252, 0.06647911667823792, -0.03762710094451904, -0.13043096661567688, 0.10089506208896637, 0.05408911406993866, 0.032548412680625916, 0.12928473949432373, -0.05843748897314072, 0.06973730027675629, -0.028316333889961243, 0.10531303286552429, -0.022247299551963806, -0.03695180267095566, 0.03320583701133728, -0.03071986883878708, -0.12332632392644882, 0.08114413917064667, -0.04141678661108017, -0.045962244272232056, -0.0018271207809448242, -0.13377445936203003, 0.029437363147735596, 0.08245107531547546, 0.13963913917541504, 0.11108064651489258, 0.11433926224708557, -0.07995668053627014, 0.02083045244216919, -0.12726709246635437, 0.0430227667093277, 0.042164310812950134, -0.038188666105270386, -0.04078338295221329, -0.0903586596250534, -0.0622883141040802, -0.06663963198661804, -0.14004775881767273, -0.020489715039730072, -0.038909025490283966, 0.10618966817855835, 0.036478281021118164, 0.11746594309806824, -0.11562889814376831, -0.1411743462085724, 0.0866578072309494, -0.13884207606315613, 0.04875096678733826, -0.11221444606781006, -0.007576122879981995, -0.06027807295322418, -0.09680065512657166, 0.12033191323280334, -0.09257881343364716, 0.037525638937950134, -0.09737935662269592, -0.057118311524391174, 0.10298514366149902, 0.12655606865882874, -0.13727599382400513, -0.10897246748209, 0.027682781219482422, 0.04143573343753815, 0.05112619698047638, 0.05696852505207062, -0.0876106321811676, 0.12911197543144226, 0.07527011632919312, -0.09553058445453644, -0.00502188503742218, 0.05561088025569916, 0.10196651518344879, 0.1409008502960205, -0.04323820024728775, -0.06219223141670227, -0.06542187184095383, -0.01257084310054779, 0.13776904344558716, -0.12433473765850067, 0.08645687997341156, -0.06707672774791718, 0.08277982473373413, 0.04768413305282593, -0.07635774463415146, -0.07212208211421967, 0.12227922677993774, -0.06280140578746796, -0.05848604440689087, 0.08112332224845886, -0.10116015374660492, 0.11880728602409363, -0.035411760210990906, 0.04679040610790253, -0.016051828861236572, -0.09805567562580109, -0.05351756513118744, 0.0010007619857788086, -0.004221990704536438, -0.08828043937683105, 0.13594654202461243, 0.0013302713632583618, 0.13819071650505066, -0.043499357998371124, -0.10652424395084381, -0.12681038677692413, -0.05791638046503067, 0.06075657904148102, -0.026546306908130646, -0.10545642673969269, -0.06757122278213501, -0.08942469954490662, -0.11620334535837173, 0.1422681212425232, -0.12456117570400238, -0.08868317306041718, -0.0842626690864563, -0.12895657122135162, -0.12693583965301514, 0.1266951858997345, 0.06842213869094849, -0.13087858259677887, 0.012819290161132812, 0.1273874044418335, 0.022330746054649353, 0.08070223033428192, 0.06638592481613159, 0.03844769299030304, -0.10961194336414337, 0.0583132803440094, -0.062141090631484985, -0.14195610582828522, 0.05678774416446686, 0.08321177959442139, 0.05501784384250641, 0.05596525967121124, -0.08634776622056961, 0.022885695099830627, -0.07932084053754807, -0.12844635546207428, 0.08088043332099915, -0.08568064123392105, 0.12041816115379333, 0.12055844068527222, 0.02269364893436432, 0.0007791370153427124, 0.13879546523094177, 0.02832721173763275, 0.12314000725746155, 0.08021004498004913, 0.0011768937110900879, 0.028690919280052185, -0.1390783041715622, -0.08594509959220886, -0.13301414251327515, -0.12200404703617096, -0.10150066763162613, -0.056409306824207306, 0.05697351694107056, -0.062115319073200226, -0.08068282902240753, 0.06430637836456299, 0.05041508376598358, -0.10542251914739609, -0.07712917774915695, 0.06812939047813416, 0.07305209338665009, -0.07159646600484848, -0.07021437585353851, 0.023362666368484497, -0.12282845377922058]}, "bias": {"shape": [12], "values": [0.13806307315826416, 0.007686451077461243, 0.09234671294689178, -0.022420205175876617, 0.02803035080432892, -0.008480474352836609, 0.12349656224250793, 0.01720234751701355, 0.12280851602554321, 0.044319868087768555, -0.0353727862238884, -0.03691384196281433]}}, "floor": {"shape": [1], "values": [0.0]}, "ceiling": {"shape": [1], "values": [0.0]}, "coef_softsign": {"shape": [1], "values": [-1.7499258518218994]}, "coef_tanh": {"shape": [1], "values": [-1.2681349515914917]}}, "stack.5": {"conv": {"weight": {"shape": [12, 12, 4], "values": [-0.13858899474143982, 0.08940024673938751, -0.13149511814117432, -0.07527367025613785, -0.039588697254657745, 0.06316828727722168, 0.11847817897796631, -0.10256238281726837, 0.05047215521335602, -0.09206396341323853, -0.12444981187582016, -0.11981919407844543, -0.10191948711872101, -0.04392983019351959, -0.09986142814159393, -0.11999359726905823, 0.05758267641067505, -0.06645383685827255, 0.06683708727359772, -0.12111363559961319, -0.09298166632652283, 0.008780345320701599, 0.10277564823627472, -0.0959738940000534, -0.045271411538124084, 0.08245329558849335, 0.08716553449630737, -0.1439632922410965, -0.030408591032028198, 0.03345362842082977, 0.06470531225204468, 0.005656301975250244, -0.12892988324165344, 0.13417842984199524, -0.07912392914295197, -0.059912748634815216, 0.12584012746810913, 0.06172268092632294, -0.07061511278152466, -0.014130547642707825, 0.13227641582489014, 0.0989377498626709, 0.027179554104804993, 0.028730347752571106, 0.02328699827194214, -0.09945414215326309, 0.03542241454124451, 0.08511412143707275, 0.1415438950061798, -0.026729315519332886, -0.0417250394821167, -0.006999760866165161, 0.10914075374603271, -0.01931154727935791, 0.1061272919178009, -0.0070253461599349976, 0.04247280955314636, 0.14074331521987915, -0.12883533537387848, -0.07358331978321075, -0.08981771022081375, -0.0749889388680458, -0.006546288728713989, -0.1255473494529724, 0.10347723960876465, 0.0020594149827957153, 0.07466542720794678, 0.05160324275493622, -0.13508832454681396, 0.11938047409057617, -0.020016901195049286, 0.025199100375175476, -0.008852526545524597, -0.06198219209909439, -0.02447269856929779, -0.005757838487625122, 0.12048286199569702, 0.08660215139389038, 0.12397992610931396, 0.0958905965089798, -0.12213980406522751, 0.10669177770614624, -0.09611097723245621, -0.03142651915550232, -0.021100714802742004, -0.007815703749656677, 0.08077847957611084, -0.11065839976072311, 0.05556344985961914, -0.08866073191165924, 0.10669505596160889, -0.011998087167739868, 0.07847617566585541, -0.007199406623840332, -0.07501181215047836, 0.13949763774871826, 0.05499090254306793, 0.043813303112983704, 0.004044249653816223, 0.14095193147659302, 0.06676773726940155, 0.12316352128982544, -0.03760109841823578, 0.05530816316604614, -0.0026854276657104492, -0.005760490894317627, -0.11270484328269958, -0.11957956850528717, -0.009047061204910278, -0.05479063093662262, -0.07737681269645691, 0.007882282137870789, 0.023584768176078796, -0.07843408733606339, -0.14161913096904755, -0.027950331568717957, -0.09711620211601257, -0.10550488531589508, -0.05445140600204468, -0.0769415944814682, 0.14339733123779297, 0.09255644679069519, -0.14401400089263916, -0.010778829455375671, 0.0892617255449295, 0.07064832746982574, -0.06589819490909576, 0.0395229309797287, -0.09086208045482635, 0.14280152320861816, -0.11489628255367279, 0.0633929967880249, 0.12691864371299744, -0.09162701666355133, -0.062995545566082, 0.10997205972671509, -0.13939256966114044, -0.09809204936027527, -0.11784008145332336, -0.10955597460269928, 0.014795094728469849, -0.04913090169429779, -0.1267244666814804, 0.043372511863708496, -0.0496642142534256, -0.05183980613946915, 0.09627105295658112, -0.025196246802806854, -0.017226457595825195, -0.028686009347438812, 0.08883856236934662, -0.034579433500766754, -0.012376159429550171, -0.051162853837013245, 0.09445567429065704, -0.01057790219783783, 0.03397418558597565, 0.1022246778011322, -0.059184350073337555, -0.009827941656112671, 0.08431638777256012, 0.13071858882904053, -0.06910393387079239, -0.035897962749004364, -0.060699716210365295, -0.11052210628986359, -0.07905135303735733, -0.12234319746494293, 0.01657433807849884, -0.14180970191955566, -0.1332360804080963, 0.022579535841941833, 0.049519628286361694, -0.13726110756397247, -0.11813880503177643, -0.024096429347991943, -0.1193559467792511, 0.12011006474494934, -0.10948769748210907, -0.11148733645677567, -0.05833767354488373, -0.10571590065956116, 0.023698866367340088, -0.14187291264533997, -0.04613173007965088, 0.09285163879394531, 0.11740323901176453, -0.08043183386325836, -0.06660308688879013, 0.03780375421047211, -0.10424348711967468, -0.11730127036571503, -0.12167336046695709, 0.0887724906206131, 0.09978184103965759, 0.0475432425737381, 0.13914963603019714, 0.043788403272628784, -0.04982496052980423, 0.012580767273902893, -0.0935225710272789, -0.06168559193611145, -0.03747870773077011, 0.10190758109092712, 0.12402606010437012, 0.013885259628295898, -0.039459288120269775, -0.10066459327936172, 0.01616397500038147, -0.12980802357196808, -0.09746494889259338, 0.08124285936355591, 0.1391078233718872, -0.12720990180969238, 0.0631188452243805, -0.03753373771905899, 0.14423388242721558, 0.1069897711277008, 0.11634773015975952, -0.13785754144191742, 0.11426055431365967, 0.04517541825771332, 0.023530244827270508, -0.06871551275253296, 0.09875413775444031, 0.10596904158592224, -0.07006915658712387, -0.1012514978647232, -0.14271767437458038, -0.13019533455371857, 0.07289743423461914, -0.0979844406247139, -0.08005928248167038, 0.0029840320348739624, 0.011260926723480225, 0.0325404554605484, -0.05108821392059326, -0.047598160803318024, 0.031132802367210388, 0.09129467606544495, 0.09303882718086243, 0.11779114603996277, 0.09801489114761353, -0.015116289258003235, -0.00111408531665802, 0.13228008151054382, 0.12818846106529236, -0.06344172358512878, -0.0959470346570015, -0.061499983072280884, 0.07403036952018738, -0.07102867215871811, 0.12062102556228638, -0.09480340778827667, -0.11816558241844177, 0.07230918109416962, -0.08750279247760773, -0.015157103538513184, 0.08011229336261749, 0.1220884621143341, 0.049192965030670166, -0.053889378905296326, 0.10709762573242188, -0.07348518818616867, 0.05866694450378418, 0.021942108869552612, 0.13070514798164368, 0.06373946368694305, 0.02578112483024597, -0.13970011472702026, -0.0437324196100235, 0.07832008600234985, -0.10617959499359131, 0.14312094449996948, -0.12895408272743225, 0.028238028287887573, -0.03976499289274216, 0.08115696907043457, 0.13895118236541748, -0.1018209457397461, 0.11487811803817749, 0.14001145958900452, 0.13748466968536377, -0.10971413552761078, -0.1189851313829422, -0.06427846848964691, -0.049999743700027466, 0.05053216218948364, 0.14128878712654114, 0.01839442551136017, 0.020831748843193054, 0.09556758403778076, 0.0032932162284851074, 0.03556150197982788, 0.10660576820373535, -0.07702221721410751, -0.08354085683822632, 0.021553635597229004, 0.05857834219932556, 0.058341264724731445, 0.1114560067653656, -0.03562212735414505, -0.1369999349117279, 0.14366647601127625, 0.08130492269992828, -0.07182055711746216, -0.0031877607107162476, -0.12783953547477722, -0.07722102105617523, -0.050676532089710236, 0.09443603456020355, 0.11299416422843933, 0.1134178638458252, -0.129952073097229, -0.0021659880876541138, 0.012808427214622498, 0.12663906812667847, 0.07419396936893463, 0.023670971393585205, -0.07708543539047241, -0.14394672214984894, -0.06263742595911026, 0.035026803612709045, 0.0349322110414505, 0.08525246381759644, 0.0818215161561966, -0.03805462270975113, -0.08575823903083801, -0.06498363614082336, -0.072944276034832, 0.12107041478157043, -0.1439507007598877, 0.11729776859283447, -0.12097743153572083, 0.009438514709472656, 0.022945985198020935, 0.0679457038640976, -0.05934608727693558, -0.050611235201358795, -0.036563172936439514, -0.056125469505786896, 0.11871057748794556, 0.04496541619300842, 0.00032070279121398926, -0.09771261364221573, -0.06384194642305374, 0.03223523497581482, -0.11159317195415497, -0.13674141466617584, 0.1324470341205597, 0.1059366762638092, -0.113675057888031, 0.09106473624706268, 0.110635906457901, 0.04049576818943024, 0.10330608487129211, 0.07046458125114441, 0.06371453404426575, -0.023987136781215668, -0.02542121708393097, 0.04747883975505829, 0.012070819735527039, -0.01594659686088562, 0.09198781847953796, -0.06128501147031784, 0.10049936175346375, 0.052377551794052124, 0.06721177697181702, -0.11810779571533203, 0.03042568266391754, 0.061638012528419495, -0.11071695387363434, -0.006182029843330383, 0.012989342212677002, -0.14323113858699799, -0.012139633297920227, 0.07282193005084991, -0.1303178369998932, -0.060824379324913025, 0.05306175351142883, -7.562339305877686e-05, -0.1272972822189331, 0.08367373049259186, -0.036958299577236176, -0.0027118921279907227, 0.05647653341293335, 0.12173298001289368, 0.020475104451179504, 0.04101155698299408, 0.12134665250778198, 0.015814706683158875, -0.04579467326402664, -0.11161985993385315, 0.02792942523956299, -0.0008552968502044678, -0.08946743607521057, -0.039808519184589386, 0.10395053029060364, 0.05146390199661255, 0.058700233697891235, -0.06669840961694717, 0.03169536590576172, -0.07546480000019073, -0.04856223613023758, -0.11064040660858154, 0.11502233147621155, -0.014621943235397339, -0.037593305110931396, -0.03482519090175629, -0.14324352145195007, 0.012157544493675232, -0.10936279594898224, -0.11932064592838287, -0.14063076674938202, 0.0075376033782958984, -0.09739811718463898, -0.13727295398712158, 0.06822794675827026, 0.048474401235580444, 0.01089388132095337, -0.013390004634857178, 0.05030715465545654, 0.0587189644575119, 0.11051809787750244, -0.018823370337486267, -0.054726555943489075, 0.08587779104709625, 0.04956503212451935, -0.13003955781459808, -0.04552517086267471, 0.0074851661920547485, -0.09149438142776489, 0.12834450602531433, -0.13082830607891083, -0.048385076224803925, -0.009978026151657104, -0.13312266767024994, -0.1312524676322937, 0.10156051814556122, -0.11966387927532196, 0.058350980281829834, 0.025196239352226257, -0.14257007837295532, 0.08958384394645691, -0.13442419469356537, 0.1277875304222107, 0.07302466034889221, -0.02721717208623886, -0.1296624392271042, 0.14324283599853516, 0.06856465339660645, 0.09302754700183868, 0.043624624609947205, 0.04291623830795288, -0.09387913346290588, 0.07278566062450409, 0.13623926043510437, 0.076058030128479, -0.11003351211547852, -0.08873038738965988, 0.10632970929145813, -0.07801055163145065, -0.10529997944831848, -0.12637820839881897, 0.11411124467849731, -0.007265597581863403, 0.012991681694984436, 0.008358776569366455, 0.014680609107017517, -0.1185574010014534, 0.013060331344604492, 0.057550087571144104, -0.07999297231435776, -0.11402002722024918, -0.14027592539787292, 0.0110606849193573, -0.047540225088596344, -0.0133456289768219, 0.0001096874475479126, -0.08909765630960464, -0.11537561565637589, -0.09229183197021484, 0.08296389877796173, -0.0019390285015106201, 0.09942060708999634, 0.1042657196521759, -0.047399669885635376, 0.08483295142650604, 0.008964881300926208, 0.11956325173377991, -0.13737753033638, -0.0892990380525589, 0.12030717730522156, -0.03646465390920639, -0.09681323915719986, 0.05328755080699921, 0.07014453411102295, 0.015199929475784302, 0.024659395217895508, 0.0944097489118576, 0.029982641339302063, 0.08520196378231049, 0.07924698293209076, -0.01312418282032013, -0.003928154706954956, 0.08919569849967957, -0.13813738524913788, 0.04557894170284271, -0.05003170669078827, -0.017113789916038513, -0.10729601979255676, -0.03804689645767212, -0.0461929515004158, -0.03247079253196716, 0.1209351122379303, 0.13355004787445068, -0.040143996477127075, -0.10522643476724625, 0.1118309497833252, -0.05447814613580704, -0.10255700349807739, -0.13663539290428162, 0.08655591309070587, -0.0009074956178665161, -0.006709203124046326, -0.05102069675922394, -0.10522455722093582, -0.04740751534700394, -0.03983176499605179, 0.02584497630596161, -0.0358457937836647, 0.13464123010635376, -0.0911349207162857, 0.08286498486995697, -0.12685151398181915, 0.12118890881538391, 0.0696253627538681, -0.12121838331222534, -0.046132348477840424, -0.0729295089840889, 0.10326527059078217, -0.11358030140399933, -0.03776392340660095, 0.10386551916599274, 0.09549187123775482, 0.030614227056503296, -0.08097928762435913, -0.10433636605739594, -0.07551712542772293, 0.055316075682640076, 0.06554940342903137, 0.09505905210971832, 0.1430533230304718, -0.14313441514968872, 0.13255774974822998, -0.13579344749450684, 0.010503843426704407, 0.06150422990322113, -0.012544497847557068, 0.09326837956905365, -0.12684108316898346, -0.1057138442993164, 0.027059093117713928, -0.09420202672481537, -0.06529535353183746, 0.11714911460876465, -0.07988514006137848, -0.10643969476222992, 0.05366751551628113, -0.13349269330501556, 0.04978659749031067, 0.14221733808517456, 0.02034805715084076, -0.12963610887527466, 0.1427222490310669, -0.07139836996793747]}, "bias": {"shape": [12], "values": [-0.12571139633655548, -0.07435328513383865, 0.017426565289497375, -0.0576300323009491, 0.03404653072357178, 0.06486713886260986, 0.11418312788009644, -0.0722813829779625, -0.1264193058013916, -0.061382412910461426, -0.005955174565315247, 0.08790183067321777]}}, "floor": {"shape": [1], "values": [0.0]}, "ceiling": {"shape": [1], "values": [0.0]}, "coef_softsign": {"shape": [1], "values": [0.8621675968170166]}, "coef_tanh": {"shape": [1], "values": [1.2452627420425415]}}, "stack.6": {"conv": {"weight": {"shape": [12, 12, 4], "values": [0.051772475242614746, 0.14403173327445984, 0.045528754591941833, -0.13584589958190918, -0.005897969007492065, -0.0926315188407898, 0.07793669402599335, 0.10622966289520264, -0.000689774751663208, 0.13595786690711975, -0.12505760788917542, 0.02956317365169525, -0.05544227361679077, 0.09721590578556061, -0.0019366741180419922, 0.02060520648956299, 0.10366345942020416, -0.0896281972527504, 0.0877385139465332, -0.12346810102462769, -0.004666581749916077, -0.11650960147380829, 0.11818304657936096, -0.11508792638778687, 0.016467764973640442, -0.13173416256904602, 0.08530507981777191, 0.054232195019721985, 0.07968877255916595, 0.0799035131931305, 0.13893750309944153, -0.1414603888988495, 0.022808358073234558, 0.1442653238773346, 0.030457094311714172, 0.04044540226459503, 0.008646562695503235, -0.10377222299575806, -0.008972465991973877, 0.06457401812076569, -0.0951445996761322, -0.02963346242904663, -0.08154062926769257, -0.05478053539991379, -0.09282755106687546, 0.10143384337425232, 0.12875857949256897, -0.043222323060035706, 0.010624960064888, -0.12041686475276947, -0.12962308526039124, 0.13285833597183228, 0.12087133526802063, 0.04971109330654144, -0.12604114413261414, -0.06938362121582031, 0.11988204717636108, 0.011091575026512146, 0.08625665307044983, 0.00216047465801239, -0.003337264060974121, -0.08232078701257706, -0.04733796417713165, -0.10461805015802383, 0.0005770325660705566, 0.07450930774211884, -0.04259125888347626, 0.04649762809276581, 0.01069621741771698, -0.07212340831756592, 0.09735798835754395, 0.05792658030986786, -0.08583661913871765, -0.010981425642967224, 0.09101074934005737, -0.019384227693080902, 0.09998583793640137, -0.0028031766414642334, 0.1055351048707962, 0.12388533353805542, 0.13617673516273499, 0.01451195776462555, 0.02646505832672119, 0.07556198537349701, -0.1275792121887207, -0.10666905343532562, -0.12754416465759277, -0.08977174758911133, -0.14229482412338257, 0.05325140058994293, -0.056335918605327606, -0.06804773211479187, 0.08479630947113037, 0.02341163158416748, -0.08529061079025269, -0.010395333170890808, -0.02480127662420273, -0.05269238352775574, -0.14426946640014648, 0.13905301690101624, 0.08250938355922699, 0.0037868618965148926, 0.1291453242301941, 0.1359829306602478, -0.029332831501960754, -0.04210178554058075, -0.07621269673109055, 0.0685935914516449, -0.00643998384475708, -0.041143909096717834, -0.04293786734342575, 0.10514043271541595, -0.0751318410038948, -0.05546923726797104, 0.08918911218643188, 0.07488331198692322, -0.08460137248039246, -0.03555469214916229, 0.014425426721572876, -0.14317141473293304, 0.11306366324424744, 0.10483585298061371, 0.045038700103759766, 0.10794779658317566, 0.04509204626083374, 0.07844249904155731, -0.12187274545431137, -0.07468688488006592, -0.09872114658355713, -0.02141863852739334, -0.041096560657024384, -0.018590688705444336, -0.03026154637336731, 0.07953330874443054, 0.0958896279335022, 0.07321436703205109, -0.12503737211227417, -0.022515080869197845, 0.07954737544059753, -0.08548443764448166, -0.04921253025531769, 0.11532768607139587, -0.08330227434635162, 0.10913896560668945, 0.06680715084075928, -0.04616466164588928, 0.057602658867836, -0.053704291582107544, -0.007514461874961853, -0.02097924053668976, 0.09875704348087311, 0.04148918390274048, -0.09987609088420868, 0.08554577827453613, 0.08875469863414764, -0.07026608288288116, 0.1387433409690857, -0.07932659983634949, 0.06846566498279572, 0.11888429522514343, -0.06006868928670883, -0.02277494966983795, -0.030987448990345, 0.06490640342235565, 0.06902013719081879, 0.10803845524787903, -0.009193077683448792, -0.10715850442647934, -0.07418587058782578, -0.07629793137311935, 0.026883721351623535, -0.13954339921474457, 0.09468549489974976, 0.08158914744853973, -0.14194798469543457, -0.039954401552677155, -0.07025667279958725, -0.06541556864976883, 0.029231920838356018, 0.12619727849960327, 0.10800644755363464, -0.018122628331184387, -0.13302791118621826, 0.07771061360836029, -0.04743574559688568, -0.05676160752773285, 0.05604253709316254, 0.056166648864746094, 0.03555914759635925, 0.003036201000213623, 0.046823665499687195, 0.10829323530197144, -0.01676425337791443, -0.12183742225170135, 0.0009598881006240845, -0.09202447533607483, -0.09776020795106888, -0.14111831784248352, -0.08588634431362152, 0.007569819688796997, -0.11216205358505249, 0.14316153526306152, -0.07208238542079926, -0.09099416434764862, -0.07637188583612442, 0.12050232291221619, -0.11004877835512161, 0.02759365737438202, -0.0018771588802337646, -0.13305458426475525, -0.07663045078516006, -0.0657886415719986, -0.10350282490253448, -0.11401491612195969, -0.04537196457386017, 0.002005070447921753, 0.03534434735774994, -0.03708522021770477, 0.11862006783485413, -0.06539010256528854, 0.11952561140060425, -0.1159723699092865, 0.056448325514793396, -0.11189045011997223, 0.02206331491470337, 0.04523816704750061, -0.07608428597450256, 0.00370652973651886, -0.02202431857585907, 0.08212997019290924, -0.13805946707725525, -0.08382780849933624, 0.04975597560405731, -0.12860196828842163, -0.12547746300697327, -0.06092076748609543, -0.1353072077035904, -0.07729048281908035, 0.007752060890197754, 0.06075553596019745, 0.03259335458278656, 0.10611200332641602, -0.052585601806640625, 0.017293095588684082, -0.044079504907131195, 0.04282623529434204, 0.05156414210796356, -0.08808159828186035, 0.07901518046855927, 0.07386623322963715, -0.059140801429748535, 0.11005514860153198, 0.06401550769805908, -0.000964730978012085, -0.11245517432689667, 0.10218709707260132, -0.11164527386426926, 0.011387452483177185, -0.06710252165794373, -0.1405922919511795, -0.0647120550274849, 0.13037705421447754, -0.14386901259422302, 0.11843472719192505, -0.09792091697454453, 0.03178231418132782, 0.08769385516643524, -0.10862553119659424, 0.022203385829925537, 0.06869101524353027, -0.057558052241802216, -0.003932788968086243, 0.06477247178554535, 0.008427634835243225, -0.00263957679271698, 0.10486222803592682, 0.08608901500701904, 0.02283620834350586, -0.10736902058124542, -0.11327946186065674, -0.07122260332107544, -0.030666962265968323, 0.09505411982536316, -0.13654354214668274, -0.03200913220643997, -0.12661296129226685, -0.07173636555671692, 0.034446388483047485, -0.0808420330286026, 0.01439136266708374, 0.13567101955413818, -0.13281980156898499, 0.0465046763420105, -0.11683399230241776, 0.14037728309631348, 0.13895875215530396, 0.09296944737434387, -0.11660599708557129, -0.13806428015232086, 0.03194136917591095, -0.07506490498781204, 0.04793313145637512, 0.05519166588783264, 0.12636449933052063, -0.03462236374616623, 0.05785419046878815, -0.022886447608470917, 0.1373479664325714, -0.0724746435880661, -0.06961552798748016, 0.08738572895526886, 0.11380612850189209, -0.06223201006650925, -0.11100146174430847, 0.1248505711555481, -0.07242699712514877, 0.009537920355796814, -0.06139471381902695, -0.10619992017745972, 0.032329708337783813, 0.017182067036628723, -0.13960207998752594, 0.12606000900268555, 0.07348532974720001, 0.02738022804260254, 0.008811399340629578, -0.09875625371932983, 0.05613608658313751, 0.042014122009277344, 0.13878923654556274, 0.035473406314849854, 0.07241682708263397, 0.011997804045677185, 0.052486151456832886, -0.09102724492549896, 0.009985104203224182, -0.09407930076122284, 0.12506461143493652, 0.034110456705093384, -0.08710794150829315, -0.08024860173463821, 0.018151745200157166, -0.09899343550205231, -0.05086140334606171, -0.09942004084587097, 0.14202380180358887, -0.08203555643558502, 0.09964190423488617, 0.034854114055633545, -0.02257048338651657, -0.04461357742547989, -0.004361599683761597, -0.050993941724300385, 0.1394304633140564, -0.053184881806373596, 0.03511321544647217, -0.05000165104866028, 0.1315300166606903, -0.05085470527410507, 0.03805840015411377, -0.059156373143196106, 0.1254706084728241, 0.09679262340068817, -0.061223581433296204, 0.11540406942367554, -0.11137478798627853, -0.10622990876436234, 0.016723260283470154, -0.07557404786348343, -0.1133817732334137, -0.07069046050310135, 0.08445742726325989, -0.021254509687423706, 0.010596588253974915, 0.11890029907226562, -0.13211016356945038, -0.11663231998682022, 0.004410281777381897, -0.07664027065038681, 0.02883535623550415, 0.08344602584838867, -0.06453479081392288, 0.10980069637298584, -0.018236488103866577, -0.07863122224807739, -0.06546705216169357, 0.11428186297416687, -0.09090675413608551, 0.10912427306175232, 0.04445512592792511, -0.10703669488430023, 0.10946193337440491, -0.009472250938415527, -0.04550863802433014, -0.07797104865312576, -0.11551791429519653, 0.007911905646324158, 0.12202173471450806, -0.07389821112155914, 0.1054757833480835, 0.070757195353508, -0.05923743546009064, -0.030740879476070404, -0.1212824136018753, -0.12367136031389236, 0.07298293709754944, 0.10950285196304321, 0.014020532369613647, 0.09986895322799683, 0.05482463538646698, -0.14308154582977295, -0.1286134123802185, -0.04525083303451538, -0.09709033370018005, 0.03690780699253082, -0.0737951472401619, -0.09273701161146164, -0.13428981602191925, -0.1320086568593979, 0.04954111576080322, 0.11896213889122009, 0.14077463746070862, 0.0821831226348877, 0.02466811239719391, 0.09032948315143585, -0.04017281532287598, 0.0348471999168396, -0.06285622715950012, 0.05888810753822327, -0.07959096133708954, 0.0518190860748291, 0.11856988072395325, -0.10734418034553528, -0.11766734719276428, 0.06579478085041046, 0.09486444294452667, -0.06600946933031082, -0.06469674408435822, 0.05214691162109375, 0.08374853432178497, 0.01915222406387329, -0.0018287450075149536, 0.06359073519706726, -0.08616279810667038, -0.04145267605781555, 0.13858047127723694, 0.0913812667131424, 0.08747941255569458, 0.11210384964942932, -0.04118049144744873, 0.1078500747680664, 0.046426355838775635, 0.10016500949859619, 0.11411359906196594, 0.08397617936134338, 0.06329721212387085, -0.03736819326877594, -0.13900226354599, 0.014617517590522766, -0.09704367816448212, -0.12918302416801453, 0.05744865536689758, 0.12993931770324707, 0.07513123750686646, -0.11217409372329712, -0.1331394463777542, 0.02315293252468109, -0.11087691783905029, 0.10693186521530151, -0.04317271709442139, 0.04662877321243286, 0.05369894206523895, 0.018306642770767212, 0.1361449956893921, 0.060332611203193665, 0.013469845056533813, 0.10389630496501923, -0.048770032823085785, -0.026858724653720856, -0.04746986925601959, 0.12170213460922241, -0.006389737129211426, 0.06275033950805664, 0.010252609848976135, -0.020163483917713165, -0.008143067359924316, -0.0673794373869896, 0.04591985046863556, 0.11760413646697998, -0.09023866057395935, -0.0392371341586113, -0.12155047059059143, -0.04540316015481949, 0.012060463428497314, 0.019781634211540222, -0.10006314516067505, 0.0007426738739013672, 0.016495123505592346, 0.12525388598442078, 0.12572869658470154, 0.13696113228797913, 0.09962397813796997, 0.1028495579957962, 0.08130127191543579, 0.029475465416908264, 0.1336108148097992, 0.04578427970409393, 0.021113872528076172, 0.04503558576107025, -0.0353354811668396, -0.14392511546611786, 0.10340040922164917, -0.014627471566200256, -0.13549934327602386, -0.045219048857688904, -0.09025542438030243, 0.060636237263679504, 0.011669844388961792, 0.05467545986175537, 0.11464175581932068, -0.008758977055549622, -0.13477091491222382, 0.13297328352928162, -0.07724811881780624, 0.09807662665843964, -0.09602728486061096, 0.017256662249565125, 0.12545448541641235, 0.025494486093521118, 0.061620697379112244, 0.06623335182666779, 0.0259847491979599, -0.04252590984106064, -0.06870850920677185, -0.028314366936683655, -0.03023594617843628, -0.09444877505302429, 0.04449930787086487, 0.07498092949390411, 0.022235125303268433, 0.03212152421474457, -0.05161135643720627, -0.08030588179826736, 0.08831813931465149, 0.037360385060310364, 0.0047609806060791016, -0.04763147234916687, -0.03792636841535568, -0.08535721898078918, -0.11423151195049286, 0.055717408657073975, -0.04421920329332352, 0.12302696704864502, -0.011886119842529297, 0.050759658217430115, 0.01026204228401184, 0.08087775111198425, 0.06362749636173248, 0.0657205879688263, -0.11513617634773254, -0.1274445801973343, -0.037391044199466705, 0.12482330203056335, -0.14008323848247528, 0.05242401361465454, -0.12069732695817947, 0.09439833462238312, 0.09062707424163818, 0.026410549879074097, 0.019202038645744324, -0.08433771878480911, 0.01477031409740448, 0.12849444150924683, -0.038399115204811096, -0.1057358831167221, 0.046984508633613586]}, "bias": {"shape": [12], "values": [-0.040985919535160065, 0.07657529413700104, 0.07833899557590485, 0.00148029625415802, -0.008726358413696289, 0.03130047023296356, -0.01750776171684265, -0.08978037536144257, 0.12953674793243408, 0.04235789179801941, 0.13207799196243286, 0.008568421006202698]}}, "floor": {"shape": [1], "values": [0.0]}, "ceiling": {"shape": [1], "values": [0.0]}, "coef_softsign": {"shape": [1], "values": [0.9180108904838562]}, "coef_tanh": {"shape": [1], "values": [0.283038854598999]}}, "stack.7": {"conv": {"weight": {"shape": [1, 12, 4], "values": [-0.09380675107240677, 0.12867486476898193, -0.016484662890434265, 0.12686967849731445, 0.0471043735742569, -0.13994677364826202, -0.033245719969272614, -0.04810716211795807, -0.09285000711679459, 0.12981772422790527, 0.06030060350894928, -0.006279096007347107, -0.09149128198623657, -0.10372605919837952, -0.032701462507247925, -0.11440663784742355, -0.10037322342395782, -0.029264263808727264, 0.1108810305595398, 0.01454077661037445, -0.11264205724000931, -0.13925553858280182, -0.036363959312438965, -0.12354867905378342, -0.09279468655586243, -0.05040182173252106, 0.08437834680080414, -0.054230183362960815, -0.08020519465208054, -0.12894700467586517, -0.11274099349975586, -0.1285630464553833, 0.12713655829429626, 0.13622617721557617, 0.011861160397529602, 0.018030792474746704, -0.004429534077644348, -0.001852288842201233, 0.04142358899116516, 0.1319560706615448, 0.09188883006572723, 0.1410519778728485, 0.06548456847667694, -0.028103969991207123, 0.10267920792102814, -0.06720148772001266, 0.12687906622886658, -0.08798637986183167]}, "bias": {"shape": [1], "values": [0.08611302077770233]}}, "floor": {"shape": [1], "values": [0.0]}, "ceiling": {"shape": [1], "values": [0.0]}, "coef_softsign": {"shape": [1], "values": [-0.8202745914459229]}, "coef_tanh": {"shape": [1], "values": [0.30426257848739624]}}}}