{"weight_ih_l0": {"shape": [28, 1], "values": [0.21349415183067322, -0.223829984664917, -0.09848591685295105, 0.33425089716911316, 0.2308044135570526, 0.09927058219909668, -0.2511788010597229, -0.17941264808177948, -0.3037570118904114, -0.3152700662612915, -0.0921068787574768, -0.27418234944343567, -0.36217671632766724, 0.06420829892158508, -0.01834544539451599, 0.0053220391273498535, 0.09877213835716248, 0.14312437176704407, 0.30745550990104675, 0.267257422208786, 0.025515854358673096, -0.11316058039665222, -0.03260117769241333, -0.07954061031341553, -0.351129949092865, 0.21515890955924988, -0.29029542207717896, 0.3665858209133148]}, "weight_hh_l0": {"shape": [28, 7], "values": [0.3226424753665924, 0.13516417145729065, 0.27132752537727356, -0.36852604150772095, 0.15441498160362244, 0.023949384689331055, 0.1581399142742157, -0.3701983690261841, 0.036961138248443604, -0.1605960875749588, 0.12824013829231262, -0.2900795340538025, -0.05027464032173157, -0.050179630517959595, -0.057063400745391846, 0.07037177681922913, 0.21477296948432922, -0.3602001965045929, 0.07681256532669067, 0.3772945702075958, -0.3466581702232361, -0.28477340936660767, 0.23474028706550598, -0.22494091093540192, -0.11742240190505981, 0.2118103802204132, 0.14146479964256287, 0.0033248066902160645, 0.3499784767627716, 0.37012049555778503, 0.16332754492759705, 0.1798752248287201, -0.09607604146003723, 0.3281395137310028, 0.009837090969085693, -0.2951679229736328, 0.05015185475349426, -0.19239011406898499, -0.23211455345153809, -0.2174440324306488, -0.29808011651039124, -0.14860032498836517, 0.32187923789024353, -0.18924468755722046, 0.29767271876335144, -0.35012108087539673, 0.31136438250541687, 0.32722869515419006, -0.24616345763206482, -0.1276896893978119, -0.16361777484416962, -0.281162828207016, -0.2244279384613037, 0.20195671916007996, -0.35794317722320557, -0.353949636220932, -0.15012753009796143, -0.22667261958122253, 0.09915521740913391, 0.06065255403518677, -0.2770237326622009, 0.08317792415618896, -0.1321706920862198, 0.21301314234733582, 0.23153939843177795, 0.3373245298862457, 0.029295623302459717, -0.22967764735221863, 0.029420077800750732, -0.37587034702301025, 0.11311545968055725, -0.3063441812992096, -0.30837106704711914, 0.32879379391670227, -0.032603293657302856, 0.34909018874168396, -0.0038250982761383057, 0.27538052201271057, 0.2552998960018158, -0.07407864928245544, -0.3115125894546509, -0.2528265118598938, -0.03882154822349548, 0.3338695466518402, -0.19948318600654602, 0.05733460187911987, -0.2682870030403137, 0.29455694556236267, -0.3480936884880066, 0.12862172722816467, -0.06868994235992432, 0.3710181415081024, 0.22636130452156067, 0.12413755059242249, 0.07045218348503113, 0.17296627163887024, 0.1503659188747406, 0.12338611483573914, 0.3546813428401947, -0.12007203698158264, 0.1443755328655243, -0.051895350217819214, -0.029863595962524414, -0.3232477009296417, 0.0019404292106628418, -0.026202291250228882, 0.08046108484268188, -0.11591169238090515, -0.146831214427948, -0.15718898177146912, -0.20379070937633514, -0.13568967580795288, 0.0023767948150634766, -0.1863444745540619, -0.015930980443954468, -0.2591567933559418, -0.13155372440814972, 0.16253426671028137, -0.08051997423171997, 0.29031839966773987, -0.14547041058540344, -0.003076791763305664, -0.004943102598190308, -0.15668289363384247, 0.37530574202537537, -0.0002745389938354492, 0.2110293209552765, -0.3754119873046875, -0.19755510985851288, 0.1612672507762909, -0.07822653651237488, 0.05809637904167175, -0.13189643621444702, -0.2002502828836441, -0.0851747989654541, 0.1937134563922882, 0.2272149622440338, -0.3370363414287567, -0.15964408218860626, 0.15345242619514465, 0.1905512511730194, 0.007232069969177246, -0.27299612760543823, -0.19456370174884796, -0.2054448425769806, 0.016856372356414795, 0.029627472162246704, 0.13899025321006775, 0.07404634356498718, 0.02175581455230713, -0.2366199642419815, -0.004893451929092407, -0.3664510250091553, -0.033302128314971924, -0.20459821820259094, -0.11683157086372375, 0.09329819679260254, 0.1817549169063568, 0.04474565386772156, -0.196587473154068, 0.08139118552207947, 0.2876822054386139, -0.055629998445510864, 0.31315508484840393, 0.10593697428703308, 0.36132732033729553, -0.34144067764282227, 0.2169143259525299, 0.18419906497001648, -0.04679557681083679, -0.33936527371406555, 0.07915961742401123, 0.2673783600330353, -0.11898505687713623, -0.02506914734840393, -0.181758850812912, 0.14098533987998962, -0.06851884722709656, -0.15797246992588043, 0.24372228980064392, 0.013674169778823853, 0.040359705686569214, 0.35896047949790955, -0.04494920372962952, 0.11226195096969604, 0.19505754113197327, -0.18273811042308807, -0.3416401147842407, 0.08961096405982971, 0.3257623016834259, -0.13744910061359406, -0.04117843508720398, 0.33152201771736145, -0.23917217552661896, 0.1131422221660614, 0.27833250164985657]}, "bias_ih_l0": {"shape": [28], "values": [-0.07732698321342468, -0.22046992182731628, -0.1730230450630188, -0.08583465218544006, 0.303934782743454, 0.21402856707572937, -0.2344212383031845, -0.17649872601032257, -0.20544029772281647, -0.1107397973537445, -0.3568190634250641, 0.3348405659198761, 0.006387859582901001, -0.19697487354278564, 0.23280182480812073, 0.030719637870788574, 0.028657466173171997, -0.10058730840682983, -0.0009452104568481445, 0.023274004459381104, 0.18272587656974792, 0.2929280698299408, 0.12516048550605774, -0.25801557302474976, 0.32256391644477844, -0.08050519227981567, 0.2659752070903778, -0.14229942858219147]}, "bias_hh_l0": {"shape": [28], "values": [-0.008825153112411499, -0.25167399644851685, -0.2368374615907669, -0.009343206882476807, -0.3622792363166809, 0.354200154542923, 0.0709456205368042, 0.19683918356895447, 0.15078100562095642, -0.1763809472322464, 0.001176208257675171, -0.27852344512939453, 0.0303630530834198, 0.3206808865070343, -0.09932500123977661, 0.13118895888328552, -0.2878549098968506, 0.1058831512928009, -0.12559282779693604, 0.11518564820289612, -0.18980100750923157, -0.19635601341724396, -0.089577317237854, 0.03089451789855957, -0.17709937691688538, -0.03841400146484375, -0.03391191363334656, -0.05347123742103577]}}