{"hidden_size": 8, "num_hidden_layers": 3, "direct_linear": {"weight": {"shape": [11, 7], "values": [-0.29213061928749084, 0.12903013825416565, -0.014784008264541626, 0.25054141879081726, 0.06588810682296753, -0.36394259333610535, 0.11335450410842896, 0.21791747212409973, -0.06279677152633667, -0.26476365327835083, -0.23405961692333221, 0.08484393358230591, -0.3129282593727112, 0.08362448215484619, -0.11246377229690552, -0.07346397638320923, -0.024494051933288574, -0.3463848829269409, 0.3387371599674225, -0.006570994853973389, -0.34683138132095337, -0.0024279654026031494, -0.1642092913389206, 0.20400652289390564, -0.10762497782707214, -0.013866156339645386, 0.1075555682182312, -0.1759190708398819, 0.13581976294517517, 0.039513617753982544, 0.09313878417015076, -0.17952929437160492, 0.1615297496318817, 0.17374935746192932, 0.27644315361976624, -0.32088038325309753, -0.3520682454109192, 0.27161601185798645, -0.3469320833683014, 0.3409084975719452, -0.33045315742492676, -0.3135419189929962, 0.030185818672180176, 0.07069289684295654, 0.019673556089401245, -0.13863274455070496, -0.30999886989593506, 0.05340811610221863, -0.11695495247840881, -0.3362405300140381, 0.1844717562198639, -0.3141935467720032, -0.24496887624263763, -0.13113483786582947, -0.2852817475795746, -0.23182618618011475, 0.35531529784202576, 0.19585803151130676, -0.21177321672439575, 0.36861512064933777, -0.14809933304786682, 0.0948769748210907, 0.02530372142791748, 0.3128470480442047, -0.32971706986427307, 0.1672472059726715, -0.08872166275978088, 0.13478323817253113, -0.33525821566581726, -0.014761120080947876, -0.004248142242431641, 0.36104920506477356, -0.3087758421897888, 0.3416862189769745, -0.23915131390094757, -0.0976509153842926, -0.338234543800354]}, "bias": {"shape": [11], "values": [-0.22436246275901794, -0.007915735244750977, -0.17803899943828583, -0.24879753589630127, 0.33723118901252747, -0.01489606499671936, -0.1951540857553482, 0.2401420772075653, 0.26630309224128723, 0.14597049355506897, -0.04864773154258728]}}, "input_linear": {"weight": {"shape": [8, 7], "values": [0.1950329840183258, -0.19047366082668304, 0.23995766043663025, -0.26236996054649353, 0.0855385959148407, 0.37655600905418396, -0.03105062246322632, 0.30985644459724426, 0.10863816738128662, 0.019962996244430542, 0.18601778149604797, -0.12129467725753784, -0.05251842737197876, 0.23892560601234436, -0.07422953844070435, 0.28075942397117615, 0.3446325361728668, 0.09068551659584045, -0.14925022423267365, 0.0023916959762573242, -0.1615116447210312, 0.366629034280777, 0.077729731798172, -0.23071810603141785, -0.15894827246665955, -0.21345952153205872, 0.375129371881485, -0.36768990755081177, -0.2371753305196762, -0.09470066428184509, 0.34587785601615906, -0.0935431718826294, -0.18872176110744476, 0.15288332104682922, 0.15566715598106384, 0.08765548467636108, -0.10799223184585571, -0.35179921984672546, 0.12260875105857849, 0.16867992281913757, 0.01043856143951416, -0.09790867567062378, -0.36338141560554504, -0.03838837146759033, -0.11003145575523376, -0.32207658886909485, 0.3427415192127228, 0.21132192015647888, 0.26293614506721497, 0.3017362058162689, -0.19472986459732056, 0.031069278717041016, 0.23661044239997864, -0.3583400249481201, -0.15025107562541962, -0.10354557633399963]}, "bias": {"shape": [8], "values": [0.2806229293346405, 0.3617682158946991, -0.07615426182746887, 0.17924609780311584, -0.3450504541397095, 0.10100939869880676, 0.07349768280982971, -0.3679300844669342]}}, "output_linear": {"weight": {"shape": [11, 8], "values": [-0.3413265347480774, -0.17133696377277374, -0.22720488905906677, -0.2033330798149109, -0.3358079493045807, -0.09835869073867798, 0.17154839634895325, 0.32962003350257874, 0.10434240102767944, 0.08536598086357117, 0.0356295108795166, -0.22870764136314392, 0.09711098670959473, -0.3155689537525177, -0.0029670894145965576, 0.022917866706848145, 0.16798552870750427, -0.26903092861175537, -0.21265621483325958, -0.23624016344547272, -0.21936915814876556, -0.14144490659236908, -0.09814074635505676, 0.3373551070690155, 0.03995850682258606, 0.10151582956314087, -0.04065766930580139, 0.07273423671722412, -0.08779850602149963, -0.2743709981441498, -0.1610807478427887, -0.3392113745212555, -0.18150417506694794, 0.1363600194454193, 0.07159867882728577, 0.022529631853103638, -0.18610231578350067, -0.20519551634788513, 0.03795206546783447, 0.06497552990913391, 0.10664862394332886, 0.25889965891838074, 0.24225005507469177, -0.29639264941215515, 0.0688818097114563, -0.1720966249704361, 0.0578119158744812, -0.29613909125328064, 0.09511950612068176, -0.24895940721035004, 0.3361442983150482, -0.3227258324623108, 0.06211620569229126, -0.1182001531124115, 0.32352712750434875, -0.16210976243019104, 0.0536324679851532, 0.005806565284729004, 0.024281293153762817, -0.20793156325817108, -0.23380783200263977, -0.19465520977973938, -0.0070686936378479, -0.1451335996389389, -0.047790348529815674, 0.2694648802280426, -0.1900433450937271, 0.30664166808128357, 0.29695263504981995, -0.15501661598682404, -0.30566221475601196, -0.27613574266433716, -0.03081047534942627, -0.1951531320810318, 0.13424921035766602, 0.014226406812667847, 0.3205759823322296, -0.3198978900909424, 0.1871640980243683, 0.2985999882221222, -0.09409478306770325, 0.06336045265197754, 0.0023125112056732178, -0.12730012834072113, -0.34326618909835815, -0.33434829115867615, -0.232589453458786, 0.33943644165992737]}, "bias": {"shape": [11], "values": [-0.27004989981651306, 0.030241340398788452, -0.33719101548194885, -0.10344070196151733, 0.18141868710517883, -0.15200500190258026, 0.05034574866294861, 0.07368853688240051, -0.04428255558013916, 0.2133314311504364, -0.04915770888328552]}}, "hidden_linear.0": {"weight": {"shape": [8, 8], "values": [-0.004205495119094849, 0.15086641907691956, -0.010104447603225708, 0.2629895508289337, -0.11458033323287964, -0.02258315682411194, -0.12004998326301575, -0.10170924663543701, -0.05630090832710266, -0.004510104656219482, 0.3478357493877411, 0.29581937193870544, 0.28068187832832336, -0.050532519817352295, -0.32395079731941223, 0.04021003842353821, -0.32205531001091003, 0.04859328269958496, -0.20762987434864044, -0.21358947455883026, 0.1878160536289215, -0.0539589524269104, 0.18746814131736755, -0.3494876027107239, 0.26524415612220764, 0.14054813981056213, -0.2826405167579651, -0.004034370183944702, 0.2735094130039215, -0.00883367657661438, -0.19107644259929657, 0.28560730814933777, -0.31852859258651733, -0.09358912706375122, -0.31771326065063477, -0.0746227502822876, 0.0737188458442688, 0.22664138674736023, -0.1619950383901596, -0.15185682475566864, 0.2173718512058258, -0.06937342882156372, 0.22234901785850525, -0.11497226357460022, 0.10670208930969238, 0.21564820408821106, -0.16950838267803192, 0.13229596614837646, 0.018461793661117554, 0.05466917157173157, -0.25137707591056824, 0.11278840899467468, -0.06996199488639832, 0.2863873541355133, -0.001609891653060913, 0.27315565943717957, 0.2397266924381256, 0.08803275227546692, -0.13199418783187866, -0.16790321469306946, 0.07868161797523499, -0.16704069077968597, -0.2650020718574524, -0.21038219332695007]}, "bias": {"shape": [8], "values": [0.24244925379753113, -0.1669335961341858, 0.04151284694671631, -0.28645944595336914, 0.06372055411338806, -0.2359403371810913, 0.01957648992538452, -0.22539211809635162]}}, "hidden_linear.1": {"weight": {"shape": [8, 8], "values": [0.11364349722862244, 0.278227299451828, 0.25245603919029236, -0.02121978998184204, -0.20272882282733917, 0.09182032942771912, -0.0578179657459259, -0.33803534507751465, -0.05224919319152832, -0.11219477653503418, 0.15333977341651917, -0.27362260222435, 0.22541674971580505, -0.21424444019794464, 0.15343424677848816, 0.14287465810775757, -0.05692830681800842, 0.14688381552696228, 0.08154240250587463, 0.32064858078956604, 0.24471095204353333, -0.14437870681285858, 0.09417873620986938, -0.18645529448986053, 0.025281459093093872, 0.019984841346740723, 0.16723600029945374, -0.2622632682323456, 0.20256498456001282, -0.07362750172615051, 0.013245880603790283, 0.2568114697933197, 0.16052934527397156, -0.22303639352321625, 0.1666412055492401, -0.23685815930366516, 0.3399403989315033, -0.053037047386169434, 0.08411538600921631, 0.04078522324562073, -0.02273300290107727, 0.27629873156547546, -0.1072254627943039, 0.04425621032714844, 0.2409360110759735, 0.05698135495185852, 0.15189877152442932, 0.16201987862586975, -0.15506871044635773, 0.016147255897521973, 0.2406250536441803, 0.15962150692939758, -0.14779774844646454, -0.07350364327430725, -0.14255517721176147, -0.13017074763774872, -0.1037183403968811, 0.2194395363330841, -0.28101250529289246, -0.17722652852535248, -0.10378926992416382, 0.20658943057060242, -0.2571251094341278, -0.20839908719062805]}, "bias": {"shape": [8], "values": [-0.12024685740470886, -0.3401045501232147, -0.18718494474887848, 0.08845612406730652, 0.35301700234413147, 0.024657726287841797, -0.09312370419502258, 0.1390734612941742]}}, "hidden_linear.2": {"weight": {"shape": [8, 8], "values": [-0.004262447357177734, 0.21495947241783142, -0.11894695460796356, -0.3197852373123169, 0.08923360705375671, -0.24959321320056915, 0.22368380427360535, -0.037869393825531006, 0.20306578278541565, -0.015406489372253418, 0.013973653316497803, -0.1620446890592575, -0.06486201286315918, -0.11504833400249481, -0.2966391146183014, 0.18896260857582092, 0.1788797676563263, -0.14857253432273865, -0.2790481150150299, 0.09029629826545715, 0.2348518669605255, -0.1998814195394516, 0.2607937753200531, 0.29381296038627625, -0.24623915553092957, 0.15826573967933655, 0.17853263020515442, 0.18990495800971985, -0.3130793869495392, 0.11025628447532654, -0.33961525559425354, -0.3287784159183502, -0.2068166434764862, 0.26056936383247375, -0.32068178057670593, 0.10904312133789062, -0.023740679025650024, 0.11286100745201111, -0.16321846842765808, -0.018398821353912354, -0.31519615650177, -0.09323716163635254, -0.34237971901893616, 0.2332075536251068, -0.22646979987621307, -0.11550912261009216, -0.10986195504665375, 0.31816723942756653, -0.21827051043510437, -0.33738499879837036, 0.15372619032859802, -0.12841853499412537, 0.10691720247268677, -0.20076532661914825, -0.28907865285873413, 0.18139711022377014, 0.11652868986129761, -0.056820690631866455, 0.25770118832588196, 0.30164834856987, -0.3305075168609619, 0.09892430901527405, 0.22922298312187195, 0.20572397112846375]}, "bias": {"shape": [8], "values": [-0.1491318941116333, 0.034903883934020996, -0.09904277324676514, 0.07631680369377136, 0.06626403331756592, -0.32232901453971863, -0.1940491497516632, -0.3050442934036255]}}}