{"hidden_size": 8, "num_hidden_layers": 3, "direct_linear": {"weight": {"shape": [11, 7], "values": [-0.2942427396774292, 0.2526111304759979, -0.08017894625663757, -0.34317201375961304, -0.16233082115650177, -0.12053385376930237, 0.25304439663887024, -0.258571594953537, 0.33518925309181213, -0.3510732650756836, -0.29223379492759705, 0.2555257976055145, -0.20143626630306244, 0.019511550664901733, 0.0874282717704773, -0.19551125168800354, -0.14120513200759888, 0.37280407547950745, 0.25081029534339905, -0.2376268059015274, 0.2793307602405548, 0.3078210651874542, -0.13627681136131287, -0.26083511114120483, -0.2135375589132309, 0.2149089276790619, -0.1867424100637436, -0.08719244599342346, -0.34971505403518677, -0.08088222146034241, -0.13318559527397156, -0.25513267517089844, -0.03938755393028259, 0.3156578242778778, -0.11994689702987671, -0.02841094136238098, 0.19635459780693054, -0.2550120949745178, -0.13425669074058533, 0.352976530790329, -0.12367811799049377, 0.21765777468681335, 0.15593096613883972, -0.2848173975944519, 0.2882694900035858, 0.2768976390361786, -0.06408128142356873, -0.21500825881958008, -0.22003799676895142, -0.34126436710357666, -0.2825719118118286, -0.19546708464622498, 0.1535780131816864, 0.3384760320186615, 0.21411696076393127, 0.049328625202178955, 0.3362483084201813, 0.09214156866073608, 0.18645396828651428, 0.1476859152317047, 0.0597970187664032, -0.013459622859954834, 0.014055490493774414, 0.2634710371494293, 0.00675731897354126, -0.12584641575813293, -0.35760992765426636, -0.3624385893344879, 0.13463178277015686, -0.3572428226470947, -0.3433123826980591, 0.2712719738483429, 0.06892317533493042, -0.13469171524047852, 0.007909297943115234, -0.09375682473182678, -0.14295293390750885]}, "bias": {"shape": [11], "values": [0.048659682273864746, 0.27536556124687195, 0.3749399483203888, 0.08966714143753052, 0.08869779109954834, -0.057492583990097046, 0.34057751297950745, 0.09422224760055542, -0.2876277565956116, 0.28339794278144836, 0.29375866055488586]}}, "input_linear": {"weight": {"shape": [8, 7], "values": [-0.3177948296070099, -0.11167877912521362, -0.025421321392059326, 0.08379620313644409, -0.08862674236297607, 0.054900944232940674, 0.3107587993144989, 0.13081976771354675, -0.16165100038051605, 0.26583001017570496, -0.16723540425300598, 0.3174732029438019, -0.1671467274427414, -0.027367085218429565, 0.02433931827545166, 0.3708591163158417, -0.3253898024559021, 0.1590804159641266, 0.15120109915733337, -0.025430738925933838, -0.10792893171310425, -0.31883907318115234, -0.046037763357162476, 0.37549635767936707, 0.356111615896225, 0.34382614493370056, -0.06547647714614868, -0.0527326762676239, -0.31307661533355713, 0.1697436273097992, 0.06448802351951599, 0.3215502202510834, 0.3590961992740631, 0.13670554757118225, 0.11743411421775818, 0.12105938792228699, -0.33706673979759216, 0.31976351141929626, -0.1220448911190033, -0.1233396828174591, 0.0788513720035553, 0.25528547167778015, -0.2557673752307892, 0.08400890231132507, 0.2307862937450409, -0.15502092242240906, 0.3440007269382477, -0.050942569971084595, -0.05778953433036804, 0.032645970582962036, 0.11773893237113953, 0.36063745617866516, 0.3006894290447235, 0.3028629720211029, -0.3608756959438324, -0.1806890219449997]}, "bias": {"shape": [8], "values": [0.09355339407920837, 0.2203296720981598, -0.3170371651649475, 0.11320427060127258, 0.33275195956230164, 0.19967344403266907, -0.2576758563518524, 0.2184000313282013]}}, "output_linear": {"weight": {"shape": [11, 8], "values": [-0.2069357931613922, 0.054883331060409546, 0.21051165461540222, -0.24242383241653442, -0.17499013245105743, -0.29825082421302795, -0.2378959357738495, 0.11047139763832092, -0.09490236639976501, 0.3387005627155304, 0.20999345183372498, -0.17907601594924927, 0.15645292401313782, -0.2562817931175232, -0.27214527130126953, 0.02807408571243286, 0.08040666580200195, -0.02371463179588318, -0.17373980581760406, -0.2505941092967987, -0.3348614275455475, 0.22232094407081604, 0.20606276392936707, -0.22298657894134521, -0.027943313121795654, -0.0293901264667511, -0.130946084856987, 0.1113162636756897, 0.26299402117729187, -0.13380368053913116, 0.3182547390460968, 0.1252172589302063, -0.08544144034385681, 0.23889121413230896, -0.07157617807388306, -0.10729049146175385, -0.2812096178531647, -0.2834785282611847, -0.33067089319229126, 0.07682067155838013, -0.1245322972536087, 0.2078482210636139, 0.2953577935695648, 0.28922978043556213, -0.033728063106536865, 0.2423858940601349, -0.043634891510009766, -0.3249030113220215, -0.02454853057861328, 0.05395671725273132, 0.20297202467918396, 0.08918619155883789, 0.00563541054725647, -0.0596863329410553, 0.26172223687171936, -0.19779056310653687, -0.3251205384731293, 0.16594883799552917, -0.031406790018081665, -0.2522757649421692, -0.10208293795585632, 0.2056451141834259, 0.02779710292816162, 0.26144304871559143, -0.261618435382843, 0.1115492582321167, 0.10131123661994934, 0.06620857119560242, 0.1806538999080658, -0.16711102426052094, 0.09071144461631775, -0.3058398962020874, 0.032144755125045776, -0.2227420061826706, 0.3215433657169342, 0.3390350639820099, -0.1969338059425354, 0.23525020480155945, -0.33341383934020996, 0.24201610684394836, -0.18720643222332, -0.016843855381011963, 0.27906033396720886, 0.24901404976844788, -0.007276058197021484, 0.13472715020179749, -0.1812284141778946, -0.28067803382873535]}, "bias": {"shape": [11], "values": [0.16362068057060242, 0.09526830911636353, -0.0012192726135253906, 0.16065171360969543, -0.3091502785682678, -0.15888762474060059, 0.24337008595466614, 0.2623468339443207, 0.06332454085350037, -0.23073337972164154, 0.31615903973579407]}}, "hidden_linear.0": {"weight": {"shape": [8, 8], "values": [0.05172732472419739, -0.32725822925567627, 0.08033755421638489, -0.3213944435119629, -0.05805337429046631, 0.11620140075683594, -0.3174787163734436, -0.163087397813797, 0.04638227820396423, -0.1700114905834198, -0.2428973913192749, -0.05756065249443054, 0.00943019986152649, -0.21426209807395935, 0.3103826940059662, -0.017600446939468384, -0.04977041482925415, -0.26892197132110596, -0.27419519424438477, -0.3174024820327759, -0.03964114189147949, 0.27279677987098694, 0.04758337140083313, -0.2515254616737366, 0.3009495437145233, 0.13702097535133362, -0.16524235904216766, -0.1611916720867157, 0.2068953812122345, 0.3220128118991852, -0.24576783180236816, 0.09867456555366516, 0.2688954770565033, -0.2095351666212082, 0.07311126589775085, -0.2679302990436554, 0.16228434443473816, 0.08443129062652588, 0.2404724657535553, 0.3012653887271881, 0.3124440014362335, -0.2288297414779663, -0.21573327481746674, 0.0745244026184082, 0.2977732717990875, -0.025514274835586548, 0.24080905318260193, -0.2221493273973465, 0.021243184804916382, 0.1043214201927185, 0.18143019080162048, -0.15584054589271545, 0.14766213297843933, -0.01860538125038147, 0.3496018350124359, -0.059553951025009155, 0.13541117310523987, 0.1191481351852417, -0.28289878368377686, 0.2975400388240814, -0.06806308031082153, 0.02011096477508545, -0.329353004693985, 0.07881712913513184]}, "bias": {"shape": [8], "values": [-0.1444699466228485, 0.18125763535499573, -0.1532222032546997, 0.04727396368980408, -0.08187425136566162, -0.0700836181640625, -0.09911635518074036, 0.11977759003639221]}}, "hidden_linear.1": {"weight": {"shape": [8, 8], "values": [0.3532628118991852, 0.33063361048698425, 0.1388612687587738, 0.06911733746528625, 0.33508071303367615, -0.1436578631401062, -0.32240599393844604, -0.013181686401367188, -0.32479676604270935, 0.19164034724235535, 0.12973254919052124, -0.07520553469657898, 0.06603509187698364, 0.032522350549697876, -0.26684626936912537, 0.007824510335922241, -0.01334652304649353, -0.07560142874717712, 0.2860426604747772, -0.1041075587272644, -0.2924784719944, 0.06312915682792664, 0.23903879523277283, 0.06359529495239258, -0.34189775586128235, -0.08673214912414551, -0.22870787978172302, 0.1624515950679779, -0.25846317410469055, 0.18044868111610413, 0.3330654799938202, 0.14558616280555725, 0.205265611410141, 0.0057694315910339355, 0.1466580331325531, -0.31889063119888306, -0.24447527527809143, 0.2543105185031891, -0.2644180357456207, 0.32536277174949646, -0.12217409908771515, -0.14575332403182983, -0.1512507051229477, -0.21561454236507416, -0.2856149673461914, 0.2339966595172882, -0.279161661863327, -0.06457757949829102, 0.24079325795173645, -0.19315457344055176, -0.32789838314056396, 0.07566747069358826, 0.24449381232261658, 0.23759225010871887, 0.04923000931739807, -0.08327406644821167, -0.07904544472694397, 0.2612467110157013, 0.1310628354549408, 0.13925477862358093, 0.17856749892234802, 0.22765228152275085, -0.0875082015991211, -0.2818474769592285]}, "bias": {"shape": [8], "values": [0.004415839910507202, 0.34485021233558655, -0.11038525402545929, 0.23407647013664246, 0.09912648797035217, -0.3217143416404724, 0.05937334895133972, -0.23150740563869476]}}, "hidden_linear.2": {"weight": {"shape": [8, 8], "values": [-0.3415238857269287, 0.030163496732711792, -0.23629137873649597, 0.3362370431423187, -0.07370889186859131, -0.04830509424209595, -0.31458887457847595, -0.3139265775680542, 0.14940807223320007, 0.10986831784248352, 0.23450741171836853, -0.03186124563217163, -0.33649975061416626, 0.18468621373176575, -0.03196784853935242, 0.2929541766643524, 0.12119179964065552, -0.2528986930847168, 0.07930836081504822, 0.003898799419403076, -0.34026670455932617, -0.2907997965812683, -0.0669575035572052, 0.3026486337184906, -0.04094761610031128, 0.25114932656288147, -0.2340169996023178, -0.14138813316822052, 0.045914262533187866, -0.04386252164840698, 0.12661582231521606, 0.23823657631874084, 0.31066861748695374, -0.34847742319107056, 0.029586195945739746, -0.1455455869436264, -0.1519228219985962, 0.060109883546829224, -0.2815104126930237, -0.12352755665779114, 0.134700745344162, -0.13575802743434906, -0.08216655254364014, -0.17564883828163147, 0.2971303164958954, 0.0558660626411438, -0.23034141957759857, -0.29618039727211, -0.10145571827888489, -0.16567398607730865, -0.2635985314846039, -0.26470091938972473, 0.2961449921131134, 0.23731467127799988, -0.32028838992118835, -0.14102517068386078, -0.24014708399772644, -0.1435682624578476, 0.11906513571739197, 0.2312457263469696, 0.017458945512771606, 0.12750807404518127, 0.1790216863155365, 0.25873151421546936]}, "bias": {"shape": [8], "values": [0.30246105790138245, -0.036702752113342285, 0.17362287640571594, -0.08076104521751404, 0.125263512134552, 0.03016430139541626, -0.18631941080093384, 0.12200188636779785]}}}