{"hidden_size": 8, "num_hidden_layers": 3, "direct_linear": {"weight": {"shape": [11, 7], "values": [-0.32196012139320374, -0.13911937177181244, -0.11639007925987244, 0.11545982956886292, -0.31409233808517456, 0.11429184675216675, -0.30338194966316223, -0.1261729598045349, 0.16923972964286804, 0.012877404689788818, 0.12327179312705994, 0.23884734511375427, 0.01741167902946472, 0.14132848381996155, -0.3369004428386688, 0.10705474019050598, 0.09074106812477112, -0.15215152502059937, -0.1460910588502884, 0.09613019227981567, 0.046131789684295654, -0.09959584474563599, -0.10907146334648132, 0.20595291256904602, 0.03800889849662781, 0.2713209092617035, -0.1032373309135437, 0.11931565403938293, -0.18906815350055695, -0.35383084416389465, -0.21764102578163147, -0.09966868162155151, 0.27406904101371765, -0.0517844557762146, 0.2997051775455475, 0.3707287609577179, -0.1343742460012436, -0.33463674783706665, -0.12971334159374237, 0.20759317278862, 0.12392184138298035, 0.19792869687080383, 0.24339595437049866, -0.23276422917842865, -0.030015259981155396, 0.16744551062583923, 0.02252766489982605, 0.02955418825149536, -0.06685283780097961, -0.1371086984872818, 0.3163001835346222, -0.11974212527275085, -0.3443351089954376, -0.010879665613174438, 0.11736664175987244, 0.3709487020969391, 0.3654465973377228, 0.034330278635025024, -0.10525327920913696, -0.053955644369125366, -0.24406205117702484, -0.11975681781768799, 0.297275573015213, -0.1764364093542099, 0.11969569325447083, 0.21015629172325134, -0.31192952394485474, 0.27767136693000793, -0.025738924741744995, 0.3745441734790802, 0.023398786783218384, -0.16898910701274872, 0.049426764249801636, 0.2485227882862091, -0.03310471773147583, 0.29255911707878113, -0.3655385375022888]}, "bias": {"shape": [11], "values": [-0.07775461673736572, 0.21356341242790222, 0.0016012191772460938, 0.22320148348808289, -0.13230253756046295, -0.3537393808364868, 0.04719066619873047, 0.14597883820533752, 0.2701568305492401, 0.16210106015205383, -0.2982286214828491]}}, "input_linear": {"weight": {"shape": [8, 7], "values": [0.016959041357040405, 0.2715682089328766, 0.1126449704170227, -0.3619072735309601, 0.35142597556114197, 0.31330016255378723, 0.15391889214515686, 0.11859628558158875, 0.08254918456077576, -0.37170907855033875, -0.052324146032333374, 0.3429725468158722, 0.14691367745399475, -0.040246933698654175, 0.37732306122779846, -0.027777016162872314, 0.2726770341396332, 0.26727816462516785, -0.21536529064178467, 0.3584705889225006, -0.3774312734603882, 0.015572458505630493, 0.11576336622238159, -0.178655743598938, 0.018613547086715698, 0.35789379477500916, 0.06144505739212036, -0.26171642541885376, 0.3654976189136505, -0.06471759080886841, -0.027818650007247925, 0.026487082242965698, -0.17521348595619202, 0.24480023980140686, -0.1297501027584076, -0.0018773972988128662, 0.2672331631183624, -0.18669509887695312, -0.10261121392250061, 0.3179551064968109, -0.3572976589202881, 0.14804723858833313, 0.19465789198875427, 0.3109821379184723, -0.08716347813606262, -0.20310567319393158, -0.002231299877166748, 0.33695849776268005, 0.28559544682502747, -0.3715413510799408, 0.02709287405014038, 0.13710227608680725, 0.33494338393211365, 0.3151337802410126, -0.22605980932712555, -0.3124811053276062]}, "bias": {"shape": [8], "values": [0.22884926199913025, 0.24986198544502258, 0.12448003888130188, 0.35036030411720276, 0.14076557755470276, 0.15170535445213318, 0.15194013714790344, 0.35293981432914734]}}, "output_linear": {"weight": {"shape": [11, 8], "values": [-0.2793668806552887, -0.32244133949279785, -0.33634427189826965, 0.15653833746910095, -0.09987476468086243, 0.22351154685020447, -0.1724410504102707, 0.2371167242527008, -0.0747789740562439, -0.1004619300365448, -0.22235295176506042, -0.30472108721733093, -0.07073885202407837, 0.3325241506099701, 0.06712314486503601, -0.27762165665626526, 0.12408655881881714, 0.13596606254577637, -0.24790611863136292, 0.14781221747398376, 0.008997142314910889, -0.2181270867586136, -0.13540151715278625, -0.10163253545761108, -0.138175368309021, 0.3011000454425812, 0.08735600113868713, 0.07897022366523743, 0.01532241702079773, -0.00722813606262207, 0.017122209072113037, -0.1381773054599762, 0.00803595781326294, 0.1854713261127472, -0.18758432567119598, 0.2951408922672272, -0.34354135394096375, 0.10008519887924194, -0.2949889004230499, -0.0015996098518371582, -0.12647223472595215, -0.13991674780845642, -0.10847899317741394, -0.1503453552722931, -0.21307018399238586, 0.1713913381099701, 0.23493167757987976, -0.13323722779750824, 0.0004576742649078369, 0.26643136143684387, 0.2074699103832245, 0.09794172644615173, 0.20556452870368958, 0.2696594297885895, 0.310617059469223, -0.11028826236724854, -0.290525883436203, -0.19227425754070282, 0.26465925574302673, -0.15965920686721802, 0.2952753007411957, -0.24767830967903137, -0.29699012637138367, 0.25787243247032166, 0.3397007882595062, -0.2569456398487091, 0.054961442947387695, -0.34112250804901123, -0.018033325672149658, -0.06986215710639954, 0.06695017218589783, 0.15765497088432312, -0.20178410410881042, 0.13491442799568176, -0.30234357714653015, -0.049609243869781494, -0.011515527963638306, 0.12278464436531067, -0.15474961698055267, 0.13531547784805298, -0.07172280550003052, 0.3422681987285614, -0.04840046167373657, -0.3197155296802521, 0.24616757035255432, -0.1934102475643158, 0.07316505908966064, -0.25651296973228455]}, "bias": {"shape": [11], "values": [-0.06879177689552307, 0.25321152806282043, 0.0071027278900146484, -0.14730356633663177, 0.15009692311286926, -0.24579623341560364, 0.21743860840797424, 0.14014515280723572, -0.13632696866989136, -0.21949335932731628, -0.04099872708320618]}}, "hidden_linear.0": {"weight": {"shape": [8, 8], "values": [0.11003312468528748, 0.15790799260139465, 0.10383102297782898, 0.16497769951820374, -0.2603967487812042, 0.26725640892982483, -0.32789483666419983, -0.19775086641311646, 0.254610151052475, -0.0095750093460083, -0.052706748247146606, -0.016900956630706787, 0.16526177525520325, -0.16502341628074646, -0.15897217392921448, 0.24498042464256287, -0.21489860117435455, 0.0374661386013031, 0.1569635570049286, -0.28828752040863037, 0.13537880778312683, 0.2544136941432953, -0.2562747895717621, -0.16381442546844482, 0.19165489077568054, -0.2973951995372772, 0.21042528748512268, -0.09349337220191956, -0.3146277070045471, 0.08347725868225098, -0.3031303286552429, 0.09444087743759155, -0.24988999962806702, 0.209637850522995, -0.07471439242362976, -0.07057821750640869, -0.21108098328113556, 0.04375496506690979, 0.009392768144607544, 0.11790680885314941, 0.2685953676700592, 0.23792925477027893, -0.11306199431419373, 0.15315088629722595, 0.05899950861930847, -0.0485231876373291, 0.0364440381526947, -0.159935861825943, -0.14471116662025452, -0.10769349336624146, -0.3422681987285614, -0.05654391646385193, 0.28682419657707214, 0.16535815596580505, -0.3246014416217804, -0.02127203345298767, -0.315621554851532, 0.10100248456001282, 0.032859206199645996, 0.02329358458518982, -0.1731053590774536, -0.01261669397354126, -0.3175634443759918, -0.34761539101600647]}, "bias": {"shape": [8], "values": [-0.3342629373073578, -0.31492677330970764, 0.025920093059539795, -0.3254338800907135, 0.03629598021507263, 0.2164117395877838, 0.09097197651863098, -0.0991174578666687]}}, "hidden_linear.1": {"weight": {"shape": [8, 8], "values": [-0.24972078204154968, -0.2202041745185852, -0.12835055589675903, 0.05584406852722168, -0.11061090230941772, -0.14185604453086853, -0.0717180073261261, 0.18831124901771545, 0.32568392157554626, 0.23624464869499207, -0.07860866189002991, -0.3052758574485779, -0.3471130430698395, -0.2828034460544586, -0.20131732523441315, -0.004671037197113037, -0.24746450781822205, 0.09068289399147034, 0.2273036539554596, -0.284808874130249, 0.1365031599998474, -0.16253775358200073, -0.11246810853481293, -0.20303590595722198, 0.08285918831825256, 0.22899726033210754, -0.09458750486373901, 0.007868319749832153, -0.022817373275756836, -0.044846177101135254, -0.33398857712745667, 0.06274566054344177, -0.3251500427722931, -0.24606716632843018, -0.10016286373138428, 0.312776654958725, -0.04861500859260559, -0.12037071585655212, 0.31982800364494324, 0.029874205589294434, -0.14233732223510742, 0.20852366089820862, 0.17974135279655457, -0.006622195243835449, -0.16880793869495392, 0.018376797437667847, 0.13918060064315796, -0.29164281487464905, -0.17833347618579865, -0.020222216844558716, 0.1900210678577423, -0.08520331978797913, -0.14207424223423004, -0.23888984322547913, 0.1352410912513733, -0.12135662138462067, 0.3459121286869049, -0.05229195952415466, 0.148466557264328, -0.15932540595531464, 0.18360331654548645, 0.01476314663887024, -0.11922651529312134, -0.13783447444438934]}, "bias": {"shape": [8], "values": [0.29879435896873474, -0.21064624190330505, -0.0575045645236969, 0.17688503861427307, 0.2627696096897125, -0.21539247035980225, -0.24507653713226318, 0.18235298991203308]}}, "hidden_linear.2": {"weight": {"shape": [8, 8], "values": [0.14350786805152893, -0.21884982287883759, -0.08049511909484863, 0.053299665451049805, -0.1219189465045929, -0.0871618390083313, -0.09160822629928589, 0.10158860683441162, 0.0959511399269104, -0.21761631965637207, -0.07507357001304626, -0.15440969169139862, 0.15258446335792542, -0.19191811978816986, -0.2951158583164215, -0.2506437301635742, -0.22972902655601501, -0.1056806892156601, -0.12328968942165375, -0.02966231107711792, 0.08643069863319397, -0.060235023498535156, 0.2111397683620453, -0.26228371262550354, -0.33105847239494324, -0.19728180766105652, 0.05285492539405823, -0.09699520468711853, -0.24277882277965546, -0.1526101976633072, 0.2332530915737152, -0.02250570058822632, -0.15633589029312134, 0.2704424560070038, 0.21869757771492004, -0.12953172624111176, 0.04982954263687134, -0.24150274693965912, 0.3278091847896576, -0.2985694110393524, -0.05801546573638916, -0.30215126276016235, 0.2618660628795624, -0.3373711407184601, -0.19413259625434875, -0.2759914994239807, 0.2399575412273407, 0.030488312244415283, 0.20676198601722717, 0.09960055351257324, -0.33412879705429077, -0.1737898290157318, 0.046880245208740234, -0.2706841230392456, 0.12345832586288452, -0.1907966285943985, 0.03697580099105835, -0.15276917815208435, 0.03740668296813965, 0.14379748702049255, 0.33761081099510193, -0.2905321717262268, 0.18373814225196838, -0.014577656984329224]}, "bias": {"shape": [8], "values": [-0.2514987885951996, 0.24604269862174988, -0.05196824669837952, -0.2842129170894623, -0.21440519392490387, -0.024994730949401855, -0.2798295319080353, -0.025543928146362305]}}}