{"config": {"model_type": "ResGRU", "norm_mean": 0.10000000149011612, "norm_std": 0.8999999761581421}, "parameters": {"input_size": 1, "output_size": 1, "hidden_size": 64, "ps_hidden_size": 8, "ps_num_hidden_layers": 3}, "state_dict": {"rnn": {"weight_hh_l0": {"shape": [192, 64], "values": [-0.06545835733413696, -0.09160745143890381, -0.11948175728321075, 0.012123048305511475, -0.12112490832805634, 0.10408763587474823, -0.001856282353401184, 0.017452463507652283, 0.041363537311553955, -0.06545636057853699, -0.10620325803756714, -0.05083294212818146, 0.0812070369720459, 0.12075601518154144, 0.0932861715555191, 0.08815862238407135, -0.11119604110717773, -0.02254168689250946, -0.025840669870376587, -0.10365401208400726, -0.049930915236473083, 0.1138094812631607, 0.0018185526132583618, -0.06820796430110931, -0.06210622191429138, 0.02526213228702545, -0.11831171810626984, -0.07618123292922974, 0.005291774868965149, -0.10916243493556976, -0.006721720099449158, -0.10578393936157227, 0.049560531973838806, -0.10167276859283447, -0.02884700894355774, 0.1079675704240799, 0.048025667667388916, -0.035994306206703186, 0.03965923190116882, 0.11910426616668701, 0.003082647919654846, -0.015637442469596863, -0.07393601536750793, -0.12203460931777954, -0.05397973954677582, -0.08748580515384674, -0.04301701486110687, 0.024916663765907288, 0.0532170832157135, -0.11759258806705475, -0.05800127983093262, 0.11762291193008423, 0.008168652653694153, 0.0897694081068039, 0.10451348125934601, 0.06092226505279541, -0.03484000265598297, 0.014653921127319336, -0.12017641961574554, 0.11374734342098236, 0.039446666836738586, -0.02735266089439392, -0.05817635357379913, 0.04621933400630951, 0.06759290397167206, 0.03140896558761597, 0.03942549228668213, 0.026252970099449158, 0.10735781490802765, -0.009986519813537598, -0.09898829460144043, -0.023352906107902527, -0.09715661406517029, -0.10183189809322357, 0.11865316331386566, 0.030624106526374817, -0.0048068612813949585, 0.02855786681175232, -0.11792899668216705, -0.028000831604003906, 0.051124900579452515, 0.06707821786403656, -0.09488268196582794, -0.04072144627571106, -0.12134881317615509, 0.03197799623012543, 0.10676240921020508, -0.05479104816913605, 0.04625597596168518, 0.00020304322242736816, 0.06357970833778381, -0.043156012892723083, -0.11417229473590851, 0.10736744105815887, 0.04736629128456116, -0.027891844511032104, -0.08563405275344849, 0.003653407096862793, -0.08219768106937408, -0.06239815056324005, 0.019673854112625122, -0.09506787359714508, -0.044109731912612915, -0.012978166341781616, 0.056897833943367004, -0.038351863622665405, 0.07394063472747803, 0.10557323694229126, -0.039246752858161926, -0.07317250967025757, 0.11509501934051514, -0.04084064066410065, 0.11820952594280243, 0.0010722875595092773, -0.04331222176551819, -0.010977596044540405, -0.02154676616191864, 0.08046691119670868, 0.1037667840719223, -0.02346549928188324, -0.006365865468978882, -0.11431637406349182, 0.03553503751754761, 0.10824063420295715, 0.07440841197967529, 0.0025826096534729004, 0.08451211452484131, -0.032956257462501526, 0.03682476282119751, 0.10580261051654816, -0.051889196038246155, 0.022317662835121155, 0.11372312903404236, 0.0268746018409729, -0.012761011719703674, -0.1045965701341629, -0.08835390210151672, 0.04076743125915527, 0.06853567063808441, -0.03365665674209595, 0.06274622678756714, 0.07544340193271637, -0.07302667200565338, 0.10374517738819122, 0.06500737369060516, -0.07294996082782745, 0.01766076683998108, -0.04051947593688965, -0.09138797223567963, -0.02395877242088318, -0.005301877856254578, -0.1016685962677002, -0.12437070906162262, 0.059827059507369995, 0.11627070605754852, 0.038109198212623596, 0.04954235255718231, -0.01254931092262268, -0.0036427974700927734, 0.012168750166893005, -0.008561953902244568, 0.11810880899429321, -0.08629409968852997, 0.09427441656589508, 0.04143473505973816, -0.11539381742477417, -0.06877154111862183, -0.11118581891059875, 0.01417231559753418, 0.10675841569900513, -0.06188422441482544, 0.10460244119167328, 0.10024002194404602, 0.028658002614974976, -0.07092025876045227, 0.09035615622997284, -0.10271823406219482, -0.11182904243469238, 0.08481666445732117, -0.09377510845661163, -0.046618178486824036, -0.028682425618171692, 0.037032678723335266, -0.08409455418586731, -0.016060933470726013, -0.07053571939468384, 0.123569056391716, -0.030963346362113953, -0.12234486639499664, -0.034720733761787415, 0.04263748228549957, -0.08827923238277435, 0.12028449773788452, -0.013969406485557556, -0.04991242289543152, 0.10080984234809875, -0.11218073964118958, 0.05292271077632904, 0.08577881753444672, 0.10069219768047333, -0.048780426383018494, 0.08039295673370361, -0.04896406829357147, 0.03310780227184296, -0.0393606573343277, -0.05164623260498047, 0.11856202781200409, -0.02283114194869995, 0.08520150184631348, -0.03452141582965851, -0.10944809019565582, 0.002593323588371277, -0.08283156156539917, -0.10746371746063232, 0.12407279014587402, -0.09822103381156921, -0.071248859167099, 0.07908274233341217, -0.09579488635063171, -0.008417606353759766, -0.0589996874332428, -0.06816138327121735, 0.10252493619918823, -0.08054429292678833, -0.058278754353523254, 0.1014375388622284, -0.07320237159729004, -0.05897623300552368, -0.10923734307289124, -0.005283519625663757, -0.036958858370780945, -0.11588463187217712, 0.057109251618385315, -0.00021579861640930176, -0.11637309193611145, 0.1017574667930603, -0.011563703417778015, -0.06920050084590912, 0.10756976902484894, -0.10055474936962128, 0.07694870233535767, 0.035582125186920166, 0.06919068098068237, -0.07675927877426147, -0.05238288640975952, 0.023370981216430664, -0.08425042033195496, -0.04390022158622742, -0.010051041841506958, -0.0024547725915908813, 0.013580992817878723, 0.029914408922195435, -0.031155362725257874, 0.08476594090461731, 0.04307776689529419, 0.04843936860561371, -0.020895764231681824, 0.0964568704366684, -0.012798681855201721, -0.10950616002082825, -2.720952033996582e-05, 0.10145249962806702, 0.10561802983283997, -0.02235633134841919, -0.06124730408191681, 0.0736866295337677, 0.022744357585906982, 0.056844547390937805, -0.03957971930503845, -0.10325980186462402, 0.037707507610321045, -0.0489867627620697, -0.07835768163204193, 0.010100573301315308, 0.09549412131309509, -0.0752478539943695, -0.07000501453876495, -0.02814418077468872, 0.0694902092218399, 0.09291957318782806, -0.0012349933385849, 0.012265890836715698, 0.016248106956481934, -0.06486327946186066, -0.07132607698440552, -0.04579247534275055, 0.06476284563541412, 0.0880199670791626, -0.029673412442207336, -0.020697712898254395, 0.006465941667556763, 0.04464174807071686, -0.0586199015378952, 0.016564026474952698, 0.03415076434612274, -0.0710127204656601, -0.0638435035943985, -0.04157285392284393, 0.03504730761051178, 0.09143625199794769, -0.07349060475826263, -0.09947244822978973, -0.1006184071302414, 0.051165491342544556, -0.019457951188087463, -0.11481614410877228, -0.002589315176010132, 0.03363440930843353, 0.03436584770679474, -0.11114798486232758, -0.12377835810184479, -0.008231908082962036, -0.09819047152996063, -0.04493038356304169, 0.05494266748428345, 0.08584290742874146, -0.005243659019470215, -0.05999237298965454, -0.09405261278152466, 0.018212810158729553, -0.08232033252716064, -0.058493539690971375, 0.1245894581079483, -0.06378734111785889, 0.124130979180336, -0.027498871088027954, 0.0713353157043457, -0.032564446330070496, 0.09472186863422394, -0.10605494678020477, 0.08339796960353851, -0.041211992502212524, 0.10326246917247772, -0.015970468521118164, 0.12448915839195251, -0.008950427174568176, -0.11241646111011505, -0.12225005030632019, 0.10295791923999786, -0.02932053804397583, 0.10426174104213715, 0.023209020495414734, 0.11339734494686127, -0.008377939462661743, -0.033647164702415466, 0.08767165243625641, 0.06950660049915314, -0.017726004123687744, 0.005523905158042908, 0.020359396934509277, -0.07081227004528046, 0.05012798309326172, 0.030241429805755615, -0.09813195466995239, -0.10159589350223541, 0.016240447759628296, 0.08928392827510834, -0.04093910753726959, -0.08581744134426117, -0.020487859845161438, -0.056533440947532654, 0.07333166897296906, 0.06932570040225983, 0.06890177726745605, 0.0970645397901535, -0.053878843784332275, 0.020525231957435608, -0.11723962426185608, 0.11251521110534668, -0.09107168018817902, 0.0636754184961319, -0.004349350929260254, -0.013315290212631226, -0.02135533094406128, 0.058390989899635315, 0.09778667986392975, -0.12287788093090057, -0.04316700994968414, -0.028884440660476685, -0.06020905077457428, -0.04967425763607025, 0.006494879722595215, 0.06368722021579742, -0.09887485206127167, 0.1245494931936264, 0.0756717175245285, -0.05668814480304718, -0.0745415985584259, 0.11516658961772919, -0.1150616854429245, 0.11971873044967651, -0.06985446810722351, 0.06186555325984955, -0.06072036921977997, 0.09624756872653961, 0.03799399733543396, 0.10665717720985413, -0.00011573731899261475, 0.054075852036476135, 0.04708677530288696, 0.010261937975883484, -0.06758297979831696, -0.054846495389938354, -0.09932921826839447, -0.1153271496295929, 0.12272393703460693, 0.12195979058742523, -0.011077389121055603, 0.027381613850593567, -0.02008630335330963, 0.06735499203205109, -0.12393583357334137, 0.12308014929294586, -0.01993975043296814, -0.1211082935333252, -0.05932438373565674, 0.06073969602584839, -0.0798192173242569, 0.08354420959949493, 0.04006125032901764, -0.02505020797252655, 0.0013323426246643066, 0.04117083549499512, -0.02817562222480774, -0.09327113628387451, -0.09961670637130737, -0.07993629574775696, 0.0942993015050888, -0.013423874974250793, 0.041721805930137634, 0.11763404309749603, -0.014263197779655457, -0.11450850963592529, 0.08111788332462311, -0.0652989000082016, 0.03624613583087921, 0.022372573614120483, -0.004672452807426453, -0.05948841571807861, 0.010471716523170471, -0.12309552729129791, 0.00010095536708831787, -0.09938374161720276, 0.07893680036067963, 0.005318507552146912, 0.09930506348609924, -0.09100702404975891, 0.008676305413246155, -0.01710525155067444, 0.1103132963180542, -0.07880270481109619, 0.02693784236907959, 0.0709112286567688, 0.057388171553611755, -0.055386871099472046, 0.013659670948982239, -0.10060566663742065, 0.02725033462047577, 0.08236484229564667, 0.030992329120635986, 0.07009576261043549, 0.11178849637508392, -0.11964006721973419, 0.005703344941139221, 0.049856171011924744, -0.009844407439231873, 0.07452619075775146, -0.09850133955478668, -0.02133519947528839, 0.010291621088981628, -0.10112585127353668, 0.07795701920986176, -0.03403562307357788, 0.11376339197158813, -0.05075980722904205, 0.03812311589717865, 0.013622358441352844, 0.12457284331321716, -0.03058965504169464, 0.040783077478408813, -0.07446126639842987, 0.07572396099567413, 0.047116026282310486, -0.0689658373594284, 0.059770554304122925, -0.022053420543670654, 0.015269249677658081, -0.0034245550632476807, 0.09243784844875336, -0.07797470688819885, 0.054328903555870056, -0.12351152300834656, 0.07213619351387024, 0.019741058349609375, -0.07506044209003448, 0.027570471167564392, -0.11945953965187073, 0.05200864374637604, 0.10423573851585388, 0.003962874412536621, 0.10314644873142242, -0.059165582060813904, 0.08029186725616455, -0.038991108536720276, 0.10573174059391022, 0.09939078986644745, 0.011174693703651428, 0.006176188588142395, -0.09500500559806824, -0.07552497088909149, -0.0374365895986557, -0.11462008953094482, 0.061331987380981445, 0.03659546375274658, 0.0029768943786621094, -0.08525840938091278, -0.07713823020458221, 0.10713529586791992, -0.09827812016010284, 0.12273268401622772, 0.01178768277168274, -0.060059383511543274, -0.004177883267402649, -0.067644402384758, -0.11033500730991364, 0.0143633633852005, 0.08149796724319458, 0.11224867403507233, 0.026609688997268677, 0.0782897025346756, 0.08989621698856354, -0.021484822034835815, -0.11628100275993347, -0.016465067863464355, 0.031658321619033813, 0.07118909060955048, -0.08720840513706207, 0.10097825527191162, -0.06139478087425232, -0.060392946004867554, 0.1108708530664444, 0.08556424081325531, 0.05415402352809906, 0.0179985910654068, 0.11757948994636536, 0.07205265760421753, -0.1232488751411438, 0.11941808462142944, -0.08094646036624908, -0.1163288801908493, 0.03764353692531586, 0.11248143017292023, -0.1237318217754364, -0.08197988569736481, 0.054530367255210876, -0.12156035006046295, 0.05037933588027954, -0.0491509884595871, 0.05018782615661621, 0.01511576771736145, -0.04567694664001465, 0.10713732242584229, -0.12248487770557404, 0.10373927652835846, -0.09021356701850891, 0.1191978007555008, -0.04763402044773102, 0.10636968910694122, -0.04144839942455292, 0.0037637948989868164, 0.06097494065761566, 0.03896188735961914, 0.07335160672664642, -0.0734146386384964, -0.06113550066947937, -0.12486551702022552, -0.03050658106803894, -0.04955631494522095, 0.04907509684562683, -0.08001589775085449, -0.0626920759677887, -0.001630246639251709, -0.04787260293960571, 0.10597540438175201, -0.008129686117172241, -0.07895539700984955, -0.03443272411823273, -0.04019169509410858, -0.0003078579902648926, -0.07820823788642883, 0.03832942247390747, 0.017451629042625427, 0.05594541132450104, -0.04828137159347534, 0.08451567590236664, 0.06597602367401123, -0.10149025917053223, 0.041833698749542236, -0.019539833068847656, 0.04112096130847931, -0.08348800241947174, 0.03570811450481415, -0.1197071224451065, -0.01847665011882782, -0.09795062243938446, -0.004501119256019592, 0.11802931129932404, -0.07056812942028046, -0.001205742359161377, 0.0786227285861969, 0.022442758083343506, -0.11569042503833771, -0.039961859583854675, -0.0009316056966781616, 0.08635210990905762, -0.07981312274932861, -0.03592522442340851, -0.005944252014160156, 0.03770257532596588, -0.0912700742483139, -0.06644991040229797, 0.04530182480812073, 0.031589359045028687, -0.07899422943592072, -0.05366043746471405, -0.03735072910785675, 0.04832427203655243, 0.029312431812286377, -0.03859636187553406, -0.046480655670166016, 0.022633761167526245, 0.027682974934577942, -0.02436564862728119, -0.040191709995269775, -0.02677971124649048, 0.10482160747051239, -0.07921060919761658, -0.0585537850856781, -0.10599935054779053, -0.10797567665576935, 0.024808764457702637, 0.12316751480102539, 0.07685621082782745, 0.10758073627948761, -0.008657768368721008, -0.1237916350364685, 0.08696439862251282, -0.12331926822662354, -0.11967243254184723, 0.08695663511753082, 0.09215366840362549, -0.048904046416282654, -0.07324694097042084, -0.026936978101730347, -0.05431784689426422, 0.08310417830944061, 0.04061448574066162, 0.01166011393070221, -0.03574925661087036, 0.08044949173927307, -0.028737768530845642, -0.005572408437728882, 0.06163777410984039, 0.09058405458927155, 0.04111258685588837, 0.0443665087223053, -0.1111704409122467, 0.12315183877944946, -0.04300640523433685, 0.052025824785232544, 0.10085178911685944, -0.104400634765625, -0.11776010692119598, 0.010377466678619385, 0.024119257926940918, 0.09893433749675751, 0.03101038932800293, 0.03539377450942993, 0.060360223054885864, 0.09900352358818054, -0.10033240914344788, 0.07350476086139679, -0.0739864856004715, 0.011689648032188416, -0.02531854808330536, 0.025741055607795715, 0.09100005030632019, 0.10876542329788208, -0.1002437025308609, -0.10459043085575104, 0.08668985962867737, -0.107977494597435, 0.09983395040035248, 0.03563226759433746, 0.07080066204071045, 0.08124320209026337, -0.10734571516513824, -0.012231826782226562, -0.008087798953056335, -0.07246296107769012, 0.05963967740535736, 0.044166579842567444, 0.038494497537612915, 0.025165989995002747, 0.08342334628105164, 0.09460903704166412, 0.07280908524990082, -0.05432412028312683, 0.11627598106861115, 0.05532693862915039, 0.11438265442848206, -0.03226831555366516, 0.09281283617019653, 0.040186554193496704, -0.01834218204021454, 0.10802730917930603, -0.029861047863960266, -0.08453795313835144, 0.09593270719051361, 0.034245043992996216, 0.09773291647434235, -0.07987309992313385, -0.03303077816963196, 0.020410552620887756, -0.11754125356674194, 0.01772749423980713, 0.09183235466480255, -0.028012946248054504, -0.01332862675189972, 0.10107588768005371, 0.1080283522605896, -0.11820852756500244, -0.040033891797065735, 0.06749333441257477, -0.041662752628326416, -0.04972463846206665, 0.09732991456985474, -0.10715779662132263, 0.11155253648757935, 0.09101234376430511, 0.045541465282440186, 0.08661569654941559, -0.10242006182670593, -0.11396658420562744, -0.027720198035240173, -0.06044532358646393, 0.008838579058647156, 0.04916226863861084, 0.013593718409538269, 0.058847978711128235, 0.05233141779899597, 0.07174886763095856, 0.007899075746536255, 0.12161338329315186, -0.12042799592018127, 0.014313861727714539, 0.08034117519855499, -0.12399633228778839, -0.10674120485782623, -0.04384435713291168, -0.015201404690742493, -0.10381488502025604, -0.06856544315814972, -0.001909404993057251, 0.10723410546779633, 0.02313932776451111, -0.049181535840034485, -0.032234326004981995, -0.08370991051197052, 0.02411988377571106, 0.05703474581241608, -0.053721025586128235, -0.08626128733158112, 0.10885338485240936, 0.07370714843273163, 0.06997905671596527, -0.05274254083633423, 0.06044010818004608, 0.03015121817588806, 0.03822827339172363, 0.0898052304983139, 0.09105770289897919, 0.06749434769153595, 0.031853243708610535, -0.030846089124679565, -0.09763258695602417, 0.06964659690856934, -0.10792216658592224, 0.037367358803749084, -0.06213286519050598, -0.01958063244819641, -0.10693009197711945, 0.08599679172039032, -0.013403087854385376, -0.12066279351711273, -0.05150046944618225, -0.03655041754245758, 0.07065942883491516, -0.008471742272377014, -0.00911642611026764, -0.021911919116973877, 0.07641547918319702, -0.09071937203407288, -0.11555822193622589, -0.09961311519145966, -0.05830413103103638, -0.1071663498878479, -0.021191567182540894, 0.06609515845775604, 0.043886810541152954, 0.08757689595222473, 0.03338058292865753, 0.043107256293296814, 0.10819505155086517, 0.09188716113567352, 0.10908198356628418, 0.02346201241016388, -0.11425831913948059, 0.029175162315368652, -0.08527572453022003, 0.08743870258331299, 0.10632385313510895, -0.05458195507526398, 0.06583712995052338, 0.12043939530849457, -0.12079817056655884, -0.10864725708961487, 0.12389710545539856, -0.03617161512374878, 0.07307282090187073, -0.06812252104282379, -0.05573807656764984, 0.08352689445018768, -0.015453740954399109, -0.10411827266216278, -0.11570204794406891, -0.03612902760505676, -0.10189887881278992, -0.1001008003950119, 0.055101096630096436, -0.12102405726909637, 0.1187305748462677, 0.005079343914985657, 0.042774498462677, -0.04987870156764984, -0.09382361173629761, 0.08057235181331635, 0.10546950995922089, 0.018594250082969666, -0.08834539353847504, 0.009836986660957336, -0.0831097811460495, -0.06738044321537018, 0.11532752215862274, -0.0774579793214798, -0.039063408970832825, 0.06607621908187866, -0.09758397936820984, -0.0636000782251358, 0.09502381086349487, 0.012444555759429932, 0.07145644724369049, -0.1175944060087204, 0.030137255787849426, 0.028576523065567017, -0.005126640200614929, -0.09012086689472198, 0.10481308400630951, -0.10997702181339264, -0.02351328730583191, -0.08274129033088684, 0.03552745282649994, -0.09384842216968536, -0.024813741445541382, 0.0802227109670639, 0.08831565082073212, -0.0070228129625320435, 0.07316963374614716, 0.11598925292491913, 0.0891646146774292, 0.06884618103504181, 0.0007229000329971313, -0.047329261898994446, -0.11307214200496674, 0.009764209389686584, -0.09500038623809814, 0.00629754364490509, 0.03317095339298248, -0.07437014579772949, 0.12355418503284454, -0.015156775712966919, -0.008882954716682434, -0.0846710056066513, -0.01736694574356079, -0.03600466251373291, -0.10575298964977264, 0.08931182324886322, -0.05936112999916077, -0.0188482403755188, 0.04503782093524933, 0.027231022715568542, -0.014369457960128784, -0.10800977051258087, 0.08822356164455414, 0.07957075536251068, -0.038499996066093445, -0.014243245124816895, 0.031571269035339355, -0.10107801854610443, 0.08320848643779755, -0.07409396767616272, 0.005079224705696106, -0.01613830029964447, -0.02726791799068451, -0.01583610475063324, -0.10363081097602844, 0.09613151848316193, -0.009498223662376404, -0.12260660529136658, 0.09677359461784363, -0.07085764408111572, -0.11178438365459442, 0.04718866944313049, -0.11073900759220123, -0.12146133184432983, 0.029255658388137817, 0.05184708535671234, 0.02888810634613037, -0.06297928094863892, -0.1121571809053421, 0.02961549162864685, 0.03662443161010742, 0.06088331341743469, -0.08308468759059906, 0.007621645927429199, 0.051394522190093994, 0.014018133282661438, -0.006419718265533447, 0.03836989402770996, 0.05388768017292023, 0.06103706359863281, -0.11191199719905853, -0.0872749388217926, 0.01648232340812683, -0.1130361407995224, -0.04182809591293335, 0.10208883881568909, 0.06782864034175873, -0.05916675925254822, 0.08913634717464447, -0.06211519241333008, 0.09451250731945038, -0.0760488361120224, 0.08670122921466827, 0.002035781741142273, 0.0004994124174118042, 0.01803767681121826, -0.11275969445705414, 0.10287900269031525, 0.10690994560718536, 0.05878910422325134, 0.06562440097332001, 0.10645376145839691, -0.11142788827419281, -0.10264676809310913, 0.10343578457832336, -0.11227549612522125, 0.06728017330169678, -0.023937925696372986, 0.07593443989753723, -0.061212778091430664, 0.1114979088306427, 0.02877935767173767, 0.05926010012626648, 0.09093469381332397, 0.04794633388519287, -0.04494674503803253, 0.10953977704048157, -0.03990758955478668, -0.03939913213253021, -0.12081381678581238, 0.10278816521167755, -0.09079861640930176, -0.004855707287788391, 0.06028304994106293, 0.06609885394573212, 0.03899244964122772, -0.056664302945137024, 0.0851164311170578, -0.05834868550300598, 0.006990581750869751, -0.10244370996952057, -0.03180307149887085, -0.10279494524002075, 0.008052363991737366, -0.013437420129776001, 0.10810935497283936, -0.10406243801116943, -0.10245178639888763, -0.10942621529102325, -0.10087789595127106, -0.0846019983291626, 0.017229750752449036, -0.10235747694969177, -0.06197786331176758, -0.0041703879833221436, -0.005748242139816284, 0.031039521098136902, 0.023223891854286194, 0.017529085278511047, -0.005182906985282898, 0.06846429407596588, 0.11754009127616882, 0.07206110656261444, -0.07040613889694214, -0.043034136295318604, -0.00017745792865753174, 0.05377793312072754, 0.04167988896369934, 0.0005818158388137817, -0.06770659983158112, -0.02997906506061554, 0.0189855694770813, 0.03300626575946808, -0.02871529757976532, -0.1063256561756134, -0.07370322942733765, 0.1207183450460434, -0.05277851223945618, -0.028201192617416382, 0.00918358564376831, 0.04723744094371796, -0.0072090476751327515, 0.06588044762611389, 0.03912544250488281, -0.02912066876888275, -0.1120053231716156, 0.11865369975566864, 0.012013241648674011, 0.03252597153186798, -0.040165260434150696, 0.056010469794273376, 0.11779262125492096, 0.0234268456697464, -0.04364785552024841, 0.04243971407413483, -0.01381637156009674, 0.11559358239173889, -0.11548209190368652, -0.05858859419822693, 0.08555126190185547, -0.07285483181476593, -0.012037485837936401, -0.010638505220413208, -0.048565417528152466, -0.10913118720054626, -0.06808966398239136, -0.031514450907707214, 0.004783362150192261, -0.052201077342033386, 0.06064847111701965, 0.0421055406332016, -0.07905110716819763, -0.11847129464149475, -0.11663821339607239, -0.09753185510635376, 0.02717757225036621, 0.04076297581195831, 0.11271096765995026, -0.03205513954162598, -0.09747467935085297, -0.012845993041992188, -0.04218095541000366, -0.06914860010147095, -0.009117931127548218, 0.027656540274620056, 0.10610614717006683, -0.015406623482704163, -0.11640329658985138, -0.026386141777038574, 0.03405874967575073, -0.10526716709136963, -0.011903136968612671, -0.05990895628929138, -0.10606348514556885, 0.09385205805301666, 0.04690571129322052, -0.12180402874946594, -0.04169873893260956, -0.11104901134967804, -0.09085579216480255, 0.022980228066444397, 0.013604283332824707, 0.014068618416786194, 0.023745179176330566, 0.08806315064430237, 0.05304412543773651, 0.059048131108284, 0.008696302771568298, 0.03934831917285919, 0.010290920734405518, -0.10730662941932678, -0.08266714215278625, 0.09849925339221954, -0.0552418977022171, -0.003067493438720703, 0.05428275465965271, -0.11059035360813141, 0.09115101397037506, -0.11229769885540009, -0.1078764945268631, 0.06305138766765594, -0.0479341596364975, -0.1032324880361557, 0.0754111260175705, 0.10683475434780121, -0.10359780490398407, -0.11244615912437439, 0.0026535093784332275, 0.08643123507499695, 0.05478319525718689, 0.04578474164009094, 0.0882824957370758, 0.10715870559215546, -0.05731925368309021, -0.09430302679538727, -0.07269629836082458, 0.015885308384895325, -0.019304141402244568, 0.010811999440193176, -0.07606442272663116, 0.08505004644393921, -0.04642602801322937, -0.08935078978538513, -0.04589879512786865, 0.015217572450637817, -0.10889120399951935, 0.12270218133926392, 0.12470264732837677, -0.017840847373008728, 0.06362217664718628, 0.06501515209674835, 0.10504230856895447, -0.0783703476190567, 0.01863403618335724, 0.022511661052703857, 0.017512232065200806, 0.06050992012023926, -0.11298038065433502, -0.05093282461166382, 0.11036895215511322, 0.08486130833625793, -0.043222710490226746, 0.01996833086013794, 0.02290782332420349, 0.04333449900150299, -0.01661500334739685, -0.10323874652385712, 0.07240268588066101, -0.0235881507396698, -0.04553188383579254, 0.06532604992389679, 0.1070769876241684, -0.019103139638900757, -0.0030147433280944824, -0.08115829527378082, -0.026420503854751587, -0.005819231271743774, -0.08146777749061584, 0.022625625133514404, 0.03352442383766174, -0.07765083014965057, -0.10788358747959137, -0.05539537966251373, 0.04814527928829193, -0.08805975317955017, -0.005521878600120544, 0.10531799495220184, 0.015405267477035522, 0.08439190685749054, 0.03841991722583771, -0.011220097541809082, 0.11635026335716248, 0.011491715908050537, 0.04079604148864746, -0.11368505656719208, 0.09760776162147522, -0.04993806779384613, 0.11298058927059174, -0.056865349411964417, -0.11264678835868835, -0.10956992208957672, -0.08377495408058167, -0.0034758001565933228, 0.03193014860153198, -0.07773871719837189, -0.07480491697788239, 0.009299084544181824, -0.031134992837905884, -0.05612725019454956, -0.04816681146621704, -0.007866054773330688, 0.08578546345233917, 0.09181708097457886, -0.10270215570926666, -0.09066586196422577, -0.01374344527721405, 0.121854767203331, 0.00085487961769104, -0.06254959106445312, 0.08615981042385101, 0.06659507751464844, 0.12407717108726501, -0.0580328106880188, 0.06699506938457489, 0.11999033391475677, 0.007782042026519775, -0.07027298212051392, 0.07169492542743683, -0.08953998982906342, 0.06114639341831207, -0.04062053561210632, 0.07230286300182343, -0.027933239936828613, -0.11664475500583649, 0.10069338977336884, 0.11931027472019196, 0.11620920896530151, 0.01288914680480957, 0.009298831224441528, 0.03957577049732208, -0.06609798967838287, -0.006906911730766296, -0.07757966220378876, -0.07745061814785004, -0.07212261855602264, 0.08130928874015808, -0.007836982607841492, 0.002566814422607422, -0.04157325625419617, 0.036890000104904175, 0.07483336329460144, 0.12169836461544037, -0.04468703269958496, -0.060583651065826416, 0.049236804246902466, -0.08101853728294373, 0.07734520733356476, 0.07325407862663269, 0.028601601719856262, 0.030540376901626587, 0.06288537383079529, 0.048618391156196594, -0.06978185474872589, 0.09339229762554169, 0.10696211457252502, -0.03664064407348633, 0.023174762725830078, 0.11682513356208801, 0.11708691716194153, 0.003217920660972595, 0.044157952070236206, 0.046973809599876404, -0.07500286400318146, 0.12125056982040405, -0.1077667772769928, -0.11272644996643066, 0.016066089272499084, 0.0555693656206131, -0.07719767093658447, 0.04562041163444519, -0.071402907371521, 0.032064855098724365, -0.056182801723480225, -0.11988028883934021, 0.04174801707267761, 0.021042734384536743, -0.0009768009185791016, 0.005140617489814758, -0.05950917303562164, -0.05542978644371033, 0.039094969630241394, 0.03328301012516022, -0.06712985038757324, 0.06620442867279053, 0.05627827346324921, 0.0933031290769577, 0.11049152910709381, 0.09587639570236206, 0.041768431663513184, 0.00993587076663971, -0.08991087973117828, 0.054507747292518616, -0.04147270321846008, 0.010182604193687439, 0.08958758413791656, 0.08259046077728271, -0.07293468713760376, -0.006288737058639526, 0.12142904102802277, -0.025674521923065186, -0.06539145112037659, -0.07214607298374176, -0.021583452820777893, 0.12054358422756195, 0.1136343777179718, -0.09802675247192383, 0.030000165104866028, 0.036331310868263245, 0.012753978371620178, 0.08194994926452637, -0.09005910158157349, 0.021525397896766663, -0.016261637210845947, -0.12028835713863373, -0.01834416389465332, -0.009560510516166687, -0.07516582310199738, -0.08265827596187592, 0.10219109058380127, -0.09866461157798767, -0.12348493933677673, -0.051903337240219116, 0.0693570077419281, -0.10856528580188751, -0.07547496259212494, 0.05532628297805786, -0.12130758166313171, 0.0934067964553833, -0.02061574161052704, -0.006403043866157532, 0.020971029996871948, -0.02512538433074951, -0.08005757629871368, -0.0914214700460434, -0.05742146074771881, -0.05077487230300903, -0.019356325268745422, 0.032426297664642334, -0.11294257640838623, -0.0729106068611145, -0.04381658136844635, 0.07685557007789612, 0.06473006308078766, 0.04831966757774353, -0.06875264644622803, -0.08243608474731445, 0.05715209245681763, 0.11273923516273499, -0.012689873576164246, -0.10500156879425049, -0.0853777676820755, -0.053543105721473694, -0.12349861860275269, -0.11799639463424683, -0.08275142312049866, 0.07439447939395905, 0.004968330264091492, -0.11006134748458862, 0.01046040654182434, -0.03217241168022156, 0.011908560991287231, 0.12354551255702972, -0.11876551806926727, 0.06579871475696564, 0.004817977547645569, -0.09184136986732483, 0.07088533043861389, 0.04969283938407898, 0.011044532060623169, -0.019848763942718506, -0.02573108673095703, -0.06357607245445251, -0.06538474559783936, 0.04593195021152496, -0.01990737020969391, 0.12364783883094788, 0.04927772283554077, -0.0818776935338974, -0.10439078509807587, -0.0396428108215332, 0.07419796288013458, 0.08370658755302429, 0.006149321794509888, -0.11850897967815399, -0.019173800945281982, 0.0832555741071701, -0.09091965854167938, -0.0006875544786453247, 0.08892151713371277, 0.09834958612918854, 0.11148074269294739, -0.025353223085403442, 0.075182244181633, -0.027784153819084167, -0.04726630449295044, 0.06705337762832642, 0.0741506814956665, -0.08884593844413757, -0.056507036089897156, 0.026205748319625854, -0.007827535271644592, 0.12298215925693512, 0.01959232985973358, 0.04079920053482056, 0.07212197780609131, 0.08201205730438232, 0.12039624154567719, 0.04802073538303375, 0.020262211561203003, -0.033198267221450806, -0.020830094814300537, 0.06516599655151367, -0.03569820523262024, 0.05342292785644531, -0.11463572084903717, 0.03773537278175354, -0.10690437257289886, -0.08130615949630737, 0.0012627243995666504, 0.05475863814353943, 0.0756203830242157, -0.05200366675853729, 0.0695117712020874, 0.0621572881937027, 0.05138367414474487, -0.011547744274139404, -0.10720238089561462, -0.0008368045091629028, 0.06510251760482788, -0.044357627630233765, -0.11032307147979736, -0.052195340394973755, 0.007951155304908752, -0.0717664510011673, 0.09960629045963287, 0.10397467017173767, -0.11475090682506561, -0.013751387596130371, -0.010838150978088379, -0.03006884455680847, 0.08541488647460938, -0.03827454149723053, -0.08217345178127289, -0.10191453993320465, 0.06576912105083466, 0.04599602520465851, 0.09855583310127258, -0.0436585396528244, -0.11177310347557068, -0.11409121751785278, -0.03162069618701935, 0.0023594796657562256, -0.014224663376808167, -0.005540817975997925, -0.07142619788646698, 0.04447494447231293, 0.039033517241477966, -0.12114545702934265, 0.10991993546485901, 0.06660418212413788, -0.04539136588573456, -0.11717768013477325, -0.03878644108772278, -0.11353783309459686, -0.05357980728149414, -0.054752692580223083, -0.04053857922554016, -0.11462070047855377, 0.07627831399440765, -0.12342201173305511, 0.11130481958389282, -0.07893973588943481, 0.005343839526176453, 0.022074416279792786, -0.024125754833221436, -0.06559528410434723, 0.064917653799057, 0.028001219034194946, 0.1123373955488205, 0.01908080279827118, -0.055870696902275085, 0.044561997056007385, -0.005313128232955933, -0.06776364147663116, 0.1046278327703476, 0.10840356349945068, -0.03592601418495178, 0.10711339116096497, -0.015380516648292542, -0.03704759478569031, 0.12423138320446014, 0.10348552465438843, 0.060899585485458374, -0.07371827960014343, 0.044753000140190125, 0.07212625443935394, 0.019129157066345215, -0.040154486894607544, 0.0296972393989563, 0.022418931126594543, -0.12401169538497925, -0.08003056049346924, -0.03936821222305298, -0.11257654428482056, -0.06371583044528961, -0.0673372745513916, -0.03541594743728638, -0.03859663009643555, 0.09529909491539001, 0.09585456550121307, 0.06339739263057709, 0.022216930985450745, 0.052481889724731445, 0.05222509801387787, 0.04030826687812805, 0.09709978103637695, 0.0658845454454422, -0.07975208759307861, 0.09782136976718903, 0.005079165101051331, 0.09081637859344482, 0.06794489920139313, 0.004288762807846069, 0.11467161774635315, 0.04883413016796112, -0.08667023479938507, 0.07905133068561554, -0.055694580078125, 0.00013209879398345947, -0.09405204653739929, 0.019480571150779724, -0.013584420084953308, -0.025513142347335815, -0.008937835693359375, -0.024396345019340515, -0.07670089602470398, -0.08552135527133942, 0.08466286957263947, -0.007844299077987671, 0.09472399950027466, -0.023881256580352783, 0.10965891182422638, -0.020758986473083496, -0.012549623847007751, 0.01970823109149933, -0.022402897477149963, -0.07616874575614929, -0.04448050260543823, 0.07816113531589508, 0.09677256643772125, -0.02673247456550598, 0.013775497674942017, -0.04722176492214203, 0.12374353408813477, -0.10726886987686157, 0.05301859974861145, -0.08721017837524414, 0.09451553225517273, -0.03169828653335571, 0.11992250382900238, -0.00043126940727233887, -0.07313480973243713, 0.10169914364814758, 0.06118759512901306, 0.07130934298038483, -0.12272635102272034, -0.057872891426086426, 0.10985979437828064, -0.10085846483707428, 0.11314252018928528, 0.10289198160171509, 0.1035165786743164, -0.07612146437168121, 0.008968770503997803, 0.09266969561576843, 0.09624482691287994, -0.11031968891620636, 0.007271707057952881, -0.07521715760231018, 0.1233043521642685, -0.08674421906471252, -0.07730276882648468, -0.0824301689863205, 0.030344858765602112, 0.06301499903202057, 0.1094830185174942, -0.04520857334136963, 0.07284079492092133, 0.10621082782745361, 0.10521678626537323, -0.008435770869255066, 0.0762440413236618, 0.05158153176307678, -0.020256221294403076, 0.11155995726585388, -0.061778172850608826, 0.06313040852546692, 0.044855132699012756, -0.03843240439891815, -0.10571126639842987, -0.047852516174316406, 0.0911097526550293, 0.0421362966299057, 0.003603622317314148, -0.07652100920677185, 0.03532913327217102, 0.0021414756774902344, -0.04077710211277008, -0.0374445766210556, 0.10234051942825317, 0.0335761159658432, -0.11777888238430023, 0.09680512547492981, -0.015023872256278992, -0.1160149872303009, 0.09576946496963501, 0.09120665490627289, -0.12359412014484406, 0.09489604830741882, -0.04940502345561981, 0.12203098833560944, -0.04327520728111267, 0.09709638357162476, -0.08136056363582611, -0.025715738534927368, 0.018476471304893494, 0.049924686551094055, 0.06535585224628448, 0.08816944062709808, 0.0634818822145462, 0.0692940354347229, 0.0612446665763855, 0.011101752519607544, 0.0351639986038208, -0.03592999279499054, 0.107765793800354, -0.03724248707294464, -0.018686652183532715, -0.04836677014827728, -0.11505632102489471, -0.05117042362689972, 0.11884547770023346, -0.08376181125640869, 0.08212901651859283, 0.1186458021402359, 0.0709693431854248, 0.04730299115180969, -0.096406489610672, 0.10427118837833405, -0.0884585827589035, 0.029563412070274353, -0.02269788086414337, -0.035190701484680176, -0.07474105060100555, 0.04915867745876312, 0.08103936910629272, -0.04786694049835205, 0.05034223198890686, -0.025455236434936523, 0.11672574281692505, -0.014174774289131165, 0.02114841341972351, 0.05297991633415222, 0.09081780910491943, -0.060057953000068665, -0.11422277987003326, -0.11108292639255524, 0.12357555329799652, -0.06806150078773499, -0.0760536640882492, -0.05746683478355408, -0.09487199783325195, 0.07379946112632751, -0.07862372696399689, -0.0796554684638977, -0.0010720789432525635, 0.022643759846687317, 0.029878437519073486, 0.10634340345859528, -0.12222495675086975, -0.003291890025138855, 0.08290520310401917, -0.029704540967941284, 0.10990317165851593, -0.07803621888160706, -0.09038931131362915, -0.03967629373073578, -0.10533678531646729, -0.07717481255531311, 0.08637046813964844, 0.12449786067008972, -0.06267860531806946, -0.09035363793373108, 0.11670877039432526, 0.004429161548614502, 0.022184252738952637, 0.09422330558300018, -0.09017711877822876, -0.01584620773792267, -0.051820993423461914, 0.05141039192676544, -0.04010401666164398, -0.042232051491737366, 0.117720827460289, 0.12280488014221191, -0.0942046046257019, -0.06509855389595032, -0.11223670840263367, 0.10933937132358551, 0.041327014565467834, -0.08440789580345154, 0.1211385428905487, 0.013436615467071533, 0.03540375828742981, -0.02468496561050415, 0.06313328444957733, 0.08870357275009155, 0.034652501344680786, -0.023888826370239258, -0.10560683906078339, 0.07640652358531952, -0.1163174957036972, 0.08962762355804443, -0.05174019932746887, -0.047170355916023254, -0.026236414909362793, -0.02041865885257721, -0.023115381598472595, -0.09358657896518707, 0.08953781425952911, 0.04818892478942871, -0.0103473961353302, -0.03768476843833923, 0.10203677415847778, -0.11972829699516296, -0.0386665016412735, 0.006433397531509399, -0.08864808082580566, -0.0858173668384552, -0.09032104909420013, -0.07054455578327179, 0.06696814298629761, 0.0498272180557251, -0.06788422167301178, -0.00016827881336212158, -0.07358549535274506, -0.062367379665374756, 0.08467178046703339, -0.10736741125583649, -0.025653913617134094, -0.07083363831043243, 0.022051051259040833, -0.014820516109466553, -0.09059099853038788, -0.09355492889881134, -0.03286482393741608, 0.02863319218158722, -0.039027974009513855, -0.10648931562900543, 0.06342338025569916, -0.024041220545768738, 0.054362952709198, 0.09839834272861481, -0.031356081366539, -0.08642366528511047, -0.034195974469184875, -0.10484427213668823, 0.042562514543533325, -5.672872066497803e-05, -0.035710886120796204, 0.08009563386440277, 0.09510746598243713, 0.11716236174106598, -0.07416880130767822, -0.04716421663761139, 0.02771928906440735, 0.12411150336265564, 0.06777849793434143, -0.07131628692150116, 0.0789555013179779, -0.12354147434234619, 0.1039629876613617, 0.11836709082126617, -0.03430682420730591, 0.02634929120540619, -0.03541497886180878, -0.10272513329982758, 0.10804307460784912, -0.05674511194229126, -0.022001296281814575, 0.04720786213874817, -0.0909435898065567, -0.07276961207389832, 0.08455222845077515, -0.08448004722595215, -0.006056293845176697, 0.08496859669685364, 0.02500547468662262, -0.08983325958251953, -0.04117515683174133, -0.007534340023994446, 0.03891181945800781, -0.06468372046947479, -0.11309991776943207, -0.06496372818946838, 0.044883355498313904, -0.05148234963417053, -0.03730711340904236, 0.024229779839515686, -0.00403517484664917, -0.085300013422966, -0.10816159844398499, 0.11168469488620758, -0.034057483077049255, -0.040232330560684204, 0.10061369836330414, -0.0988183468580246, -0.09534597396850586, -0.07217667996883392, 0.12128758430480957, 0.009520918130874634, 0.12262746691703796, 0.04804818332195282, 0.059523120522499084, -0.06013891100883484, 0.07452815771102905, 0.06572599709033966, 0.06268061697483063, -0.0465141236782074, -0.024177730083465576, 0.013596370816230774, -0.020635098218917847, 0.12066584825515747, 0.08971701562404633, 0.003422349691390991, 0.10277572274208069, -0.03645019233226776, 0.11653688549995422, 0.09150262176990509, 0.00893808901309967, -0.008836418390274048, 0.04790216684341431, 0.06417140364646912, -0.10097748041152954, -0.03936220705509186, 0.10645037889480591, 0.10927876830101013, 0.09039963781833649, -0.04922226071357727, 0.03303714096546173, 0.01400613784790039, 0.05010347068309784, 0.015346214175224304, -0.1067306399345398, 0.01485493779182434, -0.021962910890579224, 0.10379429161548615, 0.09719498455524445, 0.033761605620384216, 0.022797703742980957, -0.00874096155166626, 0.010740697383880615, -0.05638742446899414, -0.06549614667892456, -0.08850307762622833, -0.019091203808784485, -0.10746745765209198, -0.01388809084892273, -0.006405457854270935, 0.006800174713134766, -0.07526949048042297, 0.12304753065109253, -0.0783555805683136, 0.01848900318145752, -0.0133439302444458, 0.08211226761341095, 0.10307466983795166, -0.028333187103271484, -0.06516450643539429, -0.0829104483127594, -0.09335412085056305, -0.07702396810054779, -0.04683573544025421, -0.09309768676757812, 0.04853557050228119, 0.05341699719429016, -0.0015218555927276611, 0.00812084972858429, -0.015462294220924377, 0.08850452303886414, -0.0008107423782348633, -0.041418492794036865, 0.08737565577030182, -0.09993802011013031, -0.11886224150657654, -0.0665842741727829, 0.06394584476947784, -0.07315927743911743, 0.01259806752204895, 0.00017634034156799316, -0.014683514833450317, 0.1143563985824585, -0.07932344079017639, 0.0794445276260376, 0.09722958505153656, 0.05659571290016174, 0.08734637498855591, -0.10625743865966797, 0.06216810643672943, -0.10380816459655762, -0.08492565155029297, -0.06395642459392548, 0.019079089164733887, -0.07022863626480103, -0.02823290228843689, -0.025095492601394653, 0.0035473257303237915, -0.037224769592285156, -0.03230714797973633, 0.06226862967014313, -0.0023112893104553223, 0.04799504578113556, -0.07554200291633606, -0.014363378286361694, -0.04812893271446228, 0.09745655953884125, 0.05773043632507324, -0.1069551408290863, 0.056898847222328186, -0.04902547597885132, 0.03329862654209137, 0.12038779258728027, 0.07540085911750793, 0.046689629554748535, 0.09455373883247375, 0.012213632464408875, 0.02358432114124298, -0.010271191596984863, -0.024427935481071472, -0.006637781858444214, -0.012053459882736206, 0.08910422027111053, -0.048223644495010376, -0.08617211878299713, -0.10595007240772247, -0.0577605664730072, 0.10658586025238037, 0.0879133939743042, -0.08852437138557434, 0.04497188329696655, 0.06649510562419891, -0.09780333936214447, -0.05721624195575714, -0.0582805871963501, 0.06518641114234924, -0.08337056636810303, -0.024397924542427063, 0.11275824904441833, 0.04086540639400482, -0.052104368805885315, 0.007405117154121399, -0.016743123531341553, -0.053943708539009094, -0.05716373026371002, -0.0158703476190567, -0.0167982280254364, -0.08685903251171112, 0.11738221347332001, 0.056035131216049194, -0.07782809436321259, 0.0379209965467453, 0.1151115894317627, -0.08189940452575684, 0.12489786744117737, -0.037656694650650024, 0.0054999589920043945, 0.0847664475440979, -0.070651575922966, 0.05757175385951996, 0.07051299512386322, -0.05053895711898804, 0.07861599326133728, 0.06966951489448547, 0.07151269912719727, -0.112277090549469, 0.034337401390075684, 0.01784224808216095, -0.07892705500125885, -0.023195922374725342, 0.037906959652900696, -0.03794205188751221, -0.023824110627174377, -0.11114740371704102, -0.11763875186443329, 0.04463888704776764, 0.04893900454044342, -0.0377172976732254, 0.0946245938539505, 0.034477949142456055, -0.06739947199821472, -0.046431005001068115, -0.016833215951919556, -0.07861880958080292, 0.07612283527851105, -0.0036580562591552734, 0.005692958831787109, -0.028086766600608826, 0.07994726300239563, 0.08171527087688446, 0.06954061985015869, 0.0683627724647522, 0.09436553716659546, -0.1095694899559021, -0.09888546168804169, -0.10435241460800171, 0.017558470368385315, 0.09347571432590485, 0.10419480502605438, -0.03666660189628601, 0.020259961485862732, 0.007513701915740967, 0.04151277244091034, -0.09073171019554138, 0.05195942521095276, -0.06286641955375671, 0.049662575125694275, -0.017812758684158325, 0.0826762467622757, 0.0885627269744873, 0.1156194657087326, 0.0738702118396759, 0.027863889932632446, -0.07692144811153412, 0.05326341092586517, 0.04799772799015045, -0.08260010182857513, 0.05881205201148987, -0.06906738877296448, 0.040572285652160645, 0.11133597791194916, -0.10580641031265259, -0.10659986734390259, -0.06726139783859253, -0.02649681270122528, 0.10344211757183075, -0.021172121167182922, 0.07278534770011902, 0.0684051513671875, -0.015151023864746094, 0.08463042974472046, 0.03469635546207428, 9.828805923461914e-05, -0.1016426682472229, 0.026039689779281616, -0.06014503538608551, 0.08570216596126556, -0.0713634192943573, -0.0009510964155197144, 0.06152297556400299, -0.08171333372592926, 0.07207369804382324, 0.005325019359588623, 0.04725325107574463, -0.09197330474853516, 0.07547736167907715, 0.05073961615562439, 0.10010223090648651, 0.11807335913181305, -0.08247284591197968, 0.08194194734096527, 0.0071970075368881226, -0.02397991716861725, -0.11910605430603027, 0.1239248663187027, -0.037779301404953, -0.08500249683856964, -0.10323061048984528, 0.036515384912490845, 0.10868768393993378, 0.002510160207748413, 0.11986586451530457, 0.0016774386167526245, 0.06796997785568237, 0.09674206376075745, 0.09800131618976593, -0.07958412170410156, 0.06472413241863251, 0.056766971945762634, 0.04748879373073578, -0.09821566939353943, -0.10619080066680908, -0.0285787433385849, -0.006711438298225403, 0.08501601219177246, -0.08544638752937317, -0.013620153069496155, 0.08572220802307129, 0.02145397663116455, 0.09012186527252197, 0.06093776226043701, -0.05846390128135681, -0.03660576045513153, -0.016991794109344482, -0.006224900484085083, 0.06422996520996094, 0.0045541077852249146, 0.016525551676750183, 0.10868464410305023, -0.12195746600627899, 0.1245582103729248, -6.505846977233887e-05, 0.06437239050865173, -0.09118549525737762, -0.11046534776687622, -0.11753837764263153, 0.006759151816368103, -0.06268918514251709, -0.10368570685386658, 0.03350012004375458, 0.060293763875961304, -0.022839784622192383, 0.00714091956615448, -0.00894436240196228, -0.027975350618362427, 0.06845368444919586, -0.08104780316352844, -0.01856483519077301, 0.10734577476978302, 0.044711366295814514, 0.0931314080953598, 0.0053932517766952515, -0.007643848657608032, -0.08311231434345245, -0.05704502761363983, -0.03585571050643921, -0.04730147123336792, -0.08479323983192444, 0.12128782272338867, 0.09698411822319031, 0.12024027109146118, 0.08932681381702423, -0.08859439194202423, -0.10660673677921295, -0.09081007540225983, 0.012500882148742676, 0.10708759725093842, 0.012040942907333374, -0.034842461347579956, 0.0790284276008606, 0.1118745505809784, -0.0018269866704940796, 0.020500600337982178, 0.12171272933483124, 0.009061753749847412, -0.11189262568950653, 0.09821359813213348, -0.011654660105705261, -0.0950232744216919, -0.10038784146308899, -0.04100927710533142, 0.09071588516235352, 0.025372475385665894, -0.002125486731529236, -0.12194192409515381, -0.10463474690914154, -0.10980609059333801, 0.08751600980758667, -0.076337069272995, 0.07929942011833191, 0.0598108172416687, 0.02805425226688385, -0.049444034695625305, 0.0025244057178497314, -0.08755169808864594, -0.0729750543832779, 0.10243856906890869, -0.10326771438121796, -0.01707547903060913, -0.0818619430065155, -0.019212648272514343, 0.09850099682807922, -0.08680453896522522, 0.09596286714076996, -0.01169586181640625, 0.05848075449466705, 0.09954917430877686, 0.06064938008785248, -0.1239127367734909, 0.0168159157037735, 0.12242762744426727, 0.07106447219848633, -0.027435660362243652, 0.10164874792098999, 0.016992896795272827, 0.1183980405330658, 0.07988083362579346, -0.08966770768165588, -0.007772907614707947, 0.036196961998939514, 0.04678577184677124, -0.07477177679538727, 0.031214639544487, 0.08885429799556732, 0.04847745597362518, 0.09670117497444153, 0.12106700241565704, -0.018230438232421875, 0.01607625186443329, -0.08944624662399292, 0.104726642370224, -0.08279463648796082, -0.09453056752681732, 0.12043242156505585, 0.03751935064792633, -0.021685436367988586, -0.05775921046733856, 0.10127727687358856, -0.012200266122817993, -0.04929743707180023, -0.10361018776893616, -0.07369701564311981, 0.0800866186618805, 0.06077645719051361, 0.017743945121765137, -0.02670183777809143, -0.02576364576816559, -0.10456983745098114, -0.0939062237739563, 0.11640101671218872, -0.03505967557430267, 0.05196563899517059, 0.05486087501049042, 0.05552971363067627, 0.11053720116615295, 0.08186827600002289, -0.05111299455165863, 0.09430521726608276, 0.06987777352333069, -0.08924098312854767, -0.038247108459472656, -0.007888048887252808, 0.054050177335739136, -0.031127244234085083, -0.022614195942878723, 0.05657495558261871, -0.0696643590927124, 0.11278286576271057, -0.015733957290649414, 0.06244604289531708, -0.01887361705303192, -0.0593445748090744, 0.07755742967128754, -0.04784664511680603, -0.08203952014446259, 0.1110043078660965, -0.11769784986972809, -0.07184524834156036, 0.1003102958202362, 0.05692987143993378, 0.018771737813949585, 0.11844891309738159, -0.019989028573036194, 0.09428568184375763, -0.08440239727497101, 0.044178083539009094, 0.1179555207490921, -0.10243088006973267, -0.08369050920009613, 0.02797982096672058, 0.042776912450790405, -0.005867376923561096, 0.08914534747600555, -0.007636129856109619, -0.12081015110015869, -0.04085743427276611, 0.0011325180530548096, 0.10839782655239105, 0.04751706123352051, -0.011198222637176514, -0.03829964995384216, 0.02363450825214386, -0.038516685366630554, 0.05076305568218231, -0.014524340629577637, -0.02312225103378296, -0.1076013594865799, 0.03426794707775116, 0.03799566626548767, 0.005881115794181824, -0.06663034856319427, -0.022152677178382874, -0.0016658306121826172, 0.018803343176841736, 0.005594238638877869, 0.0502483993768692, 0.09325054287910461, -0.017460405826568604, -0.055944010615348816, -0.03928282856941223, 0.11686146259307861, 0.10165613889694214, 0.06713278591632843, -0.041995540261268616, 0.0818539559841156, -0.08750109374523163, -0.11350025236606598, -0.02613326907157898, 0.004955485463142395, -0.11210295557975769, 0.11427316069602966, 0.12335042655467987, 0.046393439173698425, 0.029104575514793396, 0.03156343102455139, 0.031406402587890625, -0.04879392683506012, 0.0801081508398056, -0.042792513966560364, -0.11382299661636353, 0.10028207302093506, 0.07455618679523468, -0.11052629351615906, 0.044110432267189026, -0.08047989010810852, -0.10147589445114136, -0.08245907723903656, 0.07433360815048218, -0.011701703071594238, -0.11269593238830566, 0.07049889862537384, 0.09477996826171875, -0.023872241377830505, 0.04099361598491669, 0.025440827012062073, 0.04588600993156433, 0.061789631843566895, -0.05424235761165619, -0.047199547290802, 0.10930544137954712, -0.0647813230752945, -0.07674053311347961, 0.01723332703113556, -0.114669069647789, -0.040456622838974, 0.08601798117160797, 0.018751755356788635, -0.09837804734706879, 0.09294553101062775, -0.09180137515068054, 0.12276224792003632, 0.030459463596343994, 0.027874603867530823, 0.0323723703622818, -0.07336035370826721, -0.12216928601264954, -0.12154607474803925, -0.060191527009010315, 0.12027992308139801, -0.046837568283081055, 0.04714955389499664, 0.11248797178268433, 0.09926974773406982, -0.05079543590545654, 0.08425407111644745, 0.004838600754737854, 0.05819550156593323, 0.07411672174930573, -0.03546757996082306, -0.12155286967754364, 0.007756233215332031, 0.024760276079177856, -0.03133730590343475, -0.09863528609275818, -0.022353872656822205, -0.08336827158927917, -0.03268177807331085, 0.07658140361309052, 0.019062846899032593, 0.030892878770828247, -0.008151158690452576, 0.11079190671443939, 0.09603320062160492, -0.048399344086647034, 0.10808934271335602, -0.0008597373962402344, -0.01652558147907257, 0.010328501462936401, -0.1112600713968277, 0.034434542059898376, 0.11303916573524475, -0.05793456733226776, -0.03497391939163208, 0.042213693261146545, -0.0028539150953292847, -0.1060846596956253, -0.07846434414386749, -0.11508162319660187, -0.12334416806697845, -0.12074108421802521, -0.03995175659656525, 0.06146088242530823, -0.10963952541351318, -0.03400115668773651, 0.04395279288291931, 0.03418588638305664, 0.001654297113418579, -0.07995593547821045, -0.08178381621837616, 0.07940290868282318, 0.06440365314483643, -0.053681880235672, 0.044621631503105164, -0.05240724980831146, 0.005191415548324585, 0.12046968936920166, -0.061918944120407104, -0.12321363389492035, -0.12453080713748932, -0.07584472000598907, -0.032445281744003296, 0.008879393339157104, -0.014474153518676758, -0.07758182287216187, 0.0496671199798584, 0.00928892195224762, -0.051089122891426086, 0.08947950601577759, 0.049029260873794556, 0.0992218554019928, -0.01390722393989563, 0.0622163861989975, 0.070468470454216, 0.05122701823711395, 0.05092187225818634, -0.034466490149497986, -0.060862451791763306, -0.12238450348377228, -0.009819552302360535, -0.08990024030208588, 0.005515456199645996, -0.038921043276786804, -0.05675676465034485, -0.00961555540561676, -0.11029581725597382, 0.04807397723197937, -0.035352617502212524, 0.05744543671607971, -0.0019740164279937744, -0.022820323705673218, 0.088553786277771, 0.07616499066352844, 0.0448945015668869, 0.1144157201051712, 0.02868717908859253, 0.04581350088119507, 0.08065140247344971, 0.03859744966030121, -0.09595176577568054, 0.09286539256572723, -0.0037489384412765503, 0.11897347867488861, 0.08509235084056854, 0.08705741167068481, -0.07464127242565155, 0.002574056386947632, 0.061217889189720154, -0.07725442945957184, -0.1246921718120575, -0.07118439674377441, 0.04637160897254944, -0.01797167956829071, -0.1117679625749588, 0.08079315721988678, 0.10514384508132935, 0.08494102954864502, -0.057029128074645996, 0.1209033727645874, -0.0767890214920044, -0.016819164156913757, -0.008566871285438538, -0.05775044858455658, -0.05660441517829895, 0.08801506459712982, -0.06795798242092133, -0.032464757561683655, -0.0754389762878418, 0.10469134151935577, -0.08396846055984497, -0.023331791162490845, -0.05256791412830353, 0.09607073664665222, -0.008654221892356873, 0.012145057320594788, -0.05831180512905121, 0.0499931275844574, 0.06050010025501251, -0.043030768632888794, -0.056551650166511536, -0.07932241261005402, 0.11661909520626068, -0.08897106349468231, 0.022781431674957275, -0.06795068085193634, 0.03919708728790283, -0.07491961121559143, 0.045239031314849854, -0.0024638473987579346, -0.07887959480285645, -0.04816581308841705, 0.02096252143383026, 0.10895676910877228, -0.12088820338249207, 0.11467288434505463, 0.07591883838176727, 0.04453761875629425, -0.0679958164691925, 0.10935428738594055, -0.1211838573217392, 0.0055008381605148315, -0.020262688398361206, -0.0873049795627594, -0.0519353449344635, 0.08916804194450378, -0.0994943380355835, -0.10207469761371613, -0.033505648374557495, 0.021457061171531677, -0.05911540985107422, 0.03652726113796234, -0.05699916183948517, 0.12179335951805115, 0.10108096897602081, -0.06441140174865723, 0.03540632128715515, 0.10527613759040833, 0.07648785412311554, 0.036594077944755554, 0.019610300660133362, -0.005856573581695557, 0.12093596160411835, -0.01710231602191925, 0.10374368727207184, 0.07335573434829712, 0.020447954535484314, 0.03203281760215759, 0.11570850014686584, 0.012812867760658264, -0.0400247722864151, 0.031387656927108765, -0.11731082201004028, -0.05122101306915283, -0.09421463310718536, 0.07770922780036926, 0.052152425050735474, 0.08059009909629822, 0.10531675815582275, 0.09400080144405365, -0.0010817795991897583, -0.10936568677425385, 0.00928160548210144, 0.026904508471488953, -0.10450384020805359, -0.10424570739269257, 0.04788126051425934, 0.05386006832122803, 0.10564611852169037, 0.11416374146938324, 0.08052092790603638, -0.007585242390632629, 0.029537275433540344, 0.07310119271278381, 0.013493165373802185, -0.11061292886734009, 0.01293732225894928, 0.039522916078567505, -0.03779779374599457, 0.07270817458629608, 0.03472529351711273, -0.04334385693073273, -0.0008660852909088135, 0.006551474332809448, -0.014639735221862793, -0.11089996993541718, 0.055860430002212524, 0.018914878368377686, 0.09008847177028656, -0.004319965839385986, -0.04516318440437317, 0.06307561695575714, 0.08713766932487488, 0.004980996251106262, 0.08378076553344727, -0.11476011574268341, -0.03069642186164856, -0.08639664947986603, 0.11901363730430603, -0.04589475691318512, 0.04264935851097107, 0.028408899903297424, 0.10901926457881927, -0.051285386085510254, -0.05067899823188782, 0.03873603045940399, 0.0070638954639434814, -0.09027869999408722, -0.08431901037693024, 0.1008184552192688, -0.11797136068344116, 0.041372835636138916, 0.05794081091880798, 0.06863416731357574, 0.021353542804718018, -0.09694719314575195, -0.006931602954864502, -0.04410935938358307, -0.0018023103475570679, -0.012941941618919373, 0.09729218482971191, -0.10980965197086334, 0.02281828224658966, 0.060080915689468384, 0.10644233226776123, -0.06862843036651611, 0.00608515739440918, 0.027181044220924377, -0.01483134925365448, 0.08933547139167786, 0.06404593586921692, 0.07124018669128418, 0.10258902609348297, -0.10821504890918732, 0.015844017267227173, -0.05826057493686676, 0.09600283205509186, 0.07899035513401031, 0.007489338517189026, 0.04216757416725159, 0.12320104241371155, 0.10974743962287903, -0.035771921277046204, 0.08774995803833008, 0.06765182316303253, 0.08642871677875519, 0.06553266942501068, 0.09675686061382294, -0.033570751547813416, 0.10271400213241577, -0.09183129668235779, 0.09532815217971802, -0.08680029213428497, 0.11963823437690735, 0.03952424228191376, 0.0974322259426117, 0.033529072999954224, 0.08488732576370239, -0.02530890703201294, -0.05222557485103607, 0.07265287637710571, -0.11476589739322662, 0.06952209770679474, -0.07747018337249756, 0.07030223309993744, -0.018963992595672607, -0.10444173216819763, -0.013041496276855469, 0.10916337370872498, -0.06741200387477875, -0.10048037767410278, 0.06509135663509369, -0.08798295259475708, 0.10712271928787231, -0.10345111787319183, 0.0009623169898986816, 0.0630664974451065, -0.09816163778305054, 0.11622358858585358, 0.03354381024837494, 0.023096665740013123, 0.02335895597934723, 0.05385521054267883, 0.06573359668254852, -0.07526689767837524, 0.06666675209999084, 0.011008694767951965, 0.10003629326820374, 0.05646480619907379, 0.082750603556633, -0.032132044434547424, 0.11985404789447784, -0.04134805500507355, -0.07495559751987457, 0.07018287479877472, 0.012745290994644165, -0.10149434208869934, 0.08447521924972534, -0.10926316678524017, -0.06755237281322479, -0.027027413249015808, 0.041275426745414734, -0.0627114325761795, 0.08265213668346405, -0.10466329753398895, -0.05264495313167572, -0.07690496742725372, -0.10708016157150269, 0.036077022552490234, 0.1237913966178894, -0.12299896776676178, 0.06143444776535034, -0.04615865647792816, -0.03227446973323822, 0.07667896151542664, 0.054318517446517944, -0.008189976215362549, -0.07562042772769928, 0.06443360447883606, -0.08861894905567169, 0.09495264291763306, -0.11746685206890106, -0.0299978107213974, -0.07015310227870941, 0.06203131377696991, 0.044753819704055786, 0.002086848020553589, 0.030329406261444092, 0.12249018251895905, 0.07262898981571198, 0.11918368935585022, -0.06010659039020538, 0.02071838080883026, -0.016331464052200317, -0.08834205567836761, 0.026018351316452026, -0.05830790102481842, -0.08472760021686554, 0.09241719543933868, -0.006619945168495178, 0.12420456111431122, -0.08608967065811157, -0.1230621188879013, -0.08162873983383179, -0.08648790419101715, -0.04040120542049408, 0.02947118878364563, -0.09756876528263092, -0.0036258846521377563, -0.07056882977485657, -0.044860512018203735, 0.0694955438375473, 0.07400543987751007, -0.09776230156421661, -0.10966682434082031, 0.01776959002017975, 0.017502903938293457, -0.03627307713031769, 0.05655433237552643, -0.027735397219657898, 0.039650484919548035, 0.011051848530769348, -0.11676725745201111, -0.06540335714817047, 0.09645059704780579, 0.08791404962539673, 0.02859415113925934, -0.014228641986846924, 0.06128479540348053, 0.029789447784423828, -0.05259455740451813, 0.04132750630378723, 0.0023755431175231934, -0.10127617418766022, -0.06170704960823059, 0.09315063059329987, 0.1107870489358902, -0.11598986387252808, 0.11863896250724792, 0.035501644015312195, 0.058204859495162964, 0.05263864994049072, 0.09992136061191559, -0.020974352955818176, 0.1056034117937088, -0.096029132604599, -0.050017982721328735, 0.05870614945888519, -0.06215699017047882, -0.0863121747970581, -0.08503048121929169, 0.0565168559551239, -0.12262040376663208, 0.09056587517261505, 0.038939133286476135, 0.12250714004039764, 0.06870462000370026, 0.11657607555389404, 0.11601316928863525, -0.10039502382278442, 0.02113606035709381, 0.0256824791431427, -0.06397716701030731, -0.03614327311515808, -0.09533579647541046, 0.002270936965942383, -0.008180618286132812, 0.11193759739398956, -0.027812719345092773, 0.0961437076330185, -0.12272107601165771, 0.042888134717941284, -0.03386615216732025, -0.10081982612609863, -0.037758395075798035, -0.06448189914226532, -0.04341484606266022, 0.11890514194965363, 0.12485112249851227, 0.11689966917037964, -0.02513420581817627, 0.010049954056739807, -0.05913415551185608, 0.03742159903049469, 0.11844170093536377, -0.03454141318798065, -0.12254515290260315, -0.027887433767318726, 0.08615249395370483, -0.06241638958454132, 0.089011549949646, 0.10541543364524841, -0.023946911096572876, 0.05284108221530914, 0.012566298246383667, -0.025945395231246948, -0.005257025361061096, -0.017548978328704834, 0.1022285521030426, 0.10306410491466522, 0.09853996336460114, -0.09653870761394501, -0.0831865519285202, 0.046376049518585205, -0.08945240080356598, -0.10691340267658234, -0.041989848017692566, 0.10749001801013947, 0.06785517930984497, -0.010949820280075073, 0.0912676453590393, -0.07318125665187836, -0.09526336193084717, 0.08756163716316223, -0.05262528359889984, 0.029152706265449524, 0.11597397923469543, 0.022480249404907227, -0.03158751130104065, 0.0986035019159317, 0.027888432145118713, -0.011800304055213928, -0.07344353199005127, 0.07012422382831573, 0.01648348569869995, 0.08264145255088806, -0.0510355681180954, 0.11942391097545624, -0.07294023036956787, 0.09442174434661865, -0.012144327163696289, 0.010086610913276672, 0.07066085934638977, 0.04991863667964935, -0.0666428953409195, -0.08282789587974548, -0.033371224999427795, -0.0337456613779068, 0.08807167410850525, 0.11165094375610352, 0.046509236097335815, -0.0014366358518600464, -0.08824193477630615, 0.03932027518749237, -0.09043172001838684, -0.01586081087589264, 0.09417298436164856, 0.09478743374347687, -0.03044953942298889, -0.0034700334072113037, -0.07898247241973877, -0.0037074536085128784, -0.026530936360359192, -0.007767677307128906, 0.02289670705795288, -0.08535647392272949, 0.06217403709888458, 0.09212532639503479, -0.10622639954090118, 0.05891154706478119, -0.0075428783893585205, -0.12165015935897827, -0.03777723014354706, -0.10946589708328247, 0.04219335317611694, 0.07031157612800598, -0.07396109402179718, 0.09802274405956268, -0.10631747543811798, -0.07562027871608734, -0.09918925166130066, -0.033857882022857666, 0.11493639647960663, -0.10864762961864471, -0.0357702374458313, -0.04406885802745819, 0.10645566880702972, -0.06586574018001556, -0.05132037401199341, -0.013452574610710144, 0.07270237803459167, -0.11047631502151489, -0.009138375520706177, 0.01354914903640747, -0.08688728511333466, -0.006508469581604004, -0.11544951796531677, -0.11463646590709686, 0.11148369312286377, 0.06017880141735077, 0.09444767236709595, -0.1128004640340805, -0.0989065170288086, -0.01635749638080597, -0.11830280721187592, 0.031229406595230103, 0.006983473896980286, 0.0879254937171936, -0.05069291591644287, 0.07862961292266846, -0.08477281033992767, 0.12407149374485016, 0.04006572067737579, -0.10281743109226227, 0.08636203408241272, -0.09449464082717896, 0.062356457114219666, -0.06204146146774292, -0.11235572397708893, 0.1157744824886322, 0.08588555455207825, -0.004077643156051636, 0.02625906467437744, -0.06574401259422302, 0.09116370975971222, 0.07032744586467743, 0.006405085325241089, -0.005556896328926086, 0.022829517722129822, -0.12166474759578705, 0.02261534333229065, 0.05614180862903595, 0.12389954924583435, -0.06920996308326721, -0.06656193733215332, -0.05112628638744354, -0.113568514585495, -0.07465475797653198, 0.1081617921590805, -0.017658397555351257, -0.11277124285697937, -0.03092704713344574, -0.09179575741291046, -0.06687620282173157, 0.10645471513271332, 0.010179117321968079, -0.11165726184844971, -0.00266990065574646, -0.08757331967353821, -0.11561870574951172, 0.10544884204864502, -0.11034932732582092, 0.10537905991077423, 0.035647496581077576, -0.04071255028247833, -0.012358903884887695, 0.0372275710105896, -0.046475932002067566, -0.057574838399887085, 0.030766084790229797, 0.08851413428783417, 0.025751441717147827, 0.09570007026195526, -0.11931578814983368, -0.05112481117248535, -0.015123918652534485, 0.07330618798732758, -0.08050687611103058, 0.017684966325759888, 0.07139113545417786, 0.04416140913963318, -0.024110794067382812, -0.08349931240081787, -0.04199777543544769, -0.02325238287448883, 0.1137443482875824, -0.11203096807003021, 0.06009173393249512, -0.08371883630752563, -0.004541173577308655, 0.008161842823028564, -0.054221317172050476, 0.11894090473651886, 0.08904910087585449, 0.008816719055175781, 0.12204597890377045, -0.07109339535236359, 0.11434397101402283, -0.08600668609142303, -0.028008997440338135, -0.08944624662399292, 0.013627678155899048, -0.007855236530303955, 0.09877264499664307, 0.059369951486587524, 0.03125438094139099, -0.035847097635269165, -0.04480139911174774, 0.11216242611408234, -0.05704514682292938, 0.055851906538009644, 0.06125745177268982, 0.08860418200492859, -0.09853039681911469, 0.0879313051700592, -0.06532628834247589, -0.0002689659595489502, 0.09481491148471832, -0.0598171204328537, 0.06368154287338257, 0.0385870486497879, -0.0848546028137207, 0.030632391571998596, -0.11597611010074615, -0.09981688857078552, -0.030775412917137146, -0.1170298308134079, -0.041489094495773315, -0.07608242332935333, -0.06760431826114655, -0.1200745552778244, 0.1022939682006836, 0.09296256303787231, -0.09498056769371033, 0.11763566732406616, 0.048047155141830444, -0.09171965718269348, -0.10810801386833191, 0.08459070324897766, -0.06887875497341156, -0.04238350689411163, 0.11828458309173584, -0.12117262184619904, -0.013429567217826843, 0.11527715623378754, 0.04516302049160004, -0.1036720722913742, -0.11264483630657196, 0.0922236442565918, -0.010008037090301514, 0.01603846251964569, -0.0628424733877182, 0.10847555100917816, 0.07016785442829132, -0.0564584881067276, -0.04012611508369446, -0.10353894531726837, -0.10901352763175964, 0.08213287591934204, -0.09879380464553833, -0.021881505846977234, 0.034675419330596924, -0.10821424424648285, 0.1223088800907135, -0.03509096801280975, -0.10768789052963257, 0.013800665736198425, -0.1186864972114563, -0.061568573117256165, 0.040476903319358826, 0.1090354323387146, 0.1191653460264206, 0.06163060665130615, 0.04453404247760773, -0.04541495442390442, -0.03046111762523651, 0.05195489525794983, -0.020209580659866333, 0.11483980715274811, 0.08466914296150208, -0.04423832893371582, -0.08084800839424133, 0.002285867929458618, 0.0862615704536438, -0.09037758409976959, 0.025160178542137146, -0.03895029425621033, -0.01578293740749359, 0.003727167844772339, 0.07850132882595062, 0.01108156144618988, -0.12181806564331055, -0.05936808884143829, 0.019354403018951416, -0.033152878284454346, 0.06661340594291687, 0.10566826164722443, 0.03113064169883728, 0.0757228285074234, 0.104289710521698, 0.08944626152515411, 0.015582844614982605, 0.10048912465572357, -0.05927571654319763, -0.03073185682296753, 0.0009170472621917725, -0.12235619127750397, -0.08171507716178894, 0.020896300673484802, -0.028781011700630188, -0.04298461973667145, -0.08311578631401062, 0.08471368253231049, 0.08012494444847107, -0.05481022596359253, -0.11254765093326569, -0.11540250480175018, 0.10971368849277496, 0.09786799550056458, -0.09289999306201935, -0.06758414208889008, 0.0741734653711319, 0.034137189388275146, -0.035848572850227356, -0.08165878057479858, -0.022712111473083496, 0.03169175982475281, -0.004193171858787537, 0.1183205395936966, -0.07562053203582764, 0.09487128257751465, -0.11451488733291626, -0.009770840406417847, 0.060830578207969666, 0.05020076036453247, -0.10050317645072937, -0.029064878821372986, 0.00626043975353241, -0.00961291790008545, 0.021562471985816956, -0.07702933251857758, 0.008597150444984436, 0.020756617188453674, -0.013218909502029419, -0.12243494391441345, -0.10457110404968262, -0.047218337655067444, 0.038761645555496216, 0.11144793033599854, 0.006597191095352173, -0.11560989916324615, -0.03475165367126465, 0.046482935547828674, 0.11126923561096191, 0.11966341733932495, 0.05621834099292755, 0.035754650831222534, 0.08066344261169434, -0.09341341257095337, 0.03966286778450012, 0.023910924792289734, 0.1059727668762207, -0.00636523962020874, -0.06579837203025818, -0.015030473470687866, -0.03792102634906769, -0.005888685584068298, -0.04143059253692627, -0.11699455976486206, -0.06509822607040405, -0.03679828345775604, -0.02215220034122467, -0.006060779094696045, 0.09866118431091309, 0.0033525079488754272, -0.02973930537700653, -0.10828305780887604, -0.012411370873451233, 0.0132027268409729, 0.014760017395019531, 0.10764119029045105, -0.07142475247383118, -0.04994051158428192, 0.05751959979534149, 0.05097147822380066, 0.04515959322452545, -0.06840594112873077, -0.05287356674671173, 0.09088225662708282, -0.09581513702869415, 0.06939069926738739, -0.11530868709087372, 0.03955863416194916, -0.04802723228931427, 0.004948168992996216, 0.004362925887107849, -0.04676830768585205, 0.03820571303367615, -0.1205742359161377, -0.07863697409629822, -0.027672529220581055, -0.10869963467121124, 0.03901514410972595, -0.11135578155517578, 0.02764451503753662, -0.04799856245517731, -0.08292308449745178, 0.011587738990783691, -0.004700914025306702, -0.07989285886287689, -0.0873207300901413, -0.046907782554626465, 0.04790341854095459, -0.07604782283306122, -0.06878438591957092, 0.07431960105895996, -0.08402612805366516, -0.040177181363105774, -0.06537969410419464, 0.0016012489795684814, 0.039128199219703674, -0.05148132145404816, 0.11422871053218842, 0.06555669009685516, 0.08944790065288544, -0.011325165629386902, 0.002894371747970581, -0.09578964114189148, 0.0761718899011612, 0.041930004954338074, 0.07802577316761017, -0.09872062504291534, 0.11427974700927734, 0.10893943905830383, -0.04529194533824921, 0.11903594434261322, -0.11751450598239899, 0.04692976176738739, -0.03083188831806183, 0.0039711594581604, -0.0022721439599990845, 0.029728978872299194, -0.026762887835502625, -0.09592276811599731, -0.04842786490917206, 0.09026306867599487, 0.07735200226306915, -0.05478969216346741, 0.011186853051185608, -0.06824877858161926, 0.05963435769081116, 0.11679153144359589, -0.03936828672885895, -0.05167262256145477, 0.05874630808830261, -0.05229268968105316, 0.09832951426506042, -0.04384934902191162, 0.10767504572868347, -0.03679525852203369, -0.02372044324874878, 0.08443422615528107, 0.09387414157390594, 0.04107390344142914, 0.0024949461221694946, 0.046628400683403015, -0.09582264721393585, 0.119352325797081, -0.0821811854839325, -0.013825520873069763, 0.11885881423950195, -0.10269235074520111, 0.10754173994064331, -0.05788867175579071, 0.005366817116737366, -0.01595190167427063, -0.06242683529853821, -0.06493057310581207, 0.1138700395822525, -0.09707126021385193, -0.0646800547838211, 0.03458155691623688, -0.028021439909934998, -0.11302179098129272, 0.10433712601661682, 0.06768164038658142, 0.05377069115638733, 0.08692348003387451, 0.05451697111129761, 0.01947149634361267, 0.08571195602416992, -0.03731061518192291, 0.012974634766578674, 4.149973392486572e-05, -0.07310299575328827, -0.0791187584400177, -0.012344524264335632, 0.05004240572452545, -0.08338756859302521, -0.07088962197303772, 0.08329984545707703, -0.021879389882087708, 0.04463575780391693, 0.06229107081890106, -0.08038643002510071, -0.02608974277973175, 0.08195102214813232, -0.030371010303497314, 0.11718368530273438, 0.08595529198646545, 0.11663375794887543, 0.09483520686626434, -0.06968894600868225, -0.07008139789104462, -0.022815808653831482, 0.02230222523212433, 0.004189029335975647, 0.07502652704715729, 0.054062142968177795, 0.07923325896263123, 0.09322832524776459, -0.02438017725944519, 0.022546738386154175, -0.08399149775505066, -0.07298949360847473, -0.059127241373062134, -0.08027222752571106, -0.10210907459259033, -0.02835206687450409, 0.07147231698036194, 0.06571754813194275, -0.028694480657577515, 0.006038054823875427, -0.02614443004131317, -0.0169924795627594, -0.09295724332332611, -0.029155001044273376, 0.06918399035930634, -0.01001809537410736, 0.012124761939048767, 0.09076817333698273, -0.05959749221801758, 0.017658352851867676, -0.010431528091430664, -0.02003556489944458, 0.07701313495635986, 0.07016868889331818, -0.03554834425449371, 0.07401280105113983, -0.034076690673828125, 0.0830724835395813, 0.038650497794151306, -0.09685663878917694, -0.04023320972919464, -0.048007041215896606, 0.09420146048069, 0.05427876114845276, 0.0012755393981933594, -0.024879738688468933, 0.02520713210105896, 0.008131563663482666, 0.061048269271850586, -0.08211910724639893, 0.004162013530731201, -0.11630715429782867, -0.04657714068889618, 0.02865275740623474, 0.03859257698059082, 0.03503349423408508, -0.10238875448703766, 0.08291243016719818, -0.10681293904781342, -0.11018043756484985, 0.10390050709247589, -0.028666868805885315, 0.050521835684776306, -0.06781814992427826, 0.07734417915344238, -0.04034005105495453, 0.09409379959106445, -0.07027064263820648, -0.08006773889064789, -0.097567617893219, -0.04549427330493927, -0.07135435938835144, -0.057413145899772644, -0.12293832004070282, 0.006449908018112183, 0.10482273995876312, -0.0504048615694046, 0.09072944521903992, -0.10482695698738098, -0.006932452321052551, 0.014588996767997742, -0.10263417661190033, -0.11922752857208252, -0.08531682193279266, 0.029469802975654602, 0.02075110375881195, -0.1083831936120987, 0.04720279574394226, 0.07106122374534607, 0.055662140250205994, 0.11579388380050659, 0.00847211480140686, -0.031951963901519775, 0.049417197704315186, -0.017834410071372986, -0.027416661381721497, -0.025403380393981934, -0.0004247725009918213, 0.008190572261810303, 0.029596775770187378, -0.1067759245634079, 0.051566824316978455, -0.0727725476026535, 0.10606342554092407, -0.09012354910373688, 0.06700804829597473, 0.11443407833576202, 0.11895814538002014, -0.10517579317092896, -0.04093000292778015, 0.09696680307388306, 0.052606552839279175, -0.04499794542789459, 0.08791373670101166, 0.1114795058965683, 0.07867726683616638, -0.05497770011425018, 0.07192768156528473, 0.04667961597442627, 0.04617778956890106, -0.07075253129005432, -0.004498332738876343, -0.07962983846664429, 0.07260039448738098, 0.11912232637405396, 0.018295571208000183, 0.030783265829086304, 0.10378235578536987, -0.03354312479496002, -0.07164999842643738, -0.017872467637062073, 0.027465343475341797, -0.05169318616390228, 0.042034730315208435, -0.0341542512178421, 0.010850608348846436, 0.06432531774044037, 0.08670412003993988, 0.037069305777549744, 0.02867293357849121, -0.0726599246263504, -0.12266756594181061, 0.009817466139793396, -0.02205429971218109, -0.11651502549648285, 0.03942391276359558, -0.0010322928428649902, 0.03766660392284393, 0.10965295135974884, -0.11346949636936188, 0.03185929358005524, 0.08964967727661133, 0.1006011962890625, -0.02848733961582184, -0.09168069064617157, 0.060600027441978455, -0.0780922919511795, 0.06452387571334839, -0.02543465793132782, -0.11117112636566162, -0.041336819529533386, 0.08231627941131592, 0.06950452923774719, -0.10732930898666382, 0.014510542154312134, -0.0288180410861969, -0.022533223032951355, 0.0722331553697586, 0.09480251371860504, -0.11363270878791809, 0.01220366358757019, -0.11497540771961212, 0.08109009265899658, -0.12465164065361023, 0.053646594285964966, -0.04008544981479645, 0.08936978876590729, -0.03275458514690399, -0.04290840029716492, 0.03397455811500549, 0.12084057927131653, 0.05885384976863861, 0.11530221998691559, -0.12225040793418884, 0.01914404332637787, 0.10027933120727539, 0.07443612813949585, -0.06325691938400269, -0.05253875255584717, -0.1187618225812912, -0.048878252506256104, 0.055609896779060364, 0.045079976320266724, -0.052504658699035645, 0.010454356670379639, -0.12168358266353607, 0.060243189334869385, -0.10333217680454254, 0.0020480602979660034, -0.02049364149570465, -0.12041477859020233, 0.041107773780822754, 0.02376997470855713, -0.06637811660766602, 0.003615155816078186, -0.04624043405056, 0.0986596941947937, -0.061199456453323364, -0.0022971630096435547, 0.031268179416656494, 0.005044668912887573, 0.09879879653453827, 0.10737793147563934, 0.048232629895210266, 0.09403723478317261, 0.027196481823921204, -0.12411759793758392, 0.07816967368125916, 0.11370198428630829, 0.03205770254135132, 0.01666902005672455, 0.016724050045013428, 0.019514471292495728, -0.03954039514064789, 0.09721009433269501, -0.06668730080127716, -0.05454903841018677, -0.08463776111602783, -0.07303676009178162, 0.10501676797866821, -0.04807904362678528, 0.0857519656419754, -0.0846831202507019, -0.09598879516124725, 0.02149324119091034, 0.03829047083854675, -0.003050863742828369, 0.031763821840286255, 0.0329861044883728, 0.11951012909412384, 0.012233555316925049, -0.08218835294246674, -0.014295950531959534, -0.002335965633392334, 0.09005357325077057, -0.07292947173118591, -0.0642264187335968, 0.12001515924930573, -0.032502681016922, -0.09631696343421936, 0.07505209743976593, -0.017544150352478027, 0.028292521834373474, 0.05379217863082886, 0.006009995937347412, 0.015568569302558899, -0.06674012541770935, -0.016278699040412903, -0.12412749230861664, 0.02243804931640625, 0.0958460122346878, -0.023471355438232422, 0.03816580772399902, 0.094649538397789, 0.018256232142448425, 0.013815388083457947, -0.02712300419807434, 0.08921566605567932, 0.02227918803691864, -0.06391455233097076, 0.019409701228141785, 0.053030699491500854, 0.11929382383823395, -0.12010766565799713, -0.015479430556297302, 0.019738376140594482, -0.05445285141468048, -0.08170601725578308, -0.023535966873168945, -0.02122373878955841, 0.09067864716053009, -0.0580751895904541, -0.11605982482433319, 0.006844520568847656, 0.01899145543575287, 0.06849095225334167, -0.04887548089027405, 0.08684112131595612, -0.028686225414276123, 0.1049196869134903, -0.046360671520233154, -0.018204256892204285, 0.03280623257160187, -0.036326274275779724, -0.10820679366588593, 0.062252894043922424, -0.018345236778259277, 0.0851929783821106, -0.05781809985637665, -0.03003518283367157, -0.09244576096534729, -0.045159220695495605, -0.042777836322784424, -0.038239285349845886, 0.10384872555732727, 0.06786660850048065, 0.04137760400772095, 0.003666222095489502, -0.1019727885723114, 0.04627060890197754, -0.07264643907546997, -0.06174793839454651, -0.08854135870933533, 0.0786106288433075, 0.12014517188072205, 0.07445396482944489, 0.01119200885295868, 0.07019996643066406, -0.058558642864227295, 0.0986318588256836, 0.09611868858337402, 0.04625028371810913, -0.11017923057079315, -0.11193661391735077, -0.07589074969291687, -0.11873823404312134, 0.06058286130428314, 0.11557012796401978, -0.09313434362411499, 0.11839152872562408, 0.03910420835018158, -0.049448832869529724, -0.03298003971576691, 0.12431180477142334, 0.09179311990737915, 0.03154076635837555, -0.10087437927722931, 0.02666008472442627, 0.12067678570747375, 0.07137560844421387, 0.11540786921977997, -0.04719275236129761, -0.01303449273109436, 0.09007102251052856, 0.11155961453914642, -0.11229722201824188, 0.1082695871591568, 0.11281414330005646, 0.08148293197154999, -0.054768726229667664, 0.015059173107147217, -0.03544798493385315, -0.022664353251457214, -0.08653859794139862, -0.003166601061820984, -0.10702784359455109, -0.07837508618831635, 0.026486515998840332, -0.07214497029781342, -0.05050019919872284, 0.01802554726600647, 0.000294417142868042, 0.07833655178546906, -0.10818158090114594, 0.044198811054229736, -0.04970000684261322, -0.03429384529590607, 0.11042582988739014, -0.04863947629928589, 0.0790078192949295, 0.05197274684906006, -0.04879346489906311, -0.11562705039978027, 0.0009442567825317383, 0.11771394312381744, -0.05731259286403656, -0.00917661190032959, -0.07296104729175568, -0.07785871624946594, 0.047485873103141785, 0.11131037771701813, 0.0819721519947052, 0.06114226579666138, 0.04345610737800598, 0.036281242966651917, 0.09310996532440186, -0.10735313594341278, 0.12436766922473907, -0.09174403548240662, -0.04999205470085144, 0.0412977933883667, -0.12166197597980499, -0.020728111267089844, 0.09835980832576752, -0.07331407070159912, -0.07618372142314911, 0.014650464057922363, -0.042763710021972656, 0.020910173654556274, -0.05718797445297241, 0.110018789768219, 0.008470356464385986, 0.06121845543384552, 0.062423959374427795, -0.08092707395553589, 0.1160547137260437, -0.08399100601673126, 0.0177156925201416, -0.11057999730110168, -0.011492699384689331, -0.08494047820568085, 0.07021729648113251, -0.012573257088661194, -0.10918344557285309, 0.0034239888191223145, 0.10039056837558746, -0.011679798364639282, 0.07426835596561432, -0.07966826856136322, 0.10851316154003143, -0.06858675181865692, 0.04277503490447998, 0.03288622200489044, -0.09322366118431091, 0.05027468502521515, -0.10664880275726318, -0.10019032657146454, 0.10565930604934692, -0.07202932238578796, 0.1208541989326477, -0.05629055202007294, 0.002044081687927246, -0.0654674768447876, 0.11716988682746887, 0.009626418352127075, 0.04675717651844025, 0.05161707103252411, -0.007914647459983826, -0.03876984119415283, 0.1093229204416275, -0.01393960416316986, -0.12480171024799347, 0.07425092160701752, -0.05092008411884308, -0.10360248386859894, 0.1225607842206955, -0.074343740940094, -0.10198250412940979, -0.11217139661312103, -0.054450348019599915, 0.1247243881225586, 0.09026867151260376, -0.019110560417175293, -0.06360898911952972, 0.1117047518491745, 0.04118905961513519, 0.09112690389156342, 0.1199641078710556, -0.11908945441246033, -0.11695538461208344, -0.10928595066070557, -0.014347895979881287, -0.07491262257099152, -0.09102123975753784, 0.058173373341560364, -0.1103300154209137, -0.05178351700305939, 0.06904655694961548, 0.05793723464012146, 0.024262189865112305, -0.07145154476165771, 0.08430787920951843, 0.11742682754993439, 0.05551117658615112, 0.0062392354011535645, 0.11596362292766571, -0.05385535955429077, -0.05978952348232269, 0.02866552770137787, 0.11151351034641266, 0.11089266836643219, 0.06208527088165283, 0.11252783238887787, 0.11594730615615845, 0.06884615123271942, 0.0540713369846344, -0.015630096197128296, 0.00994156301021576, 0.07796406745910645, -0.1243060827255249, -0.08472362160682678, -0.03754901885986328, 0.06506010890007019, -0.0991944819688797, 0.10678550601005554, 0.023868262767791748, 0.027988135814666748, -0.11058799922466278, 0.026134014129638672, -5.1587820053100586e-05, 0.0032606422901153564, -0.0699460357427597, 0.09061296284198761, 0.07088270783424377, 0.03258194029331207, 0.11796849966049194, -0.034614548087120056, -0.017358452081680298, 0.08536060154438019, -0.10474357008934021, -0.08712846040725708, 0.11512196063995361, -0.053809136152267456, -0.09839674830436707, -0.05055925250053406, 0.12371636927127838, -0.06060163676738739, 0.06506580114364624, 0.0873575359582901, 0.10862591862678528, 0.06955219805240631, 0.08876398205757141, -0.05699509382247925, 0.06409522891044617, 0.10132342576980591, -0.0539332777261734, 0.10454791784286499, -0.0025978386402130127, -0.06039419770240784, 0.09513033926486969, 0.1023484468460083, 0.11489488184452057, 0.12441509962081909, 0.002284437417984009, 0.08511410653591156, 0.0016410201787948608, -0.0655963122844696, 0.05049201846122742, 0.12151040136814117, -0.027326256036758423, 0.07920980453491211, 0.07511109113693237, 0.025239020586013794, 0.09684580564498901, 0.1100008487701416, 0.009231895208358765, -0.09189803898334503, -0.03191941976547241, -0.05189685523509979, -0.05885021388530731, -0.08222168684005737, 0.0964045375585556, -0.11081229150295258, 0.06972284615039825, 0.027229920029640198, 0.03648807108402252, -0.041177794337272644, 0.0786609947681427, 0.08901447057723999, -0.010288581252098083, -0.08650366961956024, 0.06758268177509308, -0.011446893215179443, -0.03314612805843353, 0.08106592297554016, -0.06518162786960602, -0.015419527888298035, -0.028566360473632812, -0.08167041838169098, 0.012317866086959839, 0.08480286598205566, -0.11776068806648254, -0.11050789058208466, 0.014976948499679565, -0.12443773448467255, 0.03180705010890961, 0.09345835447311401, 0.09603868424892426, -0.02387005090713501, -0.01882900297641754, -0.06570285558700562, -0.018381088972091675, -0.07777869701385498, 0.05019278824329376, -0.04267188906669617, -0.0657876580953598, -0.10797731578350067, -0.11005866527557373, 0.06722885370254517, -0.04827229678630829, -0.06382530927658081, -0.005283460021018982, -0.05584163963794708, -0.0721716433763504, 0.017482176423072815, 0.10698817670345306, 0.11681434512138367, -0.10654273629188538, -0.11916321516036987, -0.09772342443466187, 0.11376427114009857, -0.029391378164291382, 0.0645255446434021, -0.07709431648254395, 0.0040118396282196045, 0.028870433568954468, -0.12399299442768097, -0.10058993101119995, 0.09910383820533752, -0.04987865686416626, -0.1024247407913208, -0.08402493596076965, -0.07700300216674805, 0.09889738261699677, -0.055458903312683105, -0.026075556874275208, -0.07621261477470398, 0.0028491169214248657, 0.10905715823173523, -0.0743948221206665, -0.008442908525466919, 0.0505376011133194, 0.027691766619682312, -0.049647971987724304, 0.05428504943847656, 0.10790306329727173, 0.0363735556602478, -0.05546818673610687, 0.08192427456378937, -0.10927917063236237, 0.11721855401992798, -0.026057928800582886, 0.09668546915054321, 0.005278050899505615, -0.0032002627849578857, 0.10959044098854065, 0.10391578078269958, 0.009829550981521606, -0.003882080316543579, 0.0429123193025589, 0.016188442707061768, -0.016834884881973267, 0.0807328075170517, -0.025294706225395203, 0.09548874199390411, 0.05442121624946594, 0.06882734596729279, 0.02228836715221405, -0.0759655237197876, 0.11577555537223816, -0.08456087112426758, 0.021659433841705322, 0.07734441757202148, -0.07123230397701263, 0.014537438750267029, 0.0073013752698898315, 0.020712628960609436, -0.029455244541168213, 0.11865422129631042, -0.044030651450157166, 0.012932240962982178, -0.08335244655609131, -0.03344041109085083, -0.006665140390396118, -0.01932382583618164, 0.039485275745391846, 0.11054618656635284, 0.026415511965751648, -0.09718647599220276, -0.08058646321296692, -0.018676504492759705, 0.015180379152297974, -0.11569216847419739, 0.09115159511566162, -0.10237912833690643, 0.03660862147808075, 0.012554079294204712, -0.10723866522312164, -0.05109888315200806, -0.1169646829366684, 0.04579508304595947, -0.013549670577049255, 0.083234041929245, 0.08539703488349915, 0.06115700304508209, -0.07389441132545471, -0.042794808745384216, 0.046856969594955444, 0.11816473305225372, 0.09091204404830933, 0.12140299379825592, 0.12240523099899292, -0.031764283776283264, 0.06130892038345337, -0.1082627922296524, 0.05995166301727295, -0.09861941635608673, 0.0402386337518692, -0.08693605661392212, -0.062037721276283264, 0.11190488934516907, -0.005765587091445923, 0.11528712511062622, 0.033685967326164246, -0.043668538331985474, 0.003698885440826416, -0.0717640221118927, -0.02439051866531372, 0.03222404420375824, -0.12263597548007965, -0.050280407071113586, -0.07889087498188019, 0.08676481246948242, -0.06534959375858307, 0.09979486465454102, 0.0074586570262908936, -0.033004432916641235, -0.002174288034439087, 0.06092172861099243, -0.042550042271614075, -0.10745243728160858, 0.09559004008769989, 0.0673815906047821, 0.02519853413105011, -0.08147937059402466, 0.05857385694980621, -0.010901108384132385, 0.0953042060136795, -0.09731434285640717, 0.029509320855140686, 0.035935431718826294, -0.06543202698230743, -0.07761578261852264, 0.00787845253944397, -0.03628942370414734, -0.11117185652256012, 0.07232797145843506, -0.09531685709953308, 0.1132514476776123, 0.07960681617259979, -0.12137876451015472, -0.01373225450515747, -0.08535639941692352, -0.0936974287033081, -0.0023605823516845703, 0.03411795198917389, 0.050662100315093994, -0.017208710312843323, -0.032703280448913574, -0.11499060690402985, 0.07449458539485931, -0.04995127022266388, -0.06504601240158081, 0.0873102992773056, -0.010063320398330688, 0.06224644184112549, 0.029216289520263672, 0.06371349096298218, -0.01893840730190277, 0.09710748493671417, -0.02183137834072113, 0.11790190637111664, 0.04924976825714111, -0.036275073885917664, 0.08430875837802887, -0.10524521768093109, -0.12011280655860901, 0.038355231285095215, 0.023891836404800415, 0.09900440275669098, 0.08205503225326538, -0.06748029589653015, -0.1168706864118576, 0.09411922097206116, 0.0758167952299118, 0.036353737115859985, -0.1109703779220581, 0.030944928526878357, 0.0156136155128479, -0.04255281388759613, -0.07348766922950745, -0.11767028272151947, -0.03156132996082306, -0.028121531009674072, -0.11527511477470398, -0.044244781136512756, -0.04316507279872894, -0.04849691689014435, 0.016974911093711853, -0.10234321653842926, -0.043335601687431335, 0.04144449532032013, 0.04911379516124725, -0.09491275250911713, -0.017603591084480286, -0.02631017565727234, -0.04598355293273926, -0.06111963093280792, -0.014074161648750305, -0.08940762281417847, 0.0707843005657196, -0.060679107904434204, -0.07043297588825226, 0.012895435094833374, -0.08192771673202515, -0.11886800825595856, 0.046425849199295044, -0.08930101990699768, 0.06235341727733612, 0.039661407470703125, 0.06317538022994995, -0.10863055288791656, 0.05016143620014191, -0.006428942084312439, -0.09476727247238159, -0.08381709456443787, 0.005887910723686218, -0.06533512473106384, 0.0847112387418747, 0.12467361986637115, -0.0325842946767807, -0.07754778861999512, 0.06382635235786438, 0.06772215664386749, 0.015595674514770508, 0.041544318199157715, -0.032599419355392456, 0.02970796823501587, -0.01494753360748291, 0.05479361116886139, -0.011115580797195435, -0.05860292911529541, -0.03765213489532471, -0.08319249749183655, 0.0038090646266937256, -0.09811584651470184, -0.11370468139648438, 0.0725453644990921, 0.05088651180267334, 0.03623504936695099, 0.08864206075668335, -0.0001055598258972168, 0.021017253398895264, -0.09060926735401154, 0.06840962171554565, 0.12166780233383179, -0.1235937774181366, 0.10094419121742249, 0.012475147843360901, -0.008722096681594849, 0.0235440731048584, 0.08360996842384338, -0.022180750966072083, -0.06349007785320282, -0.06893165409564972, -0.09954917430877686, 0.06341847777366638, -0.027344465255737305, 0.07639041543006897, -0.09325915575027466, 0.01122024655342102, 0.034356579184532166, 0.07520633935928345, -0.010850384831428528, 0.11894159018993378, 0.02071702480316162, -0.043605953454971313, 0.04343809187412262, 0.008898556232452393, -0.01775360107421875, 0.07453322410583496, -0.05777883529663086, 0.016573339700698853, -0.04825155436992645, 0.06989976763725281, -0.062225162982940674, -0.06342846155166626, 0.06946642696857452, -0.0892467051744461, -0.04928883910179138, 0.022069290280342102, -0.06521275639533997, 0.10063137114048004, 0.11432527005672455, 0.11530883610248566, -0.08430267870426178, 0.08835865557193756, 0.061675116419792175, -0.022572427988052368, -0.10791079699993134, 0.015446856617927551, 0.10187622904777527, 0.043965891003608704, 0.11371919512748718, 0.009941309690475464, -0.07400597631931305, -0.028354376554489136, 0.10008668899536133, 0.10726019740104675, -0.0898100733757019, -0.016603097319602966, 0.0535442978143692, -0.07039138674736023, 0.016295552253723145, -0.10357905924320221, 0.01593644917011261, 0.10513259470462799, 0.032585710287094116, -0.054602622985839844, 0.06977511942386627, -0.04067622125148773, -0.11417122185230255, 0.050336629152297974, 0.06631691753864288, -0.03937694430351257, -0.07696163654327393, 0.0008973628282546997, 0.09645763039588928, 0.07020629942417145, 0.05225294828414917, -0.03813117742538452, 0.02131660282611847, 0.0010830163955688477, 0.06963935494422913, 0.016936659812927246, 0.02417944371700287, -0.08629533648490906, 0.056716397404670715, -0.018237903714179993, -0.06249383091926575, -0.05948793888092041, -0.08604133129119873, -0.08570452034473419, -0.068631112575531, 0.03708955645561218, 0.06481167674064636, 0.005997821688652039, 0.020275592803955078, -0.09874507784843445, 0.030666187405586243, 0.09085068106651306, -0.041741400957107544, 0.06662265956401825, -0.08510437607765198, 0.08525334298610687, 0.11028814315795898, 0.039442211389541626, 0.07059092819690704, -0.05254116654396057, 0.05906905233860016, 0.10810953378677368, -0.1167813241481781, -0.08549973368644714, 0.009673744440078735, -0.10046723484992981, 0.055025070905685425, 0.014887556433677673, 0.01956401765346527, 0.11628079414367676, -0.06471997499465942, -0.1237737238407135, 0.011976256966590881, -0.11007453501224518, 0.10922805964946747, -0.024319559335708618, -0.06538321077823639, 0.1114082783460617, -0.06694687902927399, 0.04680885374546051, -0.07785280048847198, -0.007754102349281311, -0.037901371717453, -0.07582606375217438, 0.012969672679901123, 0.11735276877880096, -0.07238851487636566, -0.08650077879428864, 0.05300968885421753, -0.07327064871788025, 0.0689910501241684, -0.04146941006183624, 0.0626865029335022, 0.1026112288236618, -0.06252862513065338, 0.07817791402339935, 0.038068220019340515, 0.09473469853401184, 0.06480187177658081, 0.009375616908073425, 0.028544440865516663, -0.0654682070016861, -0.08556167781352997, 0.10379567742347717, -0.06161002814769745, -0.09078796207904816, 0.09287802875041962, -0.10407112538814545, 0.1087624579668045, -0.07785958051681519, -0.11866158246994019, 0.021338582038879395, 0.05466204881668091, -0.11092318594455719, -0.007488995790481567, -0.07949315011501312, 0.03777770698070526, 0.021359503269195557, 0.10780739784240723, 0.04037328064441681, -0.00921235978603363, -0.05592840909957886, 0.09044477343559265, -0.008701696991920471, 0.12222149968147278, -0.11136570572853088, -0.009782284498214722, 0.044830724596977234, 0.1164461225271225, 0.012710466980934143, 0.0570802241563797, 0.019207358360290527, -0.047025248408317566, -0.026013121008872986, -0.08467967808246613, 0.06994092464447021, -0.04816453158855438, -0.11848302185535431, 0.037549540400505066, 0.0031846612691879272, 0.020125120878219604, 0.10814948379993439, 0.00424957275390625, -0.022115662693977356, -0.0061728209257125854, 0.043680429458618164, 0.10588964819908142, -0.049904823303222656, -0.12157799303531647, -0.01566457748413086, -0.027887284755706787, 0.1236276626586914, 0.06250940263271332, 0.11736039817333221, 0.11813761293888092, -0.075065478682518, -0.1100473552942276, -0.06851445138454437, 0.020190924406051636, -0.11648786067962646, 0.021712645888328552, -0.046716347336769104, 0.11119771003723145, -0.06953597068786621, -0.0384434312582016, 0.06906090676784515, 0.009740069508552551, -0.1048075407743454, -0.07820437848567963, -0.05601675808429718, -0.05840820074081421, -0.09159794449806213, -0.029922962188720703, -0.12152774631977081, -0.0781015157699585, 0.0018246620893478394, 0.0634336769580841, -0.09886780381202698, -0.09455606341362, -0.10920487344264984, -0.06988240778446198, -0.055422037839889526, -0.12053672969341278, -0.0011668205261230469, 0.021681085228919983, 0.07540811598300934, -0.03798443078994751, 0.034662604331970215, 0.031287625432014465, -0.12260186672210693, 0.028875738382339478, -0.037432730197906494, 0.08045274019241333, -0.005662009119987488, -0.04657165706157684, -0.03305070102214813, -0.06323021650314331, 0.004632636904716492, -0.12202870845794678, -0.07044637203216553, -0.019881069660186768, 0.054016828536987305, -0.11882388591766357, 0.04315324127674103, 0.11598974466323853, -0.08119206130504608, -0.07755061984062195, -0.04279795289039612, 0.00046099722385406494, 0.08657854795455933, -0.02694813907146454, 0.08414611220359802, 0.04621589183807373, 0.03920036554336548, -0.028049230575561523, 0.08751155436038971, 0.06159788370132446, -0.1223711222410202, -0.06809517741203308, -0.09774643182754517, 0.09518517553806305, -0.086878702044487, 0.07384340465068817, 0.05042643845081329, -0.03280533850193024, 0.10257083177566528, -0.04937909543514252, -0.0696985125541687, 0.08169068396091461, 0.08155816793441772, -0.06384305655956268, -0.06997302174568176, -0.12088373303413391, 0.06164547801017761, 0.07168020308017731, 0.018137380480766296, 0.12298326194286346, 0.09581710398197174, 0.00611405074596405, 0.05564241111278534, 0.0670529156923294, -0.08286748826503754, -0.05495843291282654, -0.007014855742454529, 0.0954747349023819, 0.07491932809352875, -0.00986364483833313, -0.014000922441482544, -0.044843077659606934, 0.006693452596664429, 0.024971172213554382, 0.05069635808467865, -0.050547853112220764, 0.10230639576911926, 0.08913819491863251, -0.11864636838436127, -0.025089696049690247, -0.11707669496536255, -0.11477699875831604, -0.09092769026756287, -0.07079759240150452, 0.11098657548427582, -0.008750289678573608, -0.031046614050865173, -0.08824189007282257, 0.11166465282440186, 0.1103937029838562, 0.1009456217288971, -0.00447431206703186, 0.027688995003700256, -0.12049819529056549, 0.056963518261909485, 0.028342872858047485, 0.006645217537879944, 0.08187657594680786, 0.0023503750562667847, -0.033972010016441345, 0.08155864477157593, -0.10595569014549255, 0.0535544753074646, -0.11658166348934174, 0.10639749467372894, 0.047432780265808105, -0.04071946442127228, 0.08309297263622284, -0.06204444169998169, 0.051569655537605286, 0.10875001549720764, 0.08353620767593384, -0.02603703737258911, 0.022607088088989258, 0.05132386088371277, 0.004603087902069092, -0.07842157781124115, -0.12327858805656433, 0.0978471040725708, 0.1202525943517685, 0.087470144033432, 0.017187848687171936, -0.06950461864471436, 0.008456572890281677, -0.007240027189254761, 0.06625521183013916, 0.11949503421783447, -0.07004590332508087, -0.046410396695137024, -0.01953466236591339, 0.09302555024623871, -0.006436392664909363, -0.013516440987586975, 0.019439011812210083, -0.106654092669487, 0.10059402883052826, 0.059650957584381104, -0.051664456725120544, 0.008987516164779663, 0.03921803832054138, -0.08281272649765015, 0.0534055233001709, -0.09130087494850159, -0.019768312573432922, -0.04107747972011566, -0.10222810506820679, 0.07883627712726593, 0.038729533553123474, 0.019434958696365356, 0.0966721773147583, 0.06960725784301758, 0.1025812029838562, -0.032824352383613586, 0.10713675618171692, -0.08593405783176422, -0.06587997078895569, -0.1007436066865921, -0.09882983565330505, -0.07776638865470886, -0.04479297995567322, -0.09212107956409454, -0.09051354229450226, 0.08879920840263367, 0.07878704369068146, 0.021335676312446594, -0.07973778247833252, 0.08937613666057587, 0.045812562108039856, 0.07009387016296387, -0.1144084483385086, -0.05122902989387512, 0.06563366949558258, -0.09766383469104767, -0.0653650313615799, 0.035382091999053955, -0.04765373468399048, -0.009189590811729431, -0.019063085317611694, -0.10121364891529083, 0.07390521466732025, -0.02564273774623871, -0.02449473738670349, -0.031214475631713867, -0.09290847182273865, -0.12405984103679657, 0.05106073617935181, 0.041789546608924866, -0.11832359433174133, -0.042195409536361694, 0.10163155198097229, -0.02043081820011139, 0.09539783000946045, -0.063310906291008, 0.0434768944978714, -0.11861094832420349, -0.07738609611988068, -0.05915410816669464, 0.059937432408332825, 0.007847338914871216, 0.07947616279125214, -0.03195588290691376, 