{"model_def" : {"type": "ResLSTM", "input_size": 1, "hidden_size": 32, "output_size": 1, "rnn_bias": false, "linear_bias": true, "norm_mean": 0.0, "norm_std": 1.0} , "state_dict" : {"rnn": {"weight_ih_l0": {"shape": [128, 1], "values": [-0.07390587031841278, -0.19842666387557983, -0.47451862692832947, 0.5125925540924072, -1.281069040298462, -0.2837517261505127, 1.0872058868408203, -0.2782471477985382, 0.16153810918331146, -0.11209975183010101, -0.4030480682849884, -0.04703836888074875, -0.11254078894853592, -0.02240101434290409, -0.6168842315673828, 0.04625082015991211, -0.04521859437227249, 0.16103099286556244, -0.24363264441490173, -0.23584598302841187, -0.06587481498718262, -0.31212589144706726, 1.3184237480163574, 0.1756805032491684, 0.12089979648590088, -0.28588593006134033, -0.9020631909370422, -1.0787928104400635, -0.025424163788557053, 0.06872288137674332, -0.1592019498348236, 0.195328027009964, 0.2193189114332199, -0.06231919676065445, 0.2886209487915039, -0.11028533428907394, 2.446091890335083, -0.08911365270614624, 0.34975701570510864, -0.3447897434234619, -0.3712761700153351, -0.18124321103096008, -0.08279616385698318, 0.25996947288513184, 0.018768323585391045, 0.171614870429039, -0.4888021945953369, -0.2077907770872116, 0.08891496062278748, 0.21025000512599945, 0.5607696175575256, -0.28373265266418457, 0.0823899656534195, -0.338401198387146, -0.2670893967151642, -0.08803321421146393, 0.5894597768783569, -0.3567909896373749, -0.6427754759788513, -0.6101407408714294, -0.17395725846290588, 0.376662939786911, 0.024100514128804207, -0.2739708423614502, -0.4717041254043579, -0.3079544007778168, 0.43261078000068665, 0.5509483218193054, 0.6954681873321533, 0.1294204443693161, 0.21284325420856476, 0.3831598162651062, -0.17507854104042053, -0.36146751046180725, -0.3082799017429352, -0.32355740666389465, 0.2201390415430069, -0.2000550478696823, -0.25607892870903015, 0.4247647821903229, 0.22555778920650482, 0.7846840023994446, -0.9314863085746765, -0.09211805462837219, -0.041983626782894135, -0.2138517051935196, -1.1178663969039917, 0.5102027058601379, 0.7797175645828247, 0.9881235361099243, -1.3413808345794678, 0.23822028934955597, 0.05947939306497574, -0.6119797229766846, -0.39020344614982605, 0.19324840605258942, -0.09197904169559479, -1.835456132888794, 0.1897866576910019, 0.483364075422287, 0.41369348764419556, 0.07108772546052933, 0.5638504028320312, -0.7837128639221191, -0.21912400424480438, -0.09024776518344879, -0.3769835829734802, -0.04829423874616623, 0.2651890814304352, 2.6180570125579834, -1.5462186336517334, 0.10881150513887405, 0.15543010830879211, 0.836212158203125, 0.6202980279922485, 0.19890457391738892, -0.2740700840950012, -0.3653516173362732, 1.8192381858825684, 0.35750311613082886, 0.9061201214790344, -0.7061984539031982, -0.7462529540061951, -1.4359965324401855, 0.013134597800672054, 0.0073461756110191345, -0.0864696279168129, -0.09933574497699738]}, "weight_hh_l0": {"shape": [128, 32], "values": [0.35820096731185913, 0.5718393921852112, -0.11491475254297256, 0.06378647685050964, -0.3736613988876343, 0.17151622474193573, -0.5288263559341431, 0.1130092442035675, -0.1204695999622345, 0.05743837356567383, -0.24775631725788116, -0.15294797718524933, 0.008391307666897774, -0.6548409461975098, 0.04554101824760437, -0.22192002832889557, 0.19908681511878967, 0.11282674968242645, 0.15035085380077362, -0.5774156451225281, -0.5823115110397339, -0.19630460441112518, -0.37096476554870605, -0.4090002179145813, -0.335531085729599, 0.17775370180606842, 0.08291102200746536, 0.2966701090335846, 0.05975440517067909, 0.039888832718133926, -0.07771095633506775, -0.1898472011089325, -0.7953025698661804, 0.37190380692481995, -0.6680087447166443, -0.008721978403627872, -0.5587195158004761, 0.726007878780365, -0.606574296951294, 0.23944897949695587, 0.27358728647232056, -0.08753562718629837, -0.15314513444900513, 0.2547351121902466, 0.19677364826202393, -0.570991039276123, -0.46727681159973145, -0.020100096240639687, 0.6717693209648132, -0.17123688757419586, 0.28667184710502625, -0.41205254197120667, 0.5235002636909485, -0.3929949700832367, -0.02582206018269062, 0.8126439452171326, -0.23673799633979797, 0.24105441570281982, -0.6756476163864136, 0.5137317776679993, 0.37283235788345337, 0.6533466577529907, 0.4979453980922699, 0.267098069190979, 0.2939375936985016, 0.2229267656803131, 0.7508066892623901, -1.0181772708892822, -0.19048012793064117, -0.27309560775756836, -0.28710025548934937, -0.4759119153022766, 0.59282386302948, 0.1498999148607254, -0.0015706174308434129, -0.7874846458435059, 0.4610764980316162, 0.6551186442375183, -0.6506300568580627, -0.18952412903308868, -0.3748387396335602, 0.5486937761306763, -0.09143848717212677, 0.1442493349313736, 0.3825317621231079, 0.6810700297355652, -1.2752765417099, 0.1901010125875473, 0.2078205943107605, 0.29449188709259033, 0.21569068729877472, 0.24073809385299683, 0.32763224840164185, -0.6534151434898376, 0.5216074585914612, -1.369165301322937, 0.680850088596344, -0.47293949127197266, -0.3545803129673004, -1.0149966478347778, 0.3728671073913574, -0.05922315642237663, 0.49459177255630493, -1.3512099981307983, -1.0808978080749512, 0.5201939344406128, -0.34875598549842834, -0.01098521426320076, -0.1274377554655075, 0.15710727870464325, 0.6375452876091003, -0.8492529392242432, 1.4211530685424805, 0.9714362025260925, 0.18576876819133759, -0.16074217855930328, 0.9766831398010254, 1.1361677646636963, -1.2008968591690063, 1.2558223009109497, 0.2517178952693939, -1.1763982772827148, 0.5653712749481201, -0.8902053833007812, -1.0583311319351196, 1.3512130975723267, -0.33030965924263, -0.08199835568666458, -0.26387959718704224, 0.4009750187397003, 0.06364171952009201, 1.3401172161102295, 1.8528491258621216, 0.4208786189556122, 0.26642951369285583, -0.566731870174408, 0.1953604817390442, -0.38067349791526794, 0.3226807713508606, 1.3528821468353271, -0.558124303817749, 0.8095459938049316, -1.712546706199646, -0.2621837258338928, 0.06542754918336868, 1.208066701889038, 0.16568401455879211, -0.19690832495689392, 0.9638127684593201, 0.096354641020298, 1.6907198429107666, -0.8745073080062866, -0.8984817862510681, -1.473528265953064, -0.328338623046875, -0.5772668123245239, -1.501179575920105, -0.8545210957527161, 0.269167959690094, -0.5584128499031067, -0.3982369005680084, 0.709416389465332, -0.6691164970397949, -0.2262575626373291, -0.5071427822113037, -0.5878234505653381, -0.2076926976442337, 0.12930262088775635, 0.10805963724851608, 0.1841961145401001, -0.20656773447990417, -0.22649621963500977, 0.3537686765193939, -0.2680019736289978, -0.45741403102874756, -0.14537297189235687, -0.1706034541130066, -0.39518678188323975, 0.22712993621826172, 0.15148793160915375, -0.1438513547182083, -0.5189026594161987, 0.13021451234817505, 0.27311548590660095, -0.2882623076438904, -0.061079636216163635, 0.04623836278915405, 0.3944399952888489, -0.2042613923549652, 0.2809855043888092, -0.33127886056900024, 0.17236833274364471, -0.28087833523750305, 0.19252201914787292, 0.519977867603302, -0.30293846130371094, -0.0058722239919006824, -0.26097169518470764, -0.01858850196003914, 0.5397070050239563, -0.21219903230667114, 0.4551609456539154, -0.32080429792404175, -0.15205377340316772, -0.7981027960777283, 0.10462699085474014, 0.23362523317337036, -0.6573539972305298, -0.6259711384773254, 0.22896507382392883, 0.17266084253787994, 0.042511191219091415, -0.39848318696022034, -0.24188557267189026, -0.4922650456428528, -0.042569585144519806, -0.003971765283495188, 0.7720487713813782, -0.74942946434021, 0.21835049986839294, -0.23486317694187164, -0.07355000823736191, 0.38855019211769104, 0.09379240870475769, 0.3126258850097656, -0.09277012944221497, -0.04771599918603897, 0.5115957260131836, -0.007500884123146534, -0.24587596952915192, -0.1615716814994812, 0.1275113821029663, 0.10992338508367538, -0.4237860441207886, -0.28085657954216003, -0.24567605555057526, 0.1377083659172058, 0.06044452264904976, 0.5850222706794739, 0.12545190751552582, -0.21550288796424866, 0.1921135038137436, 0.025481145828962326, -0.44027942419052124, 0.1706397980451584, -0.004485211335122585, 0.3177931308746338, -0.6645053625106812, -0.2271924763917923, 0.09265218675136566, -0.14611946046352386, 0.17333006858825684, -0.07448071986436844, -0.13816043734550476, 0.21099215745925903, -0.014123005792498589, -0.11421102285385132, 0.5632205009460449, -0.32157763838768005, -0.18461181223392487, -0.8042860627174377, 0.2431144416332245, -0.3450634181499481, 0.18768802285194397, 0.46442997455596924, 0.3520500361919403, 0.26255524158477783, 0.4678419828414917, 0.22832782566547394, -0.23937486112117767, -0.06417839229106903, -0.482516348361969, -0.35929158329963684, -0.1855403035879135, 0.6138256788253784, -0.43974122405052185, 0.034421395510435104, -0.11671147495508194, -0.06475605070590973, 0.7130798101425171, -0.27625375986099243, -0.4400862753391266, -0.48464909195899963, 0.610640823841095, 0.576508104801178, 0.5469615459442139, -0.00860748253762722, 0.5043636560440063, 0.41875141859054565, 0.07791655510663986, -0.8897221684455872, -0.3518960177898407, 0.14126786589622498, 0.023563731461763382, 0.6162815093994141, -0.10226648300886154, 1.2300310134887695, 0.02628963813185692, -0.5914750695228577, -0.2615348696708679, 0.08075890690088272, -0.2784709632396698, -0.1689782440662384, 0.5661727786064148, 0.8520245552062988, 0.5024623870849609, 0.3978707194328308, -1.135923981666565, -0.10114753246307373, 0.006353076547384262, -1.2004164457321167, 0.5467841029167175, -0.07480981200933456, 0.0820876732468605, 0.09822139143943787, 0.6985465288162231, 0.31491056084632874, 0.1202382892370224, -0.4531288146972656, -1.0258948802947998, -0.02941097505390644, 0.464526891708374, -0.03680288791656494, 0.11111793667078018, 0.28745922446250916, -0.059947773814201355, 0.3040347099304199, -0.005710155237466097, 0.2360188364982605, -0.2372882068157196, -0.05728355795145035, 0.08047744631767273, 0.36680087447166443, -0.19953976571559906, -0.42455562949180603, -0.5876880288124084, -0.5137683153152466, -0.10174477100372314, 0.24098022282123566, 0.0968664214015007, -0.2898606061935425, -0.1519271284341812, -0.5963863730430603, -0.03359891474246979, 0.3262631297111511, -0.02886112593114376, -0.3567405343055725, 0.3089175224304199, -0.04278009384870529, -0.5881550312042236, -0.23545269668102264, 0.39419737458229065, 0.4777282178401947, -0.2119726538658142, 0.4580245316028595, 0.3476988673210144, 0.15920774638652802, 0.08719513565301895, -0.32356107234954834, 0.09853275865316391, -0.11671700328588486, -0.5853515267372131, 0.6894567012786865, 0.22782385349273682, 0.9194616675376892, -0.1501808911561966, -0.2418380230665207, -0.43796098232269287, 0.39910176396369934, -1.5765455961227417, -0.35395899415016174, -0.6921296715736389, -0.13552750647068024, 1.2270967960357666, -0.10644277185201645, 0.6632329225540161, -0.23060952126979828, -0.6923896074295044, -0.32300350069999695, -0.20747682452201843, 0.5564213991165161, 1.1865768432617188, 0.7526980638504028, -0.6722148656845093, 0.1752641648054123, 0.8542325496673584, 0.052792590111494064, 0.32267430424690247, -0.1351831704378128, -0.36680179834365845, -0.4480782449245453, 0.607887327671051, 0.029645534232258797, -0.5809198617935181, -0.5199474692344666, -0.045521777123212814, -0.47283148765563965, -0.39799684286117554, 0.05706663429737091, -0.15579292178153992, -0.58174729347229, -0.049500737339258194, 0.6486518979072571, -0.057235993444919586, -0.43482711911201477, -0.5332829356193542, -0.0347413495182991, 0.11887061595916748, -0.18079552054405212, 0.1166132390499115, -0.35086652636528015, 0.545674204826355, 0.18748100101947784, -0.6084755659103394, -0.0800170823931694, -0.330380380153656, 0.95298171043396, 0.35246944427490234, -0.09869417548179626, 0.5094354152679443, -0.2860707640647888, -0.43387699127197266, 0.1622195988893509, 0.05642245337367058, -0.8441981077194214, -0.3106176257133484, -0.8092277646064758, -0.046563830226659775, -0.08333247900009155, -0.3571683466434479, 0.14514100551605225, 0.3801957964897156, -0.4300747513771057, -0.2542630732059479, 0.44930389523506165, -0.08307880908250809, -0.8546575307846069, -0.13986428081989288, -0.4002687633037567, 0.13606247305870056, -0.3271253705024719, 0.6928327679634094, 0.27538803219795227, 0.5371643304824829, -0.16016115248203278, -0.30047523975372314, -0.5601063966751099, -0.4299789071083069, -0.3452320694923401, -0.48850685358047485, -0.19343304634094238, 0.45299965143203735, 0.28149792551994324, 0.14827729761600494, 0.14333486557006836, -0.8782640695571899, -0.09282238036394119, 0.030331822112202644, -0.014151873998343945, 0.3869665563106537, -0.44446536898612976, -0.3373611271381378, 0.6025779843330383, 0.2924530804157257, -0.13210032880306244, 0.5354397892951965, -0.38112834095954895, -0.25715893507003784, 0.8602737784385681, 0.23961539566516876, 0.23823170363903046, 0.9473059177398682, 0.3145589232444763, 0.027801966294646263, -0.17726919054985046, -0.06474792957305908, 0.6665589213371277, -0.3269873857498169, 1.2059907913208008, 0.7178479433059692, -0.9934411644935608, -0.2793721854686737, -0.3310631513595581, 0.027182485908269882, 0.25124391913414, -0.4156111478805542, -0.04099982976913452, -0.2790337800979614, -0.40620923042297363, 0.2633213400840759, 0.5575293898582458, -0.7666341066360474, 0.37809428572654724, 0.417407363653183, 0.5050551891326904, 0.04282489791512489, -0.19320815801620483, -1.4389324188232422, -0.12294164299964905, 1.0058470964431763, -0.9252810478210449, 0.16265477240085602, -0.053548526018857956, 0.6812401413917542, 0.11839575320482254, -0.30318933725357056, 0.0719422698020935, -0.13581298291683197, 0.7106747627258301, -0.09824105352163315, -0.7302862405776978, -0.4230296313762665, -0.21829502284526825, 0.37594521045684814, -0.2012370377779007, -0.2513182461261749, -0.24071651697158813, -0.21623684465885162, 0.013702433556318283, -0.36459600925445557, -0.1825355887413025, -0.20621831715106964, -0.39477625489234924, 0.21191248297691345, 0.10296032577753067, -0.041124891489744186, 0.3635513484477997, -0.44490164518356323, 0.31097543239593506, 0.2279691845178604, 0.9795897603034973, 0.42806583642959595, -0.0549716055393219, 0.20895527303218842, 0.027352498844265938, 0.6292948722839355, 0.18022242188453674, 0.41915109753608704, 0.2295968234539032, 0.29428258538246155, 0.59698086977005, -0.3988571763038635, -0.06186585873365402, -0.387376070022583, 1.2067539691925049, 0.5466938614845276, 0.9419956207275391, -3.284782648086548, 0.33732330799102783, -0.44076311588287354, 0.27319076657295227, -1.3175938129425049, 0.42849868535995483, -1.3690309524536133, -0.34727296233177185, 0.2523455321788788, -0.99478679895401, 0.25527647137641907, -0.28157171607017517, -1.7778961658477783, 1.9394627809524536, 3.928502082824707, -1.1941580772399902, 0.4316980540752411, 1.7522449493408203, -0.18676963448524475, -2.4547030925750732, -1.763788104057312, 1.2496281862258911, 0.4704093933105469, -0.0536944679915905, -1.2241241931915283, -0.12448576837778091, -0.4873086214065552, 0.20923198759555817, 0.0407242476940155, -0.2329263836145401, 0.13058893382549286, -0.4533919394016266, -0.9984243512153625, 0.46708741784095764, -0.3496103584766388, -0.6832834482192993, -0.04901339113712311, 0.29197463393211365, 1.311853051185608, -0.09370340406894684, -0.5757684707641602, -0.31326714158058167, 0.48655951023101807, -0.23842887580394745, 0.18817532062530518, -0.057703692466020584, -0.17280375957489014, -0.45195913314819336, -0.34743186831474304, -0.6791109442710876, 0.3573646545410156, 0.9207786917686462, -0.5878487825393677, 0.24475613236427307, 0.021780529990792274, -0.2639627456665039, -0.15523885190486908, -0.14596228301525116, 0.5180067420005798, -0.6093172430992126, 0.43029284477233887, 0.3049256503582001, 0.4270825684070587, -0.5834717154502869, -0.18167592585086823, -0.1776849776506424, 0.3681045472621918, -0.2788609564304352, 0.6158424019813538, 0.7137361764907837, -1.0287443399429321, -0.5686681866645813, -0.3562813103199005, -0.15856727957725525, -0.541473388671875, 0.05200045555830002, -0.5803236365318298, -0.4942290782928467, -0.37321868538856506, 0.5780982375144958, -0.17861367762088776, -0.5606135129928589, -0.3094165325164795, -0.5050309300422668, 0.7670367956161499, -0.2372770756483078, 0.3345976173877716, -0.4491676688194275, 0.5987260937690735, 0.531368613243103, -0.1603202074766159, -0.13302958011627197, -0.025358345359563828, 0.2718639373779297, 0.5506287813186646, -0.8256195783615112, -0.27560779452323914, -0.43763041496276855, 0.07575827836990356, -0.2508489787578583, 0.31116291880607605, 0.9786933660507202, 0.12899287045001984, -0.8922911882400513, -0.31804460287094116, -0.08620951324701309, -0.4329923689365387, 0.41328316926956177, -0.5767509341239929, -0.14577433466911316, -0.14350654184818268, 0.4068756699562073, -0.553440272808075, -0.4824402630329132, -0.34818190336227417, -0.10295245796442032, 0.6321306824684143, -0.28184759616851807, -0.04817119985818863, -0.8035147786140442, 0.7680389285087585, -0.005356072448194027, -0.03769753500819206, -0.6578637957572937, 0.41178539395332336, -0.14059661328792572, -0.06354781240224838, -0.3618921637535095, -0.23426228761672974, 0.06843213737010956, -0.029824554920196533, -0.23047535121440887, 0.024935858324170113, 0.5108829140663147, -0.13878679275512695, -0.3654455542564392, 0.26152706146240234, 0.27055105566978455, -0.12452735006809235, -0.6062203645706177, 0.08870884776115417, -0.3043491244316101, -0.05976923555135727, 0.012235373258590698, -0.24178677797317505, -0.5228383541107178, -0.21575789153575897, -0.5235064625740051, 0.603895902633667, -0.3430844843387604, 0.5929600596427917, -0.3009830415248871, 0.18304391205310822, 0.4819749593734741, -0.1137789711356163, 0.10723219066858292, 0.5183757543563843, -0.08367551118135452, -1.7146666049957275, 1.0461221933364868, 0.21485768258571625, -0.26863759756088257, -0.1002497747540474, 0.11852406710386276, -1.2287561893463135, 0.9230380654335022, 0.2642943859100342, 1.2905426025390625, 0.47523272037506104, 0.3513208031654358, 1.3907396793365479, 1.5434198379516602, 0.6280256509780884, -0.28537631034851074, -0.4387655556201935, 0.20954419672489166, 0.606356143951416, 0.43833494186401367, -0.18502113223075867, 0.3990120589733124, 0.8870131373405457, 0.5703223943710327, -0.5399065613746643, 0.6373580694198608, -0.22376978397369385, 0.7190346121788025, -0.027512529864907265, 0.9341809153556824, 0.5339521169662476, 0.33469802141189575, 0.16448843479156494, 0.11183018237352371, 0.5877161622047424, 0.06892121583223343, -0.5063523054122925, 0.4344276785850525, 0.06548112630844116, -1.1733591556549072, 0.006166722159832716, -0.5410223603248596, -0.8361603021621704, -0.15139366686344147, -0.4450014531612396, 1.2813655138015747, 0.2675063908100128, -0.5547797679901123, -0.6912238597869873, 0.017929840832948685, -0.03683295473456383, 0.6986933946609497, -0.4340910315513611, 0.07320897281169891, -0.01818152703344822, -0.5343782305717468, 1.1517460346221924, 0.4467567503452301, 0.35112258791923523, 0.40836381912231445, -1.042925477027893, -0.7675077319145203, -0.20446322858333588, -0.04183845967054367, -0.5803372859954834, 0.2681647837162018, 0.5165128707885742, 0.25601983070373535, 0.8724392056465149, 0.2813616394996643, -0.21419982612133026, 0.6581704616546631, 0.35668161511421204, 0.3236890137195587, 0.12665612995624542, 1.2740510702133179, -0.23357218503952026, -0.7336438894271851, -0.11925304681062698, 0.2704426050186157, 0.11540927737951279, 0.31568872928619385, -0.29371407628059387, 0.15682362020015717, 0.28508296608924866, -0.20084671676158905, -0.018206698819994926, 0.45200300216674805, 0.17913518846035004, -0.6235052943229675, 0.09202519804239273, 0.5360033512115479, 0.9850013256072998, 0.6627457737922668, -0.6375648379325867, 0.2536327540874481, -0.12537243962287903, -0.5480626225471497, -0.5330439209938049, 0.04305832460522652, 0.4188367426395416, -0.2517210841178894, -0.5872210264205933, 0.9144518971443176, 0.27377620339393616, -0.13457225263118744, -0.01641876809298992, 1.346777081489563, -0.33255162835121155, 0.12615779042243958, -0.8686065077781677, 0.9769391417503357, 0.6910707950592041, -0.6364556550979614, -0.48651155829429626, 0.08363259583711624, 0.37575438618659973, 0.19082686305046082, 0.45679807662963867, 0.1891057789325714, -0.0878588929772377, -0.4510604441165924, 0.1754678189754486, -0.2413637936115265, -0.00519899744540453, 1.3332219123840332, 0.5503082275390625, -0.09095694869756699, 0.25220152735710144, -0.49952277541160583, 0.1031658947467804, -0.4365178942680359, 0.1354721188545227, -0.015646345913410187, -0.27016615867614746, 0.42215096950531006, 0.11898625642061234, -0.12822474539279938, -0.40098947286605835, -0.031902823597192764, 0.043380092829465866, -0.18850861489772797, 0.3223990499973297, -0.40082722902297974, -0.40587928891181946, -0.14123162627220154, 0.047340430319309235, -0.34216856956481934, 0.16963940858840942, -0.3714475929737091, -0.006029983516782522, -0.4558824598789215, 0.22933615744113922, 0.22205042839050293, 0.03276694938540459, -0.3600436747074127, 0.1418578326702118, -0.21953025460243225, -0.2168835997581482, 0.011954337358474731, 0.459598183631897, -0.5056593418121338, -0.0018543527694419026, 1.2545647621154785, 0.10225135087966919, 0.5383396744728088, 0.0023576123639941216, 0.15652421116828918, 0.5254823565483093, 0.23362195491790771, 0.3318999707698822, 0.831508457660675, 0.3379347622394562, -1.0160119533538818, 0.01969776675105095, -0.853278398513794, -0.39432457089424133, 0.3336012363433838, -0.14740212261676788, 0.08527851849794388, 1.0872784852981567, -0.4958043098449707, -0.5886886715888977, 0.31396299600601196, -0.18582206964492798, 0.4970897138118744, -0.8144393563270569, -0.39419087767601013, 0.4234536588191986, 1.134479284286499, -0.5491406321525574, 0.07895350456237793, 0.6276044249534607, -0.34697914123535156, 0.13395993411540985, -0.993730366230011, -0.10610290616750717, -0.4873230457305908, 0.28767162561416626, 0.4117189347743988, -0.1571650207042694, -1.0820581912994385, -0.09688588231801987, 0.1361769735813141, -0.27991142868995667, -0.8918008208274841, -0.3991389870643616, -0.35883036255836487, 0.07211189717054367, -0.013513399288058281, -0.12264934927225113, -0.10203252732753754, -0.5096082091331482, -0.5207099318504333, 0.6773858666419983, -0.7205161452293396, 0.09527182579040527, -0.9090401530265808, 0.7619255781173706, -0.12354065477848053, -0.08476993441581726, -0.2738906443119049, 0.06916658580303192, 0.3022584617137909, -0.16546161472797394, 0.5018543601036072, 0.3907631039619446, 0.19128435850143433, -0.26570141315460205, 2.2054405212402344, -0.10050059854984283, -0.1845814734697342, 0.3640693426132202, 0.3764089047908783, -0.6828635334968567, 0.6945720911026001, 1.4358532428741455, 0.8440147638320923, 0.20659562945365906, 0.06700820475816727, -0.12869933247566223, 0.3883441388607025, 1.4086556434631348, -1.0473182201385498, 0.4769481420516968, 1.0175992250442505, 0.4284311532974243, 0.6988743543624878, -1.2133755683898926, 0.24850314855575562, -0.576244056224823, -0.38472452759742737, 0.03401173651218414, -0.04845069348812103, 0.32321229577064514, 0.28513407707214355, 0.6757209300994873, -0.2457008957862854, -0.3537108302116394, -0.11540746688842773, 0.14757782220840454, 0.3883112668991089, 0.33432894945144653, 0.38655564188957214, -0.7686156630516052, -0.20645029842853546, -0.5254865884780884, 0.7623254656791687, -0.24395722150802612, -0.3215031027793884, -0.13445016741752625, -0.43996354937553406, 0.1520274579524994, 0.5191317796707153, -0.7856442332267761, -0.5270267128944397, -0.04950132966041565, 0.0778132826089859, 0.5950253009796143, -0.11714503914117813, 1.3227201700210571, -0.192268505692482, 0.1729583442211151, 0.1932350993156433, -0.06965411454439163, 0.26124608516693115, 0.26295334100723267, -0.6789660453796387, 0.29000020027160645, -0.40831130743026733, -0.0749339759349823, -0.4482855200767517, 0.4056013822555542, 0.06591115891933441, 0.34331753849983215, 0.35903286933898926, 0.15352191030979156, 0.16156086325645447, 0.6987667679786682, 0.7895674705505371, -0.44900572299957275, -0.5874843001365662, -0.7653252482414246, 0.31005823612213135, -0.6659117341041565, 0.5877192616462708, -0.1958817094564438, -0.9074832201004028, -0.5109710097312927, -0.2897135615348816, 0.4435272514820099, -0.27573251724243164, -0.24288912117481232, -0.2578769028186798, 0.4392768442630768, 0.2067636102437973, 0.40455856919288635, 0.26318585872650146, 0.23688417673110962, -0.022266699001193047, -0.00214209477417171, 0.3795623779296875, 0.3720727562904358, 0.3012295663356781, 0.40413132309913635, 0.4412793517112732, -0.06150104105472565, -0.2692727744579315, 0.4537515342235565, 0.3502713143825531, -0.2626798450946808, 0.40034863352775574, -0.18832890689373016, -0.09013940393924713, 0.37918874621391296, 0.31936129927635193, 0.11147215217351913, -0.572199285030365, 0.12555931508541107, -0.021181626245379448, 0.10435809195041656, 0.10812250524759293, -0.8778679966926575, 0.41195908188819885, -0.16620177030563354, 0.1730511635541916, -0.6403894424438477, 0.29832226037979126, 0.20482604205608368, 0.20169535279273987, 0.19497506320476532, -0.23391497135162354, -0.09097360819578171, 0.3760267198085785, -0.0720122680068016, 0.39908453822135925, -0.21965628862380981, 1.0605707168579102, -0.564285933971405, -0.6312083601951599, -0.22923241555690765, 0.36907774209976196, -0.8344876766204834, -0.4981897175312042, 0.7807279825210571, 0.24295100569725037, 0.17429617047309875, -0.5883059501647949, 0.4537831246852875, -1.1470967531204224, 0.8614993095397949, 0.4207189977169037, 0.3042314052581787, 0.15300558507442474, -0.1960332989692688, 0.9642403721809387, 0.28134414553642273, 0.9187134504318237, -0.878889262676239, -0.5911738872528076, -0.40641072392463684, 0.03822046145796776, -0.19008490443229675, 0.3458155393600464, -0.5058422684669495, 0.6694251894950867, 0.2783198654651642, -0.1518145352602005, 0.2647743225097656, 0.6235093474388123, -0.24092531204223633, -0.049505650997161865, -0.47153499722480774, 0.026799961924552917, 0.1552402675151825, -0.8138962984085083, 0.4110099673271179, 0.36194828152656555, -0.2704862058162689, -0.31079646944999695, 0.4324965178966522, -0.19127529859542847, 0.05884775519371033, 0.7430027723312378, 0.5640170574188232, 0.8962165117263794, 0.14487528800964355, 0.42663300037384033, 0.2050434648990631, 0.18188560009002686, 0.24010226130485535, 0.08058631420135498, -0.01601642370223999, -0.4584488868713379, 0.16986407339572906, -0.22589953243732452, 0.5396161079406738, 0.2810252904891968, 0.08337587118148804, -0.049818579107522964, 0.15774983167648315, 1.1355985403060913, 0.33604106307029724, -0.7202172875404358, 1.1936938762664795, -0.6370313167572021, -0.7386624217033386, -0.206318199634552, -0.9256479740142822, -1.4630223512649536, 0.05416339635848999, 1.0489187240600586, -0.32135796546936035, 1.5072801113128662, -0.014818829484283924, 0.8620078563690186, -0.6576400995254517, 0.8896402716636658, 0.72328782081604, -0.7746725678443909, -0.10998259484767914, -0.5209041237831116, 0.7687307596206665, -0.8874360918998718, -0.6820507049560547, -0.9663891792297363, -0.21923404932022095, -0.05042320117354393, -0.5547970533370972, -0.05543426051735878, 0.5894033908843994, 1.2250630855560303, 0.7573049664497375, 0.8626255989074707, 0.04879072308540344, 0.7494179010391235, -2.0308938026428223, 1.1190658807754517, 0.7069714665412903, 1.0850722789764404, -0.18187470734119415, -0.11917165666818619, 0.8746089339256287, -0.3797028064727783, 0.5820714831352234, 0.25193652510643005, -0.30928143858909607, -0.34162986278533936, 0.5527936220169067, -0.4788646399974823, 0.2567640542984009, 0.42619588971138, -0.42574653029441833, -0.7413969039916992, -0.22216737270355225, -0.06669430434703827, -1.0041508674621582, -0.10289639979600906, -0.004435177426785231, -0.37851661443710327, 0.23088277876377106, -0.081893190741539, -0.045885004103183746, 0.46187517046928406, -0.42616382241249084, 0.46849220991134644, -0.4577184021472931, -0.8863582611083984, 0.019143665209412575, 0.5128414034843445, -0.3075253367424011, 0.24663203954696655, 0.23262813687324524, -0.2279941290616989, -0.43987545371055603, 0.45712557435035706, 0.14586608111858368, -0.26318538188934326, 0.40312787890434265, 0.044094014912843704, 0.26260828971862793, 0.21422378718852997, -0.1410295069217682, 0.5506439805030823, -0.10449551790952682, 0.3764805793762207, -0.44728681445121765, -0.3638702630996704, 0.06708018481731415, 0.12088849395513535, 0.19732290506362915, -0.8266018629074097, -0.33978986740112305, 0.6521680951118469, 0.7383501529693604, 0.30440017580986023, -0.12837213277816772, 0.3576737344264984, -0.05131528154015541, -0.710725724697113, 0.9359803795814514, -0.01459847204387188, 0.0031401128508150578, 0.1024857833981514, 0.28841567039489746, 0.3605143427848816, 0.31052112579345703, -0.21232624351978302, -0.8265493512153625, 0.5485814213752747, 0.6933507323265076, 0.12918947637081146, 0.001888122409582138, 0.5785897374153137, -0.3450188636779785, 0.3003755807876587, -0.033242493867874146, 0.5249927639961243, -0.2721511125564575, 0.005601619835942984, 0.9100818037986755, 0.6022056341171265, -0.3110983669757843, 0.307963103055954, 0.33348727226257324, 0.060965877026319504, 0.20243622362613678, -0.12416037917137146, -0.09313870966434479, -0.15580134093761444, -0.1423490196466446, 0.4258556067943573, -0.1913185864686966, -0.10485067963600159, 0.17218150198459625, 0.3008582293987274, 0.12485301494598389, 0.10792607814073563, -0.1372547596693039, -0.18923400342464447, 0.10878493636846542, 0.11372262239456177, -0.1971062868833542, -0.08885508030653, -0.1670857071876526, -0.03252432495355606, -0.030831223353743553, -0.20926041901111603, -0.2330411970615387, -0.029277395457029343, 0.09415681660175323, -0.11390560865402222, 0.3794892132282257, 0.04693324863910675, -0.2970746159553528, 0.2877756357192993, -0.06843848526477814, 0.520841658115387, 0.387961208820343, 0.2559717297554016, -0.5230987668037415, 0.5939306616783142, -0.560592532157898, -0.5269787311553955, 0.4271712899208069, 0.14452576637268066, -0.4025687277317047, -0.48896992206573486, 0.6829184889793396, 0.32820603251457214, -0.1573249101638794, -0.03547012433409691, 0.09717363864183426, -0.4562341570854187, 0.2994648516178131, 0.7030182480812073, 0.5603709816932678, 0.06739047169685364, -0.5097705721855164, 0.6394704580307007, 0.559335470199585, 0.32933273911476135, -0.5289018154144287, -0.315952330827713, -0.033351313322782516, 0.059627387672662735, -0.15848936140537262, 0.3077854812145233, -0.3180001676082611, -0.8034183382987976, 0.06560873985290527, 0.30378660559654236, 0.30085742473602295, -0.07680061459541321, -0.14106667041778564, 0.27123257517814636, 0.06659576296806335, -0.18291020393371582, -0.31535109877586365, 0.6956933736801147, 0.38952675461769104, 0.04368376359343529, 0.49398958683013916, 1.2312414646148682, -0.8831971287727356, 0.047127462923526764, -1.3173383474349976, 0.38881951570510864, 0.49647077918052673, 0.5857852697372437, 0.2497139424085617, 0.26329055428504944, -0.12508615851402283, 1.0021462440490723, -0.21352997422218323, -0.5114998817443848, 0.26182788610458374, -0.43756747245788574, -0.4822087585926056, -0.29562047123908997, -0.09760952740907669, 0.17055754363536835, -0.09830668568611145, 0.44318270683288574, 0.10294453054666519, 0.3536487817764282, -0.251595139503479, -0.5882437229156494, 0.008560214191675186, 0.2756268084049225, 0.3731403648853302, -0.12990696728229523, -0.041021235287189484, -0.05266886577010155, 0.06426113843917847, 0.11292124539613724, -0.5416543483734131, -0.74847811460495, 0.18759119510650635, -0.2284928560256958, 0.24282392859458923, 0.8995274305343628, -0.2984355688095093, 0.6785470247268677, -0.29356876015663147, 0.21748974919319153, -0.020462270826101303, -0.16866107285022736, -0.42213180661201477, 0.2627357840538025, 0.4021887183189392, -0.07471039146184921, 0.26041722297668457, 0.040500521659851074, -0.025141606107354164, -0.0024929724168032408, 0.09616734832525253, -0.45370686054229736, 0.16146868467330933, -0.6526983380317688, 0.01290774904191494, 0.2147398740053177, -0.31690478324890137, -0.09094472974538803, 0.6436769366264343, -0.09703121334314346, 0.29779765009880066, 0.0626889243721962, -0.5164512395858765, 0.38281288743019104, -0.14416155219078064, -0.10072867572307587, 0.224693164229393, 0.24519620835781097, 0.41332098841667175, -0.014566796831786633, -0.13920974731445312, 0.08675997704267502, -0.15261192619800568, 0.4231865704059601, -0.12963370978832245, -0.626618504524231, -0.3336045742034912, -0.2532530725002289, 0.09321949630975723, 0.6977888345718384, -0.3351055681705475, 0.5517890453338623, 0.059679992496967316, 0.49420154094696045, -0.16696743667125702, 0.026624809950590134, 0.4390895962715149, 0.7013937830924988, 0.01504268404096365, -0.0005900105461478233, -0.3448542356491089, -0.5436387658119202, 0.353933185338974, -0.10875806957483292, 0.4936773478984833, 0.37056964635849, 0.6947096586227417, 0.32578176259994507, -0.07072362303733826, 0.140428364276886, 0.14545193314552307, 0.8171961307525635, -0.669234037399292, -0.08162838220596313, -0.39406970143318176, 0.23601283133029938, 0.22515039145946503, 0.26844701170921326, 0.21102209389209747, -0.22780463099479675, -0.8016582727432251, 0.35749319195747375, 0.46012401580810547, 0.5420624613761902, 0.886540949344635, 0.30298763513565063, -0.1192048192024231, -0.4830489456653595, 0.4463717043399811, 0.8416472673416138, 0.21882155537605286, 0.06913255900144577, 0.07365474104881287, -0.22244642674922943, 0.40631943941116333, 0.7543033957481384, -0.23856697976589203, -0.1049395501613617, 0.408907949924469, -0.0695536807179451, 0.32814276218414307, 0.8877542614936829, 0.07760486751794815, 0.5898318886756897, 0.35502851009368896, -0.029445147141814232, -0.485719233751297, -0.4449733793735504, 0.9592183232307434, 0.5394968390464783, 1.0470900535583496, -0.2875322997570038, -0.6168112754821777, -0.07182621955871582, -1.0894968509674072, -0.561680257320404, 0.6076207160949707, -0.4948441684246063, -0.3175528347492218, 0.4915771782398224, -0.40330663323402405, 0.42033377289772034, 0.3966103494167328, -0.6808425784111023, -0.06455417722463608, 0.8479197025299072, -0.49308332800865173, -0.021221444010734558, 0.09165409952402115, 0.0685102716088295, -0.161798894405365, 0.9383367896080017, 0.17601293325424194, -0.3169291317462921, 0.4051588773727417, -0.5830145478248596, 0.3019605278968811, -0.1706923395395279, -0.045208923518657684, -0.25566837191581726, -0.1212908923625946, 0.9763113856315613, -0.021242935210466385, -0.09661658853292465, -0.4237683415412903, 0.08742789924144745, 0.14507073163986206, 0.14940692484378815, 0.07188943773508072, -0.27516207098960876, 0.14027003943920135, 0.2550894320011139, -0.1805313378572464, -0.12536315619945526, -0.7587181329727173, -0.08042144030332565, 0.1348285675048828, 1.0065819025039673, 0.18738172948360443, 0.277774453163147, -0.23135650157928467, -0.07933156192302704, -0.15758788585662842, -0.5216684341430664, -0.3888694643974304, 0.0029405257664620876, 0.16582950949668884, 0.139271080493927, 0.39634597301483154, -0.17520609498023987, -0.1870710700750351, 0.5466146469116211, -0.5560969114303589, -0.24677421152591705, -0.011378326453268528, -0.09850310534238815, -0.31374692916870117, -0.1610800176858902, 0.0211909431964159, 0.3360030949115753, 0.12362831830978394, -0.21222533285617828, -0.5381473898887634, 0.3964296579360962, -0.5282442569732666, 0.344626247882843, 0.35041317343711853, 0.13909028470516205, -0.048250678926706314, -0.05532681569457054, 0.3264796733856201, -0.1096794381737709, 0.41774627566337585, -0.1057802140712738, 0.01341186836361885, 0.24058103561401367, 0.6570740938186646, 0.37749171257019043, -0.6551961302757263, 0.5140870213508606, 0.08490606397390366, 0.10081275552511215, -0.18036645650863647, -0.4639969766139984, 0.13895656168460846, 0.21106867492198944, -0.10550925880670547, -0.3251205384731293, 0.21826188266277313, -0.63374263048172, -0.12164133787155151, -0.26216864585876465, 0.15260927379131317, -0.404668927192688, 0.33884814381599426, 0.5841323733329773, -0.6499683856964111, -0.03468822315335274, 0.9387048482894897, -0.768092930316925, -0.4942276179790497, -1.0923129320144653, 0.7215110063552856, -0.43883687257766724, 0.4281054735183716, -0.8143010139465332, -0.20559513568878174, 0.3614875376224518, -0.8456668257713318, 0.3990326523780823, -0.9938018918037415, 0.6073215007781982, -0.059605762362480164, -0.4436958134174347, -0.06891795247793198, 0.03628857061266899, -0.010286140255630016, -0.6520881652832031, -0.17598667740821838, 0.5547525882720947, -0.26960864663124084, -0.21339252591133118, 0.3732660412788391, 0.25014448165893555, -0.2491852194070816, 0.6495702266693115, -0.142432302236557, 0.2679480016231537, -0.019841382279992104, -0.33093446493148804, -0.5329201817512512, 0.4527226984500885, 0.6893848180770874, 1.42351233959198, 0.4714851677417755, -0.11760888993740082, -0.11025223135948181, 0.6750856637954712, 0.44699355959892273, -0.03532389551401138, 0.38992077112197876, 0.8964493870735168, -0.4939804673194885, 0.15395067632198334, 0.13729245960712433, 0.08199439942836761, -0.2350051999092102, 0.47091561555862427, 0.06656498461961746, -0.1263830065727234, 0.6102989315986633, -0.1935187578201294, -0.5889426469802856, 0.7044597268104553, 1.2869569063186646, 0.648047149181366, -0.47434934973716736, 0.6670061349868774, -0.35893896222114563, -0.7149109840393066, 0.2859798073768616, 0.49517256021499634, 0.3418051302433014, 0.08046916872262955, 0.3678554594516754, 0.27360647916793823, 0.3300473988056183, -0.13268688321113586, 0.6118034720420837, -0.5837090015411377, 0.5871315002441406, 0.3295040428638458, 1.1034812927246094, 0.274063378572464, -0.03012554533779621, 1.0377347469329834, -0.3032655417919159, 0.9949595332145691, -0.7968591451644897, -0.33143895864486694, -0.4940014183521271, 0.37677910923957825, -0.2704504728317261, -0.2562798857688904, -0.29527318477630615, 0.5368116497993469, 0.37555021047592163, 0.7903192043304443, -0.2187570184469223, 0.1767953634262085, -0.6564208269119263, -0.6918383836746216, 1.066025733947754, 0.5055299997329712, -0.6601940393447876, -0.06736073642969131, 0.16852037608623505, 0.5877407789230347, 0.4084780514240265, 0.3411664068698883, 0.17776872217655182, -0.4566449820995331, 0.4511769115924835, -0.021245939657092094, 0.6319412589073181, 0.2783419191837311, -0.8295432925224304, 0.9814533591270447, -0.7389122843742371, 0.4794328212738037, -1.0449302196502686, -0.43693459033966064, -0.2166568785905838, 0.41251736879348755, 0.025727147236466408, -0.10205093026161194, -0.34389469027519226, 0.42284879088401794, -0.4511893689632416, 0.5641742944717407, -0.4837346374988556, 0.3178129196166992, -0.30446431040763855, -0.20857961475849152, 0.024064140394330025, -0.25683364272117615, -0.3185497224330902, 0.5535698533058167, 0.290338933467865, -0.15493245422840118, 0.40306249260902405, 0.8752065896987915, -0.266082227230072, -0.44176995754241943, -0.4423634707927704, 0.1657317876815796, 0.12637822329998016, 0.5466523766517639, -0.37935763597488403, 0.4625139534473419, 0.5734991431236267, 0.2828606367111206, -0.5642555952072144, 0.23861239850521088, -0.268196702003479, 0.4387853443622589, 0.06096557900309563, -0.4929850399494171, -0.06901337206363678, 0.1609465330839157, 0.280274361371994, -0.5271339416503906, -0.00215549161657691, 0.27563416957855225, 0.31104472279548645, 1.6675790548324585, 0.18307843804359436, -0.16952762007713318, 1.5609405040740967, -0.5248894691467285, 0.5277352333068848, 0.27526843547821045, 0.6599164605140686, 0.29434454441070557, -1.1995147466659546, -0.23478257656097412, -0.8751638531684875, -0.4957145154476166, -0.37553632259368896, 1.3558707237243652, 1.1091344356536865, -0.24062083661556244, 0.47171634435653687, 0.5088016390800476, 0.3040146827697754, -0.3255184292793274, 0.9100217819213867, 0.706397294998169, 1.6857969760894775, -0.19756056368350983, 0.05721348896622658, 0.566138505935669, 0.3118251860141754, -0.20467081665992737, -0.32715725898742676, 0.30483824014663696, -0.2040548324584961, -0.45304813981056213, -0.4374927878379822, 0.577373206615448, 0.5082109570503235, 0.05954606831073761, -0.5341988801956177, 0.6365559101104736, 0.4587134122848511, 0.4591341018676758, -0.13027937710285187, 0.2510545551776886, -0.37577277421951294, 0.25978633761405945, -0.03881977126002312, -0.3619389832019806, 0.5356255173683167, 0.056809745728969574, 0.174461230635643, 0.1612674593925476, -0.0034013879485428333, 0.5958361625671387, 0.03032544255256653, -0.055974822491407394, -0.19383899867534637, -0.5362637042999268, -0.5095171928405762, -0.022434422746300697, 0.42282021045684814, 0.13154326379299164, -0.2230227291584015, -0.4423238933086395, 0.18433934450149536, 0.20031031966209412, 0.010595515370368958, -0.04801960289478302, 0.3171256184577942, 0.27332761883735657, -0.019358184188604355, -0.9274190068244934, 0.02281307801604271, 0.036207374185323715, -0.866021454334259, 0.10836007446050644, -0.12209833413362503, -0.16590134799480438, -0.06039925664663315, 0.9285473227500916, 0.33891767263412476, 0.09466900676488876, 0.41025543212890625, -0.05556789040565491, 0.10231540352106094, 0.007456256542354822, 0.9449831247329712, 0.41254082322120667, -0.6289905905723572, -0.04905855283141136, -0.08463756740093231, -0.012693061493337154, -0.7034499645233154, -0.10123688727617264, 0.2420695573091507, 0.5604087114334106, -0.12863080203533173, 0.36087292432785034, -0.04533151164650917, -0.013536001555621624, -0.4691888391971588, 0.9684890508651733, -0.4839971661567688, 1.6834818124771118, 0.06018073856830597, -0.7418259382247925, -1.2866144180297852, 0.450793981552124, 0.30119872093200684, 0.08410949259996414, -0.4535144865512848, 0.40303394198417664, 0.3794225752353668, 0.2188153713941574, -0.20466504991054535, 0.462927907705307, 0.216789111495018, 0.7911638617515564, -1.1457149982452393, 0.06038619205355644, -0.2670702636241913, -0.5398946404457092, 0.5693678855895996, 0.31192949414253235, -0.3868614137172699, 0.4230123460292816, 0.05341199040412903, 0.03877078369259834, -0.19299696385860443, -0.4542882442474365, 0.404527485370636, 0.34738853573799133, -0.04951373115181923, 0.12927190959453583, 0.08045922964811325, -0.40759268403053284, -0.4752483069896698, 0.4710274040699005, 0.1685497909784317, 0.010231166146695614, 0.09070432186126709, 0.24158766865730286, -0.20461134612560272, -0.4144580364227295, -0.6179102063179016, -0.03284711390733719, -0.30877918004989624, 0.174004927277565, -0.33607491850852966, 0.000692575762514025, 0.022996481508016586, -0.20939873158931732, -0.3887920081615448, -0.19453991949558258, 0.5060820579528809, 0.31941574811935425, -0.5182176232337952, 0.606412410736084, 0.10926879197359085, 0.3532566428184509, 0.2551397681236267, 0.4285871684551239, 0.1823257952928543, -0.2630389630794525, 0.3165118992328644, 0.46010032296180725, 0.2323721945285797, -0.039258502423763275, -0.15481166541576385, 0.5374802350997925, 0.39282557368278503, -0.2944509983062744, -0.07446615397930145, 0.30727362632751465, 0.7015359401702881, -1.192339539527893, -0.3400382399559021, 0.09854206442832947, 0.2914498448371887, -0.028033267706632614, -0.29512807726860046, 0.14070311188697815, -0.33185815811157227, 0.15658864378929138, 0.2577868700027466, 0.09089448302984238, -0.7357845306396484, 0.605164110660553, 0.27462050318717957, 1.166260004043579, -0.20696702599525452, 0.8692367076873779, -0.7384532690048218, -0.22475431859493256, 0.1819908171892166, 0.7682921290397644, -0.3876805007457733, -0.05227744206786156, 1.013058066368103, 0.18510957062244415, 0.06979431957006454, 0.3470912277698517, 0.16563105583190918, -1.1506989002227783, 0.5000833868980408, 0.21697504818439484, 1.0794548988342285, 0.1278354823589325, 0.1323353350162506, 1.384179949760437, -0.9105334281921387, 0.4335886836051941, -0.829731285572052, -0.19832023978233337, -0.6445632576942444, 0.22592496871948242, -0.4109324514865875, 0.14800997078418732, 0.45793890953063965, 0.24208950996398926, 0.276241272687912, -0.5155998468399048, 0.19159464538097382, 0.00856669619679451, 0.03415631130337715, -0.47728291153907776, -0.4729893207550049, -0.4178300201892853, -0.09277878701686859, -0.10362105816602707, 0.2243383228778839, -0.8389745950698853, 0.11303340643644333, 0.30279505252838135, 0.03141441196203232, -0.019926149398088455, -0.5354894399642944, 0.5285530686378479, 0.05379745364189148, 0.8011911511421204, 0.38255012035369873, -0.2103412002325058, 0.04119842126965523, -0.0696997120976448, -0.1395498514175415, -0.42785125970840454, 0.17679795622825623, -0.39044904708862305, -0.10006758570671082, -0.5836010575294495, 0.7317477464675903, 0.08520398288965225, -0.3051891326904297, 0.30878114700317383, -0.2940795123577118, -0.026611655950546265, 0.04749225080013275, -0.30076655745506287, -0.3013959228992462, 0.45592135190963745, -0.12512992322444916, 0.4118240475654602, -0.7770228385925293, -1.2412819862365723, 0.5328079462051392, 0.09900780767202377, 0.680467426776886, -0.16439025104045868, -0.44979071617126465, 0.0220329612493515, -0.0146784083917737, 0.3196864724159241, 0.05911088362336159, 0.28286418318748474, 0.5187539458274841, 0.5740243196487427, -0.06168704107403755, -0.26723378896713257, -0.23429526388645172, -0.12797467410564423, -0.47781187295913696, 0.9298492074012756, -0.38174477219581604, 0.11916056275367737, 0.6556702256202698, 0.3767402768135071, -0.4207054376602173, 0.9297903180122375, -0.5612480640411377, -0.5085792541503906, 0.13275983929634094, 0.4083406329154968, 0.17482978105545044, -0.2761038839817047, 0.41090333461761475, 0.46648070216178894, -0.010509787127375603, -0.07854840904474258, -0.07357705384492874, -0.39380714297294617, 0.16540291905403137, 0.14563784003257751, 0.27922847867012024, 0.5583857297897339, -0.5100279450416565, 0.44305220246315, 0.3046274483203888, 0.4453316628932953, -0.6833797097206116, -0.40572047233581543, -0.28397807478904724, 0.05243602767586708, -0.7930346131324768, 0.3881276249885559, 0.20595750212669373, -0.10639004409313202, 0.13994374871253967, -0.04414016753435135, -0.6470661759376526, -0.07347887009382248, -0.4617038369178772, -0.14327628910541534, -0.0133072379976511, -0.12502020597457886, -0.31331413984298706, -0.37023699283599854, 0.4226895272731781, 0.33086568117141724, 0.030579105019569397, -0.4386102855205536, 0.3425372242927551, 0.18676961958408356, 0.2030528336763382, 0.05613519251346588, -0.23882748186588287, 0.18926109373569489, -0.06923289597034454, -0.051540862768888474, -0.14995965361595154, 0.4500289857387543, -0.07490313053131104, -0.07368350774049759, 0.17837877571582794, -0.14193391799926758, -0.5612104535102844, -0.026551315560936928, -0.19696375727653503, 0.10040542483329773, 0.6551735401153564, -0.2671038806438446, -0.10133805125951767, -0.0489494763314724, 0.009313266724348068, 0.03324412554502487, -0.45701056718826294, -0.03623806685209274, -0.010163633152842522, -0.3547760844230652, -0.4026188254356384, 0.3417632281780243, 0.225542351603508, -0.3014313578605652, 0.17510347068309784, 0.26264265179634094, 0.1798689067363739, -0.05477443337440491, -0.12057407945394516, 0.23800010979175568, -0.08747813105583191, 0.12599888443946838, -0.3111798167228699, -0.14200343191623688, 0.2601916790008545, 0.051362957805395126, 0.06868419796228409, 0.16149257123470306, -0.213720440864563, -0.20378395915031433, 0.2625793218612671, 0.10455877333879471, -0.4538714587688446, -0.07721416652202606, 0.0015248922863975167, 0.35018694400787354, -0.130320742726326, -0.3303557336330414, 0.5326921939849854, 0.18289723992347717, -0.19918207824230194, -0.033546969294548035, 0.22787566483020782, -0.18380795419216156, -0.029080688953399658, 0.05976138263940811, 0.06306934356689453, 0.07650525122880936, 0.31812649965286255, 0.251005083322525, 0.05794653296470642, -0.6291872262954712, -0.5719305276870728, 0.21716968715190887, 0.1922754943370819, 0.05888199806213379, 0.1446770280599594, 0.10867911577224731, -0.3510380983352661, -0.3863651752471924, -0.14974269270896912, 0.26377418637275696, -0.21428848803043365, -0.37542805075645447, -0.9698885679244995, -0.1490916609764099, 0.06387249380350113, -0.18824884295463562, -0.1346549242734909, 0.072024405002594, 0.22748546302318573, 0.24639277160167694, 0.014112254604697227, -0.19495540857315063, -0.2375088930130005, 0.17778171598911285, 0.09127280861139297, -0.2840020954608917, 0.01992092840373516, 0.3693760335445404, -0.048242904245853424, 0.45804423093795776, 0.335125595331192, 0.466333270072937, -0.1969284564256668, -0.6103602051734924, -0.30681517720222473, 0.4195472002029419, -0.23955397307872772, -0.5008576512336731, 0.2762257158756256, 0.5357507467269897, -0.07183872163295746, -0.1249571368098259, -0.2803419530391693, 0.5787360668182373, 0.5366249680519104, 2.5090529918670654, 0.3143737316131592, -0.12558762729167938, -0.3428712785243988, -0.2539703845977783, 0.1975870579481125, 0.05696148797869682, -0.7585370540618896, 0.3778866231441498, 0.46264079213142395, -0.5298208594322205, 0.8476433753967285, 1.1824910640716553, 0.2645011246204376, -0.3415868878364563, 0.19117113947868347, 0.6503214836120605, -0.2555598020553589, -0.6530212163925171, 0.2765991985797882, 2.7104780673980713, -0.29437753558158875, 0.018809033557772636, -0.7460924983024597, -0.2177475243806839, -0.0764068216085434, 0.031459975987672806, -0.03330552205443382, -0.4229569733142853, -0.12968787550926208, 0.11529669910669327, -0.18595923483371735, 0.3250292241573334, 0.6137679219245911, 0.30017244815826416, 0.13547037541866302, 0.301887571811676, 0.34775763750076294, 0.22182069718837738, -0.21119879186153412, 0.36030831933021545, -0.4147542417049408, -0.35269439220428467, 0.21199743449687958, 0.12541846930980682, 0.27401724457740784, -0.14833123981952667, -0.1941787302494049, 0.05810035765171051, -0.3399449288845062, -0.9532667994499207, 0.5365293622016907, 0.25244584679603577, 0.14042925834655762, -0.35227862000465393, -0.03667417913675308, 0.07932586967945099, -0.8242669105529785, -0.09177830070257187, 0.19344623386859894, -0.05257412791252136, -0.17548833787441254, -0.1183939054608345, 0.43908992409706116, -0.04115807265043259, 0.16169102489948273, -0.015191457234323025, -0.3484746217727661, -0.5630003213882446, 0.3313007056713104, -0.05934217944741249, 0.6404608488082886, -0.21262025833129883, 0.30550330877304077, 0.009220508858561516, 0.2872452437877655, 0.10288485139608383, -0.1664285808801651, 0.06078564375638962, -0.0534980334341526, 0.13655421137809753, -0.3310752213001251, -0.0663132518529892, -0.1827145516872406, 0.17357902228832245, -0.3472033441066742, 0.18491315841674805, 0.03894348815083504, -0.0050116488710045815, -0.15116433799266815, -0.18134263157844543, 0.1296941637992859, -0.5436208844184875, 0.10337626188993454, -0.5762858986854553, -0.30718374252319336, 0.10628478974103928, 0.9844803810119629, -0.485860675573349, 0.8830493688583374, -0.2818939685821533, -0.30425795912742615, -0.19551324844360352, -0.3406895697116852, 0.16625314950942993, -0.45503321290016174, -0.05128348246216774, 0.007373468950390816, 0.013545921072363853, -0.25412485003471375, 0.09517677128314972, -0.10991956293582916, 0.06566086411476135, -0.43392327427864075, 0.5010771751403809, -0.06885870546102524, -0.3515912890434265, -0.0386834554374218, -0.7139155268669128, 0.026066981256008148, 0.343010812997818, -0.1769295483827591, -0.24140091240406036, -0.006895419210195541, -0.08855229616165161, 0.03864365443587303, 0.07017452269792557, -0.019775884225964546, -0.19795402884483337, 0.2627010643482208, 0.31217581033706665, -0.027014093473553658, 0.2145465463399887, -0.49509820342063904, 0.12864212691783905, -0.6332560181617737, 0.5347766280174255, -0.23435068130493164, -0.055241480469703674, 0.1396295726299286, -0.14039334654808044, 0.12723180651664734, 0.12325351685285568, -0.06585917621850967, -0.266569048166275, -0.02924833446741104, -0.3394347131252289, 0.11250409483909607, 0.15357208251953125, 0.12541210651397705, -0.4338817298412323, 0.2037861943244934, -0.44165390729904175, -0.35000285506248474, -0.057939015328884125, 0.19325602054595947, -0.2091086059808731, -0.11848627030849457, -0.029797283932566643, 0.24496299028396606, 0.12889671325683594, 0.22786621749401093, 0.09042033553123474, 0.09855859726667404, 0.1698434203863144, 0.051661524921655655, -0.2663629353046417, -0.14616252481937408, 0.26808589696884155, -0.24227893352508545, 0.5891796350479126, 0.10441488027572632, 0.2517984211444855, 0.09066426008939743, 0.3583274483680725, -0.45700621604919434, -0.008902367204427719, 0.014988493174314499, 0.26157546043395996, 0.04150360822677612, 0.23418128490447998, -0.14506323635578156, 0.052811719477176666, -0.17667639255523682, 0.4637944996356964, -0.12288481742143631, -0.08689147979021072, -0.025655871257185936, -0.025257663801312447, -0.08855586498975754, 0.19879718124866486, 0.10490241646766663, 0.21174849569797516, 0.28167954087257385, 0.05859352648258209, -0.34264805912971497, -0.019300658255815506, 0.19756942987442017, 0.06933342665433884, -0.3405327796936035, 0.13246804475784302, -0.05505242571234703, 0.33455684781074524, 0.23253938555717468, -0.030334336683154106, 0.06723853945732117, -0.009794121608138084, -0.12488816678524017, -0.27627792954444885, 0.00759586226195097, -0.010451098904013634, 0.07666076719760895, 0.42949026823043823, 0.031700264662504196, -0.1961456835269928, 0.1384705901145935, 0.2614922821521759, -0.09054689109325409, 0.3466312885284424, -0.16100046038627625, 0.06901566684246063, -0.1422472894191742, 0.27080270648002625, 0.14840784668922424, -0.09214160591363907, 0.3434981405735016, 0.0265224389731884, -0.044589921832084656, 0.4225454330444336, -0.44673794507980347, 0.18333318829536438, 0.17436446249485016, 0.27127280831336975, -0.31818267703056335, 0.26478928327560425, 0.24120615422725677, -0.23090696334838867, 0.8338324427604675, 0.0841887891292572, -0.04348443076014519, -0.39377930760383606, -0.030634846538305283, -0.05973171815276146, -0.08422558754682541, -0.11666947603225708, 0.15219619870185852, 0.3425377905368805, 0.1467692106962204, 0.34227320551872253, 0.009504142217338085, 0.37229785323143005, 0.06245013326406479, -0.08052276074886322, 0.08613070845603943, 0.21065661311149597, -0.21974533796310425, 0.0012854922097176313, 0.1556686908006668, 0.22121162712574005, 0.011013638228178024, 0.2920741140842438, 0.11261693388223648, 0.22969788312911987, -0.08031324297189713, -0.006342385429888964, 0.06511445343494415, -0.1172507107257843, -0.21388915181159973, 0.18844111263751984, -0.19134856760501862, -0.11852224171161652, 0.28638458251953125, 0.20005840063095093, -0.429907888174057, -0.13602860271930695, -0.08458486944437027, 0.022274170070886612, -0.039718400686979294, -0.14104340970516205, 0.24088619649410248, -0.19687329232692719, -0.11105070263147354, -0.07260200381278992, -0.12727178633213043, 0.4301736652851105, 0.04394839331507683, -0.12948119640350342, 0.03540429472923279, 0.32496747374534607, -0.45081815123558044, 0.09899520128965378, -0.3568885028362274, -0.5688442587852478, 0.13616959750652313, -0.12982049584388733, -0.10324399173259735, 0.0028640148229897022, 0.17065592110157013, 0.0290662981569767, -0.29058942198753357, -0.24253353476524353, -0.13845443725585938, 0.1466471552848816, 0.06206578388810158, 0.35603028535842896, -0.011931799352169037, 0.012313267216086388, -0.19288517534732819, 0.1530400961637497, -0.044253818690776825, 0.8160913586616516, -0.5437282919883728, 0.3301748037338257, 0.37618041038513184, 0.32703855633735657, 0.19955109059810638, 0.05655283108353615, -0.6431627869606018, 0.4654749631881714, 0.3856735825538635, 0.01091267541050911, -0.5216257572174072, 0.7454229593276978, 0.02057495154440403, 0.043579258024692535, -0.16609059274196625, -0.33885297179222107, -0.009791015647351742, 0.3003217875957489, 0.11696063727140427, -0.3210594952106476, 0.09741818159818649, -0.14949482679367065, -0.11691295355558395, -0.3197459578514099, 0.18483729660511017, -0.08487273007631302, -0.04709133133292198, -0.3926019072532654, 0.26949140429496765, 0.13574670255184174, 0.5051167607307434, 0.09348965436220169, 0.3049737513065338, 0.46676596999168396, -0.2865900695323944, -0.0666121393442154, 0.05496828630566597, -0.4167408049106598, 0.010734422132372856, -0.15709882974624634, -0.02205156721174717, -0.15541855990886688, 0.10968639701604843, -0.12833818793296814, -0.3292194604873657, -0.6380602717399597, 0.717366635799408, -0.013752789236605167, 0.02223549783229828, -0.08757104724645615, 0.09688014537096024, 0.03981471061706543, 0.3246362805366516, 0.09566815197467804, -0.8176327347755432, 0.08498582988977432, -0.09107542783021927, 0.2874700129032135, 0.06684653460979462, -0.19312581419944763, 0.24143365025520325, -0.08081647008657455, 0.013546962291002274, 0.307966023683548, -0.18104547262191772, -0.10289694368839264, -0.10220248252153397, -0.11193257570266724, 0.04758860915899277, -0.05368385091423988, -0.1804569661617279, 0.2325459122657776, -0.3557164967060089, 0.013007971458137035, 0.18487578630447388, -0.3456096947193146, -0.11817152798175812, 0.22208206355571747, 0.017095770686864853, -0.09961321204900742, 0.017584051936864853, -0.26532360911369324, -0.0680236741900444, 0.082412488758564, -0.1844775527715683, 0.14874164760112762, 0.32100024819374084, -0.23934991657733917, 0.10854840278625488, 0.4229409992694855, 0.0049319760873913765, -0.02268817462027073, -0.17692402005195618, 0.049844615161418915, 0.034019045531749725, -0.06159289553761482, -0.07157868891954422, 0.06937039643526077, 0.13240976631641388, -0.1766703873872757, -0.19262804090976715, 0.32862964272499084, 0.8460041284561157, 0.4314928948879242, -1.3903311491012573, -0.020568476989865303, 0.3366052508354187, 0.5199951529502869, 0.23471905291080475, -0.047390297055244446, -0.21306724846363068, -0.20034007728099823, -0.8696194887161255, -0.3700062930583954, 0.1079050600528717, -0.06346598267555237, 0.3156704902648926, -0.025705503299832344, 1.5276778936386108, -0.6524583101272583, -0.2795272171497345, -0.03814119100570679, -0.023194413632154465, -1.6713026762008667, -0.20483234524726868, 0.5098810791969299, 0.9147418141365051, -0.2708421051502228, 0.5051775574684143, -0.35335952043533325, -2.2029342651367188, -1.451890468597412, -0.2827282249927521, 0.07022342085838318, -0.4441360831260681, -0.0014877269277349114, 0.31407949328422546, -0.21833890676498413, 0.2266794741153717, 0.24779090285301208, 0.10085972398519516, 0.17408086359500885, -0.08152652531862259, -0.1188204362988472, -0.28413188457489014, 0.7940562963485718, -0.18233144283294678, 0.5402229428291321, -0.1689375638961792, 0.018824946135282516, -0.10232376307249069, -0.00841392483562231, 0.37668025493621826, -0.12025059014558792, -0.056648723781108856, 0.1650436818599701, 0.1884956955909729, -0.2184140831232071, -0.10589363425970078, -0.06140277907252312, 0.24131590127944946, 0.22280672192573547, -0.15686996281147003, 0.18006978929042816, 0.17440640926361084, 0.15586450695991516, 0.1318226456642151, -0.11120366305112839, 0.03200514614582062, 0.13066338002681732, 0.0515306256711483, -0.14019909501075745, 0.09046752750873566, 0.07586969435214996, 0.03792164847254753, -0.07003866136074066, -0.34156545996665955, 0.2767277956008911, -0.05782905966043472, 0.34777477383613586, -0.12877841293811798, -0.1156875267624855, -0.12385205924510956, 0.1789959967136383, 0.3177180290222168, -0.09384225308895111, -0.03855196014046669, 0.03976907581090927, -0.14515206217765808, 0.40031445026397705, 0.004090508911758661, -0.1028468981385231, -0.16759523749351501, 0.36714911460876465, -0.11584363132715225, -0.02919653244316578, -0.00046184565871953964, 0.07355693727731705, -0.11331506818532944, -0.21548566222190857, -0.18422409892082214, 0.1516643613576889, 0.24309498071670532, 0.024928683415055275, -0.20565025508403778, 0.11763953417539597, 0.024028494954109192, 0.01642659306526184, -0.3318632245063782, -0.043182019144296646, -0.14946989715099335, 0.29651230573654175, 0.3777391314506531, -0.10504763573408127, 0.1816023737192154, 0.2266872376203537, -0.3948105573654175, 0.41906899213790894, 0.18507610261440277, 0.10954954475164413, -0.023572510108351707, 0.1079883724451065, -0.0481242835521698, 0.022908927872776985, 0.11289770156145096, 0.1349271982908249, -0.052447106689214706, 0.23168258368968964, -0.2244114875793457, 0.05665658786892891, -0.20037339627742767, -0.10071122646331787, 0.6348041296005249, 0.31036582589149475, -0.05532510578632355, 0.10529161244630814, 0.1385369896888733, -0.3646783232688904, 0.1376648098230362, 0.08451720327138901, -0.4802151322364807, -0.012991884723305702, -0.1981404423713684, -0.10239243507385254, 0.6114630103111267, -0.26951882243156433, 0.033968884497880936, -0.2645685374736786, -0.4230286478996277, -0.7047756314277649, 0.30314022302627563, -0.5785675048828125, 0.1564616709947586, 0.24140353500843048, 0.3037700653076172, 0.22250044345855713, -0.1077120378613472, 0.09233030676841736, -0.3075188100337982, 0.029436403885483742, 0.1947418451309204, 0.08352383226156235, 0.029547395184636116, -0.03266614302992821, -0.30592095851898193, 0.20024871826171875, -0.1863938719034195, -0.1784089356660843, -0.8035257458686829, 0.02610063925385475, 0.27447572350502014, 0.06969451159238815, -0.027031509205698967, 0.797264814376831, -1.1404474973678589, 0.3093078136444092, 0.13530772924423218, 0.22143658995628357, -0.029316455125808716, 0.3622278869152069, -0.3654865324497223, 0.014546545222401619, 0.06408245861530304, 0.26877257227897644, 0.7676211595535278, 0.12442994117736816, -0.30472543835639954, 0.5057622194290161, -0.5743699073791504, 0.7573913931846619, -0.04871566221117973, 1.1764484643936157, -0.08965151011943817, -0.3557289242744446, -0.20178407430648804, -0.2657853364944458, -0.06811703741550446, -0.20474755764007568, 0.1861148476600647, 0.05455870181322098, 0.20275075733661652, -0.1531873643398285, 0.37858301401138306, -0.05965917184948921, 0.5051890015602112, -0.11831511557102203, 0.23998472094535828, 0.08528799563646317, -0.16804282367229462, -0.13159304857254028, -0.4882473647594452, -0.07589907944202423, 0.14362825453281403, 0.3844241499900818, 0.08226746320724487, -0.015281753614544868, -0.3969767689704895, -0.39928004145622253, -0.08052059262990952, 0.04294776916503906, 0.4678937494754791, -0.0015597762539982796, 0.43801644444465637, -0.006844864692538977, 0.22264525294303894, 0.3577568531036377, 0.07689281553030014, 0.02129044197499752, 0.41917383670806885, 0.5564037561416626, -1.2097679376602173, 0.28658780455589294, -0.721005916595459, 0.012510886415839195, 0.485504150390625, 0.3641519546508789, 0.30912354588508606, 0.35463204979896545, 0.26905369758605957, -0.774365246295929, 0.08512755483388901, -0.07130832225084305, 0.3335103392601013, -0.1438857614994049, 0.2562578320503235, -0.3972640037536621, 0.3111476004123688, 0.7585218548774719, -0.9351744651794434, 0.8476890921592712, -0.588010311126709, 0.7491586804389954, -0.17423151433467865, 0.024270620197057724, -0.6685421466827393, 0.38820329308509827, -1.7848221063613892, 0.19201001524925232, -0.030969163402915, 0.44042080640792847, -0.028151119127869606, -0.384797066450119, -0.23838594555854797, -0.02009604685008526, 0.25484347343444824, -0.36212050914764404, 0.08422151207923889, 0.002884537447243929, -0.37964367866516113, -0.5396954417228699, 0.613947331905365, 0.022686125710606575, 0.12764644622802734, -0.16536368429660797, -0.11709052324295044, 0.03841283917427063, 0.013226130045950413, -0.22746296226978302, 0.04365376755595207, -0.8451738953590393, -0.5008957982063293, -0.2090131640434265, 0.6591348052024841, -0.40132835507392883, 0.06896480917930603, -0.6459645628929138, -0.032446760684251785, 0.07856322824954987, -0.04200368374586105, 0.5562731623649597, 0.15087436139583588, 0.03342563658952713, -0.15546944737434387, 0.0419406034052372, -0.13917198777198792, 0.09407535195350647, -0.13707132637500763, -0.5569100379943848, 0.07643353193998337, 0.16865374147891998, 0.46228840947151184, 0.36118456721305847, 0.44257137179374695, -0.16112256050109863, 0.09233485162258148, 0.20924246311187744, -0.415022075176239, 0.12182383239269257, -0.20789921283721924, 0.13577646017074585, 0.2837109863758087, 0.19741511344909668, -0.07688944786787033, -0.0011337825562804937, -0.1187969446182251, 0.4977709949016571, -0.12359713762998581, 0.08672454208135605, 0.16646802425384521, 0.2680172026157379, -0.2733200192451477, 0.11355799436569214, -0.14654947817325592, -0.6454547643661499, -0.4128890335559845, -1.5261938571929932, 0.18161475658416748, -0.7395244836807251, 0.1705976277589798, 1.1019994020462036, 0.3306766152381897, 0.13566362857818604, 0.6813352108001709, -0.5599785447120667, -0.6169634461402893, 0.34399503469467163, -0.33962252736091614, -0.4650665521621704, 0.14707905054092407, 0.2583639323711395, -1.7834171056747437, 0.49083229899406433, 0.1537366807460785, 0.3683789372444153, -0.6119779944419861, -1.09928297996521, -0.8476093411445618, -0.40411970019340515, 0.6872917413711548, 0.06087606027722359, 0.27607443928718567, 0.6739116311073303, -0.14827075600624084, 0.08787617832422256, -0.08672566711902618, 0.10469000041484833, -0.44674837589263916, 0.016346409916877747, -0.0736909806728363, 0.23502525687217712, 0.03964010998606682, -0.2925960421562195, 0.08075973391532898, -0.04017221927642822, -0.18100139498710632, -0.1188647598028183, -0.15903304517269135, 0.13812266290187836, 0.15232309699058533, 0.11973274499177933, -0.06204779073596001, -0.07152701914310455, 0.04024176672101021, 0.2518109381198883, -0.11859352141618729, -0.05007016286253929, -0.09993544220924377, -0.12173198908567429, 0.05390677601099014, -0.29782962799072266, 0.23512467741966248, 0.12234116345643997, -0.24480226635932922, -0.00465703709051013, 0.2936840057373047, -0.04937336966395378, -0.6502909064292908, -0.024891531094908714, -0.19387704133987427, -0.1763657182455063, 0.3791583180427551, -0.022987782955169678, -0.08523941040039062, 0.46359118819236755, -0.10817734152078629, 0.01072301622480154, -0.11286506801843643, 0.32470229268074036, -0.5649177432060242, 0.6086819171905518, 0.01671978458762169, 0.1514897495508194, 0.32505619525909424, 0.32940784096717834, 0.18182462453842163, -0.19062982499599457, 0.041394107043743134, 0.34574830532073975, -0.23590140044689178, -0.4315894842147827, -0.12100742012262344, 0.12206853926181793, -0.360013872385025, 0.18692225217819214, -0.16118216514587402, 1.5600265264511108, 0.24841362237930298, -0.15699253976345062, -0.6788306832313538, -0.09513556957244873, 0.2562617361545563, 0.36931052803993225, 0.001095293671824038, 0.27380332350730896, 0.126357764005661, 0.32642120122909546, -0.10905967652797699, -0.18936139345169067, -0.23285764455795288, 0.22322122752666473, -0.38421332836151123, 0.3292802572250366, 0.060358256101608276, 0.26474252343177795, 0.3381514549255371, -0.17160218954086304, -0.16577275097370148, 0.013186181895434856, 0.02635926939547062, -0.0763731598854065, 0.0026559794787317514, -0.1392468512058258, 0.4050869047641754, -0.0009012308437377214, 0.08493039011955261, 0.30399760603904724, -0.3975045084953308, -0.09123829007148743, -0.08127187192440033, -0.10908329486846924, -0.1014232262969017, 0.02564985118806362, -0.6296926140785217, 0.026387454941868782, 0.1485886573791504, -0.06736516952514648, 0.28091493248939514, -0.24048399925231934, 0.000633834395557642, -0.018379762768745422, 0.050921905785799026, -0.3409654200077057, 0.3030455410480499, -0.17518852651119232, -0.20538146793842316, -0.2659847140312195, -0.010338250547647476, 0.2204643338918686, -0.11181068420410156, -0.006718471646308899, 0.26296544075012207, -0.2018389254808426, 0.11325056105852127, -0.04132615402340889, 0.008909748867154121, -0.2311563789844513, -0.052943501621484756, 0.24314634501934052, -0.5004594326019287, 0.30614450573921204, 0.22210513055324554, -0.4756270945072174, 0.13032549619674683, -0.21456879377365112, -0.02189049869775772, 0.038647547364234924, -0.02662687376141548, 0.23030062019824982, 0.37817904353141785, 0.1309974491596222, 0.8528928756713867, 0.19480669498443604, -0.4500441551208496, 0.7150078415870667, -0.39477699995040894, 0.22440475225448608, 0.16866204142570496, 0.4445171356201172, -0.07776553183794022, 0.12783695757389069, -0.1578693687915802, 0.5925363898277283, -0.32069048285484314, 0.6563037633895874, 0.6563896536827087, 0.11345130205154419, 0.0450512133538723, 0.05158097669482231, 0.0007905937964096665, 0.9736006855964661, 0.9917365312576294, 0.35853493213653564, 0.025678249076008797, -0.35198014974594116, 0.35147425532341003, 0.0537857785820961, -0.8356556296348572, -0.23944798111915588, -0.29988357424736023, -0.31317993998527527, -0.316155344247818, -0.3578413128852844, 0.5117523074150085, -0.14990492165088654, -0.2831355631351471, -0.32548898458480835, 0.014390268363058567, -0.7523385882377625, 0.08391469717025757, 0.23045942187309265, 0.305427610874176, -0.1588326394557953, 0.08151911944150925, 0.1741773933172226, 0.5639277696609497, 0.2747773826122284, -0.40040916204452515, 0.2261972427368164, 0.3260771334171295, 0.6598443984985352, -0.1992986500263214, -0.42696186900138855, 0.11713078618049622, -0.05054029822349548, -0.3495655953884125, -0.15510837733745575, 0.4630306661128998, 0.27954360842704773, -0.6528127193450928, -0.10802707821130753, -0.49928927421569824, -0.00017269450472667813, -0.25302261114120483, 0.6696804165840149, -0.12977929413318634, 0.14480799436569214, -0.07761635631322861, -0.2901008725166321, 0.39944684505462646, -0.294045090675354, -0.5298511385917664, -0.5826731324195862, 1.0728538036346436, -0.018058449029922485, 0.17073790729045868, -1.2709981203079224, 0.49903202056884766, -0.8477888703346252, 0.5853593349456787, 0.2706860601902008, -0.9621492028236389, 0.4472271800041199, 0.0033875226508826017, -0.48612868785858154, -0.3901987075805664, -0.19306544959545135, -0.39620664715766907, 1.0547430515289307, 0.3127841651439667, -0.21376098692417145, -0.5640473961830139, 1.9583796262741089, 0.3126876652240753, 0.11372499912977219, -0.7364283800125122, -1.0274593830108643, 0.2491168975830078, -1.1839948892593384, -0.025129644200205803, 0.01946071721613407, 0.7588116526603699, -1.1612706184387207, -1.7792268991470337, 0.8464736938476562, -2.5650131702423096, -0.23383602499961853, -0.855391800403595, 3.0521795749664307, 0.9601354002952576, -0.5500434637069702, 0.0643838495016098, 1.2439775466918945, -1.2978801727294922, 0.7092803716659546, -1.0717400312423706, -0.06282513588666916, -0.553697407245636, -0.5149521827697754, -0.7149298787117004, -0.2595493495464325, -0.020256659016013145, 0.12522174417972565, 0.06246274709701538, 0.27621200680732727, 0.030066797509789467, 0.0029215062968432903, 0.30940544605255127, 0.07316078245639801, -0.05976400896906853, -0.10862137377262115, 0.006260864436626434, 0.3858625292778015, -0.05782938376069069, -0.581488311290741, 0.018785832449793816, 0.09681994467973709, 0.09952203929424286, 0.02123500034213066, -0.3268453776836395, -0.0087876683101058, -0.1898556351661682, -0.10784021764993668, 0.32155874371528625, 0.2967890501022339, 0.5208573937416077, -0.4931413531303406, 0.05510752648115158, 0.27218714356422424, -0.7993561029434204, -0.3432818651199341, -0.1246529296040535, 0.03848288208246231, 0.5422167181968689, -0.016479825600981712, -0.22288574278354645, -0.5912182331085205, -0.5042041540145874, 0.3457889258861542, 0.07974745333194733, -0.6348296403884888, -0.037368737161159515, -0.31572991609573364, -0.5601966977119446, -0.47487449645996094, 0.23871122300624847, 0.20364338159561157, -0.2889467179775238, -0.05342676490545273, 0.3327210247516632, 0.02050885371863842, -0.1819310337305069, -0.3564511835575104, 0.43919068574905396, -0.37586361169815063, -0.4075193405151367, -0.020557988435029984, 0.5616469979286194, 0.1480855643749237, -0.04076964780688286, -0.03173946216702461, -0.028450818732380867, -0.09378092736005783, 0.11557531356811523, -0.14249743521213531, 0.047222625464200974, 0.5386536717414856, -0.492184042930603, 0.15867696702480316, -0.167659729719162, 0.652755856513977, -0.19375620782375336, -0.3031415641307831, -0.3787561058998108, -0.03956269845366478, -0.08418847620487213, 0.10573574900627136, 0.5027644038200378, -0.49487799406051636, -0.11801708489656448, -0.977503776550293, 0.5598546862602234, 0.2569982707500458, 0.5482640862464905, -0.07194914668798447, -0.46754637360572815, -0.1792658567428589, -0.31405824422836304, 0.4980962872505188, -0.16025495529174805, -0.16870909929275513, -0.09685777872800827, 0.221991166472435, -0.4750564396381378, -0.6696072220802307, 0.5409301519393921, -0.0052057974971830845, 0.2926594913005829, -0.30890733003616333, 0.3272632360458374, -0.1285334974527359, -0.007881835103034973, 0.007760569918900728, -0.07175261527299881, 0.186300590634346, -0.02385636791586876, -0.2664716839790344, 0.08290483057498932, 0.4080471396446228, 0.1881294697523117, 0.06116490438580513, -0.19000956416130066, 0.08710457384586334, -0.4413389265537262, 0.33341845870018005, -0.14826957881450653, 0.1321483999490738, -0.4979812204837799, 0.23686909675598145, 0.35414251685142517, -0.21367840468883514, -0.9471082091331482, -0.003247944638133049, 0.06059440225362778, 0.08938158303499222, 1.0103129148483276, 0.30241459608078003, 0.11028414219617844, -0.12176404148340225, 0.2590905427932739, -0.15918982028961182, 0.050010357052087784, -0.22766894102096558, -0.6020712852478027, -0.24219079315662384, -0.4799569547176361, -0.591457724571228, -0.212320476770401, -0.12169143557548523, 0.43680909276008606, 0.047458622604608536, -0.18660150468349457, 0.6311692595481873, -0.10761291533708572, -0.4435839354991913, 0.12162633240222931, 0.30959200859069824, 0.1908319741487503, 0.24997130036354065, 0.5232512950897217, 0.4245060086250305, -0.28073886036872864, 0.368323415517807, -0.5378060936927795, 0.03917250037193298, -0.26079222559928894, -0.3503669202327728, 0.5232039093971252, 0.39773494005203247, -0.24512307345867157, -0.720804750919342, 0.5702994465827942, -0.4196529984474182, 0.3474818468093872, 0.8739893436431885, 0.31137171387672424, 0.1272810697555542, 0.08112667500972748, 0.2630122900009155, 0.42221078276634216, -0.2060953974723816, -0.4181978404521942, 1.142926573753357, -0.4163043200969696, -1.3465790748596191, -0.0973273515701294, 1.9205327033996582, -0.2449685037136078, -0.13565674424171448, -0.8653296828269958, 0.22995229065418243, -0.056417789310216904, 1.65771484375, 1.1986993551254272, 0.32877859473228455, -1.1840957403182983, 0.07787707448005676, 0.3973226547241211, 0.23912058770656586, 0.5285253524780273, -0.073882557451725, -0.9580870270729065, -0.22692972421646118, 0.012003597803413868, 0.17178040742874146, 0.06899303942918777, 0.7847083210945129, -0.41158121824264526, 0.9611138105392456, -0.5154520869255066, -0.188032329082489, 0.3383057117462158, 0.5341708064079285, 0.7755321860313416, 0.38488173484802246, 0.20848096907138824, -0.4068165123462677, -0.18952462077140808, -0.2669156491756439, 0.6918190717697144, -0.3754744827747345, 0.5836035013198853, -0.05880628898739815, 0.3608158528804779, 0.031219884753227234, -0.29141926765441895, 0.87626051902771, -0.29642483592033386, 0.05180530995130539, -0.3346969187259674, 0.302740216255188, 0.08291780948638916, -0.4210178256034851, 0.3075416386127472, 0.17433172464370728, 0.6136756539344788, 2.100848913192749, -0.45498237013816833, 0.4807564616203308, -0.4034521281719208, -0.05816206336021423, -0.07886473834514618, 0.06798138469457626, 0.07582202553749084, -0.6077718734741211, -0.8848118782043457, -0.19701015949249268, 0.17685848474502563, -0.755622148513794, -1.4889031648635864, 1.5407044887542725, 3.638101577758789, -0.6359782218933105, 0.8444316983222961, 1.5191534757614136, 0.5479259490966797, -1.4645882844924927, -0.2865840792655945, -0.08815303444862366, 0.20501534640789032, -0.1397629678249359, -0.24319681525230408, -0.6196299195289612, -0.2039327472448349, 0.6092859506607056, -0.9325522780418396, -0.27293944358825684, 1.0948354005813599, -0.031421005725860596, -0.6463044285774231, 0.26364225149154663, -0.38351690769195557, -0.39094361662864685, 0.2742171287536621, -0.4146791398525238, 0.6995990872383118, 0.005422741640359163, -0.3905644416809082, 0.17256775498390198, -0.8902301788330078, -1.1028985977172852, -0.0875050351023674, -0.10886992514133453, 0.14181502163410187, 0.16201883554458618, -0.31292206048965454, -0.006662213243544102, 0.0881371721625328, -0.11041148751974106, 0.391518235206604, 0.20467786490917206, 0.03481155261397362, 0.0573946051299572, 0.048949941992759705, 0.4862053096294403, -0.19581320881843567, -0.18188686668872833, -0.7354060411453247, -0.2430449277162552, 0.40298303961753845, 0.0009065633057616651, 0.42058703303337097, 0.16386492550373077, -0.38055339455604553, 0.3528527319431305, 0.4223514795303345, -0.32882750034332275, 0.005467526149004698, -0.45031651854515076, -0.07179205119609833, 0.8802539706230164, -0.15346446633338928, -0.4639841616153717, 0.05478012189269066, 0.5458094477653503, -0.03909941390156746, 0.5877119898796082, -0.06766302138566971, -0.23859316110610962, 0.060212742537260056, -0.11022420227527618, 0.6896405816078186, 0.5138007402420044, -0.0017415388720110059, 0.03026295267045498, 0.041274264454841614, 0.7282941937446594, -0.15782134234905243, 0.5147919654846191, 0.4689099192619324, -0.19315889477729797, 1.043058156967163, -0.7107476592063904, 0.7218542695045471, 0.2494877725839615, -0.42464011907577515, 0.11031419783830643, -0.7761079668998718, -0.05171484500169754, 0.08137993514537811, 0.33421456813812256, 0.6108537912368774, -0.0718553438782692, -1.12394380569458, -0.6109316349029541, -0.021027253940701485, 0.15423767268657684, -0.18291307985782623, -0.22332224249839783, -0.21046294271945953, -0.7874205708503723, 0.525337815284729, -0.43327316641807556, 0.7129647135734558, 0.3813149034976959, -0.5818909406661987, 0.5986776351928711, -0.6711294054985046, -0.9446502327919006, 0.23772786557674408, 0.5103276371955872, -0.4618639051914215, 0.25109222531318665, 0.2754727900028229, 0.20592153072357178, -0.04020083695650101, 0.34611472487449646, -0.35052433609962463, -0.21523648500442505, -0.15698935091495514, -0.542068362236023, -0.5401309728622437, 0.0507071390748024, -0.2490343302488327, 0.23473021388053894, -0.12866993248462677, 0.5031474232673645, 0.16871632635593414, -0.05835782736539841, -0.5416895151138306, -0.013180123642086983, -0.2512126564979553, -0.7598735690116882, -0.16465617716312408, -0.5284473896026611, -0.36307334899902344, 0.2035471647977829, -0.14314649999141693, 0.16380095481872559, -0.17178551852703094, -0.08347562700510025, -0.4627513587474823, -0.6757436394691467, -0.5596004128456116, 0.0824870690703392, 0.38887208700180054, 0.09793751686811447, -0.06253314763307571, 0.06130695715546608, 0.1846870481967926, 0.0028970143757760525, -0.6704211235046387, -0.17148485779762268, 0.43962374329566956, 0.03532484918832779, -0.5445131659507751, -0.22763970494270325, -0.20346033573150635, -0.06937061995267868, 0.0913325846195221, 0.536717414855957, 0.4560147821903229, 0.3320489823818207, 0.043502457439899445, 0.4823295772075653, 0.6584476828575134, -0.8153524398803711, 1.6529029607772827, 0.14772926270961761, 0.7134987115859985, -0.01955426298081875, 0.26076915860176086, 0.40273165702819824, -0.6458631753921509, 0.27917343378067017, -0.685196042060852, 0.871974527835846, 0.013538181781768799, -0.20033946633338928, 0.16268421709537506, -0.17765764892101288, -0.9716044664382935, 1.2848970890045166, -1.4804860353469849, -0.04778800532221794, -1.9785315990447998, 0.6192976236343384, -1.0497610569000244, -1.0907964706420898, 1.3288425207138062, -1.184170126914978, 1.816059947013855, -0.8914885520935059, -0.19390682876110077, -1.4774951934814453, -0.3851175904273987, 0.5814493298530579, -0.43867236375808716, -0.43700557947158813, 0.6907122731208801, 1.2235915660858154, -0.9278134703636169, 0.16457228362560272, -0.8474391102790833, -0.5398551821708679, 0.23849694430828094, 0.08669548481702805, 0.1616302728652954, 0.3082886338233948, 0.21643902361392975, 0.5068647265434265, -0.6648298501968384, 0.835604727268219, -0.09061197191476822, 0.513321042060852, -0.4837324619293213, 0.2704102396965027, -0.21323761343955994, 0.2662249803543091, -0.21685077250003815, -0.10267238318920135, 0.49618932604789734, 0.2243594229221344, -0.6022179126739502, 0.18597248196601868, 0.10361723601818085, -0.43597474694252014, 1.380728006362915, -0.27596449851989746, 0.5465657114982605, 0.5148887038230896, -0.0303024984896183, 0.4415585696697235, -0.3658711910247803, 0.23444116115570068, -0.4871053099632263, 0.11884995549917221, 0.02328282594680786, 0.24651487171649933, 0.18727824091911316, 0.03365860506892204, 0.21307767927646637, 0.29136383533477783, 0.6478936672210693, 0.34655049443244934, -0.13259561359882355, 0.4996771812438965, -0.0751761794090271, -0.3922380208969116, 0.6243380904197693, 0.1083790510892868, 0.2908976972103119, 0.9688683748245239, -0.10074605792760849, 0.011168445460498333, -0.369871586561203, -0.12614989280700684, 0.24375972151756287, 0.04879244416952133, 0.2525882422924042, 0.1761205643415451, 0.5912420749664307, -0.4237971901893616, 0.1577501893043518, 0.4963701367378235, 0.29894986748695374, 0.7194347977638245, -0.012187291868031025, 0.21090064942836761, -0.6284235119819641, 0.6795130968093872, 0.32727745175361633, -0.12111692875623703, 0.0012116250582039356, 0.07278716564178467, 0.06540223211050034, 0.3166083097457886, -0.16535811126232147, 0.7352046370506287, 0.4059382677078247, -0.5526913404464722, 0.21753939986228943, 0.13277137279510498, -0.4154338538646698, -0.05960313230752945, 0.052272964268922806, 0.2121279388666153, -0.28571659326553345, -0.23121881484985352, -0.17520131170749664, -0.1992613673210144, 0.23313169181346893, 0.3380314111709595, 0.3391135632991791, -0.1504361778497696, -0.37758809328079224, 0.5810742378234863, -0.15667328238487244, -0.4777178168296814, -0.33887773752212524, 0.4169198274612427, -0.7971583604812622, -0.13359332084655762, -0.038755156099796295, 0.011435872875154018, -0.3902234733104706, -0.15202997624874115, -0.06181706115603447, 0.11881522089242935, -0.5629215240478516, -0.4195147752761841, -0.45788443088531494, 0.13108833134174347, -0.148643359541893, -0.2372952699661255, 0.015569565817713737, 0.13319861888885498, -0.3553176820278168, 0.10181048512458801, 0.22511591017246246, 0.226305291056633, 0.10777391493320465, -0.3560863435268402, -0.5083324909210205, 0.15676915645599365, 0.25399768352508545, 0.016182735562324524, -0.018072104081511497, -0.07261499017477036, 1.1879230737686157, 0.023317251354455948, -0.11195341497659683, 0.38163238763809204, 0.14846448600292206, 0.6237636804580688, -0.10532452911138535, -0.06350172311067581, -1.280335783958435, 1.1704018115997314, -0.5467985272407532, -0.2169424593448639, -1.4210295677185059, 0.9687020778656006, -1.8307076692581177, 0.8656222820281982, 0.1411549150943756, 0.5667195320129395, 0.31538188457489014, -0.07270273566246033, 2.1461596488952637, 0.7557055354118347, 1.2395750284194946, -0.5151446461677551, 0.912039041519165, -0.9624847173690796, -0.5083540678024292, -0.9248229265213013, -0.23697973787784576, -1.3073970079421997, 0.11397408694028854, 0.4597524404525757, 0.8692998290061951, 1.7919316291809082, -0.02008068561553955, 0.2930889427661896, -1.3819228410720825, -0.7747805714607239, -0.06638018786907196, 0.06737576425075531, 0.35801616311073303, 0.09189574420452118, -0.048172466456890106, -0.19224080443382263, -0.49455970525741577, 0.2689763009548187, -0.015093608759343624, -0.2238251119852066, -1.2517199516296387, -0.43739062547683716, -0.17383645474910736, 0.5955331921577454, -0.6172153353691101, -1.1072170734405518, -0.09811132401227951, 0.5464667081832886, 0.36201250553131104, -0.2676965892314911, -0.32466673851013184, 1.073845386505127, 0.08131349086761475, 0.34134531021118164, 0.16198009252548218, 0.27742820978164673, -0.6424368619918823, 0.4798310101032257, 0.03192068636417389, 0.308210551738739, -0.13887333869934082, 0.012963659130036831, -0.418102502822876, -0.38231003284454346, -0.27619123458862305, 0.28893622756004333, -0.0859527587890625, 0.6146938800811768, 0.7182115316390991, 0.31158894300460815, 0.39486169815063477, 0.13912615180015564, -0.8600406646728516, -0.09888595342636108, 0.07606234401464462, 0.4392758905887604, 0.004571389872580767, -0.3277110159397125, -0.03565806895494461, 0.20481696724891663, -5.8791524679691065e-06, 0.10340119153261185, 0.25138548016548157, -0.2766473889350891, -0.3390461504459381, -0.8288232088088989, 0.044219233095645905, 0.4346354305744171, 0.6305446028709412, -0.35984694957733154, -0.11082714051008224, 0.17748621106147766, 0.05573683977127075, -0.7200327515602112, -0.4110257029533386, 0.2842255234718323, 0.07208355516195297, 0.11851538717746735, 0.46077150106430054, -0.09647195041179657, -1.1357604265213013, 0.04723254218697548, -1.5621907711029053, -1.2242196798324585, 0.03969910368323326, -0.10875016450881958, 0.17850922048091888, 0.2994973957538605, -0.5427630543708801, 0.8129119873046875, -0.4548591375350952, -0.44791921973228455, -0.6602122187614441, 0.4190208613872528, -0.19968949258327484, 0.0883677750825882, 0.5906951427459717, 0.4585747718811035, -0.4120941162109375, 0.1448744386434555, -0.5856807827949524, 2.6424949169158936, -0.3965691030025482, -0.8172439932823181, -0.5747279524803162, 0.6689722537994385, 0.02525564283132553, 0.6442660689353943, 0.38480144739151, -0.12922540307044983, -0.05542973056435585, -0.2775873839855194, 0.09698867797851562, 0.361351877450943, -0.1985677033662796, 0.31307974457740784, -0.31458061933517456, -0.8011372685432434, -0.3505322337150574, -0.16433656215667725, 0.36083367466926575, 0.8859807252883911, -0.22524723410606384, 0.1987692266702652, -0.10107443481683731, 0.08842723816633224, 0.3548389971256256, -0.059096913784742355, 0.07953941076993942, -0.6068316698074341, 0.09124728292226791, -0.2534804344177246, 0.7486680150032043, 0.2541589140892029, -0.1991945505142212, -0.23763340711593628, 0.5251556038856506, -0.22934608161449432, -0.3201445937156677, 0.4002595841884613, -0.08031992614269257, -0.2795294225215912, -0.022985244169831276, 0.41757842898368835, -0.06027355045080185, -0.0696287453174591, -0.4470699429512024, 0.46429622173309326, 0.006274836603552103, 0.16781151294708252, 0.08186773210763931, 0.3647976517677307, 0.029304584488272667, 0.08577853441238403, -0.19522561132907867, 0.15887130796909332, -0.14471183717250824, 0.24402357637882233, -0.09600789844989777, -0.3741891086101532, -0.20298361778259277, 0.04502465948462486, -0.1755940467119217, 0.282276451587677, -0.15976952016353607, 0.15629835426807404, -0.4937533140182495, -0.07508382946252823, 0.22345396876335144, 0.4894431233406067, 0.024847954511642456, -0.2353263646364212, 0.5819056034088135, 0.011025995016098022, -0.2325354367494583, 0.23588168621063232, -0.3104385733604431, 0.755255401134491, -0.471987783908844, -0.5349490642547607, 0.24702215194702148, -0.13610133528709412, -0.1707504689693451, 0.44480305910110474, -0.09270963072776794, -0.05662539228796959, -0.1659942865371704, -0.2879200577735901, -0.007940203882753849, 0.16980117559432983, 0.38216936588287354, 0.27660104632377625, -0.06803323328495026, -0.2609264850616455, 1.2263360023498535, 0.49907633662223816, 0.21099735796451569, 0.2821854054927826, -0.39249053597450256, -0.0657142773270607, 0.6231160163879395, 0.22761061787605286, -0.4811660647392273, -0.025246988981962204, -0.35138726234436035, 2.0591375827789307, 0.2655367851257324, 0.40554842352867126, -0.9793409109115601, 4.185125350952148, -0.6347317695617676, -0.7967196702957153, -1.2154178619384766, 1.7656234502792358, -1.2268415689468384, 0.06988425552845001, 0.5879005789756775, 1.7247543334960938, -0.6416403651237488, -0.4658680856227875, 0.21275578439235687, 0.3560570478439331, 0.6356323957443237, 2.3395254611968994, -0.0013999450020492077, 0.4117269217967987, 0.09668096899986267, 0.9286127686500549, -0.6941984295845032, 0.7226462960243225, 0.3801547586917877, 0.3016583323478699, 0.28190672397613525, 0.006755196955054998, -0.10801596194505692, -0.2597174644470215, 1.1554629802703857, 0.32053378224372864, -0.24196165800094604, 0.16239005327224731, 0.008923128247261047, 0.8723243474960327, -0.36626771092414856, -0.26649999618530273, -0.3295658826828003, 0.5579482913017273, -0.43985602259635925, 1.0582488775253296, -0.6563381552696228, -1.2459535598754883, 0.007795230019837618, -0.08522520959377289, -0.3974296450614929, 0.4370688796043396, -0.28936901688575745, 0.7451136708259583, -0.23851513862609863, 0.341569185256958, 0.7687520980834961, 0.3975659906864166, 0.0350373201072216, 0.37249547243118286, -0.0783725306391716, 0.629887044429779, -0.0326792374253273, -0.19534100592136383, -0.0649031549692154, 0.5629574060440063, 0.8606740832328796, -0.19269202649593353, -0.502649188041687, -0.15256556868553162, -0.1874137967824936, -0.35497206449508667, -0.06400638073682785, -0.03233648091554642, -0.5203256011009216, 0.3567798137664795, 0.12749053537845612, 0.2511586844921112, 0.1447232961654663, 0.34657156467437744, -0.5061004757881165, -0.22492295503616333, -0.30814212560653687, -0.42517518997192383, -0.3194460868835449, -0.11741930991411209, 0.6583963632583618, 0.3244972825050354, -0.14972591400146484, -0.12106532603502274, 0.4106942415237427, 0.1345546692609787, 0.043664898723363876, -0.13496433198451996, -0.3764267861843109, 0.042685121297836304, -0.49456748366355896]}}, "linear": {"weight": {"shape": [1, 32], "values": [-0.03186902403831482, 0.2759251892566681, -0.4736764132976532, -1.4052356481552124, -0.4288855791091919, 0.10244657844305038, -0.43775036931037903, -0.529376745223999, -0.2281005084514618, 0.9277378916740417, 0.689970076084137, 0.7366614937782288, -0.5981035232543945, 0.1992359757423401, 0.3460097908973694, -0.8348647952079773, -1.1193116903305054, 0.15172520279884338, 0.15947225689888, 0.5845807194709778, -0.3571658134460449, 0.41399577260017395, 0.016510561108589172, -0.2784910500049591, -0.40624144673347473, -0.01328334491699934, -0.002219607587903738, -0.4245685636997223, -0.45636725425720215, 0.18941278755664825, 0.11720623075962067, -0.3657543361186981]}, "bias": {"shape": [1], "values": [0.0495472252368927]}}, "norm_mean": 7.105193071765825e-05, "norm_std": 0.12681357562541962}}