{
    "config": {
        "model_type": "TCN",
        "norm_mean": 0.0,
        "norm_std": 1.0
    },
    "parameters": {
        "input_size": 1,
        "output_size": 1,
        "kernel_size": 8,
        "stack_size": 3
    },
    "state_dict": {
        "linear": {
            "weight": {
                "shape": [
                    1,
                    8
                ],
                "values": [
                    0.0331929475069046,
                    -0.1220007836818695,
                    -0.11853446811437607,
                    0.09555535763502121,
                    0.1257152259349823,
                    0.1778046041727066,
                    0.07114148139953613,
                    -0.01649375632405281
                ]
            },
            "bias": {
                "shape": [
                    1
                ],
                "values": [
                    -0.32255226373672485
                ]
            }
        },
        "blockStack.0": {
            "conv": {
                "weight": {
                    "shape": [
                        8,
                        1,
                        1
                    ],
                    "values": [
                        -0.92802494764328,
                        -0.32883623242378235,
                        -0.8710286021232605,
                        -0.6031168699264526,
                        0.8152861595153809,
                        -0.6537410616874695,
                        0.687031626701355,
                        0.34451624751091003
                    ]
                },
                "bias": {
                    "shape": [
                        8
                    ],
                    "values": [
                        -0.2079460322856903,
                        0.6522548198699951,
                        -0.9013400077819824,
                        0.4361220896244049,
                        0.2650832235813141,
                        0.9569970965385437,
                        -0.09564612805843353,
                        0.8775320053100586
                    ]
                }
            },
            "conv1": {
                "weight": {
                    "shape": [
                        8,
                        1,
                        8
                    ],
                    "values": [
                        -0.1654408574104309,
                        0.10153507441282272,
                        -0.06458239257335663,
                        -0.03591407462954521,
                        -0.23714296519756317,
                        -0.33625566959381104,
                        0.26440510153770447,
                        -0.07089216262102127,
                        0.11860325187444687,
                        -0.16637401282787323,
                        -0.07407979667186737,
                        0.14901891350746155,
                        0.2599269151687622,
                        0.2929113805294037,
                        -0.21384575963020325,
                        -0.22144564986228943,
                        0.2646265923976898,
                        -0.16078661382198334,
                        -0.20676910877227783,
                        -0.25884780287742615,
                        -0.1897548884153366,
                        -0.22088968753814697,
                        -0.06194265931844711,
                        -0.13132157921791077,
                        -0.2766886353492737,
                        0.2888287305831909,
                        -0.23299987614154816,
                        0.2791842222213745,
                        -0.11420667171478271,
                        -0.274017870426178,
                        -0.22500957548618317,
                        -0.018514344468712807,
                        -0.2946396768093109,
                        0.1748131364583969,
                        -0.2961236834526062,
                        -0.272967129945755,
                        -0.2722856402397156,
                        -0.09330765902996063,
                        -0.10638672113418579,
                        -0.21457482874393463,
                        0.18203136324882507,
                        -0.3002243638038635,
                        -0.12669366598129272,
                        -0.23486799001693726,
                        0.03519966080784798,
                        -0.3047758936882019,
                        -0.35877254605293274,
                        0.12594950199127197,
                        0.3059242069721222,
                        -0.07861122488975525,
                        0.008083751425147057,
                        -0.05279315635561943,
                        0.33450013399124146,
                        -0.12768219411373138,
                        -0.286494642496109,
                        -0.2945929169654846,
                        0.4039531946182251,
                        0.11541256308555603,
                        -0.24184520542621613,
                        0.2613797187805176,
                        0.15298880636692047,
                        0.056978922337293625,
                        -0.075124591588974,
                        0.15582257509231567
                    ]
                },
                "bias": {
                    "shape": [
                        8
                    ],
                    "values": [
                        -0.0017780641792342067,
                        0.2045016884803772,
                        -0.03164142742753029,
                        -0.07601956278085709,
                        -0.21226654946804047,
                        -0.25747236609458923,
                        0.009297340176999569,
                        0.4224359691143036
                    ]
                }
            },
            "bn1": {
                "weight": {
                    "shape": [
                        8
                    ],
                    "values": [
                        0.9926550984382629,
                        0.9598171710968018,
                        0.973784863948822,
                        1.005630612373352,
                        0.9956617951393127,
                        0.9714456796646118,
                        0.9560505151748657,
                        0.9719254970550537
                    ]
                },
                "bias": {
                    "shape": [
                        8
                    ],
                    "values": [
                        -0.130445659160614,
                        0.1296490728855133,
                        0.11267189681529999,
                        0.1496497392654419,
                        0.04990173876285553,
                        -0.01820543222129345,
                        -0.048786383122205734,
                        -0.18776851892471313
                    ]
                },
                "running_mean": {
                    "shape": [
                        8
                    ],
                    "values": [
                        -0.0012979027815163136,
                        0.2058456987142563,
                        -0.029401002451777458,
                        -0.0731898620724678,
                        -0.1876683384180069,
                        -0.22431255877017975,
                        0.009365410543978214,
                        0.4226838946342468
                    ]
                },
                "running_var": {
                    "shape": [
                        8
                    ],
                    "values": [
                        0.0014500102261081338,
                        0.00016561463417019695,
                        0.004362212494015694,
                        0.0013957807095721364,
                        0.006195389200001955,
                        0.0030227864626795053,
                        0.0005055974470451474,
                        0.0034290580078959465
                    ]
                }
            },
            "conv2": {
                "weight": {
                    "shape": [
                        8,
                        8,
                        8
                    ],
                    "values": [
                        -0.08344870060682297,
                        0.10644391924142838,
                        0.1063232496380806,
                        -0.05626219883561134,
                        0.06715548038482666,
                        -0.02862466685473919,
                        0.13420087099075317,
                        0.06599872559309006,
                        -0.07683984935283661,
                        0.027675680816173553,
                        -0.06947863101959229,
                        0.09776540100574493,
                        -0.0407106913626194,
                        -0.049742378294467926,
                        0.05579863116145134,
                        -0.05425034463405609,
                        0.1112397164106369,
                        0.06713990122079849,
                        -0.05376558005809784,
                        -0.08755996078252792,
                        -0.05206597223877907,
                        0.03573012351989746,
                        0.08917227387428284,
                        -0.08152937889099121,
                        -0.05622362717986107,
                        0.08527538180351257,
                        -0.023310182616114616,
                        0.052541282027959824,
                        -0.0344015397131443,
                        0.016742898151278496,
                        0.09790222346782684,
                        -0.02826557867228985,
                        -0.1661929041147232,
                        -0.0547940731048584,
                        -0.06782294809818268,
                        -0.127606600522995,
                        -0.11209243535995483,
                        -0.12109232693910599,
                        0.055018872022628784,
                        -0.13957913219928741,
                        0.005015771370381117,
                        0.11495582014322281,
                        -0.10193683952093124,
                        0.07230307906866074,
                        0.008090653456747532,
                        -0.04561286047101021,
                        -0.0365464873611927,
                        -0.00961360428482294,
                        0.08409222215414047,
                        0.08169680833816528,
                        -0.025382136926054955,
                        -0.041061967611312866,
                        -0.02214866131544113,
                        0.019634399563074112,
                        0.07918845117092133,
                        0.016342438757419586,
                        0.07615429908037186,
                        0.015900326892733574,
                        0.09505641460418701,
                        -0.05502092465758324,
                        -0.04086802899837494,
                        -0.1104230210185051,
                        -0.013073780573904514,
                        -0.1201985701918602,
                        0.021199651062488556,
                        0.00986938364803791,
                        0.003562535159289837,
                        0.11893697828054428,
                        0.11048761755228043,
                        0.05668744444847107,
                        -0.10934760421514511,
                        0.11840145289897919,
                        0.034560948610305786,
                        -0.05782267078757286,
                        -0.08100506663322449,
                        0.021906010806560516,
                        -0.025109192356467247,
                        -0.00968004297465086,
                        -0.060368604958057404,
                        0.06993028521537781,
                        -0.10031376034021378,
                        -0.004724165890365839,
                        0.0029117825906723738,
                        0.03581865131855011,
                        -0.014220219105482101,
                        0.029811512678861618,
                        -0.07940150052309036,
                        -0.042723748832941055,
                        0.01189496461302042,
                        0.08651542663574219,
                        0.08085030317306519,
                        0.131301149725914,
                        -0.10587266832590103,
                        0.008527396246790886,
                        0.01826866716146469,
                        0.028704840689897537,
                        -0.022677216678857803,
                        0.04814606532454491,
                        -0.036955222487449646,
                        -0.05504215508699417,
                        0.08074310421943665,
                        0.08870287239551544,
                        0.025741076096892357,
                        -0.005663636606186628,
                        -0.10609613358974457,
                        -0.07685178518295288,
                        0.008635338395833969,
                        0.02643168717622757,
                        0.10342908650636673,
                        0.11223537474870682,
                        -0.05503799393773079,
                        -0.0009899860015138984,
                        -0.08891980350017548,
                        -0.0446629635989666,
                        -0.11774910986423492,
                        -0.013927297666668892,
                        0.04253653064370155,
                        -0.09476068615913391,
                        0.05438559874892235,
                        -0.09932605922222137,
                        0.06921272724866867,
                        -0.11064574867486954,
                        0.018949169665575027,
                        -0.10241010040044785,
                        0.04499964416027069,
                        0.04794786870479584,
                        0.03155337646603584,
                        -0.10388171672821045,
                        0.05281601846218109,
                        0.039237093180418015,
                        0.07590634375810623,
                        0.07623647153377533,
                        -0.007459517568349838,
                        -0.12229139357805252,
                        -0.08805419504642487,
                        -0.11236252635717392,
                        0.03693249821662903,
                        -0.013183710165321827,
                        0.01631634496152401,
                        -0.027272937819361687,
                        -0.003807636210694909,
                        -0.010291149839758873,
                        0.01842593215405941,
                        0.0008525627199560404,
                        -0.0036802433896809816,
                        0.047430526465177536,
                        -0.11556718498468399,
                        -0.024387141689658165,
                        -0.06980501115322113,
                        0.030303552746772766,
                        -0.10100112855434418,
                        0.07383481413125992,
                        -0.0866527408361435,
                        -0.0012325271964073181,
                        0.007017793599516153,
                        0.044398192316293716,
                        -0.011920366436243057,
                        -0.09083206206560135,
                        0.024784522131085396,
                        0.11370339244604111,
                        -0.04727935418486595,
                        -0.07958731800317764,
                        -0.08657538890838623,
                        0.08635591715574265,
                        0.012118843384087086,
                        -0.03400205448269844,
                        0.031363263726234436,
                        0.08155912905931473,
                        0.01779296062886715,
                        -0.04099239036440849,
                        0.03136282041668892,
                        -0.031157873570919037,
                        0.12429486960172653,
                        0.006964386906474829,
                        -0.016256058588624,
                        0.01444896962493658,
                        0.09992934763431549,
                        0.04999754950404167,
                        -0.031065458431839943,
                        0.05136904492974281,
                        -0.07685506343841553,
                        -0.06774277240037918,
                        -0.06176300346851349,
                        -0.04267850145697594,
                        0.09019345790147781,
                        -0.07674271613359451,
                        0.10045384615659714,
                        0.1240927204489708,
                        0.07147572934627533,
                        -0.02794492244720459,
                        -0.0918738916516304,
                        0.04966074973344803,
                        -0.0889769047498703,
                        -0.02606765553355217,
                        0.046259328722953796,
                        -0.016435299068689346,
                        -0.04690945893526077,
                        -0.01947879046201706,
                        0.07233651727437973,
                        0.08546211570501328,
                        -0.04585638269782066,
                        0.009538181126117706,
                        -0.0006764305289834738,
                        0.0387587770819664,
                        0.012094282545149326,
                        -0.029198290780186653,
                        0.08395331352949142,
                        -0.023177193477749825,
                        0.07152149826288223,
                        -0.04464133456349373,
                        0.07766110450029373,
                        -0.005611435975879431,
                        -0.02145739272236824,
                        0.02676292695105076,
                        0.022188862785696983,
                        0.0069398642517626286,
                        0.015573002398014069,
                        -0.0498669408261776,
                        -0.08020653575658798,
                        -0.12375680357217789,
                        -0.05896187201142311,
                        -0.08340475708246231,
                        -0.08076175302267075,
                        -0.05044160410761833,
                        -0.07045367360115051,
                        -0.08357873558998108,
                        -0.04750504717230797,
                        -0.0164918452501297,
                        0.0189161766320467,
                        -0.17282620072364807,
                        -0.13498950004577637,
                        -0.07335414737462997,
                        0.0848870724439621,
                        0.0010808713268488646,
                        0.02069837972521782,
                        -0.047318506985902786,
                        0.10374920070171356,
                        -0.10497210919857025,
                        0.07261929661035538,
                        -0.10892406851053238,
                        0.05172407999634743,
                        0.12548497319221497,
                        -0.09710032492876053,
                        0.012648479081690311,
                        -0.07370050996541977,
                        -0.07313593477010727,
                        0.057962652295827866,
                        0.01675037480890751,
                        0.07962121069431305,
                        -0.061555322259664536,
                        -0.017954494804143906,
                        0.025561392307281494,
                        -0.047540973871946335,
                        -0.05334494262933731,
                        -0.07213268429040909,
                        0.07593692094087601,
                        -0.0009820651030167937,
                        -0.09889782965183258,
                        0.030768483877182007,
                        0.09922584891319275,
                        -0.015352820046246052,
                        0.0004232852079439908,
                        -0.021200483664870262,
                        0.05852460116147995,
                        0.03881129249930382,
                        0.045511867851018906,
                        0.05582977086305618,
                        -0.05150693282485008,
                        0.07219517230987549,
                        -0.03950080648064613,
                        -0.13143250346183777,
                        0.08396314829587936,
                        -0.07403010129928589,
                        0.11594638973474503,
                        0.010786915197968483,
                        0.10398485511541367,
                        0.047366682440042496,
                        -0.026480657979846,
                        -0.06578788161277771,
                        -0.06095143407583237,
                        -0.06951235979795456,
                        -0.023750994354486465,
                        -0.050419170409440994,
                        -0.14119841158390045,
                        0.11067600548267365,
                        -0.060908302664756775,
                        -0.07419879734516144,
                        0.0860283225774765,
                        -0.09048386663198471,
                        0.06795638799667358,
                        -0.07075947523117065,
                        0.010490392334759235,
                        -0.10756392031908035,
                        -0.030539002269506454,
                        0.014872686006128788,
                        -0.006046256981790066,
                        0.0015928627690300345,
                        -0.08976403623819351,
                        -0.03435526043176651,
                        0.04437171295285225,
                        0.10885383933782578,
                        -0.012527714483439922,
                        0.07609325647354126,
                        0.06855851411819458,
                        0.001755399745889008,
                        0.030620630830526352,
                        -0.05573965236544609,
                        -0.12531641125679016,
                        0.019821571186184883,
                        -0.031678706407547,
                        0.026857802644371986,
                        0.05904754623770714,
                        0.0006545190117321908,
                        0.11286074668169022,
                        0.022432632744312286,
                        0.06227787956595421,
                        0.038835007697343826,
                        -0.08281547576189041,
                        0.1256098449230194,
                        -0.027910325676202774,
                        -0.023383736610412598,
                        -0.04579067975282669,
                        -0.05705621466040611,
                        -0.11336671561002731,
                        0.05397104471921921,
                        0.05604298785328865,
                        0.01822870783507824,
                        0.06670499593019485,
                        0.00885494239628315,
                        -0.01853806897997856,
                        -0.041654232889413834,
                        -0.048968587070703506,
                        -0.004518402740359306,
                        -0.003565024584531784,
                        0.038061052560806274,
                        0.0125072430819273,
                        0.07263203710317612,
                        0.0391104482114315,
                        -0.07828512787818909,
                        -0.008772710338234901,
                        0.07218219339847565,
                        0.04565214738249779,
                        0.04152727872133255,
                        0.019262593239545822,
                        0.051851071417331696,
                        0.15387512743473053,
                        0.15038403868675232,
                        0.09159424901008606,
                        -0.038355231285095215,
                        0.0899965763092041,
                        0.038607124239206314,
                        -0.004394974559545517,
                        -0.012133149430155754,
                        -0.017703603953123093,
                        -0.09356798976659775,
                        0.04809439182281494,
                        0.08657027781009674,
                        -0.04572240263223648,
                        -0.07544708997011185,
                        0.095722995698452,
                        -0.07576228678226471,
                        -0.07526502013206482,
                        0.03882215917110443,
                        0.004042747430503368,
                        -0.05120164528489113,
                        0.033329639583826065,
                        -0.09497156739234924,
                        0.0010249621700495481,
                        -0.0057233767583966255,
                        -0.0559241883456707,
                        -0.09786097705364227,
                        0.07957080751657486,
                        0.006488259881734848,
                        -0.06001706421375275,
                        -0.0011073709465563297,
                        -0.05038392171263695,
                        -0.02565416507422924,
                        -0.0537237711250782,
                        0.06967872381210327,
                        -0.05434528365731239,
                        0.03760591521859169,
                        0.02060014382004738,
                        0.022083858028054237,
                        0.13307924568653107,
                        -0.023400137200951576,
                        -0.0456295944750309,
                        -0.10778447985649109,
                        0.04078097641468048,
                        -0.012530554085969925,
                        -0.028607359156012535,
                        -0.07723270356655121,
                        0.003270760178565979,
                        -0.010133398696780205,
                        -0.06389851868152618,
                        -0.023076986894011497,
                        -0.08979644626379013,
                        -0.09317266941070557,
                        -0.06677570939064026,
                        0.02268354408442974,
                        0.0013223463902249932,
                        -0.00998582225292921,
                        0.00449094083160162,
                        -0.04589259997010231,
                        -0.007752663921564817,
                        0.05776071175932884,
                        0.031264498829841614,
                        -0.03873012587428093,
                        0.08506272733211517,
                        0.07920071482658386,
                        -0.08335414528846741,
                        0.042647477239370346,
                        0.03287935629487038,
                        -0.0787242203950882,
                        -0.03181195631623268,
                        0.0628400668501854,
                        0.04599370062351227,
                        -0.10437452793121338,
                        -0.02767028659582138,
                        -0.05856851115822792,
                        -0.03667204827070236,
                        -0.04459793493151665,
                        0.09830403327941895,
                        -0.0639323964715004,
                        0.02659784071147442,
                        -0.05237174779176712,
                        0.02723841927945614,
                        0.03457143157720566,
                        -0.013039641082286835,
                        0.05569314956665039,
                        -0.09607821702957153,
                        -0.046385347843170166,
                        -0.021292544901371002,
                        -0.15942350029945374,
                        -0.07742491364479065,
                        -0.058598730713129044,
                        0.024087252095341682,
                        0.07671693712472916,
                        -0.03349607437849045,
                        -0.06457044929265976,
                        -0.0877588763833046,
                        -0.002507365308701992,
                        0.0378359854221344,
                        0.08708009868860245,
                        -0.09075295925140381,
                        -0.04966298118233681,
                        0.03399692475795746,
                        -0.0013631145702674985,
                        -0.0667700245976448,
                        -0.07402177900075912,
                        0.11630535870790482,
                        -0.06947717815637589,
                        0.0006570935365743935,
                        0.042400818318128586,
                        0.021464312449097633,
                        -0.023358438163995743,
                        -0.046282507479190826,
                        0.04928607493638992,
                        -0.04678378626704216,
                        0.047631558030843735,
                        0.16345521807670593,
                        0.14737418293952942,
                        -0.0009317058138549328,
                        -0.06783841550350189,
                        -0.07413211464881897,
                        0.06852668523788452,
                        -0.082022525370121,
                        0.10174863040447235,
                        -0.05691306293010712,
                        0.05836319923400879,
                        0.0013557994971051812,
                        0.13717833161354065,
                        0.05070657283067703,
                        0.01259105559438467,
                        -0.1186886578798294,
                        -0.03188568726181984,
                        -0.06291098147630692,
                        0.12120886892080307,
                        -0.003102557733654976,
                        -0.04499901831150055,
                        0.009878852404654026,
                        0.0555594377219677,
                        0.008460466749966145,
                        0.008107831701636314,
                        0.1084279865026474,
                        0.013000278733670712,
                        -0.061433784663677216,
                        -0.08021927624940872,
                        0.0007067944970913231,
                        -0.06811833381652832,
                        -0.0659685805439949,
                        0.10185327380895615,
                        0.06826630979776382,
                        0.11309843510389328,
                        -0.030376754701137543,
                        0.07814933359622955,
                        -0.026184650138020515,
                        -0.07645562291145325,
                        -0.011683639138936996,
                        0.12493409961462021,
                        0.15121504664421082,
                        0.13395336270332336,
                        0.13645072281360626,
                        0.07585140317678452,
                        0.004643842577934265,
                        -0.02872486226260662,
                        0.07824889570474625,
                        -0.031154384836554527,
                        -0.11595357209444046,
                        -0.08962590247392654,
                        0.03740587830543518,
                        -0.12371756881475449,
                        -0.13665133714675903
                    ]
                },
                "bias": {
                    "shape": [
                        8
                    ],
                    "values": [
                        0.3660182058811188,
                        0.04634709656238556,
                        0.13330310583114624,
                        -0.01737368479371071,
                        -0.023540806025266647,
                        0.08254657685756683,
                        0.1014220267534256,
                        0.1321360021829605
                    ]
                }
            },
            "bn2": {
                "weight": {
                    "shape": [
                        8
                    ],
                    "values": [
                        0.9223157167434692,
                        0.982146680355072,
                        0.926910936832428,
                        0.9089126586914062,
                        0.8668470978736877,
                        0.9251469373703003,
                        0.9943667650222778,
                        1.0436958074569702
                    ]
                },
                "bias": {
                    "shape": [
                        8
                    ],
                    "values": [
                        0.04031575471162796,
                        -0.02200433239340782,
                        0.03857189789414406,
                        0.10991018265485764,
                        0.05737420171499252,
                        0.034956708550453186,
                        0.06842324137687683,
                        -0.05815327167510986
                    ]
                },
                "running_mean": {
                    "shape": [
                        8
                    ],
                    "values": [
                        0.3165684640407562,
                        0.1006958857178688,
                        0.10824210196733475,
                        0.03417987748980522,
                        -0.043711792677640915,
                        0.17499905824661255,
                        0.1515580415725708,
                        0.3420758843421936
                    ]
                },
                "running_var": {
                    "shape": [
                        8
                    ],
                    "values": [
                        0.03189421817660332,
                        0.22040700912475586,
                        0.13527505099773407,
                        0.39221563935279846,
                        0.17876362800598145,
                        0.05966300517320633,
                        0.12481150031089783,
                        0.6629967093467712
                    ]
                }
            }
        },
        "blockStack.1": {
            "conv": {
                "weight": {
                    "shape": [
                        8,
                        8,
                        1
                    ],
                    "values": [
                        0.05141375958919525,
                        0.06233864277601242,
                        -0.32593703269958496,
                        -0.3121989071369171,
                        0.26988354325294495,
                        -0.07480614632368088,
                        -0.21137504279613495,
                        -0.1922052651643753,
                        -0.0892593115568161,
                        -0.13797250390052795,
                        -0.17271782457828522,
                        0.14988556504249573,
                        -0.3476233184337616,
                        -0.1984861195087433,
                        -0.2429485023021698,
                        -0.012035707011818886,
                        0.1281576007604599,
                        -0.23887315392494202,
                        0.18423967063426971,
                        -0.3523721396923065,
                        -0.0807548388838768,
                        -0.007028787862509489,
                        -0.28144359588623047,
                        0.184654101729393,
                        0.11157168447971344,
                        -0.15170609951019287,
                        0.047937024384737015,
                        0.08202977478504181,
                        -0.2728767693042755,
                        -0.23047679662704468,
                        0.056109338998794556,
                        -0.10585016757249832,
                        0.1779552400112152,
                        -0.028835736215114594,
                        0.14384900033473969,
                        -0.3471359312534332,
                        0.35069724917411804,
                        0.21548739075660706,
                        -0.2165418565273285,
                        0.13301672041416168,
                        -0.3519183099269867,
                        0.30091506242752075,
                        -0.2841561436653137,
                        -0.09247478097677231,
                        -0.004258349072188139,
                        0.31754493713378906,
                        0.28249821066856384,
                        0.023062165826559067,
                        0.29911020398139954,
                        0.27553439140319824,
                        0.25802889466285706,
                        0.3433646261692047,
                        -0.08914808183908463,
                        0.18759110569953918,
                        0.18279168009757996,
                        0.21806588768959045,
                        -0.20680783689022064,
                        -0.16724450886249542,
                        0.14631961286067963,
                        -0.23159536719322205,
                        -0.2315758913755417,
                        -0.3319692611694336,
                        0.06190457195043564,
                        0.2912057340145111
                    ]
                },
                "bias": {
                    "shape": [
                        8
                    ],
                    "values": [
                        -0.09561897814273834,
                        -0.32105159759521484,
                        0.21128572523593903,
                        -0.026990167796611786,
                        0.09839746356010437,
                        -0.2894561290740967,
                        -0.05470428988337517,
                        -0.2071283608675003
                    ]
                }
            },
            "conv1": {
                "weight": {
                    "shape": [
                        8,
                        8,
                        8
                    ],
                    "values": [
                        -0.2134716510772705,
                        0.12279779464006424,
                        -0.05478426441550255,
                        0.015822267159819603,
                        -0.08983898162841797,
                        0.08373981714248657,
                        -0.0379130020737648,
                        0.010556483641266823,
                        0.10388974845409393,
                        -0.009479164145886898,
                        -0.0811263844370842,
                        0.048018842935562134,
                        -0.0869717225432396,
                        -0.004669926594942808,
                        -0.10219132155179977,
                        0.07768072932958603,
                        -0.10752331465482712,
                        -0.03251335769891739,
                        0.06154879555106163,
                        -0.024336492642760277,
                        -0.013436203822493553,
                        0.026059065014123917,
                        0.07095178961753845,
                        -0.1134723573923111,
                        -0.09383085370063782,
                        0.08447042852640152,
                        0.0980522409081459,
                        0.09274712204933167,
                        0.09693746268749237,
                        -0.013760370202362537,
                        -0.06780722737312317,
                        -0.016546525061130524,
                        -0.09219938516616821,
                        0.03973376750946045,
                        0.052148617804050446,
                        0.088752381503582,
                        -0.09866935014724731,
                        -0.038861531764268875,
                        -0.08620824664831161,
                        -0.014062285423278809,
                        0.08550111204385757,
                        -0.08361833542585373,
                        -0.03651177138090134,
                        0.1360398679971695,
                        0.04389508068561554,
                        -0.10128363966941833,
                        0.07102649658918381,
                        -0.011376610025763512,
                        0.1367017924785614,
                        -0.058695532381534576,
                        0.03858368098735809,
                        0.01172670442610979,
                        0.09350814670324326,
                        -0.07056175917387009,
                        0.0208422914147377,
                        0.050697047263383865,
                        0.015076818875968456,
                        0.09976352006196976,
                        0.01673085428774357,
                        -0.08056256920099258,
                        0.050733864307403564,
                        0.07300519198179245,
                        -0.03133581206202507,
                        -0.12431584298610687,
                        -0.025910360738635063,
                        0.06069143861532211,
                        -0.0707913413643837,
                        0.040741678327322006,
                        -0.025982806459069252,
                        -0.07244273275136948,
                        -0.11347778141498566,
                        -0.026855265721678734,
                        0.0642673447728157,
                        0.10663947463035583,
                        0.11407555639743805,
                        -0.018636826425790787,
                        -0.00919574499130249,
                        0.1520676612854004,
                        0.07857687026262283,
                        -0.08584829419851303,
                        -0.0550980307161808,
                        -0.018226126208901405,
                        -0.1337396502494812,
                        0.03191792219877243,
                        -0.06701460480690002,
                        -0.07608573138713837,
                        0.0997534766793251,
                        -0.12226463854312897,
                        -0.07433599978685379,
                        0.07888202369213104,
                        0.03321501240134239,
                        -0.06914393603801727,
                        -0.037725936621427536,
                        0.09779951721429825,
                        -0.07462660223245621,
                        0.0787120908498764,
                        -0.028333177790045738,
                        -0.06241718307137489,
                        -0.12027552723884583,
                        -0.07732681930065155,
                        -0.026378996670246124,
                        0.08549466729164124,
                        -0.029863853007555008,
                        -0.07924098521471024,
                        -0.10215979814529419,
                        -0.040775589644908905,
                        -0.015561058185994625,
                        -0.03509098291397095,
                        -0.10481773316860199,
                        -0.026395928114652634,
                        -0.010199091397225857,
                        -0.022879989817738533,
                        -0.0694492757320404,
                        0.011156217195093632,
                        0.0022713763173669577,
                        0.09362141042947769,
                        -0.05927719175815582,
                        -0.040360547602176666,
                        -0.10410963743925095,
                        -0.11572376638650894,
                        0.08041869848966599,
                        0.11177365481853485,
                        0.04791632294654846,
                        0.04901186749339104,
                        -0.046638745814561844,
                        -0.022244341671466827,
                        -0.04801149666309357,
                        -0.13721154630184174,
                        0.027845565229654312,
                        -0.0235533956438303,
                        -0.06746227294206619,
                        0.03695409372448921,
                        0.05844113230705261,
                        -0.09630752354860306,
                        -0.028054943308234215,
                        0.02761249989271164,
                        -0.2962609529495239,
                        -0.0784057006239891,
                        -0.01870175264775753,
                        0.016078811138868332,
                        -0.013257117941975594,
                        0.09342136979103088,
                        -0.09881559014320374,
                        0.05662624537944794,
                        -0.07226033508777618,
                        0.10013385862112045,
                        0.014501363970339298,
                        -0.02173188515007496,
                        0.07010838389396667,
                        -0.045902736485004425,
                        -0.0764784887433052,
                        -0.04968675971031189,
                        0.08044224232435226,
                        0.024959513917565346,
                        -0.10469803959131241,
                        -0.1168866977095604,
                        -0.042927127331495285,
                        0.040358077734708786,
                        -0.039502475410699844,
                        -0.09932515770196915,
                        0.1238374188542366,
                        0.011290320195257664,
                        0.08729873597621918,
                        0.1179843619465828,
                        0.01106487587094307,
                        -0.030609678477048874,
                        -0.049828577786684036,
                        -0.033907197415828705,
                        0.06736762076616287,
                        0.07126584649085999,
                        -0.14049328863620758,
                        -0.10597927868366241,
                        -0.04815429821610451,
                        -0.13730081915855408,
                        0.010938314720988274,
                        0.020368501543998718,
                        -0.08421184122562408,
                        0.11602400988340378,
                        0.0032757981680333614,
                        0.08094453066587448,
                        -0.09119611233472824,
                        0.03782624006271362,
                        0.025077328085899353,
                        -0.00810859352350235,
                        0.05581279844045639,
                        -0.0364033468067646,
                        0.028672924265265465,
                        -0.004141383338719606,
                        -0.11492644995450974,
                        -0.003114869352430105,
                        0.11930452287197113,
                        0.07743103802204132,
                        -0.030208857730031013,
                        0.06440897285938263,
                        -0.08580738306045532,
                        0.06467539072036743,
                        -0.0035002375952899456,
                        0.07881554216146469,
                        -0.054650865495204926,
                        -0.05769883468747139,
                        -0.023905878886580467,
                        0.0350869745016098,
                        -0.09800529479980469,
                        0.11028359085321426,
                        0.03169187903404236,
                        0.04994848370552063,
                        -0.08592274785041809,
                        -0.21095819771289825,
                        0.03140703961253166,
                        0.06956703215837479,
                        0.11949858069419861,
                        0.06603783369064331,
                        0.03037901222705841,
                        0.08849328756332397,
                        0.045926351100206375,
                        0.014474546536803246,
                        -0.04959362372756004,
                        0.009445104748010635,
                        0.022741826251149178,
                        -0.050723325461149216,
                        -0.013254125602543354,
                        -0.0810735672712326,
                        0.017735596746206284,
                        0.08543731272220612,
                        -0.05918337032198906,
                        -0.08763346076011658,
                        0.12402902543544769,
                        0.011795069091022015,
                        0.018438944593071938,
                        0.06366661190986633,
                        -0.0068152002058923244,
                        0.002997106406837702,
                        -0.014292178675532341,
                        0.033744554966688156,
                        0.10361701995134354,
                        0.10714239627122879,
                        0.09850902855396271,
                        -0.06009344011545181,
                        0.014515134505927563,
                        0.06008381396532059,
                        -0.010608909651637077,
                        0.09608329832553864,
                        0.08771169185638428,
                        -0.022860856726765633,
                        0.06022396311163902,
                        0.06344057619571686,
                        -0.0049317157827317715,
                        0.07985696941614151,
                        0.019289614632725716,
                        -0.03761308640241623,
                        -0.021140631288290024,
                        0.05927399545907974,
                        0.02380388230085373,
                        -0.044662412256002426,
                        -0.07798173278570175,
                        0.05047778785228729,
                        0.04708334431052208,
                        0.032722994685173035,
                        -0.10147640854120255,
                        -0.08175533264875412,
                        -0.012637595646083355,
                        0.05408881604671478,
                        0.11633115261793137,
                        0.11418978124856949,
                        -0.1289115846157074,
                        -0.05367550253868103,
                        -0.03234437480568886,
                        -0.07460879534482956,
                        -0.10315311700105667,
                        0.022654229775071144,
                        -0.0026946598663926125,
                        0.05750457942485809,
                        -0.05039116367697716,
                        -0.008779679425060749,
                        0.10195494443178177,
                        0.08633558452129364,
                        -0.11882733553647995,
                        -0.1261204481124878,
                        -0.03073979914188385,
                        -0.007521521300077438,
                        -0.015545197762548923,
                        0.003606348065659404,
                        0.12269578129053116,
                        0.07648273557424545,
                        -0.06416969746351242,
                        0.08715023100376129,
                        -0.04619382321834564,
                        -0.09449207037687302,
                        0.024174008518457413,
                        0.08107472956180573,
                        -0.020539768040180206,
                        0.08495129644870758,
                        0.11888006329536438,
                        -0.01515140663832426,
                        -0.028526728972792625,
                        0.12271188944578171,
                        -0.09841234982013702,
                        -0.0403616726398468,
                        0.09811016917228699,
                        -0.0026660291478037834,
                        -0.06035388261079788,
                        -0.009361383505165577,
                        0.012116210535168648,
                        0.04251488670706749,
                        -0.10921481996774673,
                        -0.04992667958140373,
                        -0.02156687155365944,
                        -0.08796249330043793,
                        -0.0748639702796936,
                        -0.11718109995126724,
                        0.07080846279859543,
                        -0.11946719139814377,
                        0.048412490636110306,
                        0.011430169455707073,
                        0.07886508107185364,
                        -0.015069586224853992,
                        -0.03753049299120903,
                        -0.007522775791585445,
                        0.14683230221271515,
                        0.14666032791137695,
                        0.10621456056833267,
                        -0.05540038272738457,
                        -0.019454283639788628,
                        -0.09878930449485779,
                        -0.12396455556154251,
                        -0.017789823934435844,
                        -0.13363923132419586,
                        0.003941381815820932,
                        -0.10200197249650955,
                        0.07984998822212219,
                        -0.11202173680067062,
                        0.03201237693428993,
                        0.02724764309823513,
                        -0.013941940851509571,
                        -0.07859799265861511,
                        -0.19182710349559784,
                        -0.08765865117311478,
                        0.016415966674685478,
                        0.0557781457901001,
                        0.03936115652322769,
                        0.0323185995221138,
                        0.005628031212836504,
                        -0.007972744293510914,
                        0.08298379182815552,
                        0.099562868475914,
                        0.02579081431031227,
                        -0.08553376793861389,
                        0.13127265870571136,
                        -0.017319876700639725,
                        0.05280999839305878,
                        0.02748514711856842,
                        0.03025178425014019,
                        0.03282254934310913,
                        -0.022065309807658195,
                        -0.06984303146600723,
                        -0.015214389190077782,
                        0.09021618962287903,
                        -0.07994353026151657,
                        0.05178745463490486,
                        0.1734449565410614,
                        0.05297359079122543,
                        0.12101954966783524,
                        0.07842736691236496,
                        -0.038717348128557205,
                        -0.008571723476052284,
                        0.01676315814256668,
                        -0.07687205821275711,
                        -0.03241177275776863,
                        0.0910942554473877,
                        0.105772003531456,
                        -0.0979650616645813,
                        0.05599917843937874,
                        -0.10084652155637741,
                        0.057628337293863297,
                        -0.08266207575798035,
                        -0.05628446117043495,
                        -0.04884657263755798,
                        0.058623962104320526,
                        0.09878440201282501,
                        -0.0977131575345993,
                        -0.003349968697875738,
                        -0.10991744697093964,
                        -0.04879557341337204,
                        0.0018009984632954001,
                        -0.050786878913640976,
                        0.02938314713537693,
                        -0.01045514177531004,
                        -0.029507329687476158,
                        0.014820425771176815,
                        -0.1064530462026596,
                        -0.014102360233664513,
                        0.05625934153795242,
                        -0.10643018037080765,
                        -0.10204938799142838,
                        -0.01322126854211092,
                        -0.01963046006858349,
                        0.037851277738809586,
                        -0.09617800265550613,
                        -0.0760335922241211,
                        -0.0274726040661335,
                        -0.028673700988292694,
                        -0.03265191987156868,
                        -0.09947460144758224,
                        0.02829727716743946,
                        0.08517571538686752,
                        0.055172327905893326,
                        -0.036580491811037064,
                        -0.14145803451538086,
                        0.06700631231069565,
                        0.13345202803611755,
                        0.04556538164615631,
                        0.10069932043552399,
                        0.01206925418227911,
                        0.04735032096505165,
                        -0.11506681144237518,
                        -0.07358727604150772,
                        0.0713425800204277,
                        0.033774483948946,
                        0.04910220205783844,
                        0.08226268738508224,
                        0.012408111244440079,
                        0.06080770492553711,
                        0.016786543652415276,
                        0.06688335537910461,
                        0.038904622197151184,
                        0.0051920716650784016,
                        0.001987030729651451,
                        0.08356623351573944,
                        0.019222892820835114,
                        -0.014384636655449867,
                        -0.07421121001243591,
                        -0.02028874307870865,
                        -0.08298713713884354,
                        0.0057467082515358925,
                        -0.10198055952787399,
                        0.02343023009598255,
                        -0.007497056853026152,
                        0.03414112329483032,
                        -0.023220285773277283,
                        -0.02617301419377327,
                        0.020632818341255188,
                        0.11337753385305405,
                        0.015679406002163887,
                        0.07061528414487839,
                        0.07363680750131607,
                        -0.05140010640025139,
                        -0.060579776763916016,
                        0.08228021115064621,
                        0.09724345803260803,
                        0.05577196925878525,
                        -0.10562501847743988,
                        -0.17601430416107178,
                        -0.11199706047773361,
                        -0.043672218918800354,
                        -0.020599516108632088,
                        0.02436324954032898,
                        -0.010270204395055771,
                        -0.05949902907013893,
                        0.012757749296724796,
                        -0.010853496380150318,
                        -0.04579935222864151,
                        -0.093718983232975,
                        0.09072673320770264,
                        0.03179129958152771,
                        -0.06362792104482651,
                        0.06357458233833313,
                        0.0010616957442834973,
                        -0.0871671661734581,
                        -0.013236982747912407,
                        -0.09912730008363724,
                        -0.13174429535865784,
                        -0.0201604925096035,
                        -0.08211427927017212,
                        -0.08256720006465912,
                        0.12167752534151077,
                        0.09896296262741089,
                        0.05297132208943367,
                        0.06828643381595612,
                        0.09328478574752808,
                        0.004321604035794735,
                        0.013042107224464417,
                        0.010875863023102283,
                        0.0009848425397649407,
                        -0.04754158854484558,
                        0.044947315007448196,
                        0.037116728723049164,
                        0.06741394102573395,
                        0.11544490605592728,
                        0.12947972118854523,
                        -0.06541963666677475,
                        -0.06696919351816177,
                        0.05479922890663147,
                        0.0959201231598854,
                        -0.008980858139693737,
                        -0.13268479704856873,
                        -0.08300204575061798,
                        0.018364544957876205,
                        -0.024130310863256454,
                        0.12249400466680527,
                        0.07825429737567902,
                        0.12998680770397186,
                        0.10800939798355103,
                        0.00014471767644863576,
                        0.15292978286743164,
                        0.004022473469376564,
                        0.06500119715929031,
                        -0.0579308345913887,
                        0.053851477801799774,
                        0.024503637105226517,
                        0.11557848751544952,
                        0.10793287307024002,
                        0.10096346586942673
                    ]
                },
                "bias": {
                    "shape": [
                        8
                    ],
                    "values": [
                        0.24041078984737396,
                        -0.24540238082408905,
                        -0.11873240023851395,
                        -0.021442385390400887,
                        -0.011090048588812351,
                        0.20379090309143066,
                        -0.12748762965202332,
                        0.5544133186340332
                    ]
                }
            },
            "bn1": {
                "weight": {
                    "shape": [
                        8
                    ],
                    "values": [
                        0.9916793704032898,
                        0.9858425855636597,
                        0.937588632106781,
                        0.9713005423545837,
                        1.037721037864685,
                        0.9410810470581055,
                        0.9533239006996155,
                        0.9472074508666992
                    ]
                },
                "bias": {
                    "shape": [
                        8
                    ],
                    "values": [
                        0.008952279575169086,
                        0.05685722455382347,
                        0.03694106638431549,
                        -0.014371705241501331,
                        0.047700218856334686,
                        -0.0842522606253624,
                        0.033336784690618515,
                        0.14040984213352203
                    ]
                },
                "running_mean": {
                    "shape": [
                        8
                    ],
                    "values": [
                        0.5092443823814392,
                        0.04853859171271324,
                        -0.2786162495613098,
                        -0.1241513192653656,
                        0.41422125697135925,
                        0.22415488958358765,
                        0.30027005076408386,
                        1.3264423608779907
                    ]
                },
                "running_var": {
                    "shape": [
                        8
                    ],
                    "values": [
                        0.08912583440542221,
                        0.43414273858070374,
                        0.1880103498697281,
                        0.30936747789382935,
                        0.5809272527694702,
                        0.7994343042373657,
                        0.21521984040737152,
                        0.7130832076072693
                    ]
                }
            },
            "conv2": {
                "weight": {
                    "shape": [
                        8,
                        8,
                        8
                    ],
                    "values": [
                        0.10816259682178497,
                        0.11646130681037903,
                        0.028060846030712128,
                        0.02778739109635353,
                        0.1130889430642128,
                        0.11967910826206207,
                        0.03522871807217598,
                        0.11427807062864304,
                        0.08961259573698044,
                        -0.0875336304306984,
                        0.08629025518894196,
                        -0.0785394012928009,
                        0.12839648127555847,
                        -0.023127185180783272,
                        0.12095686793327332,
                        -0.012831075116991997,
                        -0.07766811549663544,
                        -0.09364090114831924,
                        0.03100433200597763,
                        0.001187821151688695,
                        -0.10630115121603012,
                        0.033325862139463425,
                        -0.012104745022952557,
                        -0.03396684303879738,
                        -0.10161424428224564,
                        -0.019308868795633316,
                        -0.037300046533346176,
                        0.04996317997574806,
                        -0.1206216886639595,
                        -0.10410317033529282,
                        0.11439146101474762,
                        -0.035283222794532776,
                        0.0718703418970108,
                        -0.05172782391309738,
                        0.08021480590105057,
                        -0.0925983116030693,
                        0.0707455724477768,
                        0.06440837681293488,
                        0.04044567048549652,
                        0.1183425709605217,
                        0.022457623854279518,
                        -0.10984230041503906,
                        -0.07528942078351974,
                        0.059797462075948715,
                        0.003542063757777214,
                        -0.062144700437784195,
                        0.0693993866443634,
                        0.0016361442394554615,
                        -0.10263127833604813,
                        -0.09646611660718918,
                        -0.013926462270319462,
                        -0.05324610322713852,
                        0.08106080442667007,
                        -0.07346116751432419,
                        0.0556824766099453,
                        -0.06462444365024567,
                        0.07690813392400742,
                        -0.07092688232660294,
                        -0.07496614754199982,
                        -0.09957867860794067,
                        -0.06033991649746895,
                        0.04918492212891579,
                        -0.047840416431427,
                        0.04908744618296623,
                        0.21077613532543182,
                        0.004343442618846893,
                        -0.07455377280712128,
                        0.05871386080980301,
                        1.85637272807071e-05,
                        0.007841108366847038,
                        -0.0162066537886858,
                        0.008018605411052704,
                        -0.04435531049966812,
                        0.03689390420913696,
                        0.09540160000324249,
                        0.010839859955012798,
                        -0.0010531697189435363,
                        0.08692409843206406,
                        0.10181433707475662,
                        0.12009979039430618,
                        0.011380436830222607,
                        0.13119350373744965,
                        0.02594888024032116,
                        0.03836870193481445,
                        -0.039594803005456924,
                        -0.01541219837963581,
                        0.07686364650726318,
                        -0.03361600264906883,
                        0.1124391034245491,
                        0.006073051132261753,
                        -0.01129514817148447,
                        0.03098798170685768,
                        0.012598497793078423,
                        0.08445224910974503,
                        -0.014843356795608997,
                        0.12024135887622833,
                        -0.032828133553266525,
                        -0.0037917073350399733,
                        -0.1182156354188919,
                        -0.009592213667929173,
                        -0.04471409693360329,
                        -0.10624191910028458,
                        -0.0526370033621788,
                        -0.11951064318418503,
                        0.006117501761764288,
                        0.0010283777955919504,
                        -0.09306253492832184,
                        -0.07601455599069595,
                        0.06488798558712006,
                        0.014360270462930202,
                        0.04540064185857773,
                        0.08379939198493958,
                        -0.09354264289140701,
                        0.020421942695975304,
                        -0.11658115684986115,
                        -0.031723711639642715,
                        -0.030680200085043907,
                        -0.03278098627924919,
                        -0.03555044159293175,
                        -0.00455336133018136,
                        0.08898560702800751,
                        -0.06964267045259476,
                        -0.04012896865606308,
                        -0.0346815399825573,
                        0.11266976594924927,
                        -0.048443038016557693,
                        -0.050565943121910095,
                        -0.08648861199617386,
                        0.03748371824622154,
                        0.004438546020537615,
                        -0.006111899856477976,
                        -0.06288072466850281,
                        0.02876991219818592,
                        0.07171235233545303,
                        -0.050727132707834244,
                        -0.000365616986528039,
                        -0.009238612838089466,
                        0.024223249405622482,
                        -0.042222823947668076,
                        -0.04551059380173683,
                        0.016361413523554802,
                        -0.06327208131551743,
                        0.09388183057308197,
                        0.04698631912469864,
                        0.005706191062927246,
                        0.08168040961027145,
                        -0.07820979505777359,
                        -0.11864608526229858,
                        -0.05977022275328636,
                        -0.1295926570892334,
                        0.06615042686462402,
                        0.08865657448768616,
                        0.02272879146039486,
                        -0.046556148678064346,
                        -0.11028961092233658,
                        -0.015992768108844757,
                        -0.1328388899564743,
                        -0.09372074902057648,
                        0.01988684944808483,
                        -0.07114538550376892,
                        0.008063724264502525,
                        0.07956856489181519,
                        0.032946083694696426,
                        0.10364671796560287,
                        0.07859604060649872,
                        0.10156557708978653,
                        -0.006919970735907555,
                        0.02232997678220272,
                        0.11065135896205902,
                        0.0952705666422844,
                        0.049724169075489044,
                        0.08708237111568451,
                        0.04184907674789429,
                        0.007614075671881437,
                        0.014925852417945862,
                        -0.1264018714427948,
                        0.07398951053619385,
                        0.12936699390411377,
                        0.143106609582901,
                        0.09453995525836945,
                        0.041721411049366,
                        -0.055141471326351166,
                        -0.14038775861263275,
                        -0.043134983628988266,
                        0.06769879162311554,
                        0.018952040001749992,
                        -0.06781637668609619,
                        -0.07821063697338104,
                        0.10184495896100998,
                        0.0313248373568058,
                        0.043316394090652466,
                        0.043239615857601166,
                        0.015265574678778648,
                        0.020638884976506233,
                        0.07036545127630234,
                        -0.04857688024640083,
                        0.09918304532766342,
                        0.07164203375577927,
                        0.04700803756713867,
                        0.13656851649284363,
                        0.0396677665412426,
                        -0.11253221333026886,
                        -0.09984695166349411,
                        -0.07032901793718338,
                        -0.020673200488090515,
                        0.050924159586429596,
                        0.09345448762178421,
                        -0.07322322577238083,
                        0.04610138386487961,
                        -0.02160213515162468,
                        0.0430358462035656,
                        0.09864092618227005,
                        -0.06704273819923401,
                        0.15471073985099792,
                        -0.020894957706332207,
                        0.12782251834869385,
                        -0.058793533593416214,
                        0.03972891345620155,
                        -0.02624230831861496,
                        -0.14093776047229767,
                        -0.023382239043712616,
                        0.03264480084180832,
                        -0.05259450897574425,
                        0.011401261202991009,
                        -0.06637415289878845,
                        -0.05028507858514786,
                        -0.0669119730591774,
                        -0.02444630116224289,
                        -0.052454277873039246,
                        -0.04257618635892868,
                        0.028205648064613342,
                        0.09925967454910278,
                        -0.07175172120332718,
                        -0.005140607710927725,
                        0.15909689664840698,
                        -0.05568449944257736,
                        0.009645898826420307,
                        0.032768189907073975,
                        -0.09703978151082993,
                        0.02935466729104519,
                        -0.02193400263786316,
                        0.0897357389330864,
                        -0.09240273386240005,
                        0.03346765786409378,
                        0.007251333445310593,
                        0.00849844329059124,
                        -0.05639955773949623,
                        0.042758602648973465,
                        0.11573745310306549,
                        -0.0010084133828058839,
                        0.14628498256206512,
                        -0.022281726822257042,
                        0.0980813130736351,
                        0.07080931961536407,
                        -0.12765608727931976,
                        0.08742287755012512,
                        -0.03343089297413826,
                        0.015731723979115486,
                        -0.042592793703079224,
                        -0.045184437185525894,
                        -0.06326399743556976,
                        -0.09144820272922516,
                        -0.01965407282114029,
                        0.0017749695107340813,
                        0.010598903521895409,
                        0.08904164284467697,
                        0.015003430657088757,
                        -0.09081089496612549,
                        0.1093117818236351,
                        -0.021958861500024796,
                        -0.02455984428524971,
                        0.12814421951770782,
                        0.06864868849515915,
                        0.0006418803241103888,
                        0.01824047602713108,
                        -0.09213399887084961,
                        0.04411805793642998,
                        0.010145791806280613,
                        0.060824837535619736,
                        0.023984842002391815,
                        0.11138200759887695,
                        0.1367558240890503,
                        0.12000032514333725,
                        0.05765153840184212,
                        0.0425659604370594,
                        -0.08614823967218399,
                        -0.03028891421854496,
                        -0.002400224329903722,
                        -0.06907586753368378,
                        0.0748606026172638,
                        -0.04732814058661461,
                        0.02619459666311741,
                        0.0027437361422926188,
                        -0.020216375589370728,
                        0.0031885358039289713,
                        -0.056128762662410736,
                        -0.029991401359438896,
                        -0.006662208586931229,
                        -0.06824451684951782,
                        0.08632799237966537,
                        -0.11322687566280365,
                        -0.0385054349899292,
                        -0.0915963426232338,
                        -0.014566206373274326,
                        -0.07173477858304977,
                        0.017044637352228165,
                        -0.020526284351944923,
                        0.008808689191937447,
                        -0.08098111301660538,
                        -0.02283077873289585,
                        -0.049899954348802567,
                        0.08072394877672195,
                        0.012196369469165802,
                        -0.009745300747454166,
                        -0.0805676281452179,
                        0.07125871628522873,
                        0.01883036457002163,
                        -0.013952209614217281,
                        -0.02452120929956436,
                        -0.09729395806789398,
                        -0.01887032948434353,
                        0.000473442894872278,
                        -0.013916648924350739,
                        0.011704308912158012,
                        0.03292888402938843,
                        0.07674653828144073,
                        0.013198589906096458,
                        -0.0242325309664011,
                        -0.026863891631364822,
                        0.023258527740836143,
                        -0.005029858555644751,
                        0.06491051614284515,
                        -0.08602618426084518,
                        -0.06417988240718842,
                        0.08190657943487167,
                        -0.043045710772275925,
                        0.03790152445435524,
                        0.0938277542591095,
                        -0.06753459572792053,
                        -0.06832965463399887,
                        -0.06610983610153198,
                        -0.0757802352309227,
                        0.0024516128469258547,
                        0.02949194237589836,
                        0.09815157949924469,
                        -0.08888671547174454,
                        0.08338668942451477,
                        -0.041484519839286804,
                        -0.014562906697392464,
                        -0.10174840688705444,
                        -0.09391024708747864,
                        -0.12852486968040466,
                        0.10657902806997299,
                        0.05574541538953781,
                        -0.05255652964115143,
                        0.15227827429771423,
                        -0.03270766884088516,
                        0.1432444304227829,
                        0.012545226141810417,
                        0.022895844653248787,
                        -0.07579221576452255,
                        0.0353548638522625,
                        -0.02509496361017227,
                        -0.03568905591964722,
                        -0.11610790342092514,
                        -0.027789045125246048,
                        0.09324567019939423,
                        -0.03715715929865837,
                        0.12484464794397354,
                        0.13642114400863647,
                        0.12240392714738846,
                        0.10967041552066803,
                        0.05362940952181816,
                        -0.05310003459453583,
                        0.0016345891635864973,
                        -0.06814519315958023,
                        0.08585382252931595,
                        0.03606721758842468,
                        0.019328713417053223,
                        -0.07453048229217529,
                        0.13205267488956451,
                        0.024126116186380386,
                        0.09362369775772095,
                        -0.05542600899934769,
                        0.1857905387878418,
                        -0.017827242612838745,
                        0.13972294330596924,
                        -0.01899772882461548,
                        0.009524188935756683,
                        0.04977653548121452,
                        -0.05090821906924248,
                        -0.10467983037233353,
                        -0.06276059150695801,
                        0.12868382036685944,
                        0.14900143444538116,
                        0.003331161569803953,
                        0.1398441344499588,
                        -0.020418809726834297,
                        -0.024659736081957817,
                        0.028309762477874756,
                        -0.03633658587932587,
                        0.053188104182481766,
                        -0.05546235293149948,
                        0.1099001094698906,
                        -0.09446930885314941,
                        -0.10071765631437302,
                        -0.04203144088387489,
                        -0.10386106371879578,
                        0.004826543852686882,
                        0.0034339989069849253,
                        0.04096579924225807,
                        0.01075954269617796,
                        0.02202148549258709,
                        -0.006440472789108753,
                        0.018573109060525894,
                        -0.05960741639137268,
                        -0.06485670059919357,
                        -0.08809943497180939,
                        0.04436038061976433,
                        -0.10773307085037231,
                        -0.13361738622188568,
                        -0.16380947828292847,
                        -0.09409212321043015,
                        -0.19661232829093933,
                        -0.08894956856966019,
                        0.060079675167798996,
                        0.07881718873977661,
                        0.07414259761571884,
                        0.03552453592419624,
                        -0.02890567108988762,
                        0.00939460564404726,
                        0.052170999348163605,
                        -0.017244873568415642,
                        0.0541752427816391,
                        0.01202525943517685,
                        -0.10866639763116837,
                        0.03350111097097397,
                        0.0505354106426239,
                        0.034087032079696655,
                        -0.07714425772428513,
                        0.017588289454579353,
                        -0.039851248264312744,
                        -0.016306856647133827,
                        0.004264899529516697,
                        0.010231021791696548,
                        0.011579630896449089,
                        -0.10849108546972275,
                        -0.132446750998497,
                        -0.29685238003730774,
                        -0.06326112151145935,
                        -0.05350574478507042,
                        -0.10205298662185669,
                        -0.03139881044626236,
                        -0.02194933407008648,
                        0.013508794829249382,
                        -0.013921041041612625,
                        0.08933775126934052,
                        0.14346283674240112,
                        -0.034042131155729294,
                        0.007227621506899595,
                        0.010534638538956642,
                        0.06866514682769775,
                        -0.1091967299580574,
                        0.02767760120332241,
                        0.21832555532455444,
                        0.058318547904491425,
                        0.06705869734287262,
                        -0.002981625497341156,
                        -0.044792190194129944,
                        0.047442782670259476,
                        0.09214805066585541,
                        -0.08760251849889755,
                        -0.10142982751131058,
                        -0.007827941328287125,
                        -0.14630374312400818,
                        -0.05419940501451492,
                        0.07773832231760025,
                        0.015975845977663994,
                        0.07021498680114746,
                        -0.03877167031168938,
                        -0.036534469574689865,
                        -0.12147288769483566,
                        -0.16684755682945251,
                        0.0068936897441744804,
                        -0.06846828758716583,
                        -0.07051205635070801,
                        -0.08214675635099411,
                        -0.04917857423424721,
                        0.11448299139738083,
                        0.08042500168085098,
                        0.0745927020907402,
                        -0.04604759067296982,
                        -0.05784180387854576,
                        -0.08653651177883148,
                        0.09348854422569275,
                        -0.0808291807770729,
                        0.03170479089021683,
                        0.12240789085626602,
                        0.01640058122575283,
                        -0.07408761978149414,
                        0.11448641121387482,
                        0.1075068935751915,
                        0.12702225148677826,
                        -0.008463351055979729,
                        0.09560379385948181,
                        0.01993677392601967,
                        0.06060300022363663,
                        -0.02976023033261299,
                        -0.12517493963241577,
                        -0.020274421200156212,
                        0.03509100154042244,
                        -0.03514095023274422
                    ]
                },
                "bias": {
                    "shape": [
                        8
                    ],
                    "values": [
                        -0.09586704522371292,
                        -0.08154243230819702,
                        0.08658859133720398,
                        -0.13312727212905884,
                        0.23180176317691803,
                        0.05447496846318245,
                        -0.11078069359064102,
                        -0.00698040472343564
                    ]
                }
            },
            "bn2": {
                "weight": {
                    "shape": [
                        8
                    ],
                    "values": [
                        1.0029230117797852,
                        0.9435988068580627,
                        1.0859754085540771,
                        0.8076815009117126,
                        0.918085515499115,
                        0.9729810357093811,
                        1.0765854120254517,
                        0.9709888696670532
                    ]
                },
                "bias": {
                    "shape": [
                        8
                    ],
                    "values": [
                        0.04833666980266571,
                        -0.020004810765385628,
                        -0.0011154867243021727,
                        0.06351141631603241,
                        0.05192812159657478,
                        0.030360395088791847,
                        0.06756860017776489,
                        -0.07031818479299545
                    ]
                },
                "running_mean": {
                    "shape": [
                        8
                    ],
                    "values": [
                        -0.0025918004103004932,
                        0.011678394861519337,
                        0.16340990364551544,
                        0.019855959340929985,
                        0.25272253155708313,
                        0.20138323307037354,
                        0.02236507087945938,
                        0.03135690093040466
                    ]
                },
                "running_var": {
                    "shape": [
                        8
                    ],
                    "values": [
                        0.27216988801956177,
                        0.43706995248794556,
                        0.29992514848709106,
                        0.49193546175956726,
                        0.09662679582834244,
                        0.39282456040382385,
                        0.4978998303413391,
                        0.11419691890478134
                    ]
                }
            }
        },
        "blockStack.2": {
            "conv": {
                "weight": {
                    "shape": [
                        8,
                        8,
                        1
                    ],
                    "values": [
                        -0.249830961227417,
                        0.22461606562137604,
                        -0.07219556719064713,
                        0.18691115081310272,
                        -0.283820778131485,
                        0.024785086512565613,
                        0.30903658270835876,
                        0.2842496335506439,
                        6.182942888699472e-05,
                        -0.1036214828491211,
                        0.3073444366455078,
                        -0.2710987329483032,
                        -0.17192964255809784,
                        0.2669130265712738,
                        0.1807022988796234,
                        -0.0549175962805748,
                        -0.30399295687675476,
                        -0.180790975689888,
                        -0.08030213415622711,
                        -0.18666699528694153,
                        0.2564574182033539,
                        0.07010668516159058,
                        0.3525560200214386,
                        0.323022723197937,
                        -0.0699063241481781,
                        0.004112310241907835,
                        0.1426677107810974,
                        -0.20325832068920135,
                        0.02450653724372387,
                        -0.0642542615532875,
                        -0.15463252365589142,
                        -0.11276199668645859,
                        -0.3354681432247162,
                        0.1188565120100975,
                        -0.153556689620018,
                        -0.13233326375484467,
                        -0.22377721965312958,
                        0.2416602075099945,
                        0.22821514308452606,
                        -0.23807944357395172,
                        -0.3278266489505768,
                        0.15978789329528809,
                        0.22635260224342346,
                        -0.21306294202804565,
                        -0.33177173137664795,
                        0.24305737018585205,
                        -0.14383834600448608,
                        0.2000594139099121,
                        0.24830187857151031,
                        -0.23498831689357758,
                        -0.18081840872764587,
                        0.05543001741170883,
                        0.010584886185824871,
                        -0.29810401797294617,
                        0.13687032461166382,
                        -0.1646796613931656,
                        -0.34857702255249023,
                        -0.3277750313282013,
                        -0.22389042377471924,
                        -0.07611589878797531,
                        -0.15279947221279144,
                        -0.1804242879152298,
                        -0.12162463366985321,
                        0.09392800182104111
                    ]
                },
                "bias": {
                    "shape": [
                        8
                    ],
                    "values": [
                        0.028627529740333557,
                        0.20375771820545197,
                        0.17338311672210693,
                        -0.02746073715388775,
                        0.038826096802949905,
                        0.07872554659843445,
                        -0.23224906623363495,
                        -0.1781756728887558
                    ]
                }
            },
            "conv1": {
                "weight": {
                    "shape": [
                        8,
                        8,
                        8
                    ],
                    "values": [
                        0.08957742154598236,
                        0.0368693508207798,
                        -0.06479568779468536,
                        0.05819175764918327,
                        0.14882181584835052,
                        0.10408544540405273,
                        0.010194365866482258,
                        -0.041701577603816986,
                        0.289407879114151,
                        0.0390419065952301,
                        -0.03842351958155632,
                        -0.05259733647108078,
                        0.09435161203145981,
                        -0.019155055284500122,
                        -0.02378489449620247,
                        0.018901916220784187,
                        0.05476661026477814,
                        -0.49009639024734497,
                        0.0763235092163086,
                        0.14025257527828217,
                        0.044834889471530914,
                        0.019202984869480133,
                        -0.012508106417953968,
                        -0.0441049188375473,
                        0.023964082822203636,
                        0.06897399574518204,
                        0.04995020478963852,
                        -0.03246038034558296,
                        0.10669144988059998,
                        -0.04665777087211609,
                        -0.051729366183280945,
                        0.10978180915117264,
                        -0.06851212680339813,
                        -0.0400032140314579,
                        0.04131286218762398,
                        0.03798241540789604,
                        -0.0585387758910656,
                        0.02706887014210224,
                        0.18101835250854492,
                        0.022201500833034515,
                        -0.048338986933231354,
                        -0.130458801984787,
                        0.003482555504888296,
                        -0.08511341363191605,
                        -0.14860348403453827,
                        0.05752336233854294,
                        0.02844369225203991,
                        0.02954862453043461,
                        0.2782723605632782,
                        0.27155399322509766,
                        0.04879533872008324,
                        0.0300739835947752,
                        -0.058391328901052475,
                        0.05577400326728821,
                        -0.025886185467243195,
                        0.00819230917841196,
                        -0.3196035921573639,
                        0.08523505181074142,
                        0.10990045964717865,
                        -0.014171796850860119,
                        -0.00904015637934208,
                        -0.13156838715076447,
                        0.004192795604467392,
                        -0.0065863607451319695,
                        0.02425026148557663,
                        0.014348138123750687,
                        -0.04611869156360626,
                        0.004294145852327347,
                        0.06082052364945412,
                        0.11209703236818314,
                        0.02168390154838562,
                        0.16126807034015656,
                        -0.07696041464805603,
                        0.055493682622909546,
                        -0.08469434827566147,
                        -0.05593586340546608,
                        -0.02603430487215519,
                        -0.0558796264231205,
                        0.023496683686971664,
                        -0.17474029958248138,
                        -0.13885091245174408,
                        -0.06635591387748718,
                        0.09026267379522324,
                        -0.08315380662679672,
                        -0.008713786490261555,
                        0.03554574400186539,
                        0.07674265652894974,
                        0.014043034054338932,
                        0.051496364176273346,
                        0.11247557401657104,
                        0.10121972858905792,
                        0.10175233334302902,
                        -0.0051906518638134,
                        -0.04457508400082588,
                        -0.01697913557291031,
                        0.07228733599185944,
                        -0.037813592702150345,
                        -0.012851379811763763,
                        0.07936781644821167,
                        -0.04596159979701042,
                        0.049447525292634964,
                        0.1175139769911766,
                        0.08140721172094345,
                        0.38730376958847046,
                        0.06866011768579483,
                        0.06927930563688278,
                        -0.0047309789806604385,
                        0.06727515161037445,
