{"weight": {"shape": [11, 7, 3], "values": [-0.042004525661468506, 0.19101063907146454, -0.1587555706501007, -0.04451754689216614, -0.2170269638299942, -0.10131636261940002, -0.049610644578933716, 0.0599694699048996, -0.14061890542507172, -0.13636112213134766, -0.1580737829208374, -0.1457366943359375, 0.08953557908535004, 0.1572359949350357, -0.07368755340576172, -0.029125288128852844, 0.0013357698917388916, 0.192264124751091, 0.029199019074440002, 0.18403930962085724, 0.02234378457069397, 0.14731772243976593, 0.0006176978349685669, -0.14273008704185486, -0.13062554597854614, -0.02314145863056183, -0.054808109998703, 0.011890143156051636, -0.11641614139080048, 0.21682961285114288, -0.07813741266727448, 0.04721356928348541, -0.14260587096214294, 0.04191528260707855, 0.049154117703437805, -0.19209714233875275, 0.038527026772499084, 0.04742397367954254, -0.1902526319026947, -0.010014608502388, 0.06559629738330841, -0.10667219758033752, 0.042035117745399475, 0.15805752575397491, -0.023344293236732483, 0.08751268684864044, 0.17787913978099823, 0.16936014592647552, -0.2105979174375534, 0.06783725321292877, 0.015154853463172913, 0.16694776713848114, 0.06975705921649933, -0.17420387268066406, 0.1145118921995163, 0.10040988028049469, 0.06735236942768097, -0.03685201704502106, -0.060512661933898926, -0.143654927611351, 0.08892388641834259, -0.12107861042022705, -0.21350537240505219, -0.019355684518814087, 0.06732822954654694, -0.052500128746032715, -0.011928141117095947, -0.04871457815170288, -0.1711435616016388, -0.049915239214897156, 0.03762607276439667, 0.1798752397298813, -0.10477758198976517, -0.14011257886886597, -0.1535610407590866, 0.16379712522029877, 0.07381762564182281, 0.12190012633800507, -0.1433093398809433, 0.11195103824138641, 0.17134372889995575, 0.06880934536457062, -0.0031930357217788696, 0.1171831339597702, 0.1675902158021927, 0.19731585681438446, -0.08429718017578125, -0.0889580249786377, 0.15460877120494843, -0.003045693039894104, -0.004987582564353943, 0.07695449888706207, -0.09341983497142792, 0.1254280060529709, 0.1555776745080948, -0.17399883270263672, -0.05853743851184845, 0.20791511237621307, -0.07265616953372955, -0.05210964381694794, -0.06674276292324066, -0.21311649680137634, -0.06015314161777496, -0.1335407793521881, 0.02178695797920227, -0.13321197032928467, -0.059150248765945435, -0.029409825801849365, -0.14133717119693756, 0.047703102231025696, 0.11617891490459442, -0.009716495871543884, 0.11545740067958832, -0.046741217374801636, -0.03745505213737488, 0.1366792470216751, -0.159073606133461, -0.16859251260757446, 0.055015698075294495, -0.16939936578273773, -0.20690739154815674, -0.160525381565094, -0.01809464395046234, -0.134436696767807, -0.06434234976768494, 0.14148549735546112, -0.16754376888275146, -0.0006072819232940674, -0.062278926372528076, 0.14320795238018036, -0.004618659615516663, 0.13696058094501495, -0.11189107596874237, -0.21128351986408234, -0.0928807258605957, -0.08034266531467438, -0.12244690209627151, -0.06899148225784302, -0.1661488115787506, -0.1341753900051117, -0.13297349214553833, -0.1653153896331787, -0.013159364461898804, 0.031104490160942078, -0.07483035326004028, -0.024168014526367188, 0.047405824065208435, 0.20358271896839142, -0.08574223518371582, -0.19153378903865814, -0.08566582202911377, 0.18442238867282867, -0.0996720939874649, 0.20170561969280243, 0.04535214602947235, -0.0020788758993148804, -0.21126408874988556, 0.09654583036899567, -0.20184844732284546, 0.017448052763938904, 0.011376261711120605, 0.11687059700489044, 0.156920924782753, 0.02250540256500244, 0.1708575338125229, -0.09508943557739258, 0.12483347952365875, -0.14757958054542542, -0.13155987858772278, -0.212894007563591, 0.16058914363384247, 0.0909477025270462, 0.007845461368560791, 0.06829209625720978, -0.1978881061077118, 0.21379683911800385, 0.002587839961051941, 0.17844341695308685, 0.1565568596124649, 0.21273483335971832, 0.204791858792305, -0.06344987452030182, -0.2122417688369751, -0.09406933933496475, -0.05638502538204193, 0.04692287743091583, -0.10732313990592957, -0.10265107452869415, -0.07818187773227692, -0.09845125675201416, 0.19622336328029633, 0.20368637144565582, -0.041265711188316345, 0.005262240767478943, 0.17388232052326202, -0.09654276818037033, -0.03662051260471344, -0.06729525327682495, -0.11815967410802841, 0.142373725771904, -0.13135716319084167, -0.1935669183731079, 0.008491486310958862, -0.021362856030464172, -0.15799376368522644, 0.1521972268819809, -0.1907411366701126, -0.03316931426525116, 0.09477140009403229, 0.015455067157745361, 0.04856215417385101, 0.03652288019657135, 0.10269458591938019, -0.16961318254470825, 0.14947213232517242, 0.07747398316860199, 0.05077694356441498, 0.19099198281764984, 0.015758156776428223, -0.2023952752351761, -0.02676050364971161, -0.14908534288406372, 0.12366683781147003, 0.07692839205265045, -0.03868190944194794, 0.06826494634151459, 0.17313013970851898, 0.09047774970531464, -0.04423046112060547, -0.16877233982086182, -0.13760948181152344]}, "bias": {"shape": [11], "values": [-0.20930932462215424, -0.1401216685771942, -0.10019002854824066, -0.03826400637626648, -0.011248469352722168, -0.09905614703893661, 0.0809924453496933, -0.05950041115283966, -0.20017431676387787, 0.12955062091350555, -0.12762361764907837]}}