{"config": {"model_type": "ConvWaveshaper", "norm_mean": 0.10000000149011612, "norm_std": 0.8999999761581421}, "parameters": {"kernel_size": 4, "depth_size": 6, "num_channels": 12}, "state_dict": {"stack.0": {"conv": {"weight": {"shape": [12, 1, 4], "values": [0.37224459648132324, -0.307298481464386, -0.15959489345550537, -0.34705889225006104, 0.24517619609832764, -0.12416470050811768, -0.007093906402587891, -0.42834192514419556, -0.07469701766967773, -0.2781827449798584, -0.24850428104400635, -0.17428314685821533, -0.3325178027153015, -0.4186334013938904, 0.3396744132041931, 0.4268651008605957, 0.3036564588546753, -0.1675804853439331, -0.19375240802764893, -0.11119329929351807, -0.044883012771606445, 0.18268918991088867, -0.11660951375961304, -0.42619407176971436, 0.2040964961051941, -0.4233192801475525, 0.2754970192909241, -0.005341887474060059, -0.2858051657676697, 0.49752277135849, 0.49237996339797974, 0.22291022539138794, -0.3981602191925049, -0.20427268743515015, -0.40178561210632324, -0.19061440229415894, 0.3360632658004761, 0.3025166988372803, -0.2912832498550415, 0.2914860248565674, 0.2710447907447815, -0.24979060888290405, 0.2924998998641968, 0.37631767988204956, 0.1760236620903015, 0.014444828033447266, 0.3511728048324585, -0.2924148440361023]}, "bias": {"shape": [12], "values": [-0.2988318204879761, -0.431368887424469, 0.4988577961921692, 0.3553463816642761, 0.06644570827484131, 0.4810798764228821, 0.09947055578231812, 0.11184072494506836, 0.14863795042037964, 0.134782075881958, 0.39186936616897583, -0.24951112270355225]}}, "floor": {"shape": [1], "values": [0.0]}, "ceiling": {"shape": [1], "values": [0.0]}, "coef_softsign": {"shape": [1], "values": [-0.06229574605822563]}, "coef_tanh": {"shape": [1], "values": [-0.3428128957748413]}}, "stack.1": {"conv": {"weight": {"shape": [12, 12, 4], "values": [0.08135826885700226, 0.10252226889133453, 0.12947210669517517, -0.14071393013000488, -0.03489378094673157, -0.11403081566095352, 0.11245295405387878, -0.03871916979551315, -0.06284879148006439, 0.0037132054567337036, 0.08399556577205658, -0.035447701811790466, -0.02547679841518402, -0.10731726884841919, -0.010955289006233215, -0.14288534224033356, -0.1284990906715393, 0.07140597701072693, -0.11116962134838104, -0.04467485100030899, 0.029688000679016113, -0.13317126035690308, 0.025813058018684387, 0.017141923308372498, 0.1265874207019806, -0.08918680250644684, 0.06631194055080414, 0.03327523171901703, 0.10926827788352966, -0.11062440276145935, -0.07788487523794174, -0.00034353137016296387, -0.0462610200047493, 0.028833791613578796, 0.13919883966445923, -0.08687077462673187, 0.05448862910270691, 0.1380949318408966, -0.08959333598613739, -0.12869583070278168, -0.10730314254760742, -0.1255050003528595, 0.0936255007982254, -0.033328063786029816, 0.044342249631881714, 0.14358940720558167, -0.08477601408958435, 0.06385983526706696, -0.13728739321231842, 0.10729178786277771, 0.05924643576145172, -0.08213488757610321, -0.09313565492630005, -0.12627530097961426, 0.08782999217510223, -0.014287441968917847, -0.03404165059328079, 0.10829424858093262, 0.06674811244010925, 0.07161858677864075, 0.09252087771892548, 0.07890161871910095, 0.14199697971343994, 0.0995907187461853, -0.06509137153625488, -0.08780805766582489, -0.12712442874908447, 0.09179891645908356, -0.11902482807636261, -0.11451424658298492, -0.025848932564258575, -0.08308055251836777, -0.04826456308364868, -0.003125026822090149, -0.07305799424648285, 0.12927070260047913, 0.030390262603759766, 0.0164823979139328, -0.0704130232334137, -0.09942503273487091, -0.14090390503406525, -0.07648593187332153, 0.05809950828552246, 0.009945183992385864, -0.09767775237560272, 0.08457288146018982, 0.060314908623695374, -0.017859548330307007, -0.09644877165555954, 0.10498398542404175, -0.12240459024906158, 0.08055467903614044, -0.12847694754600525, 0.016140103340148926, 0.10010574758052826, 0.039119988679885864, -0.14037448167800903, 0.08408761024475098, -0.02117420732975006, -0.12180481851100922, -0.03281664103269577, -0.11171798408031464, 0.07700785994529724, 0.0669182687997818, 0.05092748999595642, 0.11763685941696167, -0.022877655923366547, -0.0556517094373703, 0.05984191596508026, -0.039196766912937164, -0.1392844170331955, 0.06527766585350037, -0.08288650214672089, -0.05921662598848343, 0.039037659764289856, 0.10189513862133026, -0.04714632034301758, 0.012190908193588257, -0.02507796883583069, 0.06279647350311279, -0.13994775712490082, -0.1297716498374939, -0.07649490982294083, -0.026079930365085602, 0.09015944600105286, 0.05485253036022186, -0.07949293404817581, 0.0405484139919281, 0.1433386206626892, 0.09018462896347046, 0.11575949192047119, -0.059300027787685394, -0.08597349375486374, 0.020314142107963562, -0.1246764212846756, -0.08518492430448532, -0.0630711019039154, -0.11138683557510376, 0.012348279356956482, 0.13502293825149536, -0.032274454832077026, 0.1013784110546112, 0.039959684014320374, -0.12925416231155396, 0.07839064300060272, 0.13652107119560242, 0.0018696635961532593, 0.10478301346302032, -0.0038381367921829224, -0.10049667954444885, -0.06366746872663498, -0.06582974642515182, 0.10037153959274292, 0.031806886196136475, -0.10098747164011002, -0.011357620358467102, -0.08559519052505493, -0.029164694249629974, -0.08917877078056335, 0.036949142813682556, 0.036388516426086426, 0.11037012934684753, 0.05334872007369995, -0.06716950237751007, 0.10336863994598389, -0.07276329398155212, -0.041352517902851105, 0.04604238271713257, 0.016985028982162476, 0.0769500732421875, -0.10565216839313507, 0.12005019187927246, -0.02678430825471878, 0.06387169659137726, -0.07219976931810379, -0.1182832345366478, 0.10574734210968018, -0.008053615689277649, 0.04704311490058899, 0.011758044362068176, -0.02705298364162445, -0.10275790095329285, -0.11572392284870148, 0.0019497871398925781, 0.015260890126228333, 0.025723904371261597, 0.06438492238521576, -0.11851109564304352, 0.11574721336364746, -0.13185857236385345, -0.0322045236825943, -0.0074740201234817505, 0.016583263874053955, 0.09471125900745392, 0.12411338090896606, 0.018036052584648132, 0.007365375757217407, 0.05993060767650604, -0.12091276794672012, -0.13455931842327118, -0.13626493513584137, -0.10672418028116226, -0.10972175002098083, -0.03785417228937149, 0.11715945601463318, 0.07808081805706024, -0.0015025138854980469, 0.07808150351047516, -0.029223069548606873, -0.13063958287239075, 0.05688798427581787, 0.06160733103752136, -0.06121153384447098, 0.08514373004436493, 0.06935678422451019, -0.12964944541454315, 0.14366883039474487, 0.13098865747451782, -0.03904806822538376, -0.0078072696924209595, -0.07086917012929916, 0.05916447937488556, 0.11914899945259094, -0.1015801951289177, -0.014530465006828308, 0.037825003266334534, 0.09791827201843262, -0.01191362738609314, -0.05316927284002304, -0.02701127529144287, -0.02513115108013153, -0.10410991311073303, -0.010344594717025757, 0.07023116946220398, 0.10642203688621521, -0.07079768925905228, 0.12521585822105408, 0.1388886272907257, 0.05242036283016205, -0.07467208802700043, -0.04464422166347504, 0.13774627447128296, 0.011093229055404663, 0.11740759015083313, -0.008575275540351868, -0.044165126979351044, 0.08586952090263367, 0.1440417766571045, 0.04057696461677551, -0.06766311824321747, -0.13337446749210358, -0.05437886714935303, 0.0678049623966217, -0.11221583187580109, 0.07100549340248108, -0.046977266669273376, -0.09393727779388428, -0.05765021592378616, 0.08863259851932526, -0.0972629263997078, 0.001408889889717102, 0.06389559805393219, 0.0523611456155777, 0.08444900810718536, 0.1311691403388977, -0.11206220090389252, -0.06409716606140137, -0.08328382670879364, -0.08311059325933456, -0.054516084492206573, 0.10320022702217102, 0.06594288349151611, 0.1410694122314453, -0.10383829474449158, -0.13085708022117615, -0.09733441472053528, -0.13227231800556183, -0.10040955990552902, 0.132399320602417, -0.04404357820749283, -0.051301009953022, 0.04641701281070709, -0.0747067928314209, -0.10298559069633484, 0.08424702286720276, 0.13099566102027893, 0.11168593168258667, -0.05041396617889404, 0.10810962319374084, 0.10164472460746765, -0.11686250567436218, -0.11552627384662628, -0.009556934237480164, 0.08570028841495514, -0.03723938763141632, -0.01085740327835083, -0.033443696796894073, 0.053018346428871155, -0.03199734538793564, -0.11003219336271286, -0.020799808204174042, 0.019651100039482117, -0.10435859858989716, -0.08841213583946228, 0.07494795322418213, -0.016951650381088257, 0.09362472593784332, 0.10911867022514343, -0.1043529212474823, -0.12290182709693909, 0.0704648345708847, 0.14022883772850037, 0.07879064977169037, 0.09824979305267334, -0.125641331076622, -0.041053302586078644, -0.12436802685260773, -0.025995224714279175, 0.028597980737686157, -0.1427796334028244, -0.0585937574505806, 0.0681615024805069, 0.12430840730667114, -0.027713537216186523, 0.03938223421573639, 0.12433654069900513, -0.11657743155956268, -0.08548551797866821, 0.028558582067489624, 0.02959217131137848, 0.08418817818164825, 0.05017538368701935, -0.00636860728263855, -0.0019405335187911987, 0.0706041157245636, 0.14144378900527954, -0.03241817653179169, -0.04840422421693802, -0.12786085903644562, 0.036216288805007935, 0.08578580617904663, -0.0339912548661232, -0.004646509885787964, 0.016277506947517395, -0.02687057852745056, 0.1326143741607666, 0.09234103560447693, 0.03346812725067139, -0.08073559403419495, -0.024968929588794708, -0.025961175560951233, 0.02265891432762146, -0.007265985012054443, -0.011663615703582764, -0.13088801503181458, -0.07794711738824844, -0.07968674600124359, 0.06348377466201782, 0.09029562771320343, -0.10453879833221436, -0.009320110082626343, -0.002413630485534668, 0.026471570134162903, -0.04303993284702301, -0.08702352643013, 0.06880167126655579, 0.07102173566818237, 0.12917697429656982, -0.09511028230190277, 0.14295923709869385, 0.10723939538002014, -0.07982104271650314, 0.02227635681629181, 0.09647318720817566, 0.13701173663139343, 0.04885217547416687, -0.13167764246463776, -0.07975105196237564, 0.059416577219963074, -0.08720077574253082, -0.025506578385829926, -0.08426693081855774, 0.07659459114074707, 0.12096551060676575, 0.08866600692272186, -0.1354493796825409, 0.10849049687385559, -0.11409926414489746, -0.11481598019599915, 0.06564229726791382, -0.015157371759414673, -0.0017269551753997803, -0.022209852933883667, -0.01606994867324829, -0.11018916964530945, 0.07216858863830566, -0.002186790108680725, -0.08446376025676727, -0.026802755892276764, 0.04442431032657623, 0.12945556640625, -0.10171638429164886, 0.09798158705234528, -0.03533737361431122, 0.12058356404304504, 0.0885227769613266, -0.06421761214733124, -0.07309278100728989, 0.11480829119682312, 0.13183793425559998, -0.015627294778823853, 0.08916769921779633, 0.04321533441543579, -0.05596479773521423, 0.023007377982139587, -0.1080239862203598, 0.12470170855522156, 0.13205939531326294, -0.126463383436203, 0.1378381848335266, 0.0026281923055648804, 0.039191290736198425, 0.04720219969749451, -0.14114803075790405, 0.05354265868663788, 0.025867938995361328, 0.07444384694099426, 0.11977881193161011, -0.04909513145685196, 0.02037160098552704, 0.09755893051624298, -0.060954801738262177, 0.058912843465805054, -0.12171754240989685, -0.13191790878772736, -0.06800162047147751, 0.12011867761611938, 0.034547075629234314, -0.06675873696804047, -0.043999649584293365, 0.11362451314926147, 0.0527137815952301, 0.062153831124305725, 0.09043814241886139, 0.012834817171096802, -0.012245193123817444, 0.03389535844326019, -0.07122549414634705, 0.11977553367614746, 0.14389342069625854, -0.08448928594589233, -0.057718195021152496, 0.12187793850898743, -0.10776729881763458, 0.06928913295269012, -0.09642184525728226, -0.0006607621908187866, -0.008275195956230164, -0.09248841553926468, -0.07314375042915344, -0.03323565423488617, 0.10156698524951935, 0.13219299912452698, 0.08209028840065002, 0.023915141820907593, 0.11786404252052307, 0.027503520250320435, -0.022607840597629547, 0.10222558677196503, 0.10201020538806915, 0.022157147526741028, 0.08025005459785461, -0.05303308367729187, -0.022966869175434113, -0.10663416981697083, 0.12886333465576172, 0.13633060455322266, -0.034989602863788605, 0.04856041073799133, -0.04493800550699234, -0.10717318207025528, 0.13952431082725525, -0.027485057711601257, 0.07715921103954315, 0.007736325263977051, 0.007330954074859619, 0.03382280468940735, -0.056650593876838684, 0.09451933205127716, -0.049912229180336, 0.10436311364173889, -0.08130741864442825, 0.12826889753341675, -0.12239208817481995, -0.13101349771022797, 0.023070305585861206, 0.07009723782539368, -0.1274319738149643, -0.009940579533576965, 0.006417974829673767, -0.005364507436752319, 0.06861232221126556, -0.032335616648197174, 0.06711001694202423, -0.024396851658821106, 0.10246878862380981, -0.05621340870857239, 0.07345344126224518, 0.06684476137161255, -0.1386009305715561, -0.07198625802993774, -0.04665684700012207, 0.08167928457260132, 0.05089244246482849, -0.13665810227394104, -0.09776879847049713, -0.038575977087020874, 0.10414737462997437, 0.07709726691246033, 0.04059100151062012, -0.13702848553657532, 0.05794602632522583, -0.0365666002035141, 0.08764378726482391, 0.10923483967781067, 0.09962868690490723, -0.01913127303123474, -0.07241455465555191, -0.11495544016361237, 0.03983566164970398, -0.009306982159614563, -0.012069255113601685, 0.11770597100257874, -0.0644146278500557, -0.10212147235870361, -0.11331542581319809, -0.13171641528606415, -0.0782642588019371, -0.1335708051919937, 0.024330466985702515, -0.10811270028352737, 0.040245041251182556, 0.07660570740699768, -0.08469127118587494, 0.02929992973804474, 0.09467954933643341, -0.06300320476293564, -0.06090438365936279, 0.08267068862915039, -0.08718325197696686, 0.12307628989219666, 0.037837132811546326, -0.02500060945749283, 0.03282596170902252, 0.12554973363876343, 0.0637769103050232, 0.10205037891864777, -0.06770394742488861, 0.012920096516609192, -0.043196409940719604, -0.10155416280031204, 0.1056409478187561, -0.12656021118164062, 0.04541429877281189, -0.07707251608371735, 0.0932852178812027, 0.08662745356559753, 0.06484930217266083, -0.13770420849323273, -0.11569362878799438, 0.11280745267868042, -0.11479009687900543, -0.04591028392314911, 0.10041892528533936, -0.09094174951314926, 0.14213493466377258]}, "bias": {"shape": [12], "values": [0.06057177484035492, 0.08863312005996704, -0.041645921766757965, 0.11099109053611755, 0.09187653660774231, -0.086444191634655, -0.055697306990623474, -0.10585374385118484, -0.08461133390665054, -0.0825871080160141, 0.016696378588676453, -0.0018602311611175537]}}, "floor": {"shape": [1], "values": [0.0]}, "ceiling": {"shape": [1], "values": [0.0]}, "coef_softsign": {"shape": [1], "values": [-0.8361466526985168]}, "coef_tanh": {"shape": [1], "values": [-0.8758518695831299]}}, "stack.2": {"conv": {"weight": {"shape": [12, 12, 4], "values": [0.10697361826896667, 0.11243528127670288, -0.13556812703609467, -0.0822417214512825, 0.1121661365032196, -0.1103394478559494, -0.11645414680242538, -0.04367799311876297, 0.0837780088186264, 0.049153804779052734, -0.11352171748876572, -0.04772233963012695, -0.05719802528619766, 0.09065277874469757, 0.03652279078960419, 0.007178157567977905, 0.1173146665096283, -0.06353741139173508, -0.09088121354579926, 0.09911629557609558, 0.052279308438301086, -0.1119956523180008, 0.04034213721752167, 0.010184898972511292, -0.04062314331531525, 0.051756247878074646, 0.006412521004676819, 0.0574517697095871, 0.0018043816089630127, -0.044333525002002716, 0.08201056718826294, -0.12876102328300476, -0.03745787590742111, -0.08090101927518845, -0.07174000144004822, 0.12044554948806763, 0.0685868114233017, 0.08695633709430695, -0.09601856023073196, 0.13190674781799316, -0.07483690977096558, 0.09135781228542328, 0.11578786373138428, -0.12821844220161438, 0.075355663895607, -0.045791953802108765, -0.06488394737243652, -0.043245941400527954, -0.07377797365188599, -0.13846959173679352, 0.1330539882183075, -0.14186710119247437, 0.08849400281906128, -0.13563254475593567, 0.018671438097953796, -0.10359133034944534, -0.043408289551734924, -0.09123757481575012, -0.10902765393257141, -0.05900175869464874, 0.1177297830581665, 0.006399273872375488, -0.0711614191532135, -0.07870930433273315, -0.06098532676696777, 0.1412043273448944, 0.02999916672706604, 0.13397711515426636, 0.1115003228187561, 0.06992276012897491, 0.11646607518196106, -0.1191721186041832, 0.0759369283914566, -0.10261870920658112, 0.07866601645946503, -0.021526731550693512, 0.09592708945274353, 0.014607802033424377, 0.11231204867362976, -0.021797984838485718, -0.129360631108284, -0.0760468915104866, 0.039446547627449036, -0.11592233180999756, -0.07247385382652283, 0.10525630414485931, 0.05151432752609253, -0.06633824855089188, 0.00031472742557525635, -0.05590417981147766, 0.04220016300678253, -0.017582103610038757, 0.12852925062179565, 0.08615271747112274, -0.11619006097316742, 0.13236910104751587, -0.010371968150138855, -0.13826842606067657, -0.12932533025741577, 0.05156522989273071, 0.13351109623908997, -0.048931241035461426, 0.009734183549880981, 0.07367187738418579, 0.051277995109558105, 0.09100933372974396, 0.017332792282104492, 0.08743293583393097, -0.06966965645551682, -0.13100849092006683, 0.02955619990825653, -0.0002005845308303833, -0.14158329367637634, 0.026780709624290466, 0.06494711339473724, -0.10682041943073273, -0.021441347897052765, -0.1409994512796402, 0.06503710150718689, 0.09744584560394287, 0.04902447760105133, 0.04942747950553894, -0.060413897037506104, 0.09129190444946289, 0.05178423225879669, -0.00714188814163208, -0.07842426747083664, -0.14325280487537384, -0.0050522685050964355, -0.07906917482614517, 0.0789671540260315, -0.019019469618797302, -0.011034265160560608, -0.10600484907627106, -0.06430713832378387, 0.007267355918884277, 0.009737461805343628, -0.07858546823263168, -0.09130147099494934, -0.058975085616111755, -0.07047747820615768, -0.09079267084598541, -0.11730670928955078, -0.1424744576215744, 0.09350961446762085, 0.14019343256950378, -0.06513836234807968, -0.11793525516986847, 0.13194316625595093, 0.030788570642471313, 0.09630315005779266, 0.010456591844558716, 0.11359021067619324, -0.05201271176338196, 0.01944810152053833, -0.14075584709644318, 0.06465263664722443, 0.09311136603355408, 0.01760399341583252, 0.04415804147720337, 0.1296297311782837, 0.012366622686386108, 0.04051540791988373, 0.07282674312591553, -0.046628423035144806, 0.02291513979434967, 0.07648263871669769, 0.0905081033706665, -0.067998506128788, -0.10631836950778961, -0.02936636656522751, 0.08044937252998352, -0.0788714587688446, 0.12626421451568604, 0.08460645377635956, 0.06151445209980011, 0.031205296516418457, 0.047247618436813354, -0.10608771443367004, -0.14219076931476593, 0.10017763078212738, 0.033097460865974426, -0.054669931530952454, -0.08832798153162003, 0.06596486270427704, 0.12283650040626526, 0.0913158655166626, 0.1308702826499939, 0.10283207893371582, 0.05566832423210144, -0.07762504369020462, -0.07188348472118378, 0.05924491584300995, -0.10943177342414856, -0.019100487232208252, -0.08878864347934723, -0.14265045523643494, 0.06599178910255432, 0.08125841617584229, 0.011244043707847595, -0.040257349610328674, 0.09336662292480469, 0.11176636815071106, -0.09087872505187988, -0.0645390972495079, 0.1019083559513092, 0.04383528232574463, 0.07014882564544678, 0.04631873965263367, -0.00497126579284668, -0.11141171306371689, 0.01882670819759369, -0.09686019271612167, 0.07709863781929016, -0.01617640256881714, -0.02603019028902054, -0.006234213709831238, 0.007745698094367981, -0.041742607951164246, 0.05437871813774109, -0.08763223886489868, -0.03692831099033356, 0.013520106673240662, -0.0037094950675964355, 0.057941511273384094, -0.05475646257400513, -0.09481942653656006, -0.10884665697813034, -0.03228230029344559, 0.0910278707742691, 0.10165853798389435, 0.10330183804035187, -0.02506116032600403, 0.12536337971687317, -0.1385355293750763, 0.040087535977363586, 0.08307045698165894, 0.07473625242710114, 0.08032485842704773, -0.09554378688335419, -0.06784653663635254, -0.1430566906929016, 0.066131591796875, -0.13986559212207794, -0.07732823491096497, 0.020420387387275696, -0.08082354068756104, -0.01845914125442505, 0.10060650110244751, 0.0940425843000412, -0.016748175024986267, 0.04430179297924042, 0.10713046789169312, -0.048841238021850586, -0.13142767548561096, 0.0897843986749649, 0.05370794236660004, -0.10367423295974731, -0.09627214819192886, -0.016585543751716614, -0.12503468990325928, 0.05920073390007019, -0.07937558740377426, -0.10248266905546188, 0.022953331470489502, 0.08203032612800598, 0.09578806161880493, 0.015066742897033691, 0.06708414852619171, 0.03316447138786316, -0.01765453815460205, -0.12403863668441772, 0.03350706398487091, -0.049480073153972626, 0.12306088209152222, -0.0820077657699585, -0.03469564765691757, 0.03336191177368164, 0.08661709725856781, -0.026839405298233032, -0.08264896273612976, 0.1305685043334961, -0.09482534974813461, 0.0998661071062088, -0.1171870157122612, 0.014387339353561401, -0.056377679109573364, 0.12196725606918335, -0.09761597216129303, 0.10240621864795685, -0.08629155158996582, -0.023758776485919952, -0.07473617792129517, 0.02623748779296875, 0.012785360217094421, 0.09110638499259949, -0.07339083403348923, 0.05289001762866974, -0.07915180176496506, 0.12219175696372986, 0.059253349900245667, -0.06545151770114899, -0.11614160984754562, -0.1055811420083046, -0.1411915123462677, -0.02279037982225418, -0.09204937517642975, 0.07634033262729645, 0.12258407473564148, 0.11467298865318298, -0.026394449174404144, -0.134821817278862, -0.08904100954532623, 0.0923524796962738, -0.006446227431297302, -0.05789731442928314, 0.13463005423545837, 0.09165266156196594, 0.04195079207420349, -0.06435875594615936, 0.04754495620727539, 0.016075268387794495, 0.08165760338306427, 0.05874396860599518, -0.10739928483963013, -0.11410273611545563, -0.046703413128852844, 0.1206793487071991, -0.1015952005982399, 0.09568776190280914, -0.05449777841567993, 0.07516025006771088, 0.12973010540008545, 0.010621890425682068, -0.040439121425151825, 0.06439979374408722, -0.0769786685705185, -0.04136606305837631, -0.07759477943181992, -0.07205348461866379, 0.12313187122344971, 0.10804051160812378, 0.004727751016616821, -0.020258359611034393, 0.09415803849697113, -0.00353984534740448, 0.06389960646629333, 0.028835073113441467, -0.1417623609304428, 0.09051452577114105, 0.1336071789264679, 0.07408937811851501, -0.001248389482498169, 0.0349554568529129, 0.0263403058052063, -0.09384501725435257, 0.06499180197715759, -0.012135550379753113, 0.022834062576293945, -0.1137782633304596, 0.053488895297050476, 0.025575503706932068, -0.09344308078289032, -0.03124827891588211, -0.05738597363233566, -0.1161116510629654, -0.07222644239664078, 0.11412844061851501, 0.03332354128360748, -0.055654652416706085, 0.009298563003540039, -0.10741662979125977, 0.10664725303649902, 0.11191269755363464, 0.06055903434753418, -0.09827297925949097, -0.05350443720817566, -0.005444929003715515, -0.135817751288414, 0.09423357248306274, 0.02630135416984558, 0.08603374660015106, -0.13109846413135529, 0.09666527807712555, 0.03885248303413391, 0.10753348469734192, 0.027518481016159058, -0.011526152491569519, -0.0866151750087738, -0.014771059155464172, -0.061916105449199677, 0.04430048167705536, -0.0490153431892395, -0.04671294242143631, 0.09813582897186279, -0.06760706007480621, -0.0506148487329483, 0.12896883487701416, -0.12707793712615967, -0.1323184221982956, -0.11799038201570511, -0.1358037292957306, 0.00547732412815094, -0.007526218891143799, -0.08829294890165329, 0.07835078239440918, -0.005383819341659546, -0.10960768163204193, -0.09516312927007675, 0.004753664135932922, -0.0561082661151886, -0.021149463951587677, 0.13665324449539185, 0.11617529392242432, -0.008856847882270813, -0.011434093117713928, 0.1317324936389923, -0.05710982531309128, -0.12061718106269836, 0.03331857919692993, 0.10855388641357422, 0.13542938232421875, 0.12956172227859497, 0.11160889267921448, -0.006450071930885315, -0.08634883165359497, -0.07224256545305252, 0.0061165690422058105, 0.0735873132944107, 0.08775156736373901, -0.08427935838699341, -0.1388666182756424, -0.03671441972255707, 0.12638750672340393, -0.0572497695684433, -0.13264106214046478, -0.033569782972335815, -0.07070233672857285, 0.06365936994552612, 0.030955329537391663, 0.10984888672828674, 0.12021949887275696, -0.11983750760555267, 0.03839416801929474, -0.1248389184474945, -0.00786985456943512, 0.029871225357055664, 0.05865710973739624, -0.050615593791007996, -0.10865509510040283, -0.10999010503292084, -0.03625504672527313, -0.04642388969659805, 0.04417744278907776, -0.11781711876392365, -0.08976903557777405, -0.08933968096971512, -0.029554292559623718, 0.03597332537174225, 0.03724658489227295, 0.0388401597738266, -0.06452908366918564, -0.1282901018857956, 0.06172564625740051, 0.060464948415756226, 0.0049378275871276855, -0.04361645132303238, 0.11124992370605469, -0.029747113585472107, -0.1037602573633194, -0.015912756323814392, -0.06801306456327438, 0.13622963428497314, 0.0004430413246154785, 0.120730459690094, -0.12594667077064514, 0.06039378046989441, 0.03540898859500885, -0.029827721416950226, 0.08973473310470581, 0.029250115156173706, -0.09034566581249237, 0.11802047491073608, 0.01946324110031128, 0.07528224587440491, 0.051170095801353455, -0.07337868213653564, -0.14272744953632355, 0.06309700012207031, 0.11591160297393799, -0.028897903859615326, -0.07126586139202118, -0.0717179924249649, 0.0969587117433548, -0.06903434544801712, 0.09213046729564667, -0.10142022371292114, -0.014432832598686218, 0.023610010743141174, -0.10145893692970276, -0.10162924975156784, -0.11301911622285843, -0.12698644399642944, -0.06721162796020508, 0.08479043841362, 0.11427709460258484, 0.0396391898393631, -0.1090267151594162, -0.14392836391925812, -0.13549008965492249, 0.08187037706375122, -0.001310780644416809, -0.056955330073833466, -0.019771680235862732, -0.004247114062309265, -0.02371881902217865, -0.1296168714761734, 0.0009463876485824585, 0.13629955053329468, 0.13194677233695984, -0.05217476189136505, 0.1254628300666809, 0.09241834282875061, -0.10283349454402924, -0.007039844989776611, -0.02267337590456009, 0.011873230338096619, 0.08995258808135986, -0.00943109393119812, 0.07858765125274658, 0.08051252365112305, 0.05467292666435242, -0.10726089775562286, -0.05474550276994705, 0.0032287538051605225, -0.11025725305080414, -0.07987476140260696, 0.08487038314342499, -0.09034839272499084, -0.06762427091598511, -0.10533738136291504, -0.045055001974105835, -0.0969894528388977, 0.03738123178482056, 0.03247533738613129, 0.0971255749464035, -0.049255549907684326, 0.05154408514499664, -0.06650722771883011, 0.10418535768985748, -0.11943551152944565, 0.07064290344715118, -0.140375018119812, -0.036871373653411865, -0.054231204092502594, 0.13145402073860168, 0.05678686499595642, -0.13971076905727386, 0.05772538483142853, -0.05817519873380661, -0.03902043402194977, -0.04375578463077545, 0.14255928993225098, 0.0768340677022934, 0.1303568184375763, 0.08595854043960571, 0.05058491230010986, -0.08534735441207886, -0.008021190762519836, 0.046931877732276917, 0.08957381546497345, -0.020886562764644623, -0.1368919461965561, -0.06406624615192413, -0.030724123120307922, 0.05067470669746399]}, "bias": {"shape": [12], "values": [0.00301496684551239, 0.03003285825252533, -0.136844664812088, -0.10539928823709488, 0.024917423725128174, 0.12815642356872559, 0.002091154456138611, 0.03649623692035675, 0.05318063497543335, -0.10372235625982285, -0.10861550271511078, 0.09148049354553223]}}, "floor": {"shape": [1], "values": [0.0]}, "ceiling": {"shape": [1], "values": [0.0]}, "coef_softsign": {"shape": [1], "values": [0.8781805634498596]}, "coef_tanh": {"shape": [1], "values": [0.7574054002761841]}}, "stack.3": {"conv": {"weight": {"shape": [12, 12, 4], "values": [0.10563670098781586, -0.002636268734931946, 0.014769703149795532, -0.010977491736412048, 0.022146448493003845, -0.10016992688179016, -0.01310412585735321, -0.03699684888124466, -0.1434137374162674, -0.12719786167144775, -0.14217618107795715, 0.013258785009384155, 0.11867249011993408, -0.022941865026950836, -0.0346369743347168, 0.08820438385009766, 0.06407387554645538, 0.03356321156024933, -0.007873356342315674, 0.054896280169487, 0.012482598423957825, 0.1428089737892151, -0.07539957016706467, -0.13265159726142883, -0.0468277782201767, 0.1327955722808838, -0.13724882900714874, -0.013359010219573975, 0.028809592127799988, 0.11707741022109985, -0.03655536472797394, 0.0038644373416900635, 0.1338661015033722, 0.10096670687198639, -0.14347106218338013, 0.06080186367034912, -0.08885633945465088, 0.12359508872032166, -0.04901439696550369, -0.11175814270973206, -0.0037373900413513184, 0.11755183339118958, 0.0955033004283905, 0.049215272068977356, -0.05166717618703842, -0.005849927663803101, -0.12259659916162491, 0.019674867391586304, -0.11941013485193253, -0.0057130008935928345, -0.022273778915405273, -0.013306602835655212, 0.13863199949264526, 0.09724807739257812, -0.04006851464509964, 0.04141509532928467, -0.021458089351654053, 0.09025922417640686, 0.029103994369506836, -0.015094608068466187, 0.09975399076938629, 0.029181882739067078, 0.09160056710243225, -0.0751204714179039, 0.006315276026725769, -0.12737585604190826, 0.062062621116638184, -0.10283304750919342, -0.07846426963806152, 0.1056365966796875, 0.057163387537002563, -0.02559126913547516, -0.08308872580528259, 0.12203928828239441, -0.11557772010564804, 0.11886122822761536, -0.05817756801843643, 0.07168807089328766, 0.07404370605945587, -0.01373361051082611, -0.11243678629398346, 0.08945326507091522, -0.05937778204679489, 0.12926459312438965, 0.13400736451148987, -0.07767215371131897, 0.12458324432373047, -0.07005582004785538, 0.07350780069828033, -0.015374258160591125, 0.08369661867618561, 0.10254774987697601, 0.05998440086841583, 0.14381560683250427, 0.04703491926193237, 0.13613486289978027, -0.13077731430530548, -0.008674055337905884, 0.001846417784690857, 0.00225009024143219, -0.011198610067367554, -0.03835532069206238, 0.1062479317188263, -0.12912358343601227, 0.03809270262718201, 0.07710318267345428, -0.009858354926109314, -0.13896486163139343, 0.036568447947502136, -0.022151701152324677, -0.010909363627433777, 0.13955599069595337, 0.11141502857208252, 0.07727150619029999, 0.05067165195941925, 0.011507794260978699, -0.1292700618505478, 0.08905979990959167, -0.0024794787168502808, 0.09170779585838318, 0.05420848727226257, 0.09625405073165894, -0.09573809802532196, -0.01671244204044342, 0.027231156826019287, 0.036536991596221924, 0.06410306692123413, -0.09868019819259644, 0.015551000833511353, 0.0018698275089263916, 0.06609730422496796, -0.10191801190376282, 0.05779924988746643, 0.12024962902069092, 0.10155236721038818, -0.020619019865989685, 0.013227775692939758, -0.07048974931240082, 0.008175045251846313, 0.1027214378118515, -0.06905577331781387, -0.06826135516166687, -0.11131180822849274, -0.10287594050168991, 0.10298988223075867, -0.11110202968120575, 0.13631033897399902, -0.07563374936580658, -0.0023787319660186768, -0.060818545520305634, -0.07696416229009628, 0.06282420456409454, -0.12095734477043152, -0.01623915135860443, -0.07971654832363129, 0.0012135356664657593, -0.11364322900772095, 0.02778780460357666, -0.0875387042760849, 0.0062221139669418335, -0.04464767873287201, 0.09373906254768372, 0.09244100749492645, 0.02198578417301178, -0.06808594614267349, 0.021937847137451172, -0.03398144245147705, -0.023651786148548126, -0.032184138894081116, 0.06736180186271667, 0.016457706689834595, -0.053112491965293884, 0.009958267211914062, 0.07287712395191193, -0.05491337925195694, 0.013214141130447388, 0.0958731472492218, 0.11813679337501526, -0.07267989963293076, -0.1441221535205841, -0.09770528972148895, 0.06336337327957153, -0.10189483314752579, -0.05944211781024933, 0.011933505535125732, -0.03079967200756073, -0.0010826587677001953, 0.03177349269390106, -0.12833036482334137, -0.04135384410619736, -0.1364375352859497, 0.0384870320558548, -0.03267482668161392, 0.06477920711040497, -0.01479119062423706, -0.1315925121307373, 0.07765811681747437, -0.08161362260580063, 0.06104597449302673, 0.08833141624927521, -0.124137744307518, -0.07067800313234329, -0.07709500193595886, -0.013353675603866577, 0.12487179040908813, -0.04533804953098297, -0.10062259435653687, -0.08452101796865463, -0.047500379383563995, 0.07346674799919128, -0.007548198103904724, 0.12153339385986328, -0.06811100244522095, -0.09225206822156906, -0.1399811953306198, 0.013595223426818848, 0.11285871267318726, -0.11326572299003601, -0.044976405799388885, 0.042488500475883484, -0.07270047813653946, -0.05408398061990738, 0.08796608448028564, -0.04150395095348358, 0.13766950368881226, -0.08633498847484589, 0.054445087909698486, -0.11830908060073853, 0.053023651242256165, 0.07947909832000732, 0.12021932005882263, -0.06777802109718323, -0.03722553700208664, 0.016715914011001587, 0.012334048748016357, 0.12720057368278503, 0.0027218908071517944, -0.08917243778705597, 0.021512657403945923, 0.10634544491767883, -0.13174782693386078, 0.0418243408203125, 0.10037483274936676, 0.1150713562965393, 0.0992053747177124, -0.04303473234176636, 0.023697257041931152, -0.0597962811589241, -0.08415745198726654, 0.14415642619132996, 0.09242348372936249, 0.014910474419593811, 0.03898526728153229, -0.1283804178237915, -0.14410388469696045, -0.06090255826711655, -0.13120311498641968, 0.12512022256851196, -0.04165569692850113, -0.13910037279129028, -0.12812748551368713, 0.045648396015167236, 0.07706864178180695, 0.10411238670349121, -0.10122471302747726, -0.1236332356929779, 0.07027940452098846, 0.02628009021282196, 0.0350627601146698, -0.0562187135219574, -0.03214934468269348, -0.05376000702381134, 0.033587872982025146, -0.050837039947509766, 0.0744556188583374, 0.058236926794052124, 0.04416608810424805, 0.0826987773180008, 0.011207148432731628, 0.05462540686130524, -0.07225316017866135, -0.10530659556388855, -0.11108195781707764, -0.10661835968494415, -0.12183018028736115, 0.13267669081687927, 0.0798734724521637, -0.06611055135726929, 0.11426040530204773, 0.02427215874195099, 0.12236359715461731, 0.05280864238739014, 0.053638651967048645, 0.06203748285770416, -0.05906309932470322, -0.030234873294830322, 0.10051465034484863, 0.13805344700813293, -0.06549124419689178, -0.025963768362998962, -0.007662415504455566, 0.08646222949028015, -0.04302346706390381, -0.09474606812000275, -0.04506675899028778, -0.1437215358018875, -0.09992700815200806, 0.0763060450553894, -0.11318971961736679, 0.06404617428779602, -0.11690312623977661, 0.09165430068969727, 0.04064680635929108, 0.1268816590309143, -0.019694678485393524, 0.11404138803482056, -0.1151823177933693, 0.12532764673233032, -0.08204596489667892, -0.010107681155204773, -0.12137068063020706, 0.03369097411632538, -0.09539875388145447, 0.09308837354183197, -0.05868469178676605, -0.008474767208099365, 0.018456369638442993, 0.022833824157714844, -0.029235944151878357, 0.06334775686264038, 0.13463640213012695, -0.05002308636903763, -0.11388389021158218, -0.12175597995519638, 0.030112922191619873, 0.09625227749347687, 0.02172933518886566, -0.08163869380950928, -0.03386032581329346, 0.048490867018699646, 0.08817192912101746, 0.11622035503387451, 0.07503120601177216, 0.029093369841575623, 0.027257949113845825, -0.04662419110536575, -0.10136625170707703, -0.11185756325721741, 0.06102411448955536, 0.035414308309555054, -0.1089806780219078, 0.06833164393901825, -0.03581304848194122, 0.1009959876537323, -0.014586985111236572, -0.013284161686897278, -0.0995301604270935, 0.007116839289665222, -0.11048071086406708, -0.10915100574493408, -0.0841997042298317, 0.10797110199928284, 0.07791946828365326, -0.04101716727018356, 0.036545708775520325, 0.07908447086811066, 0.04634393751621246, 0.13720721006393433, -0.1236107274889946, 0.12551066279411316, -0.13939759135246277, -0.002521216869354248, -0.12203764915466309, -0.029057666659355164, 0.08768641948699951, -0.06020776927471161, -0.03430914133787155, 0.03406688570976257, -0.09311330318450928, 0.11986809968948364, -0.03466673940420151, -0.03646405041217804, 0.13005569577217102, 0.06137353181838989, 0.049196988344192505, -0.06949501484632492, -0.04859194904565811, 0.11486983299255371, 0.05114871263504028, -0.06557369977235794, 0.1340419054031372, 0.05384461581707001, 0.14037898182868958, -0.07868287712335587, 0.10249446332454681, -0.02252265065908432, -0.054449327290058136, -0.011278897523880005, -0.02670206129550934, 0.005616828799247742, -0.09267574548721313, 0.04683326184749603, 0.12433373928070068, 0.11016643047332764, 0.04077596962451935, 0.13764262199401855, 0.13883870840072632, 0.07740600407123566, 0.0982370376586914, -0.03365585207939148, 0.01627086102962494, 0.003913074731826782, 0.09002053737640381, 0.10819515585899353, -0.10534314811229706, -0.013232707977294922, 0.04661068320274353, 0.1433490812778473, 0.0812302976846695, 0.07582755386829376, 0.027986004948616028, 0.03824809193611145, 0.06300137937068939, -0.10469131171703339, -0.03627290576696396, 0.12519648671150208, -0.122977614402771, -0.04249916970729828, 0.04117870330810547, -0.0846487432718277, -0.10482065379619598, -0.0353909432888031, -0.06502579152584076, 0.039102762937545776, -0.13308022916316986, 0.09269283711910248, -0.14100158214569092, 0.07332926988601685, 0.11145195364952087, -0.05534166842699051, 0.09007705748081207, 0.09677329659461975, -0.06743105500936508, -0.08530815690755844, 0.007307395339012146, 0.14302939176559448, -0.05226222425699234, 0.048873066902160645, 0.018334046006202698, -0.07113116979598999, 0.07547453045845032, 0.04442204535007477, -0.042563267052173615, -0.038123033940792084, 0.01621308922767639, -0.11014656722545624, -0.02665696293115616, -0.13088220357894897, -0.07114586234092712, -0.05417671054601669, 0.028890296816825867, -0.05901295691728592, -0.06643093377351761, 0.09756121039390564, -0.07446511089801788, 0.07080592215061188, -0.1388544887304306, -0.0973387062549591, -0.004780620336532593, 0.011161014437675476, 0.12659361958503723, 0.08663924038410187, 0.055065542459487915, 0.0943308174610138, -0.11308732628822327, 0.13570243120193481, 0.0577157586812973, -0.0983286052942276, -0.007098928093910217, -0.1338343322277069, 0.11835893988609314, 0.11436766386032104, 0.11372330784797668, -0.08544604480266571, 0.028732553124427795, 0.00441133975982666, -0.0843481793999672, -0.013935685157775879, -0.12164350599050522, 0.11624607443809509, 0.0007999688386917114, -0.02763998508453369, 0.05809597671031952, -0.12594228982925415, 0.019161999225616455, -0.0562497153878212, 0.010897040367126465, 0.06120803952217102, 0.06303039193153381, -0.022037655115127563, 0.03418271243572235, 0.055287912487983704, 0.12388938665390015, 0.08702899515628815, -0.07628054171800613, 0.10158400237560272, 0.07973018288612366, 0.07827150821685791, -0.056241802871227264, 0.04341213405132294, -0.03920256346464157, -0.06683728098869324, -0.09153638780117035, 0.020373299717903137, 0.004708647727966309, 0.04804737865924835, 0.10855582356452942, 0.10948875546455383, 0.0249975323677063, 0.045203253626823425, 0.09365558624267578, -0.03472434729337692, -0.058184437453746796, -0.14174491167068481, 0.05799649655818939, 0.038644254207611084, 0.03106650710105896, -0.07141155004501343, -0.05464743822813034, 0.09734487533569336, -0.05537904053926468, 0.11650916934013367, -0.038933560252189636, 0.12898093461990356, -0.06856972724199295, -0.12590104341506958, -0.08151575177907944, 0.03304995596408844, 0.10177066922187805, 0.10218006372451782, -0.024956151843070984, -0.04039185494184494, 0.029054254293441772, 0.008984416723251343, 0.13392072916030884, 0.05704544484615326, -0.01208747923374176, -0.06866253167390823, -0.13753896951675415, 0.13897296786308289, 0.05992986261844635, 0.08237120509147644, 0.021458029747009277, -0.04238788038492203, -0.1255551129579544, 0.12667754292488098, 0.09786912798881531, -0.06339751929044724, -0.08409108221530914, 0.0233452171087265, -0.042841680347919464, 0.1337990164756775, -0.12156227231025696, -0.08393479883670807, 0.014132574200630188, -0.09345458447933197, 0.040867701172828674, -0.10873529314994812, -0.13575099408626556, -0.052042119204998016, -0.06647421419620514, -0.1195034608244896, 0.09836268424987793, 0.07795277237892151, 0.0612109899520874, 0.03262442350387573]}, "bias": {"shape": [12], "values": [0.018023818731307983, -0.062309496104717255, -0.06213410943746567, -0.08978797495365143, -0.1272343397140503, -0.051054127514362335, -0.08429083228111267, -0.02358822524547577, -0.13733455538749695, -0.01566484570503235, -0.12909109890460968, -0.131913959980011]}}, "floor": {"shape": [1], "values": [0.0]}, "ceiling": {"shape": [1], "values": [0.0]}, "coef_softsign": {"shape": [1], "values": [-0.403256356716156]}, "coef_tanh": {"shape": [1], "values": [1.931300401687622]}}, "stack.4": {"conv": {"weight": {"shape": [12, 12, 4], "values": [0.07445846498012543, 0.08253848552703857, -0.08777600526809692, 0.03455154597759247, -0.021671123802661896, 0.010082527995109558, -0.059654273092746735, 0.12314322590827942, 0.045776888728141785, 0.12350782752037048, 0.09971781075000763, -0.038362741470336914, 0.07742041349411011, -0.09167871624231339, -0.035787492990493774, 0.040200188755989075, -0.040601946413517, -0.05616258084774017, -0.034378327429294586, -0.1159786656498909, 0.00047966837882995605, 0.11873883008956909, 0.051411643624305725, -0.05403450131416321, -0.12130673974752426, 0.09358276426792145, 0.02813190221786499, -0.07112669199705124, -0.058573558926582336, 0.09211330115795135, 0.11933702230453491, -0.07001244276762009, 0.04988011717796326, 0.11151206493377686, 0.13408958911895752, -0.14126519858837128, 0.084211066365242, 0.00238838791847229, 0.09841194748878479, 0.12364143133163452, -0.14115546643733978, 0.014932394027709961, 0.051315128803253174, -0.10263955593109131, -0.12451934814453125, 0.028220415115356445, -0.11143084615468979, 0.14223900437355042, 0.044567570090293884, -0.018607378005981445, 0.0604340136051178, 0.0743875652551651, -0.1099240630865097, 0.0022974759340286255, 0.043551936745643616, -0.138703390955925, -0.11055540293455124, -0.06068001687526703, 0.03640246391296387, 0.04093851149082184, -0.010978013277053833, 0.09984956681728363, 0.04492689669132233, 0.016758978366851807, 0.013198405504226685, -0.0018839091062545776, 0.12526467442512512, 0.07892528176307678, 0.13746550679206848, 0.1312578320503235, 0.07798567414283752, 0.03293044865131378, 0.10598695278167725, 0.07712072134017944, -0.006744414567947388, -0.06939172744750977, 0.08469383418560028, -0.04707324504852295, 0.13559702038764954, -0.1279473900794983, -0.1149359792470932, -0.0890168696641922, 0.13154122233390808, -0.08024607598781586, 0.12437382340431213, 0.11552143096923828, 0.012861520051956177, -0.0026856958866119385, 0.058970049023628235, 0.016068249940872192, -0.09157556295394897, 0.13348564505577087, -0.09039101004600525, 0.06150096654891968, -0.03472495079040527, 0.04033687710762024, -0.07562930881977081, -0.05686637759208679, -0.11936795711517334, -0.12963508069515228, -0.03452879935503006, -0.006532385945320129, -0.09675963968038559, 0.0649016797542572, 0.06421975791454315, -0.12005606293678284, 0.0327754020690918, -0.04506484419107437, -0.144212007522583, -0.12811224162578583, -0.11693103611469269, -0.03561156243085861, -0.028077319264411926, -0.013596370816230774, 0.008771747350692749, -0.10183333605527878, -0.018089398741722107, -0.12508425116539001, 0.007545962929725647, 0.10229012370109558, -0.06668666005134583, -0.014237016439437866, -0.007869094610214233, -0.0005842298269271851, 0.0744473785161972, 0.09627695381641388, -0.11225083470344543, -0.07280003279447556, 0.08879697322845459, 0.034829363226890564, 0.10882556438446045, -0.0647706612944603, 0.05007505416870117, 0.09902334213256836, -0.013473674654960632, 0.051726654171943665, -0.02828952670097351, -0.002748638391494751, 0.06659609079360962, 0.08061258494853973, 0.021546930074691772, 0.0073694586753845215, 0.12198671698570251, -0.12544238567352295, 0.08840018510818481, 0.03617805242538452, 0.058447882533073425, 0.12778574228286743, 0.028510689735412598, 0.04714575409889221, -0.0666588693857193, -0.07519719004631042, -0.014314547181129456, -0.1207960695028305, -0.00927172601222992, -0.03461945801973343, 0.059699997305870056, -0.018294334411621094, 0.06794439256191254, 0.031859129667282104, 0.009040534496307373, 0.08149175345897675, -0.13024480640888214, 0.021093323826789856, -0.025855854153633118, -0.0734432265162468, 0.06350113451480865, 0.13751927018165588, -0.10593931376934052, 0.011096984148025513, 0.08035005629062653, 0.13647621870040894, 0.03377293050289154, 0.08914586901664734, -0.07321234792470932, 0.10654807090759277, 0.12980777025222778, -0.04211844503879547, 0.06337401270866394, 0.0013260841369628906, -0.06922110915184021, -0.0014301538467407227, 0.009496912360191345, 0.09405988454818726, 0.09507767856121063, -0.08656637370586395, -0.10130864381790161, -0.048031263053417206, -0.08469100296497345, -0.01735439896583557, 0.0038890689611434937, -0.001410067081451416, 0.01978960633277893, -0.03151614964008331, -0.007158726453781128, 0.0233917236328125, -0.03515860438346863, -0.014909699559211731, 0.06478528678417206, -0.03525941073894501, -0.07730314880609512, 0.055801451206207275, 0.012942329049110413, -0.040036268532276154, -0.010470032691955566, -0.0847301259636879, -0.04995643347501755, 0.12279152870178223, -0.016885340213775635, -0.09655887633562088, 0.08987794816493988, 0.04706120491027832, 0.04220744967460632, -0.10232876241207123, 0.0765465795993805, 0.13687437772750854, 0.13191097974777222, -0.123002789914608, 0.04537208378314972, -0.10676240921020508, -0.024603605270385742, 0.09152702987194061, 0.08698299527168274, -0.044584907591342926, 0.10091085731983185, -0.13751854002475739, 0.10269317030906677, 0.02150559425354004, 0.1161687970161438, -0.03699813783168793, 0.03728462755680084, -0.045398809015750885, -0.12679146230220795, 0.08746182918548584, -0.07348852604627609, 0.00023390352725982666, 0.07427194714546204, 0.002932310104370117, 0.1032671332359314, -0.11749041825532913, 0.008922606706619263, -0.022523239254951477, 0.007644742727279663, -0.11587996780872345, 0.06476810574531555, 0.017360910773277283, -0.03801334649324417, -0.06087198853492737, 0.05136600136756897, 0.04523709416389465, -0.008199483156204224, 0.014919787645339966, 0.10305681824684143, -0.0022582411766052246, 0.13478145003318787, -0.035616323351860046, 0.09335781633853912, -0.013996422290802002, 0.060027897357940674, -0.0795782133936882, 0.03677043318748474, -0.04987151920795441, 0.10391151905059814, -0.05582538992166519, -0.025120608508586884, -0.07826679199934006, -0.1255069375038147, -0.09096179902553558, -0.030341625213623047, -0.059947334229946136, 0.12872174382209778, -0.08600591123104095, -0.11098895221948624, -0.06062908470630646, 0.12742456793785095, -0.017090216279029846, 0.013183340430259705, 0.10443700850009918, -0.11563875526189804, 0.07325659692287445, 0.0031939446926116943, 0.05541040003299713, 0.13647758960723877, -0.027969107031822205, -0.07397108525037766, 0.023255661129951477, 0.04434002935886383, -0.08901260793209076, -0.1004209965467453, 0.025207847356796265, 0.07903340458869934, 0.08692291378974915, 0.10178665816783905, -0.03950890898704529, -0.07309284806251526, 0.1269102394580841, -0.1275743693113327, -0.0030068010091781616, 0.004989564418792725, -0.017325907945632935, -0.03299231827259064, 0.07637129724025726, 0.1211060881614685, 0.051081836223602295, 0.0012691020965576172, 0.08438879251480103, -0.03012668341398239, 0.12290003895759583, 0.11416095495223999, -0.06352101266384125, -0.12258350849151611, 0.04145653545856476, -0.06201554089784622, 0.10591721534729004, -0.04064340889453888, 0.032077357172966, -0.13916917145252228, -0.07106420397758484, 0.08121240139007568, -0.037344515323638916, -0.032508715987205505, 0.08387911319732666, -0.10842513293027878, 0.12558117508888245, -0.12363330274820328, 0.07338279485702515, -0.02748553454875946, -0.022835083305835724, -0.01896756887435913, 0.043017953634262085, -0.10436098277568817, 0.08848337829113007, 0.1284019947052002, -0.13390372693538666, 0.08862051367759705, 0.025437965989112854, -0.04508568346500397, 0.014373302459716797, -0.09881921112537384, 0.13730213046073914, 0.0687984973192215, -0.09810641407966614, -0.13498087227344513, 0.07363717257976532, 0.0026743412017822266, 0.07897597551345825, 0.03590124845504761, -0.1415736973285675, -0.07416312396526337, 0.0512050986289978, -0.09969542920589447, 0.08776906132698059, -0.12539765238761902, 0.11327803134918213, -0.013130679726600647, -0.13789458572864532, 0.10879898071289062, 0.10014685988426208, -0.07638749480247498, -0.059504322707653046, 0.11301633715629578, -0.12662892043590546, 0.1313129961490631, -0.0701160579919815, 0.1264960765838623, 0.14169353246688843, 0.03155398368835449, 0.09688214957714081, 0.061717331409454346, 0.07138612866401672, -0.006985396146774292, 0.006656274199485779, 0.09860914945602417, -0.1310797780752182, 0.0867386907339096, 0.02697397768497467, 0.051875412464141846, -0.07816863059997559, -0.06117624789476395, -0.0717204213142395, 0.06276711821556091, 0.11330148577690125, 0.12234297394752502, 0.14062470197677612, -0.13499943912029266, 0.08451196551322937, -0.0269322469830513, 0.01240643858909607, -0.11634214967489243, -0.0528230145573616, -0.012081339955329895, 0.05264793336391449, 0.0798182338476181, 0.037261784076690674, -0.11489691585302353, 0.0678388774394989, 0.01576593518257141, -0.040677234530448914, -0.13570043444633484, -0.013755276799201965, 0.051066651940345764, -0.12351201474666595, -0.07271002978086472, 0.06974434852600098, -0.13026006519794464, -0.06572432070970535, -0.10269009321928024, 0.02396082878112793, 0.05975179374217987, -0.10923819243907928, 0.1321309506893158, -0.10200877487659454, 0.05717647075653076, -0.12200413644313812, 0.07365386188030243, 0.10110746324062347, 0.02078855037689209, -0.014616340398788452, -0.006379604339599609, 0.03347867727279663, 0.09006349742412567, 0.05968524515628815, 0.022037848830223083, 0.12389957904815674, 0.08125466108322144, 0.10689476132392883, 0.024514824151992798, 0.01970374584197998, 0.008714020252227783, -0.1275559365749359, -0.028016529977321625, 0.011098042130470276, 0.07526740431785583, -0.12294327467679977, -0.03792036324739456, 0.04435637593269348, 0.010786116123199463, -0.0843852236866951, -0.05584155023097992, -0.0928841382265091, 0.0984078198671341, 0.02530023455619812, 0.05439217388629913, 0.09239953756332397, 0.023857370018959045, -0.10825943946838379, -0.055531129240989685, -0.08841627836227417, -0.03363723307847977, -0.06539468467235565, 0.015389695763587952, 0.00853683054447174, -0.1392645388841629, 0.013106688857078552, -0.14144816994667053, -0.13600678741931915, -0.012926056981086731, 0.022171273827552795, 0.09463387727737427, -0.12272151559591293, 0.007414773106575012, 0.0931592583656311, -0.036952316761016846, 0.11573934555053711, -0.07331816852092743, 0.09491245448589325, 0.13767796754837036, 0.017324253916740417, -0.07884132862091064, 0.027329817414283752, 0.037333130836486816, 0.003705322742462158, 0.13992881774902344, 0.04054597020149231, 0.036125004291534424, -0.13472387194633484, 0.0011555403470993042, -0.0693230852484703, 0.03860878944396973, 0.10783618688583374, 0.09686279296875, -0.05271953344345093, -0.13582298159599304, -0.07696325331926346, -0.04832927882671356, 0.05133835971355438, 0.08029147982597351, -0.11087016016244888, -0.07116732001304626, 0.016330242156982422, 0.09306290745735168, 0.014898791909217834, 0.026517093181610107, -0.08624871075153351, 0.0874747633934021, 0.11240223050117493, -0.0032768994569778442, -0.01539495587348938, -0.12576457858085632, 0.0794990062713623, -0.07114928960800171, 0.0941360741853714, -0.09987223893404007, 0.04848355054855347, 0.05777108669281006, -0.06270019710063934, -0.002038910984992981, 0.019978806376457214, -0.053607262670993805, 0.06391504406929016, 0.09877142310142517, 0.12092810869216919, 0.07485154271125793, -0.08446796983480453, 0.03580927848815918, 0.08571426570415497, 0.0202348530292511, -0.11824370920658112, 0.01729440689086914, 0.08319225907325745, -0.10394720733165741, -0.02714110165834427, 0.12662437558174133, 0.1271408498287201, -0.03821417689323425, 0.07733358442783356, 0.049793511629104614, -0.0971931517124176, 0.02243003249168396, -0.05294569581747055, -0.05572662502527237, -0.058073922991752625, -0.03604494035243988, -0.10581602901220322, -0.12761226296424866, -0.1376674324274063, 0.08296281099319458, 0.08903774619102478, 0.030402690172195435, -0.08638278394937515, -0.048017218708992004, -0.03134165704250336, -0.08103904873132706, 0.06944768130779266, 0.08389124274253845, 0.01627311110496521, -0.04724620282649994, 0.07266673445701599, 0.032175302505493164, 0.046281084418296814, -0.12528489530086517, 0.007395237684249878, 0.011582687497138977, 0.07734346389770508, 0.07729820907115936, -0.05535852909088135, 0.002110227942466736, -0.010749027132987976, 0.11772572994232178, 0.04278944432735443, -0.052861884236335754, -0.05679672211408615, 0.13800784945487976, 0.057354092597961426, 0.049876391887664795, 0.13752353191375732, -0.06121496111154556, 0.016676530241966248, -0.11995698511600494, -0.04291354864835739, 0.061768725514411926, 0.0517217218875885, 0.1005001962184906, 0.10252565145492554, -0.024182356894016266, -0.11955733597278595]}, "bias": {"shape": [12], "values": [0.06733681261539459, 0.05322326719760895, -0.05410432070493698, 0.05174072086811066, -0.019793808460235596, -0.011103391647338867, 0.04857867956161499, 0.039569124579429626, -0.0386260449886322, -0.0287797674536705, 0.035075828433036804, 0.05721694231033325]}}, "floor": {"shape": [1], "values": [0.0]}, "ceiling": {"shape": [1], "values": [0.0]}, "coef_softsign": {"shape": [1], "values": [-2.415674924850464]}, "coef_tanh": {"shape": [1], "values": [-1.2681113481521606]}}, "stack.5": {"conv": {"weight": {"shape": [1, 12, 4], "values": [-0.08571772277355194, 0.07640804350376129, -0.13001936674118042, -0.09495210647583008, -0.07038551568984985, -0.10892510414123535, -0.01765744388103485, -0.10514327883720398, 0.03568984568119049, 0.08906105160713196, -0.09783335030078888, 0.12296527624130249, -0.1440105438232422, 0.11730921268463135, -0.14123378694057465, 0.06385870277881622, 0.10388998687267303, 0.10855352878570557, 0.11781260371208191, -0.04596312344074249, -0.029376618564128876, -0.09499753266572952, 0.10616490244865417, 0.01175643503665924, 0.02665136754512787, -0.04799165576696396, -0.09853225946426392, -0.024893566966056824, 0.017262399196624756, 0.1074972152709961, -0.11618831008672714, -0.019664481282234192, -0.10297875106334686, -0.13173645734786987, 0.017814621329307556, 0.04920262098312378, 0.07180723547935486, -0.07356877624988556, 0.11152616143226624, -0.0798320546746254, 0.01742580533027649, -0.046483807265758514, -0.13888539373874664, 0.033624351024627686, -0.1441078633069992, 0.024259045720100403, -0.10100658237934113, 0.1057315468788147]}, "bias": {"shape": [1], "values": [-0.035385556519031525]}}, "floor": {"shape": [1], "values": [0.0]}, "ceiling": {"shape": [1], "values": [0.0]}, "coef_softsign": {"shape": [1], "values": [-0.3954818844795227]}, "coef_tanh": {"shape": [1], "values": [1.1773983240127563]}}}}