{"weight": {"shape": [11, 7, 3], "values": [0.1401567906141281, -0.20010805130004883, 0.06730283796787262, -0.2037765234708786, 0.19559328258037567, -0.20265375077724457, -0.17646557092666626, 0.01185697317123413, -0.1632155179977417, -0.04269471764564514, -0.17681685090065002, 0.15508107841014862, -0.03096039593219757, -0.07464596629142761, -0.12345653772354126, 0.20269672572612762, 0.16226525604724884, 0.06667406857013702, -0.041027143597602844, 0.15469495952129364, 0.1867341846227646, 0.216682568192482, 0.09121565520763397, -0.17471331357955933, 0.11377511918544769, 0.16579271852970123, 0.1549675613641739, -0.04797513782978058, -0.10062991827726364, -0.12287521362304688, 0.210846945643425, -0.16073569655418396, -0.05227282643318176, 0.13780321180820465, 0.1713704615831375, -0.08355498313903809, -0.15361155569553375, 0.004795938730239868, 0.07453472912311554, -0.046199604868888855, -0.07880015671253204, -0.06046845018863678, -0.17085400223731995, -0.04373729228973389, 0.06622381508350372, -0.03381820023059845, 0.1974126249551773, 0.10434381663799286, -0.1090293750166893, 0.12987063825130463, 0.20813776552677155, 0.1828983575105667, -0.03497190773487091, -0.12117507308721542, -0.030326738953590393, -0.03008529543876648, -0.15248996019363403, 0.15558208525180817, -0.1811712235212326, 0.13159386813640594, -0.16740545630455017, -0.04705914855003357, 0.015581294894218445, -0.12131515145301819, -0.08574572205543518, -0.1228068470954895, 0.007929563522338867, 0.05410654842853546, 0.011342182755470276, -0.07126250863075256, -0.14271901547908783, -0.0140552818775177, -0.05187332630157471, -0.05200600624084473, 0.056297823786735535, -0.1355239599943161, -0.030238807201385498, -0.01580709218978882, -0.09121541678905487, -0.1400313377380371, -0.04857264459133148, 0.04706333577632904, 0.04136209189891815, 0.09081317484378815, -0.1830950826406479, -0.044343069195747375, -0.05958534777164459, -0.04302665591239929, 0.13520856201648712, -0.03632281720638275, -0.20867305994033813, -0.16777601838111877, -0.09133443236351013, -0.21238890290260315, 0.13703252375125885, 0.07212276756763458, -0.0517309308052063, 0.039590612053871155, -0.15925699472427368, 0.17725472152233124, -0.17047308385372162, 0.17857368290424347, 0.13125275075435638, 0.18262313306331635, -0.13662880659103394, 0.12866483628749847, 0.19908128678798676, -0.16435739398002625, 0.13493560254573822, -0.1906466782093048, -0.03785909712314606, 0.040309324860572815, -0.05286793410778046, -0.11775251477956772, 0.1510469764471054, -0.21105137467384338, 0.10786978900432587, -0.0992535650730133, 0.06274859607219696, 0.14161647856235504, 0.13274793326854706, -0.10479310899972916, -0.004470199346542358, 0.08113639056682587, -0.16168281435966492, 0.03428013622760773, -0.11487004905939102, 0.21022753417491913, -0.17462500929832458, -0.1077585518360138, 0.038070663809776306, 0.08397231996059418, 0.02453508973121643, 0.1173868328332901, 0.1456860452890396, 0.17167456448078156, -0.026882216334342957, -0.12433676421642303, 0.1109989732503891, 0.005653351545333862, 0.1573692113161087, 0.16416464745998383, 0.18252147734165192, -0.12133091688156128, -0.053322985768318176, -0.13211366534233093, 0.1990462988615036, -0.18709054589271545, 0.18332679569721222, -0.04126878082752228, -0.07772289216518402, 0.08952771127223969, 0.13350673019886017, -0.04425160586833954, -0.1044643223285675, -0.004052609205245972, -0.19184748828411102, 0.18614913523197174, 0.020290017127990723, -0.05931410193443298, -0.138427734375, -0.09093716740608215, 0.1156587153673172, 0.07390494644641876, -0.13694074749946594, -0.054235681891441345, -0.15233103930950165, 0.041976794600486755, -0.15029117465019226, -0.05905665457248688, 0.1654881089925766, 0.15721099078655243, 0.20656464993953705, -0.17170177400112152, -0.019782379269599915, 0.133230522274971, 0.21471144258975983, -0.11296889930963516, -0.1734311878681183, 0.09618602693080902, 0.11054374277591705, -0.1834503561258316, -0.08077974617481232, -0.13770857453346252, 0.011494025588035583, 0.09106190502643585, -0.005482807755470276, -0.1783285140991211, 0.07183103263378143, 0.021210163831710815, -0.11484507471323013, 0.015767022967338562, -0.083785280585289, -0.03501562774181366, 0.13670723140239716, 0.006784111261367798, 0.011068478226661682, -0.03228725492954254, -0.04475189745426178, 0.11670564115047455, -0.07169845700263977, 0.11150394380092621, -0.16510654985904694, 0.19603006541728973, -0.011753931641578674, 0.020730942487716675, 0.17841820418834686, -0.03889454901218414, -0.1855868697166443, -0.056105539202690125, -0.05659976601600647, -0.12230364233255386, -0.12577487528324127, 0.026959329843521118, -0.012555718421936035, 0.03819634020328522, -0.21518421173095703, -0.09484738111495972, 0.09203235805034637, -0.06294627487659454, -0.09094096720218658, 0.16886980831623077, 0.014969870448112488, -0.038985833525657654, 0.17413897812366486, 0.028911277651786804, 0.05088193714618683, 0.13970740139484406, 0.07631431519985199, -0.18138271570205688, 0.099869504570961]}, "bias": {"shape": [11], "values": [-0.04741258919239044, 0.05953429639339447, 0.16994072496891022, -0.16300174593925476, 0.043207988142967224, 0.08951066434383392, 0.06012891232967377, -0.12003704905509949, 0.10535158216953278, 0.0365990549325943, 0.15752340853214264]}}