{"weight": {"shape": [11, 7, 3], "values": [-0.09767227619886398, -0.0929693877696991, -0.023640945553779602, 0.11269484460353851, 0.029503896832466125, 0.05625493824481964, -0.04306095838546753, -0.17465060949325562, -0.1984054148197174, -0.0073636919260025024, -0.15730299055576324, -0.10211321711540222, -0.06904199719429016, 0.19127266108989716, 0.14946161210536957, -0.0458948016166687, -0.09282287955284119, 0.15565629303455353, -0.18780195713043213, 0.1603662520647049, 0.10710589587688446, -0.13893499970436096, -0.19918371737003326, 0.12402568757534027, -0.010715991258621216, -0.08915412425994873, -0.07377426326274872, 0.11614502966403961, 0.11021439731121063, 0.054070934653282166, 0.10746519267559052, -0.051156267523765564, 0.013218283653259277, 0.19798283278942108, -0.09580878913402557, 0.10037313401699066, -0.05589576065540314, 0.1951480656862259, -0.005865991115570068, -0.08410368859767914, 0.039816007018089294, -0.03624425828456879, -0.09270453453063965, -0.1251067817211151, -0.0523507297039032, 0.18017910420894623, 0.15890516340732574, -0.018609628081321716, 0.17374058067798615, 0.04892881214618683, -0.043018996715545654, -0.16998881101608276, -0.09316588938236237, -0.12160010635852814, 0.15106765925884247, 0.18980564177036285, -0.09984251111745834, 0.15295426547527313, -0.02820095419883728, -0.039126455783843994, -0.14940208196640015, 0.04740740358829498, -0.1085449755191803, -0.08878636360168457, -0.17222623527050018, 0.11690212786197662, 0.061811551451683044, 0.06875495612621307, 0.19695578515529633, 0.08346845209598541, -0.03381991386413574, -0.07686115801334381, -0.1020716205239296, 0.05253635346889496, -0.1310589611530304, 0.13235221803188324, -0.02872137725353241, -0.030224651098251343, 0.09845198690891266, 0.1610664576292038, -0.20350046455860138, -0.022101595997810364, -0.029418930411338806, 0.0991290956735611, 0.1858658641576767, 0.1981760412454605, -0.0175599604845047, -0.12738806009292603, -0.19743295013904572, 0.1806672364473343, 0.21689312160015106, 0.09639506042003632, 0.011685952544212341, -0.003911897540092468, 0.1407250314950943, -0.19662587344646454, -0.05143141746520996, 0.1632169634103775, 0.009378552436828613, -0.11912327259778976, -0.10013105720281601, -0.17424947023391724, 0.10909582674503326, 0.20119063556194305, 0.16059447824954987, 0.07710550725460052, 0.18728019297122955, -0.001604810357093811, 0.11790452897548676, -0.03150293231010437, 0.07971693575382233, 0.20103375613689423, 0.08584554493427277, -0.10789038985967636, 0.04767833650112152, -0.06040593981742859, 0.15255384147167206, -0.01073649525642395, -0.21752125024795532, -0.058766886591911316, 0.21117396652698517, -0.10814805328845978, 0.03072817623615265, -0.18395447731018066, -0.058304563164711, 0.1386554092168808, -0.08555662631988525, 0.036813393235206604, 0.1347452849149704, -0.21015916764736176, 0.11930088698863983, 0.015452519059181213, 0.015402495861053467, 0.1477675884962082, 0.16256089508533478, 0.11573608219623566, -0.01565423607826233, -0.18984158337116241, 0.20814968645572662, -0.18516576290130615, -0.203969806432724, 0.06768642365932465, -0.20315879583358765, -0.08891238272190094, 0.005153685808181763, -0.17129014432430267, -0.16611379384994507, 0.10192136466503143, -0.062124669551849365, 0.1613679677248001, 0.0687466710805893, 0.025928035378456116, 0.17835037410259247, -0.12971408665180206, 0.16134805977344513, -0.09721162915229797, -0.1315382868051529, 0.15706534683704376, 0.1466195434331894, -0.012521132826805115, -0.09818968921899796, -0.12161789834499359, 0.022645071148872375, -0.16810426115989685, -0.05257004499435425, 0.18715207278728485, 0.20624233782291412, -0.08390556275844574, -0.04280129075050354, 0.12869949638843536, 0.06579063832759857, -0.11720726639032364, -0.1446385532617569, -0.058669090270996094, 0.17701007425785065, 0.21005748212337494, 0.20960842072963715, -0.1062161847949028, -0.013766974210739136, -0.07892128825187683, -0.07299290597438812, 0.16450680792331696, -0.13778164982795715, 0.20146475732326508, 0.1501733809709549, -0.1245856061577797, -0.1456700712442398, -0.01867513358592987, 0.015586286783218384, -0.14769992232322693, -0.2125532180070877, -0.09410568326711655, 0.009146302938461304, -0.1779364049434662, 0.00938136875629425, -0.04467809200286865, 0.026051834225654602, -0.06968705356121063, 0.1400674730539322, -0.14363664388656616, -0.09246143698692322, 0.13347400724887848, 0.1732490509748459, 0.1469578891992569, 0.17193718254566193, 0.1985170692205429, -0.041609227657318115, 0.023450642824172974, -0.21170863509178162, -0.1166100725531578, 0.15073199570178986, -0.174163818359375, 0.04010261595249176, 0.17040424048900604, 0.14994512498378754, -0.014158964157104492, -0.1744661182165146, -0.018346920609474182, 0.025375619530677795, -0.002165496349334717, 0.016303524374961853, -0.19539423286914825, 0.13637368381023407, -0.08299435675144196, 0.09602446854114532, 0.15458513796329498, 0.18571977317333221, -0.025741711258888245, 0.01807744801044464, 0.1161005049943924, -0.16390053927898407]}, "bias": {"shape": [11], "values": [-0.1367156207561493, 0.11502905189990997, -0.18748410046100616, 0.18940474092960358, -0.16226409375667572, -0.13158512115478516, 0.16106672585010529, 0.1733354777097702, 0.2067181020975113, -0.153554767370224, 0.03314630687236786]}}