{"weight": {"shape": [11, 7, 3], "values": [-0.11416130512952805, 0.07859916985034943, 0.14628757536411285, -0.15828630328178406, -0.21768386662006378, -0.06581851840019226, 0.030915886163711548, -0.00912080705165863, -0.14368663728237152, -0.03415179252624512, 0.1407899707555771, 0.08204646408557892, -0.06351754069328308, -0.15355058014392853, 0.009452372789382935, 0.016627997159957886, -0.006005346775054932, -0.15192022919654846, 0.0010344237089157104, -0.031242355704307556, 0.17036212980747223, -0.21425437927246094, 0.10816685855388641, -0.02910497784614563, 0.20919190347194672, 0.009136572480201721, -0.01984041929244995, 0.17322193086147308, -0.20549383759498596, 0.12694256007671356, -0.03847184777259827, 0.12395025789737701, -0.138619527220726, -0.07718503475189209, 0.020865902304649353, -0.1529475897550583, 0.055514439940452576, 0.19822721183300018, -0.14769744873046875, -0.1333361119031906, -0.07332815229892731, -0.1335746943950653, -0.028867244720458984, -0.07441775500774384, -0.16506123542785645, 0.12236510217189789, 0.13740603625774384, 0.21750126779079437, -0.1644972860813141, 0.18475373089313507, -0.05373068153858185, -0.21747781336307526, -0.1806134432554245, -0.048934102058410645, -0.10713118314743042, -0.06790192425251007, -0.132705956697464, -0.17702361941337585, -0.07113783061504364, 0.14093764126300812, -0.12280560284852982, -0.08015865087509155, -0.013595536351203918, -0.1820821762084961, 0.1775987595319748, 0.11944331228733063, 0.03312976658344269, 0.1734350174665451, -0.10522527247667313, -0.024300605058670044, -0.11070472747087479, -0.1930517852306366, -0.20335957407951355, 0.19033615291118622, 0.009660303592681885, -0.055111080408096313, 0.08329351246356964, -0.03379902243614197, -0.04930455982685089, -0.04143261909484863, 0.014239221811294556, 0.16598643362522125, -0.11348412185907364, -0.009021833539009094, -0.11995919048786163, -0.09655944257974625, 0.12382872402667999, -0.1683298498392105, -0.020344644784927368, 0.14236901700496674, 0.006409823894500732, -0.15077316761016846, 0.07940830290317535, -0.04732032120227814, -0.0699465423822403, 0.1788187474012375, -0.005353748798370361, 0.1870260089635849, -0.1988159418106079, 0.10996367037296295, 0.1701660007238388, -0.07448846101760864, -0.11813774704933167, 0.21761374175548553, -0.15214750170707703, -0.13909518718719482, 0.06041361391544342, -0.19247663021087646, 0.0537535697221756, -0.20550636947155, -0.06593899428844452, -0.06267128884792328, 0.06004960834980011, -0.2169867753982544, 0.11337141692638397, 0.1837948113679886, -0.009357094764709473, 0.20867060124874115, 0.02463342249393463, 0.03421081602573395, -0.04498474299907684, 0.03097444772720337, -0.026807844638824463, 0.10061703622341156, -0.14016741514205933, -0.18074271082878113, 0.16512317955493927, -0.20599038898944855, -0.19529101252555847, -0.2107485830783844, -0.08835430443286896, 0.15202157199382782, -0.208122119307518, -0.2170773595571518, 0.06947247684001923, -0.048433467745780945, -0.17057278752326965, 0.013587936758995056, 0.06749488413333893, 0.1726369708776474, 0.13191919028759003, 0.03804360330104828, 0.17423613369464874, -0.04382237792015076, -0.01796676218509674, 0.032933369278907776, -0.07518604397773743, 0.18293018639087677, 0.007993951439857483, -0.1646515429019928, -0.10716219246387482, -0.11128165572881699, -0.20180471241474152, 0.18969322741031647, -0.052262082695961, 0.02078983187675476, 0.1417817324399948, 0.09597976505756378, 0.214264914393425, -0.0480160266160965, -0.10771618038415909, 0.007670760154724121, -0.013359591364860535, 0.03148907423019409, -0.10729319602251053, 0.16129638254642487, -0.2163669466972351, -0.07913079857826233, 0.07140545547008514, 0.12523643672466278, 0.2071339339017868, 0.011857286095619202, 0.16456259787082672, -0.11114861816167831, 0.029295921325683594, 0.1704234629869461, 0.1503894180059433, 0.2042902559041977, -0.0003611445426940918, -0.0030179470777511597, 0.1706419736146927, 0.18005163967609406, 0.1241321712732315, -0.15264470875263214, -0.04768665134906769, -0.1813277304172516, -0.21072141826152802, 0.12178830802440643, 0.15711252391338348, -0.07257559895515442, 0.15739597380161285, 0.07179786264896393, -0.1226029321551323, -0.025104403495788574, 0.19224004447460175, -0.20052698254585266, -0.01580032706260681, -0.16151884198188782, -0.04908469319343567, -0.0645831823348999, 0.09704969823360443, -0.14097806811332703, -0.0417444109916687, 0.1087033599615097, -0.04337042570114136, 0.12800274789333344, 0.024797722697257996, -0.16273266077041626, -0.21112973988056183, -0.05609358847141266, -0.08263041079044342, 0.013904601335525513, -0.06994110345840454, -0.04368545114994049, 0.1277458220720291, -0.10255372524261475, -0.0654904842376709, 0.18865616619586945, -0.13133344054222107, 0.20833159983158112, 0.1982116550207138, 0.10952489078044891, -0.19673117995262146, -0.20614688098430634, -0.09525267034769058, 0.07970444858074188, -0.19785451889038086, 0.1674034744501114, 0.030425474047660828, -0.16569729149341583, 0.07426269352436066]}, "bias": {"shape": [11], "values": [-0.10725464671850204, 0.12244825065135956, -0.13865897059440613, -0.06998711824417114, -0.005215108394622803, -0.0541926771402359, -0.1705261468887329, 0.14481158554553986, 0.035551682114601135, 0.12325210869312286, 0.21325592696666718]}}