{"weight": {"shape": [11, 7, 3], "values": [-0.12866225838661194, -0.09766434133052826, -0.2154238522052765, 0.09642602503299713, 0.06791551411151886, -0.1953432261943817, -0.03824274241924286, 0.16198493540287018, 0.06266345083713531, -0.1884646862745285, 0.08683378994464874, -0.18818017840385437, -0.0381549596786499, 0.11139418184757233, 0.13411055505275726, 0.041220709681510925, -0.1329917311668396, 0.05545283854007721, 0.08529122173786163, -0.07299424707889557, -0.17313861846923828, 0.028131186962127686, -0.0064971596002578735, -0.14996445178985596, -0.12141426652669907, 0.1652815192937851, -0.08043935894966125, -0.11793171614408493, 0.005561470985412598, -0.1506580263376236, 0.0627024918794632, 0.1649351865053177, 0.07122035324573517, -0.1083807498216629, -0.18105840682983398, -0.08018788695335388, -0.09857427328824997, 0.1660609096288681, -0.06939630210399628, -0.004368990659713745, 0.12126000225543976, -0.123284250497818, -0.10524145513772964, 0.1580408364534378, 0.04706425964832306, 0.13067276775836945, -0.010085001587867737, 0.12007759511470795, -0.08596768975257874, 0.05989749729633331, -0.16539286077022552, -0.14412909746170044, 0.10338328778743744, 0.2113334983587265, 0.17824266850948334, 0.0852334052324295, -0.20692019164562225, -0.11730492115020752, -0.20669178664684296, 0.20056326687335968, 0.18786518275737762, -0.0752888023853302, 0.01489192247390747, -0.1394071727991104, 0.01012641191482544, -0.20539557933807373, 0.07177780568599701, 0.013871490955352783, 0.10923807322978973, -0.10096747428178787, 0.01076507568359375, 0.204824760556221, 0.1924094408750534, -0.07432126998901367, -0.14837169647216797, -0.1765170842409134, 0.169289693236351, -0.08634902536869049, -0.10419963300228119, -0.05019266903400421, -0.20223282277584076, -0.1599629521369934, 0.08788211643695831, -0.12080622464418411, 0.16223157942295074, 0.18794827163219452, 0.06687568128108978, -0.17648427188396454, 0.17308424413204193, 0.013077035546302795, 0.07894797623157501, 0.10566999018192291, 0.08626221120357513, 0.1270037144422531, 0.14840151369571686, 0.05494867265224457, 0.0608261376619339, 0.10158796608448029, 0.1377323418855667, 0.1881331354379654, 0.017463654279708862, -0.2164372056722641, 0.15143965184688568, 0.07777233421802521, 0.09607823193073273, -0.050333693623542786, 0.06545053422451019, 0.020502746105194092, -0.1922168880701065, 0.1311831921339035, 0.11774875223636627, -0.003536030650138855, 0.07758034765720367, -0.019228190183639526, -0.06973624229431152, -0.15712271630764008, -0.006302058696746826, 0.10952900350093842, 0.08718772232532501, 0.007182091474533081, -0.15864917635917664, -0.15787823498249054, 0.09557555615901947, -0.11536160111427307, 0.1731506735086441, 0.10628880560398102, 0.13289372622966766, 0.04193936288356781, -0.09566636383533478, 0.038971975445747375, 0.14975623786449432, -0.14596477150917053, 0.1498846858739853, 0.10655324161052704, 0.1286894828081131, -0.1381112039089203, 0.21143655478954315, -0.11969445645809174, -0.15726375579833984, -0.11801129579544067, 0.11173756420612335, -0.011716574430465698, 0.12940408289432526, -0.09539036452770233, 0.06145907938480377, 0.07254643738269806, -0.20437723398208618, 0.0946500152349472, 0.0928444117307663, 0.0520121306180954, -0.09937957674264908, -0.01157417893409729, -0.018704041838645935, -0.08008445799350739, -0.028995230793952942, 0.01955452561378479, -0.009307041764259338, -0.16423848271369934, 0.14796678721904755, 0.08751021325588226, -0.21238283812999725, 0.11960257589817047, -0.18020395934581757, -0.20374320447444916, 0.02905474603176117, -0.05059926211833954, -0.03284147381782532, 0.18653418123722076, -0.008774101734161377, 0.05064786970615387, -0.06531791388988495, 0.1896919459104538, 0.17940475046634674, 0.1916516274213791, -0.21022182703018188, 0.036457136273384094, 0.1101934164762497, -0.04539357125759125, -0.10282908380031586, 0.030516400933265686, 0.1319795697927475, 0.1705559939146042, -0.026919737458229065, -0.18888704478740692, 0.08666194975376129, -0.03525973856449127, 0.004393458366394043, -0.03642275929450989, 0.02675613760948181, -0.08620409667491913, 0.028384268283843994, -0.060183510184288025, -0.11897072941064835, -0.19127628207206726, 0.05890713632106781, 0.1568373590707779, -0.19659915566444397, 0.13929088413715363, 0.08381094038486481, 0.12778852880001068, -0.021550193428993225, 0.18419326841831207, 0.030702680349349976, 0.09023164212703705, -0.20726141333580017, -0.138053297996521, 0.16637028753757477, -0.11569010466337204, 0.046674683690071106, -0.016184046864509583, -0.20274490118026733, 0.11252327263355255, -0.11049443483352661, 0.1506095975637436, -0.09510129690170288, -0.022975608706474304, 0.04912959039211273, 0.015677720308303833, 0.053920045495033264, 0.040627941489219666, 0.1345994919538498, -0.15207380056381226, -0.16964179277420044, -0.157139390707016, 0.05790500342845917, 0.21384064853191376, 0.20354042947292328, -0.13674712181091309, 0.10264800488948822, 0.012542665004730225, 0.07040058076381683]}, "bias": {"shape": [11], "values": [0.0030838847160339355, -0.027751237154006958, 0.07660369575023651, -0.16401493549346924, 0.05817769467830658, 0.20208950340747833, 0.11624129116535187, -0.18666434288024902, -0.0633486807346344, -0.1363874077796936, -0.07765759527683258]}}