{"weight": {"shape": [11, 7, 3], "values": [-0.03818315267562866, -0.15751099586486816, -0.09744463115930557, -0.11181987822055817, -0.13148236274719238, -0.055903926491737366, 0.04114989936351776, 0.1982240229845047, -0.18809154629707336, 0.03688301146030426, 0.12833337485790253, -0.08004462718963623, -0.08764073252677917, -0.089719757437706, 0.07869021594524384, 0.14525465667247772, 0.06351642310619354, -0.0013556182384490967, -0.08213765919208527, 0.050408944487571716, -0.1806906759738922, -0.1955566704273224, 0.2138407975435257, 0.08801572024822235, 0.15602879226207733, -0.19821174442768097, -0.021866977214813232, 0.015451431274414062, -0.05780388414859772, 0.20012058317661285, -0.13642042875289917, -0.20418284833431244, 0.11395637691020966, -0.006845682859420776, 0.05529917776584625, 0.18141581118106842, 0.055481597781181335, -0.10353852808475494, -0.012900039553642273, 0.04391022026538849, -0.11442893743515015, 0.010572582483291626, 0.20039431750774384, 0.19399096071720123, -0.003101155161857605, 0.17895443737506866, -0.09520527720451355, 0.13125015795230865, -0.1473757028579712, -0.21660788357257843, 0.07312484085559845, 0.18448539078235626, 0.049355342984199524, -0.12559129297733307, -0.1449408084154129, 0.10129331052303314, -0.18276536464691162, -0.05309112370014191, 0.0343182235956192, 0.07854051887989044, 0.009583279490470886, 0.1426887959241867, -0.06980086863040924, 0.11959724128246307, 0.04631786048412323, 0.009450867772102356, 0.1856917291879654, -0.037411049008369446, -0.009242892265319824, 0.09917877614498138, 0.011378377676010132, 0.08136467635631561, -0.09851334989070892, -0.05199195444583893, -0.16201218962669373, 0.1097908765077591, -0.12156850099563599, 0.03278021514415741, 0.05095086991786957, 0.06502865254878998, -0.11889898031949997, 0.0025107264518737793, -0.16940844058990479, 0.14605365693569183, -0.1708449125289917, 0.13597224652767181, 0.20874638855457306, -0.19927239418029785, 0.09779055416584015, -0.0504605770111084, 0.2144203931093216, 0.08772172033786774, -0.03006279468536377, -0.0016748011112213135, 0.0468209832906723, 0.12187184393405914, 0.06406106054782867, -0.0043123215436935425, -0.10977312922477722, 0.04372848570346832, 0.0708790272474289, 0.017056778073310852, -0.08167263865470886, 0.03806455433368683, 0.08590526878833771, -0.12953895330429077, 0.0037688016891479492, -0.051404595375061035, -0.1182270497083664, -0.03039608895778656, -0.023584917187690735, -0.049851760268211365, 0.02627699077129364, 0.12789420783519745, -0.08299332857131958, 0.205414816737175, -0.135898619890213, -0.04810573160648346, -0.17172984778881073, 0.21260394155979156, 0.16357918083667755, 0.2147064357995987, -0.184013232588768, 0.13839955627918243, -0.09635307639837265, 0.19951309263706207, -0.055936336517333984, 0.21592389047145844, -0.04472975432872772, 0.058117106556892395, 0.131703183054924, 0.020676732063293457, -0.07283605635166168, -0.06842385232448578, 0.07500247657299042, 0.024363785982131958, 0.04949371516704559, -0.20301586389541626, -0.16621476411819458, -0.061457544565200806, 0.047585561871528625, 0.016645163297653198, 0.10408268868923187, 0.16208229959011078, 0.09990264475345612, 0.0070472657680511475, -0.07466776669025421, 0.07630421221256256, 0.20349501073360443, -0.09656040370464325, -0.12481200695037842, -0.07372938096523285, -0.13176418840885162, 0.09504233300685883, -0.1914656162261963, 0.1868457943201065, 0.06856726109981537, 0.10796503722667694, 0.20385803282260895, 0.03329603374004364, -0.07061584293842316, 0.10717876255512238, 0.007617175579071045, 0.2123667448759079, 0.15309397876262665, -0.12487420439720154, -0.17888808250427246, 0.06774802505970001, -0.20000429451465607, -0.12653350830078125, -0.11173080652952194, -0.18224690854549408, -0.02139316499233246, 0.2088756412267685, -0.15385660529136658, -0.1293913871049881, -0.05033296346664429, 0.1608910709619522, 0.09850506484508514, -0.12270435690879822, 0.15049348771572113, 0.01791936159133911, 0.08461157977581024, -0.14059185981750488, 0.09920035302639008, -0.1366840898990631, -0.051941126585006714, -0.0483546257019043, -0.005913496017456055, 0.05417163670063019, 0.0347893089056015, 0.1824067085981369, 0.11140666902065277, 0.03970561921596527, 0.17640696465969086, -0.14827895164489746, -0.19570328295230865, -0.19131290912628174, -0.0883847177028656, 0.04467470943927765, 0.014588430523872375, 0.17979486286640167, 0.08013440668582916, 0.16119252145290375, 0.16399674117565155, 0.19916357100009918, 0.00952136516571045, 0.21608169376850128, -0.023543372750282288, 0.05906255543231964, 0.08546556532382965, 0.010389626026153564, 0.007524251937866211, 0.10831858217716217, -0.05448523163795471, -0.16871732473373413, 0.0972876101732254, -0.03689028322696686, -0.028158530592918396, 0.022911161184310913, -0.10761725157499313, -0.20907999575138092, -0.033978626132011414, 0.08330489695072174, 0.05980132520198822, 0.12109334766864777, 0.02663329243659973, -0.15846091508865356, -0.019663572311401367, 0.03347645699977875, -0.1407548189163208]}, "bias": {"shape": [11], "values": [-0.16672231256961823, -0.18847472965717316, 0.03152346611022949, 0.04439719021320343, -0.20754247903823853, -0.009605646133422852, 0.0693778544664383, -0.20411038398742676, -0.09023706614971161, 0.06364716589450836, -0.19322340190410614]}}