{"weight": {"shape": [11, 7, 3], "values": [-0.040761545300483704, -0.10013576596975327, 0.07032366096973419, 0.10809622704982758, 0.12003155052661896, 0.1172410100698471, 0.05231370031833649, -0.01059645414352417, 0.05490089952945709, -0.1473933458328247, 0.18982727825641632, 0.13801522552967072, 0.19601990282535553, 0.1756412833929062, 0.05011461675167084, 0.13513819873332977, -0.01904115080833435, 0.15444184839725494, 0.14986370503902435, -0.006817951798439026, 0.07341258227825165, -0.1918405145406723, -0.20736485719680786, -0.18528974056243896, -0.034139856696128845, -0.18104830384254456, 0.06305079162120819, 0.1813257485628128, 0.1351502388715744, 0.12965096533298492, -0.048264339566230774, 0.0048675090074539185, 0.08738406002521515, 0.025105416774749756, -0.048727139830589294, 0.12828584015369415, -0.04894021153450012, 0.13439996540546417, -0.15270653367042542, 0.01945057511329651, 0.017553120851516724, 0.10234133899211884, 0.16964279115200043, 0.08083795011043549, 0.14788566529750824, -0.20305173099040985, -0.1164993867278099, -0.09312601387500763, -0.1770506650209427, -0.1405058205127716, -0.127356618642807, 0.1272379606962204, -0.033034443855285645, 0.00913935899734497, 0.1435200721025467, 0.09500618278980255, 0.10998792946338654, 0.08618851006031036, 0.06489323079586029, -0.006950840353965759, -0.03747175633907318, -0.16566704213619232, 0.14586253464221954, -0.12789657711982727, 0.20389486849308014, -0.2037351131439209, 0.08403895795345306, 0.14175520837306976, -0.014782905578613281, -0.21287918090820312, -0.19369061291217804, 0.09520648419857025, 0.06316430866718292, 0.21793024241924286, 0.180599644780159, -0.17185507714748383, 0.03829897940158844, -0.166753888130188, 0.1092054694890976, -0.1803426593542099, -0.06038568913936615, 0.19026266038417816, -0.2065529227256775, 0.09764276444911957, 0.102048859000206, -0.1779964417219162, 0.07205276191234589, 0.18240199983119965, 0.15649758279323578, -0.17998646199703217, -0.15849930047988892, 0.09215693175792694, 0.007871240377426147, -0.11770324409008026, 0.05147700011730194, -0.03158947825431824, -0.14864347875118256, -0.08956769108772278, 0.0638979822397232, -0.05980740487575531, -0.21185873448848724, 0.173487588763237, 0.17378999292850494, 0.09419180452823639, -0.08563026785850525, -0.05175298452377319, 0.12777777016162872, 0.20276884734630585, 0.10367380082607269, 0.03240235149860382, 0.21507041156291962, 0.1379283219575882, 0.20001338422298431, -0.21673862636089325, -0.18517565727233887, 0.025735199451446533, -0.05875265598297119, -0.0798216164112091, -0.1094641387462616, 0.18638522922992706, 0.09755359590053558, -0.10868796706199646, 0.18604765832424164, 0.12935487926006317, -0.004579514265060425, -0.18308450281620026, -0.07918316125869751, -0.10197466611862183, 0.2000923901796341, -0.1920344978570938, -0.040366291999816895, 0.11742590367794037, -0.03312017023563385, 0.18783129751682281, -0.052113622426986694, 0.011943385004997253, 0.008607923984527588, -0.08978934586048126, 0.16911347210407257, -0.055098652839660645, 0.14419178664684296, -0.09071384370326996, -0.09084618091583252, -0.11719392240047455, 0.13018952310085297, 0.20862828195095062, 0.06305600702762604, -0.10784177482128143, 0.029738694429397583, 0.21677108108997345, 0.002779528498649597, -0.1721334159374237, -0.1610596626996994, -0.19051046669483185, 0.07260535657405853, 0.04616577923297882, 0.21751151978969574, -0.1171412467956543, -0.18548740446567535, -0.1038951426744461, -0.12988930940628052, -0.0712369978427887, 0.09949271380901337, 0.02805335819721222, -0.0313696414232254, -0.18879590928554535, 0.215280219912529, -0.16884587705135345, -0.07618023455142975, 0.006852269172668457, -0.13205894827842712, -0.015966370701789856, 0.08254025876522064, -0.00843779742717743, 0.025805875658988953, 0.1929675191640854, -0.1933138072490692, 0.03970269858837128, -0.11136744916439056, 0.12163294851779938, -0.2159431278705597, 0.009859278798103333, -0.08817541599273682, 0.009938880801200867, 0.05003760755062103, 0.18746648728847504, 0.12292595207691193, 0.024267226457595825, 0.10927487909793854, -0.011357977986335754, -0.15822774171829224, 0.18256498873233795, -0.04647350311279297, 0.08568225800991058, -0.14627933502197266, 0.18389113247394562, -0.09820922464132309, 0.013103678822517395, 0.11786575615406036, -0.158034086227417, 0.1834552139043808, -0.14129765331745148, 0.0033927708864212036, 0.0651913434267044, -0.09868909418582916, 0.055846527218818665, 0.09502975642681122, -0.05592252314090729, 0.168682262301445, -0.16955794394016266, 0.17702586948871613, -0.12641330063343048, -0.2081545889377594, 0.1574154645204544, -0.16721723973751068, 0.14953406155109406, 0.19722063839435577, -0.1855495274066925, 0.038509443402290344, 0.20255644619464874, -0.18745455145835876, 0.20777131617069244, 0.06285189092159271, -0.18178917467594147, -0.050649493932724, 0.03924460709095001, 0.13799719512462616, -0.12516745924949646, 0.04399572312831879, -0.0012058019638061523, -0.19798222184181213]}, "bias": {"shape": [11], "values": [-0.04655952751636505, 0.1944204717874527, -0.01033298671245575, 0.06478951871395111, 0.032822415232658386, 0.17067591845989227, -0.01155632734298706, -0.11000355333089828, 0.03376327455043793, -0.14583539962768555, -0.06908681988716125]}}