{"weight": {"shape": [11, 7, 3], "values": [-0.06583467125892639, -0.0985589250922203, -0.2066599726676941, -0.1837862879037857, 0.17681382596492767, 0.11733768880367279, 0.0171053409576416, -0.18776382505893707, -0.13996195793151855, -0.03884059190750122, 0.1939123123884201, -0.16246142983436584, 0.027364149689674377, -0.06220078468322754, -0.10098143666982651, 0.2100890725851059, -0.1392137110233307, 0.20293362438678741, -0.17006903886795044, 0.15501375496387482, 0.16037236154079437, 0.16557706892490387, 0.1606442779302597, -0.17103809118270874, -0.19028888642787933, 0.10028882324695587, -0.06620271503925323, 0.197894886136055, 0.12141565978527069, 0.141397163271904, -0.11139780282974243, 0.08943970501422882, -0.1401991844177246, 0.09068982303142548, -0.15128391981124878, -0.006373152136802673, -0.020146384835243225, -0.21562696993350983, 0.10679100453853607, 0.08320938050746918, -0.1843043863773346, -0.03961998224258423, 0.12519781291484833, 0.17315040528774261, 0.061676785349845886, -0.20876285433769226, -0.2113918513059616, -0.15910474956035614, 0.1573609858751297, 0.20831365883350372, 0.10999061167240143, 0.021287888288497925, 0.01357993483543396, -0.06715179979801178, -0.07763132452964783, -0.08742669224739075, -0.14665573835372925, 0.08413146436214447, -0.048535317182540894, 0.030161917209625244, -0.12183896452188492, 0.1384103149175644, -0.12332277745008469, 0.014362037181854248, -0.12972837686538696, 0.16539819538593292, 0.15223650634288788, 0.02930067479610443, -0.04250746965408325, -0.19679413735866547, -0.13775932788848877, -0.20487146079540253, 0.019040167331695557, -0.08943040668964386, -0.09357386082410812, -0.1540985405445099, -0.14408355951309204, -0.1681138575077057, -0.04413105547428131, 0.046409353613853455, -0.11608769744634628, -0.12867701053619385, 0.04147134721279144, 0.17254383862018585, -0.01068878173828125, 0.005038529634475708, 0.02775856852531433, -0.060349881649017334, -0.02417430281639099, 0.020864933729171753, 0.17825700342655182, 0.028978466987609863, 0.049617573618888855, -0.09365648031234741, 0.1961265653371811, -0.05084295570850372, 0.17471401393413544, 0.08488605916500092, 0.21665124595165253, 0.05958838760852814, 0.11929060518741608, -0.07314205169677734, -0.05284568667411804, -0.12296123802661896, 0.03638686239719391, -0.08667723834514618, -0.006146907806396484, -0.18799611926078796, 0.07751788198947906, -0.07912954688072205, 0.07893721759319305, -0.09820201992988586, -0.2137519121170044, 0.0028458833694458008, 0.1713504046201706, 0.20656324923038483, -0.18002015352249146, -0.1977614462375641, -0.07555884122848511, -0.04178442060947418, -0.18651741743087769, -0.0861617773771286, 0.15025268495082855, 0.06520773470401764, -0.0227520614862442, -0.07997757196426392, -0.20922957360744476, -0.08260785043239594, 0.049182191491127014, 0.04680584371089935, -0.17995472252368927, 0.20309968292713165, -0.1319579780101776, 0.16437916457653046, 0.07705096900463104, -0.022869989275932312, -0.17872373759746552, 0.17974446713924408, -0.025771796703338623, -0.18155637383460999, 0.16769470274448395, -0.09342870116233826, -0.19340398907661438, -0.21573247015476227, -0.08825452625751495, -0.10861572623252869, -0.01718968152999878, 0.12725283205509186, -0.14146876335144043, 0.1410159319639206, 0.1957990974187851, -0.19401434063911438, -0.12436605244874954, -0.15590143203735352, 0.007570996880531311, -0.0490260124206543, 0.18878696858882904, 0.18729709088802338, 0.07072971761226654, 0.0069138407707214355, 0.06061913073062897, -0.15698468685150146, -0.2146148532629013, 0.19804929196834564, 0.07916025817394257, -0.11495961248874664, 0.19887228310108185, 0.15412507951259613, 0.12692086398601532, 0.21514616906642914, 0.07436923682689667, 0.024978548288345337, -0.10839713364839554, 0.09499125182628632, 0.205863818526268, 0.15576006472110748, -0.10191379487514496, -0.18407075107097626, -0.13787448406219482, -0.18221314251422882, -0.10734377056360245, 0.06316237151622772, -0.13900119066238403, 0.17342858016490936, -0.07052630186080933, 0.1614038199186325, -0.2158930003643036, 0.062337443232536316, 0.11897523701190948, -0.08821570873260498, 0.06815792620182037, -0.06126575171947479, 0.21425311267375946, 0.07455189526081085, -0.03341805934906006, -0.08437703549861908, 0.13639457523822784, 0.1355324238538742, -0.1538492739200592, -0.05077095329761505, -0.10240864753723145, 0.07472725212574005, -0.18972283601760864, -0.05125062167644501, -0.16829264163970947, -0.07464829087257385, -0.08682827651500702, 0.13145942986011505, -0.12887051701545715, 0.21231667697429657, -0.024166792631149292, 0.12817268073558807, -0.10330970585346222, -0.10124417394399643, -0.15659859776496887, 0.037184491753578186, 0.17963655292987823, 0.0308447927236557, -0.07060514390468597, 0.1863502413034439, 0.03794269263744354, 0.08539040386676788, -0.01019313931465149, 0.2162487953901291, 0.11457501351833344, -0.10811756551265717, 0.0382208377122879, 0.04065917432308197, 0.1959705501794815, -0.08672507107257843, 0.18149103224277496]}, "bias": {"shape": [11], "values": [0.16015084087848663, 0.07682569324970245, -0.0757816731929779, 0.010508134961128235, 0.09458605945110321, -0.16111239790916443, -0.0788288563489914, -0.03183203935623169, 0.043917134404182434, 0.1615154892206192, -0.16874325275421143]}}