{"weight": {"shape": [11, 7, 3], "values": [-0.17293092608451843, -0.06513816118240356, -0.19514445960521698, -0.14104554057121277, 0.0689723938703537, 0.018223285675048828, -0.21177974343299866, 0.17183978855609894, 0.037020549178123474, 0.0679590255022049, 0.16147540509700775, 0.007739543914794922, 0.16354940831661224, 0.1187259703874588, -0.10958881676197052, -0.18244346976280212, -0.17828693985939026, 0.09003879129886627, -0.16201280057430267, -0.00822843611240387, -0.16227933764457703, 0.06811787188053131, 0.06611572206020355, -0.19700299203395844, -0.0823439210653305, -0.19552865624427795, -0.19929814338684082, 0.16253603994846344, 0.06464092433452606, -0.15209746360778809, -0.036501601338386536, 0.21807588636875153, -0.012696713209152222, -0.08369626104831696, 0.07248161733150482, 0.015530616044998169, -0.09582091122865677, 0.051945462822914124, -0.05450114607810974, 0.10005016624927521, 0.06646104156970978, 0.17723898589611053, -0.20206035673618317, -0.12635989487171173, 0.01232735812664032, 0.056659117341041565, 0.08705984055995941, 0.14486046135425568, -0.19048242270946503, 0.1076604574918747, 0.04624621570110321, 0.2052355259656906, -0.1806325912475586, 0.12817971408367157, -0.024839401245117188, -0.1955614537000656, -0.021961793303489685, -0.16815820336341858, 0.05006982386112213, 0.02584107220172882, 0.06505163013935089, 0.043650612235069275, -0.051014721393585205, 0.10166771709918976, -0.06450803577899933, -0.15721724927425385, -0.16410328447818756, 0.1663905531167984, -0.051637545228004456, -0.09970128536224365, -0.018847301602363586, 0.14717139303684235, -0.121361143887043, -0.004845708608627319, -0.19092389941215515, 0.16480652987957, 0.19687657058238983, 0.014817014336585999, -0.10590321570634842, -0.07170799374580383, -0.20951631665229797, 0.21674315631389618, 0.02078169584274292, 0.0126618891954422, -0.02212277054786682, 0.05063988268375397, 0.04008279740810394, 0.006262093782424927, 0.17422841489315033, -0.09980934858322144, 0.0457964688539505, 0.11854676902294159, -0.14174270629882812, 0.13195960223674774, 0.21206842362880707, 0.07405067980289459, -0.06301450729370117, -0.053916752338409424, 0.21691937744617462, 0.0424601286649704, 0.12483228743076324, -0.024785473942756653, -0.10459982603788376, -0.047672465443611145, 0.18548153340816498, 0.14776404201984406, -0.17130228877067566, 0.134011909365654, 0.019008442759513855, -0.18474966287612915, -0.07973912358283997, -0.10970130562782288, -0.020890071988105774, 0.11789815127849579, 0.09087242186069489, -0.19445601105690002, -0.04977951943874359, 0.16289405524730682, 0.02235621213912964, 0.058397725224494934, 0.08431325852870941, 0.015293598175048828, 0.09409593045711517, 0.041410401463508606, 0.024120688438415527, 0.16262970864772797, 0.1423751264810562, -0.11286255717277527, 0.07125245034694672, 0.21243338286876678, -0.21755965054035187, -0.1508570909500122, 0.19440264999866486, 0.1481691151857376, 0.02718132734298706, -0.12068913877010345, -0.19108466804027557, -0.12729927897453308, -0.0985586866736412, 0.02796940505504608, -0.0944044217467308, -0.08192086219787598, -0.17498505115509033, -0.10242106020450592, 0.13484226167201996, 0.20120613276958466, 0.09669168293476105, 0.13327310979366302, -0.08605855703353882, -0.020811185240745544, -0.11964169889688492, -0.13114121556282043, 0.1565827876329422, -0.061083316802978516, 0.09173597395420074, -0.06897193193435669, -0.021581143140792847, -0.012427195906639099, -0.0062675029039382935, -0.2038397341966629, 0.12250913679599762, -0.07497057318687439, 0.06350578367710114, -0.1975216567516327, -0.032281577587127686, -0.1401987075805664, -0.05628581345081329, -0.09577304869890213, -0.2072249948978424, -0.2042795717716217, 0.09145204722881317, 0.038314953446388245, -0.18114614486694336, 0.02208910882472992, 0.12333162128925323, 0.13291682302951813, -0.045077309012413025, 0.06707845628261566, -0.1131996363401413, 0.09175322949886322, 0.03527040779590607, -0.018435239791870117, 0.2127389758825302, -0.11466612666845322, -0.19704113900661469, -0.0685233324766159, 0.1519748419523239, -0.06988106667995453, -0.14593791961669922, -0.1165238618850708, -0.165614515542984, -0.19357508420944214, -0.1875951588153839, 0.16967715322971344, 0.01232852041721344, 0.17855598032474518, 0.11221577227115631, -0.14797230064868927, -0.008816763758659363, 0.18356145918369293, -0.17393817007541656, -0.16724473237991333, 0.1477833241224289, 0.18824099004268646, 0.13776911795139313, 0.13098768889904022, -0.20751024782657623, -0.18515706062316895, 0.20250432193279266, -0.005477607250213623, -0.11710917204618454, -0.18608342111110687, -0.05723540484905243, 0.01019027829170227, 0.02584947645664215, -0.18284925818443298, 0.02901463210582733, -0.05003444850444794, 0.1498265415430069, -0.17249293625354767, 0.19020308554172516, 0.0032849907875061035, -0.162014439702034, 0.0006507635116577148, 0.10157330334186554, -0.07216233015060425, 0.05120699107646942, -0.0609208345413208, 0.16789333522319794, 0.1575799435377121, -0.16025494039058685]}, "bias": {"shape": [11], "values": [-0.048335716128349304, 0.025228098034858704, -0.020093291997909546, 0.11877579987049103, 0.112256720662117, -0.06471012532711029, -0.1956596076488495, 0.1938498169183731, 0.0786239355802536, -0.1168208122253418, -0.13628852367401123]}}