{"weight": {"shape": [11, 7, 3], "values": [0.00119742751121521, 0.0688597708940506, -0.110196553170681, -0.016650423407554626, 0.02611154317855835, 0.19220508635044098, 0.07602305710315704, 0.202201709151268, 0.12397812306880951, 0.20116136968135834, 0.07502324879169464, 0.061321064829826355, -0.14504793286323547, 0.207338348031044, 0.13611765205860138, -0.004807338118553162, -0.09165923297405243, 0.13638602197170258, -0.17754197120666504, -0.0821424126625061, -0.21129705011844635, 0.027897372841835022, 0.1481889933347702, 0.11364947259426117, 0.0825333446264267, -0.036639317870140076, -0.055830568075180054, -0.19975945353507996, -0.12430635094642639, -0.19962860643863678, 0.21691222488880157, 0.049380019307136536, 0.0628427118062973, -0.1502404510974884, 0.005467310547828674, 0.13927052915096283, -0.17716622352600098, -0.09507408738136292, -0.02705921232700348, -0.10409266501665115, -0.05789877474308014, 0.08568958938121796, -0.16150636970996857, 0.21521522104740143, -0.09824238717556, 0.20635317265987396, 0.017271235585212708, 0.04808469116687775, -0.10219788551330566, -0.16581329703330994, 0.21596141159534454, 0.15770988166332245, -0.1771424412727356, -0.1953159123659134, 0.08728833496570587, -0.021756455302238464, -0.05260223150253296, -0.018980905413627625, -0.07991015911102295, 0.12326391041278839, 0.10037736594676971, -0.10869491845369339, 0.14790277183055878, -0.03723670542240143, -0.18045663833618164, -0.15166035294532776, 0.19999830424785614, 0.03750823438167572, 0.057576313614845276, 0.050433799624443054, 0.1263321489095688, 0.175644651055336, -0.006240770220756531, -0.16998745501041412, 0.0003173649311065674, -0.17535078525543213, 0.09028942883014679, -0.019072681665420532, -0.007102310657501221, 0.12912409007549286, 0.09565778076648712, 0.0051443129777908325, -0.15237346291542053, 0.15561173856258392, -0.022675171494483948, -0.059234872460365295, -0.19105829298496246, 0.07646293938159943, -0.1251572072505951, 0.12482176721096039, -0.04107242822647095, 0.15549974143505096, -0.12471780925989151, 0.1386912316083908, -0.12015281617641449, -0.17672164738178253, -0.153316929936409, -0.026554346084594727, 0.07502017915248871, 0.08674387633800507, -0.16499663889408112, -0.06052602827548981, 0.19964896142482758, 0.19576837122440338, 0.12493126094341278, -0.11168242245912552, -0.15701359510421753, 0.14933107793331146, -0.15978094935417175, 0.13338349759578705, 0.0034651905298233032, 0.09656278789043427, 0.028462335467338562, -0.06936432421207428, -0.11627252399921417, -0.01315966248512268, 0.06354860961437225, -0.17834541201591492, 0.006816506385803223, 0.008754357695579529, 0.1668744832277298, 0.1156444400548935, -0.05922885239124298, 0.15344025194644928, -0.20110614597797394, -0.11861260235309601, -0.08810114860534668, -0.029921680688858032, 0.1340501755475998, -0.20781110227108002, 0.06497122347354889, 0.05885465443134308, -0.023498475551605225, 0.10147537291049957, -0.14658290147781372, -0.014530152082443237, 0.16409336030483246, 0.004847660660743713, -0.11228387802839279, -0.011361777782440186, 0.034164413809776306, -0.03572770953178406, -0.07471698522567749, 0.12222571671009064, 0.2095077484846115, 0.030793026089668274, 0.20851652324199677, 0.08336623013019562, 0.08221672475337982, 0.11598829925060272, 0.02356618642807007, -0.14463819563388824, 0.17320652306079865, 0.10565514862537384, -0.16471000015735626, -0.06798435747623444, -0.1159537211060524, -0.048143208026885986, -0.013907447457313538, -0.18171410262584686, 0.13757576048374176, 0.13233955204486847, -0.16860584914684296, 0.17998768389225006, -0.2098936140537262, 0.1841326206922531, 0.05624787509441376, 0.07068978250026703, -0.08887527883052826, -0.21397607028484344, -0.13003574311733246, 0.11479251086711884, 0.11791704595088959, 0.11011682450771332, -0.08533993363380432, -0.12214696407318115, 0.17546863853931427, 0.06478260457515717, 0.12131495773792267, -0.12441464513540268, -0.14989814162254333, -0.1011599451303482, 0.17348189651966095, 0.21417875587940216, 0.04867391288280487, 0.012203454971313477, 0.059353575110435486, -0.026694118976593018, -0.04736410081386566, -0.13070040941238403, 0.10657624900341034, 0.21079014241695404, -0.061706021428108215, -0.19436176121234894, 0.18527807295322418, -0.08839301764965057, 0.12220422923564911, -0.010885059833526611, 0.025477543473243713, -0.12390514463186264, -0.15666107833385468, -0.06394349038600922, 0.1829901784658432, -0.0011020898818969727, 0.07876445353031158, -0.17713339626789093, -0.1451912522315979, 0.16223566234111786, 0.16950254142284393, 0.0014249980449676514, 0.20679675042629242, -0.08442763984203339, 0.025542885065078735, -0.21191076934337616, -0.11286502331495285, -0.14254674315452576, -0.2170185148715973, -0.16878099739551544, -0.06253014504909515, -0.06231755018234253, 0.18957607448101044, 0.11856310069561005, -0.19044680893421173, 0.14658592641353607, 0.16564281284809113, 0.028977125883102417, -0.02386990189552307, -0.03786349296569824, 0.08889873325824738, 0.06033910810947418, 0.09653528034687042]}, "bias": {"shape": [11], "values": [-0.1027803048491478, -0.07846318185329437, -0.17236116528511047, 0.09456498920917511, 0.040561601519584656, -0.036881253123283386, -0.18839964270591736, -0.19959990680217743, 0.0557047575712204, -0.07273797690868378, -0.08803403377532959]}}