{"weight": {"shape": [11, 7, 3], "values": [-0.18218889832496643, -0.17119917273521423, 0.02304401993751526, -0.06483221054077148, -0.2026977390050888, -0.0747772604227066, -0.061425596475601196, 0.19214458763599396, -0.19938111305236816, 0.13907809555530548, -0.014370515942573547, -0.06890299916267395, -0.034949108958244324, 0.20322559773921967, -0.06648862361907959, 0.006656438112258911, -0.05606570839881897, -0.1587199568748474, -0.03987953066825867, -0.10218743234872818, 0.02498757839202881, 0.022877871990203857, -0.15067845582962036, 0.06252197921276093, 0.024262025952339172, 0.08257828652858734, 0.21675877273082733, 0.07950879633426666, 0.05938832461833954, -0.018020689487457275, 0.1423407346010208, -0.06515702605247498, 0.08289210498332977, -0.14740517735481262, -0.08028978109359741, 0.0771578997373581, -0.010098397731781006, 0.06017272174358368, 0.21717394888401031, -0.10967552661895752, 0.1998496800661087, 0.12359796464443207, 0.09348990023136139, 0.05069078505039215, -0.02917003631591797, 0.0834178775548935, -0.20662163197994232, 0.12375633418560028, -0.1003037840127945, 0.11117495596408844, -0.133787140250206, 0.2076992243528366, 0.05663926899433136, -0.042732253670692444, -0.16837364435195923, 0.08657537400722504, 0.1663699895143509, -0.00793534517288208, -0.1176857128739357, 0.17385978996753693, 0.10722880065441132, -0.1209523156285286, -0.09167985618114471, -0.21750761568546295, 0.09592665731906891, 0.19902561604976654, -0.18094152212142944, 0.0889912098646164, -0.10283456742763519, -0.026329711079597473, 0.005585461854934692, -0.21590527892112732, -0.21454288065433502, 0.019354119896888733, -0.16205492615699768, -0.16348230838775635, -0.09143856167793274, -0.011307254433631897, -0.026534751057624817, -0.022906795144081116, 0.18326543271541595, -0.08482213318347931, 0.10306386649608612, 0.16227470338344574, 0.09300638735294342, -0.025584816932678223, -0.05957762897014618, 0.1443927139043808, 0.18024380505084991, 0.09482099115848541, 0.13582296669483185, -0.0002100914716720581, -0.09092442691326141, 0.10882364213466644, 0.003780767321586609, 0.13313578069210052, -0.10968481004238129, -0.2017531394958496, -0.0008903741836547852, 0.06766806542873383, 0.00031247735023498535, -0.16269053518772125, 0.04763700067996979, 0.12629319727420807, 0.04933856427669525, -0.07703742384910583, -0.19167236983776093, -0.038296058773994446, -0.04903152585029602, 0.09343664348125458, -0.032914698123931885, -0.18517859280109406, -0.06303675472736359, -0.1479608416557312, -0.14275766909122467, -0.12783586978912354, 0.1821400374174118, -0.02660098671913147, 0.1864348202943802, -0.048929497599601746, -0.17421486973762512, 0.15037913620471954, 0.18530230224132538, -0.08540067076683044, 0.12291096150875092, -0.14092649519443512, -0.20880183577537537, 0.19690580666065216, 0.1280508190393448, 0.17789678275585175, 0.15891052782535553, -0.15114793181419373, 0.11258096992969513, 0.21708039939403534, -0.09558785706758499, 0.21723295748233795, -0.02064681053161621, 0.16936959326267242, 0.14180494844913483, 0.14565707743167877, 0.0077948421239852905, -0.09617219865322113, -0.05898742377758026, -0.151553213596344, 0.18427707254886627, 0.02387036383152008, -0.14849385619163513, 0.07216538488864899, -0.021273821592330933, 0.20112089812755585, -0.1852022409439087, 0.045755162835121155, 0.13896407186985016, -0.12404083460569382, 0.0156419575214386, 0.006203770637512207, -0.1451740562915802, 0.023323088884353638, -0.05102396011352539, -0.14687934517860413, -0.118734210729599, -0.10298490524291992, 0.16481952369213104, 0.010707035660743713, 0.04150201380252838, 0.08553777635097504, 0.1816866546869278, -0.1484294831752777, 0.08860410749912262, -0.07154275476932526, 0.024684205651283264, -0.10032124072313309, -0.20764750242233276, 0.061972811818122864, 0.029421716928482056, -0.04208946228027344, 0.01886831223964691, 0.16353677213191986, -0.19483749568462372, -0.06929749250411987, 0.1859620362520218, -0.07944048941135406, -0.13119041919708252, 0.10084493458271027, 0.16159607470035553, 0.135322704911232, -0.12902386486530304, 0.006935566663742065, -0.01647670567035675, 0.19109638035297394, -0.1791105568408966, -0.07152380049228668, -0.08690227568149567, 0.09618280827999115, 0.10647304356098175, 0.09808127582073212, 0.1636153906583786, 0.21405263245105743, -0.04901079833507538, 0.03967876732349396, -0.0075104087591171265, -0.17612597346305847, -0.0338381826877594, 0.021654784679412842, -0.05586826801300049, 0.035170868039131165, -0.19537043571472168, -0.025733977556228638, 0.010608628392219543, -0.07667167484760284, -0.09380358457565308, 0.0190570205450058, -0.16874679923057556, 0.15629585087299347, -0.1555718630552292, 0.058029428124427795, 0.09169112145900726, -0.059579864144325256, -0.16600748896598816, 0.09781600534915924, 0.16082344949245453, 0.01223476231098175, 0.01533384621143341, -0.14091897010803223, 0.21142487227916718, -0.015216991305351257, -0.15139877796173096, 0.14686445891857147, -0.01689934730529785, -0.19677606225013733, 0.02270360291004181]}, "bias": {"shape": [11], "values": [-0.029614344239234924, 0.10146592557430267, 0.14746953547000885, 0.08486314117908478, -0.18238595128059387, -0.1559407114982605, 0.21813403069972992, 0.10938070714473724, -0.18735335767269135, 0.05724085867404938, 0.0035103559494018555]}}