{"weight": {"shape": [11, 7, 3], "values": [0.12439243495464325, 0.15331430733203888, 0.200434610247612, -0.03457564115524292, 0.11802898347377777, -0.08727698028087616, -0.16183391213417053, 0.07756654918193817, -0.02040831744670868, 0.08488894999027252, -0.009299322962760925, 0.03883601725101471, 0.05114226043224335, -0.048291176557540894, -0.12276455014944077, 0.04762427508831024, -0.01970691978931427, 0.05765865743160248, -0.09979262202978134, 0.05399449169635773, 0.017291218042373657, 0.004865378141403198, 0.09054790437221527, 0.17038269340991974, -0.13473978638648987, 0.10814021527767181, 0.11916522681713104, 0.21548660099506378, 0.181305930018425, -0.08706231415271759, 0.04962770640850067, -0.17804616689682007, -0.13598939776420593, 0.06429193913936615, 0.042194053530693054, -0.08276824653148651, -0.12017929553985596, 0.1851087063550949, 0.06773187220096588, 0.2025899440050125, -0.19133314490318298, 0.11573772132396698, -0.12051265686750412, 0.07015593349933624, -0.2072082906961441, -0.10771290212869644, 0.13956640660762787, 0.07613049447536469, 0.08887748420238495, 0.05150596797466278, 0.12399421632289886, -0.17704838514328003, 0.15837033092975616, -0.1890476942062378, 0.11418785154819489, -0.010134503245353699, -0.01883949339389801, 0.06799052655696869, -0.14168980717658997, 0.18018074333667755, -0.18809042870998383, 0.19383077323436737, 0.04314671456813812, -0.1342133730649948, 0.02011527121067047, 0.13159652054309845, 0.06864456832408905, -0.04335808753967285, 0.06508226692676544, 0.13676680624485016, 0.05752651393413544, 0.21324296295642853, -0.06860600411891937, 0.20255805552005768, 0.025784626603126526, -0.03235776722431183, 0.053646668791770935, -0.01546412706375122, 0.009611815214157104, -0.09266102313995361, 0.10190294682979584, -0.1111927404999733, -0.1852770298719406, -0.1723916083574295, 0.15852250158786774, 0.20035238564014435, 0.017967641353607178, -0.14282049238681793, -0.0703912079334259, -0.09355143457651138, -0.04071448743343353, -0.14106369018554688, -0.16245779395103455, -0.15686939656734467, -0.048155277967453, -0.09251905977725983, 0.06663300096988678, 0.1872570663690567, 0.11060263216495514, -0.13573844730854034, 0.1279098242521286, -0.16954074800014496, -0.04393315315246582, -0.21608532965183258, 0.014450758695602417, -0.0654575526714325, -0.1997932493686676, -0.16624487936496735, 0.14173762500286102, -0.14359793066978455, 0.11378787457942963, 0.17255638539791107, -0.05981208384037018, 0.070833221077919, 0.11848314106464386, 0.0929684191942215, -0.030551910400390625, 0.0003535449504852295, 0.06714417040348053, 0.11562378704547882, -0.09702204167842865, 0.01133708655834198, 0.19113226234912872, 0.005603700876235962, 0.20063869655132294, 0.11033423244953156, 0.21403013169765472, -0.09973999112844467, -0.04661174118518829, 0.06056638062000275, 0.18619777262210846, -0.07521726191043854, 0.17743732035160065, -0.10799077898263931, 0.15821634232997894, -0.07514607906341553, 0.06363315880298615, 0.0375487357378006, -0.2156006097793579, -0.17003513872623444, 0.08737428486347198, -0.027809813618659973, 0.07723383605480194, 0.16427387297153473, -0.15193690359592438, 0.17293678224086761, 0.13907770812511444, 0.13915903866291046, 0.028313040733337402, 0.12961097061634064, 0.21558551490306854, 0.21347783505916595, 0.137497678399086, -0.024108469486236572, -0.13762934505939484, -0.061965152621269226, -0.2124277949333191, 0.20676641166210175, 0.06103648245334625, -0.19966155290603638, 0.01263071596622467, -0.2116931825876236, -0.13024300336837769, -0.2133234292268753, 0.1269918531179428, 0.014395087957382202, 0.1292717605829239, 0.15373559296131134, 0.0022955238819122314, 0.18275965750217438, -0.02126297354698181, 0.1802302747964859, -0.1706049144268036, -0.15396833419799805, 0.12105055153369904, -0.058937057852745056, 0.20122896134853363, -0.14335677027702332, 0.0386747270822525, 0.04921407997608185, -0.1863478720188141, 0.08075220882892609, -0.13559946417808533, 0.13688616454601288, 0.03864206373691559, -0.0665695071220398, 0.017323672771453857, 0.07760216295719147, 0.040876999497413635, -0.026165857911109924, -0.14094683527946472, -0.007374495267868042, -0.06019282341003418, -0.10306712985038757, -0.15399198234081268, -0.1341860294342041, 0.19098423421382904, -0.18833313882350922, -0.15582647919654846, -0.08683061599731445, -0.07488644123077393, 0.12445493042469025, -0.18291190266609192, 0.15858446061611176, 0.09917797148227692, -0.1946369856595993, 0.17935197055339813, -0.09018348157405853, 0.07682241499423981, 0.12229813635349274, -0.1181003674864769, -0.11199068278074265, -0.07855722308158875, -0.13030225038528442, -0.10849463939666748, 0.12100358307361603, 0.009922027587890625, -0.1103096604347229, -0.028738051652908325, 0.16751183569431305, 0.013658836483955383, 0.07428310811519623, 0.060241058468818665, 0.08193613588809967, 0.19041602313518524, 0.2150173932313919, -0.15357819199562073, -0.07221531867980957, 0.06619976460933685, -0.18552616238594055, -0.09137290716171265]}, "bias": {"shape": [11], "values": [0.05653272569179535, 0.08740018308162689, 0.1941649168729782, 0.16017328202724457, 0.11427636444568634, -0.1288769394159317, -0.18906037509441376, -0.05182512104511261, -0.08374170958995819, -0.09898988902568817, -0.059519171714782715]}}