{"weight": {"shape": [11, 7, 3], "values": [-0.21116362512111664, -0.14804917573928833, -0.05915066599845886, 0.08702601492404938, 0.12300597131252289, 0.13585202395915985, 0.09568463265895844, 0.06220965087413788, 0.03554438054561615, -0.15125823020935059, -0.057782649993896484, 0.05974428355693817, -0.07157818973064423, -0.14322680234909058, 0.006458312273025513, 0.1965068131685257, -0.057087257504463196, -0.07756173610687256, 0.05290813744068146, -0.10783324390649796, -0.1601695567369461, 0.21411775052547455, -0.016399890184402466, -0.17728911340236664, 0.21137289702892303, -0.1312771439552307, -0.06328843533992767, -0.029101207852363586, 0.15236081182956696, -0.0766022801399231, -0.14200834929943085, -0.0915704220533371, -0.12659518420696259, 0.15446333587169647, -0.09519429504871368, -0.18362659215927124, -0.1295173168182373, -0.19880202412605286, -0.07338365912437439, -0.05499321222305298, -0.13486477732658386, 0.1118897944688797, -0.1505749374628067, -0.18239368498325348, 0.20196761190891266, -0.0936933159828186, -0.16264672577381134, 0.020550072193145752, 0.09373660385608673, 0.19158516824245453, -0.20833280682563782, -0.13480457663536072, 0.19357477128505707, -0.20231124758720398, 0.16711242496967316, -0.12133833020925522, 0.08357231318950653, 0.011793076992034912, 0.08419926464557648, -0.12564881145954132, 0.11311016976833344, 0.08339948952198029, -0.09920910745859146, 0.2106216996908188, -9.110569953918457e-05, 0.037696823477745056, 0.1580943614244461, 0.12929858267307281, 0.2064441293478012, 0.15074674785137177, 0.15438537299633026, 0.12021611630916595, -0.1506681740283966, 0.2153356820344925, -0.08212479948997498, 0.1954144388437271, 0.0844021588563919, 0.19239427149295807, -0.036148443818092346, 0.10204990208148956, 0.026102259755134583, -0.17874251306056976, -0.02192153036594391, 0.17550741136074066, -0.13435694575309753, -0.13574723899364471, 0.16177909076213837, -0.013988912105560303, -0.2149190604686737, -0.2056017369031906, -0.053621649742126465, 0.1661822348833084, -0.07421937584877014, -0.21310752630233765, 0.14764522016048431, 0.04708133637905121, -0.1285203993320465, 0.14707525074481964, -0.13576872646808624, -0.2154223918914795, -0.1766735464334488, -0.09447941929101944, 0.17554591596126556, -0.004000559449195862, -0.17376083135604858, -0.04009285569190979, -0.1658974140882492, -0.07162217795848846, -0.1860734522342682, -0.05652906000614166, -0.12070079147815704, 0.16918380558490753, 0.16551725566387177, 0.18854577839374542, -0.19047139585018158, -0.06538918614387512, -0.09211015701293945, -0.19198690354824066, 0.2150225192308426, -0.1885683238506317, 0.07608009874820709, 0.21575935184955597, 0.13215084373950958, -0.10697843134403229, -0.15976190567016602, 0.11584313213825226, -0.03550456464290619, -0.15333518385887146, 0.039790019392967224, 0.13906408846378326, -0.2119913101196289, -0.17911294102668762, -0.13277113437652588, -0.06621140241622925, 0.010073244571685791, -0.20470167696475983, 0.18837429583072662, -0.057818472385406494, 0.18409372866153717, -0.1890101581811905, -0.21422283351421356, -0.003881484270095825, 0.09108637273311615, -0.21202577650547028, 0.17164041101932526, -0.02495388686656952, 0.06783543527126312, -0.09541452676057816, 0.0428190678358078, 0.17159347236156464, -0.043923914432525635, -0.08397653698921204, -0.17381346225738525, -0.15563221275806427, 0.08541463315486908, 0.14125071465969086, 0.06983701884746552, 0.16113166511058807, -0.17553693056106567, 0.11822159588336945, -0.21387484669685364, -0.12270888686180115, -0.10866250097751617, 0.14886514842510223, 0.1796688586473465, -0.10328198224306107, 0.03894783556461334, 0.028645053505897522, -0.2112140655517578, -0.05445677042007446, -0.20953504741191864, 0.13413436710834503, -0.1709313690662384, -0.10114623606204987, 0.11833442747592926, -0.19815245270729065, 0.07343997061252594, 0.09629859030246735, 0.20254187285900116, 0.11992610991001129, 0.035782769322395325, 0.08144672214984894, -0.11046527326107025, 0.026248395442962646, 0.14431826770305634, 0.2052295058965683, -0.032370954751968384, -0.003010794520378113, 0.10042588412761688, -0.21566663682460785, -0.0871334969997406, 0.02937096357345581, -0.12940895557403564, -0.0048643797636032104, 0.03832109272480011, -0.04956121742725372, 0.1578034907579422, 0.05380047857761383, -0.03243090212345123, -0.2159433364868164, 0.1271088868379593, 0.0818275660276413, -0.1849033385515213, 0.09963743388652802, 0.010276079177856445, -0.20187130570411682, -0.1653919219970703, -0.01662825047969818, 0.13555200397968292, 0.15114916861057281, 0.09106020629405975, 0.1869211047887802, -0.01941359043121338, 0.16100744903087616, -0.2122546136379242, 0.09209810197353363, 0.20640556514263153, 0.21316643059253693, 0.14210553467273712, -0.1676660031080246, 0.040636882185935974, 0.20220069587230682, 0.004916936159133911, 0.10442723333835602, 0.07238920032978058, -0.143962100148201, 0.11331675946712494, -0.049785926938056946, -0.1661529242992401, 0.1437787264585495, 0.1038525253534317]}, "bias": {"shape": [11], "values": [0.029302343726158142, -0.019997745752334595, 0.008214548230171204, -0.08463440835475922, -0.21675239503383636, 0.21160544455051422, -0.014735713601112366, -0.21011000871658325, 0.1477593034505844, 0.1664942055940628, -0.18867000937461853]}}