{"weight": {"shape": [11, 7, 3], "values": [-0.11414104700088501, 0.055049166083335876, 0.01583653688430786, 0.1609179824590683, -0.017355158925056458, 0.07259686291217804, -0.2132715880870819, -0.03323414921760559, 0.01638258993625641, 0.17858023941516876, 0.13237188756465912, -0.20555850863456726, 0.11870341002941132, 0.11917062103748322, -0.16694878041744232, -0.1840868592262268, -0.20761191844940186, 0.10258801281452179, 0.13839097321033478, 0.18712367117404938, 0.18024466931819916, 0.2130195051431656, 0.2149808257818222, -0.009989410638809204, 0.0833701640367508, 0.15945975482463837, -0.15392684936523438, -0.08075118064880371, 0.006377309560775757, 0.033718541264534, -0.0574578195810318, -0.018741920590400696, 0.13886968791484833, 0.07709382474422455, -0.11431359499692917, -0.21044118702411652, 0.07400645315647125, 0.08577780425548553, -0.07538832724094391, 0.10913191735744476, -0.09762682765722275, -0.12840056419372559, 0.16629160940647125, 0.0438418835401535, 0.10832430422306061, -0.10573878139257431, -0.015096887946128845, -0.10056545585393906, 0.09410403668880463, -0.034047067165374756, 0.04874502122402191, -0.04341880977153778, 0.1268606036901474, 0.08381827175617218, -0.03787831962108612, -0.13154494762420654, -0.1103033646941185, -0.1117321327328682, 0.0007255971431732178, 0.059506192803382874, -0.08510102331638336, -0.033405646681785583, 0.1316697746515274, 0.19729210436344147, -0.17873944342136383, -0.15669406950473785, 0.05453367531299591, -0.19070978462696075, -0.0013347119092941284, 0.1897595375776291, 0.16984520852565765, -0.21561340987682343, 0.1934010535478592, 0.16882018744945526, -0.11112292110919952, 0.14388470351696014, -0.10556870698928833, 0.11778281629085541, -0.002335160970687866, -0.19100899994373322, -0.09405817836523056, -0.08671043813228607, 0.10045628249645233, -0.16795992851257324, 0.04452188313007355, 0.04318295419216156, 0.017075374722480774, 0.17764611542224884, 0.11434830725193024, -0.00538887083530426, -0.03874155879020691, -0.1561540961265564, -0.16196593642234802, 0.041940703988075256, 0.21753813326358795, -0.010525539517402649, 0.1575978845357895, 0.15555669367313385, 0.20628084242343903, 0.18832345306873322, 0.026702985167503357, -0.13589099049568176, -0.20842786133289337, -0.12790296971797943, -0.13395264744758606, -0.18159249424934387, 0.06440116465091705, -0.06740111112594604, -0.15679673850536346, -0.2085644006729126, -0.011820420622825623, 0.21155358850955963, -0.19219501316547394, -0.20746666193008423, -0.21439889073371887, 0.12629006803035736, -0.05107003450393677, 0.0191086083650589, 0.17283202707767487, 0.08537386357784271, 0.10288958251476288, -0.1743393838405609, 0.03193278610706329, 0.171914741396904, -0.04096372425556183, -0.12389939278364182, 0.012269988656044006, -0.11981994658708572, 0.12836630642414093, -0.005617037415504456, 0.1709057241678238, -0.15480133891105652, -0.012612015008926392, 0.15605990588665009, -0.03524252772331238, -0.08565589785575867, -0.10534103214740753, 0.1591232270002365, -0.18998275697231293, 0.08218793570995331, 0.10889147222042084, 0.07331939041614532, 0.04262493550777435, -0.13735847175121307, -0.20603260397911072, 0.025088325142860413, 0.08194763958454132, -0.09525056928396225, -0.03034338355064392, -0.20143620669841766, 0.09285925328731537, -0.13301706314086914, -0.11046035587787628, 0.16531603038311005, -0.12949073314666748, 0.20661301910877228, -0.032253459095954895, -0.16964396834373474, -0.1575183868408203, -0.025165796279907227, 0.16967923939228058, -0.1386733055114746, -0.11103601008653641, -0.030401334166526794, -0.06272159516811371, -0.10612063854932785, 0.12196995317935944, -0.0837123841047287, -0.042297542095184326, -0.13007156550884247, 0.07703126966953278, 0.024498015642166138, 0.0775400847196579, -0.0655851811170578, -0.04649730026721954, -0.1238379254937172, -0.08293981850147247, -0.059797853231430054, 0.12422256171703339, -0.06337310373783112, 0.08734549582004547, -0.10856133699417114, 0.17411957681179047, -0.21571390330791473, 0.08797438442707062, 0.16648359596729279, 0.009078308939933777, -0.15035474300384521, 0.16598452627658844, 0.09459488093852997, -0.10254894196987152, -0.20183759927749634, 0.1477622538805008, 0.13416488468647003, -0.11845256388187408, 0.208428755402565, -0.1454715132713318, 0.0725012868642807, -0.13011352717876434, 0.18113930523395538, -0.21629048883914948, -0.12465076893568039, -0.0035385191440582275, 0.11318399012088776, -0.058057546615600586, 0.21812550723552704, 0.07614646852016449, -0.061461061239242554, -0.14254939556121826, -0.073711097240448, -0.1390250325202942, 0.21631519496440887, -0.0021226853132247925, 0.16949324309825897, 0.0559813529253006, -0.21708044409751892, -0.16672451794147491, -0.09107619524002075, -0.030882716178894043, 0.21403424441814423, 0.15207906067371368, -0.1751076579093933, -0.016438797116279602, 0.20280711352825165, -0.07290436327457428, -0.07783463597297668, 0.1764688342809677, -0.027734115719795227, -0.05763326585292816, -0.06271041929721832, -0.1046864241361618]}, "bias": {"shape": [11], "values": [-0.049807801842689514, 0.21135510504245758, -0.050618067383766174, 0.15484751760959625, -0.19339792430400848, -0.043005913496017456, -0.04357157647609711, -0.09295463562011719, 0.0858382135629654, -0.2113264948129654, 0.10653312504291534]}}