{"weight": {"shape": [11, 7, 3], "values": [0.18563826382160187, 0.09892205893993378, -0.17597219347953796, 0.08390797674655914, 0.05915375053882599, -0.08430388569831848, 0.07904775440692902, -0.024645552039146423, 0.12189842760562897, -0.023537710309028625, 0.13689349591732025, -0.11857219785451889, -0.03786244988441467, 0.17981337010860443, 0.08754493296146393, 0.12026576697826385, 0.11400754749774933, -0.11504735797643661, -0.055273205041885376, -0.07692146301269531, 0.018466323614120483, -0.03572307527065277, -0.18338578939437866, -0.1537710726261139, -0.02960987389087677, 0.18928994238376617, 0.12202523648738861, 0.10543568432331085, 0.07926313579082489, -0.09236899018287659, -0.008058592677116394, 0.03323902189731598, 0.21310286223888397, -0.17865315079689026, 0.05788908898830414, -0.0470830500125885, -0.014879107475280762, -0.11594243347644806, -0.20971636474132538, -0.09712515771389008, -0.09394124895334244, 0.05680663883686066, -0.0406520813703537, -0.025107234716415405, 0.02343606948852539, -0.08691471815109253, 0.04100732505321503, 0.12115953862667084, -0.02027471363544464, 0.132358118891716, -0.1344919204711914, -0.025670140981674194, 0.08665545284748077, -0.11938787996768951, 0.18112610280513763, 0.1945144385099411, 0.14069370925426483, 0.02281533181667328, -0.05915394425392151, -0.08314341306686401, -0.16714788973331451, -0.08159191906452179, -0.06502678990364075, 0.19452856481075287, 0.17670057713985443, 0.007125645875930786, -0.0007615536451339722, -0.08872807025909424, -0.04117864370346069, -0.14019006490707397, 0.1828852742910385, -0.14749747514724731, -0.18553617596626282, 0.0416916161775589, 0.019993141293525696, -0.10315752774477005, -0.15253376960754395, -0.08496829867362976, -0.07402542233467102, -0.06536675989627838, -0.10269724577665329, 0.08752898871898651, 0.07379890978336334, 0.03360317647457123, -0.12438897043466568, 0.21660862863063812, -0.014935687184333801, 0.1286284476518631, 0.21524785459041595, 0.045386239886283875, -0.0218077152967453, 0.21211908757686615, -0.002350151538848877, 0.05763886868953705, 0.003726556897163391, -0.019755274057388306, -0.16192501783370972, 0.05228973925113678, 0.16833628714084625, -0.004132285714149475, 0.05029119551181793, -0.06400370597839355, 0.12124614417552948, -0.07404151558876038, 0.11460120975971222, 0.15623845160007477, -0.16246536374092102, -0.11754154413938522, -0.048806607723236084, -0.03747960925102234, -0.11055485904216766, 0.06769441068172455, -0.2121046930551529, -0.008685886859893799, -0.10625195503234863, 0.04496710002422333, 0.1386703997850418, -0.030154749751091003, 0.12005914747714996, -0.09965100139379501, 0.19724531471729279, -0.060648754239082336, -0.020273029804229736, 0.09644223749637604, -0.10921823233366013, -0.09610987454652786, 0.126372829079628, -0.08363054692745209, -0.21001385152339935, 0.03053317964076996, 0.16215722262859344, -0.053889647126197815, -0.02268347144126892, -0.21261659264564514, -0.08011645078659058, -0.2008119523525238, -0.026760399341583252, -0.18670031428337097, 0.05220361053943634, 0.15467257797718048, 0.11875732243061066, -0.1693112552165985, -0.10900630056858063, -0.09898778051137924, 0.1134544163942337, -0.16373959183692932, -0.10543171316385269, 0.06212000548839569, 0.13378827273845673, 0.13221733272075653, -0.15004020929336548, 0.16153044998645782, -0.027305126190185547, 0.041235581040382385, -0.18917284905910492, 0.0303848534822464, -0.19796396791934967, -0.14435651898384094, -0.19108526408672333, 0.01082754135131836, 0.029600873589515686, -0.15490420162677765, -0.06290863454341888, 0.04220329225063324, -0.20597821474075317, -0.19264103472232819, -0.11608501523733139, 0.1636887639760971, -0.12682293355464935, 0.15191955864429474, 0.13061882555484772, 0.17487351596355438, -0.16886039078235626, 0.08195291459560394, 0.05170424282550812, 0.021310880780220032, -0.20674863457679749, 0.07129229605197906, -0.14897236227989197, 0.19157357513904572, -0.13336977362632751, -0.1323114037513733, -0.013272091746330261, 0.11370275914669037, 0.1822398453950882, 0.0958864837884903, -0.011850059032440186, 0.20617787539958954, -0.06914940476417542, 0.17295129597187042, 0.15192537009716034, 0.008649751543998718, -0.0992690697312355, 0.08882005512714386, 0.01389235258102417, -0.19492694735527039, -0.033078551292419434, -0.11498640477657318, 0.04079781472682953, 0.04506714642047882, -0.17788508534431458, -0.05458629131317139, 0.20908968150615692, 0.02158065140247345, -0.19717419147491455, -0.19411946833133698, 0.04161004722118378, -0.14210888743400574, 0.11274419724941254, 0.17282648384571075, -0.148101806640625, 0.05835016071796417, -0.1375100314617157, 0.058682724833488464, -0.04983574151992798, 0.12529049813747406, 0.09145505726337433, 0.05364702641963959, -0.11217212677001953, 0.08978982269763947, -0.19175709784030914, 0.018541693687438965, 0.20501621067523956, 0.06691257655620575, -0.18426762521266937, 0.17884056270122528, 0.07677020132541656, 0.004986569285392761, 0.002173200249671936, -0.059219494462013245, 0.18996600806713104]}, "bias": {"shape": [11], "values": [0.02744162082672119, 0.025145605206489563, 0.2095293551683426, -0.12765029072761536, 0.09042026102542877, -0.15364408493041992, 0.011575460433959961, 0.17711566388607025, -0.015111848711967468, 0.023197472095489502, -0.21525198221206665]}}