{"weight": {"shape": [11, 7, 3], "values": [0.16362445056438446, 0.18412448465824127, 0.07417519390583038, 0.039916083216667175, 0.17327629029750824, -0.04466821253299713, -0.09310044348239899, -0.10447829216718674, -0.09190082550048828, 0.03040984272956848, -0.17517724633216858, 0.1106194406747818, 0.06689022481441498, -0.030140221118927002, -0.11371923238039017, 0.06584419310092926, -0.05225183069705963, 0.041453197598457336, -0.06913091242313385, 0.07353504002094269, -0.19187667965888977, 0.1984775811433792, -0.14985017478466034, -0.10819105803966522, -0.18668131530284882, -0.1218034029006958, 0.006146758794784546, -0.094149149954319, 0.10991819202899933, 0.1808471828699112, 0.09620721638202667, 0.20903705060482025, -0.10672027617692947, 0.1302284151315689, -0.203100323677063, -0.1586444079875946, -0.1391136348247528, 0.1413162797689438, -0.11451985687017441, -0.15535113215446472, 0.14417614042758942, 0.21371962130069733, -0.21383678913116455, 0.18116013705730438, 0.006798937916755676, 0.11496566236019135, -0.037916406989097595, -0.17843937873840332, -0.2127576619386673, 0.16249658167362213, 0.20505677163600922, -0.1836642026901245, -0.08462068438529968, 0.14191068708896637, -0.03903976082801819, 0.1587255746126175, -0.07734414935112, -0.13402877748012543, -0.09987843781709671, -0.16074393689632416, 0.14901714026927948, 0.18037094175815582, 0.09673012793064117, -0.15670597553253174, -0.12613050639629364, 0.17210625112056732, 0.12059862911701202, -0.08014310896396637, -0.1686396449804306, 0.1536255031824112, 0.06572644412517548, -0.1487019956111908, -0.07938042283058167, -0.17124159634113312, -0.1583046168088913, 0.019831180572509766, -0.18694613873958588, -0.0654711127281189, -0.053706735372543335, -0.17961031198501587, 0.0499386340379715, 0.07308648526668549, -0.003902435302734375, -0.16898101568222046, -0.09856363385915756, -0.2041204422712326, -0.08609320223331451, 0.01931414008140564, 0.014608383178710938, 0.06520546972751617, 0.21673201024532318, -0.09414730221033096, 0.03567396104335785, 0.08183489739894867, -0.10589967668056488, 0.2142917960882187, 0.041704967617988586, 0.03279615938663483, 0.08070255815982819, 0.2020561844110489, -0.05154305696487427, 0.1775582879781723, 0.0816902369260788, -0.2162701040506363, 0.1504509598016739, 0.14503256976604462, -0.013200178742408752, -0.17804428935050964, 0.17148049175739288, 0.129316046833992, 0.08921431005001068, 0.16905800998210907, -0.08436863124370575, 0.07274751365184784, 0.18137575685977936, 0.12889538705348969, -0.022630736231803894, -0.036882057785987854, -0.028913497924804688, -0.2153734564781189, 0.030913054943084717, 0.07907940447330475, -0.1585511714220047, 0.003914967179298401, 0.1557173877954483, -0.04265446960926056, 0.10507042706012726, 0.17750604450702667, -0.14466166496276855, 0.02796877920627594, -0.1687798798084259, -0.1827021837234497, 0.08554722368717194, -0.10505618155002594, -0.031539857387542725, 0.09528045356273651, -0.20361173152923584, -0.11281635612249374, 0.005429744720458984, 0.17445619404315948, 0.187702938914299, -0.03612308204174042, 0.03210724890232086, 0.047604963183403015, 0.10699839890003204, -0.09085442125797272, 0.11702938377857208, -0.1347537338733673, -0.09514398872852325, -0.1797262728214264, 0.16636855900287628, 0.04794333875179291, -0.2022419273853302, -0.14450958371162415, 0.08182568848133087, 0.15921424329280853, -0.05686672031879425, -0.08005164563655853, -0.14283159375190735, 0.06285597383975983, 0.14361973106861115, 0.08328939974308014, -0.018141284584999084, 0.11081258952617645, -0.2025231122970581, -0.2049020230770111, 0.13308577239513397, -0.06356227397918701, -0.0748676061630249, 0.0032476186752319336, 0.20015661418437958, -0.18125727772712708, -0.16629503667354584, -0.07660776376724243, 0.006838381290435791, -0.12381844222545624, -0.03464627265930176, 0.05026538670063019, -0.07203875482082367, -0.20569954812526703, -0.12633278965950012, 0.08324404060840607, -0.17823413014411926, -0.043015435338020325, 0.20575524866580963, -0.0893816351890564, 0.025761842727661133, 0.013468354940414429, 0.06627343595027924, 0.09348149597644806, 0.07417570054531097, 0.1487322598695755, 0.14554353058338165, -0.1402595043182373, -0.06435173749923706, 0.1555853635072708, 0.07415749132633209, 0.015011146664619446, 0.05535106360912323, 0.11472465097904205, 0.000723615288734436, 0.029092729091644287, 0.09423838555812836, 0.08129827678203583, -0.09965719282627106, 0.07374770939350128, 0.0952315479516983, -0.04746967554092407, -0.17173078656196594, 0.16280554234981537, 0.09499646723270416, 0.11364461481571198, 0.10253696143627167, 0.14728330075740814, 0.022924751043319702, 0.12901617586612701, -0.1272372305393219, 0.02012258768081665, 0.0718555897474289, 0.14874140918254852, -0.0028152912855148315, -0.05041630566120148, 0.10334725677967072, 0.14911328256130219, 0.17984341084957123, -0.17316046357154846, 0.17113281786441803, 0.1204598993062973, -0.0831383764743805, -0.15870901942253113, 0.05023856461048126]}, "bias": {"shape": [11], "values": [-0.1902724802494049, -0.10622970759868622, -0.08047749102115631, -0.10127851366996765, -0.19733040034770966, -0.14194822311401367, -0.21067498624324799, -0.07036095857620239, -0.047638729214668274, 0.10855598747730255, 0.10282213985919952]}}