{"weight": {"shape": [11, 7, 3], "values": [-0.07714638113975525, 0.17814181745052338, 0.04802443087100983, -0.18201099336147308, -0.07451280951499939, 0.06587551534175873, -0.03746753931045532, 0.0018976926803588867, -0.0004659295082092285, 0.09029610455036163, 0.009052187204360962, 0.15129242837429047, 0.12234626710414886, 0.021555200219154358, 0.08315743505954742, 0.09168504178524017, -0.08483633399009705, 0.07732559740543365, 0.08040980994701385, 0.11891902983188629, -0.08020347356796265, 0.18287153542041779, 0.1057048887014389, -0.20299676060676575, -0.21314974129199982, 0.006595596671104431, 0.14450500905513763, -0.1252981722354889, -0.21243028342723846, -0.14411476254463196, -0.12394426763057709, -0.03336420655250549, -0.0737418681383133, -0.1937185525894165, -0.17614391446113586, -0.015499651432037354, -0.06922835111618042, -0.0708780586719513, 0.11575974524021149, 0.20130406320095062, -0.10367579758167267, -0.1788395494222641, -0.15358901023864746, -0.056489959359169006, 0.04661683738231659, -0.1595468968153, 0.15824337303638458, -0.033325374126434326, 0.14915145933628082, 0.19413359463214874, 0.13087977468967438, 0.14140667021274567, -0.01805068552494049, -0.06032346189022064, -0.07309301197528839, -0.009926185011863708, 0.10570742189884186, 0.11448971927165985, -0.14129461348056793, -0.1560584008693695, 0.20847244560718536, 0.07949866354465485, -0.0016270428895950317, 0.04274700582027435, 0.18824581801891327, 0.2081960290670395, 0.15587376058101654, 0.21025057137012482, -0.08502383530139923, -0.09383797645568848, 0.20081202685832977, -0.12316825985908508, -0.008891969919204712, -0.04381333291530609, 0.1596439927816391, 0.21351765096187592, -0.18550077080726624, 0.17131121456623077, 0.056028857827186584, -0.2107340693473816, 0.16730384528636932, 0.16642893850803375, 0.12870900332927704, -0.13857442140579224, 0.06435386836528778, 0.016471758484840393, -0.023707285523414612, -0.1658303588628769, -0.16269251704216003, -0.206363707780838, 0.1255635768175125, 0.018394261598587036, -0.14288830757141113, 0.11861594021320343, -0.003808915615081787, 0.19663845002651215, -0.020638883113861084, 0.04341314733028412, -0.1848398745059967, -0.18305954337120056, -0.0896412581205368, 0.02922360599040985, -0.094611257314682, -0.12349917739629745, 0.13804717361927032, 0.0537102073431015, -0.026224285364151, 0.04088948667049408, 0.13726212084293365, 0.15372197329998016, -0.07567374408245087, -0.21538150310516357, -0.11506488919258118, 0.17458544671535492, 0.14549849927425385, -0.053174421191215515, 0.005502715706825256, 0.12357144057750702, -0.07673574984073639, 0.09449522197246552, -0.11462874710559845, -0.08966030180454254, -0.06252945959568024, -0.06016969680786133, -0.11426723748445511, 0.1521705836057663, 0.18780578672885895, -0.01656915247440338, -0.09854349493980408, 0.1264704018831253, -0.04621034860610962, 0.0714036077260971, -0.1302747279405594, -0.005602970719337463, -0.1800834834575653, 0.1866534799337387, -0.19654643535614014, 0.021576985716819763, 0.017027229070663452, 0.13876570761203766, 0.10223190486431122, -0.10134539753198624, 0.21405459940433502, -0.07192732393741608, -0.05973580479621887, 0.18032123148441315, 0.16736038029193878, -0.11357118934392929, 0.2000165730714798, -0.06807354092597961, 0.12031100690364838, 0.029055893421173096, 0.21488581597805023, 0.13344429433345795, -0.09425154328346252, 0.06816859543323517, 0.019707590341567993, 0.19694994390010834, 0.12619979679584503, 0.1759931594133377, 0.13784246146678925, 0.046203210949897766, 0.10265915095806122, 0.0978548675775528, -0.21415777504444122, 0.1972726732492447, 0.060803577303886414, -0.037721097469329834, 0.11057795584201813, 0.015277475118637085, 0.05160503089427948, 0.12704618275165558, -0.17086359858512878, 0.03235073387622833, -0.03771032392978668, 0.01018109917640686, 0.142777219414711, 0.07405136525630951, -0.012875035405158997, 0.03052516281604767, 0.1786750704050064, -0.16433849930763245, -0.178378164768219, 0.10598401725292206, -0.1779952496290207, 0.20081721246242523, -0.12903356552124023, -0.17522378265857697, 0.09084217250347137, -0.13863015174865723, 0.20141492784023285, -0.20895549654960632, -0.12433221191167831, 0.06736458837985992, 0.12240849435329437, -0.11962921172380447, -0.1060308888554573, -0.0562761127948761, 0.1646527796983719, 0.19190402328968048, 0.09240798652172089, -0.12437513470649719, 0.18764106929302216, 0.04013700783252716, -0.10758782923221588, -0.02967032790184021, -0.03839680552482605, 0.0094948410987854, -0.1508432924747467, 0.058248504996299744, -0.00028458237648010254, -0.1544112265110016, 0.1248600035905838, -0.17380104959011078, 0.15109284222126007, 0.15672840178012848, -0.19408182799816132, -0.01039007306098938, 0.1552443653345108, -0.17939592897891998, 0.13538043200969696, -0.12401112169027328, 0.1500590592622757, -0.14861543476581573, -0.2165115773677826, 0.10773243010044098, -0.056917235255241394, -0.12714457511901855, 0.02797888219356537, 0.045244380831718445, 0.08264003694057465]}, "bias": {"shape": [11], "values": [0.12217183411121368, 0.1324639767408371, -0.20102787017822266, -0.06622812151908875, -0.1476903259754181, 0.18831132352352142, -0.21173153817653656, -0.006292790174484253, -0.03560398519039154, -0.13210159540176392, -0.006656438112258911]}}