{"weight": {"shape": [11, 7, 3], "values": [0.0727277547121048, -0.029184654355049133, -0.13771840929985046, 0.14345352351665497, 0.011748939752578735, 0.14660052955150604, -0.08596284687519073, -0.014820411801338196, -0.09889215975999832, -0.11629603803157806, 0.17108722031116486, -0.17866936326026917, 0.069931760430336, 0.0839628130197525, 0.03290010988712311, 0.20100264251232147, -0.11049846559762955, 0.17485357820987701, 0.2047296017408371, -0.17410117387771606, 0.18827782571315765, 0.0379609614610672, -0.19459781050682068, -0.055010467767715454, 0.044171109795570374, -0.04547952115535736, 0.20211957395076752, -0.08714424073696136, 0.13322760164737701, -0.027975603938102722, -0.21667324006557465, 0.10016782581806183, 0.173658087849617, 0.10716904699802399, -0.022572055459022522, 0.00590457022190094, -0.1286371946334839, -0.05948205292224884, -0.11081647872924805, -0.08557982742786407, -0.09986145049333572, -0.15561151504516602, 0.03386475145816803, -0.18954570591449738, -0.14271573722362518, -0.15748336911201477, -0.019246578216552734, -0.01745598018169403, -0.16409537196159363, 0.0596499890089035, 0.02154475450515747, -0.11331677436828613, -0.06060934066772461, 0.068312868475914, 0.05131308734416962, -0.1347414255142212, -0.06486314535140991, -0.08254443109035492, -0.17107157409191132, -0.003206104040145874, 0.016359373927116394, 0.21067385375499725, -0.1389264613389969, 0.018048182129859924, -0.20007061958312988, 0.18512772023677826, -0.025483623147010803, 0.12504948675632477, -0.07340894639492035, 0.044095948338508606, 0.05431027710437775, 0.08740957081317902, 0.18133966624736786, 0.2159208208322525, -0.1009293869137764, -0.11865586042404175, 0.003177329897880554, -0.047896191477775574, -0.0360378623008728, -0.06829868257045746, 0.050382718443870544, 0.19375090301036835, -0.14000998437404633, 0.00240306556224823, 0.1922018975019455, 0.12694860994815826, 0.19056276977062225, 0.08620242774486542, 0.17047236859798431, -0.06411553919315338, 0.2030484825372696, 0.18939600884914398, 0.21066661179065704, 0.09163354337215424, 0.12045429646968842, 0.19230277836322784, 0.07960657775402069, -0.15573947131633759, 0.08766184747219086, 0.16201992332935333, 0.04640008509159088, -0.1524524688720703, 0.13875563442707062, -0.15046769380569458, 0.00802735984325409, 0.18534211814403534, -0.1999133974313736, 0.1579669862985611, 0.16278822720050812, -0.19521375000476837, -0.054504141211509705, 0.20661677420139313, -0.15488432347774506, -0.037893131375312805, -0.15184283256530762, -0.05484689772129059, 0.031191393733024597, 0.13661165535449982, -0.030690476298332214, -0.12710388004779816, -0.01590593159198761, 0.20867888629436493, 0.13660858571529388, 0.15368156135082245, 0.005778864026069641, -0.17724010348320007, -0.13611960411071777, -0.17808932065963745, 0.039448633790016174, 0.10987822711467743, -0.21687285602092743, -0.08916710317134857, -0.21444249153137207, 0.07393528521060944, -0.005554422736167908, -0.08006304502487183, -0.17963390052318573, -0.07050292193889618, -0.14061903953552246, 0.0049303025007247925, -0.1742168515920639, -0.038026362657547, -0.08783026039600372, 0.17846731841564178, -0.17449116706848145, -0.13211636245250702, 0.011950492858886719, 0.14647676050662994, 0.1445396989583969, 0.12495158612728119, -0.1416022777557373, -0.01725389063358307, 0.0227191299200058, 0.003036201000213623, 0.026777327060699463, -0.1541559100151062, -0.20405133068561554, 0.10816220939159393, 0.07141606509685516, -0.16160546243190765, 0.04447244107723236, -0.19769823551177979, 0.10199125111103058, 0.2012549787759781, -0.10400554537773132, -0.13098378479480743, -0.1557479202747345, 0.1093067079782486, -0.172920361161232, 0.18141378462314606, -0.013010784983634949, -0.10098320990800858, -0.09792526066303253, 0.15084882080554962, 0.09733735024929047, 0.09825785458087921, 0.1349608153104782, -0.0907023549079895, 0.07167117297649384, -0.1588246077299118, -0.01448705792427063, -0.09396135807037354, 0.07237489521503448, -0.035443633794784546, 0.021614357829093933, 0.006761223077774048, -0.03489618003368378, -0.18899062275886536, 0.06610830128192902, -0.21458004415035248, 0.10945920646190643, 0.11101512610912323, -0.1301242709159851, -0.19459223747253418, 0.14254130423069, -0.1765224039554596, -0.1415291726589203, -0.05505923926830292, 0.16289405524730682, -0.01462303102016449, 0.06017060577869415, -0.02525348961353302, 0.09751828014850616, 0.07006512582302094, -0.008204221725463867, -0.044027894735336304, -0.14333438873291016, 0.20298023521900177, 0.10241864621639252, 0.12388648092746735, -0.0622115284204483, 0.09475685656070709, 0.0632576197385788, 0.10621587932109833, -0.14144659042358398, 0.05924473702907562, 0.019595086574554443, -0.11591790616512299, 0.09353809058666229, -0.011012732982635498, -0.1679641753435135, -0.17301161587238312, 0.18246687948703766, 0.09186796844005585, 0.01953054964542389, -0.1439148336648941, 0.15593157708644867, 0.1680821031332016, -0.00841076672077179, 0.013588562607765198, 0.013185068964958191]}, "bias": {"shape": [11], "values": [-0.033898353576660156, -0.060107022523880005, 0.09248356521129608, 0.020304083824157715, -0.07134263217449188, 0.02685748040676117, -0.03280206024646759, -0.10479230433702469, 0.07050468027591705, -0.02599598467350006, -0.1845562756061554]}}