{"weight": {"shape": [11, 7, 3], "values": [0.024858146905899048, -0.10750287026166916, -0.2024725079536438, -0.15926145017147064, -0.21633599698543549, -0.18827322125434875, -0.03129565715789795, -0.023392602801322937, 0.11121146380901337, -0.16208668053150177, 0.17906875908374786, 0.19456134736537933, 0.02263893187046051, 0.08418397605419159, 0.05604369938373566, 0.2001502364873886, 0.19707150757312775, 0.0685381144285202, -0.1405184268951416, 0.13676033914089203, 0.13678543269634247, -0.11497774720191956, 0.0957297831773758, 0.15131281316280365, 0.147378608584404, -0.17479628324508667, -0.005841270089149475, -0.024901211261749268, -0.004483520984649658, -0.046551331877708435, 0.014817684888839722, 0.05826030671596527, -0.06346876919269562, -0.1828526109457016, 0.21472252905368805, -0.2050166130065918, -0.17784106731414795, -0.06110696494579315, -0.07833680510520935, -0.10042204707860947, -0.042315930128097534, -0.0012994557619094849, -0.10279476642608643, 0.1202952116727829, 0.17698551714420319, -0.06114499270915985, -0.20127588510513306, 0.096602663397789, -0.19937752187252045, 0.023666396737098694, 0.019696399569511414, 0.028969258069992065, 0.15313588082790375, -0.028453364968299866, -0.10438016802072525, -0.20950421690940857, 0.055456385016441345, -0.19139732420444489, -0.20341357588768005, 0.17423216998577118, 0.20554940402507782, -0.1866130530834198, 0.10709552466869354, -0.11474310606718063, -0.0037245750427246094, 0.20110757648944855, -0.08281117677688599, -0.01209673285484314, 0.041439369320869446, -0.03785155713558197, -0.04534178972244263, 0.09231747686862946, -0.06570330262184143, -0.09018062055110931, 0.17706109583377838, 0.09983645379543304, -0.05783216655254364, -0.059991270303726196, 0.2146940678358078, 0.20758037269115448, 0.19975654780864716, 0.0628872960805893, 0.2016606479883194, 0.12663789093494415, 0.149400994181633, -0.07187043130397797, 0.0929047018289566, -0.17998374998569489, 0.1337863951921463, -0.20379041135311127, 0.13118065893650055, 0.20285780727863312, -0.03541778028011322, -0.012330159544944763, 0.11085797846317291, -0.060889795422554016, 0.09305252134799957, -0.03559142351150513, -0.17786747217178345, 0.03193943202495575, 0.16679377853870392, -0.19895613193511963, -0.17524181306362152, 0.1612953096628189, -0.20441529154777527, -0.16445353627204895, 0.1037343293428421, 0.0485757440328598, 0.0029188543558120728, -0.07071797549724579, -0.1695745885372162, 0.07130007445812225, -0.047581300139427185, 0.17252059280872345, -0.1647958755493164, 0.21075405180454254, 0.19357465207576752, 0.17996419966220856, -0.07150925695896149, 0.13261778652668, -0.12409686297178268, -0.061948344111442566, 0.18687357008457184, 0.0296563059091568, 0.08793453872203827, -0.11694780737161636, 0.06948395073413849, 0.18478669226169586, -0.09928340464830399, 0.07704015076160431, -0.02275034785270691, -0.0058466047048568726, -0.20868121087551117, 0.03719682991504669, 0.08359889686107635, -0.01461811363697052, -0.012069344520568848, 0.19005842506885529, -0.02621018886566162, -0.009752079844474792, 0.16924111545085907, -0.05921080708503723, -0.042807698249816895, 0.08268605172634125, -0.062043264508247375, 0.0673905462026596, 0.19407491385936737, 0.009982720017433167, 0.1859426647424698, 0.030689314007759094, -0.07908901572227478, 0.13705353438854218, 0.014250412583351135, 0.09921099245548248, -0.03598149120807648, 0.0931568592786789, -0.14823737740516663, 0.011632263660430908, 0.05252052843570709, -0.06912073493003845, -0.03782510757446289, 0.15110601484775543, 0.094159796833992, 0.1503717452287674, 0.09354723989963531, -0.21048235893249512, 0.09689424932003021, 0.21634341776371002, -0.10062622278928757, -0.014067456126213074, -0.008007422089576721, -0.0684451162815094, 0.11008475720882416, 0.1779545694589615, -0.17779874801635742, -0.1135784462094307, 0.07103182375431061, 0.071098193526268, -0.07815384864807129, 0.11349906027317047, 0.1042923778295517, -0.02999362349510193, 0.16989125311374664, 0.13306613266468048, 0.17091648280620575, 0.08147405087947845, -0.2144204080104828, 0.0959644466638565, -0.09652885049581528, -0.20302173495292664, -0.09350711107254028, -0.0747733861207962, -0.07835116982460022, 0.08938868343830109, 0.0316353440284729, -0.05556239187717438, 0.007923871278762817, -0.06447358429431915, -0.03303779661655426, 0.07433123886585236, 0.07538093626499176, 0.1555953472852707, -0.1597130447626114, -0.1404685080051422, -0.15429891645908356, 0.12666024267673492, 0.06376101076602936, -0.21680298447608948, 0.16733543574810028, 0.21529094874858856, 0.07652322947978973, -0.03090021014213562, -0.04835712909698486, -0.16575689613819122, 0.09632499516010284, -0.12994220852851868, -0.1607840359210968, 0.1719583123922348, -0.18424879014492035, 0.12323226034641266, -0.13682380318641663, 0.16526345908641815, -0.1037682518362999, 0.1862713247537613, -0.17915980517864227, 0.1402713805437088, -0.03280198574066162, 0.10365809500217438, -0.0634102076292038, -0.16662779450416565, -0.15541362762451172]}, "bias": {"shape": [11], "values": [-0.015531003475189209, -0.10038770735263824, 0.20397816598415375, -0.07965941727161407, 0.03487415611743927, 0.20157618820667267, -0.07003748416900635, -0.1721593141555786, -0.04600568115711212, 0.1985371857881546, -0.050418704748153687]}}