{"weight": {"shape": [11, 7, 3], "values": [-0.04789493978023529, 0.14694742858409882, 0.17697863280773163, 0.14006425440311432, 0.1730724424123764, -0.15278276801109314, 0.07656212151050568, 0.029317721724510193, -0.21750642359256744, -0.050893113017082214, -0.19191980361938477, -0.1954689472913742, 0.008460670709609985, 0.08976460993289948, -0.09944835305213928, 0.03654991090297699, -0.06569845974445343, -0.07477159798145294, 0.1905822604894638, 0.04020737111568451, 0.04592354595661163, 0.18729539215564728, -0.13388222455978394, -0.13042551279067993, -0.15557551383972168, -0.04384639859199524, -0.16291123628616333, 0.19477836787700653, 0.12099878489971161, -0.1218964233994484, 0.1952468603849411, -0.10932382196187973, 0.05533815920352936, -0.06793415546417236, -0.1623002290725708, -0.019703373312950134, 0.08014671504497528, -0.17449867725372314, 0.10781867802143097, 0.1290675550699234, 0.07015328109264374, -0.01750938594341278, 0.05724187195301056, 0.13899697363376617, -0.21561941504478455, -0.038411945104599, -0.03266800940036774, 0.09655262529850006, -0.066738560795784, 0.1033000499010086, -0.2057545781135559, -0.07527576386928558, -0.07146334648132324, 0.027907416224479675, -0.047335460782051086, -0.13259819149971008, 0.1297890692949295, -0.005639821290969849, -0.1386396288871765, 0.035382792353630066, -0.018838196992874146, 0.15539894998073578, -0.20847450196743011, 0.07776673138141632, 0.028444305062294006, 0.1278187483549118, -0.19826211035251617, 0.059781983494758606, 0.1879362314939499, 0.2158125787973404, 0.16091327369213104, 0.1924627274274826, -0.11098988354206085, -0.08722597360610962, 0.21070705354213715, 0.0814553052186966, -0.19578509032726288, 0.13015152513980865, -0.18527822196483612, -0.09751380234956741, 0.12110529839992523, 0.10678048431873322, -0.14157265424728394, -0.0630522072315216, -0.07951314747333527, -0.10252178460359573, 0.09291894733905792, 0.02940574288368225, -0.07891498506069183, 0.14325706660747528, 0.1297236531972885, -0.18486467003822327, -0.020134136080741882, 0.1444181352853775, -0.003169730305671692, -0.08717617392539978, -0.15459927916526794, 0.207560196518898, -0.03339008986949921, -0.08106453716754913, -0.07257579267024994, 0.08483706414699554, 0.012626275420188904, -0.2168593853712082, -0.057551220059394836, 0.0894353836774826, 0.05489178001880646, -0.004227131605148315, 0.1163477748632431, -0.07040975987911224, -0.12295258045196533, 0.1952207237482071, 0.19164462387561798, -0.09779675304889679, 0.11524663865566254, -0.15695172548294067, 0.1509450525045395, 0.05021600425243378, 0.00918222963809967, 0.20625586807727814, -0.012683063745498657, -0.07218386232852936, 0.11789502203464508, 0.07229973375797272, 0.16031624376773834, 0.10104094445705414, 0.07016341388225555, -0.09696988016366959, 0.002725467085838318, 0.1520429402589798, 0.07235382497310638, 0.1957814246416092, 0.0714821070432663, -0.11567036062479019, -0.14717262983322144, 0.19141851365566254, 0.20932970941066742, 0.08096973598003387, -0.21812601387500763, 0.030486196279525757, -0.09518717229366302, 0.21066980063915253, -0.032403185963630676, 0.13119728863239288, -0.042007774114608765, 0.08888642489910126, -0.13997387886047363, 0.030980423092842102, 0.0686921626329422, -0.06512919068336487, 0.12058384716510773, -0.09415804594755173, 0.20990486443042755, 0.16275493800640106, 0.04950608313083649, -0.047255739569664, 0.06691427528858185, 0.2058081179857254, 0.01990203559398651, -0.1769791543483734, -0.1851172000169754, 0.04080723226070404, 0.14489589631557465, 0.002057179808616638, -0.21814373135566711, -0.07958954572677612, 0.08341746032238007, -0.04754363000392914, 0.18393857777118683, -0.015718713402748108, 0.10771448910236359, -0.06829512119293213, -0.2112351953983307, 0.2104024738073349, -0.059080690145492554, 0.13772086799144745, 0.06708557903766632, 0.04366414248943329, -0.014886096119880676, -0.027843117713928223, -0.21522049605846405, 0.1749865561723709, 0.1443231850862503, -0.13260668516159058, -0.15768299996852875, 0.09065927565097809, -0.06088124215602875, 0.15378962457180023, 0.1341637521982193, -0.06814607977867126, -0.09621429443359375, -0.07973521947860718, -0.014826133847236633, -0.07928083837032318, 0.051766738295555115, 0.0773431807756424, 0.00022289156913757324, -0.04053136706352234, -0.19824889302253723, -0.029978588223457336, -0.0436968058347702, -0.16904157400131226, -0.16437683999538422, -0.010800585150718689, -0.06844919919967651, 0.01565539836883545, -0.04891990125179291, -0.17843708395957947, -0.13081565499305725, -0.09803622961044312, -0.2131829559803009, 0.18089653551578522, 0.13606108725070953, -0.2061275839805603, 0.11525653302669525, 0.13196952641010284, 0.12138290703296661, 0.061320945620536804, -0.17686355113983154, -0.0031370073556900024, -0.024895325303077698, -0.016817837953567505, -0.07226528227329254, -0.16521310806274414, -0.1313360035419464, -0.11921445280313492, -0.024627625942230225, -0.19751952588558197, -0.055926308035850525, 0.04767309129238129, 0.21205081045627594]}, "bias": {"shape": [11], "values": [0.054456040263175964, 0.07601679861545563, -0.09764974564313889, 0.0874728113412857, -0.16170519590377808, -0.004590809345245361, 0.18024910986423492, 0.08930428326129913, -0.16713236272335052, 0.21448387205600739, -0.016037404537200928]}}