{"weight": {"shape": [11, 7, 3], "values": [-0.2076154351234436, -0.09285341203212738, 0.13393355906009674, 0.02447652816772461, 0.10211052000522614, 0.17305533587932587, -0.08169318735599518, -0.12183979153633118, -0.08916273713111877, 0.12338356673717499, 0.08721809089183807, 0.19125483930110931, -0.2024397850036621, 0.12340371310710907, -0.12220479547977448, 0.18232093751430511, -0.024614855647087097, 0.04663778841495514, 0.1973675936460495, -0.16765692830085754, 0.028814047574996948, 0.12330015003681183, 0.056525781750679016, 0.19037802517414093, 0.07728128135204315, 0.010087892413139343, 0.025790587067604065, -0.09230522811412811, -0.03154763579368591, 0.1376854032278061, -0.02110394835472107, -0.032528236508369446, -0.2100074589252472, -0.13916239142417908, -0.16225020587444305, -0.017630279064178467, 0.06743015348911285, 0.0804259330034256, 0.21396057307720184, -0.05998297035694122, 0.05537967383861542, 0.16707156598567963, 0.026476845145225525, 0.15148036181926727, 0.09143562614917755, -0.07654200494289398, 0.21409909427165985, 0.09661869704723358, -0.019407033920288086, -0.10721608996391296, -0.1309913545846939, -0.11454810202121735, -0.20268769562244415, 0.1194128543138504, -0.1901099979877472, 0.05621694028377533, 0.11553053557872772, -0.01531846821308136, -0.08654014766216278, -0.07185091078281403, 0.18531359732151031, 0.16711260378360748, -0.12459824979305267, 0.008648693561553955, 0.013378560543060303, 0.2026851326227188, -0.1109946221113205, -0.09832870215177536, 0.05342932045459747, 0.0620928555727005, 0.10313938558101654, -0.11704874038696289, -0.0779646635055542, 0.02226462960243225, -0.09553015977144241, -0.027406081557273865, -0.14404407143592834, -0.0996902585029602, -0.1074400469660759, -0.17015282809734344, 0.18028564751148224, -0.20367267727851868, 0.12155471742153168, 0.16919197142124176, 0.20616133511066437, -0.14061108231544495, -0.024302691221237183, -0.08182772994041443, -0.16941994428634644, 0.1555568426847458, 0.18624703586101532, -0.04015807807445526, 0.03224964439868927, 0.003983363509178162, 0.1380677968263626, -0.18073128163814545, 0.0410417765378952, 0.053374335169792175, -0.08327983319759369, -0.10773727297782898, 0.18417789041996002, 0.03332038223743439, 0.046228423714637756, -0.14386075735092163, 0.1630607694387436, -0.07297392189502716, -0.14200741052627563, -0.1707315295934677, 0.17135848104953766, -0.11633214354515076, 0.2154373675584793, -0.08438651263713837, -0.13465523719787598, -0.14856362342834473, -0.02339179813861847, 0.18335171043872833, 0.1905031055212021, 0.08390916883945465, 0.12542103230953217, 0.1726110428571701, 0.13778232038021088, 0.20703162252902985, -0.0355457067489624, 0.1388614922761917, -0.09933704137802124, -0.03255404531955719, 0.003493785858154297, -0.11117367446422577, -0.21098528802394867, 0.02098509669303894, 0.10559917986392975, -0.17330658435821533, -0.1891316920518875, 0.10423214733600616, 0.09093542397022247, -0.16319090127944946, -0.12643761932849884, 0.14955471456050873, 0.018360868096351624, 0.12657256424427032, 0.21275664865970612, -0.049384742975234985, 0.12247516214847565, -0.16177994012832642, 0.163874551653862, -0.15281429886817932, -0.034484535455703735, -0.16507041454315186, 0.1298484355211258, 0.11478294432163239, -0.17356178164482117, 0.06824629008769989, 0.004319533705711365, -0.07629312574863434, -0.10216820985078812, 0.0018915235996246338, 0.062354907393455505, -0.1655377447605133, 0.08462785184383392, -0.14328265190124512, 0.01490946114063263, -0.17147070169448853, -0.20415189862251282, -0.20336581766605377, -0.18245232105255127, 0.11279715597629547, -0.07035365700721741, 0.08767609298229218, -0.05951583385467529, -0.1397971361875534, 0.09985317289829254, -0.046806320548057556, 0.11317868530750275, 0.005625888705253601, 0.18991969525814056, -0.1606067419052124, -0.16305547952651978, 0.022537842392921448, -0.2087685614824295, 0.10877357423305511, -0.2108958661556244, 0.17103378474712372, 0.18505792319774628, 0.08209450542926788, -0.19161053001880646, 0.11551649868488312, 0.03760857880115509, -0.15082836151123047, -0.014730438590049744, 0.14433307945728302, -0.1479659527540207, 0.036650195717811584, 0.16293688118457794, -0.14458882808685303, -0.21025806665420532, -0.10962016880512238, 0.09506641328334808, -0.09286831319332123, -0.1063551977276802, -0.1819542646408081, 0.028183162212371826, -0.16645517945289612, 0.0883827954530716, -0.21615922451019287, -0.025156289339065552, 0.04265661537647247, 0.10396488010883331, 0.08482466638088226, -0.08281418681144714, -0.1213819831609726, 0.15724997222423553, -0.02671593427658081, -0.13628363609313965, 0.04699377715587616, 0.183731809258461, 0.13216988742351532, -0.11119755357503891, 0.08323188126087189, 0.18269221484661102, -0.18417173624038696, 0.10158731043338776, -0.1941394954919815, -0.04130864143371582, 0.0987364798784256, -0.019857823848724365, 0.19449923932552338, 0.17836423218250275, 0.13856779038906097, 0.006300315260887146, -0.06980425119400024, 0.07955308258533478]}, "bias": {"shape": [11], "values": [-0.08677275478839874, 0.12635935842990875, -0.09224162995815277, 0.055759236216545105, 0.057064369320869446, -0.13529768586158752, -0.041637569665908813, 0.13305573165416718, 0.008275911211967468, 0.19049178063869476, -0.05843980610370636]}}