{"weight": {"shape": [11, 7, 3], "values": [0.15156204998493195, -0.026399359107017517, 0.11756275594234467, -0.17231892049312592, 0.013962611556053162, -0.0025943368673324585, -0.1318558156490326, -0.21042591333389282, -0.1743878871202469, -0.15482831001281738, -0.20593960583209991, -0.19682089984416962, 0.11653350293636322, -0.15061050653457642, -0.14675948023796082, -0.21299339830875397, 0.1369961053133011, 0.12365330755710602, 0.07463566958904266, 0.10490132868289948, -0.1551629900932312, -0.11491037160158157, 0.14135469496250153, 0.007256075739860535, 0.17309506237506866, 0.1968899816274643, 0.05564717948436737, 0.18396227061748505, -0.193784698843956, -0.11196614801883698, 0.013131588697433472, 0.1294894963502884, 0.10969831049442291, 0.10592342913150787, -0.14603614807128906, -0.20655475556850433, -0.1661379337310791, -0.06355458498001099, 0.17627237737178802, 0.10776813328266144, 0.1485232561826706, -0.1282256841659546, -0.2062586396932602, -0.0846894383430481, 0.06016059219837189, -0.20449469983577728, -0.15708822011947632, -0.10622981190681458, 0.04432414472103119, 0.16520832479000092, 0.21178950369358063, 0.04777751863002777, -0.03538164496421814, 0.1438969224691391, -0.0953577384352684, 0.08944861590862274, -0.04917241632938385, 0.09540723264217377, 0.10470099747180939, 0.03197126090526581, 0.0787060409784317, -0.02970243990421295, -0.2137083262205124, -0.14806145429611206, 0.15843631327152252, -0.21180999279022217, 0.20363809168338776, 0.09602434933185577, 0.1155136376619339, 0.19460760056972504, 0.0272340327501297, -0.13396385312080383, 0.11040003597736359, -0.11671977490186691, -0.1772840917110443, -0.03350794315338135, 0.03213159739971161, 0.19729678332805634, 0.02359919250011444, -0.08331908285617828, -0.07602766156196594, 0.07511301338672638, 0.08265615999698639, -0.12731289863586426, -0.02554944157600403, -0.03934851288795471, 0.08553837239742279, 0.17329202592372894, -0.1033552885055542, -0.08374962210655212, 0.16103385388851166, -0.1031167134642601, 0.11778922379016876, -0.14617934823036194, 0.1927294284105301, -0.045619264245033264, 0.1451374739408493, -0.1485472023487091, 0.07155950367450714, -0.10240443795919418, -0.14218899607658386, 0.09103374183177948, 0.12680910527706146, 0.19385139644145966, 0.12021489441394806, -0.025077730417251587, -0.09034739434719086, 0.19029758870601654, 0.08862228691577911, -0.045010730624198914, -0.13969722390174866, -0.10983909666538239, -0.03288516402244568, -0.111160509288311, 0.16075251996517181, 0.08243726193904877, -0.167924165725708, -0.013503342866897583, 0.18917854130268097, 0.15598540008068085, 0.17258746922016144, 0.16691742837429047, -0.17194628715515137, 0.21698077023029327, 0.05355812609195709, -0.03717949986457825, 0.050419166684150696, -0.0054300278425216675, 0.03104180097579956, 0.1450139433145523, -0.1741601973772049, 0.18062005937099457, 0.09204749763011932, -0.05266349017620087, 0.19190900027751923, -0.19761015474796295, -0.2136312574148178, 0.12142790853977203, -0.21655862033367157, 0.08916501700878143, 0.16690097749233246, 0.029278412461280823, 0.1801368147134781, 0.07932056486606598, 0.04369814693927765, 0.043565914034843445, 0.01661205291748047, 0.07759378850460052, -0.13696178793907166, 0.09580998122692108, 0.17503176629543304, -0.1886766403913498, -0.07167178392410278, -0.048806846141815186, 0.13091878592967987, 0.19742949306964874, 0.048305049538612366, -0.19907614588737488, 0.021150559186935425, 0.10084851086139679, -0.0021358132362365723, 0.1560596376657486, -0.1185314878821373, -0.1741376370191574, -0.12295929342508316, -0.12543591856956482, -0.06029587984085083, 0.19251616299152374, 0.10705588757991791, -0.012734487652778625, -0.19643083214759827, -0.0640997439622879, -0.11392843723297119, 0.09013853967189789, -0.17000733315944672, -0.09821681678295135, 0.07529570162296295, 0.13665811717510223, 0.13046227395534515, 0.024706855416297913, -0.0823977142572403, -0.16915257275104523, -0.14160487055778503, -0.1545211523771286, 0.17657892405986786, -0.05827835202217102, -0.1446980983018875, 0.2003149539232254, 0.18168021738529205, 0.12098579108715057, 0.06583558022975922, 0.10581646859645844, -0.1383385807275772, -0.06344147026538849, -0.03153024613857269, -0.15996743738651276, 0.00943039357662201, -0.17256735265254974, -0.11880515515804291, 0.09084679186344147, -0.10227447003126144, 0.07285480201244354, 0.1881261020898819, 0.07416166365146637, -0.12201143056154251, 0.11569105088710785, -0.12396573275327682, -0.1670861840248108, -0.08489613234996796, 0.06069327890872955, -0.21433952450752258, -0.14504238963127136, -0.07865838706493378, 0.2026837319135666, 0.18242858350276947, 0.2172495275735855, -0.10213233530521393, -0.10794679075479507, 0.11818541586399078, 0.06531791388988495, -0.15038788318634033, 0.10049568116664886, 0.21275214850902557, 0.10777394473552704, 0.05211348831653595, -0.014055073261260986, 0.1790533810853958, 0.19818027317523956, -0.1596105545759201, -0.12218978255987167, 0.19255642592906952]}, "bias": {"shape": [11], "values": [0.17122529447078705, -0.21287831664085388, 0.2123674601316452, 0.15899385511875153, 0.04773072898387909, -0.14550405740737915, -0.08138947188854218, 0.08918623626232147, 0.0575115829706192, -0.19290691614151, -0.059594690799713135]}}