{"weight": {"shape": [11, 7, 3], "values": [0.14008332788944244, -0.05412071943283081, -0.032786160707473755, -0.0489652156829834, 0.00836750864982605, 0.14965181052684784, -0.02902980148792267, -0.05342015624046326, 0.17037330567836761, 0.0890941172838211, -0.19620580971240997, 0.18045534193515778, -0.10130397975444794, -0.030955970287322998, -0.028305605053901672, -0.17557166516780853, 0.20294572412967682, -0.0854833722114563, -0.1316596418619156, -0.20182183384895325, -0.14931873977184296, -0.16342581808567047, -0.1415637731552124, -0.06464095413684845, -0.213607057929039, 0.009625241160392761, 0.17250783741474152, 0.1287551373243332, 0.08823360502719879, 0.04466716945171356, -0.1647598147392273, 0.2053482085466385, 0.20321382582187653, 0.09739990532398224, 0.13098688423633575, -0.19706806540489197, 0.1926228553056717, -0.06204137206077576, 0.04392807185649872, 0.18193478882312775, -0.15822114050388336, -0.1155993640422821, 0.17289607226848602, -0.007202669978141785, -0.18347491323947906, 0.035089269280433655, -0.12303272634744644, 0.09884949028491974, 0.18632514774799347, -0.14623792469501495, -0.1911446750164032, 0.21571768820285797, 0.12708230316638947, 0.18206153810024261, -0.20393364131450653, 0.00045758485794067383, 0.024491488933563232, 0.030461713671684265, 0.09599240124225616, -0.05803975462913513, -0.19548889994621277, 0.11310265958309174, 0.023088663816452026, 0.046577706933021545, -0.07562704384326935, 0.17945726215839386, -0.05894757807254791, 0.14721183478832245, 0.08579935133457184, -0.17408433556556702, 0.19677616655826569, -0.03982582688331604, -0.10258663445711136, -0.08027929067611694, 0.1456897109746933, -0.20057787001132965, -0.09308028221130371, 0.21371154487133026, -0.030312299728393555, -0.09083035588264465, -0.09477686136960983, 0.18230612576007843, -0.04249647259712219, -0.19906744360923767, -0.011755213141441345, -0.09709451347589493, 0.1178433746099472, -0.12547391653060913, -0.19335871934890747, -0.1944817304611206, 0.13091276586055756, 0.08485500514507294, 0.18983449041843414, -0.1735587865114212, -0.06779313087463379, -0.030280277132987976, 0.07588814198970795, 0.1179429441690445, 0.21692968904972076, -0.02170988917350769, 0.1205206960439682, -0.1247454360127449, -0.01222197711467743, 0.09683011472225189, -0.09209920465946198, 0.09817545115947723, -0.015697702765464783, -0.184828519821167, 0.167859748005867, -0.13469192385673523, -0.18387195467948914, -0.05109122395515442, -0.18022900819778442, 0.13600321114063263, 0.027663901448249817, 0.20095770061016083, 0.08550287783145905, 0.042263612151145935, 0.09856240451335907, 0.026828840374946594, -0.07178613543510437, -0.18371564149856567, 0.11956502497196198, -0.1873842030763626, 0.009237304329872131, 0.19503085315227509, 0.18878142535686493, -0.17439004778862, 0.1396787315607071, -0.05242067575454712, 0.0164482444524765, 0.18616043031215668, -0.0029571503400802612, 0.12449173629283905, -0.10557521134614944, -0.2163262963294983, -0.10301986336708069, -0.19376201927661896, -0.03870077431201935, 0.09102402627468109, 0.18609820306301117, -0.15242356061935425, -0.08629903197288513, 0.11191938817501068, -0.21341414749622345, 0.07094596326351166, -0.19753879308700562, 0.06175263226032257, -0.06035657227039337, -0.10878359526395798, 0.20492301881313324, 0.02350430190563202, 0.11683414876461029, 0.05648668110370636, -0.08306087553501129, -0.0034036487340927124, 0.03360112011432648, 0.19654016196727753, -0.13820257782936096, 0.03874899446964264, 0.07842831313610077, 0.12320588529109955, -0.04535640776157379, -0.034960195422172546, 0.06329528987407684, -0.08281393349170685, 0.14265380799770355, -0.12097341567277908, -0.16948820650577545, 0.01297028362751007, -0.1771165430545807, -0.09469389915466309, 0.09310071170330048, -0.12655124068260193, -0.026810109615325928, -0.17655961215496063, -0.04750296473503113, 0.10425515472888947, 0.20086504518985748, 0.20923136174678802, -0.17025284469127655, 0.1331149786710739, -0.08989545702934265, -0.09495572745800018, 0.1271160989999771, -0.05850715935230255, 0.10410495102405548, 0.21489398181438446, 0.004528909921646118, -0.1597604751586914, 0.17934869229793549, -0.20979906618595123, -0.017793327569961548, -0.09083802998065948, 0.017031311988830566, -0.20436590909957886, 0.13428311049938202, 0.10889260470867157, 0.1396763175725937, 0.16411085426807404, 0.13177631795406342, -0.05460213124752045, 0.15616251528263092, -0.18385064601898193, 0.09248305857181549, -0.1550600230693817, 0.19051776826381683, 0.02964317798614502, -0.06098727881908417, 0.023956775665283203, 0.15960495173931122, 0.21036134660243988, -0.18578363955020905, -0.09703629463911057, -0.1537381410598755, -0.1273387372493744, 0.06626604497432709, 0.17676232755184174, 0.20420394837856293, 0.12809227406978607, 0.2058393806219101, -0.21170656383037567, -0.13673944771289825, 0.06329406797885895, -0.1830293983221054, -0.08893398940563202, 0.13319282233715057, -0.0799473375082016, 0.05654330551624298, 0.1041467934846878, -0.19300775229930878]}, "bias": {"shape": [11], "values": [0.052814945578575134, 0.13640807569026947, -0.006343930959701538, 0.061246976256370544, -0.19934609532356262, -0.16101336479187012, -0.11403300613164902, -0.207047238945961, -0.06685356795787811, -0.21485888957977295, 0.09962041676044464]}}