{"weight": {"shape": [11, 7, 3], "values": [0.08670423924922943, -0.08408921957015991, -0.20778445899486542, 0.1513790637254715, -0.21162888407707214, 0.01280529797077179, 0.21541248261928558, 0.022367969155311584, -0.20793971419334412, 0.18267594277858734, -0.17240890860557556, 0.21102078258991241, -0.11001593619585037, -0.15352779626846313, -0.006410926580429077, 0.07170788943767548, -0.18155424296855927, -0.10760843008756638, 0.1232789009809494, 0.1573725789785385, -0.1421097218990326, -0.08473256230354309, 0.02987062931060791, -0.009471312165260315, -0.06324972212314606, -0.07377584278583527, 0.16500352323055267, 0.01660884916782379, -0.019147783517837524, -0.0758526623249054, -0.15234750509262085, -0.12414418160915375, 0.205131396651268, 0.056475862860679626, 0.19173230230808258, 0.13916392624378204, 0.0717981606721878, 0.12106163799762726, -0.09727093577384949, -0.19512984156608582, -0.05127519369125366, 0.1332741230726242, 0.196257546544075, 0.10394914448261261, 0.20177610218524933, -0.07200933992862701, -0.025427043437957764, 0.08280767500400543, -0.11803632229566574, -0.17124898731708527, 0.10919566452503204, -0.1766766756772995, -0.14954443275928497, -0.13944494724273682, -0.20172008872032166, 0.11374939978122711, -0.050378844141960144, 0.05819602310657501, -0.09085603058338165, -0.12689566612243652, 0.19517488777637482, 0.06483890116214752, 0.19232095777988434, -0.1201813742518425, -0.0626276433467865, -0.13759347796440125, 0.20327268540859222, 0.1415969580411911, 0.13849686086177826, -0.08193321526050568, -0.19586443901062012, -0.2039625644683838, 0.11886231601238251, 0.16832773387432098, -0.09075382351875305, -0.024981722235679626, 0.17535077035427094, 0.030722811818122864, 0.1287945657968521, -0.17369748651981354, 0.04936228692531586, 0.13945169746875763, 0.2160450965166092, -0.09039141237735748, 0.01194898784160614, -0.11907694488763809, 0.013895168900489807, -0.06665831804275513, 0.139937624335289, -0.18684078752994537, -0.015071064233779907, 0.15484951436519623, 0.17306505143642426, -0.21650411188602448, -0.11825605481863022, -0.08902135491371155, -0.17057020962238312, 0.17990265786647797, -0.08408530056476593, -0.09544286131858826, 0.1242160052061081, -0.1892925649881363, 0.12763597071170807, -0.1351005733013153, -0.058348819613456726, -0.2104709893465042, -0.06681759655475616, 0.17630989849567413, 0.029288217425346375, 0.1709435135126114, 0.18493594229221344, -0.11865148693323135, -0.051414087414741516, -0.09702415019273758, -0.05295388400554657, -0.10024770349264145, -0.016796648502349854, 0.1913122981786728, 0.11161921918392181, -0.15583515167236328, -0.1474871039390564, 0.011822059750556946, -0.00029215216636657715, 0.13121096789836884, 0.1907915621995926, 0.08336661756038666, 0.11296446621417999, -0.19671761989593506, 0.13419602811336517, 0.057950690388679504, 0.03193168342113495, -0.15328332781791687, 0.039240762591362, -0.16233426332473755, 0.20191363990306854, -0.11177318543195724, 0.0806327611207962, 0.035911157727241516, 0.0812530368566513, 0.1907067745923996, 0.09770669043064117, 0.1381024569272995, 0.014742642641067505, 0.1502620428800583, -0.07041686773300171, 0.11175836622714996, -0.1180221438407898, 0.08281587064266205, 0.03198082745075226, 0.12680156528949738, 0.17234738171100616, 0.06736348569393158, -0.21315619349479675, -0.13468945026397705, -0.0393298864364624, -0.01343025267124176, -0.052629902958869934, -0.030423089861869812, -0.17739491164684296, 0.00028477609157562256, -0.10705996304750443, 0.17932607233524323, 0.06453351676464081, 0.0018254220485687256, -0.09142471849918365, 0.12066088616847992, 0.11631400883197784, 0.12398998439311981, 0.016137972474098206, 0.02274996042251587, 0.13720481097698212, 0.128880575299263, -0.018875882029533386, 0.17122115194797516, -0.06994326412677765, -0.19483746588230133, -0.04468369483947754, -0.006005421280860901, 0.05646495521068573, 0.12204183638095856, 0.020788073539733887, 0.028626173734664917, -0.2011728733778, -0.03392690420150757, -0.1692013442516327, 0.15619467198848724, 0.14846275746822357, 0.06724150478839874, 0.012901738286018372, -0.1508079469203949, 0.20378310978412628, -0.15081828832626343, -0.08551983535289764, 0.053200557827949524, -0.17554572224617004, -0.12948599457740784, -0.19272580742835999, -0.017243757843971252, 0.12624339759349823, -0.023296162486076355, 0.16136761009693146, -0.06904192268848419, 0.04591120779514313, 0.04276050627231598, 0.09372179210186005, 0.19619767367839813, -0.17779994010925293, -0.13847796618938446, -0.20562541484832764, -0.19412487745285034, 0.21701158583164215, 0.031269654631614685, -0.01419481635093689, 0.027630403637886047, 0.13944260776042938, -0.1076413094997406, 0.21138976514339447, -0.07814539968967438, -0.20654481649398804, 0.13522686064243317, 0.0968003123998642, 0.10513521730899811, 0.14194555580615997, 0.20586545765399933, -0.045425280928611755, 0.05165763199329376, -0.10329683125019073, -0.17278124392032623, 0.15339823067188263, -0.1324291229248047, 0.18493233621120453]}, "bias": {"shape": [11], "values": [-0.012894287705421448, -0.01481887698173523, 0.07764412462711334, 0.07651732861995697, 0.10105843842029572, 0.21050269901752472, -0.17079296708106995, 0.0387888103723526, 0.2113475650548935, -0.030216127634048462, -0.01244594156742096]}}