{"weight": {"shape": [11, 7, 3], "values": [0.008705094456672668, 0.14353926479816437, 0.06729243695735931, -0.05245004594326019, -0.06033727526664734, 0.15057767927646637, -0.053536608815193176, 0.14645542204380035, 0.14880777895450592, -0.014245674014091492, -0.06581126153469086, 0.18824799358844757, 0.06358195841312408, 0.1870131641626358, -0.15297064185142517, -0.11400870978832245, -0.19229359924793243, -0.06187771260738373, 0.177163228392601, 0.21154887974262238, -0.16060534119606018, 0.17181305587291718, -0.17061705887317657, -0.17804637551307678, 0.15960822999477386, 0.09957720339298248, 0.20124222338199615, 0.009847551584243774, -0.19420476257801056, -0.03967547416687012, 0.08011747896671295, -0.021716833114624023, -0.09757901728153229, -0.20649346709251404, -0.12237265706062317, 0.21381281316280365, -0.08061552047729492, 0.1898788958787918, 0.09999333322048187, -0.18932874500751495, -0.1532270312309265, 0.12228463590145111, -0.1103893369436264, 0.04946480691432953, 0.15033237636089325, 0.09015394747257233, 0.14717324078083038, -0.1445174664258957, 0.17468510568141937, 0.017856642603874207, -0.13338954746723175, -0.19806669652462006, -0.11598134785890579, -0.09132257103919983, 0.14493237435817719, -0.024853423237800598, 0.2023661583662033, -0.15570014715194702, -0.017772957682609558, 0.016754910349845886, 0.030279234051704407, 0.15596775710582733, 0.1674005538225174, 0.18144313991069794, 0.18612582981586456, -0.10056369006633759, -0.10506045073270798, 0.2116709202528, -0.013251766562461853, 0.20610620081424713, 0.06668795645236969, 0.16343937814235687, -0.02423296868801117, -0.134324848651886, 0.02098706364631653, 0.16273514926433563, 0.14322076737880707, -0.059657126665115356, 0.12759236991405487, -0.10231219232082367, 0.14744602143764496, 0.16837145388126373, -0.1278698742389679, -0.13164904713630676, 0.19848574697971344, -0.11716382205486298, -0.057954445481300354, 0.17073030769824982, -0.04361216723918915, -0.11917506903409958, 0.01692749559879303, 0.12507383525371552, -0.1795690953731537, 0.08568082749843597, 0.02726595103740692, 0.05361016094684601, 0.08540628850460052, 0.06420852243900299, -0.10472266376018524, -0.13792970776557922, 0.05837376415729523, -0.06466595828533173, -0.14996623992919922, 0.13927309215068817, 0.20647595822811127, 0.10566996037960052, 0.18318621814250946, 0.1653117686510086, 0.21617533266544342, 0.15314881503582, 0.17269645631313324, 0.18895120918750763, 0.2013719230890274, -0.1674695461988449, 0.21335484087467194, -0.17164066433906555, 0.02995157241821289, -0.010151892900466919, -0.09636525064706802, -0.02917906641960144, 0.17806242406368256, 0.0169924795627594, -0.036361679434776306, 0.01754496991634369, 0.08127047121524811, 0.1821269541978836, -0.1709003448486328, -0.14214271306991577, 0.20899145305156708, -0.06447967886924744, 0.12212516367435455, 0.11837004125118256, 0.011097714304924011, 0.21148531138896942, -0.151772603392601, 0.0906635969877243, -0.07072436809539795, -0.10941851139068604, 0.13474257290363312, -0.0784953385591507, 0.16481103003025055, 0.10325406491756439, 0.021304070949554443, -0.06703366339206696, -0.17781144380569458, 0.13949359953403473, -0.05328698456287384, 0.1320624202489853, -0.06814056634902954, -0.1558736264705658, -0.13894180953502655, -0.13464173674583435, -0.006075635552406311, -0.14324302971363068, -0.12477129697799683, -0.11228364706039429, 0.1657966822385788, 0.14127077162265778, 0.0644591897726059, 0.021323397755622864, -0.12642206251621246, 0.15846051275730133, 0.10697053372859955, -0.11915641278028488, -0.17361706495285034, -0.19127438962459564, 0.21437136828899384, -0.14618758857250214, 0.03147323429584503, 0.07982493937015533, 0.15476669371128082, 0.19175942242145538, -0.00677315890789032, -0.1621711552143097, -0.11979874223470688, -0.11754091829061508, 0.06750975549221039, 0.1961975246667862, -0.022177979350090027, 0.14011631906032562, 0.12992139160633087, 0.21293474733829498, -0.0016867518424987793, 0.1720917969942093, 0.1498805433511734, -0.1637561321258545, 0.003096342086791992, 0.022449657320976257, 0.1760396510362625, -0.19544504582881927, 0.017328128218650818, -0.011517152190208435, -0.18507583439350128, -0.14660033583641052, -0.010517552495002747, 0.0853501409292221, -0.10165344923734665, 0.1552627831697464, 0.12445063889026642, -0.215312197804451, -0.014984920620918274, -0.04526771605014801, -0.135719895362854, 0.00298522412776947, -0.18269814550876617, 0.15909554064273834, -0.10283344984054565, -0.12357573211193085, -0.14889594912528992, 0.18547894060611725, 0.0885915607213974, -0.042023926973342896, -0.1824788749217987, 0.06207944452762604, 0.08806096017360687, 0.06491304934024811, 0.18495096266269684, -0.06969267129898071, -0.0635371059179306, -0.10714343935251236, -0.006254106760025024, -0.02433905005455017, 0.17820389568805695, 0.004987150430679321, 0.052820369601249695, 0.06912820041179657, 0.10196365416049957, -0.2134004384279251, 0.0937805324792862, 0.11202587187290192, -0.013158336281776428]}, "bias": {"shape": [11], "values": [-0.020502224564552307, -0.04994814097881317, -0.19517822563648224, 0.046606793999671936, 0.05192767083644867, -0.18706023693084717, 0.08282767236232758, 0.07342998683452606, 0.048089489340782166, 0.043860360980033875, 0.10573966801166534]}}