{"weight": {"shape": [11, 7, 3], "values": [0.19534794986248016, -0.03211919963359833, -0.13618889451026917, 0.0861036628484726, -0.1918589174747467, -0.16466176509857178, 0.09156693518161774, 0.05535586178302765, 0.010687187314033508, -0.2040531039237976, -0.1808040738105774, -0.20219135284423828, 0.009710818529129028, 0.03955332934856415, -0.14574077725410461, -0.01392914354801178, -0.20901545882225037, 0.021319061517715454, 0.18762128055095673, 0.05135984718799591, -0.02393384277820587, 0.1830180138349533, 0.12893728911876678, 0.03343115746974945, 0.20284433662891388, 0.1513635367155075, 0.0021078884601593018, -0.09042364358901978, 0.1998348981142044, 0.21171985566616058, -0.06564480066299438, -0.15370085835456848, 0.20888350903987885, -0.03181952238082886, 0.07250256836414337, -0.10040578246116638, -0.015559077262878418, 0.2021193653345108, -0.09420128166675568, 0.08211763203144073, 0.09419544041156769, 0.04432617127895355, -0.0552670955657959, -0.057449787855148315, -0.00483548641204834, 0.21315892040729523, 0.14451222121715546, 0.014733925461769104, -0.03998279571533203, -0.21236036717891693, -0.07261916995048523, -0.0032851845026016235, 0.08049972355365753, 0.17874403297901154, 0.06355457007884979, 0.1638326197862625, -0.15683677792549133, -0.20374684035778046, 0.026604369282722473, -0.199156254529953, 0.09354536235332489, -0.023167893290519714, -0.01633031666278839, -0.19954033195972443, 0.006169989705085754, -0.11570724844932556, -0.2072615623474121, 0.06652344763278961, -0.20458164811134338, 0.025924041867256165, 0.16436068713665009, -0.0014691650867462158, -0.13101914525032043, -0.14522022008895874, 0.027708470821380615, -0.18801186978816986, 0.19362501800060272, -0.177146315574646, 0.19131462275981903, -0.16833944618701935, 0.11090026795864105, -0.09103159606456757, -0.09157705307006836, -0.21363219618797302, 0.05810190737247467, -0.1068592369556427, 0.1917329877614975, -0.019366949796676636, 0.18116606771945953, 0.05005030333995819, -0.007132023572921753, -0.09260986745357513, -0.1017691045999527, -0.06475162506103516, -0.05930608510971069, 0.1214272528886795, 0.19413147866725922, -0.20808333158493042, -0.06158137321472168, 0.02622467279434204, 0.1512521356344223, 0.14893604815006256, 0.03787590563297272, 0.1973010152578354, -0.048278361558914185, 0.06987763941287994, -0.0719626247882843, -0.1858557015657425, -0.07799024879932404, -0.16783706843852997, 0.043121978640556335, 0.10187850892543793, 0.12139810621738434, 0.21685074269771576, -0.08403660356998444, 0.028574511408805847, -0.04671241343021393, 0.08282895386219025, 0.010016456246376038, -0.16645434498786926, -0.019375547766685486, -0.0730949342250824, -0.051300689578056335, 0.14379377663135529, 0.0049796998500823975, -0.21811188757419586, 0.006217047572135925, -0.16055479645729065, 0.09136386215686798, -0.0664973109960556, 0.10910911858081818, 0.20591451227664948, 0.14143677055835724, -0.11569134891033173, 0.16573543846607208, 0.07621662318706512, -0.17263874411582947, 0.1340387612581253, 0.007608279585838318, -0.15295419096946716, -0.0887717753648758, -0.08861149847507477, 0.07979108393192291, -0.15094846487045288, 0.20894883573055267, 0.16677246987819672, -0.054282888770103455, 0.16722314059734344, 0.016254156827926636, -0.05799350142478943, -0.06976620852947235, -0.1324637234210968, 0.13397733867168427, 0.21153439581394196, 0.015341877937316895, 0.19261904060840607, -0.05387403070926666, -0.12896302342414856, 0.09302996098995209, 0.027116239070892334, 0.09341110289096832, -0.02956518530845642, 0.16434510052204132, -0.20684976875782013, 0.025310292840003967, -0.014922887086868286, -0.12678563594818115, 0.1462775617837906, -0.20912043750286102, -0.1383119523525238, 0.122553750872612, -0.13667699694633484, 0.19057755172252655, 0.17672328650951385, -0.1315939873456955, 0.13121376931667328, 0.1840869039297104, 0.19022153317928314, 0.19143380224704742, 0.055894747376441956, 0.08813692629337311, 0.16405971348285675, -0.10663232207298279, 0.06519715487957001, -0.10386575013399124, -0.18451270461082458, -0.2132187783718109, 0.19663973152637482, -0.11413969099521637, 0.12459330260753632, -0.07389363646507263, 0.143878772854805, -0.10877712070941925, 0.10809291899204254, -0.10743541270494461, -0.053916171193122864, 0.05724240839481354, -0.09087260067462921, -0.12729692459106445, 0.08780921995639801, -0.09951484203338623, -0.14931324124336243, 0.18678395450115204, -0.10728359967470169, 0.14056532084941864, -0.05644966661930084, -0.06340686976909637, 0.12880100309848785, 0.2143116146326065, 0.17262490093708038, 0.1442968100309372, -0.18398545682430267, -0.017394274473190308, -0.169786736369133, -0.020143166184425354, -0.06932452321052551, -0.13686025142669678, -0.20882773399353027, 0.1904902309179306, 0.05212707817554474, 0.13230402767658234, 0.024650558829307556, -0.14810281991958618, 0.10171298682689667, -0.1692788153886795, 0.06895916163921356, -0.004209786653518677, 0.1083931177854538, 0.17461015284061432, 0.0011362433433532715, 0.21292458474636078]}, "bias": {"shape": [11], "values": [0.1787884682416916, -0.06292551755905151, 0.14041747152805328, -0.21640168130397797, -0.026965096592903137, -0.2118953913450241, 0.033978983759880066, -0.025985032320022583, 0.20265336334705353, 0.16490988433361053, 0.013094931840896606]}}