{"config": {"meta_data": {"model_type": "ConvWaveshaper"}, "norm_mean": 0.10000000149011612, "norm_std": 0.8999999761581421}, "parameters": {"kernel_size": 4, "depth_size": 6, "num_channels": 12}, "state_dict": {"stack.0": {"conv": {"weight": {"shape": [12, 1, 4], "values": [-0.45092082023620605, -0.47531425952911377, 0.07080823183059692, 0.31453317403793335, 0.08977305889129639, 0.3705994486808777, -0.32613587379455566, -0.12544167041778564, 0.341732919216156, -0.4193519949913025, 0.30645567178726196, 0.34791284799575806, 0.3564748764038086, 0.17403030395507812, 0.40416955947875977, 0.3625808358192444, -0.21820807456970215, -0.26643747091293335, -0.16128337383270264, 0.16973453760147095, -0.16503596305847168, 0.38752901554107666, -0.431096613407135, 0.2264271378517151, 0.2327793836593628, 0.013211488723754883, -0.00789099931716919, 0.2768464684486389, 0.026287615299224854, 0.33237844705581665, 0.10806924104690552, 0.06882697343826294, 0.0856407880783081, 0.21877425909042358, -0.42572224140167236, 0.24695712327957153, 0.44347184896469116, 0.12252122163772583, -0.14472967386245728, -0.0621262788772583, -0.42529791593551636, -0.293476939201355, -0.07139402627944946, 0.15724778175354004, 0.4294261932373047, 0.4318593740463257, -0.22866398096084595, 0.1343739628791809]}, "bias": {"shape": [12], "values": [-0.294353723526001, 0.005467534065246582, -0.32537752389907837, -0.19502735137939453, -0.01884514093399048, -0.09024566411972046, -0.40880441665649414, -0.18728232383728027, 0.04606807231903076, -0.08770209550857544, 0.49566179513931274, 0.3225434422492981]}}, "floor": {"shape": [1], "values": [0.0]}, "ceiling": {"shape": [1], "values": [0.0]}, "coef_softsign": {"shape": [1], "values": [-1.8657509088516235]}, "coef_tanh": {"shape": [1], "values": [0.3993777930736542]}}, "stack.1": {"conv": {"weight": {"shape": [12, 12, 4], "values": [-0.02138642966747284, -0.07013679295778275, 0.13353317975997925, 0.11546352505683899, -0.009061440825462341, 0.07759030163288116, -0.08953474462032318, -0.11053378880023956, -0.12254446744918823, -0.0945635586977005, -0.009147495031356812, 0.055915653705596924, 0.06969141960144043, 0.06175769865512848, -0.0003020167350769043, -0.12064305692911148, -0.12381698191165924, 0.07622011005878448, -0.04386097192764282, -0.08311328291893005, -0.14107465744018555, -0.06153339892625809, -0.11255831271409988, -0.00859174132347107, -0.12785407900810242, -0.07070326060056686, 0.0465703010559082, 0.03185674548149109, -0.07117734849452972, 0.01873895525932312, 0.009191125631332397, -0.048068806529045105, -0.018560707569122314, -0.011551663279533386, -0.036252185702323914, 0.09997513890266418, -0.14033344388008118, 0.0849444568157196, 0.10429808497428894, 0.037674546241760254, -0.08843030780553818, -0.14115969836711884, -0.04650987684726715, 0.03472638130187988, 0.05660836398601532, 0.1053660660982132, 0.014638692140579224, 0.13809657096862793, -0.019076168537139893, 0.0660121738910675, -0.14221788942813873, -0.14184501767158508, -0.10096979886293411, 0.08890385925769806, 0.13487929105758667, 0.006017908453941345, 0.08301150798797607, -0.03443992882966995, 0.045510873198509216, 0.04799376428127289, 0.0006623566150665283, -0.1428259313106537, 0.1003723293542862, -0.12715092301368713, -0.02751471847295761, 0.05073447525501251, -0.1298549324274063, 0.08787733316421509, 0.09442496299743652, -0.12209303677082062, 0.1292201578617096, 0.05785949528217316, 0.0814235657453537, 0.1317352056503296, -0.13558027148246765, -0.018627867102622986, 0.0935632586479187, -0.07590299844741821, 0.11177143454551697, 0.11337950825691223, -0.04658865928649902, 0.022637799382209778, -0.05409635603427887, -0.012087643146514893, -0.024866826832294464, -0.13229866325855255, -0.12983375787734985, 0.0413079559803009, -0.13943181931972504, 0.12424808740615845, -0.04173978418111801, -0.1105053499341011, 0.0232296884059906, -0.06864765286445618, -0.061847880482673645, -0.03753626346588135, 0.11878955364227295, -0.11367437243461609, -0.00827006995677948, -0.13449278473854065, 0.024550139904022217, -0.1399315893650055, -0.031176872551441193, 0.07796056568622589, 0.1073232889175415, -0.059378162026405334, 0.03733718395233154, -0.1345411092042923, 0.01886908710002899, -0.10176050662994385, -0.0018282979726791382, 0.08785229921340942, 0.011339589953422546, 0.09056289494037628, 0.12658578157424927, -0.04815065860748291, -0.09746240079402924, 0.1350909173488617, 0.1235959529876709, 0.07138974964618683, 0.09134320914745331, -0.018728181719779968, -0.09005287289619446, -0.09418238699436188, -0.04771541804075241, -0.11461803317070007, -0.11135612428188324, -0.06304989755153656, -0.0343475267291069, -0.12127616256475449, -0.0247662216424942, 0.07339192926883698, -0.04732427000999451, 0.1408800184726715, -0.05207312852144241, -0.13642145693302155, -0.08277210593223572, 0.056936368346214294, -0.11179347336292267, 0.07406038045883179, 0.04865080118179321, -0.05014308542013168, 0.13521850109100342, -0.01242944598197937, 0.0688381940126419, -0.11072760820388794, -0.03723348677158356, -0.010988563299179077, 0.0829748660326004, 0.005185380578041077, -0.04805736243724823, 0.06979207694530487, -0.13026906549930573, -0.00785703957080841, -0.0907914862036705, -0.020735546946525574, 0.03946073353290558, -0.029561229050159454, 0.10085092484951019, -0.09821140766143799, -0.002708345651626587, 0.075908362865448, 0.10593801736831665, -0.08643579483032227, 0.003635227680206299, 0.003673836588859558, 0.018599525094032288, 0.03243233263492584, 0.005522742867469788, -0.11488381028175354, 0.07615506649017334, 0.05210277438163757, -0.05805136263370514, -0.015089049935340881, -0.1187422126531601, 0.11911305785179138, -0.1360451877117157, -0.0647844448685646, -0.010085150599479675, 0.0794975757598877, 0.02191309630870819, -0.09612312912940979, -0.03332063555717468, 0.11974084377288818, 0.08117291331291199, -0.08130259811878204, -0.10132341086864471, 0.039413973689079285, 0.11127293109893799, -0.09074365347623825, -0.09566506743431091, 0.02061764895915985, 0.04213504493236542, -0.06472845375537872, -0.09599946439266205, -0.10081546008586884, -0.08514359593391418, -0.10362634062767029, -0.02945771813392639, -0.04352334886789322, 0.10448804497718811, 0.05723102390766144, 0.07934495806694031, -0.10003339499235153, 0.059834957122802734, -0.05049967020750046, -0.09882698953151703, -0.08958683907985687, 0.1322571337223053, 0.0873124748468399, 0.0002269446849822998, -0.13485869765281677, -0.12582021951675415, 0.016258880496025085, -0.12714935839176178, 0.05843360722064972, -0.0451030433177948, -0.05592916160821915, 0.08567370474338531, -0.10856664180755615, -0.08167623728513718, -0.06461461633443832, -0.06322119385004044, -0.025765761733055115, -0.09470953047275543, -0.10400684177875519, -0.1308601051568985, 0.13890454173088074, 0.12942612171173096, 0.11382868885993958, 0.11882886290550232, 0.0019614994525909424, 0.04480268061161041, 0.1298162043094635, -0.08092719316482544, -0.09311706572771072, 0.04987432062625885, 0.10450445115566254, -0.09064820408821106, 0.10892155766487122, 0.06613555550575256, 0.07808813452720642, 0.0074789077043533325, 0.12994873523712158, 0.11073178052902222, 0.11819946765899658, -0.0682196244597435, -0.11572335660457611, -0.08470429480075836, -0.06028228998184204, 0.035550057888031006, 0.10688656568527222, -0.09873069822788239, -0.10526406764984131, -0.08326704800128937, -0.04016923904418945, 0.009125202894210815, 0.02840927243232727, -0.13464443385601044, -0.08333700895309448, 0.08919723331928253, 0.0016326308250427246, -0.0658935159444809, 0.08757680654525757, -0.11533746868371964, 0.10092060267925262, -0.06259337812662125, -0.10294382274150848, -0.0339779332280159, 0.018477261066436768, -0.13372695446014404, 0.07426725327968597, 0.06696279346942902, -0.036316074430942535, 0.10213100910186768, 0.0874662697315216, -0.13540570437908173, 0.038272321224212646, -0.012530937790870667, 0.07871052622795105, 0.11019521951675415, -0.1166982501745224, -0.033305443823337555, -0.12357650697231293, -0.08989383280277252, 0.09740746021270752, -0.060291893780231476, -0.0259234756231308, 0.06721684336662292, -0.04823186993598938, 0.02149645984172821, -0.0011414587497711182, 0.12819403409957886, 0.018637508153915405, 0.006743505597114563, 0.03640322387218475, -0.12793214619159698, 0.03467582166194916, 0.0560307651758194, -0.10505180805921555, 0.09794655442237854, 0.12153437733650208, -0.04912393540143967, -0.12379376590251923, -0.11375300586223602, -0.04514685273170471, -0.09762048721313477, 0.10569337010383606, -0.1257965862751007, 0.13794946670532227, -0.10531291365623474, -0.057404763996601105, -0.06169706583023071, 0.013027548789978027, -0.05703413486480713, -0.061329230666160583, 0.02053983509540558, -0.10979399085044861, 0.10231874883174896, 0.06506328284740448, -0.09949708729982376, -0.06028006970882416, -0.13405060768127441, 0.04029934108257294, -0.09034267067909241, -0.014288172125816345, -0.10636645555496216, -0.048948049545288086, -0.12021410465240479, -0.09756797552108765, 0.10607737302780151, 0.07720085978507996, 0.1442095935344696, 0.0725247710943222, -0.12496893107891083, 0.020722076296806335, 0.05205662548542023, 0.06670144200325012, -0.09793151915073395, -0.10336585342884064, -0.07174414396286011, -0.06436467170715332, 0.07887375354766846, 0.0992562472820282, 0.06521861255168915, -0.016654551029205322, -0.009999692440032959, 0.04800714552402496, 0.11101502180099487, 0.020227864384651184, -0.07957201451063156, 0.0190829336643219, -0.13568034768104553, -0.08095888793468475, 0.10354608297348022, 0.1368318796157837, 0.1414046287536621, -0.12964507937431335, 0.030710071325302124, -0.1155848279595375, 0.0977330356836319, -0.10360883176326752, 0.02257879078388214, -0.0482829213142395, -0.11903314292430878, -0.07647231966257095, -0.05262477695941925, 0.0359388142824173, -0.12919190526008606, 0.12008953094482422, 0.14327722787857056, -0.07916348427534103, -0.13361376523971558, 0.014196455478668213, 0.12773185968399048, 0.01414191722869873, 0.13101914525032043, 0.08764557540416718, 0.0435478538274765, 0.02652929723262787, 0.1086333692073822, -0.11892563849687576, -0.09279874712228775, 0.1410873532295227, 0.0026886314153671265, 0.08266985416412354, 0.11643534898757935, 0.13662341237068176, 0.12008696794509888, 0.04987584054470062, 0.020731180906295776, 0.0846356749534607, -0.09464944899082184, -0.07535445690155029, 0.07058952748775482, 0.1260797083377838, 0.014838382601737976, 0.025245249271392822, 0.12776705622673035, -0.10517041385173798, 0.14046913385391235, -0.03701954334974289, 0.0666896402835846, 0.05447857081890106, 0.13941499590873718, 0.024411886930465698, -0.05551448464393616, 0.013605251908302307, -0.02406926453113556, -0.08595867455005646, -0.1344846934080124, -0.07122351229190826, 0.013718724250793457, 0.09228980541229248, -0.040382422506809235, 0.10182945430278778, 0.11594399809837341, 0.06633378565311432, -0.07451337575912476, -0.11999129503965378, -0.09475520253181458, 0.06281419098377228, -0.10394889116287231, 0.04357852041721344, -0.09934361279010773, 0.055056437849998474, 0.11515364050865173, -0.07097705453634262, 0.08438493311405182, 0.07123236358165741, -0.06337909400463104, -0.08690106868743896, -0.012628033757209778, -0.04509337246417999, 0.09842397272586823, -0.031368985772132874, 0.1429542899131775, -0.08889450132846832, -0.041786566376686096, 0.13895562291145325, 0.011398747563362122, -0.1360017955303192, 0.14108407497406006, -0.1387297362089157, 0.09626051783561707, 0.004972919821739197, 0.038204342126846313, -0.10087323188781738, 0.0898658037185669, -0.005817532539367676, -0.10583655536174774, -0.01813305914402008, 0.07619839906692505, -0.12320013344287872, -0.058443836867809296, -0.05719589442014694, -0.03699453920125961, 0.12328031659126282, 0.06486687064170837, -0.03289061039686203, 0.09527544677257538, 0.11169388890266418, 0.023038223385810852, 0.03675070405006409, -0.13829855620861053, -0.06290660798549652, -0.12212015688419342, -0.13035476207733154, 0.01639525592327118, 0.037046536803245544, -0.03724774718284607, -0.05907242000102997, -0.031295716762542725, 0.06566956639289856, 0.1317359209060669, -0.11001717299222946, 0.10852524638175964, 0.12064114212989807, 0.019585400819778442, -0.0993473082780838, 0.03153538703918457, 0.04600915312767029, 0.054589495062828064, -0.005216866731643677, 0.13170519471168518, 0.022218525409698486, -0.06640060245990753, 0.1266930103302002, 0.11359021067619324, -0.03254108130931854, 0.031131133437156677, -0.13395236432552338, -0.04269404709339142, 0.09410911798477173, -0.0990990698337555, -0.021794669330120087, 0.023276880383491516, -0.09114882349967957, -0.10803310573101044, 0.10910794138908386, -0.032784052193164825, 0.035159528255462646, -0.04400978982448578, 0.046617165207862854, -0.012435466051101685, 0.04627831280231476, -0.10840336978435516, -0.04178214818239212, 0.10626968741416931, -0.050677791237831116, 0.00872485339641571, 0.0031138211488723755, -0.04427561163902283, -0.11609859764575958, 0.11178439855575562, 0.07978785037994385, -0.0210583359003067, -0.009252414107322693, 0.13500046730041504, 0.0007176101207733154, -0.03864593803882599, 0.1289770007133484, 0.05654038488864899, 0.0355084091424942, 0.08678674697875977, 0.05028139054775238, 0.09797586500644684, 0.12385749816894531, 0.00206679105758667, -0.013282373547554016, 0.09181375801563263, 0.05823636054992676, -0.07770220190286636, -0.1165505051612854, -0.06126582622528076, -0.11245846748352051, 0.1029021143913269, 0.13997843861579895, 0.13268321752548218, 0.10270074009895325, -0.10519903898239136, 0.007413968443870544, 0.008342012763023376, 0.013568192720413208, 0.03621743619441986, 0.12382549047470093, 0.08644197881221771, -0.056092724204063416, -0.10348334163427353, 0.07558809220790863, -0.13380521535873413, 0.10462488234043121, -0.003125011920928955, 0.08087155222892761, -0.026580482721328735, 0.07690642774105072, 0.11894157528877258, -0.04486771672964096, 0.13471373915672302, -0.10696713626384735, 0.00919295847415924, 0.13132885098457336, 0.03575749695301056, 0.0037926286458969116, -0.06230618804693222, -0.0631071999669075, -0.14391902089118958, -0.026636697351932526, 0.0945887565612793, 0.09382091462612152, 0.08399856090545654, -0.1270368993282318, 0.09629286825656891, 0.04415960609912872, -0.10588663816452026, 0.010437533259391785]}, "bias": {"shape": [12], "values": [-0.07105530798435211, 0.12547340989112854, 0.03476963937282562, -0.10493378341197968, -0.094305619597435, 0.030967622995376587, -0.04124055802822113, -0.09083720296621323, 0.14244413375854492, -0.08871378004550934, -0.04325328767299652, 0.029322996735572815]}}, "floor": {"shape": [1], "values": [0.0]}, "ceiling": {"shape": [1], "values": [0.0]}, "coef_softsign": {"shape": [1], "values": [-0.3633979856967926]}, "coef_tanh": {"shape": [1], "values": [1.101427674293518]}}, "stack.2": {"conv": {"weight": {"shape": [12, 12, 4], "values": [-0.03212284296751022, -0.1340710073709488, -0.1155601367354393, 0.04738488793373108, -0.051727280020713806, -0.04770682007074356, 0.09753306210041046, 0.06949886679649353, -0.007073357701301575, 0.136896550655365, -0.13348664343357086, 0.07374627888202667, 0.013086184859275818, -0.03479771316051483, -0.0047120749950408936, -0.01083017885684967, 0.03591714799404144, 0.060098037123680115, 0.0026860833168029785, 8.973479270935059e-05, -0.10476788878440857, 0.0768357664346695, 0.07526527345180511, -0.07500525563955307, 0.017260238528251648, 0.013430297374725342, -0.11476483941078186, -0.029330335557460785, -0.01564428210258484, 0.11126074194908142, 0.0076469480991363525, 0.08148156106472015, 0.13999933004379272, -0.02910185605287552, 0.06939734518527985, -0.08411331474781036, -0.1434962898492813, 0.028413772583007812, -0.1182110384106636, -0.07953695207834244, -0.025526851415634155, 0.014312848448753357, 0.07258197665214539, -0.027523599565029144, 0.1168580949306488, 0.028194382786750793, 0.07901279628276825, 0.12311205267906189, 0.07355882227420807, -0.09008650481700897, -0.034042634069919586, -0.09013275802135468, 0.05582708120346069, -0.10723269730806351, -0.051047369837760925, 0.07059594988822937, 0.013146191835403442, 0.06755389273166656, 0.12871545553207397, -0.07594410330057144, -0.1292995661497116, -0.11235705018043518, 0.05799216032028198, -0.0977584719657898, 0.057498008012771606, -0.08187173306941986, -0.14407528936862946, 0.04699504375457764, 0.11264050006866455, 0.03559170663356781, -0.11613507568836212, 0.1294821798801422, 0.09705552458763123, -0.038780078291893005, 0.01017121970653534, -0.06452003121376038, -0.05400308221578598, -0.11437518894672394, -0.07198474556207657, -0.12592832744121552, -0.01673854887485504, -0.003992795944213867, 0.14338546991348267, -0.10106649994850159, 0.13328132033348083, 0.07600012421607971, -0.1329321414232254, 0.10179142653942108, -0.1298413872718811, -0.03846579045057297, 0.10494667291641235, 0.08969096839427948, 0.12479913234710693, 0.0058153122663497925, 0.06492139399051666, -0.05524211376905441, 0.11111369729042053, -0.0011971741914749146, 0.00827033817768097, -0.01708941161632538, -0.10147785395383835, -0.07804007828235626, -0.025090046226978302, 0.07195748388767242, -0.06992968171834946, -0.047463707625865936, 0.10769116878509521, -0.12099668383598328, 0.02432343363761902, -0.019142210483551025, -0.06669885665178299, 0.11316251754760742, -0.01231248676776886, -0.1225733533501625, -0.024939991533756256, 0.06267404556274414, -0.02645721286535263, 0.08653834462165833, 0.08622927963733673, -0.04568438231945038, -0.12783585488796234, 0.046539247035980225, 0.04629659652709961, -0.0034418106079101562, -0.007788345217704773, -0.12837238609790802, -0.02701735496520996, -0.08932805061340332, -0.05692370980978012, -0.07063082605600357, -0.060403406620025635, -0.06585913151502609, 0.12258991599082947, -0.048782408237457275, -0.061924465000629425, 0.12244722247123718, 0.1437896192073822, 0.12598270177841187, 0.06107062101364136, 0.034295499324798584, 0.016458407044410706, -0.07342982292175293, -0.11609955877065659, 0.04204726219177246, 0.02805943787097931, -0.08551454544067383, 0.013772636651992798, -0.0678689107298851, 0.009142741560935974, 0.08045770227909088, 0.09364050626754761, -0.0009571164846420288, -0.08178503066301346, -0.051388584077358246, -0.08786442875862122, -0.012204587459564209, 0.08917425572872162, -0.10707233846187592, -0.12989631295204163, -0.0776410847902298, 0.07895113527774811, 0.06619404256343842, -0.00918993353843689, 0.05180501937866211, 0.042967408895492554, -0.07868050038814545, -0.11596280336380005, -0.13572201132774353, 0.035258471965789795, 0.006470844149589539, -0.00781257450580597, -0.09457174688577652, 0.1133776605129242, -0.0015702545642852783, -0.0785064622759819, -0.10729260742664337, 0.058975011110305786, -0.0081397145986557, -0.06904377788305283, 0.06565231084823608, 0.01908223330974579, 0.060275182127952576, 0.03705509006977081, 0.10563936829566956, -0.0741075947880745, 0.020243212580680847, 0.05476725101470947, -0.020200632512569427, 0.11366069316864014, -0.0261370912194252, 0.11108851432800293, 0.013895735144615173, -0.13132163882255554, 0.1405770480632782, 0.13197502493858337, -0.0401349812746048, 0.05540826916694641, -0.13496753573417664, -0.07129943370819092, 0.1383996307849884, 0.036461278796195984, 0.020181909203529358, -0.02243196964263916, -0.1158413216471672, 0.06526915729045868, -0.12567372620105743, -0.06751633435487747, -0.06651851534843445, 0.11071354150772095, 0.12637972831726074, -0.09824459999799728, -0.14201925694942474, -0.06871243566274643, -0.1355924755334854, 0.00856347382068634, -0.09606379270553589, -0.11938928067684174, 0.08549661934375763, 0.1252184510231018, 0.10870730876922607, -0.13821735978126526, 0.11293745040893555, 0.10365813970565796, 0.06266839802265167, -0.14289066195487976, -0.057043202221393585, 0.027201712131500244, 0.05727483332157135, 0.08131718635559082, -0.134214386343956, -0.10927395522594452, -0.10523806512355804, 0.017694011330604553, 0.04876689612865448, 0.05760398507118225, 0.14291104674339294, -0.06657299399375916, -0.10723954439163208, -0.07655102014541626, -0.05781007558107376, 0.10596570372581482, 0.07280027866363525, -0.1026490181684494, 0.08572065830230713, -0.08233784139156342, 0.08351129293441772, 0.009885787963867188, -0.13376609981060028, 0.10428676009178162, -0.08083567023277283, -0.13871465623378754, -0.02371537685394287, -0.08939987421035767, 0.013937428593635559, 0.10269701480865479, 0.06077463924884796, 0.07459871470928192, 0.05085150897502899, -0.053648076951503754, 0.029341012239456177, -0.09540155529975891, 0.04909221827983856, -0.1426856964826584, -0.005622923374176025, 0.030592232942581177, 0.06276725232601166, -0.03635203838348389, 0.04817432165145874, 0.017410412430763245, 0.05320720374584198, 0.13151082396507263, 0.11999288201332092, 0.1138937771320343, 0.07550835609436035, -0.0061112940311431885, -0.04262472689151764, 0.11767750978469849, -0.05507083982229233, 0.13103368878364563, -0.12798795104026794, -0.1403696984052658, 0.01843401789665222, -0.01110483705997467, 0.02019539475440979, 0.010281383991241455, -0.1366211473941803, -0.0013153403997421265, -0.0052399784326553345, 0.1058925986289978, -0.014117315411567688, -0.13525089621543884, 0.12337782979011536, 0.09382304549217224, 0.10671266913414001, 0.10765853524208069, -0.009341806173324585, -0.012732639908790588, 0.022096455097198486, 0.07729873061180115, 0.0606856644153595, -0.11775705218315125, 0.004095196723937988, 0.08479127287864685, -0.12457249313592911, 0.012479797005653381, -0.06039850413799286, 0.1347143054008484, -0.13498945534229279, 0.14258190989494324, -0.07771964371204376, 0.12938132882118225, -0.062498658895492554, -0.07553324848413467, 0.11137017607688904, 0.0007831305265426636, 0.07178093492984772, -0.12709052860736847, 0.06679823994636536, 0.06809432804584503, 0.04488515853881836, -0.13292890787124634, 0.0008209496736526489, 0.054139211773872375, 0.1162157654762268, 0.12291222810745239, 0.05972905457019806, 0.10714882612228394, 0.030614465475082397, 0.032823070883750916, 0.1268373727798462, 0.06150265038013458, 0.04549656808376312, 0.13606053590774536, -0.05555499345064163, 0.009031400084495544, -0.030539274215698242, 0.1275939643383026, -0.0007976740598678589, 0.04416076838970184, 0.0941326916217804, 0.055404722690582275, 0.018734604120254517, 0.004000529646873474, 0.1215846836566925, 0.03332670032978058, -0.003769993782043457, 0.025953516364097595, -0.09889471530914307, -0.14090374112129211, 0.13093850016593933, 0.037662699818611145, 0.06302326917648315, 0.08617620170116425, 0.03985004127025604, 0.10560707747936249, -0.0498892217874527, 0.1171426773071289, -0.00011055171489715576, -0.13718163967132568, 2.562999725341797e-06, 0.08742515742778778, 0.016356050968170166, -0.022486120462417603, -0.1430744230747223, -0.11477010697126389, -0.00021164119243621826, 0.1383472979068756, 0.1416817307472229, -0.10183404386043549, -0.08148006349802017, -0.13446709513664246, -0.042382679879665375, 0.07660974562168121, -0.1038188487291336, -0.03370068967342377, 0.11339694261550903, -0.12409462034702301, -0.1321437805891037, 0.06894905865192413, 0.13539376854896545, 0.14161577820777893, 0.02695898711681366, -0.009720519185066223, 0.09031490981578827, -0.00012408196926116943, 0.005053594708442688, -0.07290834933519363, 0.08979927003383636, -0.133207768201828, 0.06060975790023804, -0.12594418227672577, 0.07057465612888336, 0.009390145540237427, 0.0005015432834625244, 0.12285968661308289, -0.055364467203617096, 0.026603877544403076, 0.05091136693954468, -0.03754199296236038, -0.03867357224225998, 0.08116191625595093, 0.11322873830795288, -0.12924394011497498, -0.09498822689056396, -0.0699031874537468, 0.14185991883277893, -0.1233445405960083, -0.04474298655986786, 0.013774216175079346, 0.11043375730514526, 0.07018692791461945, -0.04998002201318741, -0.036620356142520905, -0.027852311730384827, 0.1108843982219696, -0.036053366959095, 0.08721423149108887, 0.08013162016868591, -0.09823265671730042, 0.058830782771110535, 0.03262534737586975, 0.10180079936981201, 0.050559401512145996, -0.04492364823818207, 0.04125608503818512, 0.11660346388816833, -0.11337566375732422, 0.04370619356632233, -0.14030461013317108, 0.10592612624168396, -0.08035414665937424, 0.07916988432407379, 0.031026408076286316, -0.13648764789104462, -0.10358177870512009, 0.008872747421264648, -2.7567148208618164e-05, 0.06117260456085205, -0.03455100953578949, -0.05490471422672272, -0.02934308350086212, -0.025683395564556122, -0.09625217318534851, 0.06734147667884827, -0.1415865570306778, 0.12270209193229675, -0.10789351165294647, 0.005801945924758911, 0.04008106887340546, -0.10833602398633957, 0.008015304803848267, 0.0005735009908676147, 0.07480241358280182, 0.035437822341918945, -0.008485481142997742, 0.026376858353614807, -0.04497189819812775, 0.0952485203742981, -0.08032376319169998, -0.010009586811065674, -0.12359028309583664, -0.011263847351074219, -0.05664075165987015, -0.05125145614147186, -0.015915200114250183, -0.11108440160751343, -0.12964209914207458, -0.10498957335948944, -0.08527355641126633, 0.14099618792533875, 0.1264025866985321, 0.010713532567024231, 0.04984675347805023, 0.055266037583351135, -0.0945739820599556, -0.03409705311059952, 0.10368740558624268, -0.1386696696281433, -0.07394993305206299, -0.016657501459121704, 0.11518442630767822, 0.09949269890785217, -0.14039503037929535, 0.05869114398956299, 0.04639279842376709, 0.11996486783027649, 0.016788139939308167, 0.14251825213432312, 0.015362575650215149, 0.017590448260307312, 0.07451485097408295, 0.10414807498455048, -0.03845534473657608, -0.04956154525279999, -0.04027586430311203, -0.023956991732120514, -0.08486577868461609, -0.07952992618083954, -0.07830590009689331, -0.08566785603761673, 0.1011076420545578, 0.056174054741859436, -0.03322013467550278, 0.10252894461154938, 0.05374293029308319, 0.07777667045593262, 0.07445397973060608, -0.06192629039287567, -0.0946778953075409, 0.004743903875350952, -0.024051830172538757, -0.13363869488239288, -0.016119137406349182, -0.05075708031654358, -0.04408103972673416, -0.07315598428249359, 0.015802860260009766, 0.11346933245658875, 0.09800197184085846, -0.03893417865037918, -0.13673092424869537, 0.0034013986587524414, -0.05460341274738312, -0.12206375598907471, -0.041691794991493225, -0.03951018303632736, 0.0020432472229003906, 0.13253754377365112, 0.05534602701663971, -0.08798733353614807, 0.041249945759773254, 0.06510721147060394, 0.12087506055831909, -0.09444868564605713, -0.13449963927268982, -0.04724942147731781, -0.0718018040060997, -0.06598200649023056, 0.13664525747299194, -0.08100239932537079, -0.05535746365785599, -0.13359063863754272, -0.019664771854877472, -0.10917366296052933, -0.052514299750328064, 0.1361466646194458, -0.05651285499334335, 0.10602700710296631, -0.11383426934480667, -0.14066661894321442, 0.14148902893066406, 0.04378731548786163, 0.02400575578212738, -0.07271305471658707, 0.06602111458778381, -0.01576562225818634, -0.0031049251556396484, 0.09372672438621521, -0.07686175405979156, 0.07816995680332184, 0.06160879135131836, -0.14326994121074677, -0.09098634868860245, 0.01808398962020874, 0.01327158510684967, -0.07631710171699524, -0.08216916024684906, -0.03317797929048538, 0.03822214901447296, 0.09650680422782898, -0.0006593018770217896, -0.12214505672454834, -0.13188748061656952, 0.12429067492485046, -0.09862185269594193, -0.01579703390598297]}, "bias": {"shape": [12], "values": [0.13012996315956116, -0.09332233667373657, -0.015642628073692322, -0.034598276019096375, -0.08859963715076447, 0.11311614513397217, -0.08030948042869568, -0.13247157633304596, 0.07687334716320038, -0.012478232383728027, 0.06255756318569183, -0.056368350982666016]}}, "floor": {"shape": [1], "values": [0.0]}, "ceiling": {"shape": [1], "values": [0.0]}, "coef_softsign": {"shape": [1], "values": [-0.9643225073814392]}, "coef_tanh": {"shape": [1], "values": [-0.9588634967803955]}}, "stack.3": {"conv": {"weight": {"shape": [12, 12, 4], "values": [0.1149560809135437, 0.047099679708480835, 0.05472387373447418, -0.07838659733533859, 0.12180107831954956, -0.10326600819826126, 0.022642314434051514, 0.02724592387676239, 0.027717038989067078, -0.07952997833490372, -0.12253624200820923, -0.09872293472290039, 0.01457330584526062, 0.1284843385219574, 0.11819186806678772, -0.058975376188755035, -0.12921640276908875, -0.006623685359954834, 0.11036562919616699, -0.1384887546300888, -0.12545929849147797, 0.005503982305526733, 0.062082141637802124, -0.13617433607578278, 0.09322415292263031, -0.14062368869781494, 0.0691625326871872, -0.00964123010635376, 0.12497305870056152, 0.04817517101764679, -0.044324733316898346, -0.1024157702922821, 0.13106930255889893, 0.0811954140663147, -0.08277837187051773, -0.13785028457641602, 0.0784827470779419, -0.030574120581150055, 0.08464030921459198, 0.0843944251537323, -0.13377757370471954, -0.11556094884872437, 0.03070823848247528, 0.13368037343025208, 0.023193612694740295, 0.08001932501792908, -0.04659613221883774, -0.014452546834945679, 0.041391968727111816, -0.0719374269247055, -0.0010507702827453613, -0.09516075253486633, -0.10196232795715332, -0.12453593313694, -0.10754311829805374, -0.06237231194972992, -0.10528554022312164, 0.01934915781021118, 0.08551174402236938, 0.14138838648796082, -0.08124902099370956, 0.14178535342216492, 0.07131311297416687, 0.12004354596138, -0.0936891958117485, -0.010526463389396667, -0.04971623420715332, 0.025639519095420837, 0.13037067651748657, -0.10421702265739441, 0.11959531903266907, -0.0560995414853096, 0.1034015566110611, -0.04732581973075867, -0.014691323041915894, 0.039794355630874634, 0.10070809721946716, 0.13758781552314758, -0.1433078497648239, 0.030408143997192383, 0.01769202947616577, -0.035942040383815765, -0.06093122810125351, 0.1388956904411316, 0.005237981677055359, -0.006506577134132385, 0.09888805449008942, 0.048090606927871704, -0.12895072996616364, 0.1032622754573822, -0.14404964447021484, -0.057229720056056976, -0.051155976951122284, 0.058395788073539734, -0.05612996220588684, 0.0957946926355362, -0.010986536741256714, -0.10835814476013184, 0.12350913882255554, 0.08436894416809082, -0.026401430368423462, -0.06249596178531647, 0.03295831382274628, -0.07811272889375687, 0.05664995312690735, 0.027848750352859497, -0.021269425749778748, -0.01660744845867157, -0.06408913433551788, -0.10879623889923096, -0.0024886727333068848, -0.03980463743209839, 0.024938806891441345, 0.123267263174057, -0.14391633868217468, -0.010963469743728638, -0.06168925762176514, 0.10231305658817291, -0.13734516501426697, 0.13174089789390564, -0.06843426078557968, -0.09571394324302673, -0.09701128304004669, 0.12722095847129822, -0.12354570627212524, 0.12099853157997131, 0.0656428337097168, 0.05517353117465973, -0.010495439171791077, 0.13169041275978088, -0.09411676228046417, 0.06957897543907166, -0.06551084667444229, -0.0676545649766922, 0.04449974000453949, 0.08358243107795715, -0.07931503653526306, -0.08118945360183716, -0.03014383465051651, 0.12496045231819153, 0.02253587543964386, 0.07546931505203247, 0.09988394379615784, -0.06599337607622147, -0.09515683352947235, -0.026579245924949646, -9.82433557510376e-05, -0.11088812351226807, 0.04856008291244507, -0.023122496902942657, 0.010539218783378601, -0.14420048892498016, -0.1295846551656723, 0.09964005649089813, -0.10099054872989655, 0.14416778087615967, -0.011343076825141907, 0.09401820600032806, 0.08655945956707001, -0.14055180549621582, -0.13182435929775238, 0.1151798665523529, 0.13822153210639954, -0.042596057057380676, -0.12268517911434174, 0.07194982469081879, 0.13956987857818604, 0.05453944206237793, 0.016587600111961365, -0.06986603885889053, 0.12617704272270203, -0.02349504828453064, -0.019749119877815247, 0.035348787903785706, -0.09250214695930481, -0.09998470544815063, -0.030653059482574463, -0.08128129690885544, 0.04287385940551758, 0.015772178769111633, -0.02292805165052414, -0.13715051114559174, 0.12208011746406555, -0.011012852191925049, 0.08744141459465027, -0.014427348971366882, 0.11691159009933472, 0.024757176637649536, -0.07271238416433334, -0.06836355477571487, 0.04661019146442413, -0.10546238720417023, -0.05244801938533783, 0.04963991045951843, -0.09953993558883667, 0.006798848509788513, -0.023964405059814453, 0.1059350073337555, 0.10539361834526062, 0.1440713107585907, -0.04381445795297623, -0.06503085047006607, 0.021667972207069397, 0.10151943564414978, -0.07997383922338486, -0.021241597831249237, 0.11062628030776978, -0.06632065773010254, 0.05944155156612396, -0.04078427702188492, -0.0033547133207321167, 0.06609967350959778, -0.03480048477649689, 0.10007494688034058, 0.012668415904045105, -0.03447526693344116, 0.11844563484191895, -0.09684525430202484, -0.01669102907180786, 0.09301692247390747, 0.03561890125274658, 0.1370755136013031, 0.10807466506958008, 0.01981721818447113, -0.09358704090118408, -0.0035354048013687134, -0.012296304106712341, 0.006246805191040039, 0.06223832070827484, -0.10329961031675339, -0.022565647959709167, -0.13533246517181396, 0.12470561265945435, 0.02529333531856537, -0.01403588056564331, -0.10751189291477203, 0.051383063197135925, -0.027407728135585785, 0.0883045345544815, -0.10757574439048767, 0.09301188588142395, 0.09048579633235931, -0.1394050568342209, 0.013953611254692078, -0.07341150939464569, 0.03275740146636963, 0.030667826533317566, 0.07094772160053253, 0.1390768587589264, -0.0037861019372940063, 0.0911693423986435, 0.06823453307151794, -0.0287240669131279, -0.022924885153770447, 0.03187409043312073, -0.12646381556987762, 0.13430368900299072, 0.11882808804512024, 0.0666256844997406, -0.1053609549999237, 0.11071905493736267, -0.10587609559297562, 0.03067108988761902, -0.03507237881422043, 0.03036099672317505, 0.07845708727836609, 0.03161489963531494, -0.12303892523050308, 0.11868065595626831, -0.05211879312992096, 0.09153507649898529, -0.13402265310287476, -0.08089472353458405, -0.14415346086025238, -0.032780371606349945, -0.041267454624176025, -0.024559304118156433, -0.0902072936296463, 0.13906222581863403, -0.08473163843154907, -0.07743149250745773, -0.08728969097137451, -0.0689491406083107, 0.01718461513519287, 0.0837259292602539, 0.029270723462104797, 0.08509880304336548, 0.05601394176483154, -0.09124867618083954, 0.1258145570755005, -0.0538887083530426, 0.04061126708984375, -0.02917974442243576, 0.04884791374206543, -0.07766006141901016, 0.03412550687789917, -0.089019775390625, -0.105867400765419, 0.06252071261405945, 0.017802506685256958, -0.14372123777866364, 0.10464416444301605, -0.1312672197818756, 0.04153677821159363, 0.018608078360557556, 0.13666242361068726, 0.12464442849159241, 0.025534197688102722, -0.04980921745300293, -0.08850778639316559, 0.10980767011642456, -0.11934937536716461, 0.02295316755771637, 0.07246659696102142, -0.01612076163291931, 0.02521967887878418, 0.031540319323539734, 0.0657324492931366, -0.025663793087005615, -0.05128946155309677, -0.06239485740661621, 0.09939403831958771, 0.02099047601222992, -0.052006810903549194, -0.14072732627391815, 0.09337769448757172, 0.08071589469909668, 0.07986383140087128, 7.434189319610596e-05, 0.05876518785953522, 0.08909030258655548, 0.08569853007793427, -0.07042990624904633, -0.13233569264411926, -0.08206723630428314, 0.11671331524848938, -0.04350118339061737, -0.11781537532806396, -0.09010405838489532, 0.03898985683917999, 0.10558077692985535, 0.05963565409183502, -0.13261212408542633, -0.11125186830759048, 0.13810238242149353, -0.13310663402080536, -0.1284666210412979, -0.05721484124660492, 0.1264125406742096, 0.04379822313785553, 0.07509161531925201, 0.12687310576438904, 0.034722939133644104, 0.06714130938053131, 0.059731245040893555, 0.007902741432189941, -0.07370174676179886, -0.10375816375017166, 0.10542739927768707, 0.01624196767807007, 0.04782365262508392, 0.06923539936542511, 0.08339425921440125, 0.04012824594974518, 0.1254153847694397, 0.01376187801361084, -0.08771703392267227, 0.014709144830703735, -0.10561442375183105, -0.060627877712249756, -0.054120928049087524, 0.029359892010688782, 0.055234700441360474, -0.005568400025367737, -0.07870358973741531, -0.09103019535541534, -0.1353955864906311, 0.028065785765647888, -0.13658186793327332, -0.008930489420890808, -0.048510871827602386, 0.1115398108959198, 0.06597715616226196, -0.1381339281797409, -0.11309298127889633, 0.02530209720134735, 0.13724792003631592, -0.0055662840604782104, 0.10584518313407898, 0.11057677865028381, -0.11660996824502945, -0.03900374472141266, 0.03331223130226135, -0.1394953578710556, 0.10017693042755127, 0.08687920868396759, 0.024509713053703308, -0.06710558384656906, 0.1117701530456543, 0.06660492718219757, -0.04219513386487961, 0.11612629890441895, -0.07006585597991943, 0.004579648375511169, -0.03555431216955185, 0.028515398502349854, -0.031658634543418884, 0.018964841961860657, -0.11954142153263092, -0.05082482099533081, -0.05199722945690155, 0.019652098417282104, -0.029330849647521973, 0.007258176803588867, -0.052554696798324585, 0.08137844502925873, 0.005551949143409729, -0.11002136766910553, -0.09456948935985565, 0.0020718127489089966, 0.08058042824268341, -0.00571712851524353, -0.10605894774198532, 0.11206382513046265, 0.06930108368396759, 0.07386741042137146, -0.12566877901554108, -0.09415032714605331, -0.13700148463249207, 0.013371631503105164, -0.05400572717189789, 0.026641294360160828, 0.06209456920623779, 0.07526655495166779, -0.13255442678928375, 0.03566622734069824, -0.01969406008720398, 0.13864916563034058, -0.07146347314119339, 0.05528819561004639, -0.031708672642707825, -0.05278891324996948, -0.09614497423171997, -0.020700819790363312, 0.00023734569549560547, 0.04510140419006348, -0.1305852234363556, -0.01904754340648651, 0.06821241974830627, -0.12034132331609726, -0.13499830663204193, 0.07551294565200806, -0.014636635780334473, 0.023391947150230408, 0.12491267919540405, -0.012786418199539185, 0.05023033916950226, -0.025873027741909027, -0.004583790898323059, 0.062013447284698486, -0.07315745949745178, 0.09094804525375366, 0.06348864734172821, 0.018906116485595703, -0.010930374264717102, -0.05106149613857269, -0.12548613548278809, 0.1351860761642456, -0.07824884355068207, -0.12390180677175522, 0.07659938931465149, 0.13001948595046997, 0.08906698226928711, 0.011164486408233643, -0.014838576316833496, 0.05169583857059479, -0.12446216493844986, -0.07927654683589935, -0.02384144812822342, 0.10566559433937073, -0.09542109072208405, -0.02037864923477173, -0.1191699355840683, -0.13676491379737854, -0.09082517772912979, 0.1103869378566742, -0.1377309113740921, 0.07045485079288483, -0.03159989416599274, 0.09751105308532715, 0.028673171997070312, 0.08072657883167267, -0.047924064099788666, -0.11415993422269821, -0.14147786796092987, 0.0886494368314743, -0.021781161427497864, -0.03498738259077072, -0.0515332967042923, -0.13378365337848663, 0.09089455008506775, -0.01747441291809082, -0.004439011216163635, -0.03430936485528946, 0.010007113218307495, -0.0027191191911697388, -0.08672821521759033, 0.13389557600021362, -0.012282922863960266, -0.010504081845283508, -0.1268484741449356, -0.03811722248792648, -0.051131315529346466, 0.11048322916030884, 0.019088447093963623, 0.0017391741275787354, 0.13963666558265686, 0.13959667086601257, -0.1351645588874817, 0.0371638685464859, 0.0010719746351242065, -0.021908260881900787, 0.058886513113975525, 0.0838814377784729, -0.02945847064256668, -0.024797864258289337, -0.028982385993003845, -0.11894451081752777, -0.11419311165809631, 0.007084444165229797, -0.1250179409980774, -0.13539063930511475, -0.06454785168170929, 0.1014673113822937, 0.09419536590576172, 0.0031565725803375244, -0.0753563866019249, -0.07015981525182724, -0.005244091153144836, 0.09974651038646698, 0.09528513252735138, 0.029106423258781433, 0.07709440588951111, 0.05290761590003967, -0.07767102122306824, -0.01596054434776306, -0.006994098424911499, 0.04831576347351074, -0.09973879158496857, -0.00730469822883606, 0.024651825428009033, 0.10839009284973145, 0.11437174677848816, 0.05860781669616699, -0.04573529213666916, 0.08969298005104065, -0.010766878724098206, -0.13604189455509186, 0.12975448369979858, -0.012147635221481323, -0.048079632222652435, 0.1327545940876007, -0.008143693208694458, 0.036586642265319824, -0.009042903780937195, -0.03348039835691452, 0.1015540063381195, 0.07243417203426361, 0.12607187032699585, 0.09216973185539246, -0.03171144425868988, -0.07509785890579224, -0.07915189117193222, -0.09343574941158295, -0.046179547905921936, -0.07761246711015701]}, "bias": {"shape": [12], "values": [-0.05876486003398895, 0.13256457448005676, -0.09153339266777039, -0.09331640601158142, -0.08247119188308716, -0.1296818107366562, 0.057510554790496826, -0.1200563907623291, 0.10689565539360046, 0.04108273983001709, -0.05125042051076889, -0.023548543453216553]}}, "floor": {"shape": [1], "values": [0.0]}, "ceiling": {"shape": [1], "values": [0.0]}, "coef_softsign": {"shape": [1], "values": [2.6962485313415527]}, "coef_tanh": {"shape": [1], "values": [0.8291274905204773]}}, "stack.4": {"conv": {"weight": {"shape": [12, 12, 4], "values": [-0.12222043424844742, -0.06791849434375763, -0.025557272136211395, -0.026494674384593964, 0.03612646460533142, -0.07429174333810806, 0.14074471592903137, 0.058168113231658936, 0.018257319927215576, -0.11889196187257767, -0.11915795505046844, 0.045920148491859436, 0.07947152853012085, -0.05471017211675644, 0.10524092614650726, -0.05458162724971771, -0.06211225688457489, 0.0862732082605362, 0.13372120261192322, -0.14017827808856964, -0.12391801178455353, -0.06794629991054535, 0.0726921558380127, 0.07148043811321259, 0.03804190456867218, 0.021525993943214417, 0.03606410324573517, -0.11304894089698792, 0.020107820630073547, 0.11303964257240295, -0.01580466330051422, -0.0771324411034584, -0.09370557963848114, 0.04024165868759155, -0.01733618974685669, 0.0954526960849762, 0.11508211493492126, -0.07209290564060211, -0.011158481240272522, 0.005786433815956116, 0.04955121874809265, -0.04162415862083435, 0.04922713339328766, 0.10563533008098602, 0.08506594598293304, 0.0997648537158966, -0.09265013784170151, 0.1205534040927887, -0.07146094739437103, 0.08320742845535278, 0.10310959815979004, -0.02313867211341858, -0.04317080229520798, 0.10492551326751709, 0.10499775409698486, -0.12922340631484985, -0.07999525964260101, -0.061350494623184204, 0.04192337393760681, -0.03891909122467041, -0.02650158852338791, 0.08800892531871796, -0.05417054891586304, 0.1323552429676056, 0.10324488580226898, -0.0293438583612442, -0.07415711879730225, 0.01078428328037262, -0.1393786370754242, 0.0034718960523605347, -0.04345338046550751, 0.026084527373313904, 0.12578463554382324, 0.09385085105895996, 0.03266794979572296, -0.06953070312738419, 0.12234190106391907, -0.0017750561237335205, -0.1349467635154724, -0.11898207664489746, 0.11632668972015381, -0.0893024280667305, -0.14363345503807068, -0.041195355355739594, -0.01567266881465912, 0.1392822563648224, -0.05606987327337265, -0.014002054929733276, 0.006573677062988281, 0.03675638139247894, 0.08507499098777771, -0.01784484088420868, 0.020770356059074402, -0.1105721965432167, 0.04933471977710724, -0.07001782953739166, -0.13307684659957886, 0.03772541880607605, -0.04024787247180939, -0.13904310762882233, -0.01802094280719757, -0.0010414868593215942, 0.0714220255613327, 0.09438204765319824, 0.08715923130512238, -0.14260879158973694, -0.14348745346069336, 0.04771535098552704, -0.012264102697372437, 0.08624675869941711, -0.10047993063926697, -0.13955897092819214, -0.09521158039569855, 0.015995725989341736, -0.06842359155416489, 0.11719757318496704, -0.020174257457256317, -0.12174621224403381, 0.04264563322067261, -0.03541120886802673, 0.06001800298690796, -0.11817454546689987, 0.09072907269001007, -0.10960078239440918, 0.01629720628261566, -0.07047200947999954, 0.10540416836738586, 0.07546171545982361, -0.1401205211877823, -0.0006673187017440796, -0.05867853760719299, -0.043932102620601654, -0.08373735845088959, -0.10036267340183258, -0.08975125849246979, -0.13280421495437622, -0.006822556257247925, -0.07521737366914749, 0.09047263860702515, -0.14004188776016235, -0.02301570028066635, -0.07785144448280334, 0.11091476678848267, 0.04388277232646942, 0.08693380653858185, -0.09694433212280273, 0.07239530980587006, -0.09481270611286163, 0.11573490500450134, -0.12878917157649994, 0.048958778381347656, -0.10774171352386475, -0.008483558893203735, 0.0749397873878479, 0.10169176757335663, -0.1148337572813034, -0.08159545063972473, 0.006101176142692566, 0.13490426540374756, -0.11545327305793762, 0.06716948747634888, -0.14059937000274658, -0.0628863200545311, -0.029169201850891113, 0.03271225094795227, -0.09395061433315277, 0.08509033918380737, 0.08256839215755463, -0.12324319779872894, 0.11254221200942993, -0.06297532469034195, -0.06672363728284836, -0.08095869421958923, 0.1291484236717224, 0.023007601499557495, -0.07812253385782242, -0.062152259051799774, -0.026264816522598267, -0.10800259560346603, -0.038468196988105774, -0.07082132995128632, -0.13111381232738495, -0.03571997582912445, -0.0645180195569992, 0.03348951041698456, 0.06433877348899841, 0.08381824195384979, 0.06461811065673828, -0.015272244811058044, -0.034199222922325134, 0.11601722240447998, -0.004734441637992859, 0.0464947372674942, 0.0808323323726654, 0.07347279787063599, 0.10635152459144592, -0.09790676832199097, 0.07273067533969879, 0.026266023516654968, 0.04087632894515991, -0.11004045605659485, 0.04703952372074127, -0.029569968581199646, -0.13104033470153809, -0.06205551326274872, -0.0034929513931274414, 0.1206924319267273, 0.12612000107765198, -0.03703950345516205, -0.041647933423519135, -0.04385185241699219, 0.07055878639221191, 0.08257119357585907, -0.019506804645061493, -0.006047770380973816, 0.07364891469478607, 0.00014662742614746094, -0.127704456448555, -0.010211572051048279, 0.1071673035621643, -0.1370188146829605, 0.017602041363716125, -0.0856945812702179, 0.00029587745666503906, 0.0404057502746582, -0.004318028688430786, -0.050720036029815674, 0.11916467547416687, -0.051909856498241425, -0.02575070410966873, 0.06686748564243317, 0.0925334095954895, 0.07311102747917175, 0.10415990650653839, -0.11922241002321243, 0.010781362652778625, -0.06135009974241257, -0.06432602554559708, 0.061210259795188904, 0.12660565972328186, 0.010240450501441956, -0.017553403973579407, 0.12530294060707092, -0.09928132593631744, 0.04989047348499298, 0.029808565974235535, 0.101162850856781, 0.0017348229885101318, -0.13321861624717712, 0.06907862424850464, -0.00639110803604126, 0.12268462777137756, -0.08876417577266693, 0.025697946548461914, 0.11294186115264893, -0.100979745388031, -0.11839297413825989, 0.08860175311565399, 0.13531845808029175, -0.08018241077661514, 0.1357734203338623, 0.14368975162506104, -0.13250553607940674, 0.06974442303180695, 0.1251588761806488, -0.08577434718608856, -0.04203547537326813, -0.12318915128707886, -0.13482454419136047, -0.09392717480659485, 0.00640694797039032, -0.024336010217666626, 0.01998870074748993, -0.02456306666135788, -0.06280896067619324, 0.12164470553398132, 0.01850724220275879, 0.13106226921081543, 0.0417478084564209, 0.06377728283405304, 0.1157153844833374, -0.04082493484020233, 0.04835447669029236, 0.14064455032348633, 0.06830839812755585, -0.04278278350830078, -0.06913299113512039, 0.0653727650642395, 0.07571691274642944, -0.07929227501153946, 0.04495874047279358, 0.03675079345703125, -0.08785974234342575, 0.08313989639282227, -0.0987970307469368, -0.1416872888803482, 0.08588367700576782, -0.08787336945533752, -0.07156327366828918, -0.04210221767425537, 0.1319669485092163, 0.014797762036323547, 0.10752132534980774, 0.09383587539196014, 0.10028597712516785, 0.1348242163658142, -0.12025247514247894, -0.059573233127593994, -0.03722873330116272, -0.09696200489997864, -0.004854440689086914, 0.13944506645202637, -0.09958454966545105, -0.13256961107254028, 0.01694972813129425, 0.12170159816741943, -0.0031258761882781982, -0.12519262731075287, -0.08998583257198334, -0.10582862794399261, 0.06966778635978699, 0.05021139979362488, -0.10316438972949982, 0.05374482274055481, -0.05601837486028671, 0.14319467544555664, 0.07324549555778503, -0.07530130445957184, -0.07025107741355896, -0.09965113550424576, 0.010683953762054443, -0.06806590408086777, -0.11018314957618713, -0.07932068407535553, 0.013191848993301392, 0.02706862986087799, 0.13094893097877502, -0.06525484472513199, -0.007714629173278809, 0.052176445722579956, -0.009214192628860474, 0.07204557955265045, 0.06446568667888641, 0.05339343845844269, -0.006117761135101318, -0.02369523048400879, 0.00641903281211853, -0.08700981736183167, 0.0658545196056366, -0.12072382122278214, -0.11177170276641846, 0.0972551703453064, -0.04722476750612259, -0.08093125373125076, 0.1080160140991211, -0.07499559968709946, -0.019293665885925293, -0.09862253814935684, 0.06681017577648163, -0.04785159230232239, 0.019956201314926147, 0.04366248846054077, 0.12870067358016968, 0.07714834809303284, -0.03512243181467056, -0.1210702583193779, 0.005942493677139282, 0.08919674158096313, -0.11738461256027222, 0.06569719314575195, -0.051098041236400604, -0.09008084237575531, 0.098234623670578, -0.01685081422328949, 0.04789076745510101, 0.07279559969902039, 0.047489702701568604, 0.008813023567199707, 0.10132864117622375, 0.12257972359657288, -0.07302824407815933, -0.07660309225320816, 0.1230120062828064, 0.11508655548095703, 0.01878434419631958, 0.08232815563678741, 0.05631013214588165, 0.03173767030239105, 0.00733599066734314, 0.12501674890518188, 0.015511825680732727, -0.062453098595142365, -0.0604032501578331, -0.13517706096172333, -0.1397290825843811, -0.07792851328849792, 0.09762224555015564, 0.034884825348854065, 0.01095011830329895, 0.14403098821640015, 0.11134475469589233, 0.06866388022899628, 0.09184594452381134, -0.1170579046010971, -0.11034395545721054, -0.1417829543352127, -0.07582913339138031, -0.13617882132530212, -0.03410070389509201, 0.09846030175685883, 0.08538937568664551, -0.0407356396317482, 0.0778844803571701, -0.09905063360929489, -0.021686509251594543, 0.03459446132183075, 0.13066428899765015, 0.13568854331970215, -0.060077257454395294, -0.08792056888341904, 0.13441148400306702, 0.01758454740047455, 0.014746829867362976, -0.13371960818767548, 0.06047286093235016, 0.03414449095726013, -0.08515822142362595, -0.08475221693515778, -0.05310358107089996, -0.02864987403154373, -0.13213442265987396, -0.10670282691717148, -0.04707591235637665, -0.07484621554613113, 0.05808514356613159, 0.05835629999637604, -0.019490420818328857, 0.1274304986000061, 0.050984740257263184, 0.01610313355922699, 0.14171290397644043, 0.04227834939956665, 0.04472754895687103, -0.055927492678165436, -0.09186829626560211, -0.08937125653028488, 0.011106744408607483, 0.07323849201202393, 0.1314331293106079, 0.12782609462738037, -0.09778312593698502, -0.03291900455951691, 0.001199468970298767, 0.08205457031726837, 0.09947143495082855, -0.07588925212621689, -0.11499256640672684, 0.036351412534713745, 0.026043519377708435, 0.02155640721321106, -0.026159927248954773, 0.06906451284885406, 0.06918218731880188, 0.14042165875434875, -0.08721800148487091, 0.07841144502162933, 0.08943869173526764, -0.07126699388027191, -0.046935662627220154, 0.020287618041038513, 0.06696377694606781, 0.0060090720653533936, -0.048749662935733795, 0.05993074178695679, 0.027002960443496704, 0.06735178828239441, -0.12330558896064758, 0.08763404190540314, -0.028129108250141144, -0.10777060687541962, 0.04506343603134155, 0.10374653339385986, -0.025011107325553894, -0.09854842722415924, -0.1026584655046463, 0.08047866821289062, 0.11362358927726746, -0.13923610746860504, -0.08600468933582306, 0.011531010270118713, -0.053873978555202484, -0.11601006984710693, -0.06742154061794281, 0.09903755784034729, 0.12815511226654053, 0.003031298518180847, 0.030617788434028625, -0.01355031132698059, 0.09014566242694855, 0.06180252134799957, 0.13644865155220032, 0.07902093231678009, 0.08994925022125244, -0.12086474150419235, -0.04650557041168213, 0.027621552348136902, 0.09234559535980225, 0.015924975275993347, 0.12765830755233765, 0.06650979816913605, 0.016032934188842773, 0.06311029195785522, 0.11219406127929688, -0.05910404771566391, -0.050809577107429504, 0.021240010857582092, -0.0732891783118248, 0.027456670999526978, -0.011711984872817993, 0.11390379071235657, -0.006335094571113586, 0.1333654820919037, 0.04046589136123657, -0.1093861311674118, 0.05328233540058136, 0.07486622035503387, -0.10480251908302307, -0.06885896623134613, -0.14180821180343628, -0.043304912745952606, -0.10219551622867584, -0.10609316825866699, 0.022229447960853577, -0.12114790827035904, 0.0762137621641159, -0.06446338444948196, 0.051515817642211914, -0.09400737285614014, 0.05763491988182068, -0.13198019564151764, 0.057626500725746155, 0.03109012544155121, -0.07406927645206451, 0.04065483808517456, -0.09621915221214294, 0.06596040725708008, -0.03841215372085571, -0.06633700430393219, -0.10967743396759033, -0.03363308310508728, 0.10145905613899231, 0.007494822144508362, -0.08061950653791428, -0.13180658221244812, 0.00830051302909851, -0.07202646881341934, 0.00046785175800323486, 0.12608379125595093, 0.12375134229660034, 0.035264089703559875, -0.13579745590686798, -0.03650114685297012, -0.07442346960306168, -0.04157702624797821, 0.06506209075450897, 0.00349995493888855, 0.008954375982284546, -0.0690925195813179, 0.07044777274131775, 0.13581451773643494, 0.12404286861419678, -0.08202359825372696, 0.053651437163352966, -0.1357734650373459, 0.059387803077697754, 0.08546726405620575]}, "bias": {"shape": [12], "values": [0.004790782928466797, -0.05828043073415756, 0.008777126669883728, -0.11441367864608765, 0.004956722259521484, 0.13335829973220825, 0.12444528937339783, -0.007337406277656555, 0.1212320625782013, 0.007408350706100464, 0.023739978671073914, 0.10873234272003174]}}, "floor": {"shape": [1], "values": [0.0]}, "ceiling": {"shape": [1], "values": [0.0]}, "coef_softsign": {"shape": [1], "values": [-0.35248205065727234]}, "coef_tanh": {"shape": [1], "values": [-1.2990753650665283]}}, "stack.5": {"conv": {"weight": {"shape": [1, 12, 4], "values": [-0.038734205067157745, -0.06558920443058014, -0.004465878009796143, 0.017795324325561523, 0.10922572016716003, -0.08953045308589935, 0.0763721913099289, 0.01937428116798401, -0.017931580543518066, -0.009446009993553162, -0.11137796938419342, 0.08890077471733093, 0.02707076072692871, -0.08732932806015015, 0.0023923367261886597, 0.09142878651618958, -0.05630360543727875, 0.01857970654964447, 0.1326335072517395, -0.13801303505897522, 0.11585178971290588, -0.058228589594364166, -0.07338986545801163, 0.024165168404579163, -0.04004289209842682, 0.03238473832607269, -0.0627758577466011, -0.14016880095005035, -0.10789322853088379, 0.04298307001590729, 0.053949952125549316, 0.020534053444862366, 0.0828610360622406, 0.0024857521057128906, 0.1381702423095703, 0.0681876391172409, -0.09319303184747696, -0.07781505584716797, 0.10405679047107697, -0.12008218467235565, 0.09817871451377869, 0.013460159301757812, 0.08687327802181244, -0.09053802490234375, -0.07055526971817017, 0.059691473841667175, -0.0020120739936828613, -0.11213205754756927]}, "bias": {"shape": [1], "values": [-0.12679511308670044]}}, "floor": {"shape": [1], "values": [0.0]}, "ceiling": {"shape": [1], "values": [0.0]}, "coef_softsign": {"shape": [1], "values": [0.03157978504896164]}, "coef_tanh": {"shape": [1], "values": [0.5593250393867493]}}}}