{"config": {"model_type": "ConvWaveshaper", "norm_mean": 0.10000000149011612, "norm_std": 0.8999999761581421}, "meta_data": {}, "parameters": {"kernel_size": 4, "depth_size": 6, "num_channels": 12}, "state_dict": {"stack.0": {"conv": {"weight": {"shape": [12, 1, 4], "values": [-0.232610285282135, -0.3519487977027893, -0.0063724517822265625, -0.07180869579315186, 0.49183881282806396, -0.004571378231048584, 0.1567811369895935, -0.34328097105026245, -0.30225783586502075, -0.13578081130981445, 0.4402926564216614, -0.3269827365875244, 0.4809904098510742, 0.07634711265563965, -0.4163450598716736, 0.0003997683525085449, -0.42779213190078735, 0.15672481060028076, 0.3087167739868164, -0.27730780839920044, -0.037360191345214844, 0.23966383934020996, 0.06178802251815796, -0.30194640159606934, -0.18771129846572876, 0.3347471356391907, 0.14368939399719238, 0.2908594012260437, 0.0008126497268676758, -0.23079222440719604, -0.4416326880455017, 0.4701676368713379, 0.2795402407646179, -0.1396961212158203, 0.1120116114616394, -0.3550524115562439, -0.33908647298812866, 0.4569619297981262, -0.08608204126358032, 0.15126246213912964, -0.4290470480918884, 0.47105056047439575, 0.4153962731361389, -0.1656290888786316, 0.4922914505004883, 0.3009124994277954, -0.4049762487411499, 0.06005507707595825]}, "bias": {"shape": [12], "values": [-0.34144312143325806, 0.13239258527755737, 0.09464240074157715, -0.3291863799095154, -0.1416158676147461, 0.13606786727905273, -0.20569974184036255, 0.05777442455291748, 0.494303822517395, 0.024052441120147705, 0.3465847373008728, -0.00847017765045166]}}, "floor": {"shape": [1], "values": [0.0]}, "ceiling": {"shape": [1], "values": [0.0]}, "coef_softsign": {"shape": [1], "values": [-0.38222965598106384]}, "coef_tanh": {"shape": [1], "values": [-2.0255415439605713]}}, "stack.1": {"conv": {"weight": {"shape": [12, 12, 4], "values": [-0.08569421619176865, 0.04523956775665283, 0.10191643238067627, 0.05520208179950714, 0.0362384170293808, -0.07414919883012772, 0.11799758672714233, 0.10591641068458557, 0.11394995450973511, -0.0783693790435791, 0.020765945315361023, -0.04301395267248154, -0.08017537742853165, -0.05645836144685745, 0.06366050243377686, 0.1265280544757843, -0.09465208649635315, -0.06798675656318665, -0.09457749128341675, 0.06260235607624054, 0.00039793550968170166, -0.01341789960861206, -0.07313841581344604, -0.007399305701255798, -0.08256374299526215, 0.10393360257148743, 0.05321978032588959, 0.1271902620792389, -0.030380114912986755, 0.06926225125789642, 0.1347188949584961, 0.14026498794555664, 0.013188615441322327, 0.07735167443752289, 0.05689328908920288, 0.13307446241378784, 0.1053471565246582, -0.13357403874397278, -0.010313108563423157, -0.03481545299291611, 0.10277889668941498, -0.04113449901342392, -0.04325959086418152, -0.1171225756406784, -0.09914160519838333, 0.12104564905166626, -0.09585835039615631, -0.08615848422050476, 0.0708339661359787, 0.07836832106113434, 0.010860353708267212, 0.025857344269752502, 0.012949571013450623, 0.051584258675575256, -0.12504246830940247, -0.02864263206720352, 0.04095636308193207, 0.06312887370586395, -0.08188416063785553, 0.13899746537208557, 0.030595645308494568, -0.018644824624061584, -0.016578316688537598, -0.006138473749160767, 0.0049523115158081055, 0.003533110022544861, -0.1405664086341858, 0.11220255494117737, -0.06790628284215927, 0.062428250908851624, -0.0009905993938446045, 0.005211487412452698, 0.06556661427021027, -0.1075444445014, 0.07885998487472534, 0.06164702773094177, -0.07763108611106873, -0.06979020684957504, 0.11854851245880127, 0.07270961999893188, 0.04252634942531586, -0.03812243789434433, -0.0370316207408905, -0.10785616934299469, -0.11715231090784073, 0.07594656944274902, 0.013561651110649109, 0.05994907021522522, 0.03184247016906738, -0.05438406020402908, -0.07367845624685287, -0.08284473419189453, 0.007542267441749573, -0.11443010717630386, 0.07795922458171844, -0.13281457126140594, -0.024540886282920837, -0.018609628081321716, -0.005458667874336243, -0.03205987066030502, 0.000553518533706665, -0.09321204572916031, 0.06695038080215454, 0.08751887083053589, -0.1323356330394745, 0.052386924624443054, 0.05773302912712097, -0.07957574725151062, 0.14234372973442078, 0.11692768335342407, -0.13174571096897125, 0.0009782463312149048, 0.06076011061668396, -0.036655209958553314, -0.005553320050239563, -0.10020405054092407, 0.014759078621864319, 0.02761322259902954, 0.11476001143455505, 0.050146058201789856, 0.011664018034934998, -0.1334359347820282, 0.07897154986858368, 0.021994978189468384, -0.002359434962272644, 0.1412593126296997, -0.0023384839296340942, -0.0764429122209549, -0.0668906420469284, -0.06263206154108047, -0.01603555679321289, -0.04825635254383087, -0.05263398587703705, 0.11425191164016724, 0.09375432133674622, 0.11781051754951477, 0.03943929076194763, -0.007923498749732971, -0.03366304188966751, 0.1388438642024994, -0.11647426337003708, -0.04013901948928833, -0.05531883239746094, 0.12266579270362854, 0.07806546986103058, -0.0013705939054489136, -0.05427064001560211, 0.07788248360157013, 0.09979429841041565, -0.09431149810552597, 0.012780606746673584, 0.002972036600112915, 0.07667991518974304, -0.08473654091358185, -0.12430773675441742, -0.08480322360992432, -0.018481522798538208, 0.06173887848854065, 0.13977858424186707, 0.1354663372039795, 0.09211865067481995, 0.10362620651721954, 0.14170244336128235, 0.12409794330596924, -0.04050885885953903, -0.017199963331222534, -0.05552002787590027, 0.03441320359706879, 0.1321120262145996, 0.12732148170471191, -0.042699798941612244, -0.07433418929576874, 0.0180109441280365, 0.010379672050476074, 0.12233147025108337, 0.053276628255844116, -0.08600500226020813, 0.03625495731830597, 0.11301690340042114, 0.1350892186164856, 0.03745907545089722, -0.07420625537633896, -0.10103391110897064, 0.13569244742393494, 0.006367236375808716, -0.05729749798774719, 0.10487295687198639, -0.049190424382686615, 0.08639748394489288, 0.142568439245224, -0.10543153434991837, 0.06163184344768524, 0.0604792982339859, 0.06585158407688141, 0.09083299338817596, -0.14161589741706848, -0.03391459584236145, -0.10388168692588806, 0.10352484881877899, 0.134818434715271, 0.10376572608947754, -0.11411985754966736, 0.07067115604877472, 0.011502519249916077, -0.13713902235031128, -0.06634166836738586, -0.14179250597953796, 0.01828661561012268, -0.019606977701187134, 0.11151322722434998, -0.11252269148826599, 0.02916485071182251, 0.10900530219078064, 0.13826090097427368, 0.04693573713302612, -0.0739784836769104, 0.12946847081184387, -0.04532225430011749, -0.06383640319108963, -0.11094879359006882, 0.08971188962459564, 0.1211496889591217, 0.12694701552391052, -0.051285162568092346, 0.03560720384120941, 0.0910796970129013, -0.017941072583198547, -0.13240918517112732, 0.06843012571334839, -0.13166558742523193, -0.012043729424476624, -0.1389128863811493, 0.054422348737716675, 0.05966387689113617, 0.042291074991226196, 0.12361416220664978, 0.03616020083427429, 0.04221603274345398, 0.06470657885074615, 0.06324601173400879, 0.07976759970188141, 0.13571903109550476, -0.011038750410079956, -0.09388068318367004, -0.06390804797410965, 0.14052584767341614, 0.007946133613586426, 0.04311344027519226, 0.086739182472229, 0.02612583339214325, -0.12177654355764389, 0.012556791305541992, 0.13843759894371033, 0.05361410975456238, -0.01917906105518341, 0.02662116289138794, 0.013364464044570923, 0.07694849371910095, -0.046768367290496826, -0.045407287776470184, -0.08788034319877625, -0.03090212494134903, -0.017969325184822083, 0.04286012053489685, -0.011193767189979553, 0.01448214054107666, -0.05077621340751648, 0.10748562216758728, -0.03864705562591553, -0.11484696716070175, 0.05198875069618225, -0.1159176379442215, 0.06006292998790741, 0.08692596852779388, 0.10060422122478485, -0.007268652319908142, -0.05609264224767685, -0.033803001046180725, -0.10366368293762207, 0.09676213562488556, -0.047197215259075165, -0.09959125518798828, -0.0840705931186676, 0.14375168085098267, 0.05650421977043152, -0.06364016234874725, 0.13807889819145203, 0.041113466024398804, 0.0911196768283844, 0.03185519576072693, 0.07385295629501343, 0.11408731341362, -0.08914458006620407, 0.048251986503601074, -0.135959193110466, 0.13896149396896362, 0.08186846971511841, -0.0707285925745964, 0.1180177628993988, 0.007237672805786133, 0.06377443671226501, 0.14316219091415405, 0.006425708532333374, 0.04698978364467621, 0.13954874873161316, -0.05858171731233597, 0.13643154501914978, -0.033815279603004456, -0.053641416132450104, 0.06481392681598663, 0.09004929661750793, -0.09619606286287308, 0.11926156282424927, -0.017629072070121765, 0.03231021761894226, -0.0034488439559936523, -0.07632514089345932, 0.01406542956829071, -0.04130873084068298, -0.012217402458190918, -0.13035014271736145, -0.041982583701610565, -0.08184410631656647, -0.09723442792892456, 0.07891115546226501, 0.09712609648704529, 0.05018702149391174, 0.04272235929965973, -0.13119438290596008, -0.0427853986620903, -0.015788212418556213, 0.08099228143692017, 0.10995027422904968, -0.10568594932556152, -0.058062151074409485, 0.03278958797454834, 0.12042531371116638, -0.12614791095256805, 0.10677430033683777, -0.08377047628164291, 0.11893713474273682, -0.03917118161916733, 0.04620087146759033, 0.030100688338279724, -0.06309173256158829, 0.020107001066207886, -0.011645391583442688, -0.10666254162788391, 0.0671057254076004, -0.04996336251497269, 0.012919455766677856, 0.035432830452919006, -0.05733949691057205, 0.1348971426486969, 0.00031544268131256104, -0.12887251377105713, -0.07528471946716309, -0.058936990797519684, 0.1439504623413086, -0.0698157399892807, -0.07454114407300949, -0.07051017135381699, 0.05779929459095001, 0.04990614950656891, -0.07947132736444473, -0.04984861612319946, -0.0993911474943161, -0.04693273454904556, 0.01789937913417816, 0.02434137463569641, -0.010527044534683228, 0.04829907417297363, -0.026007473468780518, -0.07808437198400497, 0.13368207216262817, -0.0630929172039032, 0.13442003726959229, 0.010466605424880981, 0.008545592427253723, 0.06860917806625366, -0.10926327109336853, 0.06776256859302521, 0.04943294823169708, 0.00540982186794281, 0.12357768416404724, 0.008229047060012817, -0.03968527168035507, 0.12474432587623596, -0.00476740300655365, 0.04094408452510834, -0.004845127463340759, 0.019181430339813232, 0.03453691303730011, 0.023887529969215393, 0.003074273467063904, 0.013890072703361511, -0.034131914377212524, 0.14120614528656006, 0.044963985681533813, 0.0023359954357147217, 0.03143210709095001, -0.1273898333311081, 0.1022913008928299, 0.03115047514438629, 0.027511268854141235, 0.12823185324668884, 0.1365131139755249, -0.1315561681985855, -0.11764302104711533, 0.01426607370376587, -0.025287099182605743, 0.09241363406181335, -0.0017371922731399536, -0.014787271618843079, -0.07578974217176437, -0.07971828430891037, 0.07624837756156921, -0.061766184866428375, -0.12243105471134186, 0.08800646662712097, -0.12250545620918274, 0.08298203349113464, 0.005936786532402039, 0.0013319998979568481, 0.10501250624656677, 0.05763372778892517, -0.13225562870502472, 0.12217426300048828, 0.03888647258281708, -0.0043397992849349976, -0.13075706362724304, -0.02130068838596344, -0.09661231935024261, 0.09996336698532104, 0.11569014191627502, -0.02535807341337204, 0.07338809967041016, 0.10879537463188171, 0.07950536906719208, -0.04892437905073166, 0.09724415838718414, -0.10517334938049316, -0.10638609528541565, -0.09972687810659409, 0.09000509977340698, -0.052629388868808746, -0.10794238746166229, -0.06357641518115997, -0.07773091644048691, -0.120157390832901, 0.031092047691345215, -0.05659251660108566, -0.10334128141403198, -0.026517458260059357, -0.09948533773422241, 0.14040151238441467, -0.0894487202167511, -0.051084794104099274, 0.03752636909484863, 0.12709736824035645, -0.0707888975739479, -0.06014126539230347, 0.047357335686683655, 0.13494667410850525, -0.020906493067741394, 0.056815266609191895, 0.034941211342811584, 0.1413363814353943, 0.08552952110767365, 0.09964099526405334, -0.042838290333747864, 0.14143362641334534, 0.14033359289169312, -0.05320802330970764, 0.10704085230827332, -0.13106809556484222, -0.013626426458358765, 0.020894765853881836, 0.11131703853607178, 0.12303003668785095, -0.13248293101787567, -0.08957107365131378, -0.09968775510787964, -0.039199694991111755, 0.07559487223625183, -0.10513882339000702, -0.0067790597677230835, 0.05765827000141144, 0.028559982776641846, -0.07934406399726868, 0.1274145245552063, 0.11517548561096191, 0.06882336735725403, -0.13943806290626526, 0.1236816942691803, -0.006843790411949158, -0.12217122316360474, 0.07846607267856598, -0.062225133180618286, -0.13222461938858032, 0.07630857825279236, 0.048570841550827026, 0.03995491564273834, -0.05999382585287094, -0.06765477359294891, 0.04863981902599335, -0.00807259976863861, 0.13639038801193237, -0.04774422198534012, -0.12378547340631485, 0.025553405284881592, -0.05608917772769928, 0.04295039176940918, 0.07598638534545898, 0.0740249752998352, 0.10473020374774933, -0.0059051960706710815, 0.025243699550628662, 0.10572105646133423, 0.08258341252803802, -0.04619617015123367, -0.0997222363948822, -0.12073493748903275, 0.0003522634506225586, -0.07470090687274933, 0.07669870555400848, 0.03548009693622589, 0.03256307542324066, -0.020685851573944092, -0.12793023884296417, -0.10225988179445267, 0.04952627420425415, 0.13918665051460266, -0.06451167166233063, 0.07757462561130524, -0.07389985024929047, -0.14393869042396545, -0.021619901061058044, 0.10471032559871674, 0.053789302706718445, -0.1314559429883957, 0.027811884880065918, 0.10169723629951477, 0.036396726965904236, -0.06916128098964691, 0.024501457810401917, -0.03322272747755051, 0.08998417854309082, 0.10720616579055786, 0.004954323172569275, 0.1401224434375763, 0.0815613865852356, 0.05637603998184204, -0.03979737311601639, 0.023625537753105164, -0.09334567189216614, -0.06734571605920792, -0.11357495188713074, 0.12723508477210999, 0.05251331627368927, -0.04047396034002304, 0.02867838740348816, -0.10605746507644653, -0.11770638823509216, 0.08752787113189697, 0.061345040798187256, 0.0774001032114029, 0.037103042006492615, -0.07286041229963303, 0.07568277418613434, 0.12211877107620239, 0.09165570139884949, -0.004492565989494324, 0.0738774985074997, 0.02790658175945282, -0.05034787952899933]}, "bias": {"shape": [12], "values": [-0.10258731991052628, 0.05936054885387421, 0.0012072175741195679, -0.053468890488147736, -0.02803097665309906, -0.028025902807712555, 0.05940721929073334, -0.11766664683818817, -0.14082534611225128, -0.1409965306520462, 0.028221696615219116, 0.020650818943977356]}}, "floor": {"shape": [1], "values": [0.0]}, "ceiling": {"shape": [1], "values": [0.0]}, "coef_softsign": {"shape": [1], "values": [0.6860994100570679]}, "coef_tanh": {"shape": [1], "values": [0.24730093777179718]}}, "stack.2": {"conv": {"weight": {"shape": [12, 12, 4], "values": [0.029957711696624756, 0.12524449825286865, -0.043570853769779205, 0.11573895812034607, 0.10575738549232483, 0.13852307200431824, 0.013886243104934692, -0.02340499311685562, 0.05694776773452759, 0.08997400104999542, 0.12542182207107544, 0.1116940975189209, -0.04505147784948349, -0.08855216205120087, 0.015470132231712341, 0.03568059206008911, -0.08935049176216125, -0.11536343395709991, 0.09635628759860992, -0.10438811779022217, 0.13503286242485046, 0.08012628555297852, 0.03533671796321869, -0.1354077160358429, -0.040400922298431396, -0.08302213251590729, 0.06487803161144257, 0.08604027330875397, 0.1362641155719757, 0.05382220447063446, 0.08865547180175781, 0.13846904039382935, 0.11442631483078003, -0.12396171689033508, 0.014107480645179749, 0.10860025882720947, 0.05460594594478607, -0.07243150472640991, 0.04764467477798462, -0.060414694249629974, 0.08317150175571442, 0.1114020049571991, 0.10554462671279907, -0.030914321541786194, -0.0973886027932167, -0.01777702569961548, -0.06921208649873734, 0.010462090373039246, 0.024016082286834717, -0.09162415564060211, -0.11497233062982559, 0.11170187592506409, -0.0808723047375679, -0.11130393296480179, -0.023162849247455597, 0.10500623285770416, -0.10287623107433319, -0.015052631497383118, -0.12807194888591766, 0.08795753121376038, -0.06296806782484055, 0.06443050503730774, -0.13120701909065247, -0.11459770053625107, -0.020534783601760864, -0.12657278776168823, -0.11728549003601074, 0.057043686509132385, -0.017670974135398865, -0.1245093122124672, -0.04261603206396103, 0.043808966875076294, -0.05723061412572861, -0.12083815783262253, 0.06543736159801483, -0.06980794668197632, 0.06256324052810669, -0.13880939781665802, -0.024177201092243195, -0.10963913053274155, 0.0069936662912368774, -0.0001373887062072754, -0.119190514087677, 0.12294501066207886, -0.13363206386566162, 0.0409359335899353, -0.042776040732860565, 0.07319179177284241, -0.034630052745342255, 0.11108848452568054, -0.036796651780605316, 0.05327671766281128, 0.011864498257637024, -0.047181062400341034, 0.004855215549468994, 0.13021451234817505, 0.02384081482887268, -0.13191919028759003, -0.05900559574365616, -0.02330312877893448, -0.042995043098926544, -0.059407755732536316, -0.11804093420505524, 0.06179773807525635, 0.06856481730937958, 0.10150392353534698, 0.055471986532211304, 0.079490527510643, -0.1437097042798996, 0.10625997185707092, 0.10838621854782104, -0.030303873121738434, -0.010355755686759949, 0.06914965808391571, -0.03322429209947586, 0.07650338113307953, 0.11546266078948975, -0.0966305062174797, 0.13732707500457764, -0.041261620819568634, -0.05436959117650986, 0.007624298334121704, -0.018251538276672363, -0.005563259124755859, -0.03134675323963165, 0.06264875829219818, 0.021990805864334106, 0.1256771683692932, -0.1247510090470314, 0.039346545934677124, -0.013333603739738464, 0.09230470657348633, -0.09989212453365326, 0.07528208196163177, -0.08693172037601471, -0.09620839357376099, -0.06644859164953232, -0.07955367118120193, 0.0848260372877121, -0.08152496069669724, -0.01470935344696045, -0.09213501214981079, 0.11974415183067322, 0.1392437219619751, -0.024131618440151215, -0.030128352344036102, -0.08195174485445023, -0.09998829662799835, -0.015675216913223267, -0.10796919465065002, -0.024559438228607178, 0.11756274104118347, -0.004235580563545227, 0.12311527132987976, -0.13711079955101013, -0.06223476678133011, 0.11017277836799622, -0.03622143715620041, 0.12129193544387817, 0.12212485074996948, 0.10750734806060791, -0.05848345160484314, -0.02445528656244278, -0.08318793773651123, 0.06779320538043976, -0.008251264691352844, 0.10080528259277344, -0.07558361440896988, -0.0437149703502655, -0.04353804141283035, 0.11073482036590576, 0.05686002969741821, -0.08759474754333496, 0.05749589204788208, 0.06040218472480774, 0.13714534044265747, -0.01243080198764801, -0.08206157386302948, -0.06579727679491043, 0.06142304837703705, 0.07055060565471649, 0.06943272054195404, 0.06406475603580475, 0.07990436255931854, 0.10073864459991455, 0.11797043681144714, 0.09316176176071167, -0.0745285302400589, -0.02318555861711502, -0.02215663343667984, 0.09857065975666046, -0.06483194977045059, 0.08790701627731323, -0.04765129089355469, 0.1195375919342041, -0.06386679410934448, -0.10436618328094482, 0.11134907603263855, -0.015537366271018982, 0.041314855217933655, 0.010138869285583496, -0.015284806489944458, -0.07252858579158783, 0.06028816103935242, -0.08512791991233826, 0.03335760533809662, 0.04362465441226959, -0.09820115566253662, 0.020471975207328796, -0.11412449181079865, 0.06278441846370697, 0.003221556544303894, -0.12781760096549988, -0.13738763332366943, 0.06323827803134918, 0.11993333697319031, 0.04557715356349945, -0.11673560738563538, -0.1091105192899704, 0.11038035154342651, -0.026731327176094055, -0.08019901812076569, -0.0820062905550003, 0.09987707436084747, -0.022264450788497925, 0.039171576499938965, 0.14049020409584045, 0.04786880314350128, -0.12662619352340698, 0.0714460164308548, 0.10455690324306488, -0.10339868813753128, -0.1070827767252922, -0.11096499860286713, 0.012537375092506409, 0.034597963094711304, 0.11458253860473633, 0.04048730432987213, -0.0841132253408432, 0.10304141044616699, 0.02934795618057251, -0.019451431930065155, 0.0831850916147232, 0.10280145704746246, 0.04658189415931702, -0.09705756604671478, -0.06626467406749725, -0.06430394947528839, 0.022718891501426697, 0.029173076152801514, 0.12597155570983887, -0.11929899454116821, -0.10391177982091904, 0.13449952006340027, -0.12209105491638184, -0.09443041682243347, -0.0347437709569931, 0.10468052327632904, -0.11575838923454285, 0.12698623538017273, -0.07510730624198914, -0.041464827954769135, 0.06847837567329407, 0.08794856071472168, 0.11402127146720886, 0.10962781310081482, -0.14222165942192078, 0.09531466662883759, -0.05072826147079468, -0.05382277071475983, -0.08794263005256653, 0.13968771696090698, 0.08096402883529663, 0.046095192432403564, 0.11316579580307007, -0.11443348228931427, 0.12271508574485779, 0.13019752502441406, -0.0247654989361763, -0.010796353220939636, -0.02144905924797058, 0.13298138976097107, 0.033883094787597656, 0.1344684362411499, -0.06906242668628693, -0.015176817774772644, 0.028594866394996643, -0.025464043021202087, -0.08286364376544952, -0.08052074164152145, -0.14257578551769257, -0.00800555944442749, 0.12290555238723755, -0.014842525124549866, -0.014026015996932983, -0.031991682946681976, 0.06576710939407349, 0.1184922456741333, 0.1405315399169922, 0.12405607104301453, -0.13043314218521118, 0.012280866503715515, -0.1295948624610901, 0.08723729848861694, 0.13810193538665771, 0.06697094440460205, 0.14079183340072632, -0.023732326924800873, -0.10146678984165192, 0.026179194450378418, 0.07026095688343048, 0.042036816477775574, -0.1233024075627327, -0.08300629258155823, 0.12329328060150146, 0.13477718830108643, -0.13149408996105194, 0.044407278299331665, -0.019644491374492645, 0.12481698393821716, -0.04638609290122986, -0.01645536720752716, 0.06218259036540985, 0.06275247037410736, -0.07344522327184677, 0.007931485772132874, 0.06101638078689575, 0.021117091178894043, 0.0908099114894867, -0.06608407199382782, -0.1233353540301323, -0.04953978210687637, -0.026915110647678375, 0.11927548050880432, -0.08555854856967926, -0.0704205259680748, 0.04384809732437134, 0.006249487400054932, 0.0796143114566803, -0.034965068101882935, -0.01084098219871521, 0.03254905343055725, 0.1401422619819641, -0.09368689358234406, 0.12027087807655334, 0.1145794689655304, 0.024722516536712646, -0.09100455045700073, -0.058738723397254944, -0.09693177044391632, -0.03147561103105545, -0.12453441321849823, 0.11529567837715149, 0.11794933676719666, 0.09230828285217285, -0.01056148111820221, -0.04257751256227493, -0.033439457416534424, 0.06219792366027832, 0.028790771961212158, 0.11065316200256348, -0.07221052795648575, 0.08558440208435059, -0.10632497072219849, -0.06527234613895416, -0.08003941178321838, -0.09256285429000854, -0.003579169511795044, 0.08676303923130035, 0.015495404601097107, 0.07414679229259491, -0.13480642437934875, 0.12311983108520508, -0.14397960901260376, -0.0002462416887283325, -0.13467130064964294, -0.11516427248716354, 0.11545658111572266, 0.10773879289627075, -0.02179253101348877, -0.07306160777807236, 0.03310990333557129, 0.10286709666252136, -0.1414942592382431, 0.0024476349353790283, -0.09411551803350449, -0.043031759560108185, 0.054460614919662476, -0.09160340577363968, -0.1059599220752716, 0.0731758326292038, -0.10612094402313232, 0.002179279923439026, -0.051961734890937805, -0.07247942686080933, 0.09953853487968445, 0.04916216433048248, 0.05845826864242554, -0.12046565860509872, 0.06931504607200623, -0.026048876345157623, 0.02574785053730011, -0.03592289239168167, 0.12952518463134766, 0.02941305935382843, -0.08484969288110733, -0.1140107735991478, -0.12046048045158386, -0.012641236186027527, -0.026506908237934113, 0.016032308340072632, 0.10667380690574646, -0.04091635346412659, -0.08833526074886322, 0.13762769103050232, -0.014894679188728333, 0.0069198161363601685, 0.06649045646190643, -0.04500415921211243, 0.05061352252960205, 0.028737246990203857, 0.13466262817382812, -0.04124544560909271, -0.0848185122013092, 0.10864970088005066, 0.0724843293428421, 0.11065804958343506, 0.1064625084400177, -0.026684440672397614, 0.11947408318519592, 0.018317535519599915, -0.05868522822856903, 0.12620019912719727, -0.10881192982196808, -0.016266122460365295, 0.14264896512031555, 0.0907919704914093, 0.07654590904712677, 0.12122586369514465, 0.0338892936706543, -0.058866292238235474, -0.011409327387809753, 0.08877938985824585, -0.1320003718137741, -0.05429120361804962, -0.04175850749015808, -0.055464521050453186, -0.07208476215600967, -0.08351561427116394, -0.038649290800094604, 0.014705121517181396, 0.06964464485645294, -0.11815566569566727, 0.11926454305648804, -0.06810232996940613, 0.10386070609092712, -0.0572432279586792, -0.031493812799453735, -0.13929975032806396, 0.05639651417732239, -0.009466320276260376, -0.07849520444869995, 0.028688102960586548, -0.04492506384849548, 0.04299063980579376, -0.10492569953203201, 0.0019437074661254883, 0.0843471884727478, -0.12993882596492767, -0.137277752161026, 0.0715433806180954, -0.13669326901435852, 0.05925190448760986, 0.03922581672668457, -0.13611426949501038, -0.033556774258613586, 0.105103999376297, -0.09168140590190887, 0.07918718457221985, 0.10104760527610779, -0.09702570736408234, -0.06338675320148468, -0.026579037308692932, -0.02023547887802124, 0.08500103652477264, 0.009952783584594727, 0.12914085388183594, -0.08909419924020767, -0.1282886266708374, 0.11203521490097046, 0.12769418954849243, -0.06896156817674637, -0.05944123864173889, 0.023302540183067322, -0.13410942256450653, 0.005481913685798645, 0.050236210227012634, -0.09964126348495483, 0.1325072944164276, 0.03584165871143341, -0.0684017762541771, 0.014301568269729614, 0.04905898869037628, 0.05456075072288513, -0.022935964167118073, 0.021949857473373413, -0.047681525349617004, 0.1385536789894104, -0.010940715670585632, -0.03720258176326752, 0.09700264036655426, 0.08861404657363892, 0.06377187371253967, 0.04928171634674072, -0.09116238355636597, 0.09892778098583221, -0.09508910775184631, 0.02389734983444214, -0.04156923294067383, 0.10070803761482239, 0.0962606817483902, -0.053152650594711304, -0.04505380243062973, -0.008991315960884094, 0.11708730459213257, -0.13134533166885376, -0.09573271125555038, -0.009500160813331604, 0.052056506276130676, 0.11610454320907593, 0.0166613906621933, 0.006128102540969849, -0.03812757879495621, 0.13418468832969666, -0.08810199052095413, 0.02699120342731476, 0.054839178919792175, -0.05404456704854965, 0.13846510648727417, -0.0192624032497406, 0.12064659595489502, 0.005558490753173828, -0.044233180582523346, 0.037179216742515564, -0.13106757402420044, -0.012829184532165527, -0.0031195133924484253, -0.019629761576652527, -0.13872778415679932, -0.03870215266942978, -0.10865038633346558, 0.04393075406551361, -0.10884802043437958, -0.13372404873371124, -0.01922324299812317, -0.06766704469919205, -0.04767528176307678, 0.008654549717903137, 0.08811894059181213, 0.009320378303527832, -0.10903649032115936, 0.08823007345199585, -0.09154486656188965, 0.0886121541261673, -0.12288767844438553, -0.1271243691444397, -0.012931525707244873, -0.09101800620555878, 0.0332665890455246, -0.06470386683940887, 0.08152340352535248, -0.03160383552312851, 0.03449539840221405, 0.09169001877307892, -0.039388373494148254, 0.01849706470966339]}, "bias": {"shape": [12], "values": [0.0006907731294631958, -0.09151344746351242, 0.09653644263744354, 0.024381041526794434, 0.09072594344615936, 0.023363858461380005, 0.04696834087371826, 0.13833653926849365, 0.04422183334827423, 0.0911184698343277, 0.039641425013542175, 0.03622305393218994]}}, "floor": {"shape": [1], "values": [0.0]}, "ceiling": {"shape": [1], "values": [0.0]}, "coef_softsign": {"shape": [1], "values": [-1.157660722732544]}, "coef_tanh": {"shape": [1], "values": [-1.3242157697677612]}}, "stack.3": {"conv": {"weight": {"shape": [12, 12, 4], "values": [-0.02143067866563797, 0.09556993842124939, 0.07119838893413544, -0.13417737185955048, 0.05412350594997406, -0.008458927273750305, 0.008720815181732178, -0.11341796070337296, 0.0245419442653656, 0.09516666829586029, 0.0964432954788208, 0.12348228693008423, 0.10542906820774078, 0.061808764934539795, 0.01973763108253479, -0.12911055982112885, 0.04779462516307831, 0.0064825862646102905, -0.08585099875926971, 0.031189218163490295, -0.01983683556318283, 0.017660632729530334, 0.011181920766830444, -0.007570892572402954, -0.06783248484134674, 0.07229013741016388, -0.042636439204216, 0.07620182633399963, 0.09864962100982666, -0.04002773016691208, 0.03470653295516968, 0.11308944225311279, 0.09136268496513367, -0.11982572078704834, 0.060962408781051636, -0.1380625069141388, -0.1322205364704132, -0.022481299936771393, 0.0295114666223526, 0.09445951879024506, -0.041247546672821045, 0.1351413130760193, -0.04297105222940445, 0.0993308573961258, -0.1388116031885147, -0.08091551065444946, -0.005930915474891663, 0.04900634288787842, -0.12029832601547241, 0.06055951118469238, -0.037841469049453735, -0.045164644718170166, -0.11616647243499756, -0.10689365863800049, -0.13248498737812042, -0.06699220836162567, -0.05492723733186722, -0.05204452574253082, -0.03359674662351608, 0.12008029222488403, -0.10289035737514496, 0.12433910369873047, -0.0736006647348404, 0.14150545001029968, -0.09238988906145096, 0.10826998949050903, -0.11874782294034958, 0.12318092584609985, -0.11419081687927246, 0.13715538382530212, -0.13461211323738098, 0.10820424556732178, 0.1322959065437317, -0.0048172324895858765, 0.11517822742462158, 0.07512257993221283, 0.010401740670204163, -0.021751046180725098, 0.041833192110061646, -0.03761167824268341, -0.08868208527565002, 0.04629749059677124, -0.12168277055025101, 0.10449942946434021, -0.11704929918050766, 0.0292833149433136, 0.13690033555030823, -0.0890626609325409, -0.1222957968711853, 0.024778500199317932, -0.08703425526618958, -0.025261834263801575, -0.13485252857208252, -0.024691857397556305, -0.04226288944482803, -0.10257252305746078, -0.05797091871500015, -0.11341594904661179, 0.029741153120994568, 0.09279140830039978, -0.04195104539394379, -0.10394108295440674, 0.047032326459884644, 0.08133155107498169, 0.11618107557296753, 0.07458500564098358, 0.14314332604408264, 0.09659133851528168, -0.03796594589948654, -0.1298479288816452, -0.06555943191051483, 0.13802412152290344, -0.1205463707447052, -0.01788686215877533, -0.0064605772495269775, -0.12206584960222244, -0.03610481321811676, 0.1162135899066925, -0.048006728291511536, -0.096763975918293, -0.10939991474151611, 0.025684624910354614, 0.12444499135017395, -0.10193588584661484, -0.004845336079597473, -0.04021027684211731, -0.09177222847938538, 0.058796271681785583, -0.14044927060604095, 0.04651011526584625, 0.10358858108520508, 0.020436227321624756, 0.1021767407655716, -0.09570690244436264, 0.13765281438827515, -0.06333206593990326, -0.055815838277339935, -0.02283964306116104, 0.07250876724720001, -0.11016403138637543, 0.07669557631015778, 0.04368141293525696, 0.1442643404006958, 0.08079893887042999, 0.03348955512046814, 0.06941311061382294, 0.11970573663711548, 0.07680436968803406, -0.13071313500404358, -0.1332222819328308, -0.01588405668735504, -0.0011172592639923096, -0.014906227588653564, -0.10280168056488037, 0.07616609334945679, 0.00035877525806427, 0.10409919917583466, 0.04926757514476776, 0.08531345427036285, -0.12356279045343399, 0.0658811628818512, 0.08231911063194275, 0.10135160386562347, -0.04655960202217102, -0.05230790376663208, -0.13818636536598206, 0.022526472806930542, 0.026761338114738464, 0.05616949498653412, -0.008269131183624268, 0.1009732335805893, 0.09170766174793243, 0.08883468806743622, -0.06576857715845108, 0.07346384227275848, 0.07803961634635925, -0.08394584059715271, 0.03358384966850281, -0.012284711003303528, 0.05097480118274689, -0.02989809215068817, 0.11626693606376648, -0.09231185913085938, -0.055347174406051636, -0.09327589720487595, 0.047722041606903076, 0.10477101802825928, -0.11328216642141342, 0.06142415106296539, 0.06193496286869049, 0.06956268846988678, 0.07032176852226257, 0.14056116342544556, -0.09903521835803986, -0.11343597620725632, -0.08476197719573975, 0.006978169083595276, 0.05343011021614075, 0.05911877751350403, 0.004427820444107056, -0.05325229465961456, -0.11787110567092896, -0.11225076764822006, -0.04334016889333725, 0.007757529616355896, -0.10463117808103561, -0.11284852027893066, -0.004222974181175232, -0.12376443296670914, 0.00016352534294128418, 0.08571186661720276, -0.0013163089752197266, 0.13222047686576843, -0.1137142926454544, 0.10893645882606506, 0.012148097157478333, 0.11572873592376709, -0.09174439311027527, 0.030445963144302368, 0.0018254369497299194, -0.1403857171535492, 0.09490945935249329, 0.1343962550163269, 0.009767204523086548, -0.12428050488233566, -0.1202482059597969, -0.0754268616437912, 0.07996319234371185, -0.005463495850563049, -0.09168267250061035, -0.03717067837715149, -0.040387772023677826, -0.07595788687467575, 0.11823633313179016, 0.030911728739738464, -0.11644889414310455, 0.11214488744735718, 0.0714576244354248, 0.13094112277030945, -0.045061975717544556, 0.010247930884361267, 0.11373886466026306, 0.025097966194152832, -0.12536244094371796, 0.024750500917434692, -0.09311871975660324, -0.04412613809108734, -0.027678631246089935, -0.1075250506401062, 0.11489757895469666, 0.005513995885848999, -0.13904400169849396, -0.07052379846572876, -0.01743459701538086, 0.011045768857002258, 0.07373890280723572, 0.0010165572166442871, 0.10977330803871155, 0.004122301936149597, 0.07166881859302521, -0.01419416069984436, 0.017690733075141907, -0.11830408871173859, 0.015219897031784058, 0.0966358333826065, 0.10056839883327484, 0.08261978626251221, -0.027409106492996216, -0.10783986002206802, 0.10724329948425293, 0.06495657563209534, -0.12165463715791702, 0.05316266417503357, -0.1319672167301178, 0.05019538104534149, 0.09106515347957611, -0.12969325482845306, -0.11717066913843155, 0.14326542615890503, 0.1439186930656433, 0.039323240518569946, 0.013383984565734863, 0.04111491143703461, -0.017067164182662964, -0.08686595410108566, 0.04672820866107941, -0.04140413552522659, -0.06788650900125504, 0.09202207624912262, -0.00026969611644744873, -0.042235225439071655, -0.08563630282878876, 0.055858492851257324, -0.13250795006752014, -0.04255182296037674, -0.09374800324440002, 0.11211910843849182, -0.11431018263101578, -0.11153997480869293, 0.14003628492355347, 0.09336091578006744, 0.1287994086742401, -0.035853929817676544, 0.06411057710647583, -0.023491457104682922, -0.034646421670913696, 0.015862584114074707, 0.06016719341278076, -0.018048763275146484, -0.10630649328231812, -0.08679638803005219, 0.10366855561733246, -0.11290919780731201, -0.009616807103157043, 0.03828221559524536, -0.0044555217027664185, 0.07631686329841614, -0.13813067972660065, -0.14364905655384064, -0.11369667202234268, 0.07113131880760193, 0.02601049840450287, 0.11801248788833618, -0.1416674256324768, 0.0947914570569992, 0.06270924210548401, -0.0435868576169014, -0.03653034567832947, -0.02322234958410263, -0.0054733604192733765, -0.06855563074350357, 0.034880608320236206, 0.06425675749778748, 0.05225369334220886, -0.009748533368110657, -0.0013229697942733765, -0.10406932234764099, 0.12083563208580017, -0.10114122927188873, 0.08811233937740326, 0.13216251134872437, 0.10322907567024231, -0.0857822448015213, -0.004023224115371704, 0.06234297156333923, 0.13601335883140564, 0.0213993638753891, -0.03360574692487717, -0.05681370943784714, -0.04256357252597809, -0.14283110201358795, 0.0376846045255661, 0.05071987211704254, 0.05989822745323181, -0.07444404810667038, 0.13001462817192078, -0.10224537551403046, -0.07799205929040909, 0.004271969199180603, -0.10357272624969482, 0.1414472758769989, 0.01234370470046997, 0.11855891346931458, 0.029523998498916626, 0.05080084502696991, -0.07428783178329468, 0.03428781032562256, 0.125258207321167, -0.06785231828689575, -0.004778176546096802, -0.021959349513053894, 0.0005517899990081787, 0.01333799958229065, -0.09117661416530609, -0.0448111891746521, 0.02534453570842743, 0.00627472996711731, 0.1413561999797821, -0.0027240216732025146, 0.05103422701358795, 0.08120675384998322, -0.03223692625761032, -0.06236252188682556, -0.08025676012039185, 0.07011154294013977, -0.0044417232275009155, 0.05730998516082764, 0.08365800976753235, 0.028649553656578064, 0.14283013343811035, 0.00923226773738861, -0.06618648767471313, -0.10918045789003372, -0.11457015573978424, 0.13534817099571228, 0.10596778988838196, -0.06741637736558914, 0.1099415123462677, -0.013179421424865723, -0.049975909292697906, -0.1075948029756546, 0.12245362997055054, -0.06835660338401794, -0.13571223616600037, -0.13010576367378235, -0.10371600091457367, -0.053517863154411316, 0.03400023281574249, -0.05083557218313217, -0.09622173011302948, -0.02016530930995941, 0.009720221161842346, 0.024958536028862, 0.08251835405826569, -0.008742988109588623, 0.1012425422668457, -0.06076318770647049, 0.09429986774921417, -0.002457171678543091, 0.1402435600757599, -0.04911380261182785, 0.11123573780059814, -0.08111055940389633, 0.01621118187904358, 0.052703067660331726, -0.14293617010116577, 0.12479856610298157, -0.08355414122343063, -0.037621282041072845, 0.10365608334541321, 0.06522101163864136, 0.11975744366645813, 0.10380986332893372, 0.13551867008209229, 0.12047445774078369, 0.04625876247882843, -0.03269406408071518, 0.003922969102859497, -0.07137324661016464, 0.10676482319831848, 0.11786952614784241, -0.0007217526435852051, 0.10444271564483643, -0.09426292777061462, -0.14422403275966644, 0.026961222290992737, -0.04863446205854416, 0.04262080788612366, -0.12868577241897583, 0.038307175040245056, -0.10319671779870987, 0.13621750473976135, 0.13807550072669983, 0.013320624828338623, -0.10765840113162994, 0.13966786861419678, 0.034977808594703674, -0.020970724523067474, -0.0748072937130928, 0.041440725326538086, -0.06958627700805664, -0.12387935072183609, 0.09483194351196289, -0.043380945920944214, -0.13215187191963196, -0.07747390121221542, 0.059545621275901794, 0.059876590967178345, 0.11264660954475403, -0.04931606352329254, 0.05561889708042145, 0.05424076318740845, -0.14057081937789917, 0.03238104283809662, -0.0820276066660881, 0.12266162037849426, -0.13344696164131165, 0.01753900945186615, -0.041608117520809174, 0.1435042917728424, -0.13715995848178864, 0.057026684284210205, -0.09437502920627594, -0.021483831107616425, -0.07727251946926117, -0.04436389356851578, -0.06980137526988983, -0.008852556347846985, 0.10408100485801697, -0.08360899239778519, 0.11063510179519653, 0.11683222651481628, 0.06916795670986176, -0.11012248694896698, -0.049248598515987396, -0.06170380860567093, -0.11536771804094315, -0.024337545037269592, -0.10764215886592865, 0.021056771278381348, -0.025423280894756317, -0.10471086204051971, -0.10515492409467697, 0.11512455344200134, 0.13482129573822021, -0.059295982122421265, -0.00042757391929626465, -0.09077653288841248, 0.0001911073923110962, -0.13977156579494476, -0.12796199321746826, -0.080387182533741, 0.11152049899101257, -0.10763634741306305, -0.03260498493909836, 0.13092052936553955, 0.12291893362998962, 0.11540871858596802, 0.008024528622627258, -0.0559401735663414, 0.11805039644241333, 0.02218593657016754, 0.025468379259109497, 0.14059233665466309, 0.08082513511180878, 0.05086351931095123, -0.019095689058303833, -0.08853664249181747, -0.07227334380149841, 0.05640198290348053, 0.037095144391059875, -0.11815463751554489, 0.033061012625694275, 0.031175628304481506, 0.09066733717918396, 0.03814181685447693, -0.0013438016176223755, 0.12379112839698792, 0.07789739966392517, 0.00795242190361023, -0.07985741645097733, 0.04613900184631348, 0.01573862135410309, 0.11952817440032959, -0.05626750737428665, 0.04837621748447418, -0.14196303486824036, 0.10096542537212372, -0.1228325366973877, -0.12847773730754852, -0.12770606577396393, 0.008287429809570312, 0.13373899459838867, 0.07146415114402771, 0.14293304085731506, -0.054658226668834686, -0.03746850788593292, 0.017263129353523254, -0.03941626846790314, -0.04788324981927872, 0.06923539936542511, 0.04632008075714111, 0.060525134205818176, -0.07282945513725281, -0.04944884032011032, 0.08072267472743988, -0.014302313327789307, 0.1346735954284668, -0.0832156091928482, 0.03367689251899719, 0.06298597157001495, -0.09676802158355713, -0.11660786718130112, 0.0791332870721817, -0.08250211179256439, -0.1126181036233902]}, "bias": {"shape": [12], "values": [0.014428511261940002, -0.022579416632652283, -0.077821284532547, 0.06362427771091461, -0.04685895889997482, 0.04198126494884491, -0.023549094796180725, -0.04372667521238327, -0.04805942624807358, 0.09098125994205475, -0.1013251468539238, 0.13171473145484924]}}, "floor": {"shape": [1], "values": [0.0]}, "ceiling": {"shape": [1], "values": [0.0]}, "coef_softsign": {"shape": [1], "values": [-0.6869949102401733]}, "coef_tanh": {"shape": [1], "values": [-0.9623504281044006]}}, "stack.4": {"conv": {"weight": {"shape": [12, 12, 4], "values": [-0.010012686252593994, -0.03636561334133148, -0.03425700217485428, 0.10657349228858948, 0.019031256437301636, 0.05767509341239929, 0.10171851515769958, -0.01615673303604126, -0.055069565773010254, 0.11546212434768677, 0.029632732272148132, -0.0523117259144783, -0.06754496693611145, -0.0198308527469635, -0.06394227594137192, 0.1063036322593689, -0.05697544664144516, 0.1421244740486145, -0.06895886361598969, -0.025698654353618622, 0.013886168599128723, -0.10100032389163971, -0.05374016612768173, 0.10142801702022552, 0.11819523572921753, -0.010816216468811035, 0.0756165087223053, 0.1112109124660492, -0.1338711977005005, 0.0826275646686554, 0.04899710416793823, -0.11385316401720047, -0.12477124482393265, 0.05251908302307129, -0.05531618744134903, -0.12803886830806732, -0.13553638756275177, 0.03873772919178009, 0.11133888363838196, 0.0937766432762146, 0.015260353684425354, 0.10891714692115784, 0.02496109902858734, 0.07440415024757385, -0.0714375302195549, 0.1390894055366516, -0.1331299990415573, 0.11222553253173828, -0.06286370754241943, 0.10298299789428711, 0.031189262866973877, 0.13831984996795654, 0.09521827101707458, -0.09877657145261765, 0.08298839628696442, 0.13765639066696167, -0.08997645974159241, -0.011533662676811218, 0.09939989447593689, -0.05022577941417694, 0.11565658450126648, -0.08466947078704834, -0.08355680853128433, 0.13072806596755981, -0.09270279109477997, -0.017192542552947998, 0.0023566782474517822, 0.024037644267082214, -0.09444767236709595, -0.10665571689605713, -0.021456025540828705, -0.0902341902256012, 0.091119185090065, 0.027685046195983887, -0.07082367688417435, 0.0523243248462677, -0.0655224397778511, -0.028553985059261322, -0.030614949762821198, 0.018539205193519592, -0.037115566432476044, -0.018858909606933594, 0.1049642413854599, -0.14379237592220306, 0.05164054036140442, -0.009889096021652222, 0.1424488127231598, -0.1209845021367073, -0.12294585257768631, -0.1260930597782135, -0.007979795336723328, -0.13805466890335083, -0.0944133996963501, 0.03922572731971741, -0.023940764367580414, 0.09912154078483582, 0.020435303449630737, 0.08101537823677063, 0.06409069895744324, 0.12626796960830688, 0.07760488986968994, 0.09991511702537537, -0.13149836659431458, -0.03394591063261032, -0.07563374936580658, 0.04177708923816681, 0.11735698580741882, 0.013135462999343872, 0.11178794503211975, -0.06400445848703384, -0.11776387691497803, 0.02015116810798645, -0.0952104777097702, -0.1378808170557022, 0.13268476724624634, -0.14359593391418457, -0.06556160002946854, -0.0674542486667633, 0.05027037858963013, -0.023450419306755066, 0.042506054043769836, 0.11936065554618835, -0.09804581105709076, 0.1371074914932251, -0.07414257526397705, 0.07533751428127289, 0.09480850398540497, -0.09263905882835388, 0.03399047255516052, 0.07670417428016663, 0.03078119456768036, 0.03384464979171753, 0.020482003688812256, -0.09687067568302155, -0.021214313805103302, -0.129460409283638, -0.10405033826828003, -0.06928268820047379, -0.06465038657188416, 0.061218008399009705, -0.11692178249359131, -0.107362762093544, 0.054096147418022156, -0.12407779693603516, 0.04499581456184387, -0.03662071377038956, 0.09739352762699127, -0.116437628865242, 0.04874467849731445, 0.057284221053123474, 0.02777126431465149, 0.12474223971366882, 0.1040840744972229, 0.03706519305706024, -0.02716848999261856, 0.12712368369102478, -0.06331813335418701, 0.007984384894371033, 0.009141355752944946, -0.050303034484386444, 0.1061449646949768, -0.13399121165275574, -0.05973529815673828, -0.05169492959976196, 0.08272229135036469, 0.09506866335868835, -0.07433606684207916, -0.05616433918476105, 0.005801647901535034, 0.08920149505138397, -0.0049842000007629395, 0.07057197391986847, 0.011093780398368835, -0.01785878837108612, -0.1264670491218567, -0.0885743796825409, -0.0432744026184082, 0.005426585674285889, -0.02435457706451416, -0.13990400731563568, -0.14127680659294128, -0.056322984397411346, 0.12724077701568604, -0.10471060872077942, 0.10485915839672089, -0.05840513855218887, 0.032637447118759155, 0.0133647620677948, 0.06503869593143463, -0.12181241810321808, 0.10219885408878326, -0.06856413185596466, -0.12059561908245087, -0.13515062630176544, -0.11043573915958405, 0.10497494041919708, -0.057586103677749634, 0.08425506949424744, 0.013608410954475403, -0.051329828798770905, -0.038249023258686066, 0.1205369234085083, 0.057366907596588135, -0.09237973392009735, -0.014087960124015808, 0.019456595182418823, -0.00825132429599762, -0.09193803369998932, -0.08759965002536774, -0.08537399023771286, 0.05963559448719025, -0.02560862898826599, -0.1196327805519104, -0.03744778782129288, -0.09042342007160187, -0.11196033656597137, -0.11215513199567795, -0.03831811994314194, 0.06695102155208588, 0.06699120998382568, -0.013930454850196838, 0.12861597537994385, 0.010900512337684631, -0.043966732919216156, -0.016507089138031006, 0.075773686170578, -0.1396830677986145, 0.03442145884037018, -0.1330062448978424, -0.10691136866807938, -0.11597014963626862, -0.13245455920696259, -0.08549970388412476, 0.06079523265361786, -0.12248749285936356, -0.12044423818588257, 0.025382861495018005, -0.014566183090209961, 0.025990009307861328, 0.1187458336353302, 0.0584050714969635, 0.12071007490158081, -0.01618911325931549, -0.04206966608762741, -0.06822741776704788, 0.04373309016227722, 0.04593561589717865, 0.12759613990783691, -0.032696716487407684, -0.10775797069072723, 0.14284345507621765, 0.09377418458461761, 0.08255742490291595, -0.01883120834827423, -0.11367364972829819, 0.03407144546508789, -0.007649406790733337, 0.06516215205192566, 0.05869270861148834, 0.07632440328598022, 0.12698939442634583, 0.09511002898216248, -0.06421499699354172, 0.1071709394454956, -0.09970948100090027, 0.003082782030105591, 0.013503864407539368, -0.13770218193531036, 0.12927359342575073, 0.045849353075027466, -0.10895688086748123, -0.008372634649276733, -0.09608542919158936, -0.08996601402759552, 0.14030754566192627, 0.0387091338634491, 0.02076992392539978, 0.027331843972206116, -0.08322465419769287, -0.05307142436504364, -0.03932206332683563, 0.1020885556936264, 0.07201871275901794, 0.12042415142059326, -0.070613794028759, 0.051760196685791016, -0.08411797881126404, -0.07953164726495743, 0.12701404094696045, 0.11207842826843262, 0.024769127368927002, 0.036859720945358276, -0.0904160737991333, -0.0722472071647644, 0.09984204173088074, -3.0040740966796875e-05, -0.09319455921649933, 0.05757325887680054, 0.12699171900749207, 0.1175469160079956, 0.009727776050567627, 0.08265213668346405, -0.02304324507713318, 0.017545461654663086, -0.10969236493110657, -0.12146405875682831, -0.13451442122459412, 0.14328539371490479, -0.1317196786403656, 0.1403534710407257, -0.141328826546669, -0.08894728869199753, 0.06834064424037933, -0.12062089145183563, 0.11969533562660217, 0.09501565992832184, -0.12664751708507538, 0.11999720335006714, 0.058001428842544556, 0.09717303514480591, -0.10297156870365143, -0.04526502639055252, -0.08123088628053665, 0.051219046115875244, 0.07052166759967804, -0.12387379258871078, 0.13960033655166626, 0.014621615409851074, 0.12972736358642578, 0.029972165822982788, 0.063813716173172, 0.1381017565727234, 0.12017416954040527, -0.12666156888008118, 0.0030837655067443848, 0.004565969109535217, 0.12758785486221313, -0.13069219887256622, 0.10012863576412201, -0.10182444006204605, -0.12492690980434418, 0.1246252954006195, 0.0955069363117218, 0.02371877431869507, -0.13605108857154846, -0.05018763244152069, -0.04422617703676224, -0.13461557030677795, 0.13053187727928162, -0.05426713079214096, 0.08670149743556976, 0.03442549705505371, 0.12730970978736877, 0.02835601568222046, -0.06311791390180588, -0.041563570499420166, -0.01981496810913086, -0.050001636147499084, 0.028534039855003357, -0.01295270025730133, -0.09317250549793243, -0.010805085301399231, -0.05859284847974777, 0.03235059976577759, 0.014133855700492859, -0.14249026775360107, 0.10618418455123901, -0.0956413596868515, -0.03997635096311569, 0.03210951387882233, 0.10621243715286255, -0.14023953676223755, -0.11144612729549408, 0.12349838018417358, -0.11549612879753113, -0.06564778834581375, -0.05922889709472656, -0.0032995641231536865, -0.09163263440132141, -0.05875629186630249, 0.06192776560783386, 0.11416277289390564, -0.08127790689468384, -0.01772966980934143, 0.10180632770061493, -0.08923973143100739, 0.12175104022026062, -0.039866700768470764, -0.11166948080062866, 0.09030796587467194, -0.08808029443025589, -0.08080493658781052, 0.06558358669281006, 0.04759575426578522, 0.027156159281730652, 0.135460764169693, -0.07269421219825745, -0.10583868622779846, 0.1413569450378418, -0.09921741485595703, 0.08759278059005737, -0.09851475805044174, -0.07178167253732681, -0.119355209171772, -0.10817620903253555, -0.08720169961452484, -0.009749457240104675, -0.10786658525466919, -0.006673574447631836, 0.0561753511428833, 0.07327014207839966, -0.013487964868545532, -0.09798529744148254, -0.021778561174869537, -0.1311982125043869, 0.048195600509643555, -0.045982688665390015, -0.10164722800254822, 0.06098756194114685, -0.009483635425567627, 0.042623892426490784, 0.07033257186412811, -0.08886446058750153, 0.032763510942459106, 0.08394575119018555, -0.03453856706619263, -0.12428153306245804, -0.0024004727602005005, 0.10630086064338684, -0.054965123534202576, 0.002054348587989807, -0.09165528416633606, -0.058709487318992615, -0.0604756698012352, -0.06679484993219376, -0.007788911461830139, -0.004740029573440552, -0.009336337447166443, -0.03263811022043228, -0.0021645575761795044, 0.07644003629684448, -0.030483752489089966, 0.007409617304801941, -0.06585624068975449, 0.09835486114025116, -0.07475655525922775, -0.09742508083581924, 0.07237830758094788, -0.026547327637672424, 0.008946701884269714, -0.013051077723503113, 0.14327728748321533, 0.0034094154834747314, -0.1047353446483612, 0.06269578635692596, -0.08150923252105713, 0.08915819227695465, -0.13929204642772675, 0.12508705258369446, -0.08855388313531876, -0.0012097358703613281, 0.08220797777175903, -0.13157793879508972, -0.09402023255825043, -0.015301153063774109, -0.12065429240465164, 0.06494589149951935, -0.046180494129657745, 0.07600918412208557, -0.11291930079460144, 0.08747453987598419, 0.05036799609661102, -0.055110931396484375, 0.006254255771636963, 0.0537906140089035, 0.0716656744480133, 0.14380958676338196, -0.14269521832466125, 0.1372271478176117, -0.06095464527606964, 0.04525573551654816, -0.05412307381629944, -0.04983562231063843, -0.04307224601507187, 0.056522443890571594, 0.09851521253585815, 0.03435954451560974, 0.09751008450984955, 0.010326370596885681, 0.11757668852806091, -0.03521671146154404, 0.10026301443576813, 0.13264432549476624, -0.05301235616207123, -0.12170365452766418, 0.040622562170028687, 0.12505406141281128, -0.08899091184139252, 0.10062330961227417, 0.011881843209266663, 0.1409265697002411, 0.10190820693969727, 0.11713209748268127, 0.02603188157081604, 0.03899674117565155, 0.011935129761695862, -0.08827590942382812, 0.0417499840259552, 0.10399450361728668, 0.14416691660881042, 0.03783731162548065, 0.0870949774980545, 0.13874781131744385, 0.059291109442710876, -0.10944996774196625, -0.1248122826218605, 0.06394699215888977, -0.13279883563518524, -0.10138268768787384, -0.04839278757572174, 0.11816814541816711, -0.12353414297103882, -0.08239579200744629, 0.09266375005245209, 0.04544273018836975, 0.006499126553535461, -0.027874335646629333, -0.015612512826919556, 0.10665011405944824, -0.07351254671812057, 0.11773693561553955, -0.08117707818746567, -0.08607747405767441, -0.11922480165958405, 0.13212034106254578, 0.11801156401634216, 0.02327735722064972, -0.1207299679517746, -0.0907994881272316, -0.09151574969291687, 0.1085633635520935, -0.06637148559093475, -0.03292185813188553, 0.03280055522918701, 0.07244473695755005, -0.08266344666481018, -0.10574992001056671, 0.0024475008249282837, 0.014393314719200134, -0.013033062219619751, 0.05998335778713226, 0.11642485857009888, 0.005511179566383362, -0.0021136701107025146, 0.09087452292442322, 0.08910706639289856, 0.05278767645359039, -0.001742631196975708, -0.016469940543174744, -0.05214453488588333, -0.07014283537864685, 0.03618501126766205, 0.08877480030059814, -0.1307937055826187, 0.07092389464378357, 0.1373661756515503, -0.011640429496765137, 0.12006768584251404, -0.12899313867092133, 0.04751625657081604, -0.08904772251844406, -0.05490395426750183, -0.13845083117485046, -0.061034053564071655, 0.002116262912750244, 0.07880283892154694]}, "bias": {"shape": [12], "values": [0.1344698667526245, -0.13741609454154968, -0.026151321828365326, -0.06698821485042572, 0.13617286086082458, -0.11723722517490387, -0.0733337253332138, 0.045508891344070435, -0.04193982481956482, 0.042673707008361816, 0.10387881100177765, 0.03188517689704895]}}, "floor": {"shape": [1], "values": [0.0]}, "ceiling": {"shape": [1], "values": [0.0]}, "coef_softsign": {"shape": [1], "values": [0.5640738606452942]}, "coef_tanh": {"shape": [1], "values": [1.6756582260131836]}}, "stack.5": {"conv": {"weight": {"shape": [1, 12, 4], "values": [-0.009089946746826172, -0.0639042854309082, 0.042671963572502136, 0.10960644483566284, -0.13816095888614655, -0.1181083470582962, 0.007145211100578308, -0.10879330337047577, 0.07634146511554718, -0.10693635046482086, 0.08575586974620819, -0.02878439426422119, -0.04016958177089691, 0.01697641611099243, -0.0658392459154129, -0.10847631096839905, 0.09101718664169312, 0.10327832400798798, -0.07381387054920197, -0.026332862675189972, 0.05870746076107025, -0.0013315975666046143, 0.10098940134048462, 0.10976538062095642, 0.07250775396823883, -0.04875869303941727, 0.025897949934005737, -0.010891616344451904, 0.025246888399124146, 0.1134253740310669, 0.13343662023544312, -0.007849529385566711, -0.06379667669534683, 0.11580720543861389, -0.12101344019174576, -0.05575728416442871, 0.14027723670005798, 0.03777951002120972, 0.07919616997241974, -0.002873733639717102, 0.011108189821243286, -0.1143965870141983, -0.1341252475976944, -0.07590033113956451, -0.07433076202869415, 0.09043747186660767, -0.0021411925554275513, -0.1070784479379654]}, "bias": {"shape": [1], "values": [-0.006793588399887085]}}, "floor": {"shape": [1], "values": [0.0]}, "ceiling": {"shape": [1], "values": [0.0]}, "coef_softsign": {"shape": [1], "values": [1.250555157661438]}, "coef_tanh": {"shape": [1], "values": [-0.17821627855300903]}}}}