{"config": {"model_type": "ConvWaveshaper", "norm_mean": 0.10000000149011612, "norm_std": 0.8999999761581421}, "meta_data": {}, "parameters": {"kernel_size": 4, "depth_size": 6, "num_channels": 12}, "state_dict": {"stack.0": {"conv": {"weight": {"shape": [12, 1, 4], "values": [0.2514832019805908, 0.0421527624130249, -0.31044602394104004, -0.001902163028717041, 0.05001431703567505, 0.2981991171836853, -0.4142369031906128, -0.39775532484054565, -0.41473543643951416, 0.28017812967300415, 0.362385630607605, -0.08338409662246704, 0.3814009428024292, 0.4182271957397461, -0.2704862356185913, 0.31689053773880005, -0.18146347999572754, 0.29653406143188477, 0.3112022280693054, 0.23672038316726685, 0.2577064633369446, 0.19753330945968628, -0.40722179412841797, -0.17450052499771118, -0.09928101301193237, 0.1214718222618103, -0.4915744662284851, -0.0017868280410766602, -0.06174594163894653, -0.4388693571090698, 0.2930631637573242, -0.38162410259246826, -0.10372155904769897, 0.33352380990982056, 0.36895787715911865, 0.3017253279685974, 0.22600865364074707, 0.10976272821426392, 0.32964998483657837, 0.18674659729003906, 0.16570734977722168, 0.3577154874801636, -0.23080796003341675, 0.23208802938461304, -0.01835763454437256, -0.3468449115753174, -0.3242778778076172, 0.3617324233055115]}, "bias": {"shape": [12], "values": [-0.35955810546875, 0.029159128665924072, 0.061424851417541504, -0.24400871992111206, -0.14142543077468872, -0.07482784986495972, 0.28550034761428833, -0.008852601051330566, 0.36560332775115967, -0.373027503490448, -0.013758718967437744, 0.2615453600883484]}}, "floor": {"shape": [1], "values": [0.0]}, "ceiling": {"shape": [1], "values": [0.0]}, "coef_softsign": {"shape": [1], "values": [0.29886290431022644]}, "coef_tanh": {"shape": [1], "values": [-0.7479923367500305]}}, "stack.1": {"conv": {"weight": {"shape": [12, 12, 4], "values": [0.016237899661064148, 0.013663873076438904, 0.0634259432554245, -0.042880840599536896, 0.0026459693908691406, 0.023011788725852966, -0.030646122992038727, -0.04024630784988403, -0.13664484024047852, -0.062268853187561035, -0.041528940200805664, -0.14228767156600952, -0.14184443652629852, 0.029398471117019653, -0.03010272979736328, 0.023498788475990295, 0.02183377742767334, 0.06751658022403717, 0.12101733684539795, 0.13867253065109253, -0.02397134155035019, 0.04848074913024902, 0.061055988073349, 0.05742417275905609, -0.056340739130973816, -0.08467317372560501, -0.1366739273071289, -0.12886971235275269, -0.12873828411102295, -0.09427139163017273, -0.10020777583122253, 0.10714823007583618, -0.06350060552358627, -0.11212054640054703, -0.08426079154014587, 0.11771315336227417, 0.023972108960151672, 0.12577378749847412, -0.048678137362003326, -0.07105909287929535, -0.002063378691673279, 0.08626608550548553, 0.08917433023452759, -0.042870499193668365, -0.0426008403301239, -0.02043670415878296, 0.07948078215122223, 0.1194174587726593, -0.1088101789355278, 0.05457200109958649, -0.07321473956108093, -0.009820148348808289, 0.1389019787311554, 0.0633823573589325, 0.1327226161956787, -0.08646103739738464, 0.08220382034778595, -0.11186826974153519, -0.06770190596580505, 0.07407370209693909, -0.02157507836818695, -0.08285900205373764, 0.09502564370632172, 0.02808883786201477, 0.03729403018951416, 0.09991802275180817, -0.009309858083724976, -0.02326672524213791, 0.10829976201057434, 0.13311049342155457, -0.08493562042713165, 0.11872616410255432, -0.012448370456695557, 0.019002586603164673, 0.04630500078201294, 0.08610622584819794, -0.01058119535446167, -0.008379578590393066, 0.04556737840175629, -0.11637081205844879, 0.10198956727981567, 0.01912936568260193, -0.11372986435890198, -0.11691591143608093, 0.14218536019325256, -0.13838079571723938, 0.10386200249195099, 0.013091608881950378, 0.01708228886127472, 0.039648234844207764, -0.11909248679876328, 0.13965439796447754, 0.09682466089725494, 0.07218769192695618, -0.12399038672447205, 0.07145874202251434, -0.019364140927791595, 0.06601358950138092, -0.04595142602920532, -0.07209854573011398, -0.008330851793289185, 0.10920679569244385, -0.14291232824325562, -0.0021868497133255005, 0.023708343505859375, 0.035572126507759094, 0.10710978507995605, 0.01595492660999298, -0.06662111729383469, -0.12596966326236725, -0.11081114411354065, 0.10078027844429016, -0.012730881571769714, -0.07523895055055618, 0.027859851717948914, 0.09372133016586304, 0.01307438313961029, 0.01909691095352173, 0.0601172149181366, 0.06865718960762024, 0.09413717687129974, -0.13506613671779633, -0.1397225558757782, -0.10827819257974625, 0.10146954655647278, -0.09157661348581314, -0.10253816097974777, 0.003369942307472229, -0.07039838284254074, 0.09288187325000763, -0.0059867799282073975, 0.006022244691848755, 0.13832125067710876, 0.09843005239963531, -0.10957466065883636, -0.13888372480869293, 0.12003692984580994, 0.10070377588272095, -0.08672536164522171, -0.029792331159114838, -0.08097963780164719, 0.02901405096054077, -0.03420259803533554, 0.05846478044986725, 0.05667905509471893, -0.1290343701839447, 0.06053495407104492, 0.008790701627731323, 0.04936991631984711, 0.06961604952812195, -0.13456128537654877, -0.05741007626056671, -0.017273008823394775, 0.13191282749176025, 0.11586248874664307, 0.021746456623077393, 0.11430692672729492, -0.11754906177520752, -0.01572708785533905, 0.004902958869934082, -0.029817037284374237, 0.004812568426132202, -0.05668242275714874, -0.019538722932338715, 0.10335206985473633, -0.11856206506490707, -0.02402273565530777, 0.10023102164268494, -0.06760319322347641, -0.11549100279808044, -0.0972708910703659, -0.12386230379343033, 0.1415019929409027, -0.126409649848938, 0.07078102231025696, 0.09349514544010162, -0.12099830061197281, 0.04265914857387543, 0.12085577845573425, -0.04418441653251648, 0.024438530206680298, -0.038147933781147, -0.14416371285915375, 0.12354838848114014, -0.1306089162826538, -0.06806676089763641, 0.0898284912109375, -0.033503517508506775, 0.07444515824317932, -0.026422768831253052, 0.07219168543815613, -0.03257066011428833, 0.05927741527557373, -0.010489821434020996, -0.06631572544574738, -0.059901461005210876, -0.016697779297828674, -0.0640699490904808, 0.026458993554115295, -0.08196859061717987, 0.035513848066329956, -0.08104785531759262, 0.12009996175765991, -0.1253308355808258, 0.05915278196334839, -0.09200465679168701, -0.10244442522525787, -0.07070659846067429, -0.10536646097898483, -0.007290706038475037, 0.11560353636741638, 0.005204811692237854, 0.09666667878627777, 0.019841134548187256, -0.051005780696868896, 0.13111481070518494, 0.015096604824066162, 0.0791291743516922, 0.06901983916759491, 0.112749844789505, 0.08612115681171417, 0.02906741201877594, -0.09869295358657837, -0.07862776517868042, -0.01113821566104889, -0.09241752326488495, -0.12881453335285187, -0.12566784024238586, -0.07990074157714844, 0.12132516503334045, 0.05444423854351044, -0.10806949436664581, -0.048754945397377014, 0.005493760108947754, 0.014916926622390747, 0.04033559560775757, 0.017954111099243164, 0.05207419395446777, 0.07438215613365173, 0.12446391582489014, -0.12395256757736206, 0.046821922063827515, 0.03575971722602844, 0.11077266931533813, 0.034008145332336426, 0.0007709264755249023, -0.08088511973619461, 0.09107255935668945, 0.043727874755859375, 0.021697714924812317, -0.07300996780395508, -0.04660583287477493, 0.010268375277519226, -0.09282940626144409, 0.027787193655967712, -0.0055350810289382935, 0.039134472608566284, 0.12146669626235962, -0.04246754199266434, 0.11959770321846008, 0.08194148540496826, 0.012814551591873169, 0.04530636966228485, 0.048199743032455444, -0.008674055337905884, 0.13047805428504944, -0.07797522842884064, 0.005198851227760315, 0.017617419362068176, 0.05351784825325012, -0.11399311572313309, -0.13729488849639893, 0.07501353323459625, -0.13629095256328583, -0.0031088590621948242, -0.046641863882541656, -0.09236857295036316, 0.04788769781589508, -0.03473639488220215, 0.1265431046485901, 0.14021676778793335, 0.001216590404510498, 0.12457728385925293, 0.024096056818962097, 0.14119312167167664, 0.10944357514381409, 0.05448263883590698, 0.10475553572177887, 0.11553868651390076, 0.0528087317943573, 0.0855143666267395, 0.009025782346725464, -0.13715049624443054, -0.12488165497779846, -0.05873604118824005, -0.11839578300714493, 0.013499423861503601, -0.11446543037891388, -0.10609292984008789, 0.0407370924949646, 0.14238107204437256, 0.1113414466381073, 0.0702924132347107, 0.07755987346172333, -0.039364442229270935, 0.11754047870635986, -0.026593834161758423, 0.05713212490081787, -0.1333053559064865, 0.07271859049797058, 0.09760364890098572, 0.08689148724079132, -0.13328716158866882, -0.1418277621269226, -0.006314188241958618, 0.007391631603240967, -0.10137784481048584, -0.13543862104415894, -0.07416532188653946, 0.025214552879333496, -0.029564931988716125, -0.05654628574848175, 0.07838612794876099, -0.010788515210151672, -0.006418928503990173, -0.0340363010764122, -0.1184130385518074, 0.02046661078929901, -0.1211201548576355, -0.11636623740196228, 0.013975724577903748, 0.08349721133708954, 0.06063133478164673, -0.0570000484585762, -0.13329549133777618, -0.11313875019550323, -0.12301404774188995, -0.10281599313020706, 0.02343583106994629, -0.12369365990161896, -0.035603784024715424, -0.002031683921813965, -0.053617797791957855, -0.10369066148996353, -0.13899344205856323, 0.10384583473205566, 0.11413323879241943, -0.011767387390136719, -0.10174847394227982, 0.05707615613937378, 0.05300603806972504, -0.06816155463457108, 0.0546649694442749, 0.05478715896606445, -0.09213799238204956, 0.055063873529434204, 0.12312647700309753, -0.03599090874195099, 0.07015639543533325, 0.10667181015014648, -0.04958520084619522, -0.047983236610889435, 0.13060611486434937, 0.0055870115756988525, 0.07455070316791534, -0.025522910058498383, -0.08323054015636444, 0.11584711074829102, 0.0437515527009964, 0.0017188787460327148, -0.05195391923189163, 0.08559085428714752, 0.09636080265045166, -0.1089438945055008, -0.1313742995262146, 0.023163557052612305, 0.06241688132286072, -0.1087140440940857, -0.12481546401977539, 0.08860689401626587, 0.09517930448055267, 0.1121358573436737, -0.011301800608634949, -0.02855268120765686, 0.1107955276966095, 0.11396384239196777, -0.1054261177778244, -0.06717555969953537, -0.029290519654750824, -0.005733996629714966, 0.060854390263557434, 0.10938027501106262, 0.11832508444786072, 0.14313697814941406, 0.13985887169837952, -0.0942663848400116, 0.13728675246238708, -0.030650854110717773, -0.1242743581533432, 0.05331513285636902, -0.13978618383407593, 0.12006822228431702, -0.00010573863983154297, 0.1356288194656372, 0.1258852183818817, -0.08436639606952667, 0.05675335228443146, -0.002634778618812561, -0.14157578349113464, 0.14345350861549377, -0.0024546682834625244, 0.07973846793174744, -0.08242209255695343, -0.08063024282455444, -0.1207117810845375, -0.13891877233982086, 0.11929145455360413, -0.048368990421295166, -0.06904859840869904, 0.09939207136631012, -0.03328032046556473, 0.10064874589443207, -0.10446898639202118, -0.03073783963918686, -0.1184978038072586, 0.0917072743177414, 0.01722113788127899, -0.08384718000888824, 0.021229028701782227, -0.06835774332284927, -0.07192599773406982, 0.14396610856056213, -0.06782107800245285, 0.06763233244419098, 0.07715453207492828, 0.06374301016330719, 0.1206408441066742, -0.019451826810836792, 0.14072588086128235, -0.08842375129461288, -0.0006080567836761475, 0.015833914279937744, 0.0842132419347763, -0.012485578656196594, 0.045089542865753174, -0.11769118160009384, -0.11389897763729095, 0.07285243272781372, -0.07220828533172607, 0.009568646550178528, -0.10546047985553741, 0.12024235725402832, -0.14035244286060333, 0.018570005893707275, -0.011432036757469177, 0.11363250017166138, -0.09553328901529312, 0.06845787167549133, 0.03893361985683441, 0.12716996669769287, -0.05452185124158859, 0.11151635646820068, -0.020048856735229492, -0.1378924697637558, -0.09639541804790497, -0.06148143857717514, 0.0795736014842987, 0.06403419375419617, -0.03738460689783096, -0.04098834842443466, 0.12074795365333557, 0.07860419154167175, 0.0915054976940155, 0.12569093704223633, 0.09351196885108948, 0.09770718216896057, 0.08104106783866882, 0.03185856342315674, 0.011861592531204224, -0.04623991996049881, -0.015002220869064331, 0.08250026404857635, -0.07757974416017532, -0.0865735337138176, 0.023816049098968506, -0.04338905215263367, -0.044626377522945404, -0.052856288850307465, -0.1300588846206665, -0.04675513505935669, 0.07715214788913727, 0.001615270972251892, -0.11332084983587265, -0.11155784875154495, -0.046728119254112244, 0.0468226820230484, -0.10614664852619171, 0.02265605330467224, 0.037100404500961304, 0.07287830114364624, 0.043182164430618286, -0.003747016191482544, -0.009588271379470825, 0.05700245499610901, 0.07734224200248718, 0.06626728177070618, 0.14290142059326172, -0.09518985450267792, -0.13342705368995667, 0.10812285542488098, -0.0222538560628891, 0.07799242436885834, -7.05420970916748e-05, -0.07154150307178497, 0.12256366014480591, -0.04925067722797394, 0.0012336671352386475, 0.02437928318977356, -0.011356621980667114, 0.056332215666770935, -0.05385179817676544, 0.07208935916423798, 0.1048419177532196, 0.10981398820877075, 0.12063360214233398, 0.047610655426979065, 0.1089760959148407, 0.023329049348831177, 0.048923999071121216, 0.05990910530090332, -0.06471945345401764, 0.04757043719291687, -0.0827072411775589, -0.07969962060451508, -0.011558935046195984, -0.08881748467683792, 0.04856923222541809, -0.11010955274105072, -0.1357743740081787, -0.06333103775978088, 0.02478480339050293, -0.140067458152771, -0.05022314935922623, -0.12011218816041946, 0.08666926622390747, 0.10620597004890442, -0.048484668135643005, 0.07706055045127869, -0.04620949923992157, 0.04416981339454651, 0.010437458753585815, 0.1142282485961914, -0.0868433266878128, -0.06217066943645477, -0.11752837896347046, -0.09630510210990906, -0.06357099860906601, -0.0703170970082283, 0.010184362530708313, 0.1408144235610962, -0.10289068520069122, -0.13562142848968506, 0.047257199883461, -0.12209978699684143, -0.015734747052192688, -0.007497385144233704, 0.08238044381141663, 0.023718252778053284, 0.010755598545074463, -0.0747343897819519, 0.008471235632896423, -0.10227765142917633, -0.052155837416648865, 0.07368820905685425, 0.014700531959533691, 0.057114437222480774]}, "bias": {"shape": [12], "values": [-0.08489940315485, 0.1000051349401474, -0.05884107947349548, -0.026628956198692322, -0.07505205273628235, 0.054895415902137756, 0.1256115734577179, -0.02183447778224945, -0.09957248717546463, -0.10345486551523209, -0.018992826342582703, 0.04164022207260132]}}, "floor": {"shape": [1], "values": [0.0]}, "ceiling": {"shape": [1], "values": [0.0]}, "coef_softsign": {"shape": [1], "values": [1.449240803718567]}, "coef_tanh": {"shape": [1], "values": [0.2006618231534958]}}, "stack.2": {"conv": {"weight": {"shape": [12, 12, 4], "values": [-0.07286815345287323, -0.06256089359521866, 0.06453245878219604, -0.12808966636657715, -0.07565820217132568, 0.060171887278556824, 0.13330474495887756, -0.052966102957725525, 0.11136206984519958, 0.04102809727191925, 0.10214217007160187, 0.033549532294273376, -0.08917668461799622, 0.11416199803352356, -0.09304434061050415, -0.06350535154342651, -0.07571830600500107, -0.07856850326061249, -0.019683808088302612, -0.032803840935230255, -0.12402276694774628, 0.06856779754161835, 0.12313854694366455, 0.007740572094917297, -0.002119585871696472, 0.06548713147640228, 0.07466702163219452, -0.08901821076869965, -0.0813552513718605, -0.1086549237370491, -0.0363096222281456, 0.04651586711406708, -0.05225198715925217, 0.015680506825447083, 0.11779838800430298, 0.01950971782207489, -0.06540170311927795, 0.10040095448493958, 0.08967506885528564, -0.07494107633829117, -0.013551875948905945, -0.1439284086227417, -0.03317929804325104, 0.0035320669412612915, -0.00625300407409668, -0.09820930659770966, 0.13906237483024597, 0.06893372535705566, -0.06786059588193893, -0.0299997478723526, 0.13811591267585754, -0.05777189880609512, 0.04768601059913635, -0.057444147765636444, -0.11708642542362213, -0.04017382860183716, 0.041848599910736084, -0.020049646496772766, -0.07673116028308868, -0.07560272514820099, -0.10678879171609879, 0.12847408652305603, -0.013765469193458557, 0.0642082691192627, 0.005848005414009094, 0.13176724314689636, -0.08389578759670258, -0.061299100518226624, 0.12530970573425293, -0.00932842493057251, -0.11472511291503906, 0.003477036952972412, -0.08659830689430237, 0.10885804891586304, -0.03758332133293152, 0.06367959082126617, -0.07186515629291534, -0.014998853206634521, 0.13610181212425232, 0.09292037785053253, -0.08575090765953064, 0.06139090657234192, -0.026865698397159576, -0.018167927861213684, -0.05614326149225235, -0.14153313636779785, 0.0162307471036911, -0.14433592557907104, 0.06902149319648743, -0.13459965586662292, 0.12559214234352112, -0.049763768911361694, -0.05715678632259369, 0.04234491288661957, 0.05870126187801361, -0.05414547771215439, 0.042735785245895386, -0.10263391584157944, 0.09455780684947968, -0.05192766338586807, -0.05751927196979523, 0.08070327341556549, -0.0961630791425705, 0.0010053366422653198, -0.12536285817623138, 0.09464292228221893, 0.07221551239490509, 0.06868493556976318, 0.021089836955070496, -0.056259870529174805, -0.0025588572025299072, -0.050712257623672485, 0.13169750571250916, 0.022058382630348206, -0.06308730691671371, -0.1038627028465271, -0.11762881278991699, -0.04294077306985855, -0.026081517338752747, -0.11681348085403442, -0.03827442228794098, -0.00447005033493042, 0.044035375118255615, 0.007207319140434265, 0.07783639430999756, -0.031345464289188385, 0.12989771366119385, -0.10750946402549744, 0.066671222448349, 0.10716164112091064, 0.07648749649524689, 0.14391237497329712, -0.12572385370731354, -0.09747107326984406, -0.13242612779140472, -0.04992108792066574, -0.057170569896698, -0.014063119888305664, -0.0917636826634407, -0.13417141139507294, -0.07483477145433426, 0.05574759840965271, 0.12424424290657043, -0.04853222519159317, 0.002323463559150696, 0.049593374133110046, 0.09843139350414276, -0.002036869525909424, -0.05185069888830185, 0.12959420680999756, -0.005121544003486633, 0.00825539231300354, -0.050182193517684937, -0.1341930329799652, 0.07093368470668793, -0.048788994550704956, -0.03479764610528946, -0.02063319832086563, 0.07732048630714417, 0.10740339756011963, -0.1328667551279068, -0.10591353476047516, 0.07472303509712219, -0.08905676007270813, -0.026406437158584595, 0.13797184824943542, 0.07563461363315582, 0.004255861043930054, 0.020783737301826477, -0.06199425458908081, 0.09528255462646484, -0.11456839740276337, -0.04360215365886688, 0.11554655432701111, 0.1356433629989624, 0.12156647443771362, -0.08832858502864838, -0.14090876281261444, -0.09314149618148804, 0.13142123818397522, -0.0448511466383934, 0.08008269965648651, 0.1295120120048523, 0.13790994882583618, -0.11710964143276215, 0.01245492696762085, -0.10238796472549438, -0.03882841020822525, -0.1322447508573532, 0.00557844340801239, 0.03337940573692322, -0.13071198761463165, -0.14195562899112701, 0.08025945723056793, 0.026570990681648254, -0.010584741830825806, 0.06700111925601959, -0.10655757039785385, 0.04602964222431183, -0.07570219784975052, 0.014762520790100098, 0.03543107211589813, 0.042597755789756775, -0.01154261827468872, 0.005098819732666016, -0.009076282382011414, -0.022538580000400543, 0.010904073715209961, -0.11018345504999161, 0.09488265216350555, -0.12872199714183807, 0.024660006165504456, -0.006973385810852051, 0.1086481511592865, -0.13534092903137207, -0.05695037543773651, 0.051224976778030396, -0.12073452770709991, -0.11529175192117691, 0.0010612159967422485, 0.005003407597541809, 0.12736353278160095, 0.07828329503536224, -0.07349551469087601, -0.05835338681936264, 0.013710558414459229, -0.10366043448448181, -0.017778649926185608, 0.14350837469100952, -0.13826848566532135, -0.005031302571296692, 0.05187724530696869, 0.06382545828819275, -0.021193012595176697, -0.06752364337444305, 0.01566384732723236, -0.12504172325134277, -0.052007414400577545, -0.05083927512168884, -0.05664682388305664, 0.11011457443237305, -0.06237868219614029, 0.04584343731403351, -0.005836352705955505, -0.12052672356367111, -0.14381246268749237, 0.045649319887161255, -0.11858975142240524, -0.04614882916212082, -0.1326560378074646, -0.04612386226654053, 0.11619430780410767, 0.08595821261405945, 0.00993242859840393, -0.038910627365112305, -0.1136343851685524, 0.1276502013206482, -0.0591636523604393, 0.1269162893295288, -0.05242440849542618, 0.12711161375045776, 0.049135297536849976, 0.12705197930335999, 0.07633611559867859, 0.07936327159404755, 0.025327473878860474, 0.050318434834480286, -0.010865211486816406, -0.0072045475244522095, 0.07056373357772827, -0.09722183644771576, -0.09338046610355377, 0.024178072810173035, 7.833540439605713e-05, 0.09352618455886841, -0.010417923331260681, -0.09466820955276489, 0.06679165363311768, 0.062691330909729, 0.07952238619327545, 0.12350431084632874, -0.010458782315254211, -0.12897247076034546, 0.04285654425621033, 0.1060260534286499, -0.12310721725225449, -0.04102879762649536, -0.041145406663417816, -0.10298286378383636, 0.022575870156288147, 0.0448533296585083, 0.11831751465797424, -0.06772017478942871, -0.04507423937320709, 0.10760912299156189, -0.10332958400249481, 0.019069567322731018, 0.09842011332511902, -0.10662712156772614, -0.09636745601892471, -0.07022349536418915, 0.12151351571083069, 0.136235773563385, -0.023159697651863098, 0.09900541603565216, -0.00215013325214386, 0.07960422337055206, 0.1264198124408722, -0.14267577230930328, 0.06259934604167938, 0.12903892993927002, 0.07066336274147034, -0.12279999256134033, -0.1176699846982956, 0.01927250623703003, 0.11167487502098083, -0.1365957111120224, -0.11859102547168732, 0.07244287431240082, -0.016018375754356384, -0.08467712998390198, 0.1258152723312378, 0.10192789137363434, 0.1369684338569641, 0.10675868391990662, -0.0774242952466011, -0.07177948951721191, -0.07249757647514343, -0.1234029233455658, 0.039922311902046204, 0.001859024167060852, 0.03350263833999634, 0.031464964151382446, -0.04222021996974945, -0.10636140406131744, 0.042097121477127075, -0.0781993418931961, 0.03669673204421997, -0.07689384371042252, -0.06714428216218948, 0.047235116362571716, 0.09120549261569977, -0.024606414139270782, -0.10744050145149231, -0.060027115046978, -0.10227274894714355, 0.04839259386062622, -0.06329984217882156, -0.06429076939821243, -0.050059787929058075, 0.0020615309476852417, -0.09265261888504028, -0.09033727645874023, 0.036772146821022034, 0.028558701276779175, 0.12270262837409973, -0.09776882827281952, 0.14205974340438843, 0.14277592301368713, 0.03282874822616577, -0.02681383490562439, 0.0058947354555130005, 0.10478845238685608, 0.1000942587852478, 0.019706621766090393, 0.05291001498699188, 0.1178860068321228, -0.1425487995147705, 0.13333526253700256, -0.06676258891820908, 0.015645593404769897, -0.08484318852424622, 0.038296014070510864, 0.03654104471206665, 0.12043741345405579, -0.08711878955364227, -0.08703362941741943, -0.12401557713747025, -0.06497075408697128, 0.07231657207012177, 0.0003661215305328369, 0.06136651337146759, -0.06804544478654861, -0.01630571484565735, -0.0678149163722992, -0.0240013524889946, 0.04082167148590088, -0.02455909550189972, 0.011382043361663818, 0.08962413668632507, 0.09462454915046692, 0.10803773999214172, -0.10679207742214203, 0.10777845978736877, 0.004885628819465637, 0.13247045874595642, -0.12073270231485367, -0.06951320171356201, 0.1025887131690979, -0.1353481113910675, 0.09810739755630493, 0.06413084268569946, -0.04521173983812332, 0.07112516462802887, 0.14224481582641602, 0.03333196043968201, -0.008555904030799866, 0.08395691215991974, 0.098029226064682, -0.06423922628164291, -0.0945296585559845, 0.12845593690872192, -0.12830673158168793, -0.03239917755126953, -0.051062680780887604, 0.07774920761585236, 0.10212564468383789, 0.14384731650352478, 0.01013319194316864, -0.02677766978740692, 0.0058797746896743774, 0.014290004968643188, -0.13850727677345276, -0.10752788931131363, 0.01132628321647644, 0.10573941469192505, -0.06042305380105972, 0.015269502997398376, 0.08235031366348267, -0.08973252028226852, -0.042518407106399536, -0.13579468429088593, 0.030728444457054138, 0.09456364810466766, -0.044189199805259705, 0.08112300932407379, -0.1308889240026474, -0.14323954284191132, 0.1177096962928772, 0.1439543068408966, 0.13741734623908997, -0.010257378220558167, -0.03284996747970581, 0.13838991522789001, -0.008022665977478027, -0.07059343159198761, 0.04901517927646637, -0.009882435202598572, -0.04545395076274872, 0.06996622681617737, 0.0762195736169815, 0.06788976490497589, -0.06248649209737778, 0.0017411410808563232, -0.11021596193313599, -0.08639780431985855, -0.07339170575141907, -0.09925621747970581, 0.0862596184015274, 0.09941326081752777, 0.06470362842082977, -0.12032081186771393, -0.10632818937301636, -0.08494503796100616, 0.027461662888526917, 0.07953090965747833, -0.12444186210632324, 0.039180368185043335, -0.01546257734298706, 0.02659665048122406, -0.12232701480388641, -0.05989973992109299, 0.14115089178085327, 0.04855555295944214, 0.13584327697753906, -0.1278945803642273, 0.08676482737064362, -0.0927659198641777, -0.09429199993610382, -0.10234922170639038, 0.11679539084434509, 0.022824019193649292, 0.038947105407714844, 0.045524224638938904, -0.010647371411323547, 0.11807820200920105, 0.08582265675067902, 0.11477392911911011, -0.08638262748718262, -0.03726129233837128, -0.1177341639995575, 0.010159194469451904, 0.08915236592292786, 0.09209728240966797, 0.07517309486865997, -0.13713547587394714, -0.09315258264541626, 0.10216876864433289, 0.07262951135635376, 0.06847691535949707, -0.03474513441324234, -0.09628458321094513, -0.13833114504814148, -0.0950917899608612, -0.09121774137020111, -0.1432192474603653, -0.10043247789144516, 0.10904309153556824, -0.12208975106477737, 0.02664656937122345, 0.06239618360996246, -0.03491010516881943, -0.08712843805551529, 0.09898552298545837, 0.08678796887397766, 0.13052710890769958, 0.10711479187011719, -0.002696886658668518, -0.08695201575756073, 0.0020413100719451904, -0.13189898431301117, 0.13027885556221008, 0.10654836893081665, 0.12954360246658325, -0.06649912893772125, 0.07149198651313782, 0.06939709186553955, 0.014872536063194275, -0.09650009870529175, 0.03518699109554291, 0.029387861490249634, -0.10322883725166321, 0.14398327469825745, 0.08225087821483612, 0.0015189796686172485, -0.09063272178173065, -0.10593287646770477, 0.05979916453361511, -0.11751025915145874, 0.1035626232624054, -0.002934753894805908, 0.0210893452167511, -0.0016916394233703613, 0.12107175588607788, -0.13834258913993835, -0.013195738196372986, -0.11445467919111252, 0.035864874720573425, 0.13352590799331665, -0.024338699877262115, 0.09387306869029999, -0.094536691904068, 0.033905282616615295, -0.039012692868709564, 0.129624605178833, 0.0910031795501709, 0.09268635511398315, -0.13429298996925354, -0.07038825005292892, -0.1182926818728447, -0.10771062225103378, 0.027302861213684082, -0.0251305028796196, -0.01309359073638916, 0.02328859269618988, 0.1082327663898468, 0.004499882459640503, 0.07471354305744171, -0.011675387620925903, 0.0021164119243621826, 0.053093165159225464, -0.03541436046361923, 0.12506511807441711, 0.02409641444683075, 0.03598344326019287, 0.016915202140808105]}, "bias": {"shape": [12], "values": [-0.05801220238208771, -0.1148829311132431, -0.045809850096702576, -0.07641579955816269, -0.06799884885549545, 0.06192593276500702, -0.010852530598640442, 0.04624006152153015, 0.12500488758087158, -0.042831577360630035, 0.035112008452415466, -0.13880009949207306]}}, "floor": {"shape": [1], "values": [0.0]}, "ceiling": {"shape": [1], "values": [0.0]}, "coef_softsign": {"shape": [1], "values": [0.4772386848926544]}, "coef_tanh": {"shape": [1], "values": [-1.4538415670394897]}}, "stack.3": {"conv": {"weight": {"shape": [12, 12, 4], "values": [0.050074368715286255, 0.10959237813949585, -0.05207298696041107, -0.010917484760284424, 0.13201454281806946, 0.059953510761260986, -0.014574185013771057, 0.0769435465335846, 0.1117674708366394, -0.061825305223464966, -0.1363801807165146, -0.07531864941120148, -0.08428840339183807, -0.06575259566307068, -0.08560217916965485, 0.127068430185318, -0.14329862594604492, 0.11937224864959717, -0.05370111018419266, 0.10759508609771729, 0.12446117401123047, -0.0004572272300720215, -0.1032654419541359, -0.07867307215929031, 0.13298657536506653, 0.14277997612953186, 0.09529486298561096, 0.019163161516189575, 0.0035672038793563843, -0.08017890155315399, -0.012786075472831726, 0.013737142086029053, 0.13621428608894348, -0.06396297365427017, 0.040100112557411194, -0.028892159461975098, -0.03872668743133545, 0.12216302752494812, 0.0696035623550415, 0.1276387870311737, -0.1344064623117447, -0.00281311571598053, -0.07575591653585434, 0.03468087315559387, -0.08154099434614182, 0.015146195888519287, -0.026220351457595825, 0.08982458710670471, 0.026975125074386597, -0.12641529738903046, 0.004728987812995911, -0.07685708999633789, 0.06963399052619934, -0.02491050213575363, 0.104460209608078, 0.010849013924598694, 0.056764885783195496, 0.107855886220932, 0.019271254539489746, -0.09004390239715576, -0.03963031619787216, 0.11055651307106018, -0.12943044304847717, 0.09717440605163574, -0.03799128532409668, 0.1293625831604004, 0.10100321471691132, -0.08339525759220123, 0.116204172372818, -0.08565287292003632, 0.06288641691207886, -0.12528946995735168, -0.017055898904800415, -0.11545397341251373, 0.007728680968284607, -0.08408688008785248, -0.07380584627389908, -0.027361012995243073, 0.0941275954246521, 0.04685738682746887, 0.022274434566497803, -0.04135172814130783, -0.034213870763778687, 0.01550467312335968, -0.11247418820858002, -0.07841693609952927, -0.11346355825662613, -0.13860656321048737, -0.08955451846122742, -0.053707510232925415, -0.08562944829463959, 0.08106578886508942, -0.11807223409414291, 0.014753177762031555, 0.043083831667900085, 0.05909343063831329, 0.032718509435653687, -0.031874991953372955, 0.11144056916236877, 0.01971478760242462, 0.004078507423400879, -0.06995809078216553, -0.12140906602144241, -0.046143099665641785, -0.12627533078193665, 0.11340802907943726, -0.06289327144622803, 0.05172620713710785, -0.14370205998420715, -0.13015806674957275, 0.08267539739608765, -0.14020700752735138, 0.1404835283756256, 0.08901755511760712, -0.06510811299085617, -0.05573328584432602, 0.06132806837558746, 0.10582458972930908, 0.13465312123298645, -0.12437121570110321, -0.14225837588310242, -0.09200648218393326, -0.13054455816745758, 0.04557596147060394, 0.03420107066631317, -0.08161602914333344, -0.0838201642036438, -0.043844208121299744, 0.0759638100862503, 0.0644989162683487, 0.0686364620923996, -0.04823176562786102, -0.0588732585310936, 0.0027737021446228027, -0.02876608818769455, -0.027917519211769104, -0.004267781972885132, -0.04952307045459747, 0.14008498191833496, 0.0660344660282135, 0.06307113170623779, 0.14193695783615112, -0.0762367844581604, 0.048658162355422974, 0.11300230026245117, 0.0836804062128067, 0.1078716516494751, -0.009256407618522644, -0.12669050693511963, 0.09563601016998291, -0.12441063672304153, 0.007909759879112244, 0.09357136487960815, 0.020620793104171753, 0.01282210648059845, 0.06871475279331207, -0.01581127941608429, 0.028430268168449402, -0.08785117417573929, -0.0598907396197319, -0.07026852667331696, -0.12849204242229462, 0.01407673954963684, -0.013928711414337158, 0.06114138662815094, 0.13749238848686218, 0.10849064588546753, -0.023344941437244415, 0.13257437944412231, 0.10600191354751587, 0.1306958794593811, -0.11445954442024231, -0.12268134206533432, 0.07121896743774414, -0.0425516813993454, -0.05665678530931473, 0.09385731816291809, 0.08278755843639374, -0.13101716339588165, -0.06555485725402832, -0.08355553448200226, 0.05464795231819153, -0.12431476265192032, -0.0525839626789093, -0.11839165538549423, 0.05049227178096771, 0.12974011898040771, -0.009348943829536438, 0.02671004831790924, -0.05403107404708862, -0.026282280683517456, -0.11914477497339249, -0.021333210170269012, -0.10447603464126587, 0.04385896027088165, 0.035289883613586426, -0.010134756565093994, -0.04463707655668259, -0.010378539562225342, -0.029480136930942535, -0.05767538398504257, -0.07646447420120239, 0.03515680134296417, 0.11545947194099426, -0.05675532668828964, -0.03994596749544144, 0.06265617907047272, -0.07067299634218216, 0.11870279908180237, 0.14027440547943115, 0.0972728431224823, -0.032740041613578796, -0.0012351572513580322, 0.034794822335243225, 0.040837362408638, 0.06850285828113556, 0.1085284948348999, -0.1155969575047493, 0.029909104108810425, 0.08095115423202515, 0.049463629722595215, -0.0959908589720726, -0.08495590835809708, 0.03905680775642395, 0.003970876336097717, 0.1064906120300293, -0.13740868866443634, 0.11370638012886047, 0.11749395728111267, 0.037447407841682434, -0.12171629071235657, 0.12353813648223877, -0.021070480346679688, -0.11459095776081085, -0.13596156239509583, -0.07874375581741333, -0.040423013269901276, -0.11968715488910675, -0.051493771374225616, 0.1365664005279541, -0.12604409456253052, 0.08905410766601562, 0.07888293266296387, -0.0580134391784668, -0.13655927777290344, 0.02062438428401947, -0.0706324428319931, 0.0833059698343277, 0.07318750023841858, -0.07052832841873169, -0.05956941097974777, 0.05930331349372864, -0.14004772901535034, -0.0026758909225463867, 0.0992630124092102, 0.057750239968299866, 0.11898690462112427, 0.1047583669424057, 0.02520233392715454, -0.13253773748874664, 0.04956144094467163, 0.006682232022285461, 0.10937750339508057, 0.006755039095878601, -0.138510063290596, 0.10754668712615967, 0.007494673132896423, -0.01718820631504059, -0.08597838133573532, 0.061114922165870667, -0.029857955873012543, 0.08560974895954132, -0.06552543491125107, 0.13874951004981995, 0.13559842109680176, -0.0076141357421875, -0.05493976175785065, -0.032974421977996826, 0.11087331175804138, 0.12117427587509155, -0.023765727877616882, 0.07085099816322327, 0.04238902032375336, -0.019289568066596985, -0.030065014958381653, -0.05129680782556534, 0.040169358253479004, -0.13316543400287628, -0.08985306322574615, -0.1414456069469452, -0.0804334506392479, -0.011714428663253784, 0.10784870386123657, 0.045000672340393066, -0.014627933502197266, 0.06498666107654572, -0.09831960499286652, 0.13687750697135925, -0.10535116493701935, 0.0877649188041687, -0.06894364953041077, 0.06906644999980927, -0.0642920657992363, -0.05429947376251221, -0.10773827135562897, 0.05121442675590515, 0.09911303222179413, 0.05820244550704956, 0.0938529372215271, 0.09667737782001495, -0.0015871226787567139, -0.08600981533527374, -0.07355496287345886, -0.02397502213716507, 0.09687389433383942, 0.003975585103034973, -0.07168249785900116, 0.12238001823425293, 0.014665499329566956, 0.05638480186462402, -0.029054395854473114, 0.12001034617424011, -0.11100941151380539, -0.12770144641399384, 0.01947624981403351, -0.06356115639209747, 0.06941679120063782, -0.03661324828863144, 0.12937399744987488, -0.0513685941696167, 0.09621033072471619, 0.034573912620544434, 0.1052325963973999, 0.08324332535266876, 0.13376939296722412, -0.07675369828939438, 0.03386753797531128, 0.02778664231300354, -0.02562427520751953, -0.060276664793491364, 0.024194419384002686, 0.10654252767562866, 0.07237465679645538, -0.07370035350322723, 0.04172700643539429, -0.01796199381351471, -0.10007447004318237, -0.11706168949604034, -0.09655706584453583, 0.03191341459751129, 0.019148722290992737, -0.07370389997959137, 0.0429546982049942, -0.018275916576385498, 0.08059030771255493, 0.10524328052997589, -0.0546814426779747, 0.06254872679710388, 0.12624484300613403, 0.025990337133407593, 0.12294691801071167, -0.014514684677124023, 0.045922085642814636, 0.11638733744621277, -0.02091309428215027, -0.1436648815870285, 0.14380991458892822, 0.13602173328399658, -0.08278433978557587, -0.038311995565891266, 0.10115092992782593, 0.01944604516029358, -0.05002351850271225, 0.015656858682632446, 0.039357081055641174, -0.060304172337055206, 0.024424657225608826, 0.04651536047458649, 0.06319735944271088, -0.12534990906715393, -0.0052467286586761475, 0.12521743774414062, -0.0222628191113472, -0.12103918194770813, -0.09189267456531525, -0.05726005882024765, 0.056549832224845886, -0.12790754437446594, -0.047609806060791016, -0.08069849759340286, 0.10224761068820953, -0.08309231698513031, 0.12830111384391785, 0.1355873942375183, -0.051124610006809235, -0.13385584950447083, 0.05435514450073242, 0.1307174265384674, -0.04511936008930206, 0.1366456151008606, 0.04334346950054169, 0.005281209945678711, 0.07670778036117554, 0.07558466494083405, -0.07871808111667633, 0.07561886310577393, 0.14173176884651184, 0.01210753619670868, 0.058115676045417786, 0.10331782698631287, 0.025234073400497437, -0.0928652286529541, -0.12287095189094543, 0.13590747117996216, 0.12124490737915039, -0.005243778228759766, -0.02193845808506012, -0.11564306914806366, -0.12920063734054565, -0.04440859705209732, -0.005045533180236816, -0.011937886476516724, 0.014082163572311401, 0.1382002830505371, -0.1119592934846878, 0.12656515836715698, 0.0682903379201889, 0.001955389976501465, -0.13015630841255188, 0.035363465547561646, -0.03186110407114029, -0.11079080402851105, -0.08754314482212067, 0.019394338130950928, -0.10651570558547974, -0.09016235172748566, 0.0020253807306289673, 0.06342819333076477, 0.07113775610923767, 0.06144356727600098, -0.046035490930080414, -0.11177738010883331, -0.13990287482738495, -0.08412671089172363, -0.11859370768070221, 0.028766602277755737, 0.1311352252960205, 0.05919887125492096, -0.0021742284297943115, -0.0886516124010086, -0.04397411644458771, 0.11124387383460999, 0.02751283347606659, 0.04307779669761658, 0.08262123167514801, -0.027517303824424744, -0.1070312112569809, 0.05239298939704895, 0.07597596943378448, 0.06533342599868774, -0.031890660524368286, 0.10809987783432007, 0.11141839623451233, 0.05567818880081177, -0.030922427773475647, -0.08348233997821808, -0.062353283166885376, -0.03619819134473801, 0.03607410192489624, 0.07031989097595215, -0.10310318320989609, -0.034752391278743744, -0.06152266263961792, -0.1222572922706604, -0.07372985035181046, -0.0017278939485549927, 0.07726171612739563, -0.13954569399356842, -0.10543399304151535, -0.08583106100559235, -0.05445357412099838, -0.11735250800848007, 0.06561869382858276, 0.14173126220703125, -0.11326991766691208, -0.12077397853136063, 0.08521464467048645, -0.13627037405967712, -0.143306702375412, 0.02316175401210785, -0.04882063716650009, 0.03864830732345581, -0.07007776200771332, 0.048402830958366394, -0.14295369386672974, 0.0061058104038238525, -0.003659471869468689, -0.08326016366481781, -0.09661558270454407, 0.01994989812374115, -0.09908277541399002, 0.11395072937011719, -0.12025541067123413, 0.09977966547012329, -0.10806949436664581, -0.1253661960363388, -0.11067018657922745, 0.12437382340431213, 0.12179240584373474, 0.06143483519554138, 0.0489814430475235, 0.005712568759918213, -0.0038509368896484375, -0.0767580196261406, -0.0862608551979065, 0.028172940015792847, 0.07549785077571869, 0.026247859001159668, -0.12810629606246948, 0.09836806356906891, 0.13958421349525452, 0.1176888644695282, 0.007913559675216675, 0.02052222192287445, 0.06717562675476074, -0.010364711284637451, -0.07992623001337051, 0.020745232701301575, 0.1316743791103363, 0.03244464099407196, 0.13782000541687012, 0.12099123001098633, -0.082624651491642, -0.07102049887180328, 0.09048552811145782, 0.024039000272750854, 0.011487960815429688, 0.04961267113685608, -0.003293454647064209, -0.06905358284711838, 0.010171934962272644, -0.1244756430387497, 0.08771206438541412, 0.06161072850227356, 0.1276547908782959, 0.07903841137886047, 0.13751167058944702, 0.062486156821250916, -0.04635990411043167, 0.02633604407310486, 0.1272604763507843, -0.06931209564208984, 0.04407544434070587, 0.031332433223724365, 0.011962100863456726, 0.10751527547836304, -0.0804603099822998, -0.07303111255168915, -0.04534979909658432, -0.13732539117336273, 0.14033883810043335, 0.025925487279891968, -0.07314940541982651, -0.000680580735206604, 0.08125132322311401, -0.10820379108190536, -0.11396537721157074, -0.058705270290374756, 0.1116931140422821, 0.13076689839363098, -0.04331564903259277, 0.03119884431362152, -0.0013124048709869385, -0.020428858697414398, -0.06863036006689072, 0.015112608671188354]}, "bias": {"shape": [12], "values": [0.12082630395889282, 0.08613274991512299, -0.04273457080125809, 0.11978650093078613, -0.09662823379039764, 0.010879844427108765, -0.04004734754562378, 0.0673312097787857, -0.03150814771652222, -0.07239224016666412, -0.0411515012383461, -0.1269955337047577]}}, "floor": {"shape": [1], "values": [0.0]}, "ceiling": {"shape": [1], "values": [0.0]}, "coef_softsign": {"shape": [1], "values": [-0.7435430288314819]}, "coef_tanh": {"shape": [1], "values": [0.9934250116348267]}}, "stack.4": {"conv": {"weight": {"shape": [12, 12, 4], "values": [-0.036434538662433624, -0.021233052015304565, -0.0833854153752327, 0.0304735004901886, -0.09507720172405243, -0.10933877527713776, -0.0001062154769897461, 0.05228801071643829, 0.05039440095424652, -0.10113723576068878, -0.03830709308385849, 0.01363268494606018, -0.08253997564315796, 0.056117504835128784, 0.04972849786281586, 0.06857055425643921, -0.12906861305236816, -0.05577956885099411, 0.12469401955604553, -0.12352682650089264, 0.1183045506477356, -0.12365426123142242, 0.08607505261898041, 0.11840921640396118, 0.013710960745811462, 0.014282822608947754, -0.06771551072597504, 0.12212532758712769, -0.08780385553836823, 0.09449028968811035, -0.015523910522460938, 0.006010338664054871, 0.028100669384002686, 0.05078919231891632, -0.08878819644451141, -0.10637304931879044, 0.1187238097190857, -0.0956013947725296, -0.11741237342357635, 0.11649462580680847, 0.07563088834285736, 0.07001422345638275, -0.05092760920524597, -0.12133069336414337, 0.1432165503501892, 0.10653215646743774, -0.0393647700548172, -0.10608422756195068, 0.017985478043556213, -0.06643571704626083, -0.03604113310575485, -0.004648178815841675, -0.07224839925765991, -0.10841858386993408, -0.10456815361976624, 0.13467374444007874, 0.11275577545166016, -0.019470393657684326, 0.06867155432701111, -0.13299515843391418, 0.0020198673009872437, -0.02514507621526718, -0.05554504692554474, -0.10934939235448837, 0.015106990933418274, 0.09299986064434052, 0.09221513569355011, 0.05840235948562622, -0.13722021877765656, 0.12222045660018921, -0.01715913414955139, -0.015899822115898132, 0.05428361892700195, 0.015485674142837524, -0.06878793239593506, -0.1377687007188797, -0.024515561759471893, -0.14318108558654785, -0.14268141984939575, -0.06199172884225845, -0.1271236538887024, -0.03956761956214905, -0.04710082709789276, -0.1394822895526886, 0.1429567039012909, -0.04485458880662918, 0.018061012029647827, -0.042115792632102966, 0.11759164929389954, -0.07035014033317566, 0.038736775517463684, 0.06639599800109863, -0.00751158595085144, -0.09415588527917862, -0.00835178792476654, 0.11369290947914124, -0.12479063868522644, 0.04014118015766144, 0.03821359574794769, 0.03691661357879639, -0.1354975700378418, 0.03797192871570587, 0.07632917165756226, -0.06639545410871506, 0.08816857635974884, 0.036898478865623474, -0.06457260996103287, 0.0011516213417053223, 0.06811602413654327, -0.07847230136394501, 0.12975358963012695, -0.08164867013692856, -0.035143062472343445, -0.04808744043111801, -0.1065184623003006, 0.13919928669929504, 0.0598989874124527, 0.013143360614776611, -0.10699529945850372, -0.13833829760551453, 0.015164926648139954, 0.10573571920394897, 0.07853244245052338, 0.040040597319602966, -0.1309288889169693, -0.12379846721887589, -0.1399165242910385, 0.04885207116603851, -0.05511452257633209, -0.04383675754070282, -0.010032802820205688, 0.13198614120483398, 0.033160194754600525, -0.024646349251270294, 0.014570698142051697, -0.07871262729167938, 0.026651188731193542, -0.10516218841075897, -0.10585825145244598, -0.048800528049468994, -0.049678102135658264, 0.1264069378376007, -0.059855274856090546, -0.06125028431415558, -0.09555371105670929, 0.009477943181991577, 0.06872616708278656, -0.08854803442955017, -0.10148951411247253, -0.044004350900650024, 0.06775312125682831, 0.03251086175441742, -0.05410062521696091, 0.03530719876289368, -0.09022701531648636, -0.04990949481725693, -0.05509907752275467, 0.06511978805065155, 0.02332426607608795, 0.05129995942115784, 0.03472435474395752, -0.1276615560054779, -0.0537743866443634, -0.07653887569904327, 0.04285350441932678, 0.13752847909927368, 0.009841114282608032, 0.08442895114421844, 0.008970707654953003, -0.021366536617279053, -0.058998122811317444, -0.1326698362827301, -0.10586848855018616, -0.09452275931835175, -0.08929593861103058, -0.05119429528713226, 0.057043030858039856, 0.03548172116279602, 0.05489136278629303, 0.07593600451946259, -0.09512472152709961, 0.09918604791164398, -0.11832879483699799, 0.08951549232006073, -0.12145929038524628, -0.09613050520420074, -0.07636870443820953, -0.093964584171772, -0.06434710323810577, 0.10080423951148987, -0.045996882021427155, 0.1269313395023346, 0.039728179574012756, 0.09461678564548492, 0.07978250086307526, -0.04184304177761078, 0.06366902589797974, -0.05069379508495331, -0.06337539106607437, -0.031696729362010956, 0.14158573746681213, 0.10539937019348145, 0.11500966548919678, 0.10549305379390717, -0.12357474863529205, -0.06617958843708038, -0.11244167387485504, -0.06690961867570877, -0.08364197611808777, -0.03737092763185501, 0.05480022728443146, -0.043943747878074646, 0.008962273597717285, 0.12336927652359009, -0.1295386403799057, -0.08121223002672195, 0.05248057842254639, -0.03314793109893799, 0.11355596780776978, -0.06279259920120239, 0.0856168270111084, 0.1021934300661087, -0.04639507085084915, 0.014432504773139954, 0.056022122502326965, -0.011344373226165771, 0.07302013039588928, -0.008771345019340515, 0.10467807948589325, -0.10883299261331558, 0.11557897925376892, 0.048679083585739136, 0.0015214532613754272, 0.04877223074436188, -0.05295942723751068, -0.136771097779274, -0.05652422457933426, -0.021816417574882507, -0.13794973492622375, 0.015350520610809326, 0.1026913970708847, -0.018962949514389038, -0.05951767414808273, 0.009588420391082764, -0.011575371026992798, -0.08511152863502502, 0.07157403230667114, -0.09562776982784271, 0.029655903577804565, 0.09218147397041321, -0.02754911780357361, -0.05487964302301407, 0.09138472378253937, 0.004726424813270569, -0.013142511248588562, -0.12873463332653046, -0.11959661543369293, -0.0005131959915161133, -0.028348125517368317, 0.1177544891834259, -0.015865415334701538, 0.1388990879058838, 0.03864052891731262, 0.13084539771080017, 0.09698523581027985, -0.1025531142950058, 0.04045160114765167, 0.01182432472705841, 0.016288623213768005, -0.12230736017227173, -0.13398823142051697, 0.12023171782493591, 0.12366333603858948, -0.07809266448020935, -0.009206250309944153, -0.05710390955209732, 0.07064063847064972, 0.07770219445228577, -0.07851513475179672, 0.017469346523284912, 0.01755160093307495, -0.12471748888492584, -0.09172787517309189, -0.062000587582588196, -0.04420611262321472, -0.02158808708190918, 0.0017921030521392822, 0.13266146183013916, 0.07997922599315643, -0.09027893841266632, -0.12326811254024506, 0.12081760168075562, 0.10391050577163696, 0.13851642608642578, 0.09645189344882965, 0.10514137148857117, -0.0581880658864975, 0.10684022307395935, 0.13374671339988708, -0.05195426195859909, 0.11194047331809998, 0.10007527470588684, -0.047031208872795105, -0.10743872821331024, -0.0703878179192543, 0.13489729166030884, 0.08210532367229462, -0.03631466627120972, 0.13035264611244202, -0.1332520693540573, -0.13680289685726166, 0.036142751574516296, -0.039474956691265106, 0.11321300268173218, -0.0901700109243393, -0.10974487662315369, -0.028253890573978424, 0.02247534692287445, -0.09361276030540466, -0.06572805345058441, -0.04544326663017273, 0.13025715947151184, 0.10793983936309814, -0.09608373790979385, 0.09851104021072388, 0.09267596900463104, 0.09970271587371826, -0.09352743625640869, -0.13167527318000793, 0.06443491578102112, -0.04697420448064804, 0.015717849135398865, -0.061930760741233826, -0.1085917055606842, 0.12291371822357178, -0.13430452346801758, -0.01597033441066742, -0.10412125289440155, -0.0016452521085739136, -0.01910744607448578, -0.06802336871623993, -0.018443211913108826, 0.004564762115478516, -0.090680792927742, -0.04750753194093704, 0.059363365173339844, -0.03354502469301224, 0.11710694432258606, -0.03623320907354355, 0.1274333894252777, 0.03124585747718811, 0.057224467396736145, -0.05672745406627655, -0.06905143707990646, -0.09752635657787323, 0.030117914080619812, -0.09755046665668488, 0.12639206647872925, -0.1039905697107315, -0.12507227063179016, -0.05623307824134827, -0.12173184007406235, 0.13661500811576843, 0.14016759395599365, 0.1225338876247406, -0.11634791642427444, 0.1412939429283142, 0.09215360879898071, -0.010248079895973206, 0.07021187245845795, -0.06913138926029205, -0.13691839575767517, -0.11874465644359589, 0.09965500235557556, 0.11507439613342285, -0.05732979625463486, -0.04622428119182587, 0.1354682743549347, 0.00396709144115448, 0.13831844925880432, -0.057459890842437744, -0.061124540865421295, 0.1293025016784668, -0.10829426348209381, -0.0652642548084259, -0.09137259423732758, -0.015482023358345032, 0.08425970375537872, -0.08060828596353531, 0.06229415535926819, 0.05537229776382446, 0.12545818090438843, 0.12674754858016968, 0.09546637535095215, 0.004698395729064941, -0.04491919279098511, -0.1264466792345047, 0.014009445905685425, 0.031424716114997864, 0.01962698996067047, -0.06783723086118698, 0.03235715627670288, 0.07026425004005432, 0.1069757342338562, -0.09293510764837265, -0.13508106768131256, -0.05146016925573349, -0.05889633297920227, 0.02797253429889679, 0.14268186688423157, -0.0006486177444458008, -0.13706281781196594, 0.04656115174293518, 0.026554569602012634, 0.0885465145111084, -0.05540274828672409, 0.004333868622779846, -0.02649446576833725, 0.015547394752502441, 0.13986536860466003, 0.1080218255519867, -0.06401488929986954, -0.11340922117233276, 0.0945979654788971, -0.08370839059352875, 0.08933132886886597, 0.04359324276447296, 0.12088975310325623, 0.022601991891860962, -0.13457831740379333, 0.10376402735710144, 0.04438255727291107, -0.11698663234710693, 0.09357084333896637, -0.11271685361862183, -0.004255741834640503, -0.09409383684396744, 0.033785685896873474, -0.10170814394950867, -0.07889574021100998, 0.11243343353271484, -0.05575907975435257, 0.10180899500846863, -0.13474871218204498, -0.04567137360572815, 0.06092993915081024, 0.10027359426021576, 0.025461673736572266, 0.10705640912055969, 0.013414829969406128, 0.06415021419525146, -0.04470840096473694, -0.10637542605400085, -0.12707693874835968, 0.11912417411804199, -0.0971890389919281, -0.10512696206569672, 0.14266416430473328, 0.06139017641544342, 0.034437984228134155, -0.11810982972383499, 0.10443393886089325, 0.05384837090969086, -0.069363072514534, -0.12246600538492203, 0.1279287338256836, 0.13908085227012634, 0.09833575785160065, -0.12274770438671112, -0.07756064087152481, -0.06642350554466248, 0.007076472043991089, 0.07800935208797455, -0.04756718873977661, 0.006906867027282715, 0.06398425996303558, 0.11984938383102417, -0.024112999439239502, -0.05317540466785431, -0.06276057660579681, 0.12630942463874817, 0.06710287928581238, -0.09294107556343079, 0.0834430456161499, -0.06843911111354828, -0.08975224196910858, 0.043675243854522705, 0.007725715637207031, -0.12708038091659546, -0.1038467064499855, -0.09790284931659698, -0.14206929504871368, -0.04304208606481552, 0.10397589206695557, -0.03151930123567581, -0.01160818338394165, -0.00737251341342926, 0.12543624639511108, 0.08984522521495819, 0.06691290438175201, 0.1299801766872406, -0.1258038580417633, 0.10226011276245117, -0.09449173510074615, 0.13900557160377502, -0.11452963203191757, -0.14048440754413605, 0.007781699299812317, 0.12161603569984436, 0.00551837682723999, -0.0203397274017334, -0.10879556834697723, 0.1404626965522766, 0.13333827257156372, 0.041933685541152954, 0.06930151581764221, -0.11934658885002136, 0.10354816913604736, -0.06872270256280899, 0.07647766172885895, 0.10642358660697937, 0.04391525685787201, 0.11960986256599426, 0.026961803436279297, 0.011547163128852844, 0.134708434343338, -0.10984956473112106, 0.11642110347747803, -0.12675841152668, -0.13381822407245636, -0.0440656915307045, 0.03740398585796356, 0.1253315508365631, -0.13967673480510712, 0.07273943722248077, -0.07491479814052582, -0.025834880769252777, -0.02361127734184265, 0.11565831303596497, 0.13813796639442444, -0.07794968038797379, -0.01969359815120697, 0.04292161762714386, -0.0061738938093185425, -0.10915900766849518, 0.03703075647354126, 0.02593746781349182, 0.08833625912666321, -0.09785778820514679, 0.05741298198699951, 0.1353362500667572, 0.07247127592563629, -0.14357024431228638, 0.04764522612094879, 0.0409809947013855, 0.0429198294878006, -0.08280089497566223, -0.1041824221611023, 0.06847751140594482, 0.09709258377552032, 0.05044253170490265, 0.1260814666748047, 0.10359326004981995, 0.04844461381435394, -0.09137190878391266, -0.07735125720500946, -0.019259914755821228, -0.005131468176841736, -0.03542492538690567, -0.08496077358722687, 0.06694820523262024, -0.009399980306625366, 0.10778242349624634, -0.06871155649423599, 0.08579787611961365, 0.11397793889045715]}, "bias": {"shape": [12], "values": [0.006372123956680298, 0.06921620666980743, -0.004041329026222229, 0.08986955881118774, 0.10670310258865356, -0.12569135427474976, -0.135527566075325, 0.13214322924613953, 0.05738632380962372, 0.053766801953315735, 0.08791050314903259, -0.13690587878227234]}}, "floor": {"shape": [1], "values": [0.0]}, "ceiling": {"shape": [1], "values": [0.0]}, "coef_softsign": {"shape": [1], "values": [0.3482481837272644]}, "coef_tanh": {"shape": [1], "values": [1.4994926452636719]}}, "stack.5": {"conv": {"weight": {"shape": [1, 12, 4], "values": [-0.028616085648536682, 0.06536552309989929, 0.07435348629951477, 0.06373794376850128, -0.010561272501945496, -0.018832460045814514, -0.005863800644874573, -0.08008717745542526, 0.006513625383377075, -0.051108211278915405, -0.14081518352031708, -0.0017801076173782349, 0.07039068639278412, -0.05992591381072998, 0.06998376548290253, -0.020609043538570404, 0.027777209877967834, -0.09320399165153503, 0.043377071619033813, -0.016453087329864502, -0.004567384719848633, 0.03713889420032501, 0.049513816833496094, 0.10692250728607178, -0.06619343906641006, -0.07808467745780945, 0.07018843293190002, -0.07606552541255951, -0.04064277559518814, -0.09352537244558334, 0.003397628664970398, -0.13466283679008484, 0.01908169686794281, -0.1177421510219574, -0.023051641881465912, -0.13982975482940674, -0.1353314071893692, 0.005622491240501404, 0.00854240357875824, 0.03486335277557373, -0.08574977517127991, 0.0528864860534668, 0.13999834656715393, 0.09925319254398346, -0.12364398688077927, 0.12476241588592529, -0.031695492565631866, 0.13250884413719177]}, "bias": {"shape": [1], "values": [-0.013796284794807434]}}, "floor": {"shape": [1], "values": [0.0]}, "ceiling": {"shape": [1], "values": [0.0]}, "coef_softsign": {"shape": [1], "values": [0.25412750244140625]}, "coef_tanh": {"shape": [1], "values": [1.309157133102417]}}}}