{"config": {"model_type": "ConvWaveshaper", "norm_mean": 0.10000000149011612, "norm_std": 0.8999999761581421}, "parameters": {"kernel_size": 4, "depth_size": 6, "num_channels": 12}, "state_dict": {"stack.0": {"conv": {"weight": {"shape": [12, 1, 4], "values": [-0.45091408491134644, -0.06555205583572388, -0.41881757974624634, 0.023541569709777832, -0.43803709745407104, 0.02888411283493042, 0.3121538758277893, -0.12537240982055664, -0.10183382034301758, 0.4825202226638794, -0.08254033327102661, -0.4778648614883423, 0.0016688704490661621, 0.153975248336792, 0.4169120788574219, 0.2369556427001953, 0.0017601251602172852, 0.1889803409576416, -0.324521005153656, -0.046851277351379395, 0.44821828603744507, -0.30326324701309204, 0.29622066020965576, -0.06194335222244263, -0.24310100078582764, 0.327417254447937, -0.3911784887313843, -0.2003157138824463, -0.1063607931137085, -0.3203253149986267, -0.0384863018989563, 0.4295344948768616, 0.16495436429977417, -0.13217920064926147, -0.0003731250762939453, 0.21902555227279663, -0.01955467462539673, -0.2707417607307434, 0.2495606541633606, 0.28107917308807373, 0.11249762773513794, -0.16890031099319458, -0.06499707698822021, -0.23917365074157715, -0.2580806612968445, -0.41710931062698364, 0.40591520071029663, 0.09437674283981323]}, "bias": {"shape": [12], "values": [-0.4711377024650574, -0.38573724031448364, -0.21516484022140503, -0.48427337408065796, 0.40563851594924927, -0.3864019513130188, 0.32620710134506226, -0.2424793243408203, -0.31848520040512085, 0.21564805507659912, 0.44625645875930786, -0.16978204250335693]}}, "floor": {"shape": [1], "values": [0.0]}, "ceiling": {"shape": [1], "values": [0.0]}, "coef_softsign": {"shape": [1], "values": [0.667340874671936]}, "coef_tanh": {"shape": [1], "values": [-0.6656330823898315]}}, "stack.1": {"conv": {"weight": {"shape": [12, 12, 4], "values": [0.006069481372833252, -0.042289234697818756, -0.05440899729728699, 0.04508933424949646, 0.07933980226516724, -0.01403769850730896, -0.08923950791358948, -7.620453834533691e-05, -0.13600143790245056, -0.07082730531692505, -0.09186401218175888, -0.1294577419757843, -0.05590099096298218, -0.0554506853222847, -0.006703302264213562, 0.006154745817184448, -0.03226272016763687, -0.06498055905103683, 0.1388573944568634, -0.0993579626083374, -0.11935129016637802, -0.09156052768230438, -0.1139960065484047, -0.029035158455371857, -0.08541237562894821, 0.12309971451759338, 0.062389910221099854, -0.12509626150131226, -0.036511920392513275, 0.0972013920545578, 0.04032093286514282, 0.08208638429641724, 0.09775988757610321, 0.09021686017513275, 0.020282655954360962, -0.1261473000049591, -0.017087772488594055, -0.06033103168010712, -0.034135960042476654, -0.018950939178466797, 0.0557807981967926, -0.07629093527793884, -0.002852305769920349, -0.022742874920368195, 0.04731817543506622, 0.09478433430194855, -0.08819732069969177, -0.13349494338035583, -0.01493862271308899, -0.12957632541656494, 0.11376640200614929, -0.1273665726184845, -0.0422155037522316, -0.10657285153865814, -0.134523406624794, 0.12077152729034424, 0.018687725067138672, 0.053518638014793396, 0.0902303159236908, 0.1014004796743393, -0.032185010612010956, -0.06671716272830963, 0.026147201657295227, -0.0807967334985733, -0.041962504386901855, 0.09167914092540741, -0.05753128230571747, 0.011057406663894653, 0.09399479627609253, -0.059762246906757355, -0.12844346463680267, 0.12331724166870117, 0.09753091633319855, -0.06401602178812027, 0.14293065667152405, -0.1208215057849884, 0.0247565358877182, 0.06879155337810516, 0.03621920943260193, -0.038339048624038696, 0.08686338365077972, 0.04378765821456909, 0.1280442178249359, -0.05946841090917587, -0.11200471222400665, -0.06217378377914429, 0.10140593349933624, 0.10314217209815979, -0.08560176938772202, -0.11164714395999908, 0.049081191420555115, 0.06377094984054565, 0.02793222665786743, 0.04508736729621887, -0.05113432556390762, -0.07364015281200409, -0.1187271922826767, 0.11232450604438782, 0.08428680896759033, -0.1232011616230011, -0.01342436671257019, -0.043970949947834015, -0.08819803595542908, 0.11218211054801941, -0.14183157682418823, -0.0951952189207077, -0.1064441129565239, -0.10621397197246552, 0.10595640540122986, 0.06942020356655121, -0.08559154719114304, 0.015323147177696228, -0.10952065885066986, -0.017802074551582336, 0.02280142903327942, 0.028874486684799194, 0.025033622980117798, -0.0932675376534462, 0.12024354934692383, 0.03755068778991699, -0.007841020822525024, -0.11284846067428589, 0.05972941219806671, -0.10291723906993866, 0.12694939970970154, -0.08971312642097473, 0.09348714351654053, -0.12685398757457733, -0.06277386099100113, -0.13120681047439575, -0.1371464729309082, 0.09566183388233185, -0.03410646319389343, 0.008539959788322449, -0.12717553973197937, -0.09923572838306427, -0.1050049215555191, -0.04732991009950638, 0.07440674304962158, 0.014882609248161316, 0.041269004344940186, -0.11131933331489563, 0.058592572808265686, -0.11823289096355438, 0.09715443849563599, -0.0319112092256546, -0.03765149414539337, 0.11047226190567017, -0.14033837616443634, -0.09961782395839691, -0.11366788297891617, 0.006268918514251709, 0.11453783512115479, 0.11121609807014465, 0.12107685208320618, -0.007742702960968018, -0.04246021807193756, 0.017605170607566833, 0.03526286780834198, 0.03949657082557678, 0.05066615343093872, -0.02115720510482788, 0.058462053537368774, 0.14046922326087952, -0.07950630784034729, 7.15404748916626e-05, -0.11889022588729858, -0.11014386266469955, -0.07901356369256973, 0.1349371075630188, 0.07825085520744324, -0.08592759072780609, -0.039188869297504425, 0.07480213046073914, -0.12367280572652817, -0.12268465757369995, 0.026865437626838684, -0.050238512456417084, -0.03104279935359955, 0.009367495775222778, 0.06731373071670532, 0.001959100365638733, 0.14353466033935547, 0.04646424949169159, 0.0635433942079544, 0.1161808967590332, 0.056991711258888245, -0.03933445364236832, 0.13750547170639038, 0.0832863450050354, -0.11080331355333328, 0.01893053948879242, 0.09269401431083679, 0.05718395113945007, -0.10513847321271896, 0.07113941013813019, 0.0032689571380615234, 0.027372658252716064, 0.10400390625, -0.1328786015510559, -0.11657961457967758, -0.034461282193660736, 0.08644428849220276, -0.036530107259750366, -0.10922464728355408, 0.13025084137916565, -0.07519371807575226, -0.059899069368839264, -0.006822332739830017, 0.05351312458515167, 0.050795286893844604, -0.07234929502010345, -0.08783090114593506, 0.07438242435455322, -0.12206535041332245, -0.038015276193618774, -0.03978508710861206, -0.016976460814476013, 0.11480668187141418, 0.04922811686992645, -0.032622963190078735, 0.037668704986572266, -0.04617271572351456, 0.12069201469421387, -0.08393295109272003, 0.020248711109161377, 0.114839106798172, -0.03940019756555557, -0.09730382263660431, -0.02664734423160553, -0.0009683966636657715, -0.10597293078899384, 0.07511252164840698, 0.13469284772872925, -0.049001216888427734, 0.027213171124458313, -0.09647100418806076, -0.038328446447849274, 0.10714730620384216, -0.10642871260643005, 0.10942289233207703, 0.11463049054145813, 0.05246056616306305, 0.021785810589790344, -0.09441571682691574, -0.044703081250190735, -0.14410729706287384, -0.050846002995967865, -0.09641732275485992, -0.12888655066490173, -0.032551079988479614, 0.13245046138763428, -0.13443657755851746, 0.03224436938762665, 0.0842209905385971, 0.0004800856113433838, -0.1196766272187233, 0.1279955506324768, 0.06694474816322327, 0.019935816526412964, 0.142399400472641, 0.04075413942337036, -0.01883673667907715, 0.0927339643239975, 0.09771841764450073, -0.11609327793121338, 0.10435980558395386, 0.10620352625846863, -0.023506388068199158, -0.1430673450231552, 0.03959354758262634, 0.011304602026939392, 0.1204100251197815, 0.13647210597991943, 0.05907994508743286, 0.04554013907909393, 0.10168734192848206, -0.031332746148109436, 0.09973257780075073, -0.136725053191185, -0.1255163550376892, 0.05826789140701294, -0.1114901751279831, -0.022270269691944122, 0.046293213963508606, 0.015314891934394836, -0.04511357843875885, -0.05660378932952881, 0.13490480184555054, 0.0817101001739502, 0.08793452382087708, 0.11401191353797913, -0.06346610933542252, -0.08344682306051254, -0.08853729814291, -0.10312942415475845, -0.03879997134208679, -0.10242237895727158, -0.06757073849439621, 0.02671709656715393, -0.0943261981010437, 0.1294999122619629, 0.14248764514923096, -0.0650487169623375, 0.03550568222999573, -0.016142338514328003, 0.09216035902500153, 0.11456093192100525, 0.10638606548309326, 0.08415533602237701, 0.1108430027961731, -0.14405585825443268, -0.11061705648899078, -0.005832359194755554, 0.0584757924079895, -0.14231932163238525, -0.12376852333545685, -0.0016757696866989136, 0.049318864941596985, -0.03613291680812836, -0.0940852165222168, 0.11505007743835449, 0.12412235140800476, 0.11228477954864502, 0.07475031912326813, 0.08981867134571075, -0.01663064956665039, -0.060465022921562195, 0.055226415395736694, 0.09090599417686462, 0.11154693365097046, -0.10837981104850769, 0.12552723288536072, 0.07455174624919891, 0.02309897541999817, 0.13914507627487183, 0.09445098042488098, -0.09000594913959503, 0.13907870650291443, 0.026401624083518982, 0.08314093947410583, 0.04559709131717682, 0.03796079754829407, 0.12929359078407288, 0.09679371118545532, 0.1126539409160614, 0.04281845688819885, -0.1047932505607605, 0.09099577367305756, -0.04387574642896652, 0.04912598431110382, -0.13864131271839142, 0.08640836179256439, 0.05470801889896393, 0.14346957206726074, 0.028748705983161926, 0.08205902576446533, -0.0038737356662750244, 0.11599361896514893, 0.11132195591926575, 0.06088189780712128, 0.07501235604286194, 0.14190176129341125, -0.02375636249780655, 0.07518452405929565, 0.03585943579673767, -0.12057022005319595, 0.017040222883224487, -0.01725773513317108, 0.08919496834278107, 0.04211418330669403, 0.06556685268878937, -0.08324722945690155, 0.10249349474906921, -0.11376361548900604, 0.07366082072257996, 0.13632550835609436, -0.045352913439273834, -0.08306431025266647, -0.08610235154628754, -0.04020427167415619, 0.06802310049533844, 0.0825592428445816, 0.05229426920413971, 0.02645401656627655, 0.05897259712219238, 0.039982929825782776, -0.11197064816951752, 0.09097921848297119, -0.14039653539657593, -0.1335940808057785, 0.014271214604377747, -0.04108884930610657, 0.038699671626091, 0.03148798644542694, -0.13255342841148376, 0.021614238619804382, 0.12366604804992676, 0.10839864611625671, 0.04363289475440979, -0.020129606127738953, 0.020207464694976807, -0.13284988701343536, -0.05191393196582794, -0.02888159453868866, 0.030898630619049072, -0.09494216740131378, -0.11525487899780273, 0.10085710883140564, -0.02540300041437149, 0.10166715085506439, 0.08935515582561493, -0.08379504084587097, 0.10268604755401611, 0.02391009032726288, -0.13032427430152893, 0.1123986542224884, 0.10837602615356445, 0.057502299547195435, 0.024682089686393738, -0.04123649746179581, 0.003946632146835327, -0.1376265436410904, -0.08029511570930481, 0.07610277831554413, -0.10292506217956543, -0.027077727019786835, 0.05552157759666443, -0.1436222940683365, 0.1119430661201477, -0.013000741600990295, 0.10535980761051178, 0.12320327758789062, 0.04582589864730835, 0.10495315492153168, -0.06621456891298294, 0.04006819427013397, -0.007886290550231934, -0.04926473647356033, 0.1047489196062088, -0.05109148472547531, 0.0070203691720962524, 0.1373412311077118, 0.08419054746627808, 0.11531174182891846, 0.08167657256126404, -0.07096198201179504, 0.09462162852287292, 0.10076311230659485, -0.050699733197689056, 0.11531731486320496, 0.08070698380470276, 0.11608529090881348, 0.14219656586647034, -0.11382872611284256, 0.02880747616291046, 0.052049919962882996, -0.08549225330352783, -0.027012072503566742, -0.042371466755867004, 0.12194713950157166, -0.07360333204269409, -0.05747479200363159, 0.07106576859951019, -0.11290793120861053, -0.11320764571428299, -0.08986165374517441, -0.03970068693161011, 0.05618250370025635, 0.08216628432273865, -0.013977155089378357, -0.008264929056167603, 0.02114686369895935, -0.13384081423282623, 0.057824209332466125, -0.086470827460289, -0.014567837119102478, -0.06902853399515152, 0.13155612349510193, 0.003956466913223267, -0.03822677582502365, 0.09682650864124298, 0.07781264185905457, 0.04347798228263855, 0.015718132257461548, -0.006640419363975525, -0.053550876677036285, -0.11436556279659271, -0.00957612693309784, -0.018269985914230347, -0.014839038252830505, 0.03211739659309387, -0.12746557593345642, 0.08312852680683136, -0.11748048663139343, -0.14381031692028046, 0.053860142827034, 0.06896790862083435, -0.08989471197128296, -0.011624351143836975, -0.12237726897001266, -0.074407659471035, -0.13287197053432465, 0.0759008526802063, -0.0289817675948143, -0.09520047903060913, 0.09222191572189331, -0.01508401334285736, -0.02353844791650772, -0.04372134059667587, -0.11344244331121445, 0.005649149417877197, 0.049484699964523315, 0.10831725597381592, 0.08296851813793182, 0.10710161924362183, 0.08437417447566986, 0.06075431406497955, 0.03235448896884918, -0.06840328872203827, 0.14103838801383972, -0.08887802064418793, -0.07982075214385986, -0.04466624557971954, 0.1315954029560089, -0.0509021133184433, -0.11175236105918884, -0.13846904039382935, 0.09843385219573975, -0.022101543843746185, -0.05886401981115341, 0.07021459937095642, 0.08804813027381897, -0.012761503458023071, -0.05302871763706207, 0.10773831605911255, 0.09835264086723328, 0.09735128283500671, -0.0871768444776535, 0.04458869993686676, -0.09114342927932739, -0.06757531315088272, 0.07564373314380646, -0.13333749771118164, -0.04186265170574188, -0.05978292226791382, -0.03127894550561905, 0.05445888638496399, -0.013322487473487854, -0.007169589400291443, -0.10469470918178558, -0.0492548793554306, 0.0222470760345459, 0.11692178249359131, -0.14268270134925842, -0.05284543335437775, 0.04226812720298767, 0.019978582859039307, -0.0689648687839508, -0.0786968320608139, 0.07874925434589386, -0.03332390636205673, 0.12436032295227051, 0.0031986981630325317, -0.12005681544542313, -0.048610568046569824, -0.04298681765794754, -0.03490757942199707, -0.03258189558982849, -0.08009075373411179, -0.13187122344970703, -0.04213850945234299, 0.032185569405555725, -0.09553316980600357, 0.022433236241340637, -0.02358923852443695]}, "bias": {"shape": [12], "values": [-0.1158849224448204, 0.09527687728404999, -0.05771602690219879, -0.013766244053840637, -0.0153532475233078, -0.08561675250530243, -0.029774948954582214, -0.1403503119945526, 0.0731092244386673, 0.11296078562736511, 0.06062145531177521, -0.043206751346588135]}}, "floor": {"shape": [1], "values": [0.0]}, "ceiling": {"shape": [1], "values": [0.0]}, "coef_softsign": {"shape": [1], "values": [-0.2527337968349457]}, "coef_tanh": {"shape": [1], "values": [0.2266848087310791]}}, "stack.2": {"conv": {"weight": {"shape": [12, 12, 4], "values": [0.1107339859008789, 0.13162106275558472, 0.12992620468139648, -0.02936691790819168, -0.050501734018325806, 0.007760241627693176, 0.03771206736564636, -0.14378966391086578, -0.08801403641700745, 0.06481108069419861, -0.045816510915756226, -0.11012749373912811, 0.0157032310962677, -0.14341695606708527, 0.1090143620967865, 0.14093640446662903, -0.14402328431606293, 0.02907821536064148, 0.02528427541255951, -0.004140153527259827, 0.04297642409801483, 0.028373539447784424, 0.02691185474395752, 0.03590928018093109, -0.12786853313446045, 0.10937219858169556, 0.11905989050865173, -0.057109057903289795, 0.04525882005691528, -0.058826006948947906, 0.10072322189807892, -0.12203993648290634, -0.004857063293457031, -0.04080609977245331, 0.12609639763832092, -0.07918612658977509, -0.1377793699502945, 0.006450101733207703, 0.12925109267234802, 0.03530190885066986, -0.08465670794248581, 0.09111972153186798, -0.003520384430885315, 0.1420522928237915, -0.057958394289016724, 0.08554421365261078, -0.07752858847379684, 0.026253819465637207, -0.048066720366477966, 0.08420445024967194, -0.0978790670633316, 0.12001040577888489, -0.06086701154708862, -0.13128308951854706, -0.0027719438076019287, -0.023166634142398834, -0.029066011309623718, -0.05754367262125015, 0.11818715929985046, -0.08396461606025696, 0.14430800080299377, -0.02012275904417038, 0.10818645358085632, -0.11709773540496826, 0.09528927505016327, 0.12652736902236938, 0.10664331912994385, 0.11354207992553711, -0.11759881675243378, 0.04397198557853699, -0.06639236211776733, 0.06320381164550781, -0.07276176661252975, -0.024016350507736206, 0.10854825377464294, 0.1096758246421814, -0.10300564020872116, -0.13001838326454163, 0.08944332599639893, -0.023919478058815002, 0.06975024938583374, 0.07550925016403198, 0.06338776648044586, 0.06403641402721405, -0.0003081858158111572, -0.04492294788360596, 0.025567367672920227, -0.07724326848983765, -0.12676383554935455, 0.10888484120368958, 0.10072559118270874, -0.11227414757013321, 0.03079339861869812, 0.10112002491950989, -0.08181075751781464, -0.12416893243789673, 0.06982553005218506, 0.11008691787719727, -0.06798646599054337, -0.02207636833190918, 0.043299898505210876, 0.1377725601196289, -0.05099143087863922, 0.09778830409049988, -0.0786210373044014, 0.13480409979820251, -0.14385731518268585, 0.11139646172523499, 0.08657205104827881, 0.0693107396364212, 0.10575371980667114, -0.012090444564819336, 0.09974460303783417, -0.06948183476924896, 0.12632688879966736, 0.032933175563812256, 0.020066022872924805, -0.008916676044464111, -0.03518551588058472, -0.053761377930641174, 0.03327171504497528, -0.051726847887039185, 0.07549288868904114, 0.09193669259548187, 0.11227655410766602, 0.07533033192157745, -0.1344626545906067, -0.06969166547060013, -0.031558215618133545, -0.06894978135824203, -0.10540307313203812, -0.037316709756851196, -0.0712227076292038, 0.057790786027908325, -0.017365247011184692, 0.1171768307685852, 0.007851213216781616, 0.08512148261070251, 0.03350174427032471, 0.08187448978424072, 0.11933648586273193, -0.01416616141796112, 0.02549375593662262, -0.07511260360479355, -0.12217671424150467, -0.019088909029960632, -0.029076166450977325, -0.04494932293891907, -0.042965635657310486, 0.09762977063655853, 0.11300808191299438, 0.012807086110115051, 0.01667124032974243, 0.10423557460308075, -0.1300082951784134, -0.004167512059211731, -0.06843561679124832, -0.019972100853919983, -0.046601809561252594, -0.022283188998699188, 0.01771804690361023, 0.05257470905780792, -0.061433807015419006, 0.07663315534591675, -0.07579545676708221, -0.017446741461753845, 0.007889732718467712, 0.0520847886800766, 0.13430148363113403, -0.0451505184173584, 0.05702012777328491, 0.1280922293663025, -0.07722043991088867, -0.11478830873966217, 0.10869669914245605, -0.06136400252580643, 0.13038206100463867, 0.14123815298080444, -0.07137252390384674, -0.034680746495723724, -0.06983007490634918, -0.10864052176475525, 0.10660853981971741, -0.14264337718486786, -0.11201643198728561, 0.1398434340953827, 0.12138459086418152, 0.0163424015045166, -0.03890114277601242, -0.05125392973423004, 0.05886639654636383, -0.02073562890291214, -0.07324046641588211, 0.05460269749164581, 0.054194867610931396, -0.0440434068441391, 0.09617814421653748, 0.107384592294693, 0.08141486346721649, 0.031729117035865784, -0.1265334188938141, 0.1010025292634964, 0.0006018579006195068, -0.07174552232027054, -0.06613576412200928, 0.11861079931259155, 0.027646154165267944, -0.043430395424366, 0.1188499927520752, 0.10044530034065247, 0.09222434461116791, -0.02967028319835663, 0.12464979290962219, 0.1174745261669159, -0.02348627895116806, 0.02474510669708252, 0.009696945548057556, -0.01632682979106903, 0.11095753312110901, -0.040463291108608246, 0.0006178468465805054, 0.021629661321640015, -0.07700936496257782, 0.07273849844932556, -0.02667296677827835, 0.12397792935371399, 0.07666638493537903, -0.10087323188781738, -0.037581898272037506, 0.0973377525806427, 0.002481803297996521, 0.010342031717300415, -0.0895322859287262, -0.08641001582145691, 0.136771559715271, 0.0811675637960434, -0.024042867124080658, -0.0951600968837738, 0.054722175002098083, -0.012267336249351501, 0.12766948342323303, 0.13287580013275146, -0.0979539304971695, 0.05984117090702057, -0.04101987183094025, -0.12547682225704193, -0.1251683533191681, -0.11608582735061646, 0.09285415709018707, 0.10203997790813446, 0.07607659697532654, -0.04833298921585083, 0.023221075534820557, -0.09034792333841324, 0.11178919672966003, -0.02921474725008011, 0.13004478812217712, 0.11739283800125122, -0.021251685917377472, -0.051092445850372314, 0.11407765746116638, -0.03832361102104187, -0.019008323550224304, 0.1371537744998932, -0.0025749653577804565, 0.1324133276939392, -0.014374777674674988, 0.09371082484722137, -0.11535511910915375, 0.11957931518554688, 0.032187700271606445, -0.01418350636959076, -0.09463711082935333, -0.017039582133293152, 6.751716136932373e-05, -0.08369524776935577, -0.038736067712306976, -0.006338059902191162, 0.09627830982208252, 0.05882427096366882, -0.13488613069057465, -0.0325966402888298, 0.011906400322914124, 0.033285126090049744, 0.02038910984992981, -0.0741814449429512, -0.12692371010780334, -0.003405272960662842, 0.1259915828704834, 0.02960817515850067, 0.0872180312871933, 0.12820342183113098, -0.09375211596488953, -0.07170787453651428, -0.05188616365194321, -0.05973077565431595, 0.11914131045341492, 0.13010543584823608, 0.12085220217704773, -0.04343502223491669, -0.07513213157653809, 0.029088467359542847, -0.0018225908279418945, -0.06365527212619781, 0.07985636591911316, 0.13419601321220398, 0.08109600841999054, -0.010699719190597534, 0.07920947670936584, -0.13144010305404663, 0.056611254811286926, 0.06622651219367981, 0.0590595006942749, 0.12242022156715393, -0.05577812343835831, 0.008781209588050842, -0.10955516248941422, -0.092791348695755, 0.03112293779850006, -0.13584645092487335, -0.09966115653514862, -0.12417547404766083, -0.11056087911128998, 0.1164434552192688, 0.01732364296913147, -0.1434435248374939, 0.05783955752849579, -0.011772885918617249, -0.09575799107551575, -0.004858851432800293, -0.14258772134780884, 0.13967248797416687, -0.1306510716676712, -0.06451313197612762, -0.05797725170850754, -0.1179017722606659, -0.1429900974035263, -0.06470528990030289, -0.004530683159828186, 0.12871351838111877, -0.07296614348888397, 0.008919045329093933, 0.04782845079898834, 0.12376224994659424, 0.14170140027999878, 0.13626307249069214, -0.05939645320177078, -0.0036280006170272827, 0.06746263802051544, 0.08454519510269165, 0.041095152497291565, -0.08227062970399857, -0.02362465113401413, 0.0061880797147750854, 0.016530513763427734, 0.07518328726291656, 0.10507309436798096, 0.053815290331840515, 0.11219742894172668, 0.042585358023643494, -0.06998468935489655, -0.03612305223941803, -0.1406497061252594, 0.04742051661014557, -0.09169583767652512, -0.10070681571960449, 0.06465014815330505, -0.07866565138101578, 0.0918186604976654, 0.12253984808921814, -0.07181833684444427, -0.1204979196190834, -0.08451083302497864, -0.1331736296415329, 0.0793876200914383, 0.09102603793144226, -0.10116870701313019, -0.04860175400972366, -0.09301766753196716, -0.1129959225654602, 0.11197888851165771, 0.09527722001075745, 0.02757875621318817, -0.0710977166891098, 0.03528966009616852, -0.1175156757235527, -0.03180093318223953, -0.11928633600473404, 0.05892828106880188, -0.05285845696926117, -0.06342880427837372, 0.1418016254901886, 0.07570457458496094, -0.14246410131454468, -0.06929559260606766, 0.07082319259643555, -0.09035544097423553, 0.12414216995239258, -0.12958793342113495, 0.07427626848220825, 0.03606365621089935, -0.04294230043888092, 0.12727686762809753, 0.017393052577972412, 0.06902267038822174, 0.0703703910112381, 0.07949312031269073, 0.12131142616271973, 0.00202178955078125, 0.034117743372917175, -0.12464416027069092, -0.02499782294034958, -0.04307200759649277, -0.012915447354316711, -0.07873031497001648, -0.07019646465778351, 0.013099923729896545, 0.032692477107048035, 0.029204577207565308, -0.05378849804401398, -0.10478547215461731, 0.05410794913768768, -0.1328222155570984, 0.12918159365653992, -0.01819521188735962, 0.05959285795688629, -0.08751726895570755, -0.068459153175354, 0.00426839292049408, 0.006446421146392822, -0.09327949583530426, 0.039888396859169006, -0.10675200819969177, 0.12823385000228882, -0.07329046726226807, -0.03463057428598404, 0.03310558199882507, 0.011204704642295837, -0.003980398178100586, 0.074089914560318, -0.08293773978948593, 0.048314303159713745, 0.05546927452087402, 0.07148678600788116, -0.0846961960196495, -0.028159596025943756, -0.12160704284906387, 0.00037094950675964355, -0.06787456572055817, 0.0038131624460220337, -0.08668743818998337, -0.03753320127725601, -0.036330871284008026, -0.09281249344348907, 0.013017207384109497, 0.013244271278381348, -0.1355079710483551, 0.03428588807582855, 0.032463207840919495, 0.14366525411605835, 0.12337914109230042, 0.0007485002279281616, 0.029175877571105957, -0.12978243827819824, 0.048608794808387756, 0.09318184852600098, -0.07385469973087311, -0.05520433932542801, 0.05816054344177246, 0.04325549304485321, 0.06689168512821198, 0.044900521636009216, 0.03187410533428192, -0.02832469344139099, -0.11535263061523438, -0.05163305252790451, 0.06379245221614838, -0.004777863621711731, 0.13251420855522156, 0.002422347664833069, 0.07812914252281189, 0.0992482602596283, -0.014402002096176147, -0.015558958053588867, -0.13703009486198425, -0.10185208916664124, -0.039900779724121094, -0.05027810484170914, -0.10490350425243378, -0.07528682053089142, -0.1238303855061531, 0.10393306612968445, 0.089105024933815, 0.047218576073646545, -0.07797583192586899, 0.005811974406242371, 0.0033483803272247314, -0.005115985870361328, 0.01251116394996643, 0.06637927889823914, 0.026072785258293152, -0.07625340670347214, 0.007391020655632019, -0.09123759716749191, 0.11601713299751282, 0.08596053719520569, -0.021280162036418915, -0.0073614418506622314, 0.13078933954238892, 0.10394418239593506, -0.07969385385513306, 0.1259540319442749, -0.05228913575410843, -0.1100931167602539, 0.007750377058982849, -0.1404329240322113, -0.0470491424202919, 0.058152273297309875, 0.0613531768321991, 0.0894956886768341, 0.06729903817176819, -0.019793376326560974, -0.08446475118398666, 0.09521348774433136, 0.06844227015972137, -0.10501725971698761, 0.0032831430435180664, 0.14151757955551147, 0.039992302656173706, 0.09708940982818604, -0.047553904354572296, -0.04682053625583649, 0.035321250557899475, -0.11959122866392136, -0.1438368409872055, 0.031493693590164185, 0.13485997915267944, 0.10776233673095703, -0.08551224321126938, 0.14228451251983643, -0.08115904778242111, 0.14190781116485596, 0.07259035110473633, -0.02700018137693405, 0.13213768601417542, -0.04658379405736923, 0.09491260349750519, 0.010275229811668396, 0.05929403007030487, -0.021704621613025665, 0.016569823026657104, 0.13646483421325684, -0.12822160124778748, 0.050948187708854675, 0.054911985993385315, 0.044550925493240356, 0.10824012756347656, 0.046231016516685486, -0.11868059635162354, 0.12689507007598877, 0.13769781589508057, 0.14192914962768555, 0.12935948371887207, -0.12569187581539154, -0.08861777186393738, -0.10618102550506592, -0.053979337215423584, 0.09888063371181488, -0.05122724175453186, 0.11292204260826111, 0.04179354012012482, -0.11319550126791, 0.015054374933242798, 0.06272721290588379, -0.0707705095410347, -0.0817144513130188]}, "bias": {"shape": [12], "values": [0.03432948887348175, 0.12145775556564331, 0.0899411141872406, -0.019337236881256104, 0.0469234436750412, 0.07360272109508514, 0.059894099831581116, -0.04301563650369644, 0.06516608595848083, 0.13547515869140625, -0.0497281551361084, 0.11669349670410156]}}, "floor": {"shape": [1], "values": [0.0]}, "ceiling": {"shape": [1], "values": [0.0]}, "coef_softsign": {"shape": [1], "values": [0.032200515270233154]}, "coef_tanh": {"shape": [1], "values": [1.1752419471740723]}}, "stack.3": {"conv": {"weight": {"shape": [12, 12, 4], "values": [0.11970457434654236, 0.1394714117050171, 0.06335760653018951, 0.13993927836418152, -0.010052144527435303, 0.07069820165634155, 0.10119061172008514, -0.01621420681476593, -0.08169227093458176, 0.10019199550151825, -0.057900719344615936, -0.09781277179718018, 0.03785422444343567, -0.0725029781460762, 0.1122221052646637, -0.005307644605636597, -0.13979211449623108, 0.10006445646286011, 0.04159444570541382, -0.13711903989315033, 0.1395905315876007, -0.05881362408399582, -0.013299316167831421, -0.01755298674106598, 0.060637325048446655, -0.12288790196180344, 0.11429774761199951, -0.0428989976644516, -0.0008582174777984619, 0.1040133535861969, 0.060549646615982056, -0.09790633618831635, -0.027203716337680817, 0.10416170954704285, -0.08802712708711624, 0.06280060112476349, 0.10712721943855286, 0.02868039906024933, 0.08706812560558319, 0.10445395112037659, 0.03155386447906494, -0.05642842501401901, -0.12935270369052887, -0.09305807948112488, 0.051930949091911316, -0.10097124427556992, 0.06480675935745239, 0.08378830552101135, -0.10816141217947006, -0.11792358756065369, 0.12639066576957703, -0.11557348817586899, 0.047335296869277954, 0.0019361525774002075, 0.013776436448097229, -0.13478778302669525, 0.14130982756614685, -0.07328967750072479, 0.051556333899497986, -0.08444921672344208, 0.011518910527229309, 0.12535244226455688, -0.030827000737190247, 0.10334941744804382, -0.012562945485115051, -0.12801288068294525, 0.029402434825897217, 0.05061979591846466, 0.1363627314567566, -0.002550959587097168, -0.051261864602565765, -0.015549719333648682, -0.08111769706010818, -0.048120684921741486, -0.031163468956947327, -0.08663561195135117, -0.11586783826351166, 0.010736256837844849, 0.01629963517189026, -0.05343125760555267, -0.0018882602453231812, 0.05715058743953705, -0.001564115285873413, -0.08521431684494019, -0.018209561705589294, -0.0025397539138793945, -0.012248188257217407, -0.12352600693702698, -0.12561048567295074, -0.13333410024642944, 0.11557328701019287, 0.008065745234489441, 0.030094414949417114, 0.14172574877738953, 0.07156431674957275, 0.05262294411659241, -0.03248859941959381, 0.13630416989326477, 0.12606200575828552, 0.11450055241584778, 0.10655176639556885, 0.12574487924575806, 0.04177655279636383, -0.05508895963430405, 0.05561856925487518, 0.12393280863761902, 0.09835667908191681, 0.04260408878326416, -0.01188129186630249, 0.13326597213745117, 0.06606735289096832, 0.058039382100105286, 0.05234251916408539, -0.06224450469017029, 0.10891571640968323, -0.13529352843761444, -0.10231654345989227, -0.09262773394584656, 0.0458391010761261, 0.06601430475711823, -0.12707065045833588, -0.057711414992809296, -0.09620560705661774, 0.07243070006370544, -0.09233476221561432, -0.08803409337997437, -0.008996903896331787, 0.015932291746139526, 0.10653802752494812, -0.08081883937120438, 0.029262468218803406, -0.07359001040458679, 0.06531046330928802, -0.07508445531129837, 0.04432334005832672, 0.09844273328781128, 0.01093757152557373, 0.1109406054019928, 0.05589926242828369, -0.001207113265991211, -0.002106979489326477, -0.030357830226421356, -0.03023725003004074, 0.04162950813770294, -0.04346504807472229, 0.06603625416755676, 0.061230674386024475, 0.014955952763557434, -0.0067591071128845215, 0.0035663992166519165, 0.05215553939342499, -0.03463324159383774, -0.0776471197605133, 0.029532119631767273, -0.0249052494764328, 0.012263566255569458, -0.02012529969215393, -0.08289597928524017, -0.03128432482481003, -0.1220238208770752, -0.02682393789291382, -0.06138945370912552, 0.06579568982124329, -0.12690724432468414, 0.004309505224227905, -0.1398247629404068, -0.12819787859916687, 0.07636317610740662, 0.06346382200717926, 0.07993987202644348, 0.005648359656333923, -0.14372140169143677, -0.09998378902673721, -0.13843370974063873, -0.021348781883716583, 0.0391925573348999, 0.09542082250118256, -0.01501290500164032, -0.12203118205070496, 0.05388948321342468, 0.0026042908430099487, -0.09448643773794174, 0.10475292801856995, 0.07667788863182068, -0.006319701671600342, 0.11107122898101807, 0.07186239957809448, -0.08009273558855057, 0.02185298502445221, 0.020486384630203247, -0.0923687070608139, 0.0991302877664566, -0.09214690327644348, 0.05071115493774414, 0.010861963033676147, 0.044168829917907715, -0.13083799183368683, -0.048072658479213715, 0.1358949840068817, 0.09310546517372131, 0.07906229794025421, 0.13877153396606445, 0.12494736909866333, 0.01080264151096344, 0.07793010771274567, -0.018929600715637207, 0.10508765280246735, 0.04603336751461029, -0.13383112847805023, 0.1307431161403656, 0.021938130259513855, -0.08712024986743927, -0.08509770780801773, -0.08762919902801514, 0.005212068557739258, 0.017670556902885437, 0.022500798106193542, -0.06451903283596039, -0.09305329620838165, -0.0654481053352356, -0.059179551899433136, -0.09725427627563477, -0.032305024564266205, 0.06794416904449463, 0.05323974788188934, 0.11335793137550354, -0.06626591086387634, -0.1126919686794281, -0.09877815842628479, 0.012198597192764282, -0.05033724009990692, -0.1262853741645813, 0.12426194548606873, -0.051872946321964264, 0.03908807039260864, 0.11350962519645691, 0.0864158421754837, 0.06273162364959717, 0.13822495937347412, -0.08722162246704102, 0.08187802135944366, -0.12492313981056213, -0.14308160543441772, 0.07310198247432709, -0.10794523358345032, 0.13908526301383972, 0.1125856339931488, -0.13902683556079865, 0.05304215848445892, 0.004111036658287048, 0.12089359760284424, 0.11564862728118896, 0.11492985486984253, -0.026656843721866608, -0.07110900431871414, 0.05435994267463684, 0.06665465235710144, 0.13052138686180115, 0.11740627884864807, -0.13580691814422607, 0.08613711595535278, -0.03162623941898346, 0.11574980616569519, -0.05252133309841156, -0.0951421707868576, 0.03403519093990326, 0.0723954439163208, -0.020520515739917755, 0.10069987177848816, -0.09389331936836243, 0.13335669040679932, -0.014174476265907288, -0.07914261519908905, 0.015524744987487793, -0.10801342129707336, 0.11121615767478943, 0.0011396408081054688, 0.07689522206783295, 0.05748900771141052, -0.049942754209041595, 0.13406246900558472, -0.09241726994514465, 0.01570834219455719, 0.0726858377456665, 0.07822622358798981, 0.008778825402259827, -0.02198898047208786, 0.10329057276248932, -0.07796672731637955, -0.05780661851167679, 0.02875995635986328, -0.0848407968878746, -0.018987193703651428, -0.11551368236541748, 0.03345614671707153, 0.06591473519802094, 0.05550701916217804, -0.1298554539680481, 0.045021578669548035, -0.03114316612482071, -0.03925198316574097, 0.12412083148956299, 0.08098290860652924, 0.044029951095581055, -0.0380583256483078, 0.0975731611251831, -0.032740503549575806, -0.02033112943172455, 0.10861700773239136, 0.04255498945713043, 0.08383682370185852, 0.1106315553188324, 0.08682703971862793, -0.03343791514635086, 0.053689032793045044, -0.13970910012722015, -0.014760732650756836, 0.09670408070087433, -0.039201050996780396, -0.09373267740011215, -0.12472805380821228, -0.09048794955015182, -0.03651334345340729, 0.01758149266242981, -0.13364443182945251, -0.05667481571435928, 0.0631496012210846, 0.10413086414337158, 0.07788211107254028, 0.12389495968818665, -0.13134878873825073, 0.13652193546295166, -0.08977928757667542, 0.095633864402771, -0.1207868680357933, 0.10172069072723389, 0.012363478541374207, -0.021880850195884705, 0.11830127239227295, 0.027016326785087585, -0.02016367018222809, 0.008799955248832703, 0.12114667892456055, 0.002097904682159424, 0.03353795409202576, 0.0907168835401535, -0.08475853502750397, -0.09395603090524673, 0.1128661036491394, 0.13111481070518494, 0.06395870447158813, 0.08689640462398529, 0.05777522921562195, 0.02505144476890564, -0.11912810802459717, 0.019193977117538452, -0.10386184602975845, 0.06289178133010864, 0.04117575287818909, 8.565187454223633e-05, 0.13187450170516968, -0.13506130874156952, -0.04849383980035782, -0.0756748765707016, -0.1050308346748352, 0.026357382535934448, -0.08808936178684235, 0.1336299180984497, 0.060822829604148865, -0.039712220430374146, -0.08862000703811646, -0.055979423224925995, -0.010822415351867676, 0.02037292718887329, -0.11880400776863098, 0.07128399610519409, 0.1316612958908081, 0.01473747193813324, -0.09609845280647278, -0.09742628037929535, -0.1396547555923462, 0.13435980677604675, 0.01926860213279724, -0.025479756295681, 0.02233193814754486, 0.12963339686393738, 0.10652679204940796, -0.026222899556159973, 0.14048585295677185, -0.03188446909189224, 0.037100374698638916, 0.12630698084831238, 0.13438928127288818, -0.04928202927112579, 0.1292831301689148, -0.12209893763065338, 0.06484399735927582, -0.08253073692321777, 0.06040152907371521, 0.007685184478759766, 0.05348876118659973, -0.0874742716550827, -0.12113149464130402, -0.04635252058506012, 0.0272587388753891, -0.06889898329973221, 0.036778971552848816, -0.0519041046500206, 0.01574985682964325, 0.0019350647926330566, -0.10256016254425049, -0.03818885236978531, -0.1293652504682541, 0.10127913951873779, -0.1431000977754593, -0.0986558049917221, 0.10087017714977264, 0.10825282335281372, 0.027975335717201233, 0.11890095472335815, -0.137725830078125, -0.03497700393199921, -0.1367187201976776, 0.13016068935394287, -0.08813268691301346, -0.009204566478729248, 0.10204456746578217, -0.11566327512264252, 0.12286245822906494, 0.08098329603672028, -0.11197427660226822, 0.0022407174110412598, -0.08051992952823639, 0.09235845506191254, -0.08202459663152695, -0.0578957125544548, -0.06808837503194809, -0.05080480873584747, 0.08140590786933899, -0.14286209642887115, -0.0006100237369537354, 0.03586524724960327, -0.03698276728391647, -0.13367052376270294, 0.12564322352409363, 0.10086488723754883, 0.04894515872001648, 0.1071023941040039, 0.04715777933597565, -0.10107485949993134, -0.10442966222763062, -0.12498918175697327, 0.12664976716041565, 0.03630819916725159, 0.0960395336151123, -0.10650550574064255, 0.1147676408290863, -0.061691321432590485, -0.10066601634025574, -0.01642341911792755, 0.07045784592628479, -0.001771673560142517, 0.06697426736354828, 0.10765212774276733, -0.0688941478729248, 0.10578382015228271, 0.03685964643955231, -0.11085297167301178, 0.11537685990333557, 0.004041031002998352, 0.020969942212104797, -0.04097318649291992, -0.09870888292789459, 0.14219972491264343, -0.1390368789434433, -0.09796475619077682, 0.03217071294784546, 0.14355358481407166, 0.11931580305099487, -0.114461749792099, -0.13821233808994293, 0.12771159410476685, -0.07821246981620789, -0.11535575985908508, -0.11555908620357513, -0.11140087246894836, 0.11088231205940247, -0.09384234994649887, -0.1401379555463791, -0.06808978319168091, -0.11359835416078568, -0.062486618757247925, -0.008369743824005127, -0.13958001136779785, 0.12367534637451172, -0.05596432834863663, 0.08080053329467773, -0.051401764154434204, -0.06855590641498566, 0.13305646181106567, -0.1430055797100067, -0.026232056319713593, 0.054781243205070496, -0.06812285631895065, -0.12288088351488113, -0.1415102481842041, 0.048429667949676514, 0.09225809574127197, -0.035049065947532654, 0.05236393213272095, -0.018566250801086426, -0.12953129410743713, -0.1257331818342209, -0.07107122242450714, -0.0005565434694290161, 0.12776264548301697, 0.00874321162700653, 0.05411836504936218, -0.03437574952840805, 0.12788960337638855, -0.1124657541513443, -0.09613896906375885, -0.11530622094869614, 0.06528253853321075, 0.040890127420425415, -0.11019285023212433, 0.049814656376838684, -0.10377483069896698, -0.1085003912448883, -0.026193439960479736, 0.09895795583724976, 0.1189650297164917, -0.026949405670166016, -0.048273541033267975, 0.12468278408050537, -0.06181023269891739, 0.005368068814277649, 0.021065086126327515, 0.03189288079738617, -0.08409056067466736, -0.10443869233131409, -0.11696399003267288, -0.07176682353019714, -0.028914891183376312, -0.03173081576824188, 0.008429020643234253, 0.10675585269927979, 0.10840940475463867, 0.12142649292945862, -0.010726764798164368, 0.05773113667964935, 0.0032709985971450806, -0.13594718277454376, 0.08687153458595276, 0.014990508556365967, -0.08228567242622375, 0.09774638712406158, 0.02875228226184845, 0.07700948417186737, -0.02652229368686676, -0.07577649503946304, 0.10585331916809082, 0.10494184494018555, 0.015973538160324097, -0.07489081472158432, 0.07715442776679993, 0.09031921625137329, 0.12370947003364563, -0.1404448300600052, -0.03412836790084839, 0.05614621937274933, 0.09605884552001953, 0.07004906237125397, -0.015310391783714294, -0.06487718224525452, -0.014467015862464905]}, "bias": {"shape": [12], "values": [-0.06700693815946579, -0.06287458539009094, 0.1349080502986908, 0.12859031558036804, 0.05613483488559723, 0.031484201550483704, 0.03608925640583038, -0.1321466863155365, 0.07261519134044647, 0.05770333111286163, 0.05421988666057587, -0.08329115808010101]}}, "floor": {"shape": [1], "values": [0.0]}, "ceiling": {"shape": [1], "values": [0.0]}, "coef_softsign": {"shape": [1], "values": [1.0638477802276611]}, "coef_tanh": {"shape": [1], "values": [0.6046589612960815]}}, "stack.4": {"conv": {"weight": {"shape": [12, 12, 4], "values": [0.01092936098575592, 0.14155516028404236, -0.1177014410495758, -0.02954503893852234, 0.1053088903427124, -0.06922979652881622, -0.011513367295265198, 0.1191180944442749, -0.024644576013088226, 0.09374798834323883, -0.11769840866327286, -0.12832865118980408, 0.006445109844207764, -0.13568547368049622, 0.06871998310089111, -0.079275943338871, -0.05971667915582657, 0.011656910181045532, 0.1076766848564148, 0.005409032106399536, -0.0021591782569885254, 0.008289158344268799, 0.13464802503585815, 0.0803203284740448, 0.05636952817440033, -0.10520774871110916, 0.09539444744586945, 0.11158666014671326, 0.0600457638502121, 0.12060791254043579, 0.10875555872917175, 0.017646655440330505, 0.005738556385040283, 0.017243459820747375, -0.1432216465473175, 0.13867402076721191, 0.005734607577323914, 0.10713782906532288, -0.0941905677318573, 0.11892920732498169, 0.11431586742401123, 0.01597653329372406, -0.06941211223602295, 0.05729037523269653, -0.00988052785396576, 0.008249878883361816, -0.05040565878152847, 0.06763626635074615, 0.12262862920761108, -0.023511536419391632, 0.09341785311698914, -0.03620130568742752, 0.11409389972686768, 0.0891081690788269, 0.1267206370830536, 0.061946213245391846, 0.01386350393295288, -0.09003327041864395, 0.0018264353275299072, -0.07584898918867111, 0.02303852140903473, 0.11839663982391357, 0.10323752462863922, -0.13122236728668213, -0.03610055148601532, 0.03290897607803345, 0.08569556474685669, -0.1380928009748459, 0.03077121078968048, -0.11708715558052063, -0.07105346769094467, -0.0988783985376358, -0.032623618841171265, 0.07750517129898071, -0.03967998921871185, 0.044614553451538086, 0.08278906345367432, -0.137502521276474, -0.05555883049964905, -0.0023766756057739258, -0.07586333900690079, -0.1124248206615448, -0.022976316511631012, -0.07751999795436859, 0.12602174282073975, -0.03445654362440109, 0.04027527570724487, -0.07916515320539474, -0.016446247696876526, 0.03756837546825409, -0.025472871959209442, -0.01679132878780365, -0.10339751839637756, -0.0770086795091629, 0.09164702892303467, 0.12496653199195862, 0.07689045369625092, 0.09105773270130157, -0.052579768002033234, 0.044155269861221313, 0.12499985098838806, -0.13043195009231567, -0.04756297171115875, 0.13179871439933777, 0.1290264129638672, -0.0374944731593132, -0.014987513422966003, 0.04757674038410187, 0.030417844653129578, -0.0713970735669136, 0.11458256840705872, -0.09596902132034302, 0.0022267699241638184, 0.0500415563583374, -0.09712409973144531, -0.03255365788936615, 0.08948568999767303, 0.010081186890602112, 0.11173743009567261, 0.029743462800979614, -0.12172189354896545, -0.00025506317615509033, -0.06572304666042328, 0.08994710445404053, 0.04629819095134735, 0.08904486894607544, 0.015523195266723633, 0.12383177876472473, -0.043754205107688904, 0.11401599645614624, -0.1280868798494339, -0.13617649674415588, -0.12944990396499634, 0.020240575075149536, -0.1436099112033844, -0.08967117965221405, 0.08240756392478943, -0.05098060518503189, 0.052746549248695374, -0.023522786796092987, -0.004745110869407654, -0.0919206365942955, 0.06286519765853882, -0.07893864810466766, -0.11234048008918762, -0.1306820660829544, 0.11304613947868347, -0.09850068390369415, -0.04365292936563492, 0.12315735220909119, 0.027715101838111877, -0.08456632494926453, 0.13512226939201355, 0.029050245881080627, -0.0514395534992218, -0.07788492739200592, 0.03127342462539673, 0.06548930704593658, 0.019565075635910034, -0.001571163535118103, 0.11305171251296997, 0.01498536765575409, 0.10146486759185791, -0.12004993855953217, 0.08639673888683319, 0.12955889105796814, -0.09139551222324371, 0.03213086724281311, -0.12546373903751373, 0.046379998326301575, 0.04917675256729126, -0.09802094101905823, -0.10190518945455551, -0.10469304025173187, -0.08366690576076508, -0.11802804470062256, 0.12722405791282654, -0.020486049354076385, -0.08647063374519348, 0.12041249871253967, 0.09375269711017609, -0.08222462236881256, -0.10218680649995804, 0.1346409022808075, 0.040853098034858704, 0.12048754096031189, 0.07309913635253906, -0.08501295000314713, -0.004054069519042969, -0.05722891539335251, 0.12294095754623413, 0.1245718002319336, -0.06099385768175125, 0.10174641013145447, 0.09636394679546356, 0.12608757615089417, -0.1327151358127594, -0.01911081373691559, 0.03853830695152283, 0.06131787598133087, 0.01709587872028351, 0.11042213439941406, -0.1285700500011444, -0.1408032476902008, 0.11806857585906982, 0.12197726964950562, 0.03810417652130127, -0.12774084508419037, 0.08102677762508392, 0.02376866340637207, -0.05447769910097122, 0.005735278129577637, 0.08853167295455933, 0.14255183935165405, 0.0036542415618896484, 0.13132500648498535, 0.10204897820949554, -0.07106955349445343, -0.05748458206653595, 0.10738247632980347, -0.1367407739162445, 0.09472262859344482, 0.10651019215583801, -0.045013897120952606, -0.04105246067047119, 0.09500662982463837, 0.07841409742832184, -0.008754178881645203, 0.02041180431842804, -0.049248047173023224, 0.08276572823524475, 0.045669957995414734, -2.8342008590698242e-05, -0.045880429446697235, -0.027083836495876312, 0.013099446892738342, 0.13638076186180115, 0.14164158701896667, -0.04343955218791962, 0.13113832473754883, -0.07392484694719315, -0.02705530822277069, -0.013275980949401855, 0.11806559562683105, -0.10847455263137817, -0.051247961819171906, 0.04861971735954285, 0.01369813084602356, -0.13379721343517303, -0.06261798739433289, -0.0288114994764328, 0.08728250861167908, -0.12208429723978043, -0.02585020661354065, 0.01848982274532318, -0.05729317665100098, 0.1438661515712738, -0.12132351845502853, -0.07551000267267227, 0.10181711614131927, -0.032975561916828156, -0.10887053608894348, 0.11791121959686279, 0.03449025750160217, 0.13220974802970886, 0.09615233540534973, -0.0004231780767440796, 0.06249423325061798, -0.075861357152462, 0.07764242589473724, -0.06717700511217117, -0.05788380652666092, 0.08166369795799255, 0.05919593572616577, 0.1412510871887207, -0.04357031732797623, 0.054342836141586304, -0.13150885701179504, -0.002477020025253296, -0.08587450534105301, -0.10769033432006836, -0.04614943265914917, 0.1286035180091858, -0.06531565636396408, -0.12798544764518738, -0.07625193893909454, -0.07628840208053589, -0.03917298465967178, -0.030445054173469543, 0.12395849823951721, -0.07881765067577362, 0.04486657679080963, -0.023570023477077484, -0.11858151108026505, 0.13870638608932495, 0.08880020678043365, -0.09418907761573792, 0.040636345744132996, -0.008779570460319519, 0.08907949924468994, -0.01339787244796753, 0.1168350875377655, 0.01499679684638977, 0.14400342106819153, 0.10979780554771423, -0.0898999571800232, 0.13428550958633423, 0.011774122714996338, 0.011363029479980469, 0.00941745936870575, -0.1023351401090622, 0.03634670376777649, 0.11601361632347107, -0.07832006365060806, -0.10796384513378143, -0.03727113455533981, -0.028131775557994843, -0.12457383424043655, 0.12424984574317932, -0.1192336156964302, -0.06418388336896896, 0.009238019585609436, 0.12647566199302673, 0.07513311505317688, -0.06827432662248611, -0.06500103324651718, 0.07481935620307922, -0.1397152990102768, -0.07731016725301743, -0.027065768837928772, 0.004252150654792786, -0.07045110315084457, 0.11133092641830444, -0.04821509122848511, -0.02838575839996338, 0.006652727723121643, -0.04342026263475418, 0.08587314188480377, -0.05110876262187958, 0.09714162349700928, -0.1002921313047409, -0.0060166120529174805, -0.029604293406009674, -0.010759130120277405, -0.1393556296825409, 0.03077252209186554, -0.09531796723604202, -0.13101093471050262, 0.09338650107383728, -0.07208884507417679, 0.10078942775726318, 0.010196328163146973, 0.0974477082490921, 0.06058356165885925, -0.03646724671125412, 0.0894671082496643, -0.07120654731988907, 0.11712494492530823, 0.06412965059280396, -0.12330557405948639, -0.09688760340213776, 0.09095783531665802, -0.05833898484706879, 0.08109787106513977, -0.05998988449573517, 0.08232313394546509, -0.021166309714317322, 0.1175726056098938, -0.058552086353302, -0.08352625370025635, 0.031711578369140625, -0.009845614433288574, -0.01654018461704254, 0.12907424569129944, -0.09573698043823242, -0.10156451910734177, 0.12232521176338196, -0.07347208261489868, 0.08488012850284576, -0.055651143193244934, 0.10968884825706482, 0.05444382131099701, -0.14291438460350037, -0.06490068882703781, -0.10871277749538422, 0.08497084677219391, -0.055779412388801575, -0.1028842031955719, 0.05270509421825409, -0.10670749098062515, -0.11556316912174225, 0.0546581894159317, 0.04233381152153015, -0.11401386559009552, -0.06157125532627106, 0.04184830188751221, -0.0888075903058052, 0.0424845814704895, 0.12389469146728516, -0.0670102909207344, 0.04673758149147034, -0.13261312246322632, 0.09182298183441162, 0.02445077896118164, 0.027534157037734985, 0.1397693157196045, -0.13348564505577087, -0.0874466747045517, -0.13982145488262177, 0.07237465679645538, 0.03248356282711029, -0.033633098006248474, 0.06565289199352264, -0.1196245551109314, 0.1062479317188263, 0.09466294944286346, 0.08792051672935486, -0.09360844641923904, 0.10326239466667175, -0.10676383972167969, -0.08513683080673218, -0.04919494688510895, -0.036774881184101105, -0.04392136633396149, 0.13463261723518372, -0.07694174349308014, 0.05986616015434265, -0.06680861860513687, -0.018478259444236755, -0.08213679492473602, -0.1233789399266243, 0.014648526906967163, 0.07543639838695526, 0.09583808481693268, -0.09712310880422592, 0.06586083769798279, -0.013174548745155334, 0.0021014660596847534, 0.10334978997707367, 0.0239449143409729, -0.04529978334903717, 0.08981329202651978, -0.13023725152015686, 0.05702528357505798, 0.03945067524909973, 0.012944266200065613, 0.06719699501991272, -0.04792527109384537, -0.06976868212223053, 0.03847190737724304, -0.11429490149021149, 0.08093903958797455, 0.05285114049911499, -0.05965336412191391, 0.011370256543159485, 0.14395546913146973, -0.0487547367811203, -0.03973562270402908, -0.020652011036872864, 0.02552059292793274, -0.039954498410224915, 0.005384102463722229, 0.03933754563331604, -0.1425996720790863, -0.007757276296615601, 0.07402467727661133, 0.1198282539844513, -0.1106974259018898, -0.12796691060066223, -0.13037408888339996, -0.13470344245433807, -0.09604869037866592, 0.08574916422367096, -0.05338817834854126, -0.0804649218916893, 0.12276911735534668, -0.00946246087551117, -0.11996152997016907, -0.08123186230659485, -0.00796036422252655, -0.03237520903348923, 0.12335759401321411, -0.05927717685699463, -0.07463084161281586, -0.08916853368282318, -0.06447933614253998, -0.08035791665315628, -0.0711367279291153, 0.08741426467895508, 0.028235822916030884, 0.02538609504699707, -0.015926122665405273, -0.015153765678405762, 0.0986013412475586, -0.09175549447536469, 0.09701584279537201, 0.006805971264839172, -0.1374494433403015, 0.070844367146492, -0.054413557052612305, -0.051775917410850525, 0.1321941316127777, 0.011258378624916077, 0.06633713841438293, -0.09174330532550812, -0.06960518658161163, -0.13810470700263977, -0.08425094187259674, 0.08654056489467621, 0.13014203310012817, 0.08969387412071228, -0.029487431049346924, -0.03530893474817276, 0.08561858534812927, 0.03428579866886139, 0.10929355025291443, 0.11373558640480042, 0.08009690046310425, 0.10772603750228882, -0.04430893808603287, -0.03652966022491455, 0.030765682458877563, 0.031757861375808716, 0.02076682448387146, -0.0005569308996200562, -0.016534730792045593, -0.020585350692272186, 0.03265170753002167, 0.1329529583454132, -0.0835338681936264, -0.07777673751115799, 0.09340374171733856, -0.11123742908239365, 0.09151539206504822, 0.0038079917430877686, 0.14348822832107544, -0.0382949635386467, 0.09265106916427612, -0.10010918974876404, 0.03273208439350128, -0.05735453963279724, -0.09356121718883514, 0.08213731646537781, 0.08556109666824341, -0.11361218988895416, 0.1441488265991211, 0.056799694895744324, -0.039721667766571045, 0.10189655423164368, -0.09918282926082611, 0.09745508432388306, -0.11109146475791931, 0.004000544548034668, 0.13267171382904053, 0.02270008623600006, 0.11067268252372742, -0.0006896555423736572, -0.04452243447303772, 0.10637477040290833, 0.015992581844329834, -0.034847989678382874, -0.13390131294727325, 0.039900824427604675, -0.051195770502090454, -0.12738271057605743, -0.09333445131778717, -0.012778505682945251, 0.12458980083465576, -0.10631145536899567, 0.04725100100040436, 0.06992749869823456, 0.12448576092720032, -5.124509334564209e-05, 0.020970702171325684, 0.03338886797428131, 0.13581812381744385]}, "bias": {"shape": [12], "values": [0.11178356409072876, -0.12723949551582336, 0.09578226506710052, -0.11865260452032089, -0.03674793988466263, -0.10450431704521179, -0.0994933545589447, -0.05738850682973862, -0.07236557453870773, -0.020532682538032532, -0.05231834948062897, -0.12973442673683167]}}, "floor": {"shape": [1], "values": [0.0]}, "ceiling": {"shape": [1], "values": [0.0]}, "coef_softsign": {"shape": [1], "values": [1.9363003969192505]}, "coef_tanh": {"shape": [1], "values": [0.5014820694923401]}}, "stack.5": {"conv": {"weight": {"shape": [1, 12, 4], "values": [-0.001700565218925476, -0.030870310962200165, 0.03562106192111969, 0.05188116431236267, -0.007695883512496948, 0.04203903675079346, 0.13331827521324158, -0.09275989234447479, -0.042039431631565094, -0.057393357157707214, 0.0043246448040008545, -0.09776562452316284, -0.016285955905914307, -0.07088583707809448, 0.04120132327079773, -0.07210929691791534, 0.11756762862205505, 0.043678537011146545, -0.045656830072402954, -0.08808165788650513, -0.11594506353139877, -0.006195098161697388, 0.1407899260520935, 0.07384833693504333, 0.07681336998939514, 0.058111801743507385, -0.05119909346103668, 0.12334591150283813, 0.036310359835624695, -0.057925790548324585, -0.0364951565861702, 0.061406657099723816, 0.025730520486831665, -0.13348330557346344, 0.01215355098247528, 0.06042797863483429, -0.1427229344844818, 0.06380172073841095, 0.11064687371253967, -0.11412070691585541, -0.07268258184194565, -0.0041669756174087524, -0.08576245605945587, 0.09987236559391022, -0.10794839262962341, -0.07021079957485199, 0.10796040296554565, 0.013060018420219421]}, "bias": {"shape": [1], "values": [0.010839909315109253]}}, "floor": {"shape": [1], "values": [0.0]}, "ceiling": {"shape": [1], "values": [0.0]}, "coef_softsign": {"shape": [1], "values": [-0.49910658597946167]}, "coef_tanh": {"shape": [1], "values": [-0.18700022995471954]}}}}