{"scale": {"weight": {"shape": [7, 3], "values": [-0.2909926772117615, -0.2839394509792328, -0.12323105335235596, 0.1551666259765625, 0.1322041153907776, -0.5122296214103699, 0.041309237480163574, -0.45964622497558594, -0.1569039225578308, -0.020178794860839844, 0.1957414746284485, 0.39180511236190796, -0.05041748285293579, -0.45212996006011963, -0.33568137884140015, 0.034606218338012695, -0.45587480068206787, 0.39825963973999023, -0.2755403220653534, 0.25195205211639404, 0.3037874102592468]}, "bias": {"shape": [7], "values": [0.2678101062774658, 0.3587394952774048, 0.3012353777885437, 0.037361323833465576, -0.02584022283554077, -0.25078028440475464, 0.1905757188796997]}}, "shift": {"weight": {"shape": [7, 3], "values": [0.2600395679473877, 0.005604386329650879, -0.48834165930747986, 0.349966824054718, -0.39824581146240234, -0.3133178949356079, 0.06631189584732056, -0.12835264205932617, -0.3720204830169678, -0.34635859727859497, 0.2844100594520569, 0.24075448513031006, 0.008448302745819092, -0.43717992305755615, -0.10038504004478455, -0.3600514531135559, -0.1508939564228058, 0.26149874925613403, 0.4841111898422241, 0.0007924437522888184, -0.22026759386062622]}, "bias": {"shape": [7], "values": [0.06425780057907104, -0.46108126640319824, -0.45130231976509094, 0.046511948108673096, 0.4642077684402466, -0.2387564778327942, 0.0025659799575805664]}}}