{"conv": {"weight": {"shape": [11, 7, 1], "values": [-0.26130762696266174, 0.17535921931266785, 0.016481995582580566, 0.026309072971343994, -0.35032135248184204, -0.005129635334014893, 0.16464272141456604, -0.2462969273328781, -0.22945182025432587, 0.03900298476219177, 0.31329938769340515, 0.022171825170516968, 0.3288745582103729, 0.19838818907737732, 0.2554899752140045, 0.08164837956428528, -0.08107250928878784, 0.17334136366844177, 0.04174664616584778, -0.15098562836647034, 0.08845376968383789, 0.2015044391155243, -0.13978427648544312, -0.04277145862579346, -0.23724530637264252, 0.17546126246452332, -0.09402474761009216, -0.039397746324539185, 0.03532734513282776, 0.27314868569374084, 0.0548211932182312, 0.353853315114975, 0.23299852013587952, 0.046830952167510986, 0.06484949588775635, -0.07049143314361572, -0.08280426263809204, 0.16911622881889343, 0.25959470868110657, -0.0487101674079895, 0.142907053232193, 0.08708778023719788, -0.2476237565279007, 0.20873185992240906, -0.3394046127796173, 0.135640949010849, -0.300350546836853, 0.0060262978076934814, -0.32066410779953003, -0.3342720568180084, 0.13486698269844055, 0.00843319296836853, -0.11940896511077881, 0.30038437247276306, 0.022029608488082886, 0.16520187258720398, 0.22276392579078674, 0.3406616747379303, 0.15723714232444763, 0.3092491328716278, 0.2209366261959076, -0.3036486506462097, -0.377189040184021, 0.31312426924705505, 0.3146871030330658, -0.003228515386581421, -0.21931087970733643, -0.17628948390483856, 0.35312584042549133, -0.3673977851867676, 0.0951351523399353, 0.08786723017692566, 0.3365829288959503, 0.30585673451423645, -0.07152131199836731, 0.19837787747383118, -0.14288504421710968]}, "bias": {"shape": [11], "values": [-0.03665164113044739, -0.024990737438201904, -0.25970152020454407, -0.13783903419971466, -0.11182409524917603, 0.07066076993942261, -0.15374766290187836, -0.29227039217948914, 0.023444950580596924, -0.08533763885498047, 0.094927579164505]}}, "conv1": {"weight": {"shape": [11, 7, 3], "values": [-0.12995678186416626, -0.14079882204532623, 0.0038208216428756714, 0.21595452725887299, 0.16378073394298553, 0.09577839076519012, -0.20613481104373932, -0.14658653736114502, -0.13868147134780884, 0.019981279969215393, -0.07435259222984314, -0.11741649359464645, -0.08272923529148102, 0.0408085435628891, -0.04253965616226196, 0.08721260726451874, -0.1795693337917328, -0.08682471513748169, -0.18799684941768646, 0.07036872208118439, 0.14868228137493134, 0.20934303104877472, -0.03400897979736328, -0.08663192391395569, 0.11567796766757965, 0.15372933447360992, 0.03694818913936615, -0.11204590648412704, 0.14584706723690033, 0.16977952420711517, 0.004990130662918091, -0.07679016888141632, -0.15392255783081055, -0.168146550655365, 0.08092133700847626, 0.06541188061237335, 0.12153564393520355, 0.09342353045940399, -0.02303844690322876, -0.1439248025417328, 0.06640549004077911, -0.11557876318693161, -0.17557138204574585, -0.04602758586406708, -0.15664760768413544, 0.21485315263271332, 0.049908414483070374, -0.16977372765541077, 0.0005586147308349609, 0.10040678083896637, -0.06955066323280334, -0.0796346515417099, -0.10506336390972137, -0.01992166042327881, -0.20088112354278564, -0.029764890670776367, -0.11566263437271118, 0.21197660267353058, -0.09003967046737671, -0.08067348599433899, -0.21556513011455536, 0.05506028234958649, 0.21606360375881195, -0.11481362581253052, 0.027578115463256836, 0.16947053372859955, -0.18488045036792755, 0.1670338660478592, 0.06999869644641876, 0.1837606579065323, -0.08740036189556122, 0.11771480739116669, 0.052190735936164856, -0.06441029906272888, 0.21677996218204498, 0.008912384510040283, -0.007874399423599243, 0.1833290308713913, -0.07118642330169678, -0.022258147597312927, -0.16754254698753357, 0.1232345849275589, -0.006003886461257935, 0.014343172311782837, 0.21147434413433075, -0.12137436121702194, -0.09705448150634766, -0.2091626077890396, 0.21633191406726837, -0.14871585369110107, -0.0970398336648941, 0.19639216363430023, -0.15571868419647217, 0.1098683625459671, -0.11855313181877136, -0.15024542808532715, -0.04938599467277527, 0.06948693096637726, -0.051050543785095215, -0.07209731638431549, -0.05507998168468475, -0.14880718290805817, -0.17363440990447998, -0.12974314391613007, -0.06583243608474731, 0.13002176582813263, -0.2109249234199524, -0.16469340026378632, 0.07007436454296112, -0.024148553609848022, 0.1689233034849167, -0.09929695725440979, 0.04069100320339203, -0.20660492777824402, 0.13797475397586823, 0.10136552155017853, 0.12581734359264374, 0.044700756669044495, -0.11814768612384796, 0.052568838000297546, -0.12697383761405945, -0.14826345443725586, -0.07048918306827545, -0.12284976989030838, 0.19786180555820465, -0.10315178334712982, -0.1255747228860855, -0.08508427441120148, -0.03177236020565033, 0.07289852201938629, 0.02077426016330719, -0.15456172823905945, -0.05671125650405884, 0.1730654090642929, -0.1652708351612091, 0.11749924719333649, 0.18667344748973846, 0.053086474537849426, -0.001807868480682373, 0.005422428250312805, -0.16354261338710785, -0.11863695085048676, -0.14648942649364471, -0.012107402086257935, 0.016925886273384094, -0.18979790806770325, 0.01534627377986908, 0.0986899584531784, -0.05089151859283447, 0.1372881382703781, -0.14596685767173767, -0.04073402285575867, -0.020447805523872375, -0.16877911984920502, -0.16276691854000092, 0.1205197125673294, -0.003365457057952881, 0.082273468375206, -0.16496971249580383, 0.11700727045536041, -0.007845252752304077, -0.01090724766254425, -0.011437788605690002, 0.05574421584606171, 0.0014173239469528198, 0.11004872620105743, 0.20634587109088898, 0.1230551153421402, -0.0017923563718795776, -0.19933998584747314, 0.21492691338062286, 0.15098707377910614, 0.12623853981494904, -0.1012691780924797, -0.18622155487537384, 0.025513753294944763, 0.08320982754230499, 0.06948502361774445, -0.1363103836774826, 0.0965065211057663, 0.21502737700939178, 0.1972871869802475, 0.015024498105049133, -0.19880987703800201, 0.03472568094730377, -0.2047051340341568, -0.1687234342098236, 0.15877659618854523, 0.14836211502552032, 0.1131812185049057, -0.19370761513710022, -0.0627276599407196, 0.046306952834129333, 0.156982883810997, 0.06735365092754364, -0.045392587780952454, 0.03311227262020111, -0.14985579252243042, 0.03722165524959564, 0.11752878129482269, 0.0005978196859359741, 0.028954386711120605, -0.11108408123254776, 0.07132194936275482, -0.07265757024288177, -0.08207753300666809, 0.18203608691692352, 0.07038824260234833, -0.13812536001205444, -0.01315981149673462, 0.030965790152549744, 0.14613018929958344, 0.18247120082378387, 0.13515789806842804, 0.060151681303977966, 0.15618474781513214, 0.040004655718803406, -0.016059964895248413, -0.0002759993076324463, -0.1616242229938507, 0.08178935945034027, -0.045086249709129333, -0.04263053834438324, 0.011865407228469849, -0.03095334768295288, 0.14109845459461212, -0.002034708857536316, -0.09992125630378723, -0.04677073657512665, -0.06835028529167175, 0.08325819671154022]}, "bias": {"shape": [11], "values": [0.022584274411201477, -0.17138457298278809, 0.08290903270244598, -0.09532085806131363, 0.15321879088878632, -0.17991963028907776, 0.13861329853534698, 0.045119211077690125, -0.13702893257141113, -0.08407621085643768, 0.15503863990306854]}}, "bn1": {"weight": {"shape": [11], "values": [1.0, 1.0, 1.0, 1.0, 1.0, 1.0, 1.0, 1.0, 1.0, 1.0, 1.0]}, "bias": {"shape": [11], "values": [0.0, 0.0, 0.0, 0.0, 0.0, 0.0, 0.0, 0.0, 0.0, 0.0, 0.0]}, "running_mean": {"shape": [11], "values": [0.0, 0.0, 0.0, 0.0, 0.0, 0.0, 0.0, 0.0, 0.0, 0.0, 0.0]}, "running_var": {"shape": [11], "values": [1.0, 1.0, 1.0, 1.0, 1.0, 1.0, 1.0, 1.0, 1.0, 1.0, 1.0]}}}