{"conv": {"weight": {"shape": [11, 7, 1], "values": [-0.034652918577194214, -0.27130070328712463, -0.3359755575656891, -0.30124735832214355, -0.25388556718826294, 0.2798985540866852, -0.146522656083107, 0.16487804055213928, -0.01744687557220459, -0.3025212287902832, 0.015538007020950317, 0.07565698027610779, -0.37634944915771484, -0.002043694257736206, 0.3261593282222748, -0.16657985746860504, 0.2712291181087494, 0.37774530053138733, -0.15225304663181305, 0.138919860124588, 0.10466301441192627, 0.10681614279747009, 0.08099684119224548, 0.3308936059474945, 0.1966833770275116, 0.11017906665802002, -0.13207846879959106, 0.26296380162239075, 0.18913206458091736, -0.0991983413696289, 0.3778899610042572, 0.12123152613639832, 0.2040708363056183, 0.07763737440109253, -0.09585842490196228, 0.3588133752346039, 0.19515511393547058, 0.1148858368396759, 0.30644354224205017, -0.02980220317840576, 0.15959152579307556, 0.2063356339931488, 0.13624683022499084, -0.22891397774219513, 0.04493832588195801, -0.18740803003311157, 0.330819696187973, 0.3119928538799286, -0.31827497482299805, 0.029392540454864502, 0.0764140784740448, 0.16648975014686584, -0.21283943951129913, 0.2673340141773224, 0.2700769007205963, -0.343990683555603, -0.037417829036712646, -0.2650197744369507, -0.31576380133628845, 0.30381473898887634, -0.2841140627861023, -0.3153131604194641, -0.2442958503961563, 0.004695922136306763, 0.33604374527931213, -0.1263488531112671, -0.21113498508930206, 0.37583938241004944, 0.17411574721336365, -0.00890284776687622, 0.29077276587486267, 0.3118531405925751, 0.22142162919044495, -0.011527538299560547, 0.24304524064064026, 0.05592039227485657, -0.005960136651992798]}, "bias": {"shape": [11], "values": [0.2784060537815094, 0.2918255627155304, -0.1555904895067215, 0.35768118500709534, -0.1430685967206955, -0.29212504625320435, -0.2443675845861435, 0.20187243819236755, -0.13706167042255402, 0.3100689947605133, 0.3598463833332062]}}, "conv1": {"weight": {"shape": [11, 7, 3], "values": [0.18823109567165375, -0.0018885135650634766, -0.16078492999076843, 0.07638956606388092, 0.09760497510433197, 0.09905372560024261, -0.14611345529556274, 0.17345775663852692, 0.0743044763803482, -0.012272000312805176, -0.18886089324951172, 0.2105070799589157, -0.0768391489982605, 0.11067979037761688, -0.12569773197174072, -0.20612898468971252, -0.17757856845855713, -0.048503533005714417, -0.18824782967567444, 0.08066777884960175, 0.19645868241786957, 0.08321185410022736, -0.039005160331726074, 0.07628659904003143, 0.11492656171321869, 0.05752818286418915, -0.09105676412582397, -0.02677944302558899, -0.01661910116672516, -0.09276343882083893, 0.05282004177570343, 0.061341747641563416, -0.09500107169151306, 0.14771486818790436, 0.14314721524715424, 0.21069897711277008, -0.0959673672914505, 0.17298643290996552, -0.06835407018661499, -0.17272773385047913, -0.10693857818841934, 0.07887466251850128, -0.15580180287361145, 0.13405294716358185, -0.030913472175598145, -0.11837327480316162, 0.02987058460712433, 0.014350295066833496, 0.07431979477405548, 0.10413070023059845, 0.08375494182109833, -0.20837362110614777, -0.08988028764724731, -0.15114131569862366, -0.20083630084991455, -0.07621850073337555, -0.03273285925388336, 0.030813440680503845, -0.022643983364105225, -0.003369256854057312, -0.2090444564819336, 0.19268937408924103, 0.04575227200984955, -0.1491459608078003, -0.04396364092826843, 0.028044790029525757, 0.11177261173725128, 0.08110170066356659, 0.19756726920604706, 0.008996963500976562, 0.1785098761320114, 0.21067588031291962, -0.21086296439170837, -0.02390912175178528, 0.1632561832666397, -0.07243518531322479, -0.18180088698863983, -0.08172638714313507, 0.14250274002552032, 0.20211981236934662, 0.17001090943813324, -0.20819631218910217, -0.09896546602249146, -0.14747440814971924, 0.1597120314836502, 0.00654090940952301, -0.10700572282075882, 0.10514207184314728, 0.036658838391304016, -0.1949467957019806, 0.07972292602062225, -0.020722925662994385, -0.14684146642684937, 0.12235145270824432, -0.027499184012413025, 0.15356172621250153, -0.08903984725475311, 0.06911353766918182, 0.17283941805362701, -0.17904965579509735, -0.025234177708625793, -0.07102547585964203, 0.13632340729236603, -0.04234457015991211, 0.09627942740917206, 0.03310336172580719, 0.0503644198179245, -0.18019461631774902, 0.15154899656772614, -0.1534009873867035, 0.08802314102649689, -0.1501752883195877, 0.06221325695514679, -0.07905615866184235, 0.17556758224964142, -0.10647114366292953, -0.06174910068511963, -0.0166274756193161, 0.07320179045200348, -0.01816447079181671, 0.032189592719078064, 0.18867121636867523, 0.13118959963321686, 0.19412477314472198, 0.13374118506908417, -0.03635913133621216, 0.050641998648643494, 0.11513535678386688, -0.17357569932937622, -0.12122192233800888, -0.053581103682518005, -0.1722060739994049, 0.0553908497095108, -0.001734018325805664, -0.011351734399795532, -0.1336805820465088, -0.16699698567390442, -0.19830429553985596, 0.17808200418949127, -0.1391243040561676, -0.17593660950660706, 0.21449114382266998, 0.058810725808143616, -0.04195237159729004, 0.016280904412269592, -0.032457903027534485, -0.0990743562579155, 0.12615428864955902, 0.1462833136320114, 0.08941267430782318, 0.04874806106090546, -0.1356116235256195, -0.08813288807868958, -0.057826727628707886, 0.14635516703128815, -0.00080069899559021, 0.14665935933589935, 0.09695534408092499, 0.017365172505378723, 0.13318918645381927, 0.030585289001464844, 0.08355017006397247, -0.011406108736991882, -0.07341985404491425, -0.17102566361427307, 0.14115451276302338, 0.078179731965065, 0.1616985946893692, -0.1482800990343094, 0.05238811671733856, 0.06857769191265106, 0.06739239394664764, 0.05465061962604523, 0.10115911066532135, 0.0265616774559021, -0.09813318401575089, 0.19444860517978668, 0.18094570934772491, -0.08362363278865814, 0.16638575494289398, 0.10131756961345673, 0.03981254994869232, 0.17744971811771393, -0.011601254343986511, 0.17732678353786469, -0.06594444811344147, 0.11210520565509796, -0.03535349667072296, 0.16655991971492767, 0.11867983639240265, 0.055363014340400696, 0.19502224028110504, 0.15391896665096283, 0.09115888178348541, 0.1899721771478653, -0.16986173391342163, -0.05410186946392059, 0.1871381253004074, -0.08783116936683655, 0.08229227364063263, 0.02451014518737793, 0.21008028090000153, -0.18957561254501343, -0.2150583118200302, -0.10840091109275818, 0.189796581864357, 0.013784945011138916, 0.000514790415763855, 0.08080054819583893, 0.018060624599456787, 0.01668025553226471, 0.18465100228786469, -0.18986830115318298, 0.14812548458576202, 0.17173300683498383, 0.16050158441066742, -0.1647283434867859, -0.0061801522970199585, 0.11950565874576569, 0.19971035420894623, 0.13984815776348114, 0.03296567499637604, -0.1641048938035965, 0.1903235763311386, -0.19095158576965332, 0.12342466413974762, 0.011004477739334106, -0.20563605427742004, -0.04657372832298279, -0.14252036809921265, -0.12021594494581223]}, "bias": {"shape": [11], "values": [0.0643049031496048, 0.02734827995300293, -0.1690143197774887, -0.18898937106132507, 0.21177466213703156, -0.04448044300079346, -0.15119314193725586, -0.1660584956407547, -0.05507287383079529, 0.04688321053981781, -0.1720629334449768]}}, "bn1": {"weight": {"shape": [11], "values": [1.0, 1.0, 1.0, 1.0, 1.0, 1.0, 1.0, 1.0, 1.0, 1.0, 1.0]}, "bias": {"shape": [11], "values": [0.0, 0.0, 0.0, 0.0, 0.0, 0.0, 0.0, 0.0, 0.0, 0.0, 0.0]}, "running_mean": {"shape": [11], "values": [0.0, 0.0, 0.0, 0.0, 0.0, 0.0, 0.0, 0.0, 0.0, 0.0, 0.0]}, "running_var": {"shape": [11], "values": [1.0, 1.0, 1.0, 1.0, 1.0, 1.0, 1.0, 1.0, 1.0, 1.0, 1.0]}}, "f1": {"weight": {"shape": [11], "values": [0.25, 0.25, 0.25, 0.25, 0.25, 0.25, 0.25, 0.25, 0.25, 0.25, 0.25]}}}