{"config": {"model_type": "MicroTCN", "norm_mean": 0.10000000149011612, "norm_std": 0.8999999761581421}, "meta_data": {}, "parameters": {"input_size": 1, "hidden_size": 8, "output_size": 1, "kernel_size": 3, "stack_size": 8, "ps_hidden_size": 16, "ps_num_hidden_layers": 3}, "state_dict": {"plain_sequential": {"hidden_size": 16, "num_hidden_layers": 3, "direct_linear": {"weight": {"shape": [1, 8], "values": [0.02265852689743042, 0.1685509979724884, -0.0375080406665802, 0.10852649807929993, -0.08394956588745117, -0.21753834187984467, 0.09413135051727295, 0.31806638836860657]}, "bias": {"shape": [1], "values": [0.06762900948524475]}}, "input_linear": {"weight": {"shape": [16, 8], "values": [0.05279424786567688, -0.2932773232460022, 0.039521992206573486, -0.2947677969932556, -0.3020089268684387, -0.168924480676651, -0.10249614715576172, -0.008290290832519531, 0.20129379630088806, 0.11631441116333008, -0.015314340591430664, -0.3153439462184906, 0.13830813765525818, -0.29124096035957336, 0.22854164242744446, -0.09244492650032043, 0.06358915567398071, 0.22659733891487122, -0.2862693667411804, 0.10801753401756287, -0.2124239057302475, 0.08569076657295227, 0.12418514490127563, -0.021953284740447998, 0.14545613527297974, -0.30875110626220703, -0.19256654381752014, 0.2736741006374359, 0.05774649977684021, 0.3312356173992157, -0.054990798234939575, 0.32456907629966736, -0.041183918714523315, 0.33545175194740295, 0.1097491979598999, 0.016107022762298584, 0.2354329526424408, 0.20823445916175842, 0.020758599042892456, -0.15479403734207153, -0.3345031440258026, 0.06561383605003357, 0.22553887963294983, 0.2700560390949249, -0.11290107667446136, 0.342067688703537, 0.24610760807991028, -0.008475571870803833, 0.29947856068611145, -0.011459976434707642, -0.24992406368255615, -0.3466925024986267, -0.12036633491516113, -0.30335649847984314, -0.23572875559329987, -0.018463045358657837, 0.22254213690757751, 0.13405394554138184, -0.11958712339401245, 0.06335586309432983, 0.16430482268333435, -0.1686609387397766, 0.3042224943637848, 0.05519521236419678, 0.05559644103050232, -0.1746988594532013, -0.05921998620033264, 0.1575227677822113, 0.14389362931251526, -0.2865294814109802, 0.3156290352344513, -0.01057898998260498, 0.28413084149360657, -0.18417789041996002, 0.12869104743003845, -0.16813971102237701, -0.06617951393127441, -0.1494920402765274, 0.11551040410995483, 0.1866900622844696, -0.15770688652992249, -0.21020710468292236, 0.3090483844280243, 0.0635976493358612, -0.13457775115966797, 0.11270362138748169, -0.2512204945087433, 0.21270379424095154, -0.29480600357055664, -0.29392337799072266, 0.0019032955169677734, -0.13014057278633118, -0.2853316068649292, -0.341630220413208, 0.29742518067359924, -0.19719001650810242, -0.012911945581436157, -0.16191360354423523, 0.19772306084632874, 0.05138194561004639, -0.13192810118198395, 0.18485549092292786, -0.14227287471294403, -0.19512216746807098, 0.28594908118247986, -0.13776139914989471, -0.09093031287193298, -0.09133899211883545, 0.3425203859806061, -0.25515562295913696, 0.08060333132743835, 0.07459801435470581, 0.15171554684638977, 0.1622307002544403, 0.13655832409858704, 0.1048467755317688, 0.24529317021369934, 0.2742266356945038, -0.05249473452568054, -0.09741929173469543, 0.28884240984916687, -0.34444743394851685, -0.18497632443904877, -0.12411758303642273, 0.19595900177955627, -0.13582436740398407, -0.09854227304458618, 0.17611268162727356]}, "bias": {"shape": [16], "values": [-0.09506538510322571, -0.17651133239269257, 0.04540610313415527, 0.21063128113746643, -0.09136998653411865, -0.33690908551216125, -0.23916536569595337, -0.07990354299545288, -0.3288475275039673, -0.24840512871742249, -0.34245166182518005, 0.06306204199790955, 0.335700660943985, 0.1604498326778412, 0.11354023218154907, -0.16297149658203125]}}, "output_linear": {"weight": {"shape": [1, 16], "values": [-0.002131223678588867, -0.14141792058944702, 0.02271813154220581, 0.15780287981033325, -0.09897863864898682, 0.2094360589981079, -0.048141419887542725, 0.13899236917495728, -0.007613837718963623, -0.05498450994491577, 0.18892142176628113, 0.22581928968429565, -0.13400354981422424, -0.18134373426437378, -0.1294989287853241, 0.20112073421478271]}, "bias": {"shape": [1], "values": [-0.2322724163532257]}}, "hidden_linear.0": {"weight": {"shape": [16, 16], "values": [0.2009057104587555, -0.21272152662277222, -0.05948162078857422, 0.03742551803588867, -0.04730382561683655, -0.2195373773574829, -0.008106082677841187, 0.030471831560134888, 0.1440911889076233, -0.011118471622467041, -0.04256144165992737, 0.23617267608642578, 0.19708770513534546, -0.14852479100227356, -0.10030323266983032, 0.057921260595321655, 0.21149837970733643, -0.0007952749729156494, 0.07800623774528503, -0.18299263715744019, -0.12243956327438354, -0.24553436040878296, -0.073190838098526, 0.18428775668144226, -0.14382418990135193, 0.17863979935646057, -0.1471197009086609, 0.052683889865875244, -0.10339391231536865, 0.12449082732200623, -0.00872349739074707, -0.13730281591415405, -0.006045550107955933, 0.025985628366470337, -0.10449278354644775, -0.11953949928283691, 0.2445237636566162, 0.09411653876304626, -0.1641128957271576, -0.050119876861572266, -0.232243150472641, 0.15420514345169067, -0.14366573095321655, 0.23892444372177124, 0.009578704833984375, 0.019135981798171997, -0.2033335268497467, -0.18465128540992737, 0.016467571258544922, 0.04170936346054077, -0.20820185542106628, 0.2235412895679474, 0.18646970391273499, -0.0985209047794342, -0.1049114465713501, -0.22463831305503845, -0.16712170839309692, -0.11151668429374695, -0.17356806993484497, 0.11886140704154968, 0.11645740270614624, -0.10743576288223267, 0.15756303071975708, -0.14549851417541504, -0.007602393627166748, -0.05429714918136597, 0.07310906052589417, 0.22805029153823853, -0.020959705114364624, -0.04531252384185791, 0.20340228080749512, 0.08434489369392395, 0.08968254923820496, 0.16228589415550232, -0.11477559804916382, -0.07600218057632446, 0.06313151121139526, -0.1633814573287964, 0.016215592622756958, 0.048384130001068115, 0.028719812631607056, 0.12808895111083984, -0.11083561182022095, -0.11547422409057617, -0.012896120548248291, -0.14969614148139954, -0.1395735740661621, 0.20725539326667786, 0.1629597544670105, -0.09615546464920044, 0.14450013637542725, -0.007780581712722778, -0.16231554746627808, -0.15566614270210266, -0.09772726893424988, -0.10462278127670288, -0.19378677010536194, 0.22728538513183594, -0.12323716282844543, 0.22911760210990906, -0.08977439999580383, -0.10733163356781006, -0.0005512237548828125, 0.2256426215171814, 0.08562922477722168, -0.22082287073135376, -0.20436489582061768, -0.026585876941680908, 0.24600183963775635, 0.07930618524551392, 0.22226962447166443, 0.18398475646972656, 0.11977338790893555, 0.16847756505012512, 0.00759732723236084, -0.23964881896972656, -0.17443117499351501, -0.09638133645057678, 0.18658962845802307, -0.10627397894859314, 0.2352125644683838, 0.1331755816936493, -0.014722764492034912, 0.18443647027015686, -0.025560051202774048, -0.1248563826084137, -0.047389060258865356, 0.12196186184883118, 0.05010524392127991, 0.1055818498134613, 0.10961759090423584, 0.03691449761390686, -0.0740404725074768, 0.14669355750083923, 0.02629914879798889, 0.1979539692401886, 0.09879761934280396, 0.18604525923728943, -0.17720818519592285, 0.009265422821044922, -0.24787423014640808, -0.09575352072715759, 0.07352524995803833, -0.227807879447937, 0.11744320392608643, 0.17379352450370789, 0.05192539095878601, -0.24722307920455933, 0.009470492601394653, 0.19793564081192017, -0.15638971328735352, 0.04457533359527588, 0.1628780961036682, 0.1649940013885498, -0.14438694715499878, -0.05001834034919739, -0.03830057382583618, 0.005011856555938721, -0.08854228258132935, -0.08890274167060852, 0.029874980449676514, -0.13574379682540894, 0.16391730308532715, 0.22091934084892273, 0.15204671025276184, -0.24088910222053528, -0.23993653059005737, -0.03723907470703125, -0.16925185918807983, -0.20015770196914673, -0.24772533774375916, -0.058234602212905884, 0.0564841628074646, -0.045564740896224976, -0.24581700563430786, 0.19687730073928833, 0.09164729714393616, 0.12650874257087708, 0.24214118719100952, -0.1570894420146942, -0.05944982171058655, 0.2494039535522461, -0.1421157717704773, -0.18778899312019348, 0.16078656911849976, 0.18780824542045593, -0.05785268545150757, 0.23879453539848328, -0.08784887194633484, -0.09863707423210144, -0.07504671812057495, -0.14266785979270935, -0.0279596745967865, 0.09863531589508057, 0.1524185836315155, 0.09731513261795044, 0.018182307481765747, 0.15036508440971375, 0.018878906965255737, 0.1992121934890747, 0.174586683511734, 0.0036495327949523926, 0.11054748296737671, -0.1742643117904663, -0.13065874576568604, -0.02149900794029236, 0.1942964494228363, 0.08654609322547913, -0.22028443217277527, -0.10771983861923218, -0.06947439908981323, 0.09279567003250122, 0.20930910110473633, 0.11863866448402405, -0.11953428387641907, -0.21344098448753357, 0.00019723176956176758, -0.21299132704734802, 0.08668440580368042, 0.16914793848991394, 0.2271369993686676, 0.2391676902770996, 0.17199698090553284, 0.20595046877861023, 0.08056655526161194, 0.1834736168384552, 0.07379913330078125, -0.22593295574188232, -0.17599815130233765, 0.01241186261177063, 0.07418617606163025, 0.19035834074020386, 0.14702671766281128, 0.16065844893455505, 0.17815351486206055, 0.17069384455680847, 0.0324406623840332, -0.234050452709198, 0.10060635209083557, 0.12268087267875671, 0.17267608642578125, 0.13704553246498108, 0.03804561495780945, -0.19605162739753723, 0.0933929979801178, 0.14694276452064514, 0.1403960883617401, -0.06159660220146179, 0.021793782711029053, 0.1823427379131317, -0.06645479798316956, 0.21889248490333557, -0.19929632544517517, -0.02472934126853943, 0.03677979111671448, 0.031065136194229126]}, "bias": {"shape": [16], "values": [-0.13115167617797852, 0.07079899311065674, -0.2408807873725891, 0.23934993147850037, 0.09504389762878418, -0.13815796375274658, -0.2181403934955597, 0.030499011278152466, -0.0029603540897369385, -0.23205766081809998, -0.03766152262687683, 0.09070456027984619, -0.18077391386032104, -0.10318857431411743, 0.0976991057395935, -0.13855719566345215]}}, "hidden_linear.1": {"weight": {"shape": [16, 16], "values": [0.17329251766204834, -0.06537079811096191, 0.2225233018398285, 0.009918689727783203, -0.20057246088981628, 0.06282877922058105, 0.05632835626602173, 0.04519641399383545, -0.16261544823646545, -0.2487410008907318, 0.01910865306854248, -0.18721124529838562, -0.014943808317184448, -0.05066755414009094, -0.02595001459121704, -0.1830655336380005, -0.0333935022354126, -0.08965259790420532, -0.2439608871936798, -0.23836997151374817, -0.16424277424812317, 0.0673113465309143, -0.01800820231437683, -0.13424986600875854, 0.1902461051940918, 0.14778810739517212, 0.19913843274116516, 0.06689503788948059, -0.15269741415977478, 0.2121138870716095, 0.06995296478271484, -0.1710911989212036, -0.13080662488937378, -0.05493885278701782, -0.08850333094596863, -0.07413375377655029, 0.04612630605697632, -0.17209011316299438, -0.08557039499282837, -0.13378918170928955, -0.014434486627578735, -0.011550366878509521, 0.17202389240264893, 0.11696907877922058, 0.18908169865608215, 0.10395821928977966, 0.22823390364646912, 0.05094611644744873, -0.24052950739860535, -0.17584523558616638, 0.06943663954734802, 0.14857301115989685, -0.21926510334014893, 0.04693081974983215, 0.0225868821144104, 0.041373640298843384, -0.1856459677219391, -0.23479652404785156, 0.11883997917175293, 0.14482486248016357, 0.09163525700569153, -0.10039955377578735, 0.07262629270553589, -0.0017320811748504639, -0.002739429473876953, -0.2385271191596985, -0.04673290252685547, -0.19323909282684326, 0.1980017125606537, 0.07146832346916199, -0.022601395845413208, -0.1354261338710785, -0.030047684907913208, -0.18916910886764526, 0.1095539927482605, 0.19049039483070374, -0.14978322386741638, 0.030146926641464233, -0.17627525329589844, 0.1674877107143402, 0.07020381093025208, 0.21140679717063904, -0.2458362579345703, -0.20033973455429077, 0.06831687688827515, 0.24533209204673767, -0.04481339454650879, 0.044041991233825684, -0.09236922860145569, -0.2148892879486084, 0.0782741904258728, -0.17453661561012268, 0.20277133584022522, -0.12518754601478577, -0.09922102093696594, -0.19713112711906433, -0.22122517228126526, -0.1791084110736847, -0.15364766120910645, -0.16850507259368896, -0.1649058759212494, 0.09678831696510315, 0.11194074153900146, 0.11933386325836182, 0.11309963464736938, -0.16724103689193726, -0.16807770729064941, 0.20859980583190918, -0.18947982788085938, -0.17450091242790222, 0.212514728307724, 0.06365659832954407, 0.057237058877944946, -0.10231119394302368, 0.16003432869911194, -0.18157628178596497, -0.046277642250061035, 0.22035366296768188, -0.12669602036476135, -0.029916882514953613, -0.15508699417114258, -0.028787046670913696, 0.022493839263916016, 0.11199554800987244, 0.1288333535194397, 0.03128954768180847, 0.034384965896606445, 0.024706721305847168, -0.21453699469566345, -0.19438588619232178, 0.24462351202964783, 0.04544374346733093, 0.10158783197402954, 0.17348414659500122, -0.05067691206932068, 0.21144059300422668, 0.18513977527618408, -0.17043477296829224, 0.061157435178756714, 0.0027226507663726807, 0.2132357954978943, -0.0002161562442779541, -0.0010506510734558105, -0.02338939905166626, 0.03807675838470459, -0.09779664874076843, 0.10389432311058044, 0.15869072079658508, 0.02336791157722473, -0.1866927444934845, 0.015269279479980469, 0.07772764563560486, -0.03945454955101013, -0.10008412599563599, -0.17824465036392212, -0.2335243821144104, -0.1560172736644745, -0.05425107479095459, -0.1653393805027008, -0.19496414065361023, -0.11703535914421082, -0.08494260907173157, -0.09085455536842346, -0.1177017092704773, 0.1549208164215088, -0.0077360570430755615, 0.24272695183753967, -0.23407259583473206, -0.21659591794013977, -0.16761040687561035, -0.2109522819519043, -0.06610319018363953, -0.22935593128204346, -0.10443827509880066, 0.16885864734649658, 0.22341075539588928, -0.1923941671848297, -0.11119747161865234, -0.07700368762016296, -0.0884159505367279, 0.12266728281974792, 0.10510343313217163, -0.20827266573905945, 0.014214485883712769, -0.1286831498146057, -0.20327657461166382, -0.08259028196334839, 0.14355415105819702, -0.2032434642314911, -0.20429539680480957, 0.1397533118724823, 0.13478168845176697, -0.21024534106254578, -0.16439881920814514, -0.20186921954154968, -0.1881062090396881, 0.18856334686279297, 0.17625024914741516, -0.22339394688606262, -0.20265772938728333, 0.03419741988182068, -0.17234796285629272, 0.2145601511001587, 0.24488964676856995, 0.20881426334381104, 0.024901390075683594, -0.0463293194770813, -0.15799227356910706, 0.1893838346004486, -0.23083478212356567, -0.22819972038269043, 0.0711413323879242, -0.06899851560592651, -0.21141377091407776, -0.14578092098236084, -0.06413394212722778, 0.24343723058700562, 0.050947993993759155, -0.235880047082901, 0.011816233396530151, 0.054595351219177246, -0.2429841160774231, -0.13569402694702148, 0.13613107800483704, 0.05600464344024658, -0.23600909113883972, 0.14865809679031372, 0.0024847686290740967, 0.13961371779441833, 0.036184459924697876, 0.24081546068191528, 0.12214052677154541, -0.1911260187625885, -0.022354871034622192, -0.1928979754447937, 0.024957358837127686, -0.10433369874954224, -0.06226688623428345, 0.07529500126838684, 0.12342453002929688, -0.1778121292591095, -0.17122513055801392, -0.04660043120384216, 0.033574849367141724, 0.23420113325119019, 0.06881067156791687, 0.02498573064804077, -0.24914497137069702, -0.15178948640823364, 0.2417086958885193, -0.19357562065124512, 0.14191526174545288, 0.21019941568374634, -0.030857235193252563, 0.24437490105628967, -0.04473614692687988]}, "bias": {"shape": [16], "values": [-0.07555019855499268, 0.036541253328323364, 0.12216377258300781, -0.15243273973464966, -0.031522661447525024, 0.15741392970085144, 0.17298734188079834, -0.05230233073234558, -0.05357003211975098, -0.005001842975616455, 0.20865663886070251, 0.23220336437225342, -0.17979377508163452, -0.066790372133255, -0.025805652141571045, 0.12143781781196594]}}, "hidden_linear.2": {"weight": {"shape": [16, 16], "values": [0.0554107129573822, 0.015451967716217041, 0.16746976971626282, -0.2080669105052948, 0.08554023504257202, 0.003656625747680664, -0.13263458013534546, -0.1420077681541443, 0.0890912413597107, 0.043841928243637085, -0.07741546630859375, 0.10655707120895386, 0.06356656551361084, -0.14785709977149963, 0.24935472011566162, -0.1355854868888855, 0.042724430561065674, 0.07969379425048828, -0.018712610006332397, -0.22287064790725708, -0.05344963073730469, 0.2291831374168396, -0.046842217445373535, 0.10425129532814026, -0.06321701407432556, 0.20467263460159302, -0.12189245223999023, 0.06515023112297058, -0.22132208943367004, -0.014320969581604004, 0.22293543815612793, 0.1574310064315796, -0.07100144028663635, -0.19923821091651917, -0.1494777500629425, 0.21448549628257751, 0.20041421055793762, 0.18303892016410828, 0.16888585686683655, -0.2428659200668335, 0.22524955868721008, 0.10175779461860657, -0.23530006408691406, -0.015356093645095825, -0.21504315733909607, 0.09692880511283875, 0.18724888563156128, -0.18305161595344543, -0.06156304478645325, 0.03926420211791992, -0.21708858013153076, -0.1552707850933075, -0.12456300854682922, -0.04870152473449707, -0.18763121962547302, 0.16528737545013428, 0.08302521705627441, -0.15907254815101624, -0.23619750142097473, -0.173751562833786, -0.2122955322265625, -0.20485591888427734, -0.03386697173118591, -0.11958405375480652, 0.03410103917121887, 0.14881423115730286, -0.1568443477153778, 0.1304715871810913, 0.24471694231033325, -0.05278787016868591, 0.20519283413887024, -0.13241398334503174, 0.07616925239562988, 0.14446783065795898, 0.14141231775283813, 0.009343951940536499, 0.18393924832344055, -0.22897541522979736, -0.03210306167602539, -0.13337236642837524, -0.1144036054611206, 0.11935040354728699, 0.1251775324344635, 0.21401700377464294, 0.22881698608398438, 0.044818758964538574, 0.020563632249832153, -0.0019294917583465576, -0.10548335313796997, -0.07269981503486633, -0.026000499725341797, -0.03493469953536987, 0.1897999346256256, 0.08566799759864807, 0.2083299458026886, -0.10159298777580261, 0.16611430048942566, 0.21800079941749573, 0.07926705479621887, -0.04325798153877258, -0.20157989859580994, 0.1028364896774292, -0.16405707597732544, -0.15732046961784363, 0.003270447254180908, 0.19312578439712524, -0.08653295040130615, -0.14171335101127625, 0.09825369715690613, 0.16791749000549316, -0.1532321572303772, 0.22936877608299255, -0.09843012690544128, 0.13393634557724, 0.10440513491630554, 0.24657312035560608, 0.129042387008667, -0.15227970480918884, 0.22019678354263306, 0.12328559160232544, -0.14994758367538452, -0.1294054090976715, -0.09082278609275818, 0.16980931162834167, -0.13534387946128845, 0.2431894838809967, -0.20079457759857178, 0.10364207625389099, -0.10493886470794678, -0.12129464745521545, 0.012243449687957764, 0.06408920884132385, -0.06155884265899658, -0.21718966960906982, -0.2111077904701233, -0.20873087644577026, 0.07969537377357483, 0.23051902651786804, -0.06020635366439819, -0.0539526641368866, 0.1225239634513855, 0.13146212697029114, -0.10333356261253357, -0.237167626619339, 0.16946005821228027, -0.12865105271339417, -0.046622782945632935, -0.15497124195098877, 0.15502309799194336, -0.20947900414466858, 0.08266505599021912, 0.044490277767181396, 0.22477486729621887, 0.22546985745429993, -0.12761205434799194, -0.12602978944778442, 0.12656009197235107, -0.0031119585037231445, -0.19378924369812012, -0.06758835911750793, 0.21419695019721985, 0.08043146133422852, -0.2450675666332245, 0.2142799198627472, -0.08904680609703064, 0.1407897174358368, -0.16645991802215576, -0.033008843660354614, 0.05849367380142212, 0.11553147435188293, 0.2014446258544922, -0.09966295957565308, -0.026416659355163574, -0.07047280669212341, -0.1304449737071991, 0.06379401683807373, -0.04450908303260803, 0.1917409896850586, 0.18958941102027893, -0.03100612759590149, 0.16148874163627625, -0.19648477435112, 0.006136387586593628, -0.1067514419555664, 0.10714560747146606, 0.24775096774101257, -0.03143772482872009, -0.1507924497127533, 0.12231472134590149, -0.2247140109539032, -0.21661177277565002, -0.07204684615135193, -0.16735273599624634, -0.06577226519584656, -0.22333204746246338, -0.13003164529800415, 0.11115571856498718, -0.04327535629272461, 0.17431214451789856, -0.12297698855400085, -0.15553903579711914, -0.20714932680130005, -0.13074028491973877, 0.24184483289718628, 0.05955645442008972, 0.15937760472297668, -0.059933245182037354, 0.2169237732887268, -0.02397879958152771, 0.18964585661888123, -0.16866180300712585, 0.15997371077537537, 0.24769756197929382, -0.15479132533073425, 0.15877765417099, -0.07053598761558533, 0.11309951543807983, 0.24658003449440002, -0.16534727811813354, -0.01914083957672119, 0.11092200875282288, -0.02320799231529236, -0.16741538047790527, -0.15655314922332764, -0.14423978328704834, -0.24622875452041626, 0.17312994599342346, -0.09364795684814453, -0.18560197949409485, -0.17949318885803223, 0.19910657405853271, 0.01751577854156494, -0.017447173595428467, 0.15272226929664612, -0.014115005731582642, -0.13078448176383972, 0.1079215407371521, -0.1847992241382599, 0.19895324110984802, -0.1175561249256134, 0.0039795637130737305, 0.0613589882850647, -0.19891956448554993, 0.04035764932632446, -0.03833916783332825, -0.1589251160621643, 0.2142864167690277, -0.027826309204101562, -0.039424508810043335, -0.12158524990081787, -0.12163937091827393, -0.18311598896980286, -0.2451421618461609, -0.1755322515964508, 0.05592083930969238, -0.18622341752052307]}, "bias": {"shape": [16], "values": [-0.21269109845161438, 0.058840811252593994, 0.06876209378242493, 0.11083158850669861, -0.22108983993530273, -0.016326040029525757, 0.23763498663902283, 0.12579262256622314, 0.17063531279563904, -0.19009819626808167, 0.16690409183502197, 0.13225898146629333, 0.21724960207939148, 0.09775719046592712, -0.07920229434967041, -0.1736546754837036]}}}, "block_stack.0": {"conv": {"weight": {"shape": [8, 1, 1], "values": [-0.7130836248397827, -0.9425114393234253, -0.7875052690505981, -0.6522196531295776, 0.8601588010787964, -0.15970313549041748, 0.16128754615783691, 0.6719000339508057]}, "bias": {"shape": [8], "values": [-0.18474876880645752, -0.8235061168670654, 0.4415844678878784, 0.5129536390304565, -0.8087047338485718, 0.3527606725692749, 0.3024369478225708, -0.1696157455444336]}}, "conv1": {"weight": {"shape": [8, 1, 3], "values": [-0.564485490322113, -0.10796797275543213, -0.003582894802093506, -0.08872959017753601, -0.30932876467704773, 0.35532206296920776, 0.21759384870529175, 0.554198145866394, -0.35788649320602417, -0.5377262234687805, -0.4622107446193695, 0.2827451229095459, 0.41036301851272583, -0.06516575813293457, 0.4040790796279907, -0.3581092655658722, 0.487101674079895, 0.3226420283317566, -0.05720710754394531, 0.23572993278503418, -0.1643584966659546, -0.14381945133209229, -0.3010854125022888, -0.3306088447570801]}, "bias": {"shape": [8], "values": [-0.21821412444114685, -0.12676915526390076, 0.272327184677124, -0.56227046251297, -0.020523488521575928, 0.5439316034317017, 0.1001695990562439, -0.49121803045272827]}}, "bn1": {"weight": {"shape": [8], "values": [1.0, 1.0, 1.0, 1.0, 1.0, 1.0, 1.0, 1.0]}, "bias": {"shape": [8], "values": [0.0, 0.0, 0.0, 0.0, 0.0, 0.0, 0.0, 0.0]}, "running_mean": {"shape": [8], "values": [0.0, 0.0, 0.0, 0.0, 0.0, 0.0, 0.0, 0.0]}, "running_var": {"shape": [8], "values": [1.0, 1.0, 1.0, 1.0, 1.0, 1.0, 1.0, 1.0]}}, "f1": {"weight": {"shape": [8], "values": [0.25, 0.25, 0.25, 0.25, 0.25, 0.25, 0.25, 0.25]}}}, "block_stack.1": {"conv": {"weight": {"shape": [8, 8, 1], "values": [-0.3218753933906555, 0.10010313987731934, 0.14206665754318237, -0.055700719356536865, 0.17055603861808777, 0.01630374789237976, 0.08148553967475891, -0.09739673137664795, -0.12973706424236298, 0.1629815399646759, 0.26143893599510193, -0.07186627388000488, -0.20146597921848297, 0.017399698495864868, -0.08389586210250854, 0.3225589692592621, 0.06987345218658447, 0.060271888971328735, -0.013657093048095703, -0.3433828055858612, 0.19913199543952942, 0.09706687927246094, 0.29455140233039856, 0.019855618476867676, -0.30869176983833313, 0.1493920385837555, 0.20890310406684875, 0.21474125981330872, 0.01417490839958191, -0.15335412323474884, 0.1294054090976715, 0.2953973710536957, 0.191806823015213, 0.07100647687911987, 0.2811534106731415, 0.0034381747245788574, -0.14150568842887878, -0.0690447986125946, 0.13151276111602783, -0.2869798541069031, 0.259855717420578, 0.31216761469841003, -0.1473209708929062, -0.16799548268318176, 0.11987549066543579, 0.18679407238960266, -0.21776078641414642, 0.279268354177475, 0.33254197239875793, 0.08600413799285889, 0.1849152147769928, 0.06828737258911133, -0.18520446121692657, -0.2288665771484375, 0.3422393500804901, -0.10967566072940826, 0.03868013620376587, 0.18515297770500183, -0.23599006235599518, -0.3329867720603943, 0.24507269263267517, -0.20294474065303802, 0.19737914204597473, 0.1579107940196991]}, "bias": {"shape": [8], "values": [-0.12077262997627258, 0.2529238164424896, 0.0523378849029541, -0.026824772357940674, 0.23255303502082825, -0.049171507358551025, -0.19226300716400146, -0.1635982096195221]}}, "conv1": {"weight": {"shape": [8, 8, 3], "values": [0.09983846545219421, 0.04333034157752991, -0.18953154981136322, 0.062313228845596313, 0.014654114842414856, 0.09802347421646118, -0.18352080881595612, -0.09146683663129807, -0.060332417488098145, 0.11790606379508972, -0.1314467191696167, -0.014925867319107056, 0.12020835280418396, 0.06689497828483582, 0.09165823459625244, 0.06066054105758667, 0.17383074760437012, -0.17004574835300446, -0.028791531920433044, -0.09981083869934082, -0.033502474427223206, -0.18134702742099762, -0.13505402207374573, -0.14997555315494537, -0.07349404692649841, -0.10555631667375565, -0.02523161470890045, 0.0684475302696228, -0.19669902324676514, 0.03667716681957245, -0.14916583895683289, -0.1700468212366104, -0.19800050556659698, -0.0989702120423317, 0.18501067161560059, -0.019892320036888123, -0.16705787181854248, 0.11538556218147278, 0.06524866819381714, 0.1126982569694519, 0.017921030521392822, -0.09786102175712585, 0.10186746716499329, -0.16727592051029205, -0.04445050656795502, -0.19327202439308167, -0.18457868695259094, -0.10339530557394028, -0.1785191148519516, -0.03408519923686981, 0.041671186685562134, 0.044925615191459656, -0.17023155093193054, -0.004638984799385071, 0.0257997065782547, 0.06567105650901794, 0.2002239227294922, -0.088765449821949, -0.1358557641506195, -0.05062250792980194, 0.055360764265060425, -0.13010954856872559, -0.1400085985660553, 0.11019086837768555, 0.06615296006202698, 0.12004753947257996, -0.13501307368278503, 0.14279711246490479, -0.08832630515098572, -0.07035903632640839, 0.2033090591430664, 0.09672752022743225, 0.16206195950508118, -0.10476621240377426, -0.08031978458166122, -0.0018444806337356567, 0.1943158507347107, -0.17112094163894653, 0.1448984444141388, -0.1538619101047516, -0.11497654020786285, 0.1397618055343628, -0.035699278116226196, 0.05722302198410034, -0.15564334392547607, -0.1251714825630188, 0.01731133460998535, 0.016086652874946594, -0.08360249549150467, -0.10603278875350952, 0.017001450061798096, 0.054013729095458984, -0.13747051358222961, -0.023213893175125122, -0.1387604922056198, -0.16935306787490845, 0.09485730528831482, -0.162441223859787, -0.09826656430959702, 0.16315412521362305, -0.002099364995956421, -0.08399961143732071, 0.1809205710887909, -0.10090745240449905, 0.15326297283172607, 0.07490289211273193, 0.06911593675613403, 0.09059891104698181, -0.052897632122039795, 0.13021689653396606, 0.15842393040657043, 0.176817387342453, -0.01068808138370514, 0.11543706059455872, -0.09033960849046707, 0.06081405282020569, -0.004792064428329468, 0.12382689118385315, -0.18670910596847534, -0.060842350125312805, -0.18263188004493713, -0.13231265544891357, 0.12584340572357178, 0.1990860402584076, 0.07504716515541077, 0.1937580406665802, 0.18138521909713745, 0.19946834444999695, 0.19289079308509827, -0.021537482738494873, 0.13841956853866577, 0.16967737674713135, -0.17858104407787323, -0.14034917950630188, 0.18739789724349976, -0.2036726176738739, -0.06512920558452606, -0.03884832561016083, 0.15808871388435364, -0.01835694909095764, -0.056656286120414734, 0.009849518537521362, 0.05193266272544861, -0.07620805501937866, 0.1681249439716339, -0.057791441679000854, 0.05951803922653198, 0.07130131125450134, -0.12354660779237747, -0.09701117128133774, 0.11800825595855713, 0.12442091107368469, 0.06978484988212585, -0.16464856266975403, -0.16087807714939117, 0.1311722993850708, -0.06038947403430939, 0.003851652145385742, -0.0006860345602035522, -0.108167864382267, -0.09524266421794891, 0.029950052499771118, 0.15041500329971313, 0.13367658853530884, 0.18168556690216064, 0.034953683614730835, 0.10920646786689758, 0.1829143762588501, 0.11389583349227905, 0.14066627621650696, 0.1432109773159027, 0.034573569893836975, 0.1336836814880371, 0.06406286358833313, 0.09165462851524353, -0.17699402570724487, -0.05517192184925079, 0.18805408477783203, -0.027467668056488037, 0.06720051169395447, -0.19763338565826416, 0.03320541977882385, -0.0018648505210876465, 0.006161361932754517, 0.15541395545005798, 0.187118262052536, -0.023984387516975403, -0.0604495108127594, -0.0722300112247467, -0.19244414567947388, 0.09454178810119629, 0.10389026999473572]}, "bias": {"shape": [8], "values": [0.10599389672279358, -0.09872067719697952, 0.1841520071029663, -0.042854130268096924, -0.08240944892168045, 0.18526974320411682, -0.13656458258628845, 0.13933426141738892]}}, "bn1": {"weight": {"shape": [8], "values": [1.0, 1.0, 1.0, 1.0, 1.0, 1.0, 1.0, 1.0]}, "bias": {"shape": [8], "values": [0.0, 0.0, 0.0, 0.0, 0.0, 0.0, 0.0, 0.0]}, "running_mean": {"shape": [8], "values": [0.0, 0.0, 0.0, 0.0, 0.0, 0.0, 0.0, 0.0]}, "running_var": {"shape": [8], "values": [1.0, 1.0, 1.0, 1.0, 1.0, 1.0, 1.0, 1.0]}}, "f1": {"weight": {"shape": [8], "values": [0.25, 0.25, 0.25, 0.25, 0.25, 0.25, 0.25, 0.25]}}}, "block_stack.2": {"conv": {"weight": {"shape": [8, 8, 1], "values": [0.1210956871509552, 0.21011129021644592, -0.22482149302959442, -0.22915948927402496, -0.0021390318870544434, -0.10654327273368835, 0.19119390845298767, -0.28491172194480896, 0.120577871799469, -0.045510709285736084, 0.19581755995750427, -0.16804833710193634, -0.300421804189682, -0.22297152876853943, 0.08044242858886719, 0.05380690097808838, -0.33900555968284607, -0.17919878661632538, 0.2850864827632904, 0.1466136872768402, 0.04477450251579285, -0.16261707246303558, 0.05680355429649353, -0.3051375150680542, 0.3213670551776886, -0.061924248933792114, -0.07395267486572266, 0.29246190190315247, 0.2177455723285675, 0.16006317734718323, -0.20565925538539886, -0.2151516079902649, 0.13477718830108643, -0.2123822271823883, 0.1319243609905243, 0.16798564791679382, 0.009675353765487671, 0.1901104748249054, -0.33508792519569397, -0.00623929500579834, 0.33575907349586487, -0.34843942523002625, -0.19064532220363617, -0.22997426986694336, -0.004439830780029297, -0.33504796028137207, 0.17392274737358093, 0.15353140234947205, -0.06512829661369324, 0.26745346188545227, -0.13756528496742249, 0.23647204041481018, -0.2745489180088043, -0.2481728196144104, 0.15528598427772522, -0.09870597720146179, 0.05902504920959473, 0.25074413418769836, 0.1344412863254547, -0.266366571187973, -0.2604435384273529, 0.059263646602630615, 0.14173486828804016, -0.28364601731300354]}, "bias": {"shape": [8], "values": [-0.325076162815094, 0.09900125861167908, -0.1861359030008316, -0.10228914022445679, -0.2725672721862793, -0.19380970299243927, -0.25986480712890625, -0.286551833152771]}}, "conv1": {"weight": {"shape": [8, 8, 3], "values": [-0.006840869784355164, 0.018295571208000183, -0.06890611350536346, -0.16139531135559082, 0.06122145056724548, -0.16699452698230743, 0.013602688908576965, 0.012904107570648193, 0.17181774973869324, -0.17908895015716553, 0.12076511979103088, 0.0035810917615890503, -0.05016116797924042, 0.08756187558174133, -0.1820843517780304, 0.0664801299571991, -0.1817369908094406, 0.01678529381752014, -0.061003029346466064, 0.0042356401681900024, -0.07597824931144714, 0.02797865867614746, 0.032550111413002014, 0.0018200278282165527, 0.17251697182655334, 0.17148572206497192, 0.041746124625205994, -0.1551138162612915, -0.1784481257200241, -0.19561302661895752, 0.16845515370368958, -0.09676114469766617, 0.058804869651794434, 0.030317246913909912, -0.03891699016094208, 0.1279616355895996, -0.020516544580459595, -0.1991402804851532, -0.10472971200942993, -0.15833112597465515, 0.1564672589302063, 0.04569879174232483, 0.12350276112556458, -0.011567264795303345, 0.01744072139263153, -0.13049912452697754, 0.12698078155517578, -0.16860708594322205, 0.04303053021430969, 0.023172885179519653, 0.10038059949874878, 0.14281609654426575, 0.11720341444015503, -0.05201384425163269, 0.10500359535217285, -0.18986687064170837, 0.18182125687599182, -0.059588029980659485, -0.18280544877052307, 0.1111900806427002, -0.06884649395942688, 0.07594794034957886, 0.05593195557594299, 0.1908898651599884, 0.046243131160736084, 0.2028822898864746, 0.15478157997131348, 0.12925291061401367, 0.12575483322143555, -0.14159342646598816, -0.13598491251468658, 0.014716416597366333, 0.16092053055763245, 0.08687084913253784, 0.06742337346076965, 0.0699562132358551, -0.01967129111289978, 0.0526578426361084, 0.17051666975021362, -0.14138728380203247, 0.1162886917591095, -0.1380980908870697, -0.009116500616073608, 0.13806474208831787, -0.06332874298095703, 0.02973601222038269, -0.03151041269302368, -0.09452414512634277, -0.14323270320892334, -0.1506223976612091, -0.12986347079277039, -0.15845349431037903, -0.02851162850856781, 0.18740317225456238, -0.12161094695329666, 0.021501392126083374, 0.02274121344089508, 0.012784555554389954, 0.1619526743888855, 0.14567160606384277, 0.08555325865745544, -0.1269000768661499, 0.12373298406600952, 0.05498319864273071, -0.06460100412368774, 0.18663224577903748, 0.18978020548820496, -0.18456268310546875, -0.15951550006866455, 0.02768959105014801, 0.1309487521648407, 0.03968581557273865, -0.1340188980102539, -0.11487254500389099, 0.12901756167411804, -0.19779150187969208, 0.08677956461906433, -0.004325017333030701, 0.007771313190460205, 0.20114034414291382, 0.13517695665359497, 0.19811078906059265, -0.12543871998786926, 0.05373987555503845, 0.04697847366333008, 0.12223881483078003, 0.09864979982376099, 0.0020767003297805786, -0.0903773233294487, -0.11384603381156921, -0.06261268258094788, 0.054093509912490845, -0.019235432147979736, 0.014451518654823303, -0.06830312311649323, -0.13660219311714172, -0.1621403992176056, 0.018896639347076416, -0.0822586715221405, -0.005635485053062439, -0.06795082986354828, -0.030505910515785217, -0.14505885541439056, -0.008853137493133545, 0.19096621870994568, -0.011727988719940186, 0.13648101687431335, 0.10497322678565979, 0.02868478000164032, 0.07523524761199951, -0.05329981446266174, 0.0534784197807312, 0.14090695977210999, 0.03128895163536072, -0.14702609181404114, 0.06897306442260742, 0.1467200219631195, 0.02368493378162384, 0.10845959186553955, -0.20027141273021698, 0.07173165678977966, 0.029508769512176514, -0.17926792800426483, -0.1264757513999939, -0.008188173174858093, 0.09378719329833984, 0.07645031809806824, -0.1345497965812683, 0.16393157839775085, 0.15189281105995178, 0.13788387179374695, 0.13088271021842957, 0.07306331396102905, 0.000199243426322937, 0.19099676609039307, -0.141178697347641, -0.15641169250011444, -0.024602264165878296, 0.07478213310241699, 0.19870910048484802, 0.08224502205848694, -0.03544355928897858, 0.015395551919937134, 0.15818262100219727, 0.06622520089149475, 0.16671311855316162, -0.11513683199882507, 0.1852111518383026, 0.15739911794662476, -0.2020229995250702, 0.03707987070083618, -0.02899329364299774]}, "bias": {"shape": [8], "values": [0.10004094243049622, 0.15273818373680115, 0.05711740255355835, -0.006340578198432922, -0.12126366049051285, 0.03729806840419769, -0.11976892501115799, 0.018205955624580383]}}, "bn1": {"weight": {"shape": [8], "values": [1.0, 1.0, 1.0, 1.0, 1.0, 1.0, 1.0, 1.0]}, "bias": {"shape": [8], "values": [0.0, 0.0, 0.0, 0.0, 0.0, 0.0, 0.0, 0.0]}, "running_mean": {"shape": [8], "values": [0.0, 0.0, 0.0, 0.0, 0.0, 0.0, 0.0, 0.0]}, "running_var": {"shape": [8], "values": [1.0, 1.0, 1.0, 1.0, 1.0, 1.0, 1.0, 1.0]}}, "f1": {"weight": {"shape": [8], "values": [0.25, 0.25, 0.25, 0.25, 0.25, 0.25, 0.25, 0.25]}}}, "block_stack.3": {"conv": {"weight": {"shape": [8, 8, 1], "values": [-0.09388363361358643, 0.34369924664497375, 0.09026721119880676, -0.2684552073478699, -0.28096234798431396, 0.27214857935905457, 0.014825105667114258, -0.05456700921058655, 0.17049720883369446, 0.09140154719352722, -0.03577280044555664, -0.31414246559143066, -0.04705172777175903, 0.3249691426753998, 0.061354756355285645, -0.0800730288028717, 0.23328593373298645, -0.09122991561889648, -0.2492045760154724, 0.17236104607582092, 0.1257239282131195, 0.002390831708908081, 0.030728042125701904, 0.3118220865726471, 0.18205717206001282, 0.22437086701393127, 0.27112749218940735, 0.2557186186313629, -0.3151044547557831, 0.23265507817268372, 0.2602664530277252, 0.1311318576335907, -0.2844133675098419, 0.008196383714675903, 0.17768439650535583, 0.03981924057006836, -0.043684571981430054, 0.18930330872535706, -0.2882399260997772, -0.12797848880290985, -0.02033209800720215, 0.2000909149646759, 0.006620883941650391, -0.0050010085105896, 0.3191538155078888, -0.33938828110694885, 0.1938769519329071, 0.08196255564689636, -0.09440699219703674, -0.2592916488647461, -0.005389958620071411, 0.05845999717712402, 0.08501550555229187, -0.09549716114997864, 0.3113583028316498, -0.11243303120136261, -0.1390427052974701, 0.26913806796073914, 0.2745837867259979, -0.23428530991077423, 0.3415525257587433, -0.15464091300964355, 0.24836096167564392, 0.07210806012153625]}, "bias": {"shape": [8], "values": [-0.17840895056724548, -0.08084744215011597, 0.33438047766685486, -0.0748465359210968, -0.285441517829895, 0.11569488048553467, 0.2252618372440338, 0.07326993346214294]}}, "conv1": {"weight": {"shape": [8, 8, 3], "values": [0.09165152907371521, 0.18281182646751404, 0.11928054690361023, -0.011024072766304016, 0.2003917396068573, -0.17554570734500885, -0.18407562375068665, -0.013799011707305908, 0.059606194496154785, -0.08730921149253845, 0.20392730832099915, -0.10050414502620697, 0.028683006763458252, 0.04209908843040466, -0.07081349194049835, 0.17940834164619446, 0.036765143275260925, -0.13255654275417328, -0.003423035144805908, 0.0027038902044296265, -0.04413507878780365, 0.052298665046691895, -0.2016097456216812, 0.14811491966247559, -0.04509897530078888, -0.1007997989654541, 0.03384073078632355, -0.1907663345336914, 0.1715278923511505, 0.0028336048126220703, -0.15661750733852386, 0.2036476731300354, 0.1741887331008911, 0.18362003564834595, 0.035016268491744995, -0.04741354286670685, 0.17006957530975342, -0.1614932119846344, -0.05196759104728699, -0.1435474008321762, 0.08656096458435059, -0.20054927468299866, -0.1345302164554596, 0.14548110961914062, 0.030049309134483337, 0.1544288992881775, 0.15024274587631226, 0.17747342586517334, 0.15299385786056519, -0.16500404477119446, -0.20345018804073334, -0.023120835423469543, 0.09719106554985046, -0.049526140093803406, -0.07496468722820282, 0.04940277338027954, -0.04746749997138977, -0.08780734241008759, -0.12867319583892822, -0.03311601281166077, -0.005450040102005005, 0.16365399956703186, 0.17232099175453186, -0.07497602701187134, 0.13322147727012634, 0.12374088168144226, 0.13963162899017334, -0.20159628987312317, -0.01875947415828705, -0.15126830339431763, -0.11159338802099228, 0.01432327926158905, 0.0015490204095840454, -0.19171781837940216, -0.07527175545692444, -0.1930975764989853, -0.10952620208263397, 0.056312769651412964, 0.07988259196281433, 0.17130231857299805, 0.043758079409599304, 0.16235625743865967, 0.1871868371963501, -0.043009012937545776, -0.015923842787742615, -0.013753905892372131, -0.02078394591808319, 0.10211363434791565, 0.19590187072753906, -0.16677051782608032, -0.18061301112174988, -0.10680888593196869, 0.1995697021484375, -0.019190341234207153, -0.02367454767227173, 0.02584555745124817, -0.10026879608631134, 0.04529908299446106, 0.20391204953193665, 0.11012691259384155, 0.06417441368103027, 0.06083035469055176, 0.07092899084091187, -0.12287495285272598, 0.017849132418632507, -0.18210740387439728, 0.053790509700775146, -0.06517340242862701, 0.011927351355552673, -0.007636770606040955, 0.09210780262947083, -0.1164342388510704, -0.06825628876686096, -0.12325110286474228, -0.19980376958847046, 0.10719487071037292, -0.16358759999275208, -0.021770790219306946, -0.007885903120040894, 0.18182656168937683, -0.18956853449344635, -0.08763323724269867, 0.09200981259346008, -0.1873798817396164, -0.1610298454761505, 0.0344102680683136, 0.1135779619216919, 0.11739182472229004, -0.024677380919456482, 0.036616116762161255, 0.19619205594062805, 0.09803587198257446, -0.07274208962917328, 0.004090070724487305, 0.11533036828041077, 0.18038073182106018, 0.07358253002166748, 0.1854947805404663, -0.03814557194709778, 0.13759192824363708, 0.030397742986679077, -0.007949650287628174, 0.15224221348762512, 0.1867888867855072, 0.02191445231437683, 0.08458772301673889, 0.14047691226005554, -0.0360339879989624, -0.0874943658709526, -0.06447511911392212, -0.06395231187343597, -0.09201759845018387, -0.023433521389961243, 0.12440189719200134, -0.08168905228376389, 0.06938624382019043, -0.13995158672332764, -0.03744761645793915, -0.19018076360225677, -0.10978779196739197, -0.07763966917991638, -0.07771356403827667, 0.021589741110801697, 0.13519740104675293, 0.09016641974449158, -0.06593060493469238, 0.10948488116264343, 0.04325181245803833, 0.042759910225868225, -0.15612158179283142, -0.10544606298208237, -0.15602289140224457, 0.09330591559410095, -0.04711329936981201, 0.12372928857803345, -0.1526487171649933, -0.1284950077533722, -0.08682748675346375, 0.15786755084991455, 0.014670222997665405, -0.1298692226409912, 0.1108710765838623, -0.1552405059337616, 0.16450241208076477, 0.18185889720916748, -0.1602301299571991, 0.1685500144958496, -0.18302671611309052, -0.02721087634563446, 0.06395888328552246, -0.10256889462471008, 0.17077216506004333]}, "bias": {"shape": [8], "values": [0.1856480836868286, -0.010624498128890991, 0.1269717514514923, 0.1878173053264618, -0.1886553317308426, 0.008045673370361328, -0.050136834383010864, -0.032326072454452515]}}, "bn1": {"weight": {"shape": [8], "values": [1.0, 1.0, 1.0, 1.0, 1.0, 1.0, 1.0, 1.0]}, "bias": {"shape": [8], "values": [0.0, 0.0, 0.0, 0.0, 0.0, 0.0, 0.0, 0.0]}, "running_mean": {"shape": [8], "values": [0.0, 0.0, 0.0, 0.0, 0.0, 0.0, 0.0, 0.0]}, "running_var": {"shape": [8], "values": [1.0, 1.0, 1.0, 1.0, 1.0, 1.0, 1.0, 1.0]}}, "f1": {"weight": {"shape": [8], "values": [0.25, 0.25, 0.25, 0.25, 0.25, 0.25, 0.25, 0.25]}}}, "block_stack.4": {"conv": {"weight": {"shape": [8, 8, 1], "values": [0.12774667143821716, -0.17655731737613678, -0.34322285652160645, -0.2336418479681015, 0.30724480748176575, 0.17591223120689392, 0.3460417091846466, -0.10835772752761841, 0.3293043076992035, -0.20909155905246735, -0.03024420142173767, -0.1768045574426651, -0.13050325214862823, -0.24059957265853882, 0.011904090642929077, 0.09229585528373718, -0.1665468066930771, 0.10366517305374146, -0.051249414682388306, 0.10375681519508362, -0.32995855808258057, -0.27038896083831787, 0.02504020929336548, -0.11929930746555328, -0.008481770753860474, 0.34108707308769226, -0.1570306420326233, -0.28462648391723633, 0.012807577848434448, -0.2230478972196579, 0.15540280938148499, 0.13305678963661194, 0.008910775184631348, -0.09437012672424316, 0.24969205260276794, 0.3280939757823944, 0.1897536814212799, 0.2433423101902008, -0.12514916062355042, 0.1435328722000122, 0.21429845690727234, 0.28322044014930725, -0.00033211708068847656, 0.23022529482841492, 0.11335432529449463, 0.2329072654247284, -0.21129374206066132, -0.10607114434242249, -0.17341190576553345, 0.29469630122184753, 0.2878669202327728, 0.1168966293334961, -0.32099199295043945, 0.04904147982597351, -0.3245573937892914, -0.32762712240219116, -0.3174878656864166, 0.09931913018226624, -0.29271548986434937, 0.13274258375167847, 0.1743948757648468, -0.35222941637039185, -0.17955121397972107, -0.27150553464889526]}, "bias": {"shape": [8], "values": [0.2986348569393158, 0.12571990489959717, 0.11372876167297363, 0.3283216059207916, -0.19030308723449707, 0.07670953869819641, 0.2759130895137787, 0.33441612124443054]}}, "conv1": {"weight": {"shape": [8, 8, 3], "values": [-0.056000664830207825, 0.07762256264686584, 0.031709223985672, 0.02700825035572052, 0.07122835516929626, -0.1092931404709816, 0.05789196491241455, 0.0489250123500824, 0.13387709856033325, 0.1928369104862213, -0.06631475687026978, -0.16996720433235168, 0.2013140618801117, -0.17380566895008087, 0.1837652623653412, -0.16042649745941162, 0.16407975554466248, -0.04816135764122009, -0.1410347819328308, 0.07084250450134277, -0.07913515716791153, -0.10417892038822174, -0.04174479842185974, -0.19941961765289307, 0.19323000311851501, -0.013657301664352417, 0.05175665020942688, -0.09247419238090515, -0.08682933449745178, 0.07405376434326172, -0.056880831718444824, 0.18104958534240723, -0.15112553536891937, 0.012424468994140625, -0.02672019600868225, -0.03540630638599396, -0.1775645762681961, 0.15915435552597046, -0.16558408737182617, 0.03683726489543915, 0.08545690774917603, 0.11327940225601196, 0.0691777765750885, 0.12318092584609985, -0.01232340931892395, -0.07988881319761276, 0.042331039905548096, 0.0815386176109314, 0.10297137498855591, -0.10649164766073227, 0.16740703582763672, 0.1348356306552887, -0.07705093920230865, -0.05592292547225952, -0.14182469248771667, 0.20338720083236694, 0.17215809226036072, -0.05822218954563141, 0.10916188359260559, 0.13759523630142212, 0.14592793583869934, 0.1102709174156189, 0.16087386012077332, -0.11831346899271011, 0.12286263704299927, -0.18852613866329193, 0.11989662051200867, 0.1848697066307068, 0.09653595089912415, 0.07288503646850586, 0.13963693380355835, -0.17528310418128967, 0.04390215873718262, -0.01603013277053833, -0.005217075347900391, -0.15767458081245422, -0.12315807491540909, -0.1888345628976822, 0.17847111821174622, -0.10441118478775024, 0.05542713403701782, -0.07838872075080872, 0.06402122974395752, 0.0692155659198761, 0.040900662541389465, 0.008150890469551086, -0.0577886700630188, 0.12993544340133667, -0.0963030681014061, -0.06289657950401306, -0.05511327087879181, 0.07152429223060608, 0.07913655042648315, -0.04350733757019043, 0.0209522545337677, -0.13925069570541382, -0.1683771014213562, -0.024151653051376343, 0.16919377446174622, 0.19312810897827148, -0.06889593601226807, 0.10712528228759766, 0.1343666911125183, 0.011358052492141724, -0.18678879737854004, 0.020370692014694214, -0.06298555433750153, -0.09698773920536041, -0.19338154792785645, 0.13147661089897156, 0.058247536420822144, -0.16770026087760925, 0.13757339119911194, 0.18691515922546387, -0.12349947541952133, 0.19911792874336243, 0.013199806213378906, -0.06231486797332764, -0.20276495814323425, 0.08418866991996765, -0.013624489307403564, 0.019939258694648743, 0.1901932656764984, 0.0984359085559845, -0.18026335537433624, 0.0037449002265930176, -0.13219338655471802, -0.05033501982688904, 0.16769245266914368, 0.04754766821861267, 0.0327112078666687, 0.16610807180404663, 0.11334457993507385, 0.1905759572982788, 0.1732836663722992, 0.1325872838497162, 0.0068968236446380615, -0.05492858588695526, -0.16942098736763, -0.1025012731552124, -0.09729375690221786, 0.1866641640663147, -0.0023979395627975464, 0.03725513815879822, -0.14684425294399261, -0.07288433611392975, -0.2028425633907318, 0.1586819291114807, 0.055061519145965576, 0.01424175500869751, -0.012286663055419922, -0.08589792251586914, -0.12528197467327118, -0.03943556547164917, -0.19230009615421295, -0.12503480911254883, 0.10787451267242432, 0.03377501666545868, -0.008431464433670044, -0.018738344311714172, -0.19057852029800415, 0.04986917972564697, 0.052726924419403076, -0.10168580710887909, -0.06822666525840759, -0.13387782871723175, -0.20082537829875946, -0.07517065107822418, -0.1654312163591385, 0.11513429880142212, 0.11762675642967224, 0.07520866394042969, -0.012271523475646973, 0.0574873685836792, -0.197175532579422, -0.10375184565782547, -0.12275036424398422, -0.07375384867191315, -0.0918867364525795, -0.10378045588731766, 0.025467485189437866, 0.005952045321464539, -0.08864891529083252, -0.08789747208356857, -0.1501162350177765, 0.07367777824401855, 0.06743404269218445, 0.20188704133033752, 0.07086747884750366, -0.1190318688750267, 0.13000795245170593, -0.014299944043159485]}, "bias": {"shape": [8], "values": [0.011868193745613098, -0.16541625559329987, -0.19280846416950226, 0.03939415514469147, 0.003322690725326538, 0.14240065217018127, 0.007461085915565491, -0.020952746272087097]}}, "bn1": {"weight": {"shape": [8], "values": [1.0, 1.0, 1.0, 1.0, 1.0, 1.0, 1.0, 1.0]}, "bias": {"shape": [8], "values": [0.0, 0.0, 0.0, 0.0, 0.0, 0.0, 0.0, 0.0]}, "running_mean": {"shape": [8], "values": [0.0, 0.0, 0.0, 0.0, 0.0, 0.0, 0.0, 0.0]}, "running_var": {"shape": [8], "values": [1.0, 1.0, 1.0, 1.0, 1.0, 1.0, 1.0, 1.0]}}, "f1": {"weight": {"shape": [8], "values": [0.25, 0.25, 0.25, 0.25, 0.25, 0.25, 0.25, 0.25]}}}, "block_stack.5": {"conv": {"weight": {"shape": [8, 8, 1], "values": [0.2772338092327118, 0.32680460810661316, -0.2568901479244232, 0.19737502932548523, 0.3219468891620636, -0.20351625978946686, 0.10492104291915894, -0.25302571058273315, 0.024394333362579346, -0.13376186788082123, -0.2524203062057495, -0.21874365210533142, 0.23217758536338806, -0.3085624575614929, 0.17934605479240417, -0.1606271117925644, 0.14998462796211243, -0.03062334656715393, -0.23231936991214752, 0.05737057328224182, 0.2788068950176239, 0.09768527746200562, -0.0657990574836731, -0.24386903643608093, 0.04001665115356445, 0.07338979840278625, -0.11472299695014954, -0.058998286724090576, -0.10978768765926361, 0.1159074604511261, 0.3154996931552887, -0.043287813663482666, -0.24524980783462524, -0.20992523431777954, 0.29463914036750793, 0.11490848660469055, -0.26495400071144104, -0.1469726711511612, 0.24872687458992004, -0.07124650478363037, 0.29118332266807556, 0.26892057061195374, -0.24975387752056122, -0.043156564235687256, 0.12655508518218994, -0.2956058979034424, 0.238637775182724, 0.02815455198287964, 0.1486518681049347, -0.04810020327568054, -0.20589043200016022, 0.02463027834892273, -0.24333727359771729, 0.07007801532745361, 0.042119354009628296, -0.31725722551345825, -0.0964207649230957, -0.31316497921943665, 0.20832529664039612, 0.11762866377830505, 0.26350632309913635, -0.26457905769348145, -0.22922679781913757, 0.02606526017189026]}, "bias": {"shape": [8], "values": [-0.32112324237823486, -0.2862713038921356, 0.10129210352897644, 0.10988152027130127, 0.26237961649894714, 0.35153231024742126, 0.2854522168636322, -0.15215829014778137]}}, "conv1": {"weight": {"shape": [8, 8, 3], "values": [0.009978339076042175, 0.04327598214149475, 0.040218159556388855, -0.1761719286441803, 0.05697464942932129, 0.05526915192604065, -0.02995508909225464, 0.03521786630153656, -0.16854643821716309, -0.17718498408794403, 0.05028197169303894, 0.03860560059547424, -0.19771061837673187, -0.1142926961183548, 0.08370810747146606, 0.019744127988815308, -0.18065419793128967, -0.17866572737693787, 0.03551824390888214, 0.04861834645271301, -0.18150033056735992, 0.18007919192314148, -0.18285271525382996, 0.09553718566894531, -0.1622960865497589, 0.003260597586631775, -0.18138670921325684, 0.08577865362167358, 0.19545695185661316, 0.10204800963401794, 0.06329867243766785, -0.06675705313682556, 0.027862340211868286, 0.04173630475997925, 0.06249728798866272, 0.18282771110534668, 0.18164795637130737, -0.17726342380046844, -0.18780331313610077, 0.01127675175666809, -0.018736064434051514, 0.06700816750526428, -0.18995825946331024, -0.17705145478248596, 0.019377246499061584, 0.10597768425941467, -0.006859079003334045, -0.015981048345565796, 0.05499449372291565, -0.15958580374717712, -0.16911818087100983, 0.1541127860546112, -0.08261197060346603, -0.04945811629295349, -0.20257160067558289, 0.13786840438842773, -0.19713586568832397, -0.037510111927986145, -0.14936378598213196, -0.025692716240882874, 0.14746388792991638, 0.14803674817085266, 0.0980314314365387, -0.15881995856761932, -0.02415047585964203, 0.08520203828811646, -0.1600424200296402, -0.035735175013542175, 0.16609826683998108, -0.11600509285926819, -0.00942780077457428, 0.11025971174240112, 0.14358505606651306, -0.10532602667808533, 0.02943338453769684, -0.18295133113861084, -0.010341927409172058, -0.017668530344963074, 0.10055205225944519, -0.1142973005771637, -0.05304494500160217, 0.0746893584728241, -0.020927026867866516, -0.11095664650201797, -0.11154001951217651, 0.03377270698547363, -0.06798316538333893, -0.1305801272392273, -0.03248557448387146, -0.1999157965183258, -0.007282286882400513, 0.03558313846588135, -0.019192904233932495, -0.18507759273052216, 0.18271851539611816, -0.07816702127456665, -0.051880061626434326, -0.13108424842357635, -0.1042683944106102, 0.1824183166027069, -0.09373001754283905, -0.03868214786052704, -0.11311208456754684, 0.1337445080280304, -0.06569994986057281, -0.02924501895904541, 0.08450168371200562, -0.12377003580331802, -0.1371089071035385, -0.12026394158601761, -0.01768074929714203, 0.09027621150016785, -0.17478813230991364, -0.08929621428251266, 0.09964090585708618, -0.08516093343496323, 0.1458548605442047, -0.03161419928073883, 0.07580894231796265, 0.06361344456672668, -0.15441228449344635, 0.08756998181343079, -0.027593135833740234, 0.061427414417266846, -0.06853190064430237, -0.11037653684616089, 0.013069331645965576, 0.12012317776679993, -0.06502825021743774, -0.1664534956216812, 0.19630834460258484, -0.05565553903579712, -0.10110542923212051, 0.13558712601661682, -0.14927321672439575, -0.05360153317451477, -0.1320115625858307, 0.012787207961082458, -0.16195839643478394, 0.010397851467132568, 0.03517034649848938, 0.1350906789302826, 0.07822456955909729, 0.09049201011657715, 0.08618426322937012, 0.06506377458572388, -0.030455052852630615, 0.010929882526397705, 0.06926199793815613, 0.14182496070861816, 0.042615681886672974, -0.19090768694877625, -0.13992370665073395, -0.12880009412765503, 0.1399044394493103, -0.11076541244983673, 0.06713953614234924, -0.026614055037498474, -0.19407881796360016, -0.061187759041786194, -0.18011614680290222, 0.07468849420547485, 0.18105295300483704, -0.17137548327445984, -0.15878356993198395, 0.15974074602127075, -0.13670381903648376, -0.005086302757263184, -0.03795163333415985, 0.08778533339500427, -0.09779597818851471, 0.035065025091171265, -0.016215398907661438, 0.002838119864463806, -0.1982211172580719, -0.025355741381645203, 0.11134788393974304, -0.06315656006336212, 0.026278793811798096, -0.10029976814985275, 0.10996249318122864, -0.1232653334736824, 0.01728120446205139, -0.044148653745651245, 0.1634981334209442, -0.05848859250545502, 0.10061559081077576, -0.16451044380664825, 0.0081234872341156, -0.12331762909889221, -0.04902970790863037, -0.05952206254005432]}, "bias": {"shape": [8], "values": [0.19591161608695984, 0.18812710046768188, -0.011086344718933105, 0.1291351616382599, -0.0703885555267334, -0.0895051658153534, 0.12438178062438965, -0.044373318552970886]}}, "bn1": {"weight": {"shape": [8], "values": [1.0, 1.0, 1.0, 1.0, 1.0, 1.0, 1.0, 1.0]}, "bias": {"shape": [8], "values": [0.0, 0.0, 0.0, 0.0, 0.0, 0.0, 0.0, 0.0]}, "running_mean": {"shape": [8], "values": [0.0, 0.0, 0.0, 0.0, 0.0, 0.0, 0.0, 0.0]}, "running_var": {"shape": [8], "values": [1.0, 1.0, 1.0, 1.0, 1.0, 1.0, 1.0, 1.0]}}, "f1": {"weight": {"shape": [8], "values": [0.25, 0.25, 0.25, 0.25, 0.25, 0.25, 0.25, 0.25]}}}, "block_stack.6": {"conv": {"weight": {"shape": [8, 8, 1], "values": [0.14955249428749084, 0.19912150502204895, -0.13354246318340302, -0.3057767152786255, 0.23627731204032898, -0.07650664448738098, 0.18286684155464172, -0.3204532265663147, -0.28016453981399536, 9.125471115112305e-05, 0.12218266725540161, 0.14715823531150818, 0.21293553709983826, 0.25520196557044983, -0.28384843468666077, -0.07701447606086731, 0.12081700563430786, 0.3019932210445404, 0.3349620997905731, -0.20919056236743927, 0.3060445487499237, 0.16575488448143005, -0.06923183798789978, 0.3282903730869293, -0.2067590355873108, 0.22743967175483704, -0.1871049404144287, -0.08277586102485657, -0.03279346227645874, 0.005743563175201416, 0.14012116193771362, -0.2640300393104553, -0.2780493199825287, 0.2969149053096771, 0.30241885781288147, 0.02639329433441162, -0.25789496302604675, 0.24712559580802917, 0.03173986077308655, 0.0573115348815918, -0.15050680935382843, -0.21072538197040558, 0.34120407700538635, -0.3108571171760559, -0.2504233717918396, 0.33357223868370056, -0.24984559416770935, 0.10270795226097107, 0.23264488577842712, -0.05564400553703308, 0.018425434827804565, -0.18885834515094757, -0.042060524225234985, -0.020262181758880615, 0.3287137448787689, 0.2737545073032379, -0.2561342716217041, -0.018488973379135132, -0.2406640201807022, 0.3208453953266144, -0.2061043232679367, 0.2169419825077057, -0.22310294210910797, -0.2780205011367798]}, "bias": {"shape": [8], "values": [0.2673715651035309, 0.2411229908466339, 0.32421204447746277, -0.25567448139190674, -0.002212822437286377, 0.2796649634838104, -0.25911974906921387, 0.01824858784675598]}}, "conv1": {"weight": {"shape": [8, 8, 3], "values": [0.03623904287815094, -0.19954413175582886, -0.13476020097732544, -0.04537452757358551, 0.042356908321380615, 0.07187095284461975, 0.08638474345207214, 0.034320712089538574, -0.04471363127231598, 0.05781891942024231, 0.01560986042022705, 0.04161541163921356, -0.04325661063194275, -0.03360433876514435, 0.12333375215530396, -0.12140925228595734, -0.10616708546876907, -0.20304328203201294, 0.0625481903553009, 0.021306172013282776, 0.03843122720718384, 0.08284798264503479, 0.03076179325580597, -0.009291842579841614, 0.022296875715255737, -0.05314888060092926, 0.06720173358917236, 0.06354552507400513, 0.01799914240837097, 0.14017057418823242, 0.0012501627206802368, 0.03532753884792328, -0.10183113068342209, 0.18950805068016052, -0.1118224635720253, 0.09482395648956299, 0.0833677351474762, -0.1251949965953827, -0.09246973693370819, -0.16389183700084686, 0.14869970083236694, 0.010360762476921082, -0.20295025408267975, 0.2016148865222931, 0.12658575177192688, -0.030824407935142517, -0.1952821910381317, 0.07048997282981873, -0.033377304673194885, -0.11175940930843353, -0.19395211338996887, -0.0010655373334884644, -0.1873585283756256, 0.03377440571784973, -0.16858726739883423, -0.19214044511318207, -0.0375894159078598, -0.012641370296478271, -0.04822562634944916, -0.03970165550708771, -0.0696416050195694, -0.11025000363588333, 0.20093068480491638, 0.09647166728973389, -0.13697326183319092, 0.024222418665885925, 0.04909956455230713, 0.03602661192417145, -0.07187315821647644, 0.022904321551322937, 0.13502100110054016, -0.05172891914844513, 0.10161203145980835, -0.11326944828033447, 0.1663796305656433, 0.10209342837333679, -0.01749369502067566, -0.009491592645645142, -0.08182030916213989, -0.08985921740531921, 0.03498436510562897, 0.03509305417537689, -0.10583284497261047, 0.1435932219028473, 0.021128356456756592, -0.06146696209907532, 0.0746423602104187, -0.01014341413974762, 0.20082998275756836, -0.09559114277362823, 0.10344818234443665, -0.05761200189590454, -0.13739308714866638, -0.11712285876274109, 0.06561481952667236, 0.02937483787536621, -0.16960906982421875, -0.11979929357767105, -0.12143182754516602, 0.16938215494155884, 0.0034012198448181152, 0.14328327775001526, 0.015889108180999756, 0.19055131077766418, 0.17861038446426392, 0.03988410532474518, 0.028542757034301758, -0.19852431118488312, 0.05009239912033081, -0.009283006191253662, -0.0364917516708374, 0.10742244124412537, 0.18855556845664978, 0.14882946014404297, -0.13363555073738098, -0.04771964251995087, 0.05270996689796448, -0.11191636323928833, 0.0007703304290771484, -0.07279103994369507, -0.001650780439376831, -0.05197201669216156, 0.1381293535232544, -0.09029023349285126, -0.09597595036029816, -0.08881696313619614, 0.12357315421104431, 0.03836292028427124, 0.1413823664188385, -0.07742419838905334, 0.16483646631240845, -0.11175661534070969, 0.09959810972213745, -0.053752198815345764, -0.17884023487567902, -0.13664542138576508, -0.1856229603290558, -0.15721815824508667, 0.03898578882217407, 0.03699365258216858, -0.1865491420030594, -0.16092276573181152, 0.19687873125076294, 0.08099925518035889, 0.0771874487400055, 0.14792615175247192, -0.0529034286737442, 0.12242776155471802, 0.14893025159835815, -0.08895552158355713, -0.058729469776153564, -0.10992240160703659, -0.0071189552545547485, 0.04600006341934204, 0.10824969410896301, 0.1636764109134674, -0.0635245144367218, -0.07236398756504059, 0.05401161313056946, 0.01883666217327118, 0.19854077696800232, 0.1876656413078308, -0.14350526034832, 0.13056054711341858, 0.03494434058666229, 0.09766256809234619, 0.20280054211616516, 0.029149875044822693, 0.13273587822914124, -0.10888346284627914, -0.19919496774673462, 0.10377287864685059, -0.12714490294456482, 0.02959802746772766, -0.16723185777664185, 0.05756354331970215, -0.14494171738624573, -0.14094403386116028, 0.01893177628517151, 0.15471979975700378, 0.010505840182304382, -0.18736204504966736, 0.18332889676094055, 0.10814061760902405, 0.15706956386566162, 0.029062390327453613, -0.18339157104492188, 0.1281144618988037, 0.03364458680152893, -0.016647979617118835, -0.02353331446647644, 0.09606993198394775]}, "bias": {"shape": [8], "values": [0.13591638207435608, -0.10752290487289429, 0.15995460748672485, 0.02083677053451538, -0.09878459572792053, 0.1782359480857849, -0.06627257168292999, 0.06869059801101685]}}, "bn1": {"weight": {"shape": [8], "values": [1.0, 1.0, 1.0, 1.0, 1.0, 1.0, 1.0, 1.0]}, "bias": {"shape": [8], "values": [0.0, 0.0, 0.0, 0.0, 0.0, 0.0, 0.0, 0.0]}, "running_mean": {"shape": [8], "values": [0.0, 0.0, 0.0, 0.0, 0.0, 0.0, 0.0, 0.0]}, "running_var": {"shape": [8], "values": [1.0, 1.0, 1.0, 1.0, 1.0, 1.0, 1.0, 1.0]}}, "f1": {"weight": {"shape": [8], "values": [0.25, 0.25, 0.25, 0.25, 0.25, 0.25, 0.25, 0.25]}}}, "block_stack.7": {"conv": {"weight": {"shape": [8, 8, 1], "values": [0.25812217593193054, 0.04390403628349304, 0.11476945877075195, -0.13741958141326904, 0.26718977093696594, -0.23396721482276917, 0.33650049567222595, 0.3528941571712494, -0.04083418846130371, 0.3284367620944977, -0.2844575047492981, 0.059608399868011475, -0.20635223388671875, 0.33666035532951355, -0.22050118446350098, 0.1822514832019806, 0.03782293200492859, -0.1824513077735901, 0.05200660228729248, -0.15730485320091248, 0.21105656027793884, -0.09891676902770996, -0.22806750237941742, -0.14190401136875153, -0.03814396262168884, -0.21878357231616974, 0.2933623492717743, -0.3031451106071472, -0.06858643889427185, -0.06719896197319031, -0.23738782107830048, 0.043181419372558594, 0.2003997266292572, -0.20638515055179596, 0.0007325112819671631, 0.28830674290657043, 0.2022668421268463, -0.12175920605659485, -0.2902899980545044, -0.031457096338272095, -0.053790003061294556, 0.2138402760028839, -0.12426921725273132, -0.016090035438537598, 0.2743054926395416, -0.27918505668640137, -0.20567548274993896, 0.16071632504463196, 0.19756993651390076, 0.06667229533195496, -0.18732140958309174, 0.10988736152648926, 0.22184816002845764, 0.3079732358455658, -0.2684260308742523, -0.13765308260917664, 0.21015331149101257, 0.2484731376171112, 0.012610584497451782, -0.24931925535202026, 0.23431500792503357, 0.0181962251663208, -0.30407434701919556, 0.04087346792221069]}, "bias": {"shape": [8], "values": [-0.08909237384796143, -0.30622559785842896, 0.11397853493690491, 0.06187385320663452, -0.2094155102968216, 0.20403125882148743, -0.21607264876365662, 0.3521539270877838]}}, "conv1": {"weight": {"shape": [8, 8, 3], "values": [-0.19579961895942688, 0.066496342420578, -0.06047779321670532, -0.11716015636920929, -0.047460004687309265, 0.012800678610801697, -0.12107442319393158, 0.047632813453674316, 0.05360516905784607, 0.194380521774292, -0.009895458817481995, -0.0065725743770599365, 0.07904878258705139, 0.01995326578617096, -0.018268778920173645, -0.17522281408309937, -0.14476174116134644, 0.17977681756019592, -0.20168834924697876, 0.13218766450881958, 0.05135220289230347, -0.15760588645935059, -0.0018236488103866577, -0.15289482474327087, -0.14417196810245514, -0.03945951163768768, 0.12504446506500244, 0.05465570092201233, 0.16078785061836243, 0.1392759382724762, 0.19773131608963013, 0.04388175904750824, 0.18125447630882263, -0.011876717209815979, 0.02549305558204651, -0.16050772368907928, 0.19714701175689697, 0.10395833849906921, 0.1361161470413208, 0.04000560939311981, -0.1277061104774475, -0.09391855448484421, 0.11643671989440918, 0.05590739846229553, 0.1418110728263855, 0.08451762795448303, 0.15867742896080017, -0.1366633176803589, -0.10859544575214386, -0.09441812336444855, 0.16464117169380188, 0.13729915022850037, -0.036354318261146545, 0.06570088863372803, -0.17400933802127838, -0.15484033524990082, 0.15804576873779297, -0.043675363063812256, 0.17313891649246216, 0.07387939095497131, 0.1686081886291504, 0.09454065561294556, 0.08035433292388916, -0.14530128240585327, 0.1687810719013214, -0.0855068564414978, 0.12329214811325073, -0.03848755359649658, 0.057443827390670776, 0.06870535016059875, 0.03787292540073395, -0.10093209892511368, -0.05674023926258087, -0.12447923421859741, -0.029992535710334778, -0.1468433290719986, 0.09991300106048584, 0.015064671635627747, 0.19767993688583374, 0.12548518180847168, -0.035599008202552795, -0.1820615828037262, 0.1941831111907959, 0.023525521159172058, 0.04747074842453003, -0.12066493928432465, 0.13236075639724731, -0.10451684147119522, 0.0808236300945282, -0.13796955347061157, -0.1255553662776947, -0.1662592589855194, 0.04241073131561279, 0.16553208231925964, 0.09321200847625732, 0.130580872297287, 0.032003313302993774, 0.028608262538909912, 0.02976183593273163, -0.031721875071525574, -0.1494961380958557, 0.17195606231689453, -0.1098480150103569, 0.1109226644039154, 0.0758848786354065, 0.04107765853404999, 0.01960146427154541, 0.16830596327781677, 0.1924968659877777, -0.019146278500556946, 0.10114625096321106, 0.068682461977005, 0.0075966715812683105, -0.0784330666065216, -0.1280648112297058, 0.12606221437454224, -0.1703912913799286, 0.0978274941444397, -0.11813712120056152, 0.1587100327014923, 0.16747069358825684, 0.05093097686767578, 0.09739533066749573, -0.0777486115694046, 0.03390580415725708, 0.01923300325870514, 0.1958198845386505, 0.17101940512657166, -0.14396846294403076, 0.0271272212266922, 0.15891030430793762, 0.09651023149490356, 0.05361327528953552, 0.1915312111377716, 0.15857741236686707, 0.0923498272895813, -0.12333181500434875, 0.03118792176246643, -0.0018577724695205688, 0.07943138480186462, -0.08040168881416321, 0.16530278325080872, 0.08213457465171814, 0.08041271567344666, -0.09150462597608566, -0.06892547011375427, -0.04304733872413635, -0.18755990266799927, -0.054291099309921265, -0.09398975223302841, -0.18637727200984955, -0.040503814816474915, -0.0036129653453826904, -0.008567363023757935, 0.039551883935928345, 0.004128158092498779, -0.18535025417804718, 0.0819205641746521, -0.06600859761238098, 0.00321844220161438, -0.10940558463335037, 0.042404815554618835, 0.073580801486969, 0.1390833854675293, 0.10506346821784973, -0.04708254337310791, 0.16135206818580627, 0.1067550778388977, 0.12587517499923706, -0.1325058937072754, 0.11350318789482117, 0.02991180121898651, 0.09290149807929993, 0.020714476704597473, 0.1636446714401245, 0.006268233060836792, -0.11474484205245972, -0.11610432714223862, 0.08433932065963745, 0.005422845482826233, 0.028841689229011536, -0.15527084469795227, 0.15431693196296692, 0.19393816590309143, -0.08326126635074615, 0.10368934273719788, 0.17240983247756958, 0.057556360960006714, -0.059059783816337585, -0.08920535445213318, -0.04862068593502045, 0.008967310190200806]}, "bias": {"shape": [8], "values": [0.05567237734794617, -0.12395438551902771, 0.15262466669082642, -0.19762691855430603, -0.010892793536186218, 0.053632497787475586, -0.016686037182807922, -0.15782169997692108]}}, "bn1": {"weight": {"shape": [8], "values": [1.0, 1.0, 1.0, 1.0, 1.0, 1.0, 1.0, 1.0]}, "bias": {"shape": [8], "values": [0.0, 0.0, 0.0, 0.0, 0.0, 0.0, 0.0, 0.0]}, "running_mean": {"shape": [8], "values": [0.0, 0.0, 0.0, 0.0, 0.0, 0.0, 0.0, 0.0]}, "running_var": {"shape": [8], "values": [1.0, 1.0, 1.0, 1.0, 1.0, 1.0, 1.0, 1.0]}}, "f1": {"weight": {"shape": [8], "values": [0.25, 0.25, 0.25, 0.25, 0.25, 0.25, 0.25, 0.25]}}}}}