{"conv": {"weight": {"shape": [11, 7, 1], "values": [-0.3011927306652069, -0.3637748062610626, 0.375001460313797, -0.3188701272010803, -0.20197393000125885, 0.08397385478019714, 0.020172327756881714, -0.1473398506641388, 0.11247411370277405, 0.19066962599754333, -0.19321757555007935, 0.34456202387809753, -0.09400284290313721, 0.16417768597602844, 0.13594213128089905, 0.05903893709182739, 0.0833766758441925, 0.011506140232086182, 0.10161358118057251, -0.12148231267929077, 0.048443615436553955, 0.058932095766067505, 0.11975744366645813, 0.22847875952720642, -0.024829447269439697, -0.10981738567352295, -0.15616871416568756, -0.055629074573516846, -0.2730609178543091, -0.11581742763519287, -0.24306130409240723, -0.018556267023086548, 0.21906331181526184, -0.37599310278892517, 0.05611702799797058, 0.022327661514282227, -0.31672582030296326, -0.24405412375926971, 0.29020974040031433, 0.02939051389694214, -0.3282678723335266, 0.04830813407897949, -0.25302326679229736, 0.1003011167049408, -0.13343125581741333, 0.3403299152851105, 0.3587283194065094, -0.19958925247192383, 0.2141529619693756, 0.08171853423118591, -0.2396794706583023, -0.17945125699043274, -0.10042741894721985, -0.18157948553562164, 0.05348193645477295, 0.12979033589363098, -0.3125164210796356, 0.13230642676353455, 0.37640252709388733, 0.3618076741695404, 0.22661277651786804, -0.2494315803050995, 0.1040181815624237, 0.15842387080192566, -0.22972235083580017, 0.26456931233406067, 0.26595959067344666, -0.1417098194360733, -0.2612048387527466, 0.12259957194328308, -0.0009339451789855957, 0.06583526730537415, 0.1378755271434784, -0.32650041580200195, 0.14248499274253845, 0.055573731660842896, -0.3627200722694397]}, "bias": {"shape": [11], "values": [-0.17145124077796936, 0.10034608840942383, -0.24941188097000122, -0.10531193017959595, -0.1926783323287964, 0.13486191630363464, -0.022078007459640503, 0.3280991017818451, 0.23486462235450745, -0.18209987878799438, 0.11390608549118042]}}, "conv1": {"weight": {"shape": [11, 7, 3], "values": [-0.1548849493265152, -0.10039199888706207, -0.1931898444890976, 0.13161124289035797, 0.0721312016248703, 0.1964181810617447, 0.12242461740970612, -0.1855713427066803, -0.13211610913276672, 0.161105677485466, 0.16295476257801056, 0.19551895558834076, -0.037260502576828, -0.07822856307029724, 0.18821491301059723, 0.03653500974178314, -0.1863703727722168, 0.11643271148204803, 0.005769401788711548, -0.17381200194358826, 0.012616783380508423, -0.1393083930015564, -0.10035867244005203, 0.058337584137916565, 0.10132624208927155, 0.09931577742099762, -0.12630440294742584, -0.029715389013290405, 0.028454899787902832, 0.21700821816921234, 0.032297536730766296, 0.1174062043428421, -0.14780102670192719, -0.14745770394802094, -0.13221462070941925, -0.0051756352186203, 0.18070165812969208, 0.1725054830312729, -0.17275846004486084, 0.12193615734577179, -0.1550590842962265, -0.05311030149459839, 0.2138359397649765, -0.17470598220825195, 0.01805920898914337, -0.12091867625713348, -0.10830161720514297, 0.05171661078929901, -0.15463635325431824, 0.21267880499362946, 0.19087816774845123, 0.20704515278339386, 0.07655327022075653, 0.14074353873729706, -0.08703739941120148, -0.1748758852481842, -0.0731918066740036, -0.013316094875335693, -0.06915083527565002, -0.20923274755477905, -0.1267746537923813, 0.13018976151943207, -0.021216794848442078, -0.16395778954029083, -0.13921493291854858, 0.1979464441537857, 0.008014872670173645, 0.021572768688201904, -0.10217681527137756, -0.014578282833099365, -0.14562490582466125, -0.009685128927230835, -0.005609109997749329, -0.10732243955135345, 0.005380004644393921, 0.11499638855457306, 0.20699520409107208, -0.16244202852249146, 0.1173059493303299, -0.04515136778354645, -0.1650604009628296, -0.2063600867986679, 0.09099124372005463, -0.18029887974262238, -0.21763968467712402, -0.10690944641828537, 0.09816248714923859, -0.05802096426486969, 0.046924129128456116, 0.20750029385089874, -0.08982031047344208, 0.005564570426940918, -0.0780441015958786, 0.19494034349918365, 0.19103147089481354, -0.142013281583786, 0.07286788523197174, -0.1538696140050888, 0.025616422295570374, 0.08114172518253326, 0.16072909533977509, -0.12213215976953506, -0.06826525926589966, -0.11679669469594955, -0.042482420802116394, -0.08733056485652924, 0.044764742255210876, 0.2132236808538437, -0.10276740044355392, 0.07485611736774445, -0.0974249616265297, 0.18348421156406403, -0.033062323927879333, -0.14316090941429138, 0.13206274807453156, -0.0588565319776535, 0.14620809257030487, 0.15250219404697418, -0.17152456939220428, 0.13643287122249603, 0.2040407508611679, -0.07850340008735657, -0.12474660575389862, 0.06097365915775299, 0.20221833884716034, -0.1765846610069275, -0.14356312155723572, -0.1090482845902443, 0.030222803354263306, 0.09136508405208588, 0.1357133537530899, 0.21058489382266998, -0.09382317215204239, 0.2134459763765335, -0.1611378937959671, 0.008452832698822021, -0.13650614023208618, -0.21541792154312134, -0.029526501893997192, -0.02743545174598694, -0.2138170450925827, 0.21724750101566315, 0.15167556703090668, -0.12475092709064484, 0.05423988401889801, -0.021414756774902344, 0.16464455425739288, 0.1744704693555832, 0.21792416274547577, -0.12387582659721375, -0.21769113838672638, 0.03202758729457855, -0.16064560413360596, 0.0851832777261734, 0.013589039444923401, -0.18428388237953186, -0.12554296851158142, -0.1798454225063324, 0.19199730455875397, 0.1475236862897873, -0.032645538449287415, -0.09474499523639679, -0.14854654669761658, -0.1295749396085739, 0.02728922665119171, 0.049130573868751526, -0.07908898591995239, -0.16634812951087952, -0.058262526988983154, -0.11484231799840927, -0.0071160197257995605, -0.11297482997179031, 0.13358427584171295, 0.0008298009634017944, -0.20138561725616455, -0.1641586720943451, -0.17767062783241272, -0.1931365430355072, 0.15919296443462372, -0.143998384475708, 0.048935458064079285, -0.04151250422000885, -0.08999110758304596, 0.03703446686267853, -0.047129690647125244, -0.06115877628326416, -0.07622537016868591, 0.09460066258907318, 0.013110235333442688, -0.16144368052482605, 0.15290676057338715, 0.050272807478904724, 0.14632530510425568, 0.19975660741329193, 0.18254704773426056, 0.17344622313976288, -0.018972083926200867, 0.026271939277648926, -0.022836953401565552, 0.11127878725528717, 0.0444667786359787, 0.03123323619365692, 0.03565444052219391, 0.15184004604816437, -0.18416598439216614, -0.050654858350753784, 0.1669197827577591, 0.09550528228282928, 0.14935477077960968, -0.2145494520664215, -0.01914939284324646, -0.07822395861148834, -0.023512989282608032, 0.006507202982902527, -0.21718044579029083, -0.017191067337989807, -0.004100725054740906, -0.1179322898387909, 0.08820678293704987, -0.15877291560173035, -0.16798916459083557, 0.1859307736158371, 0.0763264149427414, 0.10936160385608673, 0.14035330712795258, -0.09663350135087967, 0.03634737432003021, 0.21590520441532135, -0.05481976270675659, 0.1671990305185318, 0.09866820275783539]}, "bias": {"shape": [11], "values": [-0.1011810153722763, 0.20505575835704803, -0.10300545394420624, 0.011814236640930176, 0.20475564897060394, 0.05857877433300018, -0.14167602360248566, -0.05523449182510376, 0.035174086689949036, 0.2148972600698471, -0.013011068105697632]}}, "bn1": {"weight": {"shape": [11], "values": [1.0, 1.0, 1.0, 1.0, 1.0, 1.0, 1.0, 1.0, 1.0, 1.0, 1.0]}, "bias": {"shape": [11], "values": [0.0, 0.0, 0.0, 0.0, 0.0, 0.0, 0.0, 0.0, 0.0, 0.0, 0.0]}, "running_mean": {"shape": [11], "values": [0.0, 0.0, 0.0, 0.0, 0.0, 0.0, 0.0, 0.0, 0.0, 0.0, 0.0]}, "running_var": {"shape": [11], "values": [1.0, 1.0, 1.0, 1.0, 1.0, 1.0, 1.0, 1.0, 1.0, 1.0, 1.0]}}, "f1": {"weight": {"shape": [11], "values": [0.25, 0.25, 0.25, 0.25, 0.25, 0.25, 0.25, 0.25, 0.25, 0.25, 0.25]}}}