{"hidden_size": 8, "num_hidden_layers": 3, "direct_linear": {"weight": {"shape": [11, 7], "values": [0.3395146429538727, -0.36469268798828125, 0.22044876217842102, 0.072914719581604, 0.07967448234558105, 0.20100030303001404, -0.10287079215049744, 0.029321670532226562, 0.18020305037498474, 0.3201008141040802, 0.03477621078491211, 0.026817768812179565, -0.1287877857685089, 0.319501668214798, 0.2119203507900238, 0.3528476655483246, -0.08075237274169922, -0.0518166720867157, 0.27479931712150574, 0.047120511531829834, -0.03315460681915283, -0.11223271489143372, 0.34911444783210754, 0.33049872517585754, -0.2523767352104187, 0.25239232182502747, 0.05368107557296753, 0.0989675223827362, 0.132747620344162, -0.16104008257389069, -0.26870545744895935, 0.1953207552433014, 0.21787044405937195, -0.14691105484962463, -0.2865333557128906, 0.18250194191932678, -0.2388971894979477, -0.2990962266921997, -0.02603057026863098, -0.1827811449766159, -0.222279891371727, 0.08747085928916931, 0.16003188490867615, -0.25799742341041565, -0.03203457593917847, 0.25577762722969055, -0.10803446173667908, 0.2599755823612213, 0.09074604511260986, -0.36020466685295105, 0.025227338075637817, -0.27905601263046265, -0.11069554090499878, -0.3229099214076996, 0.177943617105484, -0.3390842080116272, 0.23502740263938904, 0.010098278522491455, -0.3754717707633972, -0.2050434798002243, -0.07794696092605591, 0.2960328161716461, -0.31871601939201355, 0.043321192264556885, -0.29068660736083984, 0.17990371584892273, -0.2751948833465576, 0.1516915261745453, 0.054846346378326416, -0.27804237604141235, -0.33765649795532227, -0.2325095683336258, 0.08661705255508423, 0.303390234708786, -0.09739530086517334, -0.2597845792770386, 0.29727301001548767]}, "bias": {"shape": [11], "values": [0.27764180302619934, -0.19933770596981049, 0.3083074390888214, -0.1758827567100525, 0.2597995102405548, 0.21629932522773743, -0.21899515390396118, 0.3045260012149811, -0.20316794514656067, -0.19920577108860016, 0.24664518237113953]}}, "input_linear": {"weight": {"shape": [8, 7], "values": [-0.23502449691295624, -0.07199841737747192, -0.10094338655471802, -0.02666965126991272, 0.259548157453537, -0.11767777800559998, 0.2857048809528351, 0.169276624917984, 0.22269895672798157, -0.09577709436416626, 0.2907004654407501, -0.018539518117904663, -0.18217481672763824, 0.285490483045578, -0.2887982726097107, 0.32060399651527405, 0.3419182598590851, 0.04259085655212402, -0.10854247212409973, 0.3118889033794403, 0.056783318519592285, 0.14981219172477722, -0.36040034890174866, 0.10552293062210083, 0.2434994876384735, 0.3299590051174164, 0.3752436339855194, 0.13331034779548645, -0.14106352627277374, 0.10091835260391235, 0.02257692813873291, -0.24091924726963043, -0.024981051683425903, -0.04857158660888672, 0.2051590383052826, 0.2997051179409027, -0.15723863244056702, 0.04736483097076416, 0.005951613187789917, -0.053598880767822266, -0.05292961001396179, 0.05404910445213318, 0.23481211066246033, 0.21142974495887756, -0.14158767461776733, -0.11852502822875977, -0.1289641261100769, -0.16121089458465576, 0.13059040904045105, -0.15731266140937805, -0.21841946244239807, -0.03972893953323364, 0.29431644082069397, 0.13623443245887756, -0.12764251232147217, -0.18566599488258362]}, "bias": {"shape": [8], "values": [-0.0446716845035553, 0.31133154034614563, -0.2904461622238159, -0.28001081943511963, 0.18277010321617126, -0.3056721091270447, -0.15160201489925385, 0.09327450394630432]}}, "output_linear": {"weight": {"shape": [11, 8], "values": [0.14608564972877502, 0.08102971315383911, 0.10668593645095825, 0.09665626287460327, 0.025139302015304565, 0.19718387722969055, -0.2481042444705963, 0.3479459583759308, -0.12177981436252594, -0.347118616104126, 0.27306708693504333, -0.1214955747127533, -0.012160122394561768, -0.1535027027130127, -0.30579909682273865, -0.27796226739883423, -0.35301676392555237, -0.2846946716308594, 0.05542486906051636, -0.06674683094024658, -0.31659194827079773, -0.01916298270225525, 0.30841973423957825, -0.15775418281555176, -0.08831194043159485, 0.03150680661201477, 0.02831849455833435, -0.08413198590278625, 0.021353155374526978, -0.0034384727478027344, 0.009342610836029053, 0.3337022364139557, 0.34474703669548035, -0.1400994509458542, -0.10307824611663818, 0.3174440562725067, 0.3427712023258209, 0.015138417482376099, -0.30368712544441223, 0.04296994209289551, 0.28469178080558777, -0.3053148090839386, 0.2010515034198761, 0.07094767689704895, -0.17040669918060303, 0.2855958044528961, 0.13955169916152954, -0.323358952999115, 0.3035760819911957, 0.13853952288627625, 0.14156848192214966, -0.06041964888572693, -0.03370031714439392, -0.1173863410949707, -0.061997830867767334, 0.186136394739151, 0.24243995547294617, 0.21872708201408386, -0.06315410137176514, -0.19511465728282928, 0.008324086666107178, -0.14780882000923157, 0.25422319769859314, -0.2357024848461151, -0.1774405539035797, 0.10967305302619934, 0.004466265439987183, 0.005697786808013916, -0.24023926258087158, 0.17869409918785095, -0.11360880732536316, 0.32481977343559265, 0.33806857466697693, 0.29351934790611267, 0.09980997443199158, 0.2587157189846039, 0.05697527527809143, -0.19132502377033234, 0.34778228402137756, -0.23505613207817078, 0.23891118168830872, -0.33104124665260315, -0.15386688709259033, -0.10860909521579742, -0.09961074590682983, 0.23968926072120667, 0.16730669140815735, -0.06968998908996582]}, "bias": {"shape": [11], "values": [0.10114261507987976, -0.33123779296875, -0.32383057475090027, -0.05432865023612976, 0.2957593500614166, -0.35005494952201843, -0.2586246430873871, 0.30523231625556946, -0.20914998650550842, -0.12068143486976624, 0.2149793803691864]}}, "hidden_linear.0": {"weight": {"shape": [8, 8], "values": [0.0212801992893219, 0.27004745602607727, -0.07537403702735901, -0.3434136211872101, -0.031367719173431396, 0.053851574659347534, -0.036456018686294556, -0.1287504881620407, -0.021365702152252197, -0.047925591468811035, 0.3155032694339752, -0.25963544845581055, -0.02308925986289978, -0.1530161052942276, 0.00550919771194458, 0.2011917531490326, -0.150840625166893, -0.14705675840377808, 0.32391050457954407, -0.14611464738845825, 0.2397739589214325, 0.08263340592384338, -0.06776171922683716, -0.024651646614074707, -0.33785438537597656, -0.013722479343414307, -0.11547009646892548, -0.1210688054561615, 0.08662796020507812, 0.03545880317687988, 0.02975490689277649, -0.04199811816215515, 0.35063865780830383, -0.24642162024974823, 0.11907994747161865, 0.21348699927330017, -0.16929827630519867, 0.32227209210395813, 0.15945765376091003, 0.2959003150463104, -0.2713596820831299, 0.13309255242347717, 0.12303921580314636, -0.19090397655963898, -0.20240631699562073, 0.11694759130477905, 0.3232199251651764, -0.13013893365859985, 0.22757336497306824, 0.3141007125377655, 0.34086671471595764, -0.1538597196340561, 0.23170211911201477, -0.13775663077831268, -0.2466350495815277, 0.2644139230251312, 0.09870180487632751, 0.33110031485557556, -0.32110729813575745, -0.03304678201675415, -0.10896928608417511, -0.3070105314254761, -0.10400240123271942, -0.2661925256252289]}, "bias": {"shape": [8], "values": [0.2958419620990753, 0.023926883935928345, 0.13857421278953552, -0.26360729336738586, -0.27915555238723755, 0.2773663103580475, -0.1105663925409317, 0.2670062482357025]}}, "hidden_linear.1": {"weight": {"shape": [8, 8], "values": [0.08876386284828186, -0.07949796319007874, 0.3406858742237091, -0.17934036254882812, 0.0037429332733154297, 0.08569368720054626, -0.3291488289833069, 0.34977003931999207, 0.3071342408657074, -0.04537820816040039, -0.1593048870563507, -0.15842494368553162, 0.19892176985740662, -0.2442488670349121, 0.00998687744140625, -0.20573481917381287, 0.27255287766456604, -0.20799574255943298, 0.02080249786376953, 0.1661120355129242, -0.3047887086868286, 0.13147148489952087, 0.22452643513679504, -0.22738434374332428, 0.07272237539291382, 0.23295918107032776, -0.22330576181411743, -0.34625911712646484, -0.13211148977279663, -0.08697038888931274, 0.28943148255348206, 0.2547837793827057, 0.21019688248634338, -0.01802089810371399, -0.3249664902687073, 0.23672255873680115, 0.10332539677619934, -0.15817101299762726, -0.13682350516319275, 0.22960153222084045, -0.0934869647026062, -0.2523733079433441, -0.14925917983055115, 0.10597509145736694, -0.06420621275901794, 0.30481061339378357, -0.3465748429298401, -0.19080471992492676, -0.3397129476070404, 0.337995320558548, -0.3457028567790985, 0.3479735553264618, 0.20809385180473328, 0.049661219120025635, 0.2879321873188019, -0.02712559700012207, -0.12441994249820709, -0.16187377274036407, 0.29010793566703796, -0.313271701335907, 0.20182892680168152, -0.34670886397361755, -0.10929393768310547, -0.09391874074935913]}, "bias": {"shape": [8], "values": [0.12457579374313354, -0.2767448425292969, -0.004925966262817383, -0.10203805565834045, -0.3431362509727478, -0.30203649401664734, -0.05383530259132385, 0.1707341969013214]}}, "hidden_linear.2": {"weight": {"shape": [8, 8], "values": [0.17288663983345032, 0.20659139752388, -0.2929527461528778, 0.19227394461631775, -0.3482009470462799, 0.14866963028907776, 0.19069579243659973, -0.26256027817726135, -0.27831169962882996, -0.2973766624927521, -0.022437214851379395, -0.15467917919158936, 0.07423913478851318, -0.2546383738517761, -0.2435786873102188, -0.13191643357276917, 0.32380548119544983, -0.26408112049102783, 0.08913692831993103, -0.24236418306827545, 0.1085675060749054, -0.05548080801963806, -0.10127052664756775, -0.02607068419456482, 0.22560611367225647, 0.17514029145240784, -0.04298922419548035, -0.0742405354976654, -0.09274637699127197, -0.02608102560043335, -0.06355440616607666, -0.27728351950645447, 0.0991707444190979, -0.23368942737579346, -0.09589487314224243, -0.26207301020622253, 0.075540691614151, 0.3023081123828888, 0.19830861687660217, -0.29043489694595337, -0.23516862094402313, 0.16539934277534485, 0.015372544527053833, 0.0115165114402771, -0.0050036609172821045, 0.21437588334083557, 0.02385801076889038, 0.3513001501560211, 0.2590813934803009, -0.26640456914901733, 0.07505393028259277, -0.10495568811893463, 0.10696521401405334, -0.34824931621551514, 0.22658583521842957, -0.03385484218597412, -0.09034952521324158, 0.3360344469547272, -0.2718348503112793, 0.09159937500953674, 0.18208160996437073, 0.10554763674736023, 0.10691305994987488, -0.10948115587234497]}, "bias": {"shape": [8], "values": [0.05282491445541382, -0.14050675928592682, -0.05016419291496277, 0.23807445168495178, 0.05414634943008423, 0.19891491532325745, 0.1622384488582611, 0.24162378907203674]}}}