{"hidden_size": 8, "num_hidden_layers": 3, "direct_linear": {"weight": {"shape": [11, 7], "values": [-0.11964687705039978, 0.3704487383365631, -0.344992071390152, -0.19868473708629608, 0.012018650770187378, 0.279493123292923, 0.08139821887016296, -0.09269979596138, 0.05398562550544739, -0.11310786008834839, -0.1436559110879898, -0.2996463179588318, 0.2212618887424469, 0.32882770895957947, -0.2735397219657898, 0.31256237626075745, -0.030664414167404175, -0.047200173139572144, -0.1444902867078781, -0.18883246183395386, 0.3061673939228058, -0.21094146370887756, 0.015045315027236938, -0.1622033566236496, 0.36742934584617615, -0.31124934554100037, -0.14846190810203552, -0.007106870412826538, -0.12227112054824829, -0.019373655319213867, -0.06509628891944885, 0.2746025025844574, 0.0307481586933136, -0.008669078350067139, 0.013853579759597778, -0.2644255459308624, -0.3704334795475006, -0.17389129102230072, -0.19691625237464905, 0.26182588934898376, -0.32742127776145935, 0.3138141334056854, -0.26874902844429016, -0.10150521993637085, 0.04944729804992676, 0.26131299138069153, 0.12676945328712463, -0.28542494773864746, 0.17166468501091003, 0.3437660038471222, -0.3283425569534302, -0.22617487609386444, -0.017016351222991943, 0.37727120518684387, -0.24241499602794647, -0.2966475188732147, 0.2859177887439728, 0.3216142952442169, -0.002030491828918457, -0.04755359888076782, 0.23560592532157898, -0.3748038709163666, 0.32926687598228455, 0.021709173917770386, 0.1630399525165558, 0.026233822107315063, -0.0510789155960083, 0.1725463569164276, -0.19690877199172974, 0.31145158410072327, -0.027740806341171265, -0.19404153525829315, 0.27207496762275696, -0.15852220356464386, 0.0036010444164276123, -0.09357944130897522, -0.02333778142929077]}}, "input_linear": {"weight": {"shape": [8, 7], "values": [-0.12200960516929626, 0.2746957242488861, 0.009563714265823364, 0.06153184175491333, -0.06262436509132385, -0.04929429292678833, 0.07936695218086243, -0.13815951347351074, 0.28560253977775574, 0.19358816742897034, 0.3467165529727936, -0.27987241744995117, -0.28473931550979614, -0.2266400009393692, -0.10466963052749634, 0.16648027300834656, -0.21193015575408936, -0.33015331625938416, 0.35279592871665955, 0.10070255398750305, 0.16184750199317932, 0.35422614216804504, 0.07020533084869385, 0.06564062833786011, 0.13854452967643738, -0.1852291375398636, 0.23963859677314758, -0.266189843416214, -0.3374226987361908, 0.3694949448108673, -0.19806808233261108, 0.269218772649765, 0.21692004799842834, -0.20006315410137177, 0.12288954854011536, 0.09105521440505981, 0.07584577798843384, -0.007913917303085327, 0.26192447543144226, -0.2148691713809967, -0.35878270864486694, 0.14994516968727112, 0.09601336717605591, -0.29627543687820435, -0.1435908079147339, 0.18377146124839783, -0.003974735736846924, 0.12144941091537476, 0.2477787435054779, -0.36604443192481995, -0.15840569138526917, 0.14381787180900574, 0.13731983304023743, 0.37663671374320984, 0.09408637881278992, -0.06902876496315002]}, "bias": {"shape": [8], "values": [-0.045057594776153564, -0.13722342252731323, 0.2058183252811432, -0.3086562156677246, -0.31260329484939575, -0.1964123398065567, -0.2061028927564621, 0.23416587710380554]}}, "output_linear": {"weight": {"shape": [11, 8], "values": [0.15571638941764832, 0.29288771748542786, -0.18217836320400238, 0.04734894633293152, -0.014395982027053833, -0.04471173882484436, -0.2890462279319763, -0.18961524963378906, 0.24525293707847595, -0.07349202036857605, -0.0036852657794952393, -0.1664385348558426, 0.32253286242485046, 0.09700435400009155, -0.014866679906845093, 0.16048619151115417, 0.30740442872047424, -0.04756423830986023, -0.03349781036376953, -0.10217520594596863, -0.1853909194469452, -0.26950958371162415, -0.34918802976608276, 0.09155479073524475, 0.3426363170146942, 0.3373585641384125, 0.11243584752082825, -0.13989777863025665, -0.0850222110748291, -0.052918076515197754, -0.33962932229042053, -0.2356671690940857, 0.11915799975395203, -0.33332541584968567, -0.21246765553951263, -0.12728166580200195, 0.10520187020301819, 0.31347373127937317, 0.31898853182792664, 0.1325603425502777, 0.2135465443134308, -0.16052019596099854, -0.1922929733991623, -0.32941532135009766, -0.17732279002666473, -0.1273416429758072, -0.2883521318435669, -0.2230633646249771, 0.03854215145111084, -0.010595589876174927, 0.3134618103504181, -0.18822285532951355, 0.23824027180671692, -0.26390767097473145, 0.03166353702545166, 0.004387229681015015, -0.23489592969417572, -0.09489080309867859, -0.22210057079792023, -0.3051682114601135, 0.10657483339309692, -0.28918302059173584, -0.049402862787246704, 0.2839747965335846, -0.002310335636138916, -0.08476153016090393, 0.2527064383029938, 0.16512605547904968, 0.3281901180744171, -0.12584209442138672, 0.02146601676940918, 0.25384584069252014, 0.18849584460258484, 0.3263249695301056, -0.3055073320865631, 0.14447656273841858, -0.0383429229259491, 0.1268184781074524, 0.335239976644516, 0.2954109013080597, -0.11069174110889435, -0.09772518277168274, 0.0249750018119812, -0.32593485713005066, -0.2567429542541504, 0.0804208517074585, 0.32083311676979065, 0.32363268733024597]}, "bias": {"shape": [11], "values": [0.26025131344795227, 0.26810190081596375, 0.2945050299167633, 0.042492955923080444, -0.3232502341270447, 0.25936630368232727, -0.14865252375602722, 0.23574450612068176, 0.30013373494148254, -0.006251215934753418, -0.28971076011657715]}}, "hidden_linear.0": {"weight": {"shape": [8, 8], "values": [-0.013736069202423096, 0.1626160442829132, -0.11037681996822357, -0.07333630323410034, 0.3531874716281891, -0.020560413599014282, -0.32698991894721985, -0.028917580842971802, 2.8312206268310547e-06, -0.3049834072589874, 0.007334232330322266, -0.35240307450294495, 0.002877146005630493, 0.005403339862823486, 0.05623379349708557, -0.1541922688484192, -0.287249892950058, -0.19125881791114807, -0.23885023593902588, -0.09064522385597229, -0.07245710492134094, 0.1423783004283905, 0.22606149315834045, 0.09950196743011475, 0.24010899662971497, 0.19379547238349915, -0.05310940742492676, 0.15593788027763367, 0.17886915802955627, 0.11238035559654236, -0.04294174909591675, -0.04885590076446533, 0.20726755261421204, 0.3414323627948761, -0.011517554521560669, -0.06401464343070984, 0.11888667941093445, 0.18125101923942566, -0.16484786570072174, -0.3065566122531891, 0.20589062571525574, 0.11153796315193176, -0.3102964162826538, 0.03851071000099182, -0.08371615409851074, -0.1422664374113083, -0.037481606006622314, 0.12584930658340454, -0.10348087549209595, -0.27713316679000854, 0.35131052136421204, 0.14966937899589539, -0.3106091618537903, 0.09855234622955322, -0.2736155390739441, -0.13758927583694458, 0.19613149762153625, 0.07780838012695312, -0.3194214403629303, -0.23851698637008667, -0.23666609823703766, 0.21837159991264343, -0.3457050621509552, 0.29251179099082947]}, "bias": {"shape": [8], "values": [-0.1809159815311432, -0.2931896448135376, -0.07214576005935669, 0.003255307674407959, -0.09688502550125122, 0.22669324278831482, -0.1782541126012802, 0.17161157727241516]}}, "hidden_linear.1": {"weight": {"shape": [8, 8], "values": [0.34069713950157166, -0.1003132164478302, 0.3115406334400177, 0.10772398114204407, -0.03520965576171875, 0.09170421957969666, 0.09085941314697266, 0.1688310205936432, -0.2772406339645386, 0.05777826905250549, -0.01475745439529419, -0.3484437167644501, 0.0673082172870636, -0.10381637513637543, 0.0036912262439727783, 0.1842537820339203, 0.12805059552192688, -0.13099661469459534, -0.19859637320041656, -0.2515466809272766, 0.12051445245742798, 0.016933977603912354, 0.13816335797309875, 0.09908172488212585, -0.17080482840538025, -0.02452412247657776, 0.3372221291065216, 0.3271140158176422, 0.041838884353637695, -0.12289810180664062, -0.053186655044555664, 0.20507284998893738, 0.1304578185081482, 0.017168521881103516, 0.28831830620765686, -0.15215779840946198, -0.173014834523201, 0.05384722352027893, 0.047539860010147095, -0.16635605692863464, -0.1719145029783249, 0.25928643345832825, -0.061008602380752563, 0.3183577358722687, 0.32147863507270813, -0.26927515864372253, -0.34931209683418274, -0.294644832611084, 0.2589236795902252, 0.1739012897014618, -0.06464517116546631, -0.3216164708137512, -0.3244916498661041, -0.28015127778053284, 0.20557096600532532, 0.09826481342315674, 0.2037058174610138, 0.3497145473957062, 0.22326645255088806, -0.32212984561920166, -0.20434722304344177, -0.21069149672985077, 0.15089812874794006, 0.04416897892951965]}, "bias": {"shape": [8], "values": [0.13035079836845398, -0.019218385219573975, -0.31967735290527344, -0.0465470552444458, -0.07387715578079224, 0.22153988480567932, -0.17552366852760315, 0.3329080641269684]}}, "hidden_linear.2": {"weight": {"shape": [8, 8], "values": [0.1711510717868805, -0.21622693538665771, -0.31829774379730225, 0.034014105796813965, 0.18133190274238586, -0.2493259161710739, 0.13461631536483765, 0.04376453161239624, -0.10062101483345032, -0.23681938648223877, -0.22792965173721313, -0.2681027948856354, -0.1252884566783905, -0.19789159297943115, 0.09334787726402283, 0.32056334614753723, 0.22772052884101868, 0.26107069849967957, 0.12050467729568481, -0.26233726739883423, 0.10668474435806274, 0.2823479473590851, -0.005650132894515991, -0.19180473685264587, -0.30626562237739563, -0.30544722080230713, 0.17783787846565247, 0.2973252832889557, -0.13827554881572723, 0.017064154148101807, -0.19235260784626007, -0.03612995147705078, -0.03514811396598816, 0.12016010284423828, -0.05643942952156067, 0.15515676140785217, 0.017047256231307983, 0.23965278267860413, 0.07110151648521423, -0.21705032885074615, 0.26261404156684875, 0.08759075403213501, -0.14147883653640747, 0.24560925364494324, 0.2400987446308136, -0.3457472324371338, 0.2427767813205719, -0.1012544333934784, -0.15304034948349, 0.2596948444843292, 0.1660960614681244, 0.10598200559616089, 0.27056214213371277, 0.21893230080604553, -0.1920282393693924, -0.22478583455085754, -0.1344786286354065, 0.09866467118263245, -0.2381933629512787, -0.2408791482448578, -0.29141101241111755, 0.0174235999584198, -0.20599980652332306, -0.31297236680984497]}, "bias": {"shape": [8], "values": [0.20541593432426453, -0.2048519253730774, -0.28773754835128784, -0.07406184077262878, 0.08188962936401367, 0.1669587790966034, 0.2865470349788666, -0.31718701124191284]}}}