{"hidden_size": 8, "num_hidden_layers": 3, "direct_linear": {"weight": {"shape": [11, 7], "values": [-0.06305795907974243, 0.04737961292266846, 0.20422837138175964, 0.26020458340644836, -0.12853564321994781, 0.3040865361690521, 0.10494557023048401, 0.31859418749809265, 0.24096742272377014, 0.233419269323349, 0.14139673113822937, 0.2535863220691681, 0.028570622205734253, 0.3361711800098419, -0.15535417199134827, -0.0906878113746643, 0.1488170325756073, 0.2101750671863556, -0.1343929022550583, 0.01802477240562439, -0.014595240354537964, 0.2396029531955719, -0.0577581524848938, 0.32693997025489807, 0.00607791543006897, -0.21424151957035065, 0.07701554894447327, -0.147404745221138, -0.11218836903572083, -0.02677541971206665, -0.25280624628067017, 0.07746899127960205, 0.32643410563468933, -0.09445974230766296, 0.2304251492023468, -0.01918908953666687, -0.05172976851463318, 0.030156373977661133, -0.2414049655199051, -0.18833458423614502, -0.016387492418289185, -0.3253845274448395, 0.10442116856575012, -0.17317898571491241, 0.27116838097572327, -0.3362290859222412, 0.3314802944660187, 0.2338709533214569, 0.1786958873271942, -0.15341933071613312, 0.2292671501636505, -0.30858322978019714, 0.3281295597553253, 0.36269715428352356, 0.09439906477928162, -0.060961902141571045, 0.11297115683555603, -0.0522647500038147, 0.35420623421669006, -0.14248858392238617, 0.03993174433708191, -0.11303746700286865, 0.13416358828544617, 0.17596617341041565, -0.10373187065124512, -0.22524720430374146, -0.28873109817504883, -0.18587155640125275, -0.2664797902107239, 0.25531914830207825, 0.16353020071983337, -0.24474196135997772, 0.21612516045570374, 0.26812663674354553, -0.2052951604127884, 0.18614497780799866, -0.2380807101726532]}}, "input_linear": {"weight": {"shape": [8, 7], "values": [0.03999176621437073, 0.21226921677589417, 0.30242761969566345, 0.26630184054374695, 0.17239508032798767, 0.2736037075519562, -0.24481306970119476, -0.1397123634815216, 0.3085898458957672, 0.019282102584838867, 0.12162935733795166, 0.19618257880210876, -0.010044574737548828, -0.28031203150749207, 0.2704486548900604, 0.08552134037017822, 0.0744674801826477, 0.04035934805870056, 0.11298078298568726, 0.043598055839538574, -0.3763289451599121, 0.3641047179698944, -0.10413289070129395, -0.015979766845703125, 0.29020389914512634, -0.354042112827301, -0.2551238238811493, 0.027104943990707397, -0.16263887286186218, -0.23238593339920044, -0.30491775274276733, 0.2531498968601227, 0.20606419444084167, 0.03527805209159851, 0.17709079384803772, -0.24998418986797333, -0.16778522729873657, -0.25440841913223267, -0.3211819529533386, 0.31076279282569885, -0.02594912052154541, 0.2863210141658783, 0.32207491993904114, -0.31514599919319153, 0.3224734365940094, -0.07435876131057739, 0.03392750024795532, 0.135313481092453, -0.20845811069011688, -0.17588767409324646, -0.02466908097267151, 0.2438177764415741, 0.03468722105026245, -0.012952357530593872, -0.07049301266670227, 0.24426934123039246]}, "bias": {"shape": [8], "values": [0.3628254234790802, -0.2629181146621704, 0.35935619473457336, -0.2734771966934204, 0.011083751916885376, 0.3442137539386749, 0.198232501745224, 0.3581157624721527]}}, "output_linear": {"weight": {"shape": [11, 8], "values": [0.12698882818222046, -0.08978715538978577, 0.08627724647521973, 0.26499584317207336, -0.2868959605693817, -0.20007184147834778, 0.12449431419372559, 0.1594744622707367, -0.3376205265522003, -0.26816049218177795, 0.26393774151802063, 0.18878450989723206, 0.2560127079486847, -0.322942852973938, -0.17018282413482666, 0.34755703806877136, 0.311249703168869, 0.32637307047843933, 0.08123147487640381, 0.05833446979522705, 0.32087329030036926, -0.2209155261516571, -0.25030919909477234, 0.29416266083717346, 0.0174410343170166, -0.2536025941371918, -0.07473251223564148, -0.11599545180797577, -0.2652933597564697, -0.2012667953968048, -0.3293900489807129, -0.34136486053466797, 0.16659167408943176, 0.2691808044910431, 0.08721861243247986, -0.28921690583229065, -0.34514251351356506, 0.3079473078250885, 0.08691886067390442, -0.23269560933113098, -0.11518733203411102, -0.29746297001838684, -0.24227914214134216, -0.23482786118984222, 0.16650113463401794, 0.3221905529499054, 0.0709989070892334, -0.07789677381515503, 0.1769406497478485, 0.2508721649646759, -0.03482261300086975, -0.140120267868042, 0.043269187211990356, -0.03569769859313965, -0.3115319311618805, -0.3177838623523712, -0.18897175788879395, 0.18532118201255798, -0.2574704885482788, 0.3331574499607086, 0.20368441939353943, 0.2894519865512848, 0.30801305174827576, 0.07310295104980469, 0.11961561441421509, -0.3187258839607239, 0.04742482304573059, -0.08208638429641724, -0.10454525053501129, 0.3141096532344818, 0.2892859876155853, -0.34368523955345154, -0.3349184989929199, 0.08279460668563843, -0.32594114542007446, -0.23685403168201447, -0.19945034384727478, -0.2698611617088318, 0.06817036867141724, -0.041025370359420776, 0.3095131814479828, 0.17610082030296326, 0.1826860010623932, 0.13222965598106384, -0.09210962057113647, 0.15019389986991882, -0.27995800971984863, -0.3263972997665405]}, "bias": {"shape": [11], "values": [0.2902708351612091, -0.005298435688018799, -0.14146286249160767, -0.1884223371744156, -0.0529845654964447, 0.20612695813179016, -0.2705686688423157, -0.34785380959510803, -0.09394806623458862, -0.1202436089515686, -0.21829335391521454]}}, "hidden_linear.0": {"weight": {"shape": [8, 8], "values": [0.1539534628391266, -0.14896032214164734, 0.175083190202713, -0.34421563148498535, -0.18243882060050964, -0.041571468114852905, -0.025555729866027832, 0.2771248519420624, -0.1835954636335373, -0.03425019979476929, -0.22456733882427216, 0.21649232506752014, 0.11315363645553589, -0.30691805481910706, 0.11739504337310791, -0.01232677698135376, 0.253824919462204, -0.2214810997247696, 0.20017001032829285, -0.23598934710025787, -0.29039278626441956, 0.035485923290252686, 0.18480518460273743, 0.23540976643562317, 0.313014417886734, -0.052902430295944214, -0.11517506837844849, 0.02981230616569519, -0.19928723573684692, 0.19279852509498596, 0.2560407221317291, -0.349346399307251, -0.3530539870262146, 0.1555047333240509, 0.2849089205265045, 0.24722209572792053, 0.12450629472732544, -0.11722323298454285, 0.16149160265922546, 0.036035388708114624, 0.31141427159309387, -0.12852756679058075, -0.2975403070449829, -0.33425813913345337, -0.12657533586025238, -0.2178923338651657, 0.14822247624397278, 0.2557297646999359, -0.18741001188755035, 0.25746604800224304, -0.11874823272228241, -0.1285991370677948, 0.2764066755771637, 0.1377640664577484, 0.18125304579734802, 0.010114878416061401, 0.3010624945163727, -0.04108664393424988, 0.23104998469352722, -0.06356090307235718, -0.01406887173652649, -0.04909577965736389, 0.22741684317588806, -0.24511313438415527]}, "bias": {"shape": [8], "values": [0.0023012161254882812, -0.3441891670227051, 0.05803561210632324, 0.1429864764213562, -0.16241882741451263, -0.14659622311592102, -0.02320602536201477, 0.15269318222999573]}}, "hidden_linear.1": {"weight": {"shape": [8, 8], "values": [-0.3303728997707367, 0.2679634392261505, -0.0970579981803894, 0.17054560780525208, 0.2748543918132782, -0.18318140506744385, -0.32069703936576843, -0.12943482398986816, 0.20596882700920105, 0.13739311695098877, 0.11895054578781128, -0.07957884669303894, -0.159649059176445, 0.2568860352039337, -0.23427531123161316, -0.08801129460334778, 0.12192085385322571, 0.038449227809906006, -0.13704811036586761, -0.18062566220760345, -0.1872824728488922, 0.058664411306381226, -0.09248235821723938, 0.2979141175746918, 0.21440955996513367, 0.07396844029426575, 0.022095531225204468, -0.023685693740844727, -0.23448875546455383, 0.024815768003463745, -0.2691112160682678, 0.04530736804008484, 0.1433754563331604, -0.002878427505493164, 0.28056707978248596, 0.16696664690971375, -0.32188281416893005, -0.02608916163444519, 0.17075207829475403, -0.07920268177986145, -0.24253934621810913, 0.16293880343437195, 0.13479125499725342, 0.06494119763374329, 0.21703484654426575, -0.2527335286140442, 0.2548724114894867, -0.06044778227806091, 0.17163416743278503, -0.013749897480010986, -0.13613343238830566, 0.1704098880290985, -0.3107396364212036, 0.19250229001045227, -0.22711637616157532, -0.114246666431427, -0.26402658224105835, 0.22607001662254333, 0.09446415305137634, -0.10066786408424377, -0.1965962052345276, -0.1662464290857315, -0.18892669677734375, -0.06250959634780884]}, "bias": {"shape": [8], "values": [-0.27323728799819946, 0.0679481029510498, -0.2517242431640625, -0.009318709373474121, -0.16141724586486816, -0.14046600461006165, 0.3034237325191498, 0.015879511833190918]}}, "hidden_linear.2": {"weight": {"shape": [8, 8], "values": [0.2960386574268341, 0.03439605236053467, -0.18097300827503204, 0.2957055866718292, 0.06095191836357117, -0.09933164715766907, 0.22939321398735046, 0.12811234593391418, 0.05651932954788208, 0.29995307326316833, -0.33003324270248413, 0.050124287605285645, 0.29740604758262634, -0.0527377724647522, -0.2509823441505432, 0.30353841185569763, 0.013402611017227173, -0.1135006994009018, 0.11967086791992188, -0.2956872284412384, 0.2919527590274811, -0.30178120732307434, -0.3151879906654358, 0.058101922273635864, -0.1434410661458969, 0.24308952689170837, -0.02034667134284973, 0.30241474509239197, -0.03877139091491699, 0.05976322293281555, -0.05550795793533325, -0.30060648918151855, 0.10429266095161438, 0.21178963780403137, -0.0854182243347168, -0.06250301003456116, -0.11738891899585724, -0.3198300898075104, -0.2668408453464508, 0.2352483570575714, 0.3201299011707306, -0.24400736391544342, 0.3211304247379303, -0.13642138242721558, -0.21051464974880219, 0.17646118998527527, -0.28834542632102966, -0.1946357935667038, -0.33308905363082886, 0.3421659767627716, -0.1189102977514267, -0.29729101061820984, 0.33783337473869324, -0.2903384566307068, -0.23743578791618347, -0.35100671648979187, 0.007497072219848633, 0.22289660573005676, 0.12985295057296753, 0.006188154220581055, -0.18420962989330292, -0.17279331386089325, 0.34756049513816833, 0.24678567051887512]}, "bias": {"shape": [8], "values": [-0.10946156084537506, -0.3420129418373108, -0.020092278718948364, -0.020088672637939453, -0.2672465443611145, -0.2704744040966034, 0.024606436491012573, -0.1721169799566269]}}}