{"config": {"model_type": "ResGRU", "norm_mean": 0.10000000149011612, "norm_std": 0.8999999761581421}, "meta_data": {}, "parameters": {"input_size": 1, "output_size": 1, "hidden_size": 64, "ps_hidden_size": 8, "ps_num_hidden_layers": 3}, "state_dict": {"rnn": {"weight_hh_l0": {"shape": [192, 64], "values": [-0.002742260694503784, 0.06267309188842773, -0.029148802161216736, 0.11553797125816345, -0.04775330424308777, -0.0843275636434555, -0.09588168561458588, 0.026902899146080017, -0.022785499691963196, -0.10762177407741547, 0.10730791091918945, 0.0792108029127121, -0.04365043342113495, 0.08598156273365021, -0.0816040188074112, -0.11889845132827759, 0.009600892663002014, 0.08961297571659088, 0.054764747619628906, 0.07326211035251617, -0.08003848791122437, -0.10110105574131012, 0.09381558001041412, 0.005684345960617065, 0.10558141767978668, 0.05286909639835358, 0.008533209562301636, 0.05516792833805084, -0.00832165777683258, -0.023371562361717224, 0.07188606262207031, -0.08558608591556549, 0.05599530041217804, -0.029767274856567383, -0.04647752642631531, -0.05069756507873535, -0.010941699147224426, -0.0009262263774871826, 0.04929846525192261, 0.07134957611560822, 0.07816237211227417, 0.07831400632858276, -0.025569334626197815, 0.06150205433368683, 0.10834771394729614, -0.01120731234550476, -0.09235210716724396, 0.04538103938102722, 0.12485328316688538, -0.034611329436302185, -0.011868253350257874, -0.0660509467124939, 0.01816132664680481, -0.11045196652412415, 0.037979185581207275, -0.05578647553920746, -0.05104093253612518, -0.055607184767723083, -0.06615538895130157, 0.03553082048892975, -0.10835817456245422, 0.11748065054416656, -0.024936527013778687, 0.01266913115978241, -0.037265777587890625, -0.0012696683406829834, 0.022105872631072998, -0.037740692496299744, -0.03121308982372284, 0.023266583681106567, 0.07667297124862671, -0.10586194694042206, -0.029048115015029907, -0.086408331990242, 0.012861177325248718, -0.12221434712409973, -0.111890509724617, -0.006687730550765991, -0.04216323792934418, -0.023226112127304077, -0.12138566374778748, 0.013207882642745972, 0.0064480602741241455, -0.01595783233642578, 0.03243860602378845, -0.10100802779197693, 0.03164951503276825, -0.11446075141429901, 0.023972555994987488, 0.031081244349479675, 0.10313713550567627, 0.06870752573013306, 0.030141130089759827, 0.01258862018585205, -0.04545071721076965, -0.06294530630111694, -0.009757354855537415, 0.0972747951745987, -0.1194668859243393, 0.04649738967418671, 0.0438188761472702, -0.03500746190547943, 0.04703761637210846, -0.09515061974525452, -0.0023379623889923096, -0.03496268391609192, 0.023136824369430542, -0.10206852853298187, -0.10047446191310883, 0.02458137273788452, -0.06340733170509338, -0.04996137320995331, -0.0032914429903030396, 0.06674601137638092, 0.06926783919334412, -0.02414560317993164, 0.04573890566825867, 0.10240902006626129, -0.05910235643386841, -0.08848455548286438, 0.0806630551815033, -0.10446517169475555, -0.07081177830696106, -0.07677404582500458, -0.11165246367454529, -0.11874078214168549, 0.012831956148147583, 0.039497703313827515, -0.12429966032505035, 0.06622163951396942, -0.0009989738464355469, 0.12394843995571136, 0.01692470908164978, 0.09915554523468018, -0.00741007924079895, -0.10159075260162354, -0.07739327847957611, -0.09356603026390076, -0.02006012201309204, -0.055498674511909485, 0.07472854852676392, -0.08956843614578247, -0.012446507811546326, -0.11941362917423248, -0.039885014295578, 0.10249398648738861, -0.10063000023365021, 0.06711100041866302, 0.035715460777282715, 0.10620501637458801, -0.006563946604728699, 0.015581980347633362, -0.07037849724292755, -0.03601185977458954, 0.031731411814689636, 0.004782348871231079, -0.02052593231201172, -0.041079357266426086, 0.06794843077659607, 0.03392672538757324, -0.08966593444347382, -0.09797744452953339, -0.002676829695701599, 0.08084434270858765, 0.06610843539237976, -0.06162850558757782, -0.009405627846717834, 0.025003910064697266, 0.08478975296020508, 0.08432802557945251, 0.10814593732357025, 0.06966295838356018, -0.023792877793312073, -0.038723766803741455, -0.026379451155662537, -0.1029602587223053, -0.06742025911808014, -0.011801302433013916, 0.07789371907711029, -0.1133187860250473, 0.07084023952484131, -0.04102557897567749, -0.10623353719711304, -0.02253381907939911, -0.02636079490184784, -0.026994630694389343, -0.02582523226737976, 0.0464499294757843, -0.0904308557510376, 0.022815555334091187, 0.013243257999420166, -0.06057564914226532, 0.03294646739959717, -0.10362288355827332, 0.04723019897937775, -0.06544148921966553, -0.04434676468372345, -0.023385167121887207, -0.04350593686103821, -0.05291266739368439, -0.11854098737239838, -0.019292965531349182, 0.10575607419013977, -0.08256930112838745, -0.12491306662559509, -0.04910014569759369, 0.009828656911849976, 0.0928989052772522, 0.11794209480285645, -0.09198158979415894, -0.08626364171504974, 0.07263554632663727, 0.09307940304279327, 0.0419967919588089, -0.06255096197128296, -0.004682227969169617, -0.023517176508903503, 0.04400599002838135, -0.0999719649553299, 0.022307708859443665, 0.11663857102394104, 0.016481861472129822, -0.07311640679836273, -0.009277969598770142, 0.09465144574642181, -0.004917830228805542, -0.09077095985412598, 0.11494685709476471, 0.035398930311203, 0.0477365106344223, -0.050291284918785095, 0.1000068336725235, 0.036741018295288086, -0.021612226963043213, -0.07059195637702942, 0.09332111477851868, 0.05743424594402313, 0.03756353259086609, -0.08677077293395996, -0.012539267539978027, -0.038412243127822876, 0.10460813343524933, -0.10080665349960327, 0.007673546671867371, -0.009717792272567749, 0.031886711716651917, 0.10258010029792786, -0.06091530621051788, 0.007800042629241943, 0.07750202715396881, -0.03330965340137482, -0.11049363017082214, 0.029874160885810852, 0.011042296886444092, 0.04381263256072998, -0.0675380676984787, -0.03580096364021301, 0.0867767184972763, -0.0601542592048645, 0.05340203642845154, -0.05406486988067627, 0.009944945573806763, -0.09242179989814758, 0.09487228095531464, -0.08877041935920715, 0.0007693171501159668, 0.027371108531951904, -0.09814642369747162, 0.07928234338760376, 0.01077944040298462, -0.08632226288318634, -0.10628798604011536, -0.09959544241428375, 0.07991760969161987, -0.08775238692760468, -0.058260753750801086, 0.00028412044048309326, 0.0010582953691482544, -0.07375386357307434, 0.00979413092136383, -0.07915487885475159, 0.11887811124324799, -0.06313785910606384, -0.02214255928993225, -0.0886211097240448, -0.014125660061836243, -0.005956247448921204, 0.008404001593589783, -0.05846048891544342, -0.054500460624694824, 0.08916443586349487, -0.06344321370124817, -0.07868847250938416, 0.08391788601875305, 0.12218263745307922, -0.011227250099182129, -0.01897309720516205, 0.0029921382665634155, -0.017559871077537537, -0.009187251329421997, -0.022315457463264465, 0.0321749746799469, -0.09001336991786957, -0.0867682695388794, 0.01121075451374054, -0.01607702672481537, 0.098329558968544, -0.09809556603431702, -0.011529609560966492, -0.01896829903125763, -0.04734240472316742, 0.05677156150341034, 0.031178101897239685, 0.011883541941642761, -0.0074106305837631226, 0.12465763092041016, -0.11587640643119812, -0.1246536374092102, -0.03827837109565735, 0.01701633632183075, 0.06667591631412506, 0.1203063428401947, -0.08122804760932922, 0.0305720716714859, -0.010892093181610107, 0.09286050498485565, 0.08133548498153687, 0.09360246360301971, -0.02196677029132843, 0.10240717232227325, 0.046643346548080444, 0.03396932780742645, 0.08728322386741638, 0.12224358320236206, -0.10840946435928345, 0.011495321989059448, -0.12065231800079346, 0.08172036707401276, -0.07831984758377075, 0.11801306903362274, 0.0776885449886322, -0.042816564440727234, 0.07714679837226868, -0.09009619057178497, 0.011341720819473267, -0.11647480726242065, 0.11566051840782166, -0.08312594890594482, 0.006225869059562683, -0.09172052145004272, 0.09758004546165466, 0.003939598798751831, -0.022375568747520447, -0.04994247853755951, 0.02847912907600403, -0.07498905062675476, -0.027568668127059937, 0.010224670171737671, 0.040931448340415955, 0.08960025012493134, -0.0754309743642807, 0.009791553020477295, 0.05728055536746979, 0.05008305609226227, 0.04526284337043762, 0.014886096119880676, -0.1074678897857666, -0.019697532057762146, 0.07759852707386017, -0.12188278138637543, 0.05241654813289642, 0.010493040084838867, -0.12428051233291626, -0.04288969933986664, 0.12495052814483643, 0.046380043029785156, -0.07873372733592987, -0.025416240096092224, 0.07908506691455841, -0.09681344032287598, 0.0647217184305191, -0.03406205773353577, -0.05021335184574127, 0.014212369918823242, -0.025368764996528625, -0.07570704817771912, 0.10749843716621399, -0.039140865206718445, -0.08494497835636139, -0.09936577081680298, 0.11396025121212006, -0.003726974129676819, -0.034240588545799255, -0.04646234214305878, 0.041077375411987305, 0.007178515195846558, 0.024066448211669922, -0.04821087419986725, -0.09085926413536072, 0.07745864987373352, 0.10436798632144928, 0.02135242521762848, -0.0051782578229904175, 0.09891252219676971, 0.10509634017944336, 0.05642998218536377, 0.04803359508514404, 0.0026631951332092285, -0.05632494390010834, -0.10610435903072357, -0.013882637023925781, 0.12284617125988007, -0.11350312829017639, 0.060517385601997375, -0.05289450287818909, 0.09036223590373993, 0.0818854570388794, -0.04910391569137573, -0.08067041635513306, -0.013552427291870117, 0.06208537518978119, 0.08020810782909393, -0.04075276851654053, -0.06563781201839447, -0.0922374427318573, -0.1137976199388504, -0.08334217965602875, 0.09500755369663239, -0.11732372641563416, 0.12356646358966827, -0.017435863614082336, 0.027745336294174194, 0.08694593608379364, -0.07396982610225677, -0.050042495131492615, 0.11319795250892639, -0.05929046869277954, 0.10606034100055695, 0.03466379642486572, 0.07387223839759827, 0.10839004814624786, -0.040971145033836365, 0.061004698276519775, -0.11074091494083405, -0.09471762180328369, -0.07104383409023285, 0.09957358241081238, -0.03355439007282257, -0.02276305854320526, -0.03128911554813385, 0.0901603102684021, -0.09459586441516876, 0.08716945350170135, 0.059044986963272095, -0.10386635363101959, -0.0294530987739563, -0.04385192692279816, 0.10506990551948547, -0.0995316207408905, 0.029787316918373108, -0.0298214852809906, -0.09456653892993927, 0.0009331405162811279, 0.09942467510700226, -0.10072533786296844, 0.06341594457626343, 0.031238645315170288, -0.08469478785991669, 0.11580024659633636, -0.12159080803394318, -0.11790698766708374, 0.015662580728530884, 0.12276287376880646, -0.11608278751373291, -0.12376178801059723, -0.07588404417037964, 0.03397354483604431, 0.03398844599723816, -0.1093972772359848, 0.07014496624469757, 0.11936791241168976, 0.017281383275985718, 0.11168977618217468, 0.048364296555519104, -0.09231998026371002, -0.02809847891330719, -0.0647539496421814, -0.12047071754932404, -0.10700614750385284, -0.07479505240917206, 0.09119544923305511, 0.05522067844867706, -0.07487364113330841, 0.09792575240135193, -0.07821418344974518, -0.029959022998809814, 0.05160859227180481, -0.016538947820663452, 0.11008521914482117, 0.12328892946243286, 0.03618517518043518, -0.03589576482772827, 0.06214560568332672, -0.10641956329345703, 0.06823539733886719, 0.1202368289232254, 0.11873047053813934, -0.004777446389198303, -0.0896901786327362, -0.023900389671325684, 0.09955710172653198, -0.07602028548717499, -0.00629638135433197, 0.0037294775247573853, 0.027600154280662537, -0.035307541489601135, 0.058877646923065186, -0.061377257108688354, -0.10836124420166016, -0.06611427664756775, 0.0870620608329773, -0.03032110631465912, 0.006601065397262573, -0.06659458577632904, -0.016801416873931885, -0.1200249046087265, 0.08192074298858643, 0.029997363686561584, 0.039421871304512024, 0.04123854637145996, -0.08684420585632324, 0.12395867705345154, 0.07525584101676941, 0.04813031852245331, -0.01865382492542267, 0.04016871750354767, -0.06443130970001221, 0.07687097787857056, -0.013883531093597412, 0.04267919063568115, -0.07634350657463074, -0.05001038312911987, -0.07141639292240143, -0.12352684140205383, -0.12214590609073639, -0.06496775150299072, 0.087985560297966, 0.10305437445640564, -0.06038011610507965, 0.0725029855966568, -0.10710977017879486, 0.10676881670951843, 0.049443259835243225, 0.05854979157447815, 0.051350027322769165, -0.049556925892829895, -0.11244094371795654, -0.07518211007118225, -0.1232503205537796, -0.10639363527297974, 0.029639750719070435, 0.024255260825157166, -0.061130210757255554, 0.036035969853401184, 0.05027949810028076, -0.03924769163131714, -0.022039353847503662, 0.07997234165668488, -0.09991642832756042, 0.01072530448436737, -0.021601349115371704, 0.07273444533348083, -0.06906712055206299, -0.08299759030342102, -0.025000423192977905, 0.0796448141336441, 0.07569971680641174, 0.11681824922561646, -0.07804396748542786, 0.09228925406932831, -0.04548235237598419, -0.10473713278770447, 0.08751726150512695, 0.10016633570194244, -0.09300605952739716, -0.10074009001255035, 0.06465654075145721, -0.11330518126487732, 0.11855588853359222, -0.1180412620306015, 0.09396420419216156, 0.006084725260734558, -0.05664803087711334, -0.09512749314308167, -0.10589258372783661, 0.12173372507095337, -0.0638199895620346, 0.007121473550796509, 0.026459917426109314, -0.08067482709884644, 0.06643164157867432, -0.05477340519428253, -0.105735182762146, 0.06292955577373505, -0.06446376442909241, 0.10944175720214844, -0.038911014795303345, -0.10844270884990692, -0.02635316550731659, 0.02870810031890869, 0.006678655743598938, -0.035588353872299194, 0.008381649851799011, -0.10458046197891235, -0.057696133852005005, -0.026527822017669678, 0.08332699537277222, -0.07103563845157623, 0.03585810959339142, -0.11917765438556671, 0.06919138133525848, -0.10914653539657593, 0.07556013762950897, -0.06724467873573303, 0.051904916763305664, -0.11332887411117554, -0.0035498887300491333, -0.037770435214042664, -0.06121544539928436, -0.1237114667892456, -0.09888637065887451, -0.03733032941818237, 0.04855413734912872, 0.06094692647457123, -0.06339788436889648, 0.1233002245426178, -0.11235496401786804, -0.0418296754360199, -0.0034987330436706543, 0.0066843777894973755, 0.01492956280708313, -0.02480420470237732, 0.0771356076002121, -0.07790306210517883, 0.1018645167350769, -0.038451969623565674, 0.07241404056549072, 0.017781078815460205, 0.017262279987335205, 0.02006612718105316, 0.04671993851661682, -0.058114200830459595, 0.10475090146064758, 0.017761439085006714, -0.013276472687721252, 0.008658841252326965, -0.019480153918266296, -0.10439100861549377, 0.12486276030540466, 0.01595255732536316, -0.09911257028579712, -0.08375249803066254, 0.12135931849479675, 0.030652865767478943, 0.04405474662780762, -0.012470096349716187, 0.065432608127594, -0.03216148912906647, -0.0966530442237854, 0.09456607699394226, -0.0404791384935379, -0.021214157342910767, 0.1117381900548935, 0.030860424041748047, 0.045274898409843445, -0.023947179317474365, 0.08248189091682434, 0.021913886070251465, -0.11479434370994568, 0.0018872320652008057, -0.1078362911939621, -0.0929064154624939, -0.08615659177303314, -0.09787589311599731, -0.018598556518554688, -0.051858097314834595, 0.11438515782356262, -0.11664994060993195, -0.09667669236660004, 0.11895281076431274, 0.01735559105873108, 0.015513092279434204, -0.0512118935585022, 0.009402573108673096, 0.007121846079826355, -0.0795527994632721, -0.010977700352668762, -0.04921969771385193, -0.0329228937625885, -0.03403739631175995, -0.0903392881155014, -0.10527306795120239, -0.07813307642936707, 0.11429974436759949, -0.030190706253051758, 0.04941938817501068, 0.03509485721588135, 0.10911773145198822, -0.10234570503234863, 0.07408285140991211, -0.015472069382667542, 0.11122727394104004, 0.038697779178619385, -0.09658686816692352, -0.008718550205230713, -0.09916159510612488, -0.09463901817798615, 1.9252300262451172e-05, -0.02435268461704254, -0.022662773728370667, -0.11878426373004913, -0.10469430685043335, -0.10261432826519012, 0.10599726438522339, -0.11114321649074554, 0.009319156408309937, 0.10210251808166504, 0.06094200909137726, -0.026331916451454163, 0.03273704648017883, -0.07040776312351227, 0.043369367718696594, 0.08222392201423645, 0.11370199918746948, 0.0546211302280426, -0.07298904657363892, 0.0370403528213501, -0.058118730783462524, -0.06281992793083191, -0.11958485841751099, 0.05886611342430115, 0.05392995476722717, -0.08010196685791016, 0.053866371512413025, 0.07010690867900848, 0.12399652600288391, -0.06728187203407288, 0.06882426142692566, 0.11709040403366089, -0.058933526277542114, -0.05391259491443634, -0.10777175426483154, -0.08263340592384338, -0.11537598073482513, 0.10316908359527588, 0.01859895884990692, 0.09244044125080109, 0.028104886412620544, 0.09411309659481049, -0.03868405520915985, -0.03963346779346466, -0.07792820036411285, 0.1084280014038086, -0.07737599313259125, 0.08583474159240723, 0.10048523545265198, -0.05443109571933746, 0.10212096571922302, -0.08613961935043335, -0.06798245012760162, -0.11623318493366241, 0.10827893018722534, -0.041587382555007935, -0.10081920027732849, -0.031054601073265076, -0.08109159767627716, -0.1114412397146225, 0.011743947863578796, -0.04951663315296173, 0.11865946650505066, 0.064149409532547, -0.11263170838356018, 0.002010524272918701, 0.0191241055727005, -0.009049862623214722, 0.1225803792476654, -0.015717774629592896, 0.03389504551887512, -0.10746313631534576, -0.06447169184684753, 0.0013459771871566772, -0.030632272362709045, 0.08922074735164642, -0.07692611217498779, 0.09177222847938538, 0.09033866226673126, 0.11011648178100586, 0.07265041768550873, -0.08320239186286926, 0.006270512938499451, -0.10649442672729492, -0.07904566824436188, 0.004113331437110901, -0.03283831477165222, 0.09235356748104095, 0.035430699586868286, 0.0394214391708374, -0.01899614930152893, -0.0762966126203537, -0.06578223407268524, -0.0852278620004654, -0.10229921340942383, -0.11650200188159943, -0.00012065470218658447, 0.01000511646270752, 0.03324127197265625, 0.12041550874710083, -0.11296504735946655, 0.10804586112499237, 0.05287148058414459, -0.03652516007423401, 0.09226624667644501, 0.10330772399902344, -0.06402432918548584, 0.0004269629716873169, -0.05959600210189819, -0.015195056796073914, -0.0821399837732315, -0.08923585712909698, -0.017953798174858093, 0.07223343849182129, -0.12404802441596985, 0.08387766778469086, 0.12326791882514954, -0.10970534384250641, -0.03832621872425079, 0.002057686448097229, 0.06395865976810455, 0.0427643358707428, -0.09603218734264374, -0.10153201222419739, 0.08689633011817932, 0.02693895995616913, -0.023610785603523254, -0.11247317492961884, -0.0672159194946289, -0.009262770414352417, -0.04299585521221161, 0.048605963587760925, 0.08659449219703674, -0.012342408299446106, 0.04484611749649048, -0.10697618126869202, 0.04478226602077484, -0.08826293051242828, 0.02340608835220337, -0.029814571142196655, 0.08672440052032471, 0.018182232975959778, 0.06991389393806458, 0.05846601724624634, -0.12402911484241486, -0.0049660056829452515, 0.010468050837516785, -0.03089641034603119, -0.12484988570213318, 0.04378078877925873, -0.003399193286895752, -0.09079310297966003, -0.11088539659976959, -0.026435762643814087, -0.07129447162151337, 0.1101047694683075, -0.03927640616893768, 0.041712090373039246, -0.08644185960292816, 0.0568651407957077, 0.054952606558799744, 0.00127372145652771, 0.09036271274089813, 0.09784398972988129, -0.058242976665496826, -0.06627732515335083, 0.01573823392391205, -0.000302240252494812, 0.012000218033790588, -0.0887622982263565, -0.052208274602890015, -0.05599980056285858, -0.04455447196960449, -0.03732292354106903, -0.050959572196006775, 0.08606043457984924, -0.11449761688709259, 0.026317164301872253, 0.04697142541408539, 0.034926339983940125, 0.07099863886833191, -0.08942639827728271, -0.04305477440357208, -0.04534822702407837, 0.07055465877056122, 0.11358518898487091, 0.11505182087421417, 0.09240248799324036, -0.0811307281255722, 0.05824534595012665, 0.09042218327522278, 0.09878727793693542, -0.0960657000541687, -0.02651350200176239, 0.04526814818382263, 0.0149260014295578, 0.10261823236942291, -0.08706401288509369, 0.03838512301445007, -0.013608619570732117, -0.05845986306667328, 0.06144338846206665, -0.07026463747024536, 0.02288264036178589, 0.11550959944725037, 0.085823193192482, -0.034966155886650085, -0.011412322521209717, 0.11726459860801697, 0.09646216034889221, 0.04093647003173828, -0.038607195019721985, 0.1078101247549057, 0.12026923894882202, 0.12387028336524963, -0.08716395497322083, -0.017108231782913208, -0.08022402226924896, -0.055218979716300964, 0.05058082938194275, 0.061773881316185, 0.10823585093021393, 0.03388434648513794, 0.042906150221824646, -0.05219903588294983, 0.00022795796394348145, -0.0048942118883132935, 0.06828369200229645, 0.09415370225906372, -0.0017356127500534058, 0.050402089953422546, 0.10741187632083893, 0.10687707364559174, 0.03682573139667511, 0.03246717154979706, -0.11968912184238434, 0.02766077220439911, -0.09692029654979706, -0.0939403623342514, -0.08118985593318939, 0.003851979970932007, -0.0006590187549591064, -0.029157355427742004, 0.059767916798591614, -0.05133214592933655, 0.08415958285331726, 0.11232779920101166, -0.04448612034320831, -0.03967808187007904, -0.0003348886966705322, 0.1152895838022232, -0.05104173719882965, -0.07686217129230499, -0.02309499680995941, 0.09663836658000946, -0.04221585392951965, -0.0993417501449585, 0.11398106813430786, 0.05526845157146454, 0.01943020522594452, 0.04950270056724548, 0.08680003881454468, 0.0981706976890564, 0.06655408442020416, 0.011281892657279968, -0.003439798951148987, 0.08101195096969604, 0.016474053263664246, -0.003715530037879944, -0.11044344305992126, -0.07801225781440735, 0.06106190383434296, 0.08102305233478546, -0.055664241313934326, 0.12367516756057739, -0.03645884990692139, -0.012974858283996582, -0.011780604720115662, 0.04409743845462799, -0.08474306762218475, -0.09937828779220581, -0.034620821475982666, -0.09218955039978027, 0.0373506098985672, 0.01132020354270935, -0.04897713661193848, 0.10250777006149292, 0.028356879949569702, -0.041202396154403687, -0.024360284209251404, -0.06977252662181854, 0.11976361274719238, -0.01851697266101837, 0.05471275746822357, -0.014369234442710876, 0.026686832308769226, -0.03900273144245148, -0.07671166956424713, 0.08325517177581787, 0.06093154847621918, -0.08379006385803223, -0.03695884346961975, 0.11534987390041351, 0.01081860065460205, 0.0267055481672287, 0.03766480088233948, 0.10955160856246948, 0.021518811583518982, 0.1155945211648941, -0.09684771299362183, 0.0012461096048355103, -0.08876325190067291, -0.04511800408363342, -0.08992114663124084, 0.12337884306907654, 0.05025595426559448, 0.029236719012260437, -0.12249240279197693, -0.11603914201259613, 0.03130684792995453, 0.037644967436790466, -0.058929651975631714, 0.09804615378379822, 0.03926505148410797, -0.0034383684396743774, 0.023723721504211426, 0.06126101315021515, -0.08426202833652496, 0.11972153186798096, -0.05390751361846924, -0.09143738448619843, 0.07456907629966736, -0.12251825630664825, -0.03196977078914642, -0.043383657932281494, 0.1070496141910553, 0.07151298224925995, 0.10108417272567749, -0.045870065689086914, -0.004638448357582092, -0.0722084790468216, 0.03289419412612915, 0.1087782233953476, -0.0014608502388000488, -0.04338417947292328, -0.09228537976741791, 0.05488961935043335, 0.11001768708229065, 0.061446577310562134, 0.04527589678764343, 0.0830795019865036, 0.10184985399246216, -0.07839840650558472, 0.10745309293270111, -0.04899623990058899, 0.03779582679271698, -0.04607394337654114, 0.0912824273109436, -0.04257404804229736, 0.005683407187461853, -0.0719471275806427, -0.10929249227046967, 0.08658246695995331, -0.062041401863098145, 0.006237328052520752, -0.09353120625019073, -0.12139840424060822, -0.03109508752822876, 0.04659004509449005, -0.10567605495452881, -0.04497469961643219, -0.05637292563915253, -0.08100098371505737, 0.10850091278553009, -0.026758968830108643, 0.08817142248153687, -0.12109781801700592, 0.09792894124984741, 0.0375550240278244, -0.030033349990844727, -0.07135415077209473, -0.09720739722251892, 0.09051814675331116, 0.08248661458492279, -0.01616300642490387, -0.021233543753623962, 0.010477229952812195, -0.08735202252864838, 0.037313312292099, 0.016265198588371277, -0.11555089056491852, 0.06004709005355835, -0.028638631105422974, -0.00941707193851471, -0.08175887167453766, -0.08804960548877716, -0.050437986850738525, 0.1106184720993042, -0.06282131373882294, 0.08500334620475769, -0.05339272320270538, -0.019263476133346558, -0.036105677485466, 0.05930183827877045, 0.012594923377037048, 0.0025774091482162476, 0.04947708547115326, -0.10050983726978302, 0.056150391697883606, -0.010813459753990173, -0.10250107944011688, 0.08548708260059357, 0.02965635061264038, 0.1245400607585907, -0.08149249851703644, -0.11271846294403076, 0.1112772524356842, -0.03548868000507355, -0.10990247130393982, 0.07972016930580139, 0.004412487149238586, -0.0644276887178421, -0.09241519868373871, 0.0036953985691070557, -0.07553483545780182, 0.04885639250278473, -0.0008678138256072998, -0.028953135013580322, 0.029833003878593445, -0.01100766658782959, 0.12023431062698364, 0.09870080649852753, -0.06733924150466919, 0.11139102280139923, 0.10100029408931732, -0.04797126352787018, -0.05418173968791962, -0.03398025035858154, -0.08639737963676453, 0.09778289496898651, 0.09056448936462402, -0.047525450587272644, -0.012630566954612732, 0.0818665474653244, 0.004443854093551636, 0.12387695908546448, 0.11520875990390778, -0.05238352715969086, 0.05849118530750275, 0.11837227642536163, -0.025327295064926147, -0.11082594096660614, 0.10967761278152466, -0.12241789698600769, 0.060295164585113525, 0.08337777853012085, 0.107118159532547, -0.033526137471199036, 0.039185747504234314, -0.0704156905412674, -0.07898490130901337, 0.029166877269744873, -0.003316327929496765, 0.1129879504442215, -0.02779272198677063, 0.011636987328529358, 0.12251731753349304, 0.08956116437911987, 0.11854583024978638, 0.005087137222290039, -0.013830840587615967, 0.10094982385635376, -0.10738049447536469, 0.015770047903060913, -0.008005380630493164, -0.09225301444530487, -0.031660303473472595, 0.012023642659187317, 0.04702499508857727, -0.07790827751159668, -0.11466239392757416, 0.02407243847846985, -0.12277199327945709, 0.06658342480659485, 0.018421947956085205, -0.04351791739463806, 0.091759592294693, -0.02734069526195526, 0.0770510882139206, -0.10329501330852509, -0.02083723247051239, -0.11089380085468292, 0.09638583660125732, -0.0200977623462677, -0.00598376989364624, 0.06406128406524658, 0.03500911593437195, -0.08304846286773682, -0.020094498991966248, -0.023780226707458496, -0.04426848888397217, -0.0033911317586898804, -0.06504197418689728, -0.0007614195346832275, 0.01158490777015686, -0.022313743829727173, 0.09307879209518433, -0.03304491937160492, 0.11368227005004883, -0.08749513328075409, 0.048272326588630676, -0.021986350417137146, -0.009312525391578674, 0.07303029298782349, -0.11005352437496185, 0.12486907839775085, 0.008311167359352112, 0.011977046728134155, 0.04971328377723694, 0.12057796120643616, 0.0864563137292862, -0.004151761531829834, -0.04492098093032837, -0.1109875738620758, -0.05652892589569092, 0.03875114023685455, -0.06773743033409119, -0.07071235775947571, -0.06302240490913391, -0.01577286422252655, 0.06928928196430206, 0.07065649330615997, 0.03166496753692627, -0.12357556819915771, 0.005422905087471008, 0.0905057042837143, 0.08518850803375244, -0.031524673104286194, -0.03692995011806488, 0.01828429102897644, -0.04190593957901001, 0.04259467124938965, 0.014390021562576294, 0.07216548919677734, -0.029787808656692505, 0.07135216891765594, -0.04319162666797638, -0.015481323003768921, -0.09297272562980652, 0.058752790093421936, -0.10299700498580933, -0.11301818490028381, -0.09668855369091034, -0.034696877002716064, -0.020953088998794556, 0.08292022347450256, 0.02207323908805847, -0.06132712960243225, -0.10758654773235321, 0.011264383792877197, -0.07072402536869049, 0.09320415556430817, 0.0013757795095443726, 0.05308443307876587, 0.040681272745132446, -0.00838083028793335, -0.09364837408065796, 0.08467595279216766, 0.07262955605983734, 0.03226657211780548, -0.050662800669670105, -0.06970690190792084, -0.03678375482559204, 0.034764617681503296, 0.031732842326164246, -0.12123587727546692, 0.09577617049217224, 0.0827212929725647, 0.09702430665493011, -0.07362854480743408, 0.01878643035888672, -0.024524405598640442, 0.01958031952381134, -0.08734945952892303, -0.0581534206867218, 0.09436976909637451, 0.009013891220092773, -0.0946631133556366, 0.015720903873443604, 0.0028695017099380493, 0.03171129524707794, 0.023657336831092834, -0.09929628670215607, 0.015542328357696533, 0.03883138298988342, 0.022745102643966675, -0.0916876345872879, -0.08427256345748901, -0.10419763624668121, 0.004489496350288391, -0.05187563598155975, -0.02808818221092224, 0.03072693943977356, 0.028806865215301514, -0.018833056092262268, 0.06896457076072693, -0.04588036239147186, -0.07914039492607117, 0.04100207984447479, 0.07470296323299408, 0.08275143802165985, -0.03331907093524933, 0.056182220578193665, -0.022965773940086365, -0.11685848236083984, -0.07273395359516144, -0.014843732118606567, 0.1175043135881424, -0.0056438148021698, -0.10729701817035675, -0.02352316677570343, 0.0368475615978241, -0.07900317013263702, -0.07089632749557495, -0.09764985740184784, -0.11217060685157776, -0.09006692469120026, -0.04346303641796112, 0.10679319500923157, -0.007827222347259521, 0.07600352168083191, -0.025940433144569397, 0.02014528214931488, 0.0035082995891571045, -0.055610209703445435, -0.11916042864322662, -0.11470314860343933, -0.09177137911319733, 0.08850081264972687, -0.010071888566017151, 0.1105559766292572, -0.09414401650428772, -0.0038120150566101074, -0.08106532692909241, 0.12407070398330688, 0.042453229427337646, -0.11927564442157745, -0.08206528425216675, 0.09279821813106537, -0.09051929414272308, -0.06460128724575043, -0.018581658601760864, -0.06397201120853424, 0.09085889160633087, -0.09954233467578888, -0.04892764985561371, -0.047895461320877075, 0.06942731142044067, -0.029389798641204834, -0.023909419775009155, -0.04409986734390259, -0.04076854884624481, 0.07374189794063568, 0.012566864490509033, -0.010205745697021484, -0.04095998406410217, 0.037885189056396484, -0.0728776752948761, -0.032700955867767334, -0.03737664222717285, 0.02468852698802948, -0.12286485731601715, 0.10326977074146271, -0.08711643517017365, -0.005146697163581848, 0.029899895191192627, -0.052137792110443115, -0.029524430632591248, 0.08404812216758728, -0.0536615252494812, 0.013169646263122559, 0.044862449169158936, -0.07583092153072357, -0.08615809679031372, -0.026324912905693054, 0.06695610284805298, 0.03009594976902008, 0.015324920415878296, -0.04107654094696045, 0.03984750807285309, -0.10948757827281952, 0.002575799822807312, -0.0715826004743576, 0.09733016788959503, -0.08905006945133209, -0.009203895926475525, -0.09455770254135132, 0.026533544063568115, 0.05158179998397827, 0.048676297068595886, 0.11343729496002197, 0.0643547773361206, 0.09080356359481812, 0.019969403743743896, 0.029321476817131042, 0.06218115985393524, -0.11676055192947388, 0.04497644305229187, 0.12247738242149353, -0.0936146229505539, 0.005065649747848511, 0.05942371487617493, -0.022215411067008972, 0.08460363745689392, 0.07331584393978119, 0.006488382816314697, -0.12190690636634827, 0.06293101608753204, 0.04095129668712616, -0.023977383971214294, 0.0999675989151001, -0.11002200841903687, -0.04280412197113037, -0.05330398678779602, -0.03873978555202484, 0.032078444957733154, -0.05951237678527832, -0.11978992819786072, -0.0507122278213501, -0.05609883368015289, 0.03303524851799011, -0.07855068147182465, 0.08693048357963562, 0.06463611125946045, 0.052399203181266785, 0.047232016921043396, 0.04737938940525055, 0.11932790279388428, -0.01006712019443512, 0.005512058734893799, 0.11125566065311432, 0.04058472812175751, 0.043611496686935425, -0.027115672826766968, 0.09567518532276154, -0.021469101309776306, 0.0715111792087555, -0.0858735740184784, -0.11219032108783722, -0.10582147538661957, -0.047499701380729675, -0.11805930733680725, -0.007799744606018066, 0.03394980728626251, -0.0903112143278122, 0.07254345715045929, -0.0849113017320633, 0.07137300074100494, -0.0964643806219101, 0.07794173061847687, 0.10065434873104095, 0.09784932434558868, 0.05712686479091644, -0.0014958828687667847, 0.026311665773391724, -0.02910389006137848, -0.08343487977981567, -0.09101329743862152, -0.05702167749404907, 0.09809614717960358, -0.013936609029769897, -0.11427187919616699, -0.0839456170797348, -0.1209818422794342, -0.07410658895969391, 0.004498198628425598, -0.045758649706840515, -0.09555645287036896, 0.060271888971328735, -0.07498368620872498, 0.024025559425354004, 0.06933075189590454, 0.04793596267700195, -0.04580000042915344, -0.05760674178600311, -0.04970090091228485, 0.0009493976831436157, 0.028291329741477966, 0.04008515179157257, 0.006529003381729126, 0.1191442459821701, 0.00557476282119751, -0.08504331111907959, 0.024794429540634155, 0.11852739751338959, 0.09344591200351715, -0.04847422242164612, 0.0234755277633667, 0.06476569175720215, -0.04431523382663727, -0.0002431422472000122, -0.07061085104942322, 0.027306437492370605, -0.06965471804141998, -0.05804610252380371, 0.011909335851669312, -0.09024620056152344, 0.09123121201992035, -0.06942921876907349, -0.03820034861564636, -0.0561223179101944, -0.07456077635288239, -0.11128996312618256, -0.03101205825805664, -0.1181725412607193, 0.12218545377254486, 0.007324784994125366, -0.0566239058971405, -0.04689544439315796, -0.07884487509727478, 0.018281683325767517, -0.0710633248090744, 0.03505989909172058, 0.04488201439380646, -0.06724673509597778, 0.10805131494998932, -0.04618959128856659, 0.09412126243114471, -0.08373977243900299, -0.06122845411300659, -0.06782042980194092, 0.006928205490112305, 0.09577475488185883, -0.010231956839561462, 0.011712983250617981, 0.07193930447101593, -0.06079964339733124, -0.08857756853103638, -0.09568320214748383, 0.0562274307012558, -0.11831344664096832, -0.07335112988948822, -0.10139469802379608, -0.06347189843654633, -0.014470070600509644, -0.11893410980701447, 0.07721512019634247, 0.0765024721622467, -0.10160870850086212, -0.06316231191158295, 0.10505746304988861, 0.10439465939998627, -0.04872472584247589, 0.02413611114025116, 0.06877201795578003, -0.07155254483222961, -0.06425976753234863, 0.10622742772102356, -0.06779070198535919, -0.05476956069469452, 0.122561514377594, 0.031593337655067444, 0.0835622251033783, 0.02909083664417267, -0.07597753405570984, -0.1155499815940857, 0.07502700388431549, -0.002420559525489807, 0.007205307483673096, 0.08787447214126587, -0.028127744793891907, -0.019491389393806458, -0.09473840892314911, -0.047081783413887024, -0.06306405365467072, -0.10037893056869507, 0.1140241026878357, -0.07310135662555695, 0.05787359178066254, 0.1038341075181961, 0.04746834933757782, -0.010357946157455444, 0.08339256048202515, 0.0643773078918457, -0.02050146460533142, -0.11972752213478088, -0.0817173570394516, -0.11836892366409302, 0.12345175445079803, -0.11594352126121521, -0.08227148652076721, 0.0998506098985672, -0.004450663924217224, -0.02023465931415558, 0.07359562814235687, 0.04451882839202881, 0.10350009799003601, -0.08167989552021027, 0.07032695412635803, -0.004111364483833313, 0.0001819133758544922, 0.07378320395946503, -0.04157809913158417, -0.07626219093799591, -0.11135710775852203, 0.08656968176364899, 0.010733231902122498, -0.05641816556453705, -0.04548737406730652, 0.04824391007423401, -0.049618035554885864, 0.0338241308927536, 0.09464317560195923, 0.0989363044500351, -0.07198658585548401, 0.109882652759552, -0.02055738866329193, -0.08222658932209015, 0.06648343801498413, 0.060158029198646545, 0.015042886137962341, -0.01045064628124237, 0.03128291666507721, 0.081759974360466, -0.07380379736423492, 0.019794940948486328, 0.0509101003408432, 0.0613253116607666, 0.10602012276649475, -0.10857309401035309, 0.002590194344520569, -0.01593095064163208, 0.10937941074371338, -0.031948745250701904, -0.027022629976272583, 0.04656080901622772, -0.045593395829200745, 0.12335222959518433, 0.10253426432609558, 0.01822204887866974, -0.0742320716381073, -0.09605361521244049, -0.09131951630115509, 0.003126397728919983, 0.048714399337768555, 0.007035344839096069, -0.039790451526641846, 0.11355853080749512, 0.015163809061050415, 0.07097594439983368, -0.008465439081192017, 0.09960418939590454, 0.11586207151412964, -0.06191582977771759, 0.0959477573633194, -0.06722098588943481, -0.08619610965251923, 0.01603516936302185, 0.09893159568309784, -0.10173563659191132, -0.11666834354400635, 0.011588916182518005, 0.027631238102912903, -0.016913577914237976, 0.04861682653427124, 0.020740821957588196, -0.022214189171791077, 0.0771341472864151, -0.09094196557998657, 0.05156160891056061, -0.0005676895380020142, 0.06074060499668121, 0.034691452980041504, -0.05917385220527649, -0.08506923913955688, 0.0856652557849884, -0.01960282027721405, -0.027927860617637634, 0.0021685659885406494, -0.09169109165668488, -0.09578678011894226, -0.07536782324314117, -0.010154172778129578, -0.02163739502429962, 0.11515696346759796, 0.07040676474571228, 0.07771731913089752, 0.03428083658218384, -0.06276305019855499, -0.03510299324989319, -0.04605107009410858, 0.011716067790985107, -0.044423386454582214, -0.017338693141937256, -0.12184444069862366, 0.03504900634288788, 0.09642700850963593, -0.02820543944835663, 0.06022322177886963, 0.1118999719619751, 0.086679607629776, -0.08694995939731598, -0.06414665281772614, -0.05969777703285217, -0.10638180375099182, 0.0904962420463562, 0.0030670613050460815, 0.051033809781074524, -0.11161334812641144, -0.029514655470848083, -0.05283312499523163, 0.09077878296375275, -0.016065850853919983, -0.0830392837524414, -0.11295971274375916, -0.03843386471271515, -0.04108478128910065, -0.044396787881851196, -0.05009767413139343, -0.044565558433532715, 0.06325629353523254, -0.09253303706645966, 0.09206956624984741, -0.01662084460258484, 0.03717474639415741, 0.033654749393463135, -0.10665775835514069, -0.08650979399681091, -0.11144007742404938, -0.09250965714454651, -0.11246322095394135, 0.10595493018627167, 0.012958765029907227, -0.09559692442417145, -0.10089239478111267, 0.029658332467079163, -0.10616648197174072, 0.09520779550075531, -0.0023126453161239624, 0.03721584379673004, -0.04827527701854706, 0.051887378096580505, -0.005073055624961853, 0.07758651673793793, -0.046417877078056335, -0.01640087366104126, 0.026364952325820923, -0.03701476752758026, -0.055340006947517395, 0.020029842853546143, 0.03145606815814972, 0.07109425961971283, -0.035526424646377563, 0.07098065316677094, 0.07546907663345337, 0.12471048533916473, 0.015580862760543823, -0.07254289090633392, 0.05169467628002167, 0.005196049809455872, -0.09197303652763367, -0.04261697828769684, 0.06614473462104797, -0.01860205829143524, -0.044944196939468384, 0.004819586873054504, -0.08926364779472351, -0.11159917712211609, -0.020915687084197998, -0.005557209253311157, 0.08798010647296906, 0.06517206132411957, 0.06180502474308014, -0.10320740938186646, -0.10720327496528625, 0.10198356211185455, -0.013777583837509155, 0.07758788764476776, 0.04648284614086151, 0.02472226321697235, 0.038304537534713745, -0.0748261958360672, 0.07611474394798279, 0.11841164529323578, 0.06282824277877808, 0.11651879549026489, -0.10590289533138275, -0.09042513370513916, -0.06857016682624817, 0.057359397411346436, 0.03517529368400574, -0.1238679587841034, 0.07118184864521027, -0.035543784499168396, 0.04794469475746155, 0.042160287499427795, -0.04531539976596832, -0.014077529311180115, 0.08815915882587433, -0.02325756847858429, -0.04973785579204559, -0.11939342319965363, 0.0174722820520401, -0.11758624017238617, -0.025157615542411804, -0.059524327516555786, 0.11697080731391907, 0.12460494041442871, -0.06836023926734924, 0.05219809710979462, 0.09507910907268524, 0.04257522523403168, 0.036753877997398376, 0.08420145511627197, -0.09596624970436096, 0.010379180312156677, -0.10364891588687897, -0.04352228343486786, 0.014793187379837036, -0.003665417432785034, -0.08807218074798584, -0.10028226673603058, 0.023630812764167786, 0.10915328562259674, 0.07737267017364502, -0.047307536005973816, -0.008176609873771667, -0.031009599566459656, 0.08963000774383545, -0.04548227787017822, -0.0332503467798233, 0.07088649272918701, 0.080940380692482, 0.124881312251091, -0.10047021508216858, -0.0918942391872406, -0.09647819399833679, -0.06510576605796814, 0.10629881918430328, 0.07759873569011688, 0.03557045757770538, -0.06837274134159088, -0.10740247368812561, 0.08999726176261902, 0.0937071144580841, 0.10856440663337708, -0.08943372964859009, 0.02310091257095337, -0.10640202462673187, 0.0200025737285614, 8.496642112731934e-05, 0.03309109807014465, 0.09654542803764343, 0.08826550841331482, 0.04709799587726593, -0.07683271169662476, -0.10355789959430695, 0.1067352294921875, 0.029143452644348145, -0.06588046252727509, 0.09428046643733978, 0.019564107060432434, 0.044009074568748474, 0.12320639193058014, 0.07773609459400177, -0.08597473800182343, -0.12461495399475098, 0.11295342445373535, 0.06540580093860626, -0.028636693954467773, -0.003478690981864929, -0.001806512475013733, 0.001755252480506897, 0.08616052567958832, -0.03657186031341553, 0.11891868710517883, 0.02409270405769348, 0.09897369146347046, -0.008494049310684204, -0.019310027360916138, 0.06127318739891052, -0.037983208894729614, -0.07018938660621643, 0.12468580901622772, 0.02613179385662079, -0.034481555223464966, -0.055832430720329285, 0.1096944510936737, -0.08432874083518982, -0.07128141820430756, 0.12410078942775726, -0.0015004277229309082, -0.04745674133300781, 0.0003565847873687744, -0.11091376841068268, 0.11180835962295532, 0.0003958195447921753, -0.029797717928886414, 0.1068822592496872, 0.05680429935455322, 0.0006570667028427124, 0.013365432620048523, 0.11970023810863495, 0.05328871309757233, 0.033232033252716064, -0.019869014620780945, -0.07456833124160767, 0.11196503043174744, -0.030678942799568176, 0.12247392535209656, 0.09463301301002502, 0.018010213971138, 0.03845502436161041, -0.07943494617938995, 0.03285762667655945, -0.1098349541425705, 0.11401616036891937, 0.10266759991645813, 0.0058698952198028564, -0.09025853872299194, -0.0698326975107193, -0.005664467811584473, -0.005063667893409729, 0.020361796021461487, -0.11222007870674133, 0.11830227077007294, -0.019876211881637573, -0.02516123652458191, 0.0443185418844223, 0.05943016707897186, -0.0531536340713501, -0.04345664381980896, 0.02330756187438965, -0.08423663675785065, 0.019462496042251587, 0.02053546905517578, -0.0822119414806366, -0.1248110681772232, -0.07173936069011688, -0.09193293750286102, -0.11013327538967133, -0.12089195847511292, -0.10622097551822662, 0.062317922711372375, -0.038483768701553345, -0.04794652760028839, -0.03678847849369049, 0.006370633840560913, 0.014166295528411865, 0.05192691087722778, 0.11083091795444489, 0.12406384944915771, -0.08578987419605255, 0.11995139718055725, 0.08934663236141205, -0.0823153406381607, 0.05050952732563019, 0.06650644540786743, 0.04734578728675842, 0.031319066882133484, 0.06424370408058167, 0.06210663914680481, -0.011041432619094849, -0.08433051407337189, 0.10422845184803009, -0.11872906982898712, -0.11444728076457977, -0.00711435079574585, -0.10728722810745239, 0.04268480837345123, -0.07858037948608398, -0.10736691951751709, 0.08918440341949463, 0.0697762668132782, 0.10045553743839264, -0.0015341490507125854, -0.11518803238868713, -0.08611573278903961, 0.005435585975646973, 0.11161522567272186, -0.10358579456806183, -0.026195630431175232, -0.0700816661119461, 0.00893905758857727, -0.07880797982215881, -0.0022256672382354736, 0.021883517503738403, -0.09749217331409454, -0.10414305329322815, 0.0209294855594635, -0.06606292724609375, 0.0027171820402145386, -0.026692643761634827, -0.04187530279159546, -0.03518253564834595, -0.04984499514102936, -0.10430169105529785, -0.05900150537490845, -0.05321580171585083, -0.030490100383758545, -0.08448299765586853, 0.0324273556470871, 0.007443562150001526, -0.040080681443214417, 0.11995263397693634, -0.06484268605709076, -0.1188894659280777, 0.05593642592430115, 0.10584208369255066, 0.06798093020915985, 0.01989196240901947, 0.08051656186580658, 0.12051209807395935, 0.06894806027412415, -0.12325924634933472, 0.022529542446136475, -0.027402207255363464, -0.030745431780815125, -0.12425749003887177, -0.11631159484386444, -0.04689610004425049, 0.11641506850719452, -0.09673376381397247, -0.08276733756065369, 0.042262002825737, 0.08216457068920135, 0.011480897665023804, 0.014939770102500916, 0.07177606225013733, 0.06710009276866913, -0.051108479499816895, 0.03374004364013672, -0.058470889925956726, 0.12064741551876068, -0.11069032549858093, -0.03724449872970581, -0.11549907922744751, -0.1130761057138443, 0.12117256224155426, -0.0033465176820755005, 0.04196822643280029, -0.027914568781852722, 0.012560591101646423, 0.12414342164993286, 0.023296937346458435, 0.03677390515804291, -0.0023699402809143066, -0.016583144664764404, -0.018046662211418152, -0.10522951185703278, 0.04939165711402893, -0.09514260292053223, 0.048549309372901917, -0.030770733952522278, 0.031178638339042664, -0.1216103732585907, 0.056996434926986694, 0.08222714066505432, 0.09247159957885742, -0.11739221215248108, 0.072018101811409, 0.06408865749835968, -0.034872785210609436, -0.005176231265068054, -0.05660705268383026, -0.08372481167316437, 0.05160839855670929, -0.03306996822357178, -0.04609191417694092, 0.0812184065580368, 0.10924910008907318, 0.0633089542388916, 0.09138357639312744, 0.07540786266326904, 0.1104784905910492, -0.04057534039020538, -0.049079492688179016, 0.03787447512149811, -0.06258216500282288, -0.03284542262554169, -0.0006017833948135376, -0.0349770188331604, -0.12269827723503113, -0.06589122116565704, 0.058584898710250854, 0.09509065747261047, -0.05818696320056915, 0.06175796687602997, 0.06876060366630554, -0.0499529093503952, -0.03831528127193451, -0.053127720952034, 0.08815382421016693, -0.011680498719215393, -0.07754026353359222, -0.11137153208255768, -0.06278067827224731, -0.07459220290184021, -0.09666846692562103, 0.03978195786476135, -0.02303360402584076, 0.01642681658267975, 0.04746606945991516, 0.0524885356426239, 0.03418980538845062, 0.03776746988296509, -0.10252135992050171, -0.11434239149093628, -0.11044442653656006, 0.10158136487007141, 0.019763708114624023, 0.04213082790374756, -0.025855466723442078, -0.07104805111885071, -0.08761739730834961, 0.09610152244567871, 0.07067011296749115, -0.08186158537864685, 0.08692388236522675, 0.11776134371757507, 0.05015219748020172, 0.0806594043970108, 0.045971304178237915, 0.00843261182308197, -0.07457205653190613, -0.05431455373764038, 0.04508061707019806, 0.018491670489311218, 0.09066803753376007, 0.07336656749248505, -0.025680840015411377, -0.04872587323188782, 0.07293497025966644, -0.02507437765598297, 0.0008051097393035889, -0.12485642731189728, -0.014521822333335876, 0.007006779313087463, 0.11636348068714142, 0.031046569347381592, -0.04540400207042694, 0.0793239027261734, 0.03173026442527771, -0.03687572479248047, -0.004958063364028931, -0.10882788896560669, -0.0822935700416565, 0.11723349988460541, -0.02790875732898712, -0.01674535870552063, -0.12188959121704102, -0.06948137283325195, -0.025889530777931213, -0.0939825177192688, -0.06642012298107147, -0.07492329180240631, 0.026701509952545166, -0.057639166712760925, 0.08973053097724915, 0.0512215793132782, -0.08020488917827606, -0.009530231356620789, -0.03480727970600128, 0.11945849657058716, 0.046358853578567505, 0.09822028875350952, 0.0826963484287262, -0.059963151812553406, -0.055452242493629456, 0.11608532071113586, 0.10837836563587189, -0.11158619821071625, 0.0211513489484787, -0.10667075216770172, 0.07361778616905212, 0.052827343344688416, -0.0601547509431839, -0.09436279535293579, -0.12155438959598541, 0.1018480658531189, 0.01494339108467102, 0.11862672865390778, 0.008810415863990784, -0.12162512540817261, 0.05654677748680115, 0.041839078068733215, -0.0987931489944458, 0.04652354121208191, -0.047224223613739014, 0.11055301129817963, 0.039551228284835815, -0.07469570636749268, 0.02799743413925171, -0.058088332414627075, 0.09711502492427826, 0.11002892255783081, -0.12495864927768707, 0.01424013078212738, 0.1186303198337555, 0.0457729697227478, 0.05776660144329071, -0.0927828997373581, -0.03128732740879059, 0.014307454228401184, 0.06430298089981079, -0.016507059335708618, -0.10297843813896179, -0.09734772145748138, -0.12186869978904724, -0.00936339795589447, -0.07362005114555359, -0.010670453310012817, -0.059794843196868896, 0.02869294583797455, 0.10566230118274689, 0.07264403998851776, -0.09865985810756683, 0.10808941721916199, -0.10927405953407288, -0.10437260568141937, 0.1064629852771759, 0.04340106248855591, -0.02906098961830139, -0.0458291620016098, 0.003506496548652649, -0.0440685898065567, -0.094387948513031, -0.07671226561069489, 0.026964232325553894, 0.11333701014518738, 0.103714719414711, -0.10842983424663544, -0.07766495645046234, 0.039166614413261414, -0.0726495236158371, 0.04233838617801666, -0.002015247941017151, -0.038455963134765625, 0.0002610534429550171, -0.10931418836116791, 0.11817403137683868, 0.11979693174362183, -0.08132009208202362, 0.05203238129615784, 0.11539733409881592, -0.006944671273231506, -0.11546804010868073, 0.054564520716667175, 0.012014850974082947, -0.11825132369995117, -0.09271253645420074, 0.0892782062292099, 0.03894375264644623, -0.006894916296005249, 0.12483704090118408, -0.08216165006160736, -0.10043542087078094, 0.006776571273803711, 0.09101001918315887, 0.043571919202804565, -0.02418839931488037, -0.011719003319740295, 0.05371168255805969, 0.09510280191898346, -0.12369106709957123, 0.04974326491355896, 0.05358874797821045, -0.05561856925487518, 0.08223691582679749, -0.06374755501747131, 0.025055915117263794, 0.06424294412136078, 0.07764710485935211, 0.04097278416156769, 0.047385409474372864, 0.005167573690414429, -0.04110397398471832, -0.04457034170627594, -0.018665015697479248, -0.08513748645782471, -0.007545650005340576, 0.04193916916847229, 0.05936218798160553, -0.0024091750383377075, 0.01221570372581482, -0.0010945051908493042, 0.06882321834564209, -0.07719442248344421, -0.1069333553314209, -0.017950639128684998, -0.058327049016952515, 0.1248617172241211, 0.12419700622558594, 0.04958923161029816, 0.07038876414299011, 0.01426348090171814, 0.04446093738079071, 0.014490783214569092, -0.03316694498062134, -0.0871155858039856, -0.026114359498023987, -0.056246668100357056, 0.053342387080192566, -0.059056356549263, -0.00573381781578064, 0.034350112080574036, 0.08930803835391998, -0.09149543941020966, -0.06718291342258453, -0.10339011251926422, 0.0976586788892746, -0.09128327667713165, -0.015039697289466858, 0.12330855429172516, -0.12122674286365509, 0.08927662670612335, -0.07931825518608093, -0.09744150936603546, 0.07037600874900818, -0.05965976417064667, -0.016999676823616028, 0.045973971486091614, -0.04341122508049011, 0.11816611886024475, -0.015735119581222534, 0.05647702515125275, 0.09105224907398224, -0.11872336268424988, -0.11451372504234314, -0.11230604350566864, 0.06405781209468842, 0.027666524052619934, -0.12488381564617157, 0.12228894233703613, 0.05572086572647095, 0.00351560115814209, 0.05373239517211914, 0.041162893176078796, -0.07612347602844238, 0.05982813239097595, -0.05241286754608154, 0.047219112515449524, -0.02530790865421295, 0.09800739586353302, -0.1039869487285614, 0.06649042665958405, -0.01601792871952057, -0.09943023324012756, -0.0649668425321579, 0.06666286289691925, 0.08318330347537994, 0.012136444449424744, -0.08761070668697357, 0.11321869492530823, -0.008899599313735962, -0.042803555727005005, 0.07055692374706268, -0.013056769967079163, -0.046713441610336304, 0.07376742362976074, -0.02183087170124054, -0.05010564625263214, -0.035695239901542664, 0.0359518826007843, -0.07208918035030365, -0.12438502907752991, -0.0455353707075119, -0.03274787962436676, 0.062367215752601624, 0.12060879170894623, -0.11270354688167572, -0.06886376440525055, -0.032292500138282776, 0.08088952302932739, -0.12206174433231354, -0.05152297019958496, -0.07053729891777039, -0.11802120506763458, 0.0922338217496872, 0.01960378885269165, 0.03910897672176361, -0.07913698256015778, 0.0981932282447815, -0.00043082237243652344, 0.014345139265060425, -0.00010128319263458252, 0.11051738262176514, -0.053679391741752625, -0.11187915503978729, 0.036816611886024475, -0.05986258387565613, -0.018739044666290283, 0.10549931228160858, -0.003903508186340332, -0.030431538820266724, -0.02102765440940857, -0.008072525262832642, -0.0679120421409607, -0.09336724877357483, 0.11488212645053864, 0.09083205461502075, -0.07740873098373413, -0.05083957314491272, 0.10662069916725159, 0.08606486022472382, 0.0625961571931839, 0.04196882247924805, -0.06006766855716705, -0.12246151268482208, -0.08389469981193542, -0.10605643689632416, -0.09048664569854736, 0.055083051323890686, -0.08024361729621887, -0.054123654961586, 0.08142639696598053, -0.1189073920249939, 0.0558403879404068, 0.010098621249198914, -0.05821259319782257, -0.06141512095928192, -0.06028226017951965, 0.12449595332145691, 0.12156358361244202, 0.12282989919185638, -0.09285023808479309, -0.10488452017307281, 0.0029783695936203003, -0.05635376274585724, -0.038280606269836426, -0.12452183663845062, 0.08497722446918488, 0.11082665622234344, 0.033346980810165405, -0.04993946850299835, -0.11461575329303741, 0.05667752027511597, 0.04676957428455353, -0.1068529486656189, 0.031198009848594666, -0.11438199877738953, 0.06019832193851471, 0.08116023242473602, 0.03343234956264496, -0.03195291757583618, 0.019318968057632446, -0.12373936176300049, 0.0924098938703537, -0.01055222749710083, -0.04659326374530792, -0.021581649780273438, 0.02083192765712738, -0.043463096022605896, -0.08155767619609833, -0.09086276590824127, 0.09363812208175659, 0.02678254246711731, 0.09642450511455536, 0.12147866189479828, 0.019145891070365906, 0.007477551698684692, -0.06864716112613678, 0.11433129012584686, -0.07884854078292847, -0.03891193866729736, 0.0788382738828659, 0.09027823805809021, -0.10503308475017548, -0.11267083883285522, -0.0762479305267334, -0.03797590732574463, -0.030725672841072083, -0.05960124731063843, -0.12429407238960266, -0.08853527903556824, -0.07027135789394379, -0.0022644102573394775, -0.005158841609954834, -0.0035362988710403442, -0.017170041799545288, 0.08546240627765656, 0.10170736908912659, -0.05054265260696411, 0.050317004323005676, -0.016449466347694397, 0.03244785964488983, 0.024126112461090088, 0.11944569647312164, 0.09105727076530457, 0.012591078877449036, 0.019986674189567566, -0.02485574781894684, 0.01947227120399475, 0.0693894624710083, 0.11564244329929352, 0.03434893488883972, 0.08542497456073761, -0.048501476645469666, -0.11125943064689636, 0.034171342849731445, -0.044819220900535583, -0.006538957357406616, 0.05432488024234772, 0.04442936182022095, -0.05204348266124725, 0.09866468608379364, 0.09920376539230347, 0.04330240190029144, -0.06573589146137238, -0.08134479820728302, 0.10984838008880615, 0.014018505811691284, 0.11897127330303192, 0.0054000020027160645, -0.014057710766792297, 0.11037017405033112, 0.06633757054805756, -0.05892688035964966, 0.012801066040992737, 0.07762618362903595, -0.11388067901134491, -0.08508780598640442, -0.09294655919075012, 0.039858415722846985, -0.04715321958065033, -0.09365741908550262, -0.020781025290489197, 0.011030703783035278, -0.10227996110916138, -0.07685407996177673, 0.1166023313999176, -0.117153599858284, -0.05076064169406891, 0.10484784841537476, -0.05595247447490692, 0.11017467081546783, -0.069597527384758, 0.0706200897693634, -0.027489468455314636, -0.011091664433479309, -0.11666011810302734, -0.09889143705368042, 0.0744323581457138, -0.08885101974010468, 0.11683695018291473, -0.04180614650249481, 0.025576531887054443, 0.09079861640930176, 0.11813870072364807, 0.0743422657251358, -0.0816931426525116, -0.08174782991409302, 0.11081814765930176, -0.07389171421527863, 0.0671132355928421, 0.06428949534893036, -0.08648960292339325, -0.0029053837060928345, 0.07570068538188934, -0.06996193528175354, 0.05036415159702301, 0.040900543332099915, -0.11116139590740204, 0.09508372843265533, -0.012278586626052856, -0.02157159149646759, -0.07316815853118896, 0.07965455949306488, -0.08849209547042847, -0.0593394935131073, -0.011796683073043823, -0.11488194763660431, 0.03852027654647827, -0.11755076050758362, 0.04018259048461914, -0.0711105614900589, 0.005880102515220642, 0.059165820479393005, 0.02411121129989624, -0.04926706850528717, -0.0636713057756424, 0.06801380217075348, 0.08031782507896423, -0.010706424713134766, -0.08169296383857727, -0.07641837000846863, -0.026236072182655334, 0.06483404338359833, 0.04476860165596008, 0.022036612033843994, 0.1159764975309372, 0.005141392350196838, -0.10042648017406464, 0.040176138281822205, -0.026989713311195374, 0.01649373769760132, 0.10084091126918793, -0.05703176558017731, 0.10761295258998871, 0.0694986879825592, 0.030993595719337463, -0.06073172390460968, -0.0005550086498260498, -0.04109221696853638, 0.054525598883628845, 0.12400597333908081, -0.01238328218460083, 0.04783426225185394, 0.03531070053577423, -0.006384715437889099, -0.014757856726646423, 0.08191968500614166, -0.027812808752059937, -0.10343876481056213, 0.08633357286453247, 0.07825376093387604, 0.01869422197341919, -0.09631800651550293, 0.11499148607254028, 0.09792354702949524, 0.12356230616569519, -0.1126076728105545, -0.029946595430374146, -0.024431779980659485, -0.10219903290271759, 0.09192448854446411, -0.12199217081069946, -0.013436108827590942, -0.05518844723701477, 0.046647608280181885, -0.10590647161006927, 0.02074339985847473, 0.09713901579380035, -0.1145954579114914, 0.08324848115444183, 0.10289032757282257, -0.09498609602451324, -0.11585730314254761, -0.0014624148607254028, -0.06892535090446472, 0.05999608337879181, -0.019536659121513367, 0.03662601113319397, -0.034807950258255005, -0.08394463360309601, -0.08128069341182709, 0.09736254811286926, -0.11018289625644684, 0.07916058599948883, -0.07634188234806061, 0.028268516063690186, -0.1065811961889267, 0.029987215995788574, 0.06906770169734955, 0.10130272805690765, -0.016547515988349915, -0.07906858623027802, -0.09473873674869537, -0.06654311716556549, 0.01646655797958374, 0.05528728663921356, -0.0447557270526886, -0.08031201362609863, -0.06569604575634003, -0.08863501250743866, -0.007336363196372986, 0.002160504460334778, 0.04814572632312775, 0.05889585614204407, 0.04901520907878876, -0.0011299997568130493, -0.11051101982593536, -0.00564885139465332, -0.11027789115905762, -0.08706775307655334, -0.12179335951805115, 0.04343642294406891, 0.043978795409202576, -0.041797056794166565, -0.08970880508422852, -0.12243485450744629, -0.09456273913383484, 0.020033299922943115, -0.0656633973121643, -0.0872182697057724, -0.02779237926006317, 0.07369567453861237, -0.09021298587322235, -0.08705651760101318, 0.05924898386001587, -0.016118600964546204, 0.07759980857372284, -0.05871067941188812, -0.09120376408100128, 0.06843544542789459, 0.047445014119148254, -0.06504121422767639, 0.09150558710098267, 0.009113773703575134, -0.04333667457103729, -0.0056180208921432495, -0.12386229634284973, 0.11272361874580383, 0.07814927399158478, -0.10040807723999023, -0.07725977897644043, 0.07953815162181854, -0.11698433756828308, -0.0519949346780777, -0.09423387050628662, -0.05578060448169708, -0.024773195385932922, 0.06453609466552734, -0.01971478760242462, 0.10432155430316925, -0.12282352149486542, -0.03999091684818268, 0.013027295470237732, 0.09087930619716644, 0.11558440327644348, -0.11562943458557129, 0.015293538570404053, 0.06906017661094666, 0.000662386417388916, 0.018873155117034912, -0.12394550442695618, 0.02311094105243683, 0.07522916793823242, 0.012554526329040527, 0.037262991070747375, -0.034018710255622864, -0.11710713803768158, 0.04026001691818237, 0.04420752823352814, -0.10983791947364807, 0.04021406173706055, 0.1102856993675232, -0.05588710308074951, -0.05211016535758972, -0.10468950867652893, 0.0054833292961120605, 0.0606788694858551, 0.061058804392814636, 0.02069401741027832, -0.1017877608537674, -0.00905562937259674, -0.12258732318878174, 0.07182446122169495, -0.0037616342306137085, -0.06786103546619415, 0.04043583571910858, -0.04879508912563324, 0.06285858154296875, -0.014796435832977295, -0.1029939353466034, -0.01422514021396637, 0.11202162504196167, 0.11342068016529083, -0.030948996543884277, -0.039219990372657776, -0.10996782779693604, 0.01632632315158844, -0.04159049689769745, 0.01804499328136444, -0.07242389023303986, 0.12439066171646118, 0.0029739737510681152, -0.08201152086257935, -0.0674980878829956, 0.05144253373146057, 0.12441329658031464, -0.06999365985393524, 0.12254531681537628, -0.09791308641433716, 0.011469632387161255, -0.07165159285068512, 0.005951866507530212, -0.05237157642841339, -0.04659183323383331, -0.01458895206451416, -0.11472494900226593, -0.10949045419692993, -0.04506877064704895, 0.08321033418178558, 0.10537920892238617, -0.05222970247268677, 0.05538788437843323, -0.00030709803104400635, -0.02098001539707184, -0.11660608649253845, 0.06935885548591614, 0.04486849904060364, -0.04254075884819031, -0.09493863582611084, 0.02812814712524414, 0.04744186997413635, 0.0077177733182907104, -0.10094304382801056, -0.11667223274707794, 0.10725179314613342, -0.04865895211696625, 0.09947794675827026, 0.013587459921836853, 0.07807596027851105, 0.03416207432746887, -0.09412704408168793, -0.001219034194946289, 0.12279674410820007, -0.04921746253967285, 0.005436733365058899, 0.03861495852470398, -0.024204164743423462, -0.11631208658218384, 0.027549192309379578, 0.1159021258354187, -0.12489013373851776, -0.04657919704914093, 0.08170449733734131, 0.07713547348976135, 0.07648162543773651, 0.10635419189929962, 0.021851420402526855, 0.04002489149570465, -0.08443871140480042, 0.08696411550045013, -0.03492256999015808, -0.03184671700000763, 0.10110741853713989, 0.07509778439998627, -0.09503471851348877, 0.01060783863067627, 0.1014852374792099, -0.018947631120681763, -0.08942833542823792, 0.10572923719882965, -0.0784333348274231, -0.07613673806190491, 0.086411252617836, -0.07151901721954346, -0.10111364722251892, -0.05667935311794281, -0.12335464358329773, -0.02570292353630066, -0.005931824445724487, -0.09013925492763519, 0.015142634510993958, -0.05051542818546295, 0.029146268963813782, 0.12093810737133026, -0.06931471824645996, 0.04719404876232147, 0.09545058012008667, -0.021818146109580994, -0.11545678973197937, -0.007975488901138306, -0.0569637268781662, -0.048779889941215515, -0.09468874335289001, 0.030382096767425537, -0.015747100114822388, 0.0719057023525238, 0.08435988426208496, 0.08761611580848694, -0.0758078545331955, 0.007400140166282654, -0.09739349782466888, -0.08135396242141724, 0.06508363783359528, 0.11706116795539856, 0.03300565481185913, -0.05798579752445221, 0.11846210062503815, -0.07058157026767731, 0.011473864316940308, -0.04968962073326111, 0.06817875802516937, -0.08680425584316254, 0.05113120377063751, -0.05607199668884277, -0.05047480762004852, 0.06086468696594238, 0.0447792112827301, -0.09194739162921906, 0.038125842809677124, 0.11038227379322052, 0.03388451039791107, 0.08406831324100494, -0.10382162034511566, 0.12052346765995026, 0.11560733616352081, -0.06251582503318787, 0.025684311985969543, -0.04989944398403168, -0.01610773801803589, -0.09265287220478058, -0.07656639814376831, 0.023882374167442322, -0.12385176122188568, 0.05219647288322449, 0.024162426590919495, 0.06796005368232727, 0.07386460900306702, 0.06694118678569794, 0.11757935583591461, -0.009286269545555115, -0.05041387677192688, -0.10331554710865021, 0.06807641685009003, -0.010101735591888428, 0.09572070837020874, 0.0878089964389801, -0.08079910278320312, 0.061627671122550964, -0.08866967260837555, -0.12179228663444519, -0.09992335736751556, 0.08833980560302734, 0.008126795291900635, -0.1199246197938919, -0.06509199738502502, -0.07350407540798187, 0.0033758431673049927, -0.0867273360490799, 0.0965249240398407, 0.019715607166290283, 0.02815800905227661, 0.010013312101364136, 0.06252409517765045, 0.08415746688842773, -0.0152815580368042, 0.07228370010852814, -0.10257925093173981, 0.10788916051387787, -0.01812194287776947, -0.0014409571886062622, -0.11856941878795624, 0.037429749965667725, 0.036202818155288696, -0.032262131571769714, 0.12031915783882141, 0.09251415729522705, 0.019943132996559143, 0.01931878924369812, 0.12128032743930817, 0.05875374376773834, 0.026979640126228333, -0.11918920278549194, 0.007587999105453491, 0.02590717375278473, -0.0528092235326767, -0.017511263489723206, -0.08991508185863495, 0.10502740740776062, -0.11907067894935608, -0.01489885151386261, 0.04094664752483368, -0.07452787458896637, -0.06092618405818939, -0.01779860258102417, 0.06859004497528076, -0.024992600083351135, 0.027033284306526184, -0.051199376583099365, -0.08175922930240631, 0.0050811320543289185, 0.04227602481842041, -0.005934610962867737, -0.01775878667831421, -0.04092574119567871, -0.10151803493499756, 0.027444988489151, -0.05373239517211914, -0.12116539478302002, 0.11166320741176605, -0.06516838073730469, -0.057183459401130676, 0.044796884059906006, 0.07465635240077972, 0.05496157705783844, -0.10335342586040497, 0.02969442307949066, 0.1226634830236435, -0.009167328476905823, -0.0410425066947937, -0.052259355783462524, -0.10142162442207336, 0.08753837645053864, -0.07871690392494202, -0.009790971875190735, -0.01905837655067444, 0.02837228775024414, -0.09456005692481995, 0.02066861093044281, 0.10283659398555756, 0.04963897168636322, 0.05697084963321686, -0.062337666749954224, 0.03271619975566864, -0.03936125338077545, 0.027574941515922546, 0.07184708118438721, 0.10757535696029663, -0.0168144553899765, -0.016924649477005005, 0.09386228024959564, 0.01039782166481018, -0.11140584945678711, -0.0617147833108902, 0.03581632673740387, 0.01592940092086792, 0.00313568115234375, 0.02727396786212921, 0.001993805170059204, 0.07850146293640137, 0.010964632034301758, -0.08533771336078644, -0.023786038160324097, -0.11705169081687927, -0.11453159153461456, -0.12261755764484406, 0.09558466076850891, -0.04504638910293579, 0.11031307280063629, -0.06920354068279266, -0.08524973690509796, 0.05659395456314087, 0.030011162161827087, 0.005046382546424866, -0.12390711903572083, -0.08509893715381622, -0.07587641477584839, 0.0627223551273346, 0.010610699653625488, 0.11765353381633759, 0.11745058000087738, 0.09251205623149872, 0.03306053578853607, -0.1080126166343689, 0.007741391658782959, -0.08331957459449768, 0.04700925946235657, -0.08180846273899078, 0.07625441253185272, 0.09356191754341125, -0.10557533800601959, 0.04373924434185028, -0.11801369488239288, -0.11732295155525208, -0.05343049764633179, -0.025923222303390503, -0.07568858563899994, 0.05231517553329468, -0.12191340327262878, 0.06737065315246582, 0.047021761536598206, 0.1060078889131546, -0.08087942004203796, 0.03970569372177124, -0.03829282522201538, -0.0060134828090667725, -0.11829297244548798, 0.12431235611438751, 0.10742521286010742, -0.10287836194038391, 0.11155827343463898, -0.08010399341583252, 0.02941828966140747, 0.005562141537666321, -0.0989517867565155, 0.08455555140972137, -0.09934781491756439, -0.06323567032814026, -0.04220491647720337, -0.11864876747131348, 0.03569142520427704, -0.018328070640563965, 0.11564856767654419, 0.1030791848897934, 0.10397867858409882, 0.018391430377960205, -0.07897897064685822, -0.06992316246032715, 0.06365780532360077, -0.06103493273258209, -0.09537215530872345, -0.07105398178100586, -0.1198323518037796, -0.11604535579681396, 0.09462718665599823, -0.07468998432159424, -0.1136462390422821, -0.05374731123447418, 0.011596351861953735, 0.10619953274726868, 0.0026451945304870605, -0.048778071999549866, -0.012820497155189514, -0.07440498471260071, -0.12061266601085663, -0.06516443192958832, -0.038089171051979065, 0.10186506807804108, 0.0908893346786499, -0.053288534283638, -0.060253143310546875, 0.025723949074745178, -0.11674408614635468, -0.11468841135501862, -0.08670501410961151, -0.10124211013317108, 0.04029545187950134, -0.06470093131065369, 0.00787346065044403, -0.008403152227401733, -0.05701002478599548, -0.014122188091278076, -0.10537898540496826, 0.09373664855957031, 0.006730571389198303, 0.036069661378860474, -0.09506581723690033, 0.03292396664619446, 0.0716543048620224, -0.09537315368652344, -0.07509985566139221, -0.013760074973106384, -0.06312693655490875, -0.10790681838989258, 0.09066568315029144, -0.12195444107055664, 0.05027969181537628, 0.12403656542301178, -0.05819344520568848, 0.10211406648159027, -0.07071946561336517, -0.07237125933170319, 0.04716674983501434, 0.005779370665550232, 0.08322466909885406, 0.033289819955825806, -0.08222874999046326, -0.08771587908267975, -0.06963934004306793, 0.005157247185707092, 0.018567919731140137, 0.08044202625751495, 0.03681156039237976, 0.09847934544086456, 0.020997032523155212, -0.03471684455871582, 0.004914626479148865, -0.1038970947265625, 0.10886470973491669, -0.06982015073299408, 0.09217509627342224, -0.038108110427856445, -0.014495819807052612, 0.06841713190078735, 0.10579416155815125, 0.007930144667625427, 0.0029231756925582886, -0.028874188661575317, 0.07632435858249664, 0.10965168476104736, 0.06650535762310028, -0.11542370915412903, -0.02642180025577545, -0.021526828408241272, 0.030448824167251587, -0.07314105331897736, 0.0716613382101059, -0.016999274492263794, -0.10538175702095032, 0.02527843415737152, -0.05542570352554321, 0.06556715071201324, -0.08456213772296906, -0.06776796281337738, 0.01684790849685669, -0.043722063302993774, 0.04940788447856903, 0.04071617126464844, 0.047086477279663086, -0.001310601830482483, 0.09168148040771484, -0.09618254005908966, -0.06784947216510773, -0.11958029866218567, -0.1141452044248581, -0.015205979347229004, 0.04035291075706482, -0.08329164981842041, -0.049896836280822754, -0.12375834584236145, -0.020629093050956726, 0.030350461602211, 0.10212408006191254, -0.10412353277206421, -0.07268111407756805, -0.0976407378911972, 0.00043164193630218506, 0.03837911784648895, -0.00917719304561615, 0.025738805532455444, 0.03811514377593994, 0.05151990056037903, 0.02188137173652649, -0.0769980251789093, 0.06082475185394287, 0.052214205265045166, -0.035897091031074524, -0.09657469391822815, 0.09495687484741211, 0.10121007263660431, 0.10202065110206604, -0.08285556733608246, -0.08245079219341278, -0.03173181414604187, -0.0281936377286911, 0.017882704734802246, -0.11019426584243774, 0.06901508569717407, -0.11155818402767181, -0.06151700019836426, -0.026149645447731018, 0.09863872826099396, 0.03985753655433655, 0.07593370974063873, -0.055482879281044006, 0.09043926000595093, -0.04614382982254028, -0.090853750705719, -0.042025819420814514, 0.008949965238571167, -0.11282208561897278, -0.012207195162773132, 0.08254821598529816, 0.0319674015045166, 0.10020661354064941, 0.1229669600725174, 0.025259152054786682, -0.03756070137023926, -0.08511283993721008, -0.11774487793445587, 0.03368985652923584, -0.03218857944011688, -0.05136454105377197, -0.11576516926288605, -0.061377763748168945, 0.08941203355789185, 0.06881193816661835, -0.011254742741584778, 0.013171404600143433, 0.04835556447505951, -0.08703193068504333, -0.011025741696357727, 0.0697602927684784, -0.10999961197376251, -0.04714730381965637, 0.01393115520477295, 0.051263004541397095, -0.054950013756752014, 0.06897643208503723, -0.09049978852272034, -0.021243274211883545, 0.038172319531440735, -0.07533866167068481, 0.024176612496376038, 0.09374700486660004, 0.07991446554660797, -0.03391730785369873, 0.0859774798154831, -0.01916465163230896, -0.11277525126934052, 0.04489096999168396, -0.018963173031806946, 0.12174752354621887, -0.06724707782268524, -0.0718960165977478, -0.04147624969482422, -0.017377033829689026, -0.0953027755022049, -0.10088604688644409, -0.035534679889678955, 0.08821970224380493, 0.03125964105129242, -0.09326285123825073, 0.03434118628501892, -0.1148461252450943, -0.11510695517063141, 0.0628681629896164, -0.12043310701847076, 0.05664120614528656, -0.11436671018600464, 0.012478575110435486, -0.02669796347618103, 0.007052987813949585, 0.12075565755367279, -0.02062562108039856, 0.09243641793727875, 0.07482428848743439, 0.09176404774188995, 0.10646003484725952, -0.022257640957832336, -0.03257785737514496, 0.029375582933425903, -0.05724214017391205, -0.07971228659152985, -0.11060996353626251, 0.0693526566028595, 0.06309545040130615, -0.07526467740535736, -0.1064038872718811, -0.0729697048664093, -0.03607933223247528, -0.030244961380958557, -0.053476959466934204, -0.05737149715423584, 0.0340854674577713, 0.0189056396484375, 0.11547036468982697, 0.11277744174003601, 0.07620564103126526, -0.09195342659950256, 0.11550664901733398, 0.0201399028301239, 0.08661480247974396, -0.0964607447385788, 0.06743794679641724, -0.030052706599235535, -0.03846278786659241, 0.08961744606494904, -0.04244796931743622, -0.0012155771255493164, -0.043267130851745605, 0.08390951156616211, 0.05040518939495087, -0.07712866365909576, 0.0004207193851470947, 0.089456707239151, -0.09315900504589081, 0.0067232102155685425, 0.11498895287513733, -0.02228344976902008, -0.016297534108161926, 0.020397275686264038, 0.12468871474266052, 0.11044320464134216, -0.02341379225254059, -0.06325800716876984, -0.09515510499477386, 0.006823524832725525, 0.012025848031044006, -0.0987425446510315, 0.11094357073307037, 0.12019677460193634, 0.0008217543363571167, 0.025680840015411377, 0.1052715927362442, -0.10562783479690552, 0.08353787660598755, 0.018686428666114807, -0.05420076847076416, -0.004096761345863342, 0.08617977797985077, 0.0497351735830307, 0.08630166947841644, -0.041514426469802856, -0.04948920011520386, -0.09404799342155457, 0.09788018465042114, 0.1249396950006485, -0.043454259634017944, 0.10828019678592682, -0.0628979504108429, -0.0016123652458190918, 0.06599441170692444, 0.07727441191673279, -0.03207530081272125, 0.047245800495147705, 0.11596336960792542, 0.1093791276216507, -0.11577098071575165, 0.04773901402950287, -0.11410795152187347, -0.000597730278968811, 0.03083980083465576, 0.12199106812477112, 0.0798477977514267, -0.11456933617591858, -0.11778059601783752, -0.08552117645740509, 0.0033905208110809326, -0.07572895288467407, -0.10540145635604858, -0.10124947130680084, -0.028620198369026184, 0.05185998976230621, -0.07212406396865845, -0.11744195222854614, -0.10615599155426025, 0.05063198506832123, 0.11021624505519867, -0.10320043563842773, 0.11497896909713745, -0.058943912386894226, -0.06066770851612091, -0.02881215512752533, -0.0017997771501541138, 0.11235800385475159, -0.028095364570617676, -0.027733907103538513, -0.06861236691474915, 0.024321362376213074, -0.05953986942768097, -0.044699668884277344, -0.06643027067184448, -0.12063482403755188, -0.11479613184928894, -0.0009672492742538452, -0.10753010213375092, 0.1041984111070633, 0.07595844566822052, 0.05441148579120636, 0.1065293699502945, -0.043375566601753235, 0.061523228883743286, -0.11050784587860107, 0.11302651464939117, 0.0261203795671463, 0.10446241497993469, 0.09211036562919617, 0.07689617574214935, -0.09070174396038055, 0.11756697297096252, 0.07742397487163544, 0.0976005494594574, 0.05843546986579895, 0.05893290042877197, 0.017267614603042603, -0.08091889321804047, -0.0787668377161026, -0.05115330219268799, -0.11601652204990387, -0.11098049581050873, -0.03401930630207062, 0.0569278746843338, -0.06061561405658722, -0.023296654224395752, 0.022021234035491943, 0.03553923964500427, 0.006331220269203186, 0.008575439453125, 1.0907649993896484e-05, -0.020711630582809448, -0.03340098261833191, 0.015712037682533264, 0.08511348068714142, -0.04341515898704529, 0.05056779086589813, 0.043382227420806885, 0.04461963474750519, 0.11326137185096741, 0.09750659763813019, -0.01973816752433777, -0.07250809669494629, -0.01977469027042389, -0.11679010093212128, -0.02096220850944519, 0.011886835098266602, -0.0685139149427414, -0.04543955624103546, 0.026698142290115356, 0.09618695080280304, 0.11036905646324158, 0.058556124567985535, 0.0969105064868927, -0.07209546864032745, -0.05110928416252136, 0.10647840797901154, -0.11448219418525696, -0.11215262115001678, -0.046424150466918945, 0.012264817953109741, 0.11028085649013519, -0.07225087285041809, -0.06769353151321411, -0.1216452568769455, -0.06347306072711945, -0.06405463814735413, 0.12336750328540802, 0.11381810903549194, -0.026104599237442017, 0.1207355409860611, -0.09252262115478516, 0.06039087474346161, 0.0521605908870697, 0.08361181616783142, 0.0783027857542038, 0.11672443151473999, 0.09880396723747253, -0.06353089213371277, 0.017533645033836365, 0.06554262340068817, 0.07384516298770905, -0.04559104144573212, -0.027912110090255737, -0.0773688554763794, -0.11507873237133026, -0.048039510846138, 0.0726296603679657, 0.07554565370082855, -0.046052247285842896, 0.0341167151927948, -0.09917227923870087, 0.06992769241333008, -0.04575897753238678, -0.1186414510011673, -0.07007914781570435, 0.09947021305561066, 0.062380075454711914, 0.023736998438835144, 0.07652375102043152, 0.021209046244621277, 0.009871229529380798, -0.00865761935710907, 0.0795971006155014, -0.022557049989700317, 0.08709673583507538, -0.07136261463165283, -0.021594136953353882, -0.05683907866477966, 0.06609126925468445, -0.09301045536994934, -0.005361691117286682, -0.017351076006889343, -0.08718733489513397, -0.10010196268558502, 0.10017380118370056, -0.11827977001667023, -0.06493988633155823, 0.05669321119785309, -0.03706425428390503, -0.009658053517341614, 0.05650515854358673, -0.01071159541606903, 0.046035826206207275, 0.041056424379348755, -0.043809667229652405, -0.0725911408662796, 0.10518962144851685, -0.06818114221096039, -0.09746481478214264, 0.11819188296794891, -0.05671210587024689, 0.04010172188282013, 0.04128389060497284, 0.10065314173698425, -0.04470932483673096, -0.10448947548866272, 0.1115899384021759, -0.08080287277698517, 0.004445478320121765, 0.058997124433517456, -0.05313411355018616, -0.07618685066699982, -0.020868584513664246, 0.009324193000793457, 0.01100929081439972, 0.10774251818656921, -0.01710301637649536, 0.10480768978595734, 0.10775424540042877, 0.12262547016143799, -0.027323126792907715, 0.008601024746894836, -0.009186819195747375, 0.11735239624977112, 0.1072651743888855, -0.0017312616109848022, 0.036736875772476196, 0.001583382487297058, 0.00033198297023773193, 0.09433633089065552, -0.08410780131816864, 0.05150109529495239, 0.0010071247816085815, 0.039132192730903625, 0.022369518876075745, -0.05716279149055481, 0.007777780294418335, -0.021288201212882996, -0.04899193346500397, -0.09088197350502014, 0.018302902579307556, -0.0072163790464401245, 0.04553501307964325, 0.011664032936096191, 0.03197905421257019, 0.07596443593502045, 0.0058743953704833984, 0.0030334442853927612, -0.04436841607093811, 0.03399553894996643, 0.013960346579551697, -0.10580980777740479, 0.0008374452590942383, -0.009092569351196289, -0.03525826334953308, 0.04159286618232727, -0.08556665480136871, -0.03984135389328003, 0.091575026512146, -0.08823162317276001, -0.04829813539981842, -0.003314077854156494, -0.046270206570625305, 0.05906666815280914, -0.08595004677772522, 0.06625545024871826, 0.04559090733528137, -0.01975145936012268, -0.030154958367347717, 0.08834481239318848, 0.03240083158016205, -0.024769484996795654, 0.06203663349151611, 0.025060057640075684, 0.12223257124423981, 0.03730492293834686, 0.0727815181016922, 0.01773613691329956, 0.005906000733375549, 0.038965508341789246, -0.0349908173084259, 0.08667930960655212, -0.08638948202133179, -0.049695923924446106, -0.017092540860176086, 0.06683653593063354, -0.10884575545787811, -0.01780073344707489, 0.01702292263507843, 0.0482819527387619, -0.08901926875114441, -0.014758124947547913, 0.03136947751045227, -0.08360996842384338, -0.03541402518749237, -0.06738249957561493, 0.08077795803546906, -0.10674796998500824, -0.01171363890171051, 0.009517237544059753, 0.02598738670349121, 0.0692596584558487, 0.07998974621295929, 0.022433415055274963, -0.0994473546743393, 0.09242404997348785, -0.1155707985162735, 0.02822299301624298, -0.05367761850357056, -0.0012028515338897705, -0.07698585093021393, 0.08331719040870667, 0.08509792387485504, 0.06917914748191833, 0.11669446527957916, -0.0679008811712265, 0.08582781255245209, -0.02297171950340271, 0.004060879349708557, -0.06882533431053162, 0.03054600954055786, 0.05881644785404205, 0.09040781855583191, -0.03782053291797638, -0.0981740802526474, -0.12490084767341614, -0.08901919424533844, -0.0806235820055008, 0.07784099876880646, -0.0877317488193512, -0.013047859072685242, 0.0652645081281662, -0.026249617338180542, 0.08657366037368774, 0.08338931202888489, -0.028807297348976135, -0.12091246247291565, -0.036905452609062195, 0.015575781464576721, 0.03294309973716736, -0.0839768648147583, -0.02277866005897522, -0.1027606874704361, -0.0895218551158905, 0.045008718967437744, 0.11476045846939087, 0.021182507276535034, -0.10361608862876892, -0.030044734477996826, 0.12160564959049225, 0.09664499759674072, 0.07532826066017151, -0.06968797743320465, -0.1162070482969284, 0.033223286271095276, -0.12208007276058197, -0.062310218811035156, -0.055568844079971313, 0.047824934124946594, -0.08447742462158203, -0.08425718545913696, -0.031765490770339966, 0.09943337738513947, 0.021535173058509827, 0.1041683703660965, 0.03083360195159912, -0.06464457511901855, -0.1000894159078598, 0.11155526340007782, 0.0150299072265625, 0.09549877047538757, -0.013414666056632996, 0.1141514927148819, 0.12299670279026031, 0.010378062725067139, 0.07726940512657166, 0.11825363337993622, 0.0791209489107132, -0.07354795932769775, -0.1085965633392334, -0.07885842025279999, 0.08631689846515656, -0.10166169703006744, 0.03770792484283447, 0.09326992928981781, 0.08251476287841797, -0.11746065318584442, -0.003002569079399109, -0.035149067640304565, -0.12357068061828613, -0.12477625906467438, 0.10156150162220001, 0.032954081892967224, 0.09975771605968475, 0.04108083248138428, 0.08986245095729828, -0.07385765016078949, -0.05883711576461792, 0.08703623712062836, -0.07810957729816437, 0.08227738738059998, 0.11236990988254547, 0.06414107978343964, 0.085413858294487, 0.020663484930992126, 0.08282947540283203, 0.006722167134284973, -0.11049477756023407, -0.024550333619117737, 0.059883639216423035, 0.11070641875267029, 0.12369078397750854, -0.021311402320861816, -0.02677692472934723, 0.08498039841651917, 0.07216338813304901, 0.04986613988876343, 0.04775659739971161, -0.07236887514591217, 0.03197091817855835, -0.11902114748954773, 0.024630844593048096, 0.0983283519744873, 0.00067862868309021, -0.05958513915538788, -0.027478232979774475, -0.07281801104545593, 0.004606857895851135, -0.041141971945762634, -0.10455656051635742, -0.0670289695262909, -0.00845259428024292, 0.10910455882549286, -0.03663043677806854, 0.05008320510387421, 0.09019182622432709, -0.08440552651882172, -0.08281469345092773, 0.08610936999320984, -0.07285821437835693, -0.08584840595722198, 0.10273253917694092, 0.05352973937988281, -0.04246014356613159, 0.05602818727493286, -0.05199754238128662, 0.05119061470031738, 0.030705556273460388, -0.041535213589668274, -0.05742137134075165, 0.12367984652519226, 0.04743416607379913, -0.005107507109642029, 0.027799353003501892, 0.01347951591014862, 0.0375022292137146, -0.11660635471343994, -0.057498499751091, 0.03694465756416321, 0.11593878269195557, -0.009209364652633667, -0.028698191046714783, 0.005301833152770996, -0.003539472818374634, -0.05562633275985718, -0.06754368543624878, 0.03363904356956482, 0.003595799207687378, -0.12315249443054199, -0.09385889768600464, -0.07219508290290833, 0.014555379748344421, 0.06161490082740784, -0.031171321868896484, 0.021343588829040527, -0.018826931715011597, 0.11159180104732513, 0.048554927110672, -0.05914008617401123, 0.047265201807022095, -0.00805722177028656, 0.04435519874095917, 0.08364424109458923, -0.01150059700012207, -0.11989700794219971, -0.12393033504486084, -0.1048944741487503, -0.025242522358894348, 0.059648916125297546, 0.04923027753829956, -0.056698739528656006, -0.004902586340904236, 0.1140090823173523, 0.12178540229797363, -0.08189849555492401, -0.0832335352897644, 0.12189114093780518, 0.09961318969726562, -0.01851591467857361, -0.10318483412265778, 0.025467082858085632, -0.09274764358997345, -0.009343266487121582, 0.10559062659740448, -0.10005578398704529, 0.09934639930725098, -0.003503084182739258, 0.05566254258155823, -0.049004510045051575, -0.1038753092288971, -0.11456869542598724, -0.018798112869262695, -0.1020420640707016, -0.04117649793624878, 0.05665256083011627, 0.12059549987316132, -0.09735254943370819, 0.019305557012557983, -0.05734296143054962, -0.09639662504196167, -0.055568188428878784, 0.02165234088897705, 0.028837278485298157, 0.008039042353630066, -0.031007662415504456, -0.014185547828674316, 0.048472464084625244, 0.025176987051963806, 0.08049917221069336, -0.024268120527267456, 0.10172046720981598, -0.06308017671108246, 0.029610127210617065, -0.0493081659078598, -0.02163340151309967, 0.10162407159805298, 0.08765536546707153, -0.006393373012542725, -0.07938644289970398, 0.05169627070426941, 0.027661308646202087, -0.024493515491485596, -0.053920403122901917, -0.0914716124534607, 0.1072475016117096, 0.09470973908901215, -0.015765026211738586, 0.005985826253890991, 0.017505645751953125, -0.04415638744831085, -0.05910469591617584, -0.034604787826538086, -0.058967068791389465, 0.04483312368392944, -0.11530894041061401, 0.11015456914901733, 0.0009677410125732422, -0.03612631559371948, 0.112307608127594, -0.053366661071777344, 0.0014878064393997192, -0.08589278161525726, 0.05178713798522949, -0.004760280251502991, 0.0505664199590683, 0.0027930736541748047, 0.09788547456264496, -0.12135134637355804, -0.07385683059692383, 0.019280925393104553, 0.03259997069835663, 0.019563913345336914, -0.053819507360458374, 0.06296153366565704, 0.09032706916332245, -0.0582239031791687, -0.024332880973815918, 0.07584623992443085, -0.033883124589920044, -0.005154803395271301, -0.08338865637779236, -0.1171201765537262, 0.12301620841026306, -0.10332171618938446, -0.11586292088031769, 0.030494391918182373, 0.05251304805278778, 0.08186507225036621, -0.10734811425209045, -0.09678812325000763, 0.01129196584224701, 0.04931625723838806, -0.02389216423034668, 0.07391361892223358, 0.013775110244750977, -0.0004253983497619629, -0.004212677478790283, -0.10979083180427551, 0.0819464772939682, 0.0711507499217987, -0.048542141914367676, 0.018726035952568054, -0.09063556790351868, 0.09605827927589417, 0.029833495616912842, 0.048386380076408386, 0.08812932670116425, -0.11971661448478699, 0.03175099194049835, 0.059087857604026794, -0.06411245465278625, 0.12469883263111115, 0.08027800917625427, 0.023775428533554077, -0.03432184457778931, 0.04725402593612671, 0.01589679718017578, -0.077556312084198, -0.018999755382537842, 0.07789556682109833, 0.08600811660289764, -0.08399534225463867, 0.04771864414215088, -0.05509968101978302, -0.025340378284454346, 0.09073272347450256, 0.018733888864517212, -0.05290001630783081, 0.0654156357049942, -0.11063991487026215, 0.013542577624320984, -0.0010520070791244507, -0.020970135927200317, -0.02110283076763153, -0.09912282228469849, -0.1221189796924591, 0.10725262761116028, 0.021990954875946045, 0.10985036194324493, -0.10455358028411865, 0.08817194402217865, -0.06787635385990143, 0.10878631472587585, -0.1139429360628128, -0.023021206259727478, -0.08627893030643463, -0.05481162667274475, 0.021070212125778198, 0.07090051472187042, -0.034285351634025574, -0.044066816568374634, -0.06733930110931396, 0.07055170834064484, -0.02063608169555664, -0.0775698870420456, 0.08504554629325867, -0.01942126452922821, 0.03753174841403961, -0.03993907570838928, 0.008406758308410645, 0.10529989004135132, -0.0720701813697815, -0.04564446210861206, -0.10331369936466217, -0.0806068629026413, -0.06740424036979675, -0.0169866681098938, 0.05546233057975769, 0.09723275899887085, 0.05459080636501312, 0.06727933883666992, 0.044178664684295654, -0.03217807412147522, -0.005318239331245422, 0.02565617859363556, -0.07832545042037964, -0.021710112690925598, -0.032046422362327576, 0.054774582386016846, -0.02452315390110016, -0.06789495050907135, 0.048289477825164795, -0.008390873670578003, -0.05938388407230377, -0.0014002323150634766, 0.07959501445293427, -0.11145089566707611, -0.045281246304512024, 0.011699989438056946, -0.0750592052936554, -0.03148168325424194, -0.014591708779335022, -0.05365687608718872, -0.06524775922298431, -0.003023400902748108, -0.027251511812210083, -0.013123363256454468, -0.028188228607177734, 0.011533960700035095, -0.02587173879146576, -0.08896559476852417, -0.05046580731868744, -0.04685588181018829, -0.08680856227874756, 0.11545692384243011, 0.11680427193641663, 0.10017837584018707, -0.038499101996421814, 0.008580759167671204, -0.10652770102024078, -0.0012167692184448242, -0.014934778213500977, -0.10989868640899658, 0.1189274936914444, 0.08817760646343231, 0.054380908608436584, 0.10869847238063812, -0.08272247016429901, 0.039391517639160156, -0.039496853947639465, 0.00401519238948822, 0.06203533709049225, 0.0704597681760788, -0.004030510783195496, 0.10938343405723572, 0.03869025409221649, 0.08620943129062653, -0.0009110569953918457, 0.04053190350532532, -0.02796897292137146, 0.06857167184352875, 0.010592639446258545, 0.04374296963214874, 0.08627170324325562, 0.06170995533466339, -0.03407005965709686, -0.010566473007202148, -0.06422148644924164, -0.055732205510139465, -0.018453866243362427, 0.05516195297241211, -0.00485500693321228, 0.048064813017845154, -0.06712949275970459, 0.06499214470386505, 0.11190824210643768, 0.09274539351463318, 0.07951506972312927, -0.06804703176021576, -0.08446314930915833, -0.006247282028198242, 0.1026977151632309, 0.03497849404811859, -0.06601221859455109, 0.1124172955751419, -0.07885316014289856, 0.1173047125339508, 0.08721587061882019, -0.09736351668834686, -0.11995933949947357, -0.07243074476718903, -0.10702386498451233, -0.05916327238082886, -0.00903293490409851, -0.0650877058506012, -0.07845631241798401, 0.01956997811794281, -0.08879509568214417, -0.07755327224731445, 0.06694623827934265, 0.043019309639930725, 0.07331457734107971, -0.0012586712837219238, -0.05462665855884552, 0.020354777574539185, -0.03746667504310608, -0.007834553718566895, -0.0867907851934433, 0.09032459557056427, 0.048361554741859436, 0.12478713691234589, -0.017894983291625977, -0.053491830825805664, -0.027184829115867615, 0.05368910729885101, -0.11766594648361206, -0.07444104552268982, 0.08362962305545807, -0.03919804096221924, 0.013386741280555725, -0.1058988869190216, 0.10918852686882019, -0.08861538767814636, 0.00029528141021728516, -0.09576697647571564, -0.11004379391670227, -0.06311927735805511, -0.04614894092082977, 0.017827674746513367, -0.02152736485004425, 0.05536112189292908, -0.03043384850025177, 0.014300882816314697, -0.008102640509605408, -0.08557802438735962, 0.09716789424419403, 0.11720894277095795, 0.05987931787967682, -0.017069295048713684, 0.07497559487819672, -0.08373914659023285, 0.0997929722070694, -0.061676427721977234, -0.06515669822692871, -0.024371370673179626, -0.08897143602371216, 0.06797470152378082, 0.11531038582324982, -0.05315978825092316, -0.04011771082878113, -0.07968699932098389, 4.2065978050231934e-05, -0.11339113116264343, -0.12404653429985046, 0.02137354016304016, -0.0788596123456955, 0.06806622445583344, -0.013734221458435059, 0.1015835553407669, -0.10092678666114807, 0.11835743486881256, 0.047603994607925415, 0.0895857959985733, -0.01603490114212036, 0.06338924169540405, -0.030568629503250122, -0.06279905140399933, 0.002810269594192505, -0.08385927975177765, -0.10738806426525116, -0.09503483772277832, -0.023103877902030945, 0.01955758035182953, 0.0121297687292099, 0.006114885210990906, 0.051468625664711, -0.10208931565284729, -0.04087159037590027, 0.08786402642726898, 0.03733283281326294, -0.02669413387775421, -0.052063509821891785, -0.09367284178733826, 0.06562256813049316, -0.08820052444934845, -0.04670995473861694, -0.09750480949878693, 0.12486721575260162, -0.09656372666358948, -0.06041611731052399, -0.09400400519371033, -0.11376658082008362, -0.04219478368759155, -0.03030616044998169, 0.0733790248632431, 0.0030924230813980103, 0.05168122053146362, -0.012811556458473206, -0.04113838076591492, -0.12466435134410858, -0.12400995194911957, -0.11277127265930176, -0.06971047818660736, 0.04649665951728821, 0.048176899552345276, 0.02294658124446869, 0.0981648713350296, -0.0237349271774292, 0.07275068759918213, -0.047913506627082825, 0.10466146469116211, -0.1084715873003006, -0.03372456133365631, -0.03314961493015289, -0.0548006147146225, -0.08821851015090942, -0.08202548325061798, -0.08873152732849121, -0.017770081758499146, -0.11119355261325836, -0.096798375248909, 0.11977188289165497, -0.11251407861709595, 0.09293560683727264, -0.10406121611595154, 0.0885082483291626, 0.05653074383735657, 0.1221969872713089, -0.10747767984867096, 0.0733683705329895, -0.07448367774486542, 0.1009041965007782, 0.029148757457733154, 0.09353533387184143, -0.07492062449455261, -0.10070714354515076, -0.029383555054664612, -0.09838391840457916, 0.11890043318271637, 0.06347827613353729, 0.03041645884513855, 0.05470956861972809, 0.089644655585289, 0.11501637101173401, 0.05858135223388672, -0.1016390472650528, -0.09106652438640594, 0.02700759470462799, 0.05716562271118164, -0.07075080275535583, 0.026083573698997498, 0.061273008584976196, 0.03195236623287201, 0.07741318643093109, 0.004267707467079163, 0.0848693996667862, -0.10188420116901398, -0.057761386036872864, 0.12325170636177063, 0.08360058069229126, -0.10430894792079926, 0.04283462464809418, 0.10613614320755005, -0.10979624092578888, -0.03419092297554016, 0.0742056667804718, -0.0749080628156662, 0.060325369238853455, -0.10873664915561676, -0.07686527073383331, -0.025443464517593384, -0.10910801589488983, -0.09767375886440277, -0.061462223529815674, -0.07382230460643768, 0.097243532538414, 0.09134021401405334, 0.11015249788761139, 0.11223264038562775, 0.01669636368751526, 0.06944331526756287, 0.08541072905063629, -0.0624735951423645, -0.03762750327587128, -0.04498507082462311, -0.026409432291984558, -0.029855206608772278, 0.07641158998012543, 0.09322725236415863, 0.09404677152633667, -0.08088946342468262, 0.03435024619102478, 0.10234855115413666, -0.09522409737110138, -0.09272420406341553, -0.08587265014648438, 0.018170073628425598, 0.005866885185241699, 0.06026802957057953, 0.04133971035480499, -0.05539308488368988, -0.006602451205253601, 0.10122610628604889, -0.07185415923595428, -0.11701326072216034, -0.11930330097675323, -0.01966947317123413, -0.0790901780128479, -0.04875174164772034, -0.1194409430027008, 0.08897840976715088, -0.07912375032901764, -0.027640700340270996, -0.08749200403690338, -0.02801041305065155, 0.1091025322675705, -0.014349371194839478, 0.029341325163841248, 0.053946152329444885, -0.11654649674892426, -0.08706963062286377, 0.061439335346221924, -0.10127410292625427, -0.08411021530628204, -0.06261704862117767, -0.023063406348228455, -0.02443462610244751, 0.05695800483226776, -0.09937898814678192, 0.026740893721580505, 0.0029256492853164673, -0.08964376151561737, 0.0658596009016037, -0.0697547048330307, -0.12187682092189789, 0.035088762640953064, 0.12444035708904266, 0.017137184739112854, 0.010370537638664246, -0.001808077096939087, 0.029349476099014282, 0.013216778635978699, 0.05929248034954071, -0.03066830337047577, 0.04932813346385956, 0.07245898246765137, -0.0696248859167099, 0.002599760890007019, 0.03158777952194214, -0.07985851168632507, 0.007138043642044067, 0.1066800206899643, 0.09722279012203217, 0.024642840027809143, 0.03672437369823456, 0.04430884122848511, 0.06731125712394714, -0.06808705627918243, -0.12452042102813721, -0.011190950870513916, -0.11137121915817261, -0.03307655453681946, 0.04356357455253601, -0.026516839861869812, 0.00413164496421814, 0.042613789439201355, -0.07850372791290283, -0.08309176564216614, 0.005060434341430664, 0.0005813241004943848, -0.12286561727523804, -0.08394822478294373, 0.07445509731769562, -0.11212022602558136, -0.037662655115127563, -0.10343359410762787, -0.046856269240379333, -0.09753653407096863, 0.07527944445610046, 0.11911332607269287, 0.1163349449634552, 0.028822466731071472, -0.11109079420566559, 0.10836508870124817, 0.07261207699775696, 0.039114177227020264, -0.032958224415779114, -0.00954657793045044, -0.03774671256542206, 0.022086411714553833, 0.02915877103805542, -0.11198434233665466, -0.0403674840927124, -0.10738061368465424, 0.005990773439407349, -0.036836132407188416, -0.1245194524526596, -0.09570173919200897, 0.05804961919784546, 0.10829803347587585, -0.021845966577529907, 0.07224474847316742, -0.08685363829135895, 0.10776686668395996, -0.10188044607639313, -0.09174127876758575, 0.11749134957790375, -0.07628943026065826, 0.003379523754119873, -0.03320358693599701, 0.0755261778831482, -0.0906238704919815, -0.1136624664068222, 0.11126622557640076, 0.07919321954250336, -0.037595584988594055, 0.07251490652561188, 0.03241632878780365, 0.07527808845043182, -0.01241941750049591, -0.00945630669593811, 0.12489309906959534, -0.028705954551696777, -0.019510120153427124, 0.01968686282634735, 0.05746331810951233, 0.04275134205818176, 0.10621660947799683, -0.11840370297431946, -0.11530238389968872, 0.0295494943857193, -0.09241902828216553, 0.05660101771354675, -0.003885015845298767, 0.002637207508087158, -0.057331278920173645, 0.09345747530460358, 0.07829229533672333, -0.11961729824542999, -0.10759946703910828, -0.11664775013923645, 0.019652709364891052, 0.09246757626533508, 0.025250017642974854, 0.0986306369304657, -0.08247460424900055, -0.08735723793506622, 0.09776769578456879, -0.10688045620918274, -0.10160063207149506, -0.09415999054908752, -0.07043489813804626, -0.06257045269012451, 0.0626705139875412, 0.041302382946014404, -0.0998079925775528, 0.005116984248161316, 0.025710001587867737, 0.00979149341583252, 0.12426581978797913, 0.024713873863220215, -0.0640401840209961, 0.06594985723495483, -0.0813848227262497, 0.07883001863956451, 0.10256688296794891, 0.11906762421131134, -0.12045970559120178, 0.09115396440029144, -0.06689319014549255, 0.11137297749519348, -0.0025371313095092773, 0.07307827472686768, 0.09098748862743378, -0.03295733034610748, -0.09728920459747314, -0.011712983250617981, 0.08611895143985748, 0.020790845155715942, -0.03901784121990204, -0.0938887745141983, -0.03350275754928589, 0.029988154768943787, 0.023874878883361816, -0.122939333319664, -0.10888105630874634, 0.008548840880393982, 0.0422261506319046, 0.01637396216392517, 0.10130569338798523, 0.0988655686378479, -0.04462277889251709, -0.04901346564292908, 0.11408604681491852, 0.04274487495422363, 0.00824633240699768, -0.08114881813526154, 0.005290120840072632, 0.04543799161911011, -0.07233043015003204, -0.03801761567592621, 0.07612945139408112, -0.12451837956905365, -0.12198945879936218, -0.12465895712375641, 0.03812386095523834, -0.08515216410160065, -0.12042884528636932, -0.12441770732402802, -0.11084569990634918, 0.02450712025165558, -0.12350156903266907, -0.07665836811065674, 0.007261291146278381, 0.024922162294387817, 0.05962669849395752, 0.11705745756626129, 0.022049888968467712, 0.11088709533214569, 0.12310868501663208, 0.013775378465652466, 0.023261934518814087, 0.1021740734577179, -0.11692026257514954, 0.10286416113376617, -0.06826014816761017, -0.018900230526924133, 0.00020828843116760254, -0.036970868706703186, 0.10117602348327637, -0.058009013533592224, 0.05014273524284363, 0.037234485149383545, 0.06566368043422699, 0.015828624367713928, -0.11200101673603058, -0.0946183055639267, 0.123310387134552, 0.045523688197135925, 0.08771377801895142, 0.08120454847812653, -0.06668455898761749, 0.10805262625217438, 0.02934136986732483, 0.032241418957710266, -0.11857651174068451, -0.057978466153144836, -0.09152637422084808, -0.014383465051651001, 0.1113051325082779, -0.09049941599369049, 0.021235153079032898, 0.016548633575439453, -0.08751511573791504, 