{"input_conv": {"weight": {"shape": [14, 7, 3], "values": [0.19799120724201202, -0.0658237487077713, -0.14356189966201782, 0.0721086710691452, -0.13045239448547363, 0.09085680544376373, -0.1771879643201828, -0.20089296996593475, 0.028727546334266663, 0.08081300556659698, -0.06381244957447052, -0.1660018265247345, -0.1668146550655365, -0.14750152826309204, 0.05346818268299103, 0.15195931494235992, -0.10448375344276428, 0.043073371052742004, -0.11758141964673996, -0.1526685655117035, -0.18837444484233856, 0.005698353052139282, 0.1841667741537094, 0.2162395864725113, -0.14304617047309875, -0.10637218505144119, -0.0868796706199646, -0.03463016450405121, 0.02313189208507538, -0.11078284680843353, 0.07458870112895966, 0.18135221302509308, -0.03838415443897247, 0.18014760315418243, -0.03984583914279938, -0.10485564917325974, 0.13264180719852448, -0.21593230962753296, -0.20726388692855835, -0.1417360007762909, 0.19840793311595917, 0.02963562309741974, -0.025994345545768738, 0.184229776263237, -0.05481572449207306, 0.0603855699300766, 0.06312422454357147, 0.1681349128484726, -0.06666187942028046, 0.09131179749965668, 0.11816789209842682, -0.16237567365169525, 0.1600637286901474, -0.09925283491611481, 0.17151851952075958, 0.06635282933712006, -0.06224070489406586, -0.08565729856491089, 0.00837978720664978, -0.21163220703601837, -0.025521010160446167, -0.07895220816135406, -0.18043890595436096, 0.06768377125263214, 0.18734444677829742, 0.06103111803531647, -0.06194236874580383, 0.15162737667560577, -0.11070919781923294, -0.08201058208942413, -0.189003586769104, -0.2094845026731491, 0.17290736734867096, -0.1623232066631317, -0.19368654489517212, -0.13018898665905, 0.18582461774349213, -0.11514373868703842, 0.1621008962392807, 0.11414070427417755, -0.03007356822490692, 0.0874827653169632, -0.09077697992324829, 0.054417505860328674, 0.1872568577528, -0.2090899795293808, -0.21004272997379303, 0.21234379708766937, 0.03937293589115143, 0.12987689673900604, 0.21261216700077057, -0.14625298976898193, 0.054908230900764465, -0.17052297294139862, -0.003945901989936829, 0.17441438138484955, 0.15353046357631683, -0.01206110417842865, 0.1228468269109726, -0.18414759635925293, -0.00954940915107727, 0.1488247960805893, -0.19958463311195374, -0.07304088771343231, -0.12421777844429016, 0.07503800094127655, -0.17378593981266022, 0.07705710828304291, -0.16416753828525543, -0.11140254139900208, -0.18843862414360046, -0.1535441279411316, -0.2103838473558426, -0.108054980635643, -0.022065207362174988, 0.20726118981838226, 0.14872626960277557, -0.06644648313522339, 0.031249910593032837, -0.018510788679122925, -0.1741696149110794, 0.1192934662103653, -0.15123191475868225, -0.06954319775104523, 0.12625642120838165, 0.05441538989543915, -0.1417822539806366, -0.1854865700006485, -0.1320892572402954, 0.15833576023578644, -0.0990903303027153, -0.09678253531455994, 0.18606512248516083, 0.06808729469776154, 0.19851119816303253, 0.18565787374973297, 0.12187494337558746, -0.04257628321647644, 0.15339182317256927, 0.14762495458126068, 0.13674329221248627, -0.07656943798065186, 0.03653346002101898, -0.05280552804470062, 0.19200251996517181, -0.1075456365942955, 0.03787641227245331, 0.02190251648426056, -0.20280340313911438, 0.14240975677967072, -0.1818431317806244, -0.19754447042942047, 0.05827556550502777, 0.08282022178173065, -0.000664055347442627, -0.09374450892210007, 0.09124501049518585, -0.17570477724075317, -0.0650278627872467, -0.11665210872888565, -0.21058766543865204, 0.0014255642890930176, 0.19770993292331696, 0.1176852136850357, 0.16774480044841766, 0.09120731055736542, -0.06645949184894562, 0.16142849624156952, -0.0508587509393692, 0.10483013093471527, 0.19722549617290497, -0.00039808452129364014, -0.08543592691421509, -0.156935453414917, -0.03600999712944031, 0.14527709782123566, 0.05375893414020538, -0.013561934232711792, -0.0010387301445007324, 0.012950792908668518, -0.03450162708759308, 0.10085271298885345, 0.21625305712223053, 0.16524486243724823, 0.15024884045124054, -0.08222222328186035, 0.07216961681842804, 0.16095320880413055, -0.2088443636894226, -0.011236339807510376, 0.06130988895893097, 0.18783922493457794, 0.1710602194070816, -0.07523621618747711, 0.05461131036281586, 0.06331558525562286, 0.009531378746032715, -0.13114480674266815, -0.20415200293064117, -0.11532788723707199, -0.051706552505493164, 0.01263342797756195, 0.08730827271938324, 0.06760607659816742, -0.1718524992465973, 0.15680791437625885, 0.0799228698015213, -0.10296622663736343, 0.0004933178424835205, 0.057467952370643616, -0.18150797486305237, -0.0850258469581604, 0.07013611495494843, -0.1770721822977066, -0.022601217031478882, -0.1898573786020279, -0.003954410552978516, 0.09724803268909454, 0.1213696151971817, 0.12420319020748138, 0.09483329951763153, 0.12104643881320953, -0.06964759528636932, 0.21586529910564423, 0.006503641605377197, 0.1430869847536087, 0.013620957732200623, 0.2134498804807663, -0.04621003568172455, -0.012375757098197937, 0.11068202555179596, -0.18470819294452667, -0.050914883613586426, 0.0259716659784317, -0.056841716170310974, -0.16894693672657013, -0.11018534004688263, -0.10003771632909775, 0.006401658058166504, -0.13011613488197327, -0.009023800492286682, -0.12108808010816574, -0.19964683055877686, 0.06943218410015106, 0.04557912051677704, -0.1929795742034912, -0.054685771465301514, 0.08732949197292328, 0.20655237138271332, -0.0753260999917984, -0.09499446302652359, -0.17132321000099182, 0.09876127541065216, 0.013764187693595886, 0.07875274121761322, 0.13641054928302765, -0.07694964110851288, 0.08050711452960968, -0.21798372268676758, 0.14487625658512115, 0.1844872683286667, 0.07384143769741058, 0.06510664522647858, 0.21699102222919464, -0.21145929396152496, -0.12370392680168152, 0.18835948407649994, 0.12737397849559784, -0.06160314381122589, -0.07766492664813995, -0.2112223207950592, -0.060038402676582336, 0.10061271488666534, -0.1242259219288826, 0.05221568048000336, 0.1880647987127304, -0.03391063213348389, 0.10186763107776642, 0.21299327909946442, 0.16177870333194733, 0.06492100656032562, -0.018536850810050964, 0.2141161412000656, -0.20285631716251373, -0.040437355637550354, -0.1221885085105896, -0.10648690909147263, -0.1582830846309662, 0.08158580958843231, 0.1448598951101303, 0.1164928525686264, -0.1523752510547638, -0.16606000065803528, 0.10100717842578888]}, "bias": {"shape": [14], "values": [0.1058543473482132, -0.06518444418907166, -0.20935708284378052, 0.07615993916988373, -0.21085351705551147, -0.10848932713270187, -0.19266371428966522, -0.1844691038131714, -0.2047264128923416, -0.1926957368850708, 0.03578023612499237, 0.20158998668193817, 0.08998395502567291, 0.18211691081523895]}}, "output_conv": {"weight": {"shape": [7, 7, 1], "values": [-0.14842915534973145, 0.3143552243709564, 0.1632070243358612, -0.2626214623451233, -0.1546260118484497, -0.3213736116886139, -0.02291172742843628, -0.2341376543045044, 0.1798284947872162, -0.27677014470100403, -0.289726197719574, 0.10909080505371094, 0.1886213719844818, 0.3576469123363495, 0.1804896891117096, -0.07539588212966919, 0.3448289930820465, -0.08808845281600952, 0.31548282504081726, 0.3252333104610443, -0.10424673557281494, 0.3690209686756134, 0.15121212601661682, 0.07183459401130676, -0.29733067750930786, 0.22476604580879211, -0.16119782626628876, -0.08724114298820496, 0.07142743468284607, -0.11017447710037231, 0.2621977627277374, 0.1551995575428009, 0.16605153679847717, 0.22929707169532776, 0.31338199973106384, 0.18563267588615417, 0.17019912600517273, 0.06528553366661072, -0.059602320194244385, 0.23446711897850037, 0.32396963238716125, -0.3711342513561249, 0.17722472548484802, 0.34182247519493103, 0.20832911133766174, 0.01378437876701355, -0.1215682327747345, 0.3273749053478241, -0.15622520446777344]}, "bias": {"shape": [7], "values": [0.04710674285888672, -0.14139185845851898, 0.19110772013664246, -0.05758035182952881, -0.21725231409072876, -0.16346953809261322, 0.12821999192237854]}}}