{"input_conv": {"weight": {"shape": [14, 7, 3], "values": [0.13548307120800018, -0.16245441138744354, -0.04830707609653473, 0.05866323411464691, 0.13512007892131805, -0.1250118911266327, 0.11443360149860382, -0.0914163738489151, -0.10128059983253479, 0.03880591690540314, 0.19584660232067108, -0.0886017233133316, -0.18095414340496063, -0.054458945989608765, 0.15509642660617828, -0.19344905018806458, -0.00039605796337127686, -0.13313597440719604, 0.02223910391330719, 0.13039784133434296, -0.004485756158828735, -0.005762919783592224, -0.02780809998512268, -0.01570737361907959, 0.02651245892047882, 0.009402275085449219, -0.07578745484352112, -0.03087078034877777, 0.09180112183094025, 0.1325613111257553, -0.07149606943130493, -0.002795502543449402, -0.1715921014547348, -0.14621713757514954, 0.1101653128862381, 0.0988975316286087, 0.11481912434101105, 0.018485024571418762, -0.17916175723075867, -0.07686129212379456, 0.05469192564487457, 0.08528123795986176, 0.05421365797519684, 0.056739941239356995, 0.0056556761264801025, 0.17037348449230194, -0.16603794693946838, 0.06272737681865692, 0.16281040012836456, 0.051961079239845276, -0.12447512894868851, -0.2098141461610794, -0.10679545253515244, -0.19812168180942535, -0.006968647241592407, 0.17776472866535187, -0.0007665753364562988, -0.06882338225841522, 0.0639459639787674, 0.16769210994243622, 0.17573659121990204, 0.17240752279758453, -0.21135160326957703, -0.08676594495773315, -0.008253619074821472, 0.17544059455394745, -0.19795262813568115, -0.0463135689496994, -0.1320081651210785, 0.09214334189891815, 0.11396361887454987, 0.16790197789669037, 0.21719644963741302, 0.013659477233886719, 0.13573522865772247, -0.023845598101615906, 0.07051794230937958, 0.20799030363559723, 0.10981811583042145, -0.19623255729675293, -0.12043558061122894, -0.15620717406272888, -0.07417263090610504, 0.07003141939640045, 0.001143530011177063, -0.17599636316299438, 0.05822993814945221, -0.05815957486629486, -0.08126167953014374, -0.19589562714099884, -0.21618802845478058, 0.146773561835289, -0.053421005606651306, 0.21021999418735504, -0.1686195582151413, 0.011858716607093811, -0.13536003232002258, 0.21817351877689362, -0.04215797781944275, -0.09922086447477341, -0.032617777585983276, 0.1240912526845932, 0.17579428851604462, -0.09528622776269913, 0.16967321932315826, 0.20689822733402252, -0.18321771919727325, -0.0550435334444046, 0.0424189418554306, -0.2015804499387741, 0.06470392644405365, 0.061660900712013245, -0.03616438806056976, -0.024003684520721436, 0.17913426458835602, 0.1489245444536209, 0.1280677765607834, -0.1307591050863266, -0.04766833782196045, -0.05585484206676483, 0.045522794127464294, -0.026185035705566406, 0.005557253956794739, -0.11453340947628021, 0.14760731160640717, 0.1733473688364029, 0.14562712609767914, -0.03492496907711029, -0.2156120091676712, -0.15986678004264832, 0.16114597022533417, 0.1788512021303177, 0.10796932876110077, -0.0688919723033905, -0.19532093405723572, -0.0809626430273056, 0.1263970285654068, -0.03777213394641876, -0.07363846898078918, 0.0784907191991806, -0.0024977028369903564, 0.16770268976688385, 0.14774946868419647, 0.13477720320224762, 0.16284550726413727, -0.06999276578426361, 0.04539547860622406, 0.17482127249240875, 0.20798622071743011, -0.1835300326347351, -0.06498555839061737, -0.11923466622829437, 0.0032376497983932495, -0.17820125818252563, 0.14055235683918, 0.08495281636714935, 0.14773179590702057, 0.19980673491954803, 0.2033461481332779, 0.12623880803585052, -0.1651712954044342, -0.13379576802253723, -0.07618072628974915, 0.1805180162191391, 0.10851795971393585, 0.16548769176006317, -0.029249608516693115, 0.15408138930797577, -0.0687704086303711, -0.006342634558677673, -0.03944548964500427, -0.12906667590141296, 0.040337756276130676, -0.09781371057033539, 0.10744540393352509, 0.04105575382709503, 0.019385159015655518, 0.019729599356651306, 0.025161713361740112, -0.0940423384308815, 0.17505545914173126, 0.0640716403722763, 0.07433153688907623, -0.11983432620763779, 0.02773021161556244, 0.1966274231672287, 0.01505175232887268, 0.08697997033596039, 0.052856579422950745, 0.18774203956127167, -0.14164197444915771, 0.038923993706703186, -0.014093831181526184, 0.0985865443944931, -0.10825192928314209, -0.15209119021892548, 0.027040749788284302, 0.06683553755283356, 0.010778635740280151, 0.10372085869312286, 0.03095903992652893, -0.1786378026008606, -0.14318987727165222, -0.07453739643096924, 0.08030225336551666, -0.1522066444158554, -0.12298137694597244, 0.13518346846103668, -0.05925747752189636, -0.18797455728054047, 0.06676258146762848, 0.15707983076572418, 0.18413807451725006, -0.11485347896814346, -0.10434882342815399, 0.14500488340854645, -0.19796930253505707, 0.022422298789024353, 0.08959408104419708, -0.09295447170734406, 0.007287085056304932, -0.08117325603961945, -0.023893654346466064, 0.20658431947231293, 0.0934085100889206, 0.19164814054965973, 0.13002072274684906, 0.11381734907627106, -0.21802683174610138, -0.16674062609672546, 0.030263543128967285, 0.12421999871730804, 0.08611945807933807, -0.16349366307258606, -0.16252988576889038, -0.09306542575359344, -0.0384448766708374, 0.105892613530159, -0.13463819026947021, -0.10337692499160767, -0.007426053285598755, 0.005597993731498718, -0.17415130138397217, -0.08360698819160461, -0.2163376808166504, 0.14521081745624542, 0.14769913256168365, -0.0261392742395401, 0.09902705252170563, -0.21281713247299194, 0.18565376102924347, 0.04640619456768036, -0.07840605080127716, -0.21033696830272675, 0.04627867043018341, -0.17393147945404053, 0.03301800787448883, -0.07069471478462219, 0.19986794888973236, -0.1927303671836853, -0.0442022830247879, 0.12192840874195099, -0.19099161028862, -0.10362861305475235, -0.21318183839321136, 0.11884377896785736, 0.09514166414737701, 0.2147137075662613, 0.18728651106357574, -0.0731133371591568, -0.07400509715080261, 0.05602578818798065, 0.1591503769159317, 0.14518345892429352, 0.12963725626468658, 0.0881890207529068, 0.0933273583650589, 0.08443550765514374, 0.08239991962909698, -0.10966888815164566, -0.19659632444381714, 0.18529023230075836, 0.1877904087305069, -0.04467110335826874, 0.03318168222904205, -0.1275312304496765, -0.16899922490119934, -0.01573273539543152, 0.18658871948719025, -0.14581170678138733, 0.21384598314762115, -0.020072802901268005, 0.14326633512973785, -0.16014742851257324]}, "bias": {"shape": [14], "values": [0.19333647191524506, -0.12849880754947662, -0.02341023087501526, 0.021825462579727173, -0.045216113328933716, 0.030189305543899536, -0.10794829577207565, -0.1634032279253006, 0.09464235603809357, -0.08597065508365631, 0.13285492360591888, 0.13147751986980438, 0.20037759840488434, 0.20037783682346344]}}, "residual_conv": {"weight": {"shape": [7, 7, 1], "values": [-0.019613444805145264, 0.14534184336662292, -0.30658742785453796, -0.17401222884655, -0.1832694709300995, -0.3617558777332306, -0.28906625509262085, 0.3087960183620453, -0.11832728981971741, -0.12421688437461853, 0.10301065444946289, -0.048393696546554565, 0.15707853436470032, -0.022191107273101807, -0.16908682882785797, -0.06328567862510681, -0.12991604208946228, -0.052846431732177734, 0.24037590622901917, -0.005633562803268433, 0.016690373420715332, -0.26671692728996277, 0.37546250224113464, 0.21582219004631042, 0.17284908890724182, -0.16815145313739777, -0.232426255941391, 0.02049916982650757, 0.2149045169353485, -0.29234233498573303, 0.06429252028465271, 0.1882435381412506, -0.18787820637226105, 0.04409906268119812, 0.30772915482521057, 0.07370710372924805, 0.09977781772613525, -0.036959290504455566, 0.3653927743434906, -0.12909367680549622, 0.05541729927062988, -0.1473030000925064, 0.07285168766975403, 0.19180884957313538, 0.0460037887096405, 0.37581929564476013, -0.1908673197031021, 0.09100866317749023, 0.05909284949302673]}, "bias": {"shape": [7], "values": [0.1388697326183319, -0.2915244698524475, 0.35205575823783875, 0.07641538977622986, -0.058825939893722534, 0.32764706015586853, -0.30292558670043945]}}, "skip_conv": {"weight": {"shape": [7, 7, 1], "values": [0.2529657781124115, -0.1184491217136383, 0.3701154887676239, -0.3506453037261963, -0.21839919686317444, -0.04827776551246643, -0.09708723425865173, -0.06410554051399231, -0.1151989996433258, -0.24448473751544952, -0.0845949649810791, -0.04790717363357544, 0.1209445595741272, 0.2914004623889923, -0.03345188498497009, 0.16763511300086975, -0.215768501162529, 0.3107742965221405, -0.16993705928325653, 0.0668857991695404, -0.20218722522258759, 0.2350006401538849, 0.04362550377845764, 0.34881332516670227, -0.2762835621833801, -0.09408223628997803, -0.2333287000656128, 0.34943637251853943, 0.08338373899459839, 0.23582014441490173, 0.06312054395675659, 0.2896098792552948, 0.051632970571517944, -0.18985597789287567, -0.07786601781845093, -0.32694751024246216, -0.03145033121109009, -0.2635083794593811, 0.2540840804576874, -0.1075395941734314, 0.041823238134384155, 0.3362129032611847, -0.3098292350769043, 0.012246400117874146, -0.28992900252342224, 0.09998801350593567, -0.08597883582115173, 0.2847013771533966, 0.03398960828781128]}, "bias": {"shape": [7], "values": [0.1980513036251068, 0.17131516337394714, -0.23209328949451447, -0.10057815909385681, -0.3115268349647522, -0.012709379196166992, -0.19332346320152283]}}}