{"config": {"model_type": "ResLSTM", "norm_mean": 0.10000000149011612, "norm_std": 0.8999999761581421}, "meta_data": {}, "parameters": {"input_size": 1, "output_size": 1, "hidden_size": 64, "ps_hidden_size": 8, "ps_num_hidden_layers": 3}, "state_dict": {"rnn": {"weight_hh_l0": {"shape": [256, 64], "values": [0.033036038279533386, -0.04483802616596222, -0.0778902918100357, 0.08115561306476593, -0.014484494924545288, -0.06716257333755493, -0.09427624940872192, -0.11883397400379181, 0.07381094992160797, 0.1076265424489975, -0.03913523256778717, -0.06639322638511658, -0.07991689443588257, 0.09413430094718933, 0.08797864615917206, 0.041034623980522156, 0.08248838782310486, -0.12083497643470764, -0.019087642431259155, 0.05917997658252716, 0.06368741393089294, 0.08948405086994171, -0.020600363612174988, -0.04093043506145477, 0.09763464331626892, -0.009938031435012817, -0.01785677671432495, 0.09296716749668121, -0.07868407666683197, 0.054516181349754333, 0.11533237993717194, -0.0919887125492096, -0.008439570665359497, 0.043495699763298035, -0.07972757518291473, 0.001100778579711914, -0.10786235332489014, -0.06152375042438507, -0.08714848756790161, -0.004253596067428589, -0.039865002036094666, -0.1133766770362854, 0.06332811713218689, 0.030639320611953735, -0.018732905387878418, -0.006535276770591736, 0.06764525175094604, 0.06933696568012238, -0.018330782651901245, -0.08055812120437622, -0.002518266439437866, 0.1167074590921402, 0.03454163670539856, 0.11890676617622375, -0.09677638113498688, 0.05558404326438904, 0.05002358555793762, -0.09689843654632568, 0.020276784896850586, -0.06298390030860901, 0.10730712115764618, -0.04032154381275177, 0.05660124123096466, -0.07644061744213104, -0.08122009038925171, 0.025170430541038513, 0.10884560644626617, 0.03152689337730408, 0.11509402096271515, -0.07203052937984467, -0.08892875909805298, -0.0703655481338501, 0.08208487927913666, -0.02527514100074768, 0.013704672455787659, 0.11637276411056519, -0.07581363618373871, -0.08736924827098846, -0.05544200539588928, -0.046353355050086975, -0.10814647376537323, 0.020976871252059937, 0.0746871680021286, 0.05265471339225769, -0.10960863530635834, -0.03882943093776703, -0.09922929108142853, 0.02312462031841278, 0.03522045910358429, -0.11046814918518066, 0.0006942301988601685, 0.027047008275985718, 0.11682158708572388, -0.11956577003002167, -0.0037159472703933716, -0.05462639033794403, 0.023082584142684937, 0.08768069744110107, 0.040352195501327515, -0.11145219206809998, -0.03512997925281525, -0.02897360920906067, -0.019742920994758606, 0.05147367715835571, -0.10492071509361267, 0.11399230360984802, 0.01545819640159607, 0.06186167895793915, 0.05823034048080444, -0.010923057794570923, -0.11287190020084381, -0.1099364310503006, -0.0037612617015838623, -0.04358646273612976, 0.05858635902404785, 0.08206407725811005, -0.017991557717323303, -0.035243675112724304, 0.05739779770374298, 0.0398624986410141, -0.023225784301757812, -0.11688274145126343, -0.08354325592517853, -0.052731215953826904, 0.049103423953056335, -0.11429010331630707, 0.03313805162906647, -0.044033557176589966, 0.05088774859905243, 0.0027166754007339478, 0.044429391622543335, 0.10308206081390381, 0.05721740424633026, 0.047965824604034424, -0.024342089891433716, 0.057709261775016785, -0.07943959534168243, 0.029344141483306885, -0.029989123344421387, 0.09320248663425446, 0.11049073934555054, 0.12281011044979095, 0.08766791224479675, 0.02976994216442108, -0.1139313131570816, 0.007497355341911316, 0.07646749913692474, -0.040374353528022766, -0.06939442455768585, -0.06008853018283844, -0.03713177144527435, 0.03544566035270691, 0.02609093487262726, -0.12120628356933594, 0.11419142782688141, -0.014857679605484009, 0.05569325387477875, -0.006847202777862549, -0.006274327635765076, -0.07046107947826385, 0.09011699259281158, 0.11777181923389435, -0.05895175039768219, 0.10082520544528961, 0.10026086866855621, 0.07944479584693909, -0.11037370562553406, 0.014094561338424683, -0.013198316097259521, -0.09531702101230621, -0.11336779594421387, -0.049157366156578064, 0.019638240337371826, -0.01621250808238983, 0.12388753890991211, -0.045269593596458435, 0.122969850897789, -0.08269025385379791, 0.002900838851928711, 0.018317386507987976, 0.09873241186141968, -0.04460543394088745, -0.042616650462150574, -0.08115988969802856, -0.04147811233997345, -0.019459053874015808, 0.01026877760887146, -0.05229046940803528, -0.02150718867778778, 0.06363685429096222, -0.050822675228118896, -0.1029021143913269, 0.0577099472284317, -0.08187596499919891, -0.04540269076824188, 0.006064847111701965, -0.010942921042442322, -0.0253228098154068, 0.030451670289039612, -0.12418815493583679, -0.10206054151058197, 0.010558754205703735, -0.08268189430236816, 0.10083776712417603, -0.09113699197769165, -0.05470012128353119, 0.06581348180770874, 0.09617705643177032, -0.07637953758239746, -0.04639984667301178, 0.10829366743564606, 0.04832838475704193, -0.086507648229599, 0.07746471464633942, 0.06279127299785614, 0.10962001979351044, 0.026839956641197205, 0.037059485912323, -0.11850975453853607, 0.12487557530403137, 0.11125089228153229, 0.08331818878650665, -0.11548224091529846, -0.025649815797805786, -0.09960611164569855, -0.004460886120796204, -0.022507071495056152, 0.11196574568748474, 0.07032324373722076, 0.04585450887680054, -0.1173364520072937, 0.02153763175010681, 0.06726957857608795, 0.09224961698055267, -0.1090688556432724, -0.05080114305019379, -0.10676588118076324, 0.02699984610080719, -0.04510962963104248, -0.0953541249036789, -0.12250231206417084, 0.05723768472671509, 0.013317599892616272, -0.09368795156478882, -0.008870437741279602, -0.01788298785686493, -0.0183141827583313, 0.10651072859764099, 0.05176718533039093, 0.04507431387901306, -0.11896875500679016, 0.024405404925346375, 0.06538258492946625, 0.06669050455093384, -0.12203021347522736, -0.059547826647758484, -0.01913250982761383, -0.0007617771625518799, -0.08940590918064117, -0.056004494428634644, -0.048530206084251404, 0.10190588235855103, -0.11585001647472382, -0.04304732382297516, -0.05548137426376343, 0.08920812606811523, -0.030549094080924988, -0.08532331883907318, 0.0015204697847366333, -0.0862530916929245, -0.04317116737365723, 0.04203443229198456, -0.06994324922561646, 0.08314085006713867, 0.01278705894947052, 0.1197899729013443, 0.0899035781621933, -0.016558662056922913, -0.03856216371059418, 0.00961141288280487, -0.017484664916992188, 0.08128181099891663, 0.08168894052505493, -0.10710039734840393, 0.08691486716270447, 0.0015687495470046997, -0.04576048254966736, 0.0320916622877121, 0.0007843077182769775, -0.06923022866249084, 0.11852914094924927, -0.020529791712760925, 0.0886189341545105, -0.08188872039318085, -0.041934266686439514, -0.012990236282348633, 0.08295434713363647, -0.08022849261760712, -0.10858537256717682, 0.11728191375732422, 0.11622384190559387, 0.024049222469329834, -0.007221013307571411, 0.09517408907413483, 0.11361566185951233, -0.03223183751106262, -0.08484691381454468, 0.03348854184150696, -0.12035606801509857, -0.06026753783226013, -0.11206106841564178, 0.1208387166261673, 0.0363786518573761, 0.088446706533432, -0.07103343307971954, -0.1056136041879654, -0.04421915113925934, 0.11846143007278442, -0.11808963119983673, -0.12435773015022278, 0.04001744091510773, -0.01750253140926361, -0.044450581073760986, 0.042990922927856445, -0.0984668880701065, -0.057900235056877136, -0.046646684408187866, -0.09101715683937073, 0.01626668870449066, -0.07032988965511322, 0.09448966383934021, -0.0900740921497345, -0.0015999823808670044, -0.09418000280857086, -0.056758344173431396, 0.0434279590845108, 0.08680352568626404, -0.06561625003814697, -0.111202672123909, 0.11205051839351654, -0.11509637534618378, -0.10639132559299469, 0.0760725885629654, 0.032477617263793945, -0.05648645758628845, 0.0628262609243393, 0.08912429213523865, -0.048392221331596375, 0.02351565659046173, 0.00971144437789917, -0.009918659925460815, -0.03307485580444336, -0.06888730823993683, -0.050023242831230164, 0.06977352499961853, -0.054539754986763, 0.0488479882478714, 0.07868649065494537, 0.036492347717285156, -0.056174397468566895, -0.10377883911132812, -0.12431016564369202, 0.07376588881015778, -0.12170694768428802, -0.10796700417995453, 0.04351834952831268, -0.08220556378364563, -0.114797443151474, 0.06130796670913696, 0.027629390358924866, 0.0008129030466079712, 0.021529555320739746, -0.07882744073867798, -0.0006204843521118164, -0.04255756735801697, 0.03775082528591156, -0.08932667970657349, -0.020074814558029175, 0.0551527738571167, -0.06953290104866028, -0.09161059558391571, 0.05435506999492645, 0.0659463107585907, -0.026303306221961975, 0.08563075959682465, -0.023054376244544983, 0.0685170590877533, -0.05545505881309509, 0.02626226842403412, 0.07745631039142609, 0.04264245927333832, -0.019619911909103394, 0.050542086362838745, 0.05951055884361267, 0.05881193280220032, 0.035363733768463135, -0.1191033273935318, -0.08363884687423706, 0.10632278025150299, 0.05332903563976288, 0.01205405592918396, -0.06430941820144653, -0.10747464001178741, 0.04727146029472351, -0.048961132764816284, -0.041782498359680176, -0.05990222096443176, 0.04347670078277588, -0.07168518006801605, -0.016477003693580627, -0.08036847412586212, -0.07443667948246002, -0.11679822206497192, -0.11025695502758026, 0.11636437475681305, 0.08589377999305725, -0.06158052384853363, 0.07499799132347107, 0.045098766684532166, 0.0036745816469192505, 0.056083500385284424, 0.05228570103645325, -0.006177082657814026, 0.12014324963092804, 0.09642286598682404, -0.06532134115695953, -0.011490389704704285, -0.02529732882976532, 0.059063658118247986, -0.05895017087459564, -0.1013350784778595, -0.03879283368587494, 0.08882395923137665, 0.10253582894802094, 0.0618118941783905, -0.11152277886867523, -0.0039055198431015015, 0.045952022075653076, -0.11273746192455292, -0.0656316876411438, 0.030176445841789246, -0.09313136339187622, 0.11693035066127777, 0.07520602643489838, 0.01327545940876007, -0.07871368527412415, 0.07303598523139954, -0.09116388857364655, -0.03269366919994354, -0.07211753726005554, -0.08518944680690765, -0.09343019127845764, 0.09306944906711578, 0.0569167286157608, 0.0013814866542816162, 0.07576175034046173, 0.10994283854961395, 0.008075565099716187, 0.015241175889968872, 0.07329916954040527, 0.10101720690727234, -0.06346148252487183, -0.05222880840301514, -0.05418524146080017, 0.10207302868366241, -0.07331746816635132, -0.013819381594657898, 0.08133678138256073, 0.10422810912132263, -0.010139837861061096, -0.09840419888496399, 0.03571319580078125, -0.11026763916015625, 0.07163608074188232, 0.08637076616287231, 0.10994690656661987, 0.017638176679611206, -0.11560016870498657, -0.09568671882152557, 0.0411137193441391, -0.07750532031059265, -0.09941495954990387, -0.042631104588508606, 0.10484057664871216, -0.026474997401237488, 0.10678896307945251, -0.09250570833683014, -0.07330134510993958, 0.017456457018852234, 0.028006836771965027, -0.01363469660282135, 0.011281147599220276, 0.04982800781726837, -0.012693047523498535, 0.018662631511688232, 0.11345921456813812, 0.05791290104389191, 0.09932591021060944, -0.10887587070465088, -0.10310062766075134, -0.03324440121650696, -0.08424752950668335, 0.09112747013568878, -0.0023575127124786377, -0.11428892612457275, 0.022646263241767883, -0.082739919424057, 0.0949205607175827, -0.11298312246799469, -0.030033960938453674, 0.09889104962348938, -0.0548323392868042, 0.07835197448730469, -0.02665330469608307, -0.059944361448287964, -0.07968881726264954, -0.11997327208518982, -0.021601855754852295, 0.09410117566585541, -0.014994487166404724, 0.10611344873905182, -0.018371060490608215, -0.11899708211421967, -0.03267790377140045, -0.022420227527618408, 0.11369971930980682, -0.0752086341381073, 0.08689156174659729, -0.08315245807170868, 0.05290599167346954, -0.04253210127353668, -0.11912985146045685, -0.023051217198371887, -0.09835812449455261, 0.06717066466808319, 0.10132168233394623, 0.09689824283123016, -0.03726665675640106, 0.065580353140831, -0.009496033191680908, 0.08712878823280334, -0.10759568214416504, -0.12253326177597046, 0.03582993149757385, -0.06578031182289124, 0.03634878993034363, -0.07825790345668793, -0.10229511559009552, -0.12327468395233154, -0.04314644634723663, -0.10585825145244598, -0.045303791761398315, 0.06297378242015839, 0.04042559862136841, -0.08832836151123047, 0.042763471603393555, -0.0923781543970108, -0.04714013636112213, 0.05141200125217438, 0.028871342539787292, -0.009224101901054382, -0.12369097769260406, -0.06285996735095978, 0.001872330904006958, 0.0974198579788208, 0.012250840663909912, -0.041770800948143005, 0.06404736638069153, -0.024490758776664734, 0.06318643689155579, -0.06738583743572235, -0.11561490595340729, 0.04036605358123779, -0.033992573618888855, 0.114072784781456, -0.07588088512420654, -0.021384090185165405, -0.015823259949684143, -0.08485083281993866, -0.027172401547431946, -0.0674763172864914, -0.007508456707000732, 0.07184915244579315, 0.10668700933456421, 0.01787644624710083, -0.04483036696910858, -0.09176142513751984, 0.0743926465511322, 0.0244063138961792, -0.01098090410232544, -0.046319037675857544, -0.03693367540836334, 0.014817818999290466, 0.0055298954248428345, -0.10836370289325714, -0.01298263669013977, 0.09934917092323303, -0.012686535716056824, -0.03291641175746918, 0.043401166796684265, -0.10230161249637604, 0.020965442061424255, 0.037450939416885376, 0.015191450715065002, 0.11268478631973267, 0.08402788639068604, -0.05545526742935181, -0.026140466332435608, 0.03467279672622681, 0.08319686353206635, -0.11907967925071716, -0.03821881115436554, -0.1197730153799057, -0.03380405902862549, 0.014609113335609436, 0.03726552426815033, 0.0037975162267684937, 0.047744154930114746, 0.06812450289726257, 0.10495138168334961, -0.10882586240768433, 0.04118187725543976, -0.09461450576782227, -0.11451230943202972, -0.00225163996219635, -0.0969916582107544, 0.07734198868274689, -8.195638656616211e-07, 0.10150055587291718, 0.09962205588817596, 0.06734196841716766, 0.10369250178337097, 0.030487120151519775, 0.04439437389373779, -0.09804882109165192, -0.03380827605724335, -0.027748852968215942, 0.06655552983283997, -0.006954118609428406, 0.03331361711025238, 0.09929688274860382, 0.0962047129869461, 0.1135965883731842, 0.06303827464580536, 0.12393000721931458, -0.013429716229438782, 0.012707456946372986, 0.009520277380943298, -0.02045971155166626, -0.06416867673397064, 0.11356782913208008, 0.05154627561569214, 0.01849295198917389, 0.042957380414009094, -0.08198712766170502, -0.04459196329116821, -0.1095532476902008, -0.058986812829971313, 0.0282362699508667, 0.08300696313381195, 0.02213294804096222, 0.018173664808273315, -0.06571850180625916, 0.12445119023323059, 0.0647130161523819, 0.010055392980575562, 0.06484825909137726, -0.008882999420166016, 0.10852086544036865, 0.023838788270950317, -0.10572049021720886, 0.053656190633773804, 0.10654264688491821, 0.08884616196155548, -0.001568526029586792, 0.10667330026626587, -0.019416168332099915, -0.12163862586021423, -0.05055581033229828, 0.09413421154022217, 0.09307168424129486, 0.10550056397914886, 0.07764291763305664, -0.09406565129756927, 0.10937245190143585, -0.08902168273925781, 0.11350283026695251, 0.03170788288116455, -0.05818004906177521, -0.005203068256378174, 0.11673346161842346, -0.08552740514278412, -0.09667980670928955, -0.05777379870414734, 0.10923609137535095, 0.08125394582748413, 0.05114103853702545, -0.06278820335865021, -0.014513537287712097, -0.10418766736984253, 0.10045969486236572, -0.09109030663967133, -0.08542372286319733, -0.09104457497596741, 0.005120128393173218, -0.025251641869544983, 0.03574438393115997, -0.044051140546798706, -0.013024285435676575, -0.02334311604499817, 0.08618637919425964, 0.009651541709899902, -0.06409604847431183, -0.03289178013801575, 0.11206313967704773, 0.07780767977237701, 0.013135209679603577, -0.05946902930736542, 0.11982962489128113, 0.051719024777412415, -0.014534622430801392, -0.03617286682128906, -0.01226826012134552, -0.06490863859653473, 0.01534879207611084, 0.03798794746398926, -0.05837330222129822, -0.08110086619853973, 0.03890004754066467, 0.02148503065109253, 0.05785675346851349, -0.07506276667118073, -0.046323180198669434, -0.11891616880893707, 0.08320508897304535, 0.0008926838636398315, -0.08417525887489319, -0.008108004927635193, 0.07140906155109406, 0.06792937219142914, 0.006673559546470642, -0.02693040668964386, -0.041877299547195435, 0.1242004781961441, -0.09814569354057312, -0.045910388231277466, 0.0032100528478622437, 0.11594635248184204, -0.07784722745418549, 0.11008286476135254, -0.09145694971084595, 0.10128267109394073, -0.11468552052974701, 0.11974857747554779, 0.06854408979415894, -0.03402973711490631, -0.02051439881324768, 0.05329960584640503, -0.053962141275405884, 0.08520257472991943, -0.10565602779388428, 0.11698266863822937, 0.08899722993373871, 0.02495463192462921, 0.034663960337638855, 0.04929110407829285, -0.10705365240573883, 0.08155491948127747, -0.08622710406780243, 0.0970185250043869, -0.05912570655345917, 0.04307617247104645, -0.05327799916267395, 0.09010002017021179, 0.04716874659061432, 0.020934537053108215, -0.03859029710292816, -0.010302439332008362, 0.02320072054862976, -0.11828747391700745, 0.07920746505260468, -0.03702050447463989, -0.07846176624298096, -0.1014009416103363, -0.05472487211227417, -0.044735029339790344, -0.04068849980831146, -0.11305102705955505, -0.10446864366531372, -0.10279153287410736, -0.038903310894966125, -0.02045680582523346, 0.04723694920539856, 0.05586889386177063, 0.016467303037643433, 0.05336149036884308, -0.12118780612945557, -0.09310919046401978, -0.11922283470630646, 0.09567001461982727, 0.07771186530590057, -0.11559712886810303, 0.05450139939785004, -0.08001852035522461, 0.07177625596523285, 0.02059265971183777, 0.012360259890556335, 0.12449656426906586, 0.0011875778436660767, 0.03698745369911194, -0.010760471224784851, 0.09793590009212494, 0.048858970403671265, 0.09905827045440674, -0.014526113867759705, -0.07247821986675262, 0.04888932406902313, -0.023924201726913452, -0.12349727749824524, -0.10187259316444397, 0.0741538554430008, 0.05101996660232544, -0.10629478096961975, -0.016970708966255188, -0.08413997292518616, 0.010108113288879395, -0.022825419902801514, 0.012523800134658813, -0.08252571523189545, -0.024661362171173096, -0.021293476223945618, -0.059213414788246155, 0.00020003318786621094, 0.06876476109027863, -0.012060120701789856, -0.016043201088905334, 0.06568881869316101, -0.07966892421245575, -0.003611445426940918, 0.09890669584274292, 0.011057466268539429, -0.08050762116909027, -0.022033289074897766, -0.051228612661361694, 0.10915878415107727, 0.09408529102802277, -0.0771300196647644, 0.04753568768501282, -0.08919161558151245, 0.11983360350131989, -0.07854585349559784, -0.042729660868644714, -0.09505386650562286, -0.04524660110473633, -0.046102359890937805, -0.0836857408285141, -0.09427116811275482, 0.07810370624065399, 0.017401888966560364, -0.009821206331253052, -0.09419377148151398, 0.003921478986740112, -0.06603777408599854, -0.04629132151603699, 0.11072006821632385, 0.07407523691654205, 0.00138796865940094, 0.013706639409065247, -0.11217544972896576, 0.04456697404384613, 0.01695062220096588, -0.09349928796291351, 0.021105840802192688, 0.07115817070007324, 0.12418396770954132, -0.024197757244110107, -0.02017548680305481, 0.05672638118267059, -0.09575383365154266, 0.0504373162984848, 0.021307632327079773, -0.03399214148521423, 0.004911899566650391, 0.11198514699935913, -0.010704800486564636, 0.09322892129421234, 0.042126670479774475, -0.11760255694389343, 0.025394782423973083, 0.031556934118270874, 0.024490326642990112, 0.06039005517959595, 0.03048938512802124, -0.008335545659065247, -0.10653144121170044, -0.07163706421852112, 0.10923106968402863, -0.11569127440452576, -0.08644139766693115, 0.005119591951370239, 0.11323517560958862, -0.07893048226833344, 0.03126677870750427, -0.10988190770149231, -0.11501219868659973, -0.09567075967788696, 0.010888621211051941, -0.0766565203666687, -0.11107766628265381, -0.0725325345993042, -0.10167494416236877, -0.02183137834072113, -0.08408847451210022, 0.07751065492630005, 0.10329151153564453, 0.11433771252632141, 0.027188286185264587, 0.026789605617523193, 0.04656742513179779, 0.11081001162528992, 0.04626713693141937, 0.04499366879463196, -0.03662489354610443, -0.0728379637002945, -0.10205072164535522, -0.04988880455493927, 0.09354093670845032, 0.12337988615036011, 0.04488226771354675, -0.0027406662702560425, 0.046791672706604004, 0.012741148471832275, -0.07535114884376526, 0.06334951519966125, 0.08148358762264252, -0.011950388550758362, 0.004594147205352783, -0.0928276926279068, 0.07845471799373627, -0.05415681004524231, -0.02619415521621704, 0.04831169545650482, -0.09095709025859833, -0.12062102556228638, 0.05275948345661163, 0.0958065539598465, 0.02672305703163147, -0.02079373598098755, -0.03162886202335358, -0.06276920437812805, -0.06245627999305725, -0.07627251744270325, -0.0678785890340805, 0.11844411492347717, -0.01336728036403656, -0.1136406809091568, -0.0819137841463089, -0.07356709241867065, -0.10990206897258759, 0.030631214380264282, 0.10414764285087585, -0.0471419095993042, 0.019973725080490112, 0.12496596574783325, -0.08185508847236633, -0.06220825016498566, -0.08706077933311462, 0.08418391644954681, 0.09046517312526703, 0.028162062168121338, -0.0991198718547821, -0.10466019809246063, 0.07292947173118591, 0.10053481161594391, -0.09039445221424103, 0.004363998770713806, 0.03103482723236084, -0.11647431552410126, -0.021802157163619995, 0.09594342112541199, -0.06407301127910614, -0.08111760020256042, -0.019954219460487366, -0.05581226944923401, 0.12151998281478882, -0.03787137567996979, -0.034515947103500366, 0.05072127282619476, 0.06226158142089844, 0.06816032528877258, -0.11232155561447144, -0.12124194204807281, 0.030699580907821655, -0.048530399799346924, 0.015172645449638367, 0.12410366535186768, 0.05685685575008392, 0.05648644268512726, 0.021951675415039062, 0.08049288392066956, 0.06828123331069946, 0.047897011041641235, 0.05207248032093048, -0.03293314576148987, 0.08429141342639923, 0.004529178142547607, -0.038366153836250305, 0.0755123496055603, -0.0012985765933990479, 0.04676024615764618, 0.11959990859031677, -0.07700425386428833, 0.07153306901454926, -0.11038075387477875, -0.09355944395065308, -0.11835108697414398, -0.03432752192020416, 0.012403622269630432, 0.00565163791179657, 0.1117265373468399, -0.006801411509513855, -0.10104988515377045, 0.04214400053024292, 0.10282911360263824, -0.015394449234008789, 0.10006612539291382, 0.09547118842601776, 0.07557360827922821, 4.172325134277344e-07, -0.010044336318969727, -0.10185137391090393, -0.042311981320381165, 0.05501607060432434, 0.04666706919670105, 0.038466230034828186, 0.10002826154232025, 0.08738353848457336, 0.04268421232700348, -0.008341357111930847, 0.025277987122535706, -0.07986783981323242, 0.03422115743160248, -0.01848219335079193, -0.12443765997886658, -0.043407782912254333, 0.01636730134487152, -0.1035211980342865, -0.1098584234714508, 0.023975059390068054, -0.10817399621009827, 0.09835885465145111, -0.041375502943992615, -0.07378175854682922, -0.030664533376693726, -0.0036194920539855957, 0.11600185930728912, 0.0134962797164917, -0.11541207134723663, 0.011644840240478516, -0.044373124837875366, -0.007066830992698669, 0.05788896977901459, -0.11107946932315826, 0.02209341526031494, -0.06952770054340363, -0.031485721468925476, 0.061100542545318604, 0.026236429810523987, 0.05594393610954285, 0.04290249943733215, -0.09218807518482208, -0.10457752645015717, 0.029409244656562805, -0.018798306584358215, -0.002425938844680786, 0.05426475405693054, 0.08488138020038605, 0.012143701314926147, -0.0018361657857894897, 0.00991123914718628, -0.07544204592704773, -0.12210002541542053, 0.05454276502132416, -0.11087526381015778, 0.01936924457550049, 0.08057284355163574, -0.038727521896362305, 0.014884725213050842, -0.10568347573280334, -0.08136093616485596, -0.015298709273338318, 0.024763554334640503, -0.09467779099941254, -0.08272674679756165, -0.05320380628108978, -0.028421953320503235, -0.09840156137943268, -0.1244850605726242, 0.08752402663230896, 0.0130225270986557, 0.006523206830024719, 0.03705094754695892, 0.055372774600982666, 0.03533056378364563, -0.11823932826519012, -0.04755587875843048, -0.07553611695766449, 0.028148576617240906, -0.10093812644481659, -0.04042948782444, -0.10603159666061401, 0.07737620174884796, -0.06634800136089325, 0.09950271248817444, 0.05482637882232666, -0.02377152442932129, 0.05191504955291748, 0.09625416994094849, 0.00150260329246521, -0.11642009019851685, 0.008072152733802795, 0.03337441384792328, -0.020092979073524475, -0.05199442803859711, 0.12133169174194336, -0.09409429132938385, -0.11330078542232513, 0.036526158452034, 0.08865255117416382, 0.0511033833026886, 0.021402016282081604, 0.05760397017002106, 0.06424051523208618, -0.12150710821151733, 0.017452135682106018, 0.1140328198671341, -0.05175761878490448, -0.004681035876274109, -0.0019724667072296143, -0.05564236640930176, -0.10440689325332642, -0.01692637801170349, -0.05242599546909332, -0.08957666158676147, -0.08984401822090149, -0.12188129127025604, 0.11739754676818848, -0.012412041425704956, 0.06003023684024811, -0.07615000009536743, 0.12474766373634338, -0.015141084790229797, -0.06625917553901672, 0.021014466881752014, -0.12174376845359802, 0.04901069402694702, -0.056557536125183105, -0.07998025417327881, 0.054573431611061096, -0.1024419367313385, 0.02928026020526886, -0.019901663064956665, 0.10496068000793457, -0.02421972155570984, 0.04979538917541504, 0.09351526200771332, -0.01868799328804016, 0.09627044200897217, -0.10629884898662567, 0.07537196576595306, -0.0598701536655426, -0.11074258387088776, -0.07929395139217377, -0.08519330620765686, -0.1224469542503357, 0.07842069864273071, 0.03494928777217865, 0.11467728018760681, -0.07031972706317902, 0.10968007147312164, -0.05505390465259552, -0.06326508522033691, 0.09394918382167816, -0.08540166914463043, 0.09651367366313934, -0.06873252987861633, -0.09014612436294556, 0.03030221164226532, 0.12360446155071259, -0.10304318368434906, -0.006379663944244385, 0.007642075419425964, -0.0075165629386901855, -0.03364025056362152, -0.02555803954601288, 0.0902239978313446, -0.021616026759147644, 0.018388524651527405, 0.0014070719480514526, -0.03272387385368347, 0.08233349025249481, -0.010505855083465576, -0.060072556138038635, -0.02680923044681549, 0.10792817175388336, -0.11033113300800323, -0.02110615372657776, -0.009165912866592407, 0.03892546892166138, -0.09278661012649536, -0.10318170487880707, -0.0009505301713943481, 0.11462897062301636, -0.07697109878063202, 0.010644510388374329, 0.10634802281856537, -0.11660516262054443, -0.029977798461914062, 0.10824115574359894, -0.09977987408638, 0.06659387052059174, -0.05676355957984924, -0.09311369061470032, 0.10199616849422455, 0.008639708161354065, 0.014721736311912537, -0.05107735097408295, 0.023907646536827087, 0.11435873806476593, -0.10940830409526825, 0.03498414158821106, 0.05805434286594391, -0.09361708164215088, 0.041389986872673035, 0.09719228744506836, 0.07003946602344513, 0.1015544980764389, 0.10806135833263397, 0.04217638075351715, 0.08362577855587006, 0.10505381226539612, -0.07828676700592041, -0.11459115147590637, 0.10684731602668762, 0.014326900243759155, -0.02050204575061798, 0.012999221682548523, -0.05266869068145752, 0.11370772123336792, -0.07263690233230591, 0.0589580237865448, 0.10167792439460754, -0.039637014269828796, 0.1152297705411911, -0.10490408539772034, -0.07617175579071045, 0.06518979370594025, 0.04881975054740906, 0.03170137107372284, -0.012643545866012573, 0.034756481647491455, -0.038382381200790405, -0.04455547034740448, -0.07538178563117981, 0.09759606420993805, -0.013580933213233948, -0.11555516719818115, -0.04853525757789612, -0.04037010669708252, -0.10867750644683838, -0.028452441096305847, -0.08081118762493134, 0.10248050093650818, -0.008760616183280945, -0.038976043462753296, -0.009118407964706421, 0.008231371641159058, 0.04202401638031006, -0.03425218164920807, -0.0831201821565628, -0.07045428454875946, -0.06162874400615692, -0.0008224993944168091, 0.10814881324768066, -0.08895830810070038, 0.050221994519233704, -0.10971340537071228, 0.0570141077041626, -0.037846848368644714, 0.11326281726360321, 0.0573701411485672, -0.10249517858028412, -0.11045391857624054, 0.11084933578968048, -0.10770562291145325, -0.09881864488124847, 0.008811086416244507, -0.09379968047142029, 0.03410425782203674, 0.009386077523231506, 0.014806956052780151, -0.10763812065124512, -0.015688061714172363, 0.02080000936985016, 0.09238214790821075, -0.03173816204071045, -0.0190068781375885, 0.061006635427474976, 0.0006187260150909424, -0.0785251259803772, 0.10306297242641449, -0.050763025879859924, 0.01992751657962799, 0.0693635493516922, 0.06713412702083588, -0.034033969044685364, 0.08251987397670746, -0.09713977575302124, 0.06335610151290894, -0.02131590247154236, -0.08226799964904785, -0.04804430902004242, -0.01189473271369934, 0.06680011749267578, 0.008064955472946167, 0.06727199256420135, 0.06901459395885468, -0.11069910228252411, -0.037131622433662415, -0.051248639822006226, -0.05433604121208191, -0.014801636338233948, 0.10985609889030457, 0.06731104850769043, 0.04856497049331665, -0.06532324850559235, -0.0409301221370697, 0.0017812252044677734, 0.11013095080852509, 0.05013498663902283, -0.027846738696098328, 0.06304048001766205, -0.0975847989320755, -0.04472951591014862, 0.04409368336200714, -0.05162091553211212, -0.07573917508125305, 0.03522416949272156, -0.007070481777191162, 0.000587955117225647, -0.0938306599855423, 0.11708979308605194, -0.010821327567100525, -0.1210147887468338, 0.10441194474697113, 0.08369781076908112, 0.09165015816688538, -0.08500269055366516, -0.10099387168884277, -0.05477306246757507, -0.12220801413059235, 0.03527103364467621, 0.09255357086658478, -0.040335118770599365, -0.09229442477226257, -0.11024774610996246, -0.008174076676368713, -0.10137730836868286, 0.05952899158000946, -0.038029834628105164, 0.12384258210659027, 0.026392564177513123, -0.046782270073890686, 0.11359108984470367, -0.09603990614414215, 0.06487797200679779, -0.020825102925300598, -0.08743126690387726, 0.10413528978824615, 0.06090736389160156, 0.08133424818515778, 0.03878450393676758, -0.024168163537979126, 0.08703875541687012, 0.029687225818634033, -0.015214085578918457, -0.08010600507259369, -0.07014892995357513, 0.08257365226745605, 0.015543952584266663, 0.11343652009963989, -0.07223893702030182, -0.03493353724479675, -0.0414055734872818, -0.05569577217102051, -0.09487509727478027, -0.07545964419841766, 0.012155681848526001, 0.11689740419387817, 0.12271371483802795, 0.09735870361328125, 0.06123219430446625, -0.10173870623111725, 0.048465386033058167, -0.09559296071529388, 0.09207618236541748, 0.09817211329936981, 0.06780911982059479, -0.03073178231716156, 0.11302781105041504, -0.07749037444591522, -0.03322015702724457, 0.047133669257164, -0.09518091380596161, 0.027679920196533203, -0.008056432008743286, -0.03693990409374237, -0.04245741665363312, -0.010886028409004211, -0.03873644769191742, 0.08089947700500488, 0.051451101899147034, -0.018746033310890198, 0.048344165086746216, 0.10525111854076385, -0.12389136850833893, -0.098259836435318, 0.056530505418777466, 0.1212170422077179, -0.08159911632537842, -0.11972053349018097, 0.047157615423202515, 0.01360049843788147, 0.0785321593284607, 0.12128028273582458, 0.0493733286857605, -0.058969900012016296, -0.0628928393125534, 0.11169858276844025, 0.12446589767932892, 0.07953484356403351, 0.07488694787025452, -0.1004682332277298, 0.05280351638793945, 0.010596022009849548, -0.08294372260570526, -0.07135884463787079, -0.015410110354423523, -0.0009033083915710449, -0.049113720655441284, -0.09026622772216797, 0.09892593324184418, 0.04584282636642456, -0.020683273673057556, -0.056039705872535706, 0.04347565770149231, -0.052757054567337036, -0.061653196811676025, -0.078492671251297, -0.06927120685577393, -0.04068954288959503, -0.07094110548496246, 0.0470830500125885, -0.09684392809867859, 0.05427999794483185, -0.08033263683319092, 0.07776504755020142, 0.006069973111152649, -0.02286471426486969, -0.08181007206439972, -0.046618908643722534, -0.07200838625431061, -0.02016580104827881, -0.025124862790107727, 0.09025527536869049, 0.07387948036193848, 0.05685646831989288, -0.051664650440216064, 0.03395259380340576, 0.05851717293262482, 0.03518514335155487, 0.12341749668121338, -0.040094733238220215, -0.005965054035186768, 0.022174477577209473, -0.059314727783203125, -0.09797415137290955, -0.10356135666370392, 0.07950975000858307, -0.12400418519973755, 0.036190226674079895, -0.06974901258945465, 0.05828063189983368, 0.10948330163955688, 0.0960133820772171, 0.026984959840774536, -0.11863762140274048, -0.03183116018772125, 0.015397712588310242, -0.029492631554603577, -0.1068742424249649, 0.03413458168506622, -0.001032412052154541, 0.04505409300327301, 0.03373819589614868, 0.003984108567237854, 0.06640316545963287, -0.09486344456672668, 0.0031289607286453247, 0.06536854803562164, 0.05943328142166138, 0.06818003952503204, 0.01752440631389618, -0.055235087871551514, 0.026484191417694092, -0.06195893883705139, 0.0028591305017471313, 0.021809741854667664, 0.1049821674823761, 0.005887836217880249, -0.02008284628391266, -0.11688601970672607, -0.10575588047504425, -0.04366324841976166, -0.019777193665504456, -0.07423268258571625, -0.0670284777879715, 0.02612823247909546, 0.06301440298557281, -0.11509846150875092, 0.03284323215484619, -0.09793268144130707, 0.07993364334106445, -0.06306834518909454, -0.04562859237194061, 0.04011020064353943, -0.1235930323600769, -0.020178169012069702, -0.005642831325531006, -0.02116115391254425, -0.03236737847328186, -0.10748134553432465, 0.07215212285518646, 0.06012347340583801, -0.023508459329605103, -0.09876130521297455, -0.12191909551620483, 0.031731873750686646, 0.08069440722465515, 0.05178423225879669, -0.028583630919456482, -0.03284156322479248, 0.05078372359275818, 0.10028080642223358, -0.0734088271856308, 0.022566378116607666, 0.09752918779850006, 0.06484133005142212, 0.05537177622318268, -0.10862986743450165, -0.11921395361423492, 0.028889209032058716, -0.09597969055175781, 0.0942341685295105, -0.08101508021354675, -0.05222006142139435, 0.04900503158569336, 0.05890962481498718, 0.05975310504436493, -0.04179444909095764, -0.09618669748306274, 0.04788385331630707, 0.10054099559783936, 0.12395630776882172, 0.10103604197502136, -0.07913133502006531, 0.06695441901683807, 0.0004681199789047241, -0.042461395263671875, -0.04957762360572815, 0.007569164037704468, -0.080471932888031, 0.061106741428375244, 0.007481426000595093, -0.05332095921039581, 0.05783504247665405, -0.04909783601760864, 0.05240809917449951, -0.05846318602561951, 0.0003757774829864502, -0.012084245681762695, -0.030214637517929077, 0.016879573464393616, -0.06031380593776703, -0.06663863360881805, 0.09711430966854095, 0.013332262635231018, -0.10252010822296143, 0.017261072993278503, 0.09316959977149963, 0.026166677474975586, -0.0893515944480896, -0.060502588748931885, 0.01018272340297699, -0.09929418563842773, 0.113278329372406, -0.025831162929534912, 0.09278027713298798, -0.08489812910556793, 0.08572466671466827, 0.11632834374904633, 0.04187843203544617, -0.05373944342136383, -0.009208977222442627, -0.04409301280975342, 0.0007367730140686035, -0.017668873071670532, 0.019241943955421448, 0.00892975926399231, 0.018913522362709045, -0.02413049340248108, -0.11826106905937195, 0.05602775514125824, -0.030516356229782104, 0.008261695504188538, -0.08910892903804779, 0.11050426959991455, -0.11812800168991089, 0.07776089012622833, -0.1061929315328598, 0.05630238354206085, -0.09074768424034119, -0.08163623511791229, 0.05246882140636444, 0.11914168298244476, -0.08647474646568298, -0.1243591159582138, 0.04700198769569397, 0.09621182084083557, -0.12117388844490051, 0.030293837189674377, -0.11605988442897797, -0.07260000705718994, 0.008350133895874023, 0.01737941801548004, -0.047029510140419006, 0.06967851519584656, -0.03539222478866577, 0.1026650220155716, -0.011387526988983154, -0.03463989496231079, 0.037611931562423706, -0.1222299188375473, 0.07906468212604523, 0.06894353032112122, 0.035912200808525085, -0.012687742710113525, 0.10996547341346741, -0.1231006383895874, -0.015824660658836365, 0.0782654881477356, 0.07053855061531067, 0.06150592863559723, -0.0982363373041153, -0.06886531412601471, 0.04414817690849304, -0.08068901300430298, -0.03894472122192383, -0.0006548464298248291, 0.07312309741973877, -0.08079509437084198, 0.07780015468597412, 0.1011723130941391, -0.10783208906650543, 0.07781416177749634, 0.0006437748670578003, 0.05499325692653656, 0.12348996102809906, 0.002766624093055725, -0.0662335604429245, 0.09736105799674988, 0.09061636030673981, 0.10818369686603546, 0.028239846229553223, -0.09236890077590942, 0.043306365609169006, 0.09047004580497742, -0.052197232842445374, -0.057201579213142395, 0.049717992544174194, -0.10812868177890778, 0.11630256474018097, 0.11960877478122711, 0.03233054280281067, 0.025891438126564026, -0.0581548810005188, -0.1034148782491684, 0.10241657495498657, -0.0938071608543396, -0.06442229449748993, 0.042258650064468384, 0.04327210783958435, -0.009978413581848145, -0.048787012696266174, 0.012817472219467163, 0.038058772683143616, 0.013878628611564636, 0.06357415020465851, -0.1112619936466217, -0.10594138503074646, 0.06250779330730438, 0.11580324172973633, 0.004716411232948303, 0.001179918646812439, -0.02087436616420746, 0.04721914231777191, 0.05429534614086151, 0.09775550663471222, 0.103333979845047, -0.09372232854366302, -0.036184415221214294, 0.03999684751033783, -0.05064265429973602, 0.1064346432685852, -0.04822397232055664, -0.09749408066272736, 0.11754532158374786, 0.0070252567529678345, 0.018817082047462463, 0.11257082223892212, -0.005282476544380188, -0.01266413927078247, -0.012648388743400574, 0.09777402877807617, -0.09615105390548706, 0.10842041671276093, -0.06084142625331879, -0.11895442008972168, 0.12120209634304047, -0.0042178332805633545, -0.10409966111183167, -0.075556680560112, 0.03137087821960449, -0.11637076735496521, 0.037555694580078125, 0.11784239113330841, 0.06544950604438782, 0.10125115513801575, 0.035066574811935425, -0.011446192860603333, 0.05800950527191162, 0.11424596607685089, -0.07953856885433197, -0.03411881625652313, 0.0560743510723114, 0.022490352392196655, -0.0711919516324997, -0.011311247944831848, -0.015262037515640259, 0.05949302017688751, 0.09828770160675049, -0.051056817173957825, 0.007224857807159424, -0.10379032790660858, -0.019179657101631165, 0.06626273691654205, -0.03440342843532562, -0.07182933390140533, 0.003333255648612976, 0.07914076745510101, -0.0033323168754577637, -0.05078752338886261, -0.09951400756835938, 0.07585294544696808, -0.020234540104866028, 0.09256382286548615, 0.08844679594039917, 0.016325488686561584, 0.048283740878105164, 0.055713310837745667, -0.0640294998884201, 0.08806681632995605, -0.026317477226257324, -0.033970847725868225, 0.11651226878166199, -0.08058951795101166, -0.01697555184364319, -0.056377410888671875, -0.05441583693027496, 0.02666333317756653, -0.06731089949607849, 0.034644484519958496, 0.017045900225639343, -0.011506408452987671, 0.035568565130233765, 0.09801793098449707, 0.0896165668964386, 0.01785975694656372, -0.010602027177810669, 0.12486928701400757, 0.06653708219528198, -0.10509634017944336, -0.03137761354446411, 0.041506052017211914, 0.10078179836273193, -0.05472464859485626, 0.07222390174865723, 0.011001065373420715, -0.10050641000270844, -0.10200457274913788, 0.10018040239810944, -0.06371156871318817, 0.05520622432231903, -0.08253735303878784, 0.030773192644119263, 0.04104191064834595, -0.04279230535030365, 0.11161115765571594, -0.09505724906921387, 0.10471685230731964, -0.12133631110191345, -0.11777342855930328, -0.05340339243412018, -0.09832832217216492, 0.05254465341567993, 0.09188404679298401, -0.09805916249752045, 0.039094746112823486, -0.06757298111915588, 0.10192549228668213, -0.012596189975738525, 0.10838322341442108, -0.044223934412002563, 0.07597982883453369, -0.019654273986816406, -0.018029719591140747, -0.05784940719604492, -0.057972416281700134, -0.03338693082332611, -0.06909693777561188, -0.04680190980434418, 0.06979362666606903, 0.058984026312828064, -0.041775256395339966, -0.053194090723991394, 0.0935802012681961, 0.06820450723171234, 0.07552482187747955, 0.0665355920791626, -0.04759606719017029, 0.061876773834228516, 0.10693199932575226, 0.07026796042919159, 0.0677114874124527, -0.095970019698143, 0.09522315859794617, 0.11549025774002075, -0.004154682159423828, -0.013586148619651794, -0.07312516868114471, -0.03263632953166962, -0.030906781554222107, -0.10353370010852814, 0.07307568192481995, 0.09963463246822357, -0.026139795780181885, 0.09263771772384644, -0.005137398838996887, 0.026226773858070374, 0.07955272495746613, 0.08367183804512024, -0.03330323100090027, 0.1197616308927536, 0.022637158632278442, 0.05083337426185608, 0.08256366848945618, -0.019168853759765625, 0.05568380653858185, -0.09080809354782104, -0.026108041405677795, -0.0255889892578125, 0.116265207529068, 0.0659751296043396, 0.031387075781822205, -0.03483191132545471, 0.02219964563846588, 0.03657524287700653, 0.044922858476638794, 0.051359906792640686, 0.08049117028713226, -0.06928758323192596, -0.0717124491930008, 0.04669155180454254, -0.06514129042625427, 0.04874546825885773, -0.10572656989097595, -0.0614495575428009, -0.09185706079006195, -0.12329983711242676, 0.04959899187088013, 0.049147218465805054, 0.07621230185031891, -0.06295901536941528, -0.07008931040763855, 0.10807585716247559, 0.02895142138004303, -0.1046425849199295, -0.001434043049812317, 0.03969849646091461, 0.12186950445175171, -0.09129756689071655, -0.03711201250553131, 0.010544344782829285, -0.03899027407169342, 0.11919261515140533, -0.041295379400253296, 0.10151711106300354, 0.10181446373462677, 0.04229004681110382, -0.10144338011741638, -0.08005920052528381, -0.101188525557518, -0.01630595326423645, 0.09863820672035217, -0.012813076376914978, -0.005419552326202393, -0.021618396043777466, 0.04132114350795746, 0.11589430272579193, -0.0338776558637619, -0.09272229671478271, -0.11840289831161499, 0.10331130027770996, 0.0979975163936615, 0.07790406048297882, 0.11963844299316406, 0.08293730020523071, -0.020615234971046448, -0.03575240075588226, -0.08261272311210632, 0.08076195418834686, -0.10727810859680176, -0.06929187476634979, 0.0739825963973999, 0.043842002749443054, -0.10926346480846405, 0.08945009112358093, 0.03930965065956116, -0.08851569890975952, 0.0829797238111496, 0.010394066572189331, -0.04764178395271301, -0.10551422834396362, 0.09947006404399872, 0.11770322918891907, -0.06909152865409851, -0.06893792748451233, -0.07020093500614166, -0.015241846442222595, 0.01274891197681427, -0.12005721032619476, 0.0009683370590209961, 0.11623694002628326, 0.1224135160446167, 0.03238615393638611, -0.05717100203037262, -0.03001926839351654, -0.06938442587852478, 0.043694302439689636, 0.08913801610469818, -0.12342198193073273, 0.11112190783023834, 0.0025604218244552612, 0.09797424077987671, 0.11600112915039062, 0.009240910410881042, -0.0783640593290329, 0.12009678781032562, 0.04387545585632324, -0.014927610754966736, 0.10963433980941772, 0.1171111911535263, 0.09058864414691925, -0.004892885684967041, -0.04986698925495148, 0.10674840211868286, -0.1129465103149414, -0.10946670174598694, 0.06362812221050262, 0.11046202480792999, 0.11538900434970856, 0.035846978425979614, 0.012865588068962097, -0.08244442939758301, 0.12125211954116821, -0.057187214493751526, -0.07806067168712616, 0.09801164269447327, 0.06685885787010193, -0.10225571691989899, -0.09852397441864014, -0.003988102078437805, -0.052171722054481506, -0.09965069591999054, -0.018838122487068176, -0.027325153350830078, 0.043514952063560486, 0.03408804535865784, -0.01896849274635315, 0.007788851857185364, 0.015574291348457336, -0.06879320740699768, 0.05964870750904083, -0.06364765763282776, 0.03426837921142578, -0.012256577610969543, 0.0722711980342865, 0.0369911789894104, 0.11829335987567902, -0.06425362825393677, -0.0883149653673172, -0.013329774141311646, -0.10354700684547424, 0.025049075484275818, -0.02629975974559784, 0.02637399733066559, 0.02745160460472107, -0.1228969395160675, -0.07855844497680664, 0.08804376423358917, 0.11891205608844757, 0.06342160701751709, 0.028336092829704285, 0.06252984702587128, -0.010476529598236084, 0.04802277684211731, 0.0988549143075943, -0.037222906947135925, -0.047999486327171326, 0.06413257122039795, -0.011769711971282959, -0.010590165853500366, 0.08086353540420532, 0.019463226199150085, 0.016188040375709534, 0.01918204128742218, 0.06979560852050781, 0.07414086163043976, 0.10433463752269745, 0.10041075944900513, 0.07496930658817291, -0.044402435421943665, 0.010071486234664917, 0.11658774316310883, -0.08172929286956787, -0.019467249512672424, 0.06042122840881348, -0.07163560390472412, 0.030984386801719666, 0.07621447741985321, 0.049236565828323364, -0.09281966090202332, -0.05468049645423889, -0.08180937170982361, 0.011066779494285583, -0.05636797845363617, 0.1062593013048172, 0.025390446186065674, 0.009356185793876648, -0.08462539315223694, 0.11466577649116516, 0.009578481316566467, -0.0005562752485275269, 0.11332963407039642, 0.06590360403060913, 0.09354501962661743, -0.09525580704212189, 0.10028249025344849, -0.07949435710906982, 0.07182870805263519, -0.01923339068889618, 0.032169416546821594, 0.00995086133480072, -0.11897708475589752, -0.11874577403068542, 0.11614421010017395, -0.07961533963680267, -0.07760705053806305, 0.012353941798210144, -0.09320145845413208, -0.0903443843126297, 0.10865788161754608, 0.0755898654460907, 0.01400485634803772, 0.003619372844696045, 0.11823678016662598, -0.06639231741428375, 0.11068095266819, -0.044768571853637695, 0.084461510181427, 0.08052952587604523, -0.028312817215919495, 0.06703469157218933, -0.013229936361312866, -0.09486904740333557, -0.11465440690517426, 0.0004728734493255615, -0.11682146787643433, 0.09103752672672272, 0.06343130767345428, 0.08162760734558105, -0.06854717433452606, -0.07758654654026031, -0.02823995053768158, -0.11304917931556702, -0.0023249387741088867, -0.0686269998550415, 0.08284009993076324, 0.07384298741817474, -0.07411086559295654, -0.09066754579544067, -0.056309521198272705, 0.0686221718788147, -0.07837758958339691, -0.043405428528785706, -0.059238314628601074, 0.054687947034835815, 0.10723897814750671, -0.0822170227766037, 0.08787816762924194, 0.004715085029602051, 0.002078130841255188, -0.016706809401512146, -0.11403131484985352, 0.008414283394813538, -0.08921641111373901, -0.04066747426986694, 0.0009293556213378906, 0.05960124731063843, 0.06848396360874176, 0.08553054928779602, -0.07003742456436157, -0.0609096884727478, 0.06496864557266235, -0.11105512082576752, 0.06293334066867828, 0.043945491313934326, -0.07472720742225647, 0.04558393359184265, -0.04089142382144928, 0.09969697892665863, -0.11980389058589935, 0.04408133029937744, 0.004654586315155029, -0.004702374339103699, -0.1183328628540039, -0.04834309220314026, 0.019548773765563965, 0.0770048052072525, -0.043069884181022644, -0.04450210928916931, -0.09861129522323608, -0.030834689736366272, -0.003554239869117737, 0.09075172245502472, 0.003276824951171875, -0.04831652343273163, -0.10772459208965302, -0.007689937949180603, 0.011257931590080261, -0.023332536220550537, 0.03471596539020538, -0.018175438046455383, -0.02252933382987976, -0.007514700293540955, -0.06941105425357819, -0.011937752366065979, -0.12286193668842316, -0.11401215195655823, -0.015361189842224121, -0.06597283482551575, 0.10950562357902527, -0.09432525932788849, 0.08505736291408539, 0.07586050033569336, 0.015736624598503113, 0.09573262929916382, 0.019592761993408203, -0.12489531934261322, -0.09626083076000214, 0.059106603264808655, -0.020064130425453186, 0.05426040291786194, -0.09985682368278503, -0.09971514344215393, 0.06802476942539215, 0.03126116096973419, -0.07937702536582947, 0.10080768167972565, 0.04764077067375183, -0.05770125985145569, -0.035311684012413025, -0.10428489744663239, 0.04805554449558258, -0.0887390524148941, 0.045026957988739014, -0.05044667422771454, 0.07174991071224213, 0.0718541145324707, -0.10648894309997559, -0.1022065132856369, 0.03440779447555542, 0.07725878059864044, -0.12190872430801392, -0.04038262367248535, 0.04423205554485321, -0.023522421717643738, -0.10121789574623108, 0.054368793964385986, -0.12485641241073608, 0.013128861784934998, 0.08044154942035675, 0.024926990270614624, 0.0567973256111145, -0.0005954205989837646, 0.09021767973899841, 0.11203832924365997, 0.1021101176738739, -0.12264744937419891, 0.0786719024181366, -0.0512986034154892, -0.023945584893226624, 0.017847836017608643, -0.11248369514942169, -0.03584696352481842, -0.017722904682159424, 0.03847295045852661, -0.06440404057502747, 0.08300957083702087, -0.09084755182266235, -0.03735184669494629, -0.0545622855424881, -0.0995701253414154, -0.12221761047840118, -0.05418696999549866, -0.10789580643177032, -0.03548203408718109, 0.0347469300031662, -0.056988269090652466, -0.021472886204719543, 0.034119755029678345, 0.0726926326751709, -0.10780052840709686, 0.03442426025867462, -0.02975381910800934, -0.0026727020740509033, 0.10341092944145203, -0.0711633712053299, -0.100252166390419, 0.03818579018115997, 0.07949596643447876, 0.06420542299747467, 0.12468215823173523, -0.05449956655502319, 0.055768609046936035, -0.0012170374393463135, -0.04303614795207977, 0.06203258037567139, -0.05659709870815277, -0.0034830570220947266, -0.04150041937828064, -0.09477072954177856, -0.06614513695240021, -0.0829649269580841, -0.033443525433540344, 0.10778306424617767, 0.028252512216567993, 0.07627011835575104, 0.11809110641479492, 0.0117015540599823, 0.1015891283750534, -0.12392333149909973, -0.07765579223632812, 0.11764466762542725, -0.04246795177459717, 0.03540508449077606, 0.09967941045761108, 0.05969071388244629, -0.014678522944450378, -0.10757668316364288, 0.11451064050197601, 0.05937907099723816, 0.10070770978927612, 0.024614855647087097, 0.04060178995132446, 0.05356374382972717, 0.06463998556137085, 0.08390523493289948, 0.01962253451347351, 0.026545286178588867, -0.07532031834125519, 0.025627046823501587, -0.097359299659729, 0.06112372875213623, 0.11697743833065033, -0.09091120958328247, 0.11837084591388702, 0.07272706925868988, -0.06722642481327057, 0.12495504319667816, 0.04852660000324249, -0.009149804711341858, -0.03934909403324127, -0.02263413369655609, -0.03839099407196045, -0.08073614537715912, 0.031213268637657166, 0.04608474671840668, 0.11956608295440674, -0.05544671416282654, -0.10843069851398468, 0.06399279832839966, 0.04107727110385895, -0.03102777898311615, -0.11376392841339111, 0.09023106098175049, 0.06682243943214417, -0.0932905375957489, 0.008095398545265198, 0.060115933418273926, 0.003514587879180908, 0.019000142812728882, 0.08215595781803131, 0.006100326776504517, 0.11369045078754425, 0.020728155970573425, -0.0556984543800354, -0.10998310148715973, -0.08616997301578522, 0.03315313160419464, -0.08949044346809387, 0.12182292342185974, -0.05709215998649597, -0.04444795846939087, 0.004022926092147827, 0.05011527240276337, 0.01259005069732666, -0.02585725486278534, -0.03451012074947357, 0.11550833284854889, -0.0059935301542282104, 0.02442173659801483, -0.081192746758461, 0.04075910151004791, 0.07778297364711761, -0.07419678568840027, -0.06273065507411957, 0.08942793309688568, -0.017269447445869446, 0.083711177110672, 0.021970495581626892, 0.07289500534534454, 0.02131114900112152, 0.05588732659816742, 0.004263103008270264, -0.0033467859029769897, 0.09730251133441925, -0.07325270771980286, 0.0023950785398483276, 0.12453894317150116, 0.12428721785545349, 0.03381945192813873, -0.11042183637619019, -0.1228133887052536, 0.06746397912502289, -0.06232403218746185, -0.07906804978847504, -0.0710197389125824, 0.024374231696128845, -0.06740878522396088, 0.1095418781042099, 0.020903751254081726, 0.01108984649181366, 0.028952643275260925, 0.023919016122817993, 0.0023012161254882812, -0.03042548894882202, -0.033290982246398926, 0.11835713684558868, -0.08533282577991486, -0.10472683608531952, -0.05185419321060181, -0.11952698230743408, 0.00867260992527008, 0.0014879107475280762, -0.07395718991756439, -0.09402197599411011, -0.045261532068252563, 0.020668208599090576, -0.024989306926727295, -0.06621676683425903, 0.08770719170570374, 0.03409962356090546, 0.059468820691108704, 0.011531636118888855, -0.0700424462556839, -0.053281381726264954, 0.03928069770336151, -0.09661220014095306, -0.07132425904273987, -0.017893671989440918, -0.0304633229970932, 0.10486158728599548, 0.10844367742538452, -0.04504428803920746, -0.06445764005184174, 0.06291104853153229, -0.09769763052463531, 0.04216448962688446, -0.04810620844364166, 0.10485289990901947, -0.04226712882518768, -0.04474000632762909, -0.006935417652130127, -0.09580391645431519, 0.022301912307739258, 0.019823595881462097, -0.07526466250419617, 0.05116300284862518, -0.10345961153507233, 0.05834156274795532, 0.12370941042900085, 0.03740040957927704, 0.057395532727241516, -0.08753298223018646, -0.06323054432868958, 0.08830185234546661, -0.05067586898803711, 0.012865066528320312, -0.04920700192451477, -0.06565527617931366, -0.07946912944316864, -0.0705847442150116, -0.095621258020401, -0.018303140997886658, 0.03125558793544769, -0.11202901601791382, 0.1019311398267746, -0.0819595456123352, 0.08310779929161072, -0.12015680968761444, -0.002325192093849182, 0.09723247587680817, -0.03444816172122955, 0.050799548625946045, -0.024645507335662842, 0.1226813942193985, -0.12416747212409973, 0.09427660703659058, 0.009319350123405457, -0.08686435222625732, -0.0925503522157669, 0.10485495626926422, -0.09332211315631866, -0.1072770208120346, -0.09252603352069855, 0.10390917956829071, -0.09007573127746582, -0.013586267828941345, -0.11741486191749573, 0.0003701746463775635, -0.10798494517803192, -0.08220505714416504, -0.043961212038993835, -0.07379768788814545, -0.017146989703178406, 0.02214360237121582, 0.07546934485435486, -0.005548983812332153, 0.09633763134479523, -0.013744980096817017, -0.004167035222053528, 0.11941108107566833, -0.09481927752494812, 0.007313951849937439, 0.12441509962081909, -0.06046915054321289, -0.043470993638038635, 0.08613045513629913, -0.011171802878379822, 0.10916581749916077, -0.11056937277317047, 0.06021486222743988, -0.04102924466133118, 0.013722866773605347, -0.09776954352855682, 0.08084416389465332, 0.07158766686916351, -0.06294263899326324, -0.0037710964679718018, -0.0803079903125763, -0.05323600769042969, 0.04867367446422577, 0.002069249749183655, 0.10611119866371155, 0.0004404783248901367, 0.04592128098011017, -0.007754459977149963, -0.0576440691947937, -0.10795485973358154, 0.025885537266731262, -0.07223810255527496, -0.12401421368122101, 0.03988119959831238, 0.09460557997226715, 0.10690252482891083, -0.06831105053424835, -0.08958712220191956, 0.09993313252925873, 0.017005905508995056, -0.06825217604637146, 0.061705008149147034, -0.035289570689201355, -0.05917607247829437, 0.08541150391101837, -0.01917111873626709, 0.019047215580940247, -0.08569596707820892, -0.12155784666538239, 0.12382271885871887, -0.06309141218662262, -0.033572494983673096, -0.09256094694137573, 0.09036068618297577, -0.03182424604892731, 0.08997640013694763, -0.05490200221538544, 0.04266875982284546, -0.11860458552837372, 0.08003529906272888, -0.009633362293243408, -0.017690375447273254, -0.06853313744068146, 0.044463351368904114, 0.07011370360851288, 0.06698830425739288, 0.08165201544761658, -0.12034916877746582, 0.016375675797462463, 0.030955404043197632, 0.04660041630268097, -0.11772318184375763, 0.055747583508491516, 0.1124851405620575, -0.07582134008407593, -0.07329268753528595, -0.1183762401342392, -0.11452943086624146, 0.03797288239002228, -0.07273638248443604, 0.03940449655056, 0.004982098937034607, 0.028270438313484192, 0.12207698822021484, -0.09506702423095703, 0.08903338015079498, 0.0250767320394516, -0.0077556222677230835, 0.12429361045360565, -0.09772014617919922, 0.0036695152521133423, 0.007923752069473267, -0.08744947612285614, 0.11844423413276672, 0.11407217383384705, -0.03002062439918518, 0.067135751247406, -0.11575642228126526, -0.09101291000843048, -0.10323171317577362, -0.10765613615512848, -0.0279969722032547, -0.0874558687210083, 0.055789291858673096, 0.049215078353881836, 0.02981521189212799, 0.12481358647346497, 0.01150260865688324, -0.06696483492851257, 0.006689637899398804, -0.10501793026924133, -0.027405977249145508, -0.11271727085113525, -0.11256071925163269, 0.117921382188797, 0.031834885478019714, -0.0715913325548172, -0.11849142611026764, 0.10165850818157196, 0.07388834655284882, -0.003379121422767639, -0.04752814769744873, 0.06369887292385101, -0.04629184305667877, -0.12058223783969879, 0.057184189558029175, -0.0020832866430282593, 0.09379063546657562, -0.07106570899486542, 0.11429162323474884, -0.09877131879329681, -0.08497639000415802, -0.02844148874282837, -0.11609868705272675, -0.027228325605392456, 0.005711585283279419, -0.03779742121696472, 0.012486070394515991, -0.12359528243541718, -0.08183594048023224, 0.041995301842689514, 0.04996064305305481, 0.11920133233070374, -0.05585223436355591, -0.004441887140274048, -0.07506819069385529, 0.07188953459262848, -0.10961394011974335, -0.021089747548103333, 0.10111260414123535, -0.12079794704914093, 0.0007800906896591187, 0.11781235039234161, -0.05277085304260254, -0.104897141456604, 0.056239739060401917, -0.11343197524547577, 0.040791094303131104, 0.02756132185459137, 0.03378461301326752, -0.08111152052879333, 0.09246990084648132, 0.09302093088626862, -0.07891431450843811, 0.08902512490749359, -0.0508401095867157, -0.06627829372882843, 0.10642081499099731, -0.05268482863903046, -0.11877143383026123, 0.04754532873630524, -0.007444024085998535, -0.10394488275051117, -0.09653238952159882, -0.04421856999397278, -0.052968770265579224, 0.027703702449798584, -0.0830799788236618, -0.04193587601184845, -0.0324503630399704, 0.07962803542613983, -0.04236505925655365, -0.04471242427825928, -0.0237598717212677, -0.07600037753582001, 0.08804173767566681, 0.10079483687877655, 0.11126351356506348, 0.11581161618232727, -0.008058026432991028, -0.11769327521324158, 0.036726683378219604, -0.04112069308757782, -0.06758557260036469, 0.006018742918968201, 0.11745928227901459, -0.05217009782791138, 0.09626229107379913, -0.020314380526542664, 0.12299954891204834, -0.05597813427448273, 0.09332004189491272, -0.10724049806594849, -0.03310896456241608, 0.09447316825389862, -0.023123666644096375, 0.05451434850692749, -0.007491886615753174, 0.03322385251522064, -0.025170907378196716, -0.11225366592407227, 0.11851808428764343, -0.08519019186496735, -0.05046588182449341, -0.12354539334774017, 0.0063132643699646, 0.05072835087776184, -0.05385974049568176, 0.03955534100532532, 0.03133811056613922, -0.1121552437543869, 0.07950247824192047, 0.04526659846305847, 0.06419852375984192, 0.011929750442504883, -0.08166126906871796, -0.07713069021701813, -0.08105169236660004, -0.017747506499290466, 0.048036471009254456, -0.05568407475948334, -0.043599933385849, 0.08942767977714539, -0.1128850132226944, 0.02076844871044159, -0.0797126442193985, -0.08165058493614197, 0.026134610176086426, -0.08892698585987091, 0.004321157932281494, -0.1215672492980957, 0.035307496786117554, -0.03191368281841278, 0.05062901973724365, -0.10562792420387268, -0.07706698775291443, -0.09526459872722626, -0.08670465648174286, 0.05274191498756409, 0.043929800391197205, -0.04351380467414856, -0.012547284364700317, -0.10780292749404907, 0.06447954475879669, 0.059363409876823425, -0.08738242089748383, -0.12247979640960693, -0.11339540779590607, -0.0021555721759796143, -0.026017427444458008, -0.031061246991157532, 0.01931658387184143, -0.0191260427236557, 0.024317756295204163, -0.09375216066837311, -0.12474614381790161, -0.06151576340198517, 0.11960044503211975, -0.07519927620887756, 0.048455461859703064, -0.10859932005405426, -0.11097763478755951, -0.05378192663192749, 0.08246590197086334, 0.1194366067647934, -0.0068395137786865234, -0.07510614395141602, 0.02030046284198761, -0.03198440372943878, -0.09809072315692902, 0.01116083562374115, -0.06024169921875, 0.0032891780138015747, 0.08307769894599915, 0.09737120568752289, 0.009022653102874756, 0.030785545706748962, 0.03619982302188873, 0.023748204112052917, -0.1057557612657547, -0.023031696677207947, 0.011784225702285767, 0.03314448893070221, -0.037180617451667786, 0.003747105598449707, -0.07970227301120758, -0.04568013548851013, 0.07622271776199341, 0.019624099135398865, -0.0848289281129837, -0.06661732494831085, -0.07536089420318604, -0.07314743101596832, 0.09298206865787506, -0.010261982679367065, 0.09915420413017273, -0.07817193865776062, -0.09381160140037537, -0.03423832356929779, -0.04618416726589203, 0.07788699865341187, -0.02924381196498871, -0.10652954876422882, 0.10400921106338501, 0.011199504137039185, 0.08591224253177643, 0.021365270018577576, -0.05793894827365875, -0.08216221630573273, -0.029110074043273926, -0.07468003034591675, 0.08828185498714447, 0.1214403361082077, 0.06383365392684937, -0.06706269085407257, -0.08833764493465424, 0.027533039450645447, 0.003010660409927368, -0.007494121789932251, -0.04273310303688049, 0.06999731063842773, -0.10342024266719818, -0.00558142364025116, -0.050262436270713806, 0.049997612833976746, 0.006184682250022888, -0.07145284116268158, 0.052098020911216736, -0.12437157332897186, 0.07028639316558838, -0.08424217998981476, 0.03382088243961334, -0.06367544829845428, -0.0473501980304718, 0.06852895021438599, 0.05015750229358673, 0.017505496740341187, -0.08294694125652313, -0.018985360860824585, 0.026965782046318054, -0.09510476887226105, 0.019063740968704224, 0.006790563464164734, 0.07213856279850006, 0.0024859458208084106, -0.09381282329559326, 0.11094310879707336, 0.0285293310880661, -0.025390148162841797, 0.12462377548217773, 0.016736075282096863, 0.02736462652683258, -0.10823732614517212, 0.05152313411235809, 0.06883437931537628, -0.011702999472618103, 0.01824057102203369, -0.09011541306972504, -0.05808714032173157, -0.09087662398815155, 0.00018331408500671387, -0.030398324131965637, 0.029861509799957275, 0.03939688205718994, -0.02819804847240448, 0.024303168058395386, -0.04112309217453003, -0.07025741040706635, 0.06921118497848511, -0.12138289213180542, -0.04188409447669983, -0.08760468661785126, -0.0680607259273529, 0.06403811275959015, 0.04927794635295868, -0.10138395428657532, -0.004372954368591309, 0.06072576344013214, -0.11447928845882416, -0.12156842648983002, 0.057527512311935425, -0.12422052025794983, 0.08669653534889221, -0.0964486300945282, 0.09550222754478455, 0.12194794416427612, 0.07559885084629059, -0.032558977603912354, -0.01083381474018097, -0.04079647362232208, -0.032985761761665344, -0.046779125928878784, -0.11863008141517639, -0.038362905383110046, 0.08366088569164276, -0.08905233442783356, 0.03127110004425049, -0.027769967913627625, 0.10572317242622375, -0.05632394552230835, 0.07756517827510834, -0.10206937789916992, -0.12229792773723602, 0.05538718402385712, -0.11583444476127625, 0.08799383044242859, 0.10882233083248138, -0.11797730624675751, 0.08594492077827454, -0.08468131721019745, 0.0587841272354126, 0.012818008661270142, 0.020667120814323425, -0.0794474333524704, 0.038373395800590515, 0.08611200749874115, 0.08853200078010559, -0.027824223041534424, -0.03727337718009949, 0.07249939441680908, -0.007421255111694336, -0.03992380201816559, 0.04840618371963501, -0.06585106253623962, 0.028970777988433838, 0.06720060110092163, 0.03535035252571106, 0.04751574993133545, -0.04228140413761139, 0.07310761511325836, -0.10760115087032318, 0.016772031784057617, -0.0925523191690445, 0.07597360014915466, 0.04600715637207031, -0.035644516348838806, 0.05677872896194458, -0.08648480474948883, 0.09264470636844635, 0.044375211000442505, 0.03709353506565094, 0.02577453851699829, -0.056244224309921265, 0.07232946157455444, 0.10733760893344879, 0.021790534257888794, -0.03174729645252228, -0.11955693364143372, 0.021327465772628784, 0.02562764286994934, 0.10600985586643219, 0.004944503307342529, -0.005395323038101196, -0.0028968900442123413, -0.02788299322128296, 0.012016549706459045, 0.052277758717536926, 0.07840313017368317, -0.065309539437294, -0.04423627257347107, -0.04668205976486206, 0.04669302701950073, 0.008984297513961792, 0.07128611207008362, 0.04212614893913269, 0.06496638059616089, 0.05268973112106323, -0.10086403787136078, -0.007249847054481506, 0.006002992391586304, -0.02098827064037323, -0.050882041454315186, -0.05373315513134003, -0.03924289345741272, -0.025294587016105652, 0.061332911252975464, -0.040927767753601074, -0.03647221624851227, 0.009072288870811462, -0.05463378131389618, -0.10882878303527832, -0.05174291133880615, -0.044832974672317505, 0.04917173087596893, -0.0780310183763504, 0.038582101464271545, -0.07715578377246857, -0.060894131660461426, 0.06979399919509888, -0.10502409934997559, -0.08785724639892578, 0.08920584619045258, -0.01625731587409973, -0.10726480185985565, 0.0008808225393295288, -0.02958516776561737, -0.016155928373336792, 0.11731036007404327, -0.08487890660762787, -0.03097030520439148, 0.006666034460067749, 0.09822599589824677, 0.0800676941871643, 0.08406449854373932, -0.007465451955795288, 0.09926387667655945, 0.04120108485221863, 0.08594129979610443, 0.04475526511669159, -0.019757822155952454, -0.09111572802066803, 0.07255993783473969, -0.03495258092880249, 0.11045722663402557, -0.033618345856666565, -0.04870307445526123, -0.03613048791885376, -0.03831581771373749, -0.019782572984695435, 0.04901993274688721, -0.12010680139064789, -0.027680546045303345, -0.019101127982139587, -0.09000281989574432, -0.025389283895492554, -0.023149728775024414, 0.08310741186141968, 0.04508522152900696, -0.015029758214950562, -0.020407497882843018, -0.06457935273647308, -0.021548539400100708, -0.015359058976173401, 0.10509695112705231, 0.0026281028985977173, -0.10846400260925293, 0.11539876461029053, -0.02109512686729431, -0.057510703802108765, -0.04959020018577576, -0.08931112289428711, 0.10655325651168823, 0.08275806903839111, -0.03259602189064026, 0.05944269895553589, 0.022108957171440125, 0.0832938551902771, 0.072750523686409, 0.06986132264137268, 0.021705597639083862, -0.008977562189102173, -0.055965691804885864, -0.09415200352668762, -0.035379037261009216, -0.12167790532112122, -0.11722755432128906, 0.013334318995475769, -0.01256483793258667, -0.03597980737686157, 0.05509743094444275, -0.07193246483802795, 0.0716472864151001, -0.03156289458274841, -0.10322114825248718, -0.03662966191768646, -0.015963390469551086, 0.0030117183923721313, 0.04923243820667267, 0.05499410629272461, 0.00808781385421753, 0.05857449769973755, -0.10343466699123383, -0.07221847772598267, 0.03313611447811127, -0.009113088250160217, -0.1062130481004715, -0.042206019163131714, -0.0021956413984298706, -0.09863056242465973, 0.06373551487922668, 0.10452570021152496, 0.022301122546195984, 0.08116912841796875, 0.047267064452171326, 0.0416930615901947, 0.050209447741508484, -0.09699073433876038, 0.06271621584892273, -0.061783596873283386, -0.09517320990562439, 0.09095349907875061, -0.09192302823066711, 0.12071727216243744, -0.0172635018825531, 0.1047266274690628, -0.012353181838989258, 0.12352685630321503, -0.05168987810611725, 0.06515033543109894, 0.07343575358390808, 0.07415440678596497, -0.11745129525661469, -0.039770498871803284, 0.11547981202602386, 0.05956394970417023, -0.05782952904701233, -0.06969501078128815, -0.09531724452972412, -0.03623415529727936, -0.11399988830089569, -0.016245529055595398, -0.04390259087085724, -0.0846203863620758, -0.09943175315856934, 0.10559245944023132, -0.10180212557315826, -0.0019082576036453247, -0.008956342935562134, 0.08001916110515594, 0.01937977969646454, -0.08913776278495789, -0.056412473320961, -0.10348540544509888, 0.08207446336746216, -0.005456089973449707, -0.06884905695915222, -0.06738796830177307, -0.0808335393667221, -0.05199357867240906, -0.057304397225379944, -0.001310691237449646, -0.1164257824420929, 0.09341380000114441, 0.07344682514667511, 0.10199663043022156, 0.07443250715732574, -0.0018546581268310547, -0.027435332536697388, 0.11577488481998444, 0.05267906188964844, 0.0028888285160064697, -0.10320894420146942, 0.12108446657657623, -0.02149195969104767, -0.10618680715560913, -0.10294227302074432, -0.11238130927085876, -0.10306091606616974, -0.12337276339530945, 0.033659860491752625, -0.05232487618923187, 0.05240769684314728, -0.025654077529907227, 0.033025264739990234, 0.0056787580251693726, 0.0385565459728241, -0.02801622450351715, 0.12292586266994476, -0.028203651309013367, 0.0847075879573822, 0.007646456360816956, 0.11558705568313599, 0.009656354784965515, -0.08957377076148987, 0.10176420211791992, 0.11864122748374939, 0.09206658601760864, 0.023673146963119507, -0.0449083149433136, 0.10247199237346649, -0.05403555929660797, -0.02334161102771759, 0.057411909103393555, -0.025604307651519775, 0.05025707185268402, 0.009471148252487183, -0.08038860559463501, -0.018746480345726013, -0.045033425092697144, -0.014056846499443054, 0.07920566201210022, 0.03895154595375061, 0.11909717321395874, 0.04351837933063507, 0.03152163326740265, -0.079780712723732, 0.09315156936645508, 0.0873737633228302, -0.0010910183191299438, -0.06816121935844421, -0.06933581829071045, -0.028510108590126038, 0.10864658653736115, 0.12450005114078522, 0.006751596927642822, -0.010893449187278748, -0.07801537215709686, 0.0437006801366806, 0.1044827401638031, -0.07580192387104034, -0.07141272723674774, 0.05560272932052612, -0.015589267015457153, -0.12127654254436493, -0.12191396951675415, -0.11390577256679535, -0.06820669770240784, 0.022556021809577942, 0.035668790340423584, -0.09695550799369812, 0.008273690938949585, 0.10609614849090576, 0.026759669184684753, -0.05115918815135956, 0.05896630883216858, -0.031037256121635437, 0.016674116253852844, 0.09607170522212982, 0.07760430872440338, 0.017912477254867554, 0.0989399403333664, 0.021031931042671204, -0.012195438146591187, 0.008749827742576599, -0.042693570256233215, -0.049887239933013916, -0.05295275151729584, -0.029021620750427246, 0.0932178646326065, 0.060848966240882874, -0.07403495907783508, 0.04133376479148865, 0.05081632733345032, 0.00012511014938354492, -0.11567822098731995, -0.09174759685993195, -0.11534252762794495, 0.07600735127925873, 0.05007435381412506, -0.1038273423910141, -0.025349721312522888, -0.029537662863731384, 0.04209721088409424, 0.030001148581504822, 0.11629347503185272, 0.12121105194091797, -0.01770913600921631, -0.02033306658267975, -0.051705166697502136, -0.03127731382846832, 0.06905397772789001, 0.10342417657375336, -0.041316837072372437, 0.06590528786182404, 0.05346612632274628, 0.044267624616622925, -0.05212755501270294, 0.015400528907775879, -0.06768471002578735, -0.01052209734916687, 0.024441152811050415, -0.11917251348495483, -0.0478568971157074, -0.08181078732013702, 0.0790109932422638, -0.049702391028404236, -0.09774449467658997, 0.0253458172082901, -0.026270806789398193, 0.012144103646278381, 0.11259427666664124, 0.0016739964485168457, -0.06543847918510437, 0.08498173952102661, -0.06367628276348114, -0.0574028342962265, 0.02987411618232727, 0.03991365432739258, -0.03788839280605316, -0.07522262632846832, -0.03780306875705719, -0.02832329273223877, 0.018588662147521973, -0.028698652982711792, 0.037139445543289185, -0.030177995562553406, 0.11201538145542145, -0.010476067662239075, 0.06964129209518433, 0.10981996357440948, -0.050940945744514465, -0.08385993540287018, 0.038347020745277405, 0.04347445070743561, 0.016388744115829468, 0.029606685042381287, -0.026221081614494324, 0.05143134295940399, -0.10013939440250397, 0.056371718645095825, 0.11697681248188019, -0.0029931962490081787, -0.002361193299293518, 0.03830806910991669, 0.11300855875015259, -0.06854464113712311, 0.027846679091453552, -0.02225741744041443, -0.057366758584976196, -0.083005890250206, 0.11738447844982147, -0.021972298622131348, -0.12182740867137909, 0.07963502407073975, 0.05179792642593384, 0.09976781904697418, 0.06234118342399597, 0.10851459205150604, 0.06782127916812897, 0.059057801961898804, 0.05307920277118683, 0.09517079591751099, 0.11752155423164368, 0.01637829840183258, -0.11130882799625397, 0.08028647303581238, -0.07245220243930817, -0.020878151059150696, 0.11901772022247314, 0.10382518172264099, -0.003331989049911499, 0.1047569066286087, 0.04413886368274689, 0.0962904542684555, -0.04929766058921814, -0.08875556290149689, 0.02378953993320465, 0.11667314171791077, -0.10924685001373291, 0.10541634261608124, -0.008966773748397827, -0.0851602852344513, -0.04929646849632263, 0.10471746325492859, -0.11698022484779358, -0.09957759082317352, -0.10414676368236542, 0.0279829204082489, 0.10896751284599304, -0.08008892834186554, 0.08832120895385742, 0.03732016682624817, 0.09357595443725586, -0.09264874458312988, -0.12134414911270142, 0.03767646849155426, -0.06592008471488953, 0.0071638524532318115, 0.09088921546936035, 0.06110619008541107, -0.001950874924659729, -0.03298938274383545, 0.042368680238723755, 0.013309136033058167, -0.07970947027206421, 0.10186854004859924, -0.01734660565853119, 0.09362952411174774, -0.0849129855632782, -0.05521006882190704, -0.007593408226966858, -0.1154070794582367, 0.03515942394733429, 0.1107756644487381, 0.016187146306037903, 0.06492415070533752, 0.06185363233089447, 0.101817786693573, -0.0891728550195694, -0.06378641724586487, 0.09190338850021362, -0.022737011313438416, 0.013415887951850891, 0.05382077395915985, 0.02397368848323822, 0.04469996690750122, -0.12459361553192139, 0.0832211971282959, -0.08928373456001282, 0.012425020337104797, -0.019523322582244873, -0.05802254378795624, -0.05902114510536194, 0.0010762810707092285, -0.08651493489742279, -0.10491965711116791, 0.06913366913795471, 0.06640808284282684, 0.10337609052658081, 0.09710994362831116, -0.11597831547260284, 0.1095244437456131, -0.012357428669929504, -0.05427335202693939, 0.00260123610496521, 0.061271488666534424, -0.029572099447250366, -0.11016321182250977, 0.03298778831958771, -0.09933634102344513, -0.10677514970302582, 0.0018393546342849731, -0.08141995966434479, -0.056593939661979675, -0.04743318259716034, 0.007741525769233704, -0.08116978406906128, -0.05607926845550537, 0.0652049332857132, -0.006631419062614441, -0.025831326842308044, -0.015465572476387024, 0.10713900625705719, -0.09055651724338531, 0.03759258985519409, 0.020649537444114685, -0.10700327157974243, -0.05005785822868347, -0.04055504500865936, 0.08540843427181244, -0.0032040923833847046, -0.11817245185375214, 0.044618502259254456, 0.05252136290073395, 0.10511837899684906, -0.042836740612983704, -0.004965484142303467, 0.0032238811254501343, -0.030882492661476135, 0.0747414082288742, -0.021679386496543884, 0.05257017910480499, 0.011661991477012634, 0.11393100023269653, -0.04689933359622955, 0.028987839818000793, -0.044911399483680725, -0.05047084391117096, -0.08578181266784668, -0.005774274468421936, -0.07794106006622314, 0.0968787670135498, -0.06912259757518768, 0.07115781307220459, 0.06190471351146698, -0.11894086003303528, -0.08914981782436371, 0.06863856315612793, -0.023079529404640198, -0.1240946352481842, -0.03179769217967987, -0.11754362285137177, -0.02484804391860962, -0.09010550379753113, -0.04791359603404999, 0.017227843403816223, 0.042318448424339294, 0.037118181586265564, -0.08329586684703827, 0.04394613206386566, -0.05013340711593628, 0.10355985164642334, -0.04563550651073456, 0.12337540090084076, -0.023338794708251953, 0.0879163146018982, -0.014760151505470276, 0.020576730370521545, 0.10814130306243896, 0.02576574683189392, -0.03029291331768036, -0.035304442048072815, 0.006427392363548279, -0.033083319664001465, 0.09531733393669128, 0.03137114644050598, -0.01895195245742798, -0.07246215641498566, -0.013816401362419128, -0.03742662072181702, 0.11221709847450256, 0.05590222775936127, -0.05656623840332031, -0.02223820984363556, -0.09405472874641418, 0.09489165246486664, -0.015813425183296204, -0.0559871643781662, -0.07050804793834686, 0.11280898749828339, -0.06230658292770386, 0.10115113854408264, -0.0162411630153656, -0.049146443605422974, -0.06240189075469971, 0.026888221502304077, -0.10815970599651337, -0.002920389175415039, 0.11000759899616241, -0.09979404509067535, -0.1098516583442688, 0.0830204039812088, 0.03786250948905945, -0.04049983620643616, -0.10942579805850983, 0.050167471170425415, 0.05266910791397095, 0.06460431218147278, -0.038097068667411804, 0.0867684930562973, 0.017926454544067383, -0.02471853792667389, -0.12263545393943787, 0.01206815242767334, -0.11106742918491364, -0.06339436769485474, 0.11822260916233063, 0.06303586065769196, -0.07803875207901001, 0.004774123430252075, -0.07395917177200317, -0.11582539975643158, 0.06442539393901825, -0.11312733590602875, -0.0854572206735611, 0.08146752417087555, 0.11576628684997559, 0.09593899548053741, -0.08621956408023834, 0.12053908407688141, -0.0027257055044174194, 0.009165406227111816, 0.1042308509349823, -0.02849462628364563, -0.08471211791038513, 0.015194997191429138, -0.10811735689640045, -0.11454589664936066, -0.101307213306427, 0.09914149343967438, -0.05252104997634888, 0.09948970377445221, -0.01813429594039917, -0.08182401955127716, 0.008553743362426758, -0.0899742841720581, 0.033087462186813354, 0.09842038154602051, 0.0505908727645874, -0.11104357242584229, 0.05266827344894409, -0.015858754515647888, 0.08808507025241852, 0.07937446236610413, 0.11711457371711731, 0.11644405126571655, 0.07610006630420685, -0.03745125234127045, -0.09284617006778717, -0.03616076707839966, 0.043556928634643555, -0.09484508633613586, -0.01408761739730835, -0.07923467457294464, 0.12440037727355957, 0.11572867631912231, -0.03870217502117157, -0.010774299502372742, 0.01916120946407318, -0.114704430103302, 0.07992713153362274, -0.10013720393180847, -0.032268524169921875, 0.04844701290130615, -0.1231197714805603, -0.07117597758769989, 0.11462068557739258, -0.09695260226726532, 0.015845850110054016, 0.11361783742904663, -0.02802819013595581, -0.06256113946437836, 0.085905060172081, -0.09746542572975159, 0.027961507439613342, 0.08020906150341034, -0.10044556856155396, -0.045171886682510376, 0.0889805406332016, 0.03945910930633545, -0.023329690098762512, 0.06919930875301361, 0.03388416767120361, 0.025650441646575928, -0.12130101025104523, -0.013755694031715393, -0.10995537042617798, -0.11636437475681305, -0.1225445568561554, -0.016501978039741516, 0.06037802994251251, 0.11929948627948761, -0.06528492271900177, -0.12360459566116333, -0.10644125938415527, -0.10712645947933197, 0.05469973385334015, 0.09461255371570587, 0.09071886539459229, -0.05657501518726349, -0.11470112204551697, -0.0562540739774704, -0.020475834608078003, -0.02059277892112732, 0.11301681399345398, 0.05380634963512421, 0.05214555561542511, -0.11561155319213867, 0.11696253716945648, -0.12032465636730194, 0.01918044686317444, -0.05509135127067566, -0.07147790491580963, 0.03522016108036041, -0.033703356981277466, -0.029531896114349365, 0.01960083842277527, 0.039536938071250916, 0.11197561025619507, 0.08488626778125763, -0.07802312076091766, 0.08788791298866272, -0.03941197693347931, -0.06262914836406708, 0.009486749768257141, -0.06307962536811829, -0.05895017087459564, -0.08478924632072449, -0.09534113109111786, 0.03614376485347748, -0.02127109467983246, 0.1105363667011261, 0.0837354063987732, -0.05501803755760193, -0.022786736488342285, -0.07439100742340088, 0.0845392644405365, 0.04876914620399475, -0.10514530539512634, 0.0699780136346817, 0.055664703249931335, -0.06739462912082672, -0.00871303677558899, 0.07729774713516235, 0.00731581449508667, -0.1008768379688263, -0.0392485111951828, -0.06211157143115997, 0.013682320713996887, -0.03582216799259186, 0.1041608452796936, -0.004120379686355591, -0.09626351296901703, -0.07476136088371277, 0.031731054186820984, 0.004301518201828003, 0.053488656878471375, -0.026448696851730347, -0.026279568672180176, 0.08593329787254333, -0.03442668914794922, -0.008548066020011902, -0.029486626386642456, 0.1057429164648056, 0.11414648592472076, -0.0498884916305542, 0.07913994789123535, 0.041840821504592896, 0.048520222306251526, 0.03960976004600525, 0.10265566408634186, 0.07377569377422333, -0.1204531341791153, -0.09428718686103821, -0.07245498895645142, -0.1039334237575531, 0.0481204092502594, 0.03513774275779724, 0.036401525139808655, 0.01802656054496765, 0.03433644771575928, 0.06440261006355286, 0.07338511943817139, -0.038005292415618896, -0.1082766205072403, -0.07605092227458954, -0.11704100668430328, -0.11973221600055695, -0.028585508465766907, -0.08279900252819061, 0.09821510314941406, 0.06915654242038727, 0.01990927755832672, -0.08104082942008972, -0.025290071964263916, -0.09386743605136871, 0.12057076394557953, 0.06623327732086182, 0.006289467215538025, 0.033346399664878845, 0.06659148633480072, 0.06594876945018768, -0.06475082039833069, 0.032986775040626526, 0.06930315494537354, 0.11752115190029144, 0.0946679413318634, 0.086196169257164, -0.07710950076580048, -0.0208187997341156, 0.019874662160873413, -0.00465807318687439, 0.07480819523334503, -0.04694931209087372, 0.04134558141231537, -0.010470598936080933, 0.11563512682914734, -0.014365911483764648, 0.02824273705482483, -0.10277587175369263, 0.0015005767345428467, 0.01006104052066803, 0.05298478901386261, 0.07967162132263184, 0.03747826814651489, 0.10758645832538605, -0.1086532324552536, 0.09539541602134705, -0.00880974531173706, -0.1241835504770279, -0.014357224106788635, 0.03455132246017456, -0.047915831208229065, 0.05165088176727295, -0.030873090028762817, 0.10134930908679962, 0.01370207965373993, 0.1181289553642273, -0.1061762273311615, -0.07579599320888519, -0.030005574226379395, -0.060239389538764954, 0.03412799537181854, -0.0550302118062973, -0.051306501030921936, 0.04556398093700409, -0.027690604329109192, 0.11851336061954498, 0.06231892108917236, 0.0691528469324112, -0.06582590937614441, 0.09573185443878174, 0.04157601296901703, -0.04842381179332733, -0.05617785453796387, 0.018189817667007446, 0.01310025155544281, -0.02688293159008026, 0.11058996617794037, 0.04907126724720001, -0.026722952723503113, -0.06475803256034851, -0.09469462931156158, 0.11095951497554779, 0.03087630867958069, -0.0380573570728302, 0.10992826521396637, 0.02565149962902069, 0.05765330791473389, 0.1146567314863205, -0.09623943269252777, 0.053781360387802124, -0.10442286729812622, 0.06381507217884064, 0.09773199260234833, 0.02088409662246704, -0.042007625102996826, 0.02806246280670166, -0.024832025170326233, -0.08371220529079437, -0.05712996423244476, -0.07321643829345703, -0.009305715560913086, -0.049012914299964905, -0.03850093483924866, -0.11621378362178802, -0.08948968350887299, 0.026716679334640503, 0.03251722455024719, 0.08178044855594635, -0.03910753130912781, -0.0636177808046341, 0.05743815004825592, -0.06534159183502197, 0.08708283305168152, 0.055659592151641846, 0.07900121808052063, -0.08910396695137024, 0.017023935914039612, 0.09720578789710999, 0.0631571114063263, 0.07340507209300995, 0.004211857914924622, 0.025044575333595276, 0.08047673106193542, 0.059138864278793335, -0.09239493310451508, -0.059168845415115356, -0.12357909977436066, 0.023620769381523132, -0.0015882253646850586, -0.03459921479225159, 0.10068680346012115, -0.05469314754009247, 0.04005824029445648, -0.05816654860973358, -0.07031700015068054, 0.09429037570953369, 0.09892481565475464, -0.06249396502971649, 0.0031785815954208374, 0.005342558026313782, -0.09517011046409607, -0.12382103502750397, 0.04483042657375336, 0.010246604681015015, -0.12207983434200287, 0.09610894322395325, -0.06717519462108612, -0.06424535810947418, 0.0782218724489212, -0.014430686831474304, -0.110319584608078, 0.08853349089622498, -0.008212193846702576, -0.04155002534389496, -0.0488806813955307, 0.042892441153526306, -0.0903739482164383, 0.011080294847488403, 0.11109879612922668, 0.0217849463224411, 0.11746221780776978, 0.0478036105632782, -0.0982750952243805, 0.08322149515151978, -0.11751072108745575, 0.0046809762716293335, -0.016590818762779236, -0.11212855577468872, -0.08857379853725433, 0.11048775911331177, 0.03371347486972809, 0.07432568073272705, 0.09880885481834412, -0.03474016487598419, -0.05300840735435486, 0.11322535574436188, -0.08514001965522766, -0.01656825840473175, 0.09605583548545837, 0.024956896901130676, 0.08631832897663116, 0.010488837957382202, 0.005734384059906006, 0.04042483866214752, 0.0976341962814331, 0.050578996539115906, 0.10557107627391815, -0.03017786145210266, 0.10227248072624207, -0.0653323382139206, -0.09847250580787659, -0.05929012596607208, -0.07024720311164856, -0.11209054291248322, -0.10656647384166718, -0.07068625092506409, -0.055696845054626465, -0.014976724982261658, -0.10231950879096985, 0.07985842227935791, 0.06380370259284973, 0.03534184396266937, -0.005598127841949463, -0.11480885744094849, 0.06138218939304352, 0.06260745227336884, 0.12227356433868408, 0.030891284346580505, 0.019566640257835388, 0.0074943602085113525, -0.08840955793857574, -0.028521955013275146, 0.018258899450302124, -0.050685495138168335, -0.098748579621315, -0.06188686192035675, 0.00522245466709137, 0.056077152490615845, -0.09523181617259979, -0.08718030154705048, -0.009871050715446472, -0.05612094700336456, 0.05953793227672577, -0.09335486590862274, 0.015650957822799683, -0.029856249690055847, -0.04626990854740143, 0.019029945135116577, -0.0542367547750473, -0.02037806808948517, 0.08032561838626862, -0.01117660105228424, 0.0894288569688797, -0.05248631536960602, 0.12227998673915863, 0.056480079889297485, 0.05818602442741394, 0.09373883903026581, 0.09663660824298859, 0.05608275532722473, 0.11097967624664307, 0.02314402163028717, -0.08592385053634644, -0.0298922061920166, -0.028503060340881348, -0.015198171138763428, -0.02277594804763794, 0.07689973711967468, 0.03214193880558014, -0.0495135635137558, 0.015475943684577942, 0.1234789788722992, 0.08060076832771301, 0.05401262640953064, 0.07884196937084198, -0.09241345524787903, 0.014080926775932312, -0.027236685156822205, -0.00678582489490509, -0.08653661608695984, 0.030198872089385986, 0.017743289470672607, -0.02910211682319641, -0.07012094557285309, 0.07404100894927979, -0.12443369626998901, -0.0379374623298645, 0.035712793469429016, 0.04451267421245575, -0.040478676557540894, -0.005284547805786133, 0.03404119610786438, 0.07719089090824127, -0.05645628273487091, 0.045073747634887695, 0.1117398738861084, -0.05691343545913696, -0.0523979514837265, -0.12268927693367004, 0.07259747385978699, -0.08696381747722626, -0.07918766140937805, 0.047448888421058655, 0.09428396821022034, 0.037954941391944885, 0.052100569009780884, -0.09549695253372192, 0.08560316264629364, -0.08853627741336823, -0.00387515127658844, -0.04352419078350067, -0.058886006474494934, -0.011944547295570374, 0.1146213561296463, 0.03879344463348389, -0.018369153141975403, -0.05789117515087128, -0.059709012508392334, 0.06535238027572632, 0.022029966115951538, -0.06281058490276337, 0.05278068780899048, 0.029561251401901245, 0.1060127466917038, 0.0598793625831604, -0.09891238808631897, -0.09980849921703339, 0.0397329181432724, 0.03682614862918854, 0.11596183478832245, -0.027484506368637085, 0.03662721812725067, -0.1182447224855423, -0.032821252942085266, 0.04021714627742767, 0.043544068932533264, -0.07032720744609833, 0.0483790785074234, 0.10262992978096008, -0.01604577898979187, 0.0005930662155151367, 0.09569042921066284, 0.10668022930622101, 0.056306689977645874, -0.04866693913936615, -0.014761477708816528, -0.0743660181760788, 0.05614106357097626, -0.07040153443813324, 0.03453436493873596, 0.047767236828804016, -0.06866608560085297, -0.014679878950119019, 0.025674432516098022, 0.09975461661815643, 0.0006787925958633423, 0.10503871738910675, 0.07401421666145325, 0.013277068734169006, 0.05359932780265808, -0.011943131685256958, -0.05444711446762085, -0.011951208114624023, 0.03324957191944122, 0.02197803556919098, 0.0615905225276947, 0.06434416770935059, -0.12012279033660889, -0.06878910958766937, 0.12402307987213135, 0.028089910745620728, 0.09558974206447601, -0.040050208568573, 0.058355748653411865, 0.08236198127269745, 0.061416953802108765, -0.07227285206317902, -0.09926541149616241, -0.016708001494407654, -0.0210726261138916, -0.10778294503688812, -0.061937883496284485, 0.040965065360069275, -0.10708895325660706, 0.02307458221912384, -0.10165554285049438, -0.08610963821411133, -0.05433960258960724, 0.03309929370880127, 0.08803889155387878, -0.08261743187904358, 0.04695889353752136, 0.025235533714294434, -0.05517096817493439, 0.0314985066652298, -0.08526818454265594, 0.04430218040943146, -0.11768889427185059, 0.035539865493774414, 0.06538131833076477, -0.06480048596858978, 0.013716518878936768, -0.07471068203449249, 0.051386311650276184, 0.1006365567445755, -0.1227412223815918, -0.014601722359657288, 0.05764405429363251, -0.11975155770778656, 0.09267671406269073, -0.106183260679245, 0.07531781494617462, 0.03720866143703461, 0.06624850630760193, 0.07767827808856964, 0.09277549386024475, 0.10580858588218689, 0.1086030900478363, -0.07620410621166229, 0.08606374263763428, 0.06183747947216034, 0.11272887885570526, 0.10901473462581635, -0.06964956223964691, 0.05743443965911865, 0.08436252176761627, -0.06656002998352051, -0.10242979228496552, 0.06520494818687439, 0.049730658531188965, -0.08628842234611511, -0.015623360872268677, -0.04426893591880798, 0.1137879490852356, -0.01732504367828369, 0.0971219539642334, -0.10077972710132599, -0.08126576244831085, -0.0363900363445282, 0.055148348212242126, -0.09151306748390198, 0.04320348799228668, 0.055073440074920654, 0.07356731593608856, -0.037749454379081726, -0.09304431080818176, -0.07013115286827087, -0.052308544516563416, 0.10584704577922821, -0.12460961937904358, -0.10688778758049011, 0.09939052164554596, 0.03584596514701843, 0.06768997013568878, 0.10495069622993469, 0.04158112406730652, 0.01096394658088684, -0.01570795476436615, -0.038663238286972046, 0.0986115038394928, -0.12451659142971039, 0.07676756381988525, -0.08713208138942719, 0.08629827201366425, -0.07708708941936493, 0.004376426339149475, -0.009093627333641052, -0.04901681840419769, 0.05581630766391754, 0.06003716588020325, -0.1039729118347168, -0.11690318584442139, 0.06056371331214905, 0.11674585938453674, -0.0011833757162094116, 0.09888201951980591, -0.09561704099178314, 0.005649968981742859, 0.009233459830284119, -0.06572750210762024, -0.04583604633808136, -0.07559360563755035, 0.0026799440383911133, -0.017855510115623474, 0.004245385527610779, -0.02139975130558014, 0.09942351281642914, -0.08716581761837006, -0.06901194155216217, -0.043360382318496704, -0.11332854628562927, 0.000525936484336853, 0.02654688060283661, 0.05565175414085388, -0.03420296311378479, 0.0050688982009887695, 0.11071096360683441, -0.10542714595794678, 0.02933850884437561, -0.10769365727901459, -0.019669458270072937, 0.031318411231040955, 0.10643285512924194, 0.04901103675365448, -0.0035414546728134155, -0.023564651608467102, -0.028269857168197632, -0.11790375411510468, 0.10591603815555573, 0.012604936957359314, -0.0379769504070282, 0.07426472008228302, 0.0021621137857437134, -0.023433610796928406, -0.07269178330898285, 0.040479376912117004, -0.07835328578948975, 0.002992480993270874, 0.06153523921966553, -0.059822335839271545, 0.05422760546207428, -0.11300423741340637, 0.10156117379665375, -0.09338320791721344, 0.04117432236671448, 0.019817829132080078, -0.02738475799560547, -0.04989421367645264, 0.07492659986019135, 0.10410700738430023, -0.08525598049163818, -0.06442628800868988, 0.08593691885471344, -0.08592347800731659, -0.05907586216926575, -0.0737311840057373, -0.027425378561019897, 0.03105287253856659, -0.08695074915885925, -0.09811455011367798, -0.05554044246673584, -0.11724907159805298, 0.07371719181537628, -0.0993170291185379, 0.06846214830875397, 0.040231987833976746, -0.025594741106033325, -0.049497514963150024, -0.08261488378047943, -0.05837370455265045, 0.07939416170120239, 0.010138168931007385, 0.037572816014289856, 0.010100230574607849, -0.0949573963880539, 0.032302528619766235, -0.03214535117149353, 0.07623369991779327, -0.04820223152637482, 0.062169939279556274, -0.1006304919719696, -0.09996584057807922, -0.07917948067188263, -0.0718136876821518, -0.10015258193016052, -0.03761056065559387, -0.022465988993644714, 0.09937971830368042, -0.11199703812599182, -0.03628675639629364, 0.026449576020240784, 0.11274552345275879, 0.04937884211540222, 0.08287294209003448, 0.06701864302158356, 0.004576325416564941, 0.02986733615398407, 0.048237815499305725, 0.07525192201137543, 0.042785465717315674, 0.09448190033435822, -0.002078533172607422, 0.08909358084201813, -0.07543991506099701, 0.011564940214157104, 0.04664330184459686, 0.02458222210407257, -0.021146655082702637, -0.05327640473842621, -0.12179583311080933, -0.11737681925296783, -0.00013765692710876465, 0.024870172142982483, 0.05144309997558594, 0.11777202785015106, -0.06249739229679108, -0.055156633257865906, 0.06031350791454315, 0.06297534704208374, -0.08811117708683014, -0.013427287340164185, 0.05109119415283203, 0.037397101521492004, -0.03085102140903473, -0.09297540783882141, 0.019968286156654358, 0.06450995802879333, 0.00823657214641571, -0.06542092561721802, -0.11297154426574707, 0.05847287178039551, 0.054629236459732056, 0.033267274498939514, -0.048512622714042664, 0.02843296527862549, 0.03342616558074951, 0.09300994873046875, -0.09096112847328186, 0.08243456482887268, -0.07515093684196472, -0.02390892803668976, -0.024848133325576782, -0.09646129608154297, 0.09740333259105682, -0.021373853087425232, -0.04000672698020935, 0.049521490931510925, 0.11108721792697906, -0.04164794087409973, 0.1044308990240097, 0.1246953159570694, -0.006315842270851135, 0.09923429787158966, 0.0312923789024353, -0.10824638605117798, 0.029355496168136597, -0.10038073360919952, 0.011071056127548218, -0.03913217782974243, -0.04404464364051819, 0.0806640237569809, -0.09354200959205627, 0.10779890418052673, 0.09799754619598389, 0.005788400769233704, 0.08730080723762512, -0.026338890194892883, -0.10707029700279236, 0.00618627667427063, 0.0012080073356628418, 0.06289643049240112, 0.08147226274013519, -0.0850035697221756, 0.09229074418544769, 0.013883084058761597, 0.11446070671081543, 0.045685023069381714, 0.0741690993309021, -0.08612407743930817, -0.028028011322021484, -0.049862250685691833, -0.05914193391799927, 0.10073913633823395, -0.08012421429157257, -0.006222143769264221, -0.06797720491886139, 0.07984292507171631, 0.021955102682113647, 0.12325145304203033, 0.00485895574092865, 0.08208245038986206, 0.07470810413360596, -0.06456741690635681, -0.07707472145557404, -0.10648971796035767, -0.07179750502109528, 0.12081573903560638, 0.03116786479949951, 0.12133361399173737, 0.1209864467382431, 0.09789790213108063, -0.03013172745704651, 0.032717540860176086, -0.013448357582092285, -0.07636980712413788, 0.003918930888175964, -0.012689933180809021, 0.004281520843505859, -0.02431170642375946, -0.10730133950710297, 0.050211101770401, 0.09004977345466614, 0.11612747609615326, 0.10029445588588715, 0.04411342740058899, 0.07407556474208832, 0.09395572543144226, 0.08072836697101593, -0.0699329823255539, -0.05363379418849945, -0.031284064054489136, -0.012088969349861145, -0.09981144964694977, 0.01855514943599701, 0.00040587782859802246, 0.005999013781547546, 0.11504983901977539, -0.08333921432495117, 0.05964665114879608, 0.01757177710533142, 0.04780539870262146, -0.08469399809837341, 0.0009389519691467285, 0.011311918497085571, 0.11440818011760712, -0.10980112850666046, 0.06803053617477417, 0.10766030848026276, -0.08830362558364868, 0.0015935301780700684, -0.028976187109947205, 0.10358357429504395, -0.0693058967590332, 0.10072360932826996, -0.10469399392604828, -0.020977959036827087, -0.10869365930557251, -0.09677979350090027, 0.1132194995880127, 0.08161284029483795, 0.014082938432693481, 0.004115596413612366, 0.07592113316059113, 0.09987649321556091, -0.004410549998283386, -0.04287627339363098, 0.11530329287052155, 0.12187770009040833, -0.05137093365192413, 0.0740600973367691, -0.0791885256767273, 0.02407453954219818, 0.01833827793598175, -0.07568597793579102, -0.06516030430793762, -0.06900297105312347, 0.02982749044895172, -0.08941006660461426, -0.03361430764198303, -0.027920082211494446, -0.03025144338607788, 0.0942486971616745, 0.05300787091255188, -0.02736474573612213, -0.07106737792491913, 0.02361437678337097, -0.039834558963775635, -0.0798625499010086, -0.010713934898376465, 0.015627950429916382, 0.06240130960941315, -0.04923480749130249, 0.11298419535160065, 0.026515766978263855, 0.060474470257759094, 0.04894082248210907, 0.0958082526922226, 0.10521213710308075, -0.022692307829856873, -0.10935486853122711, -0.04938554763793945, 0.014127135276794434, 0.03760029375553131, -0.12322792410850525, 0.06662283837795258, 0.08494007587432861, 0.09426392614841461, -0.11520761251449585, -0.012142807245254517, -0.027652889490127563, 0.02809847891330719, 0.013346657156944275, 0.0830957293510437, -0.016297459602355957, -0.08609330654144287, 0.02643895149230957, 0.06259617209434509, 0.04531320929527283, -0.10791432857513428, -0.010823294520378113, -0.08861397206783295, -0.05970935523509979, 0.09776777029037476, -0.0441642701625824, 0.05795016884803772, -0.12479498982429504, 0.06325703859329224, 0.08024774491786957, -0.07973045110702515, 0.06909488141536713, 0.05798575282096863, 0.10626991093158722, -0.08107487857341766, -0.08450624346733093, 0.012522786855697632, -0.0008413493633270264, -0.023928657174110413, 0.11739481985569, -0.0522405207157135, -0.09713725745677948, -0.005244061350822449, 0.03788560628890991, -0.01629127562046051, -0.06245775520801544, 0.09597812592983246, 0.10808251798152924, 0.06092442572116852, -0.08344410359859467, -0.06761932373046875, 0.027034670114517212, 0.03766675293445587, -0.03660506010055542, 0.07956205308437347, -0.04525016248226166, 0.09165264666080475, 0.044769421219825745, -0.07921884953975677, -0.10313776135444641, -0.08839836716651917, 0.11483246088027954, 0.04696895182132721, 0.09594877064228058, -0.015069767832756042, 0.08032386004924774, 0.06841850280761719, -0.12230631709098816, 0.010310664772987366, 0.020186051726341248, 0.11881406605243683, 0.03639620542526245, 0.07731346786022186, -0.001101657748222351, -0.05498482286930084, -0.029753834009170532, -0.06853927671909332, -0.11608988046646118, -0.013138830661773682, -0.007882535457611084, 0.08856469392776489, -0.10019274055957794, 0.028814509510993958, -0.046884894371032715, 0.08669382333755493, -0.010539337992668152, 0.07857903838157654, -0.025737494230270386, -0.016775459051132202, 0.086783766746521, -0.09183090925216675, -0.101029172539711, 0.10977964103221893, 0.11358976364135742, -0.11755158007144928, -0.10003693401813507, 0.08577151596546173, 0.04752139747142792, 0.12472610175609589, -0.03028133511543274, 0.01211652159690857, -0.0640810877084732, -0.058670878410339355, 0.09931707382202148, -0.05221542716026306, -0.09688439965248108, 0.09359003603458405, 0.0059518516063690186, -0.06576395034790039, 0.014641210436820984, 0.012356787919998169, 0.07911665737628937, 0.002284318208694458, 0.10575056076049805, -0.08853824436664581, 0.11039571464061737, 0.055205151438713074, 0.06697940826416016, 0.12076786160469055, 0.08032666146755219, 0.06503237783908844, -0.11888870596885681, -0.046682313084602356, 0.025689750909805298, -0.011118456721305847, 0.06316927075386047, 0.06535062193870544, 0.07235179841518402, -0.1201527863740921, -0.0496281236410141, -0.09705403447151184, 0.11248058080673218, 0.0014061182737350464, 0.04582172632217407, -0.0015132278203964233, -0.022775381803512573, 0.09240621328353882, -0.08015836775302887, -0.04070137441158295, 0.07592245936393738, 0.09750349819660187, 0.07348945736885071, -0.09700089693069458, 0.1183081716299057, 0.08013363182544708, -0.06964437663555145, -0.11861938238143921, 0.09489279985427856, 0.10803481936454773, 0.02142415940761566, 0.035009175539016724, 0.09872789680957794, -0.07625313103199005, 0.065694659948349, 0.06027477979660034, 