{"config": {"model_type": "ResLSTM", "norm_mean": 0.10000000149011612, "norm_std": 0.8999999761581421}, "meta_data": {}, "parameters": {"input_size": 1, "output_size": 1, "hidden_size": 64, "ps_hidden_size": 8, "ps_num_hidden_layers": 3}, "state_dict": {"rnn": {"weight_hh_l0": {"shape": [256, 64], "values": [0.05581815540790558, 0.008067533373832703, 0.015755638480186462, 0.06966449320316315, 0.015868008136749268, -0.056304141879081726, -0.11189836263656616, 0.0827629417181015, -0.01625838875770569, -0.0018633008003234863, 0.016859859228134155, 0.07067348062992096, 0.054209545254707336, 0.04889830946922302, -0.04097329080104828, -0.07638642191886902, 0.0990220159292221, 0.1098109781742096, 0.017241209745407104, -0.025091558694839478, 0.013277947902679443, 0.08067812025547028, -0.042261749505996704, 0.10196483135223389, 0.04571022093296051, -0.02492058277130127, 0.08911897242069244, 0.10842074453830719, -0.06740808486938477, -0.008454635739326477, -0.03414358198642731, 0.10934793949127197, 0.011720135807991028, 0.0578727126121521, 0.12022672593593597, -0.09766821563243866, -0.06537576019763947, -0.045273616909980774, 0.0735289454460144, -0.1137329638004303, 0.08117245137691498, -0.018855169415473938, 0.03682778775691986, 0.022695675492286682, -0.0343785285949707, 0.06569042801856995, 0.08231556415557861, -0.1167791336774826, 0.019987836480140686, -0.04995983839035034, -0.03348526358604431, -0.10931341350078583, 0.010439872741699219, -0.07906188070774078, 0.029803767800331116, -0.011443480849266052, 0.0922735333442688, 0.10471393167972565, -0.04158242046833038, -0.05952531099319458, -0.0901411920785904, -0.12236686050891876, 0.007216274738311768, -0.02911590039730072, 0.04174257814884186, -0.03792811930179596, 0.0027304142713546753, 0.08110299706459045, -0.0935090184211731, -0.10106293857097626, 0.11971274018287659, -0.07246078550815582, -0.006536602973937988, 0.0547495037317276, -0.08289013803005219, 0.06412942707538605, 0.05764824151992798, 0.017126008868217468, 0.04546184837818146, 0.12490017712116241, 0.033056408166885376, 0.05241668224334717, 0.11510834097862244, 0.022711709141731262, 0.023961931467056274, -0.02746295928955078, 0.12331125140190125, 0.005617588758468628, 0.11323896050453186, -0.11622343957424164, -0.009880825877189636, 0.1061965674161911, -0.12138134241104126, -0.010502263903617859, 0.12173619866371155, 0.07800868153572083, 0.03542865812778473, 0.0915897935628891, 0.11536608636379242, 0.0688500851392746, -0.10780878365039825, 0.03172546625137329, -0.11649847030639648, 0.0958448201417923, -0.10494284331798553, 0.0829191654920578, -0.03659696877002716, 0.06363297998905182, -0.035196125507354736, 0.022524863481521606, -0.011906668543815613, -0.04564198851585388, 0.02835652232170105, -0.06843598186969757, -0.0631667971611023, -0.08689041435718536, -0.0585046112537384, 0.035769328474998474, -0.07852210104465485, 0.03240327537059784, 0.03846488893032074, -0.0896373838186264, -0.016636326909065247, -0.058420076966285706, -0.0758754163980484, -0.028626292943954468, 0.03751267492771149, 0.120817169547081, -0.030610308051109314, 0.11123411357402802, -0.03789283335208893, -0.11638589203357697, -0.03561525046825409, 0.008098676800727844, 0.07008196413516998, -0.005179166793823242, -0.05427393317222595, -0.006850734353065491, 0.09986191987991333, 0.020929545164108276, -0.011981159448623657, -0.05133911967277527, -0.07589937746524811, 0.09366337954998016, -0.12364162504673004, -0.05200575292110443, 0.07360509037971497, -0.020599156618118286, -0.11614026129245758, -0.056109145283699036, 0.029857993125915527, -0.01700042188167572, -0.11934983730316162, 0.11767201125621796, 0.04411470890045166, 0.0449768602848053, 0.1005622148513794, 0.09110261499881744, -0.08382683992385864, 0.11301575601100922, 0.014370962977409363, -0.08569011092185974, -0.009038165211677551, 0.08222728967666626, -0.004001021385192871, 0.041424766182899475, 0.1241205483675003, -0.09674549102783203, -0.10095211863517761, 0.024046123027801514, -0.05113838613033295, -0.02822241187095642, 0.022458165884017944, 0.07765579223632812, 0.10999491810798645, -0.06565673649311066, 0.006430968642234802, 0.008512735366821289, 0.06542333960533142, 0.11787864565849304, -0.03556393086910248, -0.061446189880371094, -0.009699046611785889, -0.11052176356315613, -0.11161375045776367, -0.07860183715820312, 0.0394311249256134, 0.08754394948482513, 0.0987747311592102, 0.08437737822532654, 0.08288881182670593, 0.07612213492393494, -0.11412177979946136, 0.10277293622493744, 0.06509381532669067, -0.11658257246017456, 0.013238713145256042, 0.03562256693840027, 0.06459051370620728, 0.06794548034667969, -0.07085871696472168, 0.11625543236732483, -0.11592274904251099, 0.027727127075195312, -0.09464523196220398, 0.061013489961624146, 0.05674824118614197, -0.09356075525283813, 0.04733763635158539, -0.012625738978385925, -0.0006850361824035645, -0.1192404180765152, -0.09017762541770935, 0.11303569376468658, 0.059840500354766846, 0.11612270772457123, 0.03541187942028046, 0.0016138851642608643, 0.04146406054496765, -0.049372658133506775, -0.015016168355941772, 0.013155132532119751, 0.056455522775650024, 0.10791467130184174, -0.05798783898353577, -0.0722818523645401, -0.05594490468502045, 0.07261653244495392, 0.05084121227264404, 0.11647379398345947, -0.05740302801132202, 0.01179666817188263, -0.0552535206079483, -0.08135256171226501, -0.024465471506118774, 0.013692796230316162, 0.11958543956279755, -0.08777885138988495, -0.11891721189022064, 0.008371695876121521, 0.004897505044937134, -0.060362309217453, 0.08625343441963196, -0.05645962059497833, -0.06968905031681061, -0.044796571135520935, -0.08179956674575806, -0.11284758150577545, -0.014084726572036743, -0.10543952882289886, 0.0827789455652237, -0.10126319527626038, 0.10539676249027252, 0.02988240122795105, -0.059608787298202515, 0.07840237021446228, -0.08840124309062958, 0.022090807557106018, -0.09238137304782867, -0.1236395537853241, -0.09728530049324036, 0.12071049213409424, 0.10702341794967651, 0.04721841216087341, -0.05749489367008209, 0.0768805742263794, 0.11756810545921326, -0.022258952260017395, 0.01653677225112915, 0.12387566268444061, 0.07551653683185577, 0.06657810509204865, 0.07045279443264008, -0.10583429038524628, -0.03620938956737518, 0.01057000458240509, 0.1037183403968811, 0.03790588676929474, 0.01295645534992218, 0.06510418653488159, -0.1199939101934433, -0.11385089159011841, -0.09235796332359314, -0.07363377511501312, 0.03474472463130951, 0.004272356629371643, 0.032039910554885864, 0.09580820798873901, 0.06511922180652618, -0.1125066727399826, -0.045513808727264404, 0.07320091128349304, -0.09077142179012299, -0.0841856598854065, -0.08721381425857544, -0.065074622631073, -0.004116907715797424, -0.08501036465167999, -0.08902586996555328, -0.03910475969314575, -0.11259955167770386, 0.12376931309700012, -0.03758054971694946, 0.03144103288650513, 0.07520854473114014, -0.0833454579114914, -0.071795254945755, 0.12087023258209229, 0.06502139568328857, -0.02894844114780426, 0.07063412666320801, -0.01687796413898468, -0.10186628997325897, -0.009243100881576538, 0.007223382592201233, 0.047909557819366455, -0.005842640995979309, 0.12236566841602325, 0.05301576852798462, 0.01699182391166687, -0.08381769061088562, 0.10772280395030975, 0.11279504001140594, -0.039858847856521606, -0.08282971382141113, -0.06487606465816498, 0.12230196595191956, 0.0985507071018219, -0.12273037433624268, -0.04792788624763489, 0.02668747305870056, 0.018598884344100952, -0.003806591033935547, -0.04247322678565979, -0.026330456137657166, 0.08371245861053467, 0.03262929618358612, -0.08825764060020447, 0.04514726996421814, -0.0004610121250152588, -0.04017332196235657, 0.12307843565940857, 0.05197921395301819, 0.07184018194675446, 0.03960198163986206, 0.07201431691646576, 0.015243276953697205, -0.10242518782615662, -0.08614277839660645, -0.05489683151245117, 0.059547290205955505, 0.09212431311607361, 0.10017810761928558, -0.04274401068687439, 0.12251292169094086, -0.052543774247169495, 0.014486044645309448, -0.02318018674850464, 0.06378072500228882, 0.003731250762939453, -0.11831134557723999, 0.047348544001579285, 0.031620875000953674, 0.026247307658195496, -0.07023116946220398, -0.008917808532714844, 0.09494394063949585, 0.08214050531387329, -0.05767245590686798, 0.0912172943353653, 0.06919299066066742, -0.07974931597709656, -0.07239621877670288, -0.11899648606777191, -0.08593413233757019, 0.11307425796985626, -0.028179273009300232, -0.004050016403198242, 0.0477728396654129, -0.004539623856544495, -0.03696522116661072, -0.05822493135929108, 0.09613607823848724, 0.022895514965057373, -0.030987918376922607, -0.08502613008022308, 0.014486566185951233, -0.09763103723526001, -0.11535479128360748, 0.055908963084220886, 0.017996445298194885, 0.04124867916107178, -0.006778702139854431, -0.04990203678607941, 0.10480962693691254, -0.09221702814102173, -0.09034326672554016, -0.12155492603778839, -0.0006938725709915161, -0.06654611229896545, -0.10580967366695404, 0.03056107461452484, 0.08211669325828552, -0.0069193243980407715, -0.006007865071296692, -0.11430390179157257, -0.0624191015958786, -0.12333451211452484, 0.09121054410934448, -0.11090852320194244, 0.08196261525154114, -0.03985515236854553, -0.08348512649536133, 0.027160152792930603, -0.12482643127441406, 0.10015062987804413, -0.016959503293037415, -0.059425756335258484, -0.06920656561851501, -0.03450654447078705, -0.11979824304580688, 0.03406207263469696, 0.0026614218950271606, -0.08472537994384766, 0.10997021198272705, -0.030910924077033997, 0.031763553619384766, -0.024356678128242493, -0.037590235471725464, 0.04335910081863403, -0.04312252998352051, -0.01961451768875122, -0.040591150522232056, 0.10937902331352234, 0.0684356540441513, -0.07267449796199799, 0.08289122581481934, -0.07191911339759827, 0.07899235188961029, -0.019425660371780396, -0.065872922539711, 0.10991674661636353, -0.1189805269241333, 0.07742831110954285, -0.11077889800071716, 0.03568154573440552, -0.07249502837657928, 0.06414467096328735, -0.12122917175292969, 0.02739015221595764, 0.10761295258998871, -0.10128971934318542, -0.007065445184707642, 0.041211873292922974, -0.11176806688308716, -0.048292383551597595, 0.08472131192684174, -0.0691789835691452, 0.0726870447397232, -0.06962285935878754, -0.10539132356643677, -0.07457949221134186, -0.12474507093429565, 0.085768923163414, 0.027253389358520508, -0.12461024522781372, -0.110255166888237, -0.08862464129924774, 0.11905387043952942, 0.06865744292736053, 0.04734741151332855, 0.06857927143573761, -0.08476263284683228, -0.03497910499572754, 0.00838768482208252, -0.02479596436023712, -0.0684778094291687, 0.03979574143886566, 0.03780069947242737, -0.11643771827220917, -0.03394792973995209, -0.028071582317352295, -0.05058369040489197, -0.07925529778003693, 0.0064298659563064575, -0.09870396554470062, 0.11190579831600189, 0.12039507925510406, 0.02594897150993347, 0.09668320417404175, -0.11674614250659943, -0.08430293202400208, -0.07468780875205994, -0.09693586826324463, -0.010164380073547363, 0.03398975729942322, -0.047082290053367615, -0.10417300462722778, 0.008843466639518738, -0.005637496709823608, -0.022001296281814575, -0.06735219061374664, -0.006660148501396179, 0.018043816089630127, -0.0699046403169632, -0.008595138788223267, 0.101813405752182, -0.10368546843528748, -0.05511818826198578, -0.017534732818603516, -0.048631951212882996, 0.1152346134185791, 0.05384647846221924, 0.08584050834178925, -0.07381629943847656, -0.11190378665924072, -0.07608294486999512, 0.08987841010093689, 0.07932798564434052, -0.0026663541793823242, -0.00758729875087738, 0.04559008777141571, 0.025825172662734985, 0.0824834406375885, -0.06294064223766327, 0.027142003178596497, 0.1215476542711258, 0.0320296436548233, -0.029072463512420654, 0.0435623824596405, -0.05120396614074707, -0.08829814195632935, -0.021355971693992615, 0.060302168130874634, 0.06671440601348877, 0.020107701420783997, 0.031040340662002563, -0.05671553313732147, 0.057970866560935974, -0.11587464809417725, 0.08009856939315796, 0.10141535103321075, -0.0013283491134643555, -0.09945930540561676, 0.030079513788223267, 0.024853914976119995, 0.10614301264286041, 0.041076838970184326, 0.027872487902641296, 0.08739462494850159, -0.11723925173282623, 0.10017161071300507, 0.032453298568725586, -0.05718950927257538, -0.05849124491214752, 0.0018509924411773682, -0.00017088651657104492, 0.10006633400917053, 0.01908804476261139, -0.04405537247657776, 0.07012413442134857, 0.10371863842010498, 0.09776797890663147, -0.11594949662685394, 0.00494326651096344, -0.11763474345207214, 0.07890251278877258, 0.10977776348590851, 0.08318904042243958, 0.016710996627807617, 0.07914300262928009, -0.11160816252231598, -0.050339654088020325, -0.008537784218788147, 0.0001074671745300293, -0.05373489856719971, -0.10042190551757812, -0.0036666691303253174, -0.0003560781478881836, 0.034791499376297, 0.0733821839094162, -0.013069316744804382, 0.009640857577323914, -0.08492228388786316, 0.07998029887676239, -0.12217994034290314, -0.04889552295207977, -0.020605474710464478, -0.036448583006858826, -0.04833702743053436, 0.013867974281311035, 0.02532769739627838, 0.09930470585823059, -0.05156408250331879, -0.017479553818702698, 0.04953224956989288, -0.09738565981388092, -0.10806863009929657, 0.054568350315093994, 0.10740351676940918, -0.1069716066122055, 0.11897332966327667, 0.08889198303222656, -0.04597662389278412, 0.022924020886421204, 0.0025935471057891846, -0.0077854543924331665, 0.08709296584129333, 0.09846225380897522, -0.012225225567817688, 0.02223779261112213, 0.09196256101131439, -0.07323737442493439, -0.01563979685306549, -0.01723065972328186, -0.03858797252178192, -0.06624409556388855, -0.10030107200145721, -0.1020837277173996, -0.08045367896556854, 0.09936176240444183, 0.12271904945373535, -0.09758979082107544, -0.08049046993255615, -0.06080164015293121, -0.0301959365606308, 0.0764956921339035, -0.018027454614639282, -0.06750504672527313, -0.0823889672756195, -0.010844796895980835, 0.12235933542251587, -0.05643665790557861, -0.02462117373943329, -0.07417029142379761, -0.08336739242076874, -0.1221158504486084, -0.05321452021598816, -0.07138620316982269, 0.01824033260345459, -0.07366491854190826, 0.026166006922721863, -0.08315302431583405, 0.09910640120506287, 0.05550593137741089, -0.03766603767871857, -0.005190953612327576, 0.013264983892440796, 0.0039662569761276245, -0.10136771202087402, -0.11602139472961426, 0.04547321796417236, -0.07136611640453339, 0.025294169783592224, -0.010836511850357056, 0.07747794687747955, 0.0023326724767684937, 0.06096576154232025, 0.0004224032163619995, 0.11302222311496735, -0.07780516147613525, -0.04392725229263306, 0.038307175040245056, 0.07280080020427704, -0.10914970934391022, 0.07509210705757141, -0.07935607433319092, -0.00011581182479858398, 0.10635755956172943, -0.011036589741706848, 0.00013366341590881348, 0.08754880726337433, -0.044966548681259155, -0.12321294844150543, -0.05646854639053345, -0.07508295774459839, 0.010380640625953674, -0.05453066527843475, 0.026065602898597717, -0.007625609636306763, -0.12134043872356415, -0.007786542177200317, 0.11505353450775146, -0.11115983128547668, 0.10983070731163025, 0.04023602604866028, 0.03491632640361786, -0.11226572096347809, -0.10647043585777283, -0.12021283805370331, -0.018709078431129456, 0.002799093723297119, -0.03357250988483429, -0.028159677982330322, -0.04101066291332245, -0.10306867957115173, -0.03458221256732941, -0.05317401885986328, 0.019527345895767212, -0.11071467399597168, -0.0014791786670684814, 0.004687190055847168, -0.001431092619895935, 0.04208327829837799, 0.12432253360748291, 0.019252702593803406, -0.018460392951965332, 0.02720390260219574, 0.09256826341152191, 0.024304121732711792, 0.003375634551048279, 0.021059677004814148, -0.02593633532524109, -0.0095156729221344, -0.07133252918720245, -0.09996949136257172, 0.11753557622432709, 0.11836154758930206, -0.048992305994033813, 0.11894214153289795, -0.06231476366519928, -0.005332857370376587, 0.00010392069816589355, -0.0803801566362381, 0.10745221376419067, -0.039973184466362, -0.11355327069759369, -0.02261359989643097, -0.08003245294094086, -0.026171445846557617, -0.04204516112804413, 0.12318894267082214, 0.11167116463184357, 0.09810394048690796, -0.004265323281288147, 0.04758740961551666, 0.07452468574047089, 0.023015111684799194, 0.05095130205154419, -0.0017366856336593628, -0.03063081204891205, 0.04421128332614899, 0.04314810037612915, -0.10600784420967102, 0.093559131026268, 0.11716328561306, 0.05443465709686279, 0.020644888281822205, -0.019338205456733704, 0.10864494740962982, -0.08213584125041962, -0.0627664178609848, -0.08795344829559326, 0.08328285813331604, -0.06581035256385803, 0.0019147545099258423, -0.0642695426940918, 0.03173676133155823, 0.12066930532455444, 0.11680786311626434, 0.03287358582019806, 0.025223970413208008, -0.08003607392311096, 0.08771143853664398, -0.03740222752094269, -0.002278834581375122, -0.058529675006866455, 0.04889354109764099, 0.06133487820625305, 0.013136804103851318, 0.0158986896276474, -0.09698580205440521, -0.029151663184165955, -0.03440496325492859, 0.11625978350639343, -0.07377998530864716, -0.11761245131492615, -0.12168289721012115, -0.09997183084487915, 0.06648804247379303, -0.022395551204681396, 0.02382008731365204, -0.11303061246871948, 0.02394099533557892, -0.017463207244873047, -0.058618754148483276, -0.12198467552661896, -0.07108986377716064, -0.04418167471885681, 0.09736558794975281, -0.01938362419605255, -0.11754915118217468, 0.024912118911743164, -0.12383414804935455, 0.018055394291877747, 0.08936585485935211, -0.12229900062084198, 0.06873522698879242, -0.06735311448574066, -0.007812514901161194, 0.08516332507133484, 0.05267183482646942, -0.11787495017051697, -0.017558827996253967, -0.010332867503166199, 0.11249193549156189, 0.026697471737861633, -0.08393163979053497, -0.11460722982883453, -0.03871747851371765, 0.08814148604869843, 0.0002681165933609009, 0.04716823995113373, -0.03307811915874481, -0.08099524676799774, 0.06153233349323273, -0.11642171442508698, 0.1053566038608551, 0.09898751974105835, -0.0988655686378479, -0.03315342962741852, 0.046405136585235596, 0.10547390580177307, 0.008501589298248291, 0.00547926127910614, -0.00024044513702392578, -0.0028131306171417236, 0.05520452558994293, 0.03275175392627716, 0.04458653926849365, -0.04885941743850708, 0.05406510829925537, 0.004424959421157837, 0.05658099055290222, 0.03807571530342102, -0.11263322830200195, 0.005506634712219238, -0.06606784462928772, 0.10687616467475891, -0.10884776711463928, 0.0923486202955246, 0.04131300747394562, -0.06520658731460571, -0.013152197003364563, 0.10110148787498474, -0.04560448229312897, 0.09422726929187775, 0.03444021940231323, -0.07365438342094421, -0.1082383543252945, -0.07439076900482178, -0.11246994137763977, 0.023357480764389038, 0.11087784171104431, 0.12442678213119507, 0.1176014244556427, -0.11742018163204193, -0.11967182159423828, -0.06005792319774628, -0.06827609241008759, -0.03587506711483002, 0.04982419312000275, -0.009603127837181091, 0.04841816425323486, -0.079130619764328, 0.10746484994888306, 0.07197140157222748, -0.08509695529937744, -0.10860909521579742, -0.058233171701431274, 0.10114993155002594, 0.07199317216873169, -0.009942427277565002, 0.0002740025520324707, 0.007977575063705444, 0.05704474449157715, -0.0559525191783905, 0.11897122859954834, -0.10450352728366852, -0.106572225689888, 0.1168074905872345, 0.04621683061122894, -0.0781048834323883, -0.07017259299755096, -0.10285666584968567, -0.11338087916374207, -0.05300137400627136, -0.0542597770690918, -0.05459536612033844, -0.000910446047782898, -0.0429154634475708, -0.01022268831729889, 0.06122565269470215, -0.0655149519443512, 0.014949068427085876, 0.008252933621406555, -0.04409779608249664, 0.0825916975736618, 0.11296820640563965, 0.1230689138174057, 0.06655354797840118, 0.07069535553455353, -0.047766610980033875, -0.10007482767105103, -0.07916851341724396, -0.04699617624282837, -0.030458524823188782, -0.12219418585300446, 0.05814211070537567, 0.10519412159919739, -0.052339717745780945, 0.05235946178436279, -0.005955338478088379, -0.1083003431558609, 0.0649896115064621, 0.02091561257839203, -0.02610805630683899, 0.09687517583370209, -0.03079579770565033, 0.07463221251964569, -0.03373308479785919, 0.026103973388671875, -0.08210192620754242, -0.10159799456596375, 0.056321412324905396, -0.03389984369277954, -0.02978198230266571, 0.10100060701370239, 0.10050861537456512, -0.10391709208488464, 0.027303308248519897, -0.0738687813282013, -0.019979923963546753, -0.022405505180358887, -0.1224280446767807, 0.09844440221786499, -0.055626824498176575, 0.08282008767127991, 0.11266610026359558, 0.06738811731338501, 0.0658666342496872, 0.10918940603733063, -0.07937419414520264, 0.06923253834247589, -0.0913710743188858, 0.0827803909778595, -0.07788707315921783, -0.06427854299545288, -0.12010934948921204, 0.10922585427761078, -0.11158856749534607, 0.07163669168949127, 0.06697651743888855, -0.030768826603889465, -0.006850495934486389, 0.08681133389472961, -0.07491213083267212, 0.11476945877075195, -0.08026248216629028, 0.09846861660480499, -0.07160316407680511, -0.12324239313602448, -0.07488159835338593, 0.048305049538612366, 0.08918523788452148, 0.03141562640666962, -0.046221449971199036, 0.08373449742794037, -0.006972402334213257, 0.07313291728496552, 0.08042466640472412, 0.11704599857330322, -0.03159528970718384, -0.013552963733673096, -0.013322263956069946, -0.01145586371421814, 0.0545191615819931, 0.118435338139534, 0.04333814978599548, 0.1130937784910202, 0.04654541611671448, 0.09447309374809265, 0.09943343698978424, -0.08186259865760803, 0.0012000352144241333, -0.1015627533197403, -0.1038280576467514, -0.10246433317661285, 0.03156651556491852, 0.10896855592727661, -0.06820681691169739, 0.013393029570579529, 0.08358451724052429, -0.0291157066822052, -0.06367993354797363, 0.04071274399757385, -0.0740443766117096, -0.10755297541618347, -0.02064482867717743, 0.09783901274204254, 0.007701069116592407, -0.09684841334819794, -0.06652042269706726, 0.0021046996116638184, -0.01988549530506134, -0.11127348244190216, 0.023538753390312195, -0.00776401162147522, 0.06421954929828644, -0.0632018893957138, 0.09083950519561768, -0.05317927896976471, -0.08390656113624573, 0.10043390095233917, -0.07999028265476227, -0.12380288541316986, -0.05671139061450958, -0.10877594351768494, -0.06793464720249176, -0.03771348297595978, -0.00910593569278717, -0.07171550393104553, 0.09177251160144806, -0.12289144098758698, 0.0427517294883728, -0.11207227408885956, 0.052673131227493286, -0.051782384514808655, -0.10991036891937256, 0.01749974489212036, -0.008308708667755127, -0.007565110921859741, -0.056117355823516846, -0.11951671540737152, 0.10503271222114563, 0.08634208142757416, -0.066599041223526, 0.10200236737728119, 0.028660818934440613, 0.03271059691905975, -0.04935571551322937, -0.07761049270629883, -0.015887096524238586, 0.02414458990097046, -0.028621777892112732, 0.047728151082992554, 0.08937215805053711, -0.11580359935760498, 0.10321414470672607, 0.045313090085983276, 0.06969019770622253, -0.07785743474960327, 0.12045453488826752, -0.015631794929504395, 0.09165766835212708, 0.10265682637691498, 0.05092880129814148, 0.109449103474617, 0.000885888934135437, 0.12298783659934998, 0.08487808704376221, -0.08691634237766266, -0.10378462076187134, -0.08765016496181488, -0.03860302269458771, -0.031588390469551086, 0.06669314205646515, 0.11954830586910248, -0.03629472851753235, -0.0844571441411972, -0.07294702529907227, -0.019456803798675537, -0.08216288685798645, -0.0797797441482544, 0.012110784649848938, -0.12446077167987823, 0.06279824674129486, 0.08973711729049683, -0.05299118161201477, 0.022631675004959106, -0.11195951700210571, -0.04701000452041626, 0.03056514263153076, 0.023144260048866272, 0.07159678637981415, -0.0179174542427063, 0.02145199477672577, -0.03734859824180603, -0.09154011309146881, -0.08857573568820953, 0.00964595377445221, -0.05189257860183716, 0.06922838091850281, -0.015621110796928406, -0.03771771490573883, 0.11258465051651001, 0.049851059913635254, -0.03304941952228546, -0.07912135124206543, -0.11654025316238403, -0.061186641454696655, 0.055448681116104126, 0.09099742770195007, -0.12439177930355072, 0.09492838382720947, 0.058006420731544495, 0.0035210102796554565, 0.02895185351371765, -0.008508950471878052, 0.02634972333908081, 0.06120680272579193, 0.07821503281593323, -0.0027467459440231323, 0.06629312038421631, 0.10590067505836487, 0.022674471139907837, -0.07420194149017334, -0.0254611074924469, -0.027362748980522156, 0.11187921464443207, -0.0978676974773407, -0.02771705389022827, 0.008031114935874939, 0.07754972577095032, 0.07708597183227539, 0.04757899045944214, 0.012411266565322876, 0.08116307854652405, -0.11286115646362305, -0.08980701863765717, -0.02945917844772339, 0.046133384108543396, -0.07672752439975739, 0.028528481721878052, -0.02291138470172882, -0.05368439853191376, 0.08290515840053558, 0.11387570202350616, -0.0028890520334243774, 0.09912706911563873, -0.01299634575843811, -0.012424111366271973, -0.05371066927909851, 0.04276607930660248, 0.05842447280883789, 0.019403010606765747, -0.02797330915927887, -0.11584201455116272, -0.07696546614170074, -0.09330959618091583, -0.00766223669052124, -0.08955392241477966, 0.04096582531929016, 0.001561477780342102, -0.043560951948165894, 0.03148260712623596, 0.10326501727104187, -0.03665299713611603, -0.02321450412273407, 0.025973811745643616, 0.06509071588516235, -0.04996229708194733, 0.03697371482849121, -0.1032390147447586, -0.07052157819271088, 0.048034265637397766, 0.09811645746231079, 0.0496600866317749, 0.03799852728843689, 0.03463982045650482, 0.11429671943187714, -0.0047527700662612915, 0.06116567552089691, -0.03970158100128174, 0.04223078489303589, 0.11541591584682465, -0.05864901840686798, 0.09269823133945465, 0.0803394764661789, -0.11833116412162781, 0.11809952557086945, -0.07402554154396057, -0.08576920628547668, -0.0901811271905899, 0.11791804432868958, -0.0819435715675354, -0.10932664573192596, -0.03173580765724182, 0.11740732192993164, 0.05269297957420349, 0.07163874804973602, -0.018832355737686157, -0.015563547611236572, 0.017782077193260193, 0.11554332077503204, 0.11995914578437805, 0.04209330677986145, -0.07363536953926086, -0.11888778209686279, -0.10945412516593933, 0.1248156726360321, 0.010278746485710144, 0.11710713803768158, -0.039103299379348755, 0.09332717955112457, -0.031825676560401917, 0.08312520384788513, -0.09732101857662201, -0.12118114531040192, 0.03691665828227997, 0.009728550910949707, 0.10863865911960602, -0.048752203583717346, 0.028469905257225037, 0.055459246039390564, -0.11615623533725739, 0.029404237866401672, 0.05862511694431305, 0.11626213788986206, 0.10557837784290314, 0.10628421604633331, -0.04440370202064514, -0.070870041847229, -0.11313393712043762, 0.03807179629802704, -0.033449023962020874, 0.09480813145637512, -0.03503185510635376, 0.017667502164840698, -0.10181765258312225, 0.10212156176567078, 0.08045382797718048, -0.0011473298072814941, 0.08615268766880035, -0.10824060440063477, 0.05251726508140564, -0.0874670147895813, -0.05771254003047943, 0.05896976590156555, 0.04978393018245697, 0.01802988350391388, 0.048454463481903076, -0.0010211914777755737, -0.012166023254394531, -0.12216591835021973, -0.05287899076938629, -0.06460554897785187, 0.04960829019546509, 0.0037449300289154053, -0.0949649065732956, -0.07053321599960327, -0.04605056345462799, 0.018790170550346375, -0.02467004954814911, 0.1073019802570343, -0.09770560264587402, 0.042877376079559326, -0.034449294209480286, 0.03141389787197113, -0.05317582190036774, 0.05191417038440704, -0.06075820326805115, 0.00627860426902771, -0.05295474827289581, 0.02722322940826416, 0.04242938756942749, 0.048161521553993225, 0.12171849608421326, 0.038438424468040466, -0.1077960878610611, 0.11419516801834106, -0.03223426640033722, -0.019307807087898254, -0.1181868463754654, -0.08165764808654785, 0.06537988781929016, -0.0010602176189422607, 0.012455105781555176, 0.0018639713525772095, 0.1022455245256424, -0.08499442040920258, 0.1211068332195282, 0.05879427492618561, -0.09499110281467438, -0.043342337012290955, 0.04336540400981903, -0.07670354843139648, 0.04237358272075653, 0.08853280544281006, 0.08518129587173462, 0.07009667158126831, 0.02877044677734375, 0.006637483835220337, -0.019901245832443237, -0.0007491409778594971, 0.06192004680633545, -0.02160520851612091, -0.0853809118270874, 0.07402254641056061, -0.09086106717586517, 0.11411762237548828, -0.09992644190788269, 0.06129413843154907, -0.045494914054870605, 0.06867137551307678, -0.10977834463119507, 0.03204929828643799, -0.08659620583057404, -0.11072300374507904, -0.10994845628738403, 0.027561083436012268, -0.10266682505607605, 0.09235939383506775, -0.0750143975019455, -0.09773147106170654, 0.052872613072395325, -0.0776580423116684, -0.06907737255096436, 0.01038949191570282, 0.09771861135959625, -0.11625692248344421, 0.1073189526796341, -0.11490841209888458, -0.12072150409221649, -0.12472414970397949, 0.100685715675354, -0.09290775656700134, -0.017109349370002747, 0.03283277153968811, -0.12331998348236084, 0.11599870026111603, -0.06636859476566315, 0.07734227180480957, 0.04554036259651184, 0.01184864342212677, 0.015699073672294617, -0.039142340421676636, 0.11637185513973236, -0.11303932964801788, -0.11601579189300537, -0.0012473613023757935, 0.07430137693881989, -0.11208739876747131, 0.07167708873748779, 0.12364071607589722, -0.06140454113483429, 0.08397762477397919, 0.03926348686218262, 0.12149398028850555, -0.025047242641448975, 0.12163887917995453, -0.11692427098751068, 0.00747603178024292, 0.04541787505149841, 0.03296850621700287, -0.014535084366798401, 0.07291461527347565, -0.05860869586467743, 0.11559472978115082, 0.12412267923355103, -0.10259245336055756, 0.055790096521377563, -0.09225954115390778, -0.0422031432390213, -0.045138418674468994, -0.06014634668827057, 0.013950318098068237, 0.04948781430721283, 0.0672072172164917, 0.04471828043460846, -0.09230148792266846, -0.10956983268260956, 0.06742770969867706, -0.08988940715789795, -0.02893081307411194, -0.08742101490497589, -0.12137538194656372, -0.03860878944396973, 0.07281698286533356, -0.01802128553390503, 0.06232742965221405, 0.07486110925674438, -0.0886370986700058, -0.09218432009220123, 0.0974639356136322, -0.006025344133377075, 0.09409485757350922, -0.014805451035499573, -0.015429973602294922, 0.05982472002506256, -0.06519252061843872, -0.002152964472770691, -0.10234531760215759, -0.04923328757286072, 0.06254789233207703, 0.05253395438194275, 0.011594980955123901, -0.002735123038291931, 0.06586404144763947, -0.032688453793525696, 0.03870968520641327, -0.040910616517066956, -0.11375807225704193, 0.010096758604049683, -0.08225676417350769, -0.07372510433197021, 0.032351478934288025, 0.013947904109954834, 0.11156772077083588, -0.04904797673225403, 0.020523905754089355, 0.057752907276153564, -0.07905462384223938, 0.04840123653411865, -0.11943960189819336, 0.08773021399974823, -0.056980669498443604, 0.014096349477767944, 0.06483688950538635, -0.023068487644195557, -0.07985682785511017, -0.0695069283246994, 0.037733033299446106, 0.04992318153381348, -0.09261631965637207, -0.030986830592155457, 0.005854278802871704, -0.0034029632806777954, -0.08888596296310425, 0.12116461992263794, -0.004512310028076172, -0.02168765664100647, 0.08789688348770142, 0.0397430956363678, 0.10588754713535309, 0.00023184716701507568, -0.03787416219711304, -0.030821368098258972, -0.011106938123703003, -0.007307574152946472, 0.1224115788936615, -0.0066147297620773315, 0.11724218726158142, -0.10089342296123505, 0.009055167436599731, 0.03432287275791168, 0.09038107097148895, -0.052587732672691345, -0.11299106478691101, -0.07578861713409424, -0.06359899044036865, -0.04976625740528107, -0.05528418719768524, -0.09103064239025116, -0.0789148360490799, 0.037149637937545776, -0.020915701985359192, 0.11170762777328491, -0.1050296276807785, 0.013772785663604736, 0.08388184010982513, -0.041476890444755554, 0.10540902614593506, -0.025303035974502563, -0.006449103355407715, -0.04822076857089996, -0.033971577882766724, -0.09681318700313568, -0.04165804386138916, 0.052300646901130676, 0.009065806865692139, -0.04114016890525818, 0.022615328431129456, 0.02843596041202545, -0.08045165240764618, -0.10131071507930756, 0.012008249759674072, 0.021091043949127197, 0.0197991281747818, 0.007040843367576599, 0.09033028781414032, -0.058906927704811096, -0.020798668265342712, 0.07727321982383728, 0.05941811203956604, -0.06275375187397003, -0.07010255753993988, -0.06788191199302673, 0.12309984862804413, 0.0686117559671402, 0.0328751802444458, 0.1189882904291153, 0.07972097396850586, 0.08851544559001923, 0.12049800157546997, 0.12320621311664581, -0.058078646659851074, 0.0037402361631393433, -0.014508873224258423, -0.07951851189136505, -0.12371031939983368, -0.058713868260383606, 0.003117382526397705, -0.039088279008865356, 0.103383868932724, 0.09737628698348999, -0.10465236008167267, -0.02361263334751129, 0.11307521164417267, -0.12018932402133942, -0.04021197557449341, 0.104435995221138, 0.12325195968151093, -0.1018458902835846, -0.04676978290081024, -0.06156991422176361, 0.09689755737781525, -0.10037355124950409, 0.048527851700782776, -0.014017850160598755, -0.0046405792236328125, -0.08836439251899719, 0.08201918005943298, -0.1165490597486496, -0.11171594262123108, -0.07160311937332153, -0.03129824995994568, 0.10950738191604614, -0.039716631174087524, -0.042326703667640686, 0.020495697855949402, -0.07698434591293335, -0.004279911518096924, 0.08731240034103394, -0.01809832453727722, -0.06150411069393158, -0.05830457806587219, -0.10495193302631378, 0.04266650974750519, -0.09237834811210632, -0.09780687093734741, -0.0823373794555664, -0.03550471365451813, -0.08353608846664429, -0.07555937767028809, 0.06583499908447266, -0.12429054081439972, -0.006799459457397461, -0.09484545886516571, 0.011568382382392883, 0.09694485366344452, -0.06694413721561432, -0.08902986347675323, -0.04165329039096832, 0.00012446939945220947, -0.0861993134021759, -0.004552856087684631, -0.05320289731025696, 0.10063783824443817, 0.041858673095703125, 0.02700352668762207, 0.038633912801742554, 0.07060906291007996, 0.08349809050559998, -0.05398200452327728, -0.055758699774742126, 0.11987720429897308, -0.1177230030298233, -0.05925939977169037, -0.051562100648880005, 0.02512645721435547, -0.07530377805233002, 0.027613088488578796, -0.007267877459526062, -0.06749062240123749, 0.08313092589378357, 0.05226665735244751, -0.03237356245517731, -0.018182605504989624, -0.08039821684360504, -0.043620720505714417, 0.07208584249019623, 0.02317000925540924, -0.032190337777137756, 0.04315592348575592, -0.043455034494400024, -0.12194699048995972, 0.003548234701156616, -0.06695683300495148, -0.026127159595489502, 0.08991748094558716, -0.05928321182727814, 0.03957974910736084, 0.0818227231502533, 0.09792208671569824, -0.09818753600120544, 0.01495349407196045, -0.011367559432983398, -0.05973522365093231, 0.07875670492649078, -0.08853113651275635, -0.06721261143684387, -0.0828680694103241, 0.07614871859550476, -0.010657787322998047, -0.09778177738189697, -0.04043763875961304, 0.08833599090576172, 0.013171687722206116, -0.08858028054237366, -0.011915281414985657, 0.060380592942237854, 0.12412536144256592, -0.0326143354177475, -0.06965997815132141, 0.0906892716884613, 0.10240790247917175, 0.10439370572566986, -0.12005861103534698, -0.04830300807952881, -0.0842355340719223, -0.07431274652481079, -0.06060977280139923, -0.09133599698543549, -0.102887824177742, 0.08748228847980499, 0.059597790241241455, 0.04505820572376251, 0.0708937793970108, -0.00442168116569519, -0.10594384372234344, -0.02507670223712921, -0.03360468149185181, 0.006930351257324219, -0.07410387694835663, -0.0529041588306427, -0.06658010184764862, -0.1218925267457962, -0.08822067081928253, -0.021231546998023987, 0.07528461515903473, 0.04819691181182861, 0.10978274047374725, 0.03410857915878296, 0.07916134595870972, 0.08466926217079163, 0.025317996740341187, -0.11822053790092468, 0.06781204044818878, 0.01860855519771576, 0.0012843906879425049, 0.08457410335540771, 0.027962833642959595, 0.039059922099113464, 0.09535804390907288, 0.020519480109214783, -0.006583094596862793, 0.048255905508995056, 0.0014960765838623047, 0.09997126460075378, 0.06661847233772278, -0.12325334548950195, 0.03989851474761963, -0.02887745201587677, -0.02005515992641449, 0.07316035032272339, -0.04621824622154236, -0.02152523398399353, 0.10475820302963257, -0.034112975001335144, -0.0018611997365951538, 0.036738038063049316, -0.0496220588684082, 0.11540135741233826, 0.07241876423358917, 0.10194554924964905, 0.0724172294139862, 0.11437654495239258, -0.06539887189865112, 0.102102130651474, 0.10293123126029968, 0.009055003523826599, -0.01086607575416565, -0.09487318992614746, 0.041436150670051575, 0.02624085545539856, 0.0008439719676971436, 0.09281930327415466, 0.11213009059429169, 0.02626141905784607, 0.03233800828456879, -0.04682043194770813, -0.06884267926216125, -0.009021967649459839, 0.06797158718109131, 0.08038297295570374, -0.03257015347480774, 0.048596739768981934, 0.04272329807281494, 5.225837230682373e-05, 0.059469759464263916, -0.06660689413547516, -0.08685129880905151, -0.049235180020332336, 0.08111122250556946, -0.0869503915309906, 0.09960480034351349, 0.04008273780345917, -0.08622890710830688, -0.04983922839164734, 0.07152247428894043, -0.01673106849193573, 0.11370036005973816, -0.0948476642370224, 0.06992010772228241, -0.05249713361263275, -0.029134094715118408, 0.03781282901763916, 0.042990803718566895, -0.11619061231613159, 0.10106520354747772, -0.07026945054531097, 0.0266372412443161, 0.021039366722106934, 0.07139900326728821, -0.10311588644981384, -0.10103598237037659, -0.056921303272247314, 0.11976562440395355, -0.1022857278585434, -0.0639558881521225, 0.05637577176094055, 0.10641518235206604, 0.10924370586872101, -0.02034696936607361, 0.02631370723247528, -0.032077476382255554, 0.01820559799671173, -0.05846308171749115, 0.06763838231563568, -0.05441597104072571, 0.07931545376777649, -0.05305162072181702, 0.1030929833650589, -0.06482371687889099, 0.10045114159584045, 0.056576088070869446, 0.10967223346233368, 0.09157943725585938, -0.10369177162647247, 0.045239850878715515, 0.08215606212615967, -0.08119776844978333, -0.06069275736808777, -0.1122179627418518, -0.12343981862068176, 0.005328193306922913, 0.0013247579336166382, 0.08712202310562134, 0.0742567926645279, 0.02018311619758606, -0.03350183367729187, -0.07217620313167572, -0.08065341413021088, -0.08985237777233124, -0.10071325302124023, 0.08957609534263611, 0.016127705574035645, -0.09261702001094818, -0.10037755966186523, 0.05824604630470276, 0.08166450262069702, 0.049803853034973145, -0.04178151488304138, 0.05519509315490723, -0.0017056316137313843, 0.08186459541320801, -0.10375373065471649, -0.0752745121717453, -0.04590098559856415, -0.04738934338092804, -0.04001326858997345, 0.004176080226898193, -0.11006820201873779, -0.03841322660446167, 0.006021589040756226, -0.03970019519329071, 0.00731147825717926, 0.07286810874938965, 0.05397675931453705, -0.10307590663433075, 0.1219664067029953, 0.12489958107471466, 0.07327407598495483, 0.0049870312213897705, 0.04478500783443451, 0.11348435282707214, -0.10090216994285583, 0.048539698123931885, 0.10524152219295502, -0.00281640887260437, -0.09519173204898834, -0.09378522634506226, 0.005882561206817627, 0.03584665060043335, 0.08974987268447876, 0.08840274810791016, -0.1249261349439621, -0.06782829761505127, 0.041208550333976746, 0.08728860318660736, 0.04426047205924988, 0.09676192700862885, 0.07467225193977356, 0.03433634340763092, -0.0792635828256607, -0.005785435438156128, -0.09304186701774597, -0.10867106914520264, -0.04755799472332001, 0.009588971734046936, -0.05218568444252014, -0.11233045160770416, 0.09045225381851196, -0.12165455520153046, -0.010392174124717712, 0.022805288434028625, -0.08803762495517731, -0.11061210930347443, -0.07574576139450073, 0.018267780542373657, -0.09804129600524902, -0.09900057315826416, -0.0003306567668914795, -0.06236293911933899, -0.09444810450077057, -0.0542181134223938, 0.04141312837600708, -0.07990540564060211, -0.06008687615394592, 0.12463322281837463, -0.018175795674324036, 0.1214190125465393, -0.029532864689826965, 0.05096840858459473, -0.06406894326210022, -0.06028062105178833, 0.03626087307929993, 0.06028544902801514, -0.049494072794914246, -0.004197433590888977, 0.009942889213562012, 0.09745976328849792, -0.03489890694618225, 0.07722331583499908, -0.12297089397907257, -0.03141050040721893, 0.03944028913974762, -0.05556310713291168, -0.008178412914276123, -0.11823318898677826, 0.09866271913051605, -0.04163216054439545, -0.025949135422706604, -0.012076988816261292, 0.06553271412849426, 0.09480336308479309, 0.09948566555976868, -0.11055748164653778, -0.03133711218833923, 0.11090558767318726, -0.05242478847503662, -0.06608545780181885, -0.11719447374343872, -0.056033506989479065, -0.029489949345588684, -0.09277957677841187, 0.1174481064081192, -0.06664656102657318, 0.002253502607345581, 0.06173655390739441, 0.12047210335731506, 0.016717150807380676, -0.06804905831813812, 0.11546710133552551, -0.07980416715145111, 0.11622773110866547, 0.11783376336097717, -0.11619721353054047, -0.05352011322975159, 0.03927178680896759, -0.003610581159591675, 0.031135573983192444, 0.0556216835975647, -0.030838146805763245, -0.05194626748561859, -0.08645248413085938, -0.11570525169372559, 0.016755297780036926, -0.05608300864696503, -0.010037511587142944, -0.10672111809253693, 0.0889396220445633, -0.1226140707731247, 0.0555436909198761, -0.0799567848443985, -0.05510406196117401, -0.03282821178436279, -0.014420494437217712, -0.030697882175445557, -0.028666764497756958, 0.02970658242702484, 0.11795823276042938, 0.12114785611629486, 0.08875590562820435, 0.0936240702867508, -0.06693980097770691, 0.05908608436584473, -0.013082310557365417, -0.0697297602891922, 0.04739120602607727, 0.0914202630519867, 0.08496628701686859, 0.037416085600852966, -0.07438750565052032, -0.07672497630119324, -0.10921216011047363, -0.09798169136047363, -0.03621642291545868, 0.09446662664413452, -0.07006604969501495, 0.04058963060379028, 0.09606021642684937, -0.004640400409698486, 0.12050634622573853, 0.11804024875164032, 0.11433857679367065, -0.11766380071640015, 0.011374413967132568, 0.071207195520401, 0.11387564241886139, 0.02290692925453186, 0.04669453203678131, -0.0019617974758148193, 0.0009244531393051147, 0.008307218551635742, -0.06845004856586456, -0.016904354095458984, -0.01522025465965271, -0.03441116213798523, -0.11860275268554688, -0.05122204124927521, 0.004491716623306274, -0.001850515604019165, 0.07228824496269226, 0.09625972807407379, -0.04108542203903198, -0.06854130327701569, -0.07115985453128815, -0.08772213757038116, 0.10170169174671173, -0.007090762257575989, 0.06628634035587311, 0.12209968268871307, -0.07892289757728577, -0.05440782010555267, -0.042730942368507385, 0.07350073754787445, -0.10180523991584778, -0.007911816239356995, 0.09783390164375305, 0.08274903893470764, -0.05756990611553192, 0.11331944167613983, 0.04294712841510773, -0.10231202840805054, 0.11896511912345886, -0.12090368568897247, -0.11054141819477081, 0.015382274985313416, 0.09040853381156921, -0.12152643501758575, -0.11924965679645538, -0.10856129229068756, -0.004552334547042847, -0.09054118394851685, 0.008348733186721802, 0.050892800092697144, -0.06448940932750702, -0.05829663574695587, -0.07406345009803772, -0.029434069991111755, -0.09009835124015808, -0.026112541556358337, -0.04288938641548157, -0.05801817774772644, 0.002646535634994507, -0.009552136063575745, -0.1047014594078064, -0.06450337171554565, -0.10136851668357849, -0.08424220979213715, 0.0487416535615921, -0.11801977455615997, 0.040107131004333496, 0.003867924213409424, -0.12378236651420593, -0.00048041343688964844, 0.10535424947738647, -0.0688510537147522, 0.09277619421482086, -0.01589144766330719, -0.07068435847759247, 0.058944568037986755, 0.08430226147174835, -0.093462273478508, -0.12301291525363922, 0.03018738329410553, -0.05435033142566681, -0.07713401317596436, 0.04602675139904022, 0.0992245078086853, 0.002229258418083191, -0.054814234375953674, -0.036622852087020874, 0.0762876570224762, -0.08394527435302734, 0.0868060439825058, 0.01330651342868805, -0.06254222989082336, -0.07394494116306305, -0.10506725311279297, 0.11279822885990143, 0.018073871731758118, 0.0528908371925354, 0.060817644000053406, 0.08571657538414001, -0.05661080777645111, 0.1146870106458664, 0.08519668877124786, 0.04645444452762604, 0.015903115272521973, 0.12107564508914948, 0.0850030928850174, 0.09860947728157043, 0.1079382449388504, 0.05090516805648804, -0.07520851492881775, -0.06103077530860901, 0.029601067304611206, 0.06722059845924377, 0.017176121473312378, 0.10267095267772675, 0.07794255018234253, -0.08396479487419128, -0.1149732768535614, -0.03555811941623688, -0.08668293058872223, 0.04615221917629242, 0.1095830649137497, -0.011017054319381714, -0.10664492845535278, 0.12167714536190033, -0.07153715193271637, 0.06918570399284363, -0.049237221479415894, 0.05901229381561279, -0.11250163614749908, 0.028043732047080994, 0.029827162623405457, 0.05020926892757416, -0.10549271106719971, 0.04668237268924713, -0.08209830522537231, 0.04527844488620758, -0.06341609358787537, -0.012549757957458496, -0.023290827870368958, 0.010230228304862976, 0.10050718486309052, 0.024251192808151245, -0.05801382660865784, 0.015566021203994751, 0.08062580227851868, 0.018353566527366638, 0.08334748446941376, 0.04646046459674835, -0.018392562866210938, 0.09511333703994751, 0.08380766212940216, 0.015166863799095154, 0.07821692526340485, -0.06845885515213013, 0.08126950263977051, -0.07457242906093597, 0.1014326810836792, -0.034809812903404236, -0.07797856628894806, -0.09093153476715088, -0.06900891661643982, 0.09648030996322632, -0.09007477760314941, -0.053931549191474915, -0.03717464208602905, -0.10291646420955658, 0.11988013982772827, -0.04825951159000397, -0.04866182804107666, -0.025294333696365356, -0.0138712078332901, -0.09007924795150757, 0.040916234254837036, 0.1025959849357605, 0.03146187961101532, 0.11028608679771423, -0.011178314685821533, -0.06388407945632935, 0.05268023908138275, 0.07886405289173126, -0.08768782019615173, 0.036441534757614136, -0.07296636700630188, 0.06608830392360687, 0.039711132645606995, -0.050526976585388184, -0.015927433967590332, 0.041597992181777954, 0.049099162220954895, 0.1192583292722702, 0.017715156078338623, -0.007090389728546143, -0.043752074241638184, -0.05028073489665985, 0.09114786982536316, -0.04846830666065216, -0.12358184158802032, -0.09644278883934021, -0.0027627944946289062, 0.011293098330497742, 0.05461506545543671, 0.03375120460987091, 0.011040478944778442, -0.06734161078929901, 0.09018130600452423, -0.061756059527397156, -0.0032092630863189697, -0.026936262845993042, -0.10467875003814697, -0.04371219873428345, 0.07468053698539734, 0.07222582399845123, 0.08999134600162506, -0.030729979276657104, 0.03828820586204529, 0.05589193105697632, -0.11618649959564209, 0.12279175221920013, 0.05526839196681976, 0.016811758279800415, 0.01632508635520935, -0.07975426316261292, 0.06292420625686646, 0.05080445110797882, -0.07562214136123657, 0.10124611854553223, -0.10972529649734497, 0.02474808692932129, -0.024064749479293823, -0.010719254612922668, -0.03758786618709564, -0.06984835863113403, 0.08233311772346497, 0.062072500586509705, 0.01732976734638214, 0.09452179074287415, -0.11331075429916382, 0.05644993484020233, -0.004655033349990845, -0.12413688004016876, -0.10279549658298492, -0.047244250774383545, 0.09016399085521698, -0.02332700788974762, 0.0809861272573471, 0.0341927707195282, 0.09133210778236389, -0.10249485075473785, 0.026888743042945862, 0.11373008787631989, 0.0359763503074646, -0.06406824290752411, 0.044149741530418396, -0.04975046217441559, -0.019338563084602356, -0.05525144934654236, 0.07944953441619873, -0.07073578238487244, 0.022790774703025818, 0.07596009969711304, 0.031040534377098083, 0.10267668962478638, 0.0344691127538681, -0.07687315344810486, -0.10930053889751434, -0.011760830879211426, -0.0586061030626297, -0.11139342188835144, 0.12172834575176239, -0.05851300060749054, -0.09705999493598938, 0.044907718896865845, 0.0645817369222641, 0.06104876101016998, -0.10816651582717896, 0.12342089414596558, 0.05425986647605896, 0.07260549068450928, 0.12136220932006836, -0.026711955666542053, -0.10920043289661407, 0.07403238117694855, -0.049030616879463196, -0.09591624140739441, -0.12142886221408844, 0.11147962510585785, -0.0967913419008255, -0.027728021144866943, -0.07033516466617584, 0.11595714092254639, -0.0791827142238617, 0.006986737251281738, 0.03335884213447571, 0.06626823544502258, -0.03728117048740387, -0.00042304396629333496, 0.0753234326839447, 0.10241660475730896, 0.0791415274143219, -0.101821169257164, 0.07290565967559814, 0.08442221581935883, -0.12007229030132294, 0.0828595757484436, 0.11864377558231354, -0.12358000874519348, -0.11268813908100128, 0.027374491095542908, -0.004454180598258972, 0.1105889081954956, -0.11426573991775513, -0.02345031499862671, 0.09345738589763641, -0.006724834442138672, 0.00792492926120758, 0.007325902581214905, -0.011124208569526672, 0.08226829767227173, 0.062033236026763916, -0.10314418375492096, -0.11289621889591217, 0.06738395988941193, -0.012952148914337158, 0.013770952820777893, -0.04592485725879669, 0.06039567291736603, 0.06253387033939362, 0.045781612396240234, 0.082940012216568, -0.09216615557670593, -0.06902895867824554, -0.06817270815372467, 0.01674516499042511, -0.006604596972465515, 0.014975816011428833, 0.10249963402748108, -0.11063094437122345, -0.07622849941253662, -0.046975016593933105, -0.10627157986164093, -0.09469681978225708, -0.027890950441360474, -0.022026732563972473, -0.08815951645374298, 0.06476403772830963, 0.03115810453891754, -0.0769796222448349, -0.11604976654052734, 0.012830093502998352, 0.05733908712863922, -0.1232159286737442, -0.07396461069583893, -0.036813825368881226, 0.026793986558914185, -0.016010671854019165, 0.11119045317173004, -0.042858779430389404, -0.06881870329380035, 0.043926388025283813, -0.019056707620620728, 0.07196995615959167, -0.05056293308734894, -0.01688617467880249, -0.023411139845848083, -0.08322995901107788, 0.01755867898464203, -0.06097225844860077, -0.10635465383529663, -0.08862872421741486, 0.030594751238822937, -0.06760680675506592, 0.03263553977012634, -0.12221288681030273, -0.06451547145843506, 0.015521928668022156, -0.10285720229148865, 0.10889826714992523, -0.1175091564655304, 0.07091586291790009, 0.1209162026643753, 0.00526079535484314, -0.10829134285449982, 0.05887381732463837, 0.11906895041465759, -0.03685443103313446, 0.017998069524765015, -0.0875023752450943, 0.04860621690750122, -0.04124815762042999, 0.06556355953216553, -0.09102961421012878, 0.018850713968276978, -0.07823711633682251, 0.09490971267223358, 0.08798806369304657, -0.0840272456407547, -0.012015774846076965, -0.1073635071516037, 0.04518291354179382, 0.10834243893623352, 0.08524836599826813, 0.06367425620555878, -0.04823625087738037, 0.01845918595790863, -0.06560361385345459, 0.10867242515087128, -0.06837522983551025, -0.003441169857978821, 0.09217800199985504, 0.07735000550746918, -0.023581773042678833, 0.024278908967971802, -0.07476373016834259, -0.03625187277793884, 0.07549025118350983, 0.09765790402889252, -0.08189824223518372, 0.0031927525997161865, -0.059163182973861694, 0.02986663579940796, -0.09235168993473053, -0.10127158463001251, 0.10381868481636047, -0.09466728568077087, 0.00975191593170166, 0.10629211366176605, 0.060722410678863525, -0.06801213324069977, 0.04789261519908905, 0.009759694337844849, -0.07976537942886353, 0.06927002966403961, -0.040471285581588745, 0.03598359227180481, -0.0964781641960144, 0.10153773427009583, -0.021358847618103027, 0.014772862195968628, -0.09162110090255737, 0.04867012798786163, -0.1248980462551117, -0.08124460279941559, 0.05095408856868744, 0.0024553239345550537, -0.04561951756477356, 0.057606637477874756, 0.007303252816200256, -0.04481680691242218, 0.03399418294429779, 0.052083879709243774, 0.10786715149879456, 0.10305017232894897, -0.01839509606361389, -0.0254095196723938, 0.08941307663917542, -0.09497988224029541, -0.12417642772197723, 0.062038272619247437, -0.06731148064136505, 0.03314794600009918, 0.11787422001361847, -0.10420924425125122, -0.060335949063301086, 0.0034471452236175537, -0.10370878875255585, 0.03098064661026001, -0.02121928334236145, -0.04794315993785858, 0.02766740322113037, 0.09751185774803162, -0.0015912801027297974, -0.08723796904087067, 0.04880240559577942, -0.05900709331035614, -0.09989170730113983, 0.08855663239955902, 0.09415024518966675, -0.07772567868232727, -0.07118143141269684, -0.022406741976737976, 0.10086721181869507, -0.04634697735309601, -0.11141735315322876, -0.1052921712398529, 0.054685428738594055, -0.07016623020172119, -0.10735639929771423, -0.040743499994277954, -0.1209062784910202, 0.04763248562812805, 0.0010041743516921997, 0.015102088451385498, -0.0688168853521347, 0.008434012532234192, -0.0262414813041687, -0.09426270425319672, -0.002576008439064026, 0.1161908507347107, 0.1169358640909195, 0.1057676374912262, -0.11238665878772736, -0.029990121722221375, -0.05994540452957153, -0.03237524628639221, -0.00280587375164032, 0.06290312111377716, 0.11745427548885345, 0.05477261543273926, 0.09664666652679443, 0.10188025236129761, -0.029310166835784912, 0.09802056849002838, -0.05777294933795929, 0.05287128686904907, -0.05868394672870636, 0.07275798916816711, 0.03590016067028046, -0.10981135070323944, 0.09413501620292664, -0.07624229788780212, -0.12232379615306854, -0.04508742690086365, 0.09563104808330536, 0.04195602238178253, 0.0018340200185775757, -0.009826317429542542, -0.10166722536087036, -0.0894182026386261, 0.04019936919212341, 0.019598916172981262, 0.07532890141010284, -0.044801726937294006, -0.09321264922618866, -0.04781216382980347, 0.0012630671262741089, 0.0628943145275116, 0.07185442745685577, -0.07676513493061066, -0.029467985033988953, -0.07169908285140991, 0.05183039605617523, 0.048765406012535095, 0.08321461081504822, -0.038170382380485535, -0.00532117486000061, -0.10564921796321869, -0.09983769059181213, -0.0524137020111084, -0.09072840213775635, 0.09097811579704285, -0.11438672244548798, -0.05228614807128906, -0.032884374260902405, -0.018230482935905457, 0.12121468782424927, 0.04666365683078766, 0.09324096143245697, 0.06083737313747406, -0.05061899125576019, -0.00783441960811615, 0.09583123028278351, -0.12472477555274963, -0.1133003830909729, -0.11814965307712555, -0.052639275789260864, 0.022891581058502197, -0.052908286452293396, -0.0007510334253311157, -0.008351504802703857, -0.09176617860794067, 0.033384546637535095, 0.053417667746543884, 0.07523512840270996, -0.1177380234003067, 0.010004922747612, -0.06431831419467926, 0.011909112334251404, 0.010198131203651428, -0.04608786106109619, -0.10237675905227661, -0.12232112884521484, -0.0731736272573471, 0.004617348313331604, 0.10370214283466339, 0.08365330100059509, -0.03644591569900513, -0.01975676417350769, -0.00989849865436554, -0.08845974504947662, 0.07299302518367767, -0.05129233002662659, 0.1008470207452774, 0.04090949892997742, -0.05554284155368805, 0.0674692690372467, -0.062343209981918335, 0.06875215470790863, -0.039726465940475464, 0.05301907658576965, -0.12226849794387817, 0.030077919363975525, 0.0013582408428192139, 0.03282354772090912, 0.11969715356826782, -0.10424715280532837, 0.06007920205593109, -0.040847912430763245, -0.11814664304256439, -0.05053934454917908, 0.08043047785758972, -0.03588847815990448, -0.12411892414093018, -0.025975555181503296, -0.030739590525627136, -0.08323252201080322, 0.06626737117767334, 0.0265006422996521, -0.03784339129924774, -0.12228818237781525, 0.11584687232971191, 0.0527014434337616, -0.03852568566799164, 0.020211368799209595, 0.04086841642856598, -0.014459088444709778, 0.009207859635353088, -0.0005284100770950317, -0.013024300336837769, 0.11304016411304474, 0.10811389982700348, 0.014488264918327332, -0.05677779018878937, 0.017531007528305054, 0.05325688421726227, 0.09644277393817902, -0.05104547739028931, 0.08253319561481476, 0.07472503185272217, -0.005284249782562256, -0.045141786336898804, -0.02117028832435608, 0.11299130320549011, -0.12318708002567291, -0.04607640206813812, -0.06679269671440125, 0.10348056256771088, 0.10685038566589355, 0.120321124792099, -0.08315180242061615, -0.11879909038543701, -0.02091933786869049, 0.07689300179481506, 0.04569105803966522, -0.048882290720939636, 0.00580674409866333, -0.105036661028862, 0.04865811765193939, 0.014644652605056763, -0.0430048406124115, -0.04766052961349487, -0.028954222798347473, 0.10281229019165039, -0.06131318211555481, 0.016238808631896973, -0.005311161279678345, -0.015712052583694458, -0.006788462400436401, 0.07572610676288605, -0.09219498932361603, 0.014500424265861511, -0.00832638144493103, -0.024297326803207397, 0.0757310539484024, 0.08291442692279816, 0.04299558699131012, -0.06403136253356934, -0.05006740987300873, -0.014742597937583923, 0.03699114918708801, -0.07484543323516846, -0.0568777471780777, 0.01629205048084259, -0.12022760510444641, 0.09939277172088623, -0.1082812249660492, -0.015865936875343323, 0.07287129759788513, 0.054180607199668884, 0.05419965088367462, 0.004460573196411133, 0.12225675582885742, -0.010783031582832336, -0.12020576000213623, -0.08320845663547516, 0.08619736135005951, 0.016884028911590576, 0.07832834124565125, -0.10550586879253387, -0.039298608899116516, -0.06304416060447693, 0.06092643737792969, 0.04264727234840393, 0.10866658389568329, 0.11112800240516663, -0.05426125228404999, -0.02997361123561859, 0.07589846849441528, 0.027637481689453125, -0.038548365235328674, 0.09124453365802765, -0.04232707619667053, 0.06805379688739777, -0.08527539670467377, 0.00031028687953948975, -0.1051001101732254, -0.09109820425510406, -0.048485711216926575, -0.0017951428890228271, 0.08201178908348083, 0.09997613728046417, 0.029910802841186523, -0.02001240849494934, -0.10430173575878143, -0.11183884739875793, 0.08261406421661377, -0.08734996616840363, 0.07703228294849396, -0.01078498363494873, 0.07534651458263397, -0.026464611291885376, -0.10993070900440216, 0.045922309160232544, -0.0855807512998581, -0.12173895537853241, 0.008216753602027893, 0.06836241483688354, -0.10038308799266815, 0.09702078998088837, 0.1060156524181366, 0.10126297175884247, -0.0782991349697113, 0.00070209801197052, 0.04291374981403351, 0.0276021808385849, -0.009138286113739014, 0.08714991807937622, 0.09529098868370056, 0.09422637522220612, -0.011238858103752136, -0.061051443219184875, -0.07427966594696045, -0.0965498834848404, -0.07808013260364532, 0.09791485965251923, 0.005744799971580505, -0.06817309558391571, 0.0014936476945877075, -0.0920904129743576, 0.11586317420005798, -0.08548800647258759, -0.04087541997432709, -0.0886320173740387, -0.09316928684711456, 0.09123051166534424, 0.11669108271598816, -0.08290068805217743, 0.06901080906391144, 0.05406075716018677, -0.11802586913108826, 0.07743081450462341, 0.11709356307983398, 0.013285383582115173, -0.003633439540863037, -0.02875952422618866, -0.09493149816989899, -0.022991716861724854, -0.06851306557655334, -0.04729987680912018, 0.12236461043357849, -0.09164343774318695, 0.013464674353599548, -0.09095577895641327, -0.1023809015750885, 0.0733717828989029, -0.03520028293132782, 0.11332109570503235, -0.05672048032283783, 0.02247750759124756, 0.045382604002952576, -0.12059047818183899, -0.08535845577716827, -0.06521287560462952, -0.010372892022132874, 0.0532667338848114, -0.05244259536266327, 0.04689168930053711, 0.052985355257987976, -0.09938597679138184, 0.018961101770401, 0.09851948916912079, -0.008037880063056946, 0.03989794850349426, 0.09760160744190216, 0.09633594751358032, 0.040805965662002563, -0.0961741954088211, 0.011248111724853516, 0.02995714545249939, -0.052138060331344604, -0.02677951753139496, 0.022661596536636353, 0.04050803184509277, 0.004622116684913635, -0.11221089959144592, 0.03870710730552673, 0.021824181079864502, -0.09939192235469818, 0.047061994671821594, -0.023410052061080933, -0.03772898018360138, 0.06545592844486237, -0.12382130324840546, -0.06254671514034271, -0.05171522498130798, 0.007185995578765869, -0.03362727165222168, 0.10447785258293152, 0.005059078335762024, 0.04290257394313812, 0.05670648813247681, -0.07528276741504669, -0.0700141042470932, 0.043195828795433044, -0.10647843778133392, 0.03558875620365143, 0.07671260833740234, 0.04641743004322052, -0.011269211769104004, 0.05447514355182648, 0.04060858488082886, -0.07377517223358154, 0.09697185456752777, 0.113413006067276, -0.07482089102268219, -0.0008047521114349365, -0.006186500191688538, -0.08540304005146027, 0.049639567732810974, -0.10606051981449127, 0.09421300888061523, -0.08818399906158447, -0.12223395705223083, 0.06932003796100616, 0.03408978879451752, -0.06365776062011719, -0.012246385216712952, 0.053551048040390015, -0.029352888464927673, 0.10197967290878296, -0.051977723836898804, 0.08295485377311707, -0.041947901248931885, -0.06620346009731293, -0.06269624829292297, 0.06016156077384949, -0.07250802218914032, -0.010844632983207703, 0.1010252833366394, -0.037732258439064026, 0.07007326185703278, -0.1023239940404892, -0.0793897956609726, -0.11272770166397095, 0.023840054869651794, 0.03315204381942749, -0.026648923754692078, 0.053164467215538025, 0.09448935091495514, -0.06583687663078308, -0.05408446490764618, -0.06959685683250427, 0.05232274532318115, 0.019468829035758972, 0.09330995380878448, 0.011073410511016846, 0.10435757040977478, -0.06559617817401886, 0.11743958294391632, 0.08786389231681824, 0.004592984914779663, 0.005999043583869934, 0.05707450211048126, -0.08937060832977295, 0.09651841223239899, -0.06892669200897217, 0.060840338468551636, -0.0924704372882843, 0.09587576985359192, -0.0348084419965744, -0.033174753189086914, 0.0976075679063797, 0.022536873817443848, 0.11212886869907379, 0.05493625998497009, 0.1098584234714508, 0.05192270874977112, 0.0033295005559921265, -0.10082206130027771, -0.08165505528450012, -0.08376333117485046, 0.09038664400577545, 0.1198892742395401, -0.07015262544155121, -0.03504344820976257, -0.05366472899913788, 0.005208566784858704, 0.047739580273628235, -0.02709580957889557, -0.015955835580825806, 0.12051208317279816, -0.035217925906181335, 0.12093997001647949, -0.11163447797298431, 0.10287995636463165, 0.04996199905872345, 0.11317004263401031, -0.05131508409976959, 0.03143145143985748, -0.03741812705993652, -0.020930781960487366, -0.06271533668041229, -0.09370304644107819, -0.10682190954685211, -0.0763745903968811, 0.030659064650535583, -0.07076866924762726, -0.07918468117713928, 0.08927895128726959, 0.005521118640899658, -0.00608101487159729, 0.12340831756591797, -0.08162163197994232, -0.03671126067638397, 0.07955434918403625, 0.033080145716667175, -0.04545225203037262, -0.03967994451522827, 0.09339956939220428, 0.0638091117143631, 0.0813944935798645, -0.12289106845855713, -0.05243252217769623, -0.0472208708524704, 0.020876407623291016, -0.0174037367105484, -0.12275372445583344, -0.10753203928470612, -0.0031391531229019165, -0.02590811252593994, 0.018152743577957153, 0.0051828473806381226, 0.06603202223777771, -0.07957766950130463, 0.067258819937706, -0.07069747149944305, 0.11704762279987335, -0.10429331660270691, 0.10665933787822723, -0.06403820216655731, -0.07230429351329803, 0.12418912351131439, -0.030503705143928528, -0.06116805970668793, 0.03672255575656891, 0.04522125422954559, -0.031704068183898926, -0.0758703351020813, -0.1029607355594635, 0.10094395279884338, -0.093839630484581, -0.022389695048332214, -0.059065014123916626, 0.00891934335231781, -0.035363852977752686, -0.07032352685928345, -0.11074317991733551, 0.11960113048553467, 0.048867687582969666, 0.05240635573863983, -0.09486420452594757, -0.04226002097129822, -0.08834816515445709, -0.051073506474494934, -0.0833459347486496, -0.10436210036277771, -0.06412023305892944, 0.0005751550197601318, 0.042878419160842896, -0.02727527916431427, 0.03603905439376831, -0.11735877394676208, -0.003074362874031067, -0.02332139015197754, 0.05080196261405945, 0.0414096862077713, 0.007887259125709534, 0.11837580800056458, 0.11466635763645172, -0.11951617896556854, 0.09093146026134491, -0.11709696054458618, -0.06638570129871368, 0.010127782821655273, 0.02199244499206543, -0.08961483836174011, -0.01887422800064087, 0.00740090012550354, 0.0752621442079544, 0.0215313583612442, 0.0353519469499588, -0.10194584727287292, -0.1215171217918396, 0.11198826134204865, -0.04804606735706329, 0.04183073341846466, -0.005540177226066589, -0.05080018937587738, 0.04745401442050934, 0.08673720061779022, 0.046909600496292114, 0.06600412726402283, -0.12068118155002594, 0.10609394311904907, -0.04182225465774536, -0.013664275407791138, -0.09155847132205963, -0.045517876744270325, -0.0823625922203064, 0.0015906095504760742, 0.023617461323738098, 0.05297556519508362, -0.025165751576423645, 0.038417890667915344, 0.08246219158172607, -0.10104840993881226, -0.09284095466136932, -0.038662493228912354, -0.0003469735383987427, -0.019713521003723145, -0.12404163181781769, -0.004189804196357727, 0.024796918034553528, 0.04424816370010376, -0.1244983822107315, 0.10789982974529266, -0.03300619125366211, 0.009768202900886536, 0.12457084655761719, -0.08618350327014923, 0.08508491516113281, -0.02579362690448761, 0.03080904483795166, 0.05470944941043854, 0.06646113097667694, 0.10683059692382812, -0.10179930925369263, 0.027574703097343445, -0.04809446632862091, 0.06473812460899353, -0.08602264523506165, 0.09430010616779327, -0.06115487217903137, 0.09805993735790253, -0.0151633620262146, -0.08059282600879669, 0.05132651329040527, 0.07826636731624603, 0.12365938723087311, 0.11221279203891754, 0.09944604337215424, -0.05933864414691925, -0.11877274513244629, -0.07999227941036224, -0.10793526470661163, -0.030089303851127625, -0.09657174348831177, 0.07588125765323639, 0.06814716756343842, -0.03652718663215637, 0.03916260600090027, -0.050443947315216064, 0.0067970603704452515, -0.10459049046039581, 0.08661812543869019, 0.004524976015090942, 0.0730629563331604, -0.055876344442367554, 0.0932752788066864, -0.01743137836456299, 0.07979537546634674, 0.09614574909210205, -0.03714624047279358, -0.09710876643657684, -0.04562978446483612, -0.10960690677165985, -0.016554459929466248, -0.07181447744369507, -0.05201096832752228, 0.09276165068149567, 0.11374145746231079, 0.006442815065383911, 0.029139190912246704, 0.11480876803398132, -0.0010274052619934082, -0.04394267499446869, -0.07613880932331085, -0.11547133326530457, -0.0880713015794754, 0.08096897602081299, -0.10448180139064789, -0.07649879157543182, -0.015173777937889099, 0.11156101524829865, -0.0772056132555008, -0.0075873881578445435, 0.09379428625106812, 0.08315983414649963, -0.11444862186908722, 0.06298045814037323, 0.04398439824581146, -0.11849142611026764, -0.12392154335975647, -0.12146799266338348, 0.05331343412399292, -0.011008784174919128, -0.0603557825088501, -0.009050250053405762, -0.09634298086166382, 0.052341967821121216, -0.09353551268577576, 0.053697213530540466, -0.03504391014575958, -0.02670958638191223, 0.03644154965877533, 0.005551815032958984, -0.04937030375003815, -0.008703455328941345, -0.031534940004348755, 0.028080061078071594, 0.029375329613685608, -0.0805610716342926, 0.09045863151550293, -0.09920921921730042, -0.038170576095581055, 0.07481846213340759, -0.0010473281145095825, -0.09752462804317474, 0.010883763432502747, 0.03236281871795654, 0.015081450343132019, -0.03489023447036743, -0.10214182734489441, 0.0032965391874313354, 0.027003392577171326, -0.05650213360786438, -0.08306325972080231, -0.10706925392150879, -0.0032413452863693237, 0.03618216514587402, -0.034387409687042236, 0.05038025975227356, 0.05886811017990112, 0.008153855800628662, 0.014920368790626526, 0.0360758900642395, 0.0723448246717453, 0.061111390590667725, 0.011254161596298218, -0.056556910276412964, 0.01211632788181305, -0.04487769305706024, -0.11094805598258972, -0.07354220747947693, 0.07413195073604584, 0.047245949506759644, 0.03878818452358246, -0.046401247382164, -0.07560782134532928, -0.1227056086063385, 0.11305692791938782, 0.06546637415885925, -0.09987635910511017, -0.04137326776981354, 0.04412315785884857, -0.0551595538854599, -0.09654133021831512, 0.10868924856185913, -0.06844909489154816, 0.12077392637729645, 0.05863124132156372, -0.08307988941669464, 0.03198800981044769, -0.021814465522766113, -0.09828940033912659, 0.04987914860248566, 0.041915953159332275, -0.10132923722267151, 0.12082350254058838, 0.028385475277900696, -0.08092077076435089, 0.03560376167297363, 0.07663299143314362, -0.006794735789299011, 0.09092119336128235, 0.08951188623905182, 0.07832753658294678, 0.06272302567958832, -0.00015109777450561523, -0.0547463595867157, 0.10007289052009583, 0.10916504263877869, -0.08320386707782745, -0.09216195344924927, -0.004138171672821045, 0.04888729751110077, -0.006145015358924866, -0.10894481837749481, -0.1140689104795456, -0.07789081335067749, 0.0011891573667526245, -0.08788903057575226, 0.005625054240226746, -0.11573868989944458, 0.06193862855434418, -0.06133592128753662, -0.04200492799282074, 0.12457621097564697, 0.08896543085575104, 0.10111810266971588, -0.12129594385623932, -0.04899671673774719, -0.04760442674160004, -0.10474079847335815, 0.045578956604003906, 0.062489137053489685, 0.05732828378677368, 0.026004359126091003, -0.005429178476333618, 0.01280096173286438, -0.05897435545921326, -0.11226670444011688, -0.020904362201690674, 0.07482624053955078, -0.08457648754119873, -0.058683618903160095, 0.09399193525314331, 0.12124554812908173, -0.12273453176021576, -0.05999849736690521, -0.09519994258880615, 0.11858657002449036, -0.09848438203334808, -0.040606796741485596, 0.12449571490287781, 0.0550694614648819, -0.02534201741218567, -0.08284081518650055, 0.026566118001937866, -0.11949323117733002, -0.11323972046375275, -0.07196502387523651, -0.06221392750740051, 0.04097239673137665, 0.07186536490917206, -0.08116193115711212, -0.112391397356987, 0.08694079518318176, 0.048344045877456665, -0.06913010776042938, 0.044849470257759094, 0.09349381923675537, 0.03641365468502045, -0.11800771951675415, -0.06126508116722107, 0.08304892480373383, -0.0019366443157196045, -0.12076970934867859, -0.061947256326675415, -0.11207452416419983, 0.06028446555137634, -0.038721948862075806, 0.03171895444393158, -0.026687264442443848, -0.03811143338680267, -0.07751458883285522, 0.08918654918670654, 0.10772247612476349, 0.09677810966968536, 0.05352981388568878, -0.12114056944847107, 0.06917867064476013, 0.000475466251373291, -0.1019938737154007, -0.08746302127838135, 0.04604458808898926, 0.019443362951278687, 0.024203673005104065, -0.08459343016147614, -0.09431706368923187, -0.0061849504709243774, 0.04392571747303009, 0.011224955320358276, 0.0889488011598587, 0.12085667252540588, 0.008660897612571716, 0.08315110206604004, 0.011336460709571838, -0.08577392995357513, -0.014093652367591858, -0.10411669313907623, -0.05336892604827881, -0.01730896532535553, 0.08053886890411377, -0.0027016103267669678, 0.009518057107925415, -0.10960590839385986, -0.006154641509056091, 0.007172673940658569, -0.011013209819793701, -0.09479667246341705, -0.004318758845329285, -0.08015124499797821, 0.08960087597370148, -0.05083031952381134, -0.11809024214744568, -0.10634377598762512, -0.017079591751098633, 0.09160219132900238, 0.08600099384784698, 0.074959397315979, 0.12052485346794128, -0.05776695907115936, -0.05115148425102234, 0.043393269181251526, -0.11607393622398376, 0.08634182810783386, -0.07914744317531586, -0.024420171976089478, -0.10648821294307709, 0.07844915986061096, -0.07605457305908203, -0.11974529922008514, 0.04990766942501068, -0.02997604012489319, -0.05521589517593384, 0.022637858986854553, -0.11285853385925293, -0.11246299743652344, -0.028342828154563904, -0.05414564907550812, 0.0436188280582428, 0.03754451870918274, -0.056285127997398376, -0.047472745180130005, 0.06413048505783081, -0.0991068035364151, -0.05451136827468872, -0.08547167479991913, 0.09097544848918915, 0.10406665503978729, -0.0009899735450744629, 0.0587451308965683, -0.08804678916931152, 0.0644606202840805, 0.07513098418712616, -0.06049686670303345, -0.10389132797718048, 0.039335429668426514, -0.077805295586586, -0.056279927492141724, -0.061219871044158936, 0.08793281018733978, 0.031074583530426025, 0.023312091827392578, -0.031879574060440063, 0.09450280666351318, 0.03605303168296814, 0.11930389702320099, -0.054378703236579895, 0.08883592486381531, -0.05642420053482056, -0.06622689962387085, 0.11950530111789703, 0.07493270933628082, -0.11079886555671692, -0.01844145357608795, 0.07160809636116028, 0.042237475514411926, -0.011220157146453857, -0.08506810665130615, -0.07620573043823242, -0.03276529908180237, -0.05755627155303955, 0.07145176827907562, 0.05261854827404022, 0.02730458974838257, 0.029493585228919983, -0.10176913440227509, 0.05527640879154205, 0.05632376670837402, -0.12244376540184021, -0.04517899453639984, -0.051451414823532104, 0.0973699688911438, 0.028989121317863464, -0.05324023962020874, -0.04421980679035187, -0.0753222107887268, -0.024182990193367004, -0.03932124376296997, -0.026066213846206665, -0.03964826464653015, -0.08265231549739838, 0.017176508903503418, 0.10893812775611877, 0.02062547206878662, -0.04639528691768646, -0.02937912940979004, 0.05183672904968262, -0.009291201829910278, -0.00020864605903625488, 0.006157040596008301, -0.09070457518100739, -0.11254745721817017, 0.10017649829387665, -0.02871932089328766, 0.026702716946601868, -0.11638253927230835, -0.10294666886329651, -0.08642970025539398, 0.022564709186553955, -0.03167027235031128, 0.07005642354488373, 0.03922957181930542, -0.009893640875816345, -0.06564375758171082, 0.07829323410987854, 0.04596501588821411, 0.09436707198619843, 0.06250332295894623, 0.027084574103355408, -0.04569023847579956, -0.05928163230419159, -0.0607534795999527, -0.008201956748962402, -0.03391300141811371, -0.06738629937171936, 0.10564179718494415, -0.12168547511100769, 0.023837357759475708, -0.0822664350271225, -0.08719377219676971, -0.035755738615989685, 0.06391113996505737, -0.05852377414703369, -0.061732009053230286, 0.12482255697250366, -0.0537603497505188, -0.013714462518692017, -0.10812109708786011, 0.04285496473312378, -0.03942166268825531, 0.1004781574010849, 0.004104316234588623, 0.018099188804626465, 0.12003165483474731, -0.026984795928001404, -0.014415547251701355, 0.010582029819488525, 0.10567229986190796, 0.04872670769691467, 0.09825532138347626, 0.06757785379886627, 0.11555713415145874, -0.1223253458738327, -0.07595480978488922, -0.09078873693943024, -0.10789132118225098, 0.03942275047302246, 0.10196588933467865, 0.01980338990688324, -0.12377515435218811, -0.08757837116718292, 0.006111010909080505, 0.07015331089496613, -0.030251771211624146, -0.01758667826652527, -0.003681480884552002, 0.11980544030666351, 0.027955278754234314, 0.06089429557323456, -0.11568909883499146, 0.06680388748645782, 0.09388837218284607, -0.060976192355155945, -0.09185290336608887, -0.08187323808670044, 0.08061851561069489, -0.008982598781585693, -0.09565043449401855, -0.04743605852127075, -0.08941331505775452, 0.11469177901744843, 0.06479306519031525, -0.0485796183347702, 0.0005730986595153809, 0.11044758558273315, 5.155801773071289e-06, -0.022938430309295654, 0.022645816206932068, -0.04147125780582428, 0.07114706933498383, 0.04430088400840759, 0.01660861074924469, -0.09745602309703827, 0.10424268245697021, 0.07388836145401001, -0.05237318575382233, -0.10114002227783203, 0.038208723068237305, -0.09426748752593994, -0.0821058452129364, -0.06961774826049805, 0.02112545073032379, 0.04789850115776062, -0.02111448347568512, 0.08927446603775024, -0.020309284329414368, -0.008679956197738647, 0.018814846873283386, 0.05223970115184784, 0.0367385596036911, -0.04041604697704315, -0.0293169766664505, 0.028218433260917664, -0.07324579358100891, 0.05199332535266876, 0.014498010277748108, 0.04238756000995636, -0.0619177520275116, -0.07945854961872101, 0.11362656950950623, 0.04865773022174835, -0.06847284734249115, -0.001765325665473938, 0.06015263497829437, 0.008263379335403442, -0.09916500747203827, -0.014783978462219238, -0.05053319036960602, 0.10070101916790009, 0.10066439211368561, 0.02535390853881836, -0.04201839864253998, -0.0840926319360733, -0.0932403951883316, -0.02086050808429718, -0.03512270748615265, 0.05634775757789612, 0.07398466765880585, 0.10613994300365448, -0.018655821681022644, 0.01709693670272827, -0.0823633074760437, 0.01763598620891571, 0.09807823598384857, 0.017470955848693848, 0.013694658875465393, -0.10166794061660767, 0.06296168267726898, 0.07321096956729889, 0.11508870124816895, 0.004927724599838257, -0.08050306141376495, 0.04466596245765686, 0.05320107936859131, 0.0799652636051178, 0.05925242602825165, -0.005840420722961426, -0.12275180220603943, -0.08745984733104706, -0.1062275767326355, -0.11090537905693054, -0.0686866044998169, 0.07652129232883453, -0.006184607744216919, 0.03728377819061279, -0.093404620885849, 0.11628727614879608, -0.12176203727722168, 0.004924759268760681, -0.04951021075248718, 0.032707422971725464, 0.10308524966239929, 0.08659939467906952, 0.08354789018630981, 0.025338053703308105, 0.09491105377674103, -0.015526548027992249, -0.07623416185379028, -0.07096922397613525, -0.018680855631828308, -0.05909658968448639, -0.06097078323364258, -0.105319082736969, 0.0797850638628006, 0.04441048204898834, -0.09212145209312439, 0.07702618837356567, 0.06896895170211792, 0.04780678451061249, -0.05766354501247406, -0.10513181984424591, -0.08138242363929749, 0.058159440755844116, -0.07734179496765137, -0.07321108877658844, 0.008023560047149658, 0.10542009770870209, 0.05340471863746643, -0.07322116196155548, -0.10319356620311737, 0.0913364589214325, -0.02618098258972168, -0.06742227077484131, 0.040608108043670654, 0.11712183058261871, 0.0929570347070694, -0.10285146534442902, -0.020149976015090942, -0.0074008554220199585, 0.11346998810768127, 0.03138846158981323, -0.0629325807094574, -0.10937798023223877, 0.02360612154006958, -0.035714417695999146, 0.07694873213768005, -0.0875784307718277, -0.04952269792556763, 0.10063931345939636, -0.07494047284126282, 0.00801849365234375, 0.11464527249336243, -0.11646471917629242, -0.08206866681575775, -0.005071386694908142, -0.10013796389102936, -0.041291505098342896, -0.003083541989326477, -0.06023991107940674, -0.08810427784919739, 0.0892229825258255, 0.04776377975940704, -0.05087374150753021, 0.0901203453540802, 0.09732495248317719, -0.04205828905105591, 0.07369843125343323, 0.043342724442481995, -0.08098867535591125, 9.484589099884033e-05, 0.09432756900787354, -0.0009069144725799561, 0.055063799023628235, -0.030363842844963074, -0.10088969767093658, -0.05394645035266876, 0.03459911048412323, 0.10847760736942291, 0.06579363346099854, -0.09991933405399323, 0.042618006467819214, -0.028825268149375916, -0.05714426934719086, -0.0718609094619751, -0.09767314791679382, 0.012692034244537354, -0.08496446907520294, 0.0016982555389404297, 0.08250011503696442, -0.058121755719184875, -0.1230309009552002, -0.09043782949447632, -0.0792752057313919, 0.11525551974773407, 0.024037644267082214, 0.014441490173339844, -0.0755169689655304, -0.055601075291633606, 0.033550530672073364, 0.06899844110012054, 0.12438055872917175, -0.11676648259162903, -0.029482007026672363, -0.023516744375228882, 0.028938159346580505, -0.07458429038524628, -0.08830989897251129, -0.011981531977653503, -0.023544564843177795, 0.06232091784477234, 0.07507173717021942, 0.10900214314460754, -0.09001858532428741, 0.11005234718322754, 0.09610772132873535, -0.09367723762989044, 0.014514073729515076, -0.015111416578292847, -0.023603156208992004, 0.014948591589927673, 0.051346078515052795, 0.0029015690088272095, -0.0381268709897995, 0.037742868065834045, 0.0550173819065094, -0.008801549673080444, -0.021719038486480713, 0.1199488490819931, -0.018820464611053467, -0.05854293704032898, 0.10728667676448822, 0.0533391535282135, -0.10068482160568237, 0.06480073928833008, 0.07868222892284393, 0.10367390513420105, -0.011905297636985779, -0.03470969200134277, 0.014683514833450317, -0.09162712097167969, 0.018319353461265564, -0.04852613806724548, 0.03218294680118561, -0.09173454344272614, -0.05901414155960083, 0.12160508334636688, -0.07976190745830536, -0.06900052726268768, -0.1247253268957138, -0.08431637287139893, 0.0438477098941803, -0.11870323121547699, -0.0936201959848404, -0.06324884295463562, -0.029673218727111816, -0.06527876853942871, -0.06775256991386414, 0.04217873513698578, -0.02808825671672821, 0.012916311621665955, -0.12064854800701141, -0.031586989760398865, 0.06856420636177063, 0.05109633505344391, -0.0630018413066864, 0.0683123916387558, 0.015651226043701172, 0.12070025503635406, 0.07079215347766876, -0.06331165134906769, -0.06384195387363434, 0.04154127836227417, -0.09986461699008942, -0.09981703758239746, 0.01012316346168518, 0.11866754293441772, 0.0936000794172287, -0.001301690936088562, 0.02455124258995056, -0.07120406627655029, 0.11708515882492065, -0.012178182601928711, -0.030297040939331055, -0.004607692360877991, 0.05854526162147522, 0.024646684527397156, -0.01623515784740448, 0.041462406516075134, -0.06393119692802429, 0.11023062467575073, 0.078711599111557, 0.10185736417770386, -0.05430437624454498, -0.10649444162845612, -0.02491764724254608, -0.09979844093322754, -0.0681987851858139, 0.02246566116809845, 0.08494913578033447, -0.030237585306167603, 0.12344580888748169, 0.014757722616195679, 0.022288888692855835, -0.01629638671875, -0.10034707188606262, -0.011068001389503479, 0.11840313673019409, 0.003450334072113037, 0.055580466985702515, -0.014126211404800415, 0.006525799632072449, 0.07170622050762177, 0.003296464681625366, 0.00063304603099823, 0.10520210862159729, -0.10755479335784912, 0.10912957787513733, -0.07763102650642395, -0.09390780329704285, -0.035679370164871216, -0.032729580998420715, -0.06778338551521301, -0.11430445313453674, 0.006256207823753357, 0.029977664351463318, -0.022130116820335388, -0.036006927490234375, -0.12247468531131744, -0.01672200858592987, 0.0778559148311615, -0.010566413402557373, 0.06812314689159393, 0.10356840491294861, 0.023973405361175537, 0.08199213445186615, 0.021159812808036804, 0.03172685205936432, 0.10145920515060425, 0.007700040936470032, 0.08580131828784943, -0.0345274955034256, -0.04266166687011719, -0.10645273327827454, -0.008394837379455566, 0.020199835300445557, 0.05719742178916931, 0.11176234483718872, 0.04859285056591034, 0.08358195424079895, -0.09008282423019409, 0.037337660789489746, -0.053134918212890625, 0.06145000457763672, -0.10788942873477936, 0.0694836676120758, -0.10580602288246155, 0.04392653703689575, 0.10691751539707184, -0.015703067183494568, -0.024166062474250793, -0.022648662328720093, 0.10331262648105621, -0.09716230630874634, -0.11207634210586548, -0.011569559574127197, -0.06983107328414917, -0.06127116084098816, 0.11875511705875397, 0.02784106135368347, -0.014767557382583618, -0.0485258549451828, 0.0050512999296188354, -0.07513149082660675, -0.07407030463218689, -0.07442924380302429, 0.10801190137863159, 0.11524946987628937, 0.07367387413978577, 0.10535591840744019, -0.09599703550338745, -0.02556149661540985, 0.017049625515937805, -0.055092111229896545, 0.11199323832988739, -0.0931585282087326, 0.08334055542945862, 0.11509265005588531, 0.0839548110961914, -0.04399043321609497, -0.018151283264160156, 0.12271814048290253, -0.010518863797187805, -0.12473620474338531, -0.10724394023418427, 0.07322502136230469, 0.0030791908502578735, -0.000915035605430603, 0.030044615268707275, -0.015130609273910522, 0.06329450011253357, 0.07733656466007233, 0.0062401145696640015, -0.047825440764427185, -0.06272253394126892, 0.03879460692405701, -0.03346124291419983, -0.10920307040214539, -0.005658954381942749, 0.022629842162132263, 0.11254678666591644, -0.01883217692375183, 0.027306467294692993, -0.07020898163318634, 0.024171337485313416, 0.0794198215007782, 0.09197591245174408, 0.1197846382856369, 0.013214126229286194, 0.07800586521625519, 0.07616077363491058, 0.011280670762062073, 0.04806296527385712, -0.03157392144203186, -0.008260712027549744, -0.047148704528808594, -0.11302976310253143, -0.004664406180381775, -0.06084813177585602, -0.06633442640304565, -0.07500310242176056, -0.0618838369846344, -0.06378453969955444, -0.005309581756591797, -0.0666344165802002, 0.03959155082702637, -0.10444653034210205, -0.009755879640579224, 0.06392784416675568, 0.05873027443885803, 0.10093025863170624, -0.11958573758602142, 0.004945710301399231, -0.08636258542537689, -0.01806771755218506, -0.003371685743331909, 0.03202520310878754, 0.11273008584976196, -0.03269241750240326, -0.07770827412605286, 0.11466626822948456, 0.04888559877872467, 0.06994301080703735, 0.020539477467536926, -0.0059146881103515625, 0.10011304914951324, 0.010868072509765625, -0.09723377227783203, -0.06346501410007477, -0.046393588185310364, -0.11007331311702728, 0.07055447995662689, -0.10872277617454529, 0.0828687846660614, 0.076209157705307, 0.12283515930175781, 0.035573557019233704, 0.12078516185283661, -0.05859753489494324, 0.005431383848190308, -0.0694996565580368, -0.1082335114479065, -0.035198986530303955, -0.020390748977661133, 0.04081602394580841, 0.12215188145637512, 0.0051870197057724, -0.008827149868011475, 0.11841200292110443, 0.0681164413690567, -0.11406068503856659, -0.07547920942306519, -0.07071904838085175, 0.03942549228668213, -0.08176305890083313, 0.009304538369178772, -0.0890105664730072, 0.00416208803653717, 0.08330532908439636, 0.03451472520828247, -0.07576167583465576, 0.06586360931396484, 0.11500108242034912, 0.033166736364364624, 0.029980406165122986, -0.05088487267494202, -0.06282137334346771, 0.04617060720920563, 0.08348914980888367, 0.04640814661979675, -0.027202606201171875, 0.07830339670181274, 0.02156957983970642, -0.08681967854499817, 0.11159242689609528, -0.10307984054088593, 0.06145738065242767, 0.12221971154212952, -0.014871805906295776, 0.1147017627954483, -0.0011609941720962524, 0.060237810015678406, 0.027446210384368896, -0.04161863029003143, -0.02203179895877838, 0.015890538692474365, -0.09250351786613464, -0.004629790782928467, -0.1014285683631897, 0.09699994325637817, -0.01773984730243683, -0.02005062997341156, -0.047090038657188416, 0.03840109705924988, 0.04980061948299408, 0.11232958734035492, -0.03045065701007843, -0.05740197002887726, 0.0686965137720108, -0.06947465240955353, 0.02179872989654541, 0.07325004041194916, 0.1030779778957367, -0.051793232560157776, -0.0029461830854415894, 0.0671253502368927, -0.0360071063041687, -0.11480136215686798, -0.04433809220790863, -0.01405709981918335, 0.09124179184436798, 0.03051769733428955, -0.07467707991600037, -0.061264291405677795, 0.05875687301158905, -0.024074003100395203, 0.078202024102211, -0.07335098087787628, -0.06136205792427063, -0.11503401398658752, -0.0361434668302536, 0.09429630637168884, 0.005046740174293518, -0.10985569655895233, 0.00015616416931152344, -0.03721991181373596, 0.11289791762828827, -0.10344758629798889, 0.0869283527135849, -0.08078713715076447, -0.09242837131023407, 0.010626927018165588, 0.026879966259002686, 0.10736794769763947, 0.02619493007659912, -0.0416928231716156, 0.040985360741615295, 0.07875433564186096, 0.07578277587890625, -0.061164334416389465, -0.10281774401664734, -0.03518466651439667, 0.12360577285289764, -0.10914427042007446, 0.08481840789318085, 0.09920233488082886, 0.10277210175991058, 0.12268097698688507, 0.05185294151306152, 0.08130019903182983, 0.09121622145175934, 0.09107087552547455, 0.03246693313121796, 0.019349634647369385, 0.10903230309486389, 0.031900227069854736, 0.11143307387828827, 0.04625296592712402, -0.04604464769363403, -0.12444263696670532, -0.03279481828212738, 0.02504350244998932, 0.0864608883857727, -0.08089593052864075, -0.024537548422813416, 0.03956227004528046, 0.10672695934772491, -0.00785180926322937, -0.004361733794212341, 0.04081308841705322, 0.01832832396030426, -0.09263187646865845, -0.10969032347202301, 0.11965060234069824, -0.10676807165145874, 0.04447522759437561, 0.09716838598251343, 0.06557796895503998, -0.06759911775588989, -0.09252485632896423, 0.09380677342414856, -0.07252109050750732, -0.07164596021175385, -0.0676482617855072, -0.06743903458118439, 0.06632348895072937, 0.050803884863853455, 0.05214172601699829, 0.08317644894123077, 0.03656253218650818, -0.06148846447467804, 0.08939900994300842, -0.10428619384765625, 0.10834331810474396, 0.03284110128879547, -0.11894482374191284, 0.08147478103637695, -0.013793721795082092, -0.0882861465215683, -0.03709331154823303, -0.04926210641860962, 0.06281982362270355, 0.06766034662723541, -0.10447117686271667, 0.03161823749542236, -0.09960311651229858, 0.11981317400932312, -0.10320806503295898, -0.09362851083278656, 0.03104504942893982, 0.07081295549869537, -0.11460788547992706, -0.09576821327209473, 0.047649964690208435, 0.0048605650663375854, 0.08836618065834045, -0.06255477666854858, -0.04740883409976959, -0.06702354550361633, -0.07143788039684296, -0.11470651626586914, 0.04644611477851868, -0.07278035581111908, 0.009869948029518127, 0.03274311125278473, 0.013353750109672546, -0.08924718201160431, 0.03999844193458557, -0.04237194359302521, -0.12226471304893494, -0.11937730014324188, -0.11772602796554565, 0.05757763981819153, -0.10365472733974457, 0.10808511078357697, 0.060625702142715454, -0.01869581639766693, 0.02293059229850769, -0.056017398834228516, -0.07209289073944092, 0.011018708348274231, -0.10828998684883118, -0.051088348031044006, -0.0948747843503952, 0.05456604063510895, -0.11060340702533722, 0.03503181040287018, 0.043245911598205566, -0.021394506096839905, -0.1126750260591507, 0.05621476471424103, 0.09108796715736389, -0.05604742467403412, 0.07121044397354126, -0.07393741607666016, -0.09143027663230896, 0.10537134110927582, -0.04733265936374664, 0.12013070285320282, 0.003851175308227539, -0.08883821964263916, 0.039528340101242065, -0.11875219643115997, 0.10268886387348175, -0.10237985849380493, 0.050010696053504944, -0.08017773926258087, 0.06057426333427429, -0.010653823614120483, -0.03847692906856537, -0.003013715147972107, -0.1202564686536789, 0.09348896145820618, 0.09854055941104889, 0.10867764055728912, 0.09207092225551605, 0.006775021553039551, -0.059910595417022705, 0.0028357207775115967, -0.01654791831970215, -0.019419044256210327, -0.05945265293121338, -0.06854821741580963, 0.0323820561170578, 0.06162010133266449, -0.09508241713047028, 0.04878634214401245, -0.07701610028743744, 0.013887330889701843, -0.11731807887554169, -0.09663191437721252, -0.10279923677444458, 0.07992014288902283, 0.0048826634883880615, -0.09694662690162659, -0.11046048998832703, -0.05774739384651184, -0.0638226568698883, 0.0764213353395462, -0.029103994369506836, -0.059219151735305786, 0.11463524401187897, -0.12236329913139343, -0.00022214651107788086, 0.017511576414108276, 0.10527952015399933, -0.022274106740951538, -0.1014997661113739, -0.11981260776519775, -0.04021836817264557, 0.11408542096614838, -0.1198340356349945, 0.04239995777606964, 0.029882431030273438, -0.11336025595664978, 0.03586083650588989, 0.04814119637012482, 0.1197059154510498, -0.11355751752853394, 0.09496104717254639, -0.025172159075737, -0.08116526901721954, 0.026279836893081665, -0.0530039519071579, 0.023042723536491394, 0.11053039133548737, 0.08257405459880829, 0.03488883376121521, -0.10979360342025757, 0.0635601133108139, 0.022370561957359314, -0.051023438572883606, -0.0647977739572525, -0.03136540949344635, -0.011090174317359924, 0.06292115151882172, -0.11914233863353729, 0.08303627371788025, 0.0030769407749176025, -0.006228893995285034, 0.0069587379693984985, -0.01770913600921631, -0.008153408765792847, -0.09003573656082153, 0.055612221360206604, -0.016536787152290344, -0.03952018916606903, 0.05153647065162659, -0.08477053046226501, 0.003593623638153076, 0.07507647573947906, -0.10477057099342346, 0.0756511390209198, 0.04078780114650726, 0.005665943026542664, -0.12428414821624756, 0.08461934328079224, -0.06024087965488434, 0.02727620303630829, 0.028835073113441467, -0.10710826516151428, -0.09708011150360107, -0.008564099669456482, -0.02824944257736206, -0.10642941296100616, -0.061709821224212646, -0.006970390677452087, -0.07649873197078705, -0.035233959555625916, 0.06711061298847198, -0.10955443978309631, 0.11200377345085144, 0.015519902110099792, 0.07655780017375946, 0.028169959783554077, 0.056962236762046814, -0.05046835541725159, -0.053672224283218384, 0.09950558841228485, -0.12091146409511566, 0.058826595544815063, 0.04831679165363312, 0.0835028737783432, 0.054911673069000244, 0.01330055296421051, 0.09616336226463318, 0.004015624523162842, -0.038674548268318176, -0.0007398873567581177, -0.04475286602973938, 0.10785196721553802, 0.002990022301673889, 0.010046467185020447, -0.0559413880109787, -0.11715368926525116, -0.020662501454353333, 0.06111985445022583, -0.012372016906738281, -0.05904322862625122, -0.0815737396478653, 0.005171298980712891, 0.026680082082748413, -0.003093540668487549, 0.05646924674510956, 0.02261492609977722, -0.00682830810546875, -0.022755488753318787, -0.12393981218338013, 0.11851796507835388, -0.059750065207481384, 0.07951085269451141, -0.00776807963848114, 0.04463423788547516, 0.07519909739494324, -0.06053675711154938, 0.003942504525184631, 0.08533696830272675, 0.035063356161117554, 0.007186859846115112, 0.07718236744403839, -0.0983099490404129, 0.10257604718208313, -0.012548714876174927, -0.06561966240406036, 0.04707057774066925, 0.013608574867248535, 0.023755773901939392, -0.06778417527675629, 0.07911872863769531, -0.07945942878723145, -0.10131344199180603, 0.0771486759185791, 0.09199124574661255, -0.0015344321727752686, 0.0319073349237442, -0.0951957255601883, -0.021603479981422424, 0.01449178159236908, -0.0824543833732605, -0.05790144205093384, -0.009066089987754822, 0.11475823819637299, -0.04678666591644287, 0.1221887618303299, -0.07924512028694153, -0.10706305503845215, -0.023094117641448975, -0.07767176628112793, 0.03179299831390381, -0.03573352098464966, 0.0570782870054245, 0.08332136273384094, -0.08069483935832977, 0.06718999147415161, -0.07074059545993805, 0.058150261640548706, 0.048585519194602966, -0.026189357042312622, 0.0369892418384552, 0.0008098185062408447, -0.0246058851480484, -0.04903341829776764, 0.01425468921661377, -0.03714896738529205, -0.08200961351394653, 0.0709989070892334, 0.05348014831542969, 0.11205542087554932, 0.10121998190879822, 0.11223877966403961, -0.05252334475517273, 0.07156875729560852, -0.021801427006721497, -0.06358318030834198, 0.09027846157550812, 0.09294338524341583, 0.04036496579647064, 0.004328519105911255, -0.1134665459394455, -0.07554490864276886, 0.01776541769504547, -0.053010761737823486, -0.08048346638679504, 0.030871659517288208, 0.09961457550525665, -0.04644593596458435, -0.1119641661643982, -0.039343833923339844, -0.11716550588607788, -0.04648369550704956, 0.05342984199523926, 0.12418513000011444, 0.07715725898742676, 0.07776804268360138, -0.11583104729652405, -0.09197573363780975, -0.013887256383895874, 0.014764904975891113, -0.08994077146053314, -0.08545728027820587, 0.09219679236412048, -0.07620561122894287, -0.06441088020801544, 0.06798285245895386, 0.08569955825805664, 0.11326168477535248, -0.04681651294231415, -0.0020830929279327393, -0.10477928817272186, 0.029142513871192932, 0.0788343995809555, 0.11848162114620209, -0.06809026002883911, 0.0061503201723098755, 0.050282642245292664, -0.09127996861934662, -0.0874265730381012, -0.10652019083499908, -0.055130720138549805, -0.07752528786659241, -0.05321158468723297, -0.04951518774032593, 0.08131729066371918, -0.09329025447368622, 0.019609570503234863, 0.10640805959701538, 0.05062191188335419, -0.050201281905174255, 0.11419707536697388, 0.02641133964061737, -0.0939263105392456, 0.0807303935289383, 0.01707376539707184, -0.11078454554080963, 0.02068929374217987, 0.015954360365867615, 0.008073389530181885, -0.035545602440834045, 0.0945986807346344, 0.08016572892665863, -0.002285778522491455, -0.06606400012969971, 0.03794392943382263, -0.12475576996803284, 0.023501768708229065, 0.10049699246883392, -0.04171893000602722, 0.050128161907196045, 0.04752647876739502, -0.05736297369003296, 0.08514457941055298, -0.1198435127735138, -0.07727396488189697, 0.022368893027305603, -0.07408949732780457, 0.0029138177633285522, -0.12171158194541931, 0.12231245636940002, 0.08978377282619476, -0.0019725263118743896, 0.059098586440086365, -0.05141283571720123, 0.02297268807888031, 0.09777094423770905, -0.07368779182434082, 0.019545361399650574, 0.03413352370262146, -0.003798067569732666, -0.10454154014587402, 0.09421880543231964, -0.03634372353553772, 0.10615433752536774, 0.0857066810131073, 0.049522578716278076, -0.06522873044013977, 0.11929892003536224, -0.04441383481025696, -0.04992660880088806, 0.062410563230514526, 0.12032933533191681, 0.12290014326572418, -0.007376939058303833, 0.0098562091588974, -0.0761779397726059, -0.12294113636016846, 0.07188601791858673, 0.08478713035583496, 0.04548501968383789, 0.0315011590719223, 0.03999432921409607, 0.013741865754127502, -0.0902576595544815, 0.04063601791858673, 0.11924581229686737, -0.11539305746555328, 0.09008738398551941, 0.0064405351877212524, 0.03805123269557953, 0.09390850365161896, -0.10815876722335815, 0.048164352774620056, -0.08723756670951843, 0.05649802088737488, -0.039465829730033875, 0.07346263527870178, -0.09635455906391144, 0.043914735317230225, 0.09790658950805664, 0.039225444197654724, 0.0514710396528244, 0.06853409111499786, -0.12054605782032013, 0.06300242245197296, -0.05043594539165497, -0.033548012375831604, -0.03567397594451904, 0.06834761798381805, -0.004951179027557373, -0.008614838123321533, 0.10856510698795319, -0.12330541014671326, -0.06219415366649628, -0.06340929865837097, -0.02936224639415741, 0.05901467800140381, -0.0751071572303772, -0.037522733211517334, 0.08547036349773407, -0.09041206538677216, 0.08123864233493805, 0.07340167462825775, 0.10103543102741241, -0.09212665259838104, 0.09667395055294037, -0.10378168523311615, -0.0637417882680893, 0.11443710327148438, -0.1074342429637909, -0.05340494215488434, 0.03965984284877777, -0.08317907154560089, -0.07782697677612305, -0.05439741909503937, 0.0750446617603302, 0.1071426123380661, 0.12332968413829803, 0.041082873940467834, 0.07541775703430176, 0.013781830668449402, -0.0012212395668029785, -0.04055066406726837, -0.07588279247283936, 0.11850379407405853, -0.019121140241622925, -0.027297601103782654, -0.11125791072845459, 0.014882266521453857, -0.00019025802612304688, -0.05364932119846344, -0.12405043840408325, -0.1243136078119278, -0.028640732169151306, 0.04617869853973389, 0.03288590908050537, -0.08016082644462585, 0.10939715802669525, -0.07956227660179138, -0.004568561911582947, 0.01154695451259613, 0.0941028892993927, 0.07829728722572327, -0.0551021546125412, 0.06530457735061646, 0.01674753427505493, -0.06308652460575104, 0.04010692238807678, 0.1179153323173523, -0.06754899024963379, -0.03757119178771973, -0.03372490406036377, 0.05179347097873688, 0.046164095401763916, -0.020900294184684753, -0.08198674023151398, 0.018318578600883484, 0.12326392531394958, 0.010417193174362183, -0.1154249906539917, 0.10279995203018188, -0.05261090397834778, -0.054880499839782715, 0.036510616540908813, -0.06479838490486145, 0.041948482394218445, -0.07505069673061371, 0.09095776081085205, -0.07212038338184357, -0.07189525663852692, -0.02686445415019989, 0.02657303214073181, -0.016434386372566223, 0.047631025314331055, 0.03848773241043091, 0.017795994877815247, -0.04887470602989197, 0.05113014578819275, -0.07382908463478088, -0.07570347189903259, -0.07601775228977203, 0.09876836836338043, -0.031487733125686646, 0.02752801775932312, -0.07549995183944702, -0.07468493282794952, 0.015880823135375977, -0.01972047984600067, -0.04572287201881409, 0.05427290499210358, 0.08075745403766632, -0.10630300641059875, 0.004581138491630554, -0.04297684133052826, 0.02216920256614685, -0.10337072610855103, 