{"config": {"model_type": "TCN", "norm_mean": 0.10000000149011612, "norm_std": 0.8999999761581421}, "parameters": {"input_size": 1, "hidden_size": 7, "output_size": 1, "kernel_size": 4, "stack_size": 8, "ps_hidden_size": 8, "ps_num_hidden_layers": 3}, "state_dict": {"plain_sequential": {"hidden_size": 8, "num_hidden_layers": 3, "direct_linear": {"weight": {"shape": [1, 7], "values": [-0.04665577411651611, 0.11751940846443176, 0.11897370219230652, -0.11787572503089905, -0.28368377685546875, 0.29406222701072693, 0.08494648337364197]}, "bias": {"shape": [1], "values": [0.28319069743156433]}}, "input_linear": {"weight": {"shape": [8, 7], "values": [0.24742773175239563, 0.06978386640548706, 0.005448669195175171, 0.06062915921211243, 0.024165570735931396, -0.2708660662174225, -0.3042466938495636, 0.25508835911750793, 0.12964656949043274, -0.20539623498916626, 0.13472959399223328, 0.23329851031303406, -0.35024407505989075, 0.01010119915008545, -0.06581827998161316, -0.22140605747699738, 0.28651687502861023, 0.12982431054115295, -0.3501133620738983, 0.13436737656593323, -0.24174802005290985, -0.18833237886428833, 0.1811251938343048, -0.0752393901348114, -0.25249385833740234, -0.37086495757102966, 0.0009495317935943604, 0.2555111348628998, 0.16398683190345764, -0.3532719016075134, -0.3188282251358032, -0.19901828467845917, 0.20609214901924133, 0.3317185938358307, -0.3596508800983429, 0.35265180468559265, 0.233990877866745, 0.28960368037223816, -0.11307865381240845, -0.2242870032787323, 0.13279083371162415, -0.27756229043006897, 0.021548300981521606, -0.3017731010913849, 0.02948865294456482, 0.17760756611824036, -0.35141316056251526, 0.045477837324142456, -0.23381882905960083, 0.2993350327014923, -0.03941071033477783, -0.22880052030086517, -0.29944151639938354, -0.31537961959838867, 0.056903332471847534, -0.3386572599411011]}, "bias": {"shape": [8], "values": [-0.08114698529243469, 0.19667866826057434, -0.15763932466506958, -0.0976332426071167, -0.30599409341812134, 0.310023695230484, -0.061386436223983765, -0.25298088788986206]}}, "output_linear": {"weight": {"shape": [1, 8], "values": [0.31746748089790344, -0.10731586813926697, 0.18922457098960876, -0.005808353424072266, 0.01072278618812561, 0.08018761873245239, 0.17706748843193054, -0.045778900384902954]}, "bias": {"shape": [1], "values": [-0.33226826786994934]}}, "hidden_linear.0": {"weight": {"shape": [8, 8], "values": [-0.29768815636634827, -0.032271742820739746, -0.08188855648040771, -0.25266945362091064, -0.011036455631256104, 0.20178833603858948, 0.16954579949378967, 0.18565288186073303, -0.015242964029312134, -0.24567009508609772, -0.16951246559619904, 0.219381183385849, -0.0393834114074707, 0.18202289938926697, -0.12729798257350922, -0.24034079909324646, -0.0693243145942688, 0.31159713864326477, 0.08713918924331665, -0.24589991569519043, 0.02918413281440735, 0.34778645634651184, -0.10511495172977448, 0.2910395562648773, -0.3386964499950409, -0.005684942007064819, -0.21851281821727753, -0.2105187028646469, 0.06577616930007935, -0.05895000696182251, -0.29749351739883423, 0.27550646662712097, 0.23111769556999207, -0.02580559253692627, 0.14103630185127258, 0.23863783478736877, -0.010631471872329712, -0.08315324783325195, 0.3469877541065216, -0.3336324691772461, -0.05449402332305908, 0.18874648213386536, -0.1195048987865448, -0.32642045617103577, 0.11762648820877075, -0.2971898913383484, 0.09032300114631653, 0.044820040464401245, -0.1912558674812317, -0.12492671608924866, 0.12705901265144348, -0.11548973619937897, 0.3139511048793793, 0.18075057864189148, 0.0874330997467041, 0.056687772274017334, 0.10840228199958801, -0.07914364337921143, 0.14502346515655518, 0.3439970910549164, -0.1262662261724472, -0.21244151890277863, -0.31575554609298706, -0.05170825123786926]}, "bias": {"shape": [8], "values": [-0.0031951963901519775, 0.3232446610927582, -0.1981322020292282, 0.20255622267723083, 0.25978800654411316, 0.006757616996765137, 0.02946731448173523, -0.07966768741607666]}}, "hidden_linear.1": {"weight": {"shape": [8, 8], "values": [-0.02195754647254944, -0.20391370356082916, 0.0055983662605285645, 0.09867405891418457, -0.3397148549556732, 0.002239823341369629, -0.11827437579631805, -0.2609511613845825, 0.073627769947052, -0.2735214829444885, 0.15918132662773132, 0.051944345235824585, 0.2839300334453583, 0.07840684056282043, -0.04418134689331055, -0.2455497682094574, -0.0796908438205719, -0.2725316286087036, 0.17510244250297546, -0.20807835459709167, -0.19907090067863464, 0.03594931960105896, 0.13994228839874268, -0.02619236707687378, 0.2917158305644989, 0.33638206124305725, 0.33274760842323303, -0.014679253101348877, 0.2950049340724945, -0.2662918269634247, 0.10569214820861816, -0.1340266764163971, 0.05773088335990906, -0.21376948058605194, -0.1950369030237198, 0.27823010087013245, -0.09490472078323364, -0.14834223687648773, 0.32292094826698303, 0.0284767746925354, -0.2484208047389984, 0.3047865927219391, -0.22851304709911346, -0.3244689404964447, 0.035617172718048096, -0.19855573773384094, 0.043519943952560425, -0.1456400752067566, -0.19004645943641663, -0.34884750843048096, 0.11475932598114014, 0.1742602288722992, 0.2905268371105194, -0.12029826641082764, 0.02252015471458435, -0.0465010404586792, -0.04223489761352539, -0.25713491439819336, -0.17099705338478088, -0.15211442112922668, 0.0394381582736969, 0.16251429915428162, -0.21459801495075226, 0.16670772433280945]}, "bias": {"shape": [8], "values": [-0.3038182854652405, 0.1954522430896759, 0.1718229353427887, 0.33838680386543274, -0.1285317838191986, 0.1420663297176361, 0.276183158159256, -0.21437698602676392]}}, "hidden_linear.2": {"weight": {"shape": [8, 8], "values": [-0.22315694391727448, 0.10738798975944519, -0.21428494155406952, 0.22451046109199524, 0.3177351653575897, 0.038087427616119385, -0.020778954029083252, -0.13916842639446259, -0.08930298686027527, 0.06726589798927307, 0.02192559838294983, 0.16318127512931824, -0.1706022173166275, 0.020602256059646606, 0.15173748135566711, -0.22887247800827026, 0.3447593152523041, -0.110690638422966, 0.303928405046463, -0.32983696460723877, 0.12072998285293579, -0.15379789471626282, 0.2739390432834625, 0.24022158980369568, -0.22744415700435638, 0.050394535064697266, -0.13791261613368988, -0.006000488996505737, -0.08155512809753418, 0.015707075595855713, 0.13213884830474854, -0.11099743843078613, -0.2611602544784546, 0.035910576581954956, 0.25624600052833557, -0.34151312708854675, 0.15764066576957703, -0.3261513113975525, -0.0005416274070739746, -0.3046070635318756, -0.12592850625514984, -0.2613755464553833, -0.20967626571655273, -0.2773696780204773, 0.2334786355495453, 0.2639360725879669, 0.11669290065765381, -0.24767738580703735, -0.033749938011169434, 0.3150582015514374, -0.07366952300071716, 0.3128204643726349, 0.1752929389476776, 0.16173055768013, -0.2590982913970947, 0.3391900956630707, 0.2049923837184906, -0.34496110677719116, -0.00047713518142700195, 0.19695523381233215, -0.020423948764801025, -0.29413264989852905, 0.2058180868625641, 0.07537251710891724]}, "bias": {"shape": [8], "values": [-0.2529730498790741, -0.16405175626277924, -0.019438594579696655, -0.3073551654815674, -0.2149953693151474, -0.09843823313713074, 0.2969665229320526, 0.08466997742652893]}}}, "block_stack.0": {"conv": {"weight": {"shape": [7, 1, 1], "values": [0.47205615043640137, 0.4540807008743286, -0.947055459022522, 0.24392521381378174, 0.19349539279937744, -0.8344500064849854, 0.37292659282684326]}, "bias": {"shape": [7], "values": [-0.09426355361938477, 0.24309515953063965, -0.4121905565261841, -0.946131706237793, -0.4325988292694092, -0.7820397615432739, 0.5220538377761841]}}, "conv1": {"weight": {"shape": [7, 1, 4], "values": [-0.4365975856781006, 0.41186022758483887, 0.3716614842414856, 0.44285470247268677, -0.4745537042617798, -0.19732022285461426, 0.04954332113265991, -0.024633049964904785, 0.26028698682785034, 0.37498533725738525, 0.4749066233634949, 0.086192786693573, 0.03374844789505005, -0.26413494348526, -0.4204644560813904, 0.2062230110168457, 0.32362329959869385, 0.06920188665390015, 0.2765973210334778, -0.4516592025756836, 0.4878855347633362, -0.09280723333358765, -0.05274677276611328, -0.22609961032867432, -0.027516067028045654, 0.44114017486572266, -0.17513185739517212, -0.3070269227027893]}, "bias": {"shape": [7], "values": [0.20461690425872803, 0.34481585025787354, 0.39477771520614624, 0.26943933963775635, -0.24233019351959229, -0.0794295072555542, 0.1639256477355957]}}, "conv2": {"weight": {"shape": [7, 7, 4], "values": [0.06409166753292084, 0.13773010671138763, -0.08115874230861664, 0.1509024053812027, -0.12338985502719879, 0.05076797306537628, 0.02677975594997406, 0.042011767625808716, 0.10131929814815521, 0.03212396800518036, -0.17347197234630585, -0.043049007654190063, 0.04576645791530609, 0.1879507452249527, 0.027551516890525818, -0.14067208766937256, -0.028733834624290466, 0.17293037474155426, 0.020042017102241516, 0.1743619292974472, 0.001470997929573059, 0.002735644578933716, -0.14515560865402222, 0.14096425473690033, 0.06765000522136688, -0.018785610795021057, -0.01975373923778534, 0.11976765096187592, -0.13434931635856628, -0.047479987144470215, 0.00899641215801239, 0.1270918995141983, 0.01395629346370697, 0.1842498928308487, -0.033886149525642395, 0.043799832463264465, -0.1563253402709961, -0.16453872621059418, -0.04701937735080719, 0.0030442923307418823, -0.09378284215927124, -0.08236216753721237, 0.05281853675842285, -0.17259906232357025, -0.18625536561012268, -0.1294177919626236, -0.18187522888183594, -0.06169898808002472, -0.12329656630754471, 0.07225282490253448, -0.13249516487121582, -0.0850755125284195, 0.01029069721698761, -0.11032437533140182, 0.0918939858675003, 0.1776878386735916, -0.15087713301181793, 0.023150354623794556, -0.18569301068782806, 0.13908134400844574, -0.17199961841106415, -0.15812721848487854, -0.13954709470272064, -0.029814332723617554, -0.11494601517915726, 0.01185917854309082, -0.00011774897575378418, 0.1745889037847519, -0.16037756204605103, 0.0023724883794784546, 0.17267252504825592, -0.04952286183834076, 0.04820182919502258, 0.0628674179315567, 0.08602355420589447, -0.044989556074142456, 0.1561724990606308, 0.10951803624629974, 0.17372940480709076, -0.043755948543548584, -0.00814884901046753, 0.11997897922992706, 0.14767499268054962, -0.14021676778793335, 0.10525251924991608, -0.0030406564474105835, -0.15403519570827484, -0.022109583020210266, 0.1715686172246933, 0.1495855301618576, -0.17185965180397034, -0.1735382229089737, 0.08871860802173615, -0.17176151275634766, 0.11637578904628754, -0.10720758885145187, 0.05449548363685608, 0.0684562474489212, -0.02800832688808441, 0.08860050141811371, 0.0894959419965744, -0.06798890978097916, -0.06028643250465393, -0.05089937150478363, 0.06981195509433746, 0.011601462960243225, -0.18609344959259033, -0.07200615853071213, 0.1103973239660263, 0.12002919614315033, -0.011729821562767029, -0.06711996346712112, -0.0015402883291244507, -0.025372862815856934, -0.1740778684616089, 0.06348083913326263, 0.005765363574028015, -0.005117237567901611, 0.06302641332149506, -0.09190314263105392, -0.17106381058692932, -0.05635613203048706, -0.0543484091758728, -0.006241068243980408, -0.18436482548713684, -0.1288120597600937, -0.03437808156013489, 0.1632273942232132, -0.16323141753673553, 0.06480883061885834, 0.052323490381240845, -0.02825334668159485, -0.1471794992685318, -0.17326243221759796, -0.036858513951301575, -0.057062387466430664, -0.11983919143676758, -0.08641012012958527, 0.16353009641170502, 0.04965515434741974, -0.08332829922437668, -0.1191338449716568, -0.09385998547077179, -0.053985849022865295, 0.18033237755298615, 0.13731233775615692, 0.029858723282814026, -0.06973914802074432, 0.1522611826658249, 0.11450941860675812, -0.14093135297298431, -0.0862659364938736, 0.12013940513134003, -0.14554335176944733, 0.1324148029088974, -0.1198461502790451, -0.12958817183971405, -0.046647220849990845, 0.03412871062755585, -0.1724454164505005, 0.043539807200431824, -0.17944170534610748, -0.060570135712623596, 0.1380518227815628, -0.08675073087215424, 0.07105736434459686, 0.15211693942546844, -0.10357102006673813, -0.17878930270671844, 0.10959650576114655, -0.18102391064167023, 0.007438376545906067, -0.08274783194065094, -0.058642372488975525, -0.0711304098367691, -0.08430618792772293, 0.1019352525472641, -0.14141681790351868, -0.18412652611732483, 0.0963829904794693, 0.15992878377437592, -0.08810000121593475, 0.03254649043083191, 0.012419655919075012, 0.12910477817058563, -0.07875408232212067, -0.1549181491136551, 0.15530486404895782, -0.16655553877353668, -0.15839089453220367, 0.10213004052639008, 0.05834466218948364, -0.15112125873565674, -0.15392445027828217, 0.15418089926242828, 0.0568600594997406]}, "bias": {"shape": [7], "values": [0.15285299718379974, -0.0051629990339279175, -0.05075104534626007, 0.0409952849149704, 0.1185646504163742, 0.12730251252651215, -0.05075913667678833]}}, "bn1": {"weight": {"shape": [7], "values": [1.0, 1.0, 1.0, 1.0, 1.0, 1.0, 1.0]}, "bias": {"shape": [7], "values": [0.0, 0.0, 0.0, 0.0, 0.0, 0.0, 0.0]}, "running_mean": {"shape": [7], "values": [0.0, 0.0, 0.0, 0.0, 0.0, 0.0, 0.0]}, "running_var": {"shape": [7], "values": [1.0, 1.0, 1.0, 1.0, 1.0, 1.0, 1.0]}}, "bn2": {"weight": {"shape": [7], "values": [1.0, 1.0, 1.0, 1.0, 1.0, 1.0, 1.0]}, "bias": {"shape": [7], "values": [0.0, 0.0, 0.0, 0.0, 0.0, 0.0, 0.0]}, "running_mean": {"shape": [7], "values": [0.0, 0.0, 0.0, 0.0, 0.0, 0.0, 0.0]}, "running_var": {"shape": [7], "values": [1.0, 1.0, 1.0, 1.0, 1.0, 1.0, 1.0]}}, "f1": {"weight": {"shape": [7], "values": [0.25, 0.25, 0.25, 0.25, 0.25, 0.25, 0.25]}}, "f2": {"weight": {"shape": [7], "values": [0.25, 0.25, 0.25, 0.25, 0.25, 0.25, 0.25]}}}, "block_stack.1": {"conv": {"weight": {"shape": [7, 7, 1], "values": [-0.2570803463459015, -0.23498070240020752, 0.18591222167015076, 0.08762693405151367, 0.2006073296070099, -0.19918009638786316, 0.24388441443443298, -0.334302693605423, 0.11044237017631531, -0.07571730017662048, 0.12489846348762512, -0.244068905711174, 0.10441848635673523, 0.3672815263271332, 0.04124331474304199, 0.051826685667037964, 0.13354751467704773, 0.08280354738235474, 0.11388155817985535, 0.0890340507030487, -0.057958006858825684, 0.3286977708339691, 0.10824558138847351, -0.13461296260356903, 0.2879800498485565, 0.17912253737449646, -0.062279582023620605, 0.33651915192604065, -0.10606130957603455, -0.23821543157100677, -0.03083452582359314, -0.2547159194946289, 0.0022999346256256104, -0.22864241898059845, -0.21223199367523193, 0.08503088355064392, 0.16799584031105042, -0.2706833779811859, -0.2806553542613983, 0.10531237721443176, 0.20481130480766296, 0.3472895920276642, 0.007715851068496704, -0.07293739914894104, -0.15546965599060059, -0.3517940044403076, -0.1952211707830429, -0.1348341405391693, -0.3667672574520111]}, "bias": {"shape": [7], "values": [-0.1364612877368927, 0.14706000685691833, -0.21368926763534546, 0.027561277151107788, -0.33244815468788147, -0.1793013960123062, -0.12520849704742432]}}, "conv1": {"weight": {"shape": [7, 7, 4], "values": [-0.004308268427848816, 0.051597222685813904, -0.14113512635231018, -0.034521445631980896, 0.014865145087242126, 0.1352013498544693, -0.16747625172138214, -0.1697375625371933, 0.025391235947608948, -0.10535185039043427, 0.04187220335006714, -0.15372928977012634, -0.005048468708992004, -0.09672979265451431, -0.09372859448194504, -0.18561172485351562, -0.12011167407035828, -0.07278710603713989, 0.16553370654582977, -0.12827277183532715, -0.1788516640663147, -0.18020197749137878, -0.0997537150979042, 0.1495143324136734, -0.06366050243377686, 0.18604503571987152, 0.11135868728160858, 0.014045923948287964, 0.09451504051685333, -0.11360097676515579, -0.1642337292432785, -0.16656407713890076, -0.11207947134971619, -0.1136736273765564, 0.025547444820404053, -0.12295586615800858, 0.1808251291513443, 0.0023288577795028687, -0.054939717054367065, -0.10943154990673065, 0.13873346149921417, 0.17225255072116852, 0.05451801419258118, 0.06022551655769348, 0.14766718447208405, 0.15956829488277435, -0.0165623277425766, 0.12740971148014069, 0.05381987988948822, 0.12214525043964386, 0.12346984446048737, -0.024211332201957703, 0.011052832007408142, -0.13291050493717194, 0.15072210133075714, -0.11429417878389359, -0.006060391664505005, 0.1136302500963211, 0.04896356165409088, 0.13696657121181488, -0.06631141901016235, -0.025077641010284424, -0.10264778882265091, -0.16325567662715912, 0.11830611526966095, -0.12870176136493683, 0.16486100852489471, 0.0843430608510971, 0.08584292232990265, 0.15299160778522491, 0.07078959047794342, -0.1341061145067215, 0.00264875590801239, -0.09636492282152176, -0.1410604566335678, 0.1575482040643692, -0.06681142002344131, 0.02084559202194214, -0.18168433010578156, -0.1739017814397812, 0.06119166314601898, 0.09575231373310089, 0.16352812945842743, -0.09511089324951172, 0.18111281096935272, -0.10341852903366089, 0.1117209941148758, 0.04534415900707245, 0.0156356543302536, 0.16334225237369537, -0.013644933700561523, -0.0023715049028396606, 0.18182013928890228, 0.14344553649425507, 0.021736174821853638, -0.1290828287601471, -0.1832202523946762, 0.0923939198255539, 0.09271477162837982, 0.16742576658725739, 0.11675645411014557, -0.03800024092197418, -0.00915941596031189, -0.1263129860162735, 0.09653504192829132, -0.1410864144563675, -0.007286757230758667, -0.13226750493049622, -0.05448561906814575, -0.098014697432518, 0.15871329605579376, -0.1529238522052765, 0.02528415620326996, -0.007496342062950134, 0.17620794475078583, 0.07811199128627777, -0.11894972622394562, 0.08349557220935822, 0.18090428411960602, -0.061357349157333374, -0.13022200763225555, -0.08728521317243576, -0.0018685311079025269, 0.010262921452522278, -0.17515359818935394, 0.1037663072347641, 0.06605799496173859, -0.15738128125667572, 0.15875156223773956, -0.03358417749404907, 0.14744408428668976, 0.006402745842933655, 0.050369009375572205, -0.0193101167678833, -0.1369120478630066, 0.12167267501354218, 0.10890714824199677, -0.05770564079284668, 0.11752791702747345, 0.06130854785442352, 0.10224483907222748, -0.050691038370132446, -0.14776551723480225, -0.15809470415115356, 0.023260414600372314, 0.0684102326631546, 0.1598513275384903, -0.0848817229270935, -0.12400233745574951, 0.054086700081825256, -0.0598599910736084, 0.044118672609329224, -0.17525234818458557, 0.034072235226631165, -0.0787045806646347, -0.12314841896295547, 0.15446199476718903, -0.001415535807609558, -0.11838367581367493, 0.016789764165878296, 0.12198452651500702, 0.03997044265270233, 0.030234694480895996, -0.12472200393676758, 0.06884659826755524, -0.014227494597434998, -0.010745048522949219, 0.08152644336223602, 0.05347535014152527, -0.16528019309043884, -0.12283758819103241, 0.0678778737783432, -0.08720792084932327, 0.14251179993152618, -0.011412203311920166, 0.11379195749759674, -0.18373362720012665, 0.047924548387527466, 0.07392822206020355, -0.012589588761329651, -0.15095607936382294, 0.11385409533977509, 0.10796849429607391, -0.1529269963502884, 0.07762469351291656, 0.1458686739206314, 0.0859908014535904, 0.03622777760028839, 0.07920832931995392, -0.129913792014122, 0.1292160302400589, -0.056817829608917236, 0.17367659509181976, -0.01565796136856079, -0.06315396726131439, 0.11186020076274872]}, "bias": {"shape": [7], "values": [0.15145881474018097, 0.1842353492975235, 0.12640886008739471, -0.08948928862810135, 0.15735198557376862, 0.15628285706043243, -0.1109488382935524]}}, "conv2": {"weight": {"shape": [7, 7, 4], "values": [0.1266367882490158, -0.0054581910371780396, -0.16895972192287445, 0.012552917003631592, 0.08316250145435333, 0.06653068959712982, 0.12356008589267731, 0.023891344666481018, 0.1314195841550827, -0.097632996737957, -0.02955828607082367, 0.14631624519824982, -0.1250493824481964, 0.085920050740242, 0.06811116635799408, 0.1768149584531784, 0.14516161382198334, 0.019410476088523865, -0.16744865477085114, 0.10096262395381927, 0.09993918240070343, 0.1376945525407791, 0.14634568989276886, 0.019793331623077393, 0.036351725459098816, -0.14532870054244995, -0.09652804583311081, 0.10804925858974457, 0.07965068519115448, 0.1337295025587082, -0.028049781918525696, 0.09038950502872467, -0.13205087184906006, -0.18428340554237366, 0.09901569783687592, -0.05258989334106445, -0.053512364625930786, 0.03500007092952728, 0.06817267835140228, 0.138358935713768, 0.05329577624797821, 0.12509192526340485, -0.037443503737449646, 0.058793410658836365, 0.1857994943857193, 0.18733705580234528, 0.0008437633514404297, 0.0367678701877594, -0.13082446157932281, 0.1733422428369522, -0.1549942046403885, 0.08620516955852509, 0.013135358691215515, 0.013890758156776428, 0.09596695005893707, 0.03372214734554291, 0.1056441217660904, -0.0024013668298721313, 0.14376269280910492, 0.054584354162216187, -0.05539396405220032, -0.15204212069511414, -0.13098862767219543, 0.12075372040271759, 0.06607429683208466, 0.18141759932041168, 0.1510411947965622, 0.024243324995040894, -0.15700124204158783, -0.18701352179050446, -0.0275537371635437, 0.05388748645782471, -0.1015942171216011, -0.15375037491321564, 0.1489381045103073, 0.12430460751056671, -0.09187750518321991, -0.05586683750152588, -0.11896287649869919, 0.15468476712703705, -0.033429160714149475, 0.1505253165960312, -0.13916338980197906, -0.16311906278133392, -0.023383527994155884, -0.08708585798740387, 0.0493721067905426, -0.12895360589027405, 0.05252732336521149, 0.1841517835855484, 0.09443803131580353, -0.1675579845905304, 0.15533514320850372, 0.09827034175395966, -0.16121122241020203, 0.0310937762260437, -0.03594346344470978, -0.06449330598115921, 0.0711384266614914, 0.10275702178478241, -0.08407130837440491, 0.1744784563779831, 0.0021175891160964966, 0.048833414912223816, -0.118590347468853, 0.015741482377052307, -0.06034232676029205, -0.06928423047065735, -0.1700560748577118, 0.1155446320772171, -0.15625321865081787, -0.030955851078033447, -0.04610942304134369, 0.17925171554088593, 0.008619770407676697, 0.1727200299501419, 0.11985571682453156, -0.10981752723455429, -0.04797263443470001, -0.1759912073612213, -0.06728439778089523, -0.1538754403591156, 0.07097865641117096, -0.0012771189212799072, 0.13984520733356476, 0.018919900059700012, 0.10007984936237335, -0.14726769924163818, -0.04930447041988373, -0.018872946500778198, 0.08437769114971161, -0.03185620903968811, 0.06731803715229034, 0.07487361133098602, 0.1867024451494217, -0.03430888056755066, -0.0810861811041832, -0.016913309693336487, -0.0022909194231033325, -0.11917496472597122, -0.17377030849456787, -0.01811814308166504, -0.046071380376815796, -0.004077225923538208, -0.05832286179065704, 0.09253828227519989, -0.017767027020454407, 0.18181703984737396, 0.03746253252029419, -0.1388729214668274, 0.09870056807994843, 0.15971802175045013, -0.17139558494091034, 0.06813283264636993, -0.06470280140638351, 0.15145112574100494, -0.11759071797132492, -0.022253483533859253, 0.1439177542924881, 0.13622798025608063, 0.1286533623933792, 0.08416114747524261, -0.13614435493946075, -0.17809239029884338, -0.02706257998943329, 0.015391156077384949, 0.027808040380477905, 0.17351435124874115, 0.007636308670043945, -0.046146512031555176, -0.04403865337371826, 0.13312368094921112, -0.012470349669456482, 0.022702336311340332, 0.054484620690345764, -0.18507064878940582, -0.01833924651145935, 0.12239058315753937, -0.15722768008708954, -0.18074412643909454, -0.16291768848896027, -0.03765101730823517, 3.191828727722168e-05, -0.12178956717252731, 0.04979550838470459, 0.017929285764694214, -0.04249073565006256, -0.1167401373386383, -0.06368520855903625, -0.009648412466049194, 0.10067029297351837, -0.018443867564201355, 0.06293384730815887, 0.08479325473308563, -0.07356517016887665, 0.0343184769153595]}, "bias": {"shape": [7], "values": [0.054078295826911926, 0.09666456282138824, 0.070897176861763, -0.058263227343559265, -0.11326412856578827, 0.10261030495166779, -0.025914713740348816]}}, "bn1": {"weight": {"shape": [7], "values": [1.0, 1.0, 1.0, 1.0, 1.0, 1.0, 1.0]}, "bias": {"shape": [7], "values": [0.0, 0.0, 0.0, 0.0, 0.0, 0.0, 0.0]}, "running_mean": {"shape": [7], "values": [0.0, 0.0, 0.0, 0.0, 0.0, 0.0, 0.0]}, "running_var": {"shape": [7], "values": [1.0, 1.0, 1.0, 1.0, 1.0, 1.0, 1.0]}}, "bn2": {"weight": {"shape": [7], "values": [1.0, 1.0, 1.0, 1.0, 1.0, 1.0, 1.0]}, "bias": {"shape": [7], "values": [0.0, 0.0, 0.0, 0.0, 0.0, 0.0, 0.0]}, "running_mean": {"shape": [7], "values": [0.0, 0.0, 0.0, 0.0, 0.0, 0.0, 0.0]}, "running_var": {"shape": [7], "values": [1.0, 1.0, 1.0, 1.0, 1.0, 1.0, 1.0]}}, "f1": {"weight": {"shape": [7], "values": [0.25, 0.25, 0.25, 0.25, 0.25, 0.25, 0.25]}}, "f2": {"weight": {"shape": [7], "values": [0.25, 0.25, 0.25, 0.25, 0.25, 0.25, 0.25]}}}, "block_stack.2": {"conv": {"weight": {"shape": [7, 7, 1], "values": [0.26110926270484924, 0.013573020696640015, -0.13615047931671143, -0.06976187229156494, 0.10823670029640198, -0.2713885009288788, -0.1837589293718338, -0.31344959139823914, -0.1442432850599289, 0.22908112406730652, -0.2675684690475464, -0.1445702612400055, 0.0032541751861572266, 0.2603270709514618, 0.28980764746665955, -0.24348339438438416, -0.35018235445022583, 0.1595195233821869, 0.26071086525917053, 0.1377120316028595, 0.22343692183494568, -0.04750654101371765, -0.1771152913570404, -0.3391067385673523, -0.2525120973587036, 0.018729954957962036, 0.31703510880470276, -0.2517959773540497, 0.058140456676483154, -0.29896438121795654, -0.0793287456035614, 0.09517967700958252, 0.15781095623970032, -0.30585426092147827, -0.32360997796058655, 0.2501361072063446, -0.1558638960123062, 0.29297974705696106, -0.3053240478038788, -0.2924349904060364, 0.1596299111843109, 0.3606356680393219, -0.0622556209564209, -0.15550187230110168, -0.14542584121227264, 0.23879262804985046, -0.03298786282539368, -0.3158217966556549, -0.23918063938617706]}, "bias": {"shape": [7], "values": [-0.2525806427001953, -0.30654919147491455, -0.00017571449279785156, -0.19306974112987518, 0.30228033661842346, 0.1887287199497223, -0.16435770690441132]}}, "conv1": {"weight": {"shape": [7, 7, 4], "values": [0.15552131831645966, -0.1083051934838295, -0.0849282443523407, 0.1312503069639206, 0.13674385845661163, -0.07238394021987915, 0.06620998680591583, 0.1411815732717514, -0.10315314680337906, -0.0741531178355217, -0.1505802869796753, -0.032613202929496765, 0.012483566999435425, 0.14377255737781525, 0.09696249663829803, 0.13098777830600739, 0.10159139335155487, -0.0328780859708786, -0.1279715597629547, -0.14797551929950714, 0.12306924164295197, 0.02732168138027191, -0.12811508774757385, 0.1797976940870285, 0.017646417021751404, -0.10770595818758011, -0.16891644895076752, -0.1005641520023346, -0.08637423068284988, 0.09172864258289337, -0.17488792538642883, 0.16080768406391144, 0.09618134796619415, 0.06375093758106232, -0.08766935020685196, -0.0096978098154068, -0.10317312926054001, -0.1216898113489151, 0.008947670459747314, 0.15965299308300018, 0.10409824550151825, -0.12104329466819763, -0.09902291744947433, -0.063152015209198, -0.11600802838802338, -0.03464031219482422, 0.11539019644260406, 0.08175678551197052, 0.17717070877552032, -0.16156847774982452, 0.1756720393896103, 0.11355380713939667, -0.1298748403787613, -0.1667470484972, 0.09702228009700775, -0.07130841165781021, 0.13353417813777924, -0.11413544416427612, -0.08053862303495407, -8.498132228851318e-05, -0.16404379904270172, -0.07824459671974182, 0.04731692373752594, 0.029713943600654602, -0.03313717246055603, 0.038322851061820984, -0.07675015181303024, -0.020220473408699036, 0.11326731741428375, 0.1278514415025711, 0.11401300132274628, -0.08717513829469681, -0.14962948858737946, 0.16873104870319366, 0.1725936084985733, -0.05889934301376343, 0.029615283012390137, -0.041498661041259766, -0.06306840479373932, 0.09172235429286957, 0.18129174411296844, -0.10276909917593002, 0.1258324533700943, -0.17601725459098816, -0.09746479988098145, -0.17353427410125732, -0.051282450556755066, 0.176424041390419, -0.04513289034366608, 0.14220498502254486, 0.12203614413738251, -0.10062281787395477, -0.05169945955276489, 0.0701756626367569, 0.0972897857427597, -0.13285984098911285, -0.1428816318511963, 0.08363024890422821, 0.09053339064121246, -0.035489633679389954, -0.027806103229522705, 0.014647632837295532, -0.13190479576587677, -0.15999650955200195, 0.12357912957668304, 0.11030934751033783, -0.17683304846286774, 0.14731155335903168, -0.02812357246875763, -0.14477133750915527, -0.09141537547111511, 0.04787851870059967, 0.029863625764846802, -0.06502772867679596, -0.005372971296310425, -0.18843616545200348, -0.055263638496398926, 0.09151090681552887, -0.007313251495361328, 0.18482254445552826, 0.08253560960292816, -0.1055615246295929, -0.07619286328554153, 0.10095308721065521, 0.06336568295955658, 0.09991268813610077, -0.11292394995689392, 0.06378839910030365, 0.1577882319688797, 0.03664135932922363, 0.044359058141708374, 0.10809914767742157, 0.05786426365375519, 0.14620669186115265, 0.02926701307296753, -0.06609242409467697, 0.036812588572502136, -0.14427128434181213, 0.03650009632110596, -0.07027437537908554, 0.03506861627101898, -0.12072683125734329, 0.17466424405574799, 0.10038991272449493, 0.008593499660491943, 0.008283406496047974, 0.09842763841152191, 0.06244398653507233, 0.0989626795053482, -0.10291429609060287, 0.12383516132831573, -0.007952407002449036, 0.03357541561126709, -0.11448238044977188, -0.15260489284992218, 0.054167911410331726, 0.14413578808307648, 0.12223701179027557, 0.08441247045993805, -0.16250593960285187, 0.05626572668552399, -0.17000484466552734, 0.12193749845027924, -0.020927324891090393, -0.09607378393411636, 0.07816623151302338, 0.09441079199314117, 0.09575407207012177, 0.08413030207157135, -0.07798434793949127, -0.07719457149505615, 0.07623998820781708, 0.08961029350757599, 0.10766838490962982, -0.1515815109014511, 0.12160937488079071, 0.16921408474445343, 0.13407324254512787, -0.0236242413520813, -0.051608845591545105, 0.08054791390895844, 0.14961953461170197, 0.12255214154720306, -0.1865149438381195, 0.017527058720588684, -0.07838950306177139, -0.01263532042503357, -0.021419361233711243, 0.1199200302362442, -0.07009432464838028, -0.1717967540025711, -0.07757338881492615, 0.026914775371551514, -0.1319723278284073, 0.043756917119026184, -0.01179976761341095]}, "bias": {"shape": [7], "values": [-0.044576093554496765, -0.0371692031621933, 0.054010942578315735, -0.07190833985805511, 0.1546695977449417, 0.16890384256839752, 0.16237659752368927]}}, "conv2": {"weight": {"shape": [7, 7, 4], "values": [0.1266755908727646, -0.042263031005859375, -0.11008072644472122, -0.038092225790023804, -0.1532640904188156, 0.15202589333057404, -0.11178207397460938, -0.01948942244052887, -0.12379169464111328, -0.008803233504295349, 0.022483140230178833, -0.15948264300823212, 0.07691462337970734, -0.11263342201709747, 0.0670156329870224, -0.05190303921699524, -0.18541069328784943, 0.18082283437252045, -0.06892235577106476, 0.04533672332763672, -0.1349537968635559, -0.18444377183914185, 0.12691719830036163, -0.05999539792537689, -0.09958641976118088, 0.07298712432384491, -0.07605219632387161, 0.08512179553508759, -0.0012682676315307617, 0.1278177946805954, -0.11927483230829239, -0.11793454736471176, 0.08622927963733673, -0.08364052325487137, -0.10695621371269226, 0.14738814532756805, -0.016550466418266296, 0.028237104415893555, -0.06172274053096771, 0.1420888751745224, 0.0483715683221817, -0.13366959989070892, 0.0217418372631073, 0.004376351833343506, -0.09702619910240173, 0.02501140534877777, 0.07969199120998383, 0.11496259272098541, -0.16969096660614014, 0.11152099072933197, -0.0765879675745964, -0.17112939059734344, -0.07041193544864655, -0.18632405996322632, -0.11422472447156906, -0.026654347777366638, -0.1387203335762024, 0.1753990799188614, -0.09070007503032684, -0.09091503918170929, 0.18160732090473175, -0.04011765122413635, -0.18354156613349915, -0.02917000651359558, -0.14745962619781494, -0.18496732413768768, -0.17139403522014618, -0.07892545312643051, 0.06749628484249115, -0.1545974165201187, -0.061770111322402954, -0.14331302046775818, 0.123003289103508, -0.15803079307079315, 0.15470214188098907, 0.028543785214424133, 0.06546972692012787, -0.1582213193178177, -0.03091384470462799, 0.024226829409599304, 0.10933993756771088, -0.15993577241897583, -0.007345914840698242, -0.050580963492393494, -0.14517253637313843, -0.14891356229782104, 0.14659981429576874, -0.1269298791885376, -0.049237459897994995, 0.05536302924156189, -0.12127483636140823, -0.017302468419075012, -0.061725735664367676, -0.10419940948486328, 0.12974070012569427, -0.049003809690475464, 0.1380586177110672, -0.06383396685123444, -0.05217324197292328, -0.14690406620502472, -0.15953603386878967, 0.06543619930744171, 0.019252106547355652, 0.03362379968166351, -0.0015691518783569336, -0.1013997346162796, 0.1358565241098404, -0.10802971571683884, -0.03378479182720184, -0.061962008476257324, -0.045797526836395264, -0.05681295692920685, 0.11443708837032318, 0.11415453255176544, -0.013845846056938171, 0.035140618681907654, -0.16928647458553314, 0.11377166211605072, 0.1690002828836441, -0.07632177323102951, 0.18409951031208038, 0.1540958434343338, 0.1363779455423355, -0.04721428453922272, 0.08414976298809052, -0.17746013402938843, -0.16906395554542542, 0.09791551530361176, 0.16007940471172333, 0.043766915798187256, 0.09417866170406342, -0.01914951205253601, -0.06971195340156555, 0.020408466458320618, -0.06726644933223724, 0.06490285694599152, 0.06671090424060822, -0.01848500967025757, 0.12568651139736176, -0.02486443519592285, 0.0007883608341217041, 0.17891906201839447, 0.03909492492675781, -0.1173669844865799, 0.010253995656967163, 0.1273982971906662, 0.09591911733150482, 0.16408930718898773, -0.08149563521146774, 0.09865622222423553, -0.017476439476013184, -0.09920203685760498, -0.07037388533353806, -0.09608370065689087, 0.04174865782260895, 0.07785017788410187, 0.11013247072696686, -0.10926366597414017, 0.14635147154331207, -0.08276563137769699, -0.0964093878865242, -0.022593989968299866, 0.12656159698963165, 0.17176984250545502, -0.0384368896484375, 0.029099419713020325, -0.14080487191677094, 0.10433705151081085, -0.071817547082901, -0.07410283386707306, -0.1609150618314743, -0.0692017525434494, 0.08344386518001556, -0.00555911660194397, -0.01439085602760315, 0.052272528409957886, 0.09107284247875214, -0.1227143406867981, 0.15569080412387848, -0.07666458934545517, -0.04137788712978363, -0.03827139735221863, -0.14593034982681274, -0.10033541917800903, -0.14320625364780426, -0.1686577945947647, 0.05659979581832886, -0.1364782750606537, 0.1608472615480423, 0.06275798380374908, -0.04292331635951996, -0.1165819838643074, -0.1350908726453781, -0.04462948441505432, 0.1815095990896225, -0.15768128633499146]}, "bias": {"shape": [7], "values": [-0.16653777658939362, 0.16506783664226532, 0.050770536065101624, 0.15507854521274567, -0.008983850479125977, -0.06468436866998672, -0.030081704258918762]}}, "bn1": {"weight": {"shape": [7], "values": [1.0, 1.0, 1.0, 1.0, 1.0, 1.0, 1.0]}, "bias": {"shape": [7], "values": [0.0, 0.0, 0.0, 0.0, 0.0, 0.0, 0.0]}, "running_mean": {"shape": [7], "values": [0.0, 0.0, 0.0, 0.0, 0.0, 0.0, 0.0]}, "running_var": {"shape": [7], "values": [1.0, 1.0, 1.0, 1.0, 1.0, 1.0, 1.0]}}, "bn2": {"weight": {"shape": [7], "values": [1.0, 1.0, 1.0, 1.0, 1.0, 1.0, 1.0]}, "bias": {"shape": [7], "values": [0.0, 0.0, 0.0, 0.0, 0.0, 0.0, 0.0]}, "running_mean": {"shape": [7], "values": [0.0, 0.0, 0.0, 0.0, 0.0, 0.0, 0.0]}, "running_var": {"shape": [7], "values": [1.0, 1.0, 1.0, 1.0, 1.0, 1.0, 1.0]}}, "f1": {"weight": {"shape": [7], "values": [0.25, 0.25, 0.25, 0.25, 0.25, 0.25, 0.25]}}, "f2": {"weight": {"shape": [7], "values": [0.25, 0.25, 0.25, 0.25, 0.25, 0.25, 0.25]}}}, "block_stack.3": {"conv": {"weight": {"shape": [7, 7, 1], "values": [0.24110957980155945, 0.04274711012840271, 0.26116517186164856, 0.22342738509178162, -0.16243062913417816, -0.3681851029396057, -0.21837715804576874, 0.36694344878196716, 0.2705606520175934, 0.2855249345302582, 0.25154587626457214, 0.1705053746700287, -0.15974338352680206, -0.3742685914039612, 0.2344140112400055, -0.2439056634902954, -0.026768922805786133, 0.0797499418258667, -0.10349541902542114, -0.27045243978500366, 0.1992185413837433, 0.3263656795024872, 0.2717650234699249, 0.10669633746147156, -0.3132838010787964, 0.13006237149238586, -0.10710537433624268, 0.2718185484409332, 0.03435024619102478, -0.30395984649658203, 0.36274638772010803, 0.3443244993686676, 0.1190689206123352, -0.3419489860534668, 0.23823973536491394, -0.18146950006484985, -0.34939128160476685, 0.0010605156421661377, 0.027510255575180054, -0.36083000898361206, -0.25021669268608093, 0.1617700159549713, -0.11472448706626892, -0.10065677762031555, -0.3307512104511261, -0.2980061173439026, -0.3133820593357086, -0.047027587890625, 0.21169528365135193]}, "bias": {"shape": [7], "values": [0.13005653023719788, 0.136703759431839, -0.33976632356643677, 0.30166760087013245, -0.26222750544548035, -0.19339978694915771, -0.27594929933547974]}}, "conv1": {"weight": {"shape": [7, 7, 4], "values": [-0.08543892204761505, -0.007071927189826965, 0.11423705518245697, -0.12164594978094101, -0.1429891586303711, -0.15014970302581787, -0.053470954298973083, -0.1467820554971695, 0.04490429162979126, 0.005251497030258179, -0.07723473757505417, -0.05301380157470703, 0.09802474081516266, 0.14878208935260773, 0.14857567846775055, -0.14040377736091614, -0.03832294046878815, 0.07385189831256866, -0.1731061339378357, -0.049015507102012634, -0.00930863618850708, 0.038724467158317566, -0.1857791692018509, -0.008603990077972412, 0.11662714183330536, 0.1732657104730606, -0.06017281115055084, 0.05984681844711304, 0.14678777754306793, -0.01350228488445282, -0.029674485325813293, -0.08627693355083466, -0.026426240801811218, 0.1166764348745346, 0.07458464801311493, -0.1648000031709671, -0.09867185354232788, 0.035585835576057434, 0.15309633314609528, -0.025446325540542603, -0.04667873680591583, 0.13328216969966888, -0.12985706329345703, 0.0958738774061203, -0.14711102843284607, 0.015962883830070496, -0.14175215363502502, -0.13123326003551483, -0.13917627930641174, 0.037785544991493225, 0.13282491266727448, 0.16274337470531464, -0.181332528591156, 0.14271758496761322, 0.14850984513759613, 0.12371222674846649, 0.0603996217250824, 0.11872713267803192, 0.16284959018230438, -0.0350327342748642, 0.13249625265598297, 0.12881655991077423, -0.05006439983844757, 0.06161867082118988, 0.08901022374629974, -0.09450995177030563, 0.07025636732578278, 0.06419585645198822, -0.04691459238529205, -0.1318342685699463, -0.1560719907283783, -0.15525884926319122, 0.1730525642633438, 0.10544441640377045, -0.13292279839515686, 0.1419721096754074, -0.008113905787467957, 0.18555115163326263, -0.17868752777576447, 0.15326635539531708, -0.021410778164863586, 0.13480223715305328, -0.11698663979768753, -0.07905194908380508, 0.11011888086795807, 0.13640432059764862, 0.005629226565361023, 0.035091742873191833, -0.17591500282287598, -0.122093565762043, 0.018277734518051147, 0.12071587145328522, -0.04679019749164581, -0.03438618779182434, 0.014112040400505066, -0.029156193137168884, 0.05340902507305145, 0.13214914500713348, -0.149777352809906, 0.04352216422557831, -0.11253378540277481, -0.0662570595741272, -0.05157998204231262, -0.029195114970207214, 0.1533244103193283, -0.023914113640785217, 0.1434050351381302, 0.15903328359127045, -0.04120016098022461, -0.11946217715740204, -0.13762447237968445, -0.02831953763961792, -0.05302894115447998, 0.06185247004032135, 0.027174770832061768, -0.01375378668308258, 0.10036347806453705, 0.06787656247615814, -0.16293597221374512, -0.0683431476354599, 0.004076406359672546, -0.053686872124671936, -0.11771437525749207, -0.1813770830631256, -0.06037317216396332, -0.128143310546875, -0.12252703309059143, -0.035771846771240234, 0.03393121063709259, 0.13118736445903778, 0.08128209412097931, 0.12802280485630035, 0.07376666367053986, -0.14897213876247406, 0.13939358294010162, -0.06575280427932739, 0.10464902222156525, -0.07909274846315384, -0.16766604781150818, -0.09077198803424835, -0.1094009131193161, -0.005832046270370483, 0.12457014620304108, 0.049584731459617615, -0.08052163571119308, 0.055811524391174316, 0.04899844527244568, 0.04548478126525879, 0.04848818480968475, -0.010964363813400269, -0.07231029123067856, -0.0800609290599823, 0.03237864375114441, -0.09381819516420364, -0.10684120655059814, -0.17907992005348206, -0.16427583992481232, 0.12525565922260284, 0.1458325833082199, -0.0018485933542251587, -0.02500814199447632, -0.07077552378177643, 0.17304657399654388, -0.18894384801387787, 0.16045449674129486, -0.0808086022734642, -0.014305338263511658, -0.13921824097633362, 0.10159917175769806, -0.08900350332260132, 0.14973948895931244, 0.09888486564159393, -0.09616180509328842, 0.16666312515735626, 0.063301220536232, 0.07898394763469696, -0.06819561123847961, 0.13036520779132843, -0.16294419765472412, 0.18787731230258942, -0.13666759431362152, -0.15676940977573395, 0.1520206779241562, 0.06975831091403961, -0.1461915671825409, 0.0675029307603836, -0.001604810357093811, 0.15224690735340118, -0.05122712254524231, 0.02200278639793396, -0.003314271569252014, 0.14097227156162262, 0.001585051417350769, -0.08773204684257507, -0.013264074921607971, 0.16361023485660553]}, "bias": {"shape": [7], "values": [-0.14456146955490112, 0.04595485329627991, 0.16851864755153656, 0.12947745621204376, -0.12992757558822632, 0.08047468960285187, -0.1305815875530243]}}, "conv2": {"weight": {"shape": [7, 7, 4], "values": [-0.02864357829093933, -0.04753534495830536, -0.08592623472213745, 0.1591814011335373, 0.1605701595544815, -0.037411585450172424, 0.04095490276813507, -0.09182863682508469, -0.10607729107141495, 0.08124817907810211, -0.015113860368728638, -0.05436442792415619, 0.013833433389663696, -0.13723517954349518, -0.15004462003707886, 0.1609513908624649, 0.04834115505218506, 0.11845619976520538, -0.10513851046562195, 0.10862208902835846, -0.15086457133293152, 0.12770606577396393, 0.1391599029302597, 0.03452366590499878, 0.022632896900177002, -0.15960724651813507, -0.014335677027702332, -0.03294673562049866, 0.07744352519512177, 0.02955043315887451, -0.03268013894557953, 0.13000251352787018, -0.08709640800952911, -0.03881430625915527, -0.12081311643123627, 0.0518663227558136, -0.17999683320522308, -0.15784232318401337, -0.09289035946130753, 0.033338531851768494, 0.13712362945079803, 0.010931074619293213, 0.046505749225616455, 0.024696558713912964, 0.08583392202854156, -0.13724912703037262, -0.07187914103269577, 0.17745573818683624, 0.11815087497234344, 0.07391969859600067, -0.011509507894515991, -0.15621116757392883, -0.11083132773637772, -0.05721285939216614, 0.049135103821754456, -0.033497199416160583, 0.021015241742134094, 0.08147095143795013, 0.12817956507205963, 0.016730040311813354, -0.14039470255374908, 0.017387449741363525, 0.0015160292387008667, 0.14497433602809906, -0.03515152633190155, 0.13317395746707916, 0.1271413415670395, 0.028151467442512512, -0.035069674253463745, -0.027910351753234863, -0.002839028835296631, -0.025118887424468994, -0.1690051257610321, -0.08360756188631058, -0.044259026646614075, 0.009151950478553772, -0.05326718091964722, -0.11162570863962173, 0.11578010022640228, 0.17804180085659027, 0.1126527339220047, 0.013513460755348206, -0.0932377278804779, 0.1045805960893631, -0.024095848202705383, -0.08827308565378189, 0.08198423683643341, 0.045813485980033875, -0.13038837909698486, 0.09693391621112823, -0.11746620386838913, -0.027903378009796143, 0.15729115903377533, 0.17994289100170135, 0.17547805607318878, 0.15084053575992584, 0.020739346742630005, -0.08185984939336777, -0.10304699093103409, -0.1484306901693344, 0.051975712180137634, -0.0688757449388504, 0.06186096370220184, -0.01436305046081543, -0.11853191256523132, -0.04202134907245636, -0.06221689283847809, 0.05211468040943146, -0.17793606221675873, 0.1400851458311081, -0.028731808066368103, 0.0925394743680954, -0.13337817788124084, -0.04321137070655823, 0.188505157828331, -0.03530435264110565, -0.05684041976928711, -0.14211219549179077, -0.15907052159309387, -0.005078762769699097, -0.11215374618768692, -0.10133327543735504, -0.029971808195114136, 0.0036920905113220215, 0.11077027022838593, 0.04421672224998474, -0.013975471258163452, 0.022043585777282715, -0.11978424340486526, 0.1593662053346634, -0.0723467692732811, -0.052197352051734924, 0.021664023399353027, 0.08889426290988922, 0.12756146490573883, 0.12182493507862091, -0.012609347701072693, 0.1866457313299179, -0.0011267811059951782, 0.09991894662380219, -0.0761769637465477, -0.08923232555389404, 0.024503186345100403, -0.10404695570468903, 0.0968547910451889, -0.14035038650035858, 0.050314560532569885, -0.11928632110357285, 0.1788703352212906, 0.08881495893001556, -0.10345948487520218, -0.17679519951343536, 0.03914007544517517, -0.18146951496601105, 0.07572509348392487, 0.12360779941082001, -0.05041731894016266, 0.11209584772586823, 0.07251937687397003, 0.018654048442840576, 0.16452600061893463, -0.1687391996383667, 0.12216977775096893, 0.08765958249568939, -0.1646457314491272, 0.04174502193927765, 0.07472343742847443, -0.012919723987579346, 0.14633063971996307, -0.07162995636463165, -0.09698071330785751, -0.10645493119955063, 0.16452445089817047, -0.09717146307229996, -0.0488547682762146, 0.1672162264585495, -0.12134357541799545, -0.10582411289215088, -0.0024856775999069214, 0.17556719481945038, -0.02711750566959381, 0.1578163057565689, -0.13312259316444397, -0.17403756082057953, 0.10872794687747955, -0.10022509843111038, 0.12255407869815826, 0.16179688274860382, 0.12560208141803741, 0.012172788381576538, -0.10508651286363602, 0.14332415163516998, 0.12739263474941254, 0.08189667761325836, 0.14924614131450653, -0.1225658729672432]}, "bias": {"shape": [7], "values": [0.05188170075416565, -0.008569881319999695, -0.13074806332588196, 0.09812147915363312, -0.08858201652765274, 0.14306266605854034, 0.0004104524850845337]}}, "bn1": {"weight": {"shape": [7], "values": [1.0, 1.0, 1.0, 1.0, 1.0, 1.0, 1.0]}, "bias": {"shape": [7], "values": [0.0, 0.0, 0.0, 0.0, 0.0, 0.0, 0.0]}, "running_mean": {"shape": [7], "values": [0.0, 0.0, 0.0, 0.0, 0.0, 0.0, 0.0]}, "running_var": {"shape": [7], "values": [1.0, 1.0, 1.0, 1.0, 1.0, 1.0, 1.0]}}, "bn2": {"weight": {"shape": [7], "values": [1.0, 1.0, 1.0, 1.0, 1.0, 1.0, 1.0]}, "bias": {"shape": [7], "values": [0.0, 0.0, 0.0, 0.0, 0.0, 0.0, 0.0]}, "running_mean": {"shape": [7], "values": [0.0, 0.0, 0.0, 0.0, 0.0, 0.0, 0.0]}, "running_var": {"shape": [7], "values": [1.0, 1.0, 1.0, 1.0, 1.0, 1.0, 1.0]}}, "f1": {"weight": {"shape": [7], "values": [0.25, 0.25, 0.25, 0.25, 0.25, 0.25, 0.25]}}, "f2": {"weight": {"shape": [7], "values": [0.25, 0.25, 0.25, 0.25, 0.25, 0.25, 0.25]}}}, "block_stack.4": {"conv": {"weight": {"shape": [7, 7, 1], "values": [-0.09175914525985718, 0.1607678234577179, -0.0010817646980285645, -0.17565608024597168, -0.23780739307403564, 0.192647784948349, -0.3757420480251312, 0.3214309513568878, 0.2850840389728546, -0.03806772828102112, 0.26429811120033264, -0.06269550323486328, 0.07448640465736389, 0.13560882210731506, 0.0004399716854095459, 0.2687501013278961, -0.3677966594696045, 0.1343066394329071, -0.30840635299682617, -0.05512705445289612, -0.35022664070129395, 0.20577779412269592, 0.25356897711753845, 0.3306765854358673, 0.2588784992694855, -0.15211209654808044, 0.35712793469429016, -0.07758393883705139, -0.3177248239517212, 0.16015926003456116, -0.1569463014602661, -0.19205732643604279, -0.363141804933548, -0.2820665240287781, 0.3619574010372162, 0.12992003560066223, -0.2908901274204254, 0.22079423069953918, 0.20233824849128723, 0.350503534078598, -0.3160606324672699, 0.29464492201805115, -0.173247292637825, -0.04832714796066284, 0.09484449028968811, -0.3635132908821106, -0.1452520191669464, 0.2770301401615143, -0.31935548782348633]}, "bias": {"shape": [7], "values": [-0.2843371629714966, 0.3477459251880646, -0.24943310022354126, 0.006718486547470093, 0.1305508315563202, -0.007300645112991333, 0.3078743517398834]}}, "conv1": {"weight": {"shape": [7, 7, 4], "values": [-0.09939274191856384, -0.15083332359790802, -0.10009017586708069, -0.10291186720132828, -0.14546619355678558, -0.013723835349082947, -0.1778748631477356, -0.15582308173179626, 0.06912560760974884, -0.0968746691942215, 0.1374051421880722, 0.021979957818984985, 0.033237144351005554, 0.09429134428501129, -0.08803784847259521, 0.01681286096572876, 0.028417006134986877, 0.016275554895401, -0.06196112930774689, 0.16306172311306, -0.11050362884998322, -0.07278703898191452, 0.008683651685714722, -0.11435065418481827, -0.020271658897399902, 0.07452090084552765, 0.169528529047966, -0.06729156523942947, 0.06493847072124481, -0.01526390016078949, -0.039566993713378906, -0.05103763937950134, 0.09343929588794708, -0.0021527260541915894, 0.08770938217639923, -0.07034928351640701, 0.07339806854724884, 0.0699588805437088, 0.08709551393985748, -0.07694587856531143, 0.12647928297519684, -0.13247385621070862, -0.08513318747282028, -0.15722085535526276, -0.1376587599515915, -0.031215563416481018, -0.0701468214392662, -0.01810586452484131, -0.07659955322742462, -0.09709443897008896, -0.14344879984855652, -0.062398865818977356, 0.0929829329252243, 0.11103008687496185, -0.12667931616306305, -0.05246548354625702, -0.07492911070585251, -0.13483281433582306, -0.06810984015464783, -0.12934428453445435, 0.13399000465869904, 0.0794527679681778, 0.10750727355480194, 0.03384679555892944, 0.08562822639942169, 0.1293713003396988, -0.003980100154876709, -0.1736787110567093, 0.019523218274116516, 0.09269063174724579, 0.0831478089094162, 0.1344190388917923, 0.15028132498264313, -0.046724334359169006, -0.10666496306657791, 0.12068291008472443, -0.005515009164810181, 0.13101346790790558, -0.01502816379070282, -0.11117900907993317, -0.14033961296081543, 0.13692541420459747, -0.05917547643184662, -0.0850406363606453, 0.168528214097023, -0.05262608826160431, -0.07589961588382721, -0.11251050978899002, -0.18688039481639862, 0.03271210193634033, 0.01364542543888092, 0.1356467753648758, -0.03522114455699921, -0.05425255000591278, 0.17187653481960297, -0.02886544167995453, -0.02674485743045807, 0.1662134975194931, 0.055174216628074646, 0.05625517666339874, -0.0481247752904892, -0.09912008047103882, -0.03745122253894806, 0.16213162243366241, -0.03688938915729523, -0.09401680529117584, -0.08286017924547195, -0.07237069308757782, -0.09443660080432892, -0.08878635615110397, -0.18374088406562805, -0.17928898334503174, -0.07331006228923798, -0.06903301179409027, 0.1315821260213852, 0.13258515298366547, -0.07824867963790894, -0.02047501504421234, -0.0926550030708313, -0.11559384316205978, 0.16031624376773834, -0.009283110499382019, -0.15295150876045227, -0.1502562314271927, 0.1525951474905014, -0.03877401351928711, -0.18256913125514984, -0.02141435444355011, -0.09985795617103577, -0.027800321578979492, -0.1703874170780182, -0.013042256236076355, 0.0027941763401031494, -0.05765470862388611, 0.04452216625213623, 0.030098870396614075, 0.06286291778087616, -0.05976530909538269, -0.16361534595489502, 0.13217101991176605, 0.026391416788101196, 0.02925807237625122, 0.08185429871082306, -0.12481623888015747, 0.07905681431293488, 0.12718133628368378, -0.10597634315490723, -0.1043083593249321, 0.10183195769786835, -0.04269126057624817, -0.07000752538442612, 0.03305591642856598, 0.03545176982879639, 0.15953059494495392, 0.18778575956821442, 0.01620456576347351, 0.004453063011169434, 0.09419764578342438, -0.03896398842334747, 0.06448747217655182, -0.15897762775421143, 0.02457420527935028, -0.13812406361103058, 0.11579950153827667, 0.07339926064014435, 0.0063436925411224365, -0.06373925507068634, 0.00970795750617981, 0.0348631888628006, 0.05221055448055267, -0.08631018549203873, 0.10874275863170624, -0.01549983024597168, -0.16861777007579803, 0.10926206409931183, -0.00935731828212738, 0.12092934548854828, 0.024728909134864807, -0.03148874640464783, -0.08245473355054855, -0.019473925232887268, -0.11944188177585602, -0.1281099021434784, -0.05916348099708557, 0.09416110813617706, 0.13529588282108307, -0.06085990369319916, 0.08723472058773041, 0.07703755795955658, -0.16006319224834442, -0.0009157657623291016, -0.16298626363277435, 0.023080900311470032, -0.011697009205818176, 0.0563398152589798, 0.059661298990249634]}, "bias": {"shape": [7], "values": [-0.03465496003627777, 0.07300131022930145, 0.18334226310253143, -0.05118551850318909, 0.11651258170604706, -0.061157405376434326, 0.16221372783184052]}}, "conv2": {"weight": {"shape": [7, 7, 4], "values": [0.10854031145572662, -0.1359526515007019, 0.014876142144203186, -0.017580494284629822, 0.16832397878170013, 0.09730221331119537, -0.06111457943916321, 0.07360236346721649, 0.1358068734407425, -0.05370903015136719, 0.08714748919010162, 0.06926639378070831, 0.05635811388492584, -0.07827483117580414, 0.07362116873264313, -0.14491863548755646, -0.09186331182718277, 0.08035115897655487, -0.02952079474925995, -0.11904682219028473, -0.0669148862361908, 0.18606550991535187, 0.1172543317079544, 0.06475253403186798, -0.18068039417266846, -0.03305836021900177, 0.11853520572185516, 0.14737160503864288, 0.15056167542934418, 0.17094315588474274, 0.1820880025625229, -0.11994994431734085, -0.1362224966287613, -0.11578010767698288, -0.1806042492389679, -0.1182720884680748, 0.08435110747814178, -0.14633135497570038, 0.08538974821567535, 0.08495815098285675, 0.06703154742717743, -0.10786974430084229, -0.1372596174478531, 0.0513232946395874, 0.1255711168050766, 0.08852355182170868, -0.04169262945652008, -0.048736199736595154, 0.06905151903629303, 0.06744463741779327, -0.02139471471309662, -0.03114551305770874, -0.0665869414806366, 0.042441681027412415, -0.03324456512928009, -0.03687715530395508, 0.11033596098423004, -0.034737229347229004, 0.04864548146724701, 0.003322318196296692, 0.08889006078243256, 0.09968216717243195, -0.08415905386209488, -0.18765224516391754, 0.025822073221206665, -0.18336991965770721, 0.15898744761943817, -0.06492078304290771, -0.09070248901844025, 0.1383654624223709, 0.07720412313938141, 0.13720639050006866, -0.005644410848617554, -0.11015259474515915, -0.039694204926490784, 0.13455919921398163, -0.06760991364717484, 0.10513727366924286, -0.0010244548320770264, -0.15139877796173096, 0.02483530342578888, -0.1408662497997284, -0.11215275526046753, 0.051506221294403076, 0.07200218737125397, -0.044554755091667175, -0.017469048500061035, 0.12573124468326569, -0.10462936758995056, 0.08789335191249847, -0.15675953030586243, -0.09745489060878754, 0.17531795799732208, -0.08694402128458023, -0.08834799379110336, -0.11664868891239166, -0.07334921509027481, 0.05038131773471832, -0.02605895698070526, -0.1794423609972, 0.12729300558567047, 0.03292623162269592, 0.14906398952007294, -0.04828457534313202, 0.1834457665681839, 0.0900183767080307, 0.12553326785564423, 0.10299591720104218, 0.10285027325153351, 0.03272333741188049, 0.13452215492725372, 0.12014098465442657, 0.01492968201637268, -0.04029066860675812, 0.028586700558662415, -0.060440897941589355, 0.17531944811344147, 0.058132901787757874, 0.1501399427652359, 0.1549789160490036, -0.022888898849487305, -0.03947022557258606, 0.040637627243995667, -0.08691611140966415, 0.07165898382663727, 0.07174982130527496, -0.0019284188747406006, 0.024128228425979614, -0.1711551696062088, -0.05081832408905029, -0.11753398925065994, 0.07516796886920929, -0.0095444917678833, -0.033896416425704956, -0.06308595836162567, 0.12484194338321686, 0.15411411225795746, -0.12346577644348145, 0.12485204637050629, 0.040654659271240234, -0.052425235509872437, 0.17705829441547394, 0.11890093982219696, 0.1413007229566574, -0.1388072967529297, 0.05521005392074585, -0.07363178580999374, -0.03390352427959442, 0.06479935348033905, 0.002967238426208496, -0.1325097233057022, -0.08734410256147385, -0.0389026403427124, 0.07913710176944733, 0.1806037276983261, -0.02533288300037384, -0.08585628122091293, -0.03842698037624359, -0.0029481351375579834, 0.04104676842689514, 0.08861474692821503, -0.06609737873077393, 0.15129496157169342, 0.16497887670993805, -0.025219440460205078, 0.1773466020822525, 0.16552121937274933, -0.12920068204402924, 0.1413486748933792, 0.02416291832923889, 0.11045350134372711, 0.028074219822883606, -0.1408265084028244, -0.1483464241027832, -0.11513660848140717, -0.017574936151504517, 0.06129343807697296, -0.15297047793865204, 0.09681592881679535, 0.11942462623119354, 0.14162112772464752, 0.11134825646877289, 0.07780350744724274, -0.17205175757408142, -0.06382367014884949, -0.15382888913154602, -0.08145167678594589, -0.13699223101139069, -0.02339109778404236, 0.036145880818367004, -0.010235682129859924, 0.05517733097076416, 0.05961456894874573, -0.08440914750099182, 0.12020452320575714, 0.12608520686626434]}, "bias": {"shape": [7], "values": [0.04926155507564545, -0.021113812923431396, 0.12453113496303558, -0.09671670198440552, -0.04451470077037811, -0.017823219299316406, -0.10058587044477463]}}, "bn1": {"weight": {"shape": [7], "values": [1.0, 1.0, 1.0, 1.0, 1.0, 1.0, 1.0]}, "bias": {"shape": [7], "values": [0.0, 0.0, 0.0, 0.0, 0.0, 0.0, 0.0]}, "running_mean": {"shape": [7], "values": [0.0, 0.0, 0.0, 0.0, 0.0, 0.0, 0.0]}, "running_var": {"shape": [7], "values": [1.0, 1.0, 1.0, 1.0, 1.0, 1.0, 1.0]}}, "bn2": {"weight": {"shape": [7], "values": [1.0, 1.0, 1.0, 1.0, 1.0, 1.0, 1.0]}, "bias": {"shape": [7], "values": [0.0, 0.0, 0.0, 0.0, 0.0, 0.0, 0.0]}, "running_mean": {"shape": [7], "values": [0.0, 0.0, 0.0, 0.0, 0.0, 0.0, 0.0]}, "running_var": {"shape": [7], "values": [1.0, 1.0, 1.0, 1.0, 1.0, 1.0, 1.0]}}, "f1": {"weight": {"shape": [7], "values": [0.25, 0.25, 0.25, 0.25, 0.25, 0.25, 0.25]}}, "f2": {"weight": {"shape": [7], "values": [0.25, 0.25, 0.25, 0.25, 0.25, 0.25, 0.25]}}}, "block_stack.5": {"conv": {"weight": {"shape": [7, 7, 1], "values": [0.36992523074150085, -0.12656855583190918, 0.36332038044929504, 0.3398694097995758, 0.033904701471328735, 0.23011407256126404, -0.22717149555683136, 0.1292649805545807, 0.3182480037212372, -0.3170974850654602, -0.2830764353275299, 0.004050523042678833, -0.21606993675231934, 0.1751367151737213, 0.19749704003334045, -0.05052068829536438, -0.37533512711524963, -0.2164086252450943, 0.13889971375465393, -0.11739668250083923, -0.02652353048324585, -0.13613583147525787, -0.043792396783828735, -0.22891564667224884, -0.08737465739250183, -0.13110767304897308, 0.08414128422737122, 0.34558990597724915, -0.3150327205657959, 0.3007003366947174, -0.14364488422870636, 0.1926496922969818, 0.029289186000823975, 0.008459120988845825, 0.0206967294216156, 0.048109084367752075, -0.07079002261161804, 0.26264044642448425, -0.2867862582206726, -0.3269209861755371, -0.1440214216709137, -0.21369679272174835, 0.13048169016838074, -0.2508002519607544, 0.05353105068206787, 0.34402891993522644, 0.29520413279533386, 0.24545970559120178, -0.14825613796710968]}, "bias": {"shape": [7], "values": [-0.08819189667701721, 0.007372349500656128, 0.17872795462608337, -0.36343708634376526, 0.043638676404953, -0.10648936033248901, -0.027888506650924683]}}, "conv1": {"weight": {"shape": [7, 7, 4], "values": [-0.11197654157876968, 0.10441853106021881, -0.019499287009239197, 0.023830920457839966, -0.041715726256370544, 0.03044956922531128, -0.01586104929447174, -0.07571494579315186, 0.13346527516841888, 0.11293940246105194, 0.02848684787750244, 0.09565173089504242, -0.07505619525909424, -0.01757565140724182, -0.059483304619789124, 0.04562373459339142, -0.11532365530729294, 0.03533957898616791, -0.16446687281131744, -0.06837301701307297, 0.0622134655714035, -0.10613196343183517, 0.15896205604076385, -0.13644857704639435, -0.184120774269104, -0.06260326504707336, 0.06757362186908722, 0.14834080636501312, -0.11334802955389023, 0.07449318468570709, -0.12039285153150558, -0.11916926503181458, -0.1135324016213417, 0.0920630544424057, 0.0773465484380722, 0.16536004841327667, 0.17877359688282013, -0.08738472312688828, 0.08549658954143524, 0.044983819127082825, -0.13482660055160522, 0.1441391557455063, 0.12416733801364899, -0.040751054883003235, -0.1867896318435669, -0.10817178338766098, 0.1519327610731125, -0.05268515646457672, -0.01962028443813324, -0.15045759081840515, 0.0020398199558258057, -0.1787554919719696, 0.09801913797855377, 0.1055774837732315, -0.15983277559280396, -0.02197784185409546, 0.11149390041828156, 0.14677943289279938, -0.13598665595054626, -0.1492413431406021, -0.01738080382347107, 0.07728402316570282, 0.1341753751039505, 0.022935479879379272, -0.008329391479492188, 0.1796676367521286, 0.1613018959760666, -0.10418521612882614, 0.11854128539562225, -0.05184820294380188, -0.0467410534620285, -0.12619340419769287, 0.10052238404750824, -0.05060698091983795, 0.1138070672750473, 0.08798818290233612, 0.09993250668048859, 0.03232164680957794, 0.08568818867206573, -0.023112088441848755, -0.07444316893815994, 0.016414225101470947, -0.15633897483348846, 0.17517174780368805, 0.11322228610515594, 0.14990736544132233, -0.08550803363323212, 0.12819333374500275, -0.13816842436790466, -0.09933982044458389, -0.09065636992454529, 0.06930552423000336, 0.12070868909358978, 0.021041423082351685, 0.0705965906381607, 0.06392543017864227, -0.002953752875328064, -0.1537536084651947, 0.02581559121608734, 0.12394730746746063, 0.046214789152145386, 0.12125511467456818, -0.1482948362827301, 0.09565456211566925, -0.07419022172689438, 0.12411455810070038, -0.16510319709777832, -0.1120637059211731, -0.10045335441827774, 0.18733398616313934, -0.07671751081943512, -0.01628127694129944, -0.16130439937114716, -0.02047024667263031, -0.11558528244495392, 0.18598295748233795, -0.03834877908229828, 0.0780700296163559, -0.09459681808948517, 0.0672314316034317, -0.10025438666343689, 0.13921363651752472, -0.012888818979263306, -0.002553984522819519, -0.15014559030532837, 0.17937658727169037, 0.14624185860157013, -0.017422348260879517, -0.105087049305439, 0.09740997850894928, -0.025137946009635925, -0.12109244614839554, 0.13874150812625885, 0.13190318644046783, -0.047542303800582886, 0.028194472193717957, -0.07885367423295975, 0.01685088872909546, 0.04357130825519562, 0.08958400785923004, -0.05980534851551056, 0.0015836209058761597, -0.16964906454086304, 0.12995268404483795, 0.003711983561515808, 0.07874949276447296, -0.16009323298931122, -0.056606173515319824, -0.02310056984424591, 0.1084587424993515, -0.12468481063842773, 0.10212104022502899, -0.15603220462799072, -0.05133505165576935, -0.14386628568172455, -0.05584833025932312, 0.12796340882778168, 0.06509055197238922, -0.12531769275665283, 0.10246996581554413, -0.16765284538269043, -0.1776280552148819, 0.13599707186222076, -0.0796404629945755, 0.14559726417064667, 0.09253515303134918, 0.009976357221603394, 0.13490237295627594, -0.0852547287940979, -0.13738200068473816, -0.18154455721378326, 0.007911920547485352, -0.143792062997818, 0.09777162969112396, -0.06008836627006531, -0.04555836319923401, -0.16104041039943695, 0.16304852068424225, 0.04811418056488037, 0.10062108933925629, -0.170694500207901, 0.09553606808185577, 0.16761080920696259, 0.1195870190858841, -0.1736467182636261, 0.05056704580783844, 0.14042292535305023, 0.04920557141304016, -0.03307922184467316, 0.11292295157909393, 0.16924525797367096, 0.07180358469486237, 0.019650205969810486, -0.09136015921831131, -0.0719049870967865, -0.15275155007839203]}, "bias": {"shape": [7], "values": [0.14889515936374664, -0.16484123468399048, 0.0766616016626358, -0.16318635642528534, 0.0874602347612381, -0.08253635466098785, -0.08555406332015991]}}, "conv2": {"weight": {"shape": [7, 7, 4], "values": [-0.02101750671863556, 0.10469739139080048, -0.1699453890323639, -0.08675951510667801, 0.08750750124454498, 0.09264437854290009, 0.10133521258831024, 0.004587382078170776, 0.15841616690158844, 0.10557951033115387, 0.1258040815591812, 0.033722952008247375, 0.007000327110290527, -0.10559511184692383, 0.06718598306179047, -0.12188107520341873, -0.0923001617193222, -0.07567451149225235, 0.17646177113056183, 0.18441985547542572, -0.18040421605110168, -0.09930203855037689, 0.0776129812002182, 0.0061576515436172485, -0.16547706723213196, -0.07320631295442581, 0.07726095616817474, -0.1297074407339096, -0.18719060719013214, -0.03126631677150726, 0.1419149786233902, -0.012643501162528992, 0.053204894065856934, -0.05607801675796509, -0.1342148631811142, -0.17303353548049927, 0.10272566974163055, 0.11472626030445099, 0.11712132394313812, -0.1823256015777588, -0.06606696546077728, 0.13116063177585602, 0.10252921283245087, 0.10361520946025848, 0.02243541181087494, -0.1294822096824646, 0.17795328795909882, -0.05140133202075958, 0.1333358734846115, -0.04913288354873657, 0.1156800240278244, 0.18719695508480072, 0.07352657616138458, -0.1544320285320282, 0.11639146506786346, -0.16142651438713074, -0.0011409968137741089, -0.10152821242809296, 0.14516864717006683, -0.10741280019283295, -0.12449487298727036, 0.059516116976737976, 0.019857347011566162, 0.1495303362607956, -0.037699177861213684, -0.12243212759494781, -0.043123215436935425, 0.1035415381193161, 0.15097065269947052, 0.10093410313129425, 0.05052664875984192, 0.003124237060546875, -0.07543257623910904, -0.059316202998161316, 0.017665088176727295, 0.08542917668819427, 0.061701372265815735, -0.08475243300199509, 0.036216020584106445, 0.1759953647851944, 0.07872001826763153, 0.10372976958751678, -0.1574002504348755, 0.09563447535037994, -0.18036720156669617, 0.027416840195655823, -0.01878124475479126, -0.11544697731733322, 0.08262141048908234, -0.06771789491176605, -0.1544121503829956, -0.12173914909362793, -0.02073235809803009, 0.15540631115436554, -0.03256310522556305, 0.013253405690193176, -0.18047186732292175, -0.07476834952831268, -0.03546939790248871, -0.0265476256608963, -0.11296146363019943, -0.14603275060653687, -0.044219791889190674, 0.0031689107418060303, 0.15888096392154694, 0.09511412680149078, 0.17056046426296234, 0.0701480358839035, -0.11555678397417068, 0.01999378204345703, -0.011977732181549072, -0.16388539969921112, 0.12199138104915619, 0.1584276407957077, -0.10415086150169373, -0.16953235864639282, -0.03587119281291962, 0.02559804916381836, -0.055490970611572266, 0.1444501131772995, -0.1503760814666748, 0.03279180824756622, 0.06239722669124603, 0.16582514345645905, 0.08252255618572235, -0.18207445740699768, 0.04985930025577545, -0.1187724694609642, -0.13964277505874634, -0.14720213413238525, 0.060195013880729675, -0.09059770405292511, -0.08661787956953049, -0.18381154537200928, 0.0012648850679397583, -0.003122985363006592, -0.10559533536434174, -0.09110923856496811, -0.1538499891757965, -0.10224558413028717, 0.16297854483127594, 0.18423514068126678, -0.04406672716140747, 0.02509947121143341, 0.09483115375041962, -0.014120012521743774, 0.03905443847179413, 0.1717541366815567, -0.10636574029922485, -0.17689840495586395, -0.0960552915930748, -0.1265072524547577, -0.18688158690929413, -0.09506092965602875, -0.17193518579006195, -0.1461784988641739, -0.16656190156936646, -0.15205338597297668, -0.04352228343486786, -0.15068413317203522, 0.08431147038936615, -0.1457350254058838, -0.09372977167367935, 0.11438719928264618, -0.17041677236557007, -0.13601531088352203, -0.06686264276504517, 0.1767747849225998, 0.055519089102745056, 0.17422474920749664, 0.09914539754390717, -0.06134907901287079, 0.18534047901630402, 0.12126334011554718, -0.15616199374198914, -0.14573067426681519, -0.13074712455272675, -0.010737389326095581, -0.10885623842477798, -0.1022881418466568, -0.15887576341629028, -0.003981247544288635, -0.17685513198375702, -0.10869558900594711, 0.0911138504743576, -0.09932909905910492, -0.022775307297706604, 0.07616753876209259, -0.1505986452102661, 0.06874589622020721, 0.023308873176574707, 0.09459854662418365, -0.10959981381893158, 0.018191084265708923, 0.06884677708148956, -0.17526546120643616]}, "bias": {"shape": [7], "values": [0.07467083632946014, -0.15514154732227325, 0.10053826868534088, -0.09501884877681732, 0.0642053633928299, -0.12306319177150726, 0.015615299344062805]}}, "bn1": {"weight": {"shape": [7], "values": [1.0, 1.0, 1.0, 1.0, 1.0, 1.0, 1.0]}, "bias": {"shape": [7], "values": [0.0, 0.0, 0.0, 0.0, 0.0, 0.0, 0.0]}, "running_mean": {"shape": [7], "values": [0.0, 0.0, 0.0, 0.0, 0.0, 0.0, 0.0]}, "running_var": {"shape": [7], "values": [1.0, 1.0, 1.0, 1.0, 1.0, 1.0, 1.0]}}, "bn2": {"weight": {"shape": [7], "values": [1.0, 1.0, 1.0, 1.0, 1.0, 1.0, 1.0]}, "bias": {"shape": [7], "values": [0.0, 0.0, 0.0, 0.0, 0.0, 0.0, 0.0]}, "running_mean": {"shape": [7], "values": [0.0, 0.0, 0.0, 0.0, 0.0, 0.0, 0.0]}, "running_var": {"shape": [7], "values": [1.0, 1.0, 1.0, 1.0, 1.0, 1.0, 1.0]}}, "f1": {"weight": {"shape": [7], "values": [0.25, 0.25, 0.25, 0.25, 0.25, 0.25, 0.25]}}, "f2": {"weight": {"shape": [7], "values": [0.25, 0.25, 0.25, 0.25, 0.25, 0.25, 0.25]}}}, "block_stack.6": {"conv": {"weight": {"shape": [7, 7, 1], "values": [-0.09403535723686218, 0.3365030586719513, -0.1129893958568573, 0.02871227264404297, -0.164999857544899, -0.030476152896881104, -0.05109119415283203, -0.2662196755409241, 0.13588091731071472, 0.21387484669685364, 0.2571852505207062, 0.2319757640361786, -0.01681879162788391, 0.012377351522445679, 0.13135191798210144, 0.04415541887283325, 0.3075619637966156, 0.10742387175559998, 0.29290828108787537, -0.2876366078853607, 0.3029659688472748, 0.1003105640411377, 0.31080469489097595, -0.05447596311569214, 0.29766371846199036, 0.10772892832756042, -0.1533035933971405, 0.08133801817893982, 0.12257680296897888, -0.36929193139076233, -0.07522162795066833, 0.0282953679561615, 0.2726375162601471, 0.26681604981422424, 0.2258809506893158, -0.059296369552612305, -0.2030571848154068, 0.1647796928882599, 0.012865900993347168, -0.19950774312019348, 0.2581077516078949, 0.03263452649116516, -0.008002221584320068, 0.3180079758167267, 0.3155224621295929, -0.26890507340431213, -0.05759313702583313, 0.14372393488883972, -0.3492215573787689]}, "bias": {"shape": [7], "values": [-0.07816553115844727, -0.3256042003631592, -0.10200053453445435, 0.25770726799964905, 0.11041271686553955, 0.3127395212650299, 0.19860610365867615]}}, "conv1": {"weight": {"shape": [7, 7, 4], "values": [-0.17726433277130127, 0.057560354471206665, -0.05644439160823822, 0.13276900351047516, 0.0890476256608963, -0.1367018222808838, 0.022241026163101196, -0.004431992769241333, 0.014400601387023926, -0.021103262901306152, -0.12097083777189255, -0.018718808889389038, -0.15989109873771667, -0.10064084082841873, 0.11213643848896027, 0.11749811470508575, -0.1501133292913437, 0.15332619845867157, -0.028977930545806885, -0.08559556305408478, -0.10399642586708069, -0.11659345030784607, -0.005595281720161438, 0.11019589006900787, -0.06908683478832245, -0.09214680641889572, -0.1850561797618866, -0.09091190993785858, 0.1708339899778366, -0.09126999974250793, 0.07485760748386383, 0.14873288571834564, -0.08555877208709717, 0.0803566426038742, -0.16624139249324799, 0.12278802692890167, -0.1403932422399521, -0.08837214857339859, 0.17013294994831085, -0.0952959880232811, 0.10121093690395355, 0.17842821776866913, 0.07472683489322662, -0.0005939602851867676, 0.07322357594966888, 0.1442091017961502, 0.09930507838726044, -0.04991644620895386, -0.17044010758399963, -0.023640871047973633, -0.1281425952911377, -0.07768157124519348, 0.004990026354789734, 0.03803539276123047, -0.049567654728889465, -0.06696774065494537, -0.18087832629680634, -0.09047136455774307, -0.0641455352306366, -0.07490858435630798, 0.0237618088722229, -0.1463833898305893, 0.04968719184398651, -0.08952300995588303, -0.026950925588607788, 0.0018859654664993286, -0.008332550525665283, 0.03709307312965393, 0.09819678962230682, -0.012543931603431702, -0.018506139516830444, -0.06585141271352768, 0.14979134500026703, 0.08095110952854156, 0.1383683830499649, 0.17761696875095367, -0.10787203907966614, 0.12081031501293182, -0.17248909175395966, 0.06416316330432892, -0.07019198685884476, -0.14561694860458374, 0.09922973811626434, -0.12173018604516983, -0.11311035603284836, 0.10874651372432709, 0.1499824970960617, 0.023610025644302368, 0.048893898725509644, -0.033432409167289734, -0.1474262773990631, 0.16154365241527557, 0.0219707190990448, 0.05824074149131775, 0.020738303661346436, -0.0038277804851531982, -0.1326770931482315, -0.03261671960353851, -0.1316515952348709, -0.06706804037094116, -0.0066392868757247925, -0.11183332651853561, -0.05345331132411957, -0.09010356664657593, 0.14566965401172638, -0.07694567739963531, -0.1488942950963974, 0.10685701668262482, -0.14624005556106567, -0.1451648324728012, 0.008374541997909546, -0.16632065176963806, -0.07391273975372314, -0.13602443039417267, 0.06246979534626007, 0.11220936477184296, -0.1307714581489563, -0.05282388627529144, -0.01913587749004364, 0.05167649686336517, 0.01334594190120697, 0.034314826130867004, 0.15178148448467255, 0.09442625939846039, 0.06658948957920074, 0.05237630009651184, -0.10441942512989044, -0.1469392627477646, -0.012497588992118835, 0.02630317211151123, -0.13485689461231232, 0.03635634481906891, 0.06365589797496796, -0.013923585414886475, -0.021004751324653625, -0.12111121416091919, 0.10344575345516205, -0.0007384419441223145, 0.12852738797664642, 0.1321762055158615, -0.11273802816867828, -0.046540796756744385, -0.04678748548030853, 0.1750458925962448, 0.008624419569969177, 0.015434548258781433, -0.13137245178222656, -0.16788192093372345, -0.026235491037368774, -0.15935316681861877, -0.006308615207672119, 0.01835627853870392, 0.0377950519323349, -0.1247512698173523, -0.11695609241724014, -0.183242529630661, 0.1590953916311264, -0.0024512261152267456, -0.09731059521436691, 0.08811651170253754, -0.08145345747470856, -0.01097172498703003, 0.06077417731285095, -0.04262794554233551, 0.0046667903661727905, 0.0921681672334671, -0.02665536105632782, -0.029657423496246338, -0.15184009075164795, 0.1502685397863388, 0.07508210837841034, 0.03268297016620636, 0.11931188404560089, -0.10076700150966644, -0.08206675201654434, 0.058073535561561584, -0.09694234281778336, -0.14768967032432556, 0.15509940683841705, 0.04976509511470795, -0.1884000301361084, -0.04441481828689575, -0.05975861847400665, 0.033589184284210205, 0.15392263233661652, 0.08549095690250397, 0.09043137729167938, -0.060012608766555786, -0.14460213482379913, 0.16716955602169037, 0.11820973455905914, -0.11810322105884552, -0.14834730327129364, 0.13105343282222748, -0.1317204236984253, 0.013653874397277832]}, "bias": {"shape": [7], "values": [-0.13388900458812714, -0.12279246747493744, -0.10376513004302979, 0.007614269852638245, -0.16259410977363586, -0.1303502321243286, 0.028336331248283386]}}, "conv2": {"weight": {"shape": [7, 7, 4], "values": [-0.006380632519721985, -0.047222867608070374, -0.11833328008651733, 0.044369786977767944, -0.10862365365028381, 0.09854991734027863, 0.07902704179286957, 0.12599588930606842, 0.0655096024274826, -0.10223758965730667, -0.026448115706443787, -0.17421995103359222, 0.12939704954624176, 0.0038176029920578003, -0.11318439990282059, -0.090725377202034, 0.11798395216464996, 0.05296848714351654, -0.02298574149608612, -0.1731616109609604, -0.10404423624277115, -0.1447543501853943, -0.1239333301782608, 0.17966081202030182, -0.1333911418914795, 0.06129254400730133, 0.1101156622171402, 0.05432327091693878, -0.05005250871181488, -0.05427911877632141, 0.07106511294841766, -0.10227766633033752, -0.05983048677444458, 0.06927324831485748, 0.07258139550685883, -0.12301099300384521, 0.009605646133422852, -0.12939855456352234, 0.15057481825351715, 0.11519433557987213, -0.1288813352584839, 0.13150839507579803, 0.013889700174331665, 0.1277981847524643, 0.01569536328315735, -0.14671015739440918, 0.13033844530582428, -0.06417851895093918, -0.10372002422809601, -0.03579890727996826, 0.07887108623981476, -0.1495736837387085, 0.16244833171367645, 0.17414824664592743, 0.1610642820596695, -0.02515144646167755, -0.024968579411506653, 0.06254537403583527, 0.16143889725208282, -0.11385669559240341, 0.030407100915908813, 0.14740513265132904, 0.10060073435306549, 0.1009189635515213, 0.07237456738948822, -0.15454459190368652, 0.059337735176086426, 0.10776259005069733, -0.0434010773897171, 0.12382520735263824, -0.017651736736297607, -0.055519551038742065, 0.03735874593257904, -0.1651567816734314, 0.04182526469230652, 0.1612149327993393, 0.11329446732997894, -0.17991949617862701, 0.1661921590566635, -0.13576120138168335, -0.03464969992637634, 0.03627373278141022, 0.18888555467128754, -0.049502089619636536, -0.18851150572299957, -0.022942304611206055, -0.04259708523750305, 0.036838099360466, 0.007210493087768555, -0.11835882812738419, -0.10357651859521866, 0.032266631722450256, 0.08746643364429474, -0.09242728352546692, -0.1418563425540924, 0.07443831861019135, -0.15258267521858215, -0.17601561546325684, -0.014660224318504333, 0.11769749224185944, 0.07897715270519257, -0.08190718293190002, -0.0268029123544693, -0.13886332511901855, 0.07069359719753265, -0.14098232984542847, 0.1780736893415451, 0.07163070142269135, 0.12270651757717133, -0.18706929683685303, 0.18723483383655548, 0.029243573546409607, 0.062349721789360046, -0.13085231184959412, -0.1205424815416336, 0.07937295734882355, 0.04216712713241577, 0.11475743353366852, 0.12182749807834625, -0.04636064171791077, 0.02950984239578247, -0.09792543947696686, -0.06944096088409424, -0.1024041622877121, 0.14850501716136932, 0.018451735377311707, 0.13358251750469208, 0.1542605608701706, 0.032271310687065125, -0.14705216884613037, -0.07952024787664413, 0.07268594205379486, 0.07960565388202667, -0.18081317842006683, -0.020174235105514526, 0.0866989940404892, 0.06296651065349579, 0.02341856062412262, 0.019992858171463013, -0.1595616638660431, 0.047254592180252075, -0.10686706751585007, -0.05133846402168274, -0.17743949592113495, -0.1843230426311493, -0.09993002563714981, 0.033322662115097046, 0.10473059117794037, -0.05075359344482422, 0.04774951934814453, -0.18331001698970795, 0.12535779178142548, -0.16816194355487823, -0.020885691046714783, -0.02205781638622284, -0.038487449288368225, -0.02992907166481018, -0.006500869989395142, 0.07974939048290253, 0.14928509294986725, -0.01824966073036194, 0.17360316216945648, -0.15892934799194336, 0.09833009541034698, 0.061002686619758606, -0.036846429109573364, 0.06429950892925262, -0.03884096443653107, -0.1510421186685562, 0.15858139097690582, -0.10728098452091217, -0.09688214957714081, 0.17177362740039825, -0.043380334973335266, -0.13673466444015503, 0.1847790628671646, 0.15987266600131989, 0.06191430985927582, 0.06457112729549408, 0.13926590979099274, 0.1392383724451065, -0.01758013665676117, -0.12570863962173462, -0.16900396347045898, -0.14640679955482483, -0.0895574539899826, -0.05140677094459534, 0.09629054367542267, 0.08515636622905731, -0.02726772427558899, 0.08574886620044708, -0.003135785460472107, -0.17115430533885956, 0.03702807426452637, 0.0060163140296936035, -0.1878162920475006]}, "bias": {"shape": [7], "values": [0.055687159299850464, 0.03308480978012085, -0.012076303362846375, 0.11462856829166412, -0.15174487233161926, 0.0644652396440506, -0.1353454738855362]}}, "bn1": {"weight": {"shape": [7], "values": [1.0, 1.0, 1.0, 1.0, 1.0, 1.0, 1.0]}, "bias": {"shape": [7], "values": [0.0, 0.0, 0.0, 0.0, 0.0, 0.0, 0.0]}, "running_mean": {"shape": [7], "values": [0.0, 0.0, 0.0, 0.0, 0.0, 0.0, 0.0]}, "running_var": {"shape": [7], "values": [1.0, 1.0, 1.0, 1.0, 1.0, 1.0, 1.0]}}, "bn2": {"weight": {"shape": [7], "values": [1.0, 1.0, 1.0, 1.0, 1.0, 1.0, 1.0]}, "bias": {"shape": [7], "values": [0.0, 0.0, 0.0, 0.0, 0.0, 0.0, 0.0]}, "running_mean": {"shape": [7], "values": [0.0, 0.0, 0.0, 0.0, 0.0, 0.0, 0.0]}, "running_var": {"shape": [7], "values": [1.0, 1.0, 1.0, 1.0, 1.0, 1.0, 1.0]}}, "f1": {"weight": {"shape": [7], "values": [0.25, 0.25, 0.25, 0.25, 0.25, 0.25, 0.25]}}, "f2": {"weight": {"shape": [7], "values": [0.25, 0.25, 0.25, 0.25, 0.25, 0.25, 0.25]}}}, "block_stack.7": {"conv": {"weight": {"shape": [7, 7, 1], "values": [-0.2660885453224182, 0.06835716962814331, 0.12843695282936096, -0.0881572961807251, 0.2584088146686554, -0.25781044363975525, -0.07483980059623718, 0.2856752574443817, -0.0034383833408355713, -0.10102725028991699, 0.3564293086528778, 0.08529168367385864, 0.1262587606906891, 0.094414621591568, -0.25915008783340454, -0.208047553896904, 0.202762633562088, -0.3561353087425232, 0.09893777966499329, 0.35695698857307434, -0.118825763463974, -0.17224904894828796, 0.052984803915023804, 0.377828449010849, 0.34544482827186584, 0.10536298155784607, -0.16901177167892456, -0.23581133782863617, 0.06214824318885803, -0.1955316960811615, -0.06577920913696289, -0.09164726734161377, 0.15182605385780334, 0.19265052676200867, 0.035048604011535645, 0.15493693947792053, -0.01962527632713318, -0.210794135928154, 0.008288443088531494, 0.12476125359535217, -0.11838942766189575, 0.3715815246105194, 0.1712595522403717, -0.10117673873901367, 0.046477288007736206, -0.2209506332874298, 0.05675670504570007, -0.27681171894073486, -0.2723187208175659]}, "bias": {"shape": [7], "values": [-0.02127915620803833, -0.08170798420906067, 0.1610146462917328, -0.062328219413757324, -0.10948839783668518, 0.06816557049751282, 0.3575466573238373]}}, "conv1": {"weight": {"shape": [7, 7, 4], "values": [-0.0803239494562149, 0.029526352882385254, 0.03423015773296356, 0.18455569446086884, 0.09342600405216217, -0.10862182825803757, 0.024488776922225952, -0.08969062566757202, -0.0626145750284195, 0.024377331137657166, 0.0985107272863388, -0.11779077351093292, 0.06853260099887848, 0.09594006836414337, -0.06259307265281677, -0.02422027289867401, -0.010219141840934753, -0.17071790993213654, 0.0845196396112442, 0.07652707397937775, 0.062134817242622375, -0.14461562037467957, -0.08790148049592972, 0.18267817795276642, 0.14888913929462433, 0.03897996246814728, -0.03950318694114685, -0.1693321168422699, 0.16062234342098236, 0.15270380675792694, 0.18498818576335907, -0.12360303848981857, 0.05565263330936432, 0.1643100529909134, -0.16049018502235413, 0.023449495434761047, 0.1789257973432541, 0.05882157385349274, -0.05337043106555939, 0.16821791231632233, 0.12873141467571259, -0.04658576846122742, 0.06824453175067902, -0.060172855854034424, 0.01084737479686737, 0.18422643840312958, -0.03254172205924988, 0.016200631856918335, 0.07190494239330292, -0.15722085535526276, -0.019812315702438354, 0.0930967777967453, -0.05282659828662872, 0.07471631467342377, -0.057495564222335815, 0.008257254958152771, -0.11718063056468964, 0.04254049062728882, 0.18658073246479034, 0.02400091290473938, 0.1551169604063034, -0.10909010469913483, 0.09950412809848785, -0.018098875880241394, -0.04235287010669708, 0.16262085735797882, -0.005477309226989746, -0.10090234875679016, -0.05023519694805145, -0.11616171896457672, -0.10180047154426575, -0.045092061161994934, 0.10821343958377838, -0.1340905725955963, 0.18566597998142242, 0.08810679614543915, -0.09143249690532684, 0.11699046194553375, -0.024788394570350647, 0.09951125085353851, -0.12593784928321838, 0.07084544003009796, -0.15199261903762817, -0.10187575966119766, 0.058492496609687805, -0.1401991844177246, 0.1101284772157669, 0.15710388123989105, -0.019240140914916992, -0.15008445084095, -0.13363894820213318, 0.048391714692115784, 0.019797295331954956, 0.12975852191448212, -0.1261500120162964, -0.08333936333656311, -0.033470943570137024, 0.11676637828350067, -0.07718418538570404, -0.12060051411390305, 0.01992611587047577, -0.10876137018203735, 0.08814020454883575, -0.017847836017608643, -0.10884326696395874, 0.11222629249095917, 0.09033550322055817, 0.0071632713079452515, 0.029302507638931274, -0.03326861560344696, 0.05031375586986542, 0.1426151841878891, 0.10936366021633148, 0.06198824942111969, 0.1711103469133377, -0.13705427944660187, 0.08523289859294891, -0.0003012716770172119, 0.17651917040348053, 0.04985721409320831, 0.09057880938053131, 0.02586992084980011, -0.1430586278438568, -0.1711091697216034, -0.09975022077560425, 0.18079663813114166, -0.12162207067012787, 0.1042003482580185, -0.059055596590042114, 0.12288935482501984, 0.038206905126571655, 0.12278743088245392, -0.07590684294700623, -0.10082307457923889, -0.16643531620502472, -0.10275087505578995, 0.06630052626132965, 0.05387350916862488, -0.1728484034538269, 0.06746642291545868, 0.16442494094371796, 0.17464874684810638, 0.11367012560367584, 0.06195317208766937, 0.16425122320652008, 0.1424836367368698, -0.12036437541246414, -0.13085559010505676, -0.05750685930252075, -0.0009745806455612183, 0.10742567479610443, 0.18857832252979279, 0.05570615828037262, 0.021940648555755615, -0.05747416615486145, 0.10912396013736725, -0.1523037999868393, 0.11839137971401215, 0.011640399694442749, -0.16422027349472046, 0.06234748661518097, 0.11015103757381439, 0.10713084042072296, -0.15132799744606018, 0.0873880535364151, -0.16508477926254272, -0.06192190945148468, -0.09515225887298584, 0.025665268301963806, -0.08050435781478882, 0.06603275239467621, -0.025038674473762512, -0.05772864818572998, -0.014510810375213623, -0.15495480597019196, 0.008070766925811768, 0.12874524295330048, 0.17066572606563568, -0.1076604500412941, 0.09709541499614716, -0.11672330647706985, -0.033569470047950745, -0.012735620141029358, 0.04696032404899597, 0.0650709718465805, 0.17225326597690582, -0.1451347917318344, 0.0749492198228836, -0.06445690244436264, 0.000528678297996521, 0.17921532690525055, 0.07201306521892548, 0.15534470975399017, -0.1448632776737213, -0.030118927359580994, -0.11166413873434067]}, "bias": {"shape": [7], "values": [0.13328947126865387, -0.06020723283290863, -0.032409414649009705, 0.10631172358989716, -0.03163310885429382, 0.1030278354883194, -0.022166088223457336]}}, "conv2": {"weight": {"shape": [7, 7, 4], "values": [0.0995178371667862, -0.014181450009346008, -0.06768689304590225, -0.09932883083820343, -0.11577019840478897, -0.04960387945175171, 0.03583773970603943, -0.03707145154476166, 0.1257704347372055, 0.02265980839729309, -0.1365358978509903, 0.12132604420185089, 0.07862259447574615, -0.144464910030365, -0.08146965503692627, 0.1331837922334671, -0.055738016963005066, -0.1543668657541275, 0.1518397182226181, -0.07203476876020432, 0.03429657220840454, 0.06538252532482147, 0.18416978418827057, -0.09220430254936218, -0.13196782767772675, 0.046019285917282104, 0.17723776400089264, -0.0014927983283996582, -0.04856279492378235, -0.1392652988433838, -0.08995411545038223, 0.011368438601493835, 0.02562299370765686, -0.027055934071540833, -0.11591498553752899, -0.0030521005392074585, -0.18510353565216064, 0.1311672180891037, -0.18279805779457092, 0.029123574495315552, -0.030861780047416687, 0.09439344704151154, -0.05060245096683502, 0.09776856005191803, 0.08466218411922455, 0.18237359821796417, 0.12164221704006195, 0.1442282348871231, -0.15054099261760712, -0.07423807680606842, -0.0923483669757843, 0.007744327187538147, 0.012218251824378967, 0.15564079582691193, -0.028335735201835632, 0.012065604329109192, 0.08619137108325958, -0.06997731328010559, 0.17313198745250702, -0.12261683493852615, -0.13605083525180817, 0.005640104413032532, -0.06710969656705856, 0.02774864435195923, 0.012604296207427979, -0.1278865784406662, -0.18530942499637604, -0.08267457038164139, 0.15249954164028168, 0.13540871441364288, 0.08065037429332733, -0.14798994362354279, 0.1331339329481125, -0.13750265538692474, -0.0019097328186035156, -0.13561995327472687, -0.1187380701303482, -0.18178899586200714, -0.000950157642364502, -0.118911512196064, -0.06859210878610611, 0.05844196677207947, -0.02317763864994049, -0.07750856876373291, 0.12001655995845795, -0.11997100710868835, 0.09911616146564484, 0.1505739837884903, 0.034967586398124695, 0.034883052110672, -0.015551850199699402, -0.08240789920091629, 0.0738188773393631, -0.16469480097293854, 0.08024556934833527, 0.14847113192081451, -0.03686301410198212, -0.09268578141927719, -0.16972479224205017, 0.13902689516544342, -0.01273055374622345, -0.1620643138885498, -0.17720630764961243, 0.011705413460731506, -0.0840519368648529, -0.013117536902427673, -0.09676096588373184, 0.09081690013408661, -0.15752561390399933, -0.11840500682592392, 0.11467050015926361, 0.17728663980960846, 0.15103136003017426, 0.07022459805011749, -0.17055638134479523, 0.08439262211322784, -0.05171386897563934, -0.18778680264949799, 0.149128720164299, -0.08907336741685867, 0.1386832743883133, 0.11056242883205414, 0.1582212895154953, -0.10899163782596588, -0.0874633714556694, -0.08473855257034302, -0.09555599093437195, -0.007085666060447693, 0.08537434041500092, -0.07771024852991104, 0.10366062819957733, 0.14405910670757294, -0.06424157321453094, 0.02308313548564911, 0.07435820996761322, -0.13105839490890503, -0.165646493434906, -0.14698658883571625, -0.1658003181219101, -0.16124562919139862, 0.11511938273906708, 0.021372273564338684, -0.12438180297613144, -0.00815531611442566, -0.07563281059265137, -0.09685344994068146, 0.08236168324947357, 0.11329488456249237, -0.1440940499305725, 0.0699618011713028, -0.04714670777320862, 0.11955465376377106, -0.029821813106536865, -0.026566699147224426, -0.13386105000972748, 0.18282921612262726, 0.1351766735315323, -0.07775602489709854, 0.04123491048812866, -0.15298868715763092, -0.1358913779258728, -0.09521333128213882, 0.12689219415187836, -0.17617680132389069, -0.008917495608329773, -0.0920661985874176, 0.12038554251194, 0.04932847619056702, -0.11291462182998657, -0.09713964909315109, 0.0567876398563385, 0.09601680934429169, -0.15302518010139465, -0.14795337617397308, 0.0944242924451828, -0.03584869205951691, -0.07299477607011795, -0.13206812739372253, 0.12075315415859222, 0.1598178893327713, -0.10313964635133743, 0.0299922376871109, 0.008688792586326599, -0.061688244342803955, -0.17566023766994476, -0.013736709952354431, 0.029640644788742065, 0.04131603240966797, -0.06668363511562347, 0.15868352353572845, -0.12186062335968018, 0.06492374837398529, -0.02784048020839691, -0.020564407110214233, -0.12240675836801529, 0.018563181161880493]}, "bias": {"shape": [7], "values": [0.1348407119512558, 0.0952819436788559, -0.0022341012954711914, -0.17218130826950073, 0.05528014898300171, -0.0622643381357193, 0.10012398660182953]}}, "bn1": {"weight": {"shape": [7], "values": [1.0, 1.0, 1.0, 1.0, 1.0, 1.0, 1.0]}, "bias": {"shape": [7], "values": [0.0, 0.0, 0.0, 0.0, 0.0, 0.0, 0.0]}, "running_mean": {"shape": [7], "values": [0.0, 0.0, 0.0, 0.0, 0.0, 0.0, 0.0]}, "running_var": {"shape": [7], "values": [1.0, 1.0, 1.0, 1.0, 1.0, 1.0, 1.0]}}, "bn2": {"weight": {"shape": [7], "values": [1.0, 1.0, 1.0, 1.0, 1.0, 1.0, 1.0]}, "bias": {"shape": [7], "values": [0.0, 0.0, 0.0, 0.0, 0.0, 0.0, 0.0]}, "running_mean": {"shape": [7], "values": [0.0, 0.0, 0.0, 0.0, 0.0, 0.0, 0.0]}, "running_var": {"shape": [7], "values": [1.0, 1.0, 1.0, 1.0, 1.0, 1.0, 1.0]}}, "f1": {"weight": {"shape": [7], "values": [0.25, 0.25, 0.25, 0.25, 0.25, 0.25, 0.25]}}, "f2": {"weight": {"shape": [7], "values": [0.25, 0.25, 0.25, 0.25, 0.25, 0.25, 0.25]}}}}}