{"config": {"model_type": "TCN", "norm_mean": 0.10000000149011612, "norm_std": 0.8999999761581421}, "meta_data": {}, "parameters": {"input_size": 1, "hidden_size": 7, "output_size": 1, "kernel_size": 4, "stack_size": 8, "ps_hidden_size": 8, "ps_num_hidden_layers": 3}, "state_dict": {"plain_sequential": {"hidden_size": 8, "num_hidden_layers": 3, "direct_linear": {"weight": {"shape": [1, 7], "values": [-0.2214685082435608, 0.0025640130043029785, 0.35763248801231384, 0.29653099179267883, -0.1767006367444992, -0.017370015382766724, 0.2756586968898773]}}, "input_linear": {"weight": {"shape": [8, 7], "values": [0.041499555110931396, -0.1588463932275772, -0.09697762131690979, 0.2749282419681549, -0.33764734864234924, 0.28974899649620056, 0.26129308342933655, -0.22041769325733185, 0.06647920608520508, 0.019670158624649048, 0.32519301772117615, 0.1293117105960846, 0.3111664354801178, 0.25244370102882385, -0.13224729895591736, 0.19044581055641174, -0.3645848333835602, 0.2241334617137909, 0.3380504548549652, 0.19988760352134705, -0.1735498458147049, -0.3651201128959656, 0.004474133253097534, 0.2663836181163788, -0.1596318632364273, -0.24996735155582428, -0.27524664998054504, -0.13898608088493347, 0.11486420035362244, -0.34378674626350403, -0.36339613795280457, 0.23341014981269836, 0.3392511308193207, 0.28398218750953674, 0.0660441517829895, -0.17699697613716125, -0.13137724995613098, 0.29646065831184387, -0.34487614035606384, 0.1393354833126068, 0.04661214351654053, -0.11329397559165955, 0.0838778018951416, -0.12046045064926147, 0.16421273350715637, 0.3021176755428314, 0.1899144947528839, 0.27584561705589294, -0.19381169974803925, 0.11648833751678467, 0.18233785033226013, -0.2643355429172516, 0.3605835735797882, -0.1958230435848236, -0.13998959958553314, -0.2067313939332962]}, "bias": {"shape": [8], "values": [-0.17167876660823822, 0.2748285233974457, 0.37031295895576477, 0.1767360270023346, -0.2104373276233673, 0.13437780737876892, 0.25847527384757996, 0.10392612218856812]}}, "output_linear": {"weight": {"shape": [1, 8], "values": [-0.23945988714694977, 0.20332619547843933, 0.067178875207901, -0.17791976034641266, 0.03790408372879028, -0.27771109342575073, 0.024450987577438354, 0.038940876722335815]}, "bias": {"shape": [1], "values": [-0.11104185879230499]}}, "hidden_linear.0": {"weight": {"shape": [8, 8], "values": [0.16906431317329407, -0.09098917245864868, 0.29482904076576233, -0.28111132979393005, -0.11572550237178802, 0.31625381112098694, -0.11876708269119263, -0.13401786983013153, 0.3131324350833893, -0.23590631783008575, -0.1357918679714203, -0.2769756019115448, 0.14903613924980164, -0.07988664507865906, -0.23138855397701263, 0.2556609809398651, -0.0942150354385376, -0.023487210273742676, -0.3144076466560364, 0.20032408833503723, 0.18579676747322083, 0.1889077126979828, -0.3203252851963043, -0.12199771404266357, -0.3498578369617462, 0.2348015010356903, 0.30953994393348694, 0.17747828364372253, 0.075298011302948, -0.07838648557662964, -0.2660365402698517, -0.22027148306369781, 0.06645891070365906, -0.21433821320533752, 0.19665434956550598, 0.24698451161384583, -0.1442526876926422, -0.028775423765182495, -0.28143882751464844, -0.21767966449260712, 0.04602384567260742, -0.17439872026443481, -0.03754693269729614, -0.1728953868150711, -0.028097420930862427, -0.12431162595748901, 0.21038106083869934, -0.016763269901275635, 0.16004374623298645, 0.16233858466148376, -0.21026358008384705, 0.3165625035762787, 0.052308589220047, -0.021172523498535156, -0.01688629388809204, -0.071597158908844, -0.20757082104682922, -0.2383788526058197, -0.1527746170759201, 0.2725493609905243, 0.19413712620735168, 0.1539265215396881, 0.222971111536026, 0.06294673681259155]}, "bias": {"shape": [8], "values": [0.26653823256492615, 0.3168204128742218, -0.25222048163414, 0.0276297926902771, -0.19857634603977203, 0.2871033251285553, 0.02469557523727417, -0.23562313616275787]}}, "hidden_linear.1": {"weight": {"shape": [8, 8], "values": [-0.19070196151733398, 0.23147907853126526, -0.15408045053482056, 0.10521656274795532, -0.2742161750793457, -0.24488291144371033, 0.33110806345939636, -0.3448001444339752, 0.19202902913093567, 0.08113265037536621, 0.08692067861557007, 0.07558545470237732, -0.10377763211727142, 0.09573760628700256, -0.27138397097587585, 0.05042460560798645, 0.04116266965866089, 0.3128413259983063, 0.1801377236843109, -0.3314729332923889, 0.28166916966438293, 0.09744131565093994, -0.12372611463069916, 0.06294676661491394, -0.27860668301582336, 0.25403550267219543, 0.2952457368373871, 0.2396746575832367, 0.05102735757827759, 0.0638376772403717, -0.3313169479370117, -0.03848901391029358, -0.23472890257835388, -0.16601040959358215, 0.1963818371295929, 0.13595128059387207, -0.28817591071128845, -0.1324256956577301, -0.3092138469219208, -0.21026994287967682, -0.33336353302001953, 0.13418450951576233, -0.10673528909683228, 0.07533332705497742, 0.14884695410728455, 0.22602757811546326, -0.06738099455833435, -0.012176215648651123, -0.03596124053001404, -0.011259287595748901, -0.20665201544761658, -0.06971189379692078, -0.15874020755290985, 0.19151297211647034, -0.2988973557949066, 0.27878376841545105, -0.07319971919059753, -0.15441109240055084, -0.1971738636493683, -0.3391842246055603, -0.17874103784561157, 0.07433322072029114, -0.031077682971954346, 0.16656550765037537]}, "bias": {"shape": [8], "values": [0.24661710858345032, 0.20952263474464417, -0.09758496284484863, 0.2217639982700348, 0.25954756140708923, 0.19664809107780457, 0.15467742085456848, -0.02940240502357483]}}, "hidden_linear.2": {"weight": {"shape": [8, 8], "values": [-0.05139416456222534, 0.324902206659317, -0.08453992009162903, 0.2685253918170929, -0.08597001433372498, -0.03141668438911438, 0.18548014760017395, -0.3517768979072571, 0.08760488033294678, 0.1002630889415741, 0.26588568091392517, -0.044819921255111694, 0.1603998839855194, 0.19614389538764954, 0.2602192461490631, -0.1189708560705185, 0.16596052050590515, 0.2725050747394562, 0.25421908497810364, -0.2080432027578354, -0.18250760436058044, 0.13059714436531067, -0.3486163914203644, -0.27114951610565186, 0.1360267996788025, -0.09000685811042786, -0.1849018931388855, -0.09898030757904053, -0.26012375950813293, 0.30244675278663635, 0.14203259348869324, 0.0026486217975616455, -0.315603107213974, 0.13155922293663025, 0.08724376559257507, 0.2192167341709137, -0.006955653429031372, -0.023569107055664062, 0.35229113698005676, -0.0657263696193695, -0.11100341379642487, 0.0650109350681305, -0.07006964087486267, 0.25492528080940247, -0.05164000391960144, 0.018744081258773804, -0.06741881370544434, 0.1343182921409607, 0.015291810035705566, -0.16326968371868134, -0.06855863332748413, -0.33313727378845215, -0.033506035804748535, -0.09298530220985413, -0.16689953207969666, -0.22072920203208923, 0.09169042110443115, -0.21342362463474274, -0.16292749345302582, -0.17430372536182404, 0.037458181381225586, 0.26697543263435364, -0.09728264808654785, 0.04211050271987915]}, "bias": {"shape": [8], "values": [-0.1295667439699173, -0.11198669672012329, 0.07816797494888306, -0.17390713095664978, 0.27966293692588806, 0.09117445349693298, -0.2563719153404236, -0.3478267788887024]}}}, "block_stack.0": {"conv": {"weight": {"shape": [7, 1, 1], "values": [0.34241175651550293, -0.6251893043518066, 0.9807999134063721, -0.10936212539672852, -0.9467514753341675, -0.7461508512496948, 0.3906961679458618]}, "bias": {"shape": [7], "values": [0.9614955186843872, 0.9259393215179443, 0.9932913780212402, -0.6847803592681885, -0.640798807144165, -0.11986410617828369, -0.36443638801574707]}}, "conv1": {"weight": {"shape": [7, 1, 4], "values": [0.4212082624435425, 0.154554545879364, -0.10155588388442993, 0.047930359840393066, -0.29443490505218506, -0.2689146399497986, 0.4174220561981201, -0.38136881589889526, 0.024205565452575684, 0.3854557275772095, 0.15280616283416748, 0.34067094326019287, 0.15629339218139648, 0.28534430265426636, -0.26472556591033936, -0.4195147752761841, 0.18840724229812622, 0.31171172857284546, -0.21872222423553467, 0.4071279764175415, 0.20257997512817383, 0.3567391633987427, 0.35565024614334106, -0.012524127960205078, -0.33971476554870605, -0.011500775814056396, 0.22530299425125122, 0.09698313474655151]}, "bias": {"shape": [7], "values": [0.4750134348869324, 0.11001032590866089, -0.30186229944229126, -0.14248430728912354, 0.4887056350708008, 0.3942374587059021, -0.06317287683486938]}}, "conv2": {"weight": {"shape": [7, 7, 4], "values": [-0.08499614894390106, 0.09660021960735321, -0.010963186621665955, -0.12857328355312347, 0.04049180448055267, -0.045015692710876465, -0.05592799186706543, -0.11871452629566193, 0.17184977233409882, 0.020882323384284973, -0.008896097540855408, 0.11418934166431427, 0.047818586230278015, 0.03883494436740875, 0.013922706246376038, -0.018236815929412842, 0.04880373179912567, 0.007872313261032104, -0.13389524817466736, -0.07991030812263489, -0.15979737043380737, 0.04452362656593323, -0.08733635395765305, -0.015298336744308472, -0.10689173638820648, 0.11790086328983307, 0.0809343010187149, 0.012160763144493103, -0.17055174708366394, -0.10060889273881912, 0.05188097059726715, -0.06639063358306885, 0.0945790559053421, -0.17938460409641266, -0.07200748473405838, 0.11731164157390594, 0.00022234022617340088, 0.1159510463476181, -0.14865759015083313, -0.1752585619688034, -0.1488676518201828, 0.07194913923740387, -0.1320849061012268, 0.15455876290798187, 0.013646706938743591, 0.17090697586536407, -0.07212571799755096, 0.05009867250919342, -0.06731213629245758, -0.04526713490486145, 0.027667894959449768, -0.06485090404748917, 0.13604412972927094, 0.1408192366361618, -0.1849435418844223, 0.040210604667663574, 0.14102308452129364, -0.18845225870609283, -0.04768575727939606, -0.07387996464967728, -0.18876929581165314, -0.1629413366317749, 0.03927150368690491, -0.08603112399578094, -0.10942451655864716, -0.17534860968589783, -0.08878790587186813, 0.16042779386043549, 0.047436803579330444, -0.10013491660356522, 0.14679177105426788, -0.0016243457794189453, -0.18222732841968536, 0.14030499756336212, 0.15195228159427643, -0.1023062989115715, 0.022928088903427124, -0.07881493121385574, 0.16126777231693268, 0.11518259346485138, -0.10138601064682007, -0.03290244936943054, -0.15942806005477905, 0.06950728595256805, -0.028834104537963867, -0.12494979053735733, 0.1605573445558548, -0.0793064534664154, 0.05981254577636719, -0.07822993397712708, 0.16292820870876312, 0.09849868714809418, 0.05316366255283356, -0.15277065336704254, -0.14284221827983856, -0.1048356145620346, -0.17771416902542114, 0.15552078187465668, 0.0021173059940338135, -0.03392544388771057, -0.04119579493999481, 0.06443072855472565, -0.079404816031456, -0.06186135113239288, 0.13839028775691986, 0.1888314038515091, -0.07012079656124115, -0.12303280085325241, 0.00227925181388855, 0.034674420952796936, -0.15343907475471497, 0.039960578083992004, 0.15266655385494232, 0.05560809373855591, -0.0990540012717247, -0.1453859657049179, -0.1728878766298294, 0.009557515382766724, 0.06606869399547577, -0.052667707204818726, -0.06804060935974121, 0.15448419749736786, 0.027064695954322815, 0.16963960230350494, -0.08395958691835403, -0.07782858610153198, 0.002502143383026123, 0.00027273595333099365, 0.024954214692115784, 0.14920945465564728, -0.18592657148838043, 0.16227059066295624, 0.1373734027147293, 0.058699190616607666, 0.003200322389602661, 0.1658371239900589, -0.1375499665737152, -0.04734770953655243, 0.08760972321033478, 0.16459621489048004, 0.14513595402240753, 0.0949787050485611, -0.16089650988578796, -0.16945672035217285, 0.1864645928144455, 0.17394565045833588, 0.017046406865119934, -0.15817536413669586, 0.14611594378948212, 0.05060654878616333, -0.1878623515367508, 0.04828774929046631, 0.15692947804927826, 0.0922946184873581, -0.0769311934709549, -0.18759550154209137, 0.1407833844423294, -0.1725749969482422, -0.007537245750427246, -0.13799172639846802, 0.004707857966423035, -0.03132560849189758, -0.0071030110120773315, -0.11296301335096359, 0.0010002851486206055, 0.18154405057430267, 0.16240869462490082, 0.11079384386539459, -0.11533796787261963, -0.17024917900562286, -0.01258915662765503, 0.017540141940116882, 0.1548720747232437, 0.18770693242549896, -0.18413493037223816, -0.07331370562314987, 0.019106149673461914, 0.1459781378507614, -0.016185283660888672, 0.09136863052845001, -0.07364145666360855, -0.046903178095817566, 0.11858232319355011, 0.15843002498149872, 0.17210830748081207, -0.001096099615097046, -0.025248900055885315, -0.13935326039791107, -0.08478138595819473, -0.025226667523384094, -0.1829880028963089, -0.07116778194904327, 0.008091464638710022, 0.16594766080379486, 0.07175017893314362, -0.11774947494268417]}, "bias": {"shape": [7], "values": [-0.009899735450744629, 0.07279185950756073, -0.12214112281799316, 0.1573307067155838, -0.009191691875457764, -0.1024411991238594, -0.18594105541706085]}}, "bn1": {"weight": {"shape": [7], "values": [1.0, 1.0, 1.0, 1.0, 1.0, 1.0, 1.0]}, "bias": {"shape": [7], "values": [0.0, 0.0, 0.0, 0.0, 0.0, 0.0, 0.0]}, "running_mean": {"shape": [7], "values": [0.0, 0.0, 0.0, 0.0, 0.0, 0.0, 0.0]}, "running_var": {"shape": [7], "values": [1.0, 1.0, 1.0, 1.0, 1.0, 1.0, 1.0]}}, "bn2": {"weight": {"shape": [7], "values": [1.0, 1.0, 1.0, 1.0, 1.0, 1.0, 1.0]}, "bias": {"shape": [7], "values": [0.0, 0.0, 0.0, 0.0, 0.0, 0.0, 0.0]}, "running_mean": {"shape": [7], "values": [0.0, 0.0, 0.0, 0.0, 0.0, 0.0, 0.0]}, "running_var": {"shape": [7], "values": [1.0, 1.0, 1.0, 1.0, 1.0, 1.0, 1.0]}}}, "block_stack.1": {"conv": {"weight": {"shape": [7, 7, 1], "values": [0.06738439202308655, -0.2927355170249939, 0.24052420258522034, 0.016107112169265747, -0.15637579560279846, -0.028824537992477417, -0.05359342694282532, -0.05783924460411072, 0.2296018898487091, 0.11983239650726318, 0.1524568498134613, 0.11088714003562927, 0.35324373841285706, 0.32451263070106506, -0.07045614719390869, -0.0035952329635620117, 0.1495334804058075, 0.2781602442264557, -0.33842164278030396, 0.09527447819709778, -0.09806030988693237, 0.05394813418388367, -0.081123948097229, -0.09869411587715149, 0.3665165603160858, -0.31947144865989685, 0.14108708500862122, 0.17845210433006287, 0.3403796851634979, 0.08132904767990112, 0.2485692799091339, -0.22571738064289093, -0.15689335763454437, 0.1525866687297821, -0.3061804473400116, -0.27120500802993774, 0.07659304141998291, -0.2939172089099884, 0.14925536513328552, 0.271785706281662, 0.31988927721977234, 0.03621947765350342, -0.12019035220146179, 0.3131074607372284, -0.1897788792848587, -0.07762983441352844, -0.08137258887290955, 0.1903897225856781, -0.36116528511047363]}, "bias": {"shape": [7], "values": [-0.35046133399009705, 0.04655987024307251, -0.025355815887451172, 0.09802907705307007, -0.13550008833408356, -0.14252471923828125, 0.22463259100914001]}}, "conv1": {"weight": {"shape": [7, 7, 4], "values": [-0.06767448037862778, -0.04941484332084656, 0.014855042099952698, 0.038692787289619446, -0.10797641426324844, -0.04564306139945984, 0.15963305532932281, 0.180148646235466, -0.0884861871600151, 0.009752988815307617, 0.1640862077474594, 0.0822635143995285, -0.15792088210582733, 0.1294034868478775, 0.03046894073486328, 0.12262485921382904, -0.025735974311828613, -0.06864378601312637, 0.10070289671421051, -0.007327646017074585, 0.02866232395172119, -0.09324803948402405, -0.024371936917304993, 0.16597391664981842, -0.184387668967247, 0.016284137964248657, 0.022144421935081482, 0.11458317935466766, 0.031284451484680176, 0.06651915609836578, -0.14875131845474243, 0.0654856413602829, 0.06320108473300934, -0.14481407403945923, -0.0955003872513771, 0.17701993882656097, 0.11343632638454437, 0.04296275973320007, -0.15689736604690552, -0.04382750391960144, -0.10362272709608078, -0.14451754093170166, -0.062981516122818, 0.13396798074245453, -0.03671346604824066, -0.06579998135566711, -0.07413165271282196, -0.14367754757404327, 0.14237333834171295, -0.16899079084396362, -0.06450017541646957, -0.12009189277887344, 0.02970235049724579, 0.1186412125825882, -0.1288204938173294, -0.06748273968696594, 0.15094737708568573, 0.08856306970119476, -0.1284329742193222, -0.11147528141736984, -0.10712172836065292, 0.12708009779453278, -0.043696701526641846, -0.12554605305194855, -0.17476437985897064, -0.1380431205034256, -0.11801733821630478, 0.08034320175647736, -0.14532248675823212, -0.1847269982099533, 0.05377693474292755, -0.06785745918750763, -0.12797404825687408, -0.07469598948955536, -0.03465119004249573, -0.00022359192371368408, -0.016500324010849, -0.08032291382551193, -0.10901603102684021, -0.1069985032081604, -0.04533448815345764, 0.08063606917858124, -0.06003716588020325, -0.08866174519062042, 0.06820501387119293, 0.1738940328359604, -0.08220816403627396, 0.0186021625995636, 0.029110774397850037, -0.16390460729599, -0.09920228272676468, 0.09032990038394928, 0.14748527109622955, -0.08785342425107956, -0.09042135626077652, -0.1549546718597412, 0.008838310837745667, -0.15940038859844208, 0.05216628313064575, 0.13808606564998627, 0.13634683191776276, -0.024132907390594482, 0.0661676675081253, -0.05381566286087036, 0.14669518172740936, -0.0615086555480957, 0.04912383854389191, 0.1765078455209732, 0.05217956006526947, -0.037456005811691284, 0.054904237389564514, -0.11264453083276749, -0.09477736055850983, -0.07645145058631897, 0.043090954422950745, 0.017343759536743164, 0.07492254674434662, -0.09112568199634552, -0.04785950481891632, -0.15969902276992798, 0.1755608767271042, 0.07512013614177704, -0.04409387707710266, -0.07381454110145569, 0.036127567291259766, 0.0489058792591095, 0.02573201060295105, -0.018998101353645325, 0.07806183397769928, -0.14435911178588867, -0.04933151602745056, 0.02452412247657776, 0.04193684458732605, -0.153192400932312, -0.05762404203414917, -0.0009845346212387085, -0.12581342458724976, 0.05012716352939606, -0.0020503848791122437, -0.1597725749015808, -0.029328733682632446, -0.07335824519395828, -0.06480395048856735, -0.12711361050605774, -0.01713450253009796, 0.05486631393432617, -0.14379552006721497, 0.14864365756511688, 0.08345888555049896, 0.13151110708713531, -0.1844169795513153, 0.15392877161502838, 0.11027996242046356, 0.03830321133136749, -0.08102100342512131, 0.14877499639987946, 0.09852500259876251, 0.09388040006160736, -0.18843132257461548, -0.06412769109010696, 0.015405312180519104, -0.18520472943782806, -0.12275288254022598, -0.1557949334383011, 0.1028105765581131, -0.10950228571891785, -0.11962990462779999, 0.16710983216762543, -0.16622598469257355, -0.0831642672419548, -0.08390245586633682, 0.16942183673381805, -0.033153071999549866, -0.17350688576698303, -0.05790777504444122, 0.10959498584270477, 0.07514996826648712, 0.16114579141139984, -0.052592843770980835, -0.1662294566631317, 0.06014297902584076, 0.16024036705493927, -0.031016364693641663, -0.13076260685920715, 0.0960826426744461, 0.06076100468635559, -0.15768149495124817, 0.048194095492362976, -0.030196413397789, -0.036403074860572815, -0.09914756566286087, 0.03255206346511841, -0.13884741067886353, -0.1530221402645111, -0.0004434436559677124, 0.02447660267353058]}, "bias": {"shape": [7], "values": [0.1140744537115097, 0.030143484473228455, 0.15099142491817474, 0.12855477631092072, 0.09724374115467072, 0.047604188323020935, 0.06841908395290375]}}, "conv2": {"weight": {"shape": [7, 7, 4], "values": [-0.0012160390615463257, -0.09378189593553543, 0.06110025942325592, -0.035998642444610596, -0.02883806824684143, -0.1701488196849823, -0.0007136315107345581, 0.18155650794506073, 0.035339951515197754, -0.03583051264286041, 0.06323619186878204, 0.1795995980501175, -0.0914076492190361, 0.008414775133132935, 0.017659053206443787, 0.1440442055463791, 0.07970835268497467, 0.10661347210407257, 0.0003370940685272217, 0.030058816075325012, 0.11592541635036469, 0.12071792781352997, -0.010524064302444458, 0.029703795909881592, 0.03333030641078949, 0.13891012966632843, -0.014510616660118103, 0.004592418670654297, 0.16519059240818024, 0.16592420637607574, -0.04883198440074921, 0.08272750675678253, -0.07362059503793716, 0.013584867119789124, -0.023333236575126648, 0.03665386140346527, 0.18332557380199432, -0.06411214917898178, 0.11260800063610077, 0.13312803208827972, 0.08554120361804962, 0.15971677005290985, -0.13205823302268982, -0.09437009692192078, -0.11951863765716553, -0.015386700630187988, 0.09086872637271881, -0.09532637894153595, -0.06595733761787415, 0.01859050989151001, 0.07459278404712677, 0.04160046577453613, -0.13651683926582336, 0.049598678946495056, -0.14000669121742249, 0.1347590833902359, -0.060436248779296875, 0.023867174983024597, -0.15058179199695587, 0.031218290328979492, 0.07991309463977814, -0.07632436603307724, 0.1180044561624527, -0.16344401240348816, -0.0496157705783844, -0.0005571693181991577, -0.08972137421369553, 0.08790035545825958, -0.020108476281166077, 0.07904238998889923, 0.07712958753108978, 0.05201108753681183, 0.04572094976902008, 0.17284466326236725, -0.07720261067152023, -0.17977382242679596, -0.17259331047534943, 0.17150448262691498, 0.12187908589839935, 0.025006160140037537, -0.17893896996974945, 0.053995683789253235, -0.18352611362934113, 0.14496321976184845, -0.041696056723594666, -0.010264813899993896, -0.1795797199010849, 0.182075634598732, 0.06812627613544464, 0.11435650289058685, 0.1802547723054886, -0.11993295699357986, 0.13737820088863373, -0.18877951800823212, -0.1188296228647232, -0.009496033191680908, 0.1304679960012436, 0.09040971100330353, 0.04275012016296387, -0.14607924222946167, -0.1436738520860672, -0.0893588438630104, -0.06425536423921585, 0.16852961480617523, 0.1059526652097702, -0.13791754841804504, -0.1692419797182083, 0.11425302922725677, 0.12616144120693207, -0.07747777551412582, 0.005842387676239014, -0.14128592610359192, -0.05768401920795441, -0.04112151265144348, 0.181735560297966, 0.015209347009658813, -0.0519285649061203, 0.12770335376262665, -0.09452767670154572, -0.12680000066757202, -0.1431325376033783, -0.16494709253311157, -0.16902530193328857, 0.1212521344423294, 0.03748750686645508, -0.1704929620027542, -0.06444095075130463, 0.13335557281970978, 0.004036694765090942, -0.10958084464073181, 0.1647590845823288, 0.03326226770877838, 0.08981244266033173, 0.05973300337791443, -0.1434537023305893, 0.02755284309387207, -0.09596148133277893, 0.1447409838438034, 0.06338666379451752, -0.0697016790509224, 0.0024498701095581055, 0.05883164703845978, 0.05273742973804474, 0.12236912548542023, -0.05800183117389679, -0.06340506672859192, -0.18495991826057434, 0.07795856893062592, -0.16007699072360992, -0.05624812841415405, 0.13789846003055573, 0.046487048268318176, 0.044781044125556946, -0.0612206906080246, 0.021866977214813232, 0.09810985624790192, -0.0751786157488823, 0.05010966956615448, 0.13098452985286713, 0.14691369235515594, -0.10664694011211395, -0.010590419173240662, 0.13903437554836273, 0.05209212005138397, -0.1673744022846222, 0.1501094549894333, -0.02936561405658722, 0.18616251647472382, 0.12111388146877289, 0.07191644608974457, 0.0896022766828537, -0.13291656970977783, -0.11103077232837677, -0.12088437378406525, -0.05800701677799225, -0.1563946008682251, 0.08796839416027069, -0.08300404995679855, 0.16744478046894073, -0.0339801162481308, 0.12449626624584198, -0.1678840070962906, 0.150675430893898, -0.026692181825637817, -0.16989639401435852, 0.0785142332315445, -0.18187151849269867, -0.075760118663311, -0.05688588321208954, -0.10319329053163528, -0.16010981798171997, 0.1295454353094101, 0.17309729754924774, -0.030677035450935364, -0.10491421073675156, 0.14979328215122223]}, "bias": {"shape": [7], "values": [0.15849091112613678, 0.15866081416606903, 0.0740242451429367, 0.09035919606685638, -0.13346347212791443, -0.11031092703342438, 0.1590619832277298]}}, "bn1": {"weight": {"shape": [7], "values": [1.0, 1.0, 1.0, 1.0, 1.0, 1.0, 1.0]}, "bias": {"shape": [7], "values": [0.0, 0.0, 0.0, 0.0, 0.0, 0.0, 0.0]}, "running_mean": {"shape": [7], "values": [0.0, 0.0, 0.0, 0.0, 0.0, 0.0, 0.0]}, "running_var": {"shape": [7], "values": [1.0, 1.0, 1.0, 1.0, 1.0, 1.0, 1.0]}}, "bn2": {"weight": {"shape": [7], "values": [1.0, 1.0, 1.0, 1.0, 1.0, 1.0, 1.0]}, "bias": {"shape": [7], "values": [0.0, 0.0, 0.0, 0.0, 0.0, 0.0, 0.0]}, "running_mean": {"shape": [7], "values": [0.0, 0.0, 0.0, 0.0, 0.0, 0.0, 0.0]}, "running_var": {"shape": [7], "values": [1.0, 1.0, 1.0, 1.0, 1.0, 1.0, 1.0]}}}, "block_stack.2": {"conv": {"weight": {"shape": [7, 7, 1], "values": [-0.12963327765464783, -0.18202698230743408, -0.3652309477329254, 0.16309687495231628, 0.06924629211425781, 0.18571671843528748, -0.13523681461811066, 0.34324780106544495, 0.36530736088752747, 0.19208744168281555, 0.07406914234161377, -0.2857964336872101, -0.018507689237594604, 0.20939406752586365, 0.1054593026638031, -0.14528201520442963, -0.05642962455749512, -0.037247270345687866, 0.026434093713760376, 0.23500362038612366, -0.1782790571451187, -0.028334736824035645, 0.2552601993083954, -0.3778342604637146, 0.23172757029533386, -0.1563587188720703, -0.0037779808044433594, 0.032470136880874634, -0.11324891448020935, 0.0794568657875061, -0.25211626291275024, -0.2895623743534088, -0.26491624116897583, -0.3189060389995575, -0.3428078591823578, 0.025901049375534058, 0.3627670109272003, 0.05990779399871826, -0.3274151682853699, -0.05513307452201843, 0.1127113401889801, -0.18196971714496613, -0.3508431613445282, -0.3507729470729828, 0.0868208110332489, -0.112769216299057, 0.23630574345588684, 0.06672489643096924, 0.15242889523506165]}, "bias": {"shape": [7], "values": [-0.28646841645240784, 0.29873326420783997, 0.3381512463092804, -0.18297313153743744, 0.009687304496765137, -0.19701388478279114, -0.10642889142036438]}}, "conv1": {"weight": {"shape": [7, 7, 4], "values": [0.054521381855010986, 0.020034149289131165, 0.07446472346782684, 0.025998905301094055, -0.1674422025680542, 0.10609795153141022, 0.093778595328331, -0.04908230900764465, 0.09700392186641693, -0.029651165008544922, 0.16702307760715485, -0.1327693611383438, -0.17036548256874084, 0.17303888499736786, -0.1372598260641098, -0.17604023218154907, 0.06616143882274628, -0.14825943112373352, 0.023505747318267822, -0.15164576470851898, 0.027126401662826538, -0.07287681847810745, 0.11505727469921112, -0.18125680088996887, 0.014247998595237732, -0.07517444342374802, 0.0868263691663742, -0.1767839789390564, 0.06013074517250061, -0.04138927161693573, -0.11272065341472626, 0.17074193060398102, 0.12136553227901459, 0.03679370880126953, -0.05205012857913971, -0.053179770708084106, -0.09948620945215225, 0.09276898205280304, -0.13447082042694092, 0.041059017181396484, 0.12049002945423126, -0.09287526458501816, 0.04503770172595978, 0.03601197898387909, -0.0924161821603775, 0.025638580322265625, 0.06774537265300751, -0.17462287843227386, 0.18293632566928864, -0.058727994561195374, 0.15584488213062286, 0.04704993963241577, -0.14959198236465454, -0.10360132157802582, 0.1326039582490921, -0.056833863258361816, -0.07133051007986069, 0.03734557330608368, 0.12121941149234772, -0.1702723205089569, 0.1434115618467331, 0.04845413565635681, 0.08656175434589386, -0.11294078081846237, -0.17172178626060486, -0.07010050117969513, -0.04311510920524597, 0.034380555152893066, -0.10728771984577179, -0.1877700835466385, -0.13640877604484558, -0.18668942153453827, -0.047714054584503174, 0.11622004210948944, -0.05685645341873169, 0.07215012609958649, 0.12433730065822601, 0.10996483266353607, 0.17467249929904938, 0.04089875519275665, -0.14670398831367493, -0.17515693604946136, 0.16466693580150604, 0.09930174052715302, -0.1777111440896988, 0.04608067870140076, 0.061169251799583435, -0.14635345339775085, 0.07311005890369415, 0.08863885700702667, 0.13063465058803558, -0.06255149841308594, -0.08675318211317062, -0.011234074831008911, -0.06131945550441742, 0.1295389086008072, -0.05300450325012207, 0.07875742018222809, 0.14356814324855804, -0.12396079301834106, 0.08414874970912933, 0.07794968783855438, 0.17648692429065704, 0.11751993000507355, -0.14986971020698547, -0.102437824010849, -0.12940284609794617, 0.12807409465312958, 0.180237278342247, -0.07150506228208542, -0.028781592845916748, -0.08249490708112717, 0.17039619386196136, -0.1701831966638565, 0.07745887339115143, 0.1493520885705948, 0.15781404078006744, 0.048896774649620056, -0.07605339586734772, 0.1858612447977066, -0.10485338419675827, 0.16096468269824982, 0.0405261367559433, 0.08535544574260712, -0.01284344494342804, -0.07108089327812195, 0.15684671700000763, 0.18842919170856476, -0.1494610458612442, 0.07609333097934723, -0.002507343888282776, 0.1300048977136612, -0.13697941601276398, 0.020060330629348755, -0.11157375574111938, -0.10381074994802475, -0.10301871597766876, -0.15675392746925354, 0.06299079954624176, -0.13747814297676086, 0.14807848632335663, -0.06348125636577606, 0.1163681298494339, -0.12308049201965332, -0.04262609779834747, 0.1023562103509903, 0.13042138516902924, 0.008510932326316833, 0.152762308716774, -0.15634672343730927, -0.15980631113052368, -0.12656676769256592, 0.029963210225105286, 0.019182056188583374, 0.09770683944225311, 0.04731267690658569, 0.1329997330904007, 0.013398498296737671, -0.12343323975801468, -0.043341264128685, 0.03520980477333069, -0.13739146292209625, 0.11788825690746307, -0.10751775652170181, 0.17154331505298615, 0.01000601053237915, -0.112806037068367, -0.07141090929508209, 0.022262871265411377, 0.030075713992118835, -0.012343823909759521, -0.17997635900974274, 0.011139214038848877, -0.09379225969314575, -0.1662546843290329, 0.09401296079158783, 0.09410546720027924, 0.12359596788883209, 0.1300925463438034, -0.08511007577180862, -0.012104511260986328, 0.10941161215305328, -0.006652265787124634, 0.1358134001493454, -0.03792504966259003, -0.18571737408638, -0.12304548174142838, -0.10105162113904953, 0.1375989466905594, 0.13434679806232452, 0.09230996668338776, 0.004929646849632263, -0.18427251279354095, -0.07463466376066208, -0.16993306577205658, -0.11066525429487228]}, "bias": {"shape": [7], "values": [-0.06985746324062347, -0.09530326724052429, 0.1118149608373642, 0.03884527087211609, -0.03521151840686798, -0.10091046243906021, 0.036052554845809937]}}, "conv2": {"weight": {"shape": [7, 7, 4], "values": [-0.04465717077255249, 0.0005097538232803345, -0.06025014817714691, -0.15697148442268372, -0.07425496727228165, -0.0774710401892662, -0.029114022850990295, 0.1335105150938034, 0.051019638776779175, 0.05805949866771698, -0.17009641230106354, 0.0836828202009201, -0.03959186375141144, -0.05557580292224884, 0.06868831813335419, 0.07448528707027435, 0.10538552701473236, 0.03682033717632294, 0.11039109528064728, 0.17912085354328156, -0.07281558215618134, -0.15389999747276306, -0.10348048061132431, 0.08498086035251617, 0.1662064641714096, -0.027578189969062805, 0.15383951365947723, -0.07594286650419235, 0.15114758908748627, 0.16179166734218597, 0.10095201432704926, -0.18071573972702026, -0.03822122514247894, 0.18104441463947296, 0.062491729855537415, 0.0505642294883728, -0.0652700886130333, -0.10920067876577377, -0.1782435178756714, -0.16804684698581696, 0.1095908135175705, 0.007901504635810852, 0.0794721394777298, -0.06130136549472809, 0.1841440349817276, -0.1335107535123825, -0.036992207169532776, -0.005431473255157471, 0.07988013327121735, -0.17230305075645447, 0.022278591990470886, -0.17635038495063782, 0.10309351980686188, -0.1428346484899521, 0.05336065590381622, 0.11003057658672333, 0.1872573345899582, -0.18573158979415894, 0.04196971654891968, 0.08115480840206146, 0.0657573789358139, 0.14249269664287567, -0.03909386694431305, 0.002202942967414856, 0.15709231793880463, -0.008469581604003906, 0.1001986712217331, 0.12756197154521942, 0.06395252048969269, -0.1738956868648529, -0.1864652931690216, 0.022227689623832703, -0.01840861141681671, 0.15154732763767242, -0.15706275403499603, 0.14308853447437286, 0.16320063173770905, 0.034508705139160156, -0.1714082509279251, -0.05584914982318878, -0.11136288940906525, 0.04511018097400665, 0.06401629745960236, -0.12740275263786316, 0.01380738615989685, 0.13907109200954437, -0.15066789090633392, -0.1302974373102188, -0.00816275179386139, -0.15074212849140167, 0.09145872294902802, 0.04429228603839874, -0.01667959988117218, -0.17688597738742828, -0.12451239675283432, 0.059114694595336914, 0.16777370870113373, -0.06270299851894379, -0.09277918189764023, -0.024501100182533264, -0.031997933983802795, 0.10686720907688141, -0.062144532799720764, -0.006667152047157288, 0.0747748464345932, -0.1417551338672638, -0.05728451907634735, 0.17918287217617035, -0.12290740758180618, 0.12618400156497955, 0.0828133374452591, 0.06673963367938995, 0.18003173172473907, 0.07109420001506805, 0.10410766303539276, -0.17629081010818481, 0.05652603507041931, 0.04171568155288696, -0.021808266639709473, -0.07366864383220673, 0.13827233016490936, -0.1757659912109375, -0.04042696952819824, 0.12298627197742462, 0.015163034200668335, -0.042445361614227295, 0.03191383183002472, 0.12615104019641876, -0.13090869784355164, -0.14838948845863342, -0.12048172205686569, 0.05095462501049042, 0.17216740548610687, -0.04773961007595062, 0.15697194635868073, 0.00400938093662262, 0.12328191101551056, 0.031940802931785583, -0.06581863015890121, -0.01842537522315979, -0.05256931483745575, -0.1756144016981125, 0.07937093079090118, -0.022721052169799805, 0.07932771742343903, -0.15193146467208862, -0.12756723165512085, 0.0773470550775528, -0.11068951338529587, -0.18438681960105896, -0.16729676723480225, 0.08944238722324371, -0.007618755102157593, -0.06517772376537323, 0.1141694039106369, 0.1788780838251114, -0.1212192177772522, 0.12701170146465302, -0.02765120565891266, 0.012923076748847961, 0.10173211991786957, 0.005943745374679565, 0.08375914394855499, 0.13511084020137787, 0.1475927084684372, -0.07433652132749557, 0.06894128024578094, 0.009206399321556091, 0.13137634098529816, -0.03850342333316803, 0.03747837245464325, -0.005731701850891113, -0.06412924826145172, -0.0914643332362175, 0.020572736859321594, 0.0889628678560257, -0.05603468418121338, -0.09884119778871536, -0.11812662333250046, 0.018445223569869995, -0.09704376757144928, -0.11485101282596588, 0.18502043187618256, 0.09927533566951752, -0.09784654527902603, -0.04391792416572571, -0.12820321321487427, 0.13752080500125885, -0.03513282537460327, 0.025826290249824524, 0.10592694580554962, -0.11618458479642868, 0.03230920433998108, 0.15230201184749603, -0.17547452449798584, -0.1680651605129242]}, "bias": {"shape": [7], "values": [0.05085150897502899, -0.18033787608146667, 0.002728506922721863, -0.07747356593608856, -0.18127813935279846, -0.04147733747959137, -0.16313807666301727]}}, "bn1": {"weight": {"shape": [7], "values": [1.0, 1.0, 1.0, 1.0, 1.0, 1.0, 1.0]}, "bias": {"shape": [7], "values": [0.0, 0.0, 0.0, 0.0, 0.0, 0.0, 0.0]}, "running_mean": {"shape": [7], "values": [0.0, 0.0, 0.0, 0.0, 0.0, 0.0, 0.0]}, "running_var": {"shape": [7], "values": [1.0, 1.0, 1.0, 1.0, 1.0, 1.0, 1.0]}}, "bn2": {"weight": {"shape": [7], "values": [1.0, 1.0, 1.0, 1.0, 1.0, 1.0, 1.0]}, "bias": {"shape": [7], "values": [0.0, 0.0, 0.0, 0.0, 0.0, 0.0, 0.0]}, "running_mean": {"shape": [7], "values": [0.0, 0.0, 0.0, 0.0, 0.0, 0.0, 0.0]}, "running_var": {"shape": [7], "values": [1.0, 1.0, 1.0, 1.0, 1.0, 1.0, 1.0]}}}, "block_stack.3": {"conv": {"weight": {"shape": [7, 7, 1], "values": [0.025486409664154053, -0.1282317340373993, -0.144916832447052, -0.2855469584465027, -0.1527513712644577, 0.17608067393302917, 0.30574271082878113, -0.16142332553863525, 0.010498374700546265, 0.26431939005851746, 0.21715155243873596, 0.1768530309200287, -0.06162270903587341, -0.37054160237312317, 0.03333243727684021, -0.08825483918190002, 0.2078222930431366, -0.20251448452472687, -0.27549922466278076, -0.23615483939647675, 0.20399954915046692, -0.20354555547237396, 0.048731446266174316, -0.06632119417190552, -0.07639756798744202, -0.08348610997200012, -0.32207775115966797, 0.35451242327690125, 0.2901683747768402, -0.16919343173503876, 0.2874325215816498, -0.3002453148365021, 0.29842522740364075, -0.005548924207687378, -0.12345102429389954, -0.29135236144065857, -0.18719293177127838, -0.129695862531662, -0.28029000759124756, -0.22980272769927979, 0.3301989734172821, -0.054801762104034424, -0.1426917016506195, 0.25713875889778137, -0.3129595220088959, -0.11509549617767334, 0.1817026436328888, 0.056228965520858765, 0.17488732933998108]}, "bias": {"shape": [7], "values": [0.34639444947242737, 0.1495848000049591, 0.12456735968589783, 0.22123977541923523, 0.2699040472507477, -0.3164658546447754, 0.17079803347587585]}}, "conv1": {"weight": {"shape": [7, 7, 4], "values": [0.02063019573688507, 0.09021870791912079, -0.08440957218408585, 0.040271908044815063, -0.1315230280160904, -0.1465209722518921, -0.13327407836914062, 0.026709675788879395, 0.012099489569664001, 0.12319155037403107, 0.10661323368549347, -0.0026738345623016357, 0.18663732707500458, -0.18567904829978943, -0.06611787527799606, -0.022733494639396667, -0.1591397374868393, -0.022881150245666504, -0.07689882069826126, 0.10070602595806122, 0.02574189007282257, -0.12312322854995728, -0.06637625396251678, 0.1238822489976883, -0.019714385271072388, -0.07475494593381882, -0.13229550421237946, 0.159516379237175, -0.1753462851047516, 0.16923825442790985, -0.07435183972120285, -0.13966284692287445, -0.18776047229766846, -0.10700581967830658, 0.13960324227809906, -0.014470264315605164, 0.11681778728961945, 0.10348938405513763, 0.0996885746717453, 0.139593705534935, 0.18244899809360504, -0.1153186559677124, -0.0986887514591217, -0.011259853839874268, -0.02417682111263275, -0.15277990698814392, 0.07237298786640167, -0.17955976724624634, -0.12417357414960861, -0.09787900745868683, 0.07937191426753998, -0.17930597066879272, 0.0004417598247528076, 0.05201345682144165, -0.1465955674648285, 0.15325488150119781, 0.03776058554649353, 0.017738178372383118, 0.048393309116363525, -0.012370720505714417, -0.15309911966323853, 0.052080899477005005, 0.16859988868236542, -0.07350941747426987, 0.022991254925727844, 0.16595704853534698, -0.12732234597206116, -0.055093228816986084, 0.046342238783836365, -0.016153797507286072, 0.03102196753025055, 0.09034951031208038, 0.07744903862476349, 0.17645175755023956, -0.08268588036298752, 0.14633579552173615, -0.016651511192321777, -0.1153416782617569, -0.010008305311203003, -0.17091503739356995, 0.021543264389038086, -0.14249716699123383, 0.15274079144001007, 0.07146055996417999, 0.10440976917743683, -0.09943345189094543, -0.14175239205360413, -0.17291221022605896, 0.15889997780323029, -0.15974070131778717, 0.1552002876996994, 0.023893386125564575, -0.0559590607881546, 0.1531759649515152, 0.07559089362621307, -0.13384327292442322, -0.08518996089696884, -0.15880364179611206, 0.045111820101737976, -0.045159533619880676, -0.17436936497688293, -0.11319375038146973, -0.13396483659744263, -0.16437818109989166, 0.026308029890060425, 0.022083699703216553, -0.16697292029857635, -0.16856412589550018, 0.08177457749843597, -0.06453234702348709, -0.17598851025104523, -0.09609653800725937, -0.059180453419685364, -0.022623687982559204, 0.04707670211791992, 0.17051847279071808, -0.08578308671712875, 0.1540759652853012, 0.17079587280750275, -0.10882384330034256, 0.17965365946292877, -0.0839732438325882, 0.15349768102169037, 0.010154709219932556, -0.05449298024177551, 0.1140580028295517, -0.10388647019863129, 0.09610755741596222, -0.10815558582544327, -0.12300349026918411, 0.13901712000370026, 0.1556045264005661, 0.09936283528804779, 0.18479089438915253, 0.17704655230045319, -0.05445234477519989, 0.1467749923467636, -0.06130343675613403, -0.1292855441570282, 0.09441114962100983, 0.18361832201480865, -0.009090989828109741, -0.07046660780906677, -0.12786254286766052, 0.18272535502910614, 0.09239564836025238, 0.0476965606212616, 0.049782708287239075, 0.10340516269207001, 0.06373266875743866, 0.07312460243701935, 0.13906319439411163, -0.00011706352233886719, -0.1703759729862213, 0.09086774289608002, -0.18583261966705322, 0.09479300677776337, 0.1346793919801712, 0.11810712516307831, -0.07187369465827942, 0.07470877468585968, 0.17203079164028168, -0.05036701261997223, -0.030891016125679016, 0.13882477581501007, 0.03908190131187439, -0.017313480377197266, 0.1776333898305893, -0.13924601674079895, -0.06351904571056366, 0.005705058574676514, 0.18559689819812775, -0.04349637031555176, 0.09767679870128632, -0.014139547944068909, 0.1266166716814041, 0.02313952147960663, 0.1605687290430069, -0.03896036744117737, -0.13457876443862915, -0.17645378410816193, -0.13589435815811157, -0.10671617090702057, 0.15080131590366364, -0.02518010139465332, -0.10520002990961075, -0.07256811112165451, -0.13077279925346375, 0.10333923995494843, 0.01035366952419281, -0.00968499481678009, 0.1704123467206955, -0.18230532109737396, 0.04653501510620117, -0.08826770633459091, 0.06818394362926483]}, "bias": {"shape": [7], "values": [0.10974524915218353, 0.1320774108171463, 0.12892906367778778, 0.007898837327957153, -0.13211989402770996, 0.0099153071641922, 0.011952757835388184]}}, "conv2": {"weight": {"shape": [7, 7, 4], "values": [-0.0910629853606224, -0.03632587194442749, -0.17442727088928223, -0.1381358504295349, 0.17102472484111786, -0.1562977433204651, -0.1567383110523224, 0.018880248069763184, -0.06661086529493332, -0.060627833008766174, 0.030611172318458557, -0.15366847813129425, -0.02446921169757843, -0.011920511722564697, 0.14889304339885712, 0.038534730672836304, 0.14891980588436127, 0.16903649270534515, 0.03779688477516174, 0.007073834538459778, -0.005700796842575073, -0.14524851739406586, 0.012708410620689392, 0.1791541427373886, 0.07780291140079498, -0.06158819794654846, -0.022705167531967163, 0.06747503578662872, 0.08713342249393463, 0.10543237626552582, -0.0679449588060379, -0.020736411213874817, 0.1377991884946823, 0.012450411915779114, -0.03555631637573242, 0.15976731479167938, -0.018697887659072876, 0.03226529061794281, 0.054400503635406494, -0.03476417064666748, 0.0661822110414505, -0.05868123471736908, -0.049547791481018066, 0.16766999661922455, 0.12692101299762726, -0.07821366935968399, 0.10777901113033295, -0.011572211980819702, 0.15059863030910492, -0.13713490962982178, -0.01853795349597931, -0.06071364879608154, -0.02870018780231476, 0.16784296929836273, 0.16906924545764923, -0.16242536902427673, 0.10669969022274017, 0.05038145184516907, -0.12313708662986755, 0.12792916595935822, 0.10881303250789642, -0.12941235303878784, 0.0724068135023117, -0.05425751209259033, -0.08178897202014923, 0.13489611446857452, 0.1401592642068863, 0.04776875674724579, -0.09476817399263382, -0.02654944360256195, -0.04582597315311432, -0.13592244684696198, 0.014773726463317871, 0.019651830196380615, -0.039002448320388794, -0.09537810832262039, -0.019315361976623535, 0.013781800866127014, 0.16138477623462677, -0.11103043705224991, 0.007796689867973328, -0.012058839201927185, 0.05131585896015167, -0.119370236992836, -0.09213300049304962, 0.06608353555202484, 0.020802348852157593, 0.07893069088459015, -0.18153750896453857, 0.011276975274085999, -0.036290332674980164, 0.15502063930034637, -0.044340699911117554, 0.07725505530834198, -0.15808095037937164, -0.14001592993736267, -0.14253994822502136, -0.07022440433502197, -0.06635075807571411, 0.12080638110637665, -0.08765797317028046, -0.04869343340396881, 0.03408767282962799, 0.012243077158927917, -0.18688084185123444, 0.030186057090759277, 0.17577208578586578, -0.13409626483917236, 0.009661003947257996, 0.001990482211112976, 0.11358766257762909, -0.11488065868616104, -0.1478365659713745, 0.09156332910060883, -0.02632017433643341, 0.03446699678897858, -0.03828912973403931, -0.025494784116744995, 0.1304289847612381, -0.12216561287641525, -0.058509960770606995, -0.14875072240829468, -0.11815696954727173, 0.1313130110502243, -0.09193641692399979, -0.044863179326057434, 0.03848862648010254, -0.17171211540699005, 0.1275344341993332, -0.1720268577337265, 0.010004043579101562, -0.17817068099975586, 0.029902920126914978, 0.14382018148899078, 0.111789271235466, 0.09950001537799835, -0.03340744972229004, 0.09670908749103546, -0.12964962422847748, 0.17122091352939606, 0.08903418481349945, 0.13045544922351837, -0.10242216289043427, 0.12509407103061676, 0.13440264761447906, 0.15838845074176788, -0.05510076880455017, -0.13204999268054962, -0.0973152369260788, 0.13485492765903473, -0.10643970221281052, 0.10615234076976776, -0.013549596071243286, -0.15251696109771729, -0.14183969795703888, -0.004698038101196289, -0.07765613496303558, 0.17481081187725067, -0.08509716391563416, -0.18290050327777863, 0.12107019126415253, -0.17109830677509308, 0.062095120549201965, -0.13646447658538818, -0.08635472506284714, 0.06610824167728424, 0.0010916143655776978, -0.02978980541229248, 0.0222012996673584, -0.01850961148738861, -0.07475145161151886, -0.1699792891740799, 0.12149937450885773, 0.14288239181041718, -0.09776916354894638, 0.17049409449100494, -0.030829057097434998, -0.028157934546470642, 0.14629705250263214, 0.11820192635059357, -0.1200195774435997, -0.18527579307556152, 0.051900118589401245, 0.06084446609020233, 0.0393909215927124, -0.08081065863370895, -0.09319812059402466, -0.021925032138824463, -0.08076586574316025, -0.15079104900360107, 0.1871659904718399, 0.0043180882930755615, -0.1881614476442337, 0.033957287669181824, -0.11693397164344788, 0.11640937626361847]}, "bias": {"shape": [7], "values": [0.12592248618602753, 0.17797328531742096, -0.16216827929019928, -0.17460694909095764, -0.14740027487277985, 0.05966266989707947, -0.02967168390750885]}}, "bn1": {"weight": {"shape": [7], "values": [1.0, 1.0, 1.0, 1.0, 1.0, 1.0, 1.0]}, "bias": {"shape": [7], "values": [0.0, 0.0, 0.0, 0.0, 0.0, 0.0, 0.0]}, "running_mean": {"shape": [7], "values": [0.0, 0.0, 0.0, 0.0, 0.0, 0.0, 0.0]}, "running_var": {"shape": [7], "values": [1.0, 1.0, 1.0, 1.0, 1.0, 1.0, 1.0]}}, "bn2": {"weight": {"shape": [7], "values": [1.0, 1.0, 1.0, 1.0, 1.0, 1.0, 1.0]}, "bias": {"shape": [7], "values": [0.0, 0.0, 0.0, 0.0, 0.0, 0.0, 0.0]}, "running_mean": {"shape": [7], "values": [0.0, 0.0, 0.0, 0.0, 0.0, 0.0, 0.0]}, "running_var": {"shape": [7], "values": [1.0, 1.0, 1.0, 1.0, 1.0, 1.0, 1.0]}}}, "block_stack.4": {"conv": {"weight": {"shape": [7, 7, 1], "values": [-0.06445443630218506, -0.08495718240737915, 0.16154822707176208, 0.34922561049461365, -0.1634664386510849, 0.26524755358695984, -0.2632727026939392, -0.31687039136886597, -0.1832256317138672, 0.2175685465335846, -0.19287356734275818, -0.17369060218334198, -0.09378364682197571, -0.01758718490600586, 0.3235888183116913, -0.2110932618379593, -0.07629147171974182, 0.29914912581443787, 0.1945817768573761, 0.265254408121109, 0.02343156933784485, -0.11209815740585327, 0.0669611394405365, -0.12992623448371887, 0.05741894245147705, 0.07248547673225403, -0.16414260864257812, -0.25787094235420227, 0.11489400267601013, 0.23502889275550842, -0.33221614360809326, -0.2979612946510315, -0.08909749984741211, -0.018911123275756836, 0.07528579235076904, -0.09686169028282166, 0.03394860029220581, 0.06888818740844727, 0.1370702087879181, 0.35113808512687683, -0.03822287917137146, -0.013985037803649902, -0.1112087070941925, -0.05360063910484314, 0.3042798936367035, 0.040274620056152344, -0.12303870916366577, 0.19630685448646545, 0.17125943303108215]}, "bias": {"shape": [7], "values": [-0.008450686931610107, -0.1506655067205429, -0.10292977094650269, -0.16504324972629547, -0.22686564922332764, 0.03715038299560547, -0.3159483075141907]}}, "conv1": {"weight": {"shape": [7, 7, 4], "values": [0.09235717356204987, 0.1277664452791214, -0.11013247817754745, 0.07339899241924286, -0.10147204995155334, 0.15155358612537384, -0.014481797814369202, 0.08324538171291351, -0.1818065047264099, 0.06609322130680084, -0.18663190305233002, 0.10094656050205231, 0.04869481921195984, 0.06697998940944672, 0.00565946102142334, 0.12295083701610565, -0.0705159455537796, -0.0948498398065567, 0.015451014041900635, 0.020923852920532227, -0.15121422708034515, -0.06363026797771454, -0.10292472690343857, -0.11936640739440918, 0.08908234536647797, -0.0769890695810318, -0.027705341577529907, 0.16918186843395233, -0.0054350346326828, 0.09198124706745148, 0.05560009181499481, 0.06281094253063202, -0.12421446293592453, -0.03409343957901001, 0.10634119808673859, -0.1650862991809845, 0.03222376108169556, -0.04875645041465759, -0.060861021280288696, 0.06872431933879852, 0.08492051064968109, 0.07109706103801727, -0.06209491193294525, 0.15070755779743195, 0.01668301224708557, 0.1332317441701889, -0.06900390982627869, 0.05584163963794708, -0.1112968772649765, 0.052458927035331726, 0.08833600580692291, 0.17353872954845428, -0.07713572680950165, 0.1489938348531723, 0.18051137030124664, -0.11146850138902664, -0.05424138903617859, 0.013026148080825806, 0.07127918303012848, -0.07077933102846146, 0.06933914124965668, -0.02029341459274292, 0.1338183432817459, -0.024784475564956665, -0.11772352457046509, 0.022327736020088196, -0.08441080898046494, -0.09473365545272827, 0.18695081770420074, -0.0950254425406456, -0.09410317987203598, 0.07520641386508942, 0.12917722761631012, 0.08410273492336273, 0.15349362790584564, -0.04464632272720337, 0.14677436649799347, 0.1031230241060257, 0.02212795615196228, 0.021021053194999695, -0.09986412525177002, 0.0229814350605011, 0.08771048486232758, 0.10548566281795502, -0.12012840807437897, -0.18862150609493256, -0.029073283076286316, -0.11027537286281586, -0.1461217701435089, -0.16165661811828613, 0.13838429749011993, 0.11903195083141327, 0.1682220846414566, 0.05752094089984894, 0.15118740499019623, 0.09142367541790009, 0.0010350048542022705, 0.011171475052833557, 0.08413009345531464, -0.12245706468820572, 0.022768482565879822, -0.12989763915538788, -0.029036864638328552, 0.09293772280216217, 0.07854031026363373, 0.07680846750736237, 0.14326350390911102, 0.1878327876329422, -0.14844369888305664, -0.07665778696537018, -0.1230379119515419, -0.06641513854265213, -0.05749022960662842, -0.06970546394586563, -0.18041543662548065, -0.014250949025154114, -0.05749303102493286, 0.13639332354068756, -0.13491204380989075, 0.0789920836687088, 0.18323691189289093, 0.12617306411266327, -0.11833003163337708, 0.07714493572711945, -0.15076610445976257, -0.13506397604942322, -0.08129686117172241, 0.028630033135414124, -0.15177491307258606, 0.09910492599010468, 0.14592646062374115, -0.0931386649608612, 0.10959909856319427, 0.07197095453739166, -0.17849567532539368, 0.14203767478466034, 0.16659460961818695, 0.07765774428844452, 0.09742669761180878, 0.1732320934534073, -0.1439058482646942, -0.018914610147476196, 0.04488538205623627, -0.025614231824874878, -0.14990448951721191, 0.11202110350131989, 0.006516784429550171, 0.07757671177387238, 0.006822511553764343, 0.09579335153102875, -0.10025186091661453, 0.09906826913356781, -0.13655950129032135, -0.1487303078174591, -0.001289665699005127, 0.15391363203525543, 0.11084319651126862, -0.07306328415870667, 0.11741475760936737, -0.048366889357566833, 0.024814695119857788, -0.0956418439745903, 0.18744604289531708, -0.16679179668426514, 0.06776244938373566, 0.016919955611228943, 0.18427960574626923, -0.15223577618598938, 0.08066089451313019, 0.04024767875671387, -0.12726156413555145, -0.05589553713798523, -0.12785765528678894, 0.187478706240654, -0.12965212762355804, 0.17760123312473297, -0.14251072704792023, -0.005253523588180542, 0.02707570791244507, 0.09372575581073761, -0.09854292124509811, 0.11986611783504486, 0.027109801769256592, -0.05557979643344879, 0.15678788721561432, 0.09018795192241669, 0.11196525394916534, 0.06480284035205841, 0.007328912615776062, -0.17777852714061737, -0.10141061246395111, 0.09773977100849152, 0.06726287305355072, 0.08147035539150238, 0.1539144068956375, -0.13542722165584564]}, "bias": {"shape": [7], "values": [0.09070925414562225, 0.1072462648153305, -0.13899129629135132, 0.01925663650035858, -0.04565814137458801, -0.1833067387342453, -0.1470033824443817]}}, "conv2": {"weight": {"shape": [7, 7, 4], "values": [0.14828704297542572, 0.18490074574947357, 0.06841300427913666, -0.12338239699602127, -0.018263190984725952, 0.06523005664348602, 0.1573789268732071, 0.007915958762168884, 0.07950352132320404, 0.17685435712337494, -0.1587434858083725, -0.05716581642627716, -0.014999449253082275, 0.023228570818901062, 0.0879233330488205, 0.16829870641231537, 0.017586424946784973, -0.0629681795835495, 0.012529388070106506, 0.06098364293575287, -0.007217958569526672, 0.08987541496753693, 0.07269342243671417, -0.1524524986743927, -0.0785408690571785, -0.07096415013074875, -0.007244870066642761, 0.04744628071784973, 0.073887899518013, -0.02155919373035431, -0.055349841713905334, -0.07195425033569336, 0.18829230964183807, -0.125937819480896, 0.10806484520435333, -0.13490186631679535, -0.04723241925239563, -0.06477489322423935, -0.00046518445014953613, -0.03183166682720184, 0.17266903817653656, 0.10743357241153717, -0.04269447922706604, 0.05189862847328186, -0.0997515544295311, -0.06519867479801178, 0.09757573902606964, 0.16907919943332672, 0.1881096512079239, 0.017206743359565735, 0.13565079867839813, 0.11365939676761627, 0.10516129434108734, -0.0678957998752594, -0.06202585995197296, 0.09498290717601776, 0.15810851752758026, 0.05085583031177521, -0.15822243690490723, 0.03892837464809418, -0.04569543898105621, -0.07795069366693497, -0.01330190896987915, 0.1128767877817154, 0.11157186329364777, -0.135951966047287, -0.02955639362335205, 0.12035651504993439, 0.051285892724990845, 0.1629064530134201, -0.11053086817264557, -0.1528601348400116, -0.11192463338375092, -0.0010606348514556885, -0.0064967721700668335, -0.07049921154975891, 0.03916041553020477, 0.05508407950401306, -0.05323958396911621, -0.026437774300575256, -0.02153635025024414, -0.13720113039016724, 0.06421767175197601, 0.02008017897605896, 0.12115736305713654, 0.15387313067913055, -0.028311818838119507, -0.08609749376773834, 0.17079393565654755, -0.07976458966732025, -0.05299416184425354, -0.16811330616474152, -0.014337465167045593, -0.13923701643943787, 0.10091941058635712, -0.08661402761936188, -0.17710058391094208, -0.014410808682441711, 0.1290634721517563, -0.06450317800045013, 0.16265679895877838, 0.16370730102062225, -0.07130368053913116, -0.14181354641914368, -0.18013542890548706, 0.14709798991680145, 0.1588214784860611, -0.04731650650501251, 0.13470427691936493, 0.03787299990653992, -0.12054261565208435, -0.015417084097862244, -0.12923601269721985, 0.14016775786876678, 0.06756983697414398, -0.12385012954473495, -0.012981951236724854, -0.16289860010147095, 0.14962296187877655, 0.012836948037147522, 0.10943444073200226, -0.13717368245124817, -0.08438932150602341, 0.06792782247066498, -0.006179094314575195, -0.12704941630363464, 0.18672563135623932, -0.031080618500709534, -0.14720238745212555, -0.08588935434818268, -0.006862416863441467, 0.14292065799236298, 0.06931360065937042, -0.09747987240552902, 0.04112052917480469, -0.10527518391609192, -0.12861351668834686, -0.003953024744987488, -0.0657903179526329, 0.050706490874290466, -0.12221089750528336, 0.09179480373859406, -0.005463242530822754, -0.07193990051746368, 0.14704786241054535, 0.11861960589885712, 0.04620625078678131, 0.06037747859954834, 0.08527015149593353, -0.08591010421514511, 0.17006979882717133, -0.11359640210866928, -0.05963921546936035, 0.14303617179393768, 0.11741577088832855, -0.05415891110897064, 0.14652429521083832, 0.10393895208835602, 0.0555313378572464, 0.05623850226402283, 0.042756468057632446, -0.1707720160484314, 0.04465918242931366, -0.07815563678741455, -0.09159891307353973, 0.07347141206264496, 0.1659974604845047, 0.05565355718135834, -0.04852402210235596, 0.019330620765686035, 0.10731704533100128, -0.11202923208475113, -0.09256187081336975, -0.18279579281806946, 0.043652862310409546, 0.11103363335132599, 0.034413158893585205, -0.1619020402431488, -0.12917031347751617, 0.16045238077640533, -0.1268795281648636, -0.030723601579666138, 0.11198841035366058, 0.1434987634420395, 0.18405388295650482, 0.034199029207229614, 0.030603304505348206, -0.0737752690911293, -0.16708344221115112, 0.039698436856269836, 0.010242804884910583, 0.06149269640445709, -0.11408441513776779, 0.0530075877904892, 0.06914915144443512, 0.08842949569225311]}, "bias": {"shape": [7], "values": [0.11581940948963165, -0.08035986125469208, -0.11150522530078888, 0.03676089644432068, 0.12381143867969513, -0.12574529647827148, -0.020249128341674805]}}, "bn1": {"weight": {"shape": [7], "values": [1.0, 1.0, 1.0, 1.0, 1.0, 1.0, 1.0]}, "bias": {"shape": [7], "values": [0.0, 0.0, 0.0, 0.0, 0.0, 0.0, 0.0]}, "running_mean": {"shape": [7], "values": [0.0, 0.0, 0.0, 0.0, 0.0, 0.0, 0.0]}, "running_var": {"shape": [7], "values": [1.0, 1.0, 1.0, 1.0, 1.0, 1.0, 1.0]}}, "bn2": {"weight": {"shape": [7], "values": [1.0, 1.0, 1.0, 1.0, 1.0, 1.0, 1.0]}, "bias": {"shape": [7], "values": [0.0, 0.0, 0.0, 0.0, 0.0, 0.0, 0.0]}, "running_mean": {"shape": [7], "values": [0.0, 0.0, 0.0, 0.0, 0.0, 0.0, 0.0]}, "running_var": {"shape": [7], "values": [1.0, 1.0, 1.0, 1.0, 1.0, 1.0, 1.0]}}}, "block_stack.5": {"conv": {"weight": {"shape": [7, 7, 1], "values": [-0.1752302050590515, -0.09673693776130676, 0.15225735306739807, 0.349150687456131, 0.20067772269248962, -0.19747288525104523, -0.1239076554775238, -0.1243700385093689, -0.09648746252059937, 0.21183088421821594, -0.35205337405204773, 0.1532209813594818, -0.34907692670822144, 0.1992579996585846, -0.10097303986549377, -0.29425013065338135, 0.24639657139778137, -0.3678455352783203, -0.20865127444267273, -0.06541067361831665, 0.18007221817970276, -0.1637096107006073, 0.09349775314331055, 0.23553064465522766, -0.08045768737792969, 0.10880234837532043, -0.2838415503501892, -0.33277657628059387, 0.3270951807498932, -0.21556444466114044, 0.31018123030662537, 0.04864776134490967, 0.21583107113838196, -0.31856414675712585, -0.1492428332567215, -0.2084023356437683, -0.23285023868083954, -0.1463475227355957, -0.2034572958946228, -0.11412528157234192, 0.05012392997741699, -0.26790353655815125, 0.06185120344161987, 0.3581278622150421, -0.2509584426879883, 0.12124297022819519, -0.11761313676834106, -0.28837066888809204, -0.10638749599456787]}, "bias": {"shape": [7], "values": [-0.1673838198184967, 0.09837141633033752, 0.19861307740211487, 0.027984023094177246, -0.061297088861465454, 0.09513601660728455, 0.16231539845466614]}}, "conv1": {"weight": {"shape": [7, 7, 4], "values": [-0.06309640407562256, 0.08061929047107697, 0.12281109392642975, 0.04381941258907318, -0.08805433660745621, 0.006503462791442871, -0.047624215483665466, -0.106219582259655, 0.14584164321422577, -0.06786520779132843, 0.04000696539878845, -0.10054511576890945, -0.11491377651691437, 0.07754762470722198, 0.056201428174972534, -0.019368648529052734, 0.10388143360614777, -0.00022269785404205322, 0.1574099212884903, 0.044149547815322876, 0.06404732167720795, 0.13251672685146332, -0.1811867356300354, 0.18137089908123016, 0.06641201674938202, -0.02587650716304779, -0.0008540749549865723, 0.1830390840768814, -0.10984201729297638, 0.0757138580083847, 0.10832200944423676, 0.08400700986385345, 0.10578106343746185, -0.011095508933067322, -0.10376866161823273, 0.12883900105953217, -0.1511957347393036, 0.053692832589149475, 0.05074778199195862, -0.032827228307724, 0.1346462219953537, 0.02837786078453064, -0.07486163824796677, -0.05976046621799469, 0.019363462924957275, -0.15803945064544678, -0.14718283712863922, -0.05954320728778839, 0.05121450126171112, 0.07744880020618439, -0.09603697061538696, -0.060484662652015686, -0.1148165687918663, 0.15767236053943634, -0.07437562942504883, -0.18799267709255219, -0.000819087028503418, -0.005669638514518738, -0.11120739579200745, -0.1177111566066742, -0.11261634528636932, 0.17827512323856354, 0.021014362573623657, -0.058410242199897766, 0.041625186800956726, 0.15398110449314117, -0.07335077226161957, 0.07406030595302582, 0.13802753388881683, 0.04039508104324341, -0.18744154274463654, -0.10111825913190842, -0.12258344888687134, 0.024941936135292053, 0.0018488913774490356, 0.01761142909526825, 0.01749776303768158, 0.06486521661281586, 0.16655267775058746, 0.013937443494796753, -0.06665696203708649, -0.17339125275611877, -0.16331002116203308, 0.1494418829679489, 0.03685395419597626, 0.021954283118247986, 0.007977798581123352, 0.11053229868412018, 0.05086177587509155, 0.05741216242313385, -0.12673354148864746, -0.18606439232826233, -0.00985187292098999, 0.13481156527996063, 0.16870631277561188, -0.12374629825353622, -0.0004875659942626953, 0.09358884394168854, -0.02745184302330017, -0.13905297219753265, -0.02241489291191101, -0.14193345606327057, -0.11701928079128265, 0.18069641292095184, -0.11646127700805664, -0.06321831047534943, 0.07130898535251617, -0.08186748623847961, 0.14758260548114777, -0.11620208621025085, 0.05685687065124512, -0.035029247403144836, 0.17783571779727936, -0.1691957712173462, -0.12347821146249771, 0.033458903431892395, 0.03711073100566864, -0.1370423436164856, 0.11621980369091034, 0.12129627168178558, 0.013900473713874817, 0.06670252978801727, -0.0005563348531723022, -0.16653837263584137, 0.03854238986968994, 0.07594127953052521, 0.02713780105113983, -0.15091685950756073, -0.05860748887062073, 0.01802647113800049, -0.07846102863550186, -0.01836661994457245, 0.05920892953872681, -0.010276004672050476, 0.09473307430744171, -0.11544245481491089, 0.0730481892824173, 0.09493224322795868, -0.012988835573196411, -0.04795791208744049, -0.011699169874191284, 0.028318271040916443, 0.14523185789585114, 0.0813087671995163, 0.021866798400878906, 0.18139581382274628, 0.05449308454990387, 0.10318000614643097, -0.12194202095270157, -0.14549905061721802, -0.17101015150547028, 0.059841930866241455, 0.045822396874427795, -0.09822610765695572, -0.020177409052848816, -0.1508289873600006, 0.08838100731372833, -0.14282560348510742, 0.06482471525669098, -0.09389672428369522, 0.015249505639076233, -0.07866846770048141, -0.01405496895313263, 0.10324408113956451, -0.18169793486595154, -0.11324167251586914, 0.15393070876598358, 0.022727161645889282, 0.12365745007991791, -0.06245380640029907, -0.08508371561765671, 0.08145345747470856, -0.06279560923576355, 0.08908863365650177, 0.06703005731105804, 0.1372947245836258, -0.015435650944709778, -0.12867078185081482, 0.01183319091796875, 0.1075192540884018, 0.0023097991943359375, 0.05116058886051178, 0.1215878576040268, 0.0069761574268341064, 0.15744583308696747, 0.000884518027305603, -0.15231384336948395, 0.10439856350421906, -0.14796987175941467, 0.1054667979478836, -0.11321443319320679, 0.15842010080814362, 0.07908864319324493, -0.09524611383676529, 0.029384061694145203, -0.18373258411884308]}, "bias": {"shape": [7], "values": [-0.18811644613742828, 0.021947383880615234, -0.15103010833263397, 0.11078666150569916, 0.17530126869678497, 0.1043340414762497, 0.18190021812915802]}}, "conv2": {"weight": {"shape": [7, 7, 4], "values": [0.04479646682739258, 0.08139823377132416, -0.11138327419757843, 0.034076035022735596, -0.05091571807861328, 0.15116353332996368, 0.02149289846420288, -0.12657758593559265, -0.11253555864095688, -0.006926983594894409, 0.1075940877199173, -0.11788403987884521, -0.10715433210134506, 0.13835318386554718, 0.10440783202648163, 0.0832543820142746, -0.15312086045742035, 0.030455544590950012, -0.1421845555305481, -0.03166171908378601, -0.059092357754707336, 0.10155542194843292, -0.154368594288826, 0.13369207084178925, -0.029177457094192505, 0.06149677932262421, 0.1411844938993454, -0.16094858944416046, -0.05209541320800781, -0.07127378135919571, 0.18703661859035492, 0.08301080763339996, -0.1040884330868721, -0.04297415912151337, 0.09212075173854828, 0.10966391861438751, 0.1470298320055008, 0.1560060828924179, 0.12735499441623688, 0.10388006269931793, 0.019698768854141235, -0.06306092441082001, -0.06831099838018417, 0.04259522259235382, -0.04778759181499481, -0.1623874306678772, -0.04840323328971863, 0.04313972592353821, 0.010312870144844055, 0.12651582062244415, 0.13674692809581757, 0.11381448805332184, -0.1238623633980751, -0.11983587592840195, -0.009405598044395447, 0.08933790028095245, -0.0989571064710617, 0.10564135015010834, -0.0873602107167244, -0.0015274882316589355, -0.1200113520026207, -0.04046925902366638, 0.006197422742843628, -0.1554919332265854, -0.1456243395805359, -0.03542301058769226, 0.10255284607410431, 0.08289553225040436, -0.10856381803750992, 0.09598536789417267, 0.1887250691652298, -0.1578240990638733, -0.03908264636993408, 0.08310462534427643, -0.06433146446943283, -0.026551678776741028, 0.14083443582057953, -0.08015722036361694, -0.1500885784626007, -0.05327087640762329, 0.1274525374174118, 0.09002961218357086, -0.14455728232860565, 0.16953547298908234, -0.1461201012134552, 0.005550280213356018, -0.1450786590576172, 0.008855953812599182, -0.04291832447052002, -0.02125421166419983, -0.09961065649986267, 0.023697733879089355, 0.11097376048564911, -0.0810389593243599, 0.08865247666835785, -0.10470041632652283, 0.11764775216579437, 0.1837439090013504, -0.11059314012527466, 0.01513148844242096, -0.160343199968338, -0.15204107761383057, 0.003534287214279175, -0.07977134734392166, -0.09472016245126724, 0.00793255865573883, -0.02772529423236847, -0.18861235678195953, -0.15677641332149506, 0.17387013137340546, -0.0036066174507141113, -0.14856693148612976, -0.1023973822593689, -0.0047308653593063354, -0.07406257838010788, 0.03955318033695221, 0.01797899603843689, -0.023118168115615845, -0.002008482813835144, -0.013632819056510925, 0.008766397833824158, 0.11159910261631012, -0.1397569179534912, 0.08834280073642731, -0.13004228472709656, 0.036253973841667175, -0.03562256693840027, 0.1254146844148636, 0.06338892877101898, 0.10230322182178497, 0.06893853843212128, -0.026150673627853394, -0.16617853939533234, 0.09124906361103058, -0.09117438644170761, 0.005951285362243652, -0.0395684540271759, 0.13926969468593597, -0.17669790983200073, 0.048266857862472534, -0.1351286768913269, -0.06077493727207184, -0.1448100060224533, -0.1780400574207306, -0.16629894077777863, 0.1054001897573471, 0.17936713993549347, 0.10148368775844574, -0.13218942284584045, 0.08804281055927277, -0.14549025893211365, -0.18027210235595703, 0.17892824113368988, 0.10871665179729462, 0.1459534913301468, 0.14933668076992035, 0.12383799254894257, -0.11172854900360107, 0.05014792084693909, -0.06992432475090027, -0.01614522933959961, -0.0972617119550705, 0.1060105711221695, 0.16759787499904633, 0.04025466740131378, 0.1793513149023056, -0.12513048946857452, -0.11306662112474442, 0.14169131219387054, -0.07963936030864716, -0.05076821148395538, -0.06881701201200485, -0.03994956612586975, 0.1807553619146347, 0.1615048497915268, -0.011499106884002686, -0.05658924579620361, -0.16344407200813293, -0.10386963933706284, -0.067067451775074, 0.15527118742465973, -0.11953550577163696, -0.13865984976291656, -0.18746677041053772, -0.1690349280834198, 0.004239946603775024, 0.16902048885822296, 0.03770226240158081, -0.10319612920284271, -0.11889847368001938, 0.002161353826522827, -0.013093799352645874, 0.14309130609035492, -0.18845438957214355, 0.026622682809829712, -0.04108870029449463]}, "bias": {"shape": [7], "values": [0.08443830907344818, 0.15831317007541656, -0.06636744737625122, 0.17045055329799652, -0.1689758151769638, -0.013990119099617004, -0.010847285389900208]}}, "bn1": {"weight": {"shape": [7], "values": [1.0, 1.0, 1.0, 1.0, 1.0, 1.0, 1.0]}, "bias": {"shape": [7], "values": [0.0, 0.0, 0.0, 0.0, 0.0, 0.0, 0.0]}, "running_mean": {"shape": [7], "values": [0.0, 0.0, 0.0, 0.0, 0.0, 0.0, 0.0]}, "running_var": {"shape": [7], "values": [1.0, 1.0, 1.0, 1.0, 1.0, 1.0, 1.0]}}, "bn2": {"weight": {"shape": [7], "values": [1.0, 1.0, 1.0, 1.0, 1.0, 1.0, 1.0]}, "bias": {"shape": [7], "values": [0.0, 0.0, 0.0, 0.0, 0.0, 0.0, 0.0]}, "running_mean": {"shape": [7], "values": [0.0, 0.0, 0.0, 0.0, 0.0, 0.0, 0.0]}, "running_var": {"shape": [7], "values": [1.0, 1.0, 1.0, 1.0, 1.0, 1.0, 1.0]}}}, "block_stack.6": {"conv": {"weight": {"shape": [7, 7, 1], "values": [-0.19629311561584473, 0.1281442940235138, -0.25314271450042725, 0.02150055766105652, 0.21205243468284607, 0.07310053706169128, -0.12325629591941833, -0.12683826684951782, -0.26532241702079773, 0.0518476665019989, -0.28624385595321655, 0.32819637656211853, 0.0047931969165802, -0.20991250872612, 0.2890835702419281, -0.24322989583015442, -0.3288736939430237, 0.37352892756462097, 0.22714534401893616, -0.3013848662376404, -0.37223368883132935, -0.3542690575122833, 0.0498407781124115, 0.1545063555240631, -0.16658544540405273, 0.043859660625457764, -0.1288408637046814, 0.31817349791526794, 0.05109080672264099, 0.17549803853034973, 0.18932083249092102, -0.03787177801132202, -0.2267022728919983, -0.041930556297302246, 0.0546894371509552, -0.2047746628522873, -0.3036320209503174, 0.21972933411598206, -0.07190978527069092, 0.1498074233531952, 0.16243460774421692, -0.09653693437576294, 0.08562925457954407, 0.28439632058143616, 0.04441183805465698, 0.0009146928787231445, -0.20068971812725067, 0.2047942578792572, 0.11758849024772644]}, "bias": {"shape": [7], "values": [0.27318379282951355, -0.14738568663597107, -0.2500121593475342, 0.007174283266067505, 0.07239297032356262, 0.36653193831443787, 0.1475793421268463]}}, "conv1": {"weight": {"shape": [7, 7, 4], "values": [-0.14832516014575958, -0.1859021931886673, 0.16437090933322906, -0.15363837778568268, 0.054530173540115356, 0.026558101177215576, -0.15991084277629852, -0.15867017209529877, 0.1353774219751358, 0.18291808664798737, 0.09469588100910187, -0.12271084636449814, -0.09523725509643555, 0.028314873576164246, 0.02705325186252594, 0.09493090212345123, 0.0652783066034317, -0.00225202739238739, 0.15409283339977264, 0.18108005821704865, 0.05787178874015808, 0.1084718257188797, 0.10854937136173248, -0.17919006943702698, -0.01253335177898407, 0.03652380406856537, -0.1331426352262497, -0.06422118842601776, -0.14275042712688446, -0.04860915243625641, -0.131696879863739, 0.18275617063045502, 0.12247888743877411, -0.06515906751155853, 0.11114321649074554, 0.037223055958747864, 0.04051092267036438, -0.18609154224395752, -0.03239208459854126, 0.1590012162923813, 0.18621502816677094, 0.16927646100521088, 0.05970315635204315, 0.009566277265548706, -0.12979693710803986, -0.03281034529209137, -0.1331225484609604, -0.011969894170761108, 0.031300827860832214, 0.08719207346439362, 0.0146065354347229, -0.0922214686870575, -0.025587648153305054, 0.04758961498737335, 0.0993875116109848, 0.023520275950431824, -0.18783746659755707, -0.10420654714107513, -0.1722920835018158, -0.17099212110042572, 0.05837717652320862, 0.09622521698474884, 0.05426318943500519, -0.08168347179889679, -0.12080050259828568, 0.07610346376895905, -0.11340734362602234, 0.00014124810695648193, 0.13524238765239716, 0.1592588573694229, -0.1755172610282898, 0.014324501156806946, 0.11761198937892914, 0.006275951862335205, -0.034526482224464417, 0.1870243102312088, 0.12285454571247101, 0.001876533031463623, 0.11829496920108795, -0.17431169748306274, 0.11635167896747589, -0.14181086421012878, -0.11862812936306, -0.16574248671531677, -0.18437248468399048, 0.02854132652282715, 0.03657037019729614, -0.0020900070667266846, -0.14438773691654205, 0.10607148706912994, -0.16233375668525696, -0.13994590938091278, -0.02001117169857025, -0.03732047975063324, 0.05429290235042572, -0.01249644160270691, -0.1541871726512909, -0.12525270879268646, -0.15320101380348206, -0.0918009951710701, -0.12214653193950653, 0.1427883356809616, -0.1135367676615715, -0.11873791366815567, -0.11280766129493713, 0.06657864153385162, 0.18307258188724518, -0.10089419782161713, -0.16650837659835815, -0.09707330167293549, -0.09003593772649765, 0.08892692625522614, 0.14485056698322296, 0.019030645489692688, -0.03344900906085968, -0.08684559911489487, 0.1741955429315567, 0.014211863279342651, -0.11878609657287598, 0.014243021607398987, -0.07961482554674149, -0.13152363896369934, -0.07088688015937805, -0.01738947629928589, 0.05230936408042908, 0.010301008820533752, -0.021216973662376404, -0.04198847711086273, 0.16956083476543427, 0.028143227100372314, 0.15070070326328278, -0.1532001495361328, -0.017337635159492493, -0.17620806396007538, 0.13290797173976898, 0.12780632078647614, -0.1645842343568802, 0.11076216399669647, 0.17780496180057526, 0.16043110191822052, -0.03133325278759003, 0.08633078634738922, -0.08489639312028885, -0.04642772674560547, -0.163157120347023, 0.058821529150009155, -0.07617195695638657, 0.0024463385343551636, -0.1306154727935791, 0.18474285304546356, -0.059401094913482666, -0.10697513818740845, -0.0632750391960144, -0.10679592192173004, 0.07224266231060028, 0.17547865211963654, -0.09327127039432526, -0.04373292624950409, 0.07467345893383026, -0.11049919575452805, 0.0016474872827529907, 0.1407027393579483, 0.17617075145244598, -0.1768450140953064, 0.16600795090198517, 0.03245857357978821, 0.14214985072612762, -0.1213373988866806, 0.16137681901454926, 0.051541849970817566, -0.07167014479637146, 0.11343143880367279, 0.15345455706119537, -0.18867748975753784, 0.061840519309043884, -0.17927995324134827, 0.16084448993206024, -0.1745297610759735, 0.16492803394794464, 0.15001897513866425, 0.07485552132129669, 0.1255962997674942, 0.0854460746049881, -0.09795299172401428, -0.05160273611545563, -0.17867013812065125, 0.09594644606113434, 0.12929292023181915, -0.08114892244338989, -0.12475485354661942, 0.14519910514354706, -0.01655825972557068, 0.04464910924434662, 0.003117397427558899, -0.057991594076156616, 0.04452221095561981]}, "bias": {"shape": [7], "values": [0.04056040942668915, -0.18343046307563782, 0.014254659414291382, -0.15352191030979156, 0.01577189564704895, -0.17902952432632446, 0.1467904895544052]}}, "conv2": {"weight": {"shape": [7, 7, 4], "values": [-0.03569363057613373, -0.01787687838077545, 0.08323763310909271, 0.18870581686496735, 0.08698730170726776, 0.10216154158115387, -0.07033087313175201, 0.1587917059659958, 0.009413599967956543, 0.046754613518714905, 0.10514874756336212, 0.07661421597003937, -0.04839436709880829, 0.051098957657814026, 0.0550241619348526, 0.09589706361293793, 0.028353869915008545, 0.14923836290836334, -0.09824094921350479, 0.04200519621372223, 0.042445555329322815, -0.17122134566307068, -0.06975480169057846, -0.06118781864643097, -0.018764972686767578, 0.03441205620765686, -0.07348929345607758, 0.118117555975914, -0.13788625597953796, -0.0224313884973526, -0.006946444511413574, -0.17489227652549744, -0.14716333150863647, -0.16163049638271332, 0.1860620528459549, 0.08020879328250885, -0.030645325779914856, -0.14911316335201263, 0.012260541319847107, 0.11623890697956085, 0.18648169934749603, 0.08540500700473785, 0.05632546544075012, -0.13920381665229797, -0.046974197030067444, -0.023808568716049194, 0.17073561251163483, -0.13435471057891846, -0.1241791620850563, -0.045133158564567566, 0.11737470328807831, -0.1372661143541336, -0.17860743403434753, -0.06387229263782501, -0.17886698246002197, 0.11548708379268646, -0.08924032002687454, -0.02932049334049225, 0.09479902684688568, 0.16479499638080597, 0.019108638167381287, -0.05828866362571716, 0.11686728894710541, -0.030647501349449158, -0.04997283220291138, 0.11762519180774689, -0.177766814827919, -0.03962700068950653, -0.17685513198375702, -0.01670128107070923, 0.04020519554615021, -0.16424138844013214, 0.08528129756450653, -0.030730634927749634, 0.04272574186325073, -0.1455603390932083, -0.0782824233174324, -0.03660121560096741, 0.014205560088157654, 0.14533193409442902, -0.012045666575431824, 0.061544135212898254, -0.181937113404274, -0.026354357600212097, -0.11280277371406555, -0.013035044074058533, -0.10806465893983841, -0.07105730473995209, -0.04428301751613617, -0.11728599667549133, -0.04220080375671387, 0.1616782695055008, 0.015586167573928833, -0.0932350680232048, -0.05756072700023651, 0.15441890060901642, 0.09167595207691193, 0.10403521358966827, -0.09621546417474747, 0.017382964491844177, -0.10068397969007492, 0.04182785749435425, -0.13219018280506134, 0.08958588540554047, -0.04254916310310364, 0.10401232540607452, 0.17460213601589203, 0.0677562803030014, 0.03178773820400238, 0.08235345780849457, 0.0020742565393447876, -0.04226738214492798, -0.08943542093038559, 0.11040954291820526, 0.1409984976053238, -0.017441555857658386, 0.1256655603647232, 0.15169347822666168, 0.08342839777469635, 0.0705137699842453, 0.15662656724452972, -0.1118946298956871, 0.14161159098148346, -0.13048608601093292, -0.1633511781692505, -0.020445257425308228, 0.15235133469104767, 0.1032499223947525, -0.033553749322891235, -0.04742474853992462, 0.016268625855445862, -0.1673334836959839, -0.18053816258907318, 0.06820954382419586, 0.10375232994556427, 0.14886970818042755, -0.006442248821258545, 0.17341814935207367, 0.029913797974586487, 0.16688628494739532, 0.04014164209365845, -0.05426952242851257, -0.15464375913143158, 0.045080527663230896, 0.08405719697475433, -0.18685601651668549, -0.009147867560386658, 0.055976808071136475, 0.17795927822589874, 0.127339169383049, 0.18092785775661469, -0.03492288291454315, -0.07210411131381989, 0.16173864901065826, 0.08048509061336517, 0.01062704622745514, 0.03242284059524536, 0.08240823447704315, 0.03716525435447693, 0.134306862950325, 0.003566071391105652, 0.15825743973255157, -0.12383577972650528, -0.038929373025894165, 0.1420949548482895, 0.11588622629642487, 0.12828849256038666, 0.017742052674293518, 0.08482395112514496, -0.13854828476905823, -0.054226428270339966, -0.07429631054401398, -0.05502346158027649, -0.013915389776229858, -0.08077431470155716, -0.09663023799657822, 0.11305715143680573, 0.08939559757709503, 0.01630207896232605, 0.18155516684055328, -0.1517811417579651, -0.044341281056404114, 0.12672127783298492, -0.0499311238527298, 0.12842001020908356, -0.15317583084106445, 0.11065690219402313, 0.1728227287530899, 0.02165183424949646, 0.0074001699686050415, -0.022988542914390564, 0.16387830674648285, -0.04790474474430084, -0.16828027367591858, 0.12689553201198578, -0.06984081864356995]}, "bias": {"shape": [7], "values": [-0.15633118152618408, -0.09489480406045914, -0.12455576658248901, -0.00016865134239196777, -0.12991176545619965, 0.043664127588272095, 0.01924683153629303]}}, "bn1": {"weight": {"shape": [7], "values": [1.0, 1.0, 1.0, 1.0, 1.0, 1.0, 1.0]}, "bias": {"shape": [7], "values": [0.0, 0.0, 0.0, 0.0, 0.0, 0.0, 0.0]}, "running_mean": {"shape": [7], "values": [0.0, 0.0, 0.0, 0.0, 0.0, 0.0, 0.0]}, "running_var": {"shape": [7], "values": [1.0, 1.0, 1.0, 1.0, 1.0, 1.0, 1.0]}}, "bn2": {"weight": {"shape": [7], "values": [1.0, 1.0, 1.0, 1.0, 1.0, 1.0, 1.0]}, "bias": {"shape": [7], "values": [0.0, 0.0, 0.0, 0.0, 0.0, 0.0, 0.0]}, "running_mean": {"shape": [7], "values": [0.0, 0.0, 0.0, 0.0, 0.0, 0.0, 0.0]}, "running_var": {"shape": [7], "values": [1.0, 1.0, 1.0, 1.0, 1.0, 1.0, 1.0]}}}, "block_stack.7": {"conv": {"weight": {"shape": [7, 7, 1], "values": [-0.15143394470214844, -0.17132845520973206, -0.2793356478214264, -0.04813137650489807, 0.24857762455940247, 0.300637811422348, 0.04618355631828308, -0.1275084912776947, -0.37601813673973083, -0.18649694323539734, 0.18240907788276672, 0.17108598351478577, 0.10014083981513977, -0.3705213963985443, 0.16302743554115295, 0.1345345675945282, -0.22393551468849182, 0.23527148365974426, -0.3672434687614441, -0.3627132177352905, -0.07967156171798706, -0.02051323652267456, 0.37403371930122375, 0.3003899157047272, 0.22368189692497253, 0.17898151278495789, 0.022922426462173462, 0.3663491904735565, -0.2362479269504547, 0.18683114647865295, -0.2465561330318451, -0.09415814280509949, -0.36319679021835327, 0.14065322279930115, -0.3269563913345337, 0.16978511214256287, -0.3518388271331787, 0.1348075568675995, 0.17569676041603088, -0.12497258186340332, 0.17775669693946838, -0.08871057629585266, 0.10456487536430359, 0.25943025946617126, -0.2055782526731491, 0.22951027750968933, 0.05143141746520996, -0.021959543228149414, 0.022271305322647095]}, "bias": {"shape": [7], "values": [-0.37411850690841675, 0.3285236656665802, -0.11915969848632812, -0.2590627074241638, -0.09666839241981506, -0.10599088668823242, 0.05146405100822449]}}, "conv1": {"weight": {"shape": [7, 7, 4], "values": [0.1070345789194107, 0.14907212555408478, -0.10937662422657013, -0.03413143754005432, -0.11587191373109818, 0.06837223470211029, -0.01846635341644287, -0.1267802119255066, -0.15811185538768768, -0.07317277044057846, -0.04169932007789612, 0.0669950395822525, -0.18118558824062347, -0.1255246251821518, -0.060298919677734375, -0.034508541226387024, -0.09376975893974304, 0.18865640461444855, -0.11093635857105255, 0.18409819900989532, 0.07942979037761688, 0.01721896231174469, 0.012701675295829773, 0.06726722419261932, -0.12107019126415253, -0.1677074432373047, -0.14677846431732178, 0.04459020495414734, -0.1365177184343338, 0.0993468314409256, -0.059233859181404114, 0.11326031386852264, 0.16903649270534515, -0.08203773200511932, 0.08907689154148102, -0.11122449487447739, -0.1820070743560791, 0.03393535315990448, -0.016834557056427002, -0.027021735906600952, 0.1766606718301773, 0.14826853573322296, 0.10271371901035309, -0.1362491101026535, 0.06258867681026459, -0.05434924364089966, 0.08585895597934723, 0.03738589584827423, 0.09425131976604462, -0.046426922082901, -0.08337000012397766, -0.16141168773174286, 0.09999044239521027, -0.09003837406635284, -0.1318769007921219, 0.12485165894031525, -0.12613624334335327, -0.09576890617609024, -0.09448026120662689, -0.1133740246295929, -0.14970773458480835, 0.04251062870025635, -0.04415141046047211, 0.10521085560321808, -0.13556699454784393, 0.09183038771152496, 0.12579305469989777, -0.08841051161289215, 0.12339715659618378, 0.08753179013729095, 0.1277610808610916, -0.05696365237236023, 0.1254703849554062, -0.1646043211221695, -0.06828894466161728, -0.06378307938575745, 0.04197390377521515, -0.10680027306079865, -0.013124033808708191, -0.04785585403442383, 0.10374386608600616, -0.18425478041172028, 0.09188662469387054, -0.09720984846353531, 0.009924054145812988, 0.12236671149730682, 0.16344018280506134, 0.16207323968410492, -0.06146267056465149, 0.06648235023021698, 0.10842530429363251, 0.08127595484256744, -0.1596626192331314, -0.023801252245903015, -0.0846293643116951, 0.06911896169185638, -0.11998350918292999, 0.1878577321767807, 0.09430919587612152, -0.06907437741756439, -0.009797841310501099, 0.05786186456680298, -0.15289583802223206, 0.0020707249641418457, 0.16957928240299225, -0.1440078616142273, -0.1505749672651291, 0.1626681536436081, 0.08687262237071991, 0.024582937359809875, 0.11963658034801483, 0.08045221865177155, -0.05499278008937836, -0.1851230263710022, -0.1190270185470581, 0.008721813559532166, 0.012325823307037354, 0.07148654758930206, 0.16692335903644562, -0.025756418704986572, 0.16519974172115326, -0.016033083200454712, 0.07692588865756989, -0.008145377039909363, 0.16340132057666779, 0.1099076122045517, -0.03804638981819153, 0.1350523680448532, 0.1476658135652542, 0.08540163934230804, -0.10341615974903107, 0.12711866199970245, -0.004813060164451599, -0.0346236377954483, 0.00583513081073761, -0.10009445995092392, -0.06262162327766418, 0.12815771996974945, -0.175480917096138, 0.18298597633838654, 0.06496094167232513, -0.07853659242391586, -0.113175168633461, 0.10343293845653534, 0.005489259958267212, 0.039453133940696716, -0.12046415358781815, 0.07843948900699615, -0.07731480151414871, -0.04046957194805145, 0.06570293009281158, -0.005082443356513977, -0.024880006909370422, 0.06226144731044769, 0.1648990958929062, 0.0024377107620239258, 0.07490675151348114, 0.035232335329055786, 0.04160889983177185, -0.044542908668518066, -0.14417213201522827, -0.05087915062904358, -0.11853736639022827, -0.007829263806343079, 0.15645314753055573, -0.009025618433952332, 0.03408998250961304, 0.07055984437465668, -0.017974942922592163, 0.09622426331043243, -0.00712999701499939, 0.05488653481006622, 0.024965941905975342, 0.14214883744716644, 0.1580425351858139, -0.15023532509803772, -0.005686521530151367, 0.021998688578605652, -0.10305210202932358, 0.01108965277671814, 0.019102364778518677, 0.171025350689888, 0.06762604415416718, -0.052871495485305786, -0.03774161636829376, 0.012213364243507385, -0.04443734884262085, 0.09905339777469635, 0.16358931362628937, 0.10157044231891632, 0.18297429382801056, -0.10668612271547318, 0.1753891259431839, -0.013423770666122437, 0.1102929562330246, 0.07526136934757233]}, "bias": {"shape": [7], "values": [0.17729301750659943, 0.0005787163972854614, -0.034531041979789734, -0.02781611680984497, -0.1347857266664505, -0.11667957901954651, 0.17632417380809784]}}, "conv2": {"weight": {"shape": [7, 7, 4], "values": [-0.11497320979833603, 0.04445338249206543, 0.16144077479839325, -0.1329919695854187, 0.1639893501996994, 0.03181260824203491, 0.12431706488132477, -0.0188407301902771, 0.03108230233192444, -0.18802139163017273, 0.06883527338504791, 0.026656165719032288, -0.12906771898269653, 0.03318430483341217, 0.1680998057126999, 0.021078646183013916, 0.11177398264408112, -0.13309215009212494, -0.045481473207473755, -0.026877030730247498, 0.1281881183385849, -0.0006601214408874512, -0.08712425082921982, 0.003334835171699524, 0.13869746029376984, -0.044909656047821045, 0.1817062646150589, 0.17153482139110565, 0.17895980179309845, -0.10771737992763519, 0.17532281577587128, -0.1595490276813507, 0.04248510301113129, -0.14409685134887695, 0.18082548677921295, 0.1424228996038437, 0.052104488015174866, 0.1865181177854538, 0.05072021484375, -0.029281646013259888, 0.12206517159938812, 0.185114786028862, 0.16920320689678192, 0.1437348574399948, -0.036789074540138245, -0.013454362750053406, -0.030060172080993652, 0.05618111789226532, -0.09114379435777664, -0.1516980081796646, 0.04513457417488098, 0.11492718756198883, 0.17895571887493134, 0.09699849784374237, 0.08886505663394928, -0.11375732719898224, -0.13573111593723297, -0.1612749993801117, -0.16804279386997223, 0.0020763128995895386, -0.03266468644142151, -0.08290249109268188, -0.1728997826576233, -0.05010673403739929, 0.14021117985248566, 0.10193787515163422, -0.1423002928495407, 0.1602991670370102, 0.12602518498897552, 0.030822888016700745, -0.009004488587379456, -0.08161190152168274, 0.023671463131904602, 0.12906236946582794, -0.044522613286972046, -0.12949419021606445, -0.07420480251312256, -0.09424758702516556, -0.12516188621520996, 0.184820756316185, 0.10840557515621185, 0.1199883371591568, -0.019675955176353455, -0.013203009963035583, 0.10105951130390167, 0.08094547688961029, 0.009739130735397339, -0.09229644387960434, -0.18414443731307983, -0.14293761551380157, -0.17402341961860657, -0.10370085388422012, -0.04820680618286133, 0.07390616834163666, 0.0560339093208313, -0.005657404661178589, 0.04088558256626129, -0.04742664098739624, 0.019089996814727783, 0.1349763721227646, 0.10641707479953766, -0.055165454745292664, -0.1827637106180191, 0.15236152708530426, 0.02506236732006073, -0.04847371578216553, 0.010452061891555786, -0.1487911194562912, 0.051470816135406494, -0.13393795490264893, -0.13218101859092712, 0.030676767230033875, -0.16243495047092438, -0.1719178408384323, -0.13766537606716156, 0.07627995312213898, 0.0038703829050064087, -0.07544893026351929, 0.04176017642021179, -0.12954874336719513, -0.05258756875991821, -0.049727216362953186, -0.18740515410900116, 0.16826079785823822, -0.14448215067386627, 0.0672985166311264, -0.007023066282272339, 0.12044669687747955, -0.14983950555324554, -0.07433819025754929, -0.09093333780765533, 0.04567268490791321, 0.12846384942531586, -0.1497519314289093, 0.17731215059757233, -0.025705263018608093, -0.11954104900360107, -0.14659090340137482, -0.0662132203578949, 0.16993285715579987, 0.1498766988515854, 0.14964838325977325, 0.015571609139442444, -0.0237932950258255, -0.10979793220758438, 0.12670357525348663, -0.13318565487861633, -0.020410969853401184, 0.12925423681735992, 0.056367844343185425, 0.10783691704273224, -0.1655615121126175, -0.12320070713758469, -0.0004343092441558838, -0.1198568120598793, -0.11480000615119934, 0.17866145074367523, -0.180519700050354, 0.09344901144504547, -0.1464964747428894, -0.07154103368520737, 0.0605749785900116, 0.10645513236522675, -0.017794787883758545, 0.13407893478870392, 0.0321248322725296, -0.11409588158130646, -0.08126509934663773, 0.0867401510477066, -0.13483479619026184, 0.03921718895435333, 0.028419122099876404, -0.05728687345981598, -0.02737058699131012, -0.17516033351421356, -0.08114001899957657, 0.10287876427173615, -0.055545806884765625, -0.0782976970076561, -0.16133886575698853, 0.039187490940093994, -0.18741276860237122, -0.0024643689393997192, 0.15091796219348907, 0.10794208943843842, 0.07051967084407806, 0.00254841148853302, 0.05795632302761078, 0.18439124524593353, 0.08680577576160431, 0.0865454226732254, 0.0667499452829361, 0.17361046373844147, 0.07042844593524933, -0.1731688678264618, 0.143033966422081]}, "bias": {"shape": [7], "values": [-0.04267828166484833, 0.02005961537361145, 0.1865742951631546, 0.08840318024158478, 0.15061135590076447, -0.06745079904794693, -0.07053975760936737]}}, "bn1": {"weight": {"shape": [7], "values": [1.0, 1.0, 1.0, 1.0, 1.0, 1.0, 1.0]}, "bias": {"shape": [7], "values": [0.0, 0.0, 0.0, 0.0, 0.0, 0.0, 0.0]}, "running_mean": {"shape": [7], "values": [0.0, 0.0, 0.0, 0.0, 0.0, 0.0, 0.0]}, "running_var": {"shape": [7], "values": [1.0, 1.0, 1.0, 1.0, 1.0, 1.0, 1.0]}}, "bn2": {"weight": {"shape": [7], "values": [1.0, 1.0, 1.0, 1.0, 1.0, 1.0, 1.0]}, "bias": {"shape": [7], "values": [0.0, 0.0, 0.0, 0.0, 0.0, 0.0, 0.0]}, "running_mean": {"shape": [7], "values": [0.0, 0.0, 0.0, 0.0, 0.0, 0.0, 0.0]}, "running_var": {"shape": [7], "values": [1.0, 1.0, 1.0, 1.0, 1.0, 1.0, 1.0]}}}}}