{"config": {"model_type": "TCN", "norm_mean": 0.10000000149011612, "norm_std": 0.8999999761581421}, "parameters": {"input_size": 1, "hidden_size": 7, "output_size": 1, "kernel_size": 4, "stack_size": 8, "ps_hidden_size": 8, "ps_num_hidden_layers": 3}, "state_dict": {"plain_sequential": {"hidden_size": 8, "num_hidden_layers": 3, "direct_linear": {"weight": {"shape": [1, 7], "values": [-0.13617922365665436, 0.26508769392967224, 0.3443619906902313, -0.33851996064186096, -0.25606152415275574, -0.017195284366607666, -0.299692839384079]}, "bias": {"shape": [1], "values": [-0.07075110077857971]}}, "input_linear": {"weight": {"shape": [8, 7], "values": [-0.0798456072807312, 0.34276720881462097, 0.17013201117515564, -0.22370585799217224, 0.29418841004371643, -0.2784462571144104, 0.3614979684352875, 0.25999608635902405, -0.027307182550430298, 0.24813422560691833, 0.08392879366874695, 0.027599692344665527, 0.31358006596565247, 0.24579951167106628, 0.21108612418174744, -0.028660982847213745, 0.08082017302513123, 0.3562931716442108, 0.060442715883255005, -0.2830600440502167, -0.07117089629173279, -0.07182899117469788, -0.025603115558624268, 0.08899948000907898, -0.2433011829853058, -0.10432755947113037, -0.22016577422618866, 0.19768235087394714, 0.23539450764656067, 0.12056583166122437, -0.21865268051624298, 0.36079850792884827, 0.37422528862953186, -0.11946836113929749, -0.17510412633419037, -0.06913477182388306, -0.23767222464084625, 0.02052241563796997, 0.10448956489562988, -0.3304794728755951, -0.025369495153427124, 0.10574740171432495, -0.21991977095603943, 0.15742740035057068, -0.2428283542394638, -0.3308994174003601, -0.13245026767253876, -0.29002413153648376, 0.3239074647426605, -0.264395534992218, 0.12966331839561462, -0.0477387011051178, 0.29498931765556335, 0.010386019945144653, -0.009968757629394531, 0.038211554288864136]}, "bias": {"shape": [8], "values": [0.02863648533821106, 0.266462117433548, 0.15027835965156555, -0.2527959942817688, -0.0774795413017273, -0.04498857259750366, -0.10911703109741211, 0.26318058371543884]}}, "output_linear": {"weight": {"shape": [1, 8], "values": [-0.1715914011001587, 0.33571913838386536, 0.11018875241279602, -0.22074656188488007, 0.30550524592399597, 0.31371358036994934, 0.1467830240726471, -0.02857866883277893]}, "bias": {"shape": [1], "values": [0.051245033740997314]}}, "hidden_linear.0": {"weight": {"shape": [8, 8], "values": [0.007985562086105347, 0.04612872004508972, -0.14800779521465302, 0.3341445028781891, 0.060844630002975464, -0.24619001150131226, 0.258720725774765, 0.1442255973815918, -0.042000383138656616, -0.24866652488708496, 0.2025347650051117, -0.2985779941082001, 0.04248270392417908, 0.15204033255577087, 0.2065022885799408, -0.34710225462913513, -0.019511759281158447, 0.049404144287109375, -0.30930715799331665, 0.3437712490558624, 0.2974414527416229, 0.2949294149875641, 0.009299367666244507, -0.1767415851354599, 0.26005664467811584, -0.19526571035385132, -0.14022496342658997, -0.08882191777229309, 0.2058689296245575, -0.09785085916519165, 0.1265801191329956, 0.21776309609413147, -0.11783778667449951, -0.12671290338039398, 0.16775205731391907, 0.19922146201133728, 0.009862750768661499, -0.09125745296478271, -0.3203563094139099, 0.08960762619972229, 0.2036513388156891, -0.27622100710868835, -0.008422285318374634, -0.19782735407352448, 0.29936203360557556, -0.09279707074165344, -0.04572033882141113, 0.12231659889221191, 0.24063876271247864, -0.12261837720870972, 0.03784462809562683, -0.1856534481048584, 0.09823253750801086, -0.008072733879089355, -0.19868041574954987, 0.10651558637619019, 0.05267581343650818, -0.23002080619335175, -0.13461218774318695, -0.01795649528503418, -0.2917749881744385, -0.22718490660190582, -0.15027454495429993, -0.027169883251190186]}, "bias": {"shape": [8], "values": [0.337500661611557, -0.1234595775604248, 0.25813761353492737, -0.13410671055316925, 0.04217684268951416, 0.19719424843788147, -0.1325758546590805, -0.2367229163646698]}}, "hidden_linear.1": {"weight": {"shape": [8, 8], "values": [0.1151549220085144, -0.18385040760040283, -0.040246397256851196, -0.08810129761695862, -0.35024288296699524, -0.3303922712802887, 0.20521613955497742, -0.02055943012237549, -0.28376659750938416, -0.10026514530181885, 0.155666321516037, 0.10914310812950134, -0.06395283341407776, -0.14582586288452148, -0.11464895308017731, 0.07981225848197937, -0.09790784120559692, -0.3356163501739502, 0.1766684353351593, 0.32331016659736633, -0.32229083776474, -0.18455666303634644, -0.12729708850383759, -0.3184029459953308, 0.3441210091114044, -0.12680646777153015, 0.00019404292106628418, -0.048525094985961914, 0.22721001505851746, -0.10010221600532532, -0.01628926396369934, -0.17630161345005035, 0.18526795506477356, -0.2962625324726105, -0.1537848263978958, -0.23604294657707214, -0.3487399220466614, -0.07065418362617493, -0.23713873326778412, 0.32033857703208923, -0.27946361899375916, 0.33360257744789124, -0.1477823108434677, 0.13016989827156067, -0.008937031030654907, 0.2962398827075958, -0.35156190395355225, -0.1431826651096344, 0.09937843680381775, 0.34562215209007263, 0.03566855192184448, -0.08524578809738159, -0.24895557761192322, -0.007475346326828003, -0.10245451331138611, 0.33353033661842346, -0.20373591780662537, 0.26911231875419617, -0.07105857133865356, 0.04424959421157837, -0.10937440395355225, 0.02212950587272644, 0.2160826027393341, 0.21050170063972473]}, "bias": {"shape": [8], "values": [0.1426105499267578, 0.09661772847175598, 0.26736316084861755, -0.017364323139190674, -0.26102563738822937, 0.20820090174674988, 0.1937539279460907, -0.29009920358657837]}}, "hidden_linear.2": {"weight": {"shape": [8, 8], "values": [0.3445653021335602, 0.05980768799781799, 0.1340819001197815, -0.274399995803833, -0.10814286768436432, 0.14438161253929138, -0.021612495183944702, -0.05085194110870361, -0.2799952030181885, 0.2112084925174713, 0.06797406077384949, 0.005003422498703003, -0.3011350929737091, 0.17377224564552307, 0.12068167328834534, -0.14792805910110474, -0.09206438064575195, 0.3345901668071747, -0.20873571932315826, -0.34387749433517456, 0.03831329941749573, 0.2808491289615631, 0.322108656167984, 0.33117905259132385, 0.28125646710395813, -0.2226908802986145, -0.2687666118144989, 0.1699582040309906, 0.007569462060928345, -0.12407003343105316, -0.21271517872810364, 0.3392852246761322, -0.33318305015563965, -0.006566464900970459, 0.06561097502708435, -0.16727232933044434, -0.2236005812883377, -0.26858842372894287, -0.34982237219810486, 0.33704903721809387, -0.00990283489227295, -0.29326504468917847, -0.2825901508331299, 0.3103722631931305, 0.010860353708267212, 0.12095782160758972, 0.2994750440120697, -0.09869599342346191, 0.2660078704357147, -0.18708737194538116, -0.05215466022491455, -0.082282155752182, -0.10091915726661682, 0.08545845746994019, 0.22244206070899963, 0.07535523176193237, 0.3473226726055145, 0.22015032172203064, 0.2484268844127655, 0.30023911595344543, 0.08253774046897888, 0.2120157778263092, -0.17369882762432098, 0.2527674734592438]}, "bias": {"shape": [8], "values": [-0.12093958258628845, 0.15480771660804749, -0.029877901077270508, -0.2899688482284546, 0.10701680183410645, 0.09447669982910156, 0.10824975371360779, 0.10432296991348267]}}}, "block_stack.0": {"conv": {"weight": {"shape": [7, 1, 1], "values": [0.7486286163330078, -0.32007455825805664, 0.39642441272735596, -0.6568341255187988, -0.13213372230529785, 0.21925199031829834, -0.6970852613449097]}, "bias": {"shape": [7], "values": [-0.0909196138381958, 0.14242517948150635, -0.7719975709915161, -0.16941332817077637, 0.24842047691345215, -0.2957017421722412, 0.597122073173523]}}, "conv1": {"weight": {"shape": [7, 1, 4], "values": [0.34131550788879395, -0.018010258674621582, 0.4040394425392151, 0.15705400705337524, 0.11875629425048828, -0.08878350257873535, -0.3839132785797119, -0.002296149730682373, 0.019552111625671387, 0.42829734086990356, 0.3389820456504822, -0.1393289566040039, 0.16309493780136108, -0.10103285312652588, 0.15707612037658691, -0.4653688073158264, -0.2918301224708557, 0.2731596827507019, 0.13544178009033203, 0.19143331050872803, 0.3683370351791382, -0.13483715057373047, 0.3178221583366394, -0.3064369559288025, 0.3597224950790405, 0.400343120098114, 0.41626739501953125, 0.47728943824768066]}, "bias": {"shape": [7], "values": [-0.3741465210914612, 0.22862547636032104, 0.3753184676170349, 0.2941185235977173, -0.2567046880722046, -0.4968768358230591, -0.43890678882598877]}}, "conv2": {"weight": {"shape": [7, 7, 4], "values": [-0.15153944492340088, 0.05963507294654846, 0.1491994708776474, -0.15611009299755096, 0.0180981308221817, 0.10981224477291107, -0.11177385598421097, 0.03662310540676117, 0.0040851980447769165, 0.045183151960372925, -0.004531979560852051, 0.18359650671482086, 0.022769421339035034, -0.14718905091285706, -0.1637531816959381, -0.058781713247299194, 0.03386607766151428, -0.1219954788684845, -0.07970775663852692, 0.14983363449573517, 0.10896997153759003, -0.051819682121276855, 0.04927913844585419, 0.16541089117527008, 0.08765514194965363, -0.016759663820266724, -0.1865396946668625, -0.1156935766339302, 0.11214219033718109, -0.1668846309185028, -0.07394358515739441, -0.11155710369348526, -0.08684100210666656, -0.1329420655965805, -0.07545612007379532, -0.1458229273557663, 0.04998697340488434, -0.10039559751749039, -0.13099607825279236, -0.17190970480442047, -0.09390341490507126, 0.13495244085788727, 0.05394868552684784, -0.09362911432981491, -0.08139997720718384, -0.08294358104467392, -0.15241120755672455, -0.17006106674671173, 0.03454457223415375, -0.043291568756103516, -0.0716034397482872, -0.09591538459062576, 0.0018927454948425293, -0.03685055673122406, -0.05704842507839203, 0.034330978989601135, -0.02733120322227478, 0.03932395577430725, 0.0643325001001358, 0.07639120519161224, -0.012094438076019287, 0.026450619101524353, -0.01889541745185852, 0.08636163175106049, 0.046679601073265076, 0.17530180513858795, -0.018305093050003052, -0.09653838723897934, 0.033982500433921814, -0.14320142567157745, 0.04052785038948059, 0.009905099868774414, -0.1143396645784378, -0.09068748354911804, 0.17968328297138214, -0.13813996315002441, 0.07654820382595062, -0.13777965307235718, 0.14841897785663605, -0.06768601387739182, 0.009302988648414612, -0.14998722076416016, -0.13290996849536896, -0.07774662971496582, -0.09787211567163467, -0.1798231154680252, 0.16783945262432098, -0.1112060695886612, 0.09078918397426605, -0.03687885403633118, 0.08610837161540985, 0.08414755761623383, -0.031550332903862, 0.14649443328380585, 0.006614804267883301, -0.14496418833732605, 0.12690265476703644, 0.14922286570072174, 0.11935128271579742, -0.08770007640123367, -0.1652911901473999, -0.1093379408121109, -0.10793577134609222, -0.0062014758586883545, 0.1783028393983841, -0.1629675179719925, 0.09555201232433319, 0.01891021430492401, -0.06346206367015839, -0.052637964487075806, 0.17072348296642303, -0.06704956293106079, 0.007977664470672607, -0.043586552143096924, -0.10841242969036102, -0.0692971795797348, 0.015855446457862854, 0.046734437346458435, -0.18571123480796814, -0.14940208196640015, 0.1789305955171585, 0.07962103188037872, 0.18533770740032196, -0.07722210139036179, 0.17981041967868805, 0.0468151718378067, -0.08191972970962524, 0.05387859046459198, -0.0069615840911865234, 0.09322895109653473, 0.12757770717144012, -0.0298861563205719, -0.1854875534772873, -0.11375101655721664, -0.00555109977722168, 0.10469965636730194, -0.15322662889957428, 0.16658751666545868, -0.18074148893356323, 0.13843704760074615, -0.1820576936006546, -0.1099901869893074, 0.05771724879741669, 0.08603550493717194, -0.1647958606481552, -0.08236610889434814, 0.09406165778636932, 0.16841723024845123, -0.030095994472503662, 0.017790362238883972, 0.17089049518108368, 0.09978161752223969, -0.11081250011920929, 0.07711102068424225, 0.035073354840278625, 0.07606644928455353, 0.06067018210887909, -0.1456087976694107, -0.1866542398929596, 0.11593969166278839, -0.06453543901443481, 0.10669369995594025, -0.1659265011548996, 0.09678022563457489, -0.032327860593795776, -0.1293283998966217, -0.13372501730918884, 0.02239064872264862, -0.1195811927318573, -0.04113540053367615, 0.07513625919818878, -0.06973761320114136, 0.08877091109752655, -0.01683640480041504, -0.0602019727230072, 0.0012733787298202515, 0.011757224798202515, 0.15230689942836761, 0.047815173864364624, 0.12267400324344635, -0.08537228405475616, 0.016608119010925293, -0.02723221480846405, 0.005463331937789917, 0.07947675883769989, 0.07662932574748993, -0.07978374511003494, -0.133059561252594, -0.15966908633708954, -0.09156928956508636, -0.04576215147972107, 0.11780695617198944, -0.1362684965133667, 0.014122948050498962, -0.1433090716600418, 0.0008213818073272705]}, "bias": {"shape": [7], "values": [-0.030803576111793518, -0.11903227120637894, -0.0826740488409996, 0.12516777217388153, 0.1305927187204361, -0.11524345725774765, 0.16575823724269867]}}, "bn1": {"weight": {"shape": [7], "values": [1.0, 1.0, 1.0, 1.0, 1.0, 1.0, 1.0]}, "bias": {"shape": [7], "values": [0.0, 0.0, 0.0, 0.0, 0.0, 0.0, 0.0]}, "running_mean": {"shape": [7], "values": [0.0, 0.0, 0.0, 0.0, 0.0, 0.0, 0.0]}, "running_var": {"shape": [7], "values": [1.0, 1.0, 1.0, 1.0, 1.0, 1.0, 1.0]}}, "bn2": {"weight": {"shape": [7], "values": [1.0, 1.0, 1.0, 1.0, 1.0, 1.0, 1.0]}, "bias": {"shape": [7], "values": [0.0, 0.0, 0.0, 0.0, 0.0, 0.0, 0.0]}, "running_mean": {"shape": [7], "values": [0.0, 0.0, 0.0, 0.0, 0.0, 0.0, 0.0]}, "running_var": {"shape": [7], "values": [1.0, 1.0, 1.0, 1.0, 1.0, 1.0, 1.0]}}, "f1": {"weight": {"shape": [7], "values": [0.25, 0.25, 0.25, 0.25, 0.25, 0.25, 0.25]}}, "f2": {"weight": {"shape": [7], "values": [0.25, 0.25, 0.25, 0.25, 0.25, 0.25, 0.25]}}}, "block_stack.1": {"conv": {"weight": {"shape": [7, 7, 1], "values": [0.3744454085826874, -0.375647634267807, 0.024847209453582764, -0.15232707560062408, 0.15092608332633972, 0.14191386103630066, 0.36476531624794006, 0.13133558630943298, -0.12200650572776794, -0.27445530891418457, -0.002420961856842041, -0.0065950751304626465, -0.2018551230430603, 0.2634929120540619, 0.1128987967967987, -0.031466007232666016, 0.10510271787643433, 0.3715396821498871, -0.14153996109962463, -0.2536153197288513, 0.27622416615486145, -0.08661457896232605, -0.201743021607399, 0.06636658310890198, -0.17098237574100494, 0.23293301463127136, -0.002526193857192993, 0.17073771357536316, -0.3692092001438141, -0.26464539766311646, 0.20928415656089783, 0.23749634623527527, -0.07546341419219971, -0.3182358145713806, 0.3247735798358917, 0.3216764032840729, 0.14794990420341492, 0.18545731902122498, -0.04142853617668152, -0.28545552492141724, -0.3445129692554474, -0.11443868279457092, 0.1737663447856903, 0.19282767176628113, -0.053021520376205444, 0.004772603511810303, -0.28772836923599243, 0.07551789283752441, 0.07826367020606995]}, "bias": {"shape": [7], "values": [0.025633901357650757, 0.16234293580055237, 0.13671603798866272, 0.07713562250137329, 0.06510934233665466, 0.288872629404068, 0.1876520812511444]}}, "conv1": {"weight": {"shape": [7, 7, 4], "values": [0.05635298788547516, 0.05352327227592468, -0.15322232246398926, -0.18047407269477844, -0.06383968889713287, -0.0893571525812149, 0.08885528147220612, 0.10387818515300751, 0.1073276549577713, 0.124384805560112, 0.14741955697536469, -0.04824423789978027, -0.18423812091350555, 0.020318061113357544, 0.13530032336711884, 0.10895092785358429, 0.09210710227489471, 0.023852303624153137, 0.11341311037540436, -0.07053183019161224, -0.06767670810222626, 0.11575423181056976, -0.10749471187591553, 0.16770417988300323, 0.18515066802501678, 0.09591080248355865, -0.012688606977462769, 0.06478409469127655, 0.12933282554149628, 0.08000810444355011, -0.14126932621002197, 0.15767668187618256, 0.04647934436798096, -0.014871716499328613, -0.0006245821714401245, -0.1407630443572998, -0.09967272728681564, -0.08192954957485199, -0.08931847661733627, -0.09814316034317017, -0.04800325632095337, -0.03809851408004761, -0.08961891382932663, 0.10822711884975433, 0.010178163647651672, 0.08342666923999786, 0.04647645354270935, -0.1374506652355194, -0.18393468856811523, -0.027715370059013367, -0.0212705135345459, -0.1862691044807434, -0.15245428681373596, 0.15395815670490265, 0.054085299372673035, 0.10043002665042877, 0.01885811984539032, 0.12492673099040985, 0.043300241231918335, -0.052487969398498535, -0.02110201120376587, 0.15847767889499664, 0.1808304637670517, 0.0777449756860733, 0.16949577629566193, -0.06585510820150375, 0.15281011164188385, -0.05946178734302521, 0.021530702710151672, 0.02915218472480774, 0.14388324320316315, -0.0439123660326004, 0.0719628781080246, -0.11060451716184616, 0.07351548969745636, 0.07075671851634979, -0.02751252055168152, 0.10532374680042267, -0.08508723229169846, 0.04798807203769684, 0.1638539880514145, -0.0286797434091568, 0.08676885068416595, -0.017829254269599915, -0.13847017288208008, -0.10385886579751968, -0.14912104606628418, 0.033852338790893555, 0.06002868711948395, -0.023379623889923096, -0.07225047796964645, -0.05845208466053009, 0.13104881346225739, 0.1001206487417221, 0.1269950419664383, -0.05764490365982056, 0.046334534883499146, -0.08351711183786392, -0.058728814125061035, 0.037006840109825134, -0.17163458466529846, -0.009118199348449707, -0.0687512755393982, 0.09739844501018524, 0.061157986521720886, -0.016479507088661194, -0.09238366782665253, -0.07613422721624374, 0.0030026286840438843, 0.08359222114086151, -0.11584753543138504, 0.10601122677326202, -0.03772100806236267, 0.09946723282337189, 0.025273621082305908, 0.17022080719470978, -0.137536883354187, 0.08106206357479095, -0.12006983906030655, -0.1025703102350235, 0.010152220726013184, -0.01233375072479248, -0.09020499140024185, 0.18152718245983124, -0.1340828835964203, -0.16589350998401642, 0.10860882699489594, -0.12996894121170044, 0.0042586177587509155, -0.054339513182640076, 0.05358007550239563, 0.01632550358772278, 0.18197001516819, -0.0973493680357933, -0.1221189796924591, -0.14541104435920715, 0.007661044597625732, -0.07937516272068024, -0.023699909448623657, 0.08450876176357269, -0.012521177530288696, 0.012410178780555725, -0.1289231777191162, 0.054470181465148926, -0.04146115481853485, 0.06566120684146881, 0.11867110431194305, 0.12330050766468048, -0.06521694362163544, -0.09878566861152649, -0.096034474670887, -0.10875317454338074, 0.15139718353748322, 0.0997956246137619, 0.16085366904735565, 0.0790102630853653, 0.02450643479824066, 0.17222760617733002, -0.1515689641237259, 0.06588856875896454, -0.15135110914707184, -0.043390944600105286, 0.16448010504245758, -0.17594937980175018, -0.048378199338912964, 0.15808190405368805, -0.00016292929649353027, -0.14801624417304993, -0.03171636164188385, -0.061933308839797974, 0.11039893329143524, 0.0797915905714035, 0.135674849152565, -0.006734117865562439, -0.13062287867069244, -0.11970359086990356, 0.032869935035705566, 0.058574095368385315, -0.11214911192655563, -0.01515457034111023, 0.16019736230373383, 0.05709187686443329, -0.02338413894176483, 0.1411476582288742, 0.0563976913690567, -0.1672845482826233, 0.14905302226543427, 0.06666673719882965, 0.0032939761877059937, -0.04365904629230499, -0.1480277180671692, 0.07095234096050262, -0.010486423969268799, 0.16880710422992706, 0.012189462780952454, -0.11549336463212967]}, "bias": {"shape": [7], "values": [-0.03991967439651489, -0.03634577989578247, 0.12969030439853668, -0.07990505546331406, -0.002527102828025818, -0.09348922967910767, -0.15481744706630707]}}, "conv2": {"weight": {"shape": [7, 7, 4], "values": [0.1790338009595871, -0.1878793090581894, -0.16018046438694, -0.06626217067241669, 0.15860186517238617, 0.1816534847021103, -0.04493096470832825, -0.06602082401514053, 0.14203204214572906, 0.15690158307552338, 0.03493735194206238, -0.045194461941719055, 0.033664003014564514, -0.12343204766511917, 0.0450824499130249, -0.00979866087436676, -0.10758478194475174, -0.039117053151130676, 0.07678796350955963, 0.17816899716854095, -0.11317291110754013, 0.04996684193611145, -0.14279191195964813, -0.1181139424443245, 0.050913259387016296, -0.15365298092365265, 0.18720905482769012, -0.04208967089653015, -0.0415014773607254, 0.18052281439304352, -0.1187787801027298, 0.059001773595809937, -0.024128109216690063, 0.0059601664543151855, -0.026608452200889587, 0.14982925355434418, 0.07961510121822357, 0.10728730261325836, 0.151459738612175, 0.03331999480724335, -0.15620282292366028, -0.06765639036893845, -0.034906551241874695, 0.12117211520671844, 0.10018856823444366, -0.013351663947105408, 0.020744815468788147, -0.13512016832828522, 0.11777262389659882, 0.12742365896701813, 0.17540277540683746, 0.04085664451122284, -0.146564781665802, 0.16911087930202484, 0.18752889335155487, -0.0977623388171196, 0.169394388794899, 0.04932220280170441, -0.01795126497745514, -0.1856897920370102, 0.16948018968105316, 0.0935191959142685, 0.07238663733005524, 0.02199411392211914, -0.1661897450685501, 0.06687478721141815, -0.042368173599243164, 0.05532220005989075, -0.08113427460193634, -0.04348635673522949, 0.13717670738697052, -0.09802796691656113, -0.13379478454589844, -0.05242563784122467, 0.13140563666820526, 0.0806446522474289, -0.09284721314907074, 0.09785665571689606, 0.010374397039413452, -0.02304568886756897, -0.007413968443870544, -0.10785944759845734, 0.17537762224674225, 0.1657647043466568, 0.018739476799964905, -0.13093172013759613, 0.02467167377471924, -0.1825912594795227, 0.162321075797081, 0.07948119938373566, -0.1422509104013443, -0.0025517940521240234, 0.08878396451473236, 0.04567386209964752, 0.15732528269290924, -0.09200127422809601, 0.07466055452823639, -0.010960787534713745, 0.06912277638912201, 0.1421777755022049, -0.13949283957481384, 0.08069099485874176, -0.10459816455841064, -0.006596893072128296, -0.18746036291122437, 0.11949647963047028, 0.17086167633533478, -0.1128755584359169, 0.10096989572048187, 0.01820656657218933, 0.048374518752098083, 0.10865549743175507, 0.08827616274356842, 0.1333569437265396, 0.03411771357059479, -0.13427318632602692, -0.041592076420784, -0.11888371407985687, 0.14291517436504364, -0.11704917997121811, 0.10673253238201141, -0.018053948879241943, 0.10792656242847443, -0.02754940092563629, -0.18531262874603271, 0.01885037124156952, -0.10215260833501816, 0.13016970455646515, 0.15840040147304535, -0.0754023864865303, 0.0965583473443985, 0.06431441009044647, -0.007772475481033325, 0.17511729896068573, -0.156393900513649, 0.16780884563922882, -0.01901744306087494, 0.06550319492816925, -0.03166674077510834, 0.01882101595401764, 0.09431786835193634, -0.12998557090759277, 0.11773402988910675, -0.11241465061903, -0.01779744029045105, 0.16963551938533783, -0.17391365766525269, 0.012761816382408142, -0.1876561939716339, -0.16232849657535553, 0.06799726188182831, 0.004016414284706116, -0.09671760350465775, -0.08311831206083298, 0.13733889162540436, 0.12257231771945953, 0.10583369433879852, -0.06460362672805786, -0.09861969947814941, 0.16736502945423126, 0.08527256548404694, -0.07540220767259598, -0.10131331533193588, 0.0959060937166214, -0.06907151639461517, -0.019955754280090332, 0.0034016072750091553, -0.14408990740776062, 0.020256921648979187, 0.05581754446029663, -0.0008776187896728516, 0.016559138894081116, 0.1426619440317154, -0.1379537433385849, 0.06225217878818512, -0.12503758072853088, 0.029221460223197937, -0.003414541482925415, 0.10770760476589203, -0.02439846098423004, -0.16861826181411743, -0.034382566809654236, -0.15054433047771454, 0.011987924575805664, -0.1121862381696701, -0.13868357241153717, 0.05917717516422272, -0.17874020338058472, -0.18692220747470856, -0.10381229966878891, -0.15951007604599, -0.14243780076503754, 0.1053636223077774, 0.12831313908100128, -0.11463106423616409, -0.07183336466550827]}, "bias": {"shape": [7], "values": [-0.05929933488368988, -0.05695761740207672, -0.1770932376384735, 0.05928662419319153, -0.04935459792613983, 0.14923425018787384, 0.16993670165538788]}}, "bn1": {"weight": {"shape": [7], "values": [1.0, 1.0, 1.0, 1.0, 1.0, 1.0, 1.0]}, "bias": {"shape": [7], "values": [0.0, 0.0, 0.0, 0.0, 0.0, 0.0, 0.0]}, "running_mean": {"shape": [7], "values": [0.0, 0.0, 0.0, 0.0, 0.0, 0.0, 0.0]}, "running_var": {"shape": [7], "values": [1.0, 1.0, 1.0, 1.0, 1.0, 1.0, 1.0]}}, "bn2": {"weight": {"shape": [7], "values": [1.0, 1.0, 1.0, 1.0, 1.0, 1.0, 1.0]}, "bias": {"shape": [7], "values": [0.0, 0.0, 0.0, 0.0, 0.0, 0.0, 0.0]}, "running_mean": {"shape": [7], "values": [0.0, 0.0, 0.0, 0.0, 0.0, 0.0, 0.0]}, "running_var": {"shape": [7], "values": [1.0, 1.0, 1.0, 1.0, 1.0, 1.0, 1.0]}}, "f1": {"weight": {"shape": [7], "values": [0.25, 0.25, 0.25, 0.25, 0.25, 0.25, 0.25]}}, "f2": {"weight": {"shape": [7], "values": [0.25, 0.25, 0.25, 0.25, 0.25, 0.25, 0.25]}}}, "block_stack.2": {"conv": {"weight": {"shape": [7, 7, 1], "values": [0.08083808422088623, -0.19519323110580444, -0.3321409821510315, 0.3536715805530548, -0.09345638751983643, -0.3262922167778015, 0.3430086076259613, 0.09107834100723267, -0.32646048069000244, 0.13808664679527283, 0.05043640732765198, -0.22502106428146362, -0.27294522523880005, -0.16321469843387604, 0.03067106008529663, -0.31657856702804565, -0.2969168722629547, -0.15540286898612976, 0.2815103232860565, 0.2192113697528839, -0.03740212321281433, 0.3472534120082855, -0.36869409680366516, -0.00026109814643859863, 0.0228060781955719, 0.23720702528953552, -0.36373353004455566, -0.00967717170715332, -0.12602639198303223, 0.33838221430778503, -0.025997042655944824, 0.2344878613948822, -0.3192807137966156, -0.024644970893859863, -0.18562765419483185, 0.11660715937614441, -0.17404046654701233, -0.09460529685020447, -0.09004130959510803, -0.2892816364765167, -0.17680290341377258, -0.1986127346754074, 0.03519779443740845, 0.10918232798576355, 0.0514356791973114, -0.06934091448783875, -0.07028421759605408, 0.05342075228691101, 0.005284488201141357]}, "bias": {"shape": [7], "values": [0.2851143181324005, 0.07521253824234009, -0.2479209005832672, -0.37462371587753296, -0.24269209802150726, 0.027118802070617676, -0.2555861473083496]}}, "conv1": {"weight": {"shape": [7, 7, 4], "values": [-0.09732573479413986, 0.09466220438480377, 0.06146891415119171, 0.032413482666015625, 0.1319621354341507, -0.05149489641189575, 0.08116470277309418, 0.1387322098016739, -0.007927849888801575, 0.17983205616474152, 0.12386314570903778, 0.004920080304145813, 0.07087148725986481, -0.014725327491760254, -0.1318182349205017, 0.03104148805141449, -0.0086335688829422, -0.031010344624519348, -0.04271157085895538, 0.08708785474300385, 0.1649698168039322, 0.07546408474445343, -0.021682724356651306, -0.18136349320411682, -0.11017579585313797, 0.05368015170097351, 0.08428876101970673, 0.0807025283575058, 0.12067677080631256, 0.09761406481266022, 0.041705965995788574, -0.02149823307991028, -0.12597519159317017, 0.03440168499946594, 0.08541245758533478, 0.023272916674613953, 0.043312907218933105, -0.0982348695397377, 0.013922005891799927, -0.16013215482234955, 0.011495426297187805, -0.1019122526049614, 0.09656290709972382, -0.015386611223220825, -0.18542172014713287, -0.0021155178546905518, 0.01217353343963623, -0.14525555074214935, -0.0764005109667778, 0.14024992287158966, 0.030718013644218445, 0.15150867402553558, -0.14149178564548492, -0.059100568294525146, 0.07633177936077118, -0.14468804001808167, 0.07543148100376129, -0.025342732667922974, 0.04348310828208923, 0.09791187942028046, -0.17536647617816925, 0.12982042133808136, 0.02936077117919922, -0.07575160264968872, 0.029198944568634033, -0.0765412449836731, 0.1876242309808731, -0.08114536106586456, 0.04559408128261566, -0.11278429627418518, 0.10043780505657196, -0.07508447021245956, -0.12991595268249512, -0.10147662460803986, -0.09614427387714386, -0.15621982514858246, 0.0941353589296341, -0.11221802234649658, 0.15885262191295624, -0.03297141194343567, -0.08180287480354309, -0.10533802211284637, -0.0559089332818985, -0.07057993113994598, 0.18077315390110016, 0.12121032178401947, 0.033419445157051086, -0.07899585366249084, -0.15979193150997162, -0.18232601881027222, 0.08489547669887543, -0.1044810563325882, 0.12732504308223724, 0.022726595401763916, 0.15864448249340057, 0.07909713685512543, 0.0032198578119277954, 0.003635033965110779, 0.07012926042079926, -0.13535019755363464, 0.07066617906093597, 0.17214460670948029, 0.14336208999156952, -0.14588510990142822, 0.010704562067985535, -0.11539825052022934, -0.09133238345384598, -0.021020501852035522, 0.044474080204963684, 0.07309596240520477, -0.14784102141857147, 0.03403042256832123, 0.183873251080513, 0.00843040645122528, 0.06599216163158417, -0.03424115478992462, 0.13894771039485931, -0.09011942893266678, -0.0780189111828804, 0.07538168132305145, 0.13798536360263824, -0.17516425251960754, -0.12465807050466537, 0.02271343767642975, -0.04883092641830444, -0.17872196435928345, -0.12860716879367828, 0.07708273828029633, -0.1462988555431366, 0.18143706023693085, 0.16278056800365448, 0.02227814495563507, -0.14127063751220703, -0.09149359911680222, -0.019941478967666626, 0.12598402798175812, -0.0961201936006546, 0.06009611487388611, -0.01367776095867157, 0.044109076261520386, 0.1037365049123764, -0.004416614770889282, -0.18380089104175568, -0.16135072708129883, -0.09683265537023544, 0.06664977967739105, 0.006804019212722778, -0.004287302494049072, 0.030390441417694092, 0.18217413127422333, 0.15082065761089325, -0.15283891558647156, -0.177744060754776, 0.0013142675161361694, -0.015315845608711243, 0.039341121912002563, 0.1502082794904709, -0.18274813890457153, -0.034767210483551025, 0.13401155173778534, 0.05501778423786163, 0.08297325670719147, 0.0979280024766922, 0.16253696382045746, 0.07957310974597931, 0.08994440734386444, 0.01470811665058136, -0.06978359073400497, 0.06331159174442291, 0.09547938406467438, 0.18587331473827362, 0.02615189552307129, 0.02318979799747467, -0.0015245378017425537, 0.11232952773571014, 0.13302282989025116, 0.09653688967227936, -0.008272528648376465, 0.1788167804479599, 0.05953168869018555, 0.0035644322633743286, -0.00911356508731842, 0.1842174381017685, -0.15167254209518433, -0.02949024736881256, 0.18651790916919708, 0.11441333591938019, -0.060742124915122986, 0.08739282190799713, 0.16460491716861725, 0.18881238996982574, -0.016778215765953064, 0.0418999046087265, -0.11991837620735168, -0.01260441541671753, -0.08264467120170593]}, "bias": {"shape": [7], "values": [0.06549806892871857, -0.09037426859140396, -0.0038010478019714355, 0.16276688873767853, -0.17181766033172607, 0.09885694086551666, -0.16721799969673157]}}, "conv2": {"weight": {"shape": [7, 7, 4], "values": [-0.1072259470820427, -0.14170950651168823, 0.005194634199142456, 0.09003384411334991, -0.07220675051212311, -0.048869550228118896, 0.10515038669109344, 0.12514342367649078, -0.04272603988647461, 0.14914588630199432, 0.011396527290344238, -0.012607142329216003, -0.01777125895023346, 0.11109916865825653, -0.0035543292760849, -0.13764895498752594, -0.04184626042842865, 0.12706710398197174, 0.06452380120754242, -0.003040596842765808, -0.10611457377672195, 0.07485456764698029, 0.1656617969274521, 0.035511165857315063, 0.0920836478471756, 0.03493066132068634, 0.030592024326324463, 0.16398073732852936, 0.09724457561969757, 0.016979455947875977, 0.16865412890911102, -0.04779250919818878, 0.1589600294828415, 0.03686283528804779, 0.05835980176925659, -0.15541085600852966, -0.029872432351112366, -0.013336181640625, 0.10241065919399261, 0.08346773684024811, -0.0007398724555969238, -0.04318799078464508, -0.14144009351730347, 0.1570350080728531, -0.18408621847629547, 0.13126905262470245, 0.04398983716964722, 0.059511616826057434, -0.06957802176475525, -0.031068608164787292, -0.18635138869285583, -0.056107521057128906, 0.0017075389623641968, -0.026324301958084106, -0.18486559391021729, -0.13293735682964325, 0.12195087969303131, -0.12277676165103912, 0.16201983392238617, 0.08576326072216034, 0.027167990803718567, 0.09600351750850677, -0.04248057305812836, -0.0917210653424263, -0.07815905660390854, 0.1704445332288742, -0.05069468915462494, -0.07540387660264969, -0.10674852132797241, -0.08013015985488892, 0.1044778972864151, 0.08809183537960052, -0.05116073787212372, 0.11839933693408966, 0.09887082874774933, -0.07800989598035812, 0.039978429675102234, -0.06835220754146576, -0.028661265969276428, -0.1445888876914978, 0.16144125163555145, 0.048203080892562866, -0.07695131003856659, 0.1752098947763443, -0.011054903268814087, 0.0578407347202301, -0.04810015857219696, -0.021919474005699158, -0.15714025497436523, -0.1515927016735077, -0.16230523586273193, 0.15954209864139557, 0.175131157040596, 0.12607969343662262, 0.0442933589220047, -0.0962582677602768, -0.03771167993545532, 0.07041282951831818, 0.14001773297786713, 0.12458668649196625, 0.03321570158004761, 0.12650297582149506, 0.10601247847080231, -0.0035957694053649902, 0.16408197581768036, -0.03524686396121979, 0.12017647922039032, -0.1527177393436432, 0.05819976329803467, 0.04136204719543457, 0.08149708807468414, 0.13000290095806122, -0.15179650485515594, -0.10295379161834717, 0.12477453052997589, -0.1358550637960434, -0.12415991723537445, 0.09401048719882965, -0.09103090316057205, 0.0707474797964096, -0.057674869894981384, -0.18322062492370605, 0.11408720910549164, 0.09805963933467865, -0.003962665796279907, 0.02541103959083557, -0.0031343549489974976, 0.09953708946704865, -0.00630660355091095, 0.12657980620861053, 0.15984366834163666, -0.11527028679847717, 0.10926647484302521, 0.18289683759212494, 0.009137600660324097, -0.1330597847700119, -0.18105196952819824, 0.1151852160692215, -0.046684280037879944, 0.13773669302463531, -0.06409038603305817, -0.09862447530031204, -0.11799584329128265, -0.049166858196258545, 0.04312370717525482, 0.1512986272573471, -0.0967734307050705, 0.1759527176618576, 0.10448597371578217, 0.12454546988010406, -0.08454961329698563, -0.15694361925125122, 0.16274450719356537, -0.007044464349746704, -0.011443763971328735, 0.15927840769290924, 0.0015900731086730957, -0.05445997416973114, 0.13224323093891144, 0.11034761369228363, -0.0243808776140213, -0.05955570936203003, 0.17053548991680145, 0.11476762592792511, 0.15625227987766266, 0.03378148376941681, 0.0639011412858963, 0.07764099538326263, 0.0775020569562912, 0.09213684499263763, -0.14461208879947662, 0.1234358698129654, -0.11141209304332733, -0.10711783170700073, 0.04373663663864136, 0.11424638330936432, -0.1602415144443512, -0.09438872337341309, 0.07761521637439728, 0.0567091703414917, -0.14063553512096405, 0.10761801898479462, 0.06643067300319672, -0.15591728687286377, 0.058921366930007935, 0.03157375752925873, 0.005608499050140381, 0.07667522132396698, 0.05151715874671936, -0.012992963194847107, 0.06914050877094269, 0.11457867920398712, 0.08588488399982452, -0.13705451786518097, -0.017361268401145935, -0.1684073954820633]}, "bias": {"shape": [7], "values": [0.1337018758058548, 0.1657167226076126, -0.16821062564849854, 0.11581917107105255, 0.10139940679073334, -0.06456224620342255, 0.11230166256427765]}}, "bn1": {"weight": {"shape": [7], "values": [1.0, 1.0, 1.0, 1.0, 1.0, 1.0, 1.0]}, "bias": {"shape": [7], "values": [0.0, 0.0, 0.0, 0.0, 0.0, 0.0, 0.0]}, "running_mean": {"shape": [7], "values": [0.0, 0.0, 0.0, 0.0, 0.0, 0.0, 0.0]}, "running_var": {"shape": [7], "values": [1.0, 1.0, 1.0, 1.0, 1.0, 1.0, 1.0]}}, "bn2": {"weight": {"shape": [7], "values": [1.0, 1.0, 1.0, 1.0, 1.0, 1.0, 1.0]}, "bias": {"shape": [7], "values": [0.0, 0.0, 0.0, 0.0, 0.0, 0.0, 0.0]}, "running_mean": {"shape": [7], "values": [0.0, 0.0, 0.0, 0.0, 0.0, 0.0, 0.0]}, "running_var": {"shape": [7], "values": [1.0, 1.0, 1.0, 1.0, 1.0, 1.0, 1.0]}}, "f1": {"weight": {"shape": [7], "values": [0.25, 0.25, 0.25, 0.25, 0.25, 0.25, 0.25]}}, "f2": {"weight": {"shape": [7], "values": [0.25, 0.25, 0.25, 0.25, 0.25, 0.25, 0.25]}}}, "block_stack.3": {"conv": {"weight": {"shape": [7, 7, 1], "values": [-0.13299253582954407, 0.31505927443504333, -0.2281712144613266, -0.3024093508720398, -0.2929971218109131, 0.20782747864723206, -0.12057629227638245, -0.29584118723869324, -0.011469483375549316, -0.01588529348373413, 0.14736828207969666, -0.11387026309967041, -0.1527957022190094, -0.14464019238948822, -0.05582398176193237, 0.28847536444664, 0.3376273214817047, 0.196992427110672, -0.3272113800048828, 0.1667102873325348, 0.3242429196834564, 0.23877808451652527, -0.29196053743362427, 0.0605853796005249, -0.13239769637584686, -0.08383011817932129, 0.19685134291648865, 0.022967427968978882, -0.22627341747283936, -0.20692121982574463, 0.05156832933425903, -0.35922354459762573, -0.26508644223213196, 0.20497044920921326, 0.2083936631679535, 0.24648705124855042, 0.1905439794063568, 0.26670166850090027, 0.36497536301612854, 0.24409112334251404, -0.10028564929962158, 0.1351836621761322, -0.019932836294174194, -0.19900383055210114, -0.33629414439201355, -0.35922548174858093, -0.3087734580039978, -0.2616517245769501, -0.28227996826171875]}, "bias": {"shape": [7], "values": [0.1657167375087738, 0.11007344722747803, 0.08664631843566895, 0.37468740344047546, 0.0031754374504089355, -0.0466289222240448, 0.08175453543663025]}}, "conv1": {"weight": {"shape": [7, 7, 4], "values": [0.00947725772857666, -0.06478890031576157, 0.04032689332962036, 0.045648813247680664, 0.08410649001598358, 0.11376498639583588, 0.09784425795078278, 0.0532798171043396, 0.12368522584438324, 0.13824550807476044, -0.11605862528085709, -0.18436425924301147, -0.061218827962875366, 0.06672586500644684, 0.05393911898136139, 0.1343701034784317, -0.11703744530677795, 0.10727356374263763, 0.04325537383556366, -0.1428115963935852, -0.08966708183288574, 0.15298409759998322, -0.12786652147769928, -0.08535560965538025, -0.03800301253795624, -0.08876807987689972, 0.12274686992168427, -0.10912282019853592, 0.01601414382457733, -0.10634353011846542, -0.18432319164276123, -0.11358171701431274, 0.08022032678127289, 0.07210032641887665, -0.1625744253396988, 0.11290575563907623, 0.108192577958107, 0.04876264929771423, -0.10847695171833038, -0.05614027380943298, -0.040557295083999634, 0.07361884415149689, 0.05728684365749359, 0.1243453174829483, -0.07204260677099228, 0.11583574116230011, 0.14407716691493988, 0.17093656957149506, 0.08717693388462067, -0.13836368918418884, 0.14287568628787994, -0.14388498663902283, 0.061075225472450256, -0.15954317152500153, 0.13415928184986115, 0.18617461621761322, 0.1466105729341507, -0.16385209560394287, 0.05797313153743744, -0.06592316180467606, -0.004582583904266357, -0.13071830570697784, -0.09600773453712463, -0.07659368962049484, -0.062363192439079285, -0.05551429092884064, 0.06738804280757904, -0.010942265391349792, 0.1604628711938858, -0.11515406519174576, -0.16020344197750092, -0.10177566111087799, 0.02506399154663086, 0.12407980859279633, 0.13654778897762299, -0.08397835493087769, -0.05446930229663849, -0.03390173614025116, 0.1556638926267624, -0.047569915652275085, 0.17892350256443024, -0.03302711248397827, -0.07984400540590286, -0.18688537180423737, 0.04435338079929352, 0.02575574815273285, 0.05044928193092346, -0.030818045139312744, 0.11691974103450775, 0.09874026477336884, 0.11159594357013702, 0.02040429413318634, 0.1074565201997757, 0.05461062490940094, -0.18146613240242004, 0.10614551603794098, -0.07167548686265945, 0.051088884472846985, -0.04549159109592438, 0.003268808126449585, 0.03715716302394867, 0.05360312759876251, -0.12865185737609863, 0.1026802510023117, 0.17165489494800568, 0.05602306127548218, -0.13013868033885956, 0.14118926227092743, 0.06734748184680939, -0.1824416220188141, -0.06332525610923767, 0.04752403497695923, 0.05461059510707855, 0.18276460468769073, 0.18850676715373993, 0.18690331280231476, 0.1133919209241867, 0.06980650126934052, 0.039147600531578064, -0.06530376523733139, 0.12573207914829254, 0.012524232268333435, -0.0832722932100296, 0.11933611333370209, -0.024538159370422363, 0.0701940506696701, -0.03540521860122681, 0.18320240080356598, -0.18124833703041077, 0.13020028173923492, 0.06741957366466522, -0.040250539779663086, -0.009226679801940918, 0.09379531443119049, 0.1077273041009903, -0.13014723360538483, 0.003670632839202881, 0.07433049380779266, 0.0834725946187973, 0.14146853983402252, 0.08579589426517487, -0.15752041339874268, -0.09919393062591553, -0.017260566353797913, -0.11612141132354736, 0.03628350794315338, -0.1654929369688034, -0.03318329155445099, 0.03444388508796692, -0.09503403306007385, 0.1883731335401535, 0.14979611337184906, 0.16674195230007172, 0.10135681927204132, -0.01873674988746643, -0.1589875966310501, 0.12289480865001678, -0.03846226632595062, 0.005363732576370239, 0.05318455398082733, 0.17132051289081573, 0.0953579992055893, -0.08311889320611954, 0.15092013776302338, -0.18357743322849274, 0.10203100740909576, -0.1710381954908371, -0.03985321521759033, 0.17056401073932648, -0.13915279507637024, 0.030914306640625, -0.18236693739891052, -0.042933300137519836, 0.14602889120578766, -0.03403131663799286, 0.09603632986545563, -0.1799115687608719, -0.022728607058525085, 0.05283057689666748, 0.16822360455989838, -0.017816215753555298, 0.07360674440860748, -0.17220492660999298, 0.11891989409923553, -0.1699209213256836, -0.12994587421417236, 0.07547540962696075, -0.17302793264389038, -0.15083307027816772, -0.18381869792938232, -0.11496584117412567, -0.18713195621967316, -0.04826699197292328, 0.02659367024898529, 0.020366474986076355, 0.15580640733242035]}, "bias": {"shape": [7], "values": [-0.15508121252059937, -0.038621947169303894, -0.07527408748865128, -0.060501039028167725, -0.053492993116378784, 0.03205990791320801, 0.15223534405231476]}}, "conv2": {"weight": {"shape": [7, 7, 4], "values": [-0.03589978814125061, -0.12950332462787628, 0.1692575365304947, -0.11416929960250854, -0.10420235991477966, 0.16011257469654083, -0.16939237713813782, -0.17677202820777893, 0.15789054334163666, -0.17298728227615356, -0.17179617285728455, -0.17115870118141174, 0.12224720418453217, 0.09091676771640778, 0.0722016841173172, -0.14058612287044525, 0.10710380971431732, 0.04802405834197998, -0.05756781995296478, 0.17710982263088226, -0.14088532328605652, 0.15546844899654388, 0.003485575318336487, -0.04212650656700134, -0.18432599306106567, -0.12672388553619385, 0.18656514585018158, -0.15161436796188354, 0.11216311156749725, 0.07875894010066986, -0.0848393514752388, 0.10883481800556183, 0.15957437455654144, 0.13414882123470306, 0.02115669846534729, -0.12581786513328552, 0.11272434890270233, 0.018835872411727905, -0.1752275824546814, -0.15188142657279968, 0.024214088916778564, -0.11874223500490189, 0.02701285481452942, 0.11515481770038605, 0.12546123564243317, -0.09905069321393967, -0.16030114889144897, -0.17123043537139893, 0.047235578298568726, 0.13873957097530365, 0.18800146877765656, 0.007014632225036621, -0.05562381446361542, 0.0514339953660965, -0.021795347332954407, 0.12929366528987885, -0.008808508515357971, -0.13833197951316833, -0.024187326431274414, -0.053779929876327515, 0.02797764539718628, 0.03459472954273224, 0.012461915612220764, -0.11432839930057526, 0.07423634827136993, 0.1349724680185318, 0.1489705890417099, -0.1267317831516266, -0.08152048289775848, 0.13433738052845, -0.020744293928146362, -0.142267107963562, -0.06000550091266632, 0.16143430769443512, -0.10196607559919357, 0.01314324140548706, 0.08514977991580963, 0.10364861786365509, -0.12179026752710342, 0.07322163879871368, 0.15841536223888397, 0.06488929688930511, -0.0036807656288146973, -0.007166743278503418, 0.06526444852352142, 0.048151060938835144, -0.02204662561416626, -0.1061166450381279, 0.07361190021038055, -0.11549404263496399, -0.0874510258436203, 0.012926459312438965, 0.03787761926651001, -0.18099728226661682, 0.12556777894496918, -0.09157652407884598, 0.11352704465389252, -0.0023223012685775757, 0.09193260967731476, 0.15498720109462738, -0.13912998139858246, 0.17984946072101593, 0.11880327761173248, -0.007087394595146179, 0.13505448400974274, 0.13399536907672882, 0.07412932813167572, 0.025885969400405884, 0.029953449964523315, -0.11354389041662216, -0.11655089259147644, 0.134530708193779, 0.004797831177711487, -0.14112138748168945, -0.15483327209949493, 0.06545664370059967, -0.1836210936307907, 0.1188364177942276, 0.10839761793613434, -0.09223388135433197, -0.15193559229373932, -0.0119742751121521, -0.0030604004859924316, -0.07861694693565369, 0.025200694799423218, -0.09216449409723282, 0.014188498258590698, 0.048792093992233276, -0.07663661241531372, -0.17305012047290802, 0.057062506675720215, 0.02431386709213257, -0.1531502604484558, 0.1604187935590744, -0.1453527808189392, -0.055257052183151245, 0.017449021339416504, -0.03302013874053955, -0.03391832113265991, -0.16620150208473206, -0.12096565961837769, 0.0455569326877594, 0.1876574605703354, 0.11304859817028046, -0.1323811113834381, 0.1342199593782425, 0.08000625669956207, 0.10306514799594879, -0.09264371544122696, 0.18116126954555511, -0.10170853137969971, 0.14729540050029755, -0.022075116634368896, 0.03684762120246887, 0.13680638372898102, -0.08763284981250763, 0.16073550283908844, -0.09581932425498962, 0.1819445639848709, 0.1612057238817215, -0.1452697515487671, -0.07008761167526245, -0.047371089458465576, -0.179108127951622, 0.0761842280626297, -0.10313037037849426, -0.1250959038734436, 0.16476567089557648, -0.05430711805820465, -0.05268457531929016, 0.06708116829395294, -0.13945405185222626, 0.13365359604358673, -0.08191533386707306, -0.08757670968770981, -0.17196445167064667, 0.0463314950466156, -0.10546214878559113, -0.057633176445961, -0.17962788045406342, 0.039174243807792664, -0.0559505969285965, 0.0011788159608840942, -0.06257438659667969, 0.09058354794979095, -0.04332399368286133, 0.1820729821920395, -0.16910289227962494, -0.15091359615325928, -0.034613803029060364, -0.09080951660871506, 0.07024334371089935, -0.06581710278987885, 0.057474568486213684, 0.0830165296792984, -0.1880439668893814]}, "bias": {"shape": [7], "values": [-0.161441832780838, -0.15610218048095703, -0.0055628567934036255, -0.09722276031970978, 0.1519908756017685, -0.04585379362106323, 0.07444624602794647]}}, "bn1": {"weight": {"shape": [7], "values": [1.0, 1.0, 1.0, 1.0, 1.0, 1.0, 1.0]}, "bias": {"shape": [7], "values": [0.0, 0.0, 0.0, 0.0, 0.0, 0.0, 0.0]}, "running_mean": {"shape": [7], "values": [0.0, 0.0, 0.0, 0.0, 0.0, 0.0, 0.0]}, "running_var": {"shape": [7], "values": [1.0, 1.0, 1.0, 1.0, 1.0, 1.0, 1.0]}}, "bn2": {"weight": {"shape": [7], "values": [1.0, 1.0, 1.0, 1.0, 1.0, 1.0, 1.0]}, "bias": {"shape": [7], "values": [0.0, 0.0, 0.0, 0.0, 0.0, 0.0, 0.0]}, "running_mean": {"shape": [7], "values": [0.0, 0.0, 0.0, 0.0, 0.0, 0.0, 0.0]}, "running_var": {"shape": [7], "values": [1.0, 1.0, 1.0, 1.0, 1.0, 1.0, 1.0]}}, "f1": {"weight": {"shape": [7], "values": [0.25, 0.25, 0.25, 0.25, 0.25, 0.25, 0.25]}}, "f2": {"weight": {"shape": [7], "values": [0.25, 0.25, 0.25, 0.25, 0.25, 0.25, 0.25]}}}, "block_stack.4": {"conv": {"weight": {"shape": [7, 7, 1], "values": [0.3620142638683319, -0.03989759087562561, 0.28731808066368103, -0.2767128348350525, -0.0947561264038086, 0.3131154477596283, 0.2739504277706146, 0.34608373045921326, -0.11220422387123108, -0.15837055444717407, -0.2060454934835434, -0.18313083052635193, -0.14848817884922028, -0.2312806397676468, -0.11022397875785828, 0.003650069236755371, 0.3055931031703949, -0.36231911182403564, -0.044798433780670166, 0.08116212487220764, 0.07026258111000061, -0.24905544519424438, 0.24299833178520203, -0.1383439302444458, -0.06359341740608215, 0.10011136531829834, -0.25931984186172485, -0.2254127413034439, -0.028849512338638306, -0.32836437225341797, 0.3371677100658417, -0.2763330936431885, -0.2820919454097748, 0.14727255702018738, 0.09107157588005066, -0.08686357736587524, -0.16476966440677643, 0.07131272554397583, -0.11026102304458618, -0.28802311420440674, 0.2731969654560089, -0.15407982468605042, 0.20626387000083923, -0.07484501600265503, 0.17801406979560852, -0.20202159881591797, -0.19704881310462952, -0.05634203553199768, 0.05833160877227783]}, "bias": {"shape": [7], "values": [0.06638586521148682, 0.24390199780464172, 0.3018015921115875, -0.05010095238685608, 0.10761180520057678, -0.0399320125579834, 0.23884961009025574]}}, "conv1": {"weight": {"shape": [7, 7, 4], "values": [-0.14217865467071533, -0.1642509251832962, 0.045587897300720215, 0.17556236684322357, -0.03370983898639679, -0.16764940321445465, -0.06726056337356567, -0.11406436562538147, -0.1568307876586914, 0.16387371718883514, -0.11345154792070389, 0.12269730865955353, 0.03602038323879242, -0.11945253610610962, -0.052984341979026794, 0.0960259884595871, -0.11174215376377106, -0.12685555219650269, 0.10769276320934296, 0.1175750344991684, 0.1702650934457779, 0.17608143389225006, 0.06397251784801483, -0.0937027558684349, 0.03837284445762634, -0.015588507056236267, -0.1861918568611145, 0.1392301470041275, 0.011388778686523438, 0.04129658639431, 0.12962274253368378, 0.11190097033977509, -0.1378393918275833, 0.029199540615081787, 0.07788322865962982, 0.03389371931552887, -0.04995951056480408, 0.14107437431812286, -0.16997958719730377, -0.1309720277786255, -0.16112135350704193, 0.07397966086864471, 0.17311374843120575, -0.18377068638801575, -0.18415161967277527, 0.07303716242313385, -0.0280923992395401, -0.10874269902706146, -0.12440422177314758, -0.022446677088737488, -0.01716718077659607, -0.046043217182159424, -0.0030818283557891846, 0.020684823393821716, 0.08184446394443512, -0.00922037661075592, -0.1499001383781433, -0.1629973202943802, 0.06106473505496979, 0.16915176808834076, 0.11801294982433319, -0.09863774478435516, -0.12980028986930847, -0.041695475578308105, -0.1054455041885376, 0.14630593359470367, 0.15180693566799164, -0.0965408906340599, 0.14207060635089874, -0.01628357172012329, 0.026128500699996948, 0.01260143518447876, -0.186490997672081, -0.09196630865335464, -0.04517814517021179, 0.04011790454387665, 0.0070039331912994385, -0.07849658280611038, -0.10065149515867233, 0.15210436284542084, 0.009161725640296936, 0.03365975618362427, -0.052499353885650635, 0.02715204656124115, 0.0807911604642868, 0.029598698019981384, 0.11775805056095123, -0.05589994788169861, -0.07807657867670059, 0.13296501338481903, -0.16077429056167603, -0.021038025617599487, 0.07977195084095001, 0.0908607691526413, -0.027909576892852783, 0.013953998684883118, 0.05804102122783661, 0.009263753890991211, -0.1128268763422966, 0.019071608781814575, 0.1615852564573288, 0.15742875635623932, -0.11321499943733215, -0.025568202137947083, -0.13170132040977478, 0.17293398082256317, -0.035719990730285645, -0.11079949885606766, 0.012541249394416809, -0.07545314729213715, 0.1603894680738449, -0.08461332321166992, 0.06031815707683563, 0.06688611209392548, -0.12551134824752808, 0.05741368234157562, -0.10241423547267914, 0.10810823738574982, 0.029292359948158264, -0.16754354536533356, 0.14337871968746185, -0.11809517443180084, 0.0045149922370910645, 0.0267210453748703, 0.17867343127727509, -0.05749921500682831, -0.1030368059873581, 0.14330948889255524, 0.016731470823287964, 0.07183919847011566, 0.1821276992559433, 0.17765973508358002, -0.14658856391906738, 0.07860104739665985, 0.05735859274864197, 0.08156044781208038, -0.1187836229801178, -0.18214239180088043, -0.006710320711135864, 0.10983754694461823, -0.09770333766937256, -0.14503292739391327, -0.17434947192668915, 0.13053317368030548, 0.18099789321422577, 0.03684580326080322, 0.174651637673378, 0.04244577884674072, 0.003476157784461975, -0.032843008637428284, -0.13871221244335175, 0.150435671210289, 0.07457663118839264, 0.012148499488830566, -0.1648242175579071, -0.045173779129981995, 0.1559940129518509, -0.08024606853723526, -0.1446458101272583, 0.16462565958499908, 0.0203532874584198, 0.13852672278881073, 0.027393832802772522, 0.051698729395866394, 0.13957376778125763, 0.04413801431655884, -0.1766696274280548, 0.151960089802742, -0.07258833944797516, 0.11909608542919159, -0.12048280984163284, -0.1243729516863823, 0.14526398479938507, 0.0177556574344635, 0.09850974380970001, 0.043135762214660645, 0.007150769233703613, 0.0046487003564834595, 0.04756097495555878, 0.04694013297557831, -0.0209854394197464, 0.1559799164533615, 0.11336468160152435, 0.06699879467487335, 0.18540142476558685, -0.01935116946697235, -0.11211403459310532, -0.011879757046699524, 0.13487882912158966, 0.13542471826076508, 0.12734593451023102, -0.06350608170032501, 0.024708643555641174, 0.18686078488826752, -0.08369334787130356, -0.11932943761348724]}, "bias": {"shape": [7], "values": [0.1535390466451645, 0.018543586134910583, 0.12930522859096527, -0.015161141753196716, 0.09073798358440399, -0.08579175919294357, 0.07985679805278778]}}, "conv2": {"weight": {"shape": [7, 7, 4], "values": [-0.08022399246692657, 0.04644221067428589, 0.16817177832126617, -0.0018424838781356812, -0.055188119411468506, 0.020028293132781982, -0.05315607786178589, -0.15804697573184967, 0.145027294754982, 0.050832584500312805, -0.08799754083156586, 0.04242895543575287, -0.11431704461574554, -0.03949803113937378, 0.17869125306606293, -0.06256155669689178, -0.14736193418502808, -0.15386267006397247, -0.04479365050792694, 0.022439494729042053, 0.02207501232624054, 0.17621339857578278, -0.01406531035900116, 0.08516611158847809, -0.01636470854282379, -0.11883086711168289, -0.1550138294696808, 0.05299234390258789, -0.10924740135669708, -0.13123013079166412, -0.15392529964447021, -0.053404659032821655, 0.10119791328907013, -0.0919102132320404, -0.15838277339935303, 0.16726727783679962, -0.0739235058426857, 0.04659317433834076, 0.10443593561649323, -0.16325446963310242, 0.17830584943294525, 0.06252683699131012, -0.08278504759073257, -0.08077127486467361, -0.1267634928226471, -0.05885420739650726, 0.04917742311954498, -0.09632819890975952, 0.1579105705022812, 0.15403728187084198, -0.09474744647741318, -0.032826974987983704, 0.15137572586536407, 0.027957230806350708, -0.12892279028892517, 0.11567766964435577, 0.04176269471645355, 0.09539638459682465, -0.10839859396219254, 0.0038790851831436157, 0.009671375155448914, 0.16517417132854462, 0.17521505057811737, -0.11262828856706619, 0.037203192710876465, 0.03577536344528198, 0.033219099044799805, 0.1823302060365677, 0.04242658615112305, -0.01867629587650299, -0.06366865336894989, 0.134952113032341, 0.09484536945819855, 0.16937975585460663, -0.041447728872299194, -0.10193376988172531, 0.10023494064807892, 0.1698702722787857, -0.16008509695529938, -0.09971395134925842, -0.14244866371154785, -0.04658210277557373, -0.05466394126415253, -0.10927391797304153, -0.11356193572282791, 0.15283171832561493, -0.023722216486930847, 0.08874340355396271, 0.15630735456943512, 0.1306641548871994, 0.11908359825611115, 0.15878872573375702, -0.016659781336784363, 0.18624086678028107, -0.0473962277173996, 0.1464013308286667, -0.07838567346334457, -0.14346946775913239, -0.13473162055015564, -0.04006315767765045, -0.09777745604515076, 0.17350731790065765, 0.15962661802768707, -0.05731770396232605, 0.027064085006713867, -0.02115844190120697, -0.004695504903793335, -0.08553725481033325, 0.09679333865642548, 0.11590860784053802, -0.027214348316192627, 0.028466343879699707, 0.030162498354911804, -0.029006779193878174, -0.0680215060710907, -0.07054638117551804, -0.09608504921197891, -0.1668402999639511, -0.04491239786148071, -0.13233044743537903, 0.17201651632785797, 0.01808813214302063, 0.10438625514507294, 0.017513781785964966, -0.015985548496246338, -0.15228809416294098, -0.12298940867185593, -0.12856382131576538, 0.044034361839294434, -0.1661638617515564, -0.17375977337360382, 0.11126430332660675, -0.17825302481651306, -0.15540745854377747, 0.12138168513774872, -0.17137537896633148, -0.15659143030643463, -0.16206949949264526, -0.15042586624622345, -0.030480101704597473, -0.08536705374717712, -0.12091115862131119, -0.00791923701763153, 0.18638412654399872, 0.04024595022201538, 0.11647753417491913, 0.08112944662570953, -0.18884629011154175, 0.1458512395620346, -0.14187578856945038, 0.1325349360704422, 0.031004205346107483, -0.02431550621986389, 0.057649850845336914, -0.1674012541770935, -0.02421577274799347, 0.14644937217235565, -0.05088779330253601, 0.08065749704837799, 0.04757942259311676, -0.15650644898414612, -0.14179956912994385, -0.04293012619018555, -0.008109629154205322, -0.06343916058540344, -0.1631469428539276, 0.018530040979385376, -0.11702171713113785, -0.04691013693809509, 0.03328874707221985, -0.15305079519748688, 0.13030312955379486, 0.09600119292736053, 0.12824364006519318, 0.08128003776073456, -0.17851945757865906, -0.08617553114891052, 0.04103401303291321, 0.14093194901943207, 0.011170923709869385, -0.02247944474220276, -0.09945863485336304, -0.07467310130596161, 0.1838015466928482, 0.18258948624134064, 0.035054177045822144, -0.06848703324794769, -0.14198723435401917, 0.11087946593761444, 0.1429591029882431, -0.12358824163675308, -0.14409580826759338, 0.1040978878736496, -0.10199587792158127, -0.17253196239471436, -0.08339986950159073]}, "bias": {"shape": [7], "values": [0.09931795299053192, 0.17870374023914337, 0.13932190835475922, -0.16860586404800415, -0.14270064234733582, 0.06915687024593353, -0.010221496224403381]}}, "bn1": {"weight": {"shape": [7], "values": [1.0, 1.0, 1.0, 1.0, 1.0, 1.0, 1.0]}, "bias": {"shape": [7], "values": [0.0, 0.0, 0.0, 0.0, 0.0, 0.0, 0.0]}, "running_mean": {"shape": [7], "values": [0.0, 0.0, 0.0, 0.0, 0.0, 0.0, 0.0]}, "running_var": {"shape": [7], "values": [1.0, 1.0, 1.0, 1.0, 1.0, 1.0, 1.0]}}, "bn2": {"weight": {"shape": [7], "values": [1.0, 1.0, 1.0, 1.0, 1.0, 1.0, 1.0]}, "bias": {"shape": [7], "values": [0.0, 0.0, 0.0, 0.0, 0.0, 0.0, 0.0]}, "running_mean": {"shape": [7], "values": [0.0, 0.0, 0.0, 0.0, 0.0, 0.0, 0.0]}, "running_var": {"shape": [7], "values": [1.0, 1.0, 1.0, 1.0, 1.0, 1.0, 1.0]}}, "f1": {"weight": {"shape": [7], "values": [0.25, 0.25, 0.25, 0.25, 0.25, 0.25, 0.25]}}, "f2": {"weight": {"shape": [7], "values": [0.25, 0.25, 0.25, 0.25, 0.25, 0.25, 0.25]}}}, "block_stack.5": {"conv": {"weight": {"shape": [7, 7, 1], "values": [0.29641684889793396, -0.19893236458301544, -0.2760898768901825, 0.17016252875328064, 0.27850571274757385, -0.2920934557914734, -0.08655434846878052, -0.23899851739406586, -0.24027805030345917, -0.2636464238166809, 0.32819727063179016, -0.07103210687637329, -0.011486798524856567, -0.15539242327213287, 0.14267000555992126, 0.23759111762046814, -0.013120114803314209, -0.1351226419210434, -0.0028661489486694336, 0.30414125323295593, -0.11045125126838684, 0.1257154643535614, 0.026284247636795044, 0.16509047150611877, -0.1793985515832901, 0.08162310719490051, -0.27075839042663574, 0.14195892214775085, 0.1459847390651703, -0.33672022819519043, -0.20193040370941162, -0.22332295775413513, 0.36251869797706604, 0.22852030396461487, -0.36690229177474976, -0.35001152753829956, 0.28118661046028137, -0.13285024464130402, 0.16240325570106506, 0.2595122754573822, 0.20534244179725647, 0.23318621516227722, -0.16322767734527588, -0.2752764821052551, -0.08560007810592651, 0.30253860354423523, -0.14344261586666107, 0.25976166129112244, 0.16198840737342834]}, "bias": {"shape": [7], "values": [0.14215460419654846, -0.3195982873439789, -0.1824287623167038, -0.023574084043502808, 0.286522775888443, 0.0978994071483612, 0.10468631982803345]}}, "conv1": {"weight": {"shape": [7, 7, 4], "values": [-0.03151145577430725, -0.014755606651306152, 0.10287798941135406, 0.004868254065513611, -0.1460455358028412, -0.16080467402935028, -0.028139010071754456, 0.039524272084236145, -0.07380875200033188, -0.17076699435710907, -0.15492045879364014, 0.08393050730228424, 0.14424793422222137, -0.09845952689647675, -0.01600852608680725, 0.043001070618629456, -0.023905694484710693, 0.14404918253421783, -0.11076316237449646, 0.11469320952892303, -0.14075715839862823, 0.13572312891483307, 0.0007371604442596436, 0.007740408182144165, 0.06561772525310516, -0.1047578901052475, 0.11643792688846588, -0.07694642245769501, -0.12503039836883545, 0.019739776849746704, 0.041767776012420654, 0.13472355902194977, 0.045432984828948975, -0.01408347487449646, 0.05995206534862518, -0.07360126078128815, -0.15094715356826782, 0.16294540464878082, -0.008419379591941833, 0.16590867936611176, -0.07406755536794662, 0.10609011352062225, 0.1175306886434555, 0.04171924293041229, 0.14233066141605377, 0.14061157405376434, -0.061688199639320374, 0.09698833525180817, -0.07981863617897034, 0.11652670800685883, 0.04377470910549164, 0.03203748166561127, 0.08971087634563446, -0.04335147142410278, 0.041779547929763794, -0.17200137674808502, -0.05497246980667114, -0.1587107926607132, 0.04396805167198181, -0.04898922145366669, -0.05837938189506531, 0.011552110314369202, 0.016700685024261475, -0.1469012051820755, 0.09372203052043915, 0.1287897676229477, 0.1750054508447647, 0.12725426256656647, -0.026608675718307495, -0.13535568118095398, 0.03766477108001709, -0.03519698977470398, 0.13908205926418304, -0.1129724308848381, -0.053870052099227905, -0.05619409680366516, -0.09612280875444412, 0.14408113062381744, -0.13990914821624756, -0.1700878143310547, -0.1066230833530426, 0.18441753089427948, -0.06788656115531921, -0.0752316489815712, -0.1775367707014084, -0.08393751084804535, 0.054351404309272766, -0.11031141877174377, -0.13985589146614075, -0.14085480570793152, 0.012398451566696167, 0.04883122444152832, -0.004201650619506836, -0.1763955056667328, -0.14404408633708954, -0.06160169839859009, -0.05260099470615387, -0.13683545589447021, -0.1335381269454956, 0.09235326945781708, 0.026733845472335815, 0.025491267442703247, 0.13309650123119354, -0.09165172278881073, 0.13326279819011688, -0.054353415966033936, 0.10336048901081085, -0.05256916582584381, -0.027237355709075928, -0.14202724397182465, 0.008693113923072815, 0.05621504783630371, -0.17343220114707947, -0.17828266322612762, -0.05923016369342804, -0.11018859595060349, 0.04164041578769684, -0.08804383873939514, 0.040533050894737244, -0.13320530951023102, 0.13178251683712006, 0.057144373655319214, -0.17832988500595093, -0.06674052029848099, -0.1249287948012352, 0.07109542191028595, -0.08609111607074738, 0.059390753507614136, -0.046845898032188416, -0.029990166425704956, -0.16885143518447876, 0.13446985185146332, -0.10208746045827866, 0.047418177127838135, 0.07422350347042084, -0.17169564962387085, -0.08481702208518982, -0.05688197910785675, 0.11754731833934784, 0.07700131833553314, -0.1693429797887802, -0.04503905773162842, 0.15532748401165009, -0.0928461104631424, 0.16943083703517914, -0.1649167686700821, -0.011997953057289124, 0.18208791315555573, 0.13428695499897003, -0.08598636090755463, -0.06180928647518158, -0.1204923614859581, 0.17527730762958527, 0.09401969611644745, -0.08920177817344666, 0.043873801827430725, 0.07815490663051605, 0.12592090666294098, -0.12083826214075089, -0.048858195543289185, 0.04639342427253723, -0.05755075812339783, -0.06951451301574707, -0.15055543184280396, 0.11319418251514435, -0.17877182364463806, -0.1813765913248062, -0.08397414535284042, 0.0009719431400299072, -0.14753660559654236, 0.05021838843822479, 0.04927016794681549, 0.08529128134250641, 0.06625370681285858, 0.11708088219165802, 0.05731862783432007, -0.12710274755954742, -0.14072364568710327, -0.06379778683185577, 0.18029667437076569, -0.18180210888385773, 0.0035894811153411865, -0.03448212146759033, 0.011324912309646606, 0.0017134398221969604, -0.0591786652803421, -0.043243199586868286, 0.14436976611614227, 0.11106137931346893, -0.10724791139364243, -0.15210820734500885, -0.026494160294532776, -0.02460639178752899, -0.06149780750274658, 0.08229650557041168, 0.0633467584848404]}, "bias": {"shape": [7], "values": [0.031633853912353516, 0.1496254950761795, 0.13123412430286407, -0.019803255796432495, 0.009042009711265564, 0.13302113115787506, -0.11816634237766266]}}, "conv2": {"weight": {"shape": [7, 7, 4], "values": [-0.16978482902050018, -0.03897413611412048, -0.012718424201011658, -0.15895870327949524, -0.154695063829422, 0.16589273512363434, 0.0355365127325058, 0.1276312917470932, -0.021605059504508972, -0.16996647417545319, -0.006707280874252319, -0.1784282922744751, 0.0313265323638916, -0.03205224871635437, 0.08596216142177582, 0.05957670509815216, -0.0348636656999588, -0.11923270672559738, 0.11683814227581024, 0.13299058377742767, -0.17319360375404358, 0.06567133963108063, 0.09796406328678131, -0.15664544701576233, 0.1680043786764145, -0.03965097665786743, 0.15456785261631012, 0.15499936044216156, -0.06940137594938278, 0.09120263159275055, -0.10137287527322769, -0.1469511091709137, -0.03043988347053528, 0.09789179265499115, 0.10395215451717377, 0.05947825312614441, -0.0029554665088653564, 0.11561788618564606, 0.18597356975078583, -0.07026275247335434, 0.08482949435710907, -0.0030785351991653442, -0.1317998319864273, 0.038717761635780334, 0.01524728536605835, 0.09823594987392426, -0.1693345308303833, 0.03711289167404175, 0.0723901242017746, -0.1330306977033615, 0.05120411515235901, -0.11023959517478943, -0.013440743088722229, 0.16017521917819977, 0.10360966622829437, -0.03553338348865509, -0.07392100989818573, -0.043291524052619934, 0.11064277589321136, -0.1763528287410736, -0.0006828159093856812, 0.15973110496997833, 0.17708824574947357, 0.08644486963748932, -0.0415821373462677, -0.16386592388153076, -0.051101818680763245, -0.061276838183403015, 0.058102041482925415, -0.1440792977809906, -0.16686475276947021, 0.04848754405975342, 0.1362157016992569, -0.0642554759979248, -0.18538491427898407, -0.14007526636123657, -0.1221274733543396, 0.06628261506557465, 0.13694651424884796, 0.15655101835727692, -0.10882600396871567, -0.1354842483997345, 0.10881601274013519, -0.17034924030303955, 0.15561582148075104, 0.014736250042915344, 0.14307977259159088, -0.1762121468782425, -0.0768318623304367, -0.02451997995376587, -0.17644481360912323, 0.12973164021968842, -0.09751085191965103, -0.01182296872138977, 0.15588752925395966, 0.15581004321575165, -0.14447833597660065, -0.07741541415452957, 0.10493920743465424, -0.09605882316827774, -0.06694521009922028, -0.18604698777198792, 0.03819639980792999, -0.12189462035894394, -0.026789873838424683, 0.05644024908542633, 0.04166699945926666, 0.07073138654232025, 0.120314821600914, -0.09256939589977264, 0.14766056835651398, 0.08891870081424713, -0.06083443760871887, 0.1026318222284317, -0.001970827579498291, -0.17696380615234375, 0.00528658926486969, 0.015389606356620789, -0.17261984944343567, 0.023128122091293335, 0.13200269639492035, -0.06512162834405899, -0.17425918579101562, 0.0004345923662185669, -0.03297053277492523, 0.13509942591190338, 0.08198700845241547, 0.13289989531040192, -0.09826620668172836, 0.12227903306484222, -0.043217480182647705, -0.014270126819610596, -0.09683191031217575, -0.18207988142967224, -0.16501855850219727, -0.019049525260925293, -0.08739522099494934, -0.009204193949699402, -0.1857321709394455, 0.15317146480083466, 0.14090238511562347, -0.07693713903427124, -0.05091872811317444, 0.158954456448555, -0.02440483868122101, 0.09293799102306366, 0.011231929063796997, -0.17239370942115784, -0.12235429137945175, -0.014640331268310547, -0.18440048396587372, 0.055610284209251404, 0.08153362572193146, 0.06370304524898529, -0.07705967128276825, 0.088895782828331, -0.08110374957323074, 0.15193553268909454, 0.024878665804862976, -0.0022248029708862305, -0.03610415756702423, 0.17298711836338043, -0.03787875175476074, 0.07742320001125336, -0.17102350294589996, 0.15501435101032257, -0.17287784814834595, -0.03310529887676239, -0.09343548119068146, -0.07813583314418793, 0.17095176875591278, -0.15998958051204681, -0.11714848130941391, 0.09999532997608185, -0.03518474102020264, 0.03894902765750885, -0.04068507254123688, -0.012708678841590881, -0.1407170593738556, 0.07099540531635284, 0.07351471483707428, -0.04397262632846832, -0.020274147391319275, 0.11074601113796234, -0.02381753921508789, 0.054529234766960144, 0.10854820907115936, 0.06929902732372284, -0.0846676379442215, -0.14657273888587952, 0.03716236352920532, -0.1404174268245697, -0.08917447179555893, 0.06396456062793732, 0.17937539517879486, -0.07323551177978516]}, "bias": {"shape": [7], "values": [0.14553488790988922, 0.07619933784008026, 0.08851327002048492, 0.011387720704078674, 0.05765746533870697, -0.12220749258995056, 0.08368338644504547]}}, "bn1": {"weight": {"shape": [7], "values": [1.0, 1.0, 1.0, 1.0, 1.0, 1.0, 1.0]}, "bias": {"shape": [7], "values": [0.0, 0.0, 0.0, 0.0, 0.0, 0.0, 0.0]}, "running_mean": {"shape": [7], "values": [0.0, 0.0, 0.0, 0.0, 0.0, 0.0, 0.0]}, "running_var": {"shape": [7], "values": [1.0, 1.0, 1.0, 1.0, 1.0, 1.0, 1.0]}}, "bn2": {"weight": {"shape": [7], "values": [1.0, 1.0, 1.0, 1.0, 1.0, 1.0, 1.0]}, "bias": {"shape": [7], "values": [0.0, 0.0, 0.0, 0.0, 0.0, 0.0, 0.0]}, "running_mean": {"shape": [7], "values": [0.0, 0.0, 0.0, 0.0, 0.0, 0.0, 0.0]}, "running_var": {"shape": [7], "values": [1.0, 1.0, 1.0, 1.0, 1.0, 1.0, 1.0]}}, "f1": {"weight": {"shape": [7], "values": [0.25, 0.25, 0.25, 0.25, 0.25, 0.25, 0.25]}}, "f2": {"weight": {"shape": [7], "values": [0.25, 0.25, 0.25, 0.25, 0.25, 0.25, 0.25]}}}, "block_stack.6": {"conv": {"weight": {"shape": [7, 7, 1], "values": [-0.13909517228603363, 0.1994151771068573, 0.11469656229019165, -0.0016249418258666992, 0.33462420105934143, 0.16436317563056946, -0.12440970540046692, 0.1697361171245575, 0.3024180829524994, 0.09385338425636292, 0.19153931736946106, -0.3492682874202728, -0.1768995076417923, 0.32710757851600647, 0.22834083437919617, 0.1519334614276886, 0.3352479636669159, -0.3475310802459717, 0.07129278779029846, -0.057216107845306396, -0.032656848430633545, 0.06685024499893188, 0.2438667118549347, 0.007467359304428101, 0.22326084971427917, -0.07989516854286194, 0.03348487615585327, -0.0757664144039154, -0.18666063249111176, 0.37086209654808044, -0.18131256103515625, 0.3762718737125397, -0.1407800316810608, 0.2753640115261078, 0.20528647303581238, 0.33278688788414, -0.3001749813556671, 0.25514575839042664, -0.030092954635620117, -0.08956384658813477, 0.2037878930568695, 0.16946342587471008, 0.14547958970069885, 0.3480388820171356, -0.2158755511045456, 0.11680957674980164, -0.027852773666381836, -0.3187829852104187, 0.0721907913684845]}, "bias": {"shape": [7], "values": [-0.18616802990436554, -0.14917831122875214, 0.10194948315620422, -0.3008146286010742, -0.010954499244689941, 0.08031964302062988, -0.09820812940597534]}}, "conv1": {"weight": {"shape": [7, 7, 4], "values": [-0.17430879175662994, 0.004449933767318726, -0.14975900948047638, 0.0016138255596160889, -0.005996987223625183, -0.005677506327629089, 0.12390105426311493, -0.03348162770271301, -0.11435186862945557, -0.1510867178440094, 0.12701506912708282, -0.04961307346820831, 0.10719497501850128, 0.16148240864276886, -0.1734391450881958, 0.1836300641298294, 0.13249607384204865, -0.09241131693124771, 0.11108444631099701, 0.1255965679883957, -0.06416624039411545, -0.16481387615203857, 0.06931035220623016, -0.13177572190761566, 0.020130842924118042, -0.027633681893348694, 0.12110863626003265, -0.08859418332576752, 0.04120340943336487, -0.15582172572612762, 0.1667756587266922, -0.16311544179916382, 0.07605855166912079, -0.062237873673439026, 0.1866130381822586, 0.17749349772930145, 0.18664248287677765, 0.017531678080558777, -0.006422251462936401, 0.034840479493141174, 0.060522109270095825, -0.01619638502597809, 0.15499205887317657, -0.1778806895017624, 0.08622123301029205, -0.025352641940116882, -0.11577226966619492, 0.12153328955173492, 0.07139955461025238, 0.17409642040729523, -0.02369016408920288, -0.09381598234176636, -0.15344512462615967, 0.12604953348636627, 0.09955023229122162, -0.04706481099128723, 0.08657966554164886, 0.1655525416135788, 0.09958197176456451, 0.14350758492946625, -0.0751560851931572, 0.01354837417602539, -0.10292886942625046, -0.14625141024589539, 0.11140380799770355, -0.06773726642131805, -0.07523903250694275, 0.18120665848255157, 0.08033044636249542, 0.0546746551990509, 0.04795520007610321, 0.16444151103496552, 0.0016146302223205566, -0.17450378835201263, 0.050920307636260986, -0.1476168930530548, 0.15750007331371307, -0.0395786315202713, -0.15520721673965454, -0.1822933852672577, -0.10844799876213074, 0.14480505883693695, -0.15853214263916016, 0.12728746235370636, -0.09273151308298111, -0.08537466824054718, -0.16908201575279236, -0.055464968085289, 0.01543433964252472, 0.18636099994182587, 0.11547808349132538, -0.05705761909484863, 0.09507031738758087, 0.183332160115242, -0.09145919233560562, -0.18697573244571686, -0.004774153232574463, 0.019341155886650085, 0.18332146108150482, -0.10584443807601929, -0.14923492074012756, -0.08837173879146576, 0.05532962083816528, 0.05175144970417023, -0.14399132132530212, 0.18417589366436005, 0.10962848365306854, -0.12707167863845825, -0.08664123713970184, 0.050579607486724854, -0.1581852287054062, -0.10373683273792267, 0.17592386901378632, 0.09946282207965851, -0.02555166184902191, -0.051519811153411865, 0.06131221354007721, -0.1321401596069336, -0.17912836372852325, 0.03382110595703125, 0.08027054369449615, 0.05339115858078003, -0.0002225339412689209, 0.14145056903362274, 0.1269088238477707, -0.05490498244762421, 0.17871083319187164, 0.16445086896419525, -0.021364331245422363, 0.003249138593673706, 0.1588965505361557, -0.07250716537237167, 0.17143411934375763, 0.1045488566160202, 0.03698846697807312, -0.05702333152294159, 0.14598937332630157, 0.04215210676193237, 0.06575806438922882, 0.07552231848239899, 0.1121903508901596, -0.061214908957481384, -0.1202128678560257, 0.012880921363830566, -0.09690701961517334, 0.09266899526119232, 0.1782349795103073, 0.15958203375339508, -0.07895714789628983, -0.06157797574996948, -0.04343193769454956, -0.04048001766204834, -0.02567419409751892, 0.05379246175289154, -0.15652984380722046, 0.0016408413648605347, -0.07983539998531342, -0.0886116698384285, -0.14291206002235413, -0.07226226478815079, 0.1293194442987442, 0.09411130845546722, 0.08599014580249786, 0.14203612506389618, 0.11267031729221344, 0.14421848952770233, -0.033861637115478516, 0.12508593499660492, 0.08139489591121674, 0.1476660519838333, -0.0047931671142578125, 0.07444398105144501, -0.019052281975746155, 0.08466275036334991, 0.046218305826187134, 0.17869965732097626, -0.04386228322982788, 0.16180314123630524, 0.16810907423496246, -0.09731580317020416, -0.18512137234210968, -0.11447377502918243, -0.15721364319324493, -0.11756521463394165, 0.02606736123561859, 0.002620488405227661, -0.17301324009895325, 0.02918793261051178, 0.16380251944065094, -0.03146098554134369, 0.12699611485004425, 0.02662721276283264, 0.15674887597560883, 0.061352089047431946, -0.01663386821746826, 0.15433292090892792]}, "bias": {"shape": [7], "values": [-0.09124447405338287, -0.18767312169075012, 0.1837691217660904, 0.1742662638425827, 0.1874784678220749, -0.14525911211967468, -0.15631422400474548]}}, "conv2": {"weight": {"shape": [7, 7, 4], "values": [0.10080386698246002, 0.11465169489383698, 0.18190301954746246, -0.1541970819234848, 0.11247400939464569, 0.12152709066867828, -0.011351063847541809, -0.07617531716823578, 0.09169767796993256, 0.03956252336502075, -0.18477573990821838, 0.16891814768314362, 0.06586228311061859, -0.032764747738838196, 0.1363692432641983, 0.15178801119327545, -0.15236040949821472, 0.16154815256595612, -0.1462719440460205, 0.025469139218330383, -0.160780668258667, 0.11595074832439423, -0.016391441226005554, 0.04625295102596283, -0.1656869351863861, -0.11766954511404037, -0.016261503100395203, -0.03078591823577881, 0.11406417191028595, -0.16775251924991608, 0.033365219831466675, 0.17513538897037506, 0.02237139642238617, 0.1584034413099289, 0.0865379124879837, -0.054834529757499695, -0.09103631228208542, 0.08564572036266327, -0.03554706275463104, -0.06484916806221008, -0.07556335628032684, 0.06225554645061493, 0.14805983006954193, -0.06044386327266693, -0.14585044980049133, -0.05319748818874359, 0.06607569754123688, -0.1371704787015915, -0.028872400522232056, -0.12408469617366791, 0.011575698852539062, -0.16283577680587769, -0.13353672623634338, 0.17691271007061005, -0.18635280430316925, -0.16130363941192627, 0.07228608429431915, 0.18030987679958344, 0.16154702007770538, 0.18898142874240875, 0.1487206071615219, -0.1066867932677269, 0.08254776895046234, 0.07694657146930695, 0.10273180902004242, 0.14051173627376556, -0.05922466516494751, -0.1472775638103485, -0.04247264564037323, -0.12225271016359329, 0.170278862118721, 0.13311715424060822, -0.03268688917160034, 0.0196513831615448, 0.16191808879375458, 0.10907529294490814, 0.14291881024837494, -0.030751273036003113, -0.1625523716211319, 0.0015473216772079468, 0.09244491159915924, 0.055410221219062805, -0.027562648057937622, -0.10610425472259521, 0.07244883477687836, -0.1667376160621643, -0.17579694092273712, -0.1838984489440918, -0.15504859387874603, 0.03884172439575195, 0.17636872828006744, -0.06863680481910706, -0.1830131858587265, 0.07299946248531342, 0.003971874713897705, -0.04966224730014801, 0.1846328228712082, 0.10505194962024689, 0.030556604266166687, 0.16222600638866425, 0.1622353345155716, 0.07403193414211273, 0.001904502511024475, 0.1804199367761612, 0.10799877345561981, -0.08605673909187317, 0.12625451385974884, -0.08648863434791565, -0.0022557973861694336, 0.06691943109035492, 0.1565426141023636, -0.10440532118082047, -0.1334230899810791, 0.17040200531482697, -0.061678946018218994, 0.050801441073417664, 0.16847683489322662, -0.08834882825613022, -0.15127259492874146, -0.02283315360546112, 0.08766765892505646, -0.17707687616348267, -0.18178509175777435, -0.023092642426490784, 0.14100287854671478, 0.078314408659935, 0.03293353319168091, -0.14881351590156555, -0.16841354966163635, -0.18799613416194916, -0.12437094748020172, 0.09337000548839569, -0.1871097832918167, 0.01782912015914917, -0.03902754187583923, 0.17310605943202972, -0.17958080768585205, 0.04953658580780029, 0.04612824320793152, 0.15995649993419647, 0.13198404014110565, -0.1348327398300171, 0.11824862658977509, 0.004853576421737671, 0.1779576987028122, 0.017234280705451965, 0.058242812752723694, 0.06375490128993988, 0.07500903308391571, -0.17142514884471893, 0.09611435234546661, 0.03235173225402832, -0.031795427203178406, -0.1839287281036377, 0.13182403147220612, 0.18280552327632904, 0.13972704112529755, 0.09153874218463898, 0.13280965387821198, 0.10686202347278595, 0.054631322622299194, -0.03394702076911926, -0.06567039340734482, -0.09159538149833679, -0.11852573603391647, 0.05199572443962097, -0.18399910628795624, 0.17275331914424896, 0.11690784990787506, 0.10511846840381622, 0.09516702592372894, -0.051746293902397156, 0.16650308668613434, 0.0572953075170517, -0.0364278107881546, 0.0732438713312149, -0.09794420748949051, -0.03452908992767334, -0.16487011313438416, 0.06803514063358307, -0.029966160655021667, 0.11156584322452545, 0.16025330126285553, 0.146208718419075, 0.13875870406627655, 0.12197379767894745, -0.08876580744981766, -0.115215003490448, -0.07177997380495071, -0.006303861737251282, -0.14540162682533264, -0.07400690764188766, 0.17593242228031158, -0.1352718472480774, -0.03945028781890869, 0.18738044798374176]}, "bias": {"shape": [7], "values": [0.1482561081647873, -0.0885225236415863, 0.17907606065273285, 0.08781461417675018, -0.07223295420408249, 0.12655173242092133, 0.048091426491737366]}}, "bn1": {"weight": {"shape": [7], "values": [1.0, 1.0, 1.0, 1.0, 1.0, 1.0, 1.0]}, "bias": {"shape": [7], "values": [0.0, 0.0, 0.0, 0.0, 0.0, 0.0, 0.0]}, "running_mean": {"shape": [7], "values": [0.0, 0.0, 0.0, 0.0, 0.0, 0.0, 0.0]}, "running_var": {"shape": [7], "values": [1.0, 1.0, 1.0, 1.0, 1.0, 1.0, 1.0]}}, "bn2": {"weight": {"shape": [7], "values": [1.0, 1.0, 1.0, 1.0, 1.0, 1.0, 1.0]}, "bias": {"shape": [7], "values": [0.0, 0.0, 0.0, 0.0, 0.0, 0.0, 0.0]}, "running_mean": {"shape": [7], "values": [0.0, 0.0, 0.0, 0.0, 0.0, 0.0, 0.0]}, "running_var": {"shape": [7], "values": [1.0, 1.0, 1.0, 1.0, 1.0, 1.0, 1.0]}}, "f1": {"weight": {"shape": [7], "values": [0.25, 0.25, 0.25, 0.25, 0.25, 0.25, 0.25]}}, "f2": {"weight": {"shape": [7], "values": [0.25, 0.25, 0.25, 0.25, 0.25, 0.25, 0.25]}}}, "block_stack.7": {"conv": {"weight": {"shape": [7, 7, 1], "values": [-0.3346289396286011, -0.2519795000553131, -0.1023620069026947, 0.1281934678554535, 0.3402145206928253, 0.050501465797424316, -0.29128074645996094, -0.31722307205200195, -0.2516293525695801, 0.1592068374156952, -0.04138612747192383, -0.04835084080696106, 0.1890292465686798, -0.10817903280258179, 0.24378088116645813, -0.07066234946250916, -0.1892336905002594, 0.351235955953598, -0.3490622937679291, 0.15181294083595276, 0.3118620812892914, -0.1044389009475708, -0.09680676460266113, -0.0495373010635376, -0.15491852164268494, 0.15514060854911804, 0.08889919519424438, 0.11627224087715149, -0.04142138361930847, 0.2939906418323517, 0.20088151097297668, -0.26517021656036377, -0.11902043223381042, 0.3420853316783905, -0.13162356615066528, -0.035155534744262695, 0.12112131714820862, 0.3573097884654999, 0.1404303014278412, 0.14751604199409485, 0.31813666224479675, -0.29214075207710266, -0.34220436215400696, 0.3210439383983612, -0.37592658400535583, -0.09138169884681702, -0.3106718957424164, -0.36134064197540283, -0.29511868953704834]}, "bias": {"shape": [7], "values": [0.33116844296455383, -0.13533075153827667, 0.0920788049697876, 0.3504236042499542, -0.36706340312957764, 0.15862789750099182, 0.285099059343338]}}, "conv1": {"weight": {"shape": [7, 7, 4], "values": [-0.03555436432361603, 0.04498220980167389, -0.09695430845022202, 0.028865963220596313, 0.04983207583427429, 0.14742280542850494, 0.17908291518688202, 0.03935463726520538, -0.046924009919166565, -0.09455282241106033, 0.02885057032108307, -0.15554341673851013, -0.019158020615577698, -0.14328593015670776, 0.09216035902500153, 0.12135706841945648, 0.13783369958400726, -0.1198713630437851, 0.039512693881988525, 0.09807215631008148, -0.17114457488059998, -0.1474403440952301, -0.13429607450962067, -0.07860160619020462, -0.06385363638401031, -0.08538758009672165, 0.0662328451871872, 0.1166965514421463, 0.007798284292221069, 0.16980166733264923, 0.09240780770778656, -0.007617473602294922, 0.12821419537067413, 0.13818712532520294, 0.01707284152507782, -0.09787777066230774, 0.12594349682331085, 0.17540527880191803, 0.05063126981258392, 0.011496394872665405, 0.10770229995250702, 0.08730016648769379, -0.16873951256275177, 0.04476939141750336, 0.11920593678951263, 0.13214562833309174, -0.17027871310710907, 0.11360891163349152, -0.11231532692909241, -0.014278769493103027, 0.009235084056854248, 0.028265297412872314, -0.16694338619709015, -0.0507839173078537, 0.07773305475711823, 0.07001419365406036, -0.08417070657014847, 0.0421706885099411, -0.07147656381130219, -0.06725206971168518, -0.11949793249368668, 0.12460021674633026, -0.14519648253917694, -0.050610050559043884, -0.03210717439651489, -0.08691158145666122, -0.13231253623962402, -0.12614260613918304, 0.14216585457324982, 0.07667385041713715, -0.06690022349357605, 0.017811954021453857, 0.011973142623901367, 0.10457490384578705, -0.032470703125, -0.07474423944950104, -0.12415485084056854, 0.12590043246746063, -0.017462149262428284, 0.1650954931974411, 0.12135417759418488, -0.12686099112033844, -0.14551791548728943, -0.13132824003696442, -0.02613043785095215, 0.11259983479976654, 0.07614175975322723, -0.08026740700006485, 0.11274026334285736, 0.002485141158103943, 0.03494054079055786, 0.13353915512561798, 0.17400531470775604, -0.011404097080230713, 0.04915621876716614, -0.1460835337638855, 0.08913765847682953, -0.06019219756126404, -0.04176412522792816, 0.03252539038658142, 0.06947843730449677, -0.16203773021697998, -0.0636359453201294, -0.13998594880104065, 0.1736658364534378, -0.04239353537559509, 0.09080030024051666, -0.07758118212223053, -0.16265270113945007, 0.0012450367212295532, -0.12585565447807312, -0.0702919214963913, -0.03078565001487732, 0.07967381179332733, 0.1041247695684433, 0.10140545666217804, -0.034992679953575134, 0.1432432383298874, 0.10660381615161896, -0.06594819575548172, 0.032844215631484985, 0.03188703954219818, 0.06903336942195892, 0.15702344477176666, -0.1255100667476654, -0.1399432271718979, -0.08372398465871811, -0.05295024812221527, -0.04304787516593933, 0.15541602671146393, -0.0791710838675499, -0.005741894245147705, 0.1723075956106186, 0.1351516991853714, 0.010965719819068909, -0.12024254351854324, 0.0597781240940094, 0.1717931181192398, -0.05193968117237091, -0.04361483454704285, -0.1773904711008072, -0.04642385244369507, 0.05384661257266998, -0.18067005276679993, -0.18597553670406342, 0.16368018090724945, 0.06937403976917267, -0.15432122349739075, 0.14139889180660248, -0.028513208031654358, 0.017943263053894043, -0.17106914520263672, -0.012266755104064941, 0.07551364600658417, -0.10397212207317352, -0.12403599172830582, 0.01353447139263153, -0.16118526458740234, 0.05688636004924774, 0.09490235149860382, -0.11678620427846909, 0.00797872245311737, 0.08795855939388275, -0.07905221730470657, -0.007814198732376099, 0.0390138179063797, -0.15080034732818604, 0.008916124701499939, 0.17873261868953705, -0.10448441654443741, 0.0443749874830246, 0.1391180008649826, 0.05073392391204834, -0.14474794268608093, 0.07372690737247467, -0.13379204273223877, 0.17083020508289337, -0.18217332661151886, -0.055358946323394775, -0.02062372863292694, 0.17191345989704132, 0.005566149950027466, -0.08390960097312927, 0.17784564197063446, -0.11353185772895813, 0.03936876356601715, -0.03617241978645325, -0.04295623302459717, 0.008094146847724915, -0.07413072884082794, 0.05858834087848663, 0.10569627583026886, 0.12835775315761566, -0.11557243764400482, 0.16567842662334442, -0.01650969684123993]}, "bias": {"shape": [7], "values": [-0.061699673533439636, 0.11390648782253265, -0.09001872688531876, 0.16194577515125275, -0.024328887462615967, -0.004682064056396484, 0.022205203771591187]}}, "conv2": {"weight": {"shape": [7, 7, 4], "values": [-0.015196487307548523, -0.1686205416917801, 0.17026422917842865, 0.1089000254869461, -0.1715421825647354, -0.15918125212192535, 0.10047368705272675, -0.1601918339729309, 0.08824412524700165, -0.17625533044338226, -0.07870415598154068, 0.13373301923274994, -0.18828119337558746, -0.18834684789180756, -0.11332732439041138, -0.13495825231075287, 0.01358000934123993, -0.17319460213184357, -0.07214444130659103, 0.15468867123126984, -0.04400216042995453, -0.11818285286426544, 0.12238703668117523, 0.012470915913581848, 0.07480467855930328, 0.14964966475963593, -0.17817552387714386, 0.10696394741535187, -0.08408349752426147, 0.07523427903652191, 0.12514226138591766, -0.16892609000205994, 0.04793733358383179, 0.03397558629512787, -0.05978637933731079, 0.09797270596027374, -0.04317963123321533, -0.004737049341201782, -0.14629915356636047, 0.01604349911212921, 0.1024838536977768, -0.06976281851530075, -0.023595750331878662, -0.07819505780935287, -0.10228052735328674, -0.09467758238315582, 0.0022401660680770874, -0.004155188798904419, -0.06180417537689209, 0.15338470041751862, 0.009569048881530762, 0.07969801127910614, 0.16393493115901947, -0.04091222584247589, -0.1589321792125702, -0.165291890501976, -0.08875463157892227, -0.15598474442958832, -0.03401041030883789, 0.025096610188484192, 0.15246517956256866, 0.09054549038410187, -0.07390717417001724, 0.12352736294269562, -0.1384427547454834, 0.008499756455421448, 0.1224643737077713, 0.15197016298770905, -0.03384949266910553, 0.13489572703838348, 0.10937072336673737, -0.020188748836517334, 0.11176033318042755, -0.12144161760807037, 0.18521000444889069, -0.15736228227615356, 0.027470663189888, -0.06404174864292145, 0.10987333953380585, -0.048788055777549744, 0.10877256095409393, -0.1543726921081543, -0.17053423821926117, -0.03492899239063263, 0.18037395179271698, -0.1258394420146942, 0.06820003688335419, 0.05729788541793823, -0.1361626386642456, -0.057191282510757446, -0.020283550024032593, -0.13666564226150513, 0.118776336312294, 0.11021746695041656, -0.023704782128334045, -0.017694979906082153, 0.1473373919725418, -0.05424430966377258, 0.024482175707817078, 0.11195792257785797, 0.011265769600868225, 0.03148879110813141, 0.1002020388841629, 0.0008092224597930908, 0.07799653708934784, -0.08669785410165787, 0.013789787888526917, -0.10135634243488312, -0.0405636727809906, -0.11943480372428894, 0.13283230364322662, 0.14614464342594147, 0.18470929563045502, -0.10138031095266342, -0.13556146621704102, 0.041053637862205505, -0.0865807980298996, 0.12849758565425873, 0.10706274211406708, 0.01986256241798401, 0.05907827615737915, -0.17717663943767548, -0.0651387944817543, 0.13038469851016998, -0.1449226438999176, 0.14813698828220367, -0.1381855309009552, 0.08068381249904633, 0.1741112917661667, -0.17951317131519318, -0.15892711281776428, 0.03783129155635834, -0.03633938729763031, 0.14713062345981598, 0.1566227525472641, 0.15692566335201263, 0.13154946267604828, 0.1267269104719162, -0.041176244616508484, 0.04528325796127319, -0.1441470831632614, 0.00018574297428131104, -0.04229938983917236, 0.14339061081409454, 0.1415334790945053, 0.1418296843767166, 0.13338910043239594, 0.10121215879917145, -0.1733388751745224, -0.10533873736858368, -0.16324448585510254, -0.07446890324354172, 0.08907420933246613, 0.05255886912345886, -0.019021913409233093, 0.13443709909915924, 0.0036941468715667725, 0.14099128544330597, -0.06299842894077301, 0.14741487801074982, -0.09330914169549942, -0.1260720193386078, 0.039319202303886414, -0.12418314814567566, -0.03490842878818512, -0.1532287299633026, 0.03256236016750336, -0.01103721559047699, 0.11181773245334625, -0.08831828087568283, -0.030461221933364868, -0.02193497121334076, -0.14320485293865204, 0.024329766631126404, 0.01934744417667389, 0.062126681208610535, 0.12823452055454254, -0.09839842468500137, -0.043776318430900574, -0.12407645583152771, -0.061640799045562744, -0.10162752121686935, 0.0017376691102981567, 0.0871260017156601, -0.17833596467971802, -0.02820873260498047, 0.05621296167373657, -0.16164399683475494, -0.1071973592042923, 0.04880833625793457, 0.11889003217220306, 0.08552895486354828, -0.17868013679981232, -0.18065135180950165, -0.08285639435052872, -0.13929104804992676]}, "bias": {"shape": [7], "values": [0.015089616179466248, -0.15470963716506958, -0.0016270875930786133, 0.021067515015602112, 0.15037201344966888, -0.03479216992855072, 0.10201959311962128]}}, "bn1": {"weight": {"shape": [7], "values": [1.0, 1.0, 1.0, 1.0, 1.0, 1.0, 1.0]}, "bias": {"shape": [7], "values": [0.0, 0.0, 0.0, 0.0, 0.0, 0.0, 0.0]}, "running_mean": {"shape": [7], "values": [0.0, 0.0, 0.0, 0.0, 0.0, 0.0, 0.0]}, "running_var": {"shape": [7], "values": [1.0, 1.0, 1.0, 1.0, 1.0, 1.0, 1.0]}}, "bn2": {"weight": {"shape": [7], "values": [1.0, 1.0, 1.0, 1.0, 1.0, 1.0, 1.0]}, "bias": {"shape": [7], "values": [0.0, 0.0, 0.0, 0.0, 0.0, 0.0, 0.0]}, "running_mean": {"shape": [7], "values": [0.0, 0.0, 0.0, 0.0, 0.0, 0.0, 0.0]}, "running_var": {"shape": [7], "values": [1.0, 1.0, 1.0, 1.0, 1.0, 1.0, 1.0]}}, "f1": {"weight": {"shape": [7], "values": [0.25, 0.25, 0.25, 0.25, 0.25, 0.25, 0.25]}}, "f2": {"weight": {"shape": [7], "values": [0.25, 0.25, 0.25, 0.25, 0.25, 0.25, 0.25]}}}}}