{"conv": {"weight": {"shape": [11, 7, 1], "values": [0.1601087749004364, -0.36704006791114807, -0.07363912463188171, -0.05701261758804321, 0.23000052571296692, 0.24108853936195374, 0.03570637106895447, -0.31619781255722046, -0.1188654899597168, 0.2586134374141693, -0.31417858600616455, 0.3328203856945038, 0.26780155301094055, -0.10362184047698975, 0.34757187962532043, 0.26895561814308167, 0.01087886095046997, 0.19448253512382507, 0.12525466084480286, -0.05420085787773132, -0.183200404047966, -0.22600623965263367, -0.29758286476135254, -0.2926616072654724, -0.09071183204650879, 0.03747650980949402, -0.29264652729034424, 0.061872005462646484, 0.23216232657432556, 0.06448259949684143, -0.31717148423194885, 0.12997791171073914, 0.34654560685157776, -0.022766977548599243, -0.10484969615936279, 0.14372840523719788, 0.37457075715065, -0.16957785189151764, 0.09878110885620117, 0.13762524724006653, 0.27511849999427795, 0.29963383078575134, -0.10689428448677063, -0.2571684718132019, -0.150825634598732, 0.34258297085762024, -0.2585390508174896, 0.3695829212665558, -0.1590665876865387, 0.1883157193660736, -0.13464170694351196, -0.006213843822479248, -0.35753607749938965, -0.3515301048755646, 0.3513946235179901, 0.37257078289985657, -0.08578449487686157, 0.32772156596183777, 0.06935036182403564, -0.0948340892791748, 0.339437335729599, 0.2150646150112152, 0.18608275055885315, 0.27737781405448914, 0.19789502024650574, -0.2954070568084717, 0.17402693629264832, 0.25801339745521545, 0.32068851590156555, 0.17271003127098083, 0.3035874664783478, -0.03911307454109192, -0.03725099563598633, 0.32019171118736267, 0.3206354081630707, -0.006019681692123413, 0.32867613434791565]}, "bias": {"shape": [11], "values": [0.2293122112751007, 0.16901609301567078, 0.05341547727584839, 0.35951802134513855, -0.02276402711868286, 0.3046663701534271, 0.2933253347873688, -0.2935424745082855, -0.2949744760990143, 0.28797653317451477, 0.3164841830730438]}}, "conv1": {"weight": {"shape": [11, 7, 3], "values": [0.2025497704744339, 0.054083988070487976, 0.06838338077068329, 0.03253157436847687, 0.02378116548061371, -0.13982684910297394, -0.18991301953792572, 0.06841357052326202, -0.04425226151943207, -0.09485247731208801, -0.14726522564888, -0.1272849142551422, -0.004159674048423767, 0.10010810196399689, 0.15744535624980927, -0.20755702257156372, -0.01848742365837097, 0.10248570144176483, 0.053412094712257385, 0.09744946658611298, 0.03628315031528473, 0.05864273011684418, 0.007532075047492981, 0.11643059551715851, 0.013213351368904114, 0.19086132943630219, -0.04062686860561371, -0.07017359137535095, -0.036418214440345764, 0.106980100274086, -0.09513631463050842, 0.1469331532716751, -0.13221126794815063, -0.13776752352714539, -0.01485416293144226, -0.04161293804645538, -0.1589844524860382, -0.2073923945426941, -0.1836320012807846, -0.17390123009681702, 0.18582366406917572, -0.15216010808944702, 0.06526626646518707, -5.644559860229492e-05, -0.11264318227767944, 0.003838568925857544, -0.05078481137752533, 0.16576434671878815, -0.16568070650100708, -0.037848278880119324, -0.17327125370502472, 0.13319812715053558, 0.025045379996299744, 0.15234066545963287, -0.1896861493587494, 0.1223834902048111, 0.012439131736755371, -0.11890134960412979, 0.15747307240962982, -0.1522875428199768, 0.21287615597248077, -0.06548954546451569, 0.19749607145786285, -0.15662619471549988, 0.1676662117242813, -0.10257404297590256, -0.0944599062204361, -0.08315052092075348, -0.1907164454460144, -0.0031139105558395386, 0.0011022686958312988, -0.02984537184238434, -0.11840774118900299, 0.0690288096666336, 0.003917619585990906, -0.16617229580879211, -0.1111270859837532, 0.19037432968616486, -0.05635416507720947, -0.17808252573013306, 0.06923289597034454, 0.051874592900276184, -0.18570755422115326, -0.14740221202373505, 0.15150107443332672, -0.1436159610748291, 0.18532638251781464, -0.1622338891029358, -0.21468712389469147, 0.15338121354579926, 0.015882134437561035, -0.15052443742752075, 0.049575015902519226, -0.08952130377292633, -0.05473063886165619, -0.2119019478559494, -0.02337467670440674, -0.010834142565727234, -0.08801126480102539, 0.023955658078193665, -0.2148362249135971, -0.19834573566913605, -0.05713900923728943, -0.05732676386833191, 0.20444397628307343, -0.130937397480011, 0.06825850903987885, 0.06898672878742218, 0.19561265408992767, -0.0168287456035614, -0.024995550513267517, 0.189391627907753, 0.197737917304039, 0.009218931198120117, -0.12950676679611206, -0.088319793343544, 0.05659617483615875, -0.020608708262443542, 0.19550098478794098, -0.07734979689121246, 0.17722438275814056, 0.07203932106494904, 0.1418665200471878, -0.07079476118087769, -0.132008358836174, 0.11914633214473724, 0.10021857917308807, 0.09592361748218536, -0.08896614611148834, -0.009166911244392395, -0.044810667634010315, -0.0722520649433136, 0.09278328716754913, 0.10285340249538422, 0.20291171967983246, -0.11209777742624283, -0.21299950778484344, 0.17200835049152374, 0.17834995687007904, -0.19990292191505432, -0.20942676067352295, -0.1475975215435028, 0.19710229337215424, 0.19378043711185455, 0.0673084706068039, -0.0373242050409317, 0.14329893887043, 0.06411872804164886, -0.01570284366607666, 0.15641354024410248, -0.09967126697301865, -0.06531819701194763, 0.055999502539634705, -0.16496479511260986, 0.05131901800632477, 0.12624584138393402, -0.16669504344463348, 0.17855925858020782, 0.04923216998577118, 0.15291045606136322, -0.12724289298057556, -0.04405483603477478, 0.0635453313589096, 0.06734003126621246, -0.1424616575241089, -0.17673584818840027, -0.17285826802253723, -0.16984997689723969, 0.1467999368906021, 0.16924743354320526, 0.18893711268901825, -0.0257919579744339, -0.13958150148391724, 0.04843808710575104, 0.2014324814081192, 0.01094113290309906, 0.16910679638385773, -0.08305759727954865, 0.17788879573345184, -0.07781478762626648, 0.14912496507167816, 0.1429438441991806, 0.18718762695789337, -0.15293876826763153, 0.18170295655727386, -0.19893775880336761, 0.017583578824996948, -0.08091205358505249, 0.1416262835264206, -0.005909666419029236, -0.10855532437562943, -0.1524525284767151, -0.1530006229877472, -0.16863787174224854, 0.02969774603843689, 0.12543047964572906, 0.21111874282360077, -0.20292535424232483, 0.0824490636587143, 0.15303637087345123, -0.039705753326416016, -0.17244291305541992, -0.01967047154903412, 0.007514521479606628, -0.1481756865978241, 0.09118588268756866, -0.03506849706172943, 0.204311802983284, -0.165487602353096, 0.12260286509990692, -0.10717366635799408, -0.15887103974819183, -0.029635652899742126, -0.20530836284160614, -0.1072898656129837, -0.0006033033132553101, 0.1869947761297226, 0.19836141169071198, 0.1952369064092636, 0.159255251288414, 0.07917644083499908, 0.034469619393348694, -0.10489245504140854, -0.06919831037521362, -0.17162483930587769, -0.03835543990135193, -0.1120779812335968, -0.20625847578048706, -0.0606859028339386, 0.19454960525035858, -0.07278990745544434]}, "bias": {"shape": [11], "values": [-0.0009615719318389893, 0.03723250329494476, -0.1159345805644989, -0.05749380588531494, 0.022518619894981384, 0.0748099833726883, 0.06560264527797699, -0.05938878655433655, -0.058398276567459106, -0.009999111294746399, 0.051435455679893494]}}, "conv2": {"weight": {"shape": [11, 11, 3], "values": [-0.014139696955680847, 0.0706566870212555, -0.09834019094705582, -0.036497801542282104, 0.08829173445701599, 0.03934016823768616, -0.13231161236763, -0.09999088197946548, 0.06258875131607056, 0.10997539758682251, -0.14774148166179657, -0.06884652376174927, -0.16473494470119476, 0.0259818434715271, 0.10981649160385132, 0.11175698041915894, 0.0340682715177536, -0.12987294793128967, 0.1252066195011139, -0.026311010122299194, 0.04135872423648834, -0.0037398487329483032, -0.10808839648962021, -0.0849965363740921, 0.08306559920310974, 0.019228443503379822, -0.10099536925554276, -0.005112200975418091, 0.09307214617729187, 0.1356087625026703, -0.09216314554214478, -0.014614015817642212, 0.11541798710823059, 0.01727701723575592, 0.10760685801506042, 0.09125491976737976, -0.1708187609910965, 0.0823671817779541, -0.0597052201628685, -0.04572144150733948, -0.14674118161201477, 0.0856543481349945, 0.05634835362434387, -0.1281108260154724, 0.10357114672660828, 0.09927219152450562, 0.1454198956489563, -0.10212237387895584, -0.12398052215576172, -0.04598239064216614, 0.006431400775909424, 0.09143605828285217, -0.14272387325763702, 0.06367406249046326, 0.05372263491153717, 0.16183558106422424, 0.1677950918674469, 0.0089663565158844, 0.14050978422164917, -0.16497398912906647, 0.1712024211883545, -0.07869680225849152, -0.04694414138793945, 0.059952497482299805, 0.07236313819885254, -0.05578518658876419, -0.02894599735736847, 0.01808944344520569, -0.04085005819797516, 0.14803922176361084, -0.021460264921188354, -0.1279992312192917, -0.06898190826177597, 0.14963263273239136, -0.03207355737686157, -0.07419190555810928, -0.06949774920940399, -0.010329380631446838, -0.1252053678035736, -0.0514431893825531, -0.1563674360513687, -0.11473679542541504, 0.1435425579547882, -0.16013923287391663, -0.10638700425624847, -0.06653264909982681, -0.13773581385612488, -0.012930035591125488, 0.00923900306224823, 0.11578163504600525, -0.0633406862616539, -0.1391201913356781, 0.1644299328327179, -0.03845478594303131, -0.09110402315855026, -0.11849452555179596, -0.11170796304941177, 0.06751380860805511, -0.12290222942829132, -0.005376279354095459, 0.1490476131439209, 0.028089627623558044, 0.10846015810966492, 0.015493303537368774, 0.13536396622657776, 0.04572176933288574, 0.03027530014514923, 0.019553467631340027, 0.15938124060630798, -0.13363021612167358, -0.1704801321029663, 0.08600279688835144, 0.1465841829776764, 0.1268513798713684, 0.007449671626091003, -0.045456141233444214, 0.08869320154190063, -0.021695494651794434, -0.04787726700305939, 0.06425999104976654, 0.12497079372406006, 0.14259624481201172, 0.15557339787483215, -0.06548529118299484, 0.04084867238998413, -0.08190859854221344, -0.08485668897628784, -0.025340184569358826, 0.14184778928756714, 0.13498327136039734, 0.02284713089466095, -0.1541832983493805, 0.113726407289505, -0.06556283682584763, 0.002833455801010132, -0.1170089989900589, 0.04877413809299469, 0.094206303358078, -0.06701286137104034, 0.09478560090065002, 0.09487399458885193, -0.15530237555503845, 0.11268150806427002, -0.11424855142831802, 0.09444364905357361, -0.07991096377372742, 0.15414249897003174, 0.013643890619277954, -0.029208481311798096, 0.0851089358329773, 0.09194836020469666, -0.14600811898708344, -0.06903411448001862, 0.03949490189552307, -0.16495133936405182, -0.16013430058956146, 0.04137219488620758, -0.002470463514328003, -0.16145935654640198, -0.10041166841983795, 0.04782748222351074, -0.1430143117904663, -0.153127521276474, -0.17152178287506104, 0.1650213897228241, -0.11792688816785812, 0.09528577327728271, 0.00404435396194458, 0.0515722930431366, -0.15150892734527588, 0.1114683449268341, -0.102528877556324, -0.06752482801675797, -0.07086219638586044, -0.007576644420623779, 0.06779059767723083, -0.08527474850416183, -0.14556892216205597, -0.09664106369018555, -0.08031200617551804, -0.030126571655273438, 0.11782783269882202, -0.0971844494342804, -0.11027026921510696, -0.039346978068351746, -0.05013512820005417, -0.06152535229921341, -0.10106384754180908, 0.07572276890277863, 0.014149919152259827, 0.12090089917182922, 0.1592196822166443, -0.05871858447790146, 0.07664397358894348, -0.0642055794596672, -0.0016818791627883911, 0.1207636296749115, -0.09775885194540024, -0.11753910034894943, -0.004561319947242737, -0.1703353226184845, -0.02774009108543396, 0.1256931722164154, 0.03296428918838501, 0.06429821252822876, 0.15000435709953308, 0.15032169222831726, 0.033759117126464844, -0.09056493639945984, -0.09329977631568909, 0.10751742124557495, 0.07020026445388794, -0.14299321174621582, 0.11913320422172546, 0.019579023122787476, 0.059273794293403625, 0.15585187077522278, 0.09100079536437988, -0.06643538177013397, -0.012830466032028198, -0.1347656548023224, -0.025188714265823364, 0.08310166001319885, 0.0783100426197052, 0.16310438513755798, 0.07329966127872467, 0.017876431345939636, -0.1393243670463562, -0.024830356240272522, -0.1355055868625641, -0.14421996474266052, 0.034961193799972534, 0.10143110156059265, 0.040797725319862366, 0.061198726296424866, 0.13617470860481262, -0.004762172698974609, -0.025713562965393066, -0.11859291791915894, -0.10003224015235901, 0.15125590562820435, 0.06382553279399872, -0.10628393292427063, -0.014998257160186768, 0.16349533200263977, 0.05861908197402954, -0.13620224595069885, -0.05165695399045944, -0.1250486522912979, 0.05970703065395355, 0.01468755304813385, 0.048359185457229614, -0.054039210081100464, -0.05308084934949875, -0.051548026502132416, 0.058117806911468506, 0.14917603135108948, 0.0430498868227005, -0.10902275890111923, -0.14032261073589325, -0.0882115289568901, 0.09771904349327087, 0.16759851574897766, -0.11810772120952606, -0.13198721408843994, -0.07501576840877533, -0.1100599467754364, 0.1714649200439453, 0.12172859907150269, 0.15031683444976807, 0.0142621248960495, 0.004821881651878357, 0.03954841196537018, -0.07760854065418243, 0.15198743343353271, 0.15440011024475098, -0.04232753813266754, 0.12056493759155273, -0.06625989079475403, 0.13132688403129578, -0.009775280952453613, 0.02852635085582733, -0.004851385951042175, -0.07586222887039185, 0.040754690766334534, 0.040508776903152466, -0.10356651991605759, -0.1563759446144104, -0.16058772802352905, -0.056026533246040344, 0.00010880827903747559, -0.1697906106710434, -0.09266023337841034, -0.06907372921705246, 0.1314953863620758, -0.07398847490549088, -0.08952116221189499, -0.11205175518989563, 0.10062488913536072, -0.014503344893455505, 0.10674512386322021, -0.16563239693641663, -0.006881296634674072, 0.058503180742263794, 0.0607457309961319, 0.09007883071899414, 0.0898294448852539, 0.021520167589187622, -0.056453995406627655, 0.09596973657608032, 0.061606407165527344, -0.05343591421842575, 0.013684794306755066, -0.0821182131767273, 0.060788482427597046, -0.11672916263341904, 0.11910009384155273, -0.1260504573583603, 0.02659289538860321, -0.1439906805753708, 0.14688143134117126, -0.06000901013612747, -0.09372987598180771, 0.11495986580848694, -0.10645056515932083, -0.02905738353729248, 0.13200676441192627, 0.07824546098709106, 0.1721748411655426, -0.12869025766849518, -0.13537852466106415, -0.12295208871364594, 0.10944977402687073, -0.0794198289513588, 0.11703181266784668, -0.08141689002513885, 0.08634874224662781, 0.013462871313095093, 0.1441371738910675, -0.16706863045692444, -0.10975087434053421, -0.010457828640937805, -0.1488397866487503, -0.15434883534908295, 0.015663087368011475, 0.06996014714241028, -0.017551615834236145, -0.15328049659729004, -0.15136002004146576, -0.02509516477584839, 0.08759638667106628, -0.09762440621852875, -0.17351892590522766, -0.03804396092891693, 0.14156034588813782, 0.11765813827514648, -0.16401004791259766, -0.0867452323436737, -0.0670151486992836, -0.048453494906425476, -0.1402653455734253, -0.1337730586528778, -0.1693958193063736]}, "bias": {"shape": [11], "values": [0.13784191012382507, 0.051196709275245667, 0.1453976333141327, 0.1075747013092041, 0.16768407821655273, 0.03691732883453369, -0.1523226797580719, 0.12700104713439941, -0.07035448402166367, 0.07490204274654388, -0.059967897832393646]}}, "bn1": {"weight": {"shape": [11], "values": [1.0, 1.0, 1.0, 1.0, 1.0, 1.0, 1.0, 1.0, 1.0, 1.0, 1.0]}, "bias": {"shape": [11], "values": [0.0, 0.0, 0.0, 0.0, 0.0, 0.0, 0.0, 0.0, 0.0, 0.0, 0.0]}, "running_mean": {"shape": [11], "values": [0.0, 0.0, 0.0, 0.0, 0.0, 0.0, 0.0, 0.0, 0.0, 0.0, 0.0]}, "running_var": {"shape": [11], "values": [1.0, 1.0, 1.0, 1.0, 1.0, 1.0, 1.0, 1.0, 1.0, 1.0, 1.0]}}, "bn2": {"weight": {"shape": [11], "values": [1.0, 1.0, 1.0, 1.0, 1.0, 1.0, 1.0, 1.0, 1.0, 1.0, 1.0]}, "bias": {"shape": [11], "values": [0.0, 0.0, 0.0, 0.0, 0.0, 0.0, 0.0, 0.0, 0.0, 0.0, 0.0]}, "running_mean": {"shape": [11], "values": [0.0, 0.0, 0.0, 0.0, 0.0, 0.0, 0.0, 0.0, 0.0, 0.0, 0.0]}, "running_var": {"shape": [11], "values": [1.0, 1.0, 1.0, 1.0, 1.0, 1.0, 1.0, 1.0, 1.0, 1.0, 1.0]}}}